~o
<STREAMINFO> 1 9
<VECSIZE> 9<NULLD><USER><DIAGC>
~h "GA"
<BEGINHMM>
<NUMSTATES> 8
<STATE> 2
<NUMMIXES> 23
<MIXTURE> 1 3.825505e-002
<MEAN> 9
 -8.264128e+000 -1.009348e+001 1.411134e+000 6.505128e+001 9.644533e+001 1.262210e+002 8.067714e-002 3.732988e-001 1.704959e-001
<VARIANCE> 9
 3.366117e-001 3.371764e-001 8.114156e-001 2.977951e+001 3.680466e+001 2.985202e+002 4.762525e-004 5.782502e-004 1.938003e-004
<GCONST> 3.200479e+000
<MIXTURE> 2 5.110586e-002
<MEAN> 9
 -9.777108e+000 -6.933735e+000 -2.506024e+000 -3.756097e+001 3.402439e+001 2.647256e+002 2.822727e-001 3.159091e-001 1.770408e-001
<VARIANCE> 9
 1.491142e-001 3.371764e-001 6.976298e-002 3.426532e+001 3.680466e+001 1.210095e+002 5.373970e-004 5.782502e-004 1.938003e-004
<GCONST> -7.092824e-001
<MIXTURE> 3 5.110439e-002
<MEAN> 9
 -1.161446e+001 -9.150589e+000 4.638484e-001 -3.999974e+001 -6.070189e+001 2.259753e+002 2.663636e-001 3.568186e-001 1.551025e-001
<VARIANCE> 9
 2.560857e-001 3.371764e-001 6.976298e-002 2.977951e+001 3.680466e+001 1.210095e+002 4.762525e-004 5.782502e-004 1.938003e-004
<GCONST> -4.295855e-001
<MIXTURE> 4 2.555446e-002
<MEAN> 9
 -8.264977e+000 -1.145787e+001 1.036186e+000 3.164598e+001 3.993528e+001 2.068275e+002 9.908890e-002 3.663644e-001 1.602051e-001
<VARIANCE> 9
 1.491142e-001 3.371764e-001 6.976298e-002 2.977951e+001 3.680466e+001 1.210095e+002 4.762525e-004 5.782502e-004 1.938003e-004
<GCONST> -9.703841e-001
<MIXTURE> 5 2.555115e-002
<MEAN> 9
 -1.101205e+001 -9.626506e+000 -1.036145e+000 1.097561e+001 1.000000e+002 2.448171e+002 1.681818e-001 3.827273e-001 1.612245e-001
<VARIANCE> 9
 1.491142e-001 3.371764e-001 6.976298e-002 2.977951e+001 3.680466e+001 1.210095e+002 4.762525e-004 5.782502e-004 1.938003e-004
<GCONST> -9.703841e-001
<MIXTURE> 6 5.453862e-002
<MEAN> 9
 -7.424529e+000 -1.002301e+001 1.358110e-001 2.329559e+000 -3.845608e+000 1.266269e+002 5.858479e-002 3.692995e-001 1.477401e-001
<VARIANCE> 9
 4.663026e-001 3.371764e-001 1.255141e-001 2.977951e+001 3.680466e+001 1.210095e+002 4.762525e-004 5.782502e-004 1.938003e-004
<GCONST> 7.570524e-001
<MIXTURE> 7 3.834470e-002
<MEAN> 9
 -1.035990e+001 -5.836843e+000 -3.365820e+000 -2.110890e+001 5.211074e+001 2.252150e+002 3.155269e-001 3.073298e-001 1.585281e-001
<VARIANCE> 9
 1.491142e-001 7.001163e-001 6.976298e-002 8.413953e+001 3.680466e+001 1.210095e+002 5.576612e-004 5.782502e-004 1.938003e-004
<GCONST> 9.567156e-001
<MIXTURE> 8 2.555310e-002
<MEAN> 9
 -1.012048e+001 -6.951807e+000 -3.132530e-001 -7.628049e+001 -5.957317e+001 2.601829e+002 3.727273e-001 2.836364e-001 1.612245e-001
<VARIANCE> 9
 1.491142e-001 3.371764e-001 6.976298e-002 2.977951e+001 3.680466e+001 1.210095e+002 4.762525e-004 5.782502e-004 1.938003e-004
<GCONST> -9.703841e-001
<MIXTURE> 9 7.546742e-002
<MEAN> 9
 -1.040111e+001 -8.012690e+000 -2.439243e+000 1.709434e+001 6.700161e+001 2.104823e+002 2.324706e-001 3.339795e-001 1.461996e-001
<VARIANCE> 9
 1.491142e-001 3.397165e-001 6.976298e-002 1.150808e+002 3.680466e+001 1.210095e+002 5.240347e-004 5.782502e-004 1.938003e-004
<GCONST> 4.845438e-001
<MIXTURE> 10 3.831924e-002
<MEAN> 9
 -7.627762e+000 -1.099508e+001 1.910152e-001 1.628940e+001 -1.145940e+002 8.149031e+001 9.838671e-003 3.664134e-001 1.688637e-001
<VARIANCE> 9
 5.166942e-001 3.371764e-001 1.176839e-001 2.977951e+001 9.528872e+002 5.522933e+002 4.762525e-004 5.782502e-004 1.938003e-004
<GCONST> 5.567336e+000
<MIXTURE> 11 5.127690e-002
<MEAN> 9
 -9.667027e+000 -9.440687e+000 -3.061375e-001 5.241243e+001 8.616460e+001 1.692912e+002 1.299359e-001 3.758700e-001 1.550962e-001
<VARIANCE> 9
 1.491142e-001 3.371764e-001 6.976298e-002 2.977951e+001 8.146318e+001 1.210095e+002 5.177060e-004 5.782502e-004 1.938003e-004
<GCONST> -9.239864e-002
<MIXTURE> 12 5.112472e-002
<MEAN> 9
 -8.698858e+000 -9.391608e+000 9.454222e-001 -1.765145e+001 -7.615616e+001 1.756344e+002 1.458951e-001 3.718175e-001 1.535708e-001
<VARIANCE> 9
 1.677531e-001 3.371764e-001 6.976298e-002 2.977951e+001 3.680466e+001 1.210095e+002 4.762525e-004 5.782502e-004 1.938003e-004
<GCONST> -8.526053e-001
<MIXTURE> 13 5.110782e-002
<MEAN> 9
 -1.045787e+001 -8.927732e+000 4.156717e-001 -2.280578e+001 -7.509028e+001 2.005806e+002 2.077295e-001 3.713627e-001 1.576525e-001
<VARIANCE> 9
 1.491142e-001 3.371764e-001 6.976298e-002 3.080203e+001 3.680466e+001 1.210095e+002 4.762525e-004 5.782502e-004 1.938003e-004
<GCONST> -9.366241e-001
<MIXTURE> 14 5.109051e-002
<MEAN> 9
 -8.903572e+000 -9.632598e+000 -2.952784e-001 -1.005841e+001 -5.270402e+001 1.545087e+002 9.499294e-002 3.713641e-001 1.520405e-001
<VARIANCE> 9
 1.491142e-001 3.371764e-001 7.348198e-002 2.977951e+001 2.864325e+002 1.210095e+002 4.762525e-004 5.782502e-004 1.938003e-004
<GCONST> 1.133430e+000
<MIXTURE> 15 5.111045e-002
<MEAN> 9
 -9.813234e+000 -5.276989e+000 -3.518106e+000 -6.603459e+001 3.850626e+001 2.589604e+002 3.531840e-001 2.949956e-001 1.948962e-001
<VARIANCE> 9
 1.491142e-001 3.371764e-001 7.679471e-002 6.191074e+001 3.680466e+001 1.210095e+002 5.374002e-004 5.782502e-004 1.938003e-004
<GCONST> -2.168560e-002
<MIXTURE> 16 2.555296e-002
<MEAN> 9
 -1.181928e+001 -8.337349e+000 -2.506024e+000 -1.810976e+001 5.689024e+001 2.601829e+002 2.427273e-001 3.563636e-001 1.734694e-001
<VARIANCE> 9
 1.491142e-001 3.371764e-001 6.976298e-002 2.977951e+001 3.680466e+001 1.210095e+002 4.762525e-004 5.782502e-004 1.938003e-004
<GCONST> -9.703841e-001
<MIXTURE> 17 5.228331e-002
<MEAN> 9
 -1.121120e+001 -8.947099e+000 -1.737244e+000 1.736251e+001 7.683404e+001 2.226623e+002 1.824649e-001 3.513546e-001 1.495049e-001
<VARIANCE> 9
 1.914996e+000 3.371764e-001 4.242063e-001 5.065561e+002 1.353082e+002 1.018065e+003 4.762525e-004 5.782502e-004 1.938003e-004
<GCONST> 9.653026e+000
<MIXTURE> 18 2.555297e-002
<MEAN> 9
 -9.421687e+000 -1.054217e+001 -9.638554e-002 2.560976e+001 7.707317e+001 2.281098e+002 1.227273e-001 3.790909e-001 1.622449e-001
<VARIANCE> 9
 1.491142e-001 3.371764e-001 6.976298e-002 2.977951e+001 3.680466e+001 1.210095e+002 4.762525e-004 5.782502e-004 1.938003e-004
<GCONST> -9.703841e-001
<MIXTURE> 19 5.110445e-002
<MEAN> 9
 -6.728912e+000 -1.217470e+001 1.536138e+000 2.140232e+001 -5.783633e+001 1.586885e+002 5.136325e-002 3.781818e-001 1.749999e-001
<VARIANCE> 9
 1.491142e-001 3.371764e-001 6.976298e-002 2.977951e+001 1.106374e+003 3.009380e+002 4.762525e-004 5.782502e-004 1.938003e-004
<GCONST> 3.343871e+000
<MIXTURE> 20 5.110620e-002
<MEAN> 9
 -1.203012e+001 -8.246988e+000 -9.698795e-001 -5.878049e+001 -7.875000e+001 2.528049e+002 3.263636e-001 3.059091e-001 1.545918e-001
<VARIANCE> 9
 4.967701e-001 3.371764e-001 6.976298e-002 4.336704e+001 3.680466e+001 1.210095e+002 5.165286e-004 5.782502e-004 1.938003e-004
<GCONST> 6.900911e-001
<MIXTURE> 21 3.831774e-002
<MEAN> 9
 -1.041118e+001 -5.520417e+000 -3.437435e+000 -2.454342e+001 5.297049e+001 2.258422e+002 3.232657e-001 2.987259e-001 1.605207e-001
<VARIANCE> 9
 1.491142e-001 7.336850e-001 6.976298e-002 8.613078e+001 3.680466e+001 1.210095e+002 4.838975e-004 5.782502e-004 1.938003e-004
<GCONST> 8.850622e-001
<MIXTURE> 22 3.832277e-002
<MEAN> 9
 -8.067100e+000 -1.082033e+001 5.008133e-002 1.777353e+001 -1.102612e+002 7.478156e+001 8.347593e-003 3.644985e-001 1.671925e-001
<VARIANCE> 9
 6.188249e-001 3.371764e-001 7.697216e-002 2.977951e+001 7.789458e+002 3.778548e+002 4.762525e-004 5.782502e-004 1.938003e-004
<GCONST> 4.742023e+000
<MIXTURE> 23 3.825505e-002
<MEAN> 9
 -8.496201e+000 -1.032574e+001 1.050820e+000 6.286845e+001 9.401865e+001 1.193099e+002 7.194786e-002 3.636800e-001 1.649275e-001
<VARIANCE> 9
 3.366117e-001 3.371764e-001 8.114156e-001 2.977951e+001 3.680466e+001 2.985202e+002 4.762525e-004 5.782502e-004 1.938003e-004
<GCONST> 3.200479e+000
<STATE> 3
<NUMMIXES> 23
<MIXTURE> 1 3.502703e-002
<MEAN> 9
 -5.734581e+000 3.908848e-002 2.160552e+000 -7.135912e+001 1.327825e+001 1.744277e+002 5.241842e-001 -5.670950e-002 2.207046e-001
<VARIANCE> 9
 2.479292e-001 3.371764e-001 6.976298e-002 3.121280e+001 1.435978e+002 4.250629e+002 4.762525e-004 5.988207e-004 1.938003e-004
<GCONST> 2.237768e+000
<MIXTURE> 2 3.407272e-002
<MEAN> 9
 -9.593574e+000 -1.813371e+000 1.843688e+000 -8.777983e+001 3.506248e+001 2.207138e+002 5.174472e-001 6.305381e-002 2.054187e-001
<VARIANCE> 9
 5.596743e-001 3.371764e-001 6.976298e-002 2.977951e+001 2.002435e+002 1.210095e+002 4.762525e-004 5.782502e-004 1.938003e-004
<GCONST> 2.046168e+000
<MIXTURE> 3 5.264144e-002
<MEAN> 9
 -6.425704e+000 2.028111e+000 -1.144575e+000 -1.806707e+002 7.195115e+000 9.128038e+001 5.018182e-001 -7.030315e-002 3.023809e-001
<VARIANCE> 9
 1.491142e-001 3.371764e-001 3.162530e-001 2.977951e+001 3.680466e+001 3.019351e+002 4.762525e-004 5.782502e-004 1.938003e-004
<GCONST> 1.455400e+000
<MIXTURE> 4 3.508484e-002
<MEAN> 9
 -9.777129e+000 -4.636642e+000 4.513183e-001 -9.002153e+001 -3.192923e+001 2.566230e+002 4.423805e-001 2.080944e-001 1.708947e-001
<VARIANCE> 9
 8.465689e-001 7.043956e-001 2.926726e-001 4.239468e+001 3.680466e+001 1.210095e+002 5.975796e-004 1.129049e-003 1.938003e-004
<GCONST> 4.186049e+000
<MIXTURE> 5 3.509377e-002
<MEAN> 9
 -6.451819e+000 1.783124e+000 -2.536149e+000 -1.748170e+002 -7.164693e+000 1.398172e+002 4.963636e-001 -8.636299e-003 2.989795e-001
<VARIANCE> 9
 3.275149e-001 3.371764e-001 6.976298e-002 2.977951e+001 3.680466e+001 1.210095e+002 4.762525e-004 5.782502e-004 1.938003e-004
<GCONST> -1.835642e-001
<MIXTURE> 6 5.264094e-002
<MEAN> 9
 -8.016063e+000 1.646610e-001 3.341355e+000 -1.146142e+002 -4.926836e+001 1.689026e+001 5.027273e-001 -1.493938e-001 2.680274e-001
<VARIANCE> 9
 1.491142e-001 3.371764e-001 3.740558e-001 4.647438e+002 3.680466e+001 1.210095e+002 4.762525e-004 5.782502e-004 1.938003e-004
<GCONST> 3.456584e+000
<MIXTURE> 7 5.266692e-002
<MEAN> 9
 -8.690513e+000 -3.320163e+000 -4.032830e+000 -1.016674e+002 9.749146e+000 2.396960e+002 4.163988e-001 2.132792e-001 2.248086e-001
<VARIANCE> 9
 2.200239e-001 3.371764e-001 6.976298e-002 1.056957e+002 3.680466e+001 1.210095e+002 4.762525e-004 5.782502e-004 1.938003e-004
<GCONST> 6.853819e-001
<MIXTURE> 8 3.508524e-002
<MEAN> 9
 -7.969958e+000 -1.451921e+000 -3.915600e+000 -1.305774e+002 1.414544e+001 2.122586e+002 4.690878e-001 1.445492e-001 2.581607e-001
<VARIANCE> 9
 1.491142e-001 3.371764e-001 6.976298e-002 2.977951e+001 3.680466e+001 1.210095e+002 4.762525e-004 5.782502e-004 1.938003e-004
<GCONST> -9.703841e-001
<MIXTURE> 9 5.307325e-002
<MEAN> 9
 -8.390194e+000 3.473899e-002 5.377501e+000 -1.260132e+002 -4.332018e+001 -1.182371e+001 5.127444e-001 -1.327362e-001 1.752590e-001
<VARIANCE> 9
 1.491142e-001 3.371764e-001 3.212098e+000 2.179758e+003 7.820539e+001 1.210095e+002 4.762525e-004 5.782502e-004 7.123638e-004
<GCONST> 9.207815e+000
<MIXTURE> 10 3.509447e-002
<MEAN> 9
 -6.855422e+000 1.271084e+000 1.807229e+000 -1.677134e+002 -2.158537e+001 4.121951e+001 5.000000e-001 -1.040909e-001 2.964286e-001
<VARIANCE> 9
 1.491142e-001 3.371764e-001 2.207867e-001 4.622344e+001 9.518143e+001 1.210095e+002 4.762525e-004 5.782502e-004 1.938003e-004
<GCONST> 1.571536e+000
<MIXTURE> 11 3.516312e-002
<MEAN> 9
 -7.891695e+000 -1.385384e-001 -4.047535e+000 -1.551775e+002 2.633007e+001 1.828227e+002 4.863556e-001 7.908360e-002 2.825949e-001
<VARIANCE> 9
 1.491142e-001 3.371764e-001 6.976298e-002 4.798017e+001 3.680466e+001 1.210095e+002 4.762525e-004 5.782502e-004 1.938003e-004
<GCONST> -4.934168e-001
<MIXTURE> 12 7.016014e-002
<MEAN> 9
 -9.398038e+000 -3.350225e+000 -4.463526e+000 -6.016766e+001 2.491862e+001 2.174908e+002 4.086086e-001 2.204968e-001 1.905652e-001
<VARIANCE> 9
 2.288143e-001 3.371764e-001 1.153459e-001 1.568864e+002 1.485116e+002 1.210095e+002 4.879932e-004 7.464832e-004 1.938003e-004
<GCONST> 3.297105e+000
<MIXTURE> 13 6.961694e-002
<MEAN> 9
 -7.080152e+000 3.821408e+000 -4.023842e+000 -1.355090e+002 3.079458e+001 7.913629e+001 5.038430e-001 -7.584117e-002 2.714622e-001
<VARIANCE> 9
 1.491142e-001 3.371764e-001 8.808243e-002 1.064423e+002 3.680466e+001 2.047884e+002 4.762525e-004 5.782502e-004 1.938003e-004
<GCONST> 1.062676e+000
<MIXTURE> 14 2.769834e-002
<MEAN> 9
 -6.712444e+000 1.352394e+000 -3.491575e+000 -1.140654e+002 2.291753e+000 1.401540e+002 5.051714e-001 3.743403e-002 2.519948e-001
<VARIANCE> 9
 1.491142e-001 3.371764e-001 6.976298e-002 2.977951e+001 3.782842e+001 1.210095e+002 4.762525e-004 5.782502e-004 1.938003e-004
<GCONST> -9.429488e-001
<MIXTURE> 15 5.201265e-002
<MEAN> 9
 -8.049693e+000 -5.676578e-001 5.181070e+000 -1.595261e+002 -6.229906e+001 -2.237800e+001 5.157698e-001 -1.266401e-001 1.920095e-001
<VARIANCE> 9
 1.491142e-001 3.371764e-001 6.786131e-001 2.719092e+002 3.680466e+001 1.210095e+002 4.762525e-004 5.782502e-004 1.973175e-004
<GCONST> 3.534197e+000
<MIXTURE> 16 3.509560e-002
<MEAN> 9
 -5.969880e+000 2.277108e+000 1.204833e-002 -1.871951e+002 -6.204268e+001 1.155488e+001 5.077273e-001 -1.281818e-001 2.443878e-001
<VARIANCE> 9
 1.491142e-001 3.371764e-001 7.525040e-001 2.977951e+001 3.680466e+001 1.210095e+002 4.762525e-004 5.782502e-004 1.938003e-004
<GCONST> 1.407920e+000
<MIXTURE> 17 5.263888e-002
<MEAN> 9
 -8.783156e+000 -1.779166e+000 -3.855433e+000 -9.099541e+001 2.447171e+001 1.932730e+002 4.639388e-001 1.312141e-001 2.295910e-001
<VARIANCE> 9
 1.491142e-001 3.371764e-001 6.976298e-002 3.840930e+001 3.680466e+001 1.210095e+002 4.762525e-004 5.782502e-004 1.938003e-004
<GCONST> -7.159057e-001
<MIXTURE> 18 5.277678e-002
<MEAN> 9
 -7.665434e+000 3.252576e-001 -3.661582e+000 -1.265951e+002 -4.572844e-001 1.657197e+002 4.870722e-001 5.902248e-002 2.588398e-001
<VARIANCE> 9
 7.037027e-001 3.371764e-001 6.976298e-002 9.730225e+002 6.181935e+001 1.210095e+002 4.762525e-004 5.782502e-004 4.981223e-004
<GCONST> 5.530457e+000
<MIXTURE> 19 3.509559e-002
<MEAN> 9
 -7.885542e+000 3.885542e+000 -2.054217e+000 -1.683841e+002 -1.881097e+001 3.899390e+001 5.009091e-001 -1.159091e-001 2.673469e-001
<VARIANCE> 9
 2.041296e-001 3.371764e-001 1.019378e-001 2.977951e+001 3.795369e+002 1.210095e+002 4.762525e-004 5.782502e-004 1.938003e-004
<GCONST> 2.056247e+000
<MIXTURE> 20 4.287785e-002
<MEAN> 9
 -6.920690e+000 2.451856e+000 -3.740325e+000 -1.187327e+002 9.870720e+000 1.156650e+002 5.059807e-001 -9.490391e-003 2.614464e-001
<VARIANCE> 9
 1.491142e-001 3.371764e-001 6.976298e-002 2.977951e+001 3.680466e+001 1.210095e+002 4.762525e-004 5.782502e-004 1.938003e-004
<GCONST> -9.703841e-001
<MIXTURE> 21 3.614050e-002
<MEAN> 9
 -8.726707e+000 -3.065938e+000 1.521034e+000 -9.375552e+001 1.962965e+001 2.320702e+002 4.972197e-001 1.066048e-001 1.909151e-001
<VARIANCE> 9
 5.932232e-001 3.371764e-001 6.976298e-002 2.977951e+001 4.445393e+002 1.210095e+002 4.762525e-004 5.782502e-004 1.938003e-004
<GCONST> 2.901889e+000
<MIXTURE> 22 3.515797e-002
<MEAN> 9
 -5.963653e+000 -1.049966e-001 2.056527e+000 -7.211391e+001 6.824844e+000 1.742883e+002 5.235443e-001 -5.058028e-002 2.170585e-001
<VARIANCE> 9
 5.671416e-001 3.371764e-001 6.976298e-002 5.909214e+001 1.735089e+002 7.798304e+002 4.762525e-004 1.188590e-003 1.938003e-004
<GCONST> 5.185117e+000
<MIXTURE> 23 3.508484e-002
<MEAN> 9
 -1.014517e+001 -4.972355e+000 2.349214e-001 -9.262598e+001 -3.435591e+001 2.522228e+002 4.326023e-001 1.946538e-001 1.653263e-001
<VARIANCE> 9
 8.465689e-001 7.043956e-001 2.926726e-001 4.239468e+001 3.680466e+001 1.210095e+002 5.975796e-004 1.129049e-003 1.938003e-004
<GCONST> 4.186049e+000
<STATE> 4
<NUMMIXES> 23
<MIXTURE> 1 3.964084e-002
<MEAN> 9
 -8.681554e+000 4.873137e+000 1.548639e+000 -8.060906e+000 6.287253e+001 4.083394e+001 4.981192e-001 -1.821696e-001 2.359725e-001
<VARIANCE> 9
 1.491142e-001 3.371764e-001 7.334347e-002 2.977951e+001 3.680466e+001 1.210095e+002 4.762525e-004 5.782502e-004 1.938003e-004
<GCONST> -9.203353e-001
<MIXTURE> 2 4.499952e-002
<MEAN> 9
 3.175009e-001 5.357938e+000 6.234485e+000 -2.415429e+001 -1.657205e+002 1.143585e+002 3.847932e-001 -3.076397e-001 -4.485791e-002
<VARIANCE> 9
 1.883619e+000 3.371764e-001 6.103835e-001 5.114469e+001 1.119934e+003 2.104267e+002 4.762525e-004 5.782502e-004 3.596529e-004
<GCONST> 8.862653e+000
<MIXTURE> 3 3.838378e-002
<MEAN> 9
 -4.068886e+000 1.424952e+000 2.730963e+000 -2.178684e+001 -1.785775e+001 3.482750e+001 5.083495e-001 -1.599029e-001 1.878245e-001
<VARIANCE> 9
 1.932343e-001 3.371764e-001 6.976298e-002 5.562781e+001 5.400325e+001 1.958342e+002 4.762525e-004 5.782502e-004 1.938003e-004
<GCONST> 7.784872e-001
<MIXTURE> 4 6.259066e-002
<MEAN> 9
 -1.168330e+001 5.006172e+000 1.337171e+000 -3.913224e+001 -9.742619e+001 7.638322e+001 4.777231e-001 -2.211393e-001 2.183817e-001
<VARIANCE> 9
 1.366141e+000 3.371764e-001 3.169784e+000 2.977951e+001 2.088032e+004 3.663378e+002 4.762525e-004 5.782502e-004 3.632609e-003
<GCONST> 1.544047e+001
<MIXTURE> 5 4.901857e-002
<MEAN> 9
 -8.620869e+000 4.711789e+000 2.525676e+000 5.670668e+000 1.788350e+001 1.016763e+001 5.085431e-001 -1.594589e-001 2.058125e-001
<VARIANCE> 9
 1.491142e-001 3.371764e-001 6.976298e-002 2.977951e+001 3.680466e+001 1.210095e+002 4.762525e-004 5.782502e-004 1.938003e-004
<GCONST> -9.703841e-001
<MIXTURE> 6 4.748399e-002
<MEAN> 9
 -1.153026e+001 2.376756e+000 4.393882e+000 -1.268111e+001 -6.053379e+001 3.224514e+001 5.144539e-001 -1.405653e-001 1.181762e-001
<VARIANCE> 9
 1.491142e-001 3.371764e-001 6.976298e-002 2.977951e+001 7.896060e+002 1.210095e+002 4.762525e-004 5.782502e-004 1.938003e-004
<GCONST> 2.095527e+000
<MIXTURE> 7 3.429228e-002
<MEAN> 9
 -1.220177e+001 8.991684e-001 3.059987e+000 -3.666670e+001 2.952140e+001 3.329489e+001 5.050406e-001 -1.491351e-001 2.400281e-001
<VARIANCE> 9
 4.691283e+000 3.371764e-001 1.474771e+000 4.066561e+001 4.618182e+002 1.210095e+002 4.762525e-004 5.782502e-004 8.978200e-004
<GCONST> 9.903769e+000
<MIXTURE> 8 4.695382e-002
<MEAN> 9
 -5.192785e+000 5.534137e+000 4.433722e+000 -3.418708e+001 -2.802446e+002 1.277234e+002 4.521218e-001 -2.533330e-001 3.469465e-002
<VARIANCE> 9
 2.435897e+000 3.371764e-001 2.752170e-001 2.977951e+001 7.715620e+002 1.210095e+002 4.762525e-004 5.782502e-004 9.877674e-004
<GCONST> 7.866842e+000
<MIXTURE> 9 4.676230e-002
<MEAN> 9
 -6.430824e+000 3.030564e+000 2.834241e+000 -2.307756e+000 8.019602e+000 3.526745e-001 5.075936e-001 -1.681494e-001 1.813038e-001
<VARIANCE> 9
 5.682326e-001 3.371764e-001 6.976298e-002 2.977951e+001 3.680466e+001 1.210095e+002 4.762525e-004 5.782502e-004 1.938003e-004
<GCONST> 3.674345e-001
<MIXTURE> 10 4.695363e-002
<MEAN> 9
 -9.859439e+000 5.987956e+000 1.694762e+000 -5.373985e+001 -6.357778e+001 6.876019e+001 4.578788e-001 -2.512123e-001 2.632650e-001
<VARIANCE> 9
 1.491142e-001 3.371764e-001 1.016345e+000 2.977951e+001 1.138088e+003 1.210095e+002 4.762525e-004 5.782502e-004 2.380960e-004
<GCONST> 5.345806e+000
<MIXTURE> 11 3.720812e-002
<MEAN> 9
 -8.598617e+000 4.865499e+000 3.090441e+000 8.260175e+000 8.300081e+000 -1.782195e+000 5.141270e-001 -1.522480e-001 1.977027e-001
<VARIANCE> 9
 1.491142e-001 3.371764e-001 6.976298e-002 2.977951e+001 3.680466e+001 1.210095e+002 4.762525e-004 5.782502e-004 1.938003e-004
<GCONST> -9.703841e-001
<MIXTURE> 12 4.695660e-002
<MEAN> 9
 -8.514015e+000 5.445754e+000 7.390465e-001 -2.125921e+001 5.199359e+001 5.044674e+001 4.824256e-001 -2.057564e-001 2.700652e-001
<VARIANCE> 9
 1.825178e-001 3.371764e-001 6.976298e-002 3.318899e+001 3.680466e+001 1.210095e+002 4.762525e-004 5.782502e-004 1.938003e-004
<GCONST> -6.598525e-001
<MIXTURE> 13 4.610500e-002
<MEAN> 9
 -1.070395e+001 3.397652e+000 3.084983e+000 -1.910855e+001 -1.394919e+002 6.830276e+001 4.990467e-001 -1.813030e-001 1.701222e-001
<VARIANCE> 9
 1.617314e-001 3.371764e-001 1.624785e+000 2.977951e+001 6.706189e+001 1.210095e+002 4.762525e-004 5.782502e-004 4.858165e-003
<GCONST> 6.080447e+000
<MIXTURE> 14 6.260615e-002
<MEAN> 9
 -1.894679e+000 4.433702e+000 5.316259e+000 -4.463398e+001 -4.100160e+002 9.745425e+001 4.193183e-001 -2.434069e-001 -3.010406e-002
<VARIANCE> 9
 6.528160e+000 9.767733e-001 9.294810e-001 6.348433e+001 6.058469e+002 1.210095e+002 4.762525e-004 4.014184e-003 7.120306e-003
<GCONST> 1.556139e+001
<MIXTURE> 15 3.207990e-002
<MEAN> 9
 -8.546304e+000 4.600377e+000 2.956307e+000 6.975752e+000 8.573157e+000 -4.208189e+000 5.097189e-001 -1.583671e-001 1.947584e-001
<VARIANCE> 9
 1.491142e-001 3.371764e-001 6.976298e-002 2.977951e+001 3.680466e+001 1.210095e+002 4.762525e-004 5.782502e-004 1.938003e-004
<GCONST> -9.703841e-001
<MIXTURE> 16 5.992913e-002
<MEAN> 9
 -9.508659e+000 7.038783e-001 5.668760e+000 -4.597131e+001 -1.371222e+001 7.939759e+000 5.161486e-001 -1.309835e-001 1.701495e-001
<VARIANCE> 9
 7.575843e-001 3.371764e-001 6.456243e-001 2.467577e+002 7.651476e+001 1.210095e+002 4.762525e-004 5.782502e-004 2.035042e-003
<GCONST> 8.078043e+000
<MIXTURE> 17 4.716183e-002
<MEAN> 9
 -1.184143e+001 3.082637e+000 3.058879e+000 -2.252599e+001 -1.924176e+002 7.092710e+001 4.857798e-001 -1.774250e-001 9.436755e-002
<VARIANCE> 9
 1.373643e+000 7.992638e-001 1.525185e-001 2.977951e+001 9.122819e+003 1.312261e+002 4.762525e-004 5.782502e-004 1.348631e-002
<GCONST> 1.273196e+001
<MIXTURE> 18 3.130324e-002
<MEAN> 9
 -9.403615e+000 5.897591e+000 2.162650e+000 -6.274390e+001 -3.213719e+002 7.585366e+001 4.500000e-001 -2.827273e-001 1.785714e-001
<VARIANCE> 9
 3.115438e+000 3.371764e-001 6.419292e-001 2.977951e+001 5.155066e+003 1.210095e+002 4.762525e-004 5.782502e-004 3.758852e-004
<GCONST> 9.892969e+000
<MIXTURE> 19 3.987404e-002
<MEAN> 9
 -3.309424e+000 4.395873e-001 2.421910e+000 -4.707329e+001 -3.864893e+001 8.947372e+001 5.148004e-001 -1.265503e-001 2.053119e-001
<VARIANCE> 9
 1.970045e-001 3.371764e-001 6.976298e-002 6.476048e+001 3.680466e+001 3.910767e+002 4.762525e-004 5.782502e-004 1.938003e-004
<GCONST> 1.258040e+000
<MIXTURE> 20 3.137703e-002
<MEAN> 9
 6.617006e-001 4.599021e+000 7.264797e+000 -1.668231e+001 -3.173902e+002 1.185311e+002 3.392450e-001 -2.071435e-001 -1.903513e-001
<VARIANCE> 9
 2.218336e-001 3.371764e-001 1.369171e-001 2.977951e+001 3.269312e+003 1.210095e+002 9.564874e-004 5.782502e-004 4.718468e-004
<GCONST> 6.174958e+000
<MIXTURE> 21 3.861529e-002
<MEAN> 9
 -8.867937e+000 4.627256e+000 1.677076e+000 -3.439917e+000 5.082135e+001 2.742909e+001 5.019299e-001 -1.729828e-001 2.222160e-001
<VARIANCE> 9
 1.491142e-001 3.371764e-001 1.084262e-001 2.977951e+001 7.817272e+001 1.210095e+002 4.762525e-004 5.782502e-004 1.938003e-004
<GCONST> 2.238798e-001
<MIXTURE> 22 3.249639e-002
<MEAN> 9
 -8.499552e+000 4.536867e+000 2.936129e+000 6.853137e+000 8.773440e+000 -5.596174e+000 5.090387e-001 -1.600668e-001 1.926807e-001
<VARIANCE> 9
 1.491142e-001 3.371764e-001 6.976298e-002 2.977951e+001 3.680466e+001 1.210095e+002 4.762525e-004 5.782502e-004 1.938003e-004
<GCONST> -9.703841e-001
<MIXTURE> 23 3.720812e-002
<MEAN> 9
 -8.753078e+000 4.633232e+000 2.984791e+000 6.077350e+000 5.873407e+000 -6.182367e+000 5.053976e-001 -1.618668e-001 1.921343e-001
<VARIANCE> 9
 1.491142e-001 3.371764e-001 6.976298e-002 2.977951e+001 3.680466e+001 1.210095e+002 4.762525e-004 5.782502e-004 1.938003e-004
<GCONST> -9.703841e-001
<STATE> 5
<NUMMIXES> 23
<MIXTURE> 1 3.770244e-002
<MEAN> 9
 2.249892e+000 5.075285e+000 7.524121e+000 2.242334e+001 -7.245197e+001 9.527445e+001 2.277278e-001 -2.543183e-001 -2.293366e-001
<VARIANCE> 9
 5.460355e-001 3.371764e-001 1.152998e-001 2.977951e+001 4.075208e+002 1.210095e+002 4.762525e-004 5.782502e-004 1.938003e-004
<GCONST> 3.234485e+000
<MIXTURE> 2 4.438997e-002
<MEAN> 9
 -3.493630e+000 3.549135e+000 7.646210e+000 1.004089e+001 1.164682e+001 2.378884e+000 3.859138e-001 -1.060611e-001 -1.984382e-001
<VARIANCE> 9
 2.710219e-001 3.371764e-001 6.976298e-002 2.977951e+001 3.680466e+001 1.210095e+002 4.762525e-004 5.782502e-004 1.938003e-004
<GCONST> -3.728952e-001
<MIXTURE> 3 3.561616e-002
<MEAN> 9
 3.006707e+000 5.853981e+000 7.433160e+000 1.738606e+001 -5.830439e+001 -9.710059e+001 3.236499e-001 -3.225049e-001 -1.073073e-001
<VARIANCE> 9
 1.491142e-001 3.371764e-001 6.976298e-002 2.977951e+001 1.135785e+002 1.346409e+003 4.762525e-004 5.782502e-004 1.938003e-004
<GCONST> 2.565814e+000
<MIXTURE> 4 5.666475e-002
<MEAN> 9
 -5.681605e+000 3.003329e+000 8.974598e+000 -1.520886e+001 2.691810e-001 -1.409618e+002 3.178487e-001 -1.589889e-001 -2.285375e-001
<VARIANCE> 9
 3.102378e+000 3.371764e-001 2.077982e-001 2.977951e+001 3.820143e+002 9.629400e+002 4.762525e-004 7.538667e-004 1.938003e-004
<GCONST> 7.835454e+000
<MIXTURE> 5 5.672780e-002
<MEAN> 9
 3.047921e+000 5.301714e+000 7.371701e+000 2.051823e+001 7.999941e+000 5.505234e+001 1.864920e-001 -2.933747e-001 -2.266910e-001
<VARIANCE> 9
 2.111340e-001 3.371764e-001 2.418737e-001 2.977951e+001 3.680466e+001 2.971270e+002 4.762525e-004 5.782502e-004 1.938003e-004
<GCONST> 1.519000e+000
<MIXTURE> 6 4.686360e-002
<MEAN> 9
 -6.496090e+000 3.011405e+000 8.752279e+000 -5.358604e+000 -1.559058e+001 -4.451174e+001 3.485012e-001 -1.225743e-001 -2.195287e-001
<VARIANCE> 9
 1.430648e+000 4.582943e-001 1.107463e-001 2.977951e+001 1.663379e+002 1.741488e+002 4.762525e-004 7.067492e-004 2.404582e-004
<GCONST> 4.348654e+000
<MIXTURE> 7 3.762287e-002
<MEAN> 9
 -5.029721e-001 4.415055e+000 8.067964e+000 -2.958853e+000 -2.549664e+001 -2.783406e+001 2.783884e-001 -2.237074e-001 -2.209387e-001
<VARIANCE> 9
 4.103440e-001 3.371764e-001 9.163608e-002 1.362800e+002 5.777121e+003 2.029333e+004 4.762525e-004 5.782502e-004 1.938003e-004
<GCONST> 1.201373e+001
<MIXTURE> 8 3.847333e-002
<MEAN> 9
 -2.595627e+000 3.988505e+000 8.263180e+000 7.347248e+000 2.614313e+000 4.000919e+000 3.422902e-001 -1.274056e-001 -2.263716e-001
<VARIANCE> 9
 1.491142e-001 3.371764e-001 6.976298e-002 2.977951e+001 3.680466e+001 1.210095e+002 4.762525e-004 6.013680e-004 1.938003e-004
<GCONST> -9.311838e-001
<MIXTURE> 9 3.336184e-002
<MEAN> 9
 8.554991e-001 5.711136e+000 6.883318e+000 -5.662580e+000 -6.857098e+001 7.533285e+001 3.535803e-001 -3.181847e-001 -5.720249e-002
<VARIANCE> 9
 7.595787e+000 3.371764e-001 7.344459e-001 4.337880e+001 2.009044e+003 4.739971e+002 4.762525e-004 5.782502e-004 3.727608e-004
<GCONST> 1.170965e+001
<MIXTURE> 10 6.596617e-002
<MEAN> 9
 -7.592149e+000 3.254707e+000 8.256475e+000 -2.054919e+001 -5.475641e+001 -1.279685e+002 3.657155e-001 -1.733765e-001 -1.878985e-001
<VARIANCE> 9
 2.712163e+000 7.848235e-001 2.493932e-001 2.977951e+001 4.635735e+001 2.763083e+003 4.762525e-004 7.615238e-004 3.529446e-004
<GCONST> 8.282970e+000
<MIXTURE> 11 3.556937e-002
<MEAN> 9
 -2.263718e+000 2.977223e+000 7.293055e+000 9.298900e+000 3.802071e+000 -7.858947e+000 3.550972e-001 -1.414568e-001 -2.131432e-001
<VARIANCE> 9
 1.491142e-001 3.371764e-001 8.681636e-002 2.977951e+001 3.680466e+001 1.210095e+002 4.762525e-004 5.782502e-004 2.259069e-004
<GCONST> -5.983968e-001
<MIXTURE> 12 5.601338e-002
<MEAN> 9
 2.055763e+000 5.851470e+000 6.782046e+000 7.649703e+000 -2.702147e+001 3.112850e+000 3.241289e-001 -3.320892e-001 -8.836634e-002
<VARIANCE> 9
 6.564203e-001 3.371764e-001 3.376443e-001 2.977951e+001 1.151204e+002 6.261840e+002 4.762525e-004 5.782502e-004 1.938003e-004
<GCONST> 4.872722e+000
<MIXTURE> 13 5.546471e-002
<MEAN> 9
 3.632492e+000 4.292990e+000 7.680390e+000 -1.634494e+001 7.579335e+000 -1.114376e+002 2.170552e-001 -2.727439e-001 -2.253730e-001
<VARIANCE> 9
 4.266261e-001 3.371764e-001 2.532837e-001 2.977951e+001 3.680466e+001 1.081265e+003 4.762525e-004 5.782502e-004 1.938003e-004
<GCONST> 3.560237e+000
<MIXTURE> 14 3.519526e-002
<MEAN> 9
 -4.700092e-001 5.881378e+000 6.835630e+000 2.339115e+000 -8.100950e+001 -1.728323e+002 3.475507e-001 -2.715755e-001 -1.309666e-001
<VARIANCE> 9
 6.679490e-001 3.371764e-001 2.572575e-001 1.274950e+002 5.198792e+002 8.511193e+002 4.762525e-004 7.160780e-004 1.938003e-004
<GCONST> 8.100781e+000
<MIXTURE> 15 5.816954e-002
<MEAN> 9
 -4.388309e+000 3.924466e+000 8.570954e+000 3.046214e+000 1.294763e+000 -8.473978e+000 3.397584e-001 -1.310461e-001 -2.253159e-001
<VARIANCE> 9
 9.061142e-001 3.371764e-001 6.976298e-002 2.977951e+001 3.680466e+001 1.268729e+002 4.762525e-004 5.782502e-004 1.938003e-004
<GCONST> 8.813848e-001
<MIXTURE> 16 2.949252e-002
<MEAN> 9
 -8.211315e+000 2.035082e+000 7.787302e+000 -2.908513e+001 -8.815449e+001 -1.462865e+002 3.727254e-001 -1.716440e-001 -1.838089e-001
<VARIANCE> 9
 9.694232e+000 2.306892e+000 1.679657e-001 2.977951e+001 3.680466e+001 3.423495e+002 4.762525e-004 1.845274e-003 1.938003e-004
<GCONST> 8.206235e+000
<MIXTURE> 17 2.411826e-002
<MEAN> 9
 -5.236214e+000 3.232316e+000 7.856050e+000 7.171600e+000 1.098952e+001 -7.239654e+000 3.822951e-001 -9.973435e-002 -2.028278e-001
<VARIANCE> 9
 1.815235e+000 3.371764e-001 7.657908e-002 2.977951e+001 3.680466e+001 1.210095e+002 4.762525e-004 5.782502e-004 1.938003e-004
<GCONST> 1.622092e+000
<MIXTURE> 18 4.803365e-002
<MEAN> 9
 4.406949e+000 5.051066e+000 7.106337e+000 4.535830e+000 -1.604997e+000 -9.372673e+000 1.837727e-001 -2.998754e-001 -2.176665e-001
<VARIANCE> 9
 1.491142e-001 3.371764e-001 1.602582e-001 5.494881e+001 3.680466e+001 7.145842e+002 4.762525e-004 5.782502e-004 1.938003e-004
<GCONST> 2.249713e+000
<MIXTURE> 19 5.149158e-002
<MEAN> 9
 1.675423e+000 6.109492e+000 7.533648e+000 8.178246e+000 -7.678547e+001 -1.009956e+002 3.303690e-001 -3.110063e-001 -9.951865e-002
<VARIANCE> 9
 7.382148e-001 3.371764e-001 8.084913e-002 2.977951e+001 3.103074e+002 1.620157e+003 4.762525e-004 5.782502e-004 1.949223e-004
<GCONST> 5.508741e+000
<MIXTURE> 20 3.655479e-002
<MEAN> 9
 -1.994909e+000 2.408620e+000 6.862295e+000 5.650611e+000 3.811595e+000 -1.735475e+001 3.536608e-001 -1.210576e-001 -2.127306e-001
<VARIANCE> 9
 2.332592e-001 3.371764e-001 2.407228e-001 2.977951e+001 3.680466e+001 1.210095e+002 5.296126e-004 5.782502e-004 3.737765e-004
<GCONST> 1.478625e+000
<MIXTURE> 21 4.554642e-002
<MEAN> 9
 -2.372098e+000 3.712658e+000 8.242211e+000 4.877134e+000 1.082593e+000 -1.539123e+000 3.324796e-001 -1.124149e-001 -2.358671e-001
<VARIANCE> 9
 1.491142e-001 3.371764e-001 8.303066e-002 2.977951e+001 3.680466e+001 1.210095e+002 4.762525e-004 5.782502e-004 1.938003e-004
<GCONST> -7.962775e-001
<MIXTURE> 22 3.760061e-002
<MEAN> 9
 -1.305842e+000 5.524656e+000 6.667469e+000 -9.145031e+000 -9.124357e+001 -1.712966e+002 3.473524e-001 -2.548391e-001 -1.441665e-001
<VARIANCE> 9
 1.694379e+000 3.371764e-001 2.030576e-001 1.200884e+002 1.938113e+002 6.541016e+002 4.762525e-004 8.021093e-004 1.938003e-004
<GCONST> 7.598662e+000
<MIXTURE> 23 3.336184e-002
<MEAN> 9
 -2.469190e-001 5.478868e+000 6.540519e+000 -8.297083e+000 -8.649992e+001 6.662426e+001 3.448510e-001 -3.278035e-001 -6.492529e-002
<VARIANCE> 9
 7.595787e+000 3.371764e-001 7.344459e-001 4.337880e+001 2.009044e+003 4.739971e+002 4.762525e-004 5.782502e-004 3.727608e-004
<GCONST> 1.170965e+001
<STATE> 6
<NUMMIXES> 23
<MIXTURE> 1 6.559826e-002
<MEAN> 9
 -2.108564e+000 9.144152e-001 4.575150e+000 -3.012636e+001 4.478851e+001 -9.390497e+001 3.973181e-001 -5.665473e-002 -1.805619e-001
<VARIANCE> 9
 1.491142e-001 3.371764e-001 7.183298e-002 5.088317e+001 3.949667e+002 1.263765e+002 4.762525e-004 5.782502e-004 1.938003e-004
<GCONST> 2.011142e+000
<MIXTURE> 2 3.447362e-002
<MEAN> 9
 -7.421687e+000 -3.108434e+000 4.873494e+000 -6.173780e+001 1.310976e+002 -2.256098e+002 4.240909e-001 1.381818e-001 -6.173469e-002
<VARIANCE> 9
 2.440122e-001 4.232834e-001 6.976298e-002 2.977951e+001 5.002973e+001 1.210095e+002 4.762525e-004 5.782502e-004 1.938003e-004
<GCONST> 5.654812e-002
<MIXTURE> 3 3.447355e-002
<MEAN> 9
 -5.077011e+000 -8.155895e-001 4.863065e+000 -5.060065e+001 1.263681e+002 -1.754251e+002 4.302737e-001 5.391841e-002 -1.211739e-001
<VARIANCE> 9
 5.999688e-001 4.043669e-001 6.976298e-002 2.977951e+001 6.132943e+001 4.889391e+002 4.762525e-004 7.588329e-004 3.188118e-004
<GCONST> 3.280047e+000
<MIXTURE> 4 3.440247e-002
<MEAN> 9
 -8.133453e+000 -5.306629e+000 6.807110e+000 -8.582051e+001 3.143181e+001 -2.431430e+002 3.718087e-001 2.167956e-001 -6.124097e-002
<VARIANCE> 9
 1.678203e-001 3.371764e-001 6.976298e-002 2.977951e+001 5.406870e+001 1.210095e+002 4.762525e-004 5.782502e-004 1.938003e-004
<GCONST> -4.675722e-001
<MIXTURE> 5 3.484945e-002
<MEAN> 9
 -2.515822e+000 1.760026e+000 5.289102e+000 1.813871e-001 2.267360e+001 -4.049078e+001 3.936083e-001 -8.880306e-002 -1.912665e-001
<VARIANCE> 9
 1.491142e-001 3.371764e-001 2.197764e-001 2.977951e+001 5.057372e+001 1.210095e+002 4.762525e-004 5.782502e-004 1.938003e-004
<GCONST> 4.949293e-001
<MIXTURE> 6 3.447271e-002
<MEAN> 9
 -6.000000e+000 -8.042169e+000 6.313253e+000 -1.003354e+002 4.362805e+001 -2.251829e+002 2.504545e-001 3.204545e-001 -1.020408e-003
<VARIANCE> 9
 2.939468e-001 3.371764e-001 1.220787e-001 2.977951e+001 4.994135e+002 1.210095e+002 4.762525e-004 5.782502e-004 1.938003e-004
<GCONST> 2.875674e+000
<MIXTURE> 7 3.277505e-002
<MEAN> 9
 -3.244387e+000 1.113841e+000 6.282348e+000 -6.861193e+001 4.640315e+001 -1.432528e+002 3.830945e-001 -6.163906e-002 -1.999954e-001
<VARIANCE> 9
 3.602153e-001 3.371764e-001 6.976298e-002 2.977951e+001 3.680466e+001 1.210095e+002 4.762525e-004 5.782502e-004 1.938003e-004
<GCONST> -8.839512e-002
<MIXTURE> 8 5.163565e-002
<MEAN> 9
 -6.594544e+000 -2.432785e+000 6.020886e+000 -8.446279e+001 9.128271e+001 -2.268635e+002 3.890656e-001 1.245363e-001 -1.265549e-001
<VARIANCE> 9
 1.516049e-001 3.599309e-001 2.303468e-001 2.977951e+001 4.845425e+001 1.210095e+002 4.762525e-004 5.782502e-004 2.963484e-004
<GCONST> 1.005673e+000
<MIXTURE> 9 3.477975e-002
<MEAN> 9
 -9.621360e-001 1.591519e+000 5.828673e+000 1.927894e+000 2.282562e+001 -2.893264e+001 3.340912e-001 -1.018757e-001 -2.326049e-001
<VARIANCE> 9
 1.491142e-001 3.371764e-001 2.665499e-001 2.977951e+001 5.764619e+001 1.210095e+002 4.762525e-004 5.782502e-004 1.938003e-004
<GCONST> 8.187742e-001
<MIXTURE> 10 5.517658e-002
<MEAN> 9
 -2.369430e+000 5.343056e-001 4.668159e+000 -4.857890e+001 5.821056e+001 -1.251074e+002 4.037383e-001 -3.367388e-002 -1.752688e-001
<VARIANCE> 9
 1.491142e-001 3.371764e-001 6.976298e-002 9.212289e+001 5.287297e+002 1.210095e+002 4.762525e-004 5.782502e-004 1.938003e-004
<GCONST> 2.823771e+000
<MIXTURE> 11 2.805871e-002
<MEAN> 9
 -1.360243e+000 1.560757e+000 5.188815e+000 -4.781199e+001 1.939393e+001 -1.080977e+002 3.641170e-001 -9.905169e-002 -2.084839e-001
<VARIANCE> 9
 1.491142e-001 3.371764e-001 6.976298e-002 5.331075e+001 1.192999e+002 1.210095e+002 4.762525e-004 5.782502e-004 1.938003e-004
<GCONST> 7.879477e-001
<MIXTURE> 12 6.891666e-002
<MEAN> 9
 -4.440070e+000 -1.000399e+000 6.141241e+000 -8.621442e+001 6.210802e+001 -2.075191e+002 4.013707e-001 7.205929e-002 -1.497299e-001
<VARIANCE> 9
 1.915686e-001 5.359751e-001 6.492843e-001 1.019644e+002 1.514141e+002 1.210095e+002 4.762525e-004 5.782502e-004 4.746957e-004
<GCONST> 5.515439e+000
<MIXTURE> 13 3.446886e-002
<MEAN> 9
 -3.608380e+000 5.422003e-002 4.734920e+000 -6.451196e+001 6.798779e+001 -1.748158e+002 4.181820e-001 2.999962e-002 -1.489798e-001
<VARIANCE> 9
 2.621934e-001 3.371764e-001 6.976298e-002 2.977951e+001 3.680466e+001 1.413779e+002 4.762525e-004 5.782502e-004 1.938003e-004
<GCONST> -2.504454e-001
<MIXTURE> 14 6.845036e-002
<MEAN> 9
 -2.154690e+000 1.322276e+000 4.332157e+000 -3.735860e+000 7.101035e+001 -6.349503e+001 3.707613e-001 -8.670367e-002 -2.062667e-001
<VARIANCE> 9
 3.805298e-001 3.371764e-001 9.454300e-002 4.788017e+001 7.126230e+002 1.223681e+002 4.762525e-004 5.782502e-004 1.938003e-004
<GCONST> 3.719792e+000
<MIXTURE> 15 3.442019e-002
<MEAN> 9
 -9.559658e+000 -6.153288e+000 4.571311e+000 -6.276574e+001 1.320179e+002 -2.390390e+002 3.836705e-001 2.340091e-001 1.729575e-002
<VARIANCE> 9
 1.491142e-001 1.097243e+000 9.442072e-002 2.977951e+001 3.052876e+002 1.210095e+002 4.762525e-004 9.916917e-004 9.415747e-004
<GCONST> 4.747983e+000
<MIXTURE> 16 5.178222e-002
<MEAN> 9
 -6.742593e+000 -3.657846e+000 6.063392e+000 -9.164497e+001 7.715195e+001 -2.396224e+002 3.736834e-001 1.850749e-001 -9.661683e-002
<VARIANCE> 9
 1.011107e+000 3.676257e-001 6.976298e-002 1.036960e+002 4.534378e+001 1.210095e+002 4.762525e-004 5.782502e-004 1.938003e-004
<GCONST> 2.486453e+000
<MIXTURE> 17 6.495447e-002
<MEAN> 9
 -8.662290e+000 -7.973981e+000 6.109315e+000 -9.137943e+001 5.642226e+001 -2.450372e+002 2.910734e-001 3.075112e-001 -6.050729e-003
<VARIANCE> 9
 1.536948e-001 8.635860e-001 2.696540e-001 2.977951e+001 3.020641e+002 1.210095e+002 4.762525e-004 7.231379e-004 2.876554e-004
<GCONST> 4.075935e+000
<MIXTURE> 18 5.573940e-002
<MEAN> 9
 -8.986313e+000 -6.271915e+000 6.641388e+000 -9.214108e+001 7.307060e+001 -2.431609e+002 3.276666e-001 2.512199e-001 -5.202848e-002
<VARIANCE> 9
 1.047500e+000 3.371764e-001 2.152139e-001 2.977951e+001 7.889291e+002 1.210095e+002 4.762525e-004 5.782502e-004 2.333265e-004
<GCONST> 5.356253e+000
<MIXTURE> 19 4.042906e-002
<MEAN> 9
 -1.298232e+000 1.610993e+000 5.022883e+000 -2.211540e+001 -1.412274e+000 -7.343121e+001 3.583748e-001 -1.342240e-001 -2.160767e-001
<VARIANCE> 9
 1.491142e-001 3.371764e-001 6.976298e-002 8.760567e+001 3.680466e+001 1.523544e+002 4.762525e-004 5.782502e-004 1.938003e-004
<GCONST> 3.389807e-001
<MIXTURE> 20 3.494120e-002
<MEAN> 9
 -1.341331e+000 1.585420e+000 5.352205e+000 -1.515920e+000 6.241251e+000 -3.909546e+001 3.518476e-001 -1.463637e-001 -2.077988e-001
<VARIANCE> 9
 1.491142e-001 3.371764e-001 6.976298e-002 2.977951e+001 3.680466e+001 1.210095e+002 4.762525e-004 5.782502e-004 1.938003e-004
<GCONST> -9.703841e-001
<MIXTURE> 21 3.620106e-002
<MEAN> 9
 -3.806199e+000 6.436450e-001 6.060517e+000 -8.219489e+001 3.200807e+001 -1.757750e+002 3.849958e-001 -6.057817e-003 -1.878430e-001
<VARIANCE> 9
 1.491142e-001 3.371764e-001 6.976298e-002 2.977951e+001 3.680466e+001 1.210095e+002 4.762525e-004 9.238948e-004 1.938003e-004
<GCONST> -5.017920e-001
<MIXTURE> 22 3.452706e-002
<MEAN> 9
 -9.699162e+000 -6.021615e+000 4.537175e+000 -6.308741e+001 1.304236e+002 -2.404101e+002 3.872331e-001 2.246417e-001 9.756751e-003
<VARIANCE> 9
 1.491142e-001 6.521263e-001 6.979014e-002 2.977951e+001 2.578331e+002 1.210095e+002 4.762525e-004 6.834042e-004 6.406102e-004
<GCONST> 2.998998e+000
<MIXTURE> 23 3.447355e-002
<MEAN> 9
 -5.386841e+000 -1.069949e+000 4.757414e+000 -5.278347e+001 1.232355e+002 -1.842699e+002 4.215445e-001 4.289965e-002 -1.283161e-001
<VARIANCE> 9
 5.999688e-001 4.043669e-001 6.976298e-002 2.977951e+001 6.132943e+001 4.889391e+002 4.762525e-004 7.588329e-004 3.188118e-004
<GCONST> 3.280047e+000
<STATE> 7
<NUMMIXES> 23
<MIXTURE> 1 5.882128e-002
<MEAN> 9
 -5.554218e+000 -1.028916e+001 3.767068e+000 -2.439018e+000 1.896341e+002 -2.835365e+001 -3.090909e-002 3.630303e-001 1.738095e-001
<VARIANCE> 9
 3.903032e+000 5.877003e-001 1.155787e-001 1.045830e+002 5.394438e+002 1.210095e+002 4.762525e-004 5.782502e-004 1.938003e-004
<GCONST> 7.295947e+000
<MIXTURE> 2 5.882258e-002
<MEAN> 9
 -8.510040e+000 -1.069076e+001 3.465864e+000 -2.835370e+001 7.676820e+001 -2.110163e+002 1.875759e-001 3.636364e-001 1.459183e-001
<VARIANCE> 9
 1.491142e-001 3.371764e-001 6.976298e-002 3.633981e+001 2.616592e+002 1.210095e+002 5.357183e-004 5.782502e-004 1.938003e-004
<GCONST> 1.307788e+000
<MIXTURE> 3 3.922940e-002
<MEAN> 9
 -7.245472e+000 -1.155498e+001 4.653025e+000 -7.944349e+001 7.289082e+001 -2.032320e+002 1.130970e-001 3.741749e-001 9.630583e-002
<VARIANCE> 9
 2.517152e+000 5.382502e-001 6.976298e-002 2.977951e+001 4.980858e+002 2.854798e+002 1.219439e-003 5.782502e-004 3.362586e-004
<GCONST> 7.278203e+000
<MIXTURE> 4 3.921578e-002
<MEAN> 9
 -6.336930e+000 -1.038985e+001 2.209295e+000 -2.064617e+001 2.797382e+001 -5.693906e+001 3.345478e-002 3.834444e-001 1.854384e-001
<VARIANCE> 9
 3.301471e-001 3.371764e-001 6.976298e-002 2.977951e+001 7.396823e+002 6.538300e+002 4.762525e-004 5.782502e-004 1.938003e-004
<GCONST> 4.512015e+000
<MIXTURE> 5 3.921394e-002
<MEAN> 9
 -6.373495e+000 -1.279518e+001 2.656626e+000 -7.658535e+001 1.927744e+002 -2.415549e+002 1.177272e-001 3.781818e-001 1.066327e-001
<VARIANCE> 9
 2.939468e-001 3.371764e-001 1.533241e-001 5.265092e+001 2.821988e+002 1.210095e+002 4.762525e-004 5.782502e-004 1.938003e-004
<GCONST> 3.102603e+000
<MIXTURE> 6 3.905355e-002
<MEAN> 9
 -5.171721e+000 -9.896968e+000 1.833024e+000 -5.611996e+001 5.795414e+001 -2.586845e+001 -6.410339e-002 3.477099e-001 1.867149e-001
<VARIANCE> 9
 5.672897e-001 3.371764e-001 1.882474e-001 2.977951e+001 8.047404e+001 1.210095e+002 4.762525e-004 5.782502e-004 1.938003e-004
<GCONST> 2.140735e+000
<MIXTURE> 7 3.884269e-002
<MEAN> 9
 -5.105627e+000 -1.126949e+001 1.881505e+000 -6.189790e+001 1.104212e+002 -7.308961e+001 -1.140030e-002 3.626287e-001 1.600662e-001
<VARIANCE> 9
 1.491142e-001 3.371764e-001 1.708387e+000 6.161295e+001 2.414808e+002 1.506630e+002 8.892937e-004 5.782502e-004 1.938003e-004
<GCONST> 5.679690e+000
<MIXTURE> 8 3.921399e-002
<MEAN> 9
 -8.234940e+000 -1.321084e+001 1.500000e+000 -5.201220e+001 1.859756e+002 -2.184756e+002 5.181818e-002 3.677273e-001 1.280612e-001
<VARIANCE> 9
 1.491142e-001 3.371764e-001 6.976298e-002 2.977951e+001 3.878978e+002 1.210095e+002 4.762525e-004 5.782502e-004 1.938003e-004
<GCONST> 1.384734e+000
<MIXTURE> 9 2.000675e-002
<MEAN> 9
 -3.323749e+000 -1.010625e+001 2.661047e+000 -2.971141e+001 1.536797e+002 -3.841716e+001 -2.251574e-002 3.584753e-001 1.786301e-001
<VARIANCE> 9
 1.491142e-001 3.371764e-001 7.301302e-002 2.977951e+001 3.680466e+001 1.210095e+002 4.762525e-004 5.782502e-004 1.938003e-004
<GCONST> -9.248519e-001
<MIXTURE> 10 5.882091e-002
<MEAN> 9
 -6.678717e+000 -1.195984e+001 1.333338e+000 -5.617889e+001 9.040647e+001 -1.351016e+002 3.031601e-004 3.733333e-001 1.520408e-001
<VARIANCE> 9
 1.491142e-001 3.371764e-001 1.245695e+000 5.614073e+001 4.982753e+001 1.840085e+002 6.227751e-004 5.782502e-004 1.938003e-004
<GCONST> 3.536296e+000
<MIXTURE> 11 5.889371e-002
<MEAN> 9
 -7.598778e+000 -1.001603e+001 5.188586e+000 -9.015791e+001 1.154397e+002 -2.320385e+002 2.072781e-001 3.575659e-001 4.557482e-002
<VARIANCE> 9
 2.110090e+000 3.371764e-001 9.134164e-002 3.542742e+001 1.059705e+003 1.210095e+002 4.762525e-004 5.782502e-004 1.938003e-004
<GCONST> 5.482680e+000
<MIXTURE> 12 1.960762e-002
<MEAN> 9
 -9.204820e+000 -8.421687e+000 4.156627e+000 -4.036585e+001 1.909146e+002 -2.344512e+002 3.290909e-001 3.054546e-001 8.673470e-002
<VARIANCE> 9
 1.491142e-001 3.371764e-001 6.976298e-002 2.977951e+001 3.680466e+001 1.210095e+002 4.762525e-004 5.782502e-004 1.938003e-004
<GCONST> -9.703841e-001
<MIXTURE> 13 3.918525e-002
<MEAN> 9
 -9.216720e+000 -1.123495e+001 2.343553e+000 -1.125077e+001 7.309124e+001 -1.790009e+002 1.100118e-001 3.727273e-001 1.658152e-001
<VARIANCE> 9
 1.491142e-001 3.371764e-001 6.976298e-002 2.977951e+001 2.446171e+002 1.210095e+002 4.762525e-004 5.782502e-004 1.938003e-004
<GCONST> 9.236860e-001
<MIXTURE> 14 3.897768e-002
<MEAN> 9
 -4.397567e+000 -1.000771e+001 2.152413e+000 -5.377065e+001 1.504016e+002 -3.743537e+001 1.002125e-002 3.804343e-001 1.739519e-001
<VARIANCE> 9
 1.491142e-001 3.371764e-001 9.441209e-002 2.977951e+001 2.142140e+002 1.210095e+002 4.762525e-004 5.782502e-004 1.938003e-004
<GCONST> 1.093532e+000
<MIXTURE> 15 3.919684e-002
<MEAN> 9
 -5.987905e+000 -1.098816e+001 3.849274e+000 -9.063991e+001 1.138195e+002 -2.408235e+002 1.781735e-001 3.550042e-001 6.939445e-002
<VARIANCE> 9
 1.491142e-001 3.371764e-001 8.016403e-002 2.977951e+001 3.795367e+002 1.210095e+002 4.762525e-004 5.782502e-004 2.342773e-004
<GCONST> 1.691591e+000
<MIXTURE> 16 3.921403e-002
<MEAN> 9
 -8.012050e+000 -1.233735e+001 2.427716e+000 -5.740858e+001 1.134451e+002 -1.713414e+002 3.545458e-002 3.813636e-001 1.418367e-001
<VARIANCE> 9
 1.491142e-001 3.371764e-001 1.615655e+000 8.875020e+001 3.680466e+001 1.608565e+002 4.762525e-004 5.782502e-004 1.938003e-004
<GCONST> 3.548657e+000
<MIXTURE> 17 5.882286e-002
<MEAN> 9
 -1.086747e+001 -9.124497e+000 2.646586e+000 -2.563008e+001 9.713414e+001 -2.299187e+002 2.784849e-001 3.269697e-001 1.136054e-001
<VARIANCE> 9
 5.113470e-001 3.371764e-001 6.976298e-002 2.977951e+001 1.682689e+003 1.210095e+002 5.202940e-004 5.782502e-004 1.938003e-004
<GCONST> 4.172921e+000
<MIXTURE> 18 7.826200e-002
<MEAN> 9
 -4.995087e+000 -9.437756e+000 1.181593e+000 -3.626031e+001 1.781590e+002 -3.691573e+001 -5.384812e-003 3.716210e-001 1.788122e-001
<VARIANCE> 9
 1.491142e-001 3.371764e-001 1.619811e-001 3.759566e+001 6.681532e+001 1.210095e+002 4.762525e-004 5.782502e-004 1.938003e-004
<GCONST> 7.013693e-001
<MIXTURE> 19 3.924587e-002
<MEAN> 9
 -8.801639e+000 -1.112657e+001 1.963976e+000 -1.542300e+001 1.048872e+000 -1.385291e+002 7.183510e-002 3.654607e-001 1.714257e-001
<VARIANCE> 9
 1.491142e-001 3.371764e-001 6.976298e-002 2.977951e+001 2.392979e+002 1.300049e+002 4.762525e-004 5.782502e-004 1.938003e-004
<GCONST> 9.734049e-001
<MIXTURE> 20 3.937529e-002
<MEAN> 9
 -6.815494e+000 -1.026421e+001 6.057203e-001 -5.306933e+001 1.134352e+002 -4.818711e+001 -5.321376e-002 3.554403e-001 1.715105e-001
<VARIANCE> 9
 1.491142e-001 3.371764e-001 6.976298e-002 2.977951e+001 5.091446e+002 1.210095e+002 4.762525e-004 5.782502e-004 1.938003e-004
<GCONST> 1.656722e+000
<MIXTURE> 21 3.917689e-002
<MEAN> 9
 -6.336931e+000 -1.159005e+001 4.545520e+000 -8.080331e+001 4.826855e+001 -2.010851e+002 1.123376e-001 3.717311e-001 9.605085e-002
<VARIANCE> 9
 1.166745e+000 3.371764e-001 6.976298e-002 2.977951e+001 5.107224e+002 1.210095e+002 7.244447e-004 5.782502e-004 1.938003e-004
<GCONST> 4.136537e+000
<MIXTURE> 22 3.958520e-002
<MEAN> 9
 -5.296141e+000 -1.143372e+001 1.621017e+000 -6.070475e+001 1.019469e+002 -8.584270e+001 -1.447813e-002 3.619241e-001 1.583181e-001
<VARIANCE> 9
 1.491142e-001 3.371764e-001 1.292108e+000 7.117904e+001 2.645244e+002 1.392293e+002 1.056733e-003 5.782502e-004 1.938003e-004
<GCONST> 5.729472e+000
<MIXTURE> 23 3.921578e-002
<MEAN> 9
 -6.566764e+000 -1.062211e+001 2.103644e+000 -2.282899e+001 1.709498e+001 -6.716710e+001 2.472550e-002 3.738256e-001 1.798700e-001
<VARIANCE> 9
 3.301471e-001 3.371764e-001 6.976298e-002 2.977951e+001 7.396823e+002 6.538300e+002 4.762525e-004 5.782502e-004 1.938003e-004
<GCONST> 4.512015e+000
<TRANSP> 8
 0.000000e+000 1.000000e+000 0.000000e+000 0.000000e+000 0.000000e+000 0.000000e+000 0.000000e+000 0.000000e+000
 0.000000e+000 9.233403e-001 7.665968e-002 0.000000e+000 0.000000e+000 0.000000e+000 0.000000e+000 0.000000e+000
 0.000000e+000 0.000000e+000 9.473579e-001 5.264214e-002 0.000000e+000 0.000000e+000 0.000000e+000 0.000000e+000
 0.000000e+000 0.000000e+000 0.000000e+000 9.530449e-001 4.695507e-002 0.000000e+000 0.000000e+000 0.000000e+000
 0.000000e+000 0.000000e+000 0.000000e+000 0.000000e+000 9.717253e-001 2.827471e-002 0.000000e+000 0.000000e+000
 0.000000e+000 0.000000e+000 0.000000e+000 0.000000e+000 0.000000e+000 9.482909e-001 5.170909e-002 0.000000e+000
 0.000000e+000 0.000000e+000 0.000000e+000 0.000000e+000 0.000000e+000 0.000000e+000 9.411785e-001 5.882149e-002
 0.000000e+000 0.000000e+000 0.000000e+000 0.000000e+000 0.000000e+000 0.000000e+000 0.000000e+000 0.000000e+000
<ENDHMM>
~h "GM"
<BEGINHMM>
<NUMSTATES> 8
<STATE> 2
<NUMMIXES> 23
<MIXTURE> 1 5.339008e-002
<MEAN> 9
 -1.164659e+001 -9.493976e+000 -3.052209e-001 6.910569e+000 7.067073e+001 3.378658e+002 3.224242e-001 3.160606e-001 2.132653e-001
<VARIANCE> 9
 1.491142e-001 1.919098e+000 6.976298e-002 1.529480e+002 3.680466e+001 1.210095e+002 1.411754e-003 5.782502e-004 1.938003e-004
<GCONST> 3.491538e+000
<MIXTURE> 2 5.339009e-002
<MEAN> 9
 -6.775100e+000 -1.287149e+001 3.518072e+000 1.587398e+001 -1.302642e+002 1.815041e+002 8.151515e-002 3.790909e-001 2.214286e-001
<VARIANCE> 9
 6.973759e-001 3.371764e-001 3.298978e-001 6.790186e+001 1.096213e+003 7.858276e+002 9.169878e-004 5.782502e-004 1.938003e-004
<GCONST> 8.870158e+000
<MIXTURE> 3 3.578025e-002
<MEAN> 9
 -9.034344e+000 -8.773526e+000 -9.086947e-001 -3.380861e+001 -4.392561e+001 1.593022e+002 2.071342e-001 3.654367e-001 1.938356e-001
<VARIANCE> 9
 1.491142e-001 3.371764e-001 6.976298e-002 2.977951e+001 8.619545e+001 1.210095e+002 4.762525e-004 5.782502e-004 1.938003e-004
<GCONST> -1.193933e-001
<MIXTURE> 4 5.339506e-002
<MEAN> 9
 -9.951896e+000 -6.353232e+000 -2.927728e+000 -1.410719e+001 2.790695e+001 2.517484e+002 2.578861e-001 3.418140e-001 2.013621e-001
<VARIANCE> 9
 1.491142e-001 7.489095e-001 7.963818e-002 2.977951e+001 3.680466e+001 1.210095e+002 8.931697e-004 5.782502e-004 1.938003e-004
<GCONST> 5.888472e-001
<MIXTURE> 5 1.779670e-002
<MEAN> 9
 -9.433735e+000 -5.939759e+000 -8.795181e-001 -1.841463e+001 3.957317e+001 3.425610e+002 3.927273e-001 2.581818e-001 2.306122e-001
<VARIANCE> 9
 1.491142e-001 3.371764e-001 6.976298e-002 2.977951e+001 3.680466e+001 1.210095e+002 4.762525e-004 5.782502e-004 1.938003e-004
<GCONST> -9.703841e-001
<MIXTURE> 6 3.559243e-002
<MEAN> 9
 -9.289157e+000 -1.004819e+001 9.819276e-001 1.768293e+000 -2.121951e+001 1.745732e+002 1.463636e-001 3.690909e-001 2.112245e-001
<VARIANCE> 9
 4.883149e-001 3.371764e-001 2.380970e-001 2.977951e+001 3.680466e+001 1.210095e+002 4.762525e-004 5.782502e-004 1.938003e-004
<GCONST> 1.443439e+000
<MIXTURE> 7 3.566521e-002
<MEAN> 9
 -1.051657e+001 -6.851168e+000 -1.114185e+000 -5.684718e+001 -7.624039e+001 1.775788e+002 3.325863e-001 3.100529e-001 2.005032e-001
<VARIANCE> 9
 1.993723e-001 3.371764e-001 6.976298e-002 2.977951e+001 3.680466e+001 1.210095e+002 4.762525e-004 5.782502e-004 1.938003e-004
<GCONST> -6.799216e-001
<MIXTURE> 8 3.565699e-002
<MEAN> 9
 -9.200155e+000 -1.197390e+001 6.236548e-001 -7.709356e+000 4.146426e+001 1.353242e+002 5.597452e-002 3.732253e-001 1.850704e-001
<VARIANCE> 9
 1.600355e+000 3.371764e-001 1.182314e-001 2.977951e+001 1.006670e+002 1.006378e+003 4.762525e-004 5.782502e-004 1.938003e-004
<GCONST> 5.054862e+000
<MIXTURE> 9 5.335617e-002
<MEAN> 9
 -1.094743e+001 -9.324775e+000 -6.068808e-001 -1.124420e+001 3.130107e+000 2.204974e+002 2.031997e-001 3.651761e-001 2.088289e-001
<VARIANCE> 9
 1.491142e-001 3.371764e-001 3.166099e-001 2.977951e+001 2.110598e+002 1.912637e+002 4.762525e-004 5.782502e-004 1.938003e-004
<GCONST> 2.746484e+000
<MIXTURE> 10 5.348422e-002
<MEAN> 9
 -1.052375e+001 -4.379337e+000 -3.081716e+000 -4.317576e+001 1.280925e+001 2.501510e+002 3.642709e-001 2.735737e-001 2.220849e-001
<VARIANCE> 9
 1.491142e-001 3.371764e-001 1.355506e+000 1.727994e+002 1.911765e+002 1.210095e+002 9.421878e-004 5.782502e-004 1.938003e-004
<GCONST> 6.084580e+000
<MIXTURE> 11 3.559600e-002
<MEAN> 9
 -7.548242e+000 -1.045780e+001 1.734828e+000 -1.155510e+001 -8.798837e+001 1.390519e+002 1.040884e-001 3.840910e-001 2.173459e-001
<VARIANCE> 9
 1.491142e-001 3.371764e-001 6.976298e-002 2.977951e+001 3.665486e+002 1.210095e+002 4.762525e-004 5.782502e-004 1.938003e-004
<GCONST> 1.328120e+000
<MIXTURE> 12 3.559242e-002
<MEAN> 9
 -9.938317e+000 -5.007360e+000 -5.994917e-001 -6.997565e+001 -1.065916e+002 1.850050e+002 3.981618e-001 2.612083e-001 1.902842e-001
<VARIANCE> 9
 1.712424e-001 3.371764e-001 8.709810e-001 2.977951e+001 3.680466e+001 1.210095e+002 5.119836e-004 5.867765e-004 1.938003e-004
<GCONST> 1.779483e+000
<MIXTURE> 13 3.664678e-002
<MEAN> 9
 -7.446125e+000 -9.937413e+000 6.072233e-001 -1.079412e+001 -7.463373e+001 7.685043e+001 5.238789e-002 3.845937e-001 2.092719e-001
<VARIANCE> 9
 1.491142e-001 3.371764e-001 6.976298e-002 2.977951e+001 5.246409e+001 3.235529e+002 4.762525e-004 5.782502e-004 1.938003e-004
<GCONST> 3.676138e-001
<MIXTURE> 14 7.108474e-002
<MEAN> 9
 -1.012769e+001 -5.451901e+000 -1.925082e+000 -4.785440e+001 -1.768468e+001 2.470314e+002 3.620237e-001 2.773228e-001 2.268106e-001
<VARIANCE> 9
 3.232333e-001 1.641611e+000 2.911429e+000 3.020121e+001 4.123052e+001 1.210095e+002 8.458790e-004 6.943429e-004 1.938003e-004
<GCONST> 6.002404e+000
<MIXTURE> 15 5.339009e-002
<MEAN> 9
 -1.294378e+001 -1.231727e+001 1.381526e+000 4.650407e+001 5.664634e+001 2.644512e+002 1.845455e-001 3.690909e-001 2.105442e-001
<VARIANCE> 9
 4.137836e+000 3.371764e-001 2.441218e+000 2.977951e+001 7.716041e+002 6.319330e+002 1.310744e-003 5.782502e-004 1.938003e-004
<GCONST> 1.161614e+001
<MIXTURE> 16 5.329878e-002
<MEAN> 9
 -9.686679e+000 -7.851515e+000 -1.008019e+000 -4.664263e+001 -8.013620e+001 1.686969e+002 2.672845e-001 3.427298e-001 1.955754e-001
<VARIANCE> 9
 1.491142e-001 3.371764e-001 6.976298e-002 2.977951e+001 3.680466e+001 1.210095e+002 4.762525e-004 5.782502e-004 1.938003e-004
<GCONST> -9.703841e-001
<MIXTURE> 17 5.316012e-002
<MEAN> 9
 -8.191710e+000 -9.546631e+000 -2.802459e-001 -2.212377e+001 -1.402796e+001 1.483623e+002 1.514528e-001 3.675851e-001 1.829816e-001
<VARIANCE> 9
 1.491142e-001 3.371764e-001 1.116860e-001 2.977951e+001 3.680466e+001 1.210095e+002 4.762525e-004 5.782502e-004 1.938003e-004
<GCONST> -4.997950e-001
<MIXTURE> 18 3.558711e-002
<MEAN> 9
 -1.145787e+001 -8.295124e+000 -6.325697e-001 -2.457339e+001 9.175534e+000 2.400611e+002 2.727265e-001 3.372709e-001 2.193879e-001
<VARIANCE> 9
 1.491142e-001 3.371764e-001 8.016594e-002 2.977951e+001 3.680466e+001 1.210095e+002 4.762525e-004 5.782502e-004 1.938003e-004
<GCONST> -8.313880e-001
<MIXTURE> 19 5.405663e-002
<MEAN> 9
 -7.342752e+000 -9.992514e+000 1.915160e-001 -6.502934e+000 5.048354e+000 1.243067e+002 8.940158e-002 3.725176e-001 1.727787e-001
<VARIANCE> 9
 1.491142e-001 3.371764e-001 6.976298e-002 2.977951e+001 8.981170e+001 1.210095e+002 4.762525e-004 5.782502e-004 1.938003e-004
<GCONST> -7.829380e-002
<MIXTURE> 20 3.563114e-002
<MEAN> 9
 -9.815036e+000 -1.028279e+001 -1.600655e+000 -1.602692e+001 2.485766e+001 2.174617e+002 1.384620e-001 3.672312e-001 1.888200e-001
<VARIANCE> 9
 6.630102e-001 5.181658e-001 6.976298e-002 2.977951e+001 4.930869e+001 1.210095e+002 4.762525e-004 5.782502e-004 1.938003e-004
<GCONST> 1.243857e+000
<MIXTURE> 21 3.731186e-002
<MEAN> 9
 -7.652133e+000 -9.994975e+000 5.843430e-001 -1.153919e+001 -8.079572e+001 8.626258e+001 5.996879e-002 3.828589e-001 2.066947e-001
<VARIANCE> 9
 1.491142e-001 3.371764e-001 6.976298e-002 2.977951e+001 1.177566e+002 5.252490e+002 4.762525e-004 5.782502e-004 1.938003e-004
<GCONST> 1.660615e+000
<MIXTURE> 22 3.554434e-002
<MEAN> 9
 -9.389343e+000 -1.194737e+001 4.787528e-001 -8.357431e+000 3.648119e+001 1.459134e+002 6.174380e-002 3.713136e-001 1.838023e-001
<VARIANCE> 9
 1.165847e+000 3.371764e-001 1.437543e-001 2.977951e+001 1.391908e+002 1.082613e+003 4.762525e-004 5.782502e-004 1.938003e-004
<GCONST> 5.330594e+000
<MIXTURE> 23 3.559242e-002
<MEAN> 9
 -1.010384e+001 -5.239628e+000 -9.727971e-001 -7.215849e+001 -1.090182e+002 1.806048e+002 3.891110e-001 2.515189e-001 1.847158e-001
<VARIANCE> 9
 1.712424e-001 3.371764e-001 8.709810e-001 2.977951e+001 3.680466e+001 1.210095e+002 5.119836e-004 5.867765e-004 1.938003e-004
<GCONST> 1.779483e+000
<STATE> 3
<NUMMIXES> 23
<MIXTURE> 1 3.773012e-002
<MEAN> 9
 -4.890826e+000 -6.458442e-001 6.189453e-001 -6.578376e+001 -2.132533e+001 2.076420e+002 5.083237e-001 3.708438e-002 2.338422e-001
<VARIANCE> 9
 8.884696e-001 3.371764e-001 5.020565e-001 2.977951e+001 5.889471e+002 1.633171e+003 4.762525e-004 2.040029e-003 1.938003e-004
<GCONST> 9.423844e+000
<MIXTURE> 2 4.529574e-002
<MEAN> 9
 -7.329317e+000 -3.654619e+000 -5.261045e-001 -4.583333e+001 -1.890244e+000 3.065650e+002 4.587879e-001 1.733333e-001 2.333333e-001
<VARIANCE> 9
 1.491142e-001 4.202191e-001 1.519653e-001 1.076500e+002 3.680466e+001 4.108080e+002 4.817266e-004 8.844809e-004 1.938003e-004
<GCONST> 2.972079e+000
<MIXTURE> 3 3.731960e-002
<MEAN> 9
 -6.935655e+000 2.182592e+000 -2.949153e+000 -1.389263e+002 -1.048205e+001 1.331249e+002 5.143421e-001 4.410607e-003 2.173036e-001
<VARIANCE> 9
 1.491142e-001 3.371764e-001 1.522689e-001 5.857813e+001 1.429522e+002 3.375596e+002 4.762525e-004 1.333198e-003 1.938003e-004
<GCONST> 3.704789e+000
<MIXTURE> 4 4.529425e-002
<MEAN> 9
 -9.228917e+000 -2.895584e+000 -1.092370e+000 -8.136178e+001 -1.317073e+001 2.264228e+002 4.527272e-001 1.833334e-001 2.574830e-001
<VARIANCE> 9
 4.215404e-001 3.371764e-001 1.689968e-001 5.079391e+001 4.641086e+001 1.210095e+002 4.762525e-004 6.222198e-004 1.938003e-004
<GCONST> 1.792745e+000
<MIXTURE> 5 4.381799e-002
<MEAN> 9
 -7.791203e+000 3.321314e+000 -1.824575e+000 -1.520414e+002 2.163188e+001 9.355609e+001 5.181146e-001 -6.505390e-002 2.261245e-001
<VARIANCE> 9
 1.491142e-001 3.371764e-001 2.870630e-001 2.977951e+001 3.680466e+001 1.210095e+002 4.762525e-004 5.782502e-004 1.938003e-004
<GCONST> 4.442129e-001
<MIXTURE> 6 3.024661e-002
<MEAN> 9
 -6.735826e+000 7.722967e-001 1.125876e+000 -7.446616e+001 -9.445426e+000 1.338987e+002 5.181801e-001 5.902767e-002 1.586961e-001
<VARIANCE> 9
 1.491142e-001 3.371764e-001 6.976298e-002 2.977951e+001 3.680466e+001 1.210095e+002 4.762525e-004 5.782502e-004 1.938003e-004
<GCONST> -9.703841e-001
<MIXTURE> 7 4.529525e-002
<MEAN> 9
 -7.570275e+000 1.807285e-001 -4.457831e+000 -1.033538e+002 -5.636185e+001 1.970121e+002 4.806062e-001 9.999970e-002 2.210884e-001
<VARIANCE> 9
 5.665426e-001 3.371764e-001 6.976298e-002 6.314914e+001 3.680466e+001 1.210095e+002 4.762525e-004 5.790619e-004 1.938003e-004
<GCONST> 1.117536e+000
<MIXTURE> 8 2.891966e-002
<MEAN> 9
 -7.814477e+000 1.865942e+000 1.965191e+000 -9.333144e+001 -1.014012e+000 9.277103e+001 5.222381e-001 4.876504e-003 1.694528e-001
<VARIANCE> 9
 1.917827e-001 3.371764e-001 1.099595e-001 2.977951e+001 2.036254e+002 1.210095e+002 4.762525e-004 5.782502e-004 1.938003e-004
<GCONST> 1.446933e+000
<MIXTURE> 9 4.881729e-002
<MEAN> 9
 -6.677120e+000 -3.420671e-001 2.331760e+000 -2.462526e+001 -7.341025e+000 3.857660e+001 5.274011e-001 -6.938248e-002 2.098011e-001
<VARIANCE> 9
 1.491142e-001 3.637983e-001 1.314842e-001 2.977951e+001 3.680466e+001 4.243799e+002 4.762525e-004 5.782502e-004 1.938003e-004
<GCONST> 9.941511e-001
<MIXTURE> 10 4.541923e-002
<MEAN> 9
 -7.281207e+000 -2.175988e-001 -2.922936e-001 -9.227697e+001 -1.882086e+001 1.820452e+002 4.942875e-001 9.311181e-002 2.605589e-001
<VARIANCE> 9
 1.491142e-001 3.452546e-001 6.976298e-002 2.977951e+001 3.680466e+001 2.398262e+002 4.762525e-004 5.782502e-004 1.938003e-004
<GCONST> -2.626619e-001
<MIXTURE> 11 5.911298e-002
<MEAN> 9
 -7.704373e+000 2.008659e+000 1.851325e+000 -1.479080e+002 -1.794296e+000 3.980793e+001 5.077174e-001 -1.477022e-001 2.141526e-001
<VARIANCE> 9
 1.491142e-001 3.371764e-001 8.315389e-001 4.849104e+001 5.289399e+001 1.314903e+002 4.762525e-004 5.782502e-004 1.938003e-004
<GCONST> 2.441079e+000
<MIXTURE> 12 3.021408e-002
<MEAN> 9
 -3.783369e+000 -7.108434e-001 2.077769e+000 -4.549564e+001 -5.192988e+001 1.024000e+002 5.227247e-001 -6.043388e-002 2.081764e-001
<VARIANCE> 9
 9.519530e-001 3.371764e-001 1.732061e-001 2.977951e+001 4.857564e+002 2.166824e+002 4.762525e-004 5.782502e-004 1.938003e-004
<GCONST> 4.955443e+000
<MIXTURE> 13 6.039267e-002
<MEAN> 9
 -7.186747e+000 4.578313e-001 4.283133e+000 -8.509146e+001 -7.256098e+000 2.935976e+001 5.261363e-001 -4.977273e-002 1.584184e-001
<VARIANCE> 9
 1.932428e-001 3.946147e-001 8.190601e-002 1.147782e+002 5.624070e+001 1.210095e+002 4.762525e-004 5.782502e-004 1.938003e-004
<GCONST> 1.379817e+000
<MIXTURE> 14 6.032779e-002
<MEAN> 9
 -7.851888e+000 -2.245404e+000 1.260851e-001 -6.142818e+001 -6.503478e+001 1.783651e+002 4.647505e-001 1.663881e-001 1.617298e-001
<VARIANCE> 9
 3.194672e-001 9.192814e-001 6.976298e-002 2.977951e+001 1.761426e+003 1.210095e+002 4.762525e-004 5.955391e-004 1.938003e-004
<GCONST> 4.692259e+000
<MIXTURE> 15 6.035203e-002
<MEAN> 9
 -6.701434e+000 1.270779e+000 7.226729e-001 -8.057915e+001 -2.750532e+001 1.141831e+002 5.195444e-001 -6.609842e-003 2.293970e-001
<VARIANCE> 9
 1.619420e-001 3.371764e-001 6.976298e-002 4.096299e+001 5.204826e+002 1.210095e+002 4.762525e-004 5.782502e-004 1.122258e-003
<GCONST> 3.836392e+000
<MIXTURE> 16 3.773798e-002
<MEAN> 9
 -6.493928e+000 4.704706e-001 2.031077e+000 -5.004155e+001 -2.782147e+001 5.912574e+001 5.270925e-001 -6.864379e-002 2.382933e-001
<VARIANCE> 9
 1.491142e-001 3.371764e-001 1.480140e-001 1.147757e+002 5.856794e+001 3.738769e+002 4.762525e-004 5.782502e-004 1.938003e-004
<GCONST> 2.723601e+000
<MIXTURE> 17 4.529570e-002
<MEAN> 9
 -8.473896e+000 -1.751005e+000 -4.469879e+000 -7.544714e+001 -4.668699e+001 2.315041e+002 4.306060e-001 1.912122e-001 2.251701e-001
<VARIANCE> 9
 1.491142e-001 3.971868e-001 8.022436e-002 4.853841e+001 3.680466e+001 1.210095e+002 4.762525e-004 6.348942e-004 1.938003e-004
<GCONST> -8.487606e-002
<MIXTURE> 18 4.522289e-002
<MEAN> 9
 -7.447443e+000 -1.625388e-002 6.202358e-001 -7.678608e+001 -3.241603e+001 1.517967e+002 5.017705e-001 8.392958e-002 1.963441e-001
<VARIANCE> 9
 1.491142e-001 3.371764e-001 2.119190e-001 1.299049e+002 3.680466e+001 1.210095e+002 4.762525e-004 1.435020e-003 2.281250e-003
<GCONST> 4.988277e+000
<MIXTURE> 19 3.300626e-002
<MEAN> 9
 -7.862569e+000 3.483011e+000 -3.129434e-001 -1.549619e+002 1.450098e+001 7.169463e+001 5.133109e-001 -1.086676e-001 2.324194e-001
<VARIANCE> 9
 1.491142e-001 3.371764e-001 1.154501e-001 2.977951e+001 3.680466e+001 1.210095e+002 4.762525e-004 5.782502e-004 1.938003e-004
<GCONST> -4.666491e-001
<MIXTURE> 20 4.657444e-002
<MEAN> 9
 -6.353674e+000 2.016807e+000 2.294926e+000 -9.623287e+001 -2.573829e+001 6.529251e+001 5.236200e-001 -1.717205e-002 1.647165e-001
<VARIANCE> 9
 1.850525e-001 3.371764e-001 6.976298e-002 2.977951e+001 5.459715e+001 1.210095e+002 4.762525e-004 5.782502e-004 1.938003e-004
<GCONST> -3.601007e-001
<MIXTURE> 21 3.812355e-002
<MEAN> 9
 -7.039240e+000 1.806094e+000 -3.269867e+000 -1.325920e+002 -1.939987e+001 1.483581e+002 5.104169e-001 3.207490e-002 2.165811e-001
<VARIANCE> 9
 1.491142e-001 3.371764e-001 1.487596e-001 6.809023e+001 9.542322e+001 2.890602e+002 4.762525e-004 1.209862e-003 1.938003e-004
<GCONST> 3.175576e+000
<MIXTURE> 22 3.774582e-002
<MEAN> 9
 -4.979362e+000 -6.938865e-001 8.555369e-001 -6.490199e+001 -2.836103e+001 1.922412e+002 5.105810e-001 2.221541e-002 2.335058e-001
<VARIANCE> 9
 8.565993e-001 3.371764e-001 5.182199e-001 2.977951e+001 7.537623e+002 1.921967e+003 4.762525e-004 2.332801e-003 1.938003e-004
<GCONST> 9.962676e+000
<MIXTURE> 23 3.773798e-002
<MEAN> 9
 -6.648389e+000 2.382030e-001 1.877187e+000 -5.432689e+001 -3.088265e+001 5.139138e+001 5.183631e-001 -7.826252e-002 2.327249e-001
<VARIANCE> 9
 1.491142e-001 3.371764e-001 1.480140e-001 1.147757e+002 5.856794e+001 3.738769e+002 4.762525e-004 5.782502e-004 1.938003e-004
<GCONST> 2.723601e+000
<STATE> 4
<NUMMIXES> 23
<MIXTURE> 1 3.557564e-002
<MEAN> 9
 -7.252078e+000 5.479136e+000 -3.810195e-001 8.839984e-001 6.224603e+001 7.739533e+001 4.953867e-001 -1.766578e-001 2.677979e-001
<VARIANCE> 9
 7.398497e-001 3.371764e-001 1.252736e+000 8.377090e+001 3.392812e+002 5.585699e+002 4.762525e-004 5.782502e-004 1.938003e-004
<GCONST> 8.304315e+000
<MIXTURE> 2 4.789550e-002
<MEAN> 9
 -9.492384e+000 2.059141e+000 4.150070e+000 1.330593e+001 3.758934e+001 2.427398e+001 5.255504e-001 -7.093430e-002 1.964798e-001
<VARIANCE> 9
 1.491142e-001 3.371764e-001 1.516062e-001 2.977951e+001 3.680466e+001 1.210095e+002 4.762525e-004 5.782502e-004 1.938003e-004
<GCONST> -1.941996e-001
<MIXTURE> 3 5.069197e-002
<MEAN> 9
 -8.681458e+000 4.378445e+000 3.929821e+000 1.961983e+001 1.147059e+001 2.326471e+001 5.122873e-001 -1.578899e-001 1.978192e-001
<VARIANCE> 9
 4.925036e-001 1.175558e+000 4.420290e-001 2.666147e+002 4.877310e+002 1.210095e+002 4.762525e-004 9.505040e-004 1.938003e-004
<GCONST> 8.592675e+000
<MIXTURE> 4 3.816034e-002
<MEAN> 9
 -7.337741e+000 5.997036e+000 1.165965e+000 3.581147e+001 1.160904e+000 2.931717e+001 5.013650e-001 -1.924966e-001 2.112258e-001
<VARIANCE> 9
 2.057438e+000 3.371764e-001 1.372095e-001 2.977951e+001 3.533167e+002 1.210095e+002 4.762525e-004 5.782502e-004 1.938003e-004
<GCONST> 4.592265e+000
<MIXTURE> 5 6.734437e-002
<MEAN> 9
 -8.255148e+000 2.534558e-001 4.793771e+000 -7.424959e+001 -2.510108e+000 3.287294e+000 5.119501e-001 -1.638474e-001 1.875295e-001
<VARIANCE> 9
 1.491142e-001 3.371764e-001 2.819602e-001 1.092963e+003 3.680466e+001 1.210095e+002 4.762525e-004 5.782502e-004 1.938003e-004
<GCONST> 4.029105e+000
<MIXTURE> 6 3.711339e-002
<MEAN> 9
 -9.901610e+000 3.260129e+000 2.998810e+000 -3.457953e-001 1.286045e+001 1.449998e+001 5.215945e-001 -1.069509e-001 2.167383e-001
<VARIANCE> 9
 1.491142e-001 3.371764e-001 6.976298e-002 2.977951e+001 3.680466e+001 1.210095e+002 4.762525e-004 5.782502e-004 1.938003e-004
<GCONST> -9.703841e-001
<MIXTURE> 7 3.769400e-002
<MEAN> 9
 -6.118137e+000 5.648612e+000 1.817492e-001 -4.752396e+001 8.781789e+001 5.765272e+001 4.611044e-001 -2.383623e-001 3.022707e-001
<VARIANCE> 9
 3.833060e-001 3.371764e-001 6.976298e-002 1.601013e+002 1.053232e+002 1.366960e+002 4.762525e-004 5.782502e-004 1.978374e-004
<GCONST> 2.849640e+000
<MIXTURE> 8 4.680774e-002
<MEAN> 9
 -8.282083e+000 4.098485e+000 2.367125e+000 1.354113e+001 1.617551e+001 4.495122e+001 5.059892e-001 -1.404727e-001 2.490316e-001
<VARIANCE> 9
 1.491142e-001 3.371764e-001 1.827319e-001 2.977951e+001 3.680466e+001 1.210095e+002 4.762525e-004 5.782502e-004 1.938003e-004
<GCONST> -7.466316e-003
<MIXTURE> 9 4.526390e-002
<MEAN> 9
 -8.992257e+000 8.461567e-002 5.006054e+000 -2.422720e+001 2.489763e+001 1.470239e+001 5.252993e-001 -5.498888e-002 1.658267e-001
<VARIANCE> 9
 2.576231e-001 3.371764e-001 6.976298e-002 3.928700e+002 5.257578e+001 1.210095e+002 4.762525e-004 5.782502e-004 1.938003e-004
<GCONST> 2.512691e+000
<MIXTURE> 10 3.588657e-002
<MEAN> 9
 -8.736619e+000 1.253016e+000 2.309690e+000 -1.074091e+001 2.465952e+000 9.539336e+000 5.257692e-001 -9.110330e-002 2.101209e-001
<VARIANCE> 9
 9.263818e-001 4.535233e-001 8.014052e-002 2.977951e+001 4.029459e+001 2.265045e+002 4.762525e-004 5.782502e-004 1.938003e-004
<GCONST> 2.008796e+000
<MIXTURE> 11 6.675384e-002
<MEAN> 9
 -1.059202e+001 3.813071e+000 1.668915e+000 -4.678441e+000 2.832943e+001 5.109632e+001 5.177878e-001 -1.219479e-001 2.243466e-001
<VARIANCE> 9
 3.276297e-001 3.371764e-001 1.552819e-001 2.977951e+001 2.038172e+002 1.447200e+002 4.762525e-004 5.782502e-004 2.261422e-004
<GCONST> 2.661793e+000
<MIXTURE> 12 5.712402e-002
<MEAN> 9
 -7.366512e+000 4.568897e+000 1.306490e+000 -8.644576e+001 4.584806e+001 4.941040e+001 4.830176e-001 -2.142591e-001 2.360632e-001
<VARIANCE> 9
 3.784730e-001 3.371764e-001 2.610237e-001 2.454498e+002 6.017170e+001 1.210095e+002 4.762525e-004 5.782502e-004 1.938003e-004
<GCONST> 3.881404e+000
<MIXTURE> 13 5.740803e-002
<MEAN> 9
 -7.891707e+000 5.094585e+000 1.999904e-001 -2.575912e+001 2.539535e+001 6.432001e+001 5.079886e-001 -1.526950e-001 2.211154e-001
<VARIANCE> 9
 8.719988e-001 3.371764e-001 1.718180e-001 2.362446e+002 2.378432e+002 1.210095e+002 4.762525e-004 5.782502e-004 1.938003e-004
<GCONST> 5.634059e+000
<MIXTURE> 14 3.452000e-002
<MEAN> 9
 -9.262570e+000 3.203100e+000 2.674990e+000 1.779414e+001 2.117626e+001 3.252673e+001 5.261145e-001 -9.201986e-002 2.262277e-001
<VARIANCE> 9
 1.491142e-001 3.371764e-001 2.122110e-001 2.977951e+001 3.948232e+001 1.210095e+002 4.762525e-004 5.782502e-004 1.938003e-004
<GCONST> 2.123213e-001
<MIXTURE> 15 3.705669e-002
<MEAN> 9
 -5.859534e+000 6.116111e+000 1.105114e+000 -6.797023e+001 1.911232e+001 3.507973e+001 4.576234e-001 -2.469689e-001 2.849440e-001
<VARIANCE> 9
 8.114465e-001 3.371764e-001 2.208695e-001 3.336326e+001 1.427513e+003 1.214767e+002 4.762525e-004 5.782502e-004 3.844436e-004
<GCONST> 6.336713e+000
<MIXTURE> 16 2.994389e-002
<MEAN> 9
 -8.879655e+000 3.640758e+000 2.169891e+000 4.123213e+000 1.837311e+001 7.274485e+001 5.072239e-001 -1.486870e-001 2.449477e-001
<VARIANCE> 9
 1.491142e-001 3.371764e-001 7.474650e-002 6.226361e+001 6.898515e+001 3.482132e+002 4.762525e-004 5.782502e-004 1.938003e-004
<GCONST> 1.521386e+000
<MIXTURE> 17 4.426374e-002
<MEAN> 9
 -8.978145e+000 2.726212e+000 5.216260e+000 5.194696e+000 1.265023e+001 7.958087e+000 5.095149e-001 -1.759537e-001 1.820827e-001
<VARIANCE> 9
 1.491142e-001 5.262046e-001 6.976298e-002 1.385551e+002 3.680466e+001 1.210095e+002 4.762525e-004 5.782502e-004 1.938003e-004
<GCONST> 1.012149e+000
<MIXTURE> 18 3.818555e-002
<MEAN> 9
 -7.933342e+000 5.425164e+000 -2.669552e-001 -3.377057e+001 2.333562e+001 4.897549e+001 4.768125e-001 -2.052421e-001 2.844364e-001
<VARIANCE> 9
 1.491142e-001 3.371764e-001 1.367304e-001 1.510157e+002 3.680466e+001 1.210095e+002 4.762525e-004 5.782502e-004 1.938003e-004
<GCONST> 1.326087e+000
<MIXTURE> 19 4.089624e-002
<MEAN> 9
 -9.485059e+000 2.961233e+000 2.982902e+000 -3.524516e+000 6.458616e+000 6.710310e+000 5.238364e-001 -1.032507e-001 2.137724e-001
<VARIANCE> 9
 1.491142e-001 3.371764e-001 6.976298e-002 2.977951e+001 3.680466e+001 1.210095e+002 4.762525e-004 5.782502e-004 1.938003e-004
<GCONST> -9.703841e-001
<MIXTURE> 20 3.969208e-002
<MEAN> 9
 -5.653705e+000 6.197264e+000 1.579984e+000 -7.617819e+001 5.783421e+001 1.007738e+001 4.441013e-001 -2.553964e-001 3.033892e-001
<VARIANCE> 9
 7.304540e-001 3.371764e-001 5.293623e-001 2.977951e+001 1.617170e+003 1.540184e+002 4.762525e-004 5.782502e-004 1.009151e-003
<GCONST> 8.319187e+000
<MIXTURE> 21 4.055685e-002
<MEAN> 9
 -8.967949e+000 5.107939e+000 9.688165e-001 1.330508e+000 3.468599e+001 4.120918e+001 4.973640e-001 -1.750005e-001 2.724940e-001
<VARIANCE> 9
 4.455763e-001 3.371764e-001 1.978392e-001 5.289969e+001 5.814217e+001 1.291624e+002 4.762525e-004 5.782502e-004 1.938003e-004
<GCONST> 2.263669e+000
<MIXTURE> 22 3.664574e-002
<MEAN> 9
 -8.730098e+000 1.049276e+000 2.281518e+000 -1.183103e+001 6.376066e-001 1.371651e+001 5.240106e-001 -9.279644e-002 2.085425e-001
<VARIANCE> 9
 1.069551e+000 4.654670e-001 9.952234e-002 2.977951e+001 3.680466e+001 2.531285e+002 4.762525e-004 5.782502e-004 1.938003e-004
<GCONST> 2.415641e+000
<MIXTURE> 23 3.452000e-002
<MEAN> 9
 -9.417031e+000 2.970832e+000 2.490724e+000 1.561132e+001 1.866286e+001 2.812655e+001 5.173851e-001 -1.016386e-001 2.206593e-001
<VARIANCE> 9
 1.491142e-001 3.371764e-001 2.122110e-001 2.977951e+001 3.948232e+001 1.210095e+002 4.762525e-004 5.782502e-004 1.938003e-004
<GCONST> 2.123213e-001
<STATE> 5
<NUMMIXES> 23
<MIXTURE> 1 2.138634e-002
<MEAN> 9
 -1.629651e+000 1.076203e+001 1.188844e+001 9.132727e+000 -5.035009e+001 2.526004e+001 4.465904e-001 -2.661367e-001 2.808689e-001
<VARIANCE> 9
 2.697132e+001 3.494920e-001 3.405017e+001 1.635071e+003 6.648088e+002 8.589388e+002 5.191694e-004 5.782502e-004 3.723129e-003
<GCONST> 2.235489e+001
<MIXTURE> 2 4.660678e-002
<MEAN> 9
 -7.183108e+000 7.670732e+000 1.207335e+000 -8.601213e+000 -2.425719e+001 6.973180e+000 4.259822e-001 -2.760458e-001 3.341635e-001
<VARIANCE> 9
 6.889588e-001 3.371764e-001 5.643731e-001 6.183680e+001 2.534081e+002 1.210095e+002 4.762525e-004 5.782502e-004 1.938003e-004
<GCONST> 5.310752e+000
<MIXTURE> 3 3.799232e-002
<MEAN> 9
 -6.583702e+000 -1.322485e+000 1.518156e+001 -7.068192e+001 -2.078657e+000 1.037707e+001 4.503226e-001 -2.727475e-001 2.015353e-001
<VARIANCE> 9
 3.513452e+001 1.176848e+001 2.963895e+001 2.375835e+003 3.209557e+003 3.317845e+002 4.762525e-004 8.442227e-004 3.143525e-003
<GCONST> 2.711700e+001
<MIXTURE> 4 5.409082e-002
<MEAN> 9
 -8.036656e+000 6.333798e+000 2.499717e+000 7.311957e+001 -3.262666e+001 5.865860e+000 4.814971e-001 -2.308876e-001 2.387002e-001
<VARIANCE> 9
 1.299495e+000 3.371764e-001 6.284383e+000 1.552242e+002 3.713506e+002 1.210095e+002 4.762525e-004 5.782502e-004 1.938003e-004
<GCONST> 9.657928e+000
<MIXTURE> 5 3.008498e-002
<MEAN> 9
 -6.782948e+000 3.609312e+000 5.213829e+000 -1.869371e+000 -1.338980e+001 5.754939e+000 4.471287e-001 -2.849816e-001 1.673995e-001
<VARIANCE> 9
 6.771610e-001 3.371764e-001 2.074755e+000 3.436364e+001 1.286520e+002 1.210095e+002 4.762525e-004 5.782502e-004 1.896263e-003
<GCONST> 7.610783e+000
<MIXTURE> 6 4.971363e-002
<MEAN> 9
 -1.032614e+001 4.941720e+000 1.327076e+000 3.690256e+001 1.797127e+001 -5.452141e+000 4.431533e-001 -2.932993e-001 1.790264e-001
<VARIANCE> 9
 1.030633e+000 6.576785e-001 1.462062e+000 2.045736e+002 2.274803e+003 1.210095e+002 4.762525e-004 5.782502e-004 7.422869e-004
<GCONST> 1.206748e+001
<MIXTURE> 7 3.533890e-002
<MEAN> 9
 -9.138445e+000 4.125381e+000 -9.371330e-001 -3.042089e+001 1.626009e+001 9.622969e+000 4.795465e-001 -2.349412e-001 2.438391e-001
<VARIANCE> 9
 2.905578e-001 3.371764e-001 7.446249e+000 1.984776e+003 3.680466e+001 1.210095e+002 4.762525e-004 5.782502e-004 1.938003e-004
<GCONST> 8.566508e+000
<MIXTURE> 8 3.744115e-002
<MEAN> 9
 -9.139793e+000 1.318526e+000 7.658594e+000 3.504230e+001 -1.215738e+001 -2.053829e+000 4.392982e-001 -2.990142e-001 1.303160e-001
<VARIANCE> 9
 4.940477e-001 3.371764e-001 4.128890e+000 1.308566e+003 1.035710e+003 1.831692e+002 4.762525e-004 5.782502e-004 1.938003e-004
<GCONST> 1.184282e+001
<MIXTURE> 9 4.296993e-002
<MEAN> 9
 -7.668170e+000 4.461512e+000 2.993328e+000 -1.345754e+002 7.782724e+001 4.506420e+000 4.782151e-001 -2.336248e-001 2.216202e-001
<VARIANCE> 9
 1.067799e+000 3.371764e-001 5.370419e+000 3.192458e+002 3.690821e+002 1.210095e+002 4.762525e-004 5.782502e-004 1.938003e-004
<GCONST> 1.001935e+001
<MIXTURE> 10 3.918515e-002
<MEAN> 9
 -9.388870e+000 3.128694e+000 1.362075e+000 -9.620100e+001 2.843443e+001 2.390002e+001 4.675348e-001 -2.603743e-001 2.124879e-001
<VARIANCE> 9
 5.994509e-001 3.371764e-001 3.563905e-001 4.662338e+002 3.680466e+001 1.278136e+002 4.762525e-004 5.782502e-004 1.938003e-004
<GCONST> 4.857411e+000
<MIXTURE> 11 6.137938e-002
<MEAN> 9
 -8.718684e+000 5.282921e+000 3.137679e+000 -1.892851e+001 2.390754e+001 -1.330665e+001 4.666719e-001 -2.476324e-001 2.402084e-001
<VARIANCE> 9
 2.639101e+000 1.803831e+000 9.947059e-001 2.489956e+003 1.234319e+003 1.210095e+002 4.762525e-004 5.782502e-004 1.938003e-004
<GCONST> 1.417635e+001
<MIXTURE> 12 5.418382e-002
<MEAN> 9
 -8.563124e+000 6.654556e+000 1.656803e+000 8.599367e+000 6.589417e+000 -4.740893e+000 4.657526e-001 -2.519168e-001 2.394434e-001
<VARIANCE> 9
 5.334567e-001 6.337358e-001 1.314427e+000 2.708383e+002 4.132503e+001 1.210095e+002 4.762525e-004 5.782502e-004 1.938003e-004
<GCONST> 6.194903e+000
<MIXTURE> 13 3.176157e-002
<MEAN> 9
 -7.847106e+000 1.816272e+000 3.913883e+000 -1.419068e+002 3.832940e+001 3.154804e+001 4.538033e-001 -2.871709e-001 1.832979e-001
<VARIANCE> 9
 1.311064e+000 3.371764e-001 4.510695e+000 8.240244e+002 2.116787e+002 1.210095e+002 4.762525e-004 5.782502e-004 3.020455e-004
<GCONST> 1.088618e+001
<MIXTURE> 14 5.803873e-002
<MEAN> 9
 -6.826246e+000 5.950128e+000 3.872149e+000 8.866562e+000 -8.946059e+000 -2.613464e+000 4.625202e-001 -2.587208e-001 2.298527e-001
<VARIANCE> 9
 3.738248e-001 3.371764e-001 7.204737e-001 8.539561e+001 3.680466e+001 1.210095e+002 4.762525e-004 5.782502e-004 1.938003e-004
<GCONST> 3.336970e+000
<MIXTURE> 15 5.660136e-002
<MEAN> 9
 -6.985382e+000 5.708726e+000 1.025158e-001 -2.571420e+001 -3.302480e+000 1.482898e+001 4.806747e-001 -2.269140e-001 2.234679e-001
<VARIANCE> 9
 3.058697e+000 3.371764e-001 1.581898e+001 1.315648e+003 7.983857e+002 1.210095e+002 4.762525e-004 5.782502e-004 1.938003e-004
<GCONST> 1.433974e+001
<MIXTURE> 16 6.080478e-002
<MEAN> 9
 -7.910663e+000 3.215883e+000 4.697369e+000 6.589851e+000 -1.125595e+001 7.312007e-001 4.420137e-001 -2.994871e-001 1.604366e-001
<VARIANCE> 9
 1.525481e-001 4.205037e-001 9.868716e-001 2.977951e+001 2.208033e+002 1.210095e+002 4.762525e-004 5.782502e-004 8.851946e-004
<GCONST> 5.233292e+000
<MIXTURE> 17 5.311331e-002
<MEAN> 9
 -8.513396e+000 4.624581e+000 2.173654e-001 -6.739503e+001 1.631793e+001 -9.652915e+000 4.394616e-001 -2.873353e-001 2.794636e-001
<VARIANCE> 9
 3.149360e-001 3.371764e-001 1.246045e-001 3.290461e+002 1.267310e+002 1.210095e+002 4.762525e-004 5.782502e-004 1.938003e-004
<GCONST> 3.996131e+000
<MIXTURE> 18 3.764537e-002
<MEAN> 9
 -7.976062e+000 4.662817e+000 1.644180e+000 -9.240238e+000 -7.512787e+000 -1.472307e+001 4.676415e-001 -2.521680e-001 2.289741e-001
<VARIANCE> 9
 1.491142e-001 3.371764e-001 2.376681e-001 1.759027e+002 3.680466e+001 1.210095e+002 4.762525e-004 5.782502e-004 1.938003e-004
<GCONST> 2.031497e+000
<MIXTURE> 19 3.950948e-002
<MEAN> 9
 -7.474305e+000 7.041973e+000 1.092155e-001 -8.280172e+000 2.999121e+000 -8.734356e+000 4.239529e-001 -2.783979e-001 3.307273e-001
<VARIANCE> 9
 5.373863e-001 3.371764e-001 9.100645e-001 7.461590e+002 3.282373e+002 1.210095e+002 4.762525e-004 5.782502e-004 5.247014e-004
<GCONST> 9.285265e+000
<MIXTURE> 20 4.504898e-002
<MEAN> 9
 -8.776634e+000 3.519094e+000 1.484602e+000 -5.434416e+001 1.304095e+001 -5.795159e+000 4.764216e-001 -2.408700e-001 2.209244e-001
<VARIANCE> 9
 2.605063e-001 3.371764e-001 1.065215e+000 4.584053e+002 5.062923e+001 2.162852e+002 4.762525e-004 5.782502e-004 1.938003e-004
<GCONST> 5.946925e+000
<MIXTURE> 21 3.879951e-002
<MEAN> 9
 -8.522779e+000 3.327461e+000 1.051759e+000 -1.163308e+002 2.498705e+001 2.266942e+001 4.513096e-001 -2.848894e-001 2.250535e-001
<VARIANCE> 9
 3.592602e-001 3.371764e-001 5.614185e-001 2.810588e+002 3.680466e+001 1.606853e+002 4.762525e-004 6.637006e-004 2.202065e-004
<GCONST> 4.788197e+000
<MIXTURE> 22 3.654219e-002
<MEAN> 9
 -7.550293e+000 -2.436212e+000 1.471517e+001 -9.671838e+001 -1.539305e+000 6.074378e+000 4.412856e-001 -2.913780e-001 1.904550e-001
<VARIANCE> 9
 2.599488e+001 8.253910e+000 3.952393e+001 2.180021e+003 2.775313e+003 3.473937e+002 4.762525e-004 7.829890e-004 3.288536e-003
<GCONST> 2.653319e+001
<MIXTURE> 23 3.176157e-002
<MEAN> 9
 -8.305113e+000 1.584004e+000 3.064347e+000 -1.533892e+002 3.250972e+001 2.714786e+001 4.450741e-001 -2.967897e-001 1.763461e-001
<VARIANCE> 9
 1.311064e+000 3.371764e-001 4.510695e+000 8.240244e+002 2.116787e+002 1.210095e+002 4.762525e-004 5.782502e-004 3.020455e-004
<GCONST> 1.088618e+001
<STATE> 6
<NUMMIXES> 23
<MIXTURE> 1 4.202283e-002
<MEAN> 9
 -6.089633e+000 6.448096e-001 2.117480e+000 1.525818e+002 -3.960114e+001 -1.104190e+002 4.983948e-001 -1.913806e-001 1.879096e-001
<VARIANCE> 9
 1.491142e-001 3.371764e-001 3.780282e-001 1.821795e+002 9.119614e+002 1.210095e+002 4.762525e-004 5.782502e-004 1.938003e-004
<GCONST> 5.740626e+000
<MIXTURE> 2 3.659227e-002
<MEAN> 9
 -5.783954e+000 2.221429e+000 1.222776e+000 1.374431e+002 -1.429832e+002 -1.456349e+002 5.005508e-001 -1.640202e-001 7.352760e-002
<VARIANCE> 9
 4.110737e-001 3.371764e-001 6.976298e-002 2.700829e+002 1.429892e+002 1.249583e+003 4.762525e-004 1.645608e-003 1.383126e-003
<GCONST> 8.951556e+000
<MIXTURE> 3 4.059431e-002
<MEAN> 9
 -6.965176e+000 9.513424e-001 2.670487e+000 1.447271e+002 -5.412851e+001 -7.690100e+001 4.779256e-001 -2.402999e-001 1.959263e-001
<VARIANCE> 9
 1.658026e-001 3.371764e-001 1.511303e-001 2.598446e+002 2.397445e+002 1.210095e+002 4.762525e-004 6.830041e-004 5.838617e-004
<GCONST> 5.218285e+000
<MIXTURE> 4 3.588069e-002
<MEAN> 9
 -7.609992e+000 -1.183287e+000 1.798882e+000 5.995716e+001 -5.350741e+001 -2.600525e+002 4.828316e-001 8.570357e-002 1.427085e-002
<VARIANCE> 9
 6.594121e-001 1.778885e+000 1.109805e+000 6.244221e+002 4.304131e+002 1.924371e+002 4.762525e-004 5.129524e-003 3.006763e-003
<GCONST> 1.583681e+001
<MIXTURE> 5 2.064627e-002
<MEAN> 9
 -5.578445e+000 6.869550e-001 -7.788259e-002 1.764924e+002 -9.304901e+001 -1.381580e+002 5.063564e-001 -1.695626e-001 2.081641e-001
<VARIANCE> 9
 1.491142e-001 3.371764e-001 6.976298e-002 2.977951e+001 4.335061e+001 1.248844e+002 4.762525e-004 5.782502e-004 1.938003e-004
<GCONST> -7.751689e-001
<MIXTURE> 6 6.178551e-002
<MEAN> 9
 -8.367115e+000 7.223659e-001 6.251915e+000 3.668760e+001 -3.334221e+001 -1.031103e+001 4.592755e-001 -2.685370e-001 1.707429e-001
<VARIANCE> 9
 1.491142e-001 5.043129e-001 6.976298e-002 5.425765e+002 3.680466e+001 1.210095e+002 4.762525e-004 5.782502e-004 1.938003e-004
<GCONST> 2.334716e+000
<MIXTURE> 7 3.783986e-002
<MEAN> 9
 -7.852584e+000 -5.028766e-001 -1.970709e-001 1.491920e+002 -7.228625e+000 -2.293554e+002 5.209180e-001 3.505543e-002 1.588962e-001
<VARIANCE> 9
 4.616161e+000 3.371764e-001 4.093370e-001 2.977951e+001 1.231903e+003 1.232183e+002 4.762525e-004 1.835892e-003 1.938003e-004
<GCONST> 8.915715e+000
<MIXTURE> 8 4.109556e-002
<MEAN> 9
 -6.990447e+000 6.637195e-002 4.692435e+000 1.178598e+002 -5.462275e+001 -4.858622e+001 4.671460e-001 -2.614875e-001 1.630571e-001
<VARIANCE> 9
 1.491142e-001 3.371764e-001 4.015924e-001 5.981160e+002 3.680466e+001 1.210095e+002 4.762525e-004 5.782502e-004 1.938003e-004
<GCONST> 3.779914e+000
<MIXTURE> 9 5.080596e-002
<MEAN> 9
 -9.970527e+000 -3.358321e+000 9.157700e-001 3.112311e+001 1.266743e+001 -3.070180e+002 4.414042e-001 1.734460e-001 3.110889e-002
<VARIANCE> 9
 1.502707e-001 3.604631e-001 1.804254e+000 1.597458e+002 4.019102e+002 6.753522e+002 4.762525e-004 6.560631e-004 3.564944e-003
<GCONST> 1.118498e+001
<MIXTURE> 10 7.151606e-002
<MEAN> 9
 -8.803769e+000 -1.096897e+000 -1.585440e+000 1.023479e+002 -5.861975e+001 -2.929778e+002 4.996021e-001 7.989676e-002 1.039587e-001
<VARIANCE> 9
 2.048159e+000 3.850079e-001 4.733891e-001 5.830503e+002 1.557539e+003 1.092753e+003 4.762525e-004 3.807999e-003 1.938003e-004
<GCONST> 1.450220e+001
<MIXTURE> 11 5.755416e-002
<MEAN> 9
 -7.870478e+000 2.235944e+000 5.711297e+000 5.207722e+001 -3.421994e+001 -1.694097e+001 4.309274e-001 -3.177499e-001 1.925179e-001
<VARIANCE> 9
 1.491142e-001 4.718444e-001 7.378396e-002 5.151308e+002 3.680466e+001 1.210095e+002 4.762525e-004 5.782502e-004 1.938003e-004
<GCONST> 2.272296e+000
<MIXTURE> 12 5.182674e-002
<MEAN> 9
 -6.135690e+000 4.073579e-001 -8.370867e-001 1.748827e+002 -1.125200e+002 -2.094074e+002 5.201989e-001 -1.008019e-001 1.646376e-001
<VARIANCE> 9
 1.519859e-001 3.371764e-001 7.225526e-002 1.424673e+002 2.383282e+002 4.639007e+002 4.762525e-004 2.573784e-003 1.938003e-004
<GCONST> 5.354037e+000
<MIXTURE> 13 4.105470e-002
<MEAN> 9
 -7.672574e+000 1.056887e+000 1.613010e+000 1.643432e+002 -1.094298e+002 -6.883734e+001 4.788964e-001 -2.474284e-001 1.450247e-001
<VARIANCE> 9
 1.321200e+000 3.371764e-001 4.935890e-001 2.977951e+001 4.025550e+002 1.210095e+002 4.762525e-004 5.782502e-004 1.938003e-004
<GCONST> 5.560004e+000
<MIXTURE> 14 3.093240e-002
<MEAN> 9
 -7.417147e+000 4.582184e-001 7.831957e+000 1.108594e+002 -7.409367e+001 -4.375098e+001 4.439327e-001 -2.936456e-001 1.336769e-001
<VARIANCE> 9
 1.910928e-001 3.371764e-001 2.849579e-001 1.991393e+002 4.929339e+001 1.210095e+002 4.762525e-004 5.782502e-004 1.938003e-004
<GCONST> 2.877250e+000
<MIXTURE> 15 4.163359e-002
<MEAN> 9
 -6.863911e+000 2.216119e-001 1.223379e+000 1.852396e+002 -5.746341e+001 -1.210834e+002 4.902017e-001 -2.133916e-001 1.784045e-001
<VARIANCE> 9
 1.491142e-001 3.371764e-001 1.232911e-001 1.074156e+002 2.867921e+002 2.235750e+002 4.762525e-004 2.159134e-003 1.938003e-004
<GCONST> 4.866412e+000
<MIXTURE> 16 6.191535e-002
<MEAN> 9
 -7.377385e+000 2.611009e-001 -7.436330e-002 1.793414e+002 -7.199718e+001 -1.674001e+002 5.201501e-001 -1.168248e-001 1.855429e-001
<VARIANCE> 9
 1.491142e-001 3.371764e-001 6.976298e-002 8.826013e+001 4.454726e+002 1.719853e+002 4.762525e-004 1.311400e-003 1.938003e-004
<GCONST> 3.779979e+000
<MIXTURE> 17 4.141717e-002
<MEAN> 9
 -6.848231e+000 9.345796e-003 6.574688e+000 8.814616e+001 -3.959560e+001 -1.782311e+001 4.502735e-001 -2.855963e-001 1.449781e-001
<VARIANCE> 9
 1.491142e-001 3.371764e-001 3.902361e-001 5.209454e+002 4.771122e+001 1.210095e+002 4.762525e-004 5.782502e-004 1.938003e-004
<GCONST> 3.872630e+000
<MIXTURE> 18 4.567337e-002
<MEAN> 9
 -8.727070e+000 -7.019827e-001 -1.365830e+000 1.415963e+002 -5.030427e+001 -2.553687e+002 5.157714e-001 2.494428e-002 1.399526e-001
<VARIANCE> 9
 4.198203e+000 3.371764e-001 6.976298e-002 4.806205e+001 6.745956e+002 1.847655e+002 4.762525e-004 4.304140e-003 1.938003e-004
<GCONST> 8.185019e+000
<MIXTURE> 19 4.215750e-002
<MEAN> 9
 -8.959598e+000 3.559872e-001 4.590295e+000 1.583430e+002 -5.839109e+001 -5.389657e+001 4.607262e-001 -2.775956e-001 1.450270e-001
<VARIANCE> 9
 1.491142e-001 3.371764e-001 9.504655e-001 7.428776e+001 3.680466e+001 1.210095e+002 4.762525e-004 5.782502e-004 1.938003e-004
<GCONST> 2.555591e+000
<MIXTURE> 20 3.527715e-002
<MEAN> 9
 -8.065372e+000 1.305418e+000 4.526299e+000 1.161085e+002 -5.249278e+001 -4.295066e+001 4.462554e-001 -2.965688e-001 1.978981e-001
<VARIANCE> 9
 1.491142e-001 3.371764e-001 2.224665e-001 1.747411e+002 7.967336e+001 1.210095e+002 4.762525e-004 5.782502e-004 1.938003e-004
<GCONST> 2.731086e+000
<MIXTURE> 21 4.029727e-002
<MEAN> 9
 -6.884957e+000 8.526742e-001 2.622302e+000 1.578924e+002 -6.171648e+001 -7.470532e+001 4.696105e-001 -2.575230e-001 1.938005e-001
<VARIANCE> 9
 2.659765e-001 3.371764e-001 1.714545e-001 2.580509e+002 1.141213e+002 1.210095e+002 4.762525e-004 5.782502e-004 5.417402e-004
<GCONST> 4.826458e+000
<MIXTURE> 22 3.560084e-002
<MEAN> 9
 -5.669651e+000 1.918326e+000 1.102255e+000 1.253753e+002 -1.437850e+002 -1.678717e+002 5.039187e-001 -1.389458e-001 5.028720e-002
<VARIANCE> 9
 2.636258e-001 3.371764e-001 6.976298e-002 5.065826e+002 1.571488e+002 1.575918e+003 4.762525e-004 2.433050e-003 1.774979e-003
<GCONST> 1.010320e+001
<MIXTURE> 23 3.588069e-002
<MEAN> 9
 -7.934808e+000 -1.716787e+000 1.377492e+000 4.996178e+001 -6.180597e+001 -2.656013e+002 4.741023e-001 5.705529e-002 -7.662732e-003
<VARIANCE> 9
 6.594121e-001 1.778885e+000 1.109805e+000 6.244221e+002 4.304131e+002 1.924371e+002 4.762525e-004 5.129524e-003 3.006763e-003
<GCONST> 1.583681e+001
<STATE> 7
<NUMMIXES> 23
<MIXTURE> 1 5.882573e-002
<MEAN> 9
 -2.553272e+000 -1.052538e+001 4.783147e+000 -3.383398e+001 1.193109e+002 -3.031505e+001 -9.542209e-003 3.701745e-001 1.775267e-001
<VARIANCE> 9
 2.600306e+000 9.299099e-001 1.842555e-001 1.835749e+002 5.444573e+003 3.396613e+002 4.762525e-004 5.782502e-004 1.938003e-004
<GCONST> 1.172162e+001
<MIXTURE> 2 5.256235e-002
<MEAN> 9
 -1.070972e+001 -7.071144e+000 2.031771e+000 2.777850e+001 2.528635e+001 -2.679433e+002 3.152875e-001 3.089775e-001 8.102879e-002
<VARIANCE> 9
 8.153965e-001 4.606116e-001 4.514119e-001 1.277042e+003 7.514146e+002 1.210095e+002 5.056007e-004 5.782502e-004 1.938003e-004
<GCONST> 9.742419e+000
<MIXTURE> 3 3.487360e-002
<MEAN> 9
 -1.044177e+001 -4.919698e+000 1.630516e+000 8.652415e+001 6.544844e+000 -2.701625e+002 4.087869e-001 2.430312e-001 9.285694e-002
<VARIANCE> 9
 2.733145e-001 3.895662e-001 2.973166e-001 2.977951e+001 3.680466e+001 1.210095e+002 4.762525e-004 6.790172e-004 1.938003e-004
<GCONST> 1.390286e+000
<MIXTURE> 4 4.000509e-002
<MEAN> 9
 -6.784225e+000 -1.111479e+001 2.237377e+000 -3.794571e+001 1.126555e+002 -9.078078e+001 1.384457e-002 3.745791e-001 1.488661e-001
<VARIANCE> 9
 1.491142e-001 1.059654e+000 4.115615e-001 2.988883e+001 6.986556e+002 2.272232e+002 4.762525e-004 5.782502e-004 9.081634e-004
<GCONST> 7.071420e+000
<MIXTURE> 5 4.573230e-002
<MEAN> 9
 -7.732337e+000 -1.087961e+001 2.459909e+000 -3.112884e+001 6.314236e+001 -1.610921e+002 8.505330e-002 3.812925e-001 9.850936e-002
<VARIANCE> 9
 1.794577e-001 3.371764e-001 6.976298e-002 2.977951e+001 2.774452e+002 6.736335e+002 7.602219e-004 5.782502e-004 1.938003e-004
<GCONST> 3.419322e+000
<MIXTURE> 6 2.648042e-002
<MEAN> 9
 -5.420622e+000 -9.578387e+000 2.324194e+000 -4.184561e+001 2.358912e+001 -2.500854e+001 -6.647227e-003 3.627993e-001 1.615389e-001
<VARIANCE> 9
 1.491142e-001 3.371764e-001 6.976298e-002 2.977951e+001 3.484128e+002 1.210095e+002 4.762525e-004 5.782502e-004 1.938003e-004
<GCONST> 1.277377e+000
<MIXTURE> 7 5.814547e-002
<MEAN> 9
 -1.011308e+001 -9.630652e+000 1.816049e+000 -1.563891e+000 3.077338e+001 -2.532648e+002 2.251795e-001 3.550991e-001 8.334878e-002
<VARIANCE> 9
 3.449325e-001 1.632207e+000 1.964951e-001 6.978198e+002 4.899559e+002 1.210095e+002 7.401776e-004 5.782502e-004 2.668064e-004
<GCONST> 8.984334e+000
<MIXTURE> 8 3.487825e-002
<MEAN> 9
 -8.171886e+000 -1.265453e+001 2.786160e+000 -4.933130e+001 3.509789e+001 -1.693073e+002 6.743000e-002 3.778398e-001 1.481911e-001
<VARIANCE> 9
 1.364802e+000 3.507551e-001 3.818086e-001 2.492458e+002 2.826540e+002 2.669949e+003 1.213619e-003 5.782502e-004 1.938003e-004
<GCONST> 1.117554e+001
<MIXTURE> 9 5.772115e-002
<MEAN> 9
 -1.196957e+001 -6.786854e+000 -2.786666e-001 4.943061e+000 9.301390e+001 -3.115656e+002 3.586745e-001 2.783387e-001 6.268187e-002
<VARIANCE> 9
 4.939991e+000 8.936189e-001 1.568028e+000 6.343291e+001 6.426479e+002 5.500662e+002 1.090832e-003 5.782502e-004 2.399655e-003
<GCONST> 1.509247e+001
<MIXTURE> 10 4.226893e-002
<MEAN> 9
 -8.542790e+000 -9.201318e+000 3.471726e+000 1.239711e+001 1.638330e+002 -2.163625e+001 -1.738025e-002 3.631130e-001 1.615762e-001
<VARIANCE> 9
 5.678416e+000 3.371764e-001 1.566411e-001 2.977951e+001 5.598272e+003 1.210095e+002 4.762525e-004 5.782502e-004 1.938003e-004
<GCONST> 8.502772e+000
<MIXTURE> 11 3.487413e-002
<MEAN> 9
 -7.574297e+000 -1.003614e+001 8.714859e-001 -6.158537e+001 1.077846e+002 -6.063008e+001 3.939396e-003 3.651515e-001 1.683673e-001
<VARIANCE> 9
 3.389299e-001 3.371764e-001 6.976298e-002 2.977951e+001 8.997704e+001 1.749760e+002 4.762525e-004 5.782502e-004 1.938003e-004
<GCONST> 1.113406e+000
<MIXTURE> 12 5.745363e-002
<MEAN> 9
 -7.827617e+000 -1.229021e+001 1.424820e+000 -3.709929e+001 1.249207e+002 -1.909985e+002 6.756210e-002 3.776014e-001 1.579195e-001
<VARIANCE> 9
 2.222064e-001 3.371764e-001 1.142071e-001 3.882105e+001 1.848271e+002 9.373215e+002 1.527708e-003 5.782502e-004 1.938003e-004
<GCONST> 5.013091e+000
<MIXTURE> 13 3.487412e-002
<MEAN> 9
 -1.085542e+001 -1.115663e+001 8.995983e-001 -4.150407e+001 1.294512e+002 -2.563415e+002 1.769697e-001 3.606061e-001 7.823130e-002
<VARIANCE> 9
 8.407607e-001 3.371764e-001 8.770831e-002 2.977951e+001 3.380455e+002 1.210095e+002 8.497701e-004 5.782502e-004 1.938003e-004
<GCONST> 3.784698e+000
<MIXTURE> 14 3.487204e-002
<MEAN> 9
 -5.847373e+000 -1.071884e+001 1.678697e+000 -4.306918e+001 1.582111e+002 -4.060867e+001 -2.606070e-002 3.645457e-001 1.755106e-001
<VARIANCE> 9
 1.491142e-001 3.371764e-001 6.976298e-002 2.977951e+001 1.096678e+002 1.827716e+002 4.762525e-004 5.782502e-004 1.938003e-004
<GCONST> 5.338144e-001
<MIXTURE> 15 5.935948e-002
<MEAN> 9
 -8.664467e+000 -1.095319e+001 2.283394e+000 -3.787257e+001 3.308099e+001 -2.468677e+002 1.698143e-001 3.720254e-001 1.127852e-001
<VARIANCE> 9
 5.123050e-001 3.525668e-001 1.360564e-001 1.818104e+002 4.100844e+002 4.686003e+002 5.778931e-004 5.782502e-004 4.222570e-004
<GCONST> 7.522414e+000
<MIXTURE> 16 3.487239e-002
<MEAN> 9
 -9.670747e+000 -1.175904e+001 1.112438e+000 -5.892239e+001 -6.292273e-001 -2.008549e+002 8.575864e-002 3.709093e-001 1.119045e-001
<VARIANCE> 9
 1.937568e+000 3.371764e-001 6.976298e-002 5.490678e+001 6.227268e+002 6.317570e+002 7.362637e-004 5.782502e-004 1.938003e-004
<GCONST> 7.122670e+000
<MIXTURE> 17 5.924579e-002
<MEAN> 9
 -1.023849e+001 -4.675777e+000 8.999128e-001 1.349550e+001 3.710098e+001 -2.812007e+002 3.907190e-001 2.316838e-001 3.539996e-002
<VARIANCE> 9
 1.447664e+000 4.851508e-001 1.110162e+000 1.684335e+002 1.803257e+003 1.210095e+002 4.762525e-004 8.146539e-004 2.324833e-003
<GCONST> 1.288540e+001
<MIXTURE> 18 3.487389e-002
<MEAN> 9
 -1.028112e+001 -8.795184e+000 1.710845e+000 -1.955288e+001 1.138008e+002 -2.761992e+002 2.739393e-001 3.424243e-001 3.639462e-002
<VARIANCE> 9
 2.378018e-001 6.869876e-001 6.976298e-002 7.984892e+001 3.680466e+001 1.210095e+002 4.762525e-004 5.782502e-004 1.938003e-004
<GCONST> 1.194366e+000
<MIXTURE> 19 2.882481e-002
<MEAN> 9
 -1.051876e+001 -8.872574e+000 2.974365e+000 -1.297495e+001 -4.561890e+001 -2.851597e+002 2.663487e-001 3.377589e-001 1.105396e-001
<VARIANCE> 9
 2.355280e+000 3.371764e-001 6.976298e-002 7.875827e+002 4.311015e+002 1.210095e+002 4.762525e-004 5.782502e-004 4.061092e-004
<GCONST> 8.264977e+000
<MIXTURE> 20 5.581048e-002
<MEAN> 9
 -5.795629e+000 -9.675424e+000 1.878245e+000 -4.375389e+001 5.735969e+001 -4.249142e+001 1.123778e-002 3.721452e-001 1.429233e-001
<VARIANCE> 9
 1.491142e-001 3.371764e-001 6.980205e-002 2.977951e+001 3.680466e+001 1.210095e+002 4.762525e-004 5.782502e-004 1.938003e-004
<GCONST> -9.698234e-001
<MIXTURE> 21 3.780112e-002
<MEAN> 9
 -9.791319e+000 -9.564800e+000 3.377087e+000 8.668689e+000 2.473499e+002 -3.093139e+001 -1.700818e-002 3.618207e-001 1.640915e-001
<VARIANCE> 9
 5.074970e+000 3.371764e-001 1.828466e-001 2.977951e+001 7.571503e+003 2.038390e+002 4.762525e-004 5.782502e-004 1.938003e-004
<GCONST> 9.368506e+000
<MIXTURE> 22 4.076713e-002
<MEAN> 9
 -6.959496e+000 -1.131868e+001 2.121845e+000 -3.920174e+001 1.071583e+002 -1.028780e+002 1.473587e-002 3.712390e-001 1.485274e-001
<VARIANCE> 9
 1.491142e-001 1.208142e+000 6.090609e-001 3.912704e+001 5.507726e+002 3.271929e+002 4.762525e-004 5.782502e-004 7.827706e-004
<GCONST> 7.842048e+000
<MIXTURE> 23 3.487825e-002
<MEAN> 9
 -8.639185e+000 -1.289143e+001 2.538997e+000 -5.564631e+001 2.837297e+001 -1.899759e+002 5.349518e-002 3.682210e-001 1.426227e-001
<VARIANCE> 9
 1.364802e+000 3.507551e-001 3.818086e-001 2.492458e+002 2.826540e+002 2.669949e+003 1.213619e-003 5.782502e-004 1.938003e-004
<GCONST> 1.117554e+001
<TRANSP> 8
 0.000000e+000 1.000000e+000 0.000000e+000 0.000000e+000 0.000000e+000 0.000000e+000 0.000000e+000 0.000000e+000
 0.000000e+000 9.288144e-001 7.118560e-002 0.000000e+000 0.000000e+000 0.000000e+000 0.000000e+000 0.000000e+000
 0.000000e+000 0.000000e+000 9.396067e-001 6.039333e-002 0.000000e+000 0.000000e+000 0.000000e+000 0.000000e+000
 0.000000e+000 0.000000e+000 0.000000e+000 9.618154e-001 3.818458e-002 0.000000e+000 0.000000e+000 0.000000e+000
 0.000000e+000 0.000000e+000 0.000000e+000 0.000000e+000 9.786131e-001 2.138689e-002 0.000000e+000 0.000000e+000
 0.000000e+000 0.000000e+000 0.000000e+000 0.000000e+000 0.000000e+000 9.587226e-001 4.127744e-002 0.000000e+000
 0.000000e+000 0.000000e+000 0.000000e+000 0.000000e+000 0.000000e+000 0.000000e+000 9.535022e-001 4.649781e-002
 0.000000e+000 0.000000e+000 0.000000e+000 0.000000e+000 0.000000e+000 0.000000e+000 0.000000e+000 0.000000e+000
<ENDHMM>
~h "GN"
<BEGINHMM>
<NUMSTATES> 8
<STATE> 2
<NUMMIXES> 23
<MIXTURE> 1 3.778224e-002
<MEAN> 9
 -8.873765e+000 -1.118050e+001 1.222636e+000 5.016665e+001 1.233572e+002 1.608010e+002 7.562692e-002 3.739778e-001 1.634132e-001
<VARIANCE> 9
 3.466417e-001 3.371764e-001 1.037221e+000 2.977951e+001 3.680466e+001 1.699560e+003 4.762525e-004 5.782502e-004 1.938003e-004
<GCONST> 5.214648e+000
<MIXTURE> 2 5.880935e-002
<MEAN> 9
 -9.951943e+000 -5.217024e+000 -4.602342e+000 -6.804702e+001 3.762383e+001 2.856885e+002 3.445437e-001 2.975770e-001 1.986416e-001
<VARIANCE> 9
 7.639663e+000 4.334221e-001 2.894516e-001 1.250312e+002 1.010403e+003 2.423360e+002 4.762525e-004 5.782502e-004 5.735992e-004
<GCONST> 1.116679e+001
<MIXTURE> 3 5.880752e-002
<MEAN> 9
 -7.831325e+000 -1.084337e+001 1.385542e+000 2.199187e+001 -5.786586e+001 1.790041e+002 8.333333e-002 3.903030e-001 2.098639e-001
<VARIANCE> 9
 3.673487e-001 3.371764e-001 6.976298e-002 2.977951e+001 5.359606e+002 1.568569e+002 4.762525e-004 5.782502e-004 1.938003e-004
<GCONST> 2.869115e+000
<MIXTURE> 4 3.949626e-002
<MEAN> 9
 -1.061697e+001 -7.292367e+000 -3.123816e+000 -3.481786e+001 3.472486e+001 2.558744e+002 3.037074e-001 3.337237e-001 2.128384e-001
<VARIANCE> 9
 1.491142e-001 3.371764e-001 8.282414e-001 9.761570e+001 1.365349e+002 1.210095e+002 4.762525e-004 6.226831e-004 1.938003e-004
<GCONST> 4.076020e+000
<MIXTURE> 5 5.883228e-002
<MEAN> 9
 -7.028713e+000 -1.186319e+001 2.915257e+000 5.209197e+001 7.570874e+001 1.291673e+002 3.153132e-002 3.715130e-001 1.843456e-001
<VARIANCE> 9
 2.393378e-001 1.777089e+000 3.841274e-001 2.977951e+001 7.011530e+002 3.295970e+003 4.762525e-004 5.782502e-004 1.938003e-004
<GCONST> 9.122466e+000
<MIXTURE> 6 2.950116e-002
<MEAN> 9
 -1.083764e+001 -8.342036e+000 -1.574762e+000 -9.658168e+000 3.083582e+001 2.381056e+002 2.383716e-001 3.620451e-001 1.861911e-001
<VARIANCE> 9
 7.294582e-001 3.371764e-001 7.220127e-001 7.192720e+001 2.469614e+002 1.210095e+002 4.762525e-004 5.782502e-004 2.156805e-004
<GCONST> 5.846555e+000
<MIXTURE> 7 5.880871e-002
<MEAN> 9
 -8.855415e+000 -4.594317e+000 -2.791173e+000 -4.930948e+001 3.821133e+000 2.293692e+002 3.533356e-001 2.812100e-001 1.887764e-001
<VARIANCE> 9
 1.491142e-001 4.961713e-001 6.976298e-002 2.977951e+001 3.680466e+001 1.210095e+002 5.165548e-004 5.782502e-004 1.938003e-004
<GCONST> -5.028353e-001
<MIXTURE> 8 4.278449e-002
<MEAN> 9
 -1.038984e+001 -1.010706e+001 -1.684723e+000 3.138115e+001 5.168729e+001 2.405780e+002 1.476106e-001 3.780634e-001 1.792475e-001
<VARIANCE> 9
 3.918473e-001 3.371764e-001 1.317328e+000 2.977951e+001 3.420391e+003 1.474989e+003 4.762525e-004 5.782502e-004 2.390069e-004
<GCONST> 1.017612e+001
<MIXTURE> 9 3.920322e-002
<MEAN> 9
 -1.199398e+001 -8.861446e+000 -4.506024e+000 -2.134113e-001 1.020427e+002 2.996951e+002 2.109091e-001 3.559091e-001 1.576531e-001
<VARIANCE> 9
 3.849979e-001 3.849979e-001 6.976298e-002 1.941264e+002 2.333069e+002 1.210095e+002 7.438014e-004 5.782502e-004 1.938003e-004
<GCONST> 4.278018e+000
<MIXTURE> 10 5.531219e-002
<MEAN> 9
 -6.807959e+000 -1.143572e+001 1.709352e+000 5.419485e+000 -1.110844e+002 1.188063e+002 9.710415e-003 3.750175e-001 2.062514e-001
<VARIANCE> 9
 3.730218e-001 3.371764e-001 6.976298e-002 2.977951e+001 4.207436e+001 2.871697e+002 4.762525e-004 5.782502e-004 1.938003e-004
<GCONST> 9.445601e-001
<MIXTURE> 11 3.920428e-002
<MEAN> 9
 -7.487957e+000 -2.518121e+000 -5.620470e+000 -1.019504e+002 3.347499e+001 2.736895e+002 3.999988e-001 2.318198e-001 2.096933e-001
<VARIANCE> 9
 1.491142e-001 3.371764e-001 7.348976e-002 1.012466e+002 3.680466e+001 1.210095e+002 4.762525e-004 5.782502e-004 1.938003e-004
<GCONST> 3.053961e-001
<MIXTURE> 12 3.923482e-002
<MEAN> 9
 -6.596154e+000 -1.068115e+001 2.505827e+000 9.572940e+000 -6.131403e+001 3.348588e+001 -4.953380e-002 3.531988e-001 1.898071e-001
<VARIANCE> 9
 1.491142e-001 3.371764e-001 6.976298e-002 3.150651e+001 3.680466e+001 1.210095e+002 4.762525e-004 5.782502e-004 1.938003e-004
<GCONST> -9.140105e-001
<MIXTURE> 13 2.947384e-002
<MEAN> 9
 -8.768433e+000 -2.434194e+000 -2.811481e+000 -6.732075e+001 -1.619990e+000 2.081942e+002 4.283715e-001 2.113782e-001 2.096171e-001
<VARIANCE> 9
 1.491142e-001 3.371764e-001 6.976298e-002 2.977951e+001 4.009736e+001 1.210095e+002 4.762525e-004 5.782502e-004 1.938003e-004
<GCONST> -8.846984e-001
<MIXTURE> 14 3.920322e-002
<MEAN> 9
 -5.927711e+000 -1.372892e+001 3.367470e+000 3.530488e+001 -4.185976e+001 1.488719e+002 -8.181818e-003 3.654546e-001 1.826531e-001
<VARIANCE> 9
 4.552185e-001 3.371764e-001 6.976298e-002 2.977951e+001 5.496738e+002 4.515625e+002 4.762525e-004 5.782502e-004 1.938003e-004
<GCONST> 4.166224e+000
<MIXTURE> 15 3.929299e-002
<MEAN> 9
 -1.014357e+001 -8.660067e+000 -1.784811e+000 -1.442083e+000 5.179696e+001 2.213626e+002 1.869779e-001 3.568420e-001 1.561519e-001
<VARIANCE> 9
 1.491142e-001 3.371764e-001 6.976298e-002 2.977951e+001 3.680466e+001 1.210095e+002 4.762525e-004 5.782502e-004 1.938003e-004
<GCONST> -9.703841e-001
<MIXTURE> 16 5.832753e-002
<MEAN> 9
 -1.070477e+001 -6.836444e+000 -3.388079e+000 -3.359398e+001 3.704103e+001 2.577589e+002 2.816577e-001 3.228212e-001 1.686531e-001
<VARIANCE> 9
 1.491142e-001 3.371764e-001 6.273890e-001 2.977951e+001 2.453866e+002 1.029522e+003 4.762525e-004 5.782502e-004 1.938003e-004
<GCONST> 5.264270e+000
<MIXTURE> 17 5.519309e-002
<MEAN> 9
 -1.079691e+001 -9.925511e+000 -1.572514e+000 2.135391e+001 7.542599e+001 2.048520e+002 1.398950e-001 3.673005e-001 1.649964e-001
<VARIANCE> 9
 2.020635e-001 3.371764e-001 2.452768e-001 4.984904e+001 1.738829e+003 1.785462e+002 8.851129e-004 5.782502e-004 2.601411e-004
<GCONST> 6.264430e+000
<MIXTURE> 18 5.877866e-002
<MEAN> 9
 -7.120498e+000 -1.122066e+001 1.943810e+000 8.166749e+000 -7.680784e+001 6.028190e+001 -3.424198e-002 3.663611e-001 1.989805e-001
<VARIANCE> 9
 1.491142e-001 3.371764e-001 6.976298e-002 6.173034e+001 4.555101e+001 1.210095e+002 4.762525e-004 5.782502e-004 1.938003e-004
<GCONST> -2.822208e-002
<MIXTURE> 19 2.310114e-002
<MEAN> 9
 -6.549888e+000 -1.241046e+001 2.665247e+000 2.158969e+001 -9.322092e+001 9.071641e+001 -2.942927e-002 3.626137e-001 1.876282e-001
<VARIANCE> 9
 1.491142e-001 3.371764e-001 6.976298e-002 7.486040e+001 3.680466e+001 1.210095e+002 4.762525e-004 5.782502e-004 1.938003e-004
<GCONST> -4.858112e-002
<MIXTURE> 20 3.934878e-002
<MEAN> 9
 -1.099667e+001 -4.849435e+000 -3.866193e+000 -1.203103e+002 -2.236252e+000 2.651763e+002 3.960071e-001 2.543561e-001 2.520930e-001
<VARIANCE> 9
 2.449319e+000 3.371764e-001 8.375049e-002 5.908377e+001 1.236297e+003 1.210095e+002 4.762525e-004 5.782502e-004 1.938003e-004
<GCONST> 6.210593e+000
<MIXTURE> 21 4.060430e-002
<MEAN> 9
