~o
<STREAMINFO> 1 9
<VECSIZE> 9<NULLD><USER><DIAGC>
~h "GA"
<BEGINHMM>
<NUMSTATES> 8
<STATE> 2
<NUMMIXES> 3
<MIXTURE> 1 4.900885e-001
<MEAN> 9
 -8.738391e+000 -9.593350e+000 8.565643e-002 1.643806e+001 2.690295e+001 1.614154e+002 1.260469e-001 3.619267e-001 1.638572e-001
<VARIANCE> 9
 3.757324e+000 1.702077e+000 2.810381e+000 1.009839e+003 3.888004e+003 4.618706e+003 9.179685e-003 5.782502e-004 2.236224e-004
<GCONST> 2.249902e+001
<MIXTURE> 2 2.549557e-001
<MEAN> 9
 -8.547614e+000 -9.285554e+000 1.043224e-001 6.784399e+000 -3.345223e+000 1.777010e+002 1.568041e-001 3.629707e-001 1.616793e-001
<VARIANCE> 9
 4.348187e+000 1.681823e+000 1.885034e+000 8.965268e+002 4.614442e+003 4.609277e+003 1.211036e-002 5.782502e-004 1.938003e-004
<GCONST> 2.241790e+001
<MIXTURE> 3 2.549557e-001
<MEAN> 9
 -9.381707e+000 -9.804294e+000 -4.448638e-001 -5.192424e+000 -3.051710e+001 1.505444e+002 1.127853e-001 3.533519e-001 1.561109e-001
<VARIANCE> 9
 4.348187e+000 1.681823e+000 1.885034e+000 8.965268e+002 4.614442e+003 4.609277e+003 1.211036e-002 5.782502e-004 1.938003e-004
<GCONST> 2.241790e+001
<STATE> 3
<NUMMIXES> 3
<MIXTURE> 1 2.531162e-001
<MEAN> 9
 -7.413444e+000 3.367940e-001 -5.971362e-001 -1.061889e+002 1.092987e+001 1.612299e+002 4.927580e-001 5.187859e-002 2.481264e-001
<VARIANCE> 9
 1.970963e+000 6.482686e+000 9.615449e+000 1.701354e+003 7.578727e+002 6.174974e+003 1.945905e-003 1.599781e-002 1.712129e-003
<GCONST> 2.740253e+001
<MIXTURE> 2 4.937676e-001
<MEAN> 9
 -8.343579e+000 -1.114302e+000 -5.520443e-001 -1.152868e+002 -9.420240e+000 1.333551e+002 4.668707e-001 4.499544e-002 2.219160e-001
<VARIANCE> 9
 1.868119e+000 8.693558e+000 1.254534e+001 2.047899e+003 1.327014e+003 1.086669e+004 3.100666e-003 2.573152e-002 2.112037e-003
<GCONST> 3.037019e+001
<MIXTURE> 3 2.531162e-001
<MEAN> 9
 -7.975008e+000 -6.816508e-001 -1.837488e+000 -1.226879e+002 -8.192873e-002 1.297975e+002 4.751130e-001 1.285609e-003 2.315752e-001
<VARIANCE> 9
 1.970963e+000 6.482686e+000 9.615449e+000 1.701354e+003 7.578727e+002 6.174974e+003 1.945905e-003 1.599781e-002 1.712129e-003
<GCONST> 2.740253e+001
<STATE> 4
<NUMMIXES> 3
<MIXTURE> 1 2.538598e-001
<MEAN> 9
 -7.451735e+000 4.236845e+000 3.303839e+000 -1.128747e+001 -2.181877e+001 4.659927e+001 4.997509e-001 -1.696340e-001 1.919178e-001
<VARIANCE> 9
 9.215290e+000 2.563335e+000 2.242666e+000 3.920843e+002 1.392624e+004 1.606622e+003 9.441244e-004 1.725427e-003 7.564069e-003
<GCONST> 2.519375e+001
<MIXTURE> 2 4.922802e-001
<MEAN> 9
 -8.022089e+000 4.028542e+000 3.172030e+000 -2.838779e+001 -1.247675e+002 5.928081e+001 4.766637e-001 -2.001362e-001 1.456725e-001
<VARIANCE> 9
 1.507356e+001 2.938482e+000 3.263616e+000 4.167757e+002 2.577799e+004 1.546671e+003 1.466419e-003 2.857078e-003 1.323262e-002
<GCONST> 2.834029e+001
<MIXTURE> 3 2.538598e-001
<MEAN> 9
 -8.666002e+000 3.596428e+000 2.704817e+000 -1.920791e+001 -6.902257e+001 3.056619e+001 4.874603e-001 -1.862493e-001 1.571292e-001
<VARIANCE> 9
 9.215290e+000 2.563335e+000 2.242666e+000 3.920843e+002 1.392624e+004 1.606622e+003 9.441244e-004 1.725427e-003 7.564069e-003
<GCONST> 2.519375e+001
<STATE> 5
<NUMMIXES> 3
<MIXTURE> 1 2.519040e-001
<MEAN> 9
 -2.180039e-001 4.642103e+000 7.686108e+000 6.558271e+000 -1.469032e+001 -3.189132e+000 3.325193e-001 -1.946460e-001 -1.660102e-001
<VARIANCE> 9
 1.131923e+001 1.741349e+000 8.748130e-001 1.346024e+002 1.955308e+003 5.643359e+003 3.508676e-003 8.585725e-003 3.909465e-003
<GCONST> 2.455265e+001
<MIXTURE> 2 4.961919e-001
<MEAN> 9
 -1.758239e+000 3.871461e+000 7.397649e+000 -5.137386e+000 -3.070778e+001 -5.980683e+001 3.184294e-001 -2.055267e-001 -1.906444e-001
<VARIANCE> 9
 1.686657e+001 2.274698e+000 1.351262e+000 2.065916e+002 2.871982e+003 7.507134e+003 3.842545e-003 6.314698e-003 2.544885e-003
<GCONST> 2.610606e+001
<MIXTURE> 3 2.519040e-001
<MEAN> 9
 -1.563766e+000 4.114263e+000 7.311982e+000 1.917541e+000 -3.237786e+001 -3.323805e+001 3.088257e-001 -2.317096e-001 -1.910204e-001
<VARIANCE> 9
 1.131923e+001 1.741349e+000 8.748130e-001 1.346024e+002 1.955308e+003 5.643359e+003 3.508676e-003 8.585725e-003 3.909465e-003
<GCONST> 2.455265e+001
<STATE> 6
<NUMMIXES> 3
<MIXTURE> 1 2.505287e-001
<MEAN> 9
 -4.467473e+000 -1.007692e+000 5.462616e+000 -5.468993e+001 8.534969e+001 -1.625847e+002 3.944698e-001 8.993167e-002 -1.127422e-001
<VARIANCE> 9
 6.891488e+000 8.488243e+000 7.627298e-001 7.299229e+002 1.417444e+003 3.646293e+003 1.272316e-003 1.498506e-002 4.894163e-003
<GCONST> 2.620270e+001
<MIXTURE> 2 4.989427e-001
<MEAN> 9
 -6.073725e+000 -3.309635e+000 5.695323e+000 -7.463529e+001 6.834564e+001 -2.022537e+002 3.641081e-001 1.360312e-001 -9.518149e-002
<VARIANCE> 9
 6.910236e+000 1.186217e+001 7.593794e-001 5.125450e+002 1.229334e+003 2.757271e+003 2.560642e-003 1.878797e-002 5.753539e-003
<GCONST> 2.684764e+001
<MIXTURE> 3 2.505287e-001
<MEAN> 9
 -5.517539e+000 -2.173076e+000 5.113278e+000 -6.549677e+001 7.029010e+001 -1.867385e+002 3.802020e-001 4.096628e-002 -1.407256e-001
<VARIANCE> 9
 6.891488e+000 8.488243e+000 7.627298e-001 7.299229e+002 1.417444e+003 3.646293e+003 1.272316e-003 1.498506e-002 4.894163e-003
<GCONST> 2.620270e+001
<STATE> 7
<NUMMIXES> 3
<MIXTURE> 1 4.802720e-001
<MEAN> 9
 -6.259897e+000 -1.040492e+001 2.724742e+000 -3.731094e+001 1.185248e+002 -9.669856e+001 4.008275e-002 3.635168e-001 1.565789e-001
<VARIANCE> 9
 4.287772e+000 9.718028e-001 1.716934e+000 6.837762e+002 3.567513e+003 6.791607e+003 1.052355e-002 5.782502e-004 1.312758e-003
<GCONST> 2.339402e+001
<MIXTURE> 2 2.598640e-001
<MEAN> 9
 -6.862980e+000 -1.082297e+001 2.976633e+000 -4.741099e+001 1.117560e+002 -1.441584e+002 1.055946e-001 3.680735e-001 1.408347e-001
<VARIANCE> 9
 3.198313e+000 1.404518e+000 2.090444e+000 6.827485e+002 2.986897e+003 5.632482e+003 1.070122e-002 5.782502e-004 1.770915e-003
<GCONST> 2.361585e+001
<MIXTURE> 3 2.598640e-001
<MEAN> 9
 -7.578333e+000 -1.129701e+001 2.398299e+000 -5.786277e+001 8.989500e+001 -1.741784e+002 6.421594e-002 3.584547e-001 1.240019e-001
<VARIANCE> 9
 3.198313e+000 1.404518e+000 2.090444e+000 6.827485e+002 2.986897e+003 5.632482e+003 1.070122e-002 5.782502e-004 1.770915e-003
<GCONST> 2.361585e+001
<TRANSP> 8
 0.000000e+000 1.000000e+000 0.000000e+000 0.000000e+000 0.000000e+000 0.000000e+000 0.000000e+000 0.000000e+000
 0.000000e+000 9.291254e-001 7.087463e-002 0.000000e+000 0.000000e+000 0.000000e+000 0.000000e+000 0.000000e+000
 0.000000e+000 0.000000e+000 9.527764e-001 4.722359e-002 0.000000e+000 0.000000e+000 0.000000e+000 0.000000e+000
 0.000000e+000 0.000000e+000 0.000000e+000 9.499462e-001 5.005382e-002 0.000000e+000 0.000000e+000 0.000000e+000
 0.000000e+000 0.000000e+000 0.000000e+000 0.000000e+000 9.745950e-001 2.540503e-002 0.000000e+000 0.000000e+000
 0.000000e+000 0.000000e+000 0.000000e+000 0.000000e+000 0.000000e+000 9.379837e-001 6.201631e-002 0.000000e+000
 0.000000e+000 0.000000e+000 0.000000e+000 0.000000e+000 0.000000e+000 0.000000e+000 9.441712e-001 5.582878e-002
 0.000000e+000 0.000000e+000 0.000000e+000 0.000000e+000 0.000000e+000 0.000000e+000 0.000000e+000 0.000000e+000
<ENDHMM>
~h "GM"
<BEGINHMM>
<NUMSTATES> 8
<STATE> 2
<NUMMIXES> 3
<MIXTURE> 1 4.989403e-001
<MEAN> 9
 -9.210052e+000 -9.109438e+000 -1.131099e-002 -1.121241e+001 -1.785725e+001 1.951227e+002 1.947134e-001 3.438328e-001 2.059005e-001
<VARIANCE> 9
 4.379322e+000 6.380788e+000 3.065239e+000 7.161324e+002 5.016258e+003 6.456357e+003 1.642276e-002 2.011518e-003 3.291424e-004
<GCONST> 2.652136e+001
<MIXTURE> 2 2.505299e-001
<MEAN> 9
 -8.572930e+000 -8.242563e+000 -1.528111e-002 -1.665913e+001 -2.756333e+001 1.771156e+002 2.140843e-001 3.497826e-001 2.010305e-001
<VARIANCE> 9
 3.303527e+000 6.335501e+000 2.159493e+000 7.178871e+002 6.353606e+003 4.583612e+003 1.939354e-002 2.316091e-003 2.928206e-004
<GCONST> 2.596862e+001
<MIXTURE> 3 2.505299e-001
<MEAN> 9
 -9.299954e+000 -9.249380e+000 -6.030897e-001 -2.737649e+001 -5.944713e+001 1.500346e+002 1.583801e-001 3.305322e-001 1.941857e-001
<VARIANCE> 9
 3.303527e+000 6.335501e+000 2.159493e+000 7.178871e+002 6.353606e+003 4.583612e+003 1.939354e-002 2.316091e-003 2.928206e-004
<GCONST> 2.596862e+001
<STATE> 3
<NUMMIXES> 3
<MIXTURE> 1 2.534010e-001
<MEAN> 9
 -6.599944e+000 6.544002e-001 1.150620e+000 -7.710876e+001 -1.266907e+001 1.400273e+002 5.126796e-001 2.380981e-002 2.212557e-001
<VARIANCE> 9
 1.562220e+000 2.868009e+000 4.540336e+000 1.185947e+003 4.784821e+002 5.929036e+003 4.972602e-004 8.437614e-003 1.128808e-003
<GCONST> 2.232211e+001
<MIXTURE> 2 4.931980e-001
<MEAN> 9
 -7.421715e+000 2.673590e-001 2.464675e-001 -9.390113e+001 -2.042153e+001 1.199744e+002 4.983675e-001 1.272019e-002 2.068987e-001
<VARIANCE> 9
 1.095252e+000 3.299510e+000 8.229876e+000 1.183641e+003 6.282693e+002 6.247842e+003 9.326494e-004 1.393258e-002 1.064379e-003
<GCONST> 2.409636e+001
<MIXTURE> 3 2.534010e-001
<MEAN> 9
 -7.099899e+000 -2.300775e-002 2.982974e-001 -9.088380e+001 -2.141877e+001 1.092271e+002 5.037599e-001 -1.293279e-002 2.078167e-001
<VARIANCE> 9
 1.562220e+000 2.868009e+000 4.540336e+000 1.185947e+003 4.784821e+002 5.929036e+003 4.972602e-004 8.437614e-003 1.128808e-003
<GCONST> 2.232211e+001
<STATE> 4
<NUMMIXES> 3
<MIXTURE> 1 4.937881e-001
<MEAN> 9
 -8.732047e+000 3.820047e+000 2.097038e+000 1.838995e+000 2.415865e+001 3.887643e+001 5.109386e-001 -1.357822e-001 2.261745e-001
<VARIANCE> 9
 1.315093e+000 2.484278e+000 2.890381e+000 4.403296e+002 3.777101e+002 5.689174e+002 4.762525e-004 1.961731e-003 8.352316e-004
<GCONST> 1.618027e+001
<MIXTURE> 2 2.531058e-001
<MEAN> 9
 -8.658053e+000 3.533915e+000 2.853626e+000 -2.967096e+000 2.000949e+001 3.254902e+001 5.162626e-001 -1.268232e-001 2.216256e-001
<VARIANCE> 9
 1.125690e+000 3.357050e+000 3.392918e+000 6.387559e+002 2.829128e+002 4.886260e+002 4.762525e-004 2.167692e-003 8.507245e-004
<GCONST> 1.653522e+001
<MIXTURE> 3 2.531058e-001
<MEAN> 9
 -9.082448e+000 2.801025e+000 2.116832e+000 -1.307654e+001 1.328149e+001 2.370706e+001 5.075333e-001 -1.454466e-001 2.099588e-001
<VARIANCE> 9
 1.125690e+000 3.357050e+000 3.392918e+000 6.387559e+002 2.829128e+002 4.886260e+002 4.762525e-004 2.167692e-003 8.507245e-004
<GCONST> 1.653522e+001
<STATE> 5
<NUMMIXES> 3
<MIXTURE> 1 4.926934e-001
<MEAN> 9
 -7.381394e+000 5.012840e+000 3.134936e+000 -2.770822e+001 8.953344e+000 7.896402e+000 4.608083e-001 -2.555813e-001 2.392511e-001
<VARIANCE> 9
 6.315155e+000 5.988908e+000 2.035788e+001 3.881424e+003 1.692337e+003 4.027348e+002 4.762525e-004 6.141670e-004 2.514410e-003
<GCONST> 2.385280e+001
<MIXTURE> 2 2.536525e-001
<MEAN> 9
 -7.895059e+000 3.902293e+000 4.705731e+000 -1.732267e+001 1.047451e+001 4.995724e+000 4.548045e-001 -2.720971e-001 2.231451e-001
<VARIANCE> 9
 3.311665e+000 7.373066e+000 1.900332e+001 4.718410e+003 1.203732e+003 2.840898e+002 4.762525e-004 7.613605e-004 3.080991e-003
<GCONST> 2.327002e+001
<MIXTURE> 3 2.536525e-001
<MEAN> 9
 -8.622978e+000 2.816157e+000 2.962019e+000 -4.479895e+001 -3.403425e+000 -1.746262e+000 4.460753e-001 -2.831342e-001 2.009425e-001
<VARIANCE> 9
 3.311665e+000 7.373066e+000 1.900332e+001 4.718410e+003 1.203732e+003 2.840898e+002 4.762525e-004 7.613605e-004 3.080991e-003
<GCONST> 2.327002e+001
<STATE> 6
<NUMMIXES> 3
<MIXTURE> 1 2.580928e-001
<MEAN> 9
 -6.803439e+000 6.525725e-001 2.231493e+000 1.553850e+002 -6.039453e+001 -1.151944e+002 4.965620e-001 -1.460083e-001 1.686550e-001
<VARIANCE> 9
 1.411461e+000 7.174948e-001 5.412407e+000 8.695718e+002 1.488547e+003 5.470082e+003 6.690761e-004 1.248236e-002 2.005710e-003
<GCONST> 2.301802e+001
<MIXTURE> 2 4.838141e-001
<MEAN> 9
 -7.793243e+000 -2.354041e-001 1.272115e+000 1.196725e+002 -6.723947e+001 -1.849361e+002 4.865639e-001 -7.481550e-002 1.128531e-001
<VARIANCE> 9
 2.451493e+000 2.132484e+000 5.955428e+000 2.223100e+003 1.747110e+003 9.523006e+003 6.515599e-004 2.666972e-002 4.964285e-003
<GCONST> 2.804717e+001
<MIXTURE> 3 2.580928e-001
<MEAN> 9
 -7.278659e+000 3.137522e-001 1.300909e+000 1.435896e+002 -7.582721e+001 -1.447784e+002 4.862154e-001 -1.906981e-001 1.507410e-001
<VARIANCE> 9
 1.411461e+000 7.174948e-001 5.412407e+000 8.695718e+002 1.488547e+003 5.470082e+003 6.690761e-004 1.248236e-002 2.005710e-003
<GCONST> 2.301802e+001
<STATE> 7
<NUMMIXES> 3
<MIXTURE> 1 4.654012e-001
<MEAN> 9
 -7.799628e+000 -9.651583e+000 2.355138e+000 -1.777308e+001 9.113787e+001 -1.377008e+002 1.039762e-001 3.490307e-001 1.298038e-001
<VARIANCE> 9
 7.706091e+000 5.026624e+000 1.627882e+000 1.284357e+003 6.403470e+003 1.131496e+004 2.181305e-002 2.135000e-003 2.346847e-003
<GCONST> 2.991220e+001
<MIXTURE> 2 2.672992e-001
<MEAN> 9
 -8.787964e+000 -8.795946e+000 1.886233e+000 -1.310601e+001 7.054912e+001 -1.937310e+002 2.133553e-001 3.455993e-001 1.119327e-001
<VARIANCE> 9
 4.460371e+000 7.511120e+000 1.270227e+000 1.185787e+003 3.139444e+003 7.833537e+003 2.134859e-002 3.450662e-003 2.746250e-003
<GCONST> 2.897435e+001
<MIXTURE> 3 2.672992e-001
<MEAN> 9
 -9.632748e+000 -9.892202e+000 1.435415e+000 -2.688011e+001 4.813682e+001 -2.291339e+002 1.549107e-001 3.221023e-001 9.097087e-002
<VARIANCE> 9
 4.460371e+000 7.511120e+000 1.270227e+000 1.185787e+003 3.139444e+003 7.833537e+003 2.134859e-002 3.450662e-003 2.746250e-003
<GCONST> 2.897435e+001
<TRANSP> 8
 0.000000e+000 1.000000e+000 0.000000e+000 0.000000e+000 0.000000e+000 0.000000e+000 0.000000e+000 0.000000e+000
 0.000000e+000 9.407153e-001 5.928475e-002 0.000000e+000 0.000000e+000 0.000000e+000 0.000000e+000 0.000000e+000
 0.000000e+000 0.000000e+000 9.416818e-001 5.831817e-002 0.000000e+000 0.000000e+000 0.000000e+000 0.000000e+000
 0.000000e+000 0.000000e+000 0.000000e+000 9.543465e-001 4.565351e-002 0.000000e+000 0.000000e+000 0.000000e+000
 0.000000e+000 0.000000e+000 0.000000e+000 0.000000e+000 9.813919e-001 1.860806e-002 0.000000e+000 0.000000e+000
 0.000000e+000 0.000000e+000 0.000000e+000 0.000000e+000 0.000000e+000 9.498783e-001 5.012170e-002 0.000000e+000
 0.000000e+000 0.000000e+000 0.000000e+000 0.000000e+000 0.000000e+000 0.000000e+000 9.540226e-001 4.597738e-002
 0.000000e+000 0.000000e+000 0.000000e+000 0.000000e+000 0.000000e+000 0.000000e+000 0.000000e+000 0.000000e+000
<ENDHMM>
~h "GN"
<BEGINHMM>
<NUMSTATES> 8
<STATE> 2
<NUMMIXES> 3
<MIXTURE> 1 2.531612e-001
<MEAN> 9
 -8.487843e+000 -9.204416e+000 2.388628e-001 1.638376e+001 3.903315e+001 2.063257e+002 1.639978e-001 3.637801e-001 1.896131e-001
<VARIANCE> 9
 3.908484e+000 6.007601e+000 6.912526e+000 1.306292e+003 4.879959e+003 5.354026e+003 1.496445e-002 9.243863e-004 4.130884e-004
<GCONST> 2.690354e+001
<MIXTURE> 2 4.936774e-001
<MEAN> 9
 -8.994589e+000 -9.321921e+000 -7.504073e-001 -5.909563e-001 1.231531e+001 1.930849e+002 1.485320e-001 3.504217e-001 1.836037e-001
<VARIANCE> 9
 4.134713e+000 6.804933e+000 7.329311e+000 1.204579e+003 5.162043e+003 6.232122e+003 1.845249e-002 1.023043e-003 4.175620e-004
<GCONST> 2.759168e+001
<MIXTURE> 3 2.531612e-001
<MEAN> 9
 -9.278639e+000 -1.018483e+001 -8.128046e-001 1.926697e+000 1.109047e+001 1.770572e+002 1.150660e-001 3.516186e-001 1.814833e-001
<VARIANCE> 9
 3.908484e+000 6.007601e+000 6.912526e+000 1.306292e+003 4.879959e+003 5.354026e+003 1.496445e-002 9.243863e-004 4.130884e-004
<GCONST> 2.690354e+001
<STATE> 3
<NUMMIXES> 3
<MIXTURE> 1 2.533238e-001
<MEAN> 9
 -8.741554e+000 3.445989e-001 2.792426e+000 -2.481972e+001 -1.161303e+001 1.163066e+002 5.076423e-001 3.539906e-002 2.286169e-001
<VARIANCE> 9
 1.218088e+001 8.621972e+000 2.933945e+001 1.316363e+004 1.688321e+003 7.025338e+003 1.352797e-003 1.116140e-002 4.071605e-003
<GCONST> 3.374339e+001
<MIXTURE> 2 4.933524e-001
<MEAN> 9
 -8.998773e+000 -1.220012e+000 2.971895e+000 -8.498440e+001 -3.577204e+001 7.337816e+001 5.025340e-001 -5.761421e-003 2.085816e-001
<VARIANCE> 9
 1.024823e+001 1.050226e+001 2.920224e+001 1.270893e+004 1.832469e+003 7.058094e+003 1.182581e-003 1.024194e-002 4.995343e-003
<GCONST> 3.379868e+001
<MIXTURE> 3 2.533238e-001
<MEAN> 9
 -1.013760e+001 -8.299289e-001 6.257899e-001 -7.071286e+001 -2.804871e+001 8.277971e+001 4.929301e-001 -6.859955e-003 2.030933e-001
<VARIANCE> 9
 1.218088e+001 8.621972e+000 2.933945e+001 1.316363e+004 1.688321e+003 7.025338e+003 1.352797e-003 1.116140e-002 4.071605e-003
<GCONST> 3.374339e+001
<STATE> 4
<NUMMIXES> 3
<MIXTURE> 1 4.972665e-001
<MEAN> 9
 -4.467477e+000 5.103579e+000 -2.207293e-001 5.899042e+001 -1.704225e+001 6.711328e+001 4.710126e-001 -2.347571e-001 1.625500e-001
<VARIANCE> 9
 7.246294e+000 9.664688e-001 1.602312e+000 3.586031e+003 2.752031e+003 5.495009e+003 1.104184e-003 3.375971e-003 1.733578e-003
<GCONST> 2.481793e+001
<MIXTURE> 2 2.513668e-001
<MEAN> 9
 -2.037574e+000 5.155982e+000 1.214537e-001 1.301971e+001 -4.223463e+001 9.792436e+000 4.619285e-001 -2.510181e-001 1.589997e-001
<VARIANCE> 9
 4.819371e+000 1.252569e+000 2.093018e+000 5.293191e+003 2.092747e+003 1.131805e+004 9.466556e-004 2.567698e-003 2.182943e-003
<GCONST> 2.557751e+001
<MIXTURE> 3 2.513668e-001
<MEAN> 9
 -2.915696e+000 4.708310e+000 -4.572369e-001 -1.608202e+001 -6.053325e+001 -3.276210e+001 4.496214e-001 -2.712871e-001 1.403109e-001
<VARIANCE> 9
 4.819371e+000 1.252569e+000 2.093018e+000 5.293191e+003 2.092747e+003 1.131805e+004 9.466556e-004 2.567698e-003 2.182943e-003
<GCONST> 2.557751e+001
<STATE> 5
<NUMMIXES> 3
<MIXTURE> 1 2.584442e-001
<MEAN> 9
 -5.985018e+000 5.305629e-001 4.852785e+000 1.016157e+001 2.378383e+001 -4.050899e+001 4.843404e-001 7.692396e-002 1.404471e-002
<VARIANCE> 9
 8.131208e+000 3.590464e+000 7.454557e+000 1.812818e+003 1.196198e+003 5.260875e+003 4.762525e-004 7.196465e-003 5.966673e-004
<GCONST> 2.507343e+001
<MIXTURE> 2 4.831118e-001
<MEAN> 9
 -7.559566e+000 2.768456e-001 5.887842e+000 -5.231961e+001 -1.636396e+001 -1.095850e+002 4.777977e-001 3.710745e-002 3.235427e-003
<VARIANCE> 9
 9.784342e+000 6.083421e+000 1.115647e+001 6.002436e+003 2.566314e+003 8.775863e+003 4.762525e-004 1.126031e-002 5.839599e-004
<GCONST> 2.908746e+001
<MIXTURE> 3 2.584442e-001
<MEAN> 9
 -7.125628e+000 -2.273779e-001 3.760664e+000 -6.869313e+000 9.949390e+000 -6.952174e+001 4.756112e-001 4.299116e-002 4.273998e-003
<VARIANCE> 9
 8.131208e+000 3.590464e+000 7.454557e+000 1.812818e+003 1.196198e+003 5.260875e+003 4.762525e-004 7.196465e-003 5.966673e-004
<GCONST> 2.507343e+001
<STATE> 6
<NUMMIXES> 3
<MIXTURE> 1 4.901948e-001
<MEAN> 9
 -8.803968e+000 -7.900856e+000 2.994007e+000 -1.826546e+001 5.617803e+001 -1.735175e+002 2.905584e-001 3.103285e-001 1.367120e-001
<VARIANCE> 9
 1.772639e+000 1.003096e+001 1.129665e+000 1.002954e+003 1.103654e+003 8.590323e+002 1.161021e-002 3.963746e-003 1.544212e-003
<GCONST> 2.375417e+001
<MIXTURE> 2 2.549025e-001
<MEAN> 9
 -9.101481e+000 -6.854640e+000 3.067962e+000 -2.569239e+001 4.594475e+001 -1.862726e+002 3.345881e-001 3.086543e-001 1.311838e-001
<VARIANCE> 9
 1.454942e+000 8.658099e+000 1.251186e+000 9.332523e+002 1.319684e+003 8.765743e+002 9.391036e-003 3.917755e-003 1.400827e-003
<GCONST> 2.331736e+001
<MIXTURE> 3 2.549025e-001
<MEAN> 9
 -9.583966e+000 -8.031626e+000 2.620536e+000 -3.791207e+001 3.141377e+001 -1.981154e+002 2.958251e-001 2.836175e-001 1.162128e-001
<VARIANCE> 9
 1.454942e+000 8.658099e+000 1.251186e+000 9.332523e+002 1.319684e+003 8.765743e+002 9.391036e-003 3.917755e-003 1.400827e-003
<GCONST> 2.331736e+001
<STATE> 7
<NUMMIXES> 3
<MIXTURE> 1 4.751722e-001
<MEAN> 9
 -5.092627e+000 -1.025436e+001 2.772082e+000 3.315273e+000 9.577716e+001 -5.239611e+001 4.200415e-002 3.723629e-001 2.057414e-001
<VARIANCE> 9
 4.174708e+000 6.161571e-001 2.802508e+000 3.165926e+002 4.155710e+003 9.695605e+002 3.051600e-003 5.782502e-004 2.137818e-004
<GCONST> 1.778475e+001
<MIXTURE> 2 2.624139e-001
<MEAN> 9
 -5.295875e+000 -1.077394e+001 2.395442e+000 -9.855844e+000 7.955898e+001 -7.150572e+001 4.015246e-002 3.745303e-001 1.967222e-001
<VARIANCE> 9
 2.348913e+000 7.070258e-001 1.028241e+000 1.990237e+002 1.100024e+003 2.063727e+003 3.355689e-003 5.782502e-004 1.938003e-004
<GCONST> 1.530351e+001
<MIXTURE> 3 2.624139e-001
<MEAN> 9
 -5.908921e+000 -1.111028e+001 1.989833e+000 -1.549887e+001 6.629233e+001 -8.967703e+001 1.698114e-002 3.649115e-001 1.911538e-001
<VARIANCE> 9
 2.348913e+000 7.070258e-001 1.028241e+000 1.990237e+002 1.100024e+003 2.063727e+003 3.355689e-003 5.782502e-004 1.938003e-004
<GCONST> 1.530351e+001
<TRANSP> 8
 0.000000e+000 1.000000e+000 0.000000e+000 0.000000e+000 0.000000e+000 0.000000e+000 0.000000e+000 0.000000e+000
 0.000000e+000 9.312229e-001 6.877710e-002 0.000000e+000 0.000000e+000 0.000000e+000 0.000000e+000 0.000000e+000
 0.000000e+000 0.000000e+000 9.654476e-001 3.455241e-002 0.000000e+000 0.000000e+000 0.000000e+000 0.000000e+000
 0.000000e+000 0.000000e+000 0.000000e+000 9.518113e-001 4.818868e-002 0.000000e+000 0.000000e+000 0.000000e+000
 0.000000e+000 0.000000e+000 0.000000e+000 0.000000e+000 9.646319e-001 3.536814e-002 0.000000e+000 0.000000e+000
 0.000000e+000 0.000000e+000 0.000000e+000 0.000000e+000 0.000000e+000 9.305895e-001 6.941051e-002 0.000000e+000
 0.000000e+000 0.000000e+000 0.000000e+000 0.000000e+000 0.000000e+000 0.000000e+000 9.288646e-001 7.113537e-002
 0.000000e+000 0.000000e+000 0.000000e+000 0.000000e+000 0.000000e+000 0.000000e+000 0.000000e+000 0.000000e+000
<ENDHMM>
~h "HE"
<BEGINHMM>
<NUMSTATES> 8
<STATE> 2
<NUMMIXES> 3
<MIXTURE> 1 4.935233e-001
<MEAN> 9
 -1.070813e+001 -9.084867e+000 3.586837e+000 1.318839e+002 4.019883e+001 1.891195e+002 2.185404e-001 2.673708e-001 3.733034e-002
<VARIANCE> 9
 7.062000e+000 1.609704e+001 1.106362e+001 4.230521e+003 5.057431e+003 5.939285e+003 2.161359e-002 1.744686e-002 1.095253e-002
<GCONST> 3.684874e+001
<MIXTURE> 2 2.532383e-001
<MEAN> 9
 -1.034180e+001 -7.076307e+000 1.889565e+000 1.209582e+002 1.366263e+001 2.389876e+002 3.122422e-001 2.114036e-001 1.109466e-002
<VARIANCE> 9
 5.996415e+000 1.908206e+001 1.059300e+001 3.683214e+003 5.734516e+003 7.733042e+003 2.301097e-002 3.179285e-002 1.348428e-002
<GCONST> 3.793353e+001
<MIXTURE> 3 2.532383e-001
<MEAN> 9
 -1.132130e+001 -8.823628e+000 5.876892e-001 9.668240e+001 -1.662800e+001 2.038126e+002 2.515648e-001 1.400814e-001 -3.535408e-002
<VARIANCE> 9
 5.996415e+000 1.908206e+001 1.059300e+001 3.683214e+003 5.734516e+003 7.733042e+003 2.301097e-002 3.179285e-002 1.348428e-002
<GCONST> 3.793353e+001
<STATE> 3
<NUMMIXES> 3
<MIXTURE> 1 4.945953e-001
<MEAN> 9
 6.629219e+000 7.924979e-001 4.689474e+000 2.150994e+001 -2.857166e+001 6.815285e+001 -9.234153e-003 -2.353427e-001 -2.405134e-001
<VARIANCE> 9
 6.129956e+001 3.847907e+000 9.330582e+000 1.265914e+003 6.242046e+003 4.021273e+004 2.802962e-002 1.473524e-003 1.534306e-003
<GCONST> 3.414777e+001
<MIXTURE> 2 2.527024e-001
<MEAN> 9
 4.141601e+000 5.814709e-001 3.825615e+000 1.330145e+001 -6.926432e+001 1.968253e+002 8.360924e-002 -2.430207e-001 -2.327712e-001
<VARIANCE> 9
 5.233627e+001 7.987033e+000 9.792397e+000 1.423667e+003 9.966270e+003 5.072263e+004 2.635136e-002 1.253039e-003 1.076338e-003
<GCONST> 3.500748e+001
<MIXTURE> 3 2.527024e-001
<MEAN> 9
 1.247848e+000 -5.489827e-001 2.573903e+000 -1.791150e+000 -1.091968e+002 1.067385e+002 1.867684e-002 -2.571800e-001 -2.458942e-001
<VARIANCE> 9
 5.233627e+001 7.987033e+000 9.792397e+000 1.423667e+003 9.966270e+003 5.072263e+004 2.635136e-002 1.253039e-003 1.076338e-003
<GCONST> 3.500748e+001
<STATE> 4
<NUMMIXES> 3
<MIXTURE> 1 4.927560e-001
<MEAN> 9
 -8.279942e+000 7.634803e+000 2.894925e+000 4.600566e+000 4.134836e-001 -2.779029e+001 1.912519e-001 -2.993852e-001 -2.018608e-001
<VARIANCE> 9
 1.734593e+001 3.615117e+000 4.126595e+000 2.240715e+003 1.357106e+003 3.029999e+004 7.215799e-003 9.988409e-004 8.765695e-004
<GCONST> 2.846350e+001
<MIXTURE> 2 2.536219e-001
<MEAN> 9
 -5.667815e+000 7.210909e+000 3.701251e+000 1.028860e+001 5.548515e-001 2.405561e+001 1.634379e-001 -3.069361e-001 -2.040687e-001
<VARIANCE> 9
 1.906287e+001 4.172548e+000 3.763436e+000 2.875890e+003 1.513966e+003 4.160636e+004 6.579945e-003 6.240388e-004 7.815181e-004
<GCONST> 2.860781e+001
<MIXTURE> 3 2.536219e-001
<MEAN> 9
 -7.414257e+000 6.393836e+000 2.925267e+000 -1.116233e+001 -1.500904e+001 -5.753493e+001 1.309911e-001 -3.169284e-001 -2.152509e-001
<VARIANCE> 9
 1.906287e+001 4.172548e+000 3.763436e+000 2.875890e+003 1.513966e+003 4.160636e+004 6.579945e-003 6.240388e-004 7.815181e-004
<GCONST> 2.860781e+001
<STATE> 5
<NUMMIXES> 3
<MIXTURE> 1 2.504699e-001
<MEAN> 9
 8.723840e+000 2.485463e+000 5.924138e+000 1.518190e+001 5.315980e+000 2.873685e+001 -8.269566e-002 -2.280028e-001 -2.399707e-001
<VARIANCE> 9
 2.185067e+001 3.690734e+000 1.505848e+000 1.270027e+003 6.987309e+002 3.377274e+004 5.295862e-003 2.701754e-003 6.091999e-004
<GCONST> 2.690573e+001
<MIXTURE> 2 4.990601e-001
<MEAN> 9
 5.951749e+000 2.419687e+000 5.531101e+000 -9.711735e+000 -8.232954e+000 -7.888954e+000 -7.288416e-002 -2.542679e-001 -2.479642e-001
<VARIANCE> 9
 1.829089e+001 3.242623e+000 1.335765e+000 2.099691e+003 9.553869e+002 4.490543e+004 4.728132e-003 2.114297e-003 4.375797e-004
<GCONST> 2.688965e+001
<MIXTURE> 3 2.504699e-001
<MEAN> 9
 6.854052e+000 1.717011e+000 5.433286e+000 9.269261e-001 -5.257427e+000 -4.477259e+001 -1.118047e-001 -2.487942e-001 -2.498435e-001
<VARIANCE> 9
 2.185067e+001 3.690734e+000 1.505848e+000 1.270027e+003 6.987309e+002 3.377274e+004 5.295862e-003 2.701754e-003 6.091999e-004
<GCONST> 2.690573e+001
<STATE> 6
<NUMMIXES> 3
<MIXTURE> 1 4.951082e-001
<MEAN> 9
 -5.982604e+000 7.616239e-001 3.827143e+000 -1.032747e+002 5.219222e+001 -1.581328e+002 2.185556e-001 -1.044513e-001 -2.341969e-001
<VARIANCE> 9
 6.574677e+000 2.025769e+001 1.695859e+000 5.139431e+003 3.144494e+003 5.286141e+003 5.706311e-003 2.971219e-002 1.881710e-003
<GCONST> 3.217384e+001
<MIXTURE> 2 2.524459e-001
<MEAN> 9
 -5.802148e+000 9.222056e-001 3.656070e+000 -8.974019e+001 4.099728e+001 -1.746347e+002 2.180396e-001 -7.869549e-002 -2.369978e-001
<VARIANCE> 9
 7.430615e+000 1.836715e+001 1.538474e+000 5.078278e+003 3.640654e+003 2.940022e+003 5.127167e-003 2.805778e-002 1.200291e-003
<GCONST> 3.103480e+001
<MIXTURE> 3 2.524459e-001
<MEAN> 9
 -6.892514e+000 -7.920710e-001 3.159929e+000 -1.182450e+002 1.686214e+001 -1.963235e+002 1.893979e-001 -1.456973e-001 -2.508558e-001
<VARIANCE> 9
 7.430615e+000 1.836715e+001 1.538474e+000 5.078278e+003 3.640654e+003 2.940022e+003 5.127167e-003 2.805778e-002 1.200291e-003
<GCONST> 3.103480e+001
<STATE> 7
<NUMMIXES> 3
<MIXTURE> 1 4.788382e-001
<MEAN> 9
 -6.060370e+000 -1.080461e+001 5.041757e+000 -8.249818e+001 2.232785e+001 -7.727689e+001 4.181921e-002 3.534799e-001 1.019534e-001
<VARIANCE> 9
 1.291482e+001 1.833332e+000 1.110095e+001 3.003797e+003 5.614864e+003 4.547797e+003 5.939944e-003 8.181343e-004 8.155223e-003
<GCONST> 3.013200e+001
<MIXTURE> 2 2.605808e-001
<MEAN> 9
 -7.399357e+000 -1.086966e+001 5.694456e+000 -1.263849e+002 1.000706e+001 -1.203163e+002 1.178879e-001 3.358744e-001 2.708567e-002
<VARIANCE> 9
 4.677527e+000 2.755036e+000 1.819919e+000 2.579279e+003 2.523225e+003 4.373764e+003 6.521356e-003 1.515907e-003 9.410017e-003
<GCONST> 2.757743e+001
<MIXTURE> 3 2.605808e-001
<MEAN> 9
 -8.264461e+000 -1.153360e+001 5.154838e+000 -1.466995e+002 -1.008562e+001 -1.467701e+002 8.558592e-002 3.203006e-001 -1.171642e-002
<VARIANCE> 9
 4.677527e+000 2.755036e+000 1.819919e+000 2.579279e+003 2.523225e+003 4.373764e+003 6.521356e-003 1.515907e-003 9.410017e-003
<GCONST> 2.757743e+001
<TRANSP> 8
 0.000000e+000 1.000000e+000 0.000000e+000 0.000000e+000 0.000000e+000 0.000000e+000 0.000000e+000 0.000000e+000
 0.000000e+000 9.561633e-001 4.383676e-002 0.000000e+000 0.000000e+000 0.000000e+000 0.000000e+000 0.000000e+000
 0.000000e+000 0.000000e+000 9.617988e-001 3.820115e-002 0.000000e+000 0.000000e+000 0.000000e+000 0.000000e+000
 0.000000e+000 0.000000e+000 0.000000e+000 9.547941e-001 4.520586e-002 0.000000e+000 0.000000e+000 0.000000e+000
 0.000000e+000 0.000000e+000 0.000000e+000 0.000000e+000 9.647740e-001 3.522597e-002 0.000000e+000 0.000000e+000
 0.000000e+000 0.000000e+000 0.000000e+000 0.000000e+000 0.000000e+000 9.556628e-001 4.433721e-002 0.000000e+000
 0.000000e+000 0.000000e+000 0.000000e+000 0.000000e+000 0.000000e+000 0.000000e+000 9.447513e-001 5.524869e-002
 0.000000e+000 0.000000e+000 0.000000e+000 0.000000e+000 0.000000e+000 0.000000e+000 0.000000e+000 0.000000e+000
<ENDHMM>
~h "SR"
<BEGINHMM>
<NUMSTATES> 8
<STATE> 2
<NUMMIXES> 3
<MIXTURE> 1 2.523690e-001
<MEAN> 9
 -8.797833e+000 -9.524558e+000 1.029971e+000 -3.230383e+001 -9.442792e+001 2.210505e+002 2.827383e-001 3.220499e-001 2.280919e-001
<VARIANCE> 9
 2.773138e+000 2.783245e+000 1.659410e+000 2.200766e+003 8.662663e+003 7.190701e+003 2.750974e-002 7.185906e-003 2.456995e-004
<GCONST> 2.789458e+001
<MIXTURE> 2 4.952618e-001
<MEAN> 9
 -9.431557e+000 -1.060199e+001 1.259299e-001 -3.669779e+001 -1.566706e+002 1.787657e+002 1.737270e-001 3.334310e-001 2.191376e-001
<VARIANCE> 9
 3.764154e+000 2.250051e+000 2.094717e+000 2.399195e+003 8.999404e+003 1.006667e+004 2.526825e-002 4.870349e-003 2.220828e-004
<GCONST> 2.810632e+001
<MIXTURE> 3 2.523690e-001
<MEAN> 9
 -9.463943e+000 -1.019188e+001 5.146986e-001 -5.106876e+001 -1.316573e+002 1.871313e+002 2.163941e-001 2.881421e-001 2.218219e-001
<VARIANCE> 9
 2.773138e+000 2.783245e+000 1.659410e+000 2.200766e+003 8.662663e+003 7.190701e+003 2.750974e-002 7.185906e-003 2.456995e-004
<GCONST> 2.789458e+001
<STATE> 3
<NUMMIXES> 3
<MIXTURE> 1 4.928643e-001
<MEAN> 9
 -4.470723e+000 -1.225707e+000 2.639240e+000 3.479161e+001 -5.306316e+000 -6.342814e+001 5.093549e-001 -5.073546e-002 1.924553e-001
<VARIANCE> 9
 7.161599e+000 8.142835e+000 4.976864e-001 5.460553e+003 1.040152e+003 3.244244e+004 4.762525e-004 9.136453e-003 1.636960e-003
<GCONST> 2.708867e+001
<MIXTURE> 2 2.535677e-001
<MEAN> 9
 -4.567132e+000 -1.947805e+000 2.654161e+000 4.443680e+000 -1.724959e+001 6.815704e+001 5.103435e-001 -4.441359e-002 2.057417e-001
<VARIANCE> 9
 8.630803e+000 9.585244e+000 5.304862e-001 5.238227e+003 7.813102e+002 3.113167e+004 4.762525e-004 1.111388e-002 1.641016e-003
<GCONST> 2.733162e+001
<MIXTURE> 3 2.535677e-001
<MEAN> 9
 -5.742260e+000 -3.186207e+000 2.362823e+000 -2.450656e+001 -2.843036e+001 -2.419640e+000 5.016142e-001 -8.658255e-002 1.895379e-001
<VARIANCE> 9
 8.630803e+000 9.585244e+000 5.304862e-001 5.238227e+003 7.813102e+002 3.113167e+004 4.762525e-004 1.111388e-002 1.641016e-003
<GCONST> 2.733162e+001
<STATE> 4
<NUMMIXES> 3
<MIXTURE> 1 4.926490e-001
<MEAN> 9
 -9.985169e+000 -6.365664e+000 4.604660e+000 -1.922337e+001 -2.164541e+001 3.964227e+001 4.364042e-001 2.037410e-001 1.641173e-001
<VARIANCE> 9
 2.099257e+001 2.014015e+001 2.165046e+000 7.410088e+002 9.568720e+002 2.124145e+004 1.648831e-003 3.597843e-003 1.322581e-003
<GCONST> 2.813233e+001
<MIXTURE> 2 2.536754e-001
<MEAN> 9
 -1.209626e+001 -4.516780e+000 4.489540e+000 -2.573478e+001 -3.679111e+001 2.049091e+001 4.135679e-001 2.528141e-001 1.679332e-001
<VARIANCE> 9
 1.794325e+001 1.891943e+001 2.511038e+000 7.785271e+002 1.423932e+003 1.661949e+004 1.641479e-003 2.633657e-003 1.239287e-003
<GCONST> 2.788115e+001
<MIXTURE> 3 2.536754e-001
<MEAN> 9
 -1.379064e+001 -6.256639e+000 3.855690e+000 -3.689562e+001 -5.188512e+001 -3.107573e+001 3.973618e-001 2.322865e-001 1.538518e-001
<VARIANCE> 9
 1.794325e+001 1.891943e+001 2.511038e+000 7.785271e+002 1.423932e+003 1.661949e+004 1.641479e-003 2.633657e-003 1.239287e-003
<GCONST> 2.788115e+001
<STATE> 5
<NUMMIXES> 3
<MIXTURE> 1 2.550046e-001
<MEAN> 9
 -6.477759e+000 -4.211812e+000 4.112082e+000 2.665379e+001 1.258760e+001 -1.407063e+001 4.953656e-001 1.165727e-001 1.821603e-001
<VARIANCE> 9
 1.230433e+000 5.127659e-001 7.012505e-001 5.970035e+002 3.138085e+002 3.117740e+003 4.762525e-004 1.997706e-003 1.231296e-003
<GCONST> 1.534600e+001
<MIXTURE> 2 4.899904e-001
<MEAN> 9
 -6.634676e+000 -4.467093e+000 3.938979e+000 1.670466e+001 6.823502e+000 -3.265346e+001 4.868681e-001 1.129034e-001 1.669785e-001
<VARIANCE> 9
 1.069305e+000 4.639101e-001 5.815192e-001 5.399946e+002 2.780574e+002 4.050851e+003 4.762525e-004 2.084143e-003 1.622810e-003
<GCONST> 1.527724e+001
<MIXTURE> 3 2.550046e-001
<MEAN> 9
 -6.921459e+000 -4.498242e+000 3.777120e+000 1.688033e+001 5.501742e+000 -3.640532e+001 4.866364e-001 9.869446e-002 1.681243e-001
<VARIANCE> 9
 1.230433e+000 5.127659e-001 7.012505e-001 5.970035e+002 3.138085e+002 3.117740e+003 4.762525e-004 1.997706e-003 1.231296e-003
<GCONST> 1.534600e+001
<STATE> 6
<NUMMIXES> 3
<MIXTURE> 1 2.515677e-001
<MEAN> 9
 -6.676491e+000 -6.838451e+000 1.416876e+000 5.338979e+001 1.132671e+002 -1.359446e+002 2.983650e-001 3.279769e-001 2.177980e-001
<VARIANCE> 9
 9.382173e-001 5.537624e+000 1.060566e+000 8.084023e+002 1.744797e+003 8.997599e+002 1.543834e-002 3.804513e-003 7.630553e-004
<GCONST> 2.228842e+001
<MIXTURE> 2 4.968646e-001
<MEAN> 9
 -6.892230e+000 -8.153356e+000 1.137107e+000 4.394809e+001 1.068723e+002 -1.497697e+002 2.343294e-001 3.292269e-001 1.998964e-001
<VARIANCE> 9
 9.031093e-001 5.653504e+000 1.123577e+000 8.584604e+002 1.626818e+003 8.592308e+002 1.787221e-002 3.387879e-003 8.586965e-004
<GCONST> 2.242118e+001
<MIXTURE> 3 2.515677e-001
<MEAN> 9
 -7.063937e+000 -7.779737e+000 1.004941e+000 4.201682e+001 9.655875e+001 -1.479430e+002 2.486646e-001 3.033047e-001 2.067486e-001
<VARIANCE> 9
 9.382173e-001 5.537624e+000 1.060566e+000 8.084023e+002 1.744797e+003 8.997599e+002 1.543834e-002 3.804513e-003 7.630553e-004
<GCONST> 2.228842e+001
<STATE> 7
<NUMMIXES> 3
<MIXTURE> 1 4.925161e-001
<MEAN> 9
 -3.588580e+000 -1.014175e+001 1.382566e+000 -4.671990e+000 8.767136e+001 -3.288371e+001 -1.306630e-003 3.654943e-001 2.245026e-001
<VARIANCE> 9
 1.812007e+000 3.371764e-001 1.296243e+000 2.364638e+002 8.242043e+002 6.921756e+002 2.598339e-003 5.782502e-004 1.330363e-003
<GCONST> 1.499701e+001
<MIXTURE> 2 2.537419e-001
<MEAN> 9
 -4.070612e+000 -1.013144e+001 1.175136e+000 -1.110026e+001 7.563964e+001 -3.934436e+001 -6.136289e-003 3.718709e-001 1.988037e-001
<VARIANCE> 9
 1.074900e+000 3.371764e-001 3.074138e-001 2.276047e+002 6.751708e+002 8.031821e+002 1.013805e-003 5.782502e-004 1.103098e-003
<GCONST> 1.181839e+001
<MIXTURE> 3 2.537419e-001
<MEAN> 9
 -4.485322e+000 -1.036370e+001 9.533563e-001 -1.713488e+001 6.524603e+001 -5.068055e+001 -1.887241e-002 3.622521e-001 1.855185e-001
<VARIANCE> 9
 1.074900e+000 3.371764e-001 3.074138e-001 2.276047e+002 6.751708e+002 8.031821e+002 1.013805e-003 5.782502e-004 1.103098e-003
<GCONST> 1.181839e+001
<TRANSP> 8
 0.000000e+000 1.000000e+000 0.000000e+000 0.000000e+000 0.000000e+000 0.000000e+000 0.000000e+000 0.000000e+000
 0.000000e+000 9.486353e-001 5.136468e-002 0.000000e+000 0.000000e+000 0.000000e+000 0.000000e+000 0.000000e+000
 0.000000e+000 0.000000e+000 9.570465e-001 4.295349e-002 0.000000e+000 0.000000e+000 0.000000e+000 0.000000e+000
 0.000000e+000 0.000000e+000 0.000000e+000 9.487117e-001 5.128828e-002 0.000000e+000 0.000000e+000 0.000000e+000
 0.000000e+000 0.000000e+000 0.000000e+000 0.000000e+000 9.477985e-001 5.220154e-002 0.000000e+000 0.000000e+000
 0.000000e+000 0.000000e+000 0.000000e+000 0.000000e+000 0.000000e+000 9.504837e-001 4.951631e-002 0.000000e+000
 0.000000e+000 0.000000e+000 0.000000e+000 0.000000e+000 0.000000e+000 0.000000e+000 9.265262e-001 7.347378e-002
 0.000000e+000 0.000000e+000 0.000000e+000 0.000000e+000 0.000000e+000 0.000000e+000 0.000000e+000 0.000000e+000
<ENDHMM>
~h "TK"
<BEGINHMM>
<NUMSTATES> 8
<STATE> 2
<NUMMIXES> 3
<MIXTURE> 1 2.583038e-001
<MEAN> 9
 -8.576408e+000 -9.663049e+000 -2.046522e+000 -4.212357e+001 9.351089e+001 1.944087e+002 1.571537e-001 3.680091e-001 2.230982e-001
<VARIANCE> 9
 1.937548e+000 1.201539e+000 4.791317e+000 2.807303e+003 3.096126e+003 4.442136e+003 1.049039e-002 5.782502e-004 3.909891e-003
<GCONST> 2.577246e+001
<MIXTURE> 2 4.833925e-001
<MEAN> 9
 -9.435818e+000 -1.066749e+001 -2.588017e+000 -5.116034e+001 5.017006e+001 1.862766e+002 1.138769e-001 3.627670e-001 1.973621e-001
<VARIANCE> 9
 2.807734e+000 2.318318e+000 5.860562e+000 3.326791e+003 2.776740e+003 7.237339e+003 1.162305e-002 5.782502e-004 2.791016e-003
<GCONST> 2.731654e+001
<MIXTURE> 3 2.583038e-001
<MEAN> 9
 -9.133192e+000 -1.010151e+001 -2.922086e+000 -6.331717e+001 7.125375e+001 1.677489e+002 1.161847e-001 3.583903e-001 1.980866e-001
<VARIANCE> 9
 1.937548e+000 1.201539e+000 4.791317e+000 2.807303e+003 3.096126e+003 4.442136e+003 1.049039e-002 5.782502e-004 3.909891e-003
<GCONST> 2.577246e+001
<STATE> 3
<NUMMIXES> 3
<MIXTURE> 1 2.515754e-001
<MEAN> 9
 -6.223485e+000 2.348451e-001 -2.857305e+000 -1.702911e+002 2.867719e+001 1.597133e+002 4.243372e-001 -2.698559e-003 4.445943e-001
<VARIANCE> 9
 2.654685e+000 9.672969e+000 2.542703e+000 6.553082e+002 7.169829e+002 3.467629e+003 1.330624e-003 2.461102e-002 3.005957e-003
<GCONST> 2.579733e+001
<MIXTURE> 2 4.968489e-001
<MEAN> 9
 -7.396153e+000 -2.698158e+000 -4.288990e+000 -1.845849e+002 2.017046e+001 1.817834e+002 3.917516e-001 5.989506e-002 4.270056e-001
<VARIANCE> 9
 3.338170e+000 1.476489e+001 3.502584e+000 1.115664e+003 1.141026e+003 5.552600e+003 2.141220e-003 2.852133e-002 5.317919e-003
<GCONST> 2.943083e+001
<MIXTURE> 3 2.515754e-001
<MEAN> 9
 -6.875213e+000 -1.009211e+000 -3.495139e+000 -1.805307e+002 1.796657e+001 1.361587e+002 4.097461e-001 -6.545016e-002 4.226637e-001
<VARIANCE> 9
 2.654685e+000 9.672969e+000 2.542703e+000 6.553082e+002 7.169829e+002 3.467629e+003 1.330624e-003 2.461102e-002 3.005957e-003
<GCONST> 2.579733e+001
<STATE> 4
<NUMMIXES> 3
<MIXTURE> 1 4.964423e-001
<MEAN> 9
 -5.087844e+000 5.791587e+000 1.437049e+000 1.444674e+001 1.704111e+001 -6.154814e+000 3.520393e-001 -3.135917e-001 4.106858e-001
<VARIANCE> 9
 7.937776e-001 1.511570e+000 3.494461e+000 1.127726e+004 7.250674e+002 2.035892e+003 6.675913e-004 1.901468e-003 2.226554e-003
<GCONST> 2.182551e+001
<MIXTURE> 2 2.517791e-001
<MEAN> 9
 -5.119430e+000 6.454030e+000 1.855392e+000 2.035386e+001 1.528552e+001 6.761441e+000 3.475235e-001 -3.180572e-001 4.159076e-001
<VARIANCE> 9
 6.686863e-001 1.408973e+000 3.256006e+000 7.552093e+003 6.016148e+002 1.299869e+003 6.530374e-004 1.640845e-003 2.108224e-003
<GCONST> 2.025270e+001
<MIXTURE> 3 2.517791e-001
<MEAN> 9
 -5.446523e+000 5.979228e+000 1.133616e+000 -1.440725e+001 5.474382e+000 -7.660037e+000 3.373017e-001 -3.342602e-001 3.975414e-001
<VARIANCE> 9
 6.686863e-001 1.408973e+000 3.256006e+000 7.552093e+003 6.016148e+002 1.299869e+003 6.530374e-004 1.640845e-003 2.108224e-003
<GCONST> 2.025270e+001
<STATE> 5
<NUMMIXES> 3
<MIXTURE> 1 2.515563e-001
<MEAN> 9
 -8.324895e+000 2.434893e+000 -5.238002e+000 8.828903e+001 3.998101e+000 -2.646553e+001 3.770735e-001 -6.584097e-003 5.422364e-001
<VARIANCE> 9
 1.897082e+000 1.987069e+000 4.951541e+000 6.073847e+003 2.970495e+003 2.050322e+003 8.528540e-004 9.802349e-003 1.382009e-003
<GCONST> 2.552528e+001
<MIXTURE> 2 4.968878e-001
<MEAN> 9
 -9.225285e+000 1.789773e+000 -6.385268e+000 6.410683e+001 -2.102730e+001 -3.534262e+001 3.758505e-001 1.562946e-005 5.326036e-001
<VARIANCE> 9
 2.015762e+000 1.742229e+000 6.240115e+000 4.676047e+003 3.921309e+003 1.753854e+003 8.359365e-004 6.627311e-003 1.378323e-003
<GCONST> 2.513161e+001
<MIXTURE> 3 2.515563e-001
<MEAN> 9
 -8.875833e+000 1.871039e+000 -6.128084e+000 5.711508e+001 -1.780280e+001 -4.457772e+001 3.653921e-001 -4.618682e-002 5.273662e-001
<VARIANCE> 9
 1.897082e+000 1.987069e+000 4.951541e+000 6.073847e+003 2.970495e+003 2.050322e+003 8.528540e-004 9.802349e-003 1.382009e-003
<GCONST> 2.552528e+001
<STATE> 6
<NUMMIXES> 3
<MIXTURE> 1 2.554345e-001
<MEAN> 9
 -6.764688e+000 -1.734524e+000 6.547214e-001 2.208376e+001 -1.383252e+002 -1.147939e+002 4.500656e-001 1.639271e-001 2.871168e-001
<VARIANCE> 9
 2.134786e+000 5.140976e+000 4.007870e+000 8.435662e+002 7.864614e+003 4.015966e+003 3.734039e-003 1.123367e-002 1.457961e-002
<GCONST> 3.002333e+001
<MIXTURE> 2 4.891317e-001
<MEAN> 9
 -7.952817e+000 -4.089430e+000 1.578518e+000 -5.915528e+000 -1.032202e+002 -1.723405e+002 3.930126e-001 2.184300e-001 1.804853e-001
<VARIANCE> 9
 2.314137e+000 6.871375e+000 4.299875e+000 1.383334e+003 7.757980e+003 3.413461e+003 5.806881e-003 1.088427e-002 1.086629e-002
<GCONST> 3.089885e+001
<MIXTURE> 3 2.554345e-001
<MEAN> 9
 -7.349124e+000 -2.641472e+000 -1.460653e-001 1.046608e+001 -1.737982e+002 -1.401425e+002 4.256228e-001 1.215315e-001 2.388184e-001
<VARIANCE> 9
 2.134786e+000 5.140976e+000 4.007870e+000 8.435662e+002 7.864614e+003 4.015966e+003 3.734039e-003 1.123367e-002 1.457961e-002
<GCONST> 3.002333e+001
<STATE> 7
<NUMMIXES> 3
<MIXTURE> 1 4.919971e-001
<MEAN> 9
 -5.685547e+000 -9.940650e+000 2.046808e+000 -1.988213e+001 7.657941e+001 -9.268649e+001 5.745534e-002 3.717743e-001 1.789850e-001
<VARIANCE> 9
 2.235925e+000 8.220009e-001 1.625906e+000 2.623650e+002 3.097458e+003 3.586344e+003 7.979461e-003 5.782502e-004 5.136415e-004
<GCONST> 1.956819e+001
<MIXTURE> 2 2.540013e-001
<MEAN> 9
 -6.037416e+000 -1.002352e+001 2.371116e+000 -1.875739e+001 6.505016e+001 -1.139623e+002 9.776142e-002 3.752412e-001 1.672072e-001
<VARIANCE> 9
 1.594973e+000 1.465846e+000 2.107346e+000 6.486617e+002 2.798646e+003 4.147649e+003 7.562628e-003 5.782502e-004 6.649811e-004
<GCONST> 2.122192e+001
<MIXTURE> 3 2.540013e-001
<MEAN> 9
 -6.542585e+000 -1.050780e+001 1.790448e+000 -2.894493e+001 4.388927e+001 -1.397233e+002 6.297608e-002 3.656224e-001 1.568924e-001
<VARIANCE> 9
 1.594973e+000 1.465846e+000 2.107346e+000 6.486617e+002 2.798646e+003 4.147649e+003 7.562628e-003 5.782502e-004 6.649811e-004
<GCONST> 2.122192e+001
<TRANSP> 8
 0.000000e+000 1.000000e+000 0.000000e+000 0.000000e+000 0.000000e+000 0.000000e+000 0.000000e+000 0.000000e+000
 0.000000e+000 9.220542e-001 7.794577e-002 0.000000e+000 0.000000e+000 0.000000e+000 0.000000e+000 0.000000e+000
 0.000000e+000 0.000000e+000 9.379132e-001 6.208679e-002 0.000000e+000 0.000000e+000 0.000000e+000 0.000000e+000
 0.000000e+000 0.000000e+000 0.000000e+000 9.604859e-001 3.951409e-002 0.000000e+000 0.000000e+000 0.000000e+000
 0.000000e+000 0.000000e+000 0.000000e+000 0.000000e+000 9.547859e-001 4.521408e-002 0.000000e+000 0.000000e+000
 0.000000e+000 0.000000e+000 0.000000e+000 0.000000e+000 0.000000e+000 9.449977e-001 5.500229e-002 0.000000e+000
 0.000000e+000 0.000000e+000 0.000000e+000 0.000000e+000 0.000000e+000 0.000000e+000 9.401655e-001 5.983449e-002
 0.000000e+000 0.000000e+000 0.000000e+000 0.000000e+000 0.000000e+000 0.000000e+000 0.000000e+000 0.000000e+000
<ENDHMM>
~h "sp"
<BEGINHMM>
<NUMSTATES> 8
<STATE> 2
<NUMMIXES> 3
<MIXTURE> 1 4.623964e-001
<MEAN> 9
 -4.077062e+000 -9.731435e+000 2.007000e+000 -3.451811e+000 6.347817e+001 -6.726190e+000 -9.446471e-003 3.661479e-001 1.902782e-001
<VARIANCE> 9
 1.891896e+000 3.371764e-001 2.102064e+000 1.895053e+002 1.983314e+003 1.210095e+002 4.762525e-004 5.782502e-004 4.582480e-004
<GCONST> 1.167389e+001
<MIXTURE> 2 2.688018e-001
<MEAN> 9
 -3.882157e+000 -9.724608e+000 1.795027e+000 -2.918899e+000 5.676449e+001 -8.354194e+000 -1.537846e-002 3.694203e-001 1.809825e-001
<VARIANCE> 9
 1.967783e+000 3.371764e-001 2.731609e+000 2.875080e+002 2.246922e+003 1.210095e+002 4.762525e-004 5.782502e-004 4.244836e-004
<GCONST> 1.244028e+001
<MIXTURE> 3 2.688018e-001
<MEAN> 9
 -4.443267e+000 -9.956876e+000 1.133923e+000 -9.701324e+000 3.780381e+001 -1.275437e+001 -2.410774e-002 3.598015e-001 1.727413e-001
<VARIANCE> 9
 1.967783e+000 3.371764e-001 2.731609e+000 2.875080e+002 2.246922e+003 1.210095e+002 4.762525e-004 5.782502e-004 4.244836e-004
<GCONST> 1.244028e+001
<STATE> 3
<NUMMIXES> 3
<MIXTURE> 1 4.642870e-001
<MEAN> 9
 -2.797885e+000 -9.782504e+000 -2.972034e-002 5.656843e+000 -1.776331e+000 1.240449e+000 -2.217353e-002 3.656268e-001 1.844086e-001
<VARIANCE> 9
 8.963451e-001 3.371764e-001 3.637776e-001 2.977951e+001 1.660767e+002 1.210095e+002 4.762525e-004 5.782502e-004 4.311836e-004
<GCONST> 4.781199e+000
<MIXTURE> 2 2.678565e-001
<MEAN> 9
 -2.435761e+000 -9.704448e+000 -1.080827e-001 6.442259e+000 -5.589335e+000 4.260534e+000 -2.633263e-002 3.671677e-001 1.805649e-001
<VARIANCE> 9
 7.985917e-001 3.371764e-001 3.221988e-001 2.977951e+001 1.502012e+002 1.210095e+002 4.762525e-004 5.782502e-004 3.634999e-004
<GCONST> 4.273122e+000
<MIXTURE> 3 2.678565e-001
<MEAN> 9
 -2.793217e+000 -9.936715e+000 -3.351329e-001 4.259435e+000 -1.049160e+001 -1.396384e-001 -3.506191e-002 3.575489e-001 1.729387e-001
<VARIANCE> 9
 7.985917e-001 3.371764e-001 3.221988e-001 2.977951e+001 1.502012e+002 1.210095e+002 4.762525e-004 5.782502e-004 3.634999e-004
<GCONST> 4.273122e+000
<STATE> 4
<NUMMIXES> 3
<MIXTURE> 1 4.873244e-001
<MEAN> 9
 -2.259554e+000 -9.930346e+000 1.116413e-001 3.197541e+000 -6.408044e-001 5.892119e-001 -3.531779e-002 3.631950e-001 1.807157e-001
<VARIANCE> 9
 1.991329e-001 3.371764e-001 8.452400e-002 2.977951e+001 3.680466e+001 1.210095e+002 4.762525e-004 5.782502e-004 4.009470e-004
<GCONST> 2.378068e-001
<MIXTURE> 2 2.563379e-001
<MEAN> 9
 -2.227854e+000 -9.796128e+000 1.115148e-001 4.132353e+000 -8.277421e-001 3.032017e+000 -3.080612e-002 3.662549e-001 1.777132e-001
<VARIANCE> 9
 1.932566e-001 3.371764e-001 9.956915e-002 2.977951e+001 3.680466e+001 1.210095e+002 4.762525e-004 5.782502e-004 2.997653e-004
<GCONST> 8.084297e-002
<MIXTURE> 3 2.563379e-001
<MEAN> 9
 -2.403698e+000 -1.002840e+001 -1.470351e-002 1.949529e+000 -3.254416e+000 -1.368156e+000 -3.953540e-002 3.566361e-001 1.707878e-001
<VARIANCE> 9
 1.932566e-001 3.371764e-001 9.956915e-002 2.977951e+001 3.680466e+001 1.210095e+002 4.762525e-004 5.782502e-004 2.997653e-004
<GCONST> 8.084297e-002
<STATE> 5
<NUMMIXES> 3
<MIXTURE> 1 2.516147e-001
<MEAN> 9
 -3.024174e+000 -9.599296e+000 3.338829e-001 4.302376e+000 1.982373e+000 2.582099e+000 2.077422e-003 3.742227e-001 1.940398e-001
<VARIANCE> 9
 1.491142e-001 3.371764e-001 6.976298e-002 2.977951e+001 3.680466e+001 1.210095e+002 4.762525e-004 5.782502e-004 3.683325e-004
<GCONST> -3.282266e-001
<MIXTURE> 2 4.967705e-001
<MEAN> 9
 -3.057596e+000 -9.737523e+000 2.852943e-001 3.058034e+000 -6.232837e-001 4.100831e-001 -7.279437e-003 3.678375e-001 1.831602e-001
<VARIANCE> 9
 1.491142e-001 3.371764e-001 6.976298e-002 2.977951e+001 3.680466e+001 1.210095e+002 4.762525e-004 5.782502e-004 3.541907e-004
<GCONST> -3.673768e-001
<MIXTURE> 3 2.516147e-001
<MEAN> 9
 -3.178636e+000 -9.831563e+000 2.282321e-001 2.119552e+000 -4.443014e-001 -1.818073e+000 -6.651862e-003 3.646039e-001 1.863630e-001
<VARIANCE> 9
 1.491142e-001 3.371764e-001 6.976298e-002 2.977951e+001 3.680466e+001 1.210095e+002 4.762525e-004 5.782502e-004 3.683325e-004
<GCONST> -3.282266e-001
<STATE> 6
<NUMMIXES> 3
<MIXTURE> 1 4.772151e-001
<MEAN> 9
 -2.816046e+000 -9.885306e+000 6.219845e-001 3.750191e+000 -8.815296e+000 1.869457e+000 -3.031154e-002 3.652132e-001 1.824720e-001
<VARIANCE> 9
 5.343255e-001 3.371764e-001 8.265337e-002 2.977951e+001 7.886658e+001 1.210095e+002 4.762525e-004 5.782502e-004 3.223813e-004
<GCONST> 1.746500e+000
<MIXTURE> 2 2.613924e-001
<MEAN> 9
 -2.676925e+000 -9.774495e+000 5.955118e-001 4.587066e+000 -9.474256e+000 3.711924e+000 -2.884354e-002 3.677726e-001 1.834358e-001
<VARIANCE> 9
 5.219207e-001 3.371764e-001 7.510900e-002 2.977951e+001 8.206131e+001 1.210095e+002 4.762525e-004 5.782502e-004 3.295217e-004
<GCONST> 1.688913e+000
<MIXTURE> 3 2.613924e-001
<MEAN> 9
 -2.965901e+000 -1.000676e+001 4.858877e-001 2.404242e+000 -1.309776e+001 -6.882484e-001 -3.757282e-002 3.581538e-001 1.761747e-001
<VARIANCE> 9
 5.219207e-001 3.371764e-001 7.510900e-002 2.977951e+001 8.206131e+001 1.210095e+002 4.762525e-004 5.782502e-004 3.295217e-004
<GCONST> 1.688913e+000
<STATE> 7
<NUMMIXES> 3
<MIXTURE> 1 2.678992e-001
<MEAN> 9
 -4.767867e+000 -9.757484e+000 1.600261e+000 8.186580e+000 -2.579974e+001 2.154818e+001 -4.660994e-003 3.727862e-001 1.939084e-001
<VARIANCE> 9
 1.439325e+000 3.371764e-001 7.357466e-001 4.009167e+001 1.860121e+003 1.819472e+002 6.087371e-004 5.782502e-004 4.553009e-004
<GCONST> 9.380150e+000
<MIXTURE> 2 4.642017e-001
<MEAN> 9
 -5.212402e+000 -9.851655e+000 1.213253e+000 2.799775e+000 -6.716486e+001 1.330832e+001 -2.076420e-002 3.654159e-001 1.862570e-001
<VARIANCE> 9
 2.153788e+000 3.371764e-001 6.832694e-001 3.426003e+001 3.717434e+003 1.210095e+002 4.762525e-004 5.782502e-004 3.398995e-004
<GCONST> 9.298820e+000
<MIXTURE> 3 2.678992e-001
<MEAN> 9
 -5.247755e+000 -9.989752e+000 1.257159e+000 5.653860e+000 -4.305138e+001 1.615266e+001 -1.453003e-002 3.631674e-001 1.853732e-001
<VARIANCE> 9
 1.439325e+000 3.371764e-001 7.357466e-001 4.009167e+001 1.860121e+003 1.819472e+002 6.087371e-004 5.782502e-004 4.553009e-004
<GCONST> 9.380150e+000
<TRANSP> 8
 0.000000e+000 1.000000e+000 0.000000e+000 0.000000e+000 0.000000e+000 0.000000e+000 0.000000e+000 0.000000e+000
 0.000000e+000 8.540255e-001 1.459745e-001 0.000000e+000 0.000000e+000 0.000000e+000 0.000000e+000 0.000000e+000
 0.000000e+000 0.000000e+000 7.471254e-001 2.528746e-001 0.000000e+000 0.000000e+000 0.000000e+000 0.000000e+000
 0.000000e+000 0.000000e+000 0.000000e+000 9.240575e-001 7.594247e-002 0.000000e+000 0.000000e+000 0.000000e+000
 0.000000e+000 0.000000e+000 0.000000e+000 0.000000e+000 9.315369e-001 6.846317e-002 0.000000e+000 0.000000e+000
 0.000000e+000 0.000000e+000 0.000000e+000 0.000000e+000 0.000000e+000 7.209969e-001 2.790031e-001 0.000000e+000
 0.000000e+000 0.000000e+000 0.000000e+000 0.000000e+000 0.000000e+000 0.000000e+000 7.897020e-001 2.102980e-001
 0.000000e+000 0.000000e+000 0.000000e+000 0.000000e+000 0.000000e+000 0.000000e+000 0.000000e+000 0.000000e+000
<ENDHMM>
~h "ssil"
<BEGINHMM>
<NUMSTATES> 8
<STATE> 2
<NUMMIXES> 3
<MIXTURE> 1 4.836754e-001
<MEAN> 9
 -2.827209e+000 -9.791917e+000 1.892922e-001 4.335867e+000 4.360351e+000 2.541301e-001 -2.088121e-002 3.654477e-001 1.744219e-001
<VARIANCE> 9
 6.175352e-001 3.371764e-001 3.115289e-001 2.977951e+001 4.425118e+002 1.210095e+002 4.762525e-004 5.782502e-004 2.978735e-004
<GCONST> 4.863708e+000
<MIXTURE> 2 2.581623e-001
<MEAN> 9
 -2.711452e+000 -9.698488e+000 2.034893e-001 5.230623e+000 -8.739555e-001 2.391249e+000 -1.813667e-002 3.688178e-001 1.712450e-001
<VARIANCE> 9
 6.821698e-001 3.371764e-001 2.946600e-001 2.977951e+001 3.026249e+002 1.210095e+002 4.762525e-004 5.782502e-004 1.950343e-004
<GCONST> 4.104116e+000
<MIXTURE> 3 2.581623e-001
<MEAN> 9
 -3.041826e+000 -9.930756e+000 -1.364109e-002 3.047799e+000 -7.832402e+000 -2.008924e+000 -2.686595e-002 3.591990e-001 1.656588e-001
<VARIANCE> 9
 6.821698e-001 3.371764e-001 2.946600e-001 2.977951e+001 3.026249e+002 1.210095e+002 4.762525e-004 5.782502e-004 1.950343e-004
<GCONST> 4.104116e+000
<STATE> 3
<NUMMIXES> 3
<MIXTURE> 1 4.842031e-001
<MEAN> 9
 -2.641176e+000 -9.848031e+000 2.167620e-001 3.267532e+000 -6.581690e-001 1.694152e-001 -2.305971e-002 3.675386e-001 1.763311e-001
<VARIANCE> 9
 1.491142e-001 3.371764e-001 6.976298e-002 2.977951e+001 3.680466e+001 1.210095e+002 4.762525e-004 5.782502e-004 1.938003e-004
<GCONST> -9.703841e-001
<MIXTURE> 2 2.578979e-001
<MEAN> 9
 -2.569981e+000 -9.728822e+000 2.589058e-001 4.349478e+000 -1.448311e-001 2.403298e+000 -1.978772e-002 3.705330e-001 1.771259e-001
<VARIANCE> 9
 1.491142e-001 3.371764e-001 6.976298e-002 2.977951e+001 3.680466e+001 1.210095e+002 4.762525e-004 5.782502e-004 1.938003e-004
<GCONST> -9.703841e-001
<MIXTURE> 3 2.578979e-001
<MEAN> 9
 -2.724443e+000 -9.961089e+000 1.532550e-001 2.166654e+000 -2.571505e+000 -1.996874e+000 -2.851700e-002 3.609142e-001 1.715575e-001
<VARIANCE> 9
 1.491142e-001 3.371764e-001 6.976298e-002 2.977951e+001 3.680466e+001 1.210095e+002 4.762525e-004 5.782502e-004 1.938003e-004
<GCONST> -9.703841e-001
<STATE> 4
<NUMMIXES> 3
<MIXTURE> 1 2.509376e-001
<MEAN> 9
 -1.923416e+000 -9.883054e+000 5.447057e-001 4.346004e+000 1.391849e+000 2.421298e+000 -4.902435e-002 3.652547e-001 1.855133e-001
<VARIANCE> 9
 1.491142e-001 3.371764e-001 6.976298e-002 2.977951e+001 3.680466e+001 1.210095e+002 4.762525e-004 5.782502e-004 1.938003e-004
<GCONST> -9.703841e-001
<MIXTURE> 2 4.981240e-001
<MEAN> 9
 -1.987820e+000 -1.000046e+001 4.807878e-001 3.268043e+000 -2.823588e-001 2.111745e-001 -5.446373e-002 3.582790e-001 1.789784e-001
<VARIANCE> 9
 1.491142e-001 3.371764e-001 6.976298e-002 2.977951e+001 3.680466e+001 1.210095e+002 4.762525e-004 5.782502e-004 1.986742e-004
<GCONST> -9.455466e-001
<MIXTURE> 3 2.509376e-001
<MEAN> 9
 -2.077877e+000 -1.011532e+001 4.390550e-001 2.163180e+000 -1.034825e+000 -1.978875e+000 -5.775363e-002 3.556359e-001 1.799449e-001
<VARIANCE> 9
 1.491142e-001 3.371764e-001 6.976298e-002 2.977951e+001 3.680466e+001 1.210095e+002 4.762525e-004 5.782502e-004 1.938003e-004
<GCONST> -9.703841e-001
<STATE> 5
<NUMMIXES> 3
<MIXTURE> 1 4.617450e-001
<MEAN> 9
 -2.646255e+000 -9.846064e+000 3.712274e-001 3.262738e+000 -1.915125e-001 1.079960e-001 -2.214436e-002 3.674418e-001 1.723484e-001
<VARIANCE> 9
 1.491142e-001 3.371764e-001 6.976298e-002 2.977951e+001 3.680466e+001 1.210095e+002 4.762525e-004 5.782502e-004 1.938003e-004
<GCONST> -9.703841e-001
<MIXTURE> 2 2.691278e-001
<MEAN> 9
 -2.576389e+000 -9.732166e+000 3.735068e-001 4.330369e+000 7.476912e-001 2.394858e+000 -1.819112e-002 3.705930e-001 1.726928e-001
<VARIANCE> 9
 1.491142e-001 3.371764e-001 6.976298e-002 2.977951e+001 3.680466e+001 1.210095e+002 4.762525e-004 5.782502e-004 1.938003e-004
<GCONST> -9.703841e-001
<MIXTURE> 3 2.691278e-001
<MEAN> 9
 -2.730851e+000 -9.964434e+000 2.678560e-001 2.147545e+000 -1.678983e+000 -2.005314e+000 -2.692040e-002 3.609742e-001 1.671244e-001
<VARIANCE> 9
 1.491142e-001 3.371764e-001 6.976298e-002 2.977951e+001 3.680466e+001 1.210095e+002 4.762525e-004 5.782502e-004 1.938003e-004
<GCONST> -9.703841e-001
<STATE> 6
<NUMMIXES> 3
<MIXTURE> 1 2.643952e-001
<MEAN> 9
 -3.036053e+000 -9.598207e+000 1.811904e-002 4.377923e+000 1.406276e+000 2.369010e+000 5.398340e-003 3.744511e-001 2.127317e-001
<VARIANCE> 9
 1.491142e-001 3.371764e-001 6.976298e-002 2.977951e+001 3.680466e+001 1.210095e+002 4.762525e-004 5.782502e-004 2.969891e-004
<GCONST> -5.435166e-001
<MIXTURE> 2 4.712094e-001
<MEAN> 9
 -3.134218e+000 -9.705830e+000 -1.034990e-001 3.269894e+000 2.053225e-002 1.304815e-001 -4.369766e-006 3.679639e-001 2.014655e-001
<VARIANCE> 9
 1.491142e-001 3.371764e-001 6.976298e-002 2.977951e+001 3.680466e+001 1.210095e+002 4.762525e-004 5.782502e-004 2.863748e-004
<GCONST> -5.799108e-001
<MIXTURE> 3 2.643952e-001
<MEAN> 9
 -3.190515e+000 -9.830475e+000 -8.753169e-002 2.195099e+000 -1.020398e+000 -2.031162e+000 -3.330944e-003 3.648323e-001 2.058383e-001
<VARIANCE> 9
 1.491142e-001 3.371764e-001 6.976298e-002 2.977951e+001 3.680466e+001 1.210095e+002 4.762525e-004 5.782502e-004 2.969891e-004
<GCONST> -5.435166e-001
<STATE> 7
<NUMMIXES> 3
<MIXTURE> 1 2.654763e-001
<MEAN> 9
 -4.110076e+000 -9.833005e+000 1.326472e+000 7.414804e+000 -2.437715e+000 1.638324e+001 -1.411012e-003 3.735506e-001 2.050540e-001
<VARIANCE> 9
 1.320314e+000 3.371764e-001 9.572584e-001 3.454812e+001 6.307881e+002 2.132165e+002 5.635732e-004 5.782502e-004 5.934266e-004
<GCONST> 8.673251e+000
<MIXTURE> 2 4.690473e-001
<MEAN> 9
 -4.269692e+000 -9.846306e+000 1.049363e+000 2.964535e+000 -1.995421e+001 7.997394e+000 -1.912741e-002 3.655033e-001 1.897945e-001
<VARIANCE> 9
 2.150698e+000 3.371764e-001 8.037614e-001 2.977951e+001 1.122861e+003 1.210095e+002 6.250577e-004 5.782502e-004 3.741281e-004
<GCONST> 8.490327e+000
<MIXTURE> 3 2.654763e-001
<MEAN> 9
 -4.569696e+000 -1.006527e+001 9.351138e-001 5.063698e+000 -1.248391e+001 1.054246e+001 -1.090689e-002 3.639318e-001 1.953098e-001
<VARIANCE> 9
 1.320314e+000 3.371764e-001 9.572584e-001 3.454812e+001 6.307881e+002 2.132165e+002 5.635732e-004 5.782502e-004 5.934266e-004
<GCONST> 8.673251e+000
<TRANSP> 8
 0.000000e+000 1.000000e+000 0.000000e+000 0.000000e+000 0.000000e+000 0.000000e+000 0.000000e+000 0.000000e+000
 0.000000e+000 7.851219e-001 2.148781e-001 0.000000e+000 0.000000e+000 0.000000e+000 0.000000e+000 0.000000e+000
 0.000000e+000 0.000000e+000 9.283282e-001 7.167175e-002 0.000000e+000 0.000000e+000 0.000000e+000 0.000000e+000
 0.000000e+000 0.000000e+000 0.000000e+000 9.661470e-001 3.385302e-002 0.000000e+000 0.000000e+000 0.000000e+000
 0.000000e+000 0.000000e+000 0.000000e+000 0.000000e+000 9.407001e-001 5.929992e-002 0.000000e+000 0.000000e+000
 0.000000e+000 0.000000e+000 0.000000e+000 0.000000e+000 0.000000e+000 9.766718e-001 2.332827e-002 0.000000e+000
 0.000000e+000 0.000000e+000 0.000000e+000 0.000000e+000 0.000000e+000 0.000000e+000 6.271044e-001 3.728956e-001
 0.000000e+000 0.000000e+000 0.000000e+000 0.000000e+000 0.000000e+000 0.000000e+000 0.000000e+000 0.000000e+000
<ENDHMM>
~h "HAU"
<BEGINHMM>
<NUMSTATES> 8
<STATE> 2
<NUMMIXES> 3
<MIXTURE> 1 2.565826e-001
<MEAN> 9
 -6.358106e+000 -1.098568e+001 2.100568e+000 1.078677e+001 -1.141898e+002 1.646931e+002 1.380173e-001 3.729057e-001 2.322104e-001
<VARIANCE> 9
 2.342509e+000 8.741940e-001 7.008537e-001 2.137861e+002 6.508240e+003 4.587504e+003 8.852595e-003 5.782502e-004 7.409804e-004
<GCONST> 2.008902e+001
<MIXTURE> 2 4.868347e-001
<MEAN> 9
 -6.715769e+000 -1.137267e+001 1.425934e+000 3.482969e+000 -1.831778e+002 1.111157e+002 5.256775e-002 3.728977e-001 2.207632e-001
<VARIANCE> 9
 3.405586e+000 8.519841e-001 4.506614e-001 1.006725e+002 7.100075e+003 4.451553e+003 5.020986e-003 5.782502e-004 4.206522e-004
<GCONST> 1.816649e+001
<MIXTURE> 3 2.565826e-001
<MEAN> 9
 -6.970316e+000 -1.135968e+001 1.765700e+000 4.938199e+000 -1.464592e+002 1.376007e+002 1.003821e-001 3.632869e-001 2.213220e-001
<VARIANCE> 9
 2.342509e+000 8.741940e-001 7.008537e-001 2.137861e+002 6.508240e+003 4.587504e+003 8.852595e-003 5.782502e-004 7.409804e-004
<GCONST> 2.008902e+001
<STATE> 3
<NUMMIXES> 3
<MIXTURE> 1 4.990185e-001
<MEAN> 9
 -7.106214e+000 -2.913573e+000 2.089885e+000 3.924188e+001 5.170958e+001 2.140344e+002 4.597363e-001 1.086140e-001 1.801729e-001
<VARIANCE> 9
 2.537330e+000 1.137913e+001 2.176725e+000 9.338243e+002 5.330568e+003 1.979921e+003 4.637212e-003 1.782373e-002 2.037049e-003
<GCONST> 2.809580e+001
<MIXTURE> 2 2.504906e-001
<MEAN> 9
 -7.247733e+000 -3.387924e+000 2.453531e+000 3.652915e+001 2.754528e+001 2.075418e+002 4.433805e-001 1.877200e-001 1.995358e-001
<VARIANCE> 9
 1.714772e+000 1.474137e+001 2.163655e+000 8.350387e+002 5.208744e+003 2.234106e+003 7.013033e-003 2.073824e-002 2.113337e-003
<GCONST> 2.854455e+001
<MIXTURE> 3 2.504906e-001
<MEAN> 9
 -7.771530e+000 -4.923704e+000 1.865157e+000 2.497033e+001 -1.323376e+000 1.886352e+002 4.098829e-001 1.301168e-001 1.811474e-001
<VARIANCE> 9
 1.714772e+000 1.474137e+001 2.163655e+000 8.350387e+002 5.208744e+003 2.234106e+003 7.013033e-003 2.073824e-002 2.113337e-003
<GCONST> 2.854455e+001
<STATE> 4
<NUMMIXES> 3
<MIXTURE> 1 4.989686e-001
<MEAN> 9
 -7.563965e+000 3.475620e+000 1.987536e+000 5.801600e+000 1.177617e+000 -7.225008e-001 5.043366e-001 -1.062275e-001 2.462250e-001
<VARIANCE> 9
 8.791237e+000 1.325720e+000 2.973339e-001 1.063796e+002 3.535895e+002 1.926600e+003 4.762525e-004 2.545732e-003 1.938003e-004
<GCONST> 1.371078e+001
<MIXTURE> 2 2.505157e-001
<MEAN> 9
 -7.239157e+000 3.881013e+000 1.995674e+000 6.421160e+000 -1.914620e+000 1.910353e-001 5.063690e-001 -1.046977e-001 2.487778e-001
<VARIANCE> 9
 7.625075e+000 1.363681e+000 2.983710e-001 1.145844e+002 3.416832e+002 1.763620e+003 4.762525e-004 2.895298e-003 1.938003e-004
<GCONST> 1.368051e+001
<MIXTURE> 3 2.505157e-001
<MEAN> 9
 -8.343699e+000 3.413907e+000 1.777180e+000 2.139396e+000 -9.308490e+000 -1.660715e+001 4.976397e-001 -1.262209e-001 2.432094e-001
<VARIANCE> 9
 7.625075e+000 1.363681e+000 2.983710e-001 1.145844e+002 3.416832e+002 1.763620e+003 4.762525e-004 2.895298e-003 1.938003e-004
<GCONST> 1.368051e+001
<STATE> 5
<NUMMIXES> 3
<MIXTURE> 1 4.929799e-001
<MEAN> 9
 -6.736749e+000 8.810287e-001 1.957602e+000 2.468342e+001 -5.083412e+001 -1.152712e+002 5.108556e-001 -5.902359e-003 1.998618e-001
<VARIANCE> 9
 2.041224e+000 1.215321e+000 4.364631e-001 1.821679e+002 1.176986e+003 1.975548e+003 4.762525e-004 4.115441e-003 1.084931e-003
<GCONST> 1.651583e+001
<MIXTURE> 2 2.535099e-001
<MEAN> 9
 -6.808274e+000 3.070369e-001 1.970021e+000 2.197185e+001 -3.923974e+001 -1.369525e+002 5.092244e-001 5.588135e-002 1.856966e-001
<VARIANCE> 9
 1.970813e+000 1.421238e+000 3.810878e-001 2.153316e+002 1.308472e+003 1.752525e+003 4.762525e-004 4.722437e-003 1.245146e-003
<GCONST> 1.693025e+001
<MIXTURE> 3 2.535099e-001
<MEAN> 9
 -7.369816e+000 -1.698259e-001 1.723091e+000 1.610217e+001 -5.370886e+001 -1.536977e+002 5.004950e-001 2.839336e-002 1.715820e-001
<VARIANCE> 9
 1.970813e+000 1.421238e+000 3.810878e-001 2.153316e+002 1.308472e+003 1.752525e+003 4.762525e-004 4.722437e-003 1.245146e-003
<GCONST> 1.693025e+001
<STATE> 6
<NUMMIXES> 3
<MIXTURE> 1 4.954442e-001
<MEAN> 9
 -8.092340e+000 -7.139930e+000 1.552337e+000 1.943460e+001 4.881018e+001 -1.569376e+002 2.987437e-001 3.036771e-001 1.952251e-001
<VARIANCE> 9
 1.932409e+000 7.432311e+000 1.730682e+000 3.505391e+002 1.479874e+003 2.012395e+003 1.325607e-002 4.945424e-003 1.247499e-003
<GCONST> 2.420107e+001
<MIXTURE> 2 2.522778e-001
<MEAN> 9
 -8.237761e+000 -6.155841e+000 1.922126e+000 1.878096e+001 4.641630e+001 -1.652625e+002 3.416348e-001 3.042263e-001 1.891855e-001
<VARIANCE> 9
 2.149835e+000 8.775972e+000 2.110607e+000 4.126991e+002 1.649610e+003 1.320143e+003 1.382804e-002 5.419263e-003 1.995415e-003
<GCONST> 2.512603e+001
<MIXTURE> 3 2.522778e-001
<MEAN> 9
 -8.824253e+000 -7.340812e+000 1.341008e+000 1.065496e+001 3.017014e+001 -1.797961e+002 2.945978e-001 2.747801e-001 1.713175e-001
<VARIANCE> 9
 2.149835e+000 8.775972e+000 2.110607e+000 4.126991e+002 1.649610e+003 1.320143e+003 1.382804e-002 5.419263e-003 1.995415e-003
<GCONST> 2.512603e+001
<STATE> 7
<NUMMIXES> 3
<MIXTURE> 1 4.890873e-001
<MEAN> 9
 -4.717647e+000 -1.006710e+001 1.345043e+000 2.824443e+000 7.034265e+001 -5.615142e+001 3.607923e-002 3.752702e-001 1.911177e-001
<VARIANCE> 9
 1.382945e+000 3.371764e-001 4.600208e-001 1.419279e+002 1.554902e+003 1.557993e+003 2.488706e-003 5.782502e-004 1.938003e-004
<GCONST> 1.265694e+001
<MIXTURE> 2 2.554563e-001
<MEAN> 9
 -4.723331e+000 -1.012918e+001 1.277182e+000 6.511710e-001 7.146043e+001 -5.503535e+001 4.105154e-002 3.788507e-001 1.871780e-001
<VARIANCE> 9
 1.475389e+000 3.371764e-001 4.940931e-001 1.178423e+002 1.237850e+003 1.483708e+003 2.013951e-003 5.782502e-004 2.026574e-004
<GCONST> 1.216326e+001
<MIXTURE> 3 2.554563e-001
<MEAN> 9
 -5.209194e+000 -1.036144e+001 9.960154e-001 -3.691037e+000 5.738720e+001 -7.044292e+001 2.310072e-002 3.692319e-001 1.814837e-001
<VARIANCE> 9
 1.475389e+000 3.371764e-001 4.940931e-001 1.178423e+002 1.237850e+003 1.483708e+003 2.013951e-003 5.782502e-004 2.026574e-004
<GCONST> 1.216326e+001
<TRANSP> 8
 0.000000e+000 1.000000e+000 0.000000e+000 0.000000e+000 0.000000e+000 0.000000e+000 0.000000e+000 0.000000e+000
 0.000000e+000 9.239641e-001 7.603591e-002 0.000000e+000 0.000000e+000 0.000000e+000 0.000000e+000 0.000000e+000
 0.000000e+000 0.000000e+000 9.419012e-001 5.809882e-002 0.000000e+000 0.000000e+000 0.000000e+000 0.000000e+000
 0.000000e+000 0.000000e+000 0.000000e+000 9.596609e-001 4.033914e-002 0.000000e+000 0.000000e+000 0.000000e+000
 0.000000e+000 0.000000e+000 0.000000e+000 0.000000e+000 9.038593e-001 9.614072e-002 0.000000e+000 0.000000e+000
 0.000000e+000 0.000000e+000 0.000000e+000 0.000000e+000 0.000000e+000 9.447765e-001 5.522355e-002 0.000000e+000
 0.000000e+000 0.000000e+000 0.000000e+000 0.000000e+000 0.000000e+000 0.000000e+000 9.302589e-001 6.974109e-002
 0.000000e+000 0.000000e+000 0.000000e+000 0.000000e+000 0.000000e+000 0.000000e+000 0.000000e+000 0.000000e+000
<ENDHMM>
