~o
<STREAMINFO> 1 9
<VECSIZE> 9<NULLD><USER><DIAGC>
~h "GA"
<BEGINHMM>
<NUMSTATES> 8
<STATE> 2
<NUMMIXES> 23
<MIXTURE> 1 3.818274e-002
<MEAN> 9
 -8.468672e+000 -1.016303e+001 1.093810e+000 6.430213e+001 9.582001e+001 1.253985e+002 7.942884e-002 3.682068e-001 1.663104e-001
<VARIANCE> 9
 3.301800e-001 3.371764e-001 7.859958e-001 2.977951e+001 3.680466e+001 2.902629e+002 4.762525e-004 5.782502e-004 1.938003e-004
<GCONST> 3.121306e+000
<MIXTURE> 2 5.101223e-002
<MEAN> 9
 -9.777108e+000 -6.933735e+000 -2.506024e+000 -3.756097e+001 3.402439e+001 2.647256e+002 2.822727e-001 3.159091e-001 1.770408e-001
<VARIANCE> 9
 1.491142e-001 3.371764e-001 6.976298e-002 3.426532e+001 3.680466e+001 1.210095e+002 5.373970e-004 5.782502e-004 1.938003e-004
<GCONST> -7.092824e-001
<MIXTURE> 3 5.100945e-002
<MEAN> 9
 -1.161446e+001 -9.150589e+000 4.638484e-001 -3.999974e+001 -6.070189e+001 2.259753e+002 2.663636e-001 3.568186e-001 1.551025e-001
<VARIANCE> 9
 2.560857e-001 3.371764e-001 6.976298e-002 2.977951e+001 3.680466e+001 1.210095e+002 4.762525e-004 5.782502e-004 1.938003e-004
<GCONST> -4.295855e-001
<MIXTURE> 4 2.550615e-002
<MEAN> 9
 -8.265060e+000 -1.145783e+001 1.036145e+000 3.164634e+001 3.993903e+001 2.068293e+002 9.909091e-002 3.663636e-001 1.602041e-001
<VARIANCE> 9
 1.491142e-001 3.371764e-001 6.976298e-002 2.977951e+001 3.680466e+001 1.210095e+002 4.762525e-004 5.782502e-004 1.938003e-004
<GCONST> -9.703841e-001
<MIXTURE> 5 2.550434e-002
<MEAN> 9
 -1.101205e+001 -9.626506e+000 -1.036145e+000 1.097561e+001 1.000000e+002 2.448171e+002 1.681818e-001 3.827273e-001 1.612245e-001
<VARIANCE> 9
 1.491142e-001 3.371764e-001 6.976298e-002 2.977951e+001 3.680466e+001 1.210095e+002 4.762525e-004 5.782502e-004 1.938003e-004
<GCONST> -9.703841e-001
<MIXTURE> 6 5.628494e-002
<MEAN> 9
 -7.385016e+000 -1.002542e+001 1.491368e-001 2.512261e+000 -3.890501e+000 1.259978e+002 5.768077e-002 3.696182e-001 1.478802e-001
<VARIANCE> 9
 4.970655e-001 3.371764e-001 1.266238e-001 2.977951e+001 3.680466e+001 1.210095e+002 4.762525e-004 5.782502e-004 1.938003e-004
<GCONST> 8.297415e-001
<MIXTURE> 7 3.733208e-002
<MEAN> 9
 -1.030663e+001 -6.259586e+000 -3.254755e+000 -1.646550e+001 5.099427e+001 2.242973e+002 3.040824e-001 3.187945e-001 1.558721e-001
<VARIANCE> 9
 1.491142e-001 4.124693e-001 6.976298e-002 5.229395e+001 3.680466e+001 1.210095e+002 4.778410e-004 5.782502e-004 1.938003e-004
<GCONST> -2.024393e-001
<MIXTURE> 8 2.550563e-002
<MEAN> 9
 -1.012048e+001 -6.951807e+000 -3.132530e-001 -7.628049e+001 -5.957317e+001 2.601829e+002 3.727273e-001 2.836364e-001 1.612245e-001
<VARIANCE> 9
 1.491142e-001 3.371764e-001 6.976298e-002 2.977951e+001 3.680466e+001 1.210095e+002 4.762525e-004 5.782502e-004 1.938003e-004
<GCONST> -9.703841e-001
<MIXTURE> 9 7.530401e-002
<MEAN> 9
 -1.040126e+001 -8.012468e+000 -2.439350e+000 1.709042e+001 6.700298e+001 2.104845e+002 2.324774e-001 3.339744e-001 1.461985e-001
<VARIANCE> 9
 1.491142e-001 3.396564e-001 6.976298e-002 1.150644e+002 3.680466e+001 1.210095e+002 5.240405e-004 5.782502e-004 1.938003e-004
<GCONST> 4.842348e-001
<MIXTURE> 10 3.450406e-002
<MEAN> 9
 -7.348640e+000 -1.119901e+001 3.606717e-001 1.414396e+001 -1.267357e+002 9.227283e+001 1.316182e-002 3.692547e-001 1.709443e-001
<VARIANCE> 9
 3.630026e-001 3.371764e-001 9.971177e-002 2.977951e+001 7.168435e+002 4.502077e+002 4.762525e-004 5.782502e-004 1.938003e-004
<GCONST> 4.559567e+000
<MIXTURE> 11 5.118321e-002
<MEAN> 9
 -9.667051e+000 -9.440655e+000 -3.061914e-001 5.241142e+001 8.616313e+001 1.692930e+002 1.299388e-001 3.758688e-001 1.550955e-001
<VARIANCE> 9
 1.491142e-001 3.371764e-001 6.976298e-002 2.977951e+001 8.147826e+001 1.210095e+002 5.177682e-004 5.782502e-004 1.938003e-004
<GCONST> -9.209156e-002
<MIXTURE> 12 5.102973e-002
<MEAN> 9
 -8.698858e+000 -9.391608e+000 9.454222e-001 -1.765145e+001 -7.615616e+001 1.756344e+002 1.458951e-001 3.718175e-001 1.535708e-001
<VARIANCE> 9
 1.677531e-001 3.371764e-001 6.976298e-002 2.977951e+001 3.680466e+001 1.210095e+002 4.762525e-004 5.782502e-004 1.938003e-004
<GCONST> -8.526053e-001
<MIXTURE> 13 5.101288e-002
<MEAN> 9
 -1.045787e+001 -8.927732e+000 4.156718e-001 -2.280578e+001 -7.509028e+001 2.005806e+002 2.077295e-001 3.713627e-001 1.576525e-001
<VARIANCE> 9
 1.491142e-001 3.371764e-001 6.976298e-002 3.080203e+001 3.680466e+001 1.210095e+002 4.762525e-004 5.782502e-004 1.938003e-004
<GCONST> -9.366241e-001
<MIXTURE> 14 5.099594e-002
<MEAN> 9
 -8.903567e+000 -9.632600e+000 -2.952780e-001 -1.005834e+001 -5.270373e+001 1.545086e+002 9.499276e-002 3.713641e-001 1.520405e-001
<VARIANCE> 9
 1.491142e-001 3.371764e-001 7.348152e-002 2.977951e+001 2.864442e+002 1.210095e+002 4.762525e-004 5.782502e-004 1.938003e-004
<GCONST> 1.133464e+000
<MIXTURE> 15 5.101680e-002
<MEAN> 9
 -9.813234e+000 -5.276989e+000 -3.518106e+000 -6.603460e+001 3.850626e+001 2.589604e+002 3.531840e-001 2.949956e-001 1.948962e-001
<VARIANCE> 9
 1.491142e-001 3.371764e-001 7.679469e-002 6.191069e+001 3.680466e+001 1.210095e+002 5.374002e-004 5.782502e-004 1.938003e-004
<GCONST> -2.168560e-002
<MIXTURE> 16 2.550614e-002
<MEAN> 9
 -1.181928e+001 -8.337349e+000 -2.506024e+000 -1.810976e+001 5.689024e+001 2.601829e+002 2.427273e-001 3.563636e-001 1.734694e-001
<VARIANCE> 9
 1.491142e-001 3.371764e-001 6.976298e-002 2.977951e+001 3.680466e+001 1.210095e+002 4.762525e-004 5.782502e-004 1.938003e-004
<GCONST> -9.703841e-001
<MIXTURE> 17 5.220647e-002
<MEAN> 9
 -1.121074e+001 -8.947006e+000 -1.737443e+000 1.736643e+001 7.682858e+001 2.226561e+002 1.824777e-001 3.513544e-001 1.495057e-001
<VARIANCE> 9
 1.914897e+000 3.371764e-001 4.240710e-001 5.064066e+002 1.353401e+002 1.017791e+003 4.762525e-004 5.782502e-004 1.938003e-004
<GCONST> 9.652328e+000
<MIXTURE> 18 2.550615e-002
<MEAN> 9
 -9.421687e+000 -1.054217e+001 -9.638554e-002 2.560976e+001 7.707317e+001 2.281098e+002 1.227273e-001 3.790909e-001 1.622449e-001
<VARIANCE> 9
 1.491142e-001 3.371764e-001 6.976298e-002 2.977951e+001 3.680466e+001 1.210095e+002 4.762525e-004 5.782502e-004 1.938003e-004
<GCONST> -9.703841e-001
<MIXTURE> 19 5.101220e-002
<MEAN> 9
 -6.728916e+000 -1.217470e+001 1.536145e+000 2.140245e+001 -5.783530e+001 1.586891e+002 5.136366e-002 3.781818e-001 1.750000e-001
<VARIANCE> 9
 1.491142e-001 3.371764e-001 6.976298e-002 2.977951e+001 1.106374e+003 3.009380e+002 4.762525e-004 5.782502e-004 1.938003e-004
<GCONST> 3.343871e+000
<MIXTURE> 20 5.101126e-002
<MEAN> 9
 -1.203012e+001 -8.246988e+000 -9.698796e-001 -5.878049e+001 -7.875000e+001 2.528049e+002 3.263637e-001 3.059091e-001 1.545918e-001
<VARIANCE> 9
 4.967701e-001 3.371764e-001 6.976298e-002 4.336704e+001 3.680466e+001 1.210095e+002 5.165286e-004 5.782502e-004 1.938003e-004
<GCONST> 6.900911e-001
<MIXTURE> 21 3.918926e-002
<MEAN> 9
 -1.046065e+001 -5.125238e+000 -3.541536e+000 -2.888514e+001 5.401282e+001 2.267012e+002 3.339844e-001 2.880088e-001 1.630037e-001
<VARIANCE> 9
 1.491142e-001 4.281143e-001 6.976298e-002 4.694149e+001 3.680466e+001 1.210095e+002 4.762525e-004 5.782502e-004 1.938003e-004
<GCONST> -2.765207e-001
<MIXTURE> 22 4.199890e-002
<MEAN> 9
 -8.257221e+000 -1.066837e+001 -7.673891e-002 1.940388e+001 -1.006714e+002 6.652074e+001 5.750143e-003 3.623348e-001 1.656321e-001
<VARIANCE> 9
 4.515386e-001 3.371764e-001 6.976298e-002 2.977951e+001 6.905567e+002 1.986823e+002 4.762525e-004 5.782502e-004 1.938003e-004
<GCONST> 3.565276e+000
<MIXTURE> 23 3.818549e-002
<MEAN> 9
 -8.291681e+000 -1.025617e+001 1.368103e+000 6.361774e+001 9.464423e+001 1.201330e+002 7.319715e-002 3.687719e-001 1.691125e-001
<VARIANCE> 9
 3.273763e-001 3.371764e-001 7.992132e-001 2.977951e+001 3.680466e+001 2.929089e+002 4.762525e-004 5.782502e-004 1.938003e-004
<GCONST> 3.138530e+000
<STATE> 3
<NUMMIXES> 23
<MIXTURE> 1 3.608381e-002
<MEAN> 9
 -5.595177e+000 1.439321e-001 2.204888e+000 -7.027589e+001 1.516513e+001 1.718278e+002 5.237379e-001 -6.260139e-002 2.224697e-001
<VARIANCE> 9
 1.491142e-001 3.371764e-001 6.976298e-002 2.977951e+001 1.176208e+002 2.649638e+002 4.762525e-004 5.782502e-004 1.938003e-004
<GCONST> 9.751806e-001
<MIXTURE> 2 3.502454e-002
<MEAN> 9
 -9.883099e+000 -1.746430e+000 1.909440e+000 -8.770834e+001 3.767142e+001 2.200591e+002 5.168491e-001 5.953664e-002 2.051218e-001
<VARIANCE> 9
 2.640936e-001 3.371764e-001 6.976298e-002 2.977951e+001 2.276268e+002 1.210095e+002 4.762525e-004 5.782502e-004 1.938003e-004
<GCONST> 1.423289e+000
<MIXTURE> 3 5.264733e-002
<MEAN> 9
 -6.425704e+000 2.028111e+000 -1.144576e+000 -1.806707e+002 7.195115e+000 9.128038e+001 5.018182e-001 -7.030315e-002 3.023809e-001
<VARIANCE> 9
 1.491142e-001 3.371764e-001 3.162529e-001 2.977951e+001 3.680466e+001 3.019351e+002 4.762525e-004 5.782502e-004 1.938003e-004
<GCONST> 1.455398e+000
<MIXTURE> 4 3.352570e-002
<MEAN> 9
 -9.685438e+000 -4.550270e+000 5.486410e-001 -9.348787e+001 -3.141633e+001 2.526732e+002 4.451606e-001 1.917696e-001 1.695291e-001
<VARIANCE> 9
 8.410165e-001 7.037054e-001 3.687348e-001 4.520840e+001 3.746308e+001 1.210095e+002 6.097260e-004 1.093753e-003 1.938003e-004
<GCONST> 4.479861e+000
<MIXTURE> 5 3.509769e-002
<MEAN> 9
 -6.451819e+000 1.783124e+000 -2.536149e+000 -1.748170e+002 -7.164693e+000 1.398172e+002 4.963636e-001 -8.636299e-003 2.989795e-001
<VARIANCE> 9
 3.275149e-001 3.371764e-001 6.976298e-002 2.977951e+001 3.680466e+001 1.210095e+002 4.762525e-004 5.782502e-004 1.938003e-004
<GCONST> -1.835642e-001
<MIXTURE> 6 5.264682e-002
<MEAN> 9
 -8.016063e+000 1.646610e-001 3.341355e+000 -1.146142e+002 -4.926836e+001 1.689026e+001 5.027273e-001 -1.493938e-001 2.680274e-001
<VARIANCE> 9
 1.491142e-001 3.371764e-001 3.740558e-001 4.647437e+002 3.680466e+001 1.210095e+002 4.762525e-004 5.782502e-004 1.938003e-004
<GCONST> 3.456584e+000
<MIXTURE> 7 5.267281e-002
<MEAN> 9
 -8.690513e+000 -3.320163e+000 -4.032830e+000 -1.016674e+002 9.749146e+000 2.396960e+002 4.163988e-001 2.132792e-001 2.248086e-001
<VARIANCE> 9
 2.200239e-001 3.371764e-001 6.976298e-002 1.056957e+002 3.680466e+001 1.210095e+002 4.762525e-004 5.782502e-004 1.938003e-004
<GCONST> 6.853819e-001
<MIXTURE> 8 3.509894e-002
<MEAN> 9
 -7.969889e+000 -1.451839e+000 -3.915661e+000 -1.305788e+002 1.414612e+001 2.122566e+002 4.690901e-001 1.445467e-001 2.581627e-001
<VARIANCE> 9
 1.491142e-001 3.371764e-001 6.976298e-002 2.977951e+001 3.680466e+001 1.210095e+002 4.762525e-004 5.782502e-004 1.938003e-004
<GCONST> -9.703841e-001
<MIXTURE> 9 5.299340e-002
<MEAN> 9
 -8.389348e+000 3.492471e-002 5.375028e+000 -1.260965e+002 -4.334174e+001 -1.182884e+001 5.127414e-001 -1.327606e-001 1.752891e-001
<VARIANCE> 9
 1.491142e-001 3.371764e-001 3.214041e+000 2.179770e+003 7.809755e+001 1.210095e+002 4.762525e-004 5.782502e-004 7.131752e-004
<GCONST> 9.208183e+000
<MIXTURE> 10 3.509840e-002
<MEAN> 9
 -6.855422e+000 1.271084e+000 1.807229e+000 -1.677134e+002 -2.158537e+001 4.121951e+001 5.000000e-001 -1.040909e-001 2.964286e-001
<VARIANCE> 9
 1.491142e-001 3.371764e-001 2.207868e-001 4.622344e+001 9.518143e+001 1.210095e+002 4.762525e-004 5.782502e-004 1.938003e-004
<GCONST> 1.571536e+000
<MIXTURE> 11 3.509880e-002
<MEAN> 9
 -7.891583e+000 -1.385368e-001 -4.048176e+000 -1.552442e+002 2.637149e+001 1.828349e+002 4.863637e-001 7.908960e-002 2.826532e-001
<VARIANCE> 9
 1.491142e-001 3.371764e-001 6.976298e-002 4.417876e+001 3.680466e+001 1.210095e+002 4.762525e-004 5.782502e-004 1.938003e-004
<GCONST> -5.759597e-001
<MIXTURE> 12 7.016478e-002
<MEAN> 9
 -9.398035e+000 -3.350217e+000 -4.463533e+000 -6.016788e+001 2.491842e+001 2.174906e+002 4.086090e-001 2.204964e-001 1.905654e-001
<VARIANCE> 9
 2.288169e-001 3.371764e-001 1.153430e-001 1.568849e+002 1.485104e+002 1.210095e+002 4.879864e-004 7.464843e-004 1.938003e-004
<GCONST> 3.297063e+000
<MIXTURE> 13 6.882270e-002
<MEAN> 9
 -7.082763e+000 3.828713e+000 -4.027760e+000 -1.356475e+002 3.088388e+001 7.892714e+001 5.038137e-001 -7.606751e-002 2.715101e-001
<VARIANCE> 9
 1.491142e-001 3.371764e-001 8.777016e-002 1.060113e+002 3.680466e+001 2.033602e+002 4.762525e-004 5.782502e-004 1.938003e-004
<GCONST> 1.048068e+000
<MIXTURE> 14 2.524994e-002
<MEAN> 9
 -6.652041e+000 1.253891e+000 -3.509363e+000 -1.136751e+002 1.049715e+000 1.418341e+002 5.047230e-001 4.143426e-002 2.520988e-001
<VARIANCE> 9
 1.491142e-001 3.371764e-001 6.976298e-002 2.977951e+001 3.680466e+001 1.210095e+002 4.762525e-004 5.782502e-004 1.938003e-004
<GCONST> -9.703841e-001
<MIXTURE> 15 5.201213e-002
<MEAN> 9
 -8.049709e+000 -5.677184e-001 5.181172e+000 -1.595243e+002 -6.229956e+001 -2.237828e+001 5.157700e-001 -1.266395e-001 1.920078e-001
<VARIANCE> 9
 1.491142e-001 3.371764e-001 6.785532e-001 2.719000e+002 3.680466e+001 1.210095e+002 4.762525e-004 5.782502e-004 1.973023e-004
<GCONST> 3.533998e+000
<MIXTURE> 16 3.509839e-002
<MEAN> 9
 -5.969880e+000 2.277108e+000 1.204836e-002 -1.871951e+002 -6.204268e+001 1.155488e+001 5.077273e-001 -1.281818e-001 2.443878e-001
<VARIANCE> 9
 1.491142e-001 3.371764e-001 7.525040e-001 2.977951e+001 3.680466e+001 1.210095e+002 4.762525e-004 5.782502e-004 1.938003e-004
<GCONST> 1.407920e+000
<MIXTURE> 17 5.264715e-002
<MEAN> 9
 -8.783131e+000 -1.779114e+000 -3.855421e+000 -9.099597e+001 2.447158e+001 1.932723e+002 4.639395e-001 1.312121e-001 2.295919e-001
<VARIANCE> 9
 1.491142e-001 3.371764e-001 6.976298e-002 3.841031e+001 3.680466e+001 1.210095e+002 4.762525e-004 5.782502e-004 1.938003e-004
<GCONST> -7.158790e-001
<MIXTURE> 18 5.216334e-002
<MEAN> 9
 -7.679795e+000 3.214440e-001 -3.660426e+000 -1.268084e+002 -3.628402e-001 1.658501e+002 4.869728e-001 5.895511e-002 2.589404e-001
<VARIANCE> 9
 6.966861e-001 3.371764e-001 6.976298e-002 9.817099e+002 6.166782e+001 1.210095e+002 4.762525e-004 5.782502e-004 5.036422e-004
<GCONST> 5.537888e+000
<MIXTURE> 19 3.509839e-002
<MEAN> 9
 -7.885542e+000 3.885542e+000 -2.054217e+000 -1.683841e+002 -1.881097e+001 3.899390e+001 5.009091e-001 -1.159091e-001 2.673469e-001
<VARIANCE> 9
 2.041296e-001 3.371764e-001 1.019378e-001 2.977951e+001 3.795369e+002 1.210095e+002 4.762525e-004 5.782502e-004 1.938003e-004
<GCONST> 2.056247e+000
<MIXTURE> 20 4.680400e-002
<MEAN> 9
 -6.936280e+000 2.433565e+000 -3.716918e+000 -1.186495e+002 1.011874e+001 1.163035e+002 5.060224e-001 -8.929419e-003 2.608378e-001
<VARIANCE> 9
 1.491142e-001 3.371764e-001 6.976298e-002 2.977951e+001 3.680466e+001 1.210095e+002 4.762525e-004 5.782502e-004 1.938003e-004
<GCONST> -9.703841e-001
<MIXTURE> 21 3.586707e-002
<MEAN> 9
 -8.423922e+000 -3.178485e+000 1.443180e+000 -9.410620e+001 1.583587e+001 2.332916e+002 4.967176e-001 1.122814e-001 1.905092e-001
<VARIANCE> 9
 1.880296e-001 3.371764e-001 6.976298e-002 2.977951e+001 3.472218e+002 1.210095e+002 4.762525e-004 5.782502e-004 1.938003e-004
<GCONST> 1.505843e+000
<MIXTURE> 22 3.411086e-002
<MEAN> 9
 -6.118300e+000 -2.204239e-001 2.006403e+000 -7.328409e+001 4.630156e+000 1.770376e+002 5.239966e-001 -4.415373e-002 2.150778e-001
<VARIANCE> 9
 6.798143e-001 3.371764e-001 6.976298e-002 7.053730e+001 1.662668e+002 9.462256e+002 4.762525e-004 1.399356e-003 1.938003e-004
<GCONST> 5.857388e+000
<MIXTURE> 23 3.597322e-002
<MEAN> 9
 -1.023867e+001 -5.060413e+000 1.344668e-001 -8.914024e+001 -3.490797e+001 2.561963e+002 4.297668e-001 2.110350e-001 1.666683e-001
<VARIANCE> 9
 6.973040e-001 5.733976e-001 1.288158e-001 2.996097e+001 3.680466e+001 1.210095e+002 4.762525e-004 9.770871e-004 1.938003e-004
<GCONST> 2.247022e+000
<STATE> 4
<NUMMIXES> 23
<MIXTURE> 1 4.009767e-002
<MEAN> 9
 -8.701764e+000 4.888282e+000 1.499746e+000 -8.424913e+000 6.415077e+001 4.239126e+001 4.982217e-001 -1.823854e-001 2.371231e-001
<VARIANCE> 9
 1.707476e-001 3.371764e-001 6.976298e-002 2.977951e+001 3.680466e+001 1.210095e+002 4.762525e-004 5.782502e-004 1.938003e-004
<GCONST> -8.349090e-001
<MIXTURE> 2 4.641833e-002
<MEAN> 9
 3.268677e-001 5.351377e+000 6.205452e+000 -2.388280e+001 -1.644710e+002 1.146039e+002 3.843712e-001 -3.075886e-001 -4.567330e-002
<VARIANCE> 9
 1.819686e+000 3.371764e-001 6.146942e-001 5.164536e+001 1.109645e+003 2.033407e+002 4.762525e-004 5.782502e-004 3.671490e-004
<GCONST> 8.822046e+000
<MIXTURE> 3 3.543749e-002
<MEAN> 9
 -4.126560e+000 1.480222e+000 2.734567e+000 -2.076929e+001 -1.688277e+001 3.283498e+001 5.082890e-001 -1.602655e-001 1.872479e-001
<VARIANCE> 9
 1.648613e-001 3.371764e-001 6.976298e-002 4.642718e+001 4.579535e+001 1.591311e+002 4.762525e-004 5.782502e-004 1.938003e-004
<GCONST> 6.648922e-002
<MIXTURE> 4 6.249966e-002
<MEAN> 9
 -1.168336e+001 5.006167e+000 1.337228e+000 -3.913223e+001 -9.743204e+001 7.638407e+001 4.777236e-001 -2.211392e-001 2.183788e-001
<VARIANCE> 9
 1.366213e+000 3.371764e-001 3.169749e+000 2.977951e+001 2.088024e+004 3.663371e+002 4.762525e-004 5.782502e-004 3.632618e-003
<GCONST> 1.544050e+001
<MIXTURE> 5 4.908620e-002
<MEAN> 9
 -8.621854e+000 4.712310e+000 2.525944e+000 5.674983e+000 1.786555e+001 1.016455e+001 5.085512e-001 -1.594570e-001 2.058064e-001
<VARIANCE> 9
 1.491142e-001 3.371764e-001 6.976298e-002 2.977951e+001 3.680466e+001 1.210095e+002 4.762525e-004 5.782502e-004 1.938003e-004
<GCONST> -9.703841e-001
<MIXTURE> 6 4.688455e-002
<MEAN> 9
 -1.153816e+001 2.361459e+000 4.393572e+000 -1.266256e+001 -5.955353e+001 3.193115e+001 5.145455e-001 -1.403032e-001 1.187071e-001
<VARIANCE> 9
 1.491142e-001 3.371764e-001 6.976298e-002 2.977951e+001 7.131936e+002 1.210095e+002 4.762525e-004 5.782502e-004 1.938003e-004
<GCONST> 1.993743e+000
<MIXTURE> 7 3.126514e-002
<MEAN> 9
 -1.236035e+001 8.432338e-001 2.831744e+000 -3.799437e+001 3.468629e+001 3.508750e+001 5.036361e-001 -1.518205e-001 2.489788e-001
<VARIANCE> 9
 4.811667e+000 3.371764e-001 1.000424e+000 2.977951e+001 1.901554e+002 1.210095e+002 4.762525e-004 5.782502e-004 1.938003e-004
<GCONST> 6.808993e+000
<MIXTURE> 8 4.688546e-002
<MEAN> 9
 -5.192774e+000 5.534136e+000 4.433732e+000 -3.418701e+001 -2.802440e+002 1.277235e+002 4.521213e-001 -2.533333e-001 3.469404e-002
<VARIANCE> 9
 2.435871e+000 3.371764e-001 2.752205e-001 2.977951e+001 7.715699e+002 1.210095e+002 4.762525e-004 5.782502e-004 9.877796e-004
<GCONST> 7.866866e+000
<MIXTURE> 9 4.660698e-002
<MEAN> 9
 -6.429001e+000 3.029575e+000 2.833871e+000 -2.315511e+000 8.007785e+000 3.661716e-001 5.075986e-001 -1.681423e-001 1.813019e-001
<VARIANCE> 9
 5.673909e-001 3.371764e-001 6.976298e-002 2.977951e+001 3.680466e+001 1.210095e+002 4.762525e-004 5.782502e-004 1.938003e-004
<GCONST> 3.659506e-001
<MIXTURE> 10 4.688338e-002
<MEAN> 9
 -9.859439e+000 5.987956e+000 1.694763e+000 -5.373985e+001 -6.357777e+001 6.876019e+001 4.578788e-001 -2.512123e-001 2.632650e-001
<VARIANCE> 9
 1.491142e-001 3.371764e-001 1.016345e+000 2.977951e+001 1.138088e+003 1.210095e+002 4.762525e-004 5.782502e-004 2.380960e-004
<GCONST> 5.345806e+000
<MIXTURE> 11 3.519111e-002
<MEAN> 9
 -8.700315e+000 4.792165e+000 3.060293e+000 7.261360e+000 6.898007e+000 -3.281888e+000 5.102947e-001 -1.557238e-001 1.962986e-001
<VARIANCE> 9
 1.491142e-001 3.371764e-001 6.976298e-002 2.977951e+001 3.680466e+001 1.210095e+002 4.762525e-004 5.782502e-004 1.938003e-004
<GCONST> -9.703841e-001
<MIXTURE> 12 4.687791e-002
<MEAN> 9
 -8.513975e+000 5.445809e+000 7.390026e-001 -2.126092e+001 5.199141e+001 5.044712e+001 4.824243e-001 -2.057578e-001 2.700687e-001
<VARIANCE> 9
 1.825339e-001 3.371764e-001 6.976298e-002 3.317760e+001 3.680466e+001 1.210095e+002 4.762525e-004 5.782502e-004 1.938003e-004
<GCONST> -6.601081e-001
<MIXTURE> 13 4.659010e-002
<MEAN> 9
 -1.070220e+001 3.400079e+000 3.101873e+000 -1.905258e+001 -1.394154e+002 6.819631e+001 4.991307e-001 -1.811459e-001 1.693668e-001
<VARIANCE> 9
 1.589206e-001 3.371764e-001 1.626132e+000 2.977951e+001 5.818263e+001 1.210095e+002 4.762525e-004 5.782502e-004 4.890965e-003
<GCONST> 5.928442e+000
<MIXTURE> 14 6.251355e-002
<MEAN> 9
 -1.894597e+000 4.433725e+000 5.316270e+000 -4.463407e+001 -4.100153e+002 9.745427e+001 4.193182e-001 -2.434085e-001 -3.010283e-002
<VARIANCE> 9
 6.528324e+000 9.767747e-001 9.294732e-001 6.348334e+001 6.058633e+002 1.210095e+002 4.762525e-004 4.014205e-003 7.120215e-003
<GCONST> 1.556141e+001
<MIXTURE> 15 3.406067e-002
<MEAN> 9
 -8.556850e+000 4.604246e+000 2.953925e+000 6.971338e+000 8.467037e+000 -4.429736e+000 5.094947e-001 -1.588805e-001 1.941235e-001
<VARIANCE> 9
 1.491142e-001 3.371764e-001 6.976298e-002 2.977951e+001 3.680466e+001 1.210095e+002 4.762525e-004 5.782502e-004 1.938003e-004
<GCONST> -9.703841e-001
<MIXTURE> 16 6.276473e-002
<MEAN> 9
 -9.548611e+000 7.377004e-001 5.664383e+000 -4.495483e+001 -1.414241e+001 8.128760e+000 5.163578e-001 -1.304003e-001 1.688273e-001
<VARIANCE> 9
 7.590256e-001 3.371764e-001 6.181854e-001 2.607388e+002 7.694624e+001 1.210095e+002 4.762525e-004 5.782502e-004 1.978640e-003
<GCONST> 8.069143e+000
<MIXTURE> 17 4.719333e-002
<MEAN> 9
 -1.184924e+001 3.080237e+000 3.058720e+000 -2.253462e+001 -1.922661e+002 7.089790e+001 4.858037e-001 -1.773718e-001 9.438905e-002
<VARIANCE> 9
 1.370152e+000 8.020805e-001 1.522918e-001 2.977951e+001 9.134167e+003 1.314292e+002 4.762525e-004 5.782502e-004 1.348571e-002
<GCONST> 1.273419e+001
<MIXTURE> 18 3.125642e-002
<MEAN> 9
 -9.403615e+000 5.897591e+000 2.162650e+000 -6.274390e+001 -3.213719e+002 7.585366e+001 4.500000e-001 -2.827273e-001 1.785714e-001
<VARIANCE> 9
 3.115438e+000 3.371764e-001 6.419293e-001 2.977951e+001 5.155066e+003 1.210095e+002 4.762525e-004 5.782502e-004 3.758852e-004
<GCONST> 9.892969e+000
<MIXTURE> 19 4.270336e-002
<MEAN> 9
 -3.312943e+000 4.603836e-001 2.439826e+000 -4.620700e+001 -3.805144e+001 8.743027e+001 5.144141e-001 -1.285057e-001 2.046074e-001
<VARIANCE> 9
 1.838474e-001 3.371764e-001 6.976298e-002 7.072163e+001 3.680466e+001 4.221674e+002 4.762525e-004 5.782502e-004 1.938003e-004
<GCONST> 1.353475e+000
<MIXTURE> 20 3.125678e-002
<MEAN> 9
 6.626465e-001 4.596389e+000 7.271081e+000 -1.667686e+001 -3.179883e+002 1.185366e+002 3.390912e-001 -2.068180e-001 -1.908161e-001
<VARIANCE> 9
 2.207868e-001 3.371764e-001 1.263245e-001 2.977951e+001 3.153781e+003 1.210095e+002 9.553719e-004 5.782502e-004 4.164934e-004
<GCONST> 5.927778e+000
<MIXTURE> 21 3.805246e-002
<MEAN> 9
 -8.849108e+000 4.608078e+000 1.730217e+000 -2.995084e+000 4.931231e+001 2.561023e+001 5.018713e-001 -1.726351e-001 2.208230e-001
<VARIANCE> 9
 1.491142e-001 3.371764e-001 1.193968e-001 2.977951e+001 5.817503e+001 1.210095e+002 4.762525e-004 5.782502e-004 1.938003e-004
<GCONST> 2.479839e-002
<MIXTURE> 22 3.467773e-002
<MEAN> 9
 -8.481374e+000 4.520483e+000 2.932734e+000 6.843861e+000 8.925791e+000 -5.431035e+000 5.091698e-001 -1.598139e-001 1.931316e-001
<VARIANCE> 9
 1.491142e-001 3.371764e-001 6.976298e-002 2.977951e+001 3.680466e+001 1.210095e+002 4.762525e-004 5.782502e-004 1.938003e-004
<GCONST> -9.703841e-001
<MIXTURE> 23 3.479734e-002
<MEAN> 9
 -8.673530e+000 4.737457e+000 3.033381e+000 7.107431e+000 7.033503e+000 -4.583304e+000 5.093429e-001 -1.579165e-001 1.937798e-001
<VARIANCE> 9
 1.491142e-001 3.371764e-001 6.976298e-002 2.977951e+001 3.680466e+001 1.210095e+002 4.762525e-004 5.782502e-004 1.938003e-004
<GCONST> -9.703841e-001
<STATE> 5
<NUMMIXES> 23
<MIXTURE> 1 3.772975e-002
<MEAN> 9
 2.249875e+000 5.075285e+000 7.524127e+000 2.242333e+001 -7.245203e+001 9.527459e+001 2.277282e-001 -2.543183e-001 -2.293366e-001
<VARIANCE> 9
 5.460554e-001 3.371764e-001 1.153004e-001 2.977951e+001 4.075162e+002 1.210095e+002 4.762525e-004 5.782502e-004 1.938003e-004
<GCONST> 3.234515e+000
<MIXTURE> 2 4.747054e-002
<MEAN> 9
 -3.461924e+000 3.532073e+000 7.632381e+000 9.895103e+000 1.131463e+001 2.054547e+000 3.862272e-001 -1.064838e-001 -1.982860e-001
<VARIANCE> 9
 2.496769e-001 3.371764e-001 6.976298e-002 2.977951e+001 3.680466e+001 1.210095e+002 4.762525e-004 5.782502e-004 1.938003e-004
<GCONST> -4.549303e-001
<MIXTURE> 3 3.591963e-002
<MEAN> 9
 3.053574e+000 5.856281e+000 7.424983e+000 1.749646e+001 -5.966517e+001 -9.978791e+001 3.233835e-001 -3.222861e-001 -1.077458e-001
<VARIANCE> 9
 1.491142e-001 3.371764e-001 6.976298e-002 2.977951e+001 9.476983e+001 1.195314e+003 4.762525e-004 5.782502e-004 1.938003e-004
<GCONST> 2.265738e+000
<MIXTURE> 4 5.661721e-002
<MEAN> 9
 -5.689806e+000 3.000386e+000 8.975599e+000 -1.521488e+001 1.602956e-001 -1.408823e+002 3.178967e-001 -1.589077e-001 -2.285696e-001
<VARIANCE> 9
 3.074038e+000 3.371764e-001 2.077656e-001 2.977951e+001 3.772889e+002 9.635461e+002 4.762525e-004 7.525941e-004 1.938003e-004
<GCONST> 7.812613e+000
<MIXTURE> 5 5.675387e-002
<MEAN> 9
 3.047640e+000 5.301821e+000 7.371677e+000 2.052053e+001 8.001885e+000 5.505796e+001 1.864939e-001 -2.933714e-001 -2.266918e-001
<VARIANCE> 9
 2.108695e-001 3.371764e-001 2.419282e-001 2.977951e+001 3.680466e+001 2.970730e+002 4.762525e-004 5.782502e-004 1.938003e-004
<GCONST> 1.517789e+000
<MIXTURE> 6 4.017058e-002
<MEAN> 9
 -6.438701e+000 3.009670e+000 8.814897e+000 -6.233331e+000 -1.913727e+001 -4.766452e+001 3.456332e-001 -1.231437e-001 -2.209370e-001
<VARIANCE> 9
 1.549723e+000 4.954159e-001 9.534013e-002 2.977951e+001 1.025356e+002 1.311736e+002 4.762525e-004 7.106207e-004 2.660826e-004
<GCONST> 3.696221e+000
<MIXTURE> 7 3.773244e-002
<MEAN> 9
 -5.064865e-001 4.415493e+000 8.069432e+000 -2.976076e+000 -2.514100e+001 -2.832580e+001 2.784117e-001 -2.236318e-001 -2.209197e-001
<VARIANCE> 9
 4.105991e-001 3.371764e-001 9.187983e-002 1.360959e+002 5.750885e+003 2.029513e+004 4.762525e-004 5.782502e-004 1.938003e-004
<GCONST> 1.201119e+001
<MIXTURE> 8 3.658727e-002
<MEAN> 9
 -2.684909e+000 4.073930e+000 8.271319e+000 7.988108e+000 3.007955e+000 5.522856e+000 3.447945e-001 -1.329674e-001 -2.240683e-001
<VARIANCE> 9
 1.491142e-001 3.371764e-001 6.976298e-002 2.977951e+001 3.680466e+001 1.210095e+002 4.762525e-004 5.782502e-004 1.938003e-004
<GCONST> -9.703841e-001
<MIXTURE> 9 3.326148e-002
<MEAN> 9
 1.454124e-001 5.594759e+000 6.698016e+000 -7.305250e+000 -7.456815e+001 7.185554e+001 3.499062e-001 -3.227605e-001 -6.022424e-002
<VARIANCE> 9
 7.131855e+000 3.371764e-001 7.307016e-001 4.418015e+001 1.955510e+003 4.169701e+002 4.762525e-004 5.782502e-004 3.825834e-004
<GCONST> 1.153063e+001
<MIXTURE> 10 6.601601e-002
<MEAN> 9
 -7.592138e+000 3.254707e+000 8.256474e+000 -2.054911e+001 -5.475639e+001 -1.279674e+002 3.657154e-001 -1.733764e-001 -1.878988e-001
<VARIANCE> 9
 2.712138e+000 7.848166e-001 2.493916e-001 2.977951e+001 4.635704e+001 2.763117e+003 4.762525e-004 7.615146e-004 3.529488e-004
<GCONST> 8.282949e+000
<MIXTURE> 11 3.518838e-002
<MEAN> 9
 -2.295304e+000 3.079686e+000 7.317438e+000 1.020988e+001 3.877782e+000 -6.047283e+000 3.556161e-001 -1.463318e-001 -2.121610e-001
<VARIANCE> 9
 1.491142e-001 3.371764e-001 8.496629e-002 2.977951e+001 3.680466e+001 1.210095e+002 4.762525e-004 5.782502e-004 1.938003e-004
<GCONST> -7.732329e-001
<MIXTURE> 12 5.627684e-002
<MEAN> 9
 2.066822e+000 5.851486e+000 6.795873e+000 7.771887e+000 -2.679960e+001 2.472421e+000 3.239947e-001 -3.322871e-001 -8.862817e-002
<VARIANCE> 9
 6.427698e-001 3.371764e-001 3.419007e-001 2.977951e+001 1.061410e+002 6.004282e+002 4.762525e-004 5.782502e-004 1.938003e-004
<GCONST> 4.741023e+000
<MIXTURE> 13 5.536204e-002
<MEAN> 9
 3.631126e+000 4.292150e+000 7.680647e+000 -1.636041e+001 7.587550e+000 -1.115647e+002 2.171078e-001 -2.726853e-001 -2.253774e-001
<VARIANCE> 9
 4.269906e-001 3.371764e-001 2.538749e-001 2.977951e+001 3.680466e+001 1.077660e+003 4.762525e-004 5.782502e-004 1.938003e-004
<GCONST> 3.560082e+000
<MIXTURE> 14 3.704922e-002
<MEAN> 9
 -1.914644e-001 5.962162e+000 6.895544e+000 4.985995e+000 -8.124724e+001 -1.701002e+002 3.452535e-001 -2.802079e-001 -1.278345e-001
<VARIANCE> 9
 3.558129e-001 3.371764e-001 3.216665e-001 9.763385e+001 6.273784e+002 7.876738e+002 4.762525e-004 5.782502e-004 1.938003e-004
<GCONST> 7.324264e+000
<MIXTURE> 15 5.390248e-002
<MEAN> 9
 -4.618443e+000 3.918564e+000 8.579268e+000 2.653776e+000 1.959973e+000 -9.635630e+000 3.406159e-001 -1.344682e-001 -2.235499e-001
<VARIANCE> 9
 6.727101e-001 3.371764e-001 6.976298e-002 2.977951e+001 3.680466e+001 1.326744e+002 4.762525e-004 5.782502e-004 1.938003e-004
<GCONST> 6.282473e-001
<MIXTURE> 16 2.831056e-002
<MEAN> 9
 -8.430838e+000 1.917225e+000 7.822816e+000 -2.924579e+001 -8.766923e+001 -1.456387e+002 3.739235e-001 -1.691239e-001 -1.846820e-001
<VARIANCE> 9
 8.925015e+000 2.064437e+000 1.441807e-001 2.977951e+001 3.680466e+001 3.466188e+002 4.762525e-004 1.768050e-003 1.938003e-004
<GCONST> 7.829471e+000
<MIXTURE> 17 2.540654e-002
<MEAN> 9
 -5.939734e+000 3.132135e+000 7.989968e+000 6.046188e+000 1.122614e+001 -1.156138e+001 3.798766e-001 -9.830215e-002 -2.052585e-001
<VARIANCE> 9
 1.377374e+000 3.371764e-001 6.976298e-002 2.977951e+001 3.680466e+001 1.305294e+002 4.762525e-004 5.782502e-004 1.938003e-004
<GCONST> 1.328567e+000
<MIXTURE> 18 4.822429e-002
<MEAN> 9
 4.406161e+000 5.049744e+000 7.107841e+000 4.494055e+000 -1.586794e+000 -9.515240e+000 1.838090e-001 -2.998646e-001 -2.176859e-001
<VARIANCE> 9
 1.491142e-001 3.371764e-001 1.604799e-001 5.543645e+001 3.680466e+001 7.210250e+002 4.762525e-004 5.782502e-004 1.938003e-004
<GCONST> 2.268903e+000
<MIXTURE> 19 5.088241e-002
<MEAN> 9
 1.590458e+000 6.119704e+000 7.533696e+000 7.803518e+000 -7.711266e+001 -9.988073e+001 3.305394e-001 -3.109474e-001 -9.904366e-002
<VARIANCE> 9
 7.434557e-001 3.371764e-001 8.295070e-002 2.977951e+001 3.232505e+002 1.636127e+003 4.762525e-004 5.782502e-004 1.946403e-004
<GCONST> 5.590702e+000
<MIXTURE> 20 3.804750e-002
<MEAN> 9
 -2.000461e+000 2.373086e+000 6.863228e+000 5.383949e+000 3.785746e+000 -1.796399e+001 3.545779e-001 -1.188236e-001 -2.123871e-001
<VARIANCE> 9
 2.472702e-001 3.371764e-001 2.320819e-001 2.977951e+001 3.680466e+001 1.210095e+002 5.646854e-004 5.782502e-004 3.909176e-004
<GCONST> 1.609361e+000
<MIXTURE> 21 5.326289e-002
<MEAN> 9
 -2.354181e+000 3.668322e+000 8.274528e+000 4.059614e+000 6.662214e-002 -2.950614e+000 3.302428e-001 -1.073288e-001 -2.381684e-001
<VARIANCE> 9
 1.491142e-001 3.371764e-001 8.865368e-002 2.977951e+001 3.680466e+001 1.210095e+002 4.762525e-004 5.782502e-004 1.938003e-004
<GCONST> -7.307487e-001
<MIXTURE> 22 3.676242e-002
<MEAN> 9
 -1.662170e+000 5.392477e+000 6.608850e+000 -1.277512e+001 -9.119563e+001 -1.744347e+002 3.499018e-001 -2.439203e-001 -1.489322e-001
<VARIANCE> 9
 1.517893e+000 3.371764e-001 1.093328e-001 7.289548e+001 8.870398e+001 6.546870e+002 4.762525e-004 6.295419e-004 1.938003e-004
<GCONST> 5.347436e+000
<MIXTURE> 23 3.306596e-002
<MEAN> 9
 4.723663e-001 5.604531e+000 6.754788e+000 -6.361860e+000 -7.891161e+001 6.870197e+001 3.478434e-001 -3.235337e-001 -6.189502e-002
<VARIANCE> 9
 8.140958e+000 3.371764e-001 7.022114e-001 4.140742e+001 2.045712e+003 4.692444e+002 4.762525e-004 5.782502e-004 3.704914e-004
<GCONST> 1.168947e+001
<STATE> 6
<NUMMIXES> 23
<MIXTURE> 1 6.575225e-002
<MEAN> 9
 -2.108352e+000 9.135926e-001 4.575161e+000 -3.012875e+001 4.483399e+001 -9.394183e+001 3.973166e-001 -5.661458e-002 -1.805532e-001
<VARIANCE> 9
 1.491142e-001 3.371764e-001 7.168113e-002 5.077814e+001 3.951370e+002 1.266980e+002 4.762525e-004 5.782502e-004 1.938003e-004
<GCONST> 2.009931e+000
<MIXTURE> 2 3.448117e-002
<MEAN> 9
 -7.421687e+000 -3.108434e+000 4.873494e+000 -6.173780e+001 1.310976e+002 -2.256098e+002 4.240909e-001 1.381818e-001 -6.173469e-002
<VARIANCE> 9
 2.440122e-001 4.232834e-001 6.976298e-002 2.977951e+001 5.002973e+001 1.210095e+002 4.762525e-004 5.782502e-004 1.938003e-004
<GCONST> 5.654812e-002
<MIXTURE> 3 3.437759e-002
<MEAN> 9
 -4.996257e+000 -7.583595e-001 4.751987e+000 -5.039986e+001 1.254994e+002 -1.733533e+002 4.256150e-001 4.283459e-002 -1.294506e-001
<VARIANCE> 9
 6.532683e-001 3.937131e-001 6.976298e-002 2.977951e+001 5.071283e+001 4.841310e+002 4.762525e-004 7.226354e-004 2.842279e-004
<GCONST> 2.974792e+000
<MIXTURE> 4 3.443182e-002
<MEAN> 9
 -8.133112e+000 -5.306694e+000 6.807256e+000 -8.582054e+001 3.141507e+001 -2.431416e+002 3.718184e-001 2.167993e-001 -6.123644e-002
<VARIANCE> 9
 1.678006e-001 3.371764e-001 6.976298e-002 2.977951e+001 5.355803e+001 1.210095e+002 4.762525e-004 5.782502e-004 1.938003e-004
<GCONST> -4.771776e-001
<MIXTURE> 5 3.484351e-002
<MEAN> 9
 -2.515748e+000 1.760124e+000 5.289326e+000 1.855713e-001 2.267209e+001 -4.048488e+001 3.936090e-001 -8.879954e-002 -1.912676e-001
<VARIANCE> 9
 1.491142e-001 3.371764e-001 2.195451e-001 2.977951e+001 5.056662e+001 1.210095e+002 4.762525e-004 5.782502e-004 1.938003e-004
<GCONST> 4.937353e-001
<MIXTURE> 6 3.448047e-002
<MEAN> 9
 -6.000000e+000 -8.042169e+000 6.313253e+000 -1.003354e+002 4.362805e+001 -2.251829e+002 2.504545e-001 3.204545e-001 -1.020408e-003
<VARIANCE> 9
 2.939468e-001 3.371764e-001 1.220787e-001 2.977951e+001 4.994135e+002 1.210095e+002 4.762525e-004 5.782502e-004 1.938003e-004
<GCONST> 2.875674e+000
<MIXTURE> 7 3.445545e-002
<MEAN> 9
 -3.276666e+000 1.108547e+000 6.289095e+000 -6.871719e+001 4.643412e+001 -1.435305e+002 3.831808e-001 -6.137001e-002 -2.000006e-001
<VARIANCE> 9
 3.628924e-001 3.371764e-001 6.976298e-002 2.977951e+001 3.680466e+001 1.210095e+002 4.762525e-004 5.782502e-004 1.938003e-004
<GCONST> -8.099079e-002
<MIXTURE> 8 5.164775e-002
<MEAN> 9
 -6.594541e+000 -2.432792e+000 6.020881e+000 -8.446272e+001 9.128268e+001 -2.268636e+002 3.890658e-001 1.245364e-001 -1.265547e-001
<VARIANCE> 9
 1.516043e-001 3.599341e-001 2.303482e-001 2.977951e+001 4.845399e+001 1.210095e+002 4.762525e-004 5.782502e-004 2.963491e-004
<GCONST> 1.005680e+000
<MIXTURE> 9 3.451939e-002
<MEAN> 9
 -9.590075e-001 1.586825e+000 5.822535e+000 1.924003e+000 2.293851e+001 -2.898953e+001 3.340913e-001 -1.018297e-001 -2.326367e-001
<VARIANCE> 9
 1.491142e-001 3.371764e-001 2.611808e-001 2.977951e+001 5.631931e+001 1.210095e+002 4.762525e-004 5.782502e-004 1.938003e-004
<GCONST> 7.751379e-001
<MIXTURE> 10 5.504934e-002
<MEAN> 9
 -2.370327e+000 5.343058e-001 4.668390e+000 -4.862386e+001 5.819027e+001 -1.251439e+002 4.037569e-001 -3.366192e-002 -1.752655e-001
<VARIANCE> 9
 1.491142e-001 3.371764e-001 6.976298e-002 9.155904e+001 5.298612e+002 1.210095e+002 4.762525e-004 5.782502e-004 1.938003e-004
<GCONST> 2.819770e+000
<MIXTURE> 11 2.955517e-002
<MEAN> 9
 -1.352407e+000 1.562249e+000 5.181725e+000 -4.734741e+001 1.869896e+001 -1.074896e+002 3.638636e-001 -9.992453e-002 -2.086735e-001
<VARIANCE> 9
 1.491142e-001 3.371764e-001 6.976298e-002 5.468788e+001 1.223817e+002 1.210095e+002 4.762525e-004 5.782502e-004 1.938003e-004
<GCONST> 8.389578e-001
<MIXTURE> 12 6.895576e-002
<MEAN> 9
 -4.439836e+000 -1.000079e+000 6.141426e+000 -8.621733e+001 6.210510e+001 -2.075156e+002 4.013662e-001 7.204795e-002 -1.497405e-001
<VARIANCE> 9
 1.916732e-001 5.361208e-001 6.491864e-001 1.019589e+002 1.513875e+002 1.210095e+002 4.762525e-004 5.782502e-004 4.748950e-004
<GCONST> 5.516298e+000
<MIXTURE> 13 3.447749e-002
<MEAN> 9
 -3.608380e+000 5.422005e-002 4.734920e+000 -6.451195e+001 6.798779e+001 -1.748158e+002 4.181820e-001 2.999962e-002 -1.489798e-001
<VARIANCE> 9
 2.621934e-001 3.371764e-001 6.976298e-002 2.977951e+001 3.680466e+001 1.413779e+002 4.762525e-004 5.782502e-004 1.938003e-004
<GCONST> -2.504454e-001
<MIXTURE> 14 6.847917e-002
<MEAN> 9
 -2.154811e+000 1.322295e+000 4.332170e+000 -3.737967e+000 7.100210e+001 -6.349459e+001 3.707656e-001 -8.670576e-002 -2.062630e-001
<VARIANCE> 9
 3.805261e-001 3.371764e-001 9.452793e-002 4.789426e+001 7.128171e+002 1.223479e+002 4.762525e-004 5.782502e-004 1.938003e-004
<GCONST> 3.720023e+000
<MIXTURE> 15 3.358498e-002
<MEAN> 9
 -9.514866e+000 -6.415532e+000 4.653199e+000 -6.274544e+001 1.280742e+002 -2.387001e+002 3.779059e-001 2.428848e-001 2.584649e-002
<VARIANCE> 9
 1.491142e-001 1.003043e+000 8.355559e-002 2.977951e+001 2.643351e+002 1.210095e+002 4.762525e-004 9.112500e-004 8.592635e-004
<GCONST> 4.215861e+000
<MIXTURE> 16 5.179432e-002
<MEAN> 9
 -6.742605e+000 -3.657848e+000 6.063392e+000 -9.164485e+001 7.715199e+001 -2.396225e+002 3.736835e-001 1.850747e-001 -9.661676e-002
<VARIANCE> 9
 1.011115e+000 3.676232e-001 6.976298e-002 1.036967e+002 4.534360e+001 1.210095e+002 4.762525e-004 5.782502e-004 1.938003e-004
<GCONST> 2.486457e+000
<MIXTURE> 17 6.250957e-002
<MEAN> 9
 -8.649020e+000 -8.024576e+000 6.071775e+000 -9.121465e+001 5.772480e+001 -2.455030e+002 2.903951e-001 3.079298e-001 -5.282609e-003
<VARIANCE> 9
 1.551410e-001 8.303078e-001 2.426755e-001 2.977951e+001 2.684122e+002 1.210095e+002 4.762525e-004 7.467335e-004 2.835209e-004
<GCONST> 3.840107e+000
<MIXTURE> 18 5.819762e-002
<MEAN> 9
 -8.987276e+000 -6.290103e+000 6.658967e+000 -9.228787e+001 7.099133e+001 -2.427411e+002 3.268207e-001 2.531677e-001 -5.090300e-002
<VARIANCE> 9
 1.002881e+000 3.371764e-001 2.139468e-001 2.977951e+001 8.556971e+002 1.210095e+002 4.762525e-004 5.782502e-004 2.521601e-004
<GCONST> 5.465685e+000
<MIXTURE> 19 3.878050e-002
<MEAN> 9
 -1.300690e+000 1.612046e+000 5.021770e+000 -2.152826e+001 -1.700356e+000 -7.262411e+001 3.583688e-001 -1.348558e-001 -2.162190e-001
<VARIANCE> 9
 1.491142e-001 3.371764e-001 6.976298e-002 8.004893e+001 3.680466e+001 1.376088e+002 4.762525e-004 5.782502e-004 1.938003e-004
<GCONST> 1.469793e-001
<MIXTURE> 20 3.515079e-002
<MEAN> 9
 -1.342243e+000 1.585327e+000 5.350841e+000 -1.562032e+000 6.222496e+000 -3.918836e+001 3.518556e-001 -1.463707e-001 -2.078429e-001
<VARIANCE> 9
 1.491142e-001 3.371764e-001 6.976298e-002 2.977951e+001 3.680466e+001 1.210095e+002 4.762525e-004 5.782502e-004 1.938003e-004
<GCONST> -9.703841e-001
<MIXTURE> 21 3.451427e-002
<MEAN> 9
 -3.801246e+000 6.265789e-001 6.042586e+000 -8.273930e+001 3.126550e+001 -1.770599e+002 3.850003e-001 -3.661407e-003 -1.872524e-001
<VARIANCE> 9
 1.491142e-001 3.371764e-001 6.976298e-002 2.977951e+001 3.680466e+001 1.210095e+002 4.762525e-004 8.476044e-004 1.938003e-004
<GCONST> -5.879769e-001
<MIXTURE> 22 3.537738e-002
<MEAN> 9
 -9.738361e+000 -5.775795e+000 4.460249e+000 -6.309903e+001 1.342054e+002 -2.406991e+002 3.926207e-001 2.164389e-001 1.818853e-003
<VARIANCE> 9
 1.491142e-001 5.612935e-001 6.976298e-002 2.977951e+001 2.807727e+002 1.210095e+002 4.762525e-004 5.782502e-004 4.724582e-004
<GCONST> 2.462295e+000
<MIXTURE> 23 3.458457e-002
<MEAN> 9
 -5.466183e+000 -1.126074e+000 4.868145e+000 -5.297652e+001 1.241084e+002 -1.863028e+002 4.262015e-001 5.395009e-002 -1.200675e-001
<VARIANCE> 9
 4.369048e-001 3.475527e-001 6.976298e-002 2.977951e+001 7.091790e+001 4.101243e+002 4.762525e-004 7.332219e-004 3.093000e-004
<GCONST> 2.716343e+000
<STATE> 7
<NUMMIXES> 23
<MIXTURE> 1 5.882264e-002
<MEAN> 9
 -5.554217e+000 -1.028916e+001 3.767068e+000 -2.439026e+000 1.896342e+002 -2.835366e+001 -3.090909e-002 3.630303e-001 1.738095e-001
<VARIANCE> 9
 3.903034e+000 5.877001e-001 1.155787e-001 1.045831e+002 5.394434e+002 1.210095e+002 4.762525e-004 5.782502e-004 1.938003e-004
<GCONST> 7.295943e+000
<MIXTURE> 2 5.882363e-002
<MEAN> 9
 -8.510040e+000 -1.069076e+001 3.465864e+000 -2.835368e+001 7.676823e+001 -2.110163e+002 1.875759e-001 3.636364e-001 1.459184e-001
<VARIANCE> 9
 1.491142e-001 3.371764e-001 6.976298e-002 3.633987e+001 2.616595e+002 1.210095e+002 5.357192e-004 5.782502e-004 1.938003e-004
<GCONST> 1.307794e+000
<MIXTURE> 3 3.727719e-002
<MEAN> 9
 -7.615411e+000 -1.153272e+001 4.697164e+000 -7.888767e+001 8.242809e+001 -2.042632e+002 1.138078e-001 3.751233e-001 9.618800e-002
<VARIANCE> 9
 2.588984e+000 6.445916e-001 6.976298e-002 2.977951e+001 1.669066e+002 3.467448e+002 1.408143e-003 5.782502e-004 3.922314e-004
<GCONST> 6.885567e+000
<MIXTURE> 4 3.940130e-002
<MEAN> 9
 -6.288124e+000 -1.040243e+001 2.098502e+000 -2.186776e+001 3.064324e+001 -5.435738e+001 2.430769e-002 3.759003e-001 1.829677e-001
<VARIANCE> 9
 2.139307e-001 3.371764e-001 6.976298e-002 2.977951e+001 6.141986e+002 5.286573e+002 4.762525e-004 5.782502e-004 1.938003e-004
<GCONST> 3.679721e+000
<MIXTURE> 5 3.921582e-002
<MEAN> 9
 -6.373495e+000 -1.279518e+001 2.656626e+000 -7.658536e+001 1.927744e+002 -2.415549e+002 1.177272e-001 3.781818e-001 1.066327e-001
<VARIANCE> 9
 2.939468e-001 3.371764e-001 1.533242e-001 5.265093e+001 2.821989e+002 1.210095e+002 4.762525e-004 5.782502e-004 1.938003e-004
<GCONST> 3.102603e+000
<MIXTURE> 6 3.921509e-002
<MEAN> 9
 -5.174684e+000 -9.897587e+000 1.831334e+000 -5.612801e+001 5.798763e+001 -2.588406e+001 -6.409097e-002 3.477272e-001 1.867346e-001
<VARIANCE> 9
 5.670273e-001 3.371764e-001 1.881260e-001 2.977951e+001 8.034277e+001 1.210095e+002 4.762525e-004 5.782502e-004 1.938003e-004
<GCONST> 2.137996e+000
<MIXTURE> 7 3.822302e-002
<MEAN> 9
 -5.044575e+000 -1.125409e+001 1.780723e+000 -6.108339e+001 1.147295e+002 -6.938938e+001 -1.494327e-002 3.619280e-001 1.612817e-001
<VARIANCE> 9
 1.491142e-001 3.371764e-001 1.884835e+000 5.901332e+001 1.859417e+002 1.210095e+002 8.356606e-004 5.782502e-004 1.938003e-004
<GCONST> 5.192134e+000
<MIXTURE> 8 3.921587e-002
<MEAN> 9
 -8.234940e+000 -1.321084e+001 1.500000e+000 -5.201220e+001 1.859756e+002 -2.184756e+002 5.181818e-002 3.677273e-001 1.280612e-001
<VARIANCE> 9
 1.491142e-001 3.371764e-001 6.976298e-002 2.977951e+001 3.878978e+002 1.210095e+002 4.762525e-004 5.782502e-004 1.938003e-004
<GCONST> 1.384734e+000
<MIXTURE> 9 1.960752e-002
<MEAN> 9
 -3.289157e+000 -1.012048e+001 2.698795e+000 -2.969512e+001 1.533537e+002 -3.841463e+001 -2.272727e-002 3.581818e-001 1.785714e-001
<VARIANCE> 9
 1.491142e-001 3.371764e-001 6.976298e-002 2.977951e+001 3.680466e+001 1.210095e+002 4.762525e-004 5.782502e-004 1.938003e-004
<GCONST> -9.703841e-001
<MIXTURE> 10 5.882322e-002
<MEAN> 9
 -6.678713e+000 -1.195984e+001 1.333325e+000 -5.617880e+001 9.040656e+001 -1.351017e+002 3.028509e-004 3.733334e-001 1.520409e-001
<VARIANCE> 9
 1.491142e-001 3.371764e-001 1.245684e+000 5.614025e+001 4.982709e+001 1.840092e+002 6.227696e-004 5.782502e-004 1.938003e-004
<GCONST> 3.536263e+000
<MIXTURE> 11 5.887881e-002
<MEAN> 9
 -7.598438e+000 -1.001595e+001 5.188596e+000 -9.016050e+001 1.154503e+002 -2.320394e+002 2.072846e-001 3.575646e-001 4.557150e-002
<VARIANCE> 9
 2.110199e+000 3.371764e-001 9.133665e-002 3.540205e+001 1.059560e+003 1.210095e+002 4.762525e-004 5.782502e-004 1.938003e-004
<GCONST> 5.481822e+000
<MIXTURE> 12 1.960794e-002
<MEAN> 9
 -9.204820e+000 -8.421687e+000 4.156627e+000 -4.036585e+001 1.909146e+002 -2.344512e+002 3.290909e-001 3.054546e-001 8.673470e-002
<VARIANCE> 9
 1.491142e-001 3.371764e-001 6.976298e-002 2.977951e+001 3.680466e+001 1.210095e+002 4.762525e-004 5.782502e-004 1.938003e-004
<GCONST> -9.703841e-001
<MIXTURE> 13 3.921562e-002
<MEAN> 9
 -9.216866e+000 -1.123494e+001 2.343375e+000 -1.125001e+001 7.307937e+001 -1.789940e+002 1.100001e-001 3.727273e-001 1.658163e-001
<VARIANCE> 9
 1.491142e-001 3.371764e-001 6.976298e-002 2.977951e+001 2.446172e+002 1.210095e+002 4.762525e-004 5.782502e-004 1.938003e-004
<GCONST> 9.236860e-001
<MIXTURE> 14 3.898632e-002
<MEAN> 9
 -4.397577e+000 -1.000766e+001 2.152356e+000 -5.376998e+001 1.504044e+002 -3.743459e+001 1.002054e-002 3.804347e-001 1.739527e-001
<VARIANCE> 9
 1.491142e-001 3.371764e-001 9.441607e-002 2.977951e+001 2.142237e+002 1.210095e+002 4.762525e-004 5.782502e-004 1.938003e-004
<GCONST> 1.093619e+000
<MIXTURE> 15 3.919872e-002
<MEAN> 9
 -5.987905e+000 -1.098816e+001 3.849274e+000 -9.063991e+001 1.138195e+002 -2.408235e+002 1.781735e-001 3.550042e-001 6.939445e-002
<VARIANCE> 9
 1.491142e-001 3.371764e-001 8.016403e-002 2.977951e+001 3.795367e+002 1.210095e+002 4.762525e-004 5.782502e-004 2.342774e-004
<GCONST> 1.691591e+000
<MIXTURE> 16 3.921542e-002
<MEAN> 9
 -8.012047e+000 -1.233735e+001 2.427700e+000 -5.740846e+001 1.134451e+002 -1.713416e+002 3.545448e-002 3.813637e-001 1.418368e-001
<VARIANCE> 9
 1.491142e-001 3.371764e-001 1.615655e+000 8.875020e+001 3.680466e+001 1.608565e+002 4.762525e-004 5.782502e-004 1.938003e-004
<GCONST> 3.548659e+000
<MIXTURE> 17 5.882380e-002
<MEAN> 9
 -1.086747e+001 -9.124497e+000 2.646586e+000 -2.563008e+001 9.713416e+001 -2.299187e+002 2.784849e-001 3.269697e-001 1.136054e-001
<VARIANCE> 9
 5.113469e-001 3.371764e-001 6.976298e-002 2.977951e+001 1.682689e+003 1.210095e+002 5.202939e-004 5.782502e-004 1.938003e-004
<GCONST> 4.172921e+000
<MIXTURE> 18 7.865709e-002
<MEAN> 9
 -4.995263e+000 -9.437578e+000 1.179648e+000 -3.622983e+001 1.781171e+002 -3.692435e+001 -5.420147e-003 3.716264e-001 1.788259e-001
<VARIANCE> 9
 1.491142e-001 3.371764e-001 1.626297e-001 3.759544e+001 6.684669e+001 1.210095e+002 4.762525e-004 5.782502e-004 1.938003e-004
<GCONST> 7.058287e-001
<MIXTURE> 19 3.921551e-002
<MEAN> 9
 -8.801205e+000 -1.112651e+001 1.963855e+000 -1.542683e+001 1.006104e+000 -1.385061e+002 7.181819e-002 3.654546e-001 1.714286e-001
<VARIANCE> 9
 1.491142e-001 3.371764e-001 6.976298e-002 2.977951e+001 2.370473e+002 1.293213e+002 4.762525e-004 5.782502e-004 1.938003e-004
<GCONST> 9.586821e-001
<MIXTURE> 20 3.921586e-002
<MEAN> 9
 -6.819277e+000 -1.026506e+001 6.024096e-001 -5.304878e+001 1.136281e+002 -4.826220e+001 -5.318182e-002 3.554546e-001 1.714286e-001
<VARIANCE> 9
 1.491142e-001 3.371764e-001 6.976298e-002 2.977951e+001 5.021426e+002 1.210095e+002 4.762525e-004 5.782502e-004 1.938003e-004
<GCONST> 1.642875e+000
<MIXTURE> 21 4.114212e-002
<MEAN> 9
 -6.045641e+000 -1.160834e+001 4.510732e+000 -8.124121e+001 4.080584e+001 -2.002581e+002 1.117391e-001 3.709889e-001 9.616496e-002
<VARIANCE> 9
 3.888764e-001 3.371764e-001 6.976298e-002 2.977951e+001 2.755338e+002 1.210095e+002 5.753350e-004 5.782502e-004 1.938003e-004
<GCONST> 2.190255e+000
<MIXTURE> 22 4.020772e-002
<MEAN> 9
 -5.351247e+000 -1.144584e+001 1.720803e+000 -6.149731e+001 9.798206e+001 -8.916380e+001 -1.106368e-002 3.626008e-001 1.571896e-001
<VARIANCE> 9
 1.491142e-001 3.371764e-001 1.162156e+000 7.411398e+001 2.152890e+002 1.210095e+002 1.102423e-003 5.782502e-004 1.938003e-004
<GCONST> 5.360003e+000
<MIXTURE> 23 3.900995e-002
<MEAN> 9
 -6.617416e+000 -1.061088e+001 2.215336e+000 -2.160592e+001 1.432131e+001 -6.984808e+001 3.393203e-002 3.814085e-001 1.823342e-001
<VARIANCE> 9
 3.931571e-001 3.371764e-001 6.976298e-002 2.977951e+001 7.320590e+002 6.591825e+002 4.762525e-004 5.782502e-004 1.938003e-004
<GCONST> 4.684482e+000
<TRANSP> 8
 0.000000e+000 1.000000e+000 0.000000e+000 0.000000e+000 0.000000e+000 0.000000e+000 0.000000e+000 0.000000e+000
 0.000000e+000 9.234822e-001 7.651781e-002 0.000000e+000 0.000000e+000 0.000000e+000 0.000000e+000 0.000000e+000
 0.000000e+000 0.000000e+000 9.473530e-001 5.264698e-002 0.000000e+000 0.000000e+000 0.000000e+000 0.000000e+000
 0.000000e+000 0.000000e+000 0.000000e+000 9.531149e-001 4.688509e-002 0.000000e+000 0.000000e+000 0.000000e+000
 0.000000e+000 0.000000e+000 0.000000e+000 0.000000e+000 9.717048e-001 2.829518e-002 0.000000e+000 0.000000e+000
 0.000000e+000 0.000000e+000 0.000000e+000 0.000000e+000 0.000000e+000 9.482788e-001 5.172119e-002 0.000000e+000
 0.000000e+000 0.000000e+000 0.000000e+000 0.000000e+000 0.000000e+000 0.000000e+000 9.411769e-001 5.882316e-002
 0.000000e+000 0.000000e+000 0.000000e+000 0.000000e+000 0.000000e+000 0.000000e+000 0.000000e+000 0.000000e+000
<ENDHMM>
~h "GM"
<BEGINHMM>
<NUMSTATES> 8
<STATE> 2
<NUMMIXES> 23
<MIXTURE> 1 5.340430e-002
<MEAN> 9
 -1.164659e+001 -9.493976e+000 -3.052209e-001 6.910572e+000 7.067073e+001 3.378658e+002 3.224242e-001 3.160606e-001 2.132653e-001
<VARIANCE> 9
 1.491142e-001 1.919098e+000 6.976298e-002 1.529480e+002 3.680466e+001 1.210095e+002 1.411754e-003 5.782502e-004 1.938003e-004
<GCONST> 3.491538e+000
<MIXTURE> 2 5.340429e-002
<MEAN> 9
 -6.775100e+000 -1.287149e+001 3.518072e+000 1.587398e+001 -1.302642e+002 1.815041e+002 8.151515e-002 3.790909e-001 2.214286e-001
<VARIANCE> 9
 6.973760e-001 3.371764e-001 3.298978e-001 6.790186e+001 1.096214e+003 7.858276e+002 9.169878e-004 5.782502e-004 1.938003e-004
<GCONST> 8.870158e+000
<MIXTURE> 3 3.578564e-002
<MEAN> 9
 -9.034387e+000 -8.773467e+000 -9.087174e-001 -3.380939e+001 -4.392800e+001 1.593028e+002 2.071376e-001 3.654371e-001 1.938365e-001
<VARIANCE> 9
 1.491142e-001 3.371764e-001 6.976298e-002 2.977951e+001 8.614700e+001 1.210095e+002 4.762525e-004 5.782502e-004 1.938003e-004
<GCONST> -1.199541e-001
<MIXTURE> 4 5.340942e-002
<MEAN> 9
 -9.951897e+000 -6.353236e+000 -2.927727e+000 -1.410717e+001 2.790693e+001 2.517484e+002 2.578859e-001 3.418140e-001 2.013620e-001
<VARIANCE> 9
 1.491142e-001 7.489107e-001 7.963843e-002 2.977951e+001 3.680466e+001 1.210095e+002 8.931715e-004 5.782502e-004 1.938003e-004
<GCONST> 5.888510e-001
<MIXTURE> 5 1.780143e-002
<MEAN> 9
 -9.433735e+000 -5.939759e+000 -8.795181e-001 -1.841463e+001 3.957317e+001 3.425610e+002 3.927273e-001 2.581818e-001 2.306122e-001
<VARIANCE> 9
 1.491142e-001 3.371764e-001 6.976298e-002 2.977951e+001 3.680466e+001 1.210095e+002 4.762525e-004 5.782502e-004 1.938003e-004
<GCONST> -9.703841e-001
<MIXTURE> 6 3.560251e-002
<MEAN> 9
 -9.289157e+000 -1.004819e+001 9.819278e-001 1.768293e+000 -2.121951e+001 1.745732e+002 1.463636e-001 3.690909e-001 2.112245e-001
<VARIANCE> 9
 4.883149e-001 3.371764e-001 2.380970e-001 2.977951e+001 3.680466e+001 1.210095e+002 4.762525e-004 5.782502e-004 1.938003e-004
<GCONST> 1.443439e+000
<MIXTURE> 7 3.567430e-002
<MEAN> 9
 -1.051657e+001 -6.851168e+000 -1.114186e+000 -5.684719e+001 -7.624038e+001 1.775788e+002 3.325864e-001 3.100528e-001 2.005032e-001
<VARIANCE> 9
 1.993721e-001 3.371764e-001 6.976298e-002 2.977951e+001 3.680466e+001 1.210095e+002 4.762525e-004 5.782502e-004 1.938003e-004
<GCONST> -6.799254e-001
<MIXTURE> 8 3.804315e-002
<MEAN> 9
 -8.810449e+000 -1.198228e+001 7.590135e-001 -7.556690e+000 4.383533e+001 1.228603e+002 4.786083e-002 3.742087e-001 1.857921e-001
<VARIANCE> 9
 1.488763e+000 3.371764e-001 6.976298e-002 2.977951e+001 3.680466e+001 6.525427e+002 4.762525e-004 5.782502e-004 1.938003e-004
<GCONST> 3.015613e+000
<MIXTURE> 9 5.316811e-002
<MEAN> 9
 -1.094861e+001 -9.324413e+000 -6.028082e-001 -1.122184e+001 3.024709e+000 2.204687e+002 2.033809e-001 3.651539e-001 2.088842e-001
<VARIANCE> 9
 1.491142e-001 3.371764e-001 3.136335e-001 2.977951e+001 2.089397e+002 1.917010e+002 4.762525e-004 5.782502e-004 1.938003e-004
<GCONST> 2.729228e+000
<MIXTURE> 10 5.349842e-002
<MEAN> 9
 -1.052375e+001 -4.379343e+000 -3.081702e+000 -4.317580e+001 1.280940e+001 2.501510e+002 3.642709e-001 2.735737e-001 2.220849e-001
<VARIANCE> 9
 1.491142e-001 3.371764e-001 1.355498e+000 1.728006e+002 1.911696e+002 1.210095e+002 9.421927e-004 5.782502e-004 1.938003e-004
<GCONST> 6.084552e+000
<MIXTURE> 11 3.560216e-002
<MEAN> 9
 -7.548191e+000 -1.045783e+001 1.734942e+000 -1.155484e+001 -8.798762e+001 1.390550e+002 1.040910e-001 3.840910e-001 2.173470e-001
<VARIANCE> 9
 1.491142e-001 3.371764e-001 6.976298e-002 2.977951e+001 3.665825e+002 1.210095e+002 4.762525e-004 5.782502e-004 1.938003e-004
<GCONST> 1.328216e+000
<MIXTURE> 12 3.557139e-002
<MEAN> 9
 -9.988021e+000 -5.041551e+000 -6.446590e-001 -7.148891e+001 -1.083951e+002 1.828370e+002 3.970646e-001 2.531844e-001 1.863708e-001
<VARIANCE> 9
 1.521708e-001 3.371764e-001 9.151993e-001 2.977951e+001 3.680466e+001 1.210095e+002 5.352032e-004 5.782502e-004 1.938003e-004
<GCONST> 1.740645e+000
<MIXTURE> 13 4.134606e-002
<MEAN> 9
 -7.343274e+000 -9.885437e+000 5.851740e-001 -1.011613e+001 -7.301586e+001 7.021930e+001 4.722619e-002 3.844299e-001 2.090644e-001
<VARIANCE> 9
 1.491142e-001 3.371764e-001 6.976298e-002 2.977951e+001 3.680466e+001 2.428857e+002 4.762525e-004 5.782502e-004 1.938003e-004
<GCONST> -2.736635e-001
<MIXTURE> 14 7.110488e-002
<MEAN> 9
 -1.012769e+001 -5.451902e+000 -1.925079e+000 -4.785441e+001 -1.768467e+001 2.470314e+002 3.620237e-001 2.773228e-001 2.268106e-001
<VARIANCE> 9
 3.232332e-001 1.641608e+000 2.911424e+000 3.020128e+001 4.123073e+001 1.210095e+002 8.458795e-004 6.943424e-004 1.938003e-004
<GCONST> 6.002404e+000
<MIXTURE> 15 5.340428e-002
<MEAN> 9
 -1.294378e+001 -1.231727e+001 1.381526e+000 4.650407e+001 5.664634e+001 2.644512e+002 1.845455e-001 3.690909e-001 2.105442e-001
<VARIANCE> 9
 4.137836e+000 3.371764e-001 2.441219e+000 2.977951e+001 7.716041e+002 6.319330e+002 1.310744e-003 5.782502e-004 1.938003e-004
<GCONST> 1.161615e+001
<MIXTURE> 16 5.331251e-002
<MEAN> 9
 -9.686679e+000 -7.851515e+000 -1.008019e+000 -4.664263e+001 -8.013619e+001 1.686969e+002 2.672845e-001 3.427298e-001 1.955754e-001
<VARIANCE> 9
 1.491142e-001 3.371764e-001 6.976298e-002 2.977951e+001 3.680466e+001 1.210095e+002 4.762525e-004 5.782502e-004 1.938003e-004
<GCONST> -9.703841e-001
<MIXTURE> 17 5.319019e-002
<MEAN> 9
 -8.191644e+000 -9.546674e+000 -2.801754e-001 -2.212306e+001 -1.402725e+001 1.483613e+002 1.514501e-001 3.675868e-001 1.829823e-001
<VARIANCE> 9
 1.491142e-001 3.371764e-001 1.117038e-001 2.977951e+001 3.680466e+001 1.210095e+002 4.762525e-004 5.782502e-004 1.938003e-004
<GCONST> -4.996386e-001
<MIXTURE> 18 3.559038e-002
<MEAN> 9
 -1.145792e+001 -8.295014e+000 -6.326246e-001 -2.457411e+001 9.174774e+000 2.400621e+002 2.727283e-001 3.372682e-001 2.193883e-001
<VARIANCE> 9
 1.491142e-001 3.371764e-001 8.016533e-002 2.977951e+001 3.680466e+001 1.210095e+002 4.762525e-004 5.782502e-004 1.938003e-004
<GCONST> -8.313956e-001
<MIXTURE> 19 5.379847e-002
<MEAN> 9
 -7.345576e+000 -9.992257e+000 1.903862e-001 -6.540057e+000 4.966293e+000 1.244037e+002 8.953599e-002 3.724819e-001 1.727870e-001
<VARIANCE> 9
 1.491142e-001 3.371764e-001 6.976298e-002 2.977951e+001 8.869316e+001 1.210095e+002 4.762525e-004 5.782502e-004 1.938003e-004
<GCONST> -9.082508e-002
<MIXTURE> 20 3.585037e-002
<MEAN> 9
 -9.819953e+000 -1.027765e+001 -1.600821e+000 -1.603384e+001 2.488850e+001 2.175244e+002 1.385836e-001 3.672495e-001 1.888567e-001
<VARIANCE> 9
 6.632577e-001 5.203595e-001 6.976298e-002 2.977951e+001 4.925986e+001 1.210095e+002 4.762525e-004 5.782502e-004 1.938003e-004
<GCONST> 1.247466e+000
<MIXTURE> 21 3.261974e-002
<MEAN> 9
 -7.812335e+000 -1.006944e+001 6.092357e-001 -1.250995e+001 -8.374479e+001 9.604787e+001 6.761990e-002 3.828189e-001 2.065893e-001
<VARIANCE> 9
 1.491142e-001 3.371764e-001 6.976298e-002 2.977951e+001 1.260733e+002 3.331841e+002 4.762525e-004 5.782502e-004 1.938003e-004
<GCONST> 1.273681e+000
<MIXTURE> 22 3.318631e-002
<MEAN> 9
 -9.848819e+000 -1.193559e+001 3.133809e-001 -8.577872e+000 3.340422e+001 1.609386e+002 7.144506e-002 3.700472e-001 1.828825e-001
<VARIANCE> 9
 7.079131e-001 3.371764e-001 1.160897e-001 2.977951e+001 1.763086e+002 7.805491e+002 4.762525e-004 5.782502e-004 1.938003e-004
<GCONST> 4.527225e+000
<MIXTURE> 23 3.563167e-002
<MEAN> 9
 -1.005409e+001 -5.205298e+000 -9.273902e-001 -7.064594e+001 -1.072156e+002 1.827729e+002 3.902140e-001 2.595375e-001 1.886272e-001
<VARIANCE> 9
 1.881008e-001 3.371764e-001 7.869029e-001 2.977951e+001 3.680466e+001 1.210095e+002 4.762525e-004 6.241578e-004 1.938003e-004
<GCONST> 1.761278e+000
<STATE> 3
<NUMMIXES> 23
<MIXTURE> 1 3.828437e-002
<MEAN> 9
 -4.812564e+000 -6.998729e-001 4.241644e-001 -6.604539e+001 -1.849238e+001 2.214010e+002 5.052684e-001 5.205617e-002 2.339284e-001
<VARIANCE> 9
 8.373626e-001 3.371764e-001 4.558005e-001 2.977951e+001 3.925172e+002 1.258884e+003 4.762525e-004 1.823177e-003 1.938003e-004
<GCONST> 8.489509e+000
<MIXTURE> 2 4.526264e-002
<MEAN> 9
 -7.329317e+000 -3.654619e+000 -5.261043e-001 -4.583334e+001 -1.890244e+000 3.065650e+002 4.587879e-001 1.733333e-001 2.333333e-001
<VARIANCE> 9
 1.491142e-001 4.202190e-001 1.519653e-001 1.076500e+002 3.680466e+001 4.108080e+002 4.817266e-004 8.844808e-004 1.938003e-004
<GCONST> 2.972079e+000
<MIXTURE> 3 3.605861e-002
<MEAN> 9
 -6.829606e+000 2.403497e+000 -2.762785e+000 -1.429450e+002 -5.923707e+000 1.239879e+002 5.162120e-001 -1.469121e-002 2.177830e-001
<VARIANCE> 9
 1.491142e-001 3.371764e-001 6.976298e-002 2.977951e+001 8.533938e+001 1.210095e+002 4.762525e-004 6.113466e-004 1.938003e-004
<GCONST> -7.371616e-002
<MIXTURE> 4 4.526193e-002
<MEAN> 9
 -9.228917e+000 -2.895584e+000 -1.092370e+000 -8.136178e+001 -1.317073e+001 2.264228e+002 4.527272e-001 1.833334e-001 2.574830e-001
<VARIANCE> 9
 4.215404e-001 3.371764e-001 1.689968e-001 5.079390e+001 4.641085e+001 1.210095e+002 4.762525e-004 6.222199e-004 1.938003e-004
<GCONST> 1.792745e+000
<MIXTURE> 5 4.502530e-002
<MEAN> 9
 -7.798011e+000 3.324953e+000 -1.802417e+000 -1.521377e+002 2.172307e+001 9.325452e+001 5.181611e-001 -6.518264e-002 2.264605e-001
<VARIANCE> 9
 1.491142e-001 3.371764e-001 2.944970e-001 2.977951e+001 3.680466e+001 1.210095e+002 4.762525e-004 5.782502e-004 1.938003e-004
<GCONST> 4.697828e-001
<MIXTURE> 6 3.021264e-002
<MEAN> 9
 -6.735632e+000 7.720264e-001 1.126015e+000 -7.446284e+001 -9.453469e+000 1.339063e+002 5.181804e-001 5.904159e-002 1.586911e-001
<VARIANCE> 9
 1.491142e-001 3.371764e-001 6.976298e-002 2.977951e+001 3.680466e+001 1.210095e+002 4.762525e-004 5.782502e-004 1.938003e-004
<GCONST> -9.703841e-001
<MIXTURE> 7 4.526214e-002
<MEAN> 9
 -7.570275e+000 1.807285e-001 -4.457831e+000 -1.033538e+002 -5.636185e+001 1.970121e+002 4.806062e-001 9.999970e-002 2.210884e-001
<VARIANCE> 9
 5.665427e-001 3.371764e-001 6.976298e-002 6.314914e+001 3.680466e+001 1.210095e+002 4.762525e-004 5.790620e-004 1.938003e-004
<GCONST> 1.117536e+000
<MIXTURE> 8 3.006156e-002
<MEAN> 9
 -7.850267e+000 1.854899e+000 1.985906e+000 -9.340106e+001 -6.167473e-001 9.329565e+001 5.218360e-001 5.923849e-003 1.698824e-001
<VARIANCE> 9
 1.491142e-001 3.371764e-001 1.144209e-001 2.977951e+001 1.641882e+002 1.210095e+002 4.762525e-004 5.782502e-004 1.938003e-004
<GCONST> 1.019786e+000
<MIXTURE> 9 4.950953e-002
<MEAN> 9
 -6.682976e+000 -3.291811e-001 2.334517e+000 -2.454470e+001 -7.218681e+000 3.809247e+001 5.274262e-001 -6.955238e-002 2.098511e-001
<VARIANCE> 9
 1.491142e-001 3.695225e-001 1.300485e-001 2.977951e+001 3.680466e+001 4.337821e+002 4.762525e-004 5.782502e-004 1.938003e-004
<GCONST> 1.020698e+000
<MIXTURE> 10 4.550252e-002
<MEAN> 9
 -7.281055e+000 -2.152278e-001 -2.916474e-001 -9.227894e+001 -1.885710e+001 1.819575e+002 4.943181e-001 9.296347e-002 2.605673e-001
<VARIANCE> 9
 1.491142e-001 3.466286e-001 6.976298e-002 2.977951e+001 3.680466e+001 2.423477e+002 4.762525e-004 5.782502e-004 1.938003e-004
<GCONST> -2.482328e-001
<MIXTURE> 11 5.894313e-002
<MEAN> 9
 -7.704022e+000 2.007099e+000 1.853955e+000 -1.478922e+002 -1.815440e+000 3.977465e+001 5.077164e-001 -1.477227e-001 2.141392e-001
<VARIANCE> 9
 1.491142e-001 3.371764e-001 8.300945e-001 4.847914e+001 5.279905e+001 1.312556e+002 4.762525e-004 5.782502e-004 1.938003e-004
<GCONST> 2.435512e+000
<MIXTURE> 12 3.018660e-002
<MEAN> 9
 -3.783295e+000 -7.108434e-001 2.077942e+000 -4.549315e+001 -5.192696e+001 1.023930e+002 5.227255e-001 -6.044045e-002 2.081722e-001
<VARIANCE> 9
 9.520912e-001 3.371764e-001 1.730693e-001 2.977951e+001 4.857957e+002 2.164486e+002 4.762525e-004 5.782502e-004 1.938003e-004
<GCONST> 4.953799e+000
<MIXTURE> 13 6.034794e-002
<MEAN> 9
 -7.186747e+000 4.578313e-001 4.283133e+000 -8.509146e+001 -7.256097e+000 2.935976e+001 5.261363e-001 -4.977273e-002 1.584184e-001
<VARIANCE> 9
 1.932428e-001 3.946147e-001 8.190599e-002 1.147782e+002 5.624070e+001 1.210095e+002 4.762525e-004 5.782502e-004 1.938003e-004
<GCONST> 1.379821e+000
<MIXTURE> 14 6.027944e-002
<MEAN> 9
 -7.851859e+000 -2.245484e+000 1.260615e-001 -6.142791e+001 -6.503759e+001 1.783658e+002 4.647492e-001 1.663895e-001 1.617295e-001
<VARIANCE> 9
 3.194724e-001 9.192302e-001 6.976298e-002 2.977951e+001 1.761402e+003 1.210095e+002 4.762525e-004 5.955437e-004 1.938003e-004
<GCONST> 4.692213e+000
<MIXTURE> 15 6.031172e-002
<MEAN> 9
 -6.701464e+000 1.270759e+000 7.226409e-001 -8.057978e+001 -2.750539e+001 1.141845e+002 5.195438e-001 -6.607936e-003 2.293981e-001
<VARIANCE> 9
 1.619485e-001 3.371764e-001 6.976298e-002 4.096695e+001 5.204738e+002 1.210095e+002 4.762525e-004 5.782502e-004 1.122278e-003
<GCONST> 3.836529e+000
<MIXTURE> 16 3.768416e-002
<MEAN> 9
 -6.580716e+000 4.407364e-001 1.890667e+000 -5.369612e+001 -2.718626e+001 5.851468e+001 5.226396e-001 -7.066660e-002 2.366540e-001
<VARIANCE> 9
 1.491142e-001 3.371764e-001 1.676928e-001 1.324088e+002 5.505271e+001 4.336057e+002 4.762525e-004 5.782502e-004 1.938003e-004
<GCONST> 3.077653e+000
<MIXTURE> 17 4.526259e-002
<MEAN> 9
 -8.473896e+000 -1.751005e+000 -4.469879e+000 -7.544714e+001 -4.668699e+001 2.315041e+002 4.306060e-001 1.912122e-001 2.251701e-001
<VARIANCE> 9
 1.491142e-001 3.971868e-001 8.022438e-002 4.853841e+001 3.680466e+001 1.210095e+002 4.762525e-004 6.348942e-004 1.938003e-004
<GCONST> -8.487606e-002
<MIXTURE> 18 4.507477e-002
<MEAN> 9
 -7.448110e+000 -1.824524e-002 6.219437e-001 -7.674266e+001 -3.241313e+001 1.518094e+002 5.017570e-001 8.406347e-002 1.961652e-001
<VARIANCE> 9
 1.491142e-001 3.371764e-001 2.113184e-001 1.295506e+002 3.680466e+001 1.210095e+002 4.762525e-004 1.432231e-003 2.275157e-003
<GCONST> 4.978088e+000
<MIXTURE> 19 3.182525e-002
<MEAN> 9
 -7.857035e+000 3.482327e+000 -2.785932e-001 -1.549538e+002 1.408220e+001 7.114646e+001 5.130284e-001 -1.104211e-001 2.321622e-001
<VARIANCE> 9
 1.491142e-001 3.371764e-001 9.848479e-002 2.977951e+001 3.680466e+001 1.210095e+002 4.762525e-004 5.782502e-004 1.938003e-004
<GCONST> -6.255851e-001
<MIXTURE> 20 4.538755e-002
<MEAN> 9
 -6.292738e+000 2.027853e+000 2.289291e+000 -9.625791e+001 -2.662626e+001 6.425263e+001 5.239202e-001 -1.842103e-002 1.643121e-001
<VARIANCE> 9
 1.491142e-001 3.371764e-001 6.976298e-002 2.977951e+001 4.763785e+001 1.210095e+002 4.762525e-004 5.782502e-004 1.938003e-004
<GCONST> -7.123809e-001
<MIXTURE> 21 3.937379e-002
<MEAN> 9
 -7.132993e+000 1.616552e+000 -3.429669e+000 -1.291245e+002 -2.326769e+001 1.562092e+002 5.088382e-001 4.863994e-002 2.161657e-001
<VARIANCE> 9
 1.491142e-001 3.371764e-001 8.753423e-002 4.145517e+001 4.427802e+001 1.210095e+002 4.762525e-004 5.782502e-004 1.938003e-004
<GCONST> -2.277994e-001
<MIXTURE> 22 3.714180e-002
<MEAN> 9
 -5.061306e+000 -6.389509e-001 1.060053e+000 -6.461772e+001 -3.139712e+001 1.778103e+002 5.137668e-001 6.543474e-003 2.334113e-001
<VARIANCE> 9
 8.813065e-001 3.371764e-001 3.892734e-001 2.977951e+001 8.995826e+002 1.468450e+003 4.762525e-004 1.621828e-003 1.938003e-004
<GCONST> 9.249188e+000
<MIXTURE> 23 3.774004e-002
<MEAN> 9
 -6.561595e+000 2.680250e-001 2.017541e+000 -5.067359e+001 -3.151493e+001 5.200557e+001 5.228159e-001 -7.623637e-002 2.343656e-001
<VARIANCE> 9
 1.491142e-001 3.371764e-001 1.203246e-001 9.260709e+001 5.270968e+001 2.930724e+002 4.762525e-004 5.782502e-004 1.938003e-004
<GCONST> 1.952977e+000
<STATE> 4
<NUMMIXES> 23
<MIXTURE> 1 2.869851e-002
<MEAN> 9
 -6.853757e+000 5.506251e+000 -8.014221e-001 -1.181949e+000 7.071617e+001 9.035702e+001 4.939449e-001 -1.802922e-001 2.683506e-001
<VARIANCE> 9
 2.220220e-001 3.670682e-001 7.576917e-001 7.951633e+001 1.104594e+002 1.210095e+002 4.762525e-004 5.782502e-004 1.938003e-004
<GCONST> 3.978957e+000
<MIXTURE> 2 4.853932e-002
<MEAN> 9
 -9.490071e+000 2.037760e+000 4.164252e+000 1.309166e+001 3.759238e+001 2.422277e+001 5.256767e-001 -7.052433e-002 1.959993e-001
<VARIANCE> 9
 1.491142e-001 3.371764e-001 1.555073e-001 2.977951e+001 3.680466e+001 1.210095e+002 4.762525e-004 5.782502e-004 1.938003e-004
<GCONST> -1.687937e-001
<MIXTURE> 3 5.215415e-002
<MEAN> 9
 -8.689422e+000 4.368699e+000 3.951515e+000 1.969847e+001 1.163240e+001 2.303434e+001 5.122456e-001 -1.581078e-001 1.974904e-001
<VARIANCE> 9
 4.812535e-001 1.146959e+000 4.464829e-001 2.594700e+002 4.752275e+002 1.210095e+002 4.762525e-004 9.262336e-004 1.938003e-004
<GCONST> 8.475966e+000
<MIXTURE> 4 3.817321e-002
<MEAN> 9
 -7.337832e+000 5.997045e+000 1.166027e+000 3.581221e+001 1.158449e+000 2.931779e+001 5.013653e-001 -1.924959e-001 2.112261e-001
<VARIANCE> 9
 2.057634e+000 3.371764e-001 1.371964e-001 2.977951e+001 3.533126e+002 1.210095e+002 4.762525e-004 5.782502e-004 1.938003e-004
<GCONST> 4.592254e+000
<MIXTURE> 5 6.702412e-002
<MEAN> 9
 -8.253515e+000 2.459579e-001 4.790289e+000 -7.456058e+001 -2.535312e+000 3.288681e+000 5.119545e-001 -1.638020e-001 1.875793e-001
<VARIANCE> 9
 1.491142e-001 3.371764e-001 2.810985e-001 1.080014e+003 3.680466e+001 1.210095e+002 4.762525e-004 5.782502e-004 1.938003e-004
<GCONST> 4.014129e+000
<MIXTURE> 6 3.586183e-002
<MEAN> 9
 -9.927489e+000 3.285549e+000 2.999801e+000 -6.943202e-002 1.338264e+001 1.516785e+001 5.214343e-001 -1.072175e-001 2.169748e-001
<VARIANCE> 9
 1.491142e-001 3.371764e-001 6.976298e-002 2.977951e+001 3.680466e+001 1.210095e+002 4.762525e-004 5.782502e-004 1.938003e-004
<GCONST> -9.703841e-001
<MIXTURE> 7 3.837153e-002
<MEAN> 9
 -6.120446e+000 5.661058e+000 1.852192e-001 -4.783451e+001 8.792999e+001 5.730130e+001 4.607700e-001 -2.386531e-001 3.025934e-001
<VARIANCE> 9
 3.835759e-001 3.371764e-001 6.976298e-002 1.629632e+002 1.044264e+002 1.423507e+002 4.762525e-004 5.782502e-004 2.004225e-004
<GCONST> 2.913028e+000
<MIXTURE> 8 4.856138e-002
<MEAN> 9
 -8.306424e+000 4.077465e+000 2.362098e+000 1.354729e+001 1.629835e+001 4.510558e+001 5.061490e-001 -1.400709e-001 2.485521e-001
<VARIANCE> 9
 1.491142e-001 3.371764e-001 1.727328e-001 2.977951e+001 3.680466e+001 1.210095e+002 4.762525e-004 5.782502e-004 1.938003e-004
<GCONST> -6.374073e-002
<MIXTURE> 9 4.441637e-002
<MEAN> 9
 -8.983869e+000 6.551955e-002 5.010182e+000 -2.474266e+001 2.468830e+001 1.456660e+001 5.251720e-001 -5.508516e-002 1.656373e-001
<VARIANCE> 9
 2.589860e-001 3.371764e-001 6.976298e-002 3.866841e+002 5.131707e+001 1.210095e+002 4.762525e-004 5.782502e-004 1.938003e-004
<GCONST> 2.477862e+000
<MIXTURE> 10 3.545289e-002
<MEAN> 9
 -8.772005e+000 1.344328e+000 2.338395e+000 -1.031593e+001 1.944176e+000 7.791659e+000 5.257136e-001 -9.284808e-002 2.101294e-001
<VARIANCE> 9
 8.498488e-001 4.033969e-001 7.673067e-002 2.977951e+001 4.433421e+001 2.127571e+002 4.762525e-004 5.782502e-004 1.938003e-004
<GCONST> 1.794888e+000
<MIXTURE> 11 6.674638e-002
<MEAN> 9
 -1.059217e+001 3.813539e+000 1.668543e+000 -4.680758e+000 2.832999e+001 5.110596e+001 5.177858e-001 -1.219462e-001 2.243483e-001
<VARIANCE> 9
 3.278768e-001 3.371764e-001 1.551438e-001 2.977951e+001 2.039433e+002 1.446868e+002 4.762525e-004 5.782502e-004 2.262112e-004
<GCONST> 2.662352e+000
<MIXTURE> 12 5.716335e-002
<MEAN> 9
 -7.366368e+000 4.568856e+000 1.306445e+000 -8.644518e+001 4.584685e+001 4.941042e+001 4.830175e-001 -2.142595e-001 2.360625e-001
<VARIANCE> 9
 3.785147e-001 3.371764e-001 2.610179e-001 2.455042e+002 6.019917e+001 1.210095e+002 4.762525e-004 5.782502e-004 1.938003e-004
<GCONST> 3.882171e+000
<MIXTURE> 13 5.742700e-002
<MEAN> 9
 -7.891807e+000 5.094681e+000 1.999237e-001 -2.575454e+001 2.539477e+001 6.432072e+001 5.079910e-001 -1.526883e-001 2.211136e-001
<VARIANCE> 9
 8.720352e-001 3.371764e-001 1.718043e-001 2.360822e+002 2.378734e+002 1.210095e+002 4.762525e-004 5.782502e-004 1.938003e-004
<GCONST> 5.633460e+000
<MIXTURE> 14 3.470643e-002
<MEAN> 9
 -9.324950e+000 3.083299e+000 2.608216e+000 1.670219e+001 2.022623e+001 3.004570e+001 5.221009e-001 -9.551548e-002 2.234087e-001
<VARIANCE> 9
 1.491142e-001 3.371764e-001 2.167169e-001 2.977951e+001 4.390002e+001 1.210095e+002 4.762525e-004 5.782502e-004 1.938003e-004
<GCONST> 3.393927e-001
<MIXTURE> 15 3.289929e-002
<MEAN> 9
 -5.924123e+000 6.045610e+000 1.140363e+000 -6.704682e+001 6.423142e+000 3.851554e+001 4.613872e-001 -2.435908e-001 2.791388e-001
<VARIANCE> 9
 8.120493e-001 3.371764e-001 1.301095e-001 2.977951e+001 7.025790e+002 1.210095e+002 4.762525e-004 5.782502e-004 1.938003e-004
<GCONST> 4.296870e+000
<MIXTURE> 16 2.804982e-002
<MEAN> 9
 -8.877439e+000 3.629666e+000 2.177299e+000 3.504778e+000 1.807658e+001 7.441606e+001 5.071439e-001 -1.496182e-001 2.453240e-001
<VARIANCE> 9
 1.491142e-001 3.371764e-001 7.783786e-002 6.035518e+001 7.049899e+001 3.278947e+002 4.762525e-004 5.782502e-004 1.938003e-004
<GCONST> 1.492364e+000
<MIXTURE> 17 4.319717e-002
<MEAN> 9
 -8.975074e+000 2.674469e+000 5.234871e+000 4.455950e+000 1.241036e+001 7.686464e+000 5.094859e-001 -1.762637e-001 1.819227e-001
<VARIANCE> 9
 1.491142e-001 4.893925e-001 6.976298e-002 1.350782e+002 3.680466e+001 1.210095e+002 4.762525e-004 5.782502e-004 1.938003e-004
<GCONST> 9.142065e-001
<MIXTURE> 18 3.820498e-002
<MEAN> 9
 -7.933692e+000 5.424707e+000 -2.679864e-001 -3.375183e+001 2.333827e+001 4.897929e+001 4.768191e-001 -2.052276e-001 2.844356e-001
<VARIANCE> 9
 1.491142e-001 3.371764e-001 1.359617e-001 1.506488e+002 3.680466e+001 1.210095e+002 4.762525e-004 5.782502e-004 1.938003e-004
<GCONST> 1.318015e+000
<MIXTURE> 19 4.226216e-002
<MEAN> 9
 -9.475226e+000 2.947388e+000 2.981494e+000 -3.658458e+000 6.223706e+000 6.380609e+000 5.239117e-001 -1.031219e-001 2.136655e-001
<VARIANCE> 9
 1.491142e-001 3.371764e-001 6.976298e-002 2.977951e+001 3.680466e+001 1.210095e+002 4.762525e-004 5.782502e-004 1.938003e-004
<GCONST> -9.703841e-001
<MIXTURE> 20 4.324395e-002
<MEAN> 9
 -5.615950e+000 6.240348e+000 1.525289e+000 -7.624396e+001 6.317171e+001 9.477084e+000 4.425888e-001 -2.571472e-001 3.057468e-001
<VARIANCE> 9
 7.175591e-001 3.371764e-001 5.981374e-001 2.977951e+001 1.401046e+003 1.210095e+002 4.762525e-004 5.782502e-004 9.666325e-004
<GCONST> 7.995813e+000
<MIXTURE> 21 4.769868e-002
<MEAN> 9
 -8.957110e+000 5.146710e+000 1.028918e+000 2.578204e+000 3.356218e+001 3.861204e+001 4.979964e-001 -1.729218e-001 2.714345e-001
<VARIANCE> 9
 3.065210e-001 3.371764e-001 1.159187e-001 5.489550e+001 3.680466e+001 1.210095e+002 4.762525e-004 5.782502e-004 1.938003e-004
<GCONST> 8.695860e-001
<MIXTURE> 22 3.659603e-002
<MEAN> 9
 -8.716415e+000 9.682182e-001 2.250946e+000 -1.214687e+001 1.149715e+000 1.548476e+001 5.240127e-001 -9.123908e-002 2.084837e-001
<VARIANCE> 9
 1.120480e+000 4.651592e-001 9.996918e-002 2.977951e+001 3.680466e+001 2.484803e+002 4.762525e-004 5.782502e-004 1.938003e-004
<GCONST> 2.447442e+000
<MIXTURE> 23 3.455149e-002
<MEAN> 9
 -9.360017e+000 3.089986e+000 2.563739e+000 1.667049e+001 1.977569e+001 3.056460e+001 5.213521e-001 -9.811411e-002 2.234181e-001
<VARIANCE> 9
 1.491142e-001 3.371764e-001 2.143710e-001 2.977951e+001 3.680466e+001 1.210095e+002 4.762525e-004 5.782502e-004 1.938003e-004
<GCONST> 1.522207e-001
<STATE> 5
<NUMMIXES> 23
<MIXTURE> 1 2.139551e-002
<MEAN> 9
 -1.630119e+000 1.076196e+001 1.188794e+001 9.138240e+000 -5.034794e+001 2.526263e+001 4.465885e-001 -2.661383e-001 2.808752e-001
<VARIANCE> 9
 2.697205e+001 3.494820e-001 3.405125e+001 1.634934e+003 6.648344e+002 8.589453e+002 5.191847e-004 5.782502e-004 3.723144e-003
<GCONST> 2.235492e+001
<MIXTURE> 2 4.935386e-002
<MEAN> 9
 -7.193991e+000 7.644596e+000 1.205907e+000 -8.555824e+000 -2.377309e+001 6.583663e+000 4.260322e-001 -2.757197e-001 3.344176e-001
<VARIANCE> 9
 6.631444e-001 3.371764e-001 5.521913e-001 6.113554e+001 2.453743e+002 1.210095e+002 4.762525e-004 5.782502e-004 1.938003e-004
<GCONST> 5.207118e+000
<MIXTURE> 3 3.927076e-002
<MEAN> 9
 -6.521297e+000 -1.207009e+000 1.521835e+001 -6.573099e+001 -3.083657e+000 9.600338e+000 4.509124e-001 -2.711768e-001 2.029437e-001
<VARIANCE> 9
 3.828699e+001 1.320144e+001 2.857940e+001 2.355408e+003 3.512479e+003 3.264722e+002 4.762525e-004 8.907228e-004 3.250145e-003
<GCONST> 2.743381e+001
<MIXTURE> 4 5.378307e-002
<MEAN> 9
 -8.031307e+000 6.339897e+000 2.503007e+000 7.330821e+001 -3.278888e+001 5.903044e+000 4.814821e-001 -2.309298e-001 2.386917e-001
<VARIANCE> 9
 1.287836e+000 3.371764e-001 6.268544e+000 1.499721e+002 3.689372e+002 1.210095e+002 4.762525e-004 5.782502e-004 1.938003e-004
<GCONST> 9.605449e+000
<MIXTURE> 5 2.660314e-002
<MEAN> 9
 -6.696361e+000 3.568864e+000 5.302193e+000 -2.529957e+000 -1.412124e+001 6.156766e+000 4.478230e-001 -2.827575e-001 1.704516e-001
<VARIANCE> 9
 6.858546e-001 3.371764e-001 2.213727e+000 3.206356e+001 1.232830e+002 1.210095e+002 4.762525e-004 5.782502e-004 1.956110e-003
<GCONST> 7.607538e+000
<MIXTURE> 6 4.970919e-002
<MEAN> 9
 -1.032669e+001 4.940341e+000 1.327018e+000 3.690351e+001 1.792312e+001 -5.447358e+000 4.431427e-001 -2.933205e-001 1.789977e-001
<VARIANCE> 9
 1.030804e+000 6.552957e-001 1.462958e+000 2.046740e+002 2.273180e+003 1.210095e+002 4.762525e-004 5.782502e-004 7.415497e-004
<GCONST> 1.206341e+001
<MIXTURE> 7 3.528012e-002
<MEAN> 9
 -9.132894e+000 4.151927e+000 -1.308372e+000 -3.643101e+001 1.554233e+001 1.219587e+001 4.792025e-001 -2.361516e-001 2.444383e-001
<VARIANCE> 9
 2.667955e-001 3.371764e-001 5.628384e+000 2.292256e+003 3.680466e+001 1.210095e+002 4.762525e-004 5.782502e-004 1.938003e-004
<GCONST> 8.345332e+000
<MIXTURE> 8 3.765517e-002
<MEAN> 9
 -9.134077e+000 1.324306e+000 7.645300e+000 3.485978e+001 -1.207175e+001 -2.049869e+000 4.392940e-001 -2.990144e-001 1.303570e-001
<VARIANCE> 9
 4.966208e-001 3.371764e-001 4.138032e+000 1.304916e+003 1.031044e+003 1.822345e+002 4.762525e-004 5.782502e-004 1.938003e-004
<GCONST> 1.183781e+001
<MIXTURE> 9 4.230583e-002
<MEAN> 9
 -7.671678e+000 4.448537e+000 3.049569e+000 -1.352257e+002 7.837849e+001 4.438415e+000 4.781426e-001 -2.337372e-001 2.218281e-001
<VARIANCE> 9
 1.080709e+000 3.371764e-001 5.259688e+000 2.964556e+002 3.556304e+002 1.210095e+002 4.762525e-004 5.782502e-004 1.938003e-004
<GCONST> 9.899344e+000
<MIXTURE> 10 4.173813e-002
<MEAN> 9
 -9.607983e+000 3.084697e+000 1.398915e+000 -8.944508e+001 2.887810e+001 2.337774e+001 4.703740e-001 -2.550834e-001 2.102082e-001
<VARIANCE> 9
 3.201957e-001 3.371764e-001 2.540607e-001 2.479338e+002 3.680466e+001 1.210095e+002 4.762525e-004 5.782502e-004 1.938003e-004
<GCONST> 3.205646e+000
<MIXTURE> 11 6.353334e-002
<MEAN> 9
 -8.639562e+000 5.306813e+000 3.190516e+000 -1.702381e+001 2.240423e+001 -1.310766e+001 4.667636e-001 -2.472493e-001 2.399085e-001
<VARIANCE> 9
 2.849308e+000 1.765223e+000 1.033032e+000 2.473498e+003 1.288854e+003 1.210095e+002 4.762525e-004 5.782502e-004 1.938003e-004
<GCONST> 1.430576e+001
<MIXTURE> 12 5.386770e-002
<MEAN> 9
 -8.561907e+000 6.665164e+000 1.663655e+000 8.555879e+000 6.583296e+000 -4.782273e+000 4.657166e-001 -2.519355e-001 2.394345e-001
<VARIANCE> 9
 5.339299e-001 6.183316e-001 1.291892e+000 2.712941e+002 4.081315e+001 1.210095e+002 4.762525e-004 5.782502e-004 1.938003e-004
<GCONST> 6.143107e+000
<MIXTURE> 13 3.281097e-002
<MEAN> 9
 -7.885755e+000 1.764825e+000 3.254389e+000 -1.471108e+002 3.482341e+001 3.113609e+001 4.509737e-001 -2.895507e-001 1.844570e-001
<VARIANCE> 9
 1.289813e+000 3.371764e-001 3.752682e+000 8.788406e+002 1.923813e+002 1.210095e+002 4.762525e-004 5.782502e-004 3.105532e-004
<GCONST> 1.068244e+001
<MIXTURE> 14 5.842698e-002
<MEAN> 9
 -6.832078e+000 5.945371e+000 3.861378e+000 8.782910e+000 -8.972235e+000 -2.596826e+000 4.625358e-001 -2.587041e-001 2.298744e-001
<VARIANCE> 9
 3.771632e-001 3.371764e-001 7.342681e-001 8.462431e+001 3.680466e+001 1.210095e+002 4.762525e-004 5.782502e-004 1.938003e-004
<GCONST> 3.355754e+000
<MIXTURE> 15 5.588961e-002
<MEAN> 9
 -7.043561e+000 5.679476e+000 -3.417949e-002 -2.716725e+001 -1.770523e+000 1.534272e+001 4.811663e-001 -2.265055e-001 2.231957e-001
<VARIANCE> 9
 2.981719e+000 3.371764e-001 1.520395e+001 1.373859e+003 7.955614e+002 1.210095e+002 4.762525e-004 5.782502e-004 1.938003e-004
<GCONST> 1.431435e+001
<MIXTURE> 16 6.362021e-002
<MEAN> 9
 -7.881035e+000 3.267171e+000 4.675212e+000 6.345720e+000 -1.100864e+001 8.634995e-001 4.419756e-001 -2.997136e-001 1.594942e-001
<VARIANCE> 9
 1.617082e-001 4.163846e-001 9.533004e-001 2.977951e+001 2.173898e+002 1.210095e+002 4.762525e-004 5.782502e-004 9.003460e-004
<GCONST> 5.248543e+000
<MIXTURE> 17 5.166787e-002
<MEAN> 9
 -8.509902e+000 4.644545e+000 2.110391e-001 -6.647190e+001 1.610856e+001 -1.007282e+001 4.396212e-001 -2.870179e-001 2.800776e-001
<VARIANCE> 9
 3.210292e-001 3.371764e-001 1.261246e-001 3.026200e+002 1.277949e+002 1.210095e+002 4.762525e-004 5.782502e-004 1.938003e-004
<GCONST> 3.952060e+000
<MIXTURE> 18 3.624036e-002
<MEAN> 9
 -7.974600e+000 4.677661e+000 1.626716e+000 -8.833121e+000 -7.887860e+000 -1.476190e+001 4.674958e-001 -2.524255e-001 2.292360e-001
<VARIANCE> 9
 1.491142e-001 3.371764e-001 2.373344e-001 1.706687e+002 3.680466e+001 1.210095e+002 4.762525e-004 5.782502e-004 1.938003e-004
<GCONST> 1.999888e+000
<MIXTURE> 19 3.687917e-002
<MEAN> 9
 -7.481713e+000 7.027632e+000 3.170172e-002 -8.385063e+000 4.353856e+000 -9.389470e+000 4.237532e-001 -2.790284e-001 3.300628e-001
<VARIANCE> 9
 5.618415e-001 3.371764e-001 8.607066e-001 7.985948e+002 3.222583e+002 1.210095e+002 4.762525e-004 5.782502e-004 5.514417e-004
<GCONST> 9.373240e+000
<MIXTURE> 20 4.337142e-002
<MEAN> 9
 -8.724497e+000 3.529963e+000 1.718323e+000 -4.894258e+001 1.269216e+001 -9.036374e+000 4.767105e-001 -2.400597e-001 2.204147e-001
<VARIANCE> 9
 2.582463e-001 3.371764e-001 5.677587e-001 2.317658e+002 4.389168e+001 1.556571e+002 4.762525e-004 5.782502e-004 1.938003e-004
<GCONST> 4.155204e+000
<MIXTURE> 21 3.908283e-002
<MEAN> 9
 -8.320997e+000 3.435258e+000 9.508723e-001 -1.208495e+002 2.415687e+001 2.126324e+001 4.479290e-001 -2.901558e-001 2.294276e-001
<VARIANCE> 9
 1.498866e-001 3.371764e-001 6.710389e-001 1.921596e+002 3.680466e+001 1.796962e+002 4.762525e-004 6.147242e-004 2.078406e-004
<GCONST> 3.689522e+000
<MIXTURE> 22 3.551049e-002
<MEAN> 9
 -7.641623e+000 -2.549421e+000 1.464671e+001 -1.024399e+002 -5.635039e-001 6.775076e+000 4.406072e-001 -2.933395e-001 1.888841e-001
<VARIANCE> 9
 2.189070e+001 6.585778e+000 4.072360e+001 1.835304e+003 2.406492e+003 3.576406e+002 4.762525e-004 6.421769e-004 3.132190e-003
<GCONST> 2.563287e+001
<MIXTURE> 23 3.200435e-002
<MEAN> 9
 -8.275131e+000 1.644175e+000 3.670348e+000 -1.481533e+002 3.580797e+001 2.770140e+001 4.480506e-001 -2.938347e-001 1.762871e-001
<VARIANCE> 9
 1.220142e+000 3.371764e-001 5.162742e+000 7.562474e+002 2.271386e+002 1.210095e+002 4.762525e-004 5.782502e-004 2.845360e-004
<GCONST> 1.087426e+001
<STATE> 6
<NUMMIXES> 23
<MIXTURE> 1 4.176342e-002
<MEAN> 9
 -6.086545e+000 6.479663e-001 2.107792e+000 1.528945e+002 -3.993185e+001 -1.106140e+002 4.984677e-001 -1.911436e-001 1.882184e-001
<VARIANCE> 9
 1.491142e-001 3.371764e-001 3.816353e-001 1.797832e+002 9.289344e+002 1.210095e+002 4.762525e-004 5.782502e-004 1.938003e-004
<GCONST> 5.755321e+000
<MIXTURE> 2 4.167782e-002
<MEAN> 9
 -5.912266e+000 2.170249e+000 1.262688e+000 1.442231e+002 -1.457252e+002 -1.322469e+002 4.984014e-001 -1.805377e-001 8.765940e-002
<VARIANCE> 9
 4.541030e-001 3.371764e-001 6.976298e-002 1.181102e+002 1.713031e+002 6.887468e+002 4.762525e-004 8.990624e-004 7.828781e-004
<GCONST> 6.635333e+000
<MIXTURE> 3 3.862807e-002
<MEAN> 9
 -6.918654e+000 9.247551e-001 2.660635e+000 1.405669e+002 -5.058174e+001 -7.888653e+001 4.816541e-001 -2.326677e-001 1.938811e-001
<VARIANCE> 9
 1.536668e-001 3.371764e-001 1.401567e-001 2.224410e+002 2.692049e+002 1.210095e+002 4.762525e-004 5.782502e-004 6.158774e-004
<GCONST> 4.914256e+000
<MIXTURE> 4 3.657828e-002
<MEAN> 9
 -7.499880e+000 -1.084809e+000 1.466023e+000 6.399339e+001 -5.970554e+001 -2.571721e+002 4.830942e-001 6.243433e-002 1.384786e-002
<VARIANCE> 9
 5.914656e-001 1.827511e+000 9.392021e-001 5.892634e+002 6.143840e+002 1.518415e+002 4.762525e-004 6.552461e-003 2.990253e-003
<GCONST> 1.588843e+001
<MIXTURE> 5 2.062488e-002
<MEAN> 9
 -5.578414e+000 6.869076e-001 -7.798115e-002 1.764927e+002 -9.304897e+001 -1.381609e+002 5.063580e-001 -1.695587e-001 2.081639e-001
<VARIANCE> 9
 1.491142e-001 3.371764e-001 6.976298e-002 2.977951e+001 4.335439e+001 1.247990e+002 4.762525e-004 5.782502e-004 1.938003e-004
<GCONST> -7.757659e-001
<MIXTURE> 6 6.245074e-002
<MEAN> 9
 -8.368484e+000 7.323477e-001 6.254345e+000 3.644458e+001 -3.323798e+001 -1.019211e+001 4.591961e-001 -2.686620e-001 1.707284e-001
<VARIANCE> 9
 1.491142e-001 5.082785e-001 6.976298e-002 5.442187e+002 3.680466e+001 1.210095e+002 4.762525e-004 5.782502e-004 1.938003e-004
<GCONST> 2.345569e+000
<MIXTURE> 7 3.693809e-002
<MEAN> 9
 -7.901670e+000 -5.122923e-001 -1.773387e-001 1.491913e+002 -5.876534e+000 -2.292639e+002 5.208538e-001 3.676531e-002 1.590330e-001
<VARIANCE> 9
 4.617259e+000 3.371764e-001 4.018460e-001 2.977951e+001 1.180343e+003 1.256843e+002 4.762525e-004 1.750936e-003 1.938003e-004
<GCONST> 8.827163e+000
<MIXTURE> 8 4.132346e-002
<MEAN> 9
 -6.987914e+000 6.311284e-002 4.691198e+000 1.180957e+002 -5.453568e+001 -4.858809e+001 4.670281e-001 -2.616275e-001 1.630102e-001
<VARIANCE> 9
 1.491142e-001 3.371764e-001 3.981699e-001 6.028568e+002 3.696885e+001 1.210095e+002 4.762525e-004 5.782502e-004 1.938003e-004
<GCONST> 3.783702e+000
<MIXTURE> 9 5.071411e-002
<MEAN> 9
 -9.970635e+000 -3.357743e+000 9.144153e-001 3.113364e+001 1.263691e+001 -3.070396e+002 4.414217e-001 1.734561e-001 3.117140e-002
<VARIANCE> 9
 1.503875e-001 3.603787e-001 1.803661e+000 1.597614e+002 4.011597e+002 6.753616e+002 4.762525e-004 6.565005e-004 3.563430e-003
<GCONST> 1.118368e+001
<MIXTURE> 10 7.063934e-002
<MEAN> 9
 -8.837153e+000 -1.108703e+000 -1.580636e+000 1.018650e+002 -5.878212e+001 -2.929011e+002 4.992996e-001 8.149237e-002 1.038378e-001
<VARIANCE> 9
 1.984647e+000 3.843009e-001 4.800452e-001 5.758987e+002 1.573228e+003 1.105786e+003 4.762525e-004 3.682791e-003 1.938003e-004
<GCONST> 1.445893e+001
<MIXTURE> 11 6.076750e-002
<MEAN> 9
 -7.877903e+000 2.196035e+000 5.692865e+000 5.388239e+001 -3.430336e+001 -1.751291e+001 4.310586e-001 -3.175786e-001 1.928744e-001
<VARIANCE> 9
 1.491142e-001 4.852326e-001 7.697064e-002 5.699117e+002 3.680466e+001 1.210095e+002 4.762525e-004 5.782502e-004 1.938003e-004
<GCONST> 2.443622e+000
<MIXTURE> 12 5.179190e-002
<MEAN> 9
 -6.135566e+000 4.072076e-001 -8.371358e-001 1.748752e+002 -1.125059e+002 -2.094134e+002 5.202000e-001 -1.007835e-001 1.646348e-001
<VARIANCE> 9
 1.519908e-001 3.371764e-001 7.223853e-002 1.426195e+002 2.389379e+002 4.638496e+002 4.762525e-004 2.574181e-003 1.938003e-004
<GCONST> 5.357502e+000
<MIXTURE> 13 4.086443e-002
<MEAN> 9
 -7.671522e+000 1.056481e+000 1.610460e+000 1.643404e+002 -1.094947e+002 -6.882291e+001 4.788987e-001 -2.474400e-001 1.450077e-001
<VARIANCE> 9
 1.319195e+000 3.371764e-001 4.916330e-001 2.977951e+001 4.004129e+002 1.210095e+002 4.762525e-004 5.782502e-004 1.938003e-004
<GCONST> 5.549182e+000
<MIXTURE> 14 3.092646e-002
<MEAN> 9
 -7.417626e+000 4.578641e-001 7.831379e+000 1.108728e+002 -7.408608e+001 -4.375940e+001 4.439388e-001 -2.936371e-001 1.336738e-001
<VARIANCE> 9
 1.912410e-001 3.371764e-001 2.851694e-001 1.992151e+002 4.932986e+001 1.210095e+002 4.762525e-004 5.782502e-004 1.938003e-004
<GCONST> 2.879886e+000
<MIXTURE> 15 4.140482e-002
<MEAN> 9
 -6.867845e+000 2.176543e-001 1.223734e+000 1.852910e+002 -5.732365e+001 -1.211612e+002 4.902232e-001 -2.133561e-001 1.782838e-001
<VARIANCE> 9
 1.491142e-001 3.371764e-001 1.235525e-001 1.072590e+002 2.830025e+002 2.231913e+002 4.762525e-004 2.167326e-003 1.938003e-004
<GCONST> 4.855841e+000
<MIXTURE> 16 6.185558e-002
<MEAN> 9
 -7.377383e+000 2.611031e-001 -7.436679e-002 1.793414e+002 -7.199747e+001 -1.674002e+002 5.201501e-001 -1.168250e-001 1.855429e-001
<VARIANCE> 9
 1.491142e-001 3.371764e-001 6.976298e-002 8.826091e+001 4.454716e+002 1.719854e+002 4.762525e-004 1.311400e-003 1.938003e-004
<GCONST> 3.779984e+000
<MIXTURE> 17 4.137510e-002
<MEAN> 9
 -6.848639e+000 9.506128e-003 6.574945e+000 8.812540e+001 -3.960375e+001 -1.782092e+001 4.502743e-001 -2.855935e-001 1.449833e-001
<VARIANCE> 9
 1.491142e-001 3.371764e-001 3.899054e-001 5.204621e+002 4.771372e+001 1.210095e+002 4.762525e-004 5.782502e-004 1.938003e-004
<GCONST> 3.870906e+000
<MIXTURE> 18 4.737257e-002
<MEAN> 9
 -8.625693e+000 -6.836559e-001 -1.368988e+000 1.416473e+002 -5.046824e+001 -2.557681e+002 5.160202e-001 2.260616e-002 1.396416e-001
<VARIANCE> 9
 4.313551e+000 3.371764e-001 6.976298e-002 4.769757e+001 6.545339e+002 2.193746e+002 4.762525e-004 4.279663e-003 1.938003e-004
<GCONST> 8.340314e+000
<MIXTURE> 19 4.162979e-002
<MEAN> 9
 -8.987164e+000 3.627431e-001 4.597058e+000 1.583087e+002 -5.846659e+001 -5.386143e+001 4.608133e-001 -2.775063e-001 1.447904e-001
<VARIANCE> 9
 1.491142e-001 3.371764e-001 9.495232e-001 7.390848e+001 3.680466e+001 1.210095e+002 4.762525e-004 5.782502e-004 1.938003e-004
<GCONST> 2.549479e+000
<MIXTURE> 20 3.214160e-002
<MEAN> 9
 -8.072643e+000 1.299815e+000 4.455049e+000 1.182769e+002 -5.391890e+001 -4.413722e+001 4.473955e-001 -2.949357e-001 1.977090e-001
<VARIANCE> 9
 1.491142e-001 3.371764e-001 1.713140e-001 1.304879e+002 6.262576e+001 1.210095e+002 4.762525e-004 5.782502e-004 1.938003e-004
<GCONST> 1.937022e+000
<MIXTURE> 21 4.300841e-002
<MEAN> 9
 -6.928699e+000 8.748674e-001 2.637892e+000 1.608353e+002 -6.427310e+001 -7.303192e+001 4.667108e-001 -2.635410e-001 1.953225e-001
<VARIANCE> 9
 2.747723e-001 3.371764e-001 1.799435e-001 1.815152e+002 3.680466e+001 1.210095e+002 4.762525e-004 5.782502e-004 5.139448e-004
<GCONST> 3.371191e+000
<MIXTURE> 22 3.052428e-002
<MEAN> 9
 -5.477334e+000 1.936497e+000 1.027744e+000 1.140891e+002 -1.401095e+002 -1.898396e+002 5.074049e-001 -1.121994e-001 2.715393e-002
<VARIANCE> 9
 1.491142e-001 3.879510e-001 6.976298e-002 3.188147e+002 1.047515e+002 7.825742e+002 4.762525e-004 1.273220e-003 8.722680e-004
<GCONST> 6.746928e+000
<MIXTURE> 23 3.499930e-002
<MEAN> 9
 -8.055581e+000 -1.830916e+000 1.720942e+000 4.547807e+001 -5.549556e+001 -2.687214e+002 4.736065e-001 8.061588e-002 -7.887663e-003
<VARIANCE> 9
 5.699294e-001 1.442368e+000 1.249606e+000 4.876141e+002 2.285190e+002 1.664168e+002 4.762525e-004 3.463635e-003 2.779069e-003
<GCONST> 1.410276e+001
<STATE> 7
<NUMMIXES> 23
<MIXTURE> 1 5.880112e-002
<MEAN> 9
 -2.553130e+000 -1.052557e+001 4.783273e+000 -3.383455e+001 1.193070e+002 -3.031687e+001 -9.538667e-003 3.701771e-001 1.775271e-001
<VARIANCE> 9
 2.600582e+000 9.298382e-001 1.841824e-001 1.836023e+002 5.445333e+003 3.397001e+002 4.762525e-004 5.782502e-004 1.938003e-004
<GCONST> 1.172166e+001
<MIXTURE> 2 5.295685e-002
<MEAN> 9
 -1.070072e+001 -7.087197e+000 2.043397e+000 2.810959e+001 2.500706e+001 -2.679960e+002 3.148870e-001 3.090791e-001 8.086291e-002
<VARIANCE> 9
 8.162793e-001 4.777425e-001 4.536144e-001 1.262894e+003 7.547269e+002 1.210095e+002 5.127054e-004 5.782502e-004 1.938003e-004
<GCONST> 9.792094e+000
<MIXTURE> 3 3.486434e-002
<MEAN> 9
 -1.044177e+001 -4.919699e+000 1.630516e+000 8.652415e+001 6.544849e+000 -2.701625e+002 4.087869e-001 2.430312e-001 9.285693e-002
<VARIANCE> 9
 2.733142e-001 3.895665e-001 2.973168e-001 2.977951e+001 3.680466e+001 1.210095e+002 4.762525e-004 6.790170e-004 1.938003e-004
<GCONST> 1.390286e+000
<MIXTURE> 4 4.077984e-002
<MEAN> 9
 -6.757881e+000 -1.095081e+001 2.184668e+000 -3.761287e+001 1.103526e+002 -8.755217e+001 1.510837e-002 3.738565e-001 1.458333e-001
<VARIANCE> 9
 1.491142e-001 1.076937e+000 3.782502e-001 2.977951e+001 7.531158e+002 1.799146e+002 4.762525e-004 5.782502e-004 9.235317e-004
<GCONST> 6.857923e+000
<MIXTURE> 5 4.552455e-002
<MEAN> 9
 -7.728634e+000 -1.087769e+001 2.458902e+000 -3.114991e+001 6.325327e+001 -1.608946e+002 8.482221e-002 3.812805e-001 9.855723e-002
<VARIANCE> 9
 1.779253e-001 3.371764e-001 6.976298e-002 2.977951e+001 2.770682e+002 6.718468e+002 7.548298e-004 5.782502e-004 1.938003e-004
<GCONST> 3.399613e+000
<MIXTURE> 6 2.341184e-002
<MEAN> 9
 -5.397910e+000 -9.566598e+000 2.393774e+000 -4.163704e+001 1.966011e+001 -2.360477e+001 -8.500519e-003 3.610348e-001 1.631468e-001
<VARIANCE> 9
 1.491142e-001 3.371764e-001 6.976298e-002 2.977951e+001 2.602468e+002 1.210095e+002 4.762525e-004 5.782502e-004 1.938003e-004
<GCONST> 9.856215e-001
<MIXTURE> 7 5.852372e-002
<MEAN> 9
 -1.011344e+001 -9.620406e+000 1.820138e+000 -1.394536e+000 3.054504e+001 -2.533490e+002 2.254583e-001 3.549011e-001 8.331686e-002
<VARIANCE> 9
 3.441425e-001 1.634694e+000 2.004571e-001 7.037268e+002 4.935074e+002 1.210095e+002 7.445565e-004 5.782502e-004 2.663447e-004
<GCONST> 9.023347e+000
<MIXTURE> 8 3.462300e-002
<MEAN> 9
 -8.219508e+000 -1.274053e+001 2.668715e+000 -5.184320e+001 3.872713e+001 -1.736503e+002 5.731979e-002 3.745882e-001 1.484420e-001
<VARIANCE> 9
 1.376602e+000 4.094817e-001 4.529273e-001 1.992739e+002 2.477106e+002 2.787162e+003 1.209219e-003 5.782502e-004 1.938003e-004
<GCONST> 1.119338e+001
<MIXTURE> 9 5.770534e-002
<MEAN> 9
 -1.196958e+001 -6.786866e+000 -2.786884e-001 4.943068e+000 9.301394e+001 -3.115661e+002 3.586747e-001 2.783391e-001 6.268274e-002
<VARIANCE> 9
 4.940061e+000 8.936258e-001 1.568027e+000 6.343360e+001 6.426394e+002 5.500619e+002 1.090846e-003 5.782502e-004 2.399637e-003
<GCONST> 1.509249e+001
<MIXTURE> 10 4.648549e-002
<MEAN> 9
 -8.130572e+000 -9.170609e+000 3.428055e+000 1.320296e+001 1.469931e+002 -2.042315e+001 -1.835503e-002 3.635732e-001 1.601979e-001
<VARIANCE> 9
 4.367181e+000 3.371764e-001 1.474555e-001 2.977951e+001 4.082377e+003 1.210095e+002 4.762525e-004 5.782502e-004 1.938003e-004
<GCONST> 7.864009e+000
<MIXTURE> 11 3.486517e-002
<MEAN> 9
 -7.574297e+000 -1.003614e+001 8.714859e-001 -6.158537e+001 1.077846e+002 -6.063008e+001 3.939396e-003 3.651515e-001 1.683673e-001
<VARIANCE> 9
 3.389299e-001 3.371764e-001 6.976298e-002 2.977951e+001 8.997703e+001 1.749760e+002 4.762525e-004 5.782502e-004 1.938003e-004
<GCONST> 1.113406e+000
<MIXTURE> 12 5.658334e-002
<MEAN> 9
 -7.839602e+000 -1.229365e+001 1.428328e+000 -3.716628e+001 1.248018e+002 -1.917805e+002 6.841290e-002 3.778129e-001 1.578000e-001
<VARIANCE> 9
 2.159403e-001 3.371764e-001 1.150374e-001 3.909644e+001 1.866063e+002 9.092270e+002 1.502118e-003 5.782502e-004 1.938003e-004
<GCONST> 4.961057e+000
<MIXTURE> 13 3.486517e-002
<MEAN> 9
 -1.085542e+001 -1.115663e+001 8.995984e-001 -4.150407e+001 1.294512e+002 -2.563415e+002 1.769697e-001 3.606061e-001 7.823130e-002
<VARIANCE> 9
 8.407608e-001 3.371764e-001 8.770829e-002 2.977951e+001 3.380455e+002 1.210095e+002 8.497701e-004 5.782502e-004 1.938003e-004
<GCONST> 3.784698e+000
<MIXTURE> 14 3.486209e-002
<MEAN> 9
 -5.847365e+000 -1.071882e+001 1.678689e+000 -4.306921e+001 1.582110e+002 -4.060815e+001 -2.606074e-002 3.645459e-001 1.755107e-001
<VARIANCE> 9
 1.491142e-001 3.371764e-001 6.976298e-002 2.977951e+001 1.096703e+002 1.827672e+002 4.762525e-004 5.782502e-004 1.938003e-004
<GCONST> 5.338144e-001
<MIXTURE> 15 5.957801e-002
<MEAN> 9
 -8.664333e+000 -1.095420e+001 2.284702e+000 -3.781881e+001 3.312080e+001 -2.466889e+002 1.696771e-001 3.720654e-001 1.126885e-001
<VARIANCE> 9
 5.113311e-001 3.514467e-001 1.359555e-001 1.820478e+002 4.088203e+002 4.755186e+002 5.812863e-004 5.782502e-004 4.229360e-004
<GCONST> 7.536919e+000
<MIXTURE> 16 3.486239e-002
<MEAN> 9
 -9.670794e+000 -1.175904e+001 1.112430e+000 -5.892212e+001 -6.285660e-001 -2.008557e+002 8.575945e-002 3.709095e-001 1.119044e-001
<VARIANCE> 9
 1.937541e+000 3.371764e-001 6.976298e-002 5.490561e+001 6.227277e+002 6.317463e+002 7.362600e-004 5.782502e-004 1.938003e-004
<GCONST> 7.122611e+000
<MIXTURE> 17 5.932466e-002
<MEAN> 9
 -1.023770e+001 -4.675880e+000 9.011205e-001 1.348570e+001 3.707745e+001 -2.811987e+002 3.907274e-001 2.316633e-001 3.536664e-002
<VARIANCE> 9
 1.445858e+000 4.852459e-001 1.110491e+000 1.684645e+002 1.802129e+003 1.210095e+002 4.762525e-004 8.191048e-004 2.327242e-003
<GCONST> 1.289069e+001
<MIXTURE> 18 3.486504e-002
<MEAN> 9
 -1.028112e+001 -8.795183e+000 1.710844e+000 -1.955287e+001 1.138008e+002 -2.761992e+002 2.739393e-001 3.424243e-001 3.639460e-002
<VARIANCE> 9
 2.378020e-001 6.869884e-001 6.976298e-002 7.984901e+001 3.680466e+001 1.210095e+002 4.762525e-004 5.782502e-004 1.938003e-004
<GCONST> 1.194369e+000
<MIXTURE> 19 2.795080e-002
<MEAN> 9
 -1.053970e+001 -8.882817e+000 2.977680e+000 -1.473466e+001 -4.685939e+001 -2.856278e+002 2.662919e-001 3.382250e-001 1.118155e-001
<VARIANCE> 9
 2.413725e+000 3.371764e-001 6.976298e-002 7.090317e+002 3.932979e+002 1.210095e+002 4.762525e-004 5.782502e-004 3.645661e-004
<GCONST> 7.984731e+000
<MIXTURE> 20 5.828392e-002
<MEAN> 9
 -5.778541e+000 -9.674951e+000 1.875842e+000 -4.379295e+001 5.698812e+001 -4.185799e+001 1.084928e-002 3.724646e-001 1.435068e-001
<VARIANCE> 9
 1.491142e-001 3.371764e-001 6.976298e-002 2.977951e+001 3.680466e+001 1.210095e+002 4.762525e-004 5.782502e-004 1.938003e-004
<GCONST> -9.703841e-001
<MIXTURE> 21 3.378085e-002
<MEAN> 9
 -1.049506e+001 -9.650541e+000 3.427809e+000 7.146899e+000 2.801121e+002 -3.373911e+001 -1.560678e-002 3.610297e-001 1.663098e-001
<VARIANCE> 9
 4.493037e+000 3.371764e-001 2.040989e-001 2.977951e+001 3.773207e+003 1.781621e+002 4.762525e-004 5.782502e-004 1.938003e-004
<GCONST> 8.525569e+000
<MIXTURE> 22 4.138640e-002
<MEAN> 9
 -6.983400e+000 -1.147750e+001 2.146077e+000 -3.940819e+001 1.094141e+002 -1.066041e+002 1.365222e-002 3.715964e-001 1.514514e-001
<VARIANCE> 9
 1.491142e-001 1.082279e+000 6.541365e-001 4.240450e+001 5.176149e+002 3.044557e+002 4.762525e-004 5.782502e-004 7.421238e-004
<GCONST> 7.696429e+000
<MIXTURE> 23 3.511590e-002
<MEAN> 9
 -8.588929e+000 -1.280496e+001 2.656507e+000 -5.312467e+001 2.484480e+001 -1.855539e+002 6.356458e-002 3.714941e-001 1.424135e-001
<VARIANCE> 9
 1.285330e+000 3.371764e-001 3.116072e-001 2.976816e+002 2.218583e+002 2.483696e+003 1.198577e-003 5.782502e-004 1.938003e-004
<GCONST> 1.072351e+001
<TRANSP> 8
 0.000000e+000 1.000000e+000 0.000000e+000 0.000000e+000 0.000000e+000 0.000000e+000 0.000000e+000 0.000000e+000
 0.000000e+000 9.287953e-001 7.120470e-002 0.000000e+000 0.000000e+000 0.000000e+000 0.000000e+000 0.000000e+000
 0.000000e+000 0.000000e+000 9.396507e-001 6.034930e-002 0.000000e+000 0.000000e+000 0.000000e+000 0.000000e+000
 0.000000e+000 0.000000e+000 0.000000e+000 9.617978e-001 3.820228e-002 0.000000e+000 0.000000e+000 0.000000e+000
 0.000000e+000 0.000000e+000 0.000000e+000 0.000000e+000 9.786021e-001 2.139797e-002 0.000000e+000 0.000000e+000
 0.000000e+000 0.000000e+000 0.000000e+000 0.000000e+000 0.000000e+000 9.587623e-001 4.123774e-002 0.000000e+000
 0.000000e+000 0.000000e+000 0.000000e+000 0.000000e+000 0.000000e+000 0.000000e+000 9.535140e-001 4.648601e-002
 0.000000e+000 0.000000e+000 0.000000e+000 0.000000e+000 0.000000e+000 0.000000e+000 0.000000e+000 0.000000e+000
<ENDHMM>
~h "GN"
<BEGINHMM>
<NUMSTATES> 8
<STATE> 2
<NUMMIXES> 23
<MIXTURE> 1 3.867503e-002
<MEAN> 9
 -8.906529e+000 -1.107759e+001 1.364601e+000 5.015363e+001 1.250389e+002 1.477169e+002 7.484474e-002 3.761701e-001 1.642862e-001
<VARIANCE> 9
 3.773237e-001 3.371764e-001 7.082717e-001 2.977951e+001 3.680466e+001 2.694341e+002 4.762525e-004 5.782502e-004 1.938003e-004
<GCONST> 3.076184e+000
<MIXTURE> 2 5.882005e-002
<MEAN> 9
 -9.951862e+000 -5.217005e+000 -4.602359e+000 -6.804691e+001 3.762289e+001 2.856888e+002 3.445438e-001 2.975768e-001 1.986411e-001
<VARIANCE> 9
 7.639524e+000 4.334359e-001 2.894505e-001 1.250298e+002 1.010385e+003 2.423309e+002 4.762525e-004 5.782502e-004 5.735845e-004
<GCONST> 1.116672e+001
<MIXTURE> 3 5.881572e-002
<MEAN> 9
 -7.831326e+000 -1.084337e+001 1.385542e+000 2.199187e+001 -5.786584e+001 1.790041e+002 8.333334e-002 3.903030e-001 2.098639e-001
<VARIANCE> 9
 3.673486e-001 3.371764e-001 6.976298e-002 2.977951e+001 5.359604e+002 1.568568e+002 4.762525e-004 5.782502e-004 1.938003e-004
<GCONST> 2.869115e+000
<MIXTURE> 4 3.912275e-002
<MEAN> 9
 -1.061877e+001 -7.301644e+000 -3.124785e+000 -3.480927e+001 3.490563e+001 2.560500e+002 3.037309e-001 3.339007e-001 2.131627e-001
<VARIANCE> 9
 1.491142e-001 3.371764e-001 8.357360e-001 9.847631e+001 1.343006e+002 1.210095e+002 4.762525e-004 6.243479e-004 1.938003e-004
<GCONST> 4.079976e+000
<MIXTURE> 5 5.881596e-002
<MEAN> 9
 -7.028233e+000 -1.186347e+001 2.915501e+000 5.209146e+001 7.568918e+001 1.291692e+002 3.151990e-002 3.715156e-001 1.843520e-001
<VARIANCE> 9
 2.388477e-001 1.777674e+000 3.841075e-001 2.977951e+001 7.005728e+002 3.297350e+003 4.762525e-004 5.782502e-004 1.938003e-004
<GCONST> 9.120284e+000
<MIXTURE> 6 3.043101e-002
<MEAN> 9
 -1.058129e+001 -8.108046e+000 -1.664907e+000 -1.330379e+001 3.538140e+001 2.366667e+002 2.457997e-001 3.607466e-001 1.815820e-001
<VARIANCE> 9
 8.287706e-001 3.371764e-001 8.244367e-001 3.235181e+001 2.842243e+002 1.210095e+002 4.762525e-004 5.782502e-004 2.415400e-004
<GCONST> 5.561640e+000
<MIXTURE> 7 5.881720e-002
<MEAN> 9
 -8.855414e+000 -4.594309e+000 -2.791174e+000 -4.930956e+001 3.821136e+000 2.293691e+002 3.533359e-001 2.812097e-001 1.887765e-001
<VARIANCE> 9
 1.491142e-001 4.961796e-001 6.976298e-002 2.977951e+001 3.680466e+001 1.210095e+002 5.165653e-004 5.782502e-004 1.938003e-004
<GCONST> -5.028009e-001
<MIXTURE> 8 4.217153e-002
<MEAN> 9
 -1.037608e+001 -1.011246e+001 -1.670708e+000 3.163092e+001 5.273884e+001 2.406977e+002 1.467480e-001 3.780603e-001 1.789245e-001
<VARIANCE> 9
 3.890361e-001 3.371764e-001 1.331838e+000 2.977951e+001 3.466064e+003 1.503243e+003 4.762525e-004 5.782502e-004 2.438467e-004
<GCONST> 1.023216e+001
<MIXTURE> 9 3.920995e-002
<MEAN> 9
 -1.199398e+001 -8.861446e+000 -4.506024e+000 -2.134113e-001 1.020427e+002 2.996951e+002 2.109091e-001 3.559091e-001 1.576531e-001
<VARIANCE> 9
 3.849979e-001 3.849979e-001 6.976298e-002 1.941264e+002 2.333069e+002 1.210095e+002 7.438014e-004 5.782502e-004 1.938003e-004
<GCONST> 4.278018e+000
<MIXTURE> 10 5.875704e-002
<MEAN> 9
 -6.787478e+000 -1.143772e+001 1.730582e+000 5.166666e+000 -1.105573e+002 1.175207e+002 8.504238e-003 3.751494e-001 2.061245e-001
<VARIANCE> 9
 3.579528e-001 3.371764e-001 6.976298e-002 2.977951e+001 4.408534e+001 2.969717e+002 4.762525e-004 5.782502e-004 1.938003e-004
<GCONST> 9.835768e-001
<MIXTURE> 11 3.920996e-002
<MEAN> 9
 -7.487952e+000 -2.518072e+000 -5.620482e+000 -1.019512e+002 3.347561e+001 2.736890e+002 4.000000e-001 2.318182e-001 2.096939e-001
<VARIANCE> 9
 1.491142e-001 3.371764e-001 7.348670e-002 1.012232e+002 3.680466e+001 1.210095e+002 4.762525e-004 5.782502e-004 1.938003e-004
<GCONST> 3.051252e-001
<MIXTURE> 12 3.923929e-002
<MEAN> 9
 -6.595852e+000 -1.068086e+001 2.506041e+000 9.570384e+000 -6.130730e+001 3.347633e+001 -4.953589e-002 3.531959e-001 1.898074e-001
<VARIANCE> 9
 1.491142e-001 3.371764e-001 6.976298e-002 3.149642e+001 3.680466e+001 1.210095e+002 4.762525e-004 5.782502e-004 1.938003e-004
<GCONST> -9.143310e-001
<MIXTURE> 13 2.929315e-002
<MEAN> 9
 -8.805161e+000 -2.660146e+000 -2.891549e+000 -6.714047e+001 -1.607317e+000 2.075159e+002 4.206415e-001 2.114051e-001 2.072148e-001
<VARIANCE> 9
 1.491142e-001 3.371764e-001 6.976298e-002 2.977951e+001 4.140413e+001 1.210095e+002 4.762525e-004 5.782502e-004 1.938003e-004
<GCONST> -8.526282e-001
<MIXTURE> 14 3.920996e-002
<MEAN> 9
 -5.927711e+000 -1.372892e+001 3.367470e+000 3.530488e+001 -4.185976e+001 1.488719e+002 -8.181818e-003 3.654546e-001 1.826531e-001
<VARIANCE> 9
 4.552185e-001 3.371764e-001 6.976298e-002 2.977951e+001 5.496738e+002 4.515625e+002 4.762525e-004 5.782502e-004 1.938003e-004
<GCONST> 4.166224e+000
<MIXTURE> 15 3.926475e-002
<MEAN> 9
 -1.014391e+001 -8.660933e+000 -1.784247e+000 -1.428774e+000 5.179770e+001 2.213555e+002 1.869245e-001 3.568343e-001 1.561421e-001
<VARIANCE> 9
 1.491142e-001 3.371764e-001 6.976298e-002 2.977951e+001 3.680466e+001 1.210095e+002 4.762525e-004 5.782502e-004 1.938003e-004
<GCONST> -9.703841e-001
<MIXTURE> 16 5.867496e-002
<MEAN> 9
 -1.070290e+001 -6.832774e+000 -3.386419e+000 -3.361366e+001 3.690732e+001 2.576408e+002 2.817920e-001 3.227553e-001 1.687088e-001
<VARIANCE> 9
 1.491142e-001 3.371764e-001 6.242110e-001 2.977951e+001 2.468052e+002 1.026023e+003 4.762525e-004 5.782502e-004 1.938003e-004
<GCONST> 5.261550e+000
<MIXTURE> 17 5.579130e-002
<MEAN> 9
 -1.080261e+001 -9.923501e+000 -1.583932e+000 2.127878e+001 7.440562e+001 2.051480e+002 1.406063e-001 3.674186e-001 1.653839e-001
<VARIANCE> 9
 1.995809e-001 3.371764e-001 2.483303e-001 4.908570e+001 1.764037e+003 1.791913e+002 8.964908e-004 5.782502e-004 2.650399e-004
<GCONST> 6.298439e+000
<MIXTURE> 18 5.879917e-002
<MEAN> 9
 -7.120450e+000 -1.122072e+001 1.943836e+000 8.168070e+000 -7.680763e+001 6.028131e+001 -3.424336e-002 3.663610e-001 1.989796e-001
<VARIANCE> 9
 1.491142e-001 3.371764e-001 6.976298e-002 6.173687e+001 4.554609e+001 1.210095e+002 4.762525e-004 5.782502e-004 1.938003e-004
<GCONST> -2.822590e-002
<MIXTURE> 19 1.966817e-002
<MEAN> 9
 -6.565975e+000 -1.257483e+001 2.768865e+000 2.517068e+001 -9.167394e+001 8.964809e+001 -3.266572e-002 3.600520e-001 1.847530e-001
<VARIANCE> 9
 1.491142e-001 3.371764e-001 6.976298e-002 2.977951e+001 3.680466e+001 1.210095e+002 4.762525e-004 5.782502e-004 1.938003e-004
<GCONST> -9.703841e-001
<MIXTURE> 20 3.922402e-002
<MEAN> 9
 -1.100514e+001 -4.854856e+000 -3.867349e+000 -1.202502e+002 -2.088578e+000 2.652099e+002 3.959183e-001 2.545276e-001 2.520458e-001
<VARIANCE> 9
 2.435773e+000 3.371764e-001 8.362484e-002 5.818793e+001 1.233813e+003 1.210095e+002 4.762525e-004 5.782502e-004 1.938003e-004
<GCONST> 6.186259e+000
<MIXTURE> 21 3.974470e-002
<MEAN> 9
