~o
<STREAMINFO> 1 9
<VECSIZE> 9<NULLD><USER><DIAGC>
~h "GA"
<BEGINHMM>
<NUMSTATES> 8
<STATE> 2
<NUMMIXES> 2
<MIXTURE> 1 4.900885e-001
<MEAN> 9
 -8.738391e+000 -9.593350e+000 8.565643e-002 1.643806e+001 2.690295e+001 1.614154e+002 1.260469e-001 3.619267e-001 1.638572e-001
<VARIANCE> 9
 3.757324e+000 1.702077e+000 2.810381e+000 1.009839e+003 3.888004e+003 4.618706e+003 9.179685e-003 5.782502e-004 2.236224e-004
<GCONST> 2.249902e+001
<MIXTURE> 2 5.099114e-001
<MEAN> 9
 -8.964661e+000 -9.544924e+000 -1.702707e-001 7.959876e-001 -1.693116e+001 1.641227e+002 1.347947e-001 3.581613e-001 1.588951e-001
<VARIANCE> 9
 4.348187e+000 1.681823e+000 1.885034e+000 8.965268e+002 4.614442e+003 4.609277e+003 1.211036e-002 5.782502e-004 1.938003e-004
<GCONST> 2.241790e+001
<STATE> 3
<NUMMIXES> 2
<MIXTURE> 1 5.062324e-001
<MEAN> 9
 -7.694226e+000 -1.724284e-001 -1.217312e+000 -1.144384e+002 5.423969e+000 1.455137e+002 4.839355e-001 2.658210e-002 2.398508e-001
<VARIANCE> 9
 1.970963e+000 6.482686e+000 9.615449e+000 1.701354e+003 7.578727e+002 6.174974e+003 1.945905e-003 1.599781e-002 1.712129e-003
<GCONST> 2.740253e+001
<MIXTURE> 2 4.937676e-001
<MEAN> 9
 -8.343579e+000 -1.114302e+000 -5.520443e-001 -1.152868e+002 -9.420240e+000 1.333551e+002 4.668707e-001 4.499544e-002 2.219160e-001
<VARIANCE> 9
 1.868119e+000 8.693558e+000 1.254534e+001 2.047899e+003 1.327014e+003 1.086669e+004 3.100666e-003 2.573152e-002 2.112037e-003
<GCONST> 3.037019e+001
<STATE> 4
<NUMMIXES> 2
<MIXTURE> 1 5.077195e-001
<MEAN> 9
 -8.058868e+000 3.916636e+000 3.004328e+000 -1.524769e+001 -4.542067e+001 3.858273e+001 4.936056e-001 -1.779416e-001 1.745235e-001
<VARIANCE> 9
 9.215290e+000 2.563335e+000 2.242666e+000 3.920843e+002 1.392624e+004 1.606622e+003 9.441244e-004 1.725427e-003 7.564069e-003
<GCONST> 2.519375e+001
<MIXTURE> 2 4.922802e-001
<MEAN> 9
 -8.022089e+000 4.028542e+000 3.172030e+000 -2.838779e+001 -1.247675e+002 5.928081e+001 4.766637e-001 -2.001362e-001 1.456725e-001
<VARIANCE> 9
 1.507356e+001 2.938482e+000 3.263616e+000 4.167757e+002 2.577799e+004 1.546671e+003 1.466419e-003 2.857078e-003 1.323262e-002
<GCONST> 2.834029e+001
<STATE> 5
<NUMMIXES> 2
<MIXTURE> 1 5.038080e-001
<MEAN> 9
 -8.908852e-001 4.378183e+000 7.499045e+000 4.237906e+000 -2.353409e+001 -1.821359e+001 3.206725e-001 -2.131778e-001 -1.785153e-001
<VARIANCE> 9
 1.131923e+001 1.741349e+000 8.748130e-001 1.346024e+002 1.955308e+003 5.643359e+003 3.508676e-003 8.585725e-003 3.909465e-003
<GCONST> 2.455265e+001
<MIXTURE> 2 4.961919e-001
<MEAN> 9
 -1.758239e+000 3.871461e+000 7.397649e+000 -5.137386e+000 -3.070778e+001 -5.980683e+001 3.184294e-001 -2.055267e-001 -1.906444e-001
<VARIANCE> 9
 1.686657e+001 2.274698e+000 1.351262e+000 2.065916e+002 2.871982e+003 7.507134e+003 3.842545e-003 6.314698e-003 2.544885e-003
<GCONST> 2.610605e+001
<STATE> 6
<NUMMIXES> 2
<MIXTURE> 1 5.010573e-001
<MEAN> 9
 -4.992506e+000 -1.590384e+000 5.287947e+000 -6.009335e+001 7.781989e+001 -1.746616e+002 3.873359e-001 6.544898e-002 -1.267339e-001
<VARIANCE> 9
 6.891488e+000 8.488243e+000 7.627298e-001 7.299229e+002 1.417444e+003 3.646293e+003 1.272316e-003 1.498506e-002 4.894163e-003
<GCONST> 2.620270e+001
<MIXTURE> 2 4.989427e-001
<MEAN> 9
 -6.073725e+000 -3.309635e+000 5.695323e+000 -7.463529e+001 6.834564e+001 -2.022537e+002 3.641081e-001 1.360312e-001 -9.518149e-002
<VARIANCE> 9
 6.910236e+000 1.186217e+001 7.593794e-001 5.125450e+002 1.229334e+003 2.757271e+003 2.560642e-003 1.878797e-002 5.753539e-003
<GCONST> 2.684764e+001
<STATE> 7
<NUMMIXES> 2
<MIXTURE> 1 4.802720e-001
<MEAN> 9
 -6.259897e+000 -1.040492e+001 2.724742e+000 -3.731094e+001 1.185248e+002 -9.669856e+001 4.008275e-002 3.635168e-001 1.565789e-001
<VARIANCE> 9
 4.287772e+000 9.718028e-001 1.716934e+000 6.837762e+002 3.567513e+003 6.791607e+003 1.052355e-002 5.782502e-004 1.312758e-003
<GCONST> 2.339402e+001
<MIXTURE> 2 5.197280e-001
<MEAN> 9
 -7.220657e+000 -1.105999e+001 2.687466e+000 -5.263688e+001 1.008255e+002 -1.591684e+002 8.490528e-002 3.632641e-001 1.324183e-001
<VARIANCE> 9
 3.198313e+000 1.404518e+000 2.090444e+000 6.827485e+002 2.986897e+003 5.632482e+003 1.070122e-002 5.782502e-004 1.770915e-003
<GCONST> 2.361585e+001
<TRANSP> 8
 0.000000e+000 1.000000e+000 0.000000e+000 0.000000e+000 0.000000e+000 0.000000e+000 0.000000e+000 0.000000e+000
 0.000000e+000 9.291254e-001 7.087463e-002 0.000000e+000 0.000000e+000 0.000000e+000 0.000000e+000 0.000000e+000
 0.000000e+000 0.000000e+000 9.527764e-001 4.722359e-002 0.000000e+000 0.000000e+000 0.000000e+000 0.000000e+000
 0.000000e+000 0.000000e+000 0.000000e+000 9.499462e-001 5.005382e-002 0.000000e+000 0.000000e+000 0.000000e+000
 0.000000e+000 0.000000e+000 0.000000e+000 0.000000e+000 9.745950e-001 2.540503e-002 0.000000e+000 0.000000e+000
 0.000000e+000 0.000000e+000 0.000000e+000 0.000000e+000 0.000000e+000 9.379837e-001 6.201631e-002 0.000000e+000
 0.000000e+000 0.000000e+000 0.000000e+000 0.000000e+000 0.000000e+000 0.000000e+000 9.441712e-001 5.582878e-002
 0.000000e+000 0.000000e+000 0.000000e+000 0.000000e+000 0.000000e+000 0.000000e+000 0.000000e+000 0.000000e+000
<ENDHMM>
~h "GM"
<BEGINHMM>
<NUMSTATES> 8
<STATE> 2
<NUMMIXES> 2
<MIXTURE> 1 4.989403e-001
<MEAN> 9
 -9.210052e+000 -9.109438e+000 -1.131099e-002 -1.121241e+001 -1.785725e+001 1.951227e+002 1.947134e-001 3.438328e-001 2.059005e-001
<VARIANCE> 9
 4.379322e+000 6.380788e+000 3.065239e+000 7.161324e+002 5.016258e+003 6.456357e+003 1.642276e-002 2.011518e-003 3.291424e-004
<GCONST> 2.652136e+001
<MIXTURE> 2 5.010599e-001
<MEAN> 9
 -8.936442e+000 -8.745972e+000 -3.091854e-001 -2.201781e+001 -4.350523e+001 1.635751e+002 1.862322e-001 3.401574e-001 1.976081e-001
<VARIANCE> 9
 3.303527e+000 6.335501e+000 2.159493e+000 7.178871e+002 6.353606e+003 4.583612e+003 1.939354e-002 2.316091e-003 2.928206e-004
<GCONST> 2.596862e+001
<STATE> 3
<NUMMIXES> 2
<MIXTURE> 1 5.068020e-001
<MEAN> 9
 -6.849921e+000 3.156962e-001 7.244587e-001 -8.399628e+001 -1.704392e+001 1.246272e+002 5.082198e-001 5.438508e-003 2.145362e-001
<VARIANCE> 9
 1.562220e+000 2.868009e+000 4.540336e+000 1.185947e+003 4.784821e+002 5.929036e+003 4.972602e-004 8.437614e-003 1.128808e-003
<GCONST> 2.232211e+001
<MIXTURE> 2 4.931980e-001
<MEAN> 9
 -7.421715e+000 2.673590e-001 2.464675e-001 -9.390113e+001 -2.042153e+001 1.199744e+002 4.983675e-001 1.272019e-002 2.068987e-001
<VARIANCE> 9
 1.095252e+000 3.299510e+000 8.229876e+000 1.183641e+003 6.282693e+002 6.247842e+003 9.326494e-004 1.393258e-002 1.064379e-003
<GCONST> 2.409636e+001
<STATE> 4
<NUMMIXES> 2
<MIXTURE> 1 4.937881e-001
<MEAN> 9
 -8.732047e+000 3.820047e+000 2.097038e+000 1.838995e+000 2.415865e+001 3.887643e+001 5.109386e-001 -1.357822e-001 2.261745e-001
<VARIANCE> 9
 1.315093e+000 2.484278e+000 2.890381e+000 4.403296e+002 3.777101e+002 5.689174e+002 4.762525e-004 1.961731e-003 8.352316e-004
<GCONST> 1.618027e+001
<MIXTURE> 2 5.062117e-001
<MEAN> 9
 -8.870251e+000 3.167470e+000 2.485229e+000 -8.021820e+000 1.664549e+001 2.812804e+001 5.118979e-001 -1.361349e-001 2.157922e-001
<VARIANCE> 9
 1.125690e+000 3.357050e+000 3.392918e+000 6.387559e+002 2.829128e+002 4.886260e+002 4.762525e-004 2.167692e-003 8.507245e-004
<GCONST> 1.653522e+001
<STATE> 5
<NUMMIXES> 2
<MIXTURE> 1 4.926934e-001
<MEAN> 9
 -7.381394e+000 5.012840e+000 3.134936e+000 -2.770822e+001 8.953344e+000 7.896402e+000 4.608083e-001 -2.555813e-001 2.392511e-001
<VARIANCE> 9
 6.315155e+000 5.988908e+000 2.035788e+001 3.881424e+003 1.692337e+003 4.027348e+002 4.762525e-004 6.141670e-004 2.514410e-003
<GCONST> 2.385280e+001
<MIXTURE> 2 5.073050e-001
<MEAN> 9
 -8.259019e+000 3.359225e+000 3.833875e+000 -3.106081e+001 3.535544e+000 1.624731e+000 4.504399e-001 -2.776156e-001 2.120438e-001
<VARIANCE> 9
 3.311665e+000 7.373066e+000 1.900332e+001 4.718410e+003 1.203732e+003 2.840898e+002 4.762525e-004 7.613605e-004 3.080991e-003
<GCONST> 2.327002e+001
<STATE> 6
<NUMMIXES> 2
<MIXTURE> 1 5.161856e-001
<MEAN> 9
 -7.041049e+000 4.831623e-001 1.766201e+000 1.494873e+002 -6.811087e+001 -1.299864e+002 4.913887e-001 -1.683532e-001 1.596980e-001
<VARIANCE> 9
 1.411461e+000 7.174948e-001 5.412407e+000 8.695718e+002 1.488547e+003 5.470082e+003 6.690761e-004 1.248236e-002 2.005710e-003
<GCONST> 2.301802e+001
<MIXTURE> 2 4.838141e-001
<MEAN> 9
 -7.793243e+000 -2.354041e-001 1.272115e+000 1.196725e+002 -6.723947e+001 -1.849361e+002 4.865639e-001 -7.481550e-002 1.128531e-001
<VARIANCE> 9
 2.451493e+000 2.132484e+000 5.955428e+000 2.223100e+003 1.747110e+003 9.523006e+003 6.515599e-004 2.666972e-002 4.964285e-003
<GCONST> 2.804717e+001
<STATE> 7
<NUMMIXES> 2
<MIXTURE> 1 4.654012e-001
<MEAN> 9
 -7.799628e+000 -9.651583e+000 2.355138e+000 -1.777308e+001 9.113787e+001 -1.377008e+002 1.039762e-001 3.490307e-001 1.298038e-001
<VARIANCE> 9
 7.706091e+000 5.026624e+000 1.627882e+000 1.284357e+003 6.403470e+003 1.131496e+004 2.181305e-002 2.135000e-003 2.346847e-003
<GCONST> 2.991221e+001
<MIXTURE> 2 5.345984e-001
<MEAN> 9
 -9.210356e+000 -9.344074e+000 1.660824e+000 -1.999306e+001 5.934297e+001 -2.114324e+002 1.841330e-001 3.338508e-001 1.014518e-001
<VARIANCE> 9
 4.460371e+000 7.511120e+000 1.270227e+000 1.185787e+003 3.139444e+003 7.833537e+003 2.134859e-002 3.450662e-003 2.746250e-003
<GCONST> 2.897436e+001
<TRANSP> 8
 0.000000e+000 1.000000e+000 0.000000e+000 0.000000e+000 0.000000e+000 0.000000e+000 0.000000e+000 0.000000e+000
 0.000000e+000 9.407153e-001 5.928475e-002 0.000000e+000 0.000000e+000 0.000000e+000 0.000000e+000 0.000000e+000
 0.000000e+000 0.000000e+000 9.416819e-001 5.831817e-002 0.000000e+000 0.000000e+000 0.000000e+000 0.000000e+000
 0.000000e+000 0.000000e+000 0.000000e+000 9.543465e-001 4.565352e-002 0.000000e+000 0.000000e+000 0.000000e+000
 0.000000e+000 0.000000e+000 0.000000e+000 0.000000e+000 9.813920e-001 1.860806e-002 0.000000e+000 0.000000e+000
 0.000000e+000 0.000000e+000 0.000000e+000 0.000000e+000 0.000000e+000 9.498783e-001 5.012171e-002 0.000000e+000
 0.000000e+000 0.000000e+000 0.000000e+000 0.000000e+000 0.000000e+000 0.000000e+000 9.540226e-001 4.597738e-002
 0.000000e+000 0.000000e+000 0.000000e+000 0.000000e+000 0.000000e+000 0.000000e+000 0.000000e+000 0.000000e+000
<ENDHMM>
~h "GN"
<BEGINHMM>
<NUMSTATES> 8
<STATE> 2
<NUMMIXES> 2
<MIXTURE> 1 5.063224e-001
<MEAN> 9
 -8.883241e+000 -9.694625e+000 -2.869709e-001 9.155230e+000 2.506181e+001 1.916914e+002 1.395319e-001 3.576993e-001 1.855482e-001
<VARIANCE> 9
 3.908484e+000 6.007601e+000 6.912526e+000 1.306292e+003 4.879959e+003 5.354026e+003 1.496445e-002 9.243863e-004 4.130884e-004
<GCONST> 2.690354e+001
<MIXTURE> 2 4.936774e-001
<MEAN> 9
 -8.994589e+000 -9.321921e+000 -7.504073e-001 -5.909563e-001 1.231531e+001 1.930849e+002 1.485320e-001 3.504217e-001 1.836037e-001
<VARIANCE> 9
 4.134713e+000 6.804933e+000 7.329311e+000 1.204579e+003 5.162043e+003 6.232122e+003 1.845249e-002 1.023043e-003 4.175620e-004
<GCONST> 2.759168e+001
<STATE> 3
<NUMMIXES> 2
<MIXTURE> 1 5.066476e-001
<MEAN> 9
 -9.439577e+000 -2.426650e-001 1.709108e+000 -4.776629e+001 -1.983087e+001 9.954317e+001 5.002862e-001 1.426955e-002 2.158551e-001
<VARIANCE> 9
 1.218088e+001 8.621972e+000 2.933945e+001 1.316363e+004 1.688321e+003 7.025338e+003 1.352797e-003 1.116140e-002 4.071605e-003
<GCONST> 3.374340e+001
<MIXTURE> 2 4.933524e-001
<MEAN> 9
 -8.998773e+000 -1.220012e+000 2.971895e+000 -8.498440e+001 -3.577204e+001 7.337816e+001 5.025340e-001 -5.761421e-003 2.085816e-001
<VARIANCE> 9
 1.024823e+001 1.050226e+001 2.920224e+001 1.270893e+004 1.832469e+003 7.058094e+003 1.182581e-003 1.024194e-002 4.995343e-003
<GCONST> 3.379868e+001
<STATE> 4
<NUMMIXES> 2
<MIXTURE> 1 4.972665e-001
<MEAN> 9
 -4.467477e+000 5.103579e+000 -2.207293e-001 5.899042e+001 -1.704225e+001 6.711328e+001 4.710126e-001 -2.347571e-001 1.625500e-001
<VARIANCE> 9
 7.246294e+000 9.664688e-001 1.602312e+000 3.586031e+003 2.752031e+003 5.495009e+003 1.104184e-003 3.375971e-003 1.733578e-003
<GCONST> 2.481792e+001
<MIXTURE> 2 5.027336e-001
<MEAN> 9
 -2.476635e+000 4.932146e+000 -1.678916e-001 -1.531151e+000 -5.138394e+001 -1.148483e+001 4.557750e-001 -2.611526e-001 1.496553e-001
<VARIANCE> 9
 4.819371e+000 1.252569e+000 2.093018e+000 5.293191e+003 2.092747e+003 1.131805e+004 9.466556e-004 2.567698e-003 2.182943e-003
<GCONST> 2.557751e+001
<STATE> 5
<NUMMIXES> 2
<MIXTURE> 1 5.168883e-001
<MEAN> 9
 -6.555323e+000 1.515925e-001 4.306724e+000 1.646127e+000 1.686661e+001 -5.501537e+001 4.799758e-001 5.995756e-002 9.159353e-003
<VARIANCE> 9
 8.131208e+000 3.590464e+000 7.454557e+000 1.812818e+003 1.196198e+003 5.260875e+003 4.762525e-004 7.196465e-003 5.966673e-004
<GCONST> 2.507343e+001
<MIXTURE> 2 4.831118e-001
<MEAN> 9
 -7.559566e+000 2.768456e-001 5.887842e+000 -5.231961e+001 -1.636396e+001 -1.095850e+002 4.777977e-001 3.710745e-002 3.235427e-003
<VARIANCE> 9
 9.784342e+000 6.083421e+000 1.115647e+001 6.002436e+003 2.566314e+003 8.775863e+003 4.762525e-004 1.126031e-002 5.839599e-004
<GCONST> 2.908746e+001
<STATE> 6
<NUMMIXES> 2
<MIXTURE> 1 4.901948e-001
<MEAN> 9
 -8.803968e+000 -7.900856e+000 2.994007e+000 -1.826546e+001 5.617803e+001 -1.735175e+002 2.905584e-001 3.103285e-001 1.367120e-001
<VARIANCE> 9
 1.772639e+000 1.003096e+001 1.129665e+000 1.002954e+003 1.103654e+003 8.590323e+002 1.161021e-002 3.963746e-003 1.544212e-003
<GCONST> 2.375417e+001
<MIXTURE> 2 5.098051e-001
<MEAN> 9
 -9.342724e+000 -7.443133e+000 2.844249e+000 -3.180223e+001 3.867926e+001 -1.921940e+002 3.152066e-001 2.961359e-001 1.236983e-001
<VARIANCE> 9
 1.454942e+000 8.658099e+000 1.251186e+000 9.332523e+002 1.319684e+003 8.765743e+002 9.391036e-003 3.917755e-003 1.400827e-003
<GCONST> 2.331736e+001
<STATE> 7
<NUMMIXES> 2
<MIXTURE> 1 4.751722e-001
<MEAN> 9
 -5.092627e+000 -1.025436e+001 2.772082e+000 3.315273e+000 9.577716e+001 -5.239611e+001 4.200415e-002 3.723629e-001 2.057414e-001
<VARIANCE> 9
 4.174708e+000 6.161571e-001 2.802508e+000 3.165926e+002 4.155710e+003 9.695605e+002 3.051600e-003 5.782502e-004 2.137818e-004
<GCONST> 1.778475e+001
<MIXTURE> 2 5.248278e-001
<MEAN> 9
 -5.602398e+000 -1.094211e+001 2.192638e+000 -1.267736e+001 7.292565e+001 -8.059138e+001 2.856680e-002 3.697209e-001 1.939380e-001
<VARIANCE> 9
 2.348913e+000 7.070258e-001 1.028241e+000 1.990237e+002 1.100024e+003 2.063727e+003 3.355689e-003 5.782502e-004 1.938003e-004
<GCONST> 1.530351e+001
<TRANSP> 8
 0.000000e+000 1.000000e+000 0.000000e+000 0.000000e+000 0.000000e+000 0.000000e+000 0.000000e+000 0.000000e+000
 0.000000e+000 9.312229e-001 6.877711e-002 0.000000e+000 0.000000e+000 0.000000e+000 0.000000e+000 0.000000e+000
 0.000000e+000 0.000000e+000 9.654476e-001 3.455241e-002 0.000000e+000 0.000000e+000 0.000000e+000 0.000000e+000
 0.000000e+000 0.000000e+000 0.000000e+000 9.518113e-001 4.818868e-002 0.000000e+000 0.000000e+000 0.000000e+000
 0.000000e+000 0.000000e+000 0.000000e+000 0.000000e+000 9.646319e-001 3.536814e-002 0.000000e+000 0.000000e+000
 0.000000e+000 0.000000e+000 0.000000e+000 0.000000e+000 0.000000e+000 9.305895e-001 6.941052e-002 0.000000e+000
 0.000000e+000 0.000000e+000 0.000000e+000 0.000000e+000 0.000000e+000 0.000000e+000 9.288646e-001 7.113537e-002
 0.000000e+000 0.000000e+000 0.000000e+000 0.000000e+000 0.000000e+000 0.000000e+000 0.000000e+000 0.000000e+000
<ENDHMM>
~h "HE"
<BEGINHMM>
<NUMSTATES> 8
<STATE> 2
<NUMMIXES> 2
<MIXTURE> 1 4.935233e-001
<MEAN> 9
 -1.070813e+001 -9.084867e+000 3.586837e+000 1.318839e+002 4.019883e+001 1.891195e+002 2.185404e-001 2.673708e-001 3.733034e-002
<VARIANCE> 9
 7.062000e+000 1.609704e+001 1.106362e+001 4.230521e+003 5.057431e+003 5.939285e+003 2.161359e-002 1.744686e-002 1.095253e-002
<GCONST> 3.684874e+001
<MIXTURE> 2 5.064766e-001
<MEAN> 9
 -1.083155e+001 -7.949968e+000 1.238627e+000 1.088203e+002 -1.482683e+000 2.214001e+002 2.819035e-001 1.757425e-001 -1.212971e-002
<VARIANCE> 9
 5.996415e+000 1.908206e+001 1.059300e+001 3.683214e+003 5.734516e+003 7.733042e+003 2.301097e-002 3.179285e-002 1.348428e-002
<GCONST> 3.793353e+001
<STATE> 3
<NUMMIXES> 2
<MIXTURE> 1 4.945953e-001
<MEAN> 9
 6.629219e+000 7.924979e-001 4.689474e+000 2.150994e+001 -2.857166e+001 6.815285e+001 -9.234153e-003 -2.353427e-001 -2.405134e-001
<VARIANCE> 9
 6.129956e+001 3.847907e+000 9.330582e+000 1.265914e+003 6.242046e+003 4.021273e+004 2.802962e-002 1.473524e-003 1.534306e-003
<GCONST> 3.414777e+001
<MIXTURE> 2 5.054048e-001
<MEAN> 9
 2.694724e+000 1.624411e-002 3.199759e+000 5.755152e+000 -8.923056e+001 1.517819e+002 5.114304e-002 -2.501003e-001 -2.393327e-001
<VARIANCE> 9
 5.233627e+001 7.987033e+000 9.792397e+000 1.423667e+003 9.966270e+003 5.072263e+004 2.635136e-002 1.253039e-003 1.076338e-003
<GCONST> 3.500748e+001
<STATE> 4
<NUMMIXES> 2
<MIXTURE> 1 4.927560e-001
<MEAN> 9
 -8.279942e+000 7.634803e+000 2.894925e+000 4.600566e+000 4.134836e-001 -2.779029e+001 1.912519e-001 -2.993852e-001 -2.018608e-001
<VARIANCE> 9
 1.734593e+001 3.615117e+000 4.126595e+000 2.240715e+003 1.357106e+003 3.029999e+004 7.215799e-003 9.988409e-004 8.765695e-004
<GCONST> 2.846350e+001
<MIXTURE> 2 5.072439e-001
<MEAN> 9
 -6.541036e+000 6.802373e+000 3.313259e+000 -4.368696e-001 -7.227092e+000 -1.673966e+001 1.472145e-001 -3.119322e-001 -2.096598e-001
<VARIANCE> 9
 1.906287e+001 4.172548e+000 3.763436e+000 2.875890e+003 1.513966e+003 4.160636e+004 6.579945e-003 6.240388e-004 7.815181e-004
<GCONST> 2.860781e+001
<STATE> 5
<NUMMIXES> 2
<MIXTURE> 1 5.009398e-001
<MEAN> 9
 7.788946e+000 2.101237e+000 5.678712e+000 8.054414e+000 2.927643e-002 -8.017872e+000 -9.725019e-002 -2.383985e-001 -2.449071e-001
<VARIANCE> 9
 2.185067e+001 3.690734e+000 1.505848e+000 1.270027e+003 6.987309e+002 3.377274e+004 5.295862e-003 2.701754e-003 6.091999e-004
<GCONST> 2.690573e+001
<MIXTURE> 2 4.990601e-001
<MEAN> 9
 5.951749e+000 2.419687e+000 5.531101e+000 -9.711735e+000 -8.232954e+000 -7.888954e+000 -7.288416e-002 -2.542679e-001 -2.479642e-001
<VARIANCE> 9
 1.829089e+001 3.242623e+000 1.335765e+000 2.099691e+003 9.553869e+002 4.490543e+004 4.728132e-003 2.114297e-003 4.375797e-004
<GCONST> 2.688965e+001
<STATE> 6
<NUMMIXES> 2
<MIXTURE> 1 4.951082e-001
<MEAN> 9
 -5.982604e+000 7.616239e-001 3.827143e+000 -1.032747e+002 5.219222e+001 -1.581328e+002 2.185556e-001 -1.044513e-001 -2.341969e-001
<VARIANCE> 9
 6.574677e+000 2.025769e+001 1.695859e+000 5.139431e+003 3.144494e+003 5.286141e+003 5.706311e-003 2.971219e-002 1.881710e-003
<GCONST> 3.217384e+001
<MIXTURE> 2 5.048919e-001
<MEAN> 9
 -6.347331e+000 6.506732e-002 3.407999e+000 -1.039926e+002 2.892971e+001 -1.854791e+002 2.037188e-001 -1.121964e-001 -2.439268e-001
<VARIANCE> 9
 7.430615e+000 1.836715e+001 1.538474e+000 5.078278e+003 3.640654e+003 2.940022e+003 5.127167e-003 2.805778e-002 1.200291e-003
<GCONST> 3.103480e+001
<STATE> 7
<NUMMIXES> 2
<MIXTURE> 1 4.788382e-001
<MEAN> 9
 -6.060370e+000 -1.080461e+001 5.041757e+000 -8.249818e+001 2.232785e+001 -7.727689e+001 4.181921e-002 3.534799e-001 1.019534e-001
<VARIANCE> 9
 1.291482e+001 1.833332e+000 1.110095e+001 3.003797e+003 5.614864e+003 4.547797e+003 5.939944e-003 8.181343e-004 8.155223e-003
<GCONST> 3.013200e+001
<MIXTURE> 2 5.211617e-001
<MEAN> 9
 -7.831909e+000 -1.120163e+001 5.424647e+000 -1.365422e+002 -3.928089e-002 -1.335432e+002 1.017369e-001 3.280875e-001 7.684626e-003
<VARIANCE> 9
 4.677527e+000 2.755036e+000 1.819919e+000 2.579279e+003 2.523225e+003 4.373764e+003 6.521356e-003 1.515907e-003 9.410017e-003
<GCONST> 2.757743e+001
<TRANSP> 8
 0.000000e+000 1.000000e+000 0.000000e+000 0.000000e+000 0.000000e+000 0.000000e+000 0.000000e+000 0.000000e+000
 0.000000e+000 9.561633e-001 4.383676e-002 0.000000e+000 0.000000e+000 0.000000e+000 0.000000e+000 0.000000e+000
 0.000000e+000 0.000000e+000 9.617988e-001 3.820115e-002 0.000000e+000 0.000000e+000 0.000000e+000 0.000000e+000
 0.000000e+000 0.000000e+000 0.000000e+000 9.547941e-001 4.520586e-002 0.000000e+000 0.000000e+000 0.000000e+000
 0.000000e+000 0.000000e+000 0.000000e+000 0.000000e+000 9.647740e-001 3.522597e-002 0.000000e+000 0.000000e+000
 0.000000e+000 0.000000e+000 0.000000e+000 0.000000e+000 0.000000e+000 9.556628e-001 4.433721e-002 0.000000e+000
 0.000000e+000 0.000000e+000 0.000000e+000 0.000000e+000 0.000000e+000 0.000000e+000 9.447513e-001 5.524869e-002
 0.000000e+000 0.000000e+000 0.000000e+000 0.000000e+000 0.000000e+000 0.000000e+000 0.000000e+000 0.000000e+000
<ENDHMM>
~h "SR"
<BEGINHMM>
<NUMSTATES> 8
<STATE> 2
<NUMMIXES> 2
<MIXTURE> 1 5.047379e-001
<MEAN> 9
 -9.130888e+000 -9.858219e+000 7.723348e-001 -4.168629e+001 -1.130426e+002 2.040909e+002 2.495662e-001 3.050960e-001 2.249569e-001
<VARIANCE> 9
 2.773138e+000 2.783245e+000 1.659410e+000 2.200766e+003 8.662663e+003 7.190701e+003 2.750974e-002 7.185906e-003 2.456995e-004
<GCONST> 2.789458e+001
<MIXTURE> 2 4.952618e-001
<MEAN> 9
 -9.431557e+000 -1.060199e+001 1.259299e-001 -3.669779e+001 -1.566706e+002 1.787657e+002 1.737270e-001 3.334310e-001 2.191376e-001
<VARIANCE> 9
 3.764154e+000 2.250051e+000 2.094717e+000 2.399195e+003 8.999404e+003 1.006667e+004 2.526825e-002 4.870349e-003 2.220828e-004
<GCONST> 2.810632e+001
<STATE> 3
<NUMMIXES> 2
<MIXTURE> 1 4.928643e-001
<MEAN> 9
 -4.470723e+000 -1.225707e+000 2.639240e+000 3.479161e+001 -5.306316e+000 -6.342814e+001 5.093549e-001 -5.073546e-002 1.924553e-001
<VARIANCE> 9
 7.161599e+000 8.142835e+000 4.976864e-001 5.460553e+003 1.040152e+003 3.244244e+004 4.762525e-004 9.136453e-003 1.636960e-003
<GCONST> 2.708867e+001
<MIXTURE> 2 5.071354e-001
<MEAN> 9
 -5.154696e+000 -2.567006e+000 2.508492e+000 -1.003144e+001 -2.283998e+001 3.286870e+001 5.059788e-001 -6.549807e-002 1.976398e-001
<VARIANCE> 9
 8.630803e+000 9.585244e+000 5.304862e-001 5.238227e+003 7.813102e+002 3.113167e+004 4.762525e-004 1.111388e-002 1.641016e-003
<GCONST> 2.733162e+001
<STATE> 4
<NUMMIXES> 2
<MIXTURE> 1 4.926490e-001
<MEAN> 9
 -9.985169e+000 -6.365664e+000 4.604660e+000 -1.922337e+001 -2.164541e+001 3.964227e+001 4.364042e-001 2.037410e-001 1.641173e-001
<VARIANCE> 9
 2.099257e+001 2.014015e+001 2.165046e+000 7.410088e+002 9.568720e+002 2.124145e+004 1.648831e-003 3.597843e-003 1.322581e-003
<GCONST> 2.813233e+001
<MIXTURE> 2 5.073508e-001
<MEAN> 9
 -1.294345e+001 -5.386709e+000 4.172615e+000 -3.131520e+001 -4.433811e+001 -5.292411e+000 4.054649e-001 2.425503e-001 1.608925e-001
<VARIANCE> 9
 1.794325e+001 1.891943e+001 2.511038e+000 7.785271e+002 1.423932e+003 1.661949e+004 1.641479e-003 2.633657e-003 1.239287e-003
<GCONST> 2.788115e+001
<STATE> 5
<NUMMIXES> 2
<MIXTURE> 1 5.100092e-001
<MEAN> 9
 -6.699609e+000 -4.355027e+000 3.944601e+000 2.176706e+001 9.044670e+000 -2.523797e+001 4.910010e-001 1.076336e-001 1.751423e-001
<VARIANCE> 9
 1.230433e+000 5.127659e-001 7.012505e-001 5.970035e+002 3.138085e+002 3.117740e+003 4.762525e-004 1.997706e-003 1.231296e-003
<GCONST> 1.534600e+001
<MIXTURE> 2 4.899904e-001
<MEAN> 9
 -6.634676e+000 -4.467093e+000 3.938979e+000 1.670466e+001 6.823502e+000 -3.265346e+001 4.868681e-001 1.129034e-001 1.669785e-001
<VARIANCE> 9
 1.069305e+000 4.639101e-001 5.815192e-001 5.399946e+002 2.780574e+002 4.050851e+003 4.762525e-004 2.084143e-003 1.622810e-003
<GCONST> 1.527724e+001
<STATE> 6
<NUMMIXES> 2
<MIXTURE> 1 5.031353e-001
<MEAN> 9
 -6.870214e+000 -7.309094e+000 1.210908e+000 4.770330e+001 1.049129e+002 -1.419438e+002 2.735148e-001 3.156408e-001 2.122733e-001
<VARIANCE> 9
 9.382173e-001 5.537624e+000 1.060566e+000 8.084023e+002 1.744797e+003 8.997599e+002 1.543834e-002 3.804513e-003 7.630553e-004
<GCONST> 2.228842e+001
<MIXTURE> 2 4.968646e-001
<MEAN> 9
 -6.892230e+000 -8.153356e+000 1.137107e+000 4.394809e+001 1.068723e+002 -1.497697e+002 2.343294e-001 3.292269e-001 1.998964e-001
<VARIANCE> 9
 9.031093e-001 5.653504e+000 1.123577e+000 8.584604e+002 1.626818e+003 8.592308e+002 1.787221e-002 3.387879e-003 8.586965e-004
<GCONST> 2.242118e+001
<STATE> 7
<NUMMIXES> 2
<MIXTURE> 1 4.925161e-001
<MEAN> 9
 -3.588580e+000 -1.014175e+001 1.382566e+000 -4.671990e+000 8.767136e+001 -3.288371e+001 -1.306630e-003 3.654943e-001 2.245026e-001
<VARIANCE> 9
 1.812007e+000 3.371764e-001 1.296243e+000 2.364638e+002 8.242043e+002 6.921756e+002 2.598339e-003 5.782502e-004 1.330363e-003
<GCONST> 1.499701e+001
<MIXTURE> 2 5.074839e-001
<MEAN> 9
 -4.277967e+000 -1.024757e+001 1.064246e+000 -1.411757e+001 7.044283e+001 -4.501246e+001 -1.250435e-002 3.670615e-001 1.921611e-001
<VARIANCE> 9
 1.074900e+000 3.371764e-001 3.074138e-001 2.276047e+002 6.751708e+002 8.031821e+002 1.013805e-003 5.782502e-004 1.103098e-003
<GCONST> 1.181839e+001
<TRANSP> 8
 0.000000e+000 1.000000e+000 0.000000e+000 0.000000e+000 0.000000e+000 0.000000e+000 0.000000e+000 0.000000e+000
 0.000000e+000 9.486353e-001 5.136468e-002 0.000000e+000 0.000000e+000 0.000000e+000 0.000000e+000 0.000000e+000
 0.000000e+000 0.000000e+000 9.570465e-001 4.295349e-002 0.000000e+000 0.000000e+000 0.000000e+000 0.000000e+000
 0.000000e+000 0.000000e+000 0.000000e+000 9.487117e-001 5.128828e-002 0.000000e+000 0.000000e+000 0.000000e+000
 0.000000e+000 0.000000e+000 0.000000e+000 0.000000e+000 9.477985e-001 5.220154e-002 0.000000e+000 0.000000e+000
 0.000000e+000 0.000000e+000 0.000000e+000 0.000000e+000 0.000000e+000 9.504837e-001 4.951631e-002 0.000000e+000
 0.000000e+000 0.000000e+000 0.000000e+000 0.000000e+000 0.000000e+000 0.000000e+000 9.265262e-001 7.347378e-002
 0.000000e+000 0.000000e+000 0.000000e+000 0.000000e+000 0.000000e+000 0.000000e+000 0.000000e+000 0.000000e+000
<ENDHMM>
~h "TK"
<BEGINHMM>
<NUMSTATES> 8
<STATE> 2
<NUMMIXES> 2
<MIXTURE> 1 5.166075e-001
<MEAN> 9
 -8.854800e+000 -9.882278e+000 -2.484304e+000 -5.272037e+001 8.238232e+001 1.810788e+002 1.366692e-001 3.631997e-001 2.105924e-001
<VARIANCE> 9
 1.937548e+000 1.201539e+000 4.791317e+000 2.807303e+003 3.096126e+003 4.442136e+003 1.049039e-002 5.782502e-004 3.909891e-003
<GCONST> 2.577246e+001
<MIXTURE> 2 4.833925e-001
<MEAN> 9
 -9.435818e+000 -1.066749e+001 -2.588017e+000 -5.116034e+001 5.017006e+001 1.862766e+002 1.138769e-001 3.627670e-001 1.973621e-001
<VARIANCE> 9
 2.807734e+000 2.318318e+000 5.860562e+000 3.326791e+003 2.776740e+003 7.237339e+003 1.162305e-002 5.782502e-004 2.791016e-003
<GCONST> 2.731654e+001
<STATE> 3
<NUMMIXES> 2
<MIXTURE> 1 5.031509e-001
<MEAN> 9
 -6.549349e+000 -3.871828e-001 -3.176222e+000 -1.754109e+002 2.332188e+001 1.479360e+002 4.170417e-001 -3.407436e-002 4.336290e-001
<VARIANCE> 9
 2.654685e+000 9.672969e+000 2.542703e+000 6.553082e+002 7.169829e+002 3.467629e+003 1.330624e-003 2.461102e-002 3.005957e-003
<GCONST> 2.579733e+001
<MIXTURE> 2 4.968489e-001
<MEAN> 9
 -7.396153e+000 -2.698158e+000 -4.288990e+000 -1.845849e+002 2.017046e+001 1.817834e+002 3.917516e-001 5.989506e-002 4.270056e-001
<VARIANCE> 9
 3.338170e+000 1.476489e+001 3.502584e+000 1.115664e+003 1.141026e+003 5.552600e+003 2.141220e-003 2.852133e-002 5.317919e-003
<GCONST> 2.943083e+001
<STATE> 4
<NUMMIXES> 2
<MIXTURE> 1 4.964423e-001
<MEAN> 9
 -5.087844e+000 5.791587e+000 1.437049e+000 1.444674e+001 1.704111e+001 -6.154814e+000 3.520393e-001 -3.135917e-001 4.106858e-001
<VARIANCE> 9
 7.937776e-001 1.511570e+000 3.494461e+000 1.127726e+004 7.250674e+002 2.035892e+003 6.675913e-004 1.901468e-003 2.226554e-003
<GCONST> 2.182551e+001
<MIXTURE> 2 5.035582e-001
<MEAN> 9
 -5.282976e+000 6.216629e+000 1.494504e+000 2.973305e+000 1.037995e+001 -4.492979e-001 3.424126e-001 -3.261587e-001 4.067245e-001
<VARIANCE> 9
 6.686863e-001 1.408973e+000 3.256006e+000 7.552093e+003 6.016148e+002 1.299869e+003 6.530374e-004 1.640845e-003 2.108224e-003
<GCONST> 2.025270e+001
<STATE> 5
<NUMMIXES> 2
<MIXTURE> 1 5.031127e-001
<MEAN> 9
 -8.600364e+000 2.152966e+000 -5.683043e+000 7.270206e+001 -6.902349e+000 -3.552163e+001 3.712328e-001 -2.638546e-002 5.348013e-001
<VARIANCE> 9
 1.897082e+000 1.987069e+000 4.951541e+000 6.073847e+003 2.970495e+003 2.050322e+003 8.528540e-004 9.802349e-003 1.382009e-003
<GCONST> 2.552528e+001
<MIXTURE> 2 4.968878e-001
<MEAN> 9
 -9.225285e+000 1.789773e+000 -6.385268e+000 6.410683e+001 -2.102730e+001 -3.534262e+001 3.758505e-001 1.562946e-005 5.326036e-001
<VARIANCE> 9
 2.015762e+000 1.742229e+000 6.240115e+000 4.676047e+003 3.921309e+003 1.753854e+003 8.359365e-004 6.627311e-003 1.378323e-003
<GCONST> 2.513161e+001
<STATE> 6
<NUMMIXES> 2
<MIXTURE> 1 5.108690e-001
<MEAN> 9
 -7.056906e+000 -2.187998e+000 2.543280e-001 1.627492e+001 -1.560617e+002 -1.274682e+002 4.378442e-001 1.427293e-001 2.629676e-001
<VARIANCE> 9
 2.134786e+000 5.140976e+000 4.007870e+000 8.435662e+002 7.864614e+003 4.015966e+003 3.734039e-003 1.123367e-002 1.457961e-002
<GCONST> 3.002333e+001
<MIXTURE> 2 4.891317e-001
<MEAN> 9
 -7.952817e+000 -4.089430e+000 1.578518e+000 -5.915528e+000 -1.032202e+002 -1.723405e+002 3.930126e-001 2.184300e-001 1.804853e-001
<VARIANCE> 9
 2.314137e+000 6.871375e+000 4.299875e+000 1.383334e+003 7.757980e+003 3.413461e+003 5.806881e-003 1.088427e-002 1.086629e-002
<GCONST> 3.089885e+001
<STATE> 7
<NUMMIXES> 2
<MIXTURE> 1 4.919971e-001
<MEAN> 9
 -5.685547e+000 -9.940650e+000 2.046808e+000 -1.988213e+001 7.657941e+001 -9.268649e+001 5.745534e-002 3.717743e-001 1.789850e-001
<VARIANCE> 9
 2.235925e+000 8.220009e-001 1.625906e+000 2.623650e+002 3.097458e+003 3.586344e+003 7.979461e-003 5.782502e-004 5.136415e-004
<GCONST> 1.956819e+001
<MIXTURE> 2 5.080027e-001
<MEAN> 9
 -6.290001e+000 -1.026566e+001 2.080782e+000 -2.385116e+001 5.446972e+001 -1.268428e+002 8.036875e-002 3.704318e-001 1.620498e-001
<VARIANCE> 9
 1.594973e+000 1.465846e+000 2.107346e+000 6.486617e+002 2.798646e+003 4.147649e+003 7.562628e-003 5.782502e-004 6.649811e-004
<GCONST> 2.122192e+001
<TRANSP> 8
 0.000000e+000 1.000000e+000 0.000000e+000 0.000000e+000 0.000000e+000 0.000000e+000 0.000000e+000 0.000000e+000
 0.000000e+000 9.220542e-001 7.794577e-002 0.000000e+000 0.000000e+000 0.000000e+000 0.000000e+000 0.000000e+000
 0.000000e+000 0.000000e+000 9.379132e-001 6.208680e-002 0.000000e+000 0.000000e+000 0.000000e+000 0.000000e+000
 0.000000e+000 0.000000e+000 0.000000e+000 9.604859e-001 3.951408e-002 0.000000e+000 0.000000e+000 0.000000e+000
 0.000000e+000 0.000000e+000 0.000000e+000 0.000000e+000 9.547859e-001 4.521408e-002 0.000000e+000 0.000000e+000
 0.000000e+000 0.000000e+000 0.000000e+000 0.000000e+000 0.000000e+000 9.449977e-001 5.500230e-002 0.000000e+000
 0.000000e+000 0.000000e+000 0.000000e+000 0.000000e+000 0.000000e+000 0.000000e+000 9.401655e-001 5.983449e-002
 0.000000e+000 0.000000e+000 0.000000e+000 0.000000e+000 0.000000e+000 0.000000e+000 0.000000e+000 0.000000e+000
<ENDHMM>
~h "sp"
<BEGINHMM>
<NUMSTATES> 8
<STATE> 2
<NUMMIXES> 2
<MIXTURE> 1 4.623964e-001
<MEAN> 9
 -4.077062e+000 -9.731435e+000 2.007000e+000 -3.451811e+000 6.347817e+001 -6.726190e+000 -9.446471e-003 3.661479e-001 1.902782e-001
<VARIANCE> 9
 1.891896e+000 3.371764e-001 2.102064e+000 1.895053e+002 1.983314e+003 1.210095e+002 4.762525e-004 5.782502e-004 4.582480e-004
<GCONST> 1.167389e+001
<MIXTURE> 2 5.376036e-001
<MEAN> 9
 -4.162712e+000 -9.840742e+000 1.464475e+000 -6.310111e+000 4.728415e+001 -1.055428e+001 -1.974310e-002 3.646109e-001 1.768619e-001
<VARIANCE> 9
 1.967783e+000 3.371764e-001 2.731609e+000 2.875080e+002 2.246922e+003 1.210095e+002 4.762525e-004 5.782502e-004 4.244836e-004
<GCONST> 1.244028e+001
<STATE> 3
<NUMMIXES> 2
<MIXTURE> 1 4.642870e-001
<MEAN> 9
 -2.797885e+000 -9.782504e+000 -2.972034e-002 5.656843e+000 -1.776331e+000 1.240449e+000 -2.217353e-002 3.656268e-001 1.844086e-001
<VARIANCE> 9
 8.963451e-001 3.371764e-001 3.637776e-001 2.977951e+001 1.660767e+002 1.210095e+002 4.762525e-004 5.782502e-004 4.311836e-004
<GCONST> 4.781199e+000
<MIXTURE> 2 5.357130e-001
<MEAN> 9
 -2.614489e+000 -9.820581e+000 -2.216078e-001 5.350847e+000 -8.040467e+000 2.060448e+000 -3.069727e-002 3.623583e-001 1.767518e-001
<VARIANCE> 9
 7.985917e-001 3.371764e-001 3.221988e-001 2.977951e+001 1.502012e+002 1.210095e+002 4.762525e-004 5.782502e-004 3.634999e-004
<GCONST> 4.273118e+000
<STATE> 4
<NUMMIXES> 2
<MIXTURE> 1 4.873244e-001
<MEAN> 9
 -2.259554e+000 -9.930346e+000 1.116413e-001 3.197541e+000 -6.408044e-001 5.892119e-001 -3.531779e-002 3.631950e-001 1.807157e-001
<VARIANCE> 9
 1.991329e-001 3.371764e-001 8.452400e-002 2.977951e+001 3.680466e+001 1.210095e+002 4.762525e-004 5.782502e-004 4.009470e-004
<GCONST> 2.378068e-001
<MIXTURE> 2 5.126759e-001
<MEAN> 9
 -2.315776e+000 -9.912262e+000 4.840565e-002 3.040941e+000 -2.041079e+000 8.319303e-001 -3.517076e-002 3.614455e-001 1.742505e-001
<VARIANCE> 9
 1.932566e-001 3.371764e-001 9.956915e-002 2.977951e+001 3.680466e+001 1.210095e+002 4.762525e-004 5.782502e-004 2.997653e-004
<GCONST> 8.084297e-002
<STATE> 5
<NUMMIXES> 2
<MIXTURE> 1 5.032293e-001
<MEAN> 9
 -3.101405e+000 -9.715429e+000 2.810575e-001 3.210964e+000 7.690356e-001 3.820132e-001 -2.287220e-003 3.694133e-001 1.902014e-001
<VARIANCE> 9
 1.491142e-001 3.371764e-001 6.976298e-002 2.977951e+001 3.680466e+001 1.210095e+002 4.762525e-004 5.782502e-004 3.683325e-004
<GCONST> -3.282261e-001
<MIXTURE> 2 4.967705e-001
<MEAN> 9
 -3.057596e+000 -9.737523e+000 2.852943e-001 3.058034e+000 -6.232837e-001 4.100831e-001 -7.279437e-003 3.678375e-001 1.831602e-001
<VARIANCE> 9
 1.491142e-001 3.371764e-001 6.976298e-002 2.977951e+001 3.680466e+001 1.210095e+002 4.762525e-004 5.782502e-004 3.541907e-004
<GCONST> -3.673773e-001
<STATE> 6
<NUMMIXES> 2
<MIXTURE> 1 4.772151e-001
<MEAN> 9
 -2.816046e+000 -9.885306e+000 6.219845e-001 3.750191e+000 -8.815296e+000 1.869457e+000 -3.031154e-002 3.652132e-001 1.824720e-001
<VARIANCE> 9
 5.343255e-001 3.371764e-001 8.265337e-002 2.977951e+001 7.886658e+001 1.210095e+002 4.762525e-004 5.782502e-004 3.223813e-004
<GCONST> 1.746500e+000
<MIXTURE> 2 5.227848e-001
<MEAN> 9
 -2.821413e+000 -9.890629e+000 5.406997e-001 3.495654e+000 -1.128601e+001 1.511838e+000 -3.320818e-002 3.629632e-001 1.798053e-001
<VARIANCE> 9
 5.219207e-001 3.371764e-001 7.510900e-002 2.977951e+001 8.206131e+001 1.210095e+002 4.762525e-004 5.782502e-004 3.295217e-004
<GCONST> 1.688913e+000
<STATE> 7
<NUMMIXES> 2
<MIXTURE> 1 5.357984e-001
<MEAN> 9
 -5.007811e+000 -9.873618e+000 1.428710e+000 6.920220e+000 -3.442556e+001 1.885042e+001 -9.595514e-003 3.679768e-001 1.896408e-001
<VARIANCE> 9
 1.439325e+000 3.371764e-001 7.357466e-001 4.009167e+001 1.860121e+003 1.819472e+002 6.087371e-004 5.782502e-004 4.553009e-004
<GCONST> 9.380150e+000
<MIXTURE> 2 4.642017e-001
<MEAN> 9
 -5.212402e+000 -9.851655e+000 1.213253e+000 2.799775e+000 -6.716486e+001 1.330832e+001 -2.076420e-002 3.654159e-001 1.862570e-001
<VARIANCE> 9
 2.153788e+000 3.371764e-001 6.832694e-001 3.426003e+001 3.717434e+003 1.210095e+002 4.762525e-004 5.782502e-004 3.398995e-004
<GCONST> 9.298817e+000
<TRANSP> 8
 0.000000e+000 1.000000e+000 0.000000e+000 0.000000e+000 0.000000e+000 0.000000e+000 0.000000e+000 0.000000e+000
 0.000000e+000 8.540255e-001 1.459745e-001 0.000000e+000 0.000000e+000 0.000000e+000 0.000000e+000 0.000000e+000
 0.000000e+000 0.000000e+000 7.471254e-001 2.528746e-001 0.000000e+000 0.000000e+000 0.000000e+000 0.000000e+000
 0.000000e+000 0.000000e+000 0.000000e+000 9.240575e-001 7.594246e-002 0.000000e+000 0.000000e+000 0.000000e+000
 0.000000e+000 0.000000e+000 0.000000e+000 0.000000e+000 9.315368e-001 6.846317e-002 0.000000e+000 0.000000e+000
 0.000000e+000 0.000000e+000 0.000000e+000 0.000000e+000 0.000000e+000 7.209969e-001 2.790031e-001 0.000000e+000
 0.000000e+000 0.000000e+000 0.000000e+000 0.000000e+000 0.000000e+000 0.000000e+000 7.897021e-001 2.102980e-001
 0.000000e+000 0.000000e+000 0.000000e+000 0.000000e+000 0.000000e+000 0.000000e+000 0.000000e+000 0.000000e+000
<ENDHMM>
~h "ssil"
<BEGINHMM>
<NUMSTATES> 8
<STATE> 2
<NUMMIXES> 2
<MIXTURE> 1 4.836754e-001
<MEAN> 9
 -2.827209e+000 -9.791917e+000 1.892922e-001 4.335867e+000 4.360351e+000 2.541301e-001 -2.088121e-002 3.654477e-001 1.744219e-001
<VARIANCE> 9
 6.175352e-001 3.371764e-001 3.115289e-001 2.977951e+001 4.425118e+002 1.210095e+002 4.762525e-004 5.782502e-004 2.978735e-004
<GCONST> 4.863708e+000
<MIXTURE> 2 5.163247e-001
<MEAN> 9
 -2.876639e+000 -9.814622e+000 9.492410e-002 4.139211e+000 -4.353179e+000 1.911625e-001 -2.250131e-002 3.640084e-001 1.684519e-001
<VARIANCE> 9
 6.821698e-001 3.371764e-001 2.946600e-001 2.977951e+001 3.026249e+002 1.210095e+002 4.762525e-004 5.782502e-004 1.950343e-004
<GCONST> 4.104117e+000
<STATE> 3
<NUMMIXES> 2
<MIXTURE> 1 4.842031e-001
<MEAN> 9
 -2.641176e+000 -9.848031e+000 2.167620e-001 3.267532e+000 -6.581690e-001 1.694152e-001 -2.305971e-002 3.675386e-001 1.763311e-001
<VARIANCE> 9
 1.491142e-001 3.371764e-001 6.976298e-002 2.977951e+001 3.680466e+001 1.210095e+002 4.762525e-004 5.782502e-004 1.938003e-004
<GCONST> -9.703841e-001
<MIXTURE> 2 5.157958e-001
<MEAN> 9
 -2.647212e+000 -9.844955e+000 2.060804e-001 3.258066e+000 -1.358168e+000 2.032120e-001 -2.415236e-002 3.657236e-001 1.743417e-001
<VARIANCE> 9
 1.491142e-001 3.371764e-001 6.976298e-002 2.977951e+001 3.680466e+001 1.210095e+002 4.762525e-004 5.782502e-004 1.938003e-004
<GCONST> -9.703841e-001
<STATE> 4
<NUMMIXES> 2
<MIXTURE> 1 5.018751e-001
<MEAN> 9
 -2.000646e+000 -9.999187e+000 4.918804e-001 3.254592e+000 1.785123e-001 2.212117e-001 -5.338899e-002 3.604453e-001 1.827291e-001
<VARIANCE> 9
 1.491142e-001 3.371764e-001 6.976298e-002 2.977951e+001 3.680466e+001 1.210095e+002 4.762525e-004 5.782502e-004 1.938003e-004
<GCONST> -9.703841e-001
<MIXTURE> 2 4.981240e-001
<MEAN> 9
 -1.987820e+000 -1.000046e+001 4.807878e-001 3.268043e+000 -2.823588e-001 2.111745e-001 -5.446373e-002 3.582790e-001 1.789784e-001
<VARIANCE> 9
 1.491142e-001 3.371764e-001 6.976298e-002 2.977951e+001 3.680466e+001 1.210095e+002 4.762525e-004 5.782502e-004 1.986742e-004
<GCONST> -9.455457e-001
<STATE> 5
<NUMMIXES> 2
<MIXTURE> 1 4.617450e-001
<MEAN> 9
 -2.646255e+000 -9.846064e+000 3.712274e-001 3.262738e+000 -1.915125e-001 1.079960e-001 -2.214436e-002 3.674418e-001 1.723484e-001
<VARIANCE> 9
 1.491142e-001 3.371764e-001 6.976298e-002 2.977951e+001 3.680466e+001 1.210095e+002 4.762525e-004 5.782502e-004 1.938003e-004
<GCONST> -9.703841e-001
<MIXTURE> 2 5.382555e-001
<MEAN> 9
 -2.653620e+000 -9.848300e+000 3.206814e-001 3.238957e+000 -4.656458e-001 1.947720e-001 -2.255576e-002 3.657836e-001 1.699086e-001
<VARIANCE> 9
 1.491142e-001 3.371764e-001 6.976298e-002 2.977951e+001 3.680466e+001 1.210095e+002 4.762525e-004 5.782502e-004 1.938003e-004
<GCONST> -9.703841e-001
<STATE> 6
<NUMMIXES> 2
<MIXTURE> 1 5.287904e-001
<MEAN> 9
 -3.113284e+000 -9.714341e+000 -3.470632e-002 3.286511e+000 1.929392e-001 1.689241e-001 1.033698e-003 3.696417e-001 2.092850e-001
<VARIANCE> 9
 1.491142e-001 3.371764e-001 6.976298e-002 2.977951e+001 3.680466e+001 1.210095e+002 4.762525e-004 5.782502e-004 2.969891e-004
<GCONST> -5.435166e-001
<MIXTURE> 2 4.712094e-001
<MEAN> 9
 -3.134218e+000 -9.705830e+000 -1.034990e-001 3.269894e+000 2.053225e-002 1.304815e-001 -4.369766e-006 3.679639e-001 2.014655e-001
<VARIANCE> 9
 1.491142e-001 3.371764e-001 6.976298e-002 2.977951e+001 3.680466e+001 1.210095e+002 4.762525e-004 5.782502e-004 2.863748e-004
<GCONST> -5.799108e-001
<STATE> 7
<NUMMIXES> 2
<MIXTURE> 1 5.309526e-001
<MEAN> 9
 -4.339886e+000 -9.949139e+000 1.130793e+000 6.239251e+000 -7.460814e+000 1.346285e+001 -6.158951e-003 3.687412e-001 2.001819e-001
<VARIANCE> 9
 1.320314e+000 3.371764e-001 9.572584e-001 3.454812e+001 6.307881e+002 2.132165e+002 5.635732e-004 5.782502e-004 5.934266e-004
<GCONST> 8.673249e+000
<MIXTURE> 2 4.690473e-001
<MEAN> 9
 -4.269692e+000 -9.846306e+000 1.049363e+000 2.964535e+000 -1.995421e+001 7.997394e+000 -1.912741e-002 3.655033e-001 1.897945e-001
<VARIANCE> 9
 2.150698e+000 3.371764e-001 8.037614e-001 2.977951e+001 1.122861e+003 1.210095e+002 6.250577e-004 5.782502e-004 3.741281e-004
<GCONST> 8.490327e+000
<TRANSP> 8
 0.000000e+000 1.000000e+000 0.000000e+000 0.000000e+000 0.000000e+000 0.000000e+000 0.000000e+000 0.000000e+000
 0.000000e+000 7.851219e-001 2.148781e-001 0.000000e+000 0.000000e+000 0.000000e+000 0.000000e+000 0.000000e+000
 0.000000e+000 0.000000e+000 9.283282e-001 7.167176e-002 0.000000e+000 0.000000e+000 0.000000e+000 0.000000e+000
 0.000000e+000 0.000000e+000 0.000000e+000 9.661469e-001 3.385302e-002 0.000000e+000 0.000000e+000 0.000000e+000
 0.000000e+000 0.000000e+000 0.000000e+000 0.000000e+000 9.407001e-001 5.929992e-002 0.000000e+000 0.000000e+000
 0.000000e+000 0.000000e+000 0.000000e+000 0.000000e+000 0.000000e+000 9.766717e-001 2.332827e-002 0.000000e+000
 0.000000e+000 0.000000e+000 0.000000e+000 0.000000e+000 0.000000e+000 0.000000e+000 6.271044e-001 3.728956e-001
 0.000000e+000 0.000000e+000 0.000000e+000 0.000000e+000 0.000000e+000 0.000000e+000 0.000000e+000 0.000000e+000
<ENDHMM>
~h "HAU"
<BEGINHMM>
<NUMSTATES> 8
<STATE> 2
<NUMMIXES> 2
<MIXTURE> 1 5.131651e-001
<MEAN> 9
 -6.664211e+000 -1.117268e+001 1.933134e+000 7.862484e+000 -1.303245e+002 1.511469e+002 1.191997e-001 3.680963e-001 2.267662e-001
<VARIANCE> 9
 2.342509e+000 8.741940e-001 7.008537e-001 2.137861e+002 6.508240e+003 4.587504e+003 8.852595e-003 5.782502e-004 7.409804e-004
<GCONST> 2.008902e+001
<MIXTURE> 2 4.868347e-001
<MEAN> 9
 -6.715769e+000 -1.137267e+001 1.425934e+000 3.482969e+000 -1.831778e+002 1.111157e+002 5.256775e-002 3.728977e-001 2.207632e-001
<VARIANCE> 9
 3.405586e+000 8.519841e-001 4.506614e-001 1.006725e+002 7.100075e+003 4.451553e+003 5.020986e-003 5.782502e-004 4.206522e-004
<GCONST> 1.816649e+001
<STATE> 3
<NUMMIXES> 2
<MIXTURE> 1 4.990185e-001
<MEAN> 9
 -7.106214e+000 -2.913573e+000 2.089885e+000 3.924188e+001 5.170958e+001 2.140344e+002 4.597363e-001 1.086140e-001 1.801729e-001
<VARIANCE> 9
 2.537330e+000 1.137913e+001 2.176725e+000 9.338243e+002 5.330568e+003 1.979921e+003 4.637212e-003 1.782373e-002 2.037049e-003
<GCONST> 2.809580e+001
<MIXTURE> 2 5.009813e-001
<MEAN> 9
 -7.509631e+000 -4.155814e+000 2.159344e+000 3.074974e+001 1.311095e+001 1.980885e+002 4.266317e-001 1.589184e-001 1.903416e-001
<VARIANCE> 9
 1.714772e+000 1.474137e+001 2.163655e+000 8.350387e+002 5.208744e+003 2.234106e+003 7.013033e-003 2.073824e-002 2.113337e-003
<GCONST> 2.854455e+001
<STATE> 4
<NUMMIXES> 2
<MIXTURE> 1 4.989686e-001
<MEAN> 9
 -7.563965e+000 3.475620e+000 1.987536e+000 5.801600e+000 1.177617e+000 -7.225008e-001 5.043366e-001 -1.062275e-001 2.462250e-001
<VARIANCE> 9
 8.791237e+000 1.325720e+000 2.973339e-001 1.063796e+002 3.535895e+002 1.926600e+003 4.762525e-004 2.545732e-003 1.938003e-004
<GCONST> 1.371078e+001
<MIXTURE> 2 5.010314e-001
<MEAN> 9
 -7.791428e+000 3.647460e+000 1.886427e+000 4.280278e+000 -5.611555e+000 -8.208060e+000 5.020043e-001 -1.154593e-001 2.459936e-001
<VARIANCE> 9
 7.625075e+000 1.363681e+000 2.983710e-001 1.145844e+002 3.416832e+002 1.763620e+003 4.762525e-004 2.895298e-003 1.938003e-004
<GCONST> 1.368051e+001
<STATE> 5
<NUMMIXES> 2
<MIXTURE> 1 4.929799e-001
<MEAN> 9
 -6.736749e+000 8.810287e-001 1.957602e+000 2.468342e+001 -5.083412e+001 -1.152712e+002 5.108556e-001 -5.902359e-003 1.998618e-001
<VARIANCE> 9
 2.041224e+000 1.215321e+000 4.364631e-001 1.821679e+002 1.176986e+003 1.975548e+003 4.762525e-004 4.115441e-003 1.084931e-003
<GCONST> 1.651583e+001
<MIXTURE> 2 5.070199e-001
<MEAN> 9
 -7.089045e+000 6.860548e-002 1.846556e+000 1.903701e+001 -4.647430e+001 -1.453251e+002 5.048597e-001 4.213736e-002 1.786393e-001
<VARIANCE> 9
 1.970813e+000 1.421238e+000 3.810878e-001 2.153316e+002 1.308472e+003 1.752525e+003 4.762525e-004 4.722437e-003 1.245146e-003
<GCONST> 1.693025e+001
<STATE> 6
<NUMMIXES> 2
<MIXTURE> 1 4.954442e-001
<MEAN> 9
 -8.092340e+000 -7.139930e+000 1.552337e+000 1.943460e+001 4.881018e+001 -1.569376e+002 2.987437e-001 3.036771e-001 1.952251e-001
<VARIANCE> 9
 1.932409e+000 7.432311e+000 1.730682e+000 3.505391e+002 1.479874e+003 2.012395e+003 1.325607e-002 4.945424e-003 1.247499e-003
<GCONST> 2.420107e+001
<MIXTURE> 2 5.045555e-001
<MEAN> 9
 -8.531007e+000 -6.748327e+000 1.631567e+000 1.471796e+001 3.829322e+001 -1.725293e+002 3.181163e-001 2.895032e-001 1.802515e-001
<VARIANCE> 9
 2.149835e+000 8.775972e+000 2.110607e+000 4.126991e+002 1.649610e+003 1.320143e+003 1.382804e-002 5.419263e-003 1.995415e-003
<GCONST> 2.512603e+001
<STATE> 7
<NUMMIXES> 2
<MIXTURE> 1 4.890873e-001
<MEAN> 9
 -4.717647e+000 -1.006710e+001 1.345043e+000 2.824443e+000 7.034265e+001 -5.615142e+001 3.607923e-002 3.752702e-001 1.911177e-001
<VARIANCE> 9
 1.382945e+000 3.371764e-001 4.600208e-001 1.419279e+002 1.554902e+003 1.557993e+003 2.488706e-003 5.782502e-004 1.938003e-004
<GCONST> 1.265694e+001
<MIXTURE> 2 5.109126e-001
<MEAN> 9
 -4.966263e+000 -1.024531e+001 1.136599e+000 -1.519933e+000 6.442381e+001 -6.273914e+001 3.207613e-002 3.740413e-001 1.843308e-001
<VARIANCE> 9
 1.475389e+000 3.371764e-001 4.940931e-001 1.178423e+002 1.237850e+003 1.483708e+003 2.013951e-003 5.782502e-004 2.026574e-004
<GCONST> 1.216326e+001
<TRANSP> 8
 0.000000e+000 1.000000e+000 0.000000e+000 0.000000e+000 0.000000e+000 0.000000e+000 0.000000e+000 0.000000e+000
 0.000000e+000 9.239641e-001 7.603591e-002 0.000000e+000 0.000000e+000 0.000000e+000 0.000000e+000 0.000000e+000
 0.000000e+000 0.000000e+000 9.419012e-001 5.809882e-002 0.000000e+000 0.000000e+000 0.000000e+000 0.000000e+000
 0.000000e+000 0.000000e+000 0.000000e+000 9.596609e-001 4.033914e-002 0.000000e+000 0.000000e+000 0.000000e+000
 0.000000e+000 0.000000e+000 0.000000e+000 0.000000e+000 9.038593e-001 9.614073e-002 0.000000e+000 0.000000e+000
 0.000000e+000 0.000000e+000 0.000000e+000 0.000000e+000 0.000000e+000 9.447764e-001 5.522355e-002 0.000000e+000
 0.000000e+000 0.000000e+000 0.000000e+000 0.000000e+000 0.000000e+000 0.000000e+000 9.302589e-001 6.974110e-002
 0.000000e+000 0.000000e+000 0.000000e+000 0.000000e+000 0.000000e+000 0.000000e+000 0.000000e+000 0.000000e+000
<ENDHMM>
