~o
<STREAMINFO> 1 9
<VECSIZE> 9<NULLD><USER><DIAGC>
~h "GA"
<BEGINHMM>
<NUMSTATES> 8
<STATE> 2
<NUMMIXES> 17
<MIXTURE> 1 7.581779e-002
<MEAN> 9
 -8.372475e+000 -1.021396e+001 1.242641e+000 6.393890e+001 9.516418e+001 1.225429e+002 7.602300e-002 3.685158e-001 1.678512e-001
<VARIANCE> 9
 3.350171e-001 3.371764e-001 8.079828e-001 2.977951e+001 3.680466e+001 2.974078e+002 4.762525e-004 5.782502e-004 1.938003e-004
<GCONST> 3.187758e+000
<MIXTURE> 2 5.536585e-002
<MEAN> 9
 -9.697036e+000 -6.410727e+000 -2.795120e+000 -4.591013e+001 3.633629e+001 2.638378e+002 3.028534e-001 3.126905e-001 1.813263e-001
<VARIANCE> 9
 1.491142e-001 4.899655e-001 1.414794e-001 1.205944e+002 3.680466e+001 1.210095e+002 8.535372e-004 5.782502e-004 1.938003e-004
<GCONST> 2.092446e+000
<MIXTURE> 3 4.857324e-002
<MEAN> 9
 -1.164185e+001 -9.149624e+000 4.583113e-001 -4.018816e+001 -6.070287e+001 2.263486e+002 2.675448e-001 3.563999e-001 1.552678e-001
<VARIANCE> 9
 2.553097e-001 3.371764e-001 6.976298e-002 2.977951e+001 3.680466e+001 1.210095e+002 4.762525e-004 5.782502e-004 1.938003e-004
<GCONST> -4.326181e-001
<MIXTURE> 4 7.680617e-002
<MEAN> 9
 -7.240965e+000 -1.193574e+001 1.369478e+000 2.481709e+001 -2.524375e+001 1.747359e+002 6.727280e-002 3.742424e-001 1.700680e-001
<VARIANCE> 9
 5.331210e-001 3.371764e-001 8.519237e-002 3.411654e+001 2.861986e+003 7.156205e+002 6.220380e-004 5.782502e-004 1.938003e-004
<GCONST> 7.037404e+000
<MIXTURE> 5 3.864447e-002
<MEAN> 9
 -1.105927e+001 -9.275462e+000 -1.378166e+000 1.515423e+001 8.750979e+001 2.320960e+002 1.753834e-001 3.664232e-001 1.548511e-001
<VARIANCE> 9
 9.840546e-001 3.371764e-001 3.266132e-001 2.749744e+002 2.148427e+002 6.706620e+002 4.762525e-004 5.782502e-004 1.938003e-004
<GCONST> 8.159793e+000
<MIXTURE> 6 5.272575e-002
<MEAN> 9
 -7.468061e+000 -1.002037e+001 1.211715e-001 2.127669e+000 -3.794959e+000 1.273210e+002 5.958284e-002 3.689461e-001 1.475849e-001
<VARIANCE> 9
 4.286043e-001 3.371764e-001 1.238694e-001 2.977951e+001 3.680466e+001 1.210095e+002 4.762525e-004 5.782502e-004 1.938003e-004
<GCONST> 6.595602e-001
<MIXTURE> 7 7.680438e-002
<MEAN> 9
 -1.038553e+001 -5.678642e+000 -3.401628e+000 -2.282605e+001 5.254048e+001 2.255285e+002 3.193963e-001 3.030281e-001 1.595244e-001
<VARIANCE> 9
 1.491142e-001 7.419283e-001 6.976298e-002 8.808430e+001 3.680466e+001 1.210095e+002 5.357646e-004 5.782502e-004 1.938003e-004
<GCONST> 1.020484e+000
<MIXTURE> 8 7.680424e-002
<MEAN> 9
 -1.139357e+001 -7.815261e+000 -7.510040e-001 -6.461382e+001 -7.235773e+001 2.552642e+002 3.418182e-001 2.984848e-001 1.568027e-001
<VARIANCE> 9
 1.141562e+000 4.407349e-001 1.221593e-001 9.696690e+001 8.804366e+001 1.210095e+002 8.220382e-004 5.782502e-004 1.938003e-004
<GCONST> 4.491712e+000
<MIXTURE> 9 5.120455e-002
<MEAN> 9
 -1.054491e+001 -8.081667e+000 -2.436231e+000 1.361618e+001 6.578432e+001 2.159090e+002 2.323484e-001 3.372478e-001 1.493958e-001
<VARIANCE> 9
 3.367073e-001 3.371764e-001 6.976298e-002 2.312099e+002 3.680466e+001 2.864841e+002 4.762525e-004 5.782502e-004 1.938003e-004
<GCONST> 2.755437e+000
<MIXTURE> 10 7.679884e-002
<MEAN> 9
 -7.847307e+000 -1.090766e+001 1.205707e-001 1.703165e+001 -1.124213e+002 7.813159e+001 9.091623e-003 3.654556e-001 1.680285e-001
<VARIANCE> 9
 6.161990e-001 3.371764e-001 1.023235e-001 2.977951e+001 8.708118e+002 4.764052e+002 4.762525e-004 5.782502e-004 1.938003e-004
<GCONST> 5.365710e+000
<MIXTURE> 11 7.801855e-002
<MEAN> 9
 -9.580712e+000 -9.804980e+000 -2.342659e-001 4.372717e+001 8.328878e+001 1.883684e+002 1.273901e-001 3.767512e-001 1.574026e-001
<VARIANCE> 9
 1.491142e-001 3.371764e-001 6.976298e-002 1.774953e+002 7.611040e+001 8.222560e+002 4.762525e-004 5.782502e-004 1.938003e-004
<GCONST> 3.457480e+000
<MIXTURE> 12 5.122679e-002
<MEAN> 9
 -8.698879e+000 -9.391620e+000 9.453284e-001 -1.765117e+001 -7.615548e+001 1.756330e+002 1.458918e-001 3.718173e-001 1.535707e-001
<VARIANCE> 9
 1.677402e-001 3.371764e-001 6.976298e-002 2.977951e+001 3.680466e+001 1.210095e+002 4.762525e-004 5.782502e-004 1.938003e-004
<GCONST> -8.526816e-001
<MIXTURE> 13 5.383164e-002
<MEAN> 9
 -1.048962e+001 -8.939481e+000 4.230203e-001 -2.347513e+001 -7.438703e+001 2.014833e+002 2.095260e-001 3.710307e-001 1.573789e-001
<VARIANCE> 9
 1.491142e-001 3.371764e-001 6.976298e-002 3.803025e+001 3.680466e+001 1.210095e+002 4.762525e-004 5.782502e-004 1.938003e-004
<GCONST> -7.258239e-001
<MIXTURE> 14 5.119029e-002
<MEAN> 9
 -8.903453e+000 -9.632658e+000 -2.952958e-001 -1.005621e+001 -5.269520e+001 1.545051e+002 9.498738e-002 3.713642e-001 1.520399e-001
<VARIANCE> 9
 1.491142e-001 3.371764e-001 7.347089e-002 2.977951e+001 2.867174e+002 1.210095e+002 4.762525e-004 5.782502e-004 1.938003e-004
<GCONST> 1.134276e+000
<MIXTURE> 15 4.705020e-002
<MEAN> 9
 -9.910638e+000 -5.745808e+000 -3.267458e+000 -5.872675e+001 3.618231e+001 2.594930e+002 3.352395e-001 2.969300e-001 1.914313e-001
<VARIANCE> 9
 1.491142e-001 1.074471e+000 3.730507e-001 3.151491e+002 3.680466e+001 1.210095e+002 2.334872e-003 5.782502e-004 1.938003e-004
<GCONST> 5.814193e+000
<MIXTURE> 16 4.986931e-002
<MEAN> 9
 -1.098275e+001 -8.106499e+000 -2.477591e+000 2.558423e+000 6.307278e+001 2.304435e+002 2.379237e-001 3.420682e-001 1.569061e-001
<VARIANCE> 9
 5.424752e-001 3.371764e-001 6.976298e-002 3.491086e+002 3.680466e+001 5.977858e+002 4.762525e-004 5.782502e-004 1.938003e-004
<GCONST> 4.379972e+000
<MIXTURE> 17 3.926811e-002
<MEAN> 9
 -1.123362e+001 -9.065811e+000 -1.638236e+000 1.529561e+001 8.144050e+001 2.279226e+002 1.802763e-001 3.569876e-001 1.519351e-001
<VARIANCE> 9
 1.584822e+000 3.371764e-001 4.265631e-001 4.206865e+002 1.856072e+002 8.990357e+002 4.762525e-004 5.782502e-004 1.938003e-004
<GCONST> 9.475318e+000
<STATE> 3
<NUMMIXES> 17
<MIXTURE> 1 7.017509e-002
<MEAN> 9
 -5.849394e+000 -3.312995e-002 2.108434e+000 -7.173778e+001 1.004575e+001 1.743597e+002 5.238636e-001 -5.363652e-002 2.188776e-001
<VARIANCE> 9
 4.209941e-001 3.371764e-001 6.976298e-002 4.532343e+001 1.689834e+002 6.028018e+002 4.762525e-004 9.037135e-004 1.938003e-004
<GCONST> 4.063926e+000
<MIXTURE> 2 7.017676e-002
<MEAN> 9
 -9.147586e+000 -2.457855e+000 1.677703e+000 -9.085383e+001 2.713320e+001 2.265553e+002 5.070447e-001 8.545595e-002 1.979588e-001
<VARIANCE> 9
 7.645671e-001 6.575906e-001 7.456824e-002 2.977951e+001 3.848891e+002 1.210095e+002 4.762525e-004 7.757167e-004 1.938003e-004
<GCONST> 4.039911e+000
<MIXTURE> 3 5.638281e-002
<MEAN> 9
 -6.563368e+000 2.657260e+000 -2.361161e+000 -1.592139e+002 1.517901e+001 9.933317e+001 5.019200e-001 -5.778243e-002 2.885091e-001
<VARIANCE> 9
 1.491142e-001 3.371764e-001 1.220375e+000 7.248471e+002 6.541843e+001 1.210095e+002 4.762525e-004 5.782502e-004 2.889763e-004
<GCONST> 6.058260e+000
<MIXTURE> 4 7.017422e-002
<MEAN> 9
 -9.960863e+000 -4.804235e+000 3.433571e-001 -9.132606e+001 -3.314040e+001 2.544209e+002 4.374994e-001 2.013643e-001 1.681121e-001
<VARIANCE> 9
 8.466607e-001 7.044780e-001 2.928123e-001 4.240413e+001 3.680466e+001 1.210095e+002 5.976697e-004 1.129127e-003 1.938003e-004
<GCONST> 4.187192e+000
<MIXTURE> 5 3.660255e-002
<MEAN> 9
 -6.451042e+000 1.750366e+000 -2.578086e+000 -1.722603e+002 -6.965466e+000 1.400611e+002 4.967015e-001 -6.107290e-003 2.970847e-001
<VARIANCE> 9
 3.139852e-001 3.371764e-001 8.371293e-002 1.524888e+002 3.680466e+001 1.210095e+002 4.762525e-004 5.782502e-004 1.938003e-004
<GCONST> 1.589808e+000
<MIXTURE> 6 4.799408e-002
<MEAN> 9
 -7.944652e+000 2.274801e-001 3.262391e+000 -1.166084e+002 -4.934575e+001 1.664108e+001 5.026993e-001 -1.487947e-001 2.672673e-001
<VARIANCE> 9
 1.882742e-001 3.371764e-001 6.559193e-001 6.401771e+002 3.680466e+001 1.210095e+002 4.762525e-004 5.782502e-004 1.938003e-004
<GCONST> 4.571662e+000
<MIXTURE> 7 5.265744e-002
<MEAN> 9
 -8.690508e+000 -3.320157e+000 -4.032835e+000 -1.016674e+002 9.749072e+000 2.396959e+002 4.163990e-001 2.132789e-001 2.248086e-001
<VARIANCE> 9
 2.200211e-001 3.371764e-001 6.976298e-002 1.056964e+002 3.680466e+001 1.210095e+002 4.762525e-004 5.782502e-004 1.938003e-004
<GCONST> 6.853781e-001
<MIXTURE> 8 4.305618e-002
<MEAN> 9
 -8.308562e+000 -1.536567e+000 -3.878290e+000 -1.126657e+002 1.999749e+001 2.020085e+002 4.680318e-001 1.358856e-001 2.466414e-001
<VARIANCE> 9
 1.902113e-001 3.371764e-001 6.976298e-002 3.846872e+002 5.116792e+001 1.531919e+002 4.762525e-004 5.782502e-004 2.197735e-004
<GCONST> 2.522729e+000
<MIXTURE> 9 4.931229e-002
<MEAN> 9
 -8.395773e+000 7.766890e-002 5.298183e+000 -1.273902e+002 -4.276424e+001 -1.163963e+001 5.127373e-001 -1.322553e-001 1.771866e-001
<VARIANCE> 9
 1.491142e-001 3.371764e-001 3.289158e+000 2.314873e+003 8.259024e+001 1.210095e+002 4.762525e-004 5.782502e-004 7.258609e-004
<GCONST> 9.364985e+000
<MIXTURE> 10 7.147639e-002
<MEAN> 9
 -7.353608e+000 2.557974e+000 -1.276792e-001 -1.683103e+002 -1.977441e+001 4.066144e+001 5.005828e-001 -1.097429e-001 2.823042e-001
<VARIANCE> 9
 3.887769e-001 1.720093e+000 3.817184e+000 3.936366e+001 2.445036e+002 1.210095e+002 4.762525e-004 5.782502e-004 2.243464e-004
<GCONST> 7.938591e+000
<MIXTURE> 11 9.305801e-002
<MEAN> 9
 -7.678295e+000 1.926050e-001 -3.798943e+000 -1.364562e+002 9.420189e+000 1.708940e+002 4.878537e-001 6.615859e-002 2.673911e-001
<VARIANCE> 9
 5.577381e-001 3.371764e-001 7.070927e-002 7.906178e+002 2.071783e+002 1.503099e+002 4.762525e-004 5.782502e-004 4.564203e-004
<GCONST> 6.442631e+000
<MIXTURE> 12 7.014892e-002
<MEAN> 9
 -9.398022e+000 -3.350132e+000 -4.463490e+000 -6.017020e+001 2.491786e+001 2.174895e+002 4.086130e-001 2.204903e-001 1.905678e-001
<VARIANCE> 9
 2.288004e-001 3.371764e-001 1.153570e-001 1.569197e+002 1.484949e+002 1.210095e+002 4.881129e-004 7.468868e-004 1.938003e-004
<GCONST> 3.298026e+000
<MIXTURE> 13 6.517205e-002
<MEAN> 9
 -7.008766e+000 3.420258e+000 -3.207815e+000 -1.504058e+002 2.569271e+001 7.185061e+001 5.038096e-001 -8.630578e-002 2.809604e-001
<VARIANCE> 9
 1.986973e-001 1.221936e+000 2.661055e+000 3.849733e+002 1.847008e+002 1.210095e+002 4.762525e-004 5.782502e-004 2.021781e-004
<GCONST> 8.460433e+000
<MIXTURE> 14 6.285261e-002
<MEAN> 9
 -6.884511e+000 2.127469e+000 -3.651621e+000 -1.173099e+002 7.834938e+000 1.231855e+002 5.058265e-001 4.514268e-003 2.581909e-001
<VARIANCE> 9
 1.491142e-001 3.371764e-001 6.976298e-002 2.977951e+001 3.680466e+001 1.771420e+002 4.762525e-004 6.473858e-004 1.938003e-004
<GCONST> -4.763670e-001
<MIXTURE> 15 5.590360e-002
<MEAN> 9
 -8.070857e+000 -5.647534e-001 5.272373e+000 -1.556992e+002 -6.141388e+001 -2.178153e+001 5.155715e-001 -1.274316e-001 1.890694e-001
<VARIANCE> 9
 1.491142e-001 3.371764e-001 7.974647e-001 4.458084e+002 3.680466e+001 1.210095e+002 4.762525e-004 5.782502e-004 2.889151e-004
<GCONST> 4.571323e+000
<MIXTURE> 16 3.977960e-002
<MEAN> 9
 -6.297097e+000 1.953809e+000 4.981228e-001 -1.763957e+002 -6.043604e+001 1.243915e+001 5.071872e-001 -1.313821e-001 2.480020e-001
<VARIANCE> 9
 6.052480e-001 9.042543e-001 2.054283e+000 6.866696e+002 3.680466e+001 1.210095e+002 4.762525e-004 5.782502e-004 1.938003e-004
<GCONST> 7.937655e+000
<MIXTURE> 17 4.507757e-002
<MEAN> 9
 -8.591297e+000 -1.743655e+000 -3.883592e+000 -1.016671e+002 2.071274e+001 1.996782e+002 4.642019e-001 1.366223e-001 2.359693e-001
<VARIANCE> 9
 2.469448e-001 3.371764e-001 6.976298e-002 3.885344e+002 3.842421e+001 1.210095e+002 4.762525e-004 5.782502e-004 3.341312e-004
<GCONST> 2.690399e+000
<STATE> 4
<NUMMIXES> 17
<MIXTURE> 1 6.974213e-002
<MEAN> 9
 -8.808972e+000 4.890297e+000 1.470913e+000 -9.002747e+000 6.099799e+001 4.053996e+001 4.968100e-001 -1.835623e-001 2.381042e-001
<VARIANCE> 9
 1.571133e-001 3.371764e-001 2.242442e-001 2.977951e+001 3.680466e+001 1.210095e+002 4.762525e-004 5.782502e-004 1.938003e-004
<GCONST> 2.495031e-001
<MIXTURE> 2 7.811547e-002
<MEAN> 9
 4.698228e-001 5.052803e+000 6.625025e+000 -2.083733e+001 -2.245603e+002 1.159705e+002 3.659649e-001 -2.672090e-001 -1.040086e-001
<VARIANCE> 9
 1.201282e+000 3.371764e-001 6.996273e-001 4.857840e+001 7.900348e+003 1.301446e+002 9.634878e-004 2.735505e-003 5.420636e-003
<GCONST> 1.494248e+001
<MIXTURE> 3 7.807473e-002
<MEAN> 9
 -3.681373e+000 9.222977e-001 2.573405e+000 -3.468409e+001 -2.846313e+001 6.269784e+001 5.116374e-001 -1.429004e-001 1.967425e-001
<VARIANCE> 9
 3.390422e-001 3.371764e-001 6.976298e-002 2.199406e+002 1.460952e+002 1.041133e+003 4.762525e-004 5.782502e-004 1.938003e-004
<GCONST> 5.381394e+000
<MIXTURE> 4 6.168861e-002
<MEAN> 9
 -1.166934e+001 5.005724e+000 1.342581e+000 -3.909779e+001 -9.792908e+001 7.643275e+001 4.777674e-001 -2.210730e-001 2.181538e-001
<VARIANCE> 9
 1.368591e+000 3.371764e-001 3.202479e+000 2.977951e+001 2.098216e+004 3.684132e+002 4.762525e-004 5.782502e-004 3.638750e-003
<GCONST> 1.546472e+001
<MIXTURE> 5 5.397989e-002
<MEAN> 9
 -8.629531e+000 4.701756e+000 2.540161e+000 5.775274e+000 1.735256e+001 9.551887e+000 5.087044e-001 -1.595012e-001 2.052857e-001
<VARIANCE> 9
 1.491142e-001 3.371764e-001 6.976298e-002 2.977951e+001 3.680466e+001 1.210095e+002 4.762525e-004 5.782502e-004 1.938003e-004
<GCONST> -9.703841e-001
<MIXTURE> 6 6.157105e-002
<MEAN> 9
 -1.136916e+001 2.687921e+000 4.400246e+000 -1.306020e+001 -8.047701e+001 3.863225e+001 5.125875e-001 -1.458968e-001 1.073734e-001
<VARIANCE> 9
 1.491142e-001 5.442194e-001 6.976298e-002 2.977951e+001 1.928582e+003 2.084202e+002 4.762525e-004 5.782502e-004 5.347255e-004
<GCONST> 5.025889e+000
<MIXTURE> 7 4.561131e-002
<MEAN> 9
 -1.059013e+001 9.091774e-001 4.658922e+000 -3.820494e+001 5.653528e+000 1.852571e+001 5.122116e-001 -1.368094e-001 1.936647e-001
<VARIANCE> 9
 2.865179e+000 3.371764e-001 2.130821e+000 1.534504e+002 8.665511e+002 1.878868e+002 4.762525e-004 5.782502e-004 2.797023e-003
<GCONST> 1.331235e+001
<MIXTURE> 8 4.687741e-002
<MEAN> 9
 -5.192883e+000 5.534128e+000 4.433724e+000 -3.418708e+001 -2.802440e+002 1.277230e+002 4.521219e-001 -2.533325e-001 3.469618e-002
<VARIANCE> 9
 2.436419e+000 3.371764e-001 2.752214e-001 2.977951e+001 7.715563e+002 1.210095e+002 4.762525e-004 5.782502e-004 9.880222e-004
<GCONST> 7.867321e+000
<MIXTURE> 9 4.678015e-002
<MEAN> 9
 -6.430187e+000 3.030062e+000 2.834347e+000 -2.313871e+000 8.009793e+000 3.635357e-001 5.075929e-001 -1.681422e-001 1.813084e-001
<VARIANCE> 9
 5.716637e-001 3.371764e-001 6.976298e-002 2.977951e+001 3.680466e+001 1.210095e+002 4.762525e-004 5.782502e-004 1.938003e-004
<GCONST> 3.734541e-001
<MIXTURE> 10 7.860740e-002
<MEAN> 9
 -9.693602e+000 5.948713e+000 1.872032e+000 -5.727243e+001 -1.654895e+002 7.153439e+001 4.547724e-001 -2.636513e-001 2.296945e-001
<VARIANCE> 9
 1.403597e+000 3.371764e-001 9.273847e-001 2.977951e+001 1.880913e+004 1.210095e+002 4.762525e-004 5.782502e-004 2.017200e-003
<GCONST> 1.243807e+001
<MIXTURE> 11 6.620936e-002
<MEAN> 9
 -8.642328e+000 4.716057e+000 3.028809e+000 7.129914e+000 7.284002e+000 -4.358802e+000 5.097027e-001 -1.573674e-001 1.945937e-001
<VARIANCE> 9
 1.491142e-001 3.371764e-001 6.976298e-002 2.977951e+001 3.680466e+001 1.210095e+002 4.762525e-004 5.782502e-004 1.938003e-004
<GCONST> -9.703841e-001
<MIXTURE> 12 5.525694e-002
<MEAN> 9
 -8.508634e+000 5.165707e+000 1.049551e+000 -1.484462e+001 4.760220e+001 4.000794e+001 4.891170e-001 -1.940118e-001 2.526063e-001
<VARIANCE> 9
 1.491142e-001 3.371764e-001 1.970633e-001 1.495676e+002 3.680466e+001 1.992167e+002 4.762525e-004 5.782502e-004 7.742762e-004
<GCONST> 3.565590e+000
<MIXTURE> 13 3.940223e-002
<MEAN> 9
 -1.116677e+001 3.177468e+000 2.876493e+000 -2.104383e+001 -1.616055e+002 7.079919e+001 4.915181e-001 -1.831108e-001 1.559885e-001
<VARIANCE> 9
 1.085237e+000 3.722164e-001 6.851777e-001 2.977951e+001 4.391234e+003 1.210095e+002 4.762525e-004 5.782502e-004 9.776914e-003
<GCONST> 1.210059e+001
<MIXTURE> 14 6.250192e-002
<MEAN> 9
 -1.894824e+000 4.433756e+000 5.316182e+000 -4.463476e+001 -4.100151e+002 9.745371e+001 4.193192e-001 -2.434094e-001 -3.009650e-002
<VARIANCE> 9
 6.529142e+000 9.767814e-001 9.296358e-001 6.349583e+001 6.058477e+002 1.210095e+002 4.762525e-004 4.014118e-003 7.121203e-003
<GCONST> 1.556201e+001
<MIXTURE> 15 6.744998e-002
<MEAN> 9
 -8.560590e+000 4.620874e+000 2.985538e+000 6.995776e+000 8.021890e+000 -5.059114e+000 5.094180e-001 -1.585975e-001 1.937015e-001
<VARIANCE> 9
 1.491142e-001 3.371764e-001 6.976298e-002 2.977951e+001 3.680466e+001 1.210095e+002 4.762525e-004 5.782502e-004 1.938003e-004
<GCONST> -9.703841e-001
<MIXTURE> 16 4.821590e-002
<MEAN> 9
 -1.039173e+001 6.495923e-001 4.770878e+000 -4.661575e+001 -1.161826e+000 1.589168e+001 5.120278e-001 -1.383127e-001 1.973495e-001
<VARIANCE> 9
 4.793710e+000 3.371764e-001 2.882188e+000 1.903142e+002 4.100495e+002 2.660803e+002 4.762525e-004 5.782502e-004 2.706583e-003
<GCONST> 1.391122e+001
<MIXTURE> 17 3.991570e-002
<MEAN> 9
 -1.157223e+001 3.130932e+000 2.776261e+000 -2.307020e+001 -1.776933e+002 7.206810e+001 4.881765e-001 -1.814394e-001 1.300903e-001
<VARIANCE> 9
 1.367459e+000 6.527022e-001 6.149195e-001 2.977951e+001 7.880988e+003 1.210095e+002 4.762525e-004 5.782502e-004 1.337745e-002
<GCONST> 1.368360e+001
<STATE> 5
<NUMMIXES> 17
<MIXTURE> 1 4.850888e-002
<MEAN> 9
 2.290209e+000 5.135093e+000 7.586449e+000 2.187708e+001 -5.543276e+001 9.048102e+001 2.207722e-001 -2.603899e-001 -2.308563e-001
<VARIANCE> 9
 4.377495e-001 3.371764e-001 1.054121e-001 2.977951e+001 1.335302e+003 1.352998e+002 4.762525e-004 5.782502e-004 1.938003e-004
<GCONST> 4.222236e+000
<MIXTURE> 2 3.842319e-002
<MEAN> 9
 -3.769019e+000 3.552207e+000 7.711821e+000 1.013600e+001 1.219131e+001 1.998581e+000 3.836647e-001 -1.052090e-001 -1.997015e-001
<VARIANCE> 9
 8.530329e-001 3.371764e-001 6.976298e-002 2.977951e+001 3.680466e+001 1.210095e+002 4.762525e-004 5.782502e-004 1.938003e-004
<GCONST> 7.737036e-001
<MIXTURE> 3 7.492543e-002
<MEAN> 9
 2.473590e+000 5.929702e+000 7.524595e+000 1.352411e+001 -6.334167e+001 -9.701480e+001 3.276938e-001 -3.155396e-001 -1.044976e-001
<VARIANCE> 9
 5.977100e-001 3.371764e-001 6.976298e-002 2.977951e+001 3.953880e+002 2.066319e+003 4.762525e-004 5.782502e-004 1.938003e-004
<GCONST> 5.629907e+000
<MIXTURE> 4 6.571193e-002
<MEAN> 9
 -5.079565e+000 3.223838e+000 8.905688e+000 -1.460211e+001 8.016424e+000 -1.455900e+002 3.143649e-001 -1.643296e-001 -2.261556e-001
<VARIANCE> 9
 4.937024e+000 5.813076e-001 2.087085e-001 2.977951e+001 7.011316e+002 9.554106e+002 4.762525e-004 8.254338e-004 1.938003e-004
<GCONST> 9.539178e+000
<MIXTURE> 5 8.386759e-002
<MEAN> 9
 3.736533e+000 5.202904e+000 7.168004e+000 1.473238e+001 3.835892e+000 2.780195e+001 1.841844e-001 -2.971715e-001 -2.209667e-001
<VARIANCE> 9
 5.049158e-001 3.371764e-001 2.245479e-001 6.275937e+001 4.150215e+001 1.004985e+003 4.762525e-004 5.782502e-004 1.938003e-004
<GCONST> 4.400748e+000
<MIXTURE> 6 5.616635e-002
<MEAN> 9
 -6.446092e+000 3.079447e+000 8.718046e+000 -4.865119e+000 -1.279235e+001 -4.111780e+001 3.493365e-001 -1.254619e-001 -2.182234e-001
<VARIANCE> 9
 1.314212e+000 4.483655e-001 1.063815e-001 2.977951e+001 1.855740e+002 2.125579e+002 4.762525e-004 7.533876e-004 2.139588e-004
<GCONST> 4.457528e+000
<MIXTURE> 7 5.721480e-002
<MEAN> 9
 -1.145762e+000 4.847933e+000 7.257787e+000 -6.796937e+000 -7.004572e+001 -8.177951e+001 3.140194e-001 -2.329042e-001 -1.868539e-001
<VARIANCE> 9
 1.389498e+000 3.422382e-001 5.371076e-001 1.756651e+002 2.830987e+003 1.925637e+004 1.847387e-003 5.782502e-004 1.458041e-003
<GCONST> 1.787844e+001
<MIXTURE> 8 6.316078e-002
<MEAN> 9
 -2.782497e+000 3.994144e+000 8.306164e+000 6.486095e+000 1.466402e+000 3.219117e+000 3.422671e-001 -1.264308e-001 -2.263035e-001
<VARIANCE> 9
 3.896535e-001 3.371764e-001 6.976298e-002 2.977951e+001 3.680466e+001 1.210095e+002 4.762525e-004 5.782502e-004 1.938003e-004
<GCONST> -9.839058e-003
<MIXTURE> 9 5.707689e-002
<MEAN> 9
 1.677511e-001 5.633647e+000 6.839501e+000 -7.070323e+000 -7.956655e+001 6.582483e+001 3.492608e-001 -3.252177e-001 -5.955771e-002
<VARIANCE> 9
 8.693896e+000 3.371764e-001 6.917190e-001 5.410656e+001 2.063742e+003 1.133685e+003 4.762525e-004 5.782502e-004 4.400104e-004
<GCONST> 1.307047e+001
<MIXTURE> 10 5.235090e-002
<MEAN> 9
 -7.552218e+000 3.164698e+000 8.317944e+000 -1.993862e+001 -5.598072e+001 -1.277313e+002 3.676630e-001 -1.694867e-001 -1.874410e-001
<VARIANCE> 9
 3.057779e+000 8.969163e-001 2.775984e-001 2.977951e+001 4.400359e+001 3.231125e+003 4.762525e-004 8.056701e-004 4.051424e-004
<GCONST> 8.942215e+000
<MIXTURE> 11 7.150484e-002
<MEAN> 9
 -2.090660e+000 2.683080e+000 7.100651e+000 6.926872e+000 3.875190e+000 -1.295295e+001 3.511727e-001 -1.293261e-001 -2.157565e-001
<VARIANCE> 9
 1.765062e-001 3.371764e-001 2.291281e-001 2.977951e+001 3.680466e+001 1.210095e+002 4.762525e-004 5.782502e-004 3.530261e-004
<GCONST> 9.871526e-001
<MIXTURE> 12 6.976784e-002
<MEAN> 9
 1.803197e+000 5.926008e+000 6.846500e+000 6.771536e+000 -3.991811e+001 -1.504960e+001 3.258103e-001 -3.280507e-001 -8.865967e-002
<VARIANCE> 9
 7.664430e-001 3.371764e-001 3.469728e-001 2.977951e+001 5.989984e+002 2.696247e+003 4.762525e-004 5.782502e-004 1.938003e-004
<GCONST> 8.164187e+000
<MIXTURE> 13 6.583213e-002
<MEAN> 9
 3.757520e+000 4.386308e+000 7.626928e+000 -1.479899e+001 6.531893e+000 -1.008112e+002 2.116208e-001 -2.777871e-001 -2.247257e-001
<VARIANCE> 9
 4.462875e-001 3.371764e-001 2.350841e-001 2.977951e+001 3.680466e+001 1.531418e+003 4.762525e-004 5.782502e-004 1.938003e-004
<GCONST> 3.878787e+000
<MIXTURE> 14 5.274097e-002
<MEAN> 9
 -6.264180e-002 5.857453e+000 6.767579e+000 3.293767e-001 -8.417661e+001 -1.298005e+002 3.428086e-001 -2.858203e-001 -1.223360e-001
<VARIANCE> 9
 7.544431e-001 3.371764e-001 3.769886e-001 8.500061e+001 6.940249e+002 7.539194e+003 4.762525e-004 5.782502e-004 5.413531e-004
<GCONST> 1.148296e+001
<MIXTURE> 15 6.521531e-002
<MEAN> 9
 -3.626050e+000 3.829488e+000 8.503651e+000 3.801953e+000 1.639128e+000 -6.997985e+000 3.341697e-001 -1.179389e-001 -2.325786e-001
<VARIANCE> 9
 1.470706e+000 3.371764e-001 6.976298e-002 2.977951e+001 3.764943e+001 1.210095e+002 4.762525e-004 5.782502e-004 1.938003e-004
<GCONST> 1.341094e+000
<MIXTURE> 16 4.203125e-002
<MEAN> 9
 -8.204125e+000 2.466780e+000 7.886553e+000 -2.717523e+001 -7.545309e+001 -1.402505e+002 3.688102e-001 -1.753924e-001 -1.862516e-001
<VARIANCE> 9
 6.588024e+000 2.086025e+000 1.306049e-001 2.977951e+001 3.269048e+002 6.088671e+002 4.762525e-004 1.377013e-003 1.938003e-004
<GCONST> 9.934833e+000
<MIXTURE> 17 3.550095e-002
<MEAN> 9
 -3.824245e+000 3.362458e+000 7.645533e+000 8.896508e+000 9.054889e+000 -2.079460e+000 3.810619e-001 -1.118520e-001 -2.016737e-001
<VARIANCE> 9
 1.581579e+000 3.371764e-001 6.976298e-002 2.977951e+001 3.680466e+001 1.210095e+002 4.762525e-004 5.782502e-004 1.938003e-004
<GCONST> 1.391082e+000
<STATE> 6
<NUMMIXES> 17
<MIXTURE> 1 6.451152e-002
<MEAN> 9
 -2.109978e+000 9.205054e-001 4.575116e+000 -3.011330e+001 4.444732e+001 -9.363501e+001 3.973313e-001 -5.694611e-002 -1.806255e-001
<VARIANCE> 9
 1.491142e-001 3.371764e-001 7.298798e-002 5.161534e+001 3.936290e+002 1.235775e+002 4.762525e-004 5.782502e-004 1.938003e-004
<GCONST> 2.015590e+000
<MIXTURE> 2 3.446331e-002
<MEAN> 9
 -7.421775e+000 -3.108439e+000 4.873439e+000 -6.173722e+001 1.310988e+002 -2.256086e+002 4.240894e-001 1.381801e-001 -6.173510e-002
<VARIANCE> 9
 2.448890e-001 4.238209e-001 6.976298e-002 2.977951e+001 5.015415e+001 1.210095e+002 4.762525e-004 5.782502e-004 1.938003e-004
<GCONST> 6.389141e-002
<MIXTURE> 3 6.890004e-002
<MEAN> 9
 -5.231858e+000 -9.427055e-001 4.810213e+000 -5.169162e+001 1.248026e+002 -1.798453e+002 4.259090e-001 4.840696e-002 -1.247468e-001
<VARIANCE> 9
 5.999587e-001 4.043476e-001 6.976298e-002 2.977951e+001 6.132722e+001 4.889174e+002 4.762525e-004 7.588389e-004 3.187924e-004
<GCONST> 3.279850e+000
<MIXTURE> 4 8.662718e-002
<MEAN> 9
 -8.647563e+000 -5.870468e+000 6.692562e+000 -8.950578e+001 5.844218e+001 -2.435186e+002 3.459655e-001 2.357785e-001 -5.675551e-002
<VARIANCE> 9
 9.144679e-001 3.371764e-001 1.406338e-001 2.977951e+001 9.081740e+002 1.210095e+002 5.456942e-004 5.782502e-004 1.938003e-004
<GCONST> 4.886226e+000
<MIXTURE> 5 3.553499e-002
<MEAN> 9
 -2.520709e+000 1.752774e+000 5.271241e+000 -1.225869e-001 2.284643e+001 -4.094643e+001 3.935473e-001 -8.901426e-002 -1.912024e-001
<VARIANCE> 9
 1.491142e-001 3.371764e-001 2.335279e-001 2.977951e+001 5.373859e+001 1.210095e+002 4.762525e-004 5.782502e-004 1.938003e-004
<GCONST> 6.163206e-001
<MIXTURE> 6 5.155956e-002
<MEAN> 9
 -7.661978e+000 -7.965789e+000 6.248479e+000 -9.506551e+001 4.943055e+001 -2.366247e+002 2.755485e-001 3.142301e-001 -4.126093e-003
<VARIANCE> 9
 1.944609e+000 6.730357e-001 2.466276e-001 2.977951e+001 4.356163e+002 1.210095e+002 6.634017e-004 5.782502e-004 1.938003e-004
<GCONST> 6.354259e+000
<MIXTURE> 7 6.900438e-002
<MEAN> 9
 -3.539415e+000 8.661689e-001 6.166518e+000 -7.576058e+001 3.886356e+001 -1.603580e+002 3.840955e-001 -3.239859e-002 -1.936067e-001
<VARIANCE> 9
 2.528634e-001 3.371764e-001 6.976298e-002 6.283892e+001 6.136232e+001 3.487818e+002 4.762525e-004 1.307022e-003 1.938003e-004
<GCONST> 2.689754e+000
<MIXTURE> 8 4.549177e-002
<MEAN> 9
 -6.565118e+000 -2.514803e+000 6.093250e+000 -8.608831e+001 9.041600e+001 -2.275100e+002 3.863921e-001 1.286497e-001 -1.258628e-001
<VARIANCE> 9
 2.324261e-001 5.009462e-001 2.075141e-001 4.077139e+001 8.900467e+001 1.210095e+002 4.762525e-004 9.374167e-004 4.034339e-004
<GCONST> 3.372993e+000
<MIXTURE> 9 6.885236e-002
<MEAN> 9
 -1.150930e+000 1.595763e+000 5.598948e+000 4.082394e-001 1.455463e+001 -3.359797e+001 3.429846e-001 -1.240546e-001 -2.200782e-001
<VARIANCE> 9
 1.491142e-001 3.371764e-001 1.958631e-001 2.977951e+001 1.009512e+002 1.210095e+002 4.762525e-004 5.782502e-004 1.938003e-004
<GCONST> 1.070941e+000
<MIXTURE> 10 5.618881e-002
<MEAN> 9
 -2.362867e+000 5.343384e-001 4.666513e+000 -4.825336e+001 5.835408e+001 -1.248416e+002 4.036040e-001 -3.376206e-002 -1.752940e-001
<VARIANCE> 9
 1.491142e-001 3.371764e-001 6.976298e-002 9.609616e+001 5.204431e+002 1.210095e+002 4.762525e-004 5.782502e-004 1.938003e-004
<GCONST> 2.850200e+000
<MIXTURE> 11 6.981059e-002
<MEAN> 9
 -1.327273e+000 1.588078e+000 5.092247e+000 -3.213136e+001 7.102045e+000 -8.689191e+001 3.605622e-001 -1.202860e-001 -2.129261e-001
<VARIANCE> 9
 1.491142e-001 3.371764e-001 6.976298e-002 2.420558e+002 1.672091e+002 4.383286e+002 4.762525e-004 5.782502e-004 1.938003e-004
<GCONST> 3.925685e+000
<MIXTURE> 12 6.878350e-002
<MEAN> 9
 -4.440790e+000 -1.001419e+000 6.140923e+000 -8.620934e+001 6.211803e+001 -2.075307e+002 4.013799e-001 7.209336e-002 -1.497030e-001
<VARIANCE> 9
 1.913008e-001 5.357438e-001 6.495163e-001 1.019532e+002 1.515552e+002 1.210095e+002 4.762525e-004 5.782502e-004 4.741447e-004
<GCONST> 5.513626e+000
<MIXTURE> 13 3.447375e-002
<MEAN> 9
 -3.608947e+000 5.365837e-002 4.735286e+000 -6.451795e+001 6.797861e+001 -1.748357e+002 4.181801e-001 3.002839e-002 -1.489686e-001
<VARIANCE> 9
 2.624745e-001 3.371764e-001 6.976298e-002 2.977951e+001 3.680466e+001 1.418591e+002 4.762525e-004 5.782502e-004 1.938003e-004
<GCONST> -2.459764e-001
<MIXTURE> 14 6.773296e-002
<MEAN> 9
 -2.148440e+000 1.321691e+000 4.332197e+000 -3.616540e+000 7.139581e+001 -6.348523e+001 3.705581e-001 -8.658645e-002 -2.064526e-001
<VARIANCE> 9
 3.804054e-001 3.371764e-001 9.566393e-002 4.699985e+001 7.035092e+002 1.237516e+002 4.762525e-004 5.782502e-004 1.938003e-004
<GCONST> 3.711066e+000
<MIXTURE> 15 6.890076e-002
<MEAN> 9
 -9.629521e+000 -6.087447e+000 4.554245e+000 -6.292684e+001 1.312177e+002 -2.397257e+002 3.854528e-001 2.293203e-001 1.352275e-002
<VARIANCE> 9
 1.491142e-001 8.786027e-001 8.237235e-002 2.977951e+001 2.821301e+002 1.210095e+002 4.762525e-004 8.592423e-004 8.050487e-004
<GCONST> 4.010348e+000
<MIXTURE> 16 5.786442e-002
<MEAN> 9
 -6.750097e+000 -3.463888e+000 6.001974e+000 -8.960719e+001 7.932558e+001 -2.377657e+002 3.774126e-001 1.754415e-001 -1.003247e-001
<VARIANCE> 9
 8.515661e-001 5.296106e-001 6.976298e-002 1.034293e+002 4.883511e+001 1.210095e+002 4.762525e-004 7.844920e-004 2.008467e-004
<GCONST> 3.092150e+000
<MIXTURE> 17 5.130029e-002
<MEAN> 9
 -7.901478e+000 -7.944460e+000 6.166718e+000 -9.395446e+001 5.277840e+001 -2.394162e+002 2.805426e-001 3.086622e-001 -5.896748e-003
<VARIANCE> 9
 1.620352e+000 7.019380e-001 2.398273e-001 2.977951e+001 3.994042e+002 1.210095e+002 6.808933e-004 6.101902e-004 2.191902e-004
<GCONST> 6.302036e+000
<STATE> 7
<NUMMIXES> 17
<MIXTURE> 1 5.904571e-002
<MEAN> 9
 -5.553962e+000 -1.028914e+001 3.766947e+000 -2.442099e+000 1.896300e+002 -2.835479e+001 -3.090816e-002 3.630297e-001 1.738101e-001
<VARIANCE> 9
 3.903171e+000 5.876371e-001 1.156947e-001 1.046552e+002 5.395317e+002 1.210095e+002 4.762525e-004 5.782502e-004 1.938003e-004
<GCONST> 7.297729e+000
<MIXTURE> 2 5.903988e-002
<MEAN> 9
 -8.510040e+000 -1.069076e+001 3.465864e+000 -2.835365e+001 7.676832e+001 -2.110163e+002 1.875757e-001 3.636364e-001 1.459184e-001
<VARIANCE> 9
 1.491142e-001 3.371764e-001 6.976298e-002 3.633997e+001 2.616595e+002 1.210095e+002 5.357208e-004 5.782502e-004 1.938003e-004
<GCONST> 1.307796e+000
<MIXTURE> 3 7.866699e-002
<MEAN> 9
 -6.790661e+000 -1.157277e+001 4.599195e+000 -8.012421e+001 6.057911e+001 -2.021525e+002 1.127055e-001 3.729529e-001 9.618456e-002
<VARIANCE> 9
 2.047508e+000 3.988802e-001 6.976298e-002 2.977951e+001 6.560022e+002 2.035030e+002 9.721607e-004 5.782502e-004 2.630729e-004
<GCONST> 6.236865e+000
<MIXTURE> 4 7.529877e-002
<MEAN> 9
 -6.479722e+000 -1.053079e+001 2.170520e+000 -2.169059e+001 2.073208e+001 -6.377092e+001 3.014064e-002 3.794927e-001 1.824432e-001
<VARIANCE> 9
 3.457554e-001 3.371764e-001 6.976298e-002 2.977951e+001 7.134335e+002 6.424127e+002 4.762525e-004 5.782502e-004 1.938003e-004
<GCONST> 4.504462e+000
<MIXTURE> 5 3.936004e-002
<MEAN> 9
 -6.373500e+000 -1.279518e+001 2.656622e+000 -7.658529e+001 1.927746e+002 -2.415549e+002 1.177270e-001 3.781818e-001 1.066328e-001
<VARIANCE> 9
 2.939468e-001 3.371764e-001 1.533241e-001 5.265092e+001 2.821988e+002 1.210095e+002 4.762525e-004 5.782502e-004 1.938003e-004
<GCONST> 3.102603e+000
<MIXTURE> 6 7.871827e-002
<MEAN> 9
 -5.997483e+000 -1.008244e+001 1.215513e+000 -5.458718e+001 8.586413e+001 -3.710454e+001 -5.862046e-002 3.516005e-001 1.790714e-001
<VARIANCE> 9
 9.585951e-001 3.371764e-001 4.838962e-001 2.977951e+001 1.065723e+003 1.588076e+002 4.762525e-004 5.782502e-004 1.938003e-004
<GCONST> 6.464749e+000
<MIXTURE> 7 7.865815e-002
<MEAN> 9
 -5.201773e+000 -1.135231e+001 1.750854e+000 -6.129962e+001 1.061340e+002 -7.952979e+001 -1.293696e-002 3.622763e-001 1.591803e-001
<VARIANCE> 9
 1.491142e-001 3.371764e-001 1.514638e+000 6.678273e+001 2.708857e+002 1.856864e+002 9.759105e-004 5.782502e-004 1.938003e-004
<GCONST> 6.056754e+000
<MIXTURE> 8 3.936047e-002
<MEAN> 9
 -8.234940e+000 -1.321084e+001 1.500000e+000 -5.201220e+001 1.859756e+002 -2.184756e+002 5.181818e-002 3.677273e-001 1.280612e-001
<VARIANCE> 9
 1.491142e-001 3.371764e-001 6.976298e-002 2.977951e+001 3.878978e+002 1.210095e+002 4.762525e-004 5.782502e-004 1.938003e-004
<GCONST> 1.384734e+000
<MIXTURE> 9 8.379894e-002
<MEAN> 9
 -4.584701e+000 -9.590338e+000 1.494659e+000 -3.396234e+001 1.710222e+002 -3.750296e+001 -1.014991e-002 3.690280e-001 1.791892e-001
<VARIANCE> 9
 5.510496e-001 3.371764e-001 5.838938e-001 3.432167e+001 1.458539e+002 1.210095e+002 4.762525e-004 5.782502e-004 1.938003e-004
<GCONST> 3.980281e+000
<MIXTURE> 10 4.928782e-002
<MEAN> 9
 -7.026483e+000 -1.206094e+001 1.636182e+000 -5.660279e+001 9.650674e+001 -1.440270e+002 9.505565e-003 3.756104e-001 1.493991e-001
<VARIANCE> 9
 4.204239e-001 3.371764e-001 1.578964e+000 6.465164e+001 1.402344e+002 4.340236e+002 7.255797e-004 5.782502e-004 1.938003e-004
<GCONST> 6.996726e+000
<MIXTURE> 11 5.873762e-002
<MEAN> 9
 -7.586383e+000 -1.003652e+001 5.174102e+000 -9.015388e+001 1.159791e+002 -2.319969e+002 2.066611e-001 3.574647e-001 4.588586e-002
<VARIANCE> 9
 2.154402e+000 3.371764e-001 1.101100e-001 3.556548e+001 1.030432e+003 1.210095e+002 4.762525e-004 5.782502e-004 1.938003e-004
<GCONST> 5.666209e+000
<MIXTURE> 12 3.898517e-002
<MEAN> 9
 -1.018012e+001 -8.852843e+000 3.218072e+000 -3.152623e+001 1.301027e+002 -2.314251e+002 2.961197e-001 3.199802e-001 1.043203e-001
<VARIANCE> 9
 9.168105e-001 3.371764e-001 5.517464e-001 5.706878e+001 3.296409e+003 1.210095e+002 9.902071e-004 5.782502e-004 3.022528e-004
<GCONST> 9.235589e+000
<MIXTURE> 13 7.851848e-002
<MEAN> 9
 -9.010234e+000 -1.118094e+001 2.153606e+000 -1.332696e+001 3.717457e+001 -1.588311e+002 9.098368e-002 3.691049e-001 1.685995e-001
<VARIANCE> 9
 1.491142e-001 3.371764e-001 8.239792e-002 2.977951e+001 1.536612e+003 5.153374e+002 5.330766e-004 5.782502e-004 1.938003e-004
<GCONST> 4.489455e+000
<MIXTURE> 14 5.394405e-002
<MEAN> 9
 -4.577348e+000 -9.862759e+000 1.949768e+000 -5.008997e+001 1.600094e+002 -3.693874e+001 6.813852e-003 3.771486e-001 1.746349e-001
<VARIANCE> 9
 1.491142e-001 3.371764e-001 1.800159e-001 4.922758e+001 4.011108e+002 1.210095e+002 4.762525e-004 5.782502e-004 1.938003e-004
<GCONST> 2.868804e+000
<MIXTURE> 15 3.971829e-002
<MEAN> 9
 -6.022261e+000 -1.094982e+001 3.882849e+000 -9.063148e+001 1.130514e+002 -2.407849e+002 1.792795e-001 3.552070e-001 6.875583e-002
<VARIANCE> 9
 1.491142e-001 3.371764e-001 1.239822e-001 2.977951e+001 4.244261e+002 1.210095e+002 4.762525e-004 5.782502e-004 2.556073e-004
<GCONST> 2.326579e+000
<MIXTURE> 16 4.912683e-002
<MEAN> 9
 -7.397637e+000 -1.216062e+001 1.906664e+000 -5.674260e+001 1.027434e+002 -1.551667e+002 1.923707e-002 3.774805e-001 1.465163e-001
<VARIANCE> 9
 4.830160e-001 3.371764e-001 1.746784e+000 7.448322e+001 1.578778e+002 4.849031e+002 6.209019e-004 5.782502e-004 1.938003e-004
<GCONST> 7.451636e+000
<MIXTURE> 17 3.973480e-002
<MEAN> 9
 -1.071837e+001 -9.042936e+000 2.833781e+000 -2.714356e+001 1.112355e+002 -2.306856e+002 2.862471e-001 3.231713e-001 1.094068e-001
<VARIANCE> 9
 7.436670e-001 3.371764e-001 2.694013e-001 3.599532e+001 2.356647e+003 1.210095e+002 7.045891e-004 5.782502e-004 2.283887e-004
<GCONST> 6.892423e+000
<TRANSP> 8
 0.000000e+000 1.000000e+000 0.000000e+000 0.000000e+000 0.000000e+000 0.000000e+000 0.000000e+000 0.000000e+000
 0.000000e+000 9.231950e-001 7.680494e-002 0.000000e+000 0.000000e+000 0.000000e+000 0.000000e+000 0.000000e+000
 0.000000e+000 0.000000e+000 9.473678e-001 5.263215e-002 0.000000e+000 0.000000e+000 0.000000e+000 0.000000e+000
 0.000000e+000 0.000000e+000 0.000000e+000 9.531245e-001 4.687551e-002 0.000000e+000 0.000000e+000 0.000000e+000
 0.000000e+000 0.000000e+000 0.000000e+000 0.000000e+000 9.716847e-001 2.831533e-002 0.000000e+000 0.000000e+000
 0.000000e+000 0.000000e+000 0.000000e+000 0.000000e+000 0.000000e+000 9.483210e-001 5.167894e-002 0.000000e+000
 0.000000e+000 0.000000e+000 0.000000e+000 0.000000e+000 0.000000e+000 0.000000e+000 9.409603e-001 5.903964e-002
 0.000000e+000 0.000000e+000 0.000000e+000 0.000000e+000 0.000000e+000 0.000000e+000 0.000000e+000 0.000000e+000
<ENDHMM>
~h "GM"
<BEGINHMM>
<NUMSTATES> 8
<STATE> 2
<NUMMIXES> 17
<MIXTURE> 1 5.316737e-002
<MEAN> 9
 -1.164556e+001 -9.489331e+000 -3.048815e-001 6.867311e+000 7.069038e+001 3.378989e+002 3.225242e-001 3.159974e-001 2.132707e-001
<VARIANCE> 9
 1.491142e-001 1.915973e+000 6.976298e-002 1.526413e+002 3.680466e+001 1.210095e+002 1.411683e-003 5.782502e-004 1.938003e-004
<GCONST> 3.487849e+000
<MIXTURE> 2 5.331305e-002
<MEAN> 9
 -6.775136e+000 -1.287138e+001 3.517852e+000 1.587295e+001 -1.302666e+002 1.814969e+002 8.150889e-002 3.790894e-001 2.214284e-001
<VARIANCE> 9
 6.973197e-001 3.371764e-001 3.303566e-001 6.790595e+001 1.096162e+003 7.862696e+002 9.172940e-004 5.782502e-004 1.938003e-004
<GCONST> 8.872375e+000
<MIXTURE> 3 4.074964e-002
<MEAN> 9
 -9.116053e+000 -8.674313e+000 -9.351715e-001 -3.500321e+001 -4.821646e+001 1.601067e+002 2.136945e-001 3.633139e-001 1.935492e-001
<VARIANCE> 9
 1.491142e-001 3.371764e-001 6.976298e-002 2.977951e+001 3.108640e+002 1.210095e+002 6.769325e-004 5.782502e-004 1.938003e-004
<GCONST> 1.514972e+000
<MIXTURE> 4 8.895372e-002
<MEAN> 9
 -1.055305e+001 -7.127022e+000 -2.014714e+000 -1.828397e+001 2.046130e+001 2.470873e+002 2.635968e-001 3.400106e-001 2.085131e-001
<VARIANCE> 9
 6.311441e-001 1.473753e+000 1.334567e+000 4.469574e+001 1.126398e+002 1.210095e+002 6.295678e-004 5.782502e-004 1.938003e-004
<GCONST> 6.702367e+000
<MIXTURE> 5 1.776925e-002
<MEAN> 9
 -9.433735e+000 -5.939759e+000 -8.795181e-001 -1.841463e+001 3.957317e+001 3.425610e+002 3.927273e-001 2.581818e-001 2.306122e-001
<VARIANCE> 9
 1.491142e-001 3.371764e-001 6.976298e-002 2.977951e+001 3.680466e+001 1.210095e+002 4.762525e-004 5.782502e-004 1.938003e-004
<GCONST> -9.703841e-001
<MIXTURE> 6 4.251972e-002
<MEAN> 9
 -8.795316e+000 -9.914655e+000 6.294825e-001 -6.717974e+000 -2.164743e+001 1.641606e+002 1.459226e-001 3.698586e-001 2.025571e-001
<VARIANCE> 9
 7.331142e-001 3.371764e-001 6.318079e-001 1.250442e+002 1.664953e+002 2.149666e+002 4.762525e-004 5.782502e-004 2.046789e-004
<GCONST> 6.399103e+000
<MIXTURE> 7 4.530398e-002
<MEAN> 9
 -1.042046e+001 -6.901110e+000 -1.127258e+000 -5.653384e+001 -7.906825e+001 1.770724e+002 3.272938e-001 3.123612e-001 1.999589e-001
<VARIANCE> 9
 2.129709e-001 3.371764e-001 6.976298e-002 2.977951e+001 5.676290e+001 1.210095e+002 4.762525e-004 5.782502e-004 1.938003e-004
<GCONST> -1.806841e-001
<MIXTURE> 8 7.981165e-002
<MEAN> 9
 -9.048759e+000 -1.174525e+001 5.269591e-001 -7.206732e+000 3.676550e+001 1.371848e+002 5.943029e-002 3.722201e-001 1.830286e-001
<VARIANCE> 9
 1.739052e+000 4.128684e-001 1.306340e-001 2.977951e+001 1.536498e+002 1.063079e+003 4.762525e-004 5.782502e-004 1.938003e-004
<GCONST> 5.917922e+000
<MIXTURE> 9 8.883750e-002
<MEAN> 9
 -1.049554e+001 -9.708907e+000 -1.000757e+000 -1.317857e+001 1.179343e+001 2.192715e+002 1.775598e-001 3.659456e-001 2.008836e-001
<VARIANCE> 9
 6.054125e-001 5.489578e-001 4.312620e-001 2.977951e+001 2.592435e+002 1.463445e+002 1.171335e-003 5.782502e-004 1.938003e-004
<GCONST> 5.782031e+000
<MIXTURE> 10 5.338573e-002
<MEAN> 9
 -1.044211e+001 -4.474216e+000 -2.848354e+000 -4.411594e+001 1.152907e+001 2.496098e+002 3.663091e-001 2.729259e-001 2.234464e-001
<VARIANCE> 9
 1.845476e-001 3.371764e-001 1.523433e+000 1.757241e+002 2.348082e+002 1.210095e+002 9.741045e-004 5.782502e-004 1.938003e-004
<GCONST> 6.670239e+000
<MIXTURE> 11 8.253323e-002
<MEAN> 9
 -7.484111e+000 -1.015967e+001 7.466400e-001 -9.769024e+000 -3.399408e+001 1.307209e+002 9.776986e-002 3.770144e-001 1.901996e-001
<VARIANCE> 9
 1.491142e-001 3.371764e-001 5.510763e-001 2.977951e+001 2.258948e+003 1.210095e+002 4.762525e-004 5.782502e-004 4.395256e-004
<GCONST> 6.032284e+000
<MIXTURE> 12 6.839785e-002
<MEAN> 9
 -9.998817e+000 -5.094865e+000 -7.504471e-001 -7.133539e+001 -1.078430e+002 1.828621e+002 3.945253e-001 2.548702e-001 1.870909e-001
<VARIANCE> 9
 1.647686e-001 3.371764e-001 8.711948e-001 2.977951e+001 3.680466e+001 1.210095e+002 5.110156e-004 5.782502e-004 1.938003e-004
<GCONST> 1.724660e+000
<MIXTURE> 13 7.231475e-002
<MEAN> 9
 -7.539750e+000 -9.961879e+000 5.947394e-001 -1.111416e+001 -7.739895e+001 8.100744e+001 5.572626e-002 3.837011e-001 2.079892e-001
<VARIANCE> 9
 1.491142e-001 3.371764e-001 6.976298e-002 2.977951e+001 9.128092e+001 4.403409e+002 4.762525e-004 5.782502e-004 1.938003e-004
<GCONST> 1.229613e+000
<MIXTURE> 14 7.090416e-002
<MEAN> 9
 -1.018820e+001 -5.381362e+000 -2.099493e+000 -4.717049e+001 -1.677775e+001 2.474276e+002 3.605313e-001 2.777799e-001 2.257987e-001
<VARIANCE> 9
 3.233525e-001 1.719920e+000 3.121788e+000 3.317873e+001 6.219376e+001 1.210095e+002 8.101088e-004 6.773713e-004 1.938003e-004
<GCONST> 6.556285e+000
<MIXTURE> 15 5.344800e-002
<MEAN> 9
 -1.294139e+001 -1.231447e+001 1.376762e+000 4.644311e+001 5.666360e+001 2.646111e+002 1.848080e-001 3.690145e-001 2.105460e-001
<VARIANCE> 9
 4.129129e+000 3.371764e-001 2.443437e+000 2.977951e+001 7.696923e+002 6.399929e+002 1.333498e-003 5.782502e-004 1.938003e-004
<GCONST> 1.164235e+001
<MIXTURE> 16 4.442535e-002
<MEAN> 9
 -9.578186e+000 -7.995212e+000 -9.764526e-001 -4.465600e+001 -7.550572e+001 1.672227e+002 2.586588e-001 3.453795e-001 1.948590e-001
<VARIANCE> 9
 1.491142e-001 3.371764e-001 6.976298e-002 3.403426e+001 1.824038e+002 1.210095e+002 6.116609e-004 5.782502e-004 1.938003e-004
<GCONST> 1.013993e+000
<MIXTURE> 17 4.416488e-002
<MEAN> 9
 -8.394639e+000 -9.706282e+000 1.129735e-001 -1.613256e+001 -1.875457e+001 1.543515e+002 1.483633e-001 3.687819e-001 1.911638e-001
<VARIANCE> 9
 4.610796e-001 3.371764e-001 5.988989e-001 1.088528e+002 1.797686e+002 1.473032e+002 4.762525e-004 5.782502e-004 2.110338e-004
<GCONST> 5.472499e+000
<STATE> 3
<NUMMIXES> 17
<MIXTURE> 1 7.570871e-002
<MEAN> 9
 -4.935205e+000 -6.698275e-001 7.371167e-001 -6.534385e+001 -2.483536e+001 1.999524e+002 5.094503e-001 2.966135e-002 2.336745e-001
<VARIANCE> 9
 8.745734e-001 3.371764e-001 5.241760e-001 2.977951e+001 6.835089e+002 1.836929e+003 4.762525e-004 2.241766e-003 1.938003e-004
<GCONST> 9.811971e+000
<MIXTURE> 2 5.469392e-002
<MEAN> 9
 -7.401719e+000 -3.236853e+000 -5.114262e-001 -5.334667e+001 -4.280761e+000 2.890520e+002 4.623803e-001 1.644800e-001 2.367550e-001
<VARIANCE> 9
 1.491142e-001 1.238412e+000 1.282735e-001 3.669878e+002 4.105365e+001 1.853507e+003 4.762525e-004 1.142828e-003 1.938003e-004
<GCONST> 6.970639e+000
<MIXTURE> 3 7.567737e-002
<MEAN> 9
 -6.988126e+000 1.993467e+000 -3.110289e+000 -1.357435e+002 -1.496155e+001 1.407818e+002 5.123735e-001 1.831930e-002 2.169393e-001
<VARIANCE> 9
 1.491142e-001 3.371764e-001 1.760813e-001 7.332359e+001 1.388400e+002 3.709515e+002 4.762525e-004 1.461202e-003 1.938003e-004
<GCONST> 4.231425e+000
<MIXTURE> 4 4.560335e-002
<MEAN> 9
 -8.966411e+000 -2.532148e+000 -2.367574e+000 -7.820536e+001 -2.563565e+001 2.294505e+002 4.422232e-001 1.892642e-001 2.450267e-001
<VARIANCE> 9
 4.386894e-001 5.208413e-001 2.662065e+000 6.099927e+001 3.040945e+002 1.210095e+002 4.762525e-004 6.473035e-004 2.594959e-004
<GCONST> 7.418761e+000
<MIXTURE> 5 7.580920e-002
<MEAN> 9
 -7.821699e+000 3.401818e+000 -1.203397e+000 -1.532696e+002 1.874708e+001 8.461163e+001 5.161753e-001 -8.295123e-002 2.289716e-001
<VARIANCE> 9
 1.491142e-001 3.371764e-001 7.318954e-001 2.977951e+001 3.680466e+001 1.548240e+002 4.762525e-004 5.782502e-004 1.938003e-004
<GCONST> 1.626571e+000
<MIXTURE> 6 5.047895e-002
<MEAN> 9
 -6.703628e+000 9.261243e-001 1.164315e+000 -7.274967e+001 -1.162102e+001 1.163991e+002 5.188681e-001 1.950723e-002 1.870413e-001
<VARIANCE> 9
 1.491142e-001 3.371764e-001 6.976298e-002 2.977951e+001 9.935392e+001 5.361133e+002 4.762525e-004 2.669089e-003 1.494100e-003
<GCONST> 5.083094e+000
<MIXTURE> 7 4.990134e-002
<MEAN> 9
 -7.576765e+000 7.741971e-002 -4.104063e+000 -1.022437e+002 -5.277827e+001 1.973263e+002 4.806436e-001 1.014264e-001 2.237867e-001
<VARIANCE> 9
 5.179371e-001 3.371764e-001 1.330807e+000 7.144709e+001 1.455223e+002 1.210095e+002 4.762525e-004 5.782502e-004 1.938003e-004
<GCONST> 5.473037e+000
<MIXTURE> 8 7.574296e-002
<MEAN> 9
 -6.913252e+000 1.959036e+000 2.168675e+000 -9.512196e+001 -1.626832e+001 7.581705e+001 5.230909e-001 -8.727291e-003 1.665306e-001
<VARIANCE> 9
 6.919662e-001 3.371764e-001 9.243704e-002 2.977951e+001 2.561289e+002 2.742407e+002 4.762525e-004 5.782502e-004 1.938003e-004
<GCONST> 3.604058e+000
<MIXTURE> 9 5.159362e-002
<MEAN> 9
 -6.591215e+000 -2.472241e-001 2.270851e+000 -3.365838e+001 -1.613626e+001 4.488939e+001 5.255042e-001 -7.133074e-002 2.183107e-001
<VARIANCE> 9
 1.491142e-001 3.371764e-001 1.417799e-001 1.595567e+002 1.710772e+002 3.317988e+002 4.762525e-004 5.782502e-004 1.938003e-004
<GCONST> 3.962518e+000
<MIXTURE> 10 7.928889e-002
<MEAN> 9
 -7.325656e+000 1.732672e-002 2.564723e-001 -8.346984e+001 -2.706129e+001 1.616338e+002 5.006217e-001 8.454198e-002 2.242848e-001
<VARIANCE> 9
 1.491142e-001 3.371764e-001 3.122871e-001 1.402551e+002 4.516778e+001 2.144690e+002 4.762525e-004 1.031396e-003 2.446126e-003
<GCONST> 5.969226e+000
<MIXTURE> 11 6.054024e-002
<MEAN> 9
 -7.707665e+000 2.023426e+000 1.826453e+000 -1.480564e+002 -1.594596e+000 4.012286e+001 5.077273e-001 -1.475075e-001 2.142804e-001
<VARIANCE> 9
 1.491142e-001 3.371764e-001 8.446771e-001 4.857994e+001 5.374953e+001 1.336387e+002 4.762525e-004 5.782502e-004 1.938003e-004
<GCONST> 2.490838e+000
<MIXTURE> 12 3.033237e-002
<MEAN> 9
 -3.783598e+000 -7.108433e-001 2.077237e+000 -4.550329e+001 -5.193885e+001 1.024214e+002 5.227222e-001 -6.041372e-002 2.081893e-001
<VARIANCE> 9
 9.515290e-001 3.371764e-001 1.736256e-001 2.977951e+001 4.856359e+002 2.173989e+002 4.762525e-004 5.782502e-004 1.938003e-004
<GCONST> 4.960471e+000
<MIXTURE> 13 6.059443e-002
<MEAN> 9
 -7.186747e+000 4.578314e-001 4.283133e+000 -8.509146e+001 -7.256096e+000 2.935976e+001 5.261363e-001 -4.977273e-002 1.584184e-001
<VARIANCE> 9
 1.932428e-001 3.946146e-001 8.190601e-002 1.147782e+002 5.624070e+001 1.210095e+002 4.762525e-004 5.782502e-004 1.938003e-004
<GCONST> 1.379821e+000
<MIXTURE> 14 5.996231e-002
<MEAN> 9
 -7.847298e+000 -2.257977e+000 1.223791e-001 -6.138634e+001 -6.547502e+001 1.784661e+002 4.645548e-001 1.666032e-001 1.616863e-001
<VARIANCE> 9
 3.202388e-001 9.110986e-001 6.976298e-002 2.977951e+001 1.757392e+003 1.210095e+002 4.762525e-004 5.962295e-004 1.938003e-004
<GCONST> 4.684594e+000
<MIXTURE> 15 5.490144e-002
<MEAN> 9
 -6.679446e+000 1.247584e+000 7.269713e-001 -8.061911e+001 -2.996488e+001 1.146648e+002 5.197762e-001 -7.673371e-003 2.324830e-001
<VARIANCE> 9
 1.491142e-001 3.371764e-001 6.976298e-002 4.316433e+001 4.594110e+002 1.210095e+002 4.762525e-004 5.782502e-004 9.968079e-004
<GCONST> 3.562861e+000
<MIXTURE> 16 5.517558e-002
<MEAN> 9
 -6.620358e+000 1.114234e-001 2.096525e+000 -4.332662e+001 -2.668366e+001 4.587041e+001 5.243720e-001 -7.588846e-002 2.287205e-001
<VARIANCE> 9
 1.491142e-001 3.371764e-001 1.090368e-001 1.839529e+002 1.258131e+002 2.895279e+002 4.762525e-004 5.782502e-004 1.938003e-004
<GCONST> 3.398612e+000
<MIXTURE> 17 4.399504e-002
<MEAN> 9
 -8.744272e+000 -2.109290e+000 -3.270095e+000 -7.830510e+001 -3.471312e+001 2.288369e+002 4.401412e-001 1.862907e-001 2.368731e-001
<VARIANCE> 9
 2.937735e-001 6.872213e-001 2.837487e+000 5.418674e+001 2.667764e+002 1.210095e+002 4.762525e-004 6.145905e-004 2.557228e-004
<GCONST> 7.042949e+000
<STATE> 4
<NUMMIXES> 17
<MIXTURE> 1 6.952731e-002
<MEAN> 9
 -8.042067e+000 5.294602e+000 3.261023e-001 1.891863e+000 4.950060e+001 5.919938e+001 4.972002e-001 -1.740434e-001 2.691717e-001
<VARIANCE> 9
 1.259412e+000 3.371764e-001 1.249816e+000 6.681277e+001 3.699458e+002 7.032994e+002 4.762525e-004 5.782502e-004 1.938003e-004
<GCONST> 8.924670e+000
<MIXTURE> 2 4.284959e-002
<MEAN> 9
 -9.505357e+000 2.266124e+000 3.921426e+000 1.515439e+001 3.602893e+001 2.459422e+001 5.241373e-001 -7.362337e-002 2.024310e-001
<VARIANCE> 9
 1.491142e-001 3.371764e-001 1.925265e-001 2.977951e+001 5.575805e+001 1.210095e+002 4.762525e-004 5.782502e-004 1.938003e-004
<GCONST> 4.601431e-001
<MIXTURE> 3 4.170911e-002
<MEAN> 9
 -8.754777e+000 4.249578e+000 4.270207e+000 1.955747e+001 1.478430e+001 2.010040e+001 5.107431e-001 -1.652470e-001 1.954697e-001
<VARIANCE> 9
 4.099438e-001 1.192974e+000 5.838892e-001 1.988538e+002 3.317122e+002 1.210095e+002 4.762525e-004 6.694798e-004 1.938003e-004
<GCONST> 7.673017e+000
<MIXTURE> 4 5.426665e-002
<MEAN> 9
 -7.541795e+000 5.865469e+000 1.020583e+000 2.226534e+001 3.638569e+000 3.958358e+001 5.044505e-001 -1.742772e-001 2.110512e-001
<VARIANCE> 9
 1.660672e+000 3.371764e-001 1.578608e-001 4.509867e+002 2.641833e+002 2.570482e+002 4.762525e-004 8.029295e-004 1.938003e-004
<GCONST> 8.026782e+000
<MIXTURE> 5 7.594492e-002
<MEAN> 9
 -8.288341e+000 4.297730e-001 4.872196e+000 -6.721359e+001 -1.906505e+000 3.309095e+000 5.119315e-001 -1.649653e-001 1.863916e-001
<VARIANCE> 9
 1.491142e-001 4.431873e-001 2.974065e-001 1.351798e+003 3.680466e+001 1.210095e+002 4.762525e-004 5.782502e-004 1.938003e-004
<GCONST> 4.568370e+000
<MIXTURE> 6 7.720219e-002
<MEAN> 9
 -9.688883e+000 3.112582e+000 2.996478e+000 -1.984594e+000 9.495462e+000 1.053825e+001 5.227072e-001 -1.051407e-001 2.151829e-001
<VARIANCE> 9
 1.491142e-001 3.371764e-001 6.976298e-002 2.977951e+001 3.680466e+001 1.210095e+002 4.762525e-004 5.782502e-004 1.938003e-004
<GCONST> -9.703841e-001
<MIXTURE> 7 4.018674e-002
<MEAN> 9
 -6.095812e+000 5.702208e+000 2.201373e-001 -4.877289e+001 8.385403e+001 5.566681e+001 4.605382e-001 -2.395059e-001 3.015316e-001
<VARIANCE> 9
 4.315892e-001 3.371764e-001 6.976298e-002 1.770942e+002 3.695057e+002 1.937646e+002 4.762525e-004 5.782502e-004 2.088178e-004
<GCONST> 4.727190e+000
<MIXTURE> 8 4.123900e-002
<MEAN> 9
 -8.333137e+000 4.068324e+000 2.392477e+000 1.326631e+001 1.636122e+001 4.569482e+001 5.059226e-001 -1.407789e-001 2.483483e-001
<VARIANCE> 9
 1.594393e-001 3.371764e-001 2.001300e-001 2.977951e+001 3.803752e+001 1.210095e+002 4.762525e-004 5.782502e-004 1.938003e-004
<GCONST> 1.833792e-001
<MIXTURE> 9 5.455212e-002
<MEAN> 9
 -9.058095e+000 3.278281e-001 4.950005e+000 -1.895464e+001 2.671690e+001 1.609852e+001 5.262861e-001 -5.723326e-002 1.680154e-001
<VARIANCE> 9
 2.346199e-001 5.450521e-001 6.976298e-002 4.612831e+002 5.964491e+001 1.210095e+002 4.762525e-004 5.782502e-004 1.938003e-004
<GCONST> 3.186122e+000
<MIXTURE> 10 7.526954e-002
<MEAN> 9
 -8.689291e+000 1.141455e+000 2.302026e+000 -1.145566e+001 1.596336e+000 1.135197e+001 5.250474e-001 -9.162693e-002 2.094892e-001
<VARIANCE> 9
 1.037952e+000 4.719083e-001 8.818635e-002 2.977951e+001 3.780499e+001 2.383096e+002 4.762525e-004 5.782502e-004 1.938003e-004
<GCONST> 2.244950e+000
<MIXTURE> 11 6.670350e-002
<MEAN> 9
 -1.059196e+001 3.813033e+000 1.669050e+000 -4.678995e+000 2.832880e+001 5.109676e+001 5.177865e-001 -1.219548e-001 2.243529e-001
<VARIANCE> 9
 3.274855e-001 3.371764e-001 1.553735e-001 2.977951e+001 2.037554e+002 1.448134e+002 4.762525e-004 5.782502e-004 2.263128e-004
<GCONST> 2.663038e+000
<MIXTURE> 12 5.628225e-002
<MEAN> 9
 -7.370460e+000 4.572357e+000 1.314494e+000 -8.674234e+001 4.606917e+001 4.926396e+001 4.829248e-001 -2.143883e-001 2.361095e-001
<VARIANCE> 9
 3.823372e-001 3.371764e-001 2.597315e-001 2.419710e+002 5.725788e+001 1.210095e+002 4.762525e-004 5.782502e-004 1.938003e-004
<GCONST> 3.822688e+000
<MIXTURE> 13 8.647402e-002
<MEAN> 9
 -7.999939e+000 5.149701e+000 -6.904458e-002 -3.110617e+001 2.762420e+001 5.628674e+001 4.919997e-001 -1.832706e-001 2.556026e-001
<VARIANCE> 9
 7.503873e-001 3.371764e-001 1.570451e-001 2.133739e+002 1.100758e+002 1.210095e+002 4.762525e-004 5.860295e-004 8.895913e-004
<GCONST> 6.058990e+000
<MIXTURE> 14 5.533103e-002
<MEAN> 9
 -9.387466e+000 3.063912e+000 2.614872e+000 1.679524e+001 2.095227e+001 2.857414e+001 5.222318e-001 -9.429725e-002 2.222937e-001
<VARIANCE> 9
 1.491142e-001 3.371764e-001 2.104727e-001 2.977951e+001 3.867614e+001 1.210095e+002 4.762525e-004 5.782502e-004 1.938003e-004
<GCONST> 1.834669e-001
<MIXTURE> 15 7.349727e-002
<MEAN> 9
 -5.759351e+000 6.151423e+000 1.352616e+000 -7.219263e+001 3.968983e+001 2.232840e+001 4.504822e-001 -2.512127e-001 2.948760e-001
<VARIANCE> 9
 7.932653e-001 3.371764e-001 4.323781e-001 4.105978e+001 1.953486e+003 3.005093e+002 4.762525e-004 5.782502e-004 8.103044e-004
<GCONST> 9.158401e+000
<MIXTURE> 16 4.453209e-002
<MEAN> 9
 -8.793468e+000 3.650276e+000 2.176622e+000 7.991398e+000 1.713725e+001 6.265972e+001 5.093874e-001 -1.402822e-001 2.436289e-001
<VARIANCE> 9
 1.491142e-001 3.371764e-001 6.976298e-002 6.761261e+001 5.385654e+001 4.017379e+002 4.762525e-004 5.782502e-004 1.938003e-004
<GCONST> 1.430221e+000
<MIXTURE> 17 4.443255e-002
<MEAN> 9
 -8.934293e+000 3.360864e+000 4.587396e+000 1.164802e+001 1.123561e+001 1.487244e+001 5.110731e-001 -1.658986e-001 1.883204e-001
<VARIANCE> 9
 2.728676e-001 1.102945e+000 6.541253e-001 1.937419e+002 2.499859e+002 1.210095e+002 4.762525e-004 6.411290e-004 1.938003e-004
<GCONST> 6.948926e+000
<STATE> 5
<NUMMIXES> 17
<MIXTURE> 1 2.278813e-002
<MEAN> 9
 -1.854691e+000 1.036558e+001 1.189718e+001 6.726870e+000 -4.827502e+001 2.453590e+001 4.469184e-001 -2.672096e-001 2.762221e-001
<VARIANCE> 9
 2.562759e+001 2.243914e+000 3.146451e+001 1.610385e+003 6.649072e+002 8.036144e+002 5.007955e-004 5.782502e-004 3.724516e-003
<GCONST> 2.396701e+001
<MIXTURE> 2 8.405558e-002
<MEAN> 9
 -7.314275e+000 7.394421e+000 7.014135e-001 -8.207942e+000 -1.182493e+001 -1.114615e-001 4.249997e-001 -2.770471e-001 3.328516e-001
<VARIANCE> 9
 6.439475e-001 3.371764e-001 1.028897e+000 3.697850e+002 4.746915e+002 1.210095e+002 4.762525e-004 5.782502e-004 3.059004e-004
<GCONST> 8.716234e+000
<MIXTURE> 3 7.317308e-002
<MEAN> 9
 -7.081071e+000 -1.868828e+000 1.495480e+001 -8.382204e+001 -1.757741e+000 8.147233e+000 4.461133e-001 -2.815327e-001 1.963183e-001
<VARIANCE> 9
 3.079779e+001 1.043376e+001 3.460015e+001 2.407361e+003 3.000983e+003 3.419099e+002 4.762525e-004 8.932261e-004 3.257096e-003
<GCONST> 2.708762e+001
<MIXTURE> 4 5.398009e-002
<MEAN> 9
 -8.158538e+000 6.344295e+000 1.778416e+000 6.005394e+001 -1.970334e+001 7.205299e+000 4.823411e-001 -2.275648e-001 2.365748e-001
<VARIANCE> 9
 1.505969e+000 3.371764e-001 7.278268e+000 8.682488e+002 8.566429e+002 1.210095e+002 4.762525e-004 5.782502e-004 1.938003e-004
<GCONST> 1.250970e+001
<MIXTURE> 5 4.833327e-002
<MEAN> 9
 -7.338849e+000 3.286517e+000 5.252285e+000 3.297110e+000 -1.087577e+001 2.781316e+000 4.458897e-001 -2.895422e-001 1.653751e-001
<VARIANCE> 9
 8.198738e-001 3.813583e-001 1.477369e+000 6.274875e+001 1.378693e+002 1.210095e+002 4.762525e-004 5.782502e-004 1.450189e-003
<GCONST> 7.988721e+000
<MIXTURE> 6 5.194603e-002
<MEAN> 9
 -9.219707e+000 4.845759e+000 1.047069e+000 -1.588905e+001 2.150148e+001 -8.392737e+000 4.436133e-001 -2.867070e-001 2.294462e-001
<VARIANCE> 9
 1.338469e+000 5.030471e-001 1.255945e+000 2.947704e+003 1.239864e+003 1.210095e+002 4.762525e-004 5.782502e-004 3.246353e-003
<GCONST> 1.544535e+001
<MIXTURE> 7 8.012660e-002
<MEAN> 9
 -9.040333e+000 3.731509e+000 3.832018e-001 -5.283672e+001 1.545125e+001 1.067010e+000 4.775452e-001 -2.380957e-001 2.291741e-001
<VARIANCE> 9
 3.756043e-001 3.371764e-001 3.968563e+000 7.339680e+002 6.579791e+001 2.292729e+002 4.762525e-004 5.782502e-004 2.144142e-004
<GCONST> 8.520228e+000
<MIXTURE> 8 3.737183e-002
<MEAN> 9
 -9.129327e+000 1.320916e+000 7.634496e+000 3.492830e+001 -1.220461e+001 -2.043050e+000 4.394538e-001 -2.987653e-001 1.306369e-001
<VARIANCE> 9
 4.933975e-001 3.371764e-001 4.107068e+000 1.292312e+003 1.021762e+003 1.802396e+002 4.762525e-004 5.782502e-004 1.938003e-004
<GCONST> 1.179402e+001
<MIXTURE> 9 5.034095e-002
<MEAN> 9
 -7.525744e+000 4.585689e+000 2.351020e+000 -1.247385e+002 6.940011e+001 5.514538e+000 4.789983e-001 -2.325628e-001 2.200084e-001
<VARIANCE> 9
 1.182096e+000 3.371764e-001 6.654564e+000 8.035844e+002 7.156454e+002 1.210095e+002 4.762525e-004 5.782502e-004 1.938003e-004
<GCONST> 1.192073e+001
<MIXTURE> 10 7.069682e-002
<MEAN> 9
 -8.861554e+000 3.195822e+000 1.181903e+000 -1.104476e+002 2.648228e+001 2.519168e+001 4.580871e-001 -2.752801e-001 2.185632e-001
<VARIANCE> 9
 6.473941e-001 3.371764e-001 5.039355e-001 4.169084e+002 3.946351e+001 1.309725e+002 4.762525e-004 5.782502e-004 2.051098e-004
<GCONST> 5.319837e+000
<MIXTURE> 11 5.796859e-002
<MEAN> 9
 -8.771636e+000 5.023698e+000 3.081790e+000 -2.067132e+001 2.615560e+001 -1.283708e+001 4.660834e-001 -2.493110e-001 2.400828e-001
<VARIANCE> 9
 2.074130e+000 1.873498e+000 1.403158e+000 2.565799e+003 1.200151e+003 1.210095e+002 4.762525e-004 5.782502e-004 1.938003e-004
<GCONST> 1.431932e+001
<MIXTURE> 12 6.349409e-002
<MEAN> 9
 -8.093618e+000 6.465374e+000 2.144407e+000 9.385872e+000 4.579723e+000 -4.962850e+000 4.672608e-001 -2.504284e-001 2.367809e-001
<VARIANCE> 9
 1.166638e+000 7.561088e-001 2.715698e+000 2.145778e+002 1.392729e+002 1.210095e+002 4.762525e-004 5.782502e-004 1.938003e-004
<GCONST> 8.861724e+000
<MIXTURE> 13 6.105256e-002
<MEAN> 9
 -8.079125e+000 1.685212e+000 3.531475e+000 -1.475236e+002 3.548860e+001 2.914798e+001 4.492231e-001 -2.925068e-001 1.791161e-001
<VARIANCE> 9
 1.340425e+000 3.371764e-001 4.526671e+000 8.322205e+002 2.146779e+002 1.210095e+002 4.762525e-004 5.782502e-004 2.857289e-004
<GCONST> 1.088029e+001
<MIXTURE> 14 8.559724e-002
<MEAN> 9
 -7.500019e+000 5.468296e+000 2.777507e+000 3.218038e+000 -6.749431e+000 -6.845765e+000 4.640840e-001 -2.565976e-001 2.308698e-001
<VARIANCE> 9
 5.842289e-001 6.978113e-001 1.854412e+000 2.153074e+002 3.916325e+001 1.210095e+002 4.762525e-004 5.782502e-004 1.938003e-004
<GCONST> 6.443118e+000
<MIXTURE> 15 5.238771e-002
<MEAN> 9
 -7.020370e+000 5.821608e+000 1.038029e+000 -4.591751e-002 -2.056435e+001 1.122582e+001 4.786808e-001 -2.309730e-001 2.285917e-001
<VARIANCE> 9
 3.291550e+000 3.371764e-001 1.484231e+001 2.199513e+003 5.472144e+002 1.210095e+002 4.762525e-004 5.782502e-004 1.938003e-004
<GCONST> 1.448554e+001
<MIXTURE> 16 5.615957e-002
<MEAN> 9
 -7.926643e+000 3.089879e+000 4.867260e+000 7.958679e+000 -1.708201e+001 1.461806e-001 4.414500e-001 -2.995528e-001 1.651345e-001
<VARIANCE> 9
 1.992649e-001 7.067128e-001 1.243569e+000 5.888610e+001 2.185886e+002 1.210095e+002 4.762525e-004 5.782502e-004 7.664641e-004
<GCONST> 6.778504e+000
<MIXTURE> 17 5.052761e-002
<MEAN> 9
 -9.528014e+000 4.635700e+000 4.782320e-001 -2.094992e+001 1.126917e+001 -6.654504e+000 4.387813e-001 -2.940852e-001 2.340199e-001
<VARIANCE> 9
 1.635855e+000 3.371764e-001 7.772493e-001 3.064636e+003 9.080760e+002 1.210095e+002 4.762525e-004 5.782502e-004 2.558382e-003
<GCONST> 1.425535e+001
<STATE> 6
<NUMMIXES> 17
<MIXTURE> 1 4.194537e-002
<MEAN> 9
 -6.102396e+000 6.156482e-001 2.168353e+000 1.515493e+002 -3.701470e+001 -1.105749e+002 4.988557e-001 -1.904383e-001 1.866937e-001
<VARIANCE> 9
 1.491142e-001 3.371764e-001 3.402556e-001 1.744754e+002 8.030068e+002 1.210095e+002 4.762525e-004 5.782502e-004 1.938003e-004
<GCONST> 5.464911e+000
<MIXTURE> 2 7.462323e-002
<MEAN> 9
 -5.728243e+000 2.071945e+000 1.163429e+000 1.315130e+002 -1.433663e+002 -1.565487e+002 5.022027e-001 -1.517071e-001 6.212011e-002
<VARIANCE> 9
 3.418583e-001 3.371764e-001 6.976298e-002 4.232838e+002 1.501880e+002 1.536104e+003 4.762525e-004 2.192526e-003 1.713389e-003
<GCONST> 9.973125e+000
<MIXTURE> 3 8.057950e-002
<MEAN> 9
 -6.923966e+000 9.282687e-001 2.636250e+000 1.506438e+002 -5.775825e+001 -7.607076e+001 4.740475e-001 -2.480681e-001 1.957559e-001
<VARIANCE> 9
 2.196218e-001 3.371764e-001 1.617364e-001 2.969128e+002 1.936295e+002 1.210095e+002 4.762525e-004 6.813928e-004 5.655311e-004
<GCONST> 5.452682e+000
<MIXTURE> 4 7.418057e-002
<MEAN> 9
 -7.773398e+000 -1.451018e+000 1.586544e+000 5.496949e+001 -5.764941e+001 -2.628392e+002 4.784659e-001 7.145368e-002 3.370127e-003
<VARIANCE> 9
 6.599808e-001 1.778437e+000 1.111848e+000 6.239449e+002 4.301671e+002 1.924350e+002 4.762525e-004 5.131382e-003 3.008950e-003
<GCONST> 1.583899e+001
<MIXTURE> 5 3.948476e-002
<MEAN> 9
 -6.520672e+000 4.162720e-001 2.097912e-002 1.773909e+002 -7.545512e+001 -1.491941e+002 5.132725e-001 -1.418333e-001 1.989496e-001
<VARIANCE> 9
 9.047356e-001 3.371764e-001 6.976298e-002 2.977951e+001 4.971527e+002 2.615044e+002 4.762525e-004 1.156292e-003 1.938003e-004
<GCONST> 4.899367e+000
<MIXTURE> 6 4.350299e-002
<MEAN> 9
 -7.656766e+000 2.300162e-001 6.366480e+000 6.504552e+001 -3.730447e+001 -1.525210e+001 4.560575e-001 -2.741885e-001 1.589380e-001
<VARIANCE> 9
 6.592941e-001 3.371764e-001 2.427628e-001 9.466900e+002 3.796146e+001 1.210095e+002 4.762525e-004 5.782502e-004 2.279183e-004
<GCONST> 5.415313e+000
<MIXTURE> 7 8.413971e-002
<MEAN> 9
 -8.342431e+000 -6.058214e-001 -8.186541e-001 1.452377e+002 -3.030443e+001 -2.427999e+002 5.184016e-001 2.924601e-002 1.492566e-001
<VARIANCE> 9
 4.615644e+000 3.371764e-001 5.464697e-001 4.468365e+001 1.410619e+003 2.929438e+002 4.762525e-004 3.126597e-003 1.938003e-004
<GCONST> 1.114423e+001
<MIXTURE> 8 7.736661e-002
<MEAN> 9
 -7.823312e+000 2.050302e-001 4.537168e+000 1.374451e+002 -5.683125e+001 -5.139825e+001 4.642154e-001 -2.692430e-001 1.561497e-001
<VARIANCE> 9
 1.038292e+000 3.371764e-001 6.375419e-001 7.930740e+002 4.020856e+001 1.210095e+002 4.762525e-004 5.782502e-004 1.938003e-004
<GCONST> 6.553302e+000
<MIXTURE> 9 5.301898e-002
<MEAN> 9
 -9.967058e+000 -3.367878e+000 9.405606e-001 3.091323e+001 1.313880e+001 -3.067466e+002 4.411213e-001 1.732027e-001 3.000205e-002
<VARIANCE> 9
 1.491142e-001 3.626229e-001 1.812652e+000 1.591505e+002 4.147909e+002 6.754465e+002 4.762525e-004 6.482505e-004 3.590147e-003
<GCONST> 1.121089e+001
<MIXTURE> 10 7.600462e-002
<MEAN> 9
 -8.773489e+000 -1.087452e+000 -1.584389e+000 1.034043e+002 -5.838716e+001 -2.923832e+002 4.998388e-001 7.858679e-002 1.045015e-001
<VARIANCE> 9
 2.105818e+000 3.834598e-001 4.618329e-001 6.008707e+002 1.516843e+003 1.093576e+003 4.762525e-004 3.932739e-003 1.938003e-004
<GCONST> 1.453783e+001
<MIXTURE> 11 8.164383e-002
<MEAN> 9
 -7.949953e+000 1.692081e+000 5.203055e+000 8.453934e+001 -4.342537e+001 -2.971130e+001 4.383697e-001 -3.079498e-001 1.948237e-001
<VARIANCE> 9
 1.491142e-001 3.424569e-001 4.872353e-001 1.052902e+003 1.016248e+002 1.863743e+002 4.762525e-004 5.782502e-004 1.938003e-004
<GCONST> 6.001834e+000
<MIXTURE> 12 5.320998e-002
<MEAN> 9
 -6.136277e+000 4.077053e-001 -8.378456e-001 1.748666e+002 -1.126060e+002 -2.094998e+002 5.202346e-001 -1.006870e-001 1.646024e-001
<VARIANCE> 9
 1.519304e-001 3.371764e-001 7.272181e-002 1.406039e+002 2.334963e+002 4.660827e+002 4.762525e-004 2.555008e-003 1.938003e-004
<GCONST> 5.323831e+000
<MIXTURE> 13 4.454947e-002
<MEAN> 9
 -7.715918e+000 1.037646e+000 1.688216e+000 1.645841e+002 -1.073046e+002 -6.833630e+001 4.783272e-001 -2.484625e-001 1.455992e-001
<VARIANCE> 9
 1.334348e+000 3.371764e-001 5.832689e-001 2.977951e+001 4.678444e+002 1.210095e+002 4.762525e-004 5.782502e-004 1.938003e-004
<GCONST> 5.887156e+000
<MIXTURE> 14 4.128349e-002
<MEAN> 9
 -7.767434e+000 4.061454e-001 7.266255e+000 1.195385e+002 -6.961220e+001 -4.576941e+001 4.473889e-001 -2.900072e-001 1.356672e-001
<VARIANCE> 9
 6.258132e-001 3.371764e-001 1.460601e+000 4.492913e+002 1.119364e+002 1.210095e+002 4.762525e-004 5.782502e-004 1.938003e-004
<GCONST> 7.331611e+000
<MIXTURE> 15 4.489001e-002
<MEAN> 9
 -6.821548e+000 2.656198e-001 1.217181e+000 1.847224e+002 -5.911163e+001 -1.202662e+002 4.899494e-001 -2.137824e-001 1.797461e-001
<VARIANCE> 9
 1.491142e-001 3.371764e-001 1.211054e-001 1.090579e+002 3.263066e+002 2.263453e+002 4.762525e-004 2.056211e-003 1.938003e-004
<GCONST> 4.956252e+000
<MIXTURE> 16 4.599242e-002
<MEAN> 9
 -7.273849e+000 3.266900e-001 -1.606782e-001 1.797520e+002 -7.899799e+001 -1.695626e+002 5.196152e-001 -1.199938e-001 1.844590e-001
<VARIANCE> 9
 2.356434e-001 3.371764e-001 6.976298e-002 1.048299e+002 3.691877e+002 1.805473e+002 4.762525e-004 1.599212e-003 1.938003e-004
<GCONST> 4.468806e+000
<MIXTURE> 17 4.358412e-002
<MEAN> 9
 -7.546467e+000 1.100195e-001 6.444411e+000 7.047806e+001 -3.877080e+001 -1.712225e+001 4.556441e-001 -2.764043e-001 1.554016e-001
<VARIANCE> 9
 6.085425e-001 3.371764e-001 2.330413e-001 7.171171e+002 3.680466e+001 1.210095e+002 4.762525e-004 5.782502e-004 1.938003e-004
<GCONST> 4.823501e+000
<STATE> 7
<NUMMIXES> 17
<MIXTURE> 1 6.240554e-002
<MEAN> 9
 -2.609681e+000 -1.045247e+001 4.734110e+000 -3.360291e+001 1.210268e+002 -2.968836e+001 -1.091165e-002 3.692167e-001 1.774029e-001
<VARIANCE> 9
 2.489118e+000 9.540072e-001 2.097361e-001 1.732443e+002 5.155416e+003 3.248226e+002 4.762525e-004 5.782502e-004 1.938003e-004
<GCONST> 1.167587e+001
<MIXTURE> 2 8.597788e-002
<MEAN> 9
 -1.064180e+001 -7.728715e+000 2.323994e+000 1.155768e+001 7.940060e-001 -2.728579e+002 2.948527e-001 3.204886e-001 9.169213e-002
<VARIANCE> 9
 1.304473e+000 1.044297e+000 5.024744e-001 1.465874e+003 1.694749e+003 1.260928e+002 1.015103e-003 5.782502e-004 3.644838e-004
<GCONST> 1.345904e+001
<MIXTURE> 3 4.498846e-002
<MEAN> 9
 -1.028203e+001 -4.747845e+000 1.428872e+000 5.592858e+001 2.083578e+001 -2.750925e+002 4.033450e-001 2.352390e-001 6.679887e-002
<VARIANCE> 9
 8.141347e-001 4.130069e-001 7.744597e-001 1.396326e+003 1.062426e+003 1.210095e+002 4.860770e-004 7.667200e-004 2.067127e-003
<GCONST> 1.321704e+001
<MIXTURE> 4 7.818298e-002
<MEAN> 9
 -6.917597e+000 -1.091594e+001 2.109824e+000 -3.668379e+001 1.070252e+002 -9.702969e+001 2.139520e-002 3.734006e-001 1.389386e-001
<VARIANCE> 9
 1.491142e-001 9.158874e-001 3.749481e-001 2.977951e+001 6.580731e+002 3.545972e+002 4.762525e-004 5.782502e-004 9.802108e-004
<GCONST> 7.290330e+000
<MIXTURE> 5 4.811004e-002
<MEAN> 9
 -7.852890e+000 -1.110038e+001 2.418210e+000 -3.521334e+001 6.091676e+001 -1.873716e+002 1.071540e-001 3.806328e-001 1.049640e-001
<VARIANCE> 9
 2.130529e-001 3.371764e-001 6.976298e-002 8.962126e+001 3.249417e+002 1.047746e+003 1.003143e-003 5.782502e-004 2.958780e-004
<GCONST> 5.992827e+000
<MIXTURE> 6 6.558052e-002
<MEAN> 9
 -5.580270e+000 -9.636847e+000 2.031436e+000 -4.310771e+001 4.423729e+001 -3.294011e+001 1.514141e-003 3.689072e-001 1.522515e-001
<VARIANCE> 9
 1.491142e-001 3.371764e-001 1.305896e-001 2.977951e+001 5.943408e+002 1.210095e+002 4.762525e-004 5.782502e-004 1.938003e-004
<GCONST> 2.438399e+000
<MIXTURE> 7 8.718842e-002
<MEAN> 9
 -1.014957e+001 -9.399706e+000 1.786179e+000 -7.880574e+000 6.493722e+001 -2.623161e+002 2.431046e-001 3.509993e-001 6.406962e-002
<VARIANCE> 9
 3.023324e-001 1.387741e+000 1.371552e-001 5.476246e+002 1.871050e+003 1.870276e+002 1.189458e-003 5.782502e-004 7.036918e-004
<GCONST> 1.130787e+001
<MIXTURE> 8 5.206488e-002
<MEAN> 9
 -8.610994e+000 -1.268998e+001 2.558591e+000 -5.260930e+001 2.903128e+001 -1.835392e+002 6.477549e-002 3.727094e-001 1.425882e-001
<VARIANCE> 9
 1.482481e+000 4.149078e-001 4.629675e-001 2.678543e+002 2.596811e+002 3.120820e+003 1.394791e-003 5.782502e-004 1.938003e-004
<GCONST> 1.190136e+001
<MIXTURE> 9 5.825888e-002
<MEAN> 9
 -1.195148e+001 -6.778802e+000 -2.565398e-001 4.929935e+000 9.310814e+001 -3.111660e+002 3.584951e-001 2.780302e-001 6.182207e-002
<VARIANCE> 9
 4.907609e+000 8.945039e-001 1.584103e+000 6.312243e+001 6.356782e+002 5.543688e+002 1.087776e-003 5.782502e-004 2.426770e-003
<GCONST> 1.509749e+001
<MIXTURE> 10 8.081143e-002
<MEAN> 9
 -9.097971e+000 -9.371983e+000 3.432633e+000 1.073649e+001 2.021895e+002 -2.606223e+001 -1.715601e-002 3.624738e-001 1.628189e-001
<VARIANCE> 9
 5.792693e+000 3.371764e-001 1.718507e-001 2.977951e+001 8.251305e+003 1.500777e+002 4.762525e-004 5.782502e-004 1.938003e-004
<GCONST> 9.218566e+000
<MIXTURE> 11 3.472309e-002
<MEAN> 9
 -7.574307e+000 -1.003615e+001 8.714829e-001 -6.158539e+001 1.077846e+002 -6.063029e+001 3.939499e-003 3.651516e-001 1.683673e-001
<VARIANCE> 9
 3.389269e-001 3.371764e-001 6.976298e-002 2.977951e+001 8.997812e+001 1.749748e+002 4.762525e-004 5.782502e-004 1.938003e-004
<GCONST> 1.113402e+000
<MIXTURE> 12 6.986084e-002
<MEAN> 9
 -7.610470e+000 -1.248564e+001 1.817864e+000 -3.846663e+001 1.152025e+002 -1.679263e+002 4.406945e-002 3.761799e-001 1.631587e-001
<VARIANCE> 9
 2.982855e-001 3.371764e-001 7.184062e-001 4.452692e+001 8.238820e+002 1.159147e+003 1.157148e-003 5.782502e-004 1.938003e-004
<GCONST> 8.712899e+000
<MIXTURE> 13 3.469815e-002
<MEAN> 9
 -1.085634e+001 -1.115703e+001 8.995162e-001 -4.150601e+001 1.294485e+002 -2.563346e+002 1.769456e-001 3.606019e-001 7.823998e-002
<VARIANCE> 9
 8.402276e-001 3.371764e-001 8.776309e-002 2.977951e+001 3.382821e+002 1.210095e+002 8.495933e-004 5.782502e-004 1.938003e-004
<GCONST> 3.785180e+000
<MIXTURE> 14 5.049592e-002
<MEAN> 9
 -5.907931e+000 -1.039208e+001 1.776973e+000 -4.318361e+001 1.259179e+002 -4.416664e+001 -1.133200e-002 3.663535e-001 1.632015e-001
<VARIANCE> 9
 1.491142e-001 4.409219e-001 6.976298e-002 2.977951e+001 2.183037e+003 1.738742e+002 4.762525e-004 5.782502e-004 3.249599e-004
<GCONST> 4.260059e+000
<MIXTURE> 15 5.683296e-002
<MEAN> 9
 -8.682897e+000 -1.103015e+001 2.251839e+000 -3.755883e+001 3.603818e+001 -2.466232e+002 1.668526e-001 3.727969e-001 1.146580e-001
<VARIANCE> 9
 4.771117e-001 4.427761e-001 1.482794e-001 1.650098e+002 7.105871e+002 4.970868e+002 7.816803e-004 5.782502e-004 4.540759e-004
<GCONST> 8.651588e+000
<MIXTURE> 16 4.210208e-002
<MEAN> 9
 -9.434430e+000 -1.195028e+001 1.402898e+000 -5.873045e+001 3.298707e+000 -1.962728e+002 8.033737e-002 3.707022e-001 1.177580e-001
<VARIANCE> 9
 1.977874e+000 3.371764e-001 4.357253e-001 1.153996e+002 5.949434e+002 1.079599e+003 9.329352e-004 5.782502e-004 1.938003e-004
<GCONST> 1.044487e+001
<MIXTURE> 17 4.771776e-002
<MEAN> 9
 -1.034678e+001 -4.779431e+000 8.969325e-001 2.683334e+001 2.890406e+001 -2.788684e+002 3.919971e-001 2.377661e-001 4.979644e-002
<VARIANCE> 9
 1.222732e+000 5.089559e-001 9.446875e-001 9.213973e+002 1.557108e+003 1.210095e+002 4.762525e-004 7.610074e-004 2.130381e-003
<GCONST> 1.400015e+001
<TRANSP> 8
 0.000000e+000 1.000000e+000 0.000000e+000 0.000000e+000 0.000000e+000 0.000000e+000 0.000000e+000 0.000000e+000
 0.000000e+000 9.289244e-001 7.107560e-002 0.000000e+000 0.000000e+000 0.000000e+000 0.000000e+000 0.000000e+000
 0.000000e+000 0.000000e+000 9.394036e-001 6.059646e-002 0.000000e+000 0.000000e+000 0.000000e+000 0.000000e+000
 0.000000e+000 0.000000e+000 0.000000e+000 9.618616e-001 3.813838e-002 0.000000e+000 0.000000e+000 0.000000e+000
 0.000000e+000 0.000000e+000 0.000000e+000 0.000000e+000 9.789754e-001 2.102462e-002 0.000000e+000 0.000000e+000
 0.000000e+000 0.000000e+000 0.000000e+000 0.000000e+000 0.000000e+000 9.573690e-001 4.263095e-002 0.000000e+000
 0.000000e+000 0.000000e+000 0.000000e+000 0.000000e+000 0.000000e+000 0.000000e+000 9.537033e-001 4.629670e-002
 0.000000e+000 0.000000e+000 0.000000e+000 0.000000e+000 0.000000e+000 0.000000e+000 0.000000e+000 0.000000e+000
<ENDHMM>
~h "GN"
<BEGINHMM>
<NUMSTATES> 8
<STATE> 2
<NUMMIXES> 17
<MIXTURE> 1 7.818243e-002
<MEAN> 9
 -8.982549e+000 -1.145775e+001 5.920613e-001 4.995014e+001 1.186855e+002 2.003047e+002 8.024298e-002 3.734126e-001 1.614760e-001
<VARIANCE> 9
 2.500705e-001 4.184683e-001 1.090793e+000 2.977951e+001 5.426716e+001 2.952076e+003 4.762525e-004 5.782502e-004 1.938003e-004
<GCONST> 6.094886e+000
<MIXTURE> 2 5.868960e-002
<MEAN> 9
 -9.951929e+000 -5.217427e+000 -4.602221e+000 -6.804064e+001 3.762462e+001 2.856823e+002 3.445385e-001 2.975796e-001 1.986452e-001
<VARIANCE> 9
 7.637489e+000 4.340176e-001 2.894543e-001 1.251392e+002 1.010129e+003 2.424468e+002 4.762525e-004 5.782502e-004 5.735119e-004
<GCONST> 1.116878e+001
<MIXTURE> 3 5.866823e-002
<MEAN> 9
 -7.831357e+000 -1.084336e+001 1.385541e+000 2.199202e+001 -5.786477e+001 1.790047e+002 8.333404e-002 3.903029e-001 2.098638e-001
<VARIANCE> 9
 3.673356e-001 3.371764e-001 6.976298e-002 2.977951e+001 5.359503e+002 1.568526e+002 4.762525e-004 5.782502e-004 1.938003e-004
<GCONST> 2.869033e+000
<MIXTURE> 4 4.781925e-002
<MEAN> 9
 -1.060509e+001 -7.076923e+000 -3.285057e+000 -3.529867e+001 3.516641e+001 2.567865e+002 2.987055e-001 3.277249e-001 1.979913e-001
<VARIANCE> 9
 1.491142e-001 3.371764e-001 7.452480e-001 6.882267e+001 1.874869e+002 3.616128e+002 4.762525e-004 5.782502e-004 4.618660e-004
<GCONST> 5.827178e+000
<MIXTURE> 5 5.871940e-002
<MEAN> 9
 -7.029308e+000 -1.186302e+001 2.914900e+000 5.209252e+001 7.573000e+001 1.291723e+002 3.154485e-002 3.715108e-001 1.843373e-001
<VARIANCE> 9
 2.399011e-001 1.776526e+000 3.841725e-001 2.977951e+001 7.018389e+002 3.294562e+003 4.762525e-004 5.782502e-004 1.938003e-004
<GCONST> 9.125163e+000
<MIXTURE> 6 5.024775e-002
<MEAN> 9
 -1.084816e+001 -8.334669e+000 -1.557641e+000 -9.946682e+000 3.058931e+001 2.383494e+002 2.391958e-001 3.616975e-001 1.864837e-001
<VARIANCE> 9
 7.264482e-001 3.371764e-001 7.323557e-001 7.057380e+001 2.467705e+002 1.210095e+002 4.762525e-004 5.782502e-004 2.191322e-004
<GCONST> 5.852754e+000
<MIXTURE> 7 5.867530e-002
<MEAN> 9
 -8.855408e+000 -4.594252e+000 -2.791184e+000 -4.931003e+001 3.821155e+000 2.293686e+002 3.533379e-001 2.812079e-001 1.887772e-001
<VARIANCE> 9
 1.491142e-001 4.962356e-001 6.976298e-002 2.977951e+001 3.680466e+001 1.210095e+002 5.166368e-004 5.782502e-004 1.938003e-004
<GCONST> -5.025473e-001
<MIXTURE> 8 4.881247e-002
<MEAN> 9
 -1.050740e+001 -1.004995e+001 -1.627243e+000 2.796076e+001 5.720580e+001 2.266408e+002 1.454427e-001 3.738799e-001 1.753497e-001
<VARIANCE> 9
 3.593617e-001 3.371764e-001 9.387764e-001 4.448094e+001 3.010027e+003 1.265342e+003 5.817522e-004 5.782502e-004 2.919248e-004
<GCONST> 1.027102e+001
<MIXTURE> 9 3.911385e-002
<MEAN> 9
 -1.199398e+001 -8.861446e+000 -4.506024e+000 -2.134112e-001 1.020427e+002 2.996951e+002 2.109091e-001 3.559091e-001 1.576531e-001
<VARIANCE> 9
 3.849979e-001 3.849979e-001 6.976298e-002 1.941264e+002 2.333069e+002 1.210095e+002 7.438015e-004 5.782502e-004 1.938003e-004
<GCONST> 4.278018e+000
<MIXTURE> 10 7.846704e-002
<MEAN> 9
 -6.734354e+000 -1.171938e+001 1.989650e+000 1.013296e+001 -1.057510e+002 1.104023e+002 -1.895602e-003 3.713225e-001 2.007830e-001
<VARIANCE> 9
 2.777985e-001 3.371764e-001 2.461383e-001 8.216340e+001 1.014037e+002 3.727721e+002 4.762525e-004 5.782502e-004 1.938003e-004
<GCONST> 4.066062e+000
<MIXTURE> 11 7.849155e-002
<MEAN> 9
 -9.244219e+000 -3.685025e+000 -4.740002e+000 -1.111894e+002 1.549476e+001 2.694024e+002 3.980390e-001 2.430451e-001 2.309861e-001
<VARIANCE> 9
 4.323936e+000 1.583061e+000 8.491555e-001 1.652550e+002 9.483050e+002 1.210095e+002 4.762525e-004 5.782502e-004 4.713467e-004
<GCONST> 1.229396e+001
<MIXTURE> 12 9.742977e-002
<MEAN> 9
 -6.909716e+000 -1.100544e+001 2.169639e+000 8.760923e+000 -7.057920e+001 4.951364e+001 -4.039042e-002 3.611055e-001 1.952875e-001
<VARIANCE> 9
 1.491142e-001 3.371764e-001 1.049277e-001 5.020301e+001 8.488647e+001 2.289906e+002 4.762525e-004 5.782502e-004 1.938003e-004
<GCONST> 1.433539e+000
<MIXTURE> 13 6.108341e-002
<MEAN> 9
 -8.819102e+000 -2.490728e+000 -2.877431e+000 -6.868536e+001 -3.199585e+000 2.053431e+002 4.250447e-001 2.050688e-001 2.073008e-001
<VARIANCE> 9
 1.491142e-001 3.371764e-001 6.976298e-002 2.977951e+001 4.112987e+001 1.210095e+002 4.762525e-004 5.788989e-004 1.938003e-004
<GCONST> -8.581524e-001
<MIXTURE> 14 3.915693e-002
<MEAN> 9
 -5.928413e+000 -1.372765e+001 3.366814e+000 3.529381e+001 -4.191453e+001 1.488068e+002 -8.208822e-003 3.654486e-001 1.826553e-001
<VARIANCE> 9
 4.551657e-001 3.371764e-001 6.976298e-002 2.977951e+001 5.517930e+002 4.549221e+002 4.762525e-004 5.782502e-004 1.938003e-004
<GCONST> 4.177371e+000
<MIXTURE> 15 4.820104e-002
<MEAN> 9
 -1.032641e+001 -8.705720e+000 -1.814317e+000 -7.097972e-001 4.705457e+001 2.243300e+002 1.911283e-001 3.596760e-001 1.628390e-001
<VARIANCE> 9
 2.265629e-001 3.371764e-001 6.976298e-002 2.991507e+001 1.395065e+002 1.210095e+002 4.762525e-004 5.782502e-004 2.080364e-004
<GCONST> 8.558378e-001
<MIXTURE> 16 4.934165e-002
<MEAN> 9
 -1.072965e+001 -6.959991e+000 -3.286626e+000 -3.298705e+001 3.711845e+001 2.572425e+002 2.827240e-001 3.264872e-001 1.751494e-001
<VARIANCE> 9
 1.491142e-001 3.371764e-001 7.025561e-001 3.189503e+001 2.160706e+002 8.766618e+002 4.762525e-004 5.782502e-004 2.941341e-004
<GCONST> 5.575309e+000
<MIXTURE> 17 4.890039e-002
<MEAN> 9
 -1.073049e+001 -9.959743e+000 -1.615396e+000 2.351249e+001 7.293134e+001 2.142802e+002 1.410671e-001 3.701251e-001 1.670868e-001
<VARIANCE> 9
 2.673671e-001 3.371764e-001 4.948235e-001 6.138186e+001 2.090821e+003 7.768205e+002 7.118007e-004 5.782502e-004 2.757123e-004
<GCONST> 8.949323e+000
<STATE> 3
<NUMMIXES> 17
<MIXTURE> 1 6.780370e-002
<MEAN> 9
 -8.248687e+000 2.827552e-001 -3.231693e+000 -8.807639e+001 -5.818750e+000 1.655307e+002 4.794016e-001 1.063651e-001 2.298449e-001
<VARIANCE> 9
 1.491142e-001 7.082459e-001 6.976298e-002 8.137988e+001 3.680466e+001 2.205636e+002 4.762525e-004 1.269748e-003 1.938003e-004
<GCONST> 2.163992e+000
<MIXTURE> 2 5.386341e-002
<MEAN> 9
 -1.311333e+001 1.701530e+000 4.066495e+000 1.029147e+002 -3.508051e+001 6.891464e+001 5.326531e-001 -4.370956e-002 2.345485e-001
<VARIANCE> 9
 1.612945e+000 4.134154e-001 1.328499e+000 2.144238e+002 6.743279e+001 1.210095e+002 4.762525e-004 5.782502e-004 1.938003e-004
<GCONST> 7.140910e+000
<MIXTURE> 3 7.461134e-002
<MEAN> 9
 -7.711948e+000 -1.554254e+000 -4.794400e+000 -1.510206e+002 -6.814209e+000 2.371322e+002 4.501868e-001 1.744516e-001 2.655322e-001
<VARIANCE> 9
 4.736749e-001 1.569175e+000 2.865149e+000 2.255719e+002 1.149611e+003 2.179888e+002 4.762525e-004 5.782502e-004 1.938003e-004
<GCONST> 1.149334e+001
<MIXTURE> 4 3.913898e-002
<MEAN> 9
 -4.994122e+000 -4.346326e+000 3.135275e+000 -1.372156e+002 -2.512273e+001 4.257662e+001 5.271209e-001 -2.644493e-003 2.533181e-001
<VARIANCE> 9
 3.123578e+000 3.371764e-001 2.831761e+000 4.844084e+002 1.388877e+002 8.534202e+002 4.762525e-004 5.782502e-004 1.938003e-004
<GCONST> 1.184572e+001
<MIXTURE> 5 5.564501e-002
<MEAN> 9
 -1.050583e+001 2.904114e+000 7.968372e+000 8.412624e+001 2.223302e+001 1.946658e+001 5.127299e-001 -9.840729e-002 7.194491e-002
<VARIANCE> 9
 1.491142e-001 3.407218e-001 1.522100e+000 2.733940e+002 5.102287e+001 1.738124e+002 4.762525e-004 5.782502e-004 1.938003e-004
<GCONST> 5.028668e+000
<MIXTURE> 6 6.292517e-002
<MEAN> 9
 -7.845069e+000 1.508946e+000 -2.026792e-001 -1.625664e+002 -8.363598e+001 5.723626e+001 5.151021e-001 -7.553390e-002 2.111079e-001
<VARIANCE> 9
 1.335173e+000 4.884527e-001 1.906677e+000 5.183924e+001 1.340484e+003 1.673088e+002 4.762525e-004 5.782502e-004 4.890577e-004
<GCONST> 1.029948e+001
<MIXTURE> 7 3.089784e-002
<MEAN> 9
 -7.012840e+000 -1.990653e+000 -4.731164e+000 -2.550433e+002 -1.058070e+001 8.656569e+001 4.955391e-001 2.038075e-002 2.934922e-001
<VARIANCE> 9
 2.926377e-001 3.380953e+000 1.947849e+000 1.347164e+003 1.833435e+002 3.596631e+002 4.762525e-004 6.187593e-004 3.911630e-004
<GCONST> 1.261550e+001
<MIXTURE> 8 4.939819e-002
<MEAN> 9
 -1.557973e+001 -9.295036e-001 7.841546e+000 5.902539e+001 1.946550e+001 3.297602e+001 5.233549e-001 -2.594655e-002 2.457980e-001
<VARIANCE> 9
 1.307302e+000 1.487685e+000 1.216584e+000 3.648452e+002 1.486570e+002 1.775400e+002 4.762525e-004 5.782502e-004 1.938003e-004
<GCONST> 9.828689e+000
<MIXTURE> 9 9.218829e-002
<MEAN> 9
 -3.715239e+000 -1.832556e+000 -2.942100e+000 -1.827228e+002 -6.474873e+001 1.701048e+002 4.986183e-001 8.481335e-002 2.785261e-001
<VARIANCE> 9
 5.312406e+000 2.534691e+000 8.730363e+000 6.828450e+002 1.913617e+003 1.019840e+003 4.762525e-004 1.030415e-003 1.938003e-004
<GCONST> 1.924220e+001
<MIXTURE> 10 5.566071e-002
<MEAN> 9
 -9.795171e+000 -7.114459e+000 9.352399e+000 -1.772108e+002 -7.539635e+001 -3.003062e+000 5.104545e-001 -2.659091e-002 2.650511e-001
<VARIANCE> 9
 3.492305e+000 3.371764e-001 4.215081e+000 4.036810e+003 4.141250e+001 1.210095e+002 4.762525e-004 5.782502e-004 1.938003e-004
<GCONST> 1.131189e+001
<MIXTURE> 11 2.783051e-002
<MEAN> 9
 -5.939759e+000 -6.301205e+000 1.246988e+000 -2.900305e+002 -8.003049e+001 2.329268e+001 5.045455e-001 4.545455e-004 2.948979e-001
<VARIANCE> 9
 3.344461e-001 3.371764e-001 1.869974e+000 2.977951e+001 8.760503e+001 1.356373e+002 4.762525e-004 5.782502e-004 1.938003e-004
<GCONST> 4.107284e+000
<MIXTURE> 12 8.351906e-002
<MEAN> 9
 -9.072968e+000 -8.985452e-003 1.017440e+001 -2.742432e+001 -1.420461e+001 -1.211617e+001 5.133326e-001 -8.485454e-002 7.125890e-002
<VARIANCE> 9
 1.233313e+000 1.219699e+000 3.309385e-001 2.142833e+003 1.622301e+002 1.210095e+002 4.762525e-004 5.782502e-004 1.938003e-004
<GCONST> 9.744399e+000
<MIXTURE> 13 6.989574e-002
<MEAN> 9
 -8.128943e+000 2.543542e+000 -3.138813e+000 -1.205509e+002 -1.029700e+001 1.104720e+002 5.109005e-001 -1.198693e-003 2.430248e-001
<VARIANCE> 9
 1.491142e-001 3.371764e-001 6.976298e-002 1.277381e+002 3.680466e+001 2.585919e+002 4.762525e-004 5.782502e-004 1.938003e-004
<GCONST> 1.245158e+000
<MIXTURE> 14 7.288197e-002
<MEAN> 9
 -6.593255e+000 -9.579450e-001 5.397222e+000 -1.485108e+002 -7.338103e+001 1.132570e+001 5.177929e-001 -9.897628e-002 1.231531e-001
<VARIANCE> 9
 8.063038e-001 3.371764e-001 2.362983e+000 5.097065e+002 2.200257e+002 1.372943e+002 4.762525e-004 5.782502e-004 5.478902e-004
<GCONST> 1.003358e+001
<MIXTURE> 15 7.270898e-002
<MEAN> 9
 -1.083175e+001 -4.716243e+000 8.135530e+000 -5.950188e+001 -1.852557e+001 -4.830243e+000 5.282021e-001 -2.015633e-002 2.432668e-001
<VARIANCE> 9
 9.541562e+000 3.371764e-001 4.103150e+000 1.517156e+003 4.694510e+002 1.210095e+002 4.762525e-004 5.782502e-004 1.938003e-004
<GCONST> 1.373943e+001
<MIXTURE> 16 4.353886e-002
<MEAN> 9
 -1.436119e+001 2.735096e+000 4.729946e+000 8.203522e+001 -5.331853e+001 7.643046e+001 5.278795e-001 -6.388731e-002 2.312819e-001
<VARIANCE> 9
 1.525575e+000 8.851020e-001 6.884611e-001 2.040434e+002 3.786281e+002 1.210095e+002 4.762525e-004 5.782502e-004 1.938003e-004
<GCONST> 8.864921e+000
<MIXTURE> 17 4.749216e-002
<MEAN> 9
 -1.523738e+001 -1.836301e+000 8.558602e+000 4.180729e+001 1.154681e+001 2.644750e+001 5.220575e-001 -3.080189e-002 2.443069e-001
<VARIANCE> 9
 1.696827e+000 2.334091e+000 1.138344e+000 5.275477e+002 1.690905e+002 2.127574e+002 4.762525e-004 5.782502e-004 1.938003e-004
<GCONST> 1.115193e+001
<STATE> 4
<NUMMIXES> 17
<MIXTURE> 1 7.047202e-002
<MEAN> 9
 -9.289221e+000 4.448190e+000 3.198101e+000 1.229611e+002 6.138686e+001 7.696167e+001 5.085222e-001 -1.345093e-001 1.183631e-001
<VARIANCE> 9
 2.651107e-001 3.371764e-001 1.649080e+000 2.977951e+001 1.343155e+002 3.651306e+002 4.762525e-004 8.760294e-004 3.938559e-004
<GCONST> 6.291420e+000
<MIXTURE> 2 7.566742e-002
<MEAN> 9
 -4.016672e+000 5.581315e+000 -3.825597e-002 5.751070e+001 -2.577151e+000 6.075352e+001 4.750259e-001 -2.494514e-001 1.293428e-001
<VARIANCE> 9
 1.491142e-001 3.371764e-001 6.976298e-002 2.806663e+002 3.680466e+001 1.210095e+002 4.762525e-004 5.782502e-004 1.938003e-004
<GCONST> 1.272964e+000
<MIXTURE> 3 5.715381e-002
<MEAN> 9
 -2.012275e+000 5.328372e+000 1.570657e-001 -4.639249e+001 -6.863943e+001 -7.233754e+001 4.411364e-001 -2.933996e-001 1.553415e-001
<VARIANCE> 9
 3.749866e-001 5.432761e-001 3.293137e-001 2.977951e+001 5.756143e+002 1.210095e+002 4.762525e-004 7.476860e-004 5.624200e-004
<GCONST> 6.052922e+000
<MIXTURE> 4 5.707417e-002
<MEAN> 9
 -5.415056e+000 5.466971e+000 -1.021413e+000 8.346320e+001 3.384483e+001 1.270869e+002 4.602148e-001 -2.529694e-001 2.143065e-001
<VARIANCE> 9
 7.406159e-001 3.371764e-001 1.464135e-001 1.788399e+002 1.831918e+002 1.210095e+002 4.762525e-004 5.782502e-004 3.468289e-004
<GCONST> 5.353296e+000
<MIXTURE> 5 8.607916e-002
<MEAN> 9
 -7.108035e+000 4.558225e+000 -3.430303e-001 1.131732e+002 -2.599142e+001 1.276971e+002 5.039202e-001 -1.767936e-001 1.597374e-001
<VARIANCE> 9
 9.189252e-001 3.371764e-001 5.569760e-001 2.977951e+001 4.568638e+003 3.443958e+002 4.762525e-004 5.782502e-004 1.938003e-004
<GCONST> 8.792796e+000
<MIXTURE> 6 4.393256e-002
<MEAN> 9
 -2.607331e+000 6.310444e+000 -1.329515e+000 3.965410e+001 -6.352018e+000 8.941011e+001 4.228562e-001 -3.041378e-001 2.372068e-001
<VARIANCE> 9
 2.895105e-001 3.371764e-001 6.976298e-002 1.403920e+002 4.474881e+001 2.777521e+002 4.762525e-004 5.782502e-004 1.938003e-004
<GCONST> 2.270015e+000
<MIXTURE> 7 5.771004e-002
<MEAN> 9
 -1.268988e+000 5.054565e+000 1.595508e+000 -8.916489e+001 -1.110474e+002 -1.532702e+002 4.675159e-001 -2.407688e-001 9.510094e-002
<VARIANCE> 9
 4.788916e-001 3.371764e-001 8.193478e-001 7.295424e+001 4.501710e+002 1.937133e+002 4.762525e-004 5.782502e-004 2.288128e-004
<GCONST> 6.696383e+000
<MIXTURE> 8 7.141737e-002
<MEAN> 9
 -1.460582e+000 2.968693e+000 -2.546976e+000 9.399279e+001 -7.417233e-001 1.405908e+002 4.560044e-001 -2.721760e-001 1.755070e-001
<VARIANCE> 9
 1.708119e+000 3.371764e-001 1.240713e-001 3.194395e+002 1.205851e+002 2.612611e+002 4.762525e-004 7.276860e-004 1.938003e-004
<GCONST> 6.602798e+000
<MIXTURE> 9 5.672541e-002
<MEAN> 9
 -9.797474e+000 3.270432e+000 8.380007e-001 1.188346e+002 -7.225925e+001 9.161391e+001 5.313537e-001 -9.054587e-002 1.904680e-001
<VARIANCE> 9
 5.069481e-001 3.371764e-001 1.996204e-001 2.977951e+001 8.213466e+001 1.210095e+002 4.762525e-004 5.782502e-004 2.180062e-004
<GCONST> 2.225055e+000
<MIXTURE> 10 8.150563e-002
<MEAN> 9
 -2.286761e+000 5.826830e+000 2.846327e-001 -4.863467e+000 -7.586455e+000 3.408557e+000 4.581724e-001 -2.691391e-001 1.389430e-001
<VARIANCE> 9
 1.721344e-001 3.371764e-001 7.882404e-002 3.553592e+002 3.680466e+001 8.850930e+002 4.762525e-004 5.782502e-004 1.938003e-004
<GCONST> 3.764426e+000
<MIXTURE> 11 7.102838e-002
<MEAN> 9
 -5.183685e+000 4.857965e+000 1.637510e-002 9.878806e+001 -6.359211e+001 8.544637e+001 5.055665e-001 -1.852389e-001 1.236363e-001
<VARIANCE> 9
 3.152589e-001 3.371764e-001 1.092704e-001 2.977951e+001 9.985889e+002 1.210095e+002 4.762525e-004 5.782502e-004 1.938003e-004
<GCONST> 3.527740e+000
<MIXTURE> 12 4.301609e-002
<MEAN> 9
 -1.309770e+000 6.136510e+000 -1.019898e+000 -6.966835e+000 -5.254994e+001 6.106067e+000 4.141697e-001 -3.158461e-001 2.164899e-001
<VARIANCE> 9
 1.298265e+000 1.430357e+000 3.327902e-001 1.419715e+002 1.538961e+002 3.552512e+002 4.762525e-004 5.782502e-004 4.221888e-004
<GCONST> 9.049208e+000
<MIXTURE> 13 5.713537e-002
<MEAN> 9
 -2.213592e+000 5.225893e+000 7.255533e-001 -6.391278e+001 -8.994471e+001 -1.095094e+002 4.459079e-001 -2.788716e-001 1.275635e-001
<VARIANCE> 9
 1.731046e-001 4.106471e-001 2.339025e-001 3.636135e+001 2.961269e+002 1.210095e+002 4.762525e-004 5.782502e-004 3.188090e-004
<GCONST> 3.368341e+000
<MIXTURE> 14 4.430294e-002
<MEAN> 9
 -1.172897e+001 4.508665e+000 2.108162e+000 9.508775e+001 -9.295268e+001 1.083601e+002 5.159132e-001 -1.162131e-001 1.874055e-001
<VARIANCE> 9
 2.181607e+000 3.371764e-001 2.394177e+000 7.293141e+001 5.225568e+001 1.379261e+002 4.762525e-004 5.782502e-004 1.938003e-004
<GCONST> 6.625484e+000
<MIXTURE> 15 4.225714e-002
<MEAN> 9
 -2.296030e+000 3.924063e+000 1.757647e+000 -1.085452e+002 -8.465216e+001 -1.779074e+002 4.825992e-001 -1.993439e-001 7.047980e-002
<VARIANCE> 9
 3.242207e+000 5.542950e-001 1.300411e+000 1.110705e+002 1.774864e+002 1.971149e+002 4.762525e-004 5.782502e-004 1.938003e-004
<GCONST> 8.908866e+000
<MIXTURE> 16 4.181270e-002
<MEAN> 9
 -2.166200e-001 4.576738e+000 -2.128397e+000 3.059160e+001 -2.218252e+001 6.115134e+001 4.173285e-001 -3.195557e-001 2.041318e-001
<VARIANCE> 9
 1.724769e+000 2.141066e+000 2.068215e-001 1.687446e+002 3.680466e+001 2.317068e+002 4.762525e-004 5.782502e-004 6.701790e-004
<GCONST> 8.037842e+000
<MIXTURE> 17 4.270970e-002
<MEAN> 9
 -9.429317e-001 5.605371e+000 -1.056325e+000 -1.782561e+001 -6.612764e+001 -1.878281e+001 4.146156e-001 -3.177997e-001 1.977446e-001
<VARIANCE> 9
 9.358617e-001 1.582128e+000 2.818260e-001 1.677132e+002 1.378272e+002 3.598810e+002 4.762525e-004 5.782502e-004 4.110209e-004
<GCONST> 8.699008e+000
<STATE> 5
<NUMMIXES> 17
<MIXTURE> 1 6.639411e-002
<MEAN> 9
 -3.751728e+000 5.980535e-001 2.632728e+000 2.135132e+001 1.890406e+000 -2.079851e+001 4.872587e-001 2.776229e-002 2.247487e-003
<VARIANCE> 9
 2.898156e-001 3.371764e-001 2.071014e-001 2.977951e+001 2.497317e+002 1.210095e+002 4.762525e-004 2.490596e-003 1.938003e-004
<GCONST> 4.157287e+000
<MIXTURE> 2 7.572016e-002
<MEAN> 9
 -1.092867e+001 2.082098e+000 7.581939e+000 -8.872146e+000 8.060680e+000 -4.837957e+001 4.882219e-001 1.409463e-002 -5.631935e-003
<VARIANCE> 9
 9.003319e-001 2.371767e+000 4.729618e-001 1.429246e+002 2.268324e+002 3.548498e+002 4.762525e-004 2.938195e-003 1.938003e-004
<GCONST> 1.078082e+001
<MIXTURE> 3 6.144723e-002
<MEAN> 9
 -7.433300e+000 -2.114978e+000 6.030660e+000 4.036292e+001 1.605973e+001 2.796109e+001 4.560445e-001 1.553629e-001 -6.745101e-003
<VARIANCE> 9
 2.230809e+000 3.371764e-001 1.077133e+000 2.977951e+001 3.680466e+001 1.210095e+002 4.762525e-004 5.782502e-004 1.938003e-004
<GCONST> 4.471976e+000
<MIXTURE> 4 5.329974e-002
<MEAN> 9
 -8.310250e+000 3.394553e+000 7.201808e+000 -1.166616e+002 -6.349083e+001 -1.998018e+002 4.975000e-001 -6.272615e-002 7.397862e-003
<VARIANCE> 9
 2.326455e-001 1.345058e+000 4.884067e-001 3.916643e+001 3.680466e+001 1.210095e+002 4.762525e-004 2.698340e-003 1.938003e-004
<GCONST> 4.618432e+000
<MIXTURE> 5 8.005764e-002
<MEAN> 9
 -3.782183e+000 5.026650e-001 1.513695e+000 1.558943e+001 3.451929e+001 -9.558364e+001 5.036436e-001 4.656873e-003 3.772106e-002
<VARIANCE> 9
 4.053791e-001 3.371764e-001 1.593828e-001 3.271968e+001 3.680466e+001 1.259834e+003 4.762525e-004 5.782502e-004 1.938003e-004
<GCONST> 3.292953e+000
<MIXTURE> 6 5.143097e-002
<MEAN> 9
 -1.097921e+001 -2.907827e+000 9.512223e+000 1.502038e+001 3.322776e+001 -7.630270e+000 4.391268e-001 1.848094e-001 -9.297505e-003
<VARIANCE> 9
 1.491142e-001 3.371764e-001 9.264341e-001 5.355728e+002 5.795247e+002 5.766078e+002 4.762525e-004 5.782502e-004 1.938003e-004
<GCONST> 8.823249e+000
<MIXTURE> 7 4.879801e-002
<MEAN> 9
 -9.482061e+000 5.364647e-001 6.419420e+000 2.406527e+001 1.463559e+001 3.256506e+000 4.755803e-001 7.480522e-002 -9.212189e-003
<VARIANCE> 9
 8.952062e-001 3.371764e-001 3.554414e-001 2.977951e+001 6.903011e+001 1.210095e+002 4.762525e-004 5.782502e-004 1.938003e-004
<GCONST> 3.079131e+000
<MIXTURE> 8 5.038083e-002
<MEAN> 9
 -3.127305e+000 -8.535578e-001 1.631099e+000 1.884570e+001 4.136260e+001 -2.168051e+001 4.697670e-001 1.283706e-001 -3.188600e-003
<VARIANCE> 9
 2.473351e-001 3.371764e-001 6.976298e-002 1.239508e+002 3.182529e+002 5.237170e+002 4.762525e-004 5.782502e-004 1.938003e-004
<GCONST> 4.584016e+000
<MIXTURE> 9 6.662589e-002
<MEAN> 9
 -6.710865e+000 -9.951912e-001 7.084362e+000 -1.925245e+002 -9.347557e+001 -2.489878e+002 4.914545e-001 1.636935e-003 -1.632669e-002
<VARIANCE> 9
 7.183176e+000 1.956418e+000 8.643452e+000 1.896557e+002 3.680466e+001 3.150409e+002 4.762525e-004 4.911500e-003 3.002883e-004
<GCONST> 1.486758e+001
<MIXTURE> 10 6.659269e-002
<MEAN> 9
 -7.010371e+000 2.128023e+000 4.759500e+000 1.329078e+001 2.301438e+000 -5.392009e+000 4.989110e-001 -3.926888e-002 2.449868e-003
<VARIANCE> 9
 1.754149e+000 3.371764e-001 5.351119e-001 2.977951e+001 4.338965e+001 1.210095e+002 4.762525e-004 5.782502e-004 1.938003e-004
<GCONST> 3.696612e+000
<MIXTURE> 11 4.125320e-002
<MEAN> 9
 -1.147759e+001 2.978692e+000 8.892332e+000 -6.511413e+001 -1.742935e+001 -1.267628e+002 4.889172e-001 -3.299720e-002 -4.823573e-003
<VARIANCE> 9
 3.312378e-001 2.593244e+000 2.569970e-001 4.278387e+002 7.546758e+001 8.112087e+002 4.762525e-004 3.418201e-003 1.938003e-004
<GCONST> 1.023428e+001
<MIXTURE> 12 6.666567e-002
<MEAN> 9
 -4.900585e+000 3.759388e+000 4.410894e+000 -1.262794e+002 -9.209531e+001 -2.090806e+002 4.878165e-001 -1.591130e-001 3.676344e-002
<VARIANCE> 9
 1.981795e+000 1.104159e+000 3.477477e+000 1.521604e+002 2.005421e+002 1.210095e+002 4.762525e-004 7.725051e-004 1.938003e-004
<GCONST> 1.032800e+001
<MIXTURE> 13 7.154120e-002
<MEAN> 9
 -6.212323e+000 1.814111e-001 4.467339e+000 2.531654e+001 1.148622e+001 5.876381e+000 4.784043e-001 5.860522e-002 -3.685018e-003
<VARIANCE> 9
 7.267556e-001 3.371764e-001 3.374122e-001 2.977951e+001 3.680466e+001 1.210095e+002 4.762525e-004 5.782502e-004 1.938003e-004
<GCONST> 2.189696e+000
<MIXTURE> 14 5.844064e-002
<MEAN> 9
 -5.015683e+000 -1.813429e+000 4.169569e+000 4.610311e+001 1.146956e+001 3.076121e+001 4.625013e-001 1.356782e-001 -1.336425e-002
<VARIANCE> 9
 3.560835e+000 3.371764e-001 2.297933e+000 3.296403e+001 3.680466e+001 1.210095e+002 4.762525e-004 5.782502e-004 1.938003e-004
<GCONST> 5.798911e+000
<MIXTURE> 15 5.694379e-002
<MEAN> 9
 -4.207232e+000 -2.352554e-001 1.989758e+000 -8.180303e+000 2.818330e+001 -8.431966e+001 4.712638e-001 1.025499e-001 4.111305e-004
<VARIANCE> 9
 1.930352e-001 3.371764e-001 6.976298e-002 1.187038e+002 2.487370e+002 4.281934e+002 4.762525e-004 5.782502e-004 1.938003e-004
<GCONST> 3.845065e+000
<MIXTURE> 16 4.185795e-002
<MEAN> 9
 -1.290446e+001 -3.473561e+000 1.238205e+001 -1.084734e+002 -2.773632e+001 -1.305724e+002 4.483130e-001 1.535416e-001 -2.268478e-002
<VARIANCE> 9
 9.392784e-001 3.371764e-001 2.335218e-001 1.649032e+003 7.458665e+001 1.818704e+003 4.762525e-004 5.782502e-004 1.938003e-004
<GCONST> 9.508658e+000
<MIXTURE> 17 4.255004e-002
<MEAN> 9
 -1.111486e+001 2.534776e+000 8.741535e+000 -7.832287e+001 -2.449996e+001 -1.428910e+002 4.875389e-001 -2.505055e-002 -5.925752e-003
<VARIANCE> 9
 4.887639e-001 2.448937e+000 3.395301e-001 3.988194e+002 9.715356e+001 7.722949e+002 4.762525e-004 3.711607e-003 1.938003e-004
<GCONST> 1.106011e+001
<STATE> 6
<NUMMIXES> 17
<MIXTURE> 1 6.005386e-002
<MEAN> 9
 -7.429711e+000 -1.191963e+001 4.883529e+000 -3.042691e+001 4.573122e+001 -1.230690e+002 1.590912e-001 3.636364e-001 2.136052e-001
<VARIANCE> 9
 1.491142e-001 3.371764e-001 6.976298e-002 1.632002e+002 1.486989e+002 1.210095e+002 4.762525e-004 5.782502e-004 1.938003e-004
<GCONST> 2.127070e+000
<MIXTURE> 2 8.006777e-002
<MEAN> 9
 -7.388554e+000 -3.219884e+000 2.662646e+000 5.015300e+000 8.124993e+001 -1.444514e+002 4.354543e-001 2.122729e-001 8.826540e-002
<VARIANCE> 9
 2.113807e-001 3.371764e-001 5.468883e-001 3.416742e+001 3.051304e+002 1.596265e+002 4.762525e-004 5.782502e-004 1.938003e-004
<GCONST> 3.967238e+000
<MIXTURE> 3 9.922992e-002
<MEAN> 9
 -5.566745e+000 -1.148864e+000 1.726569e+000 -4.235365e+000 7.615477e+001 -1.272184e+002 4.828558e-001 1.265347e-001 4.815455e-002
<VARIANCE> 9
 8.536014e-001 3.371764e-001 1.022916e+000 2.977951e+001 2.170889e+002 1.459311e+003 4.762525e-004 1.629838e-003 2.643725e-004
<GCONST> 9.070967e+000
<MIXTURE> 4 4.078220e-002
<MEAN> 9
 -9.640155e+000 -7.505798e+000 3.192275e+000 1.052641e+001 5.759060e+001 -1.783769e+002 3.004881e-001 3.298039e-001 1.328590e-001
<VARIANCE> 9
 1.491142e-001 3.371764e-001 6.976298e-002 2.977951e+001 3.680466e+001 1.210095e+002 4.762525e-004 5.782502e-004 1.938003e-004
<GCONST> -9.703841e-001
<MIXTURE> 5 5.038124e-002
<MEAN> 9
 -9.086987e+000 -7.072429e+000 4.510265e+000 -6.144797e+001 6.299779e+000 -2.059573e+002 3.472349e-001 2.953708e-001 1.068716e-001
<VARIANCE> 9
 4.323074e-001 6.196516e-001 7.192798e-002 3.250905e+002 1.020248e+003 8.209520e+002 4.762525e-004 5.782502e-004 1.938003e-004
<GCONST> 8.360209e+000
<MIXTURE> 6 7.931833e-002
<MEAN> 9
 -9.935695e+000 -9.610144e+000 2.508920e+000 7.605833e+000 7.081001e+001 -1.718019e+002 2.222060e-001 3.626781e-001 1.518604e-001
<VARIANCE> 9
 1.491142e-001 5.056496e-001 6.976298e-002 2.977951e+001 5.266725e+001 1.210095e+002 7.092049e-004 5.782502e-004 1.938003e-004
<GCONST> 1.914206e-001
<MIXTURE> 7 8.006846e-002
<MEAN> 9
 -1.028012e+001 -5.704819e+000 2.003011e+000 1.647866e+001 5.655490e+001 -1.791311e+002 3.679546e-001 2.877273e-001 1.234694e-001
<VARIANCE> 9
 6.376385e-001 7.057993e-001 1.759598e-001 2.977951e+001 1.127939e+003 1.210095e+002 5.047001e-004 5.782502e-004 1.938003e-004
<GCONST> 5.627090e+000
<MIXTURE> 8 5.182537e-002
<MEAN> 9
 -9.540522e+000 -4.293641e+000 1.782644e+000 -4.249327e+001 2.059114e+001 -1.993103e+002 4.089316e-001 2.277584e-001 8.104113e-002
<VARIANCE> 9
 5.263190e-001 3.371764e-001 2.737219e-001 1.174911e+002 2.548841e+002 8.233843e+002 4.762525e-004 5.782502e-004 2.017880e-004
<GCONST> 6.923489e+000
<MIXTURE> 9 4.901371e-002
<MEAN> 9
 -8.049335e+000 -2.126158e+000 9.579411e-001 -1.620344e+001 1.746189e+001 -2.000477e+002 4.624403e-001 1.530453e-001 8.228759e-002
<VARIANCE> 9
 1.491142e-001 1.349165e+000 6.976298e-002 1.815115e+002 3.505652e+002 3.197436e+002 4.762525e-004 1.036540e-003 1.938003e-004
<GCONST> 6.032957e+000
<MIXTURE> 10 8.006810e-002
<MEAN> 9
 -1.018674e+001 -1.065663e+001 2.912650e+000 -2.088414e+001 5.600586e+001 -2.254573e+002 2.259088e-001 3.509092e-001 1.520409e-001
<VARIANCE> 9
 1.739469e+000 8.737401e-001 6.976298e-002 2.977951e+001 4.076961e+002 1.210095e+002 1.681596e-003 5.782502e-004 1.938003e-004
<GCONST> 6.104865e+000
<MIXTURE> 11 3.840775e-002
<MEAN> 9
 -9.990642e+000 -8.976044e+000 3.669815e+000 -5.454325e+001 9.566774e+001 -2.042171e+002 2.986061e-001 3.375533e-001 1.407421e-001
<VARIANCE> 9
 1.491142e-001 3.371764e-001 6.976298e-002 6.330463e+002 1.854486e+002 8.409007e+002 4.762525e-004 5.782502e-004 1.938003e-004
<GCONST> 5.642097e+000
<MIXTURE> 12 6.005134e-002
<MEAN> 9
 -5.799197e+000 -2.136547e+000 1.742972e+000 -3.579269e+001 5.123984e+001 -1.406911e+002 4.490909e-001 1.506061e-001 2.755104e-002
<VARIANCE> 9
 1.491142e-001 3.371764e-001 6.976298e-002 2.977951e+001 3.680466e+001 1.210095e+002 4.762525e-004 5.782502e-004 1.938003e-004
<GCONST> -9.703841e-001
<MIXTURE> 13 6.004995e-002
<MEAN> 9
 -9.004052e+000 -1.030120e+001 4.285132e+000 -6.451236e+001 2.170762e+001 -1.490653e+002 2.187884e-001 3.493938e-001 1.884351e-001
<VARIANCE> 9
 1.395088e+000 3.371764e-001 1.072561e-001 2.977951e+001 2.213307e+002 1.210095e+002 4.762525e-004 5.782502e-004 1.938003e-004
<GCONST> 3.489764e+000
<MIXTURE> 14 2.164552e-002
<MEAN> 9
 -1.096362e+001 -1.020121e+001 3.304537e+000 -7.407840e+001 7.745901e+001 -1.693962e+002 2.654816e-001 3.376148e-001 1.607633e-001
<VARIANCE> 9
 1.491142e-001 3.371764e-001 6.976298e-002 2.977951e+001 3.680466e+001 1.210095e+002 4.762525e-004 5.782502e-004 1.938003e-004
<GCONST> -9.703841e-001
<MIXTURE> 15 5.007390e-002
<MEAN> 9
 -9.498697e+000 -5.021339e+000 2.837432e+000 -5.460170e+001 -9.237603e+000 -1.969082e+002 3.863463e-001 2.514561e-001 8.250532e-002
<VARIANCE> 9
 5.687433e-001 3.371764e-001 3.673888e-001 2.068759e+002 1.569268e+002 8.002136e+002 4.762525e-004 5.782502e-004 1.938003e-004
<GCONST> 7.307113e+000
<MIXTURE> 16 4.966744e-002
<MEAN> 9
 -9.082335e+000 -7.480769e+000 4.448586e+000 -7.048713e+001 1.566789e+001 -1.935566e+002 3.370403e-001 3.010375e-001 1.098942e-001
<VARIANCE> 9
 3.127986e-001 7.729986e-001 6.976298e-002 3.001813e+002 9.399118e+002 6.823613e+002 4.762525e-004 5.782502e-004 1.938003e-004
<GCONST> 7.880553e+000
<MIXTURE> 17 4.929486e-002
<MEAN> 9
 -8.135898e+000 -2.786521e+000 1.030971e+000 -2.276035e+001 2.032373e+001 -2.023656e+002 4.531158e-001 1.712079e-001 8.031233e-002
<VARIANCE> 9
 1.491142e-001 9.554819e-001 6.976298e-002 1.640958e+002 4.215412e+002 4.697378e+002 4.762525e-004 6.954559e-004 2.201378e-004
<GCONST> 5.884441e+000
<STATE> 7
<NUMMIXES> 17
<MIXTURE> 1 2.795298e-002
<MEAN> 9
 8.554217e-001 -1.110843e+001 8.024096e+000 -5.975610e+000 1.836585e+002 -3.750000e+001 1.181818e-002 3.772727e-001 1.989796e-001
<VARIANCE> 9
 1.491142e-001 3.371764e-001 6.976298e-002 2.977951e+001 3.680466e+001 1.210095e+002 4.762525e-004 5.782502e-004 1.938003e-004
<GCONST> -9.703841e-001
<MIXTURE> 2 5.663951e-002
<MEAN> 9
 -4.308212e+000 -1.027936e+001 3.111170e+000 -5.192302e+000 7.643074e+001 -2.237606e+001 -5.474542e-002 3.566273e-001 1.964071e-001
<VARIANCE> 9
 1.491142e-001 3.371764e-001 6.976298e-002 2.977951e+001 1.316120e+002 1.210095e+002 4.762525e-004 5.782502e-004 1.938003e-004
<GCONST> 3.038473e-001
<MIXTURE> 3 8.384194e-002
<MEAN> 9
 -7.377625e+000 -1.046586e+001 2.646581e+000 -6.665693e+000 4.934715e+001 -1.478262e+002 1.418236e-001 3.863654e-001 1.649660e-001
<VARIANCE> 9
 5.238206e-001 3.371764e-001 6.976298e-002 2.977951e+001 1.940243e+002 1.210095e+002 4.762525e-004 5.782502e-004 1.938003e-004
<GCONST> 1.948409e+000
<MIXTURE> 4 5.590598e-002
<MEAN> 9
 -8.536144e+000 -9.506024e+000 2.102410e+000 3.478659e+001 2.803964e+002 -3.871951e+001 -4.545453e-003 3.663636e-001 1.801021e-001
<VARIANCE> 9
 2.704638e+000 8.165192e-001 1.215307e+000 2.977951e+001 1.459333e+003 1.210095e+002 4.762525e-004 5.782502e-004 1.938003e-004
<GCONST> 9.349826e+000
<MIXTURE> 5 5.598149e-002
<MEAN> 9
 -7.078794e+000 -1.247617e+001 2.751112e+000 -1.444292e+001 8.901031e+001 -2.014979e+002 1.272206e-001 3.777211e-001 1.775457e-001
<VARIANCE> 9
 1.491142e-001 3.371764e-001 2.286987e-001 2.977951e+001 1.307312e+002 1.210095e+002 4.762525e-004 5.782502e-004 1.938003e-004
<GCONST> 1.484435e+000
<MIXTURE> 6 2.795298e-002
<MEAN> 9
 -2.457831e+000 -1.124096e+001 4.987952e+000 -2.859756e+001 5.371951e+001 -4.079268e+001 1.090909e-002 3.645455e-001 1.989796e-001
<VARIANCE> 9
 1.491142e-001 3.371764e-001 6.976298e-002 2.977951e+001 3.680466e+001 1.210095e+002 4.762525e-004 5.782502e-004 1.938003e-004
<GCONST> -9.703841e-001
<MIXTURE> 7 8.386540e-002
<MEAN> 9
 -5.610552e+000 -1.093173e+001 2.056215e+000 -2.571081e+001 4.087566e+001 -6.756361e+001 2.939507e-002 3.787872e-001 1.901356e-001
<VARIANCE> 9
 3.539462e-001 3.371764e-001 1.471142e-001 2.977951e+001 3.680466e+001 1.807915e+002 4.762525e-004 5.782502e-004 1.938003e-004
<GCONST> 1.041629e+000
<MIXTURE> 8 5.984233e-002
<MEAN> 9
