~o
<STREAMINFO> 1 9
<VECSIZE> 9<NULLD><USER><DIAGC>
~h "GA"
<BEGINHMM>
<NUMSTATES> 8
<STATE> 2
<NUMMIXES> 5
<MIXTURE> 1 2.013005e-001
<MEAN> 9
 -8.463971e+000 -1.029251e+001 8.972729e-001 4.632346e+001 6.962714e+001 1.483457e+002 8.920570e-002 3.711551e-001 1.662736e-001
<VARIANCE> 9
 1.105831e+000 5.694681e-001 1.471278e+000 3.490683e+002 1.545551e+003 2.085171e+003 1.461048e-003 5.782502e-004 2.036352e-004
<GCONST> 1.482229e+001
<MIXTURE> 2 1.857967e-001
<MEAN> 9
 -1.047981e+001 -7.450539e+000 -2.392251e+000 -1.357434e+001 5.140444e+001 2.360882e+002 2.579954e-001 3.319489e-001 1.625026e-001
<VARIANCE> 9
 7.218050e-001 2.142208e+000 9.676458e-001 7.592338e+002 1.213795e+003 6.127401e+002 3.392326e-003 7.971766e-004 1.938003e-004
<GCONST> 1.572624e+001
<MIXTURE> 3 2.150303e-001
<MEAN> 9
 -1.072612e+001 -8.585984e+000 -1.712122e-001 -3.808144e+001 -5.832359e+001 2.227250e+002 2.556663e-001 3.409821e-001 1.567531e-001
<VARIANCE> 9
 1.505204e+000 7.866574e-001 9.081553e-001 5.566083e+002 1.481883e+003 1.058483e+003 6.335553e-003 1.198409e-003 1.938003e-004
<GCONST> 1.686402e+001
<MIXTURE> 4 2.527354e-001
<MEAN> 9
 -8.050256e+000 -1.049765e+001 3.906479e-001 1.193576e+001 -3.943336e+001 1.423402e+002 7.097191e-002 3.712829e-001 1.598108e-001
<VARIANCE> 9
 1.195940e+000 9.799618e-001 5.429011e-001 4.046702e+002 5.025482e+003 1.477395e+003 2.090156e-003 5.782502e-004 1.938003e-004
<GCONST> 1.573744e+001
<MIXTURE> 5 1.451371e-001
<MEAN> 9
 -1.067686e+001 -7.578866e+000 -2.251420e+000 -1.163002e+001 4.333554e+001 2.301080e+002 2.550641e-001 3.315265e-001 1.582187e-001
<VARIANCE> 9
 8.787798e-001 2.033443e+000 1.320794e+000 6.779714e+002 2.295620e+003 5.959590e+002 3.349199e-003 7.602695e-004 1.938003e-004
<GCONST> 1.661811e+001
<STATE> 3
<NUMMIXES> 5
<MIXTURE> 1 1.662810e-001
<MEAN> 9
 -6.685956e+000 1.061456e+000 -1.722790e+000 -1.183253e+002 1.149143e+001 1.471660e+002 5.048147e-001 -8.225283e-003 2.560299e-001
<VARIANCE> 9
 8.090686e-001 2.148339e+000 7.018882e+000 1.458112e+003 1.754842e+002 1.566406e+003 4.762525e-004 4.181900e-003 8.707959e-004
<GCONST> 1.867865e+001
<MIXTURE> 2 2.314665e-001
<MEAN> 9
 -9.055120e+000 -2.841826e+000 -1.692464e+000 -8.878043e+001 1.226867e+001 2.126096e+002 4.525808e-001 1.510140e-001 2.038819e-001
<VARIANCE> 9
 5.900851e-001 1.556102e+000 1.031413e+001 3.777182e+002 6.680502e+002 3.285936e+003 2.052546e-003 8.232159e-003 6.371192e-004
<GCONST> 2.097809e+001
<MIXTURE> 3 2.745745e-001
<MEAN> 9
 -7.284264e+000 1.665252e+000 2.091522e-001 -1.568617e+002 -2.429904e+001 4.551298e+001 5.031478e-001 -1.009554e-001 2.642035e-001
<VARIANCE> 9
 6.501651e-001 2.317851e+000 8.538053e+000 9.242974e+002 1.051964e+003 2.665883e+003 4.762525e-004 3.375576e-003 8.361794e-004
<GCONST> 2.034386e+001
<MIXTURE> 4 1.730170e-001
<MEAN> 9
 -9.216513e+000 -2.816983e+000 8.980303e-001 -9.430215e+001 -1.415796e+001 1.549820e+002 4.584500e-001 9.255475e-002 1.827543e-001
<VARIANCE> 9
 8.881537e-001 3.593443e+000 1.767220e+001 8.739856e+002 1.401330e+003 1.450015e+004 2.884503e-003 2.519960e-002 5.259094e-004
<GCONST> 2.709383e+001
<MIXTURE> 5 1.546613e-001
<MEAN> 9
 -7.092369e+000 1.145379e+000 -2.805802e+000 -1.325826e+002 9.464686e+000 1.423303e+002 4.969973e-001 1.045660e-002 2.660233e-001
<VARIANCE> 9
 7.592030e-001 2.264889e+000 3.467906e+000 1.140432e+003 1.770945e+002 1.743077e+003 4.762525e-004 4.880983e-003 6.496763e-004
<GCONST> 1.769473e+001
<STATE> 4
<NUMMIXES> 5
<MIXTURE> 1 1.771325e-001
<MEAN> 9
 -8.320865e+000 4.464981e+000 2.520838e+000 1.670269e+000 2.210931e+001 1.008715e+001 5.067365e-001 -1.640988e-001 2.048152e-001
<VARIANCE> 9
 1.034235e+000 5.485652e-001 3.891610e-001 4.865660e+001 4.963051e+002 3.031445e+002 4.762525e-004 5.782502e-004 3.441006e-004
<GCONST> 7.756890e+000
<MIXTURE> 2 1.604976e-001
<MEAN> 9
 -4.405020e+000 4.933369e+000 4.766896e+000 -3.214331e+001 -2.553269e+002 1.043096e+002 4.239393e-001 -2.428448e-001 4.192524e-003
<VARIANCE> 9
 2.348330e+001 6.616570e-001 3.848811e+000 1.441206e+002 1.371345e+004 4.569858e+002 2.282822e-003 2.536628e-003 1.657779e-002
<GCONST> 2.509442e+001
<MIXTURE> 3 3.371126e-001
<MEAN> 9
 -9.186129e+000 2.319236e+000 3.147734e+000 -2.904184e+001 -3.161485e+001 4.624867e+001 5.038039e-001 -1.602353e-001 1.949193e-001
<VARIANCE> 9
 1.022861e+001 3.129897e+000 3.104960e+000 2.296010e+002 4.496513e+003 7.033764e+002 4.762525e-004 9.808321e-004 3.957572e-003
<GCONST> 2.143458e+001
<MIXTURE> 4 1.769301e-001
<MEAN> 9
 -7.381847e+000 5.312352e+000 3.076677e+000 -4.524034e+001 -2.262848e+002 8.660577e+001 4.481107e-001 -2.508737e-001 1.258982e-001
<VARIANCE> 9
 2.047638e+001 6.347761e-001 4.070818e+000 1.706884e+002 2.333792e+004 4.215476e+002 8.871562e-004 1.727258e-003 1.636834e-002
<GCONST> 2.425002e+001
<MIXTURE> 5 1.483271e-001
<MEAN> 9
 -8.003553e+000 4.200110e+000 2.626214e+000 1.568464e+000 1.681713e+001 6.292129e+000 5.070342e-001 -1.642946e-001 1.985226e-001
<VARIANCE> 9
 1.612588e+000 8.344355e-001 3.237731e-001 4.896786e+001 3.833253e+002 2.479923e+002 4.762525e-004 5.782502e-004 3.108864e-004
<GCONST> 7.882319e+000
<STATE> 5
<NUMMIXES> 5
<MIXTURE> 1 8.447590e-002
<MEAN> 9
 2.121757e+000 5.490325e+000 7.373076e+000 1.251208e+001 -3.815245e+001 8.490297e+000 2.741449e-001 -2.998949e-001 -1.533976e-001
<VARIANCE> 9
 3.248307e+000 3.371764e-001 2.588517e-001 7.249967e+001 1.506834e+003 5.196298e+003 4.248851e-003 1.634431e-003 4.741111e-003
<GCONST> 1.820838e+001
<MIXTURE> 2 3.599645e-001
<MEAN> 9
 -3.554244e+000 3.201213e+000 7.784339e+000 2.399878e+000 1.503946e+000 -2.381539e+001 3.505899e-001 -1.252451e-001 -2.179115e-001
<VARIANCE> 9
 3.715679e+000 6.738003e-001 1.070101e+000 6.876798e+001 2.570188e+002 1.610767e+003 5.688312e-004 7.487076e-004 2.994119e-004
<GCONST> 1.190796e+001
<MIXTURE> 3 2.877701e-001
<MEAN> 9
 1.781810e+000 5.378572e+000 7.108747e+000 2.277917e+000 -4.856998e+001 -3.727112e+001 2.865513e-001 -2.920408e-001 -1.515024e-001
<VARIANCE> 9
 4.347015e+000 3.914854e-001 4.733381e-001 1.858913e+002 2.351921e+003 1.056590e+004 4.647499e-003 1.101093e-003 4.392309e-003
<GCONST> 2.096739e+001
<MIXTURE> 4 1.832021e-001
<MEAN> 9
 -5.041755e+000 3.096713e+000 7.939320e+000 -1.719729e+001 -3.504876e+001 -1.187231e+002 3.414207e-001 -1.729609e-001 -2.023971e-001
<VARIANCE> 9
 1.356431e+001 1.505037e+000 1.228247e+000 8.714362e+001 2.888009e+003 4.187157e+003 1.547057e-003 1.928463e-003 6.074454e-004
<GCONST> 2.040972e+001
<MIXTURE> 5 8.458797e-002
<MEAN> 9
 2.047766e+000 5.410721e+000 7.291608e+000 8.406447e+000 -4.156749e+001 -4.724337e+000 2.709146e-001 -2.970556e-001 -1.584818e-001
<VARIANCE> 9
 4.350925e+000 3.587248e-001 3.130799e-001 1.114504e+002 1.824066e+003 6.712959e+003 4.627273e-003 1.501614e-003 4.531329e-003
<GCONST> 1.958524e+001
<STATE> 6
<NUMMIXES> 5
<MIXTURE> 1 1.598836e-001
<MEAN> 9
 -2.467813e+000 9.476041e-001 4.688067e+000 -2.769988e+001 5.966227e+001 -9.716190e+001 3.919483e-001 -5.526645e-002 -1.844580e-001
<VARIANCE> 9
 7.677340e-001 4.221354e-001 1.713760e-001 4.726497e+002 1.240818e+003 1.466278e+003 4.762525e-004 1.658788e-003 4.818405e-004
<GCONST> 1.253349e+001
<MIXTURE> 2 2.240914e-001
<MEAN> 9
 -7.842059e+000 -4.100050e+000 5.363548e+000 -7.365397e+001 1.069061e+002 -2.328144e+002 3.909307e-001 1.735478e-001 -6.094551e-002
<VARIANCE> 9
 2.132217e+000 3.187549e+000 6.595463e-001 1.825818e+002 9.122199e+002 1.210095e+002 7.897392e-004 3.189440e-003 3.361092e-003
<GCONST> 1.627285e+001
<MIXTURE> 3 2.256365e-001
<MEAN> 9
 -4.132000e+000 -2.008321e-001 5.680288e+000 -7.230367e+001 6.630702e+001 -1.801082e+002 4.019794e-001 2.500925e-002 -1.601879e-001
<VARIANCE> 9
 9.417452e-001 1.003857e+000 6.674706e-001 2.519309e+002 1.020599e+003 8.055214e+002 4.762525e-004 2.913277e-003 9.254963e-004
<GCONST> 1.475603e+001
<MIXTURE> 4 2.358476e-001
<MEAN> 9
 -7.959715e+000 -6.626064e+000 6.293385e+000 -9.147143e+001 5.983630e+001 -2.398734e+002 3.160684e-001 2.667705e-001 -3.361678e-002
<VARIANCE> 9
 1.849744e+000 2.985474e+000 3.381957e-001 5.906724e+001 7.281582e+002 1.210095e+002 2.174740e-003 2.936876e-003 1.566801e-003
<GCONST> 1.421066e+001
<MIXTURE> 5 1.545409e-001
<MEAN> 9
 -2.265013e+000 9.869359e-001 4.699823e+000 -3.206017e+001 5.077676e+001 -9.946710e+001 3.875195e-001 -6.273223e-002 -1.889105e-001
<VARIANCE> 9
 8.138858e-001 3.544976e-001 1.942429e-001 4.723423e+002 1.165969e+003 1.291870e+003 4.762525e-004 1.696848e-003 4.916803e-004
<GCONST> 1.239589e+001
<STATE> 7
<NUMMIXES> 5
<MIXTURE> 1 2.726693e-001
<MEAN> 9
 -5.182234e+000 -1.001294e+001 2.158802e+000 -3.027077e+001 1.426963e+002 -3.713372e+001 -1.339009e-002 3.680324e-001 1.760093e-001
<VARIANCE> 9
 1.535905e+000 3.398583e-001 1.145004e+000 4.599828e+002 3.105142e+003 1.655150e+002 5.683319e-004 5.782502e-004 1.938003e-004
<GCONST> 1.183027e+001
<MIXTURE> 2 1.865992e-001
<MEAN> 9
 -9.213469e+000 -1.018866e+001 3.194166e+000 -3.644718e+001 1.013673e+002 -2.150831e+002 2.066815e-001 3.481155e-001 1.208444e-001
<VARIANCE> 9
 2.145736e+000 1.543683e+000 8.028008e-001 5.444677e+002 2.190510e+003 5.225433e+002 7.258296e-003 6.651472e-004 1.127338e-003
<GCONST> 1.874030e+001
<MIXTURE> 3 1.304756e-001
<MEAN> 9
 -7.243878e+000 -1.152555e+001 3.727386e+000 -6.964967e+001 1.129675e+002 -2.129119e+002 1.309140e-001 3.683622e-001 1.024674e-001
<VARIANCE> 9
 1.782201e+000 1.270204e+000 1.520679e+000 5.646343e+002 2.614765e+003 6.629653e+002 3.851787e-003 5.782502e-004 1.357356e-003
<GCONST> 1.886197e+001
<MIXTURE> 4 2.629053e-001
<MEAN> 9
 -6.643862e+000 -1.121197e+001 1.602454e+000 -4.405302e+001 7.127110e+001 -9.974644e+001 7.319142e-003 3.685156e-001 1.651654e-001
<VARIANCE> 9
 1.654720e+000 4.720442e-001 9.130043e-001 3.950635e+002 2.474125e+003 1.753427e+003 2.086330e-003 5.782502e-004 1.938003e-004
<GCONST> 1.528831e+001
<MIXTURE> 5 1.473506e-001
<MEAN> 9
 -7.242098e+000 -1.168211e+001 3.551919e+000 -7.320438e+001 1.221018e+002 -2.190164e+002 1.264621e-001 3.676810e-001 9.671193e-002
<VARIANCE> 9
 1.716517e+000 1.386944e+000 1.833315e+000 3.516762e+002 3.075215e+003 5.300408e+002 3.764476e-003 5.782502e-004 1.151640e-003
<GCONST> 1.837700e+001
<TRANSP> 8
 0.000000e+000 1.000000e+000 0.000000e+000 0.000000e+000 0.000000e+000 0.000000e+000 0.000000e+000 0.000000e+000
 0.000000e+000 9.212801e-001 7.871991e-002 0.000000e+000 0.000000e+000 0.000000e+000 0.000000e+000 0.000000e+000
 0.000000e+000 0.000000e+000 9.487861e-001 5.121386e-002 0.000000e+000 0.000000e+000 0.000000e+000 0.000000e+000
 0.000000e+000 0.000000e+000 0.000000e+000 9.524038e-001 4.759620e-002 0.000000e+000 0.000000e+000 0.000000e+000
 0.000000e+000 0.000000e+000 0.000000e+000 0.000000e+000 9.734595e-001 2.654043e-002 0.000000e+000 0.000000e+000
 0.000000e+000 0.000000e+000 0.000000e+000 0.000000e+000 0.000000e+000 9.420511e-001 5.794894e-002 0.000000e+000
 0.000000e+000 0.000000e+000 0.000000e+000 0.000000e+000 0.000000e+000 0.000000e+000 9.401556e-001 5.984447e-002
 0.000000e+000 0.000000e+000 0.000000e+000 0.000000e+000 0.000000e+000 0.000000e+000 0.000000e+000 0.000000e+000
<ENDHMM>
~h "GM"
<BEGINHMM>
<NUMSTATES> 8
<STATE> 2
<NUMMIXES> 5
<MIXTURE> 1 1.424741e-001
<MEAN> 9
 -1.081413e+001 -8.955120e+000 -1.480250e-001 6.602594e-001 2.667879e+001 2.739582e+002 2.707861e-001 3.287481e-001 2.164488e-001
<VARIANCE> 9
 4.076427e+000 8.102827e+000 4.169278e+000 1.010811e+003 2.416685e+003 2.563184e+003 8.587970e-003 1.752018e-003 1.938003e-004
<GCONST> 2.437067e+001
<MIXTURE> 2 3.280974e-001
<MEAN> 9
 -8.212627e+000 -1.055511e+001 5.797763e-001 -9.655718e+000 -3.749310e+001 1.396008e+002 9.824052e-002 3.729072e-001 1.974934e-001
<VARIANCE> 9
 1.370376e+000 1.389017e+000 1.189890e+000 1.123352e+002 4.119030e+003 1.436804e+003 3.099852e-003 5.782502e-004 3.166945e-004
<GCONST> 1.638399e+001
<MIXTURE> 3 2.329559e-001
<MEAN> 9
 -9.652629e+000 -6.619429e+000 -8.202034e-001 -5.345512e+001 -7.625256e+001 1.791682e+002 3.211539e-001 2.994146e-001 1.930709e-001
<VARIANCE> 9
 6.471936e-001 3.488798e+000 4.142027e-001 2.769788e+002 1.382757e+003 4.679413e+002 8.192465e-003 2.870029e-003 2.236783e-004
<GCONST> 1.641479e+001
<MIXTURE> 4 1.781422e-001
<MEAN> 9
 -9.998263e+000 -8.576982e+000 -7.915729e-001 -1.461095e+001 -1.873932e+000 2.245079e+002 2.211934e-001 3.437079e-001 2.088577e-001
<VARIANCE> 9
 2.184833e+000 6.628849e+000 4.089717e+000 4.096407e+002 2.575088e+003 2.188890e+003 9.389915e-003 1.288188e-003 1.958028e-004
<GCONST> 2.232137e+001
<MIXTURE> 5 1.183308e-001
<MEAN> 9
 -1.086012e+001 -8.501056e+000 -8.076553e-001 -8.222716e+000 1.627920e+001 2.536404e+002 2.608086e-001 3.315778e-001 2.133921e-001
<VARIANCE> 9
 3.279792e+000 8.495525e+000 4.125218e+000 9.679688e+002 2.190614e+003 2.043749e+003 7.742028e-003 1.620124e-003 1.938003e-004
<GCONST> 2.363998e+001
<STATE> 3
<NUMMIXES> 5
<MIXTURE> 1 2.994446e-001
<MEAN> 9
 -6.013261e+000 9.266768e-002 1.283571e+000 -6.359339e+001 -2.851089e+001 1.214996e+002 5.164120e-001 -6.738556e-003 2.209383e-001
<VARIANCE> 9
 1.573436e+000 7.171566e-001 7.952402e-001 3.573491e+002 3.976190e+002 3.846125e+003 4.762525e-004 3.935911e-003 9.732382e-004
<GCONST> 1.642956e+001
<MIXTURE> 2 1.396189e-001
<MEAN> 9
 -7.618730e+000 -9.933895e-001 -1.270491e+000 -8.610397e+001 -1.677422e+001 2.084675e+002 4.811174e-001 1.123761e-001 2.282828e-001
<VARIANCE> 9
 4.855671e-001 4.986230e+000 2.546339e+000 1.135229e+003 3.416824e+002 4.444987e+003 7.243858e-004 5.311028e-003 9.180835e-004
<GCONST> 2.016642e+001
<MIXTURE> 3 1.779844e-001
<MEAN> 9
 -7.196410e+000 1.704489e+000 1.105430e+000 -1.060975e+002 -3.707680e+000 7.460392e+001 5.194674e-001 -4.648494e-002 1.968283e-001
<VARIANCE> 9
 3.972356e-001 1.497981e+000 4.992351e+000 1.560957e+003 2.783157e+002 1.368097e+003 4.762525e-004 2.971418e-003 9.692257e-004
<GCONST> 1.742539e+001
<MIXTURE> 4 1.922868e-001
<MEAN> 9
 -8.162883e+000 -1.428465e+000 -2.530010e+000 -8.148612e+001 -3.571813e+001 2.083802e+002 4.590666e-001 1.501891e-001 2.177426e-001
<VARIANCE> 9
 9.801546e-001 2.918679e+000 4.218038e+000 5.587825e+002 5.756031e+002 1.509703e+003 1.121636e-003 3.795349e-003 1.001266e-003
<GCONST> 1.975876e+001
<MIXTURE> 5 1.906655e-001
<MEAN> 9
 -7.389690e+000 1.596468e+000 1.694410e+000 -1.165079e+002 -3.898953e+000 5.782826e+001 5.163482e-001 -7.985131e-002 1.973526e-001
<VARIANCE> 9
 3.441184e-001 1.447550e+000 5.189218e+000 1.250148e+003 2.046160e+002 1.404498e+003 4.762525e-004 3.983097e-003 7.752753e-004
<GCONST> 1.685262e+001
<STATE> 4
<NUMMIXES> 5
<MIXTURE> 1 2.130966e-001
<MEAN> 9
 -8.343187e+000 4.867689e+000 9.464124e-001 1.956307e+000 3.032335e+001 5.656606e+001 5.025812e-001 -1.622697e-001 2.450673e-001
<VARIANCE> 9
 1.843823e+000 8.228281e-001 1.794781e+000 3.564265e+002 5.586722e+002 4.800072e+002 4.762525e-004 7.415034e-004 5.563288e-004
<GCONST> 1.356756e+001
<MIXTURE> 2 3.068318e-001
<MEAN> 9
 -9.518609e+000 2.931865e+000 3.035198e+000 7.185316e+000 1.846679e+001 2.297475e+001 5.212483e-001 -1.040254e-001 2.105473e-001
<VARIANCE> 9
 3.294207e-001 9.599758e-001 8.202378e-001 1.454837e+002 1.562511e+002 1.437932e+002 4.762525e-004 9.052439e-004 1.938003e-004
<GCONST> 6.985819e+000
<MIXTURE> 3 1.111790e-001
<MEAN> 9
 -8.690833e+000 1.668333e+000 4.089092e+000 -8.835654e+000 1.077601e+001 1.278129e+001 5.203436e-001 -1.103165e-001 1.906616e-001
<VARIANCE> 9
 5.171105e-001 2.394663e+000 1.389325e+000 5.192230e+002 2.597728e+002 1.210095e+002 4.762525e-004 2.317345e-003 3.212388e-004
<GCONST> 1.193124e+001
<MIXTURE> 4 2.318452e-001
<MEAN> 9
 -8.378873e+000 4.965051e+000 7.826394e-001 -1.519395e+001 2.672045e+001 4.876040e+001 4.976209e-001 -1.751614e-001 2.424964e-001
<VARIANCE> 9
 1.470210e+000 5.970940e-001 1.266111e+000 1.217283e+003 2.378609e+002 2.012780e+002 4.762525e-004 9.886773e-004 6.725132e-004
<GCONST> 1.265412e+001
<MIXTURE> 5 1.370470e-001
<MEAN> 9
 -8.570007e+000 9.889708e-001 4.384773e+000 -2.967229e+001 4.654300e+000 6.338242e+000 5.177320e-001 -1.295785e-001 1.883023e-001
<VARIANCE> 9
 3.326006e-001 1.495555e+000 1.361815e+000 9.989770e+002 1.440898e+002 1.210095e+002 4.762525e-004 2.095213e-003 2.664522e-004
<GCONST> 1.077645e+001
<STATE> 5
<NUMMIXES> 5
<MIXTURE> 1 2.227236e-001
<MEAN> 9
 -6.648736e+000 5.775751e+000 3.039475e+000 -2.651327e+001 9.245587e+000 1.336625e+001 4.674944e-001 -2.446319e-001 2.457069e-001
<VARIANCE> 9
 1.005579e+001 4.086169e+000 2.569457e+001 3.988825e+003 2.420354e+003 5.093547e+002 4.762525e-004 5.782502e-004 1.691984e-003
<GCONST> 2.433207e+001
<MIXTURE> 2 2.752144e-001
<MEAN> 9
 -8.068266e+000 5.095742e+000 1.932215e+000 -2.551524e+001 3.982056e+000 -4.268354e-001 4.469661e-001 -2.733527e-001 2.513284e-001
<VARIANCE> 9
 1.224969e+000 3.615453e+000 3.817333e+000 2.713460e+003 7.212391e+002 1.845600e+002 4.762525e-004 5.782502e-004 3.740199e-003
<GCONST> 1.837982e+001
<MIXTURE> 3 1.311457e-001
<MEAN> 9
 -7.996770e+000 1.660650e+000 6.830508e+000 -2.774748e+001 6.374078e-001 4.370124e+000 4.450926e-001 -2.907107e-001 1.774461e-001
<VARIANCE> 9
 5.868451e+000 7.289138e+000 2.633864e+001 6.657638e+003 1.558234e+003 3.310926e+002 4.762525e-004 5.782502e-004 1.847889e-003
<GCONST> 2.412635e+001
<MIXTURE> 4 2.363400e-001
<MEAN> 9
 -8.137157e+000 4.465726e+000 2.326764e+000 -4.518616e+001 1.558582e+001 4.707768e+000 4.686177e-001 -2.488114e-001 2.314708e-001
<VARIANCE> 9
 3.360009e+000 4.002831e+000 1.342899e+001 3.547057e+003 1.122167e+003 3.001784e+002 4.762525e-004 5.782502e-004 6.904009e-004
<GCONST> 2.025522e+001
<MIXTURE> 5 1.345770e-001
<MEAN> 9
 -8.578562e+000 1.460819e+000 6.349836e+000 -1.196675e+001 -7.699781e+000 -7.713978e-001 4.397729e-001 -3.000911e-001 1.723669e-001
<VARIANCE> 9
 3.096249e+000 7.176427e+000 2.093915e+001 6.670997e+003 1.460568e+003 2.977877e+002 4.762525e-004 5.782502e-004 1.651266e-003
<GCONST> 2.296071e+001
<STATE> 6
<NUMMIXES> 5
<MIXTURE> 1 1.640586e-001
<MEAN> 9
 -6.567660e+000 5.329663e-001 9.503573e-001 1.686806e+002 -6.806459e+001 -1.340902e+002 5.024430e-001 -1.694394e-001 1.871672e-001
<VARIANCE> 9
 4.782073e-001 3.371764e-001 1.581479e+000 2.946801e+002 9.609263e+002 1.728230e+003 4.762525e-004 3.968918e-003 4.000426e-004
<GCONST> 1.418027e+001
<MIXTURE> 2 1.962044e-001
<MEAN> 9
 -7.355772e+000 6.996948e-002 -3.825121e-001 1.277900e+002 -7.101400e+001 -2.375711e+002 5.123182e-001 -8.107005e-003 1.025379e-001
<VARIANCE> 9
 4.086914e+000 1.687823e+000 1.432589e+000 6.445499e+002 3.007994e+003 1.625732e+003 4.762525e-004 6.982157e-003 3.349552e-003
<GCONST> 2.239001e+001
<MIXTURE> 3 3.166024e-001
<MEAN> 9
 -7.461232e+000 7.684833e-001 3.838859e+000 1.395658e+002 -7.343124e+001 -6.460286e+001 4.681584e-001 -2.585417e-001 1.561471e-001
<VARIANCE> 9
 1.018676e+000 5.017141e-001 4.122091e+000 6.322770e+002 1.183286e+003 7.789976e+002 4.762525e-004 1.150263e-003 1.015598e-003
<GCONST> 1.615981e+001
<MIXTURE> 4 1.811323e-001
<MEAN> 9
 -9.021043e+000 -2.097384e+000 5.190982e-001 6.294383e+001 -3.304260e+001 -2.848762e+002 4.713067e-001 1.183212e-001 4.789825e-002
<VARIANCE> 9
 1.462397e+000 1.489787e+000 2.981226e+000 1.240564e+003 1.249342e+003 9.826248e+002 6.499849e-004 4.086128e-003 4.285282e-003
<GCONST> 2.126458e+001
<MIXTURE> 5 1.420022e-001
<MEAN> 9
 -6.718583e+000 4.722917e-001 5.775753e-001 1.720965e+002 -8.068889e+001 -1.472581e+002 5.033171e-001 -1.664053e-001 1.772289e-001
<VARIANCE> 9
 4.343330e-001 3.371764e-001 1.838152e+000 3.044362e+002 1.014316e+003 2.752952e+003 4.762525e-004 4.567534e-003 3.818911e-004
<GCONST> 1.488070e+001
<STATE> 7
<NUMMIXES> 5
<MIXTURE> 1 2.389150e-001
<MEAN> 9
 -6.301220e+000 -1.012046e+001 3.043920e+000 -2.563853e+001 1.336606e+002 -4.004603e+001 -8.070175e-003 3.673099e-001 1.654443e-001
<VARIANCE> 9
 9.164212e+000 9.846774e-001 1.675907e+000 6.378806e+002 8.008719e+003 7.726985e+002 4.762525e-004 5.782502e-004 1.938003e-004
<GCONST> 1.769969e+001
<MIXTURE> 2 1.874003e-001
<MEAN> 9
 -1.004508e+001 -8.855832e+000 1.882409e+000 3.595024e+000 3.585299e+001 -2.620028e+002 2.570457e-001 3.323902e-001 8.195648e-002
<VARIANCE> 9
 7.888307e-001 5.006490e+000 4.902372e-001 1.911278e+003 2.290828e+003 2.608257e+002 6.671998e-003 1.860649e-003 8.576669e-004
<GCONST> 1.969965e+001
<MIXTURE> 3 2.276507e-001
<MEAN> 9
 -1.088400e+001 -7.036882e+000 1.043299e+000 2.075481e+000 5.797107e+001 -2.840988e+002 3.257953e-001 2.878431e-001 6.218947e-002
<VARIANCE> 9
 2.602902e+000 5.325441e+000 1.761561e+000 8.109216e+002 2.891047e+003 6.031993e+002 6.146297e-003 3.243404e-003 2.209268e-003
<GCONST> 2.386788e+001
<MIXTURE> 4 1.568620e-001
<MEAN> 9
 -7.280254e+000 -1.117070e+001 2.027498e+000 -4.155213e+001 8.269585e+001 -1.298896e+002 4.788284e-002 3.742194e-001 1.406179e-001
<VARIANCE> 9
 1.104136e+000 1.402352e+000 4.499108e-001 1.082303e+002 1.562157e+003 4.520145e+003 2.475452e-003 5.782502e-004 7.049141e-004
<GCONST> 1.591951e+001
<MIXTURE> 5 1.891716e-001
<MEAN> 9
 -8.049019e+000 -1.164787e+001 1.949735e+000 -4.679628e+001 5.901603e+001 -1.629171e+002 6.460444e-002 3.731533e-001 1.348462e-001
<VARIANCE> 9
 1.596824e+000 1.176920e+000 5.789160e-001 2.044704e+002 2.274302e+003 3.741099e+003 2.257925e-003 5.782502e-004 5.994707e-004
<GCONST> 1.693392e+001
<TRANSP> 8
 0.000000e+000 1.000000e+000 0.000000e+000 0.000000e+000 0.000000e+000 0.000000e+000 0.000000e+000 0.000000e+000
 0.000000e+000 9.284220e-001 7.157805e-002 0.000000e+000 0.000000e+000 0.000000e+000 0.000000e+000 0.000000e+000
 0.000000e+000 0.000000e+000 9.409641e-001 5.903589e-002 0.000000e+000 0.000000e+000 0.000000e+000 0.000000e+000
 0.000000e+000 0.000000e+000 0.000000e+000 9.558371e-001 4.416288e-002 0.000000e+000 0.000000e+000 0.000000e+000
 0.000000e+000 0.000000e+000 0.000000e+000 0.000000e+000 9.813911e-001 1.860895e-002 0.000000e+000 0.000000e+000
 0.000000e+000 0.000000e+000 0.000000e+000 0.000000e+000 0.000000e+000 9.507623e-001 4.923771e-002 0.000000e+000
 0.000000e+000 0.000000e+000 0.000000e+000 0.000000e+000 0.000000e+000 0.000000e+000 9.526800e-001 4.732001e-002
 0.000000e+000 0.000000e+000 0.000000e+000 0.000000e+000 0.000000e+000 0.000000e+000 0.000000e+000 0.000000e+000
<ENDHMM>
~h "GN"
<BEGINHMM>
<NUMSTATES> 8
<STATE> 2
<NUMMIXES> 5
<MIXTURE> 1 1.540666e-001
<MEAN> 9
 -8.234187e+000 -1.128303e+001 1.223730e+000 3.886325e+001 4.776479e+001 1.712539e+002 6.929647e-002 3.748702e-001 1.809464e-001
<VARIANCE> 9
 2.155421e+000 1.275875e+000 2.946243e+000 2.195438e+002 6.105779e+003 3.552774e+003 2.149521e-003 5.782502e-004 3.644292e-004
<GCONST> 1.940188e+001
<MIXTURE> 2 2.393879e-001
<MEAN> 9
 -1.037049e+001 -6.611546e+000 -3.155142e+000 -3.780753e+001 3.536897e+001 2.529529e+002 2.938610e-001 3.175111e-001 1.902182e-001
<VARIANCE> 9
 2.629766e+000 3.948546e+000 1.656757e+000 1.155488e+003 8.436495e+002 7.869754e+002 5.004188e-003 1.836853e-003 6.555186e-004
<GCONST> 2.091694e+001
<MIXTURE> 3 2.178660e-001
<MEAN> 9
 -8.026377e+000 -1.128173e+001 1.050932e+000 2.422922e+001 -1.487026e+001 1.586659e+002 5.608438e-002 3.735606e-001 1.880220e-001
<VARIANCE> 9
 3.349012e+000 1.506870e+000 3.593393e+000 2.392267e+002 7.230545e+003 3.637456e+003 4.667303e-003 5.782502e-004 3.789945e-004
<GCONST> 2.130054e+001
<MIXTURE> 4 2.433674e-001
<MEAN> 9
 -1.025888e+001 -6.643447e+000 -3.325611e+000 -3.585863e+001 3.841164e+001 2.567173e+002 2.901477e-001 3.187404e-001 1.843365e-001
<VARIANCE> 9
 2.453335e+000 3.568847e+000 1.490989e+000 9.452388e+002 9.690430e+002 9.496508e+002 4.580446e-003 1.555369e-003 5.896640e-004
<GCONST> 2.040590e+001
<MIXTURE> 5 1.453124e-001
<MEAN> 9
 -8.060759e+000 -1.151141e+001 1.223547e+000 3.201255e+001 1.843388e+001 1.621882e+002 5.307507e-002 3.715447e-001 1.806375e-001
<VARIANCE> 9
 2.808577e+000 1.572164e+000 3.088727e+000 2.704976e+002 8.215213e+003 3.509066e+003 3.404120e-003 5.782502e-004 3.757380e-004
<GCONST> 2.090601e+001
<STATE> 3
<NUMMIXES> 5
<MIXTURE> 1 1.759948e-001
<MEAN> 9
 -7.497292e+000 -1.254315e-001 -3.885065e+000 -1.348844e+002 -1.053061e+001 1.674005e+002 4.786495e-001 9.683233e-002 2.494669e-001
<VARIANCE> 9
 2.544056e+000 4.011902e+000 3.146352e+000 2.947880e+003 5.783341e+002 2.900047e+003 9.775597e-004 6.107374e-003 6.867380e-004
<GCONST> 2.301937e+001
<MIXTURE> 2 1.760006e-001
<MEAN> 9
 -1.193798e+001 4.478667e-001 5.501010e+000 3.573182e+001 -1.697693e+001 4.889281e+001 5.235780e-001 -4.812788e-002 2.072149e-001
<VARIANCE> 9
 1.425315e+001 8.017288e+000 1.068728e+001 8.372019e+003 1.594858e+003 1.297097e+003 4.762525e-004 1.393775e-003 4.240206e-003
<GCONST> 2.753516e+001
<MIXTURE> 3 1.642567e-001
<MEAN> 9
 -7.032356e+000 -1.508466e+000 -3.538813e+000 -1.422475e+002 -2.524087e+001 1.905637e+002 4.669584e-001 1.270717e-001 2.550413e-001
<VARIANCE> 9
 5.434556e+000 3.918998e+000 3.892682e+000 2.666254e+003 1.856666e+003 3.192766e+003 1.419441e-003 6.333674e-003 8.287528e-004
<GCONST> 2.572726e+001
<MIXTURE> 4 3.317677e-001
<MEAN> 9
 -8.834638e+000 -2.020637e+000 5.938917e+000 -9.645332e+001 -4.598384e+001 1.905109e+001 5.174079e-001 -5.430469e-002 1.909968e-001
<VARIANCE> 9
 9.143002e+000 1.151238e+001 1.531670e+001 1.215519e+004 1.566370e+003 1.009251e+003 4.762525e-004 1.537576e-003 6.296762e-003
<GCONST> 2.841041e+001
<MIXTURE> 5 1.519796e-001
<MEAN> 9
 -1.090069e+001 -3.452194e-002 5.822192e+000 -1.032466e+001 -2.737020e+001 3.646550e+001 5.200346e-001 -5.831998e-002 1.890704e-001
<VARIANCE> 9
 1.293718e+001 9.649590e+000 1.359795e+001 1.222118e+004 1.794052e+003 1.396099e+003 4.762525e-004 1.370220e-003 5.525930e-003
<GCONST> 2.868178e+001
<STATE> 4
<NUMMIXES> 5
<MIXTURE> 1 1.529079e-001
<MEAN> 9
 -8.022661e+000 4.574645e+000 8.127989e-001 1.110968e+002 -7.083775e+000 1.051738e+002 5.048488e-001 -1.612646e-001 1.562141e-001
<VARIANCE> 9
 3.772970e+000 3.371764e-001 2.039403e+000 1.552946e+002 5.158941e+003 5.291700e+002 4.762525e-004 2.028707e-003 8.997290e-004
<GCONST> 1.649605e+001
<MIXTURE> 2 3.040733e-001
<MEAN> 9
 -1.683138e+000 5.546324e+000 -9.833745e-001 1.457653e+001 -2.521973e+001 3.638109e+001 4.315478e-001 -2.991287e-001 1.913995e-001
<VARIANCE> 9
 1.955974e+000 1.582322e+000 1.007525e+000 9.855638e+002 7.265513e+002 2.516247e+003 4.762525e-004 5.782502e-004 1.499685e-003
<GCONST> 1.738265e+001
<MIXTURE> 3 2.351846e-001
<MEAN> 9
 -1.900764e+000 4.956977e+000 9.675997e-001 -7.211951e+001 -8.383014e+001 -1.199499e+002 4.586084e-001 -2.559034e-001 1.144105e-001
<VARIANCE> 9
 1.024314e+000 6.561965e-001 1.033022e+000 7.059347e+002 9.961563e+002 2.107928e+003 4.762525e-004 1.433711e-003 1.134335e-003
<GCONST> 1.631424e+001
<MIXTURE> 4 1.866098e-001
<MEAN> 9
 -4.300389e+000 4.565403e+000 -9.097988e-001 8.851683e+001 -1.110644e+001 1.080301e+002 4.789979e-001 -2.315906e-001 1.564016e-001
<VARIANCE> 9
 3.882288e+000 1.193720e+000 1.331771e+000 4.891742e+002 1.372214e+003 1.342283e+003 4.762525e-004 1.801657e-003 1.112758e-003
<GCONST> 1.821040e+001
<MIXTURE> 5 1.212241e-001
<MEAN> 9
 -7.250088e+000 4.574639e+000 3.607980e-001 1.052897e+002 -3.618888e+001 1.023952e+002 5.049434e-001 -1.686088e-001 1.523331e-001
<VARIANCE> 9
 5.049349e+000 3.692691e-001 1.511128e+000 2.128879e+002 4.067724e+003 5.664116e+002 4.762525e-004 2.218168e-003 8.796782e-004
<GCONST> 1.679112e+001
<STATE> 5
<NUMMIXES> 5
<MIXTURE> 1 1.836179e-001
<MEAN> 9
 -5.073806e+000 3.819127e-001 3.074755e+000 1.786634e+001 2.233615e+001 -3.691905e+001 4.882006e-001 4.039275e-002 1.164164e-002
<VARIANCE> 9
 3.891126e+000 1.170686e+000 2.794399e+000 1.399773e+002 4.815817e+002 2.772283e+003 4.762525e-004 3.867579e-003 4.843871e-004
<GCONST> 1.729347e+001
<MIXTURE> 2 1.436171e-001
<MEAN> 9
 -1.036153e+001 2.854325e+000 7.933730e+000 -6.776541e+001 -2.539481e+001 -1.293202e+002 4.906247e-001 -3.868252e-002 1.070819e-003
<VARIANCE> 9
 4.484280e+000 3.447484e+000 2.509481e+000 1.919493e+003 1.158768e+003 3.478287e+003 4.762525e-004 5.463987e-003 2.029027e-004
<GCONST> 2.160649e+001
<MIXTURE> 3 3.169260e-001
<MEAN> 9
 -7.168947e+000 -1.328636e+000 5.004711e+000 1.323501e+001 2.905764e+001 -3.163635e+001 4.622661e-001 1.299560e-001 1.944554e-003
<VARIANCE> 9
 6.894519e+000 1.636104e+000 8.378551e+000 7.512963e+002 6.856947e+002 4.024891e+003 4.762525e-004 2.063566e-003 4.375932e-004
<GCONST> 2.097500e+001
<MIXTURE> 4 1.768177e-001
<MEAN> 9
 -7.866162e+000 6.896526e-001 7.409517e+000 -1.418105e+002 -7.220595e+001 -2.034424e+002 4.836501e-001 -2.535529e-002 1.066939e-003
<VARIANCE> 9
 1.181209e+001 9.001811e+000 1.152324e+001 1.818884e+003 8.638813e+002 2.228239e+003 4.762525e-004 1.336446e-002 7.036352e-004
<GCONST> 2.640422e+001
<MIXTURE> 5 1.790216e-001
<MEAN> 9
 -5.280571e+000 3.602502e-001 3.087550e+000 1.449172e+001 2.023861e+001 -4.372847e+001 4.855307e-001 4.803626e-002 9.460563e-003
<VARIANCE> 9
 4.111631e+000 1.175037e+000 3.183137e+000 1.824962e+002 5.113521e+002 3.124712e+003 4.762525e-004 3.573572e-003 5.041183e-004
<GCONST> 1.788832e+001
<STATE> 6
<NUMMIXES> 5
<MIXTURE> 1 1.272593e-001
<MEAN> 9
 -8.774594e+000 -9.784924e+000 3.856840e+000 -3.488512e+001 3.794035e+001 -1.585196e+002 2.313817e-001 3.460280e-001 1.680271e-001
<VARIANCE> 9
 1.256567e+000 2.441166e+000 9.258227e-001 1.151295e+003 5.481238e+002 5.344462e+002 3.555551e-003 5.782502e-004 1.033689e-003
<GCONST> 1.725168e+001
<MIXTURE> 2 2.066658e-001
<MEAN> 9
 -8.882771e+000 -4.877118e+000 2.530142e+000 -2.438318e+000 6.229061e+001 -1.691600e+002 3.923635e-001 2.555930e-001 1.050921e-001
<VARIANCE> 9
 2.211845e+000 2.939559e+000 1.044639e+000 9.124032e+002 1.243401e+003 6.086472e+002 1.906442e-003 1.906250e-003 4.095763e-004
<GCONST> 1.848406e+001
<MIXTURE> 3 1.602180e-001
<MEAN> 9
 -8.539586e+000 -4.030353e+000 2.279118e+000 -3.187920e+001 1.904922e+001 -1.936918e+002 4.170436e-001 2.153223e-001 8.743088e-002
<VARIANCE> 9
 8.811086e-001 3.596819e+000 1.946704e+000 6.806331e+002 9.431269e+002 9.269513e+002 2.077196e-003 3.140040e-003 2.609483e-004
<GCONST> 1.837319e+001
<MIXTURE> 4 3.423167e-001
<MEAN> 9
 -9.951859e+000 -9.695974e+000 3.130504e+000 -2.487445e+001 6.166757e+001 -1.883179e+002 2.458565e-001 3.480933e-001 1.519378e-001
<VARIANCE> 9
 8.192617e-001 1.389763e+000 3.581851e-001 1.094647e+003 5.155760e+002 8.179880e+002 2.145888e-003 5.782502e-004 2.817841e-004
<GCONST> 1.382021e+001
<MIXTURE> 5 1.635401e-001
<MEAN> 9
 -9.061511e+000 -4.687979e+000 2.517258e+000 -4.324118e+001 6.715508e+000 -2.024304e+002 4.019096e-001 2.347016e-001 8.774044e-002
<VARIANCE> 9
 8.330523e-001 2.620914e+000 1.907757e+000 4.238354e+002 6.027158e+002 7.552422e+002 1.598169e-003 2.327984e-003 2.632151e-004
<GCONST> 1.630133e+001
<STATE> 7
<NUMMIXES> 5
<MIXTURE> 1 1.605438e-001
<MEAN> 9
 -5.019904e+000 -1.023790e+001 3.683064e+000 1.666749e+001 1.252828e+002 -5.687734e+001 6.725408e-002 3.780447e-001 2.129741e-001
<VARIANCE> 9
 7.019338e+000 3.371764e-001 4.088754e+000 1.536300e+002 3.642042e+003 2.311887e+002 1.507580e-003 5.782502e-004 1.938003e-004
<GCONST> 1.498730e+001
<MIXTURE> 2 3.855929e-001
<MEAN> 9
 -4.856783e+000 -1.096868e+001 2.903135e+000 -1.601289e+001 6.636460e+001 -6.008261e+001 9.170562e-003 3.639494e-001 2.013453e-001
<VARIANCE> 9
 1.884848e+000 4.080049e-001 1.781254e+000 1.453473e+002 2.384090e+002 1.150474e+003 5.119546e-003 5.782502e-004 1.938003e-004
<GCONST> 1.307775e+001
<MIXTURE> 3 1.714634e-001
<MEAN> 9
 -6.844690e+000 -1.132419e+001 2.211517e+000 -1.488855e+001 7.385093e+001 -1.347501e+002 8.427403e-002 3.808581e-001 1.799878e-001
<VARIANCE> 9
 4.574563e-001 5.646510e-001 2.580253e-001 2.977951e+001 4.380558e+002 1.401093e+003 2.048156e-003 5.782502e-004 1.938003e-004
<GCONST> 8.358748e+000
<MIXTURE> 4 1.003411e-001
<MEAN> 9
 -6.762136e+000 -9.806621e+000 2.382803e+000 2.306451e+001 1.626686e+002 -4.815050e+001 3.897322e-002 3.710646e-001 2.007520e-001
<VARIANCE> 9
 4.008739e+000 5.519894e-001 9.794499e-001 1.908477e+002 8.753088e+003 2.183327e+002 2.082922e-003 5.782502e-004 3.461864e-004
<GCONST> 1.543102e+001
<MIXTURE> 5 1.820586e-001
<MEAN> 9
 -6.822134e+000 -1.175306e+001 1.971763e+000 -1.541126e+001 7.506554e+001 -1.410000e+002 7.047343e-002 3.769499e-001 1.818316e-001
<VARIANCE> 9
 4.491448e-001 6.121077e-001 3.361712e-001 2.977951e+001 3.790882e+002 1.670342e+003 1.808092e-003 5.782502e-004 1.938003e-004
<GCONST> 8.592206e+000
<TRANSP> 8
 0.000000e+000 1.000000e+000 0.000000e+000 0.000000e+000 0.000000e+000 0.000000e+000 0.000000e+000 0.000000e+000
 0.000000e+000 9.294858e-001 7.051423e-002 0.000000e+000 0.000000e+000 0.000000e+000 0.000000e+000 0.000000e+000
 0.000000e+000 0.000000e+000 9.626575e-001 3.734253e-002 0.000000e+000 0.000000e+000 0.000000e+000 0.000000e+000
 0.000000e+000 0.000000e+000 0.000000e+000 9.547248e-001 4.527526e-002 0.000000e+000 0.000000e+000 0.000000e+000
 0.000000e+000 0.000000e+000 0.000000e+000 0.000000e+000 9.639330e-001 3.606703e-002 0.000000e+000 0.000000e+000
 0.000000e+000 0.000000e+000 0.000000e+000 0.000000e+000 0.000000e+000 9.266671e-001 7.333293e-002 0.000000e+000
 0.000000e+000 0.000000e+000 0.000000e+000 0.000000e+000 0.000000e+000 0.000000e+000 9.239880e-001 7.601200e-002
 0.000000e+000 0.000000e+000 0.000000e+000 0.000000e+000 0.000000e+000 0.000000e+000 0.000000e+000 0.000000e+000
<ENDHMM>
~h "HE"
<BEGINHMM>
<NUMSTATES> 8
<STATE> 2
<NUMMIXES> 5
<MIXTURE> 1 2.344783e-001
<MEAN> 9
 -9.908283e+000 -1.144788e+001 6.012204e+000 1.202066e+002 8.707860e+001 1.487821e+002 1.029710e-001 3.594736e-001 1.151315e-001
<VARIANCE> 9
 6.873130e+000 3.102117e+000 6.271827e+000 3.496319e+003 4.972555e+003 3.546276e+003 5.556266e-003 5.782502e-004 2.855399e-003
<GCONST> 2.777459e+001
<MIXTURE> 2 2.694776e-001
<MEAN> 9
 -1.235780e+001 -7.183588e+000 1.271153e+000 1.657538e+002 4.262173e+000 2.471206e+002 3.568261e-001 1.878442e-001 -5.504541e-002
<VARIANCE> 9
 3.260520e+000 1.672483e+001 4.164381e+000 3.010514e+003 8.846730e+002 3.305799e+003 2.037640e-003 6.161149e-003 2.397651e-003
<GCONST> 2.754604e+001
<MIXTURE> 3 1.443483e-001
<MEAN> 9
 -1.061243e+001 -3.398735e+000 -1.526814e+000 8.260866e+001 -6.332535e+001 2.494789e+002 4.201890e-001 -2.408592e-002 -1.091526e-001
<VARIANCE> 9
 1.361221e+000 1.234865e+001 9.809994e-001 1.852792e+003 2.425729e+003 4.022284e+003 7.493229e-004 7.618643e-003 1.447368e-003
<GCONST> 2.435008e+001
<MIXTURE> 4 1.851129e-001
<MEAN> 9
 -1.107903e+001 -1.114976e+001 4.189767e+000 1.214099e+002 5.704822e+001 1.893844e+002 1.518044e-001 3.474333e-001 8.264639e-002
<VARIANCE> 9
 7.859910e+000 4.485348e+000 3.369719e+000 4.081353e+003 2.295709e+003 3.867401e+003 6.498477e-003 7.937403e-004 4.802073e-003
<GCONST> 2.811798e+001
<MIXTURE> 5 1.665832e-001
<MEAN> 9
 -9.928917e+000 -3.631661e+000 -2.114170e+000 5.189754e+001 -1.202625e+002 2.841345e+002 3.881259e-001 -1.063804e-001 -1.470337e-001
<VARIANCE> 9
 2.085401e+000 1.239631e+001 1.250834e+000 2.092634e+003 2.738520e+003 3.455243e+003 1.230891e-003 6.652975e-003 1.026176e-003
<GCONST> 2.513144e+001
<STATE> 3
<NUMMIXES> 5
<MIXTURE> 1 1.727771e-001
<MEAN> 9
 1.278415e+001 6.288443e-001 6.444950e+000 3.839356e+001 3.180582e+001 -6.535839e+000 -1.186567e-001 -2.202928e-001 -2.481752e-001
<VARIANCE> 9
 1.171039e+001 1.855216e+000 4.266531e+000 3.746418e+002 6.419767e+002 1.376143e+004 3.574736e-003 5.782502e-004 1.130618e-003
<GCONST> 2.311596e+001
<MIXTURE> 2 1.563311e-001
<MEAN> 9
 1.761493e+000 1.017618e+000 3.207087e+000 -2.068211e+001 -1.042280e+002 2.876355e+002 6.970173e-002 -2.573409e-001 -2.484438e-001
<VARIANCE> 9
 2.587135e+001 3.319129e+000 3.124589e+000 6.364501e+002 2.285163e+003 5.608427e+002 1.927474e-002 5.782502e-004 9.696697e-004
<GCONST> 2.430956e+001
<MIXTURE> 3 2.361572e-001
<MEAN> 9
 -2.650862e+000 -1.805430e+000 9.604948e-001 -1.168136e+001 -1.893335e+002 3.291034e+002 1.531713e-001 -2.569246e-001 -2.363676e-001
<VARIANCE> 9
 1.597453e+001 8.699995e+000 4.160208e+000 9.441448e+002 2.937722e+003 1.688679e+003 1.390460e-002 6.644724e-004 4.586254e-004
<GCONST> 2.588882e+001
<MIXTURE> 4 2.910609e-001
<MEAN> 9
 8.237176e+000 1.861796e+000 5.874348e+000 2.261702e+001 -3.541554e+000 -2.647488e+001 -6.507586e-002 -2.561393e-001 -2.547750e-001
<VARIANCE> 9
 8.181671e+000 1.427810e+000 2.296978e+000 1.366320e+003 8.390300e+002 4.319559e+004 2.825419e-003 8.575157e-004 6.500783e-004
<GCONST> 2.418716e+001
<MIXTURE> 5 1.436734e-001
<MEAN> 9
 1.191569e+001 7.073891e-001 5.921460e+000 3.257521e+001 2.208984e+001 -2.353256e+001 -1.155803e-001 -2.298770e-001 -2.446917e-001
<VARIANCE> 9
 1.352412e+001 1.824739e+000 4.279063e+000 6.120841e+002 8.837716e+002 2.291905e+004 4.030896e-003 7.422380e-004 1.122252e-003
<GCONST> 2.492930e+001
<STATE> 4
<NUMMIXES> 5
<MIXTURE> 1 2.393820e-001
<MEAN> 9
 -1.116599e+001 8.923204e+000 1.719597e+000 1.321160e+000 7.172800e+000 -3.148291e+001 2.516898e-001 -2.880155e-001 -1.844009e-001
<VARIANCE> 9
 4.854229e+000 1.430116e+000 3.276806e+000 1.296014e+003 1.123260e+003 1.385542e+004 2.977885e-003 1.186370e-003 6.563402e-004
<GCONST> 2.351060e+001
<MIXTURE> 2 2.319282e-001
<MEAN> 9
 -6.126345e+000 6.304455e+000 4.134345e+000 1.201525e+001 1.114687e+000 -4.971621e+001 1.315354e-001 -3.118553e-001 -2.203789e-001
<VARIANCE> 9
 1.071384e+001 1.071809e+000 1.712977e+000 2.745156e+003 2.187579e+003 4.672232e+004 3.047247e-003 5.782502e-004 2.984308e-004
<GCONST> 2.451413e+001
<MIXTURE> 3 1.456077e-001
<MEAN> 9
 -2.246406e+000 5.101691e+000 4.633505e+000 1.348135e+001 -9.745197e+000 -6.588737e+001 8.037326e-002 -3.140622e-001 -2.263531e-001
<VARIANCE> 9
 1.076697e+001 1.875757e+000 8.256868e-001 3.853328e+003 1.420419e+003 5.903250e+004 4.534693e-003 5.782502e-004 2.318746e-004
<GCONST> 2.463527e+001
<MIXTURE> 4 2.255426e-001
<MEAN> 9
 -1.013395e+001 8.738761e+000 1.898828e+000 -1.059247e+001 -7.070306e+000 2.409562e+001 2.139957e-001 -3.062890e-001 -1.901315e-001
<VARIANCE> 9
 5.287745e+000 1.513314e+000 3.854707e+000 1.831388e+003 6.768893e+002 1.389366e+004 2.205105e-003 1.097046e-003 9.016232e-004
<GCONST> 2.359598e+001
<MIXTURE> 5 1.575397e-001
<MEAN> 9
 -1.785580e+000 4.620426e+000 4.487720e+000 7.779499e+000 -1.583529e+001 -4.357841e+001 6.911423e-002 -3.171313e-001 -2.273595e-001
<VARIANCE> 9
 9.353838e+000 1.645053e+000 6.569343e-001 4.080044e+003 1.488378e+003 6.641504e+004 4.269745e-003 5.782502e-004 1.938003e-004
<GCONST> 2.411688e+001
<STATE> 5
<NUMMIXES> 5
<MIXTURE> 1 1.289817e-001
<MEAN> 9
 1.254803e+001 4.102962e-001 5.691864e+000 2.343760e+001 1.342854e+001 8.947754e-002 -1.665407e-001 -1.898769e-001 -2.371547e-001
<VARIANCE> 9
 5.722436e+000 1.169747e+000 2.395576e+000 2.255135e+002 5.193249e+002 1.384420e+004 1.040961e-003 1.435728e-003 1.162471e-003
<GCONST> 2.035133e+001
<MIXTURE> 2 2.570207e-001
<MEAN> 9
 3.475666e+000 3.873054e+000 5.371891e+000 6.043210e-001 -1.543972e+000 -6.609292e+001 -3.357850e-002 -2.827676e-001 -2.467834e-001
<VARIANCE> 9
 8.885478e+000 1.332322e+000 5.981459e-001 1.757511e+003 6.463406e+002 4.369614e+004 3.357682e-003 5.782502e-004 1.938003e-004
<GCONST> 2.142562e+001
<MIXTURE> 3 2.467767e-001
<MEAN> 9
 9.180500e+000 1.337813e+000 6.049113e+000 -2.173439e+000 -8.686810e+000 2.056847e+001 -1.201496e-001 -2.244167e-001 -2.522074e-001
<VARIANCE> 9
 1.867626e+000 2.004189e+000 1.567008e+000 1.361241e+003 4.655132e+002 3.137296e+004 4.762525e-004 1.444527e-003 5.490773e-004
<GCONST> 2.032616e+001
<MIXTURE> 4 2.537984e-001
<MEAN> 9
 2.693188e+000 3.364403e+000 5.229371e+000 -2.353894e+001 -1.405075e+001 7.973472e+000 -2.195636e-002 -2.830238e-001 -2.478578e-001
<VARIANCE> 9
 7.820153e+000 1.777511e+000 8.021176e-001 2.587309e+003 1.302388e+003 6.001381e+004 3.255856e-003 5.782502e-004 2.380473e-004
<GCONST> 2.345913e+001
<MIXTURE> 5 1.134225e-001
<MEAN> 9
 1.166723e+001 5.442305e-001 5.847190e+000 2.016914e+001 9.861794e+000 -1.482912e+001 -1.562453e-001 -1.932494e-001 -2.436831e-001
<VARIANCE> 9
 4.823095e+000 1.499168e+000 2.342213e+000 3.181134e+002 4.676732e+002 1.610675e+004 8.489361e-004 1.707345e-003 9.908312e-004
<GCONST> 2.060618e+001
<STATE> 6
<NUMMIXES> 5
<MIXTURE> 1 1.712379e-001
<MEAN> 9
 -4.960403e+000 2.160479e+000 3.362328e+000 -1.074571e+002 5.857579e+001 -1.084345e+002 2.277128e-001 -1.520130e-001 -2.405159e-001
<VARIANCE> 9
 3.317326e+000 1.090081e+001 1.805246e+000 4.495937e+003 2.655515e+003 6.447213e+003 3.923639e-003 1.667613e-002 1.177036e-003
<GCONST> 2.940705e+001
<MIXTURE> 2 2.520773e-001
<MEAN> 9
 -4.567506e+000 3.176185e+000 3.652546e+000 -6.397564e+001 3.773102e+001 -1.820952e+002 1.497420e-001 -2.118390e-001 -2.593958e-001
<VARIANCE> 9
 3.378947e+000 9.357736e+000 6.383573e-001 4.446255e+003 2.149438e+003 1.634496e+003 4.643293e-003 8.578144e-003 8.456301e-004
<GCONST> 2.581137e+001
<MIXTURE> 3 1.988716e-001
<MEAN> 9
 -7.869406e+000 -2.300931e+000 3.957371e+000 -1.396875e+002 5.557372e+001 -1.999230e+002 2.649136e-001 -7.618964e-004 -2.369662e-001
<VARIANCE> 9
 4.347252e+000 7.220526e+000 1.177833e+000 1.794805e+003 4.721910e+003 1.815788e+002 2.218218e-003 1.692209e-002 1.115098e-003
<GCONST> 2.431635e+001
<MIXTURE> 4 2.012213e-001
<MEAN> 9
 -4.803418e+000 3.439769e+000 2.730681e+000 -5.647669e+001 3.460863e+001 -1.418574e+002 1.800279e-001 -2.314252e-001 -2.404355e-001
<VARIANCE> 9
 2.637138e+000 7.279270e+000 1.717589e+000 4.934835e+003 1.834424e+003 8.693534e+003 3.494282e-003 9.679537e-003 8.846062e-004
<GCONST> 2.780070e+001
<MIXTURE> 5 1.765919e-001
<MEAN> 9
 -8.204522e+000 -2.422554e+000 3.388194e+000 -1.412919e+002 1.509818e+001 -2.040792e+002 2.502858e-001 -2.666026e-002 -2.448847e-001
<VARIANCE> 9
 5.578037e+000 8.873280e+000 9.758352e-001 1.708793e+003 5.573843e+003 1.923535e+002 1.271600e-003 1.980656e-002 7.054540e-004
<GCONST> 2.390114e+001
<STATE> 7
<NUMMIXES> 5
<MIXTURE> 1 1.712944e-001
<MEAN> 9
 -4.562198e+000 -1.057321e+001 5.032970e+000 -2.999115e+001 8.158667e+001 -2.844124e+001 -1.303466e-002 3.668232e-001 1.761051e-001
<VARIANCE> 9
 2.338824e+001 1.423294e+000 2.624843e+001 1.687368e+003 6.733070e+003 5.153318e+002 4.762525e-004 5.782502e-004 7.826498e-004
<GCONST> 2.354634e+001
<MIXTURE> 2 2.279846e-001
<MEAN> 9
 -8.527027e+000 -1.193491e+001 5.351334e+000 -1.260442e+002 6.413093e-001 -1.491411e+002 1.074647e-001 3.448113e-001 2.655466e-002
<VARIANCE> 9
 3.124345e+000 2.520412e+000 9.093682e-001 1.006664e+003 1.530222e+003 3.274205e+003 4.002524e-003 5.782502e-004 2.881483e-003
<GCONST> 2.202515e+001
<MIXTURE> 3 1.437869e-001
<MEAN> 9
 -9.049059e+000 -9.554317e+000 6.022207e+000 -1.657162e+002 3.297126e+001 -1.896926e+002 1.952124e-001 2.747682e-001 -8.618884e-002
<VARIANCE> 9
 2.185252e+000 5.507364e+000 9.102812e-001 1.378296e+003 3.004191e+003 1.612755e+003 6.932707e-003 2.381129e-003 2.917194e-003
<GCONST> 2.470796e+001
<MIXTURE> 4 2.835575e-001
<MEAN> 9
 -5.379418e+000 -1.100428e+001 4.692249e+000 -9.361197e+001 -2.459280e+001 -5.405550e+001 1.807478e-002 3.634176e-001 1.157020e-001
<VARIANCE> 9
 2.212685e+000 7.895612e-001 2.125785e+000 7.132228e+002 2.150259e+003 8.387704e+002 5.064224e-004 5.782502e-004 2.262094e-003
<GCONST> 1.769293e+001
<MIXTURE> 5 1.733767e-001
<MEAN> 9
 -8.915730e+000 -9.771622e+000 5.788190e+000 -1.819081e+002 1.278474e+001 -1.841778e+002 1.851791e-001 2.615287e-001 -1.153846e-001
<VARIANCE> 9
 2.295179e+000 3.934446e+000 1.027316e+000 1.383285e+003 2.775802e+003 8.779654e+002 4.352828e-003 2.332737e-003 3.284311e-003
<GCONST> 2.349070e+001
<TRANSP> 8
 0.000000e+000 1.000000e+000 0.000000e+000 0.000000e+000 0.000000e+000 0.000000e+000 0.000000e+000 0.000000e+000
 0.000000e+000 9.576048e-001 4.239521e-002 0.000000e+000 0.000000e+000 0.000000e+000 0.000000e+000 0.000000e+000
 0.000000e+000 0.000000e+000 9.568754e-001 4.312462e-002 0.000000e+000 0.000000e+000 0.000000e+000 0.000000e+000
 0.000000e+000 0.000000e+000 0.000000e+000 9.567354e-001 4.326462e-002 0.000000e+000 0.000000e+000 0.000000e+000
 0.000000e+000 0.000000e+000 0.000000e+000 0.000000e+000 9.651236e-001 3.487641e-002 0.000000e+000 0.000000e+000
 0.000000e+000 0.000000e+000 0.000000e+000 0.000000e+000 0.000000e+000 9.512485e-001 4.875157e-002 0.000000e+000
 0.000000e+000 0.000000e+000 0.000000e+000 0.000000e+000 0.000000e+000 0.000000e+000 9.501032e-001 4.989687e-002
 0.000000e+000 0.000000e+000 0.000000e+000 0.000000e+000 0.000000e+000 0.000000e+000 0.000000e+000 0.000000e+000
<ENDHMM>
~h "SR"
<BEGINHMM>
<NUMSTATES> 8
<STATE> 2
<NUMMIXES> 5
<MIXTURE> 1 1.726756e-001
<MEAN> 9
 -9.365422e+000 -8.523255e+000 1.112504e+000 -7.460770e+001 -2.775970e+001 2.625129e+002 4.400526e-001 1.839112e-001 2.340145e-001
<VARIANCE> 9
 5.467433e-001 2.677388e+000 8.841015e-001 1.437012e+003 8.173637e+002 4.540724e+002 3.582094e-003 6.634949e-003 2.015401e-004
<GCONST> 1.773670e+001
<MIXTURE> 2 2.986498e-001
<MEAN> 9
 -8.547906e+000 -1.074684e+001 9.961883e-001 -5.996696e+000 -1.922904e+002 1.344212e+002 9.651139e-002 3.726981e-001 2.212389e-001
<VARIANCE> 9
 3.004293e+000 5.821292e-001 1.463728e+000 1.916543e+002 7.368843e+003 5.161859e+003 6.476193e-003 5.782502e-004 2.450680e-004
<GCONST> 1.938152e+001
<MIXTURE> 3 1.556743e-001
<MEAN> 9
 -1.038563e+001 -1.047936e+001 -7.461329e-001 -9.090026e+001 -8.831237e+001 2.859507e+002 3.330690e-001 2.898660e-001 2.229943e-001
<VARIANCE> 9
 9.403688e-001 4.198092e+000 1.784417e+000 1.742220e+003 1.279278e+003 2.402391e+003 5.325137e-003 4.091525e-003 1.938003e-004
<GCONST> 2.161148e+001
<MIXTURE> 4 2.314244e-001
<MEAN> 9
 -9.312555e+000 -1.104017e+001 1.714998e-001 -9.159872e+000 -1.930335e+002 1.337523e+002 7.591613e-002 3.719566e-001 2.145732e-001
<VARIANCE> 9
 5.122454e+000 9.744163e-001 2.197891e+000 3.800763e+002 7.369005e+003 6.826598e+003 5.643698e-003 5.782502e-004 1.938003e-004
<GCONST> 2.142870e+001
<MIXTURE> 5 1.415759e-001
<MEAN> 9
 -9.906397e+000 -8.436293e+000 5.575045e-001 -8.590656e+001 -4.774148e+001 2.595769e+002 4.078337e-001 2.208277e-001 2.314395e-001
<VARIANCE> 9
 7.484409e-001 2.322116e+000 1.111706e+000 2.046153e+003 9.166557e+002 3.830837e+002 4.901617e-003 6.665941e-003 2.153254e-004
<GCONST> 1.881991e+001
<STATE> 3
<NUMMIXES> 5
<MIXTURE> 1 1.620157e-001
<MEAN> 9
 -3.830652e+000 9.234393e-001 2.546466e+000 1.014496e+002 1.584204e+001 -1.954584e+002 5.123619e-001 -2.956237e-002 1.900178e-001
<VARIANCE> 9
 3.971584e+000 5.218017e-001 4.243641e-001 5.641194e+002 6.716643e+002 2.449466e+003 4.762525e-004 6.520085e-003 1.708128e-003
<GCONST> 1.800629e+001
<MIXTURE> 2 1.865606e-001
<MEAN> 9
 -4.798510e+000 -3.145514e+000 2.541494e+000 -3.327827e+001 -2.904120e+001 1.062307e+002 5.080718e-001 -1.311967e-001 2.050239e-001
<VARIANCE> 9
 3.060348e+000 2.338281e+000 2.774825e-001 9.694850e+002 3.604767e+002 4.784269e+003 4.762525e-004 2.437075e-003 8.137724e-004
<GCONST> 1.768377e+001
<MIXTURE> 3 2.325590e-001
<MEAN> 9
 -6.360748e+000 -5.374474e+000 2.451932e+000 -7.362643e+001 -2.978855e+001 1.924058e+002 5.139846e-001 -4.944967e-002 2.245463e-001
<VARIANCE> 9
 4.413819e+000 3.821776e+000 4.557325e-001 1.255733e+003 3.333228e+002 3.753219e+003 4.762525e-004 5.135731e-003 6.251506e-004
<GCONST> 1.945684e+001
<MIXTURE> 4 2.884998e-001
<MEAN> 9
 -4.243792e+000 1.162006e-001 2.865177e+000 4.681733e+001 -1.910281e+001 -1.408975e+002 4.977897e-001 -5.340537e-002 1.653405e-001
<VARIANCE> 9
 1.499241e+001 1.086582e+000 6.815984e-001 9.399688e+002 1.042153e+003 1.053667e+004 4.762525e-004 1.850516e-002 1.091675e-003
<GCONST> 2.354636e+001
<MIXTURE> 5 1.303650e-001
<MEAN> 9
 -4.169711e+000 6.706351e-001 2.586121e+000 8.578177e+001 1.031398e+001 -1.963678e+002 5.076720e-001 -2.522419e-002 1.779228e-001
<VARIANCE> 9
 7.045785e+000 7.213145e-001 5.431546e-001 7.285646e+002 8.386283e+002 4.601054e+003 4.762525e-004 1.022066e-002 1.519587e-003
<GCONST> 2.059094e+001
<STATE> 4
<NUMMIXES> 5
<MIXTURE> 1 2.616672e-001
<MEAN> 9
 -5.811356e+000 -8.371567e+000 5.055156e+000 -1.392367e+001 -5.842060e+000 1.352246e+002 4.705632e-001 1.499884e-001 1.642192e-001
<VARIANCE> 9
 6.443411e+000 5.069043e+000 6.480418e-001 3.015084e+002 1.472149e+002 2.398586e+003 4.762525e-004 2.396501e-003 1.654843e-003
<GCONST> 1.798927e+001
<MIXTURE> 2 2.607796e-001
<MEAN> 9
 -1.346737e+001 -2.416264e+000 3.615392e+000 -1.724487e+001 -4.140874e+001 -1.012285e+002 4.176421e-001 2.371981e-001 1.657257e-001
<VARIANCE> 9
 7.815338e+000 1.682310e+001 3.312057e+000 8.548046e+002 1.431798e+003 1.582140e+004 5.899814e-004 6.240868e-004 9.121057e-004
<GCONST> 2.448958e+001
<MIXTURE> 3 1.813536e-001
<MEAN> 9
 -1.433965e+001 -6.082651e+000 4.420930e+000 -4.259464e+001 -4.364708e+001 1.542207e+001 3.813786e-001 2.728574e-001 1.554540e-001
<VARIANCE> 9
 1.008328e+001 1.222445e+001 1.745771e+000 3.555094e+002 1.368936e+003 7.309876e+003 6.090072e-004 5.782502e-004 1.039758e-003
<GCONST> 2.217678e+001
<MIXTURE> 4 1.170439e-001
<MEAN> 9
 -8.537885e+000 -9.210135e+000 5.438825e+000 -2.279742e+001 -1.735028e+001 1.159371e+002 4.480080e-001 1.910191e-001 1.642240e-001
<VARIANCE> 9
 8.533408e+000 1.848543e+001 8.116466e-001 5.619933e+002 4.811968e+002 1.537494e+004 6.793414e-004 2.159359e-003 1.387976e-003
<GCONST> 2.352920e+001
<MIXTURE> 5 1.791559e-001
<MEAN> 9
 -1.512504e+001 -6.011600e+000 4.095603e+000 -4.609401e+001 -5.735321e+001 5.796207e+000 3.764157e-001 2.755688e-001 1.625686e-001
<VARIANCE> 9
 9.417429e+000 1.252878e+001 2.366283e+000 4.562914e+002 1.315868e+003 6.800861e+003 6.028308e-004 5.782502e-004 1.477167e-003
<GCONST> 2.291599e+001
<STATE> 5
<NUMMIXES> 5
<MIXTURE> 1 1.218208e-001
<MEAN> 9
 -7.142212e+000 -4.251943e+000 3.417499e+000 3.772606e+001 1.586053e+001 -4.337403e+001 4.891448e-001 1.145445e-001 1.992459e-001
<VARIANCE> 9
 4.273500e-001 3.371764e-001 1.186943e+000 5.290474e+002 2.874832e+002 1.349359e+003 4.762525e-004 1.308582e-003 1.205190e-003
<GCONST> 1.290511e+001
<MIXTURE> 2 2.136116e-001
<MEAN> 9
 -6.074880e+000 -4.640734e+000 4.066364e+000 1.554038e+001 5.847224e+000 -1.826255e+001 4.890367e-001 1.111919e-001 1.605142e-001
<VARIANCE> 9
 1.472363e+000 3.371764e-001 3.650704e-001 5.770809e+002 2.851054e+002 4.269120e+003 4.762525e-004 1.687524e-003 1.297838e-003
<GCONST> 1.452184e+001
<MIXTURE> 3 3.171911e-001
<MEAN> 9
 -7.254729e+000 -3.978898e+000 4.282532e+000 1.421359e+001 1.920144e+000 -1.421412e+001 4.992921e-001 8.785972e-002 1.759777e-001
<VARIANCE> 9
 5.169200e-001 4.816601e-001 2.940405e-001 3.148185e+002 1.489949e+002 1.143213e+003 4.762525e-004 1.628108e-003 6.883189e-004
<GCONST> 1.037282e+001
<MIXTURE> 4 2.317846e-001
<MEAN> 9
 -6.038880e+000 -4.747953e+000 3.793397e+000 1.510812e+001 1.144726e+001 -5.527824e+001 4.763768e-001 1.311515e-001 1.473600e-001
<VARIANCE> 9
 8.518518e-001 3.371764e-001 4.410657e-001 5.784029e+002 3.490067e+002 6.079702e+003 5.057490e-004 2.284530e-003 1.666722e-003
<GCONST> 1.533495e+001
<MIXTURE> 5 1.155915e-001
<MEAN> 9
 -7.232734e+000 -4.249153e+000 3.651219e+000 3.221101e+001 1.154959e+001 -3.955270e+001 4.907066e-001 1.101330e-001 1.919050e-001
<VARIANCE> 9
 4.276201e-001 3.371764e-001 9.935886e-001 4.849649e+002 2.762668e+002 1.363441e+003 4.762525e-004 1.419501e-003 1.205517e-003
<GCONST> 1.269314e+001
<STATE> 6
<NUMMIXES> 5
<MIXTURE> 1 1.519472e-001
<MEAN> 9
 -6.850434e+000 -4.763991e+000 1.793917e+000 5.664696e+001 7.425466e+001 -1.358197e+002 4.020050e-001 2.441646e-001 2.086786e-001
<VARIANCE> 9
 4.765753e-001 9.210610e-001 5.861526e-001 4.285556e+002 5.581104e+002 5.561708e+002 2.400386e-003 2.331432e-003 8.761397e-004
<GCONST> 1.475603e+001
<MIXTURE> 2 2.419838e-001
<MEAN> 9
 -6.721541e+000 -9.260598e+000 7.371871e-001 3.897358e+001 1.247000e+002 -1.400509e+002 1.727902e-001 3.647451e-001 2.200584e-001
<VARIANCE> 9
 1.015304e+000 1.547419e+000 5.878685e-001 5.899105e+002 2.062062e+003 1.143636e+003 5.713849e-003 5.782502e-004 5.015988e-004
<GCONST> 1.729674e+001
<MIXTURE> 3 2.103672e-001
<MEAN> 9
 -7.482632e+000 -6.425139e+000 1.684975e+000 4.330021e+001 1.040334e+002 -1.585942e+002 3.345924e-001 2.996145e-001 2.019248e-001
<VARIANCE> 9
 1.289963e+000 9.229463e-001 1.819410e+000 1.893421e+003 1.305411e+003 9.710414e+002 2.637343e-003 1.522749e-003 1.201811e-003
<GCONST> 1.976347e+001
<MIXTURE> 4 2.626375e-001
<MEAN> 9
 -6.459907e+000 -1.021785e+001 5.411747e-001 4.744430e+001 1.217073e+002 -1.482107e+002 1.189210e-001 3.735573e-001 1.971543e-001
<VARIANCE> 9
 4.712766e-001 1.232674e+000 2.931842e-001 3.635034e+002 1.276747e+003 5.966043e+002 5.563268e-003 5.782502e-004 5.107473e-004
<GCONST> 1.398322e+001
<MIXTURE> 5 1.330644e-001
<MEAN> 9
 -7.070750e+000 -5.203756e+000 1.836437e+000 5.022880e+001 7.762899e+001 -1.407392e+002 3.889136e-001 2.554298e-001 1.962144e-001
<VARIANCE> 9
 5.090840e-001 1.001756e+000 7.774459e-001 5.042970e+002 6.471810e+002 7.083760e+002 2.788061e-003 2.399300e-003 8.191787e-004
<GCONST> 1.585233e+001
<STATE> 7
<NUMMIXES> 5
<MIXTURE> 1 2.277174e-001
<MEAN> 9
 -3.215628e+000 -1.018598e+001 1.705893e+000 2.984997e+000 1.030124e+002 -2.683688e+001 -3.288057e-003 3.626283e-001 2.385279e-001
<VARIANCE> 9
 2.390218e+000 3.371764e-001 2.213524e+000 1.392516e+002 7.783188e+002 6.110283e+002 2.765285e-003 5.782502e-004 6.996462e-004
<GCONST> 1.451722e+001
<MIXTURE> 2 2.386111e-001
<MEAN> 9
 -3.617193e+000 -1.033341e+001 1.120088e+000 -2.252433e+001 7.048363e+001 -2.767323e+001 -2.578464e-002 3.653057e-001 2.032544e-001
<VARIANCE> 9
 4.315977e-001 3.371764e-001 8.902388e-002 9.685506e+001 3.162939e+002 3.440072e+002 4.762525e-004 5.782502e-004 7.475686e-004
<GCONST> 6.061432e+000
<MIXTURE> 3 1.540860e-001
<MEAN> 9
 -4.597470e+000 -1.010228e+001 1.106745e+000 -1.387217e+001 6.367912e+001 -5.169822e+001 -1.358113e-002 3.706081e-001 1.698777e-001
<VARIANCE> 9
 5.548714e-001 3.371764e-001 7.381858e-002 1.835860e+002 5.039677e+002 6.820862e+002 4.762525e-004 5.782502e-004 1.938003e-004
<GCONST> 6.565183e+000
<MIXTURE> 4 2.064384e-001
<MEAN> 9
 -3.918174e+000 -9.961139e+000 1.064610e+000 -2.471029e+000 8.338753e+001 -3.994520e+001 3.167714e-002 3.654086e-001 2.467724e-001
<VARIANCE> 9
 1.808895e+000 3.444909e-001 8.096340e-001 1.636798e+002 6.435213e+002 7.734673e+002 4.546935e-003 5.782502e-004 4.797378e-004
<GCONST> 1.358142e+001
<MIXTURE> 5 1.731469e-001
<MEAN> 9
 -4.892607e+000 -1.025161e+001 1.014923e+000 -1.440461e+001 6.563209e+001 -5.886318e+001 -1.386746e-002 3.693352e-001 1.679264e-001
<VARIANCE> 9
 4.622896e-001 3.371764e-001 9.278644e-002 1.919298e+002 7.425974e+002 6.475516e+002 4.762525e-004 5.782502e-004 1.938003e-004
<GCONST> 6.991458e+000
<TRANSP> 8
 0.000000e+000 1.000000e+000 0.000000e+000 0.000000e+000 0.000000e+000 0.000000e+000 0.000000e+000 0.000000e+000
 0.000000e+000 9.504556e-001 4.954437e-002 0.000000e+000 0.000000e+000 0.000000e+000 0.000000e+000 0.000000e+000
 0.000000e+000 0.000000e+000 9.560807e-001 4.391932e-002 0.000000e+000 0.000000e+000 0.000000e+000 0.000000e+000
 0.000000e+000 0.000000e+000 0.000000e+000 9.485680e-001 5.143195e-002 0.000000e+000 0.000000e+000 0.000000e+000
 0.000000e+000 0.000000e+000 0.000000e+000 0.000000e+000 9.454648e-001 5.453519e-002 0.000000e+000 0.000000e+000
 0.000000e+000 0.000000e+000 0.000000e+000 0.000000e+000 0.000000e+000 9.510357e-001 4.896425e-002 0.000000e+000
 0.000000e+000 0.000000e+000 0.000000e+000 0.000000e+000 0.000000e+000 0.000000e+000 9.264967e-001 7.350329e-002
 0.000000e+000 0.000000e+000 0.000000e+000 0.000000e+000 0.000000e+000 0.000000e+000 0.000000e+000 0.000000e+000
<ENDHMM>
~h "TK"
<BEGINHMM>
<NUMSTATES> 8
<STATE> 2
<NUMMIXES> 5
<MIXTURE> 1 1.752511e-001
<MEAN> 9
 -9.638772e+000 -9.132610e+000 -4.228392e+000 -9.396487e+001 1.255730e+002 2.251989e+002 2.240070e-001 3.527820e-001 2.564228e-001
<VARIANCE> 9
 6.864717e-001 4.671118e-001 5.816498e-001 9.053287e+002 2.875150e+003 5.426287e+002 3.053366e-003 5.782502e-004 2.304104e-003
<GCONST> 1.661014e+001
<MIXTURE> 2 2.126894e-001
<MEAN> 9
 -8.129354e+000 -1.076061e+001 -9.808007e-001 -1.352016e+001 6.520369e+001 1.494672e+002 4.949118e-002 3.744610e-001 1.708972e-001
<VARIANCE> 9
 1.583329e+000 5.762063e-001 8.772712e-001 5.207469e+002 1.294275e+003 2.080180e+003 1.775239e-003 5.782502e-004 1.222572e-003
<GCONST> 1.688325e+001
<MIXTURE> 3 2.605519e-001
<MEAN> 9
 -9.115027e+000 -1.022869e+001 -2.390427e+000 -4.459814e+001 8.584013e+001 1.989485e+002 1.298285e-001 3.740104e-001 1.707421e-001
<VARIANCE> 9
 3.796820e-001 4.056443e-001 1.015590e+000 9.518395e+002 4.330262e+002 1.634266e+003 3.752362e-003 5.782502e-004 6.960600e-004
<GCONST> 1.470286e+001
<MIXTURE> 4 1.802800e-001
<MEAN> 9
 -1.114423e+001 -1.243543e+001 -3.531894e+000 -5.930149e+001 8.932130e+000 2.187893e+002 9.317294e-002 3.668003e-001 2.074809e-001
<VARIANCE> 9
 2.091467e+000 1.881111e+000 4.993795e+000 2.601050e+003 2.369069e+003 8.256127e+003 6.390169e-003 5.782502e-004 1.030651e-003
<GCONST> 2.478539e+001
<MIXTURE> 5 1.712275e-001
<MEAN> 9
 -9.696250e+000 -9.148575e+000 -4.208136e+000 -9.799543e+001 1.004633e+002 2.283730e+002 2.384899e-001 3.502311e-001 2.409916e-001
<VARIANCE> 9
 4.404311e-001 4.404175e-001 5.587280e-001 7.937463e+002 2.729921e+003 4.944957e+002 2.869717e-003 5.782502e-004 2.285427e-003
<GCONST> 1.572085e+001
<STATE> 3
<NUMMIXES> 5
<MIXTURE> 1 1.584090e-001
<MEAN> 9
 -5.951237e+000 1.726938e+000 -2.303999e+000 -1.660289e+002 2.722525e+001 1.124462e+002 4.328450e-001 -1.301028e-001 4.381047e-001
<VARIANCE> 9
 1.486381e+000 2.431928e+000 1.673321e+000 3.219889e+002 2.688488e+002 1.031366e+003 5.333288e-004 8.791286e-003 7.821436e-004
<GCONST> 1.722420e+001
<MIXTURE> 2 2.468287e-001
<MEAN> 9
 -8.032332e+000 -4.198618e+000 -4.558044e+000 -1.801806e+002 2.738417e+001 2.117914e+002 4.081399e-001 1.575403e-001 3.872721e-001
<VARIANCE> 9
 1.373232e+000 2.776916e+000 6.395947e-001 9.260732e+002 8.245986e+002 1.387887e+003 1.549387e-003 6.532014e-003 3.524979e-003
<GCONST> 2.106505e+001
<MIXTURE> 3 2.450183e-001
<MEAN> 9
 -5.884738e+000 5.784879e-001 -3.045354e+000 -1.829964e+002 2.078174e+000 1.282670e+002 4.005688e-001 -9.123044e-002 4.856612e-001
<VARIANCE> 9
 1.307214e+000 3.594191e+000 1.482543e+000 7.355071e+002 8.369520e+002 2.314186e+003 1.243287e-003 7.775347e-003 2.093375e-003
<GCONST> 2.184324e+001
<MIXTURE> 4 2.037001e-001
<MEAN> 9
 -9.183346e+000 -7.066186e+000 -6.212468e+000 -1.900885e+002 4.432072e+001 2.486878e+002 3.427896e-001 2.303479e-001 3.836983e-001
<VARIANCE> 9
 1.686187e+000 5.916220e+000 2.084561e+000 1.630486e+003 2.020325e+003 4.622531e+003 2.469520e-003 5.149010e-003 5.939160e-003
<GCONST> 2.662309e+001
<MIXTURE> 5 1.460439e-001
<MEAN> 9
 -5.821020e+000 1.703286e+000 -2.255982e+000 -1.689091e+002 2.569677e+001 1.119643e+002 4.285013e-001 -1.388487e-001 4.387466e-001
<VARIANCE> 9
 2.016466e+000 2.373369e+000 1.896941e+000 3.214768e+002 2.922454e+002 1.040115e+003 6.352451e-004 9.061839e-003 1.047584e-003
<GCONST> 1.821794e+001
<STATE> 4
<NUMMIXES> 5
<MIXTURE> 1 2.225816e-001
<MEAN> 9
 -4.887630e+000 4.742159e+000 4.200690e-001 4.996349e+001 2.052801e+001 -2.433098e+001 3.684261e-001 -2.808475e-001 4.333966e-001
<VARIANCE> 9
 9.468834e-001 9.189126e-001 2.223194e+000 1.814424e+004 6.960149e+002 3.469450e+003 4.815154e-004 1.126335e-003 1.757932e-003
<GCONST> 2.093295e+001
<MIXTURE> 2 2.408595e-001
<MEAN> 9
 -5.071675e+000 6.420101e+000 2.932795e+000 -1.447799e+001 1.799527e+001 7.138174e+000 3.471056e-001 -3.426303e-001 3.782078e-001
<VARIANCE> 9
 8.196646e-001 3.371764e-001 2.070854e+000 5.665721e+003 9.822217e+002 6.428272e+002 4.762525e-004 5.782502e-004 1.126843e-003
<GCONST> 1.608733e+001
<MIXTURE> 3 1.582261e-001
<MEAN> 9
 -5.343084e+000 7.148541e+000 1.941271e+000 1.569755e+000 3.198115e+000 3.142885e+000 3.258122e-001 -3.520746e-001 3.949178e-001
<VARIANCE> 9
 2.917515e-001 3.371764e-001 2.207724e+000 1.080043e+003 3.296227e+002 1.210095e+002 4.762525e-004 5.782502e-004 1.389290e-003
<GCONST> 1.090840e+001
<MIXTURE> 4 2.037742e-001
<MEAN> 9
 -5.188950e+000 5.094095e+000 4.711272e-001 -3.033981e-001 1.829272e+001 -1.494501e+000 3.610131e-001 -2.894609e-001 4.309396e-001
<VARIANCE> 9
 9.588046e-001 7.884666e-001 2.470978e+000 1.532262e+004 5.820089e+002 2.749614e+003 5.481769e-004 9.661972e-004 2.004127e-003
<GCONST> 2.042496e+001
<MIXTURE> 5 1.745584e-001
<MEAN> 9
 -5.486099e+000 7.180138e+000 1.791791e+000 3.519634e+000 1.188655e+000 1.899337e+000 3.230059e-001 -3.531397e-001 3.976923e-001
<VARIANCE> 9
 2.335281e-001 3.371764e-001 2.295838e+000 8.443584e+002 2.782501e+002 1.210095e+002 4.762525e-004 5.782502e-004 1.430643e-003
<GCONST> 1.033866e+001
<STATE> 5
<NUMMIXES> 5
<MIXTURE> 1 2.477061e-001
<MEAN> 9
 -7.306612e+000 3.421563e+000 -4.852318e+000 1.578197e+002 3.496911e+001 -8.106366e+001 3.652819e-001 -1.513653e-001 5.307502e-001
<VARIANCE> 9
 1.153513e+000 1.071451e+000 3.325272e+000 1.953793e+003 4.548677e+002 7.930445e+002 7.072623e-004 2.386271e-003 9.301224e-004
<GCONST> 1.805536e+001
<MIXTURE> 2 1.507591e-001
<MEAN> 9
 -9.026460e+000 1.353869e+000 -5.306233e+000 5.123766e+000 -3.195120e+001 4.819820e+000 3.794706e-001 5.597128e-002 5.266036e-001
<VARIANCE> 9
 6.112917e-001 1.191414e+000 3.751807e+000 4.944609e+002 1.429550e+003 2.419872e+002 5.250105e-004 2.386183e-003 1.244801e-003
<GCONST> 1.622462e+001
<MIXTURE> 3 2.223166e-001
<MEAN> 9
 -9.526996e+000 2.592383e+000 -7.714770e+000 8.742638e+001 1.532249e+001 -4.969885e+001 3.528388e-001 -3.053515e-002 5.658382e-001
<VARIANCE> 9
 1.318973e+000 4.970984e-001 2.185615e+000 4.223436e+003 7.453701e+002 1.666262e+003 1.014228e-003 1.274609e-003 7.723391e-004
<GCONST> 1.855647e+001
<MIXTURE> 4 2.448231e-001
<MEAN> 9
 -9.866136e+000 1.296218e+000 -6.979660e+000 4.408673e+001 -3.190326e+001 -2.526163e+001 3.821539e-001 4.442842e-002 5.277369e-001
<VARIANCE> 9
 1.581433e+000 1.137103e+000 6.757734e+000 2.418251e+003 2.611964e+003 1.191746e+003 4.762525e-004 2.258660e-003 9.801121e-004
<GCONST> 2.110984e+001
<MIXTURE> 5 1.343947e-001
<MEAN> 9
 -9.190567e+000 1.322307e+000 -5.472160e+000 1.127134e+001 -4.379317e+001 -1.797808e+000 3.796850e-001 4.549874e-002 5.267738e-001
<VARIANCE> 9
 9.071875e-001 1.189878e+000 4.822424e+000 8.811256e+002 2.270262e+003 4.258698e+002 5.021307e-004 2.547383e-003 1.101931e-003
<GCONST> 1.837357e+001
<STATE> 6
<NUMMIXES> 5
<MIXTURE> 1 1.803965e-001
<MEAN> 9
 -6.613930e+000 -4.712425e-001 -1.136412e+000 3.140136e+001 -1.951184e+002 -6.349216e+001 4.592492e-001 5.696175e-002 3.803101e-001
<VARIANCE> 9
 1.440926e+000 5.781736e-001 1.896725e+000 2.578665e+002 6.319116e+003 1.785612e+003 8.232903e-004 3.263040e-003 5.878455e-003
<GCONST> 2.082596e+001
<MIXTURE> 2 2.193047e-001
<MEAN> 9
 -8.783565e+000 -4.920102e+000 1.753053e+000 -1.014612e+000 -6.556245e+001 -1.864203e+002 3.777532e-001 2.665002e-001 1.575459e-001
<VARIANCE> 9
 1.548965e+000 1.650896e+000 2.652681e+000 7.616970e+002 1.931187e+003 5.439473e+002 2.448732e-003 2.464923e-003 2.538926e-003
<GCONST> 2.096186e+001
<MIXTURE> 3 2.245572e-001
<MEAN> 9
 -6.345958e+000 -1.526105e+000 1.941226e-001 2.055242e+001 -1.819600e+002 -1.524213e+002 4.770318e-001 1.335014e-001 2.197879e-001
<VARIANCE> 9
 9.808409e-001 6.410192e-001 1.678265e+000 3.868568e+002 2.615118e+003 1.707906e+003 4.762525e-004 2.454879e-003 6.823707e-003
<GCONST> 1.921816e+001
<MIXTURE> 4 1.991505e-001
<MEAN> 9
 -8.564779e+000 -5.215081e+000 2.900407e+000 -2.867886e+001 -5.891889e+001 -2.068538e+002 3.654815e-001 2.615138e-001 1.107199e-001
<VARIANCE> 9
 1.417280e+000 2.110049e+000 1.678719e+000 1.150072e+003 1.382968e+003 1.473599e+003 2.855671e-003 5.814619e-003 2.106965e-003
<GCONST> 2.256107e+001
<MIXTURE> 5 1.765908e-001
<MEAN> 9
 -6.835005e+000 -4.512504e-001 -1.548431e+000 2.319474e+001 -2.115197e+002 -5.861002e+001 4.543073e-001 5.985862e-002 3.933529e-001
<VARIANCE> 9
 1.072758e+000 5.473632e-001 1.441491e+000 2.785141e+002 5.092989e+003 1.692303e+003 7.886802e-004 3.358704e-003 5.946185e-003
<GCONST> 2.000674e+001
<STATE> 7
<NUMMIXES> 5
<MIXTURE> 1 2.430814e-001
<MEAN> 9
 -4.834301e+000 -1.017737e+001 1.611378e+000 -2.143371e+001 9.934364e+001 -5.436245e+001 1.708236e-003 3.701423e-001 1.901238e-001
<VARIANCE> 9
 1.188734e+000 3.371764e-001 1.884470e+000 1.546929e+002 1.519446e+003 1.551146e+003 1.994842e-003 5.782502e-004 1.938003e-004
<GCONST> 1.375320e+001
<MIXTURE> 2 2.354232e-001
<MEAN> 9
 -6.932087e+000 -9.302171e+000 2.691390e+000 -2.169364e+001 3.261559e+001 -1.531336e+002 1.634531e-001 3.703733e-001 1.667055e-001
<VARIANCE> 9
 1.006188e+000 1.832399e+000 4.053445e-001 1.776849e+002 1.642978e+003 2.038518e+002 4.581325e-003 5.782502e-004 6.168416e-004
<GCONST> 1.391918e+001
<MIXTURE> 3 2.389161e-001
<MEAN> 9
 -7.604913e+000 -9.950414e+000 3.077015e+000 -2.657444e+001 9.586897e+000 -1.984297e+002 1.822299e-001 3.623184e-001 1.319753e-001
<VARIANCE> 9
 7.689955e-001 3.481486e+000 2.823160e+000 1.896569e+003 1.264061e+003 9.977587e+002 4.056815e-003 5.782502e-004 5.086519e-004
<GCONST> 1.961233e+001
<MIXTURE> 4 1.335576e-001
<MEAN> 9
 -5.385762e+000 -1.034178e+001 1.396773e+000 -2.338711e+001 9.216166e+001 -7.867352e+001 1.743769e-002 3.737242e-001 1.808710e-001
<VARIANCE> 9
 6.731521e-001 3.371764e-001 6.804745e-001 8.694695e+001 1.803573e+003 1.371881e+003 1.277022e-003 5.782502e-004 2.618752e-004
<GCONST> 1.149339e+001
<MIXTURE> 5 1.490215e-001
<MEAN> 9
 -5.761043e+000 -1.039174e+001 1.314735e+000 -2.314753e+001 7.500616e+001 -8.602373e+001 1.261671e-002 3.722729e-001 1.697537e-001
<VARIANCE> 9
 6.857438e-001 3.371764e-001 6.686159e-001 6.937091e+001 1.617091e+003 1.369461e+003 1.057027e-003 5.782502e-004 1.938003e-004
<GCONST> 1.066749e+001
<TRANSP> 8
 0.000000e+000 1.000000e+000 0.000000e+000 0.000000e+000 0.000000e+000 0.000000e+000 0.000000e+000 0.000000e+000
 0.000000e+000 8.999450e-001 1.000550e-001 0.000000e+000 0.000000e+000 0.000000e+000 0.000000e+000 0.000000e+000
 0.000000e+000 0.000000e+000 9.408534e-001 5.914659e-002 0.000000e+000 0.000000e+000 0.000000e+000 0.000000e+000
 0.000000e+000 0.000000e+000 0.000000e+000 9.598704e-001 4.012961e-002 0.000000e+000 0.000000e+000 0.000000e+000
 0.000000e+000 0.000000e+000 0.000000e+000 0.000000e+000 9.530358e-001 4.696425e-002 0.000000e+000 0.000000e+000
 0.000000e+000 0.000000e+000 0.000000e+000 0.000000e+000 0.000000e+000 9.447867e-001 5.521334e-002 0.000000e+000
 0.000000e+000 0.000000e+000 0.000000e+000 0.000000e+000 0.000000e+000 0.000000e+000 9.413869e-001 5.861311e-002
 0.000000e+000 0.000000e+000 0.000000e+000 0.000000e+000 0.000000e+000 0.000000e+000 0.000000e+000 0.000000e+000
<ENDHMM>
~h "sp"
<BEGINHMM>
<NUMSTATES> 8
<STATE> 2
<NUMMIXES> 5
<MIXTURE> 1 2.672055e-001
<MEAN> 9
 -4.421991e+000 -9.573003e+000 1.443922e+000 -4.913658e+000 6.693001e+001 -8.869118e+000 9.614511e-003 3.685061e-001 2.055670e-001
<VARIANCE> 9
 1.006771e+000 3.371764e-001 5.485777e-001 8.153802e+001 1.163260e+003 1.210095e+002 4.762525e-004 5.782502e-004 1.938003e-004
<GCONST> 7.462237e+000
<MIXTURE> 2 2.718167e-001
<MEAN> 9
 -4.112111e+000 -9.977250e+000 3.065978e+000 -7.751047e+000 8.375131e+001 -1.029864e+001 -2.901264e-002 3.635158e-001 1.756679e-001
<VARIANCE> 9
 4.140113e+000 3.371764e-001 1.995239e+000 2.344668e+002 3.508862e+003 1.210095e+002 4.762525e-004 5.782502e-004 2.407702e-004
<GCONST> 1.254473e+001
<MIXTURE> 3 1.277992e-001
<MEAN> 9
 -4.222825e+000 -9.733956e+000 1.995498e+000 -6.434358e+000 6.353539e+001 -1.293869e+001 -2.678514e-002 3.641239e-001 1.695910e-001
<VARIANCE> 9
 2.727756e+000 3.371764e-001 3.828614e+000 3.716450e+002 2.948532e+003 1.210095e+002 4.762525e-004 5.782502e-004 1.938003e-004
<GCONST> 1.284885e+001
<MIXTURE> 4 2.047438e-001
<MEAN> 9
 -4.460238e+000 -9.709335e+000 1.376833e+000 -1.114900e+001 6.561928e+001 -1.189709e+001 -7.583264e-004 3.673313e-001 1.934292e-001
<VARIANCE> 9
 1.180836e+000 3.371764e-001 6.125208e-001 1.785868e+002 1.324807e+003 1.210095e+002 4.762525e-004 5.782502e-004 3.514474e-004
<GCONST> 9.241245e+000
<MIXTURE> 5 1.284347e-001
<MEAN> 9
 -4.313010e+000 -9.761451e+000 7.335680e-001 -9.563246e+000 4.195355e+001 -1.679066e+001 -3.008531e-002 3.623752e-001 1.649690e-001
<VARIANCE> 9
 2.098449e+000 3.371764e-001 4.451191e+000 4.498561e+002 2.920431e+003 1.210095e+002 4.762525e-004 5.782502e-004 2.152759e-004
<GCONST> 1.302374e+001
<STATE> 3
<NUMMIXES> 5
<MIXTURE> 1 1.555196e-001
<MEAN> 9
 -3.549881e+000 -9.761770e+000 6.354239e-001 7.671281e+000 1.445159e+001 -2.002805e+000 -1.021302e-002 3.667707e-001 1.910797e-001
<VARIANCE> 9
 3.841400e-001 3.371764e-001 6.965733e-001 2.977951e+001 1.463137e+002 1.210095e+002 4.762525e-004 5.782502e-004 3.769482e-004
<GCONST> 4.322387e+000
<MIXTURE> 2 1.840998e-001
<MEAN> 9
 -2.368875e+000 -9.824759e+000 -2.483011e-001 4.890936e+000 -8.840436e+000 2.184019e+000 -2.877880e-002 3.640664e-001 1.850610e-001
<VARIANCE> 9
 6.462917e-001 3.371764e-001 2.114029e-001 2.977951e+001 1.245508e+002 1.210095e+002 4.762525e-004 5.782502e-004 4.538307e-004
<GCONST> 3.674801e+000
<MIXTURE> 3 2.344122e-001
<MEAN> 9
 -1.891821e+000 -9.843834e+000 -4.088100e-001 6.548455e+000 -1.384876e+001 3.816887e+000 -4.176414e-002 3.605814e-001 1.744360e-001
<VARIANCE> 9
 5.145476e-001 3.371764e-001 1.872647e-001 2.977951e+001 7.123096e+001 1.210095e+002 4.762525e-004 5.782502e-004 1.938003e-004
<GCONST> 1.915912e+000
<MIXTURE> 4 2.684175e-001
<MEAN> 9
 -3.395929e+000 -9.878522e+000 4.475740e-001 6.268960e+000 3.791638e+000 -1.583746e+000 -2.147515e-002 3.647402e-001 1.787085e-001
<VARIANCE> 9
 4.573598e-001 3.371764e-001 7.486544e-001 2.977951e+001 2.398099e+002 1.210095e+002 4.762525e-004 5.782502e-004 3.332001e-004
<GCONST> 4.939684e+000
<MIXTURE> 5 1.575509e-001
<MEAN> 9
 -3.550863e+000 -9.836165e+000 4.358207e-001 7.002499e+000 9.091368e+000 -2.453017e+000 -1.763199e-002 3.654332e-001 1.817949e-001
<VARIANCE> 9
 4.254982e-001 3.371764e-001 6.776414e-001 2.977951e+001 2.038445e+002 1.210095e+002 4.762525e-004 5.782502e-004 3.823255e-004
<GCONST> 4.742855e+000
<STATE> 4
<NUMMIXES> 5
<MIXTURE> 1 2.245393e-001
<MEAN> 9
 -2.230605e+000 -9.940546e+000 1.093794e-001 3.278201e+000 -9.711160e-001 5.052007e-001 -3.832445e-002 3.618794e-001 1.878957e-001
<VARIANCE> 9
 2.301579e-001 3.371764e-001 6.976298e-002 2.977951e+001 3.680466e+001 1.210095e+002 4.762525e-004 5.782502e-004 5.232933e-004
<GCONST> 4.569817e-001
<MIXTURE> 2 2.705704e-001
<MEAN> 9
 -2.360634e+000 -9.913889e+000 1.961607e-001 3.082859e+000 -8.672264e-001 7.816040e-001 -3.420458e-002 3.629403e-001 1.716067e-001
<VARIANCE> 9
 1.684168e-001 3.371764e-001 9.629437e-002 2.977951e+001 3.680466e+001 1.210095e+002 4.762525e-004 5.782502e-004 1.938003e-004
<GCONST> -5.263491e-001
<MIXTURE> 3 1.444991e-001
<MEAN> 9
 -2.526772e+000 -9.870769e+000 1.091898e-001 3.062414e+000 -8.738690e-001 9.340599e-001 -2.608191e-002 3.654923e-001 1.696699e-001
<VARIANCE> 9
 1.491142e-001 3.371764e-001 1.461071e-001 2.977951e+001 3.680466e+001 1.210095e+002 4.762525e-004 5.782502e-004 1.938003e-004
<GCONST> -2.311487e-001
<MIXTURE> 4 2.166843e-001
<MEAN> 9
 -2.166090e+000 -9.947721e+000 1.188997e-001 3.217441e+000 -1.634004e+000 6.476825e-001 -4.111150e-002 3.606243e-001 1.820704e-001
<VARIANCE> 9
 2.271715e-001 3.371764e-001 6.976298e-002 2.977951e+001 3.680466e+001 1.210095e+002 4.762525e-004 5.782502e-004 4.168055e-004
<GCONST> 2.164011e-001
<MIXTURE> 5 1.437069e-001
<MEAN> 9
 -2.575395e+000 -9.850322e+000 -1.073807e-002 2.816650e+000 -2.541821e+000 1.041533e+000 -2.552269e-002 3.637316e-001 1.653540e-001
<VARIANCE> 9
 1.491142e-001 3.371764e-001 1.560650e-001 2.977951e+001 3.680466e+001 1.210095e+002 4.762525e-004 5.782502e-004 1.938003e-004
<GCONST> -1.652155e-001
<STATE> 5
<NUMMIXES> 5
<MIXTURE> 1 1.424515e-001
<MEAN> 9
 -3.328509e+000 -9.637700e+000 1.995247e-001 3.359836e+000 1.507136e+000 4.977794e-001 9.716655e-003 3.694540e-001 2.064707e-001
<VARIANCE> 9
 1.491142e-001 3.371764e-001 6.976298e-002 2.977951e+001 3.680466e+001 1.210095e+002 4.762525e-004 5.782502e-004 1.938003e-004
<GCONST> -9.703841e-001
<MIXTURE> 2 2.243197e-001
<MEAN> 9
 -3.020577e+000 -9.752275e+000 3.275395e-001 3.079276e+000 -4.806482e-001 4.857030e-001 -8.612301e-003 3.690587e-001 1.795843e-001
<VARIANCE> 9
 1.491142e-001 3.371764e-001 6.976298e-002 2.977951e+001 3.680466e+001 1.210095e+002 4.762525e-004 5.782502e-004 2.603620e-004
<GCONST> -6.751399e-001
<MIXTURE> 3 2.379754e-001
<MEAN> 9
 -3.179743e+000 -9.690762e+000 2.396323e-001 3.241649e+000 -3.478511e-001 4.494313e-001 6.940002e-004 3.687442e-001 1.929825e-001
<VARIANCE> 9
 1.491142e-001 3.371764e-001 6.976298e-002 2.977951e+001 3.680466e+001 1.210095e+002 4.762525e-004 5.782502e-004 3.360525e-004
<GCONST> -4.199448e-001
<MIXTURE> 4 2.621359e-001
<MEAN> 9
 -2.970862e+000 -9.774649e+000 3.625928e-001 2.886437e+000 -1.490216e+000 6.082882e-001 -1.286769e-002 3.685232e-001 1.736643e-001
<VARIANCE> 9
 1.491142e-001 3.371764e-001 6.976298e-002 2.977951e+001 3.680466e+001 1.210095e+002 4.762525e-004 5.782502e-004 1.938003e-004
<GCONST> -9.703841e-001
<MIXTURE> 5 1.331178e-001
<MEAN> 9
 -3.312849e+000 -9.646641e+000 1.846201e-001 3.333310e+000 -2.307919e-002 4.259191e-001 6.612622e-003 3.677925e-001 2.020689e-001
<VARIANCE> 9
 1.491142e-001 3.371764e-001 6.976298e-002 2.977951e+001 3.680466e+001 1.210095e+002 4.762525e-004 5.782502e-004 1.938003e-004
<GCONST> -9.703841e-001
<STATE> 6
<NUMMIXES> 5
<MIXTURE> 1 3.036540e-001
<MEAN> 9
 -3.558547e+000 -9.817301e+000 9.643782e-001 3.640766e+000 -8.652629e+000 4.469726e+000 -2.230858e-002 3.669494e-001 1.808957e-001
<VARIANCE> 9
 8.142599e-001 3.371764e-001 2.613915e-001 2.977951e+001 7.893366e+001 1.210095e+002 4.762525e-004 5.782502e-004 2.238913e-004
<GCONST> 2.955417e+000
<MIXTURE> 2 9.514816e-002
<MEAN> 9
 -2.739431e+000 -9.910814e+000 6.452869e-001 4.122302e+000 -1.333486e+001 1.733633e+000 -3.492413e-002 3.649968e-001 1.860894e-001
<VARIANCE> 9
 6.671047e-001 3.371764e-001 7.760431e-002 2.977951e+001 7.829083e+001 1.210095e+002 4.762525e-004 5.782502e-004 3.348781e-004
<GCONST> 1.936112e+000
<MIXTURE> 3 2.472020e-001
<MEAN> 9
 -2.818576e+000 -9.896276e+000 4.918924e-001 4.915409e+000 -1.866785e+001 7.041162e-001 -3.467731e-002 3.636389e-001 1.935344e-001
<VARIANCE> 9
 5.643697e-001 3.371764e-001 6.976298e-002 2.977951e+001 9.438976e+001 1.210095e+002 4.762525e-004 5.782502e-004 5.506665e-004
<GCONST> 2.346722e+000
<MIXTURE> 4 2.462392e-001
<MEAN> 9
 -3.099933e+000 -9.865743e+000 7.338620e-001 3.171796e+000 -1.253012e+001 2.870275e+000 -3.127722e-002 3.649106e-001 1.773073e-001
<VARIANCE> 9
 8.847813e-001 3.371764e-001 1.734909e-001 2.977951e+001 8.292819e+001 1.210095e+002 4.762525e-004 5.782502e-004 1.938003e-004
<GCONST> 2.533614e+000
<MIXTURE> 5 1.077565e-001
<MEAN> 9
 -2.736631e+000 -9.918965e+000 5.707434e-001 3.753610e+000 -1.567661e+001 1.380884e+000 -3.786928e-002 3.628636e-001 1.827238e-001
<VARIANCE> 9
 6.321310e-001 3.371764e-001 7.930109e-002 2.977951e+001 7.823792e+001 1.210095e+002 4.762525e-004 5.782502e-004 3.256373e-004
<GCONST> 1.875233e+000
<STATE> 7
<NUMMIXES> 5
<MIXTURE> 1 1.743012e-001
<MEAN> 9
 -6.173144e+000 -1.009277e+001 1.561168e+000 1.297041e+001 6.630278e-002 5.488844e+001 1.619403e-002 3.719268e-001 1.786890e-001
<VARIANCE> 9
 7.713258e-001 3.371764e-001 1.555610e+000 7.067072e+001 7.260062e+002 7.526998e+002 5.373502e-004 5.782502e-004 4.338960e-004
<GCONST> 1.037815e+001
<MIXTURE> 2 2.263078e-001
<MEAN> 9
 -4.710577e+000 -1.015588e+001 1.456252e+000 4.439864e+000 -1.264985e+002 2.390426e+001 -1.838625e-002 3.647365e-001 2.023526e-001
<VARIANCE> 9
 1.932406e+000 3.371764e-001 5.155863e-001 3.266866e+001 6.911812e+003 3.505977e+002 4.762525e-004 5.782502e-004 4.814022e-004
<GCONST> 1.089323e+001
<MIXTURE> 3 2.326493e-001
<MEAN> 9
 -5.392520e+000 -9.810303e+000 1.121853e+000 5.631647e+000 -4.105490e+001 1.826635e+001 -1.148131e-002 3.674708e-001 1.884284e-001
<VARIANCE> 9
 1.839814e+000 3.371764e-001 6.005453e-001 4.066750e+001 1.162919e+003 2.107649e+002 6.077103e-004 5.782502e-004 3.898788e-004
<GCONST> 8.957365e+000
<MIXTURE> 4 2.071530e-001
<MEAN> 9
 -5.413258e+000 -9.930238e+000 1.363326e+000 1.042986e+000 -1.073422e+002 1.581719e+001 -2.409628e-002 3.645096e-001 1.878996e-001
<VARIANCE> 9
 2.771425e+000 3.371764e-001 7.118887e-001 2.977951e+001 6.081511e+003 1.246380e+002 4.762525e-004 5.782502e-004 1.938003e-004
<GCONST> 9.411765e+000
<MIXTURE> 5 1.595891e-001
<MEAN> 9
 -6.454416e+000 -1.005520e+001 1.153635e+000 1.111512e+001 -1.409516e+001 4.771518e+001 1.242833e-003 3.690046e-001 1.731711e-001
<VARIANCE> 9
 1.166936e+000 3.371764e-001 1.147210e+000 6.208627e+001 1.229032e+003 6.746731e+002 6.412759e-004 5.782502e-004 4.825986e-004
<GCONST> 1.105831e+001
<TRANSP> 8
 0.000000e+000 1.000000e+000 0.000000e+000 0.000000e+000 0.000000e+000 0.000000e+000 0.000000e+000 0.000000e+000
 0.000000e+000 8.463314e-001 1.536686e-001 0.000000e+000 0.000000e+000 0.000000e+000 0.000000e+000 0.000000e+000
 0.000000e+000 0.000000e+000 7.932314e-001 2.067686e-001 0.000000e+000 0.000000e+000 0.000000e+000 0.000000e+000
 0.000000e+000 0.000000e+000 0.000000e+000 9.352074e-001 6.479256e-002 0.000000e+000 0.000000e+000 0.000000e+000
 0.000000e+000 0.000000e+000 0.000000e+000 0.000000e+000 9.266823e-001 7.331771e-002 0.000000e+000 0.000000e+000
 0.000000e+000 0.000000e+000 0.000000e+000 0.000000e+000 0.000000e+000 6.869124e-001 3.130876e-001 0.000000e+000
 0.000000e+000 0.000000e+000 0.000000e+000 0.000000e+000 0.000000e+000 0.000000e+000 8.269768e-001 1.730232e-001
 0.000000e+000 0.000000e+000 0.000000e+000 0.000000e+000 0.000000e+000 0.000000e+000 0.000000e+000 0.000000e+000
<ENDHMM>
~h "ssil"
<BEGINHMM>
<NUMSTATES> 8
<STATE> 2
<NUMMIXES> 5
<MIXTURE> 1 2.431715e-001
<MEAN> 9
 -3.275168e+000 -9.897193e+000 6.401619e-001 3.519516e+000 2.761274e+001 -3.027779e+000 -2.440425e-002 3.645924e-001 1.881765e-001
<VARIANCE> 9
 7.128447e-001 3.371764e-001 6.128921e-001 3.774651e+001 6.154825e+002 1.210095e+002 4.762525e-004 5.782502e-004 4.073396e-004
<GCONST> 6.563928e+000
<MIXTURE> 2 2.830918e-001
<MEAN> 9
 -2.752622e+000 -9.752658e+000 1.451467e-002 3.910669e+000 -6.430911e+000 8.060175e-001 -1.962115e-002 3.659299e-001 1.688171e-001
<VARIANCE> 9
 3.603543e-001 3.371764e-001 1.860738e-001 2.977951e+001 2.061552e+002 1.210095e+002 4.762525e-004 5.782502e-004 1.938003e-004
<GCONST> 2.616035e+000
<MIXTURE> 3 1.334309e-001
<MEAN> 9
 -2.698427e+000 -9.719959e+000 -4.230846e-002 4.312265e+000 -8.600477e+000 1.238986e+000 -1.964317e-002 3.660382e-001 1.684632e-001
<VARIANCE> 9
 3.759157e-001 3.371764e-001 2.032314e-001 2.977951e+001 1.449047e+002 1.210095e+002 4.762525e-004 5.782502e-004 1.938003e-004
<GCONST> 2.393962e+000
<MIXTURE> 4 2.087628e-001
<MEAN> 9
 -3.426203e+000 -9.884726e+000 5.982666e-001 3.524211e+000 1.423503e+001 -3.228348e+000 -2.418583e-002 3.641473e-001 1.768992e-001
<VARIANCE> 9
 1.133550e+000 3.371764e-001 5.696979e-001 2.977951e+001 4.928822e+002 1.210095e+002 4.762525e-004 5.782502e-004 3.088111e-004
<GCONST> 6.218563e+000
<MIXTURE> 5 1.315428e-001
<MEAN> 9
 -2.792474e+000 -9.764210e+000 -7.759749e-002 4.430287e+000 -1.326792e+001 1.098345e+000 -2.173493e-002 3.641834e-001 1.638803e-001
<VARIANCE> 9
 4.726169e-001 3.371764e-001 2.328058e-001 2.977951e+001 1.411960e+002 1.210095e+002 4.762525e-004 5.782502e-004 1.938003e-004
<GCONST> 2.732814e+000
<STATE> 3
<NUMMIXES> 5
<MIXTURE> 1 2.569932e-001
<MEAN> 9
 -2.571019e+000 -9.856885e+000 9.319082e-002 3.471251e+000 -2.619889e-001 2.576157e-001 -2.699489e-002 3.654895e-001 1.825978e-001
<VARIANCE> 9
 1.491142e-001 3.371764e-001 6.976298e-002 2.977951e+001 3.680466e+001 1.210095e+002 4.762525e-004 5.782502e-004 1.938003e-004
<GCONST> -9.703841e-001
<MIXTURE> 2 1.182326e-001
<MEAN> 9
 -2.564542e+000 -9.859577e+000 9.943725e-002 3.455235e+000 5.171293e-002 2.677455e-001 -2.671456e-002 3.661101e-001 1.831952e-001
<VARIANCE> 9
 1.491142e-001 3.371764e-001 6.976298e-002 2.977951e+001 3.680466e+001 1.210095e+002 4.762525e-004 5.782502e-004 1.938003e-004
<GCONST> -9.703841e-001
<MIXTURE> 3 2.468581e-001
<MEAN> 9
 -2.552714e+000 -9.857653e+000 9.443857e-002 3.480561e+000 -6.055204e-001 2.670494e-001 -2.753651e-002 3.651830e-001 1.815637e-001
<VARIANCE> 9
 1.491142e-001 3.371764e-001 6.976298e-002 2.977951e+001 3.680466e+001 1.210095e+002 4.762525e-004 5.782502e-004 1.938003e-004
<GCONST> -9.703841e-001
<MIXTURE> 4 2.590272e-001
<MEAN> 9
 -2.556593e+000 -9.856254e+000 9.246428e-002 3.485057e+000 -6.398754e-001 2.697337e-001 -2.744552e-002 3.651076e-001 1.815991e-001
<VARIANCE> 9
 1.491142e-001 3.371764e-001 6.976298e-002 2.977951e+001 3.680466e+001 1.210095e+002 4.762525e-004 5.782502e-004 1.938003e-004
<GCONST> -9.703841e-001
<MIXTURE> 5 1.188889e-001
<MEAN> 9
 -2.562143e+000 -9.853243e+000 8.731589e-002 3.498123e+000 -8.740598e-001 2.631397e-001 -2.776067e-002 3.644580e-001 1.810607e-001
<VARIANCE> 9
 1.491142e-001 3.371764e-001 6.976298e-002 2.977951e+001 3.680466e+001 1.210095e+002 4.762525e-004 5.782502e-004 1.938003e-004
<GCONST> -9.703841e-001
<STATE> 4
<NUMMIXES> 5
<MIXTURE> 1 2.564670e-001
<MEAN> 9
 -2.036713e+000 -9.994471e+000 4.481790e-001 3.249073e+000 3.689527e-002 2.240499e-001 -5.236934e-002 3.601314e-001 1.855265e-001
<VARIANCE> 9
 1.491142e-001 3.371764e-001 6.976298e-002 2.977951e+001 3.680466e+001 1.210095e+002 4.762525e-004 5.782502e-004 1.938003e-004
<GCONST> -9.703841e-001
<MIXTURE> 2 2.570959e-001
<MEAN> 9
 -1.980215e+000 -1.000238e+001 5.028117e-001 3.251412e+000 -7.399131e-002 2.066171e-001 -5.433086e-002 3.593738e-001 1.798469e-001
<VARIANCE> 9
 1.491142e-001 3.371764e-001 6.976298e-002 2.977951e+001 3.680466e+001 1.210095e+002 4.762525e-004 5.782502e-004 2.008683e-004
<GCONST> -9.345632e-001
<MIXTURE> 3 1.145915e-001
<MEAN> 9
 -2.000950e+000 -1.000006e+001 4.853089e-001 3.247809e+000 1.784128e-001 2.259707e-001 -5.327140e-002 3.605406e-001 1.836060e-001
<VARIANCE> 9
 1.491142e-001 3.371764e-001 6.976298e-002 2.977951e+001 3.680466e+001 1.210095e+002 4.762525e-004 5.782502e-004 1.938003e-004
<GCONST> -9.703841e-001
<MIXTURE> 4 2.591025e-001
<MEAN> 9
 -1.950350e+000 -1.000495e+001 5.209335e-001 3.262421e+000 -1.829294e-001 2.008842e-001 -5.514351e-002 3.585932e-001 1.761229e-001
<VARIANCE> 9
 1.491142e-001 3.371764e-001 6.976298e-002 2.977951e+001 3.680466e+001 1.210095e+002 4.762525e-004 5.782502e-004 2.072529e-004
<GCONST> -9.032731e-001
<MIXTURE> 5 1.127417e-001
<MEAN> 9
 -1.988350e+000 -1.000094e+001 4.702729e-001 3.264936e+000 -3.278757e-001 2.097178e-001 -5.435079e-002 3.583152e-001 1.800364e-001
<VARIANCE> 9
 1.491142e-001 3.371764e-001 6.976298e-002 2.977951e+001 3.680466e+001 1.210095e+002 4.762525e-004 5.782502e-004 1.938003e-004
<GCONST> -9.703841e-001
<STATE> 5
<NUMMIXES> 5
<MIXTURE> 1 2.345666e-001
<MEAN> 9
 -2.678011e+000 -9.842810e+000 3.979350e-001 3.156639e+000 -6.907715e-001 1.052042e-001 -2.093178e-002 3.673333e-001 1.691310e-001
<VARIANCE> 9
 1.491142e-001 3.371764e-001 6.976298e-002 2.977951e+001 3.680466e+001 1.210095e+002 4.762525e-004 5.782502e-004 1.938003e-004
<GCONST> -9.703841e-001
<MIXTURE> 2 1.207024e-001
<MEAN> 9
 -2.674242e+000 -9.842088e+000 4.088221e-001 3.178362e+000 -4.958255e-001 7.171559e-002 -2.066632e-002 3.680670e-001 1.700844e-001
<VARIANCE> 9
 1.491142e-001 3.371764e-001 6.976298e-002 2.977951e+001 3.680466e+001 1.210095e+002 4.762525e-004 5.782502e-004 1.938003e-004
<GCONST> -9.703841e-001
<MIXTURE> 3 2.807155e-001
<MEAN> 9
 -2.681832e+000 -9.842839e+000 3.715969e-001 3.143191e+000 -7.680982e-001 1.580957e-001 -2.089220e-002 3.669207e-001 1.674162e-001
<VARIANCE> 9
 1.491142e-001 3.371764e-001 6.976298e-002 2.977951e+001 3.680466e+001 1.210095e+002 4.762525e-004 5.782502e-004 1.938003e-004
<GCONST> -9.703841e-001
<MIXTURE> 4 2.412471e-001
<MEAN> 9
 -2.681340e+000 -9.842967e+000 3.720074e-001 3.138737e+000 -8.177393e-001 1.636676e-001 -2.093561e-002 3.668323e-001 1.672852e-001
<VARIANCE> 9
 1.491142e-001 3.371764e-001 6.976298e-002 2.977951e+001 3.680466e+001 1.210095e+002 4.762525e-004 5.782502e-004 1.938003e-004
<GCONST> -9.703841e-001
<MIXTURE> 5 1.227689e-001
<MEAN> 9
 -2.686541e+000 -9.843223e+000 3.603075e-001 3.114933e+000 -9.995285e-001 1.947820e-001 -2.115387e-002 3.662167e-001 1.665481e-001
<VARIANCE> 9
 1.491142e-001 3.371764e-001 6.976298e-002 2.977951e+001 3.680466e+001 1.210095e+002 4.762525e-004 5.782502e-004 1.938003e-004
<GCONST> -9.703841e-001
<STATE> 6
<NUMMIXES> 5
<MIXTURE> 1 2.716885e-001
<MEAN> 9
 -3.126909e+000 -9.711478e+000 -3.537503e-002 3.310083e+000 5.932231e-002 1.474605e-001 1.843707e-003 3.690761e-001 2.141935e-001
<VARIANCE> 9
 1.491142e-001 3.371764e-001 6.976298e-002 2.977951e+001 3.680466e+001 1.210095e+002 4.762525e-004 5.782502e-004 2.521594e-004
<GCONST> -7.071509e-001
<MIXTURE> 2 2.417446e-001
<MEAN> 9
 -3.114673e+000 -9.714046e+000 -5.213512e-002 3.269205e+000 1.156771e-001 1.689214e-001 7.697815e-005 3.688684e-001 2.051477e-001
<VARIANCE> 9
 1.491142e-001 3.371764e-001 6.976298e-002 2.977951e+001 3.680466e+001 1.210095e+002 4.762525e-004 5.782502e-004 2.878617e-004
<GCONST> -5.747323e-001
<MIXTURE> 3 1.217723e-001
<MEAN> 9
 -3.113382e+000 -9.714683e+000 -3.156123e-002 3.287924e+000 1.961206e-001 1.754699e-001 1.066100e-003 3.697184e-001 2.096457e-001
<VARIANCE> 9
 1.491142e-001 3.371764e-001 6.976298e-002 2.977951e+001 3.680466e+001 1.210095e+002 4.762525e-004 5.782502e-004 2.941590e-004
<GCONST> -5.530915e-001
<MIXTURE> 4 2.440616e-001
<MEAN> 9
 -3.131731e+000 -9.705685e+000 -1.122085e-001 3.260397e+000 1.409100e-001 1.497966e-001 -4.137977e-004 3.686193e-001 1.965809e-001
<VARIANCE> 9
 1.491142e-001 3.371764e-001 6.976298e-002 2.977951e+001 3.680466e+001 1.210095e+002 4.762525e-004 5.782502e-004 2.237682e-004
<GCONST> -8.266015e-001
<MIXTURE> 5 1.207332e-001
<MEAN> 9
 -3.136403e+000 -9.705951e+000 -1.012383e-001 3.267533e+000 -4.752874e-004 1.364563e-001 -3.615534e-005 3.679681e-001 2.015083e-001
<VARIANCE> 9
 1.491142e-001 3.371764e-001 6.976298e-002 2.977951e+001 3.680466e+001 1.210095e+002 4.762525e-004 5.782502e-004 2.829571e-004
<GCONST> -5.919175e-001
<STATE> 7
<NUMMIXES> 5
<MIXTURE> 1 1.484106e-001
<MEAN> 9
 -5.720172e+000 -1.055898e+001 2.245709e+000 1.924690e+001 2.377472e+001 4.697385e+001 1.151160e-002 3.709148e-001 1.969353e-001
<VARIANCE> 9
 7.303310e-001 3.371764e-001 2.755689e+000 2.428772e+002 1.158899e+003 5.454268e+002 4.762525e-004 5.782502e-004 6.433660e-004
<GCONST> 1.254864e+001
<MIXTURE> 2 2.602902e-001
<MEAN> 9
 -3.713381e+000 -9.864873e+000 9.895194e-001 2.631207e+000 -8.707600e+000 5.733052e+000 -1.647696e-002 3.661021e-001 1.929725e-001
<VARIANCE> 9
 1.422576e+000 3.371764e-001 6.179026e-001 2.977951e+001 6.366847e+002 1.210095e+002 5.469201e-004 5.782502e-004 4.229831e-004
<GCONST> 7.235863e+000
<MIXTURE> 3 2.195653e-001
<MEAN> 9
 -5.404474e+000 -9.948869e+000 1.160426e+000 9.462769e+000 -2.299460e+001 2.245475e+001 -7.599965e-003 3.705554e-001 2.002869e-001
<VARIANCE> 9
 9.112499e-001 3.371764e-001 6.168711e-001 5.145685e+001 8.509764e+002 3.829709e+002 7.493393e-004 5.782502e-004 8.558895e-004
<GCONST> 9.797606e+000
<MIXTURE> 4 2.296080e-001
<MEAN> 9
 -4.130382e+000 -9.794543e+000 1.047182e+000 1.088139e+000 -2.619106e+001 5.253556e+000 -2.281317e-002 3.647437e-001 1.877331e-001
<VARIANCE> 9
 2.688881e+000 3.371764e-001 8.833675e-001 2.977951e+001 1.584909e+003 1.210095e+002 5.678553e-004 5.782502e-004 1.964815e-004
<GCONST> 8.412737e+000
<MIXTURE> 5 1.421257e-001
<MEAN> 9
 -6.024578e+000 -1.053473e+001 1.562927e+000 1.134762e+001 1.930989e+000 4.761691e+001 -2.429755e-003 3.699631e-001 1.881157e-001
<VARIANCE> 9
 8.273492e-001 3.371764e-001 1.192896e+000 1.381963e+002 1.739260e+003 5.835128e+002 5.837005e-004 5.782502e-004 7.551940e-004
<GCONST> 1.210939e+001
<TRANSP> 8
 0.000000e+000 1.000000e+000 0.000000e+000 0.000000e+000 0.000000e+000 0.000000e+000 0.000000e+000 0.000000e+000
 0.000000e+000 7.863556e-001 2.136445e-001 0.000000e+000 0.000000e+000 0.000000e+000 0.000000e+000 0.000000e+000
 0.000000e+000 0.000000e+000 9.068210e-001 9.317898e-002 0.000000e+000 0.000000e+000 0.000000e+000 0.000000e+000
 0.000000e+000 0.000000e+000 0.000000e+000 9.660868e-001 3.391314e-002 0.000000e+000 0.000000e+000 0.000000e+000
 0.000000e+000 0.000000e+000 0.000000e+000 0.000000e+000 9.513546e-001 4.864544e-002 0.000000e+000 0.000000e+000
 0.000000e+000 0.000000e+000 0.000000e+000 0.000000e+000 0.000000e+000 9.767839e-001 2.321614e-002 0.000000e+000
 0.000000e+000 0.000000e+000 0.000000e+000 0.000000e+000 0.000000e+000 0.000000e+000 6.950792e-001 3.049208e-001
 0.000000e+000 0.000000e+000 0.000000e+000 0.000000e+000 0.000000e+000 0.000000e+000 0.000000e+000 0.000000e+000
<ENDHMM>
~h "HAU"
<BEGINHMM>
<NUMSTATES> 8
<STATE> 2
<NUMMIXES> 5
<MIXTURE> 1 1.709764e-001
<MEAN> 9
 -7.305169e+000 -1.044589e+001 3.016161e+000 2.587262e+001 -1.028950e+002 2.219866e+002 2.412602e-001 3.499691e-001 1.981892e-001
<VARIANCE> 9
 7.525375e-001 8.230082e-001 1.127119e+000 5.413743e+002 4.959716e+003 5.468405e+002 1.518171e-003 5.782502e-004 1.421082e-003
<GCONST> 1.678675e+001
<MIXTURE> 2 2.453782e-001
<MEAN> 9
 -5.792655e+000 -1.134278e+001 1.407861e+000 1.918210e+000 -1.502350e+002 9.853178e+001 3.520765e-002 3.774895e-001 2.382460e-001
<VARIANCE> 9
 1.665780e+000 3.371764e-001 2.442427e-001 6.309631e+001 3.968788e+003 9.138917e+002 1.094203e-003 5.782502e-004 4.449838e-004
<GCONST> 1.181233e+001
<MIXTURE> 3 2.413474e-001
<MEAN> 9
 -7.607902e+000 -1.219007e+001 1.773929e+000 4.952562e+000 -1.587194e+002 1.886376e+002 1.281121e-001 3.765665e-001 2.260667e-001
<VARIANCE> 9
 1.236355e+000 5.346045e-001 7.440817e-001 1.703336e+002 1.060648e+004 8.101029e+002 1.275289e-003 5.782502e-004 4.738010e-004
<GCONST> 1.516056e+001
<MIXTURE> 4 2.127557e-001
<MEAN> 9
 -6.943048e+000 -1.138622e+001 1.145370e+000 2.354273e+000 -2.103311e+002 8.915086e+001 2.621206e-002 3.767596e-001 2.200081e-001
<VARIANCE> 9
 3.864320e+000 4.790859e-001 2.538712e-001 3.988649e+001 5.185833e+003 1.820708e+003 1.000409e-003 5.782502e-004 1.938003e-004
<GCONST> 1.262105e+001
<MIXTURE> 5 1.295421e-001
<MEAN> 9
 -7.587665e+000 -1.075703e+001 2.463943e+000 1.530747e+001 -9.581339e+001 2.069802e+002 2.158328e-001 3.548877e-001 2.185151e-001
<VARIANCE> 9
 1.028874e+000 9.159259e-001 1.025341e+000 4.855249e+002 5.338103e+003 6.645268e+002 1.680323e-003 5.782502e-004 1.273477e-003
<GCONST> 1.726322e+001
<STATE> 3
<NUMMIXES> 5
<MIXTURE> 1 1.276633e-001
<MEAN> 9
 -6.311010e+000 -5.397527e-001 1.230616e+000 3.315354e+001 1.001181e+002 2.180230e+002 5.076778e-001 1.026917e-002 1.949599e-001
<VARIANCE> 9
 2.900547e+000 2.236418e+000 1.608766e+000 1.026711e+003 4.079645e+003 1.978032e+003 4.762525e-004 4.770972e-003 1.600421e-003
<GCONST> 2.229162e+001
<MIXTURE> 2 2.698019e-001
<MEAN> 9
 -8.245312e+000 -5.815019e+000 3.425811e+000 6.034398e+001 3.142427e+001 2.395896e+002 4.108140e-001 2.277972e-001 1.408142e-001
<VARIANCE> 9
 5.860103e-001 3.207287e+000 7.343132e-001 2.915139e+002 2.674965e+003 3.763860e+002 2.833436e-003 3.415423e-003 8.506108e-004
<GCONST> 1.774520e+001
<MIXTURE> 3 2.189811e-001
<MEAN> 9
 -8.299490e+000 -6.708105e+000 2.224971e+000 1.458078e+001 -2.187511e+001 1.971721e+002 3.765923e-001 2.608806e-001 2.169255e-001
<VARIANCE> 9
 2.922670e-001 2.976980e+000 6.972904e-001 5.119089e+002 3.356663e+002 6.229346e+002 3.047986e-003 3.127745e-003 1.685440e-003
<GCONST> 1.658342e+001
<MIXTURE> 4 2.657155e-001
<MEAN> 9
 -6.367515e+000 1.316313e-001 1.144058e+000 2.428123e+001 5.328702e+001 1.642180e+002 5.083868e-001 -3.789337e-003 2.005919e-001
<VARIANCE> 9
 1.674455e+000 3.167119e+000 1.468863e+000 7.134911e+002 4.301194e+003 2.935779e+003 4.762525e-004 5.427507e-003 1.162887e-003
<GCONST> 2.189255e+001
<MIXTURE> 5 1.178380e-001
<MEAN> 9
 -6.494178e+000 -5.925863e-001 1.200070e+000 3.172842e+001 7.516328e+001 1.989789e+002 5.051943e-001 1.618299e-002 1.948441e-001
<VARIANCE> 9
 2.605651e+000 2.626521e+000 1.627916e+000 9.741454e+002 4.976129e+003 2.748031e+003 4.762525e-004 5.886821e-003 1.600871e-003
<GCONST> 2.304233e+001
<STATE> 4
<NUMMIXES> 5
<MIXTURE> 1 1.885584e-001
<MEAN> 9
 -6.909591e+000 2.809880e+000 2.121434e+000 5.076697e+000 6.690172e+000 9.121984e+000 5.086579e-001 -8.603871e-002 2.429496e-001
<VARIANCE> 9
 1.467079e+001 5.670727e-001 4.812546e-001 1.747142e+002 6.596046e+002 3.472560e+003 4.762525e-004 1.381310e-003 2.843286e-004
<GCONST> 1.533590e+001
<MIXTURE> 2 1.910645e-001
<MEAN> 9
 -8.533729e+000 3.818924e+000 1.927320e+000 6.432544e+000 -9.866273e-002 -1.019010e+001 5.031825e-001 -1.101528e-001 2.480445e-001
<VARIANCE> 9
 1.351758e+000 1.253227e+000 9.523905e-002 3.656097e+001 5.359627e+001 1.674664e+002 4.762525e-004 2.725048e-003 1.938003e-004
<GCONST> 5.314385e+000
<MIXTURE> 3 2.312176e-001
<MEAN> 9
 -7.778400e+000 4.369593e+000 1.829047e+000 6.941316e+000 -5.530709e+000 -1.131825e+001 4.967739e-001 -1.437532e-001 2.461496e-001
<VARIANCE> 9
 2.229762e+000 1.122821e+000 8.968268e-002 4.554559e+001 1.255298e+002 3.797176e+002 4.762525e-004 2.532717e-003 1.938003e-004
<GCONST> 7.461135e+000
<MIXTURE> 4 1.908723e-001
<MEAN> 9
 -6.625417e+000 3.002725e+000 2.007504e+000 -6.343627e-002 -9.390242e+000 1.082564e+000 5.043164e-001 -1.035145e-001 2.510089e-001
<VARIANCE> 9
 2.063706e+001 5.869374e-001 7.043123e-001 2.385313e+002 7.503431e+002 4.758860e+003 4.762525e-004 2.123421e-003 1.938003e-004
<GCONST> 1.689443e+001
<MIXTURE> 5 1.982869e-001
<MEAN> 9
 -8.531621e+000 3.818621e+000 1.833349e+000 5.311426e+000 -2.307656e+000 -1.147890e+001 5.029477e-001 -1.105161e-001 2.452895e-001
<VARIANCE> 9
 1.519972e+000 1.274989e+000 7.984001e-002 3.789360e+001 6.948824e+001 1.617632e+002 4.762525e-004 2.821611e-003 1.938003e-004
<GCONST> 5.568173e+000
<STATE> 5
<NUMMIXES> 5
<MIXTURE> 1 2.690796e-001
<MEAN> 9
 -6.890131e+000 1.720217e+000 2.051678e+000 2.759641e+001 -5.558303e+001 -8.255992e+001 5.128768e-001 -5.341869e-002 2.246822e-001
<VARIANCE> 9
 1.569915e+000 3.371764e-001 5.046875e-001 1.416397e+002 1.035027e+003 1.014909e+003 4.762525e-004 1.464722e-003 4.881403e-004
<GCONST> 1.223842e+001
<MIXTURE> 2 2.272537e-001
<MEAN> 9
 -7.302121e+000 -8.543998e-003 1.916201e+000 1.824078e+001 -3.601795e+001 -1.543764e+002 5.076323e-001 5.129877e-002 1.710826e-001
<VARIANCE> 9
 1.669927e+000 3.371764e-001 4.543407e-001 1.144819e+002 6.631771e+002 1.060810e+003 4.762525e-004 9.981176e-004 5.095826e-004
<GCONST> 1.124074e+001
<MIXTURE> 3 1.264199e-001
<MEAN> 9
 -7.518066e+000 -1.295670e+000 2.100384e+000 8.806684e+000 -7.876141e+000 -1.611903e+002 4.929287e-001 1.094210e-001 1.635382e-001
<VARIANCE> 9
 2.343298e+000 7.094190e-001 3.229317e-001 7.372607e+001 1.752829e+003 1.302313e+003 4.762525e-004 1.313925e-003 6.016565e-004
<GCONST> 1.315995e+001
<MIXTURE> 4 2.400263e-001
<MEAN> 9
 -6.299013e+000 1.088036e+000 1.649040e+000 3.163205e+001 -7.101003e+001 -1.234394e+002 5.158434e-001 -1.899549e-002 2.017138e-001
<VARIANCE> 9
 1.860543e+000 3.371764e-001 2.787269e-001 1.217553e+002 7.145836e+002 1.426639e+003 4.762525e-004 1.296753e-003 4.982277e-004
<GCONST> 1.153197e+001
<MIXTURE> 5 1.372206e-001
<MEAN> 9
 -7.522679e+000 -1.405070e+000 1.952722e+000 5.807465e+000 -1.845391e+001 -1.715389e+002 4.881209e-001 1.187593e-001 1.530848e-001
<VARIANCE> 9
 2.561865e+000 6.535318e-001 3.157593e-001 9.054524e+001 1.969204e+003 9.860236e+002 4.762525e-004 1.109024e-003 1.013338e-003
<GCONST> 1.354006e+001
<STATE> 6
<NUMMIXES> 5
<MIXTURE> 1 1.268472e-001
<MEAN> 9
 -7.568219e+000 -8.345687e+000 1.263713e+000 2.881408e+001 5.923786e+001 -1.333392e+002 2.364138e-001 3.497297e-001 2.145650e-001
<VARIANCE> 9
 8.669025e-001 2.136820e+000 9.143759e-001 1.466552e+002 4.261423e+002 1.794900e+003 4.937625e-003 6.441244e-004 3.206291e-004
<GCONST> 1.489972e+001
<MIXTURE> 2 2.004738e-001
<MEAN> 9
 -9.028008e+000 -4.856862e+000 1.905262e+000 1.177400e+001 4.323334e+001 -1.703323e+002 4.010517e-001 2.390810e-001 1.881209e-001
<VARIANCE> 9
 2.827460e+000 2.169918e+000 1.608619e+000 2.038855e+002 2.835153e+003 2.621508e+003 2.980280e-003 2.971229e-003 7.321506e-004
<GCONST> 2.111521e+001
<MIXTURE> 3 2.682324e-001
<MEAN> 9
 -8.866266e+000 -4.670932e+000 2.669661e+000 2.231702e+000 1.095357e+001 -1.687161e+002 3.970229e-001 2.441531e-001 1.488340e-001
<VARIANCE> 9
 1.994159e+000 2.413995e+000 9.645360e-001 1.201755e+002 1.072503e+003 8.228807e+002 2.849754e-003 2.442514e-003 1.719326e-003
<GCONST> 1.831473e+001
<MIXTURE> 4 2.758549e-001
<MEAN> 9
 -7.878375e+000 -9.529890e+000 7.502374e-001 2.779924e+001 6.260977e+001 -1.759709e+002 2.143737e-001 3.531888e-001 2.059736e-001
<VARIANCE> 9
 1.374637e+000 4.278903e+000 1.983555e+000 5.567789e+002 7.186435e+002 1.445534e+003 8.475670e-003 9.239584e-004 1.327185e-003
<GCONST> 2.079135e+001
<MIXTURE> 5 1.285916e-001
<MEAN> 9
 -7.915765e+000 -8.738107e+000 9.515061e-001 2.492208e+001 5.341555e+001 -1.555483e+002 2.303870e-001 3.492863e-001 2.075465e-001
<VARIANCE> 9
 1.083212e+000 2.939435e+000 1.035207e+000 2.206796e+002 5.472156e+002 1.445931e+003 6.253932e-003 8.019289e-004 5.466873e-004
<GCONST> 1.699704e+001
<STATE> 7
<NUMMIXES> 5
<MIXTURE> 1 2.023709e-001
<MEAN> 9
 -5.257221e+000 -1.000855e+001 1.111074e+000 1.339822e+001 6.113216e+001 -9.217375e+001 8.495829e-002 3.774143e-001 2.003572e-001
<VARIANCE> 9
 7.722628e-001 3.371764e-001 1.224978e-001 1.025391e+002 8.748365e+002 7.924027e+002 2.149984e-003 5.782502e-004 1.938003e-004
<GCONST> 9.028522e+000
<MIXTURE> 2 3.326883e-001
<MEAN> 9
 -4.392227e+000 -1.005062e+001 1.311022e+000 -6.306689e+000 5.528265e+001 -4.407445e+001 1.256058e-002 3.750634e-001 1.840118e-001
<VARIANCE> 9
 7.940885e-001 3.371764e-001 3.275492e-001 6.308740e+001 7.887293e+002 4.097786e+002 5.175977e-004 5.782502e-004 1.938003e-004
<GCONST> 7.367131e+000
<MIXTURE> 3 1.326919e-001
<MEAN> 9
 -5.328751e+000 -1.041142e+001 1.669997e+000 3.250493e+000 9.781100e+001 -7.200969e+001 4.373876e-002 3.763871e-001 1.771041e-001
<VARIANCE> 9
 1.171206e+000 3.371764e-001 1.072060e+000 8.246227e+001 8.823201e+002 1.769370e+003 2.506791e-003 5.782502e-004 1.938003e-004
<GCONST> 1.236170e+001
<MIXTURE> 4 2.002275e-001
<MEAN> 9
 -4.892524e+000 -1.021991e+001 1.115984e+000 1.616629e+000 5.321347e+001 -7.017108e+001 4.329665e-002 3.764323e-001 1.907578e-001
<VARIANCE> 9
 1.197538e+000 3.371764e-001 1.161713e-001 1.579469e+002 6.846940e+002 1.233485e+003 1.960410e-003 5.782502e-004 1.938003e-004
<GCONST> 9.951367e+000
<MIXTURE> 5 1.320218e-001
<MEAN> 9
 -6.035954e+000 -1.068655e+001 1.065131e+000 1.872517e+000 9.580523e+001 -9.696196e+001 6.013516e-002 3.743186e-001 1.718671e-001
<VARIANCE> 9
 4.819145e-001 3.371764e-001 1.559183e+000 1.076664e+002 9.680231e+002 1.187795e+003 3.011962e-003 5.782502e-004 1.938003e-004
<GCONST> 1.199272e+001
<TRANSP> 8
 0.000000e+000 1.000000e+000 0.000000e+000 0.000000e+000 0.000000e+000 0.000000e+000 0.000000e+000 0.000000e+000
 0.000000e+000 9.178051e-001 8.219495e-002 0.000000e+000 0.000000e+000 0.000000e+000 0.000000e+000 0.000000e+000
 0.000000e+000 0.000000e+000 9.399866e-001 6.001335e-002 0.000000e+000 0.000000e+000 0.000000e+000 0.000000e+000
 0.000000e+000 0.000000e+000 0.000000e+000 9.587556e-001 4.124442e-002 0.000000e+000 0.000000e+000 0.000000e+000
 0.000000e+000 0.000000e+000 0.000000e+000 0.000000e+000 9.110064e-001 8.899366e-002 0.000000e+000 0.000000e+000
 0.000000e+000 0.000000e+000 0.000000e+000 0.000000e+000 0.000000e+000 9.422755e-001 5.772448e-002 0.000000e+000
 0.000000e+000 0.000000e+000 0.000000e+000 0.000000e+000 0.000000e+000 0.000000e+000 9.181534e-001 8.184661e-002
 0.000000e+000 0.000000e+000 0.000000e+000 0.000000e+000 0.000000e+000 0.000000e+000 0.000000e+000 0.000000e+000
<ENDHMM>
