~o
<STREAMINFO> 1 9
<VECSIZE> 9<NULLD><USER><DIAGC>
~h "GA"
<BEGINHMM>
<NUMSTATES> 8
<STATE> 2
<MEAN> 9
 -8.293242e+000 -9.710477e+000 2.648567e-001 1.040751e+001 1.183500e+000 1.420077e+002 1.067164e-001 3.622465e-001 1.641787e-001
<VARIANCE> 9
 5.284916e+000 1.250207e+000 2.209085e+000 8.461089e+002 4.268215e+003 5.894582e+003 1.070827e-002 5.782502e-004 2.648896e-004
<GCONST> 2.277459e+001
<STATE> 3
<MEAN> 9
 -8.071121e+000 -7.392416e-001 -9.014317e-001 -1.133494e+002 -1.158192e+000 1.409740e+002 4.726370e-001 4.027580e-002 2.296916e-001
<VARIANCE> 9
 2.009627e+000 8.229650e+000 1.123363e+001 1.952989e+003 1.108034e+003 8.682732e+003 3.013596e-003 2.184519e-002 2.040140e-003
<GCONST> 2.959891e+001
<STATE> 4
<MEAN> 9
 -7.817187e+000 3.993716e+000 3.157516e+000 -2.160073e+001 -8.755681e+001 5.066458e+001 4.819981e-001 -1.906143e-001 1.539415e-001
<VARIANCE> 9
 1.372507e+001 2.695912e+000 3.022052e+000 4.376820e+002 2.132150e+004 1.746126e+003 1.732217e-003 2.534862e-003 1.240609e-002
<GCONST> 2.804638e+001
<STATE> 5
<MEAN> 9
 -1.347856e+000 4.141615e+000 7.474631e+000 -9.536482e-002 -2.542985e+001 -4.040523e+001 3.189840e-001 -2.095399e-001 -1.848797e-001
<VARIANCE> 9
 1.445212e+001 2.038546e+000 1.058709e+000 1.876082e+002 1.975639e+003 6.852055e+003 3.709344e-003 7.463678e-003 3.214551e-003
<GCONST> 2.540165e+001
<STATE> 6
<MEAN> 9
 -5.472141e+000 -2.436157e+000 5.470266e+000 -6.657300e+001 7.269448e+001 -1.866122e+002 3.744155e-001 9.897669e-002 -1.115956e-001
<VARIANCE> 9
 7.301765e+000 1.127515e+001 8.043529e-001 7.171091e+002 1.360179e+003 3.591735e+003 2.184383e-003 1.888008e-002 5.794142e-003
<GCONST> 2.746391e+001
<STATE> 7
<MEAN> 9
 -6.729423e+000 -1.072576e+001 2.658640e+000 -4.407802e+001 1.077629e+002 -1.247551e+002 6.004277e-002 3.632785e-001 1.461406e-001
<VARIANCE> 9
 3.887743e+000 1.279957e+000 1.871943e+000 7.306841e+002 3.350234e+003 7.259986e+003 1.079232e-002 5.782502e-004 1.640743e-003
<GCONST> 2.397639e+001
<TRANSP> 8
 0.000000e+000 1.000000e+000 0.000000e+000 0.000000e+000 0.000000e+000 0.000000e+000 0.000000e+000 0.000000e+000
 0.000000e+000 9.374011e-001 6.259894e-002 0.000000e+000 0.000000e+000 0.000000e+000 0.000000e+000 0.000000e+000
 0.000000e+000 0.000000e+000 9.537045e-001 4.629554e-002 0.000000e+000 0.000000e+000 0.000000e+000 0.000000e+000
 0.000000e+000 0.000000e+000 0.000000e+000 9.509623e-001 4.903773e-002 0.000000e+000 0.000000e+000 0.000000e+000
 0.000000e+000 0.000000e+000 0.000000e+000 0.000000e+000 9.741073e-001 2.589274e-002 0.000000e+000 0.000000e+000
 0.000000e+000 0.000000e+000 0.000000e+000 0.000000e+000 0.000000e+000 9.395571e-001 6.044285e-002 0.000000e+000
 0.000000e+000 0.000000e+000 0.000000e+000 0.000000e+000 0.000000e+000 0.000000e+000 9.457363e-001 5.426367e-002
 0.000000e+000 0.000000e+000 0.000000e+000 0.000000e+000 0.000000e+000 0.000000e+000 0.000000e+000 0.000000e+000
<ENDHMM>
~h "GM"
<BEGINHMM>
<NUMSTATES> 8
<STATE> 2
<MEAN> 9
 -8.841440e+000 -9.028991e+000 -5.577588e-002 -1.462664e+001 -3.059286e+001 1.674922e+002 1.746192e-001 3.448331e-001 2.005431e-001
<VARIANCE> 9
 4.124983e+000 5.754324e+000 2.196174e+000 7.153057e+002 5.798614e+003 6.909117e+003 1.907757e-002 2.084991e-003 3.260061e-004
<GCONST> 2.641248e+001
<STATE> 3
<MEAN> 9
 -7.173701e+000 2.732269e-001 4.830082e-001 -8.809078e+001 -1.846440e+001 1.210396e+002 5.025887e-001 8.436893e-003 2.106619e-001
<VARIANCE> 9
 1.488327e+000 3.059677e+000 6.863343e+000 1.217721e+003 5.275892e+002 6.154951e+003 8.665642e-004 1.168245e-002 1.085047e-003
<GCONST> 2.375434e+001
<STATE> 4
<MEAN> 9
 -8.782824e+000 3.525874e+000 2.282615e+000 -4.077529e+000 2.125274e+001 3.448049e+001 5.106813e-001 -1.368549e-001 2.227242e-001
<VARIANCE> 9
 1.285294e+000 2.884072e+000 3.048790e+000 5.719093e+002 3.617928e+002 5.673646e+002 4.762525e-004 2.187436e-003 9.575162e-004
<GCONST> 1.682113e+001
<STATE> 5
<MEAN> 9
 -7.839455e+000 4.221652e+000 3.452709e+000 -3.032049e+001 6.574334e+000 4.776506e+000 4.558804e-001 -2.661920e-001 2.255299e-001
<VARIANCE> 9
 5.040179e+000 7.323976e+000 2.001830e+001 4.212924e+003 1.422713e+003 3.199644e+002 4.762525e-004 8.300812e-004 2.950731e-003
<GCONST> 2.395132e+001
<STATE> 6
<MEAN> 9
 -7.398021e+000 1.765286e-001 1.683404e+000 1.342596e+002 -6.733463e+001 -1.512732e+002 4.879227e-001 -1.307527e-001 1.391255e-001
<VARIANCE> 9
 1.977507e+000 1.429633e+000 6.268732e+000 1.695111e+003 1.563024e+003 8.376632e+003 7.003697e-004 2.133331e-002 3.777563e-003
<GCONST> 2.654875e+001
<STATE> 7
<MEAN> 9
 -8.368093e+000 -9.463374e+000 2.020184e+000 -1.792015e+001 7.671062e+001 -1.672084e+002 1.365815e-001 3.413344e-001 1.178402e-001
<VARIANCE> 9
 6.716938e+000 6.146255e+000 1.636089e+000 1.190141e+003 4.934637e+003 1.162154e+004 2.395033e-002 2.915573e-003 2.871004e-003
<GCONST> 3.027760e+001
<TRANSP> 8
 0.000000e+000 1.000000e+000 0.000000e+000 0.000000e+000 0.000000e+000 0.000000e+000 0.000000e+000 0.000000e+000
 0.000000e+000 9.452500e-001 5.475003e-002 0.000000e+000 0.000000e+000 0.000000e+000 0.000000e+000 0.000000e+000
 0.000000e+000 0.000000e+000 9.429002e-001 5.709983e-002 0.000000e+000 0.000000e+000 0.000000e+000 0.000000e+000
 0.000000e+000 0.000000e+000 0.000000e+000 9.539116e-001 4.608843e-002 0.000000e+000 0.000000e+000 0.000000e+000
 0.000000e+000 0.000000e+000 0.000000e+000 0.000000e+000 9.811330e-001 1.886700e-002 0.000000e+000 0.000000e+000
 0.000000e+000 0.000000e+000 0.000000e+000 0.000000e+000 0.000000e+000 9.511869e-001 4.881314e-002 0.000000e+000
 0.000000e+000 0.000000e+000 0.000000e+000 0.000000e+000 0.000000e+000 0.000000e+000 9.574756e-001 4.252439e-002
 0.000000e+000 0.000000e+000 0.000000e+000 0.000000e+000 0.000000e+000 0.000000e+000 0.000000e+000 0.000000e+000
<ENDHMM>
~h "GN"
<BEGINHMM>
<NUMSTATES> 8
<STATE> 2
<MEAN> 9
 -8.722979e+000 -9.636172e+000 -2.445567e-001 5.547517e+000 1.448325e+001 1.797824e+002 1.288440e-001 3.551620e-001 1.851057e-001
<VARIANCE> 9
 4.411497e+000 5.748659e+000 7.296440e+000 1.166158e+003 5.015206e+003 7.176354e+003 1.717254e-002 8.639975e-004 3.994189e-004
<GCONST> 2.727782e+001
<STATE> 3
<MEAN> 9
 -9.208041e+000 -8.289628e-001 2.322197e+000 -6.943668e+001 -2.673853e+001 8.738865e+001 5.001505e-001 8.004144e-003 2.128484e-001
<VARIANCE> 9
 1.140697e+001 9.571688e+000 3.021294e+001 1.283905e+004 1.786547e+003 7.451336e+003 1.381336e-003 1.113037e-002 4.563203e-003
<GCONST> 3.403412e+001
<STATE> 4
<MEAN> 9
 -3.623502e+000 4.984972e+000 -1.613647e-001 3.058275e+001 -3.521410e+001 2.912369e+001 4.649380e-001 -2.443373e-001 1.564036e-001
<VARIANCE> 9
 7.811866e+000 1.136752e+000 1.876007e+000 5.425013e+003 2.726455e+003 9.876467e+003 1.152309e-003 3.579614e-003 1.992952e-003
<GCONST> 2.644468e+001
<STATE> 5
<MEAN> 9
 -7.049630e+000 2.065493e-001 5.062778e+000 -2.422722e+001 8.262275e-001 -8.167270e+001 4.789547e-001 4.927135e-002 6.670863e-003
<VARIANCE> 9
 9.156421e+000 4.808070e+000 9.883588e+000 4.547293e+003 2.125033e+003 7.732047e+003 4.762525e-004 9.311209e-003 6.348182e-004
<GCONST> 2.796521e+001
<STATE> 6
<MEAN> 9
 -9.008964e+000 -7.887795e+000 2.912703e+000 -2.515197e+001 4.881371e+001 -1.815039e+002 2.939727e-001 3.059859e-001 1.325969e-001
<VARIANCE> 9
 1.770180e+000 9.850037e+000 1.273515e+000 9.823307e+002 1.269488e+003 9.802220e+002 1.188213e-002 3.911275e-003 1.674953e-003
<GCONST> 2.419673e+001
<STATE> 7
<MEAN> 9
 -5.112178e+000 -1.039321e+001 2.240741e+000 -3.805322e+000 7.585979e+001 -5.758379e+001 2.945627e-002 3.703348e-001 1.999449e-001
<VARIANCE> 9
 3.057064e+000 6.818369e-001 1.921202e+000 2.974582e+002 2.875292e+003 1.492599e+003 2.879794e-003 5.782502e-004 2.602850e-004
<GCONST> 1.733652e+001
<TRANSP> 8
 0.000000e+000 1.000000e+000 0.000000e+000 0.000000e+000 0.000000e+000 0.000000e+000 0.000000e+000 0.000000e+000
 0.000000e+000 9.355981e-001 6.440195e-002 0.000000e+000 0.000000e+000 0.000000e+000 0.000000e+000 0.000000e+000
 0.000000e+000 0.000000e+000 9.650013e-001 3.499873e-002 0.000000e+000 0.000000e+000 0.000000e+000 0.000000e+000
 0.000000e+000 0.000000e+000 0.000000e+000 9.530498e-001 4.695024e-002 0.000000e+000 0.000000e+000 0.000000e+000
 0.000000e+000 0.000000e+000 0.000000e+000 0.000000e+000 9.646974e-001 3.530262e-002 0.000000e+000 0.000000e+000
 0.000000e+000 0.000000e+000 0.000000e+000 0.000000e+000 0.000000e+000 9.329571e-001 6.704301e-002 0.000000e+000
 0.000000e+000 0.000000e+000 0.000000e+000 0.000000e+000 0.000000e+000 0.000000e+000 9.364238e-001 6.357623e-002
 0.000000e+000 0.000000e+000 0.000000e+000 0.000000e+000 0.000000e+000 0.000000e+000 0.000000e+000 0.000000e+000
<ENDHMM>
~h "HE"
<BEGINHMM>
<NUMSTATES> 8
<STATE> 2
<MEAN> 9
 -1.054194e+001 -8.908216e+000 2.608530e+000 1.178014e+002 2.355244e+001 1.952715e+002 2.319599e-001 2.428184e-001 2.755463e-002
<VARIANCE> 9
 7.611450e+000 1.560130e+001 1.135021e+001 4.373292e+003 5.103798e+003 8.268996e+003 2.446161e-002 2.227675e-002 1.335236e-002
<GCONST> 3.785749e+001
<STATE> 3
<MEAN> 9
 4.074503e+000 3.766906e-001 3.747680e+000 1.552955e+001 -5.984198e+001 1.093177e+002 3.509865e-002 -2.398242e-001 -2.360226e-001
<VARIANCE> 9
 6.526203e+001 6.352028e+000 1.077937e+001 1.457464e+003 8.801759e+003 4.774984e+004 3.185871e-002 1.960253e-003 1.684582e-003
<GCONST> 3.601924e+001
<STATE> 4
<MEAN> 9
 -7.591104e+000 7.299507e+000 3.068961e+000 1.168937e+000 -3.391169e+000 -1.927650e+001 1.718636e-001 -3.053229e-001 -2.051349e-001
<VARIANCE> 9
 1.779166e+001 3.837436e+000 4.011509e+000 2.483464e+003 1.463437e+003 3.525785e+004 7.160005e-003 8.587582e-004 8.425635e-004
<GCONST> 2.865166e+001
<STATE> 5
<MEAN> 9
 6.941474e+000 2.243091e+000 5.610781e+000 -6.028078e-001 -4.882357e+000 -4.238970e+000 -8.584265e-002 -2.463407e-001 -2.462393e-001
<VARIANCE> 9
 2.048459e+001 3.480478e+000 1.433354e+000 1.759584e+003 8.351350e+002 3.950232e+004 5.137645e-003 2.507287e-003 5.290263e-004
<GCONST> 2.714811e+001
<STATE> 6
<MEAN> 9
 -6.130139e+000 4.503548e-001 3.646130e+000 -1.025002e+002 4.120971e+001 -1.729248e+002 2.089649e-001 -1.094216e-001 -2.383156e-001
<VARIANCE> 9
 7.395506e+000 1.932290e+001 1.696257e+000 5.048425e+003 3.448172e+003 4.274835e+003 5.925163e-003 2.935951e-002 1.748004e-003
<GCONST> 3.205845e+001
<STATE> 7
<MEAN> 9
 -6.773975e+000 -1.100159e+001 4.999926e+000 -1.063461e+002 8.722913e+000 -1.018927e+002 6.786034e-002 3.415023e-001 5.695015e-002
<VARIANCE> 9
 9.588587e+000 2.219759e+000 7.952166e+000 3.934455e+003 4.129181e+003 5.246979e+003 6.846720e-003 1.369381e-003 1.122477e-002
<GCONST> 3.077407e+001
<TRANSP> 8
 0.000000e+000 1.000000e+000 0.000000e+000 0.000000e+000 0.000000e+000 0.000000e+000 0.000000e+000 0.000000e+000
 0.000000e+000 9.565865e-001 4.341344e-002 0.000000e+000 0.000000e+000 0.000000e+000 0.000000e+000 0.000000e+000
 0.000000e+000 0.000000e+000 9.636842e-001 3.631578e-002 0.000000e+000 0.000000e+000 0.000000e+000 0.000000e+000
 0.000000e+000 0.000000e+000 0.000000e+000 9.536960e-001 4.630399e-002 0.000000e+000 0.000000e+000 0.000000e+000
 0.000000e+000 0.000000e+000 0.000000e+000 0.000000e+000 9.644900e-001 3.551000e-002 0.000000e+000 0.000000e+000
 0.000000e+000 0.000000e+000 0.000000e+000 0.000000e+000 0.000000e+000 9.564725e-001 4.352748e-002 0.000000e+000
 0.000000e+000 0.000000e+000 0.000000e+000 0.000000e+000 0.000000e+000 0.000000e+000 9.469005e-001 5.309954e-002
 0.000000e+000 0.000000e+000 0.000000e+000 0.000000e+000 0.000000e+000 0.000000e+000 0.000000e+000 0.000000e+000
<ENDHMM>
~h "SR"
<BEGINHMM>
<NUMSTATES> 8
<STATE> 2
<MEAN> 9
 -9.167625e+000 -1.019969e+001 5.169817e-001 -3.852531e+001 -1.342652e+002 1.861481e+002 2.071322e-001 3.174933e-001 2.211666e-001
<VARIANCE> 9
 3.588009e+000 2.620882e+000 1.990132e+000 2.332423e+003 9.235462e+003 9.399823e+003 2.962471e-002 6.717673e-003 2.832222e-004
<GCONST> 2.881268e+001
<STATE> 3
<MEAN> 9
 -4.763370e+000 -1.830994e+000 2.583743e+000 1.356030e+001 -1.398546e+001 -1.782348e+001 5.077871e-001 -6.031324e-002 1.944453e-001
<VARIANCE> 9
 7.928468e+000 8.927461e+000 5.064207e-001 5.738874e+003 9.815830e+002 3.354209e+004 4.762525e-004 1.001173e-002 1.628692e-003
<GCONST> 2.741130e+001
<STATE> 4
<MEAN> 9
 -1.133253e+001 -5.860970e+000 4.385632e+000 -2.497264e+001 -3.241917e+001 1.803411e+001 4.223827e-001 2.205634e-001 1.626360e-001
<VARIANCE> 9
 2.217311e+001 1.938523e+001 2.337690e+000 7.865124e+002 1.314128e+003 1.917582e+004 1.962073e-003 3.792518e-003 1.285803e-003
<GCONST> 2.869854e+001
<STATE> 5
<MEAN> 9
 -6.724972e+000 -4.386833e+000 3.960598e+000 1.927356e+001 7.702574e+000 -3.023524e+001 4.889895e-001 1.099954e-001 1.708060e-001
<VARIANCE> 9
 1.041191e+000 4.491523e-001 5.938479e-001 5.434989e+002 2.783545e+002 3.236856e+003 4.762525e-004 2.080446e-003 1.428345e-003
<GCONST> 1.489304e+001
<STATE> 6
<MEAN> 9
 -6.857570e+000 -7.725346e+000 1.174802e+000 4.559978e+001 1.052123e+002 -1.450205e+002 2.532603e-001 3.211051e-001 2.055281e-001
<VARIANCE> 9
 9.209697e-001 5.981705e+000 1.073586e+000 8.406721e+002 1.691463e+003 9.127246e+002 1.804680e-002 3.959985e-003 8.626079e-004
<GCONST> 2.270041e+001
<STATE> 7
<MEAN> 9
 -3.844502e+000 -1.014787e+001 1.290199e+000 -1.146003e+001 7.716678e+001 -3.564169e+001 -1.035019e-002 3.658037e-001 2.048233e-001
<VARIANCE> 9
 1.520118e+000 3.371764e-001 9.336618e-001 2.394218e+002 8.603535e+002 6.851461e+002 1.795537e-003 5.782502e-004 1.437751e-003
<GCONST> 1.424646e+001
<TRANSP> 8
 0.000000e+000 1.000000e+000 0.000000e+000 0.000000e+000 0.000000e+000 0.000000e+000 0.000000e+000 0.000000e+000
 0.000000e+000 9.513423e-001 4.865774e-002 0.000000e+000 0.000000e+000 0.000000e+000 0.000000e+000 0.000000e+000
 0.000000e+000 0.000000e+000 9.564489e-001 4.355114e-002 0.000000e+000 0.000000e+000 0.000000e+000 0.000000e+000
 0.000000e+000 0.000000e+000 0.000000e+000 9.498841e-001 5.011590e-002 0.000000e+000 0.000000e+000 0.000000e+000
 0.000000e+000 0.000000e+000 0.000000e+000 0.000000e+000 9.458704e-001 5.412966e-002 0.000000e+000 0.000000e+000
 0.000000e+000 0.000000e+000 0.000000e+000 0.000000e+000 0.000000e+000 9.517815e-001 4.821848e-002 0.000000e+000
 0.000000e+000 0.000000e+000 0.000000e+000 0.000000e+000 0.000000e+000 0.000000e+000 9.317850e-001 6.821498e-002
 0.000000e+000 0.000000e+000 0.000000e+000 0.000000e+000 0.000000e+000 0.000000e+000 0.000000e+000 0.000000e+000
<ENDHMM>
~h "TK"
<BEGINHMM>
<NUMSTATES> 8
<STATE> 2
<MEAN> 9
 -8.876701e+000 -1.022162e+001 -2.314139e+000 -4.918643e+001 5.817257e+001 1.719651e+002 1.165117e-001 3.610773e-001 2.051756e-001
<VARIANCE> 9
 3.102493e+000 1.698979e+000 6.611784e+000 3.771345e+003 3.484138e+003 7.768241e+003 1.250115e-002 6.750480e-004 3.659477e-003
<GCONST> 2.814784e+001
<STATE> 3
<MEAN> 9
 -6.910415e+000 -1.462235e+000 -3.674367e+000 -1.796198e+002 2.088685e+001 1.626909e+002 4.053121e-001 1.226240e-002 4.315891e-001
<VARIANCE> 9
 2.903284e+000 1.197131e+001 2.853346e+000 8.469033e+002 9.283096e+002 4.126649e+003 1.884223e-003 2.789201e-002 4.261289e-003
<GCONST> 2.772608e+001
<STATE> 4
<MEAN> 9
 -5.197888e+000 5.974336e+000 1.416696e+000 7.900739e+000 1.399050e+001 -2.861916e+000 3.479574e-001 -3.182025e-001 4.094754e-001
<VARIANCE> 9
 7.423176e-001 1.543727e+000 3.471191e+000 9.597248e+003 6.719893e+002 1.731071e+003 7.322450e-004 1.958680e-003 2.208420e-003
<GCONST> 2.148723e+001
<STATE> 5
<MEAN> 9
 -8.911458e+000 1.922894e+000 -6.016859e+000 6.751978e+001 -1.562615e+001 -3.500946e+001 3.743728e-001 -1.076593e-002 5.327908e-001
<VARIANCE> 9
 2.025073e+000 1.939550e+000 5.737669e+000 5.357640e+003 3.626700e+003 1.890065e+003 8.740293e-004 8.200129e-003 1.463423e-003
<GCONST> 2.560975e+001
<STATE> 6
<MEAN> 9
 -7.527167e+000 -3.289223e+000 9.809631e-001 5.014200e+000 -1.263360e+002 -1.520684e+002 4.108474e-001 1.859812e-001 2.179657e-001
<VARIANCE> 9
 2.420225e+000 7.410672e+000 4.446020e+000 1.221261e+003 8.921291e+003 3.947849e+003 6.016779e-003 1.295658e-002 1.368733e-002
<GCONST> 3.165381e+001
<STATE> 7
<MEAN> 9
 -5.834863e+000 -1.012028e+001 1.970217e+000 -2.221716e+001 6.987582e+001 -9.990720e+001 5.647114e-002 3.709497e-001 1.715857e-001
<VARIANCE> 9
 1.796857e+000 9.929979e-001 1.948426e+000 4.086471e+002 3.011664e+003 4.383178e+003 7.054199e-003 5.782502e-004 6.499643e-004
<GCONST> 2.044733e+001
<TRANSP> 8
 0.000000e+000 1.000000e+000 0.000000e+000 0.000000e+000 0.000000e+000 0.000000e+000 0.000000e+000 0.000000e+000
 0.000000e+000 9.316634e-001 6.833659e-002 0.000000e+000 0.000000e+000 0.000000e+000 0.000000e+000 0.000000e+000
 0.000000e+000 0.000000e+000 9.356797e-001 6.432036e-002 0.000000e+000 0.000000e+000 0.000000e+000 0.000000e+000
 0.000000e+000 0.000000e+000 0.000000e+000 9.611397e-001 3.886032e-002 0.000000e+000 0.000000e+000 0.000000e+000
 0.000000e+000 0.000000e+000 0.000000e+000 0.000000e+000 9.549907e-001 4.500924e-002 0.000000e+000 0.000000e+000
 0.000000e+000 0.000000e+000 0.000000e+000 0.000000e+000 0.000000e+000 9.457535e-001 5.424653e-002 0.000000e+000
 0.000000e+000 0.000000e+000 0.000000e+000 0.000000e+000 0.000000e+000 0.000000e+000 9.439590e-001 5.604099e-002
 0.000000e+000 0.000000e+000 0.000000e+000 0.000000e+000 0.000000e+000 0.000000e+000 0.000000e+000 0.000000e+000
<ENDHMM>
~h "sp"
<BEGINHMM>
<NUMSTATES> 8
<STATE> 2
<MEAN> 9
 -3.961649e+000 -9.795437e+000 1.691496e+000 -1.288509e+000 4.577558e+001 -4.422290e+000 -1.530207e-002 3.649622e-001 1.835439e-001
<VARIANCE> 9
 1.686245e+000 3.371764e-001 2.377783e+000 1.964657e+002 1.737649e+003 1.210095e+002 4.762525e-004 5.782502e-004 5.172855e-004
<GCONST> 1.170708e+001
<STATE> 3
<MEAN> 9
 -2.658298e+000 -9.777851e+000 -3.409854e-002 4.506098e+000 -3.948149e+000 1.800532e+000 -2.399965e-002 3.648409e-001 1.793756e-001
<VARIANCE> 9
 7.128569e-001 3.371764e-001 2.443777e-001 2.977951e+001 1.371192e+002 1.210095e+002 5.303933e-004 5.782502e-004 4.495403e-004
<GCONST> 4.112089e+000
<STATE> 4
<MEAN> 9
 -2.287621e+000 -9.926686e+000 6.521995e-002 3.186239e+000 -1.065676e+000 6.094577e-001 -3.457500e-002 3.624897e-001 1.792020e-001
<VARIANCE> 9
 1.852415e-001 3.371764e-001 8.901487e-002 2.977951e+001 3.680466e+001 1.210095e+002 4.762525e-004 5.782502e-004 3.498141e-004
<GCONST> 8.083725e-002
<STATE> 5
<MEAN> 9
 -3.057904e+000 -9.733538e+000 2.870825e-001 3.253652e+000 1.558665e-001 1.577610e-001 -5.750686e-003 3.683324e-001 1.858376e-001
<VARIANCE> 9
 1.491142e-001 3.371764e-001 6.976298e-002 2.977951e+001 3.680466e+001 1.210095e+002 4.762525e-004 5.782502e-004 3.762915e-004
<GCONST> -3.068480e-001
<STATE> 6
<MEAN> 9
 -2.909300e+000 -9.846491e+000 5.142206e-001 3.124174e+000 -7.778352e+000 1.653853e+000 -2.518932e-002 3.650376e-001 1.822314e-001
<VARIANCE> 9
 4.659642e-001 3.371764e-001 8.406722e-002 2.977951e+001 9.590150e+001 1.210095e+002 4.769634e-004 5.782502e-004 3.743233e-004
<GCONST> 1.973007e+000
<STATE> 7
<MEAN> 9
 -4.718941e+000 -9.773419e+000 1.225254e+000 3.153944e+000 -4.338400e+001 9.407749e+000 -1.638087e-002 3.675863e-001 1.878614e-001
<VARIANCE> 9
 1.248065e+000 3.371764e-001 5.516402e-001 2.977951e+001 1.654628e+003 1.210095e+002 5.308388e-004 5.782502e-004 4.059343e-004
<GCONST> 7.875625e+000
<TRANSP> 8
 0.000000e+000 1.000000e+000 0.000000e+000 0.000000e+000 0.000000e+000 0.000000e+000 0.000000e+000 0.000000e+000
 0.000000e+000 8.110611e-001 1.889388e-001 0.000000e+000 0.000000e+000 0.000000e+000 0.000000e+000 0.000000e+000
 0.000000e+000 0.000000e+000 8.107444e-001 1.892557e-001 0.000000e+000 0.000000e+000 0.000000e+000 0.000000e+000
 0.000000e+000 0.000000e+000 0.000000e+000 9.170724e-001 8.292761e-002 0.000000e+000 0.000000e+000 0.000000e+000
 0.000000e+000 0.000000e+000 0.000000e+000 0.000000e+000 9.207583e-001 7.924171e-002 0.000000e+000 0.000000e+000
 0.000000e+000 0.000000e+000 0.000000e+000 0.000000e+000 0.000000e+000 8.003443e-001 1.996557e-001 0.000000e+000
 0.000000e+000 0.000000e+000 0.000000e+000 0.000000e+000 0.000000e+000 0.000000e+000 6.938959e-001 3.061041e-001
 0.000000e+000 0.000000e+000 0.000000e+000 0.000000e+000 0.000000e+000 0.000000e+000 0.000000e+000 0.000000e+000
<ENDHMM>
~h "ssil"
<BEGINHMM>
<NUMSTATES> 8
<STATE> 2
<MEAN> 9
 -2.557149e+000 -9.859504e+000 1.891135e-001 4.176943e+000 3.389249e-001 3.528432e-001 -3.015572e-002 3.629090e-001 1.751792e-001
<VARIANCE> 9
 7.038843e-001 3.371764e-001 2.430005e-001 2.977951e+001 3.559076e+002 1.210095e+002 4.762525e-004 5.782502e-004 2.939904e-004
<GCONST> 4.515240e+000
<STATE> 3
<MEAN> 9
 -2.756785e+000 -9.808652e+000 2.042670e-001 2.932441e+000 -1.772423e+000 4.086421e-001 -1.705692e-002 3.668445e-001 1.793905e-001
<VARIANCE> 9
 1.725737e-001 3.371764e-001 6.976298e-002 2.977951e+001 3.680466e+001 1.210095e+002 4.762525e-004 5.782502e-004 2.762394e-004
<GCONST> -4.698339e-001
<STATE> 4
<MEAN> 9
 -2.010923e+000 -9.997842e+000 4.897703e-001 3.286478e+000 6.861430e-002 1.869679e-001 -5.387985e-002 3.594990e-001 1.804477e-001
<VARIANCE> 9
 1.491142e-001 3.371764e-001 6.976298e-002 2.977951e+001 3.680466e+001 1.210095e+002 4.762525e-004 5.782502e-004 1.943187e-004
<GCONST> -9.677129e-001
<STATE> 5
<MEAN> 9
 -2.692395e+000 -9.842760e+000 2.695143e-001 3.294098e+000 1.341777e-001 7.484002e-002 -1.941862e-002 3.665551e-001 1.828852e-001
<VARIANCE> 9
 1.491142e-001 3.371764e-001 6.976298e-002 2.977951e+001 3.680466e+001 1.210095e+002 4.762525e-004 5.782502e-004 4.360449e-004
<GCONST> -1.594672e-001
<STATE> 6
<MEAN> 9
 -3.152326e+000 -9.694845e+000 -1.234105e-001 3.331241e+000 -1.434302e-002 7.298245e-002 1.221748e-003 3.692057e-001 2.041681e-001
<VARIANCE> 9
 1.491142e-001 3.371764e-001 6.976298e-002 2.977951e+001 3.680466e+001 1.210095e+002 4.762525e-004 5.782502e-004 3.377357e-004
<GCONST> -4.149489e-001
<STATE> 7
<MEAN> 9
 -3.688725e+000 -9.788951e+000 6.993562e-001 3.315687e+000 -9.239718e+000 4.869460e+000 -1.348163e-002 3.673879e-001 1.953795e-001
<VARIANCE> 9
 1.359248e+000 3.371764e-001 6.452765e-001 2.977951e+001 6.022124e+002 1.210095e+002 5.471239e-004 5.782502e-004 4.628930e-004
<GCONST> 7.268545e+000
<TRANSP> 8
 0.000000e+000 1.000000e+000 0.000000e+000 0.000000e+000 0.000000e+000 0.000000e+000 0.000000e+000 0.000000e+000
 0.000000e+000 8.424994e-001 1.575005e-001 0.000000e+000 0.000000e+000 0.000000e+000 0.000000e+000 0.000000e+000
 0.000000e+000 0.000000e+000 9.133245e-001 8.667548e-002 0.000000e+000 0.000000e+000 0.000000e+000 0.000000e+000
 0.000000e+000 0.000000e+000 0.000000e+000 9.627272e-001 3.727284e-002 0.000000e+000 0.000000e+000 0.000000e+000
 0.000000e+000 0.000000e+000 0.000000e+000 0.000000e+000 9.657873e-001 3.421270e-002 0.000000e+000 0.000000e+000
 0.000000e+000 0.000000e+000 0.000000e+000 0.000000e+000 0.000000e+000 9.693683e-001 3.063160e-002 0.000000e+000
 0.000000e+000 0.000000e+000 0.000000e+000 0.000000e+000 0.000000e+000 0.000000e+000 7.155646e-001 2.844355e-001
 0.000000e+000 0.000000e+000 0.000000e+000 0.000000e+000 0.000000e+000 0.000000e+000 0.000000e+000 0.000000e+000
<ENDHMM>
~h "HAU"
<BEGINHMM>
<NUMSTATES> 8
<STATE> 2
<MEAN> 9
 -6.520885e+000 -1.117369e+001 1.659680e+000 5.494199e+000 -1.525480e+002 1.211082e+002 7.456276e-002 3.696856e-001 2.225979e-001
<VARIANCE> 9
 3.048025e+000 9.154581e-001 5.919036e-001 1.498767e+002 7.238586e+003 5.363302e+003 8.293308e-003 5.782502e-004 6.215837e-004
<GCONST> 1.989593e+001
<STATE> 3
<MEAN> 9
 -7.280604e+000 -3.612313e+000 2.134591e+000 3.478099e+001 3.196537e+001 2.073132e+002 4.410882e-001 1.351943e-001 1.859739e-001
<VARIANCE> 9
 2.310265e+000 1.369720e+001 2.178774e+000 9.195470e+002 5.706336e+003 2.047453e+003 6.285971e-003 2.055701e-002 2.157849e-003
<GCONST> 2.877914e+001
<STATE> 4
<MEAN> 9
 -7.700061e+000 3.560234e+000 1.932848e+000 5.045985e+000 -2.144066e+000 -3.649903e+000 5.033483e-001 -1.096727e-001 2.453758e-001
<VARIANCE> 9
 8.144907e+000 1.377462e+000 2.953020e-001 1.025859e+002 3.454799e+002 1.780329e+003 4.762525e-004 2.842329e-003 1.948556e-004
<GCONST> 1.364301e+001
<STATE> 5
<MEAN> 9
 -6.960351e+000 5.453357e-001 1.922397e+000 2.201229e+001 -4.912931e+001 -1.279852e+002 5.079424e-001 1.461704e-002 1.905836e-001
<VARIANCE> 9
 1.886569e+000 1.455597e+000 3.978612e-001 2.082175e+002 1.151150e+003 2.020655e+003 4.762525e-004 5.264715e-003 1.353172e-003
<GCONST> 1.712610e+001
<STATE> 6
<MEAN> 9
 -8.249743e+000 -6.994377e+000 1.562997e+000 1.709238e+001 4.424628e+001 -1.642784e+002 3.049088e-001 2.966236e-001 1.874303e-001
<VARIANCE> 9
 2.229022e+000 8.453074e+000 1.937992e+000 3.773473e+002 1.600365e+003 1.754069e+003 1.472977e-002 5.519406e-003 1.631489e-003
<GCONST> 2.508385e+001
<STATE> 7
<MEAN> 9
 -4.787957e+000 -1.013519e+001 1.291189e+000 -4.895344e-001 6.675022e+001 -5.656317e+001 3.140019e-002 3.747822e-001 1.878035e-001
<VARIANCE> 9
 1.355054e+000 3.371764e-001 4.836164e-001 1.308000e+002 1.468198e+003 1.441389e+003 2.123681e-003 5.782502e-004 2.008772e-004
<GCONST> 1.234702e+001
<TRANSP> 8
 0.000000e+000 1.000000e+000 0.000000e+000 0.000000e+000 0.000000e+000 0.000000e+000 0.000000e+000 0.000000e+000
 0.000000e+000 9.300621e-001 6.993795e-002 0.000000e+000 0.000000e+000 0.000000e+000 0.000000e+000 0.000000e+000
 0.000000e+000 0.000000e+000 9.419899e-001 5.801007e-002 0.000000e+000 0.000000e+000 0.000000e+000 0.000000e+000
 0.000000e+000 0.000000e+000 0.000000e+000 9.594415e-001 4.055848e-002 0.000000e+000 0.000000e+000 0.000000e+000
 0.000000e+000 0.000000e+000 0.000000e+000 0.000000e+000 9.047908e-001 9.520930e-002 0.000000e+000 0.000000e+000
 0.000000e+000 0.000000e+000 0.000000e+000 0.000000e+000 0.000000e+000 9.463732e-001 5.362681e-002 0.000000e+000
 0.000000e+000 0.000000e+000 0.000000e+000 0.000000e+000 0.000000e+000 0.000000e+000 9.307652e-001 6.923481e-002
 0.000000e+000 0.000000e+000 0.000000e+000 0.000000e+000 0.000000e+000 0.000000e+000 0.000000e+000 0.000000e+000
<ENDHMM>
