~o
<STREAMINFO> 1 9
<VECSIZE> 9<NULLD><USER><DIAGC>
~h "GA"
<BEGINHMM>
<NUMSTATES> 8
<STATE> 2
<NUMMIXES> 2
<MIXTURE> 1 5.000000e-001
<MEAN> 9
 -7.833464e+000 -9.486852e+000 5.621165e-001 1.622510e+001 1.424982e+001 1.573629e+002 1.274126e-001 3.670559e-001 1.674338e-001
<VARIANCE> 9
 5.284916e+000 1.250207e+000 2.209085e+000 8.461089e+002 4.268215e+003 5.894582e+003 1.070827e-002 5.782502e-004 2.648896e-004
<GCONST> 2.277459e+001
<MIXTURE> 2 5.000000e-001
<MEAN> 9
 -8.753021e+000 -9.934102e+000 -3.240314e-002 4.589920e+000 -1.188282e+001 1.266525e+002 8.602025e-002 3.574371e-001 1.609236e-001
<VARIANCE> 9
 5.284916e+000 1.250207e+000 2.209085e+000 8.461089e+002 4.268215e+003 5.894582e+003 1.070827e-002 5.782502e-004 2.648896e-004
<GCONST> 2.277459e+001
<STATE> 3
<NUMMIXES> 2
<MIXTURE> 1 5.000000e-001
<MEAN> 9
 -7.787599e+000 -1.654943e-001 -2.310995e-001 -1.045109e+002 5.499237e+000 1.596102e+002 4.836162e-001 6.983604e-002 2.387252e-001
<VARIANCE> 9
 2.009627e+000 8.229650e+000 1.123363e+001 1.952989e+003 1.108034e+003 8.682732e+003 3.013596e-003 2.184519e-002 2.040140e-003
<GCONST> 2.959892e+001
<MIXTURE> 2 5.000000e-001
<MEAN> 9
 -8.354644e+000 -1.312989e+000 -1.571764e+000 -1.221879e+002 -7.815621e+000 1.223378e+002 4.616578e-001 1.071556e-002 2.206580e-001
<VARIANCE> 9
 2.009627e+000 8.229650e+000 1.123363e+001 1.952989e+003 1.108034e+003 8.682732e+003 3.013596e-003 2.184519e-002 2.040140e-003
<GCONST> 2.959892e+001
<STATE> 4
<NUMMIXES> 2
<MIXTURE> 1 5.000000e-001
<MEAN> 9
 -7.076240e+000 4.322101e+000 3.505197e+000 -1.741656e+001 -5.835304e+001 5.902192e+001 4.903221e-001 -1.805448e-001 1.762180e-001
<VARIANCE> 9
 1.372507e+001 2.695912e+000 3.022052e+000 4.376820e+002 2.132150e+004 1.746126e+003 1.732217e-003 2.534862e-003 1.240609e-002
<GCONST> 2.804638e+001
<MIXTURE> 2 5.000000e-001
<MEAN> 9
 -8.558134e+000 3.665331e+000 2.809835e+000 -2.578490e+001 -1.167606e+002 4.230725e+001 4.736741e-001 -2.006838e-001 1.316650e-001
<VARIANCE> 9
 1.372507e+001 2.695912e+000 3.022052e+000 4.376820e+002 2.132150e+004 1.746126e+003 1.732217e-003 2.534862e-003 1.240609e-002
<GCONST> 2.804638e+001
<STATE> 5
<NUMMIXES> 2
<MIXTURE> 1 5.000000e-001
<MEAN> 9
 -5.875372e-001 4.427170e+000 7.680418e+000 2.644038e+000 -1.654022e+001 -2.384980e+001 3.311649e-001 -1.922614e-001 -1.735403e-001
<VARIANCE> 9
 1.445212e+001 2.038546e+000 1.058709e+000 1.876082e+002 1.975639e+003 6.852055e+003 3.709344e-003 7.463678e-003 3.214551e-003
<GCONST> 2.540165e+001
<MIXTURE> 2 5.000000e-001
<MEAN> 9
 -2.108175e+000 3.856060e+000 7.268844e+000 -2.834768e+000 -3.431948e+001 -5.696066e+001 3.068031e-001 -2.268184e-001 -1.962191e-001
<VARIANCE> 9
 1.445212e+001 2.038546e+000 1.058709e+000 1.876082e+002 1.975639e+003 6.852055e+003 3.709344e-003 7.463678e-003 3.214551e-003
<GCONST> 2.540165e+001
<STATE> 6
<NUMMIXES> 2
<MIXTURE> 1 5.000000e-001
<MEAN> 9
 -4.931705e+000 -1.764587e+000 5.649637e+000 -6.121722e+001 8.007060e+001 -1.746260e+002 3.837630e-001 1.264576e-001 -9.637175e-002
<VARIANCE> 9
 7.301765e+000 1.127515e+001 8.043529e-001 7.171091e+002 1.360179e+003 3.591735e+003 2.184383e-003 1.888008e-002 5.794142e-003
<GCONST> 2.746390e+001
<MIXTURE> 2 5.000000e-001
<MEAN> 9
 -6.012576e+000 -3.107727e+000 5.290895e+000 -7.192878e+001 6.531836e+001 -1.985984e+002 3.650680e-001 7.149573e-002 -1.268194e-001
<VARIANCE> 9
 7.301765e+000 1.127515e+001 8.043529e-001 7.171091e+002 1.360179e+003 3.591735e+003 2.184383e-003 1.888008e-002 5.794142e-003
<GCONST> 2.746390e+001
<STATE> 7
<NUMMIXES> 2
<MIXTURE> 1 5.000000e-001
<MEAN> 9
 -6.335076e+000 -1.049949e+001 2.932278e+000 -3.867178e+001 1.193391e+002 -1.077140e+002 8.081999e-002 3.680879e-001 1.542418e-001
<VARIANCE> 9
 3.887743e+000 1.279957e+000 1.871943e+000 7.306841e+002 3.350234e+003 7.259986e+003 1.079232e-002 5.782502e-004 1.640743e-003
<GCONST> 2.397639e+001
<MIXTURE> 2 5.000000e-001
<MEAN> 9
 -7.123770e+000 -1.095203e+001 2.385002e+000 -4.948425e+001 9.618666e+001 -1.417962e+002 3.926555e-002 3.584691e-001 1.380394e-001
<VARIANCE> 9
 3.887743e+000 1.279957e+000 1.871943e+000 7.306841e+002 3.350234e+003 7.259986e+003 1.079232e-002 5.782502e-004 1.640743e-003
<GCONST> 2.397639e+001
<TRANSP> 8
 0.000000e+000 1.000000e+000 0.000000e+000 0.000000e+000 0.000000e+000 0.000000e+000 0.000000e+000 0.000000e+000
 0.000000e+000 9.374011e-001 6.259894e-002 0.000000e+000 0.000000e+000 0.000000e+000 0.000000e+000 0.000000e+000
 0.000000e+000 0.000000e+000 9.537045e-001 4.629553e-002 0.000000e+000 0.000000e+000 0.000000e+000 0.000000e+000
 0.000000e+000 0.000000e+000 0.000000e+000 9.509623e-001 4.903773e-002 0.000000e+000 0.000000e+000 0.000000e+000
 0.000000e+000 0.000000e+000 0.000000e+000 0.000000e+000 9.741072e-001 2.589274e-002 0.000000e+000 0.000000e+000
 0.000000e+000 0.000000e+000 0.000000e+000 0.000000e+000 0.000000e+000 9.395571e-001 6.044285e-002 0.000000e+000
 0.000000e+000 0.000000e+000 0.000000e+000 0.000000e+000 0.000000e+000 0.000000e+000 9.457363e-001 5.426367e-002
 0.000000e+000 0.000000e+000 0.000000e+000 0.000000e+000 0.000000e+000 0.000000e+000 0.000000e+000 0.000000e+000
<ENDHMM>
~h "GM"
<BEGINHMM>
<NUMSTATES> 8
<STATE> 2
<NUMMIXES> 2
<MIXTURE> 1 5.000000e-001
<MEAN> 9
 -8.435239e+000 -8.549228e+000 2.406140e-001 -9.277600e+000 -1.536313e+001 1.841164e+002 2.022435e-001 3.539655e-001 2.041542e-001
<VARIANCE> 9
 4.124983e+000 5.754324e+000 2.196174e+000 7.153057e+002 5.798614e+003 6.909117e+003 1.907757e-002 2.084991e-003 3.260061e-004
<GCONST> 2.641248e+001
<MIXTURE> 2 5.000000e-001
<MEAN> 9
 -9.247642e+000 -9.508754e+000 -3.521658e-001 -1.997568e+001 -4.582259e+001 1.508680e+002 1.469949e-001 3.357008e-001 1.969320e-001
<VARIANCE> 9
 4.124983e+000 5.754324e+000 2.196174e+000 7.153057e+002 5.798614e+003 6.909117e+003 1.907757e-002 2.084991e-003 3.260061e-004
<GCONST> 2.641248e+001
<STATE> 3
<NUMMIXES> 2
<MIXTURE> 1 5.000000e-001
<MEAN> 9
 -6.929707e+000 6.230655e-001 1.006968e+000 -8.111161e+001 -1.387054e+001 1.367303e+002 5.084762e-001 3.005397e-002 2.172499e-001
<VARIANCE> 9
 1.488327e+000 3.059677e+000 6.863343e+000 1.217721e+003 5.275892e+002 6.154951e+003 8.665642e-004 1.168245e-002 1.085047e-003
<GCONST> 2.375434e+001
<MIXTURE> 2 5.000000e-001
<MEAN> 9
 -7.417695e+000 -7.661176e-002 -4.095143e-002 -9.506995e+001 -2.305826e+001 1.053489e+002 4.967012e-001 -1.318018e-002 2.040739e-001
<VARIANCE> 9
 1.488327e+000 3.059677e+000 6.863343e+000 1.217721e+003 5.275892e+002 6.154951e+003 8.665642e-004 1.168245e-002 1.085047e-003
<GCONST> 2.375434e+001
<STATE> 4
<NUMMIXES> 2
<MIXTURE> 1 5.000000e-001
<MEAN> 9
 -8.556082e+000 3.865525e+000 2.631831e+000 7.053962e-001 2.505691e+001 3.924438e+001 5.150459e-001 -1.275009e-001 2.289129e-001
<VARIANCE> 9
 1.285294e+000 2.884072e+000 3.048790e+000 5.719093e+002 3.617928e+002 5.673646e+002 4.762525e-004 2.187436e-003 9.575162e-004
<GCONST> 1.682113e+001
<MIXTURE> 2 5.000000e-001
<MEAN> 9
 -9.009565e+000 3.186223e+000 1.933399e+000 -8.860455e+000 1.744857e+001 2.971661e+001 5.063166e-001 -1.462089e-001 2.165354e-001
<VARIANCE> 9
 1.285294e+000 2.884072e+000 3.048790e+000 5.719093e+002 3.617928e+002 5.673646e+002 4.762525e-004 2.187436e-003 9.575162e-004
<GCONST> 1.682113e+001
<STATE> 5
<NUMMIXES> 2
<MIXTURE> 1 5.000000e-001
<MEAN> 9
 -7.390448e+000 4.762909e+000 4.347545e+000 -1.733908e+001 1.411811e+001 8.354015e+000 4.602450e-001 -2.604298e-001 2.363940e-001
<VARIANCE> 9
 5.040179e+000 7.323976e+000 2.001830e+001 4.212924e+003 1.422713e+003 3.199644e+002 4.762525e-004 8.300812e-004 2.950731e-003
<GCONST> 2.395132e+001
<MIXTURE> 2 5.000000e-001
<MEAN> 9
 -8.288462e+000 3.680395e+000 2.557873e+000 -4.330190e+001 -9.694395e-001 1.198996e+000 4.515158e-001 -2.719542e-001 2.146658e-001
<VARIANCE> 9
 5.040179e+000 7.323976e+000 2.001830e+001 4.212924e+003 1.422713e+003 3.199644e+002 4.762525e-004 8.300812e-004 2.950731e-003
<GCONST> 2.395132e+001
<STATE> 6
<NUMMIXES> 2
<MIXTURE> 1 5.000000e-001
<MEAN> 9
 -7.116774e+000 4.156631e-001 2.184153e+000 1.424939e+002 -5.942761e+001 -1.329684e+002 4.932156e-001 -1.015408e-001 1.514179e-001
<VARIANCE> 9
 1.977507e+000 1.429633e+000 6.268732e+000 1.695111e+003 1.563024e+003 8.376632e+003 7.003697e-004 2.133331e-002 3.777563e-003
<GCONST> 2.654875e+001
<MIXTURE> 2 5.000000e-001
<MEAN> 9
 -7.679269e+000 -6.260593e-002 1.182655e+000 1.260253e+002 -7.524165e+001 -1.695780e+002 4.826298e-001 -1.599645e-001 1.268331e-001
<VARIANCE> 9
 1.977507e+000 1.429633e+000 6.268732e+000 1.695111e+003 1.563024e+003 8.376632e+003 7.003697e-004 2.133331e-002 3.777563e-003
<GCONST> 2.654875e+001
<STATE> 7
<NUMMIXES> 2
<MIXTURE> 1 5.000000e-001
<MEAN> 9
 -7.849751e+000 -8.967542e+000 2.276003e+000 -1.102047e+001 9.076001e+001 -1.456478e+002 1.675333e-001 3.521336e-001 1.285565e-001
<VARIANCE> 9
 6.716938e+000 6.146255e+000 1.636089e+000 1.190141e+003 4.934637e+003 1.162154e+004 2.395033e-002 2.915573e-003 2.871004e-003
<GCONST> 3.027760e+001
<MIXTURE> 2 5.000000e-001
<MEAN> 9
 -8.886434e+000 -9.959207e+000 1.764365e+000 -2.481984e+001 6.266122e+001 -1.887691e+002 1.056297e-001 3.305352e-001 1.071239e-001
<VARIANCE> 9
 6.716938e+000 6.146255e+000 1.636089e+000 1.190141e+003 4.934637e+003 1.162154e+004 2.395033e-002 2.915573e-003 2.871004e-003
<GCONST> 3.027760e+001
<TRANSP> 8
 0.000000e+000 1.000000e+000 0.000000e+000 0.000000e+000 0.000000e+000 0.000000e+000 0.000000e+000 0.000000e+000
 0.000000e+000 9.452500e-001 5.475003e-002 0.000000e+000 0.000000e+000 0.000000e+000 0.000000e+000 0.000000e+000
 0.000000e+000 0.000000e+000 9.429002e-001 5.709983e-002 0.000000e+000 0.000000e+000 0.000000e+000 0.000000e+000
 0.000000e+000 0.000000e+000 0.000000e+000 9.539116e-001 4.608843e-002 0.000000e+000 0.000000e+000 0.000000e+000
 0.000000e+000 0.000000e+000 0.000000e+000 0.000000e+000 9.811330e-001 1.886700e-002 0.000000e+000 0.000000e+000
 0.000000e+000 0.000000e+000 0.000000e+000 0.000000e+000 0.000000e+000 9.511869e-001 4.881313e-002 0.000000e+000
 0.000000e+000 0.000000e+000 0.000000e+000 0.000000e+000 0.000000e+000 0.000000e+000 9.574756e-001 4.252439e-002
 0.000000e+000 0.000000e+000 0.000000e+000 0.000000e+000 0.000000e+000 0.000000e+000 0.000000e+000 0.000000e+000
<ENDHMM>
~h "GN"
<BEGINHMM>
<NUMSTATES> 8
<STATE> 2
<NUMMIXES> 2
<MIXTURE> 1 5.000000e-001
<MEAN> 9
 -8.302907e+000 -9.156645e+000 2.956818e-001 1.237733e+001 2.864687e+001 1.967251e+002 1.550528e-001 3.610408e-001 1.891028e-001
<VARIANCE> 9
 4.411497e+000 5.748659e+000 7.296440e+000 1.166158e+003 5.015206e+003 7.176354e+003 1.717254e-002 8.639975e-004 3.994189e-004
<GCONST> 2.727782e+001
<MIXTURE> 2 5.000000e-001
<MEAN> 9
 -9.143050e+000 -1.011570e+001 -7.847952e-001 -1.282294e+000 3.196259e-001 1.628397e+002 1.026352e-001 3.492832e-001 1.811086e-001
<VARIANCE> 9
 4.411497e+000 5.748659e+000 7.296440e+000 1.166158e+003 5.015206e+003 7.176354e+003 1.717254e-002 8.639975e-004 3.994189e-004
<GCONST> 2.727782e+001
<STATE> 3
<NUMMIXES> 2
<MIXTURE> 1 5.000000e-001
<MEAN> 9
 -8.532557e+000 -2.101999e-001 3.421523e+000 -4.677478e+001 -1.828502e+001 1.046529e+002 5.075838e-001 2.910426e-002 2.263587e-001
<VARIANCE> 9
 1.140697e+001 9.571688e+000 3.021294e+001 1.283905e+004 1.786547e+003 7.451336e+003 1.381336e-003 1.113037e-002 4.563203e-003
<GCONST> 3.403413e+001
<MIXTURE> 2 5.000000e-001
<MEAN> 9
 -9.883525e+000 -1.447726e+000 1.222871e+000 -9.209859e+001 -3.519204e+001 7.012442e+001 4.927172e-001 -1.309597e-002 1.993381e-001
<VARIANCE> 9
 1.140697e+001 9.571688e+000 3.021294e+001 1.283905e+004 1.786547e+003 7.451336e+003 1.381336e-003 1.113037e-002 4.563203e-003
<GCONST> 3.403413e+001
<STATE> 4
<NUMMIXES> 2
<MIXTURE> 1 5.000000e-001
<MEAN> 9
 -3.064508e+000 5.198209e+000 1.125701e-001 4.531369e+001 -2.477101e+001 4.899977e+001 4.717272e-001 -2.323713e-001 1.653321e-001
<VARIANCE> 9
 7.811866e+000 1.136752e+000 1.876007e+000 5.425013e+003 2.726455e+003 9.876467e+003 1.152309e-003 3.579614e-003 1.992952e-003
<GCONST> 2.644468e+001
<MIXTURE> 2 5.000000e-001
<MEAN> 9
 -4.182496e+000 4.771735e+000 -4.352995e-001 1.585181e+001 -4.565719e+001 9.247606e+000 4.581489e-001 -2.563033e-001 1.474751e-001
<VARIANCE> 9
 7.811866e+000 1.136752e+000 1.876007e+000 5.425013e+003 2.726455e+003 9.876467e+003 1.152309e-003 3.579614e-003 1.992952e-003
<GCONST> 2.644468e+001
<STATE> 5
<NUMMIXES> 2
<MIXTURE> 1 5.000000e-001
<MEAN> 9
 -6.444438e+000 6.450955e-001 5.691542e+000 -1.074050e+001 1.004584e+001 -6.408629e+001 4.833193e-001 6.857027e-002 1.170998e-002
<VARIANCE> 9
 9.156421e+000 4.808070e+000 9.883588e+000 4.547293e+003 2.125033e+003 7.732047e+003 4.762525e-004 9.311209e-003 6.348182e-004
<GCONST> 2.796521e+001
<MIXTURE> 2 5.000000e-001
<MEAN> 9
 -7.654822e+000 -2.319969e-001 4.434014e+000 -3.771394e+001 -8.393389e+000 -9.925911e+001 4.745901e-001 2.997243e-002 1.631743e-003
<VARIANCE> 9
 9.156421e+000 4.808070e+000 9.883588e+000 4.547293e+003 2.125033e+003 7.732047e+003 4.762525e-004 9.311209e-003 6.348182e-004
<GCONST> 2.796521e+001
<STATE> 6
<NUMMIXES> 2
<MIXTURE> 1 5.000000e-001
<MEAN> 9
 -8.742867e+000 -7.260099e+000 3.138403e+000 -1.888354e+001 5.593969e+001 -1.752422e+002 3.157737e-001 3.184939e-001 1.407821e-001
<VARIANCE> 9
 1.770180e+000 9.850037e+000 1.273515e+000 9.823307e+002 1.269488e+003 9.802220e+002 1.188213e-002 3.911275e-003 1.674953e-003
<GCONST> 2.419673e+001
<MIXTURE> 2 5.000000e-001
<MEAN> 9
 -9.275060e+000 -8.515491e+000 2.687003e+000 -3.142040e+001 4.168773e+001 -1.877656e+002 2.721717e-001 2.934779e-001 1.244117e-001
<VARIANCE> 9
 1.770180e+000 9.850037e+000 1.273515e+000 9.823307e+002 1.269488e+003 9.802220e+002 1.188213e-002 3.911275e-003 1.674953e-003
<GCONST> 2.419673e+001
<STATE> 7
<NUMMIXES> 2
<MIXTURE> 1 5.000000e-001
<MEAN> 9
 -4.762488e+000 -1.022806e+001 2.517956e+000 -3.559265e-001 8.658414e+001 -4.985696e+001 4.018901e-002 3.751442e-001 2.031716e-001
<VARIANCE> 9
 3.057064e+000 6.818369e-001 1.921202e+000 2.974582e+002 2.875292e+003 1.492599e+003 2.879794e-003 5.782502e-004 2.602850e-004
<GCONST> 1.733652e+001
<MIXTURE> 2 5.000000e-001
<MEAN> 9
 -5.461867e+000 -1.055836e+001 1.963526e+000 -7.254717e+000 6.513544e+001 -6.531062e+001 1.872353e-002 3.655254e-001 1.967182e-001
<VARIANCE> 9
 3.057064e+000 6.818369e-001 1.921202e+000 2.974582e+002 2.875292e+003 1.492599e+003 2.879794e-003 5.782502e-004 2.602850e-004
<GCONST> 1.733652e+001
<TRANSP> 8
 0.000000e+000 1.000000e+000 0.000000e+000 0.000000e+000 0.000000e+000 0.000000e+000 0.000000e+000 0.000000e+000
 0.000000e+000 9.355981e-001 6.440195e-002 0.000000e+000 0.000000e+000 0.000000e+000 0.000000e+000 0.000000e+000
 0.000000e+000 0.000000e+000 9.650013e-001 3.499873e-002 0.000000e+000 0.000000e+000 0.000000e+000 0.000000e+000
 0.000000e+000 0.000000e+000 0.000000e+000 9.530498e-001 4.695024e-002 0.000000e+000 0.000000e+000 0.000000e+000
 0.000000e+000 0.000000e+000 0.000000e+000 0.000000e+000 9.646974e-001 3.530262e-002 0.000000e+000 0.000000e+000
 0.000000e+000 0.000000e+000 0.000000e+000 0.000000e+000 0.000000e+000 9.329570e-001 6.704300e-002 0.000000e+000
 0.000000e+000 0.000000e+000 0.000000e+000 0.000000e+000 0.000000e+000 0.000000e+000 9.364238e-001 6.357624e-002
 0.000000e+000 0.000000e+000 0.000000e+000 0.000000e+000 0.000000e+000 0.000000e+000 0.000000e+000 0.000000e+000
<ENDHMM>
~h "HE"
<BEGINHMM>
<NUMSTATES> 8
<STATE> 2
<NUMMIXES> 2
<MIXTURE> 1 5.000000e-001
<MEAN> 9
 -9.990163e+000 -8.118247e+000 3.282331e+000 1.310276e+002 3.784061e+001 2.134583e+002 2.632403e-001 2.726692e-001 5.066511e-002
<VARIANCE> 9
 7.611450e+000 1.560130e+001 1.135021e+001 4.373292e+003 5.103798e+003 8.268996e+003 2.446161e-002 2.227675e-002 1.335236e-002
<GCONST> 3.785749e+001
<MIXTURE> 2 5.000000e-001
<MEAN> 9
 -1.109372e+001 -9.698186e+000 1.934729e+000 1.045752e+002 9.264267e+000 1.770847e+002 2.006795e-001 2.129676e-001 4.444147e-003
<VARIANCE> 9
 7.611450e+000 1.560130e+001 1.135021e+001 4.373292e+003 5.103798e+003 8.268996e+003 2.446161e-002 2.227675e-002 1.335236e-002
<GCONST> 3.785749e+001
<STATE> 3
<NUMMIXES> 2
<MIXTURE> 1 5.000000e-001
<MEAN> 9
 5.690201e+000 8.807552e-001 4.404319e+000 2.316490e+001 -4.107844e+001 1.530212e+002 7.079667e-002 -2.309693e-001 -2.278139e-001
<VARIANCE> 9
 6.526203e+001 6.352028e+000 1.077937e+001 1.457464e+003 8.801759e+003 4.774984e+004 3.185871e-002 1.960253e-003 1.684582e-003
<GCONST> 3.601924e+001
<MIXTURE> 2 5.000000e-001
<MEAN> 9
 2.458805e+000 -1.273740e-001 3.091041e+000 7.894200e+000 -7.860551e+001 6.561423e+001 -5.993657e-004 -2.486792e-001 -2.442313e-001
<VARIANCE> 9
 6.526203e+001 6.352028e+000 1.077937e+001 1.457464e+003 8.801759e+003 4.774984e+004 3.185871e-002 1.960253e-003 1.684582e-003
<GCONST> 3.601924e+001
<STATE> 4
<NUMMIXES> 2
<MIXTURE> 1 5.000000e-001
<MEAN> 9
 -6.747501e+000 7.691295e+000 3.469536e+000 1.113581e+001 4.259810e+000 1.827765e+001 1.887870e-001 -2.994620e-001 -1.993295e-001
<VARIANCE> 9
 1.779166e+001 3.837436e+000 4.011509e+000 2.483464e+003 1.463437e+003 3.525785e+004 7.160005e-003 8.587582e-004 8.425635e-004
<GCONST> 2.865166e+001
<MIXTURE> 2 5.000000e-001
<MEAN> 9
 -8.434708e+000 6.907720e+000 2.668386e+000 -8.797936e+000 -1.104215e+001 -5.683065e+001 1.549402e-001 -3.111838e-001 -2.109403e-001
<VARIANCE> 9
 1.779166e+001 3.837436e+000 4.011509e+000 2.483464e+003 1.463437e+003 3.525785e+004 7.160005e-003 8.587582e-004 8.425635e-004
<GCONST> 2.865166e+001
<STATE> 5
<NUMMIXES> 2
<MIXTURE> 1 5.000000e-001
<MEAN> 9
 7.846672e+000 2.616212e+000 5.850227e+000 7.786672e+000 8.973837e-001 3.551141e+001 -7.150717e-002 -2.363261e-001 -2.416392e-001
<VARIANCE> 9
 2.048459e+001 3.480478e+000 1.433354e+000 1.759584e+003 8.351350e+002 3.950232e+004 5.137645e-003 2.507287e-003 5.290263e-004
<GCONST> 2.714811e+001
<MIXTURE> 2 5.000000e-001
<MEAN> 9
 6.036276e+000 1.869970e+000 5.371336e+000 -8.992288e+000 -1.066210e+001 -4.398935e+001 -1.001781e-001 -2.563553e-001 -2.508394e-001
<VARIANCE> 9
 2.048459e+001 3.480478e+000 1.433354e+000 1.759584e+003 8.351350e+002 3.950232e+004 5.137645e-003 2.507287e-003 5.290263e-004
<GCONST> 2.714811e+001
<STATE> 6
<NUMMIXES> 2
<MIXTURE> 1 5.000000e-001
<MEAN> 9
 -5.586246e+000 1.329511e+000 3.906611e+000 -8.828974e+001 5.295394e+001 -1.598484e+002 2.243599e-001 -7.515237e-002 -2.299538e-001
<VARIANCE> 9
 7.395506e+000 1.932290e+001 1.696257e+000 5.048425e+003 3.448172e+003 4.274835e+003 5.925163e-003 2.935951e-002 1.748004e-003
<GCONST> 3.205844e+001
<MIXTURE> 2 5.000000e-001
<MEAN> 9
 -6.674032e+000 -4.288017e-001 3.385649e+000 -1.167107e+002 2.946548e+001 -1.860013e+002 1.935699e-001 -1.436908e-001 -2.466774e-001
<VARIANCE> 9
 7.395506e+000 1.932290e+001 1.696257e+000 5.048425e+003 3.448172e+003 4.274835e+003 5.925163e-003 2.935951e-002 1.748004e-003
<GCONST> 3.205844e+001
<STATE> 7
<NUMMIXES> 2
<MIXTURE> 1 5.000000e-001
<MEAN> 9
 -6.154666e+000 -1.070361e+001 5.563918e+000 -9.380106e+001 2.157465e+001 -8.740549e+001 8.440933e-002 3.489033e-001 7.813955e-002
<VARIANCE> 9
 9.588587e+000 2.219759e+000 7.952166e+000 3.934455e+003 4.129181e+003 5.246979e+003 6.846720e-003 1.369381e-003 1.122477e-002
<GCONST> 3.077407e+001
<MIXTURE> 2 5.000000e-001
<MEAN> 9
 -7.393284e+000 -1.129957e+001 4.435935e+000 -1.188911e+002 -4.128828e+000 -1.163799e+002 5.131136e-002 3.341013e-001 3.576075e-002
<VARIANCE> 9
 9.588587e+000 2.219759e+000 7.952166e+000 3.934455e+003 4.129181e+003 5.246979e+003 6.846720e-003 1.369381e-003 1.122477e-002
<GCONST> 3.077407e+001
<TRANSP> 8
 0.000000e+000 1.000000e+000 0.000000e+000 0.000000e+000 0.000000e+000 0.000000e+000 0.000000e+000 0.000000e+000
 0.000000e+000 9.565865e-001 4.341344e-002 0.000000e+000 0.000000e+000 0.000000e+000 0.000000e+000 0.000000e+000
 0.000000e+000 0.000000e+000 9.636842e-001 3.631578e-002 0.000000e+000 0.000000e+000 0.000000e+000 0.000000e+000
 0.000000e+000 0.000000e+000 0.000000e+000 9.536960e-001 4.630399e-002 0.000000e+000 0.000000e+000 0.000000e+000
 0.000000e+000 0.000000e+000 0.000000e+000 0.000000e+000 9.644900e-001 3.551000e-002 0.000000e+000 0.000000e+000
 0.000000e+000 0.000000e+000 0.000000e+000 0.000000e+000 0.000000e+000 9.564725e-001 4.352748e-002 0.000000e+000
 0.000000e+000 0.000000e+000 0.000000e+000 0.000000e+000 0.000000e+000 0.000000e+000 9.469005e-001 5.309954e-002
 0.000000e+000 0.000000e+000 0.000000e+000 0.000000e+000 0.000000e+000 0.000000e+000 0.000000e+000 0.000000e+000
<ENDHMM>
~h "SR"
<BEGINHMM>
<NUMSTATES> 8
<STATE> 2
<NUMMIXES> 2
<MIXTURE> 1 5.000000e-001
<MEAN> 9
 -8.788785e+000 -9.875907e+000 7.991258e-001 -2.886628e+001 -1.150449e+002 2.055386e+002 2.415559e-001 3.338856e-001 2.245324e-001
<VARIANCE> 9
 3.588009e+000 2.620882e+000 1.990132e+000 2.332423e+003 9.235462e+003 9.399823e+003 2.962471e-002 6.717673e-003 2.832222e-004
<GCONST> 2.881268e+001
<MIXTURE> 2 5.000000e-001
<MEAN> 9
 -9.546466e+000 -1.052347e+001 2.348377e-001 -4.818435e+001 -1.534855e+002 1.667576e+002 1.727085e-001 3.011010e-001 2.178008e-001
<VARIANCE> 9
 3.588009e+000 2.620882e+000 1.990132e+000 2.332423e+003 9.235462e+003 9.399823e+003 2.962471e-002 6.717673e-003 2.832222e-004
<GCONST> 2.881268e+001
<STATE> 3
<NUMMIXES> 2
<MIXTURE> 1 5.000000e-001
<MEAN> 9
 -4.200219e+000 -1.233417e+000 2.726070e+000 2.871137e+001 -7.719415e+000 1.880552e+001 5.121518e-001 -4.030151e-002 2.025167e-001
<VARIANCE> 9
 7.928468e+000 8.927461e+000 5.064207e-001 5.738874e+003 9.815830e+002 3.354209e+004 4.762525e-004 1.001173e-002 1.628692e-003
<GCONST> 2.741130e+001
<MIXTURE> 2 5.000000e-001
<MEAN> 9
 -5.326521e+000 -2.428571e+000 2.441417e+000 -1.590772e+000 -2.025150e+001 -5.445248e+001 5.034224e-001 -8.032496e-002 1.863739e-001
<VARIANCE> 9
 7.928468e+000 8.927461e+000 5.064207e-001 5.738874e+003 9.815830e+002 3.354209e+004 4.762525e-004 1.001173e-002 1.628692e-003
<GCONST> 2.741130e+001
<STATE> 4
<NUMMIXES> 2
<MIXTURE> 1 5.000000e-001
<MEAN> 9
 -1.039076e+001 -4.980397e+000 4.691422e+000 -1.936367e+001 -2.516899e+001 4.572947e+001 4.312418e-001 2.328801e-001 1.698076e-001
<VARIANCE> 9
 2.217311e+001 1.938523e+001 2.337690e+000 7.865124e+002 1.314128e+003 1.917582e+004 1.962073e-003 3.792518e-003 1.285803e-003
<GCONST> 2.869854e+001
<MIXTURE> 2 5.000000e-001
<MEAN> 9
 -1.227430e+001 -6.741543e+000 4.079842e+000 -3.058160e+001 -3.966935e+001 -9.661249e+000 4.135236e-001 2.082467e-001 1.554644e-001
<VARIANCE> 9
 2.217311e+001 1.938523e+001 2.337690e+000 7.865124e+002 1.314128e+003 1.917582e+004 1.962073e-003 3.792518e-003 1.285803e-003
<GCONST> 2.869854e+001
<STATE> 5
<NUMMIXES> 2
<MIXTURE> 1 5.000000e-001
<MEAN> 9
 -6.520894e+000 -4.252796e+000 4.114721e+000 2.393617e+001 1.103937e+001 -1.885657e+001 4.933541e-001 1.191178e-001 1.783647e-001
<VARIANCE> 9
 1.041191e+000 4.491523e-001 5.938479e-001 5.434989e+002 2.783545e+002 3.236856e+003 4.762525e-004 2.080446e-003 1.428345e-003
<GCONST> 1.489304e+001
<MIXTURE> 2 5.000000e-001
<MEAN> 9
 -6.929049e+000 -4.520871e+000 3.806475e+000 1.461095e+001 4.365782e+000 -4.161391e+001 4.846249e-001 1.008730e-001 1.632473e-001
<VARIANCE> 9
 1.041191e+000 4.491523e-001 5.938479e-001 5.434989e+002 2.783545e+002 3.236856e+003 4.762525e-004 2.080446e-003 1.428345e-003
<GCONST> 1.489304e+001
<STATE> 6
<NUMMIXES> 2
<MIXTURE> 1 5.000000e-001
<MEAN> 9
 -6.665636e+000 -7.236196e+000 1.382030e+000 5.139865e+001 1.134378e+002 -1.389782e+002 2.801280e-001 3.336908e-001 2.114021e-001
<VARIANCE> 9
 9.209697e-001 5.981705e+000 1.073586e+000 8.406721e+002 1.691463e+003 9.127246e+002 1.804680e-002 3.959985e-003 8.626079e-004
<GCONST> 2.270041e+001
<MIXTURE> 2 5.000000e-001
<MEAN> 9
 -7.049504e+000 -8.214497e+000 9.675739e-001 3.980091e+001 9.698682e+001 -1.510628e+002 2.263926e-001 3.085194e-001 1.996541e-001
<VARIANCE> 9
 9.209697e-001 5.981705e+000 1.073586e+000 8.406721e+002 1.691463e+003 9.127246e+002 1.804680e-002 3.959985e-003 8.626079e-004
<GCONST> 2.270041e+001
<STATE> 7
<NUMMIXES> 2
<MIXTURE> 1 5.000000e-001
<MEAN> 9
 -3.597916e+000 -1.003174e+001 1.483451e+000 -8.365377e+000 8.303313e+001 -3.040663e+001 -1.875435e-003 3.706131e-001 2.124068e-001
<VARIANCE> 9
 1.520118e+000 3.371764e-001 9.336618e-001 2.394218e+002 8.603535e+002 6.851461e+002 1.795537e-003 5.782502e-004 1.437751e-003
<GCONST> 1.424647e+001
<MIXTURE> 2 5.000000e-001
<MEAN> 9
 -4.091088e+000 -1.026400e+001 1.096947e+000 -1.455468e+001 7.130042e+001 -4.087675e+001 -1.882495e-002 3.609943e-001 1.972398e-001
<VARIANCE> 9
 1.520118e+000 3.371764e-001 9.336618e-001 2.394218e+002 8.603535e+002 6.851461e+002 1.795537e-003 5.782502e-004 1.437751e-003
<GCONST> 1.424647e+001
<TRANSP> 8
 0.000000e+000 1.000000e+000 0.000000e+000 0.000000e+000 0.000000e+000 0.000000e+000 0.000000e+000 0.000000e+000
 0.000000e+000 9.513423e-001 4.865774e-002 0.000000e+000 0.000000e+000 0.000000e+000 0.000000e+000 0.000000e+000
 0.000000e+000 0.000000e+000 9.564489e-001 4.355114e-002 0.000000e+000 0.000000e+000 0.000000e+000 0.000000e+000
 0.000000e+000 0.000000e+000 0.000000e+000 9.498841e-001 5.011590e-002 0.000000e+000 0.000000e+000 0.000000e+000
 0.000000e+000 0.000000e+000 0.000000e+000 0.000000e+000 9.458704e-001 5.412966e-002 0.000000e+000 0.000000e+000
 0.000000e+000 0.000000e+000 0.000000e+000 0.000000e+000 0.000000e+000 9.517815e-001 4.821848e-002 0.000000e+000
 0.000000e+000 0.000000e+000 0.000000e+000 0.000000e+000 0.000000e+000 0.000000e+000 9.317850e-001 6.821498e-002
 0.000000e+000 0.000000e+000 0.000000e+000 0.000000e+000 0.000000e+000 0.000000e+000 0.000000e+000 0.000000e+000
<ENDHMM>
~h "TK"
<BEGINHMM>
<NUMSTATES> 8
<STATE> 2
<NUMMIXES> 2
<MIXTURE> 1 5.000000e-001
<MEAN> 9
 -8.524424e+000 -9.960930e+000 -1.799871e+000 -3.690417e+001 6.997789e+001 1.895926e+002 1.388734e-001 3.662736e-001 2.172743e-001
<VARIANCE> 9
 3.102493e+000 1.698979e+000 6.611784e+000 3.771345e+003 3.484138e+003 7.768241e+003 1.250115e-002 6.750480e-004 3.659477e-003
<GCONST> 2.814784e+001
<MIXTURE> 2 5.000000e-001
<MEAN> 9
 -9.228979e+000 -1.048231e+001 -2.828407e+000 -6.146869e+001 4.636725e+001 1.543376e+002 9.414999e-002 3.558810e-001 1.930769e-001
<VARIANCE> 9
 3.102493e+000 1.698979e+000 6.611784e+000 3.771345e+003 3.484138e+003 7.768241e+003 1.250115e-002 6.750480e-004 3.659477e-003
<GCONST> 2.814784e+001
<STATE> 3
<NUMMIXES> 2
<MIXTURE> 1 5.000000e-001
<MEAN> 9
 -6.569634e+000 -7.702433e-001 -3.336530e+000 -1.737995e+002 2.698048e+001 1.755387e+002 4.139936e-001 4.566420e-002 4.446448e-001
<VARIANCE> 9
 2.903284e+000 1.197131e+001 2.853346e+000 8.469033e+002 9.283096e+002 4.126649e+003 1.884223e-003 2.789201e-002 4.261289e-003
<GCONST> 2.772608e+001
<MIXTURE> 2 5.000000e-001
<MEAN> 9
 -7.251196e+000 -2.154227e+000 -4.012204e+000 -1.854401e+002 1.479322e+001 1.498431e+002 3.966306e-001 -2.113940e-002 4.185334e-001
<VARIANCE> 9
 2.903284e+000 1.197131e+001 2.853346e+000 8.469033e+002 9.283096e+002 4.126649e+003 1.884223e-003 2.789201e-002 4.261289e-003
<GCONST> 2.772608e+001
<STATE> 4
<NUMMIXES> 2
<MIXTURE> 1 5.000000e-001
<MEAN> 9
 -5.025572e+000 6.222830e+000 1.789319e+000 2.749385e+001 1.917505e+001 5.459313e+000 3.533694e-001 -3.093511e-001 4.188741e-001
<VARIANCE> 9
 7.423176e-001 1.543727e+000 3.471191e+000 9.597248e+003 6.719893e+002 1.731071e+003 7.322450e-004 1.958680e-003 2.208420e-003
<GCONST> 2.148723e+001
<MIXTURE> 2 5.000000e-001
<MEAN> 9
 -5.370203e+000 5.725842e+000 1.044073e+000 -1.169237e+001 8.805949e+000 -1.118315e+001 3.425454e-001 -3.270539e-001 4.000766e-001
<VARIANCE> 9
 7.423176e-001 1.543727e+000 3.471191e+000 9.597248e+003 6.719893e+002 1.731071e+003 7.322450e-004 1.958680e-003 2.208420e-003
<GCONST> 2.148723e+001
<STATE> 5
<NUMMIXES> 2
<MIXTURE> 1 5.000000e-001
<MEAN> 9
 -8.626848e+000 2.201429e+000 -5.537790e+000 8.215897e+001 -3.581732e+000 -2.631448e+001 3.802856e-001 7.344983e-003 5.404418e-001
<VARIANCE> 9
 2.025073e+000 1.939550e+000 5.737669e+000 5.357640e+003 3.626700e+003 1.890065e+003 8.740293e-004 8.200129e-003 1.463423e-003
<GCONST> 2.560975e+001
<MIXTURE> 2 5.000000e-001
<MEAN> 9
 -9.196068e+000 1.644359e+000 -6.495928e+000 5.288060e+001 -2.767057e+001 -4.370444e+001 3.684600e-001 -2.887684e-002 5.251398e-001
<VARIANCE> 9
 2.025073e+000 1.939550e+000 5.737669e+000 5.357640e+003 3.626700e+003 1.890065e+003 8.740293e-004 8.200129e-003 1.463423e-003
<GCONST> 2.560975e+001
<STATE> 6
<NUMMIXES> 2
<MIXTURE> 1 5.000000e-001
<MEAN> 9
 -7.216025e+000 -2.744772e+000 1.402675e+000 1.200351e+001 -1.074455e+002 -1.395020e+002 4.263610e-001 2.087466e-001 2.413643e-001
<VARIANCE> 9
 2.420225e+000 7.410672e+000 4.446020e+000 1.221261e+003 8.921291e+003 3.947849e+003 6.016779e-003 1.295658e-002 1.368733e-002
<GCONST> 3.165381e+001
<MIXTURE> 2 5.000000e-001
<MEAN> 9
 -7.838308e+000 -3.833674e+000 5.592513e-001 -1.975109e+000 -1.452265e+002 -1.646348e+002 3.953338e-001 1.632158e-001 1.945671e-001
<VARIANCE> 9
 2.420225e+000 7.410672e+000 4.446020e+000 1.221261e+003 8.921291e+003 3.947849e+003 6.016779e-003 1.295658e-002 1.368733e-002
<GCONST> 3.165381e+001
<STATE> 7
<NUMMIXES> 2
<MIXTURE> 1 5.000000e-001
<MEAN> 9
 -5.566770e+000 -9.920981e+000 2.249389e+000 -1.817415e+001 8.085154e+001 -8.666609e+001 7.326899e-002 3.757591e-001 1.766846e-001
<VARIANCE> 9
 1.796857e+000 9.929979e-001 1.948426e+000 4.086471e+002 3.011664e+003 4.383178e+003 7.054199e-003 5.782502e-004 6.499643e-004
<GCONST> 2.044733e+001
<MIXTURE> 2 5.000000e-001
<MEAN> 9
 -6.102957e+000 -1.031958e+001 1.691045e+000 -2.626016e+001 5.890009e+001 -1.131483e+002 3.967328e-002 3.661403e-001 1.664868e-001
<VARIANCE> 9
 1.796857e+000 9.929979e-001 1.948426e+000 4.086471e+002 3.011664e+003 4.383178e+003 7.054199e-003 5.782502e-004 6.499643e-004
<GCONST> 2.044733e+001
<TRANSP> 8
 0.000000e+000 1.000000e+000 0.000000e+000 0.000000e+000 0.000000e+000 0.000000e+000 0.000000e+000 0.000000e+000
 0.000000e+000 9.316634e-001 6.833658e-002 0.000000e+000 0.000000e+000 0.000000e+000 0.000000e+000 0.000000e+000
 0.000000e+000 0.000000e+000 9.356797e-001 6.432036e-002 0.000000e+000 0.000000e+000 0.000000e+000 0.000000e+000
 0.000000e+000 0.000000e+000 0.000000e+000 9.611397e-001 3.886032e-002 0.000000e+000 0.000000e+000 0.000000e+000
 0.000000e+000 0.000000e+000 0.000000e+000 0.000000e+000 9.549907e-001 4.500924e-002 0.000000e+000 0.000000e+000
 0.000000e+000 0.000000e+000 0.000000e+000 0.000000e+000 0.000000e+000 9.457535e-001 5.424653e-002 0.000000e+000
 0.000000e+000 0.000000e+000 0.000000e+000 0.000000e+000 0.000000e+000 0.000000e+000 9.439590e-001 5.604099e-002
 0.000000e+000 0.000000e+000 0.000000e+000 0.000000e+000 0.000000e+000 0.000000e+000 0.000000e+000 0.000000e+000
<ENDHMM>
~h "sp"
<BEGINHMM>
<NUMSTATES> 8
<STATE> 2
<NUMMIXES> 2
<MIXTURE> 1 5.000000e-001
<MEAN> 9
 -3.701938e+000 -9.679303e+000 1.999897e+000 1.514815e+000 5.411261e+001 -2.222203e+000 -1.093743e-002 3.697716e-001 1.880927e-001
<VARIANCE> 9
 1.686245e+000 3.371764e-001 2.377783e+000 1.964657e+002 1.737649e+003 1.210095e+002 4.762525e-004 5.782502e-004 5.172855e-004
<GCONST> 1.170708e+001
<MIXTURE> 2 5.000000e-001
<MEAN> 9
 -4.221360e+000 -9.911571e+000 1.383095e+000 -4.091834e+000 3.743856e+001 -6.622376e+000 -1.966671e-002 3.601528e-001 1.789951e-001
<VARIANCE> 9
 1.686245e+000 3.371764e-001 2.377783e+000 1.964657e+002 1.737649e+003 1.210095e+002 4.762525e-004 5.782502e-004 5.172855e-004
<GCONST> 1.170708e+001
<STATE> 3
<NUMMIXES> 2
<MIXTURE> 1 5.000000e-001
<MEAN> 9
 -2.489436e+000 -9.661717e+000 6.477061e-002 5.597510e+000 -1.606191e+000 4.000618e+000 -1.939360e-002 3.696503e-001 1.836161e-001
<VARIANCE> 9
 7.128569e-001 3.371764e-001 2.443777e-001 2.977951e+001 1.371192e+002 1.210095e+002 5.303933e-004 5.782502e-004 4.495403e-004
<GCONST> 4.112089e+000
<MIXTURE> 2 5.000000e-001
<MEAN> 9
 -2.827160e+000 -9.893985e+000 -1.329677e-001 3.414686e+000 -6.290107e+000 -3.995544e-001 -2.860570e-002 3.600315e-001 1.751351e-001
<VARIANCE> 9
 7.128569e-001 3.371764e-001 2.443777e-001 2.977951e+001 1.371192e+002 1.210095e+002 5.303933e-004 5.782502e-004 4.495403e-004
<GCONST> 4.112089e+000
<STATE> 4
<NUMMIXES> 2
<MIXTURE> 1 5.000000e-001
<MEAN> 9
 -2.201542e+000 -9.810553e+000 1.248907e-001 4.277651e+000 1.476610e-001 2.809544e+000 -3.021036e-002 3.672991e-001 1.829427e-001
<VARIANCE> 9
 1.852415e-001 3.371764e-001 8.901487e-002 2.977951e+001 3.680466e+001 1.210095e+002 4.762525e-004 5.782502e-004 3.498141e-004
<GCONST> 8.083725e-002
<MIXTURE> 2 5.000000e-001
<MEAN> 9
 -2.373700e+000 -1.004282e+001 5.549233e-003 2.094827e+000 -2.279013e+000 -1.590629e+000 -3.893964e-002 3.576803e-001 1.754613e-001
<VARIANCE> 9
 1.852415e-001 3.371764e-001 8.901487e-002 2.977951e+001 3.680466e+001 1.210095e+002 4.762525e-004 5.782502e-004 3.498141e-004
<GCONST> 8.083725e-002
<STATE> 5
<NUMMIXES> 2
<MIXTURE> 1 5.000000e-001
<MEAN> 9
 -2.980673e+000 -9.617404e+000 3.399079e-001 4.345064e+000 1.369203e+000 2.357847e+000 -1.386044e-003 3.731418e-001 1.897172e-001
<VARIANCE> 9
 1.491142e-001 3.371764e-001 6.976298e-002 2.977951e+001 3.680466e+001 1.210095e+002 4.762525e-004 5.782502e-004 3.762915e-004
<GCONST> -3.068485e-001
<MIXTURE> 2 5.000000e-001
<MEAN> 9
 -3.135135e+000 -9.849671e+000 2.342571e-001 2.162240e+000 -1.057470e+000 -2.042325e+000 -1.011533e-002 3.635230e-001 1.819579e-001
<VARIANCE> 9
 1.491142e-001 3.371764e-001 6.976298e-002 2.977951e+001 3.680466e+001 1.210095e+002 4.762525e-004 5.782502e-004 3.762915e-004
<GCONST> -3.068485e-001
<STATE> 6
<NUMMIXES> 2
<MIXTURE> 1 5.000000e-001
<MEAN> 9
 -2.772777e+000 -9.730357e+000 5.722093e-001 4.215586e+000 -5.819766e+000 3.853940e+000 -2.082142e-002 3.698470e-001 1.861009e-001
<VARIANCE> 9
 4.659642e-001 3.371764e-001 8.406722e-002 2.977951e+001 9.590150e+001 1.210095e+002 4.769634e-004 5.782502e-004 3.743233e-004
<GCONST> 1.973007e+000
<MIXTURE> 2 5.000000e-001
<MEAN> 9
 -3.045823e+000 -9.962625e+000 4.562319e-001 2.032762e+000 -9.736938e+000 -5.462333e-001 -2.955722e-002 3.602282e-001 1.783619e-001
<VARIANCE> 9
 4.659642e-001 3.371764e-001 8.406722e-002 2.977951e+001 9.590150e+001 1.210095e+002 4.769634e-004 5.782502e-004 3.743233e-004
<GCONST> 1.973007e+000
<STATE> 7
<NUMMIXES> 2
<MIXTURE> 1 5.000000e-001
<MEAN> 9
 -4.495508e+000 -9.657286e+000 1.373799e+000 4.245356e+000 -3.524857e+001 1.160784e+001 -1.177288e-002 3.723957e-001 1.918910e-001
<VARIANCE> 9
 1.248065e+000 3.371764e-001 5.516402e-001 2.977951e+001 1.654628e+003 1.210095e+002 5.308388e-004 5.782502e-004 4.059343e-004
<GCONST> 7.875625e+000
<MIXTURE> 2 5.000000e-001
<MEAN> 9
 -4.942375e+000 -9.889553e+000 1.076709e+000 2.062532e+000 -5.151942e+001 7.207663e+000 -2.098886e-002 3.627769e-001 1.838318e-001
<VARIANCE> 9
 1.248065e+000 3.371764e-001 5.516402e-001 2.977951e+001 1.654628e+003 1.210095e+002 5.308388e-004 5.782502e-004 4.059343e-004
<GCONST> 7.875625e+000
<TRANSP> 8
 0.000000e+000 1.000000e+000 0.000000e+000 0.000000e+000 0.000000e+000 0.000000e+000 0.000000e+000 0.000000e+000
 0.000000e+000 8.110612e-001 1.889388e-001 0.000000e+000 0.000000e+000 0.000000e+000 0.000000e+000 0.000000e+000
 0.000000e+000 0.000000e+000 8.107443e-001 1.892557e-001 0.000000e+000 0.000000e+000 0.000000e+000 0.000000e+000
 0.000000e+000 0.000000e+000 0.000000e+000 9.170724e-001 8.292760e-002 0.000000e+000 0.000000e+000 0.000000e+000
 0.000000e+000 0.000000e+000 0.000000e+000 0.000000e+000 9.207583e-001 7.924170e-002 0.000000e+000 0.000000e+000
 0.000000e+000 0.000000e+000 0.000000e+000 0.000000e+000 0.000000e+000 8.003443e-001 1.996557e-001 0.000000e+000
 0.000000e+000 0.000000e+000 0.000000e+000 0.000000e+000 0.000000e+000 0.000000e+000 6.938959e-001 3.061041e-001
 0.000000e+000 0.000000e+000 0.000000e+000 0.000000e+000 0.000000e+000 0.000000e+000 0.000000e+000 0.000000e+000
<ENDHMM>
~h "ssil"
<BEGINHMM>
<NUMSTATES> 8
<STATE> 2
<NUMMIXES> 2
<MIXTURE> 1 5.000000e-001
<MEAN> 9
 -2.389353e+000 -9.743370e+000 2.877037e-001 5.268355e+000 4.112028e+000 2.552930e+000 -2.579108e-002 3.677184e-001 1.786084e-001
<VARIANCE> 9
 7.038843e-001 3.371764e-001 2.430005e-001 2.977951e+001 3.559076e+002 1.210095e+002 4.762525e-004 5.782502e-004 2.939904e-004
<GCONST> 4.515240e+000
<MIXTURE> 2 5.000000e-001
<MEAN> 9
 -2.724945e+000 -9.975637e+000 9.052333e-002 3.085531e+000 -3.434178e+000 -1.847243e+000 -3.452036e-002 3.580996e-001 1.717500e-001
<VARIANCE> 9
 7.038843e-001 3.371764e-001 2.430005e-001 2.977951e+001 3.559076e+002 1.210095e+002 4.762525e-004 5.782502e-004 2.939904e-004
<GCONST> 4.515240e+000
<STATE> 3
<NUMMIXES> 2
<MIXTURE> 1 5.000000e-001
<MEAN> 9
 -2.673701e+000 -9.692518e+000 2.570924e-001 4.023853e+000 -5.590861e-001 2.608728e+000 -1.269228e-002 3.716539e-001 1.827146e-001
<VARIANCE> 9
 1.725737e-001 3.371764e-001 6.976298e-002 2.977951e+001 3.680466e+001 1.210095e+002 4.762525e-004 5.782502e-004 2.762394e-004
<GCONST> -4.698339e-001
<MIXTURE> 2 5.000000e-001
<MEAN> 9
 -2.839869e+000 -9.924786e+000 1.514416e-001 1.841029e+000 -2.985760e+000 -1.791444e+000 -2.142156e-002 3.620351e-001 1.760664e-001
<VARIANCE> 9
 1.725737e-001 3.371764e-001 6.976298e-002 2.977951e+001 3.680466e+001 1.210095e+002 4.762525e-004 5.782502e-004 2.762394e-004
<GCONST> -4.698339e-001
<STATE> 4
<NUMMIXES> 2
<MIXTURE> 1 5.000000e-001
<MEAN> 9
 -1.933692e+000 -9.881708e+000 5.425957e-001 4.377890e+000 1.281951e+000 2.387054e+000 -4.951521e-002 3.643084e-001 1.832357e-001
<VARIANCE> 9
 1.491142e-001 3.371764e-001 6.976298e-002 2.977951e+001 3.680466e+001 1.210095e+002 4.762525e-004 5.782502e-004 1.943187e-004
<GCONST> -9.677129e-001
<MIXTURE> 2 5.000000e-001
<MEAN> 9
 -2.088154e+000 -1.011398e+001 4.369449e-001 2.195066e+000 -1.144723e+000 -2.013119e+000 -5.824449e-002 3.546896e-001 1.776597e-001
<VARIANCE> 9
 1.491142e-001 3.371764e-001 6.976298e-002 2.977951e+001 3.680466e+001 1.210095e+002 4.762525e-004 5.782502e-004 1.943187e-004
<GCONST> -9.677129e-001
<STATE> 5
<NUMMIXES> 2
<MIXTURE> 1 5.000000e-001
<MEAN> 9
 -2.615164e+000 -9.726626e+000 3.223397e-001 4.385510e+000 1.347515e+000 2.274926e+000 -1.505398e-002 3.713645e-001 1.870615e-001
<VARIANCE> 9
 1.491142e-001 3.371764e-001 6.976298e-002 2.977951e+001 3.680466e+001 1.210095e+002 4.762525e-004 5.782502e-004 4.360449e-004
<GCONST> -1.594672e-001
<MIXTURE> 2 5.000000e-001
<MEAN> 9
 -2.769626e+000 -9.958894e+000 2.166889e-001 2.202686e+000 -1.079159e+000 -2.125246e+000 -2.378326e-002 3.617457e-001 1.787089e-001
<VARIANCE> 9
 1.491142e-001 3.371764e-001 6.976298e-002 2.977951e+001 3.680466e+001 1.210095e+002 4.762525e-004 5.782502e-004 4.360449e-004
<GCONST> -1.594672e-001
<STATE> 6
<NUMMIXES> 2
<MIXTURE> 1 5.000000e-001
<MEAN> 9
 -3.075095e+000 -9.578712e+000 -7.058513e-002 4.422653e+000 1.198994e+000 2.273069e+000 5.586390e-003 3.740151e-001 2.078436e-001
<VARIANCE> 9
 1.491142e-001 3.371764e-001 6.976298e-002 2.977951e+001 3.680466e+001 1.210095e+002 4.762525e-004 5.782502e-004 3.377357e-004
<GCONST> -4.149489e-001
<MIXTURE> 2 5.000000e-001
<MEAN> 9
 -3.229557e+000 -9.810979e+000 -1.762359e-001 2.239829e+000 -1.227680e+000 -2.127104e+000 -3.142894e-003 3.643963e-001 2.004926e-001
<VARIANCE> 9
 1.491142e-001 3.371764e-001 6.976298e-002 2.977951e+001 3.680466e+001 1.210095e+002 4.762525e-004 5.782502e-004 3.377357e-004
<GCONST> -4.149489e-001
<STATE> 7
<NUMMIXES> 2
<MIXTURE> 1 5.000000e-001
<MEAN> 9
 -3.455551e+000 -9.672817e+000 8.600144e-001 4.407099e+000 -4.331715e+000 7.069547e+000 -8.803494e-003 3.721973e-001 1.996825e-001
<VARIANCE> 9
 1.359248e+000 3.371764e-001 6.452765e-001 2.977951e+001 6.022124e+002 1.210095e+002 5.471239e-004 5.782502e-004 4.628930e-004
<GCONST> 7.268545e+000
<MIXTURE> 2 5.000000e-001
<MEAN> 9
 -3.921899e+000 -9.905085e+000 5.386980e-001 2.224275e+000 -1.414772e+001 2.669374e+000 -1.815977e-002 3.625785e-001 1.910765e-001
<VARIANCE> 9
 1.359248e+000 3.371764e-001 6.452765e-001 2.977951e+001 6.022124e+002 1.210095e+002 5.471239e-004 5.782502e-004 4.628930e-004
<GCONST> 7.268545e+000
<TRANSP> 8
 0.000000e+000 1.000000e+000 0.000000e+000 0.000000e+000 0.000000e+000 0.000000e+000 0.000000e+000 0.000000e+000
 0.000000e+000 8.424995e-001 1.575005e-001 0.000000e+000 0.000000e+000 0.000000e+000 0.000000e+000 0.000000e+000
 0.000000e+000 0.000000e+000 9.133245e-001 8.667548e-002 0.000000e+000 0.000000e+000 0.000000e+000 0.000000e+000
 0.000000e+000 0.000000e+000 0.000000e+000 9.627272e-001 3.727284e-002 0.000000e+000 0.000000e+000 0.000000e+000
 0.000000e+000 0.000000e+000 0.000000e+000 0.000000e+000 9.657873e-001 3.421270e-002 0.000000e+000 0.000000e+000
 0.000000e+000 0.000000e+000 0.000000e+000 0.000000e+000 0.000000e+000 9.693684e-001 3.063161e-002 0.000000e+000
 0.000000e+000 0.000000e+000 0.000000e+000 0.000000e+000 0.000000e+000 0.000000e+000 7.155645e-001 2.844355e-001
 0.000000e+000 0.000000e+000 0.000000e+000 0.000000e+000 0.000000e+000 0.000000e+000 0.000000e+000 0.000000e+000
<ENDHMM>
~h "HAU"
<BEGINHMM>
<NUMSTATES> 8
<STATE> 2
<NUMMIXES> 2
<MIXTURE> 1 5.000000e-001
<MEAN> 9
 -6.171713e+000 -1.098233e+001 1.813551e+000 7.942681e+000 -1.355320e+002 1.357551e+002 9.277628e-002 3.744950e-001 2.275842e-001
<VARIANCE> 9
 3.048025e+000 9.154581e-001 5.919036e-001 1.498767e+002 7.238586e+003 5.363302e+003 8.293308e-003 5.782502e-004 6.215837e-004
<GCONST> 1.989593e+001
<MIXTURE> 2 5.000000e-001
<MEAN> 9
 -6.870057e+000 -1.136505e+001 1.505809e+000 3.045716e+000 -1.695640e+002 1.064613e+002 5.634924e-002 3.648762e-001 2.176116e-001
<VARIANCE> 9
 3.048025e+000 9.154581e-001 5.919036e-001 1.498767e+002 7.238586e+003 5.363302e+003 8.293308e-003 5.782502e-004 6.215837e-004
<GCONST> 1.989593e+001
<STATE> 3
<NUMMIXES> 2
<MIXTURE> 1 5.000000e-001
<MEAN> 9
 -6.976613e+000 -2.872118e+000 2.429805e+000 4.084580e+001 4.707343e+001 2.163630e+002 4.569450e-001 1.638697e-001 1.952644e-001
<VARIANCE> 9
 2.310265e+000 1.369720e+001 2.178774e+000 9.195470e+002 5.706336e+003 2.047453e+003 6.285971e-003 2.055701e-002 2.157849e-003
<GCONST> 2.877914e+001
<MIXTURE> 2 5.000000e-001
<MEAN> 9
 -7.584595e+000 -4.352508e+000 1.839378e+000 2.871618e+001 1.685731e+001 1.982634e+002 4.252314e-001 1.065189e-001 1.766834e-001
<VARIANCE> 9
 2.310265e+000 1.369720e+001 2.178774e+000 9.195470e+002 5.706336e+003 2.047453e+003 6.285971e-003 2.055701e-002 2.157849e-003
<GCONST> 2.877914e+001
<STATE> 4
<NUMMIXES> 2
<MIXTURE> 1 5.000000e-001
<MEAN> 9
 -7.129275e+000 3.794965e+000 2.041531e+000 7.071679e+000 1.573352e+000 4.788886e+000 5.077130e-001 -9.901001e-002 2.481676e-001
<VARIANCE> 9
 8.144907e+000 1.377462e+000 2.953020e-001 1.025859e+002 3.454799e+002 1.780329e+003 4.762525e-004 2.842329e-003 1.948556e-004
<GCONST> 1.364301e+001
<MIXTURE> 2 5.000000e-001
<MEAN> 9
 -8.270846e+000 3.325503e+000 1.824165e+000 3.020291e+000 -5.861484e+000 -1.208869e+001 4.989837e-001 -1.203354e-001 2.425840e-001
<VARIANCE> 9
 8.144907e+000 1.377462e+000 2.953020e-001 1.025859e+002 3.454799e+002 1.780329e+003 4.762525e-004 2.842329e-003 1.948556e-004
<GCONST> 1.364301e+001
<STATE> 5
<NUMMIXES> 2
<MIXTURE> 1 5.000000e-001
<MEAN> 9
 -6.685646e+000 7.866319e-001 2.048549e+000 2.489824e+001 -4.234359e+001 -1.189949e+002 5.123070e-001 2.912871e-002 1.979407e-001
<VARIANCE> 9
 1.886569e+000 1.455597e+000 3.978612e-001 2.082175e+002 1.151150e+003 2.020655e+003 4.762525e-004 5.264715e-003 1.353172e-003
<GCONST> 1.712610e+001
<MIXTURE> 2 5.000000e-001
<MEAN> 9
 -7.235056e+000 3.040394e-001 1.796245e+000 1.912634e+001 -5.591503e+001 -1.369755e+002 5.035777e-001 1.053689e-004 1.832265e-001
<VARIANCE> 9
 1.886569e+000 1.455597e+000 3.978612e-001 2.082175e+002 1.151150e+003 2.020655e+003 4.762525e-004 5.264715e-003 1.353172e-003
<GCONST> 1.712610e+001
<STATE> 6
<NUMMIXES> 2
<MIXTURE> 1 5.000000e-001
<MEAN> 9
 -7.951145e+000 -6.412894e+000 1.841421e+000 2.097747e+001 5.224719e+001 -1.559021e+002 3.291821e-001 3.114821e-001 1.955086e-001
<VARIANCE> 9
 2.229022e+000 8.453074e+000 1.937992e+000 3.773473e+002 1.600365e+003 1.754069e+003 1.472977e-002 5.519406e-003 1.631489e-003
<GCONST> 2.508385e+001
<MIXTURE> 2 5.000000e-001
<MEAN> 9
 -8.548342e+000 -7.575861e+000 1.284573e+000 1.320729e+001 3.624537e+001 -1.726547e+002 2.806356e-001 2.817650e-001 1.793520e-001
<VARIANCE> 9
 2.229022e+000 8.453074e+000 1.937992e+000 3.773473e+002 1.600365e+003 1.754069e+003 1.472977e-002 5.519406e-003 1.631489e-003
<GCONST> 2.508385e+001
<STATE> 7
<NUMMIXES> 2
<MIXTURE> 1 5.000000e-001
<MEAN> 9
 -4.555144e+000 -1.001906e+001 1.430274e+000 1.797822e+000 7.441364e+001 -4.897005e+001 4.061687e-002 3.795916e-001 1.906381e-001
<VARIANCE> 9
 1.355054e+000 3.371764e-001 4.836164e-001 1.308000e+002 1.468198e+003 1.441389e+003 2.123681e-003 5.782502e-004 2.008772e-004
<GCONST> 1.234702e+001
<MIXTURE> 2 5.000000e-001
<MEAN> 9
 -5.020771e+000 -1.025132e+001 1.152104e+000 -2.776891e+000 5.908681e+001 -6.415630e+001 2.218351e-002 3.699728e-001 1.849689e-001
<VARIANCE> 9
 1.355054e+000 3.371764e-001 4.836164e-001 1.308000e+002 1.468198e+003 1.441389e+003 2.123681e-003 5.782502e-004 2.008772e-004
<GCONST> 1.234702e+001
<TRANSP> 8
 0.000000e+000 1.000000e+000 0.000000e+000 0.000000e+000 0.000000e+000 0.000000e+000 0.000000e+000 0.000000e+000
 0.000000e+000 9.300620e-001 6.993795e-002 0.000000e+000 0.000000e+000 0.000000e+000 0.000000e+000 0.000000e+000
 0.000000e+000 0.000000e+000 9.419899e-001 5.801007e-002 0.000000e+000 0.000000e+000 0.000000e+000 0.000000e+000
 0.000000e+000 0.000000e+000 0.000000e+000 9.594415e-001 4.055848e-002 0.000000e+000 0.000000e+000 0.000000e+000
 0.000000e+000 0.000000e+000 0.000000e+000 0.000000e+000 9.047907e-001 9.520929e-002 0.000000e+000 0.000000e+000
 0.000000e+000 0.000000e+000 0.000000e+000 0.000000e+000 0.000000e+000 9.463732e-001 5.362681e-002 0.000000e+000
 0.000000e+000 0.000000e+000 0.000000e+000 0.000000e+000 0.000000e+000 0.000000e+000 9.307652e-001 6.923480e-002
 0.000000e+000 0.000000e+000 0.000000e+000 0.000000e+000 0.000000e+000 0.000000e+000 0.000000e+000 0.000000e+000
<ENDHMM>
