~o
<STREAMINFO> 1 9
<VECSIZE> 9<NULLD><USER><DIAGC>
~h "GA"
<BEGINHMM>
<NUMSTATES> 8
<STATE> 2
<NUMMIXES> 24
<MIXTURE> 1 2.616229e-002
<MEAN> 9
 -9.106947e+000 -9.802808e+000 1.472937e-001 6.537601e+001 1.010355e+002 1.439618e+002 1.028199e-001 3.665119e-001 1.551228e-001
<VARIANCE> 9
 1.491142e-001 3.371764e-001 6.976298e-002 2.977951e+001 3.680466e+001 1.210095e+002 4.762525e-004 5.782502e-004 1.938003e-004
<GCONST> -9.703841e-001
<MIXTURE> 2 5.125928e-002
<MEAN> 9
 -9.777108e+000 -6.933735e+000 -2.506024e+000 -3.756097e+001 3.402439e+001 2.647256e+002 2.822727e-001 3.159091e-001 1.770408e-001
<VARIANCE> 9
 1.491142e-001 3.371764e-001 6.976298e-002 3.426532e+001 3.680466e+001 1.210095e+002 5.373970e-004 5.782502e-004 1.938003e-004
<GCONST> -7.092824e-001
<MIXTURE> 3 5.125751e-002
<MEAN> 9
 -1.161446e+001 -9.150589e+000 4.638484e-001 -3.999974e+001 -6.070189e+001 2.259753e+002 2.663636e-001 3.568186e-001 1.551025e-001
<VARIANCE> 9
 2.560857e-001 3.371764e-001 6.976298e-002 2.977951e+001 3.680466e+001 1.210095e+002 4.762525e-004 5.782502e-004 1.938003e-004
<GCONST> -4.295855e-001
<MIXTURE> 4 2.562967e-002
<MEAN> 9
 -8.265060e+000 -1.145783e+001 1.036145e+000 3.164634e+001 3.993903e+001 2.068293e+002 9.909091e-002 3.663636e-001 1.602041e-001
<VARIANCE> 9
 1.491142e-001 3.371764e-001 6.976298e-002 2.977951e+001 3.680466e+001 1.210095e+002 4.762525e-004 5.782502e-004 1.938003e-004
<GCONST> -9.703841e-001
<MIXTURE> 5 2.562967e-002
<MEAN> 9
 -1.101205e+001 -9.626506e+000 -1.036145e+000 1.097561e+001 1.000000e+002 2.448171e+002 1.681818e-001 3.827273e-001 1.612245e-001
<VARIANCE> 9
 1.491142e-001 3.371764e-001 6.976298e-002 2.977951e+001 3.680466e+001 1.210095e+002 4.762525e-004 5.782502e-004 1.938003e-004
<GCONST> -9.703841e-001
<MIXTURE> 6 5.170360e-002
<MEAN> 9
 -7.494765e+000 -1.001875e+001 1.122152e-001 2.003503e+000 -3.763235e+000 1.277472e+002 6.019618e-002 3.687280e-001 1.474892e-001
<VARIANCE> 9
 4.034999e-001 3.371764e-001 1.226428e-001 2.977951e+001 3.680466e+001 1.210095e+002 4.762525e-004 5.782502e-004 1.938003e-004
<GCONST> 5.892515e-001
<MIXTURE> 7 2.564589e-002
<MEAN> 9
 -1.031319e+001 -6.710217e+000 -3.072595e+000 -1.128787e+001 4.994038e+001 2.229899e+002 2.872998e-001 3.308924e-001 1.530651e-001
<VARIANCE> 9
 1.491142e-001 3.371764e-001 6.976298e-002 2.977951e+001 3.680466e+001 1.210095e+002 4.762525e-004 5.782502e-004 1.938003e-004
<GCONST> -9.703841e-001
<MIXTURE> 8 2.562966e-002
<MEAN> 9
 -1.012048e+001 -6.951807e+000 -3.132530e-001 -7.628049e+001 -5.957317e+001 2.601829e+002 3.727273e-001 2.836364e-001 1.612245e-001
<VARIANCE> 9
 1.491142e-001 3.371764e-001 6.976298e-002 2.977951e+001 3.680466e+001 1.210095e+002 4.762525e-004 5.782502e-004 1.938003e-004
<GCONST> -9.703841e-001
<MIXTURE> 9 5.125819e-002
<MEAN> 9
 -9.885542e+000 -8.879520e+000 -1.578303e+000 3.493912e+001 6.402442e+001 1.969816e+002 1.909087e-001 3.504545e-001 1.454081e-001
<VARIANCE> 9
 1.491142e-001 3.371764e-001 2.560604e-001 2.977951e+001 3.680466e+001 1.210095e+002 4.762525e-004 5.782502e-004 1.938003e-004
<GCONST> 3.299246e-001
<MIXTURE> 10 2.562966e-002
<MEAN> 9
 -7.024096e+000 -1.144578e+001 5.662650e-001 1.152439e+001 -1.418293e+002 1.054878e+002 1.727273e-002 3.727273e-001 1.734694e-001
<VARIANCE> 9
 1.491142e-001 3.371764e-001 6.976298e-002 2.977951e+001 3.680466e+001 1.210095e+002 4.762525e-004 5.782502e-004 1.938003e-004
<GCONST> -9.703841e-001
<MIXTURE> 11 5.072563e-002
<MEAN> 9
 -9.669245e+000 -9.438177e+000 -3.072922e-001 5.232872e+001 8.603356e+001 1.694427e+002 1.302388e-001 3.759330e-001 1.550913e-001
<VARIANCE> 9
 1.491142e-001 3.371764e-001 6.976298e-002 2.977951e+001 8.088132e+001 1.210095e+002 5.164719e-004 5.782502e-004 1.938003e-004
<GCONST> -1.019526e-001
<MIXTURE> 12 5.127789e-002
<MEAN> 9
 -8.698858e+000 -9.391608e+000 9.454222e-001 -1.765145e+001 -7.615616e+001 1.756344e+002 1.458951e-001 3.718175e-001 1.535708e-001
<VARIANCE> 9
 1.677532e-001 3.371764e-001 6.976298e-002 2.977951e+001 3.680466e+001 1.210095e+002 4.762525e-004 5.782502e-004 1.938003e-004
<GCONST> -8.526015e-001
<MIXTURE> 13 5.126096e-002
<MEAN> 9
 -1.045787e+001 -8.927732e+000 4.156718e-001 -2.280578e+001 -7.509028e+001 2.005806e+002 2.077295e-001 3.713627e-001 1.576525e-001
<VARIANCE> 9
 1.491142e-001 3.371764e-001 6.976298e-002 3.080204e+001 3.680466e+001 1.210095e+002 4.762525e-004 5.782502e-004 1.938003e-004
<GCONST> -9.366241e-001
<MIXTURE> 14 5.124316e-002
<MEAN> 9
 -8.903579e+000 -9.632595e+000 -2.952788e-001 -1.005851e+001 -5.270441e+001 1.545089e+002 9.499316e-002 3.713641e-001 1.520406e-001
<VARIANCE> 9
 1.491142e-001 3.371764e-001 7.348257e-002 2.977951e+001 2.864174e+002 1.210095e+002 4.762525e-004 5.782502e-004 1.938003e-004
<GCONST> 1.133388e+000
<MIXTURE> 15 5.125928e-002
<MEAN> 9
 -9.813253e+000 -5.277108e+000 -3.518073e+000 -6.603659e+001 3.850610e+001 2.589634e+002 3.531819e-001 2.950000e-001 1.948980e-001
<VARIANCE> 9
 1.491142e-001 3.371764e-001 7.678908e-002 6.187163e+001 3.680466e+001 1.210095e+002 5.373964e-004 5.782502e-004 1.938003e-004
<GCONST> -2.239704e-002
<MIXTURE> 16 2.562967e-002
<MEAN> 9
 -1.181928e+001 -8.337349e+000 -2.506024e+000 -1.810976e+001 5.689024e+001 2.601829e+002 2.427273e-001 3.563636e-001 1.734694e-001
<VARIANCE> 9
 1.491142e-001 3.371764e-001 6.976298e-002 2.977951e+001 3.680466e+001 1.210095e+002 4.762525e-004 5.782502e-004 1.938003e-004
<GCONST> -9.703841e-001
<MIXTURE> 17 2.562967e-002
<MEAN> 9
 -1.262651e+001 -8.891566e+000 -2.385542e+000 -5.609756e+000 8.871951e+001 2.552439e+002 1.918182e-001 3.527273e-001 1.581633e-001
<VARIANCE> 9
 1.491142e-001 3.371764e-001 6.976298e-002 2.977951e+001 3.680466e+001 1.210095e+002 4.762525e-004 5.782502e-004 1.938003e-004
<GCONST> -9.703841e-001
<MIXTURE> 18 2.562967e-002
<MEAN> 9
 -9.421687e+000 -1.054217e+001 -9.638554e-002 2.560976e+001 7.707317e+001 2.281098e+002 1.227273e-001 3.790909e-001 1.622449e-001
<VARIANCE> 9
 1.491142e-001 3.371764e-001 6.976298e-002 2.977951e+001 3.680466e+001 1.210095e+002 4.762525e-004 5.782502e-004 1.938003e-004
<GCONST> -9.703841e-001
<MIXTURE> 19 5.125933e-002
<MEAN> 9
 -6.728916e+000 -1.217470e+001 1.536145e+000 2.140244e+001 -5.783536e+001 1.586890e+002 5.136364e-002 3.781818e-001 1.750000e-001
<VARIANCE> 9
 1.491142e-001 3.371764e-001 6.976298e-002 2.977951e+001 1.106374e+003 3.009380e+002 4.762525e-004 5.782502e-004 1.938003e-004
<GCONST> 3.343871e+000
<MIXTURE> 20 5.125933e-002
<MEAN> 9
 -1.203012e+001 -8.246988e+000 -9.698796e-001 -5.878049e+001 -7.875000e+001 2.528049e+002 3.263637e-001 3.059091e-001 1.545918e-001
<VARIANCE> 9
 4.967701e-001 3.371764e-001 6.976298e-002 4.336703e+001 3.680466e+001 1.210095e+002 5.165287e-004 5.782502e-004 1.938003e-004
<GCONST> 6.900911e-001
<MIXTURE> 21 5.124309e-002
<MEAN> 9
 -1.042175e+001 -5.162473e+000 -3.566269e+000 -2.859936e+001 5.384202e+001 2.267990e+002 3.354563e-001 2.890860e-001 1.627562e-001
<VARIANCE> 9
 1.491142e-001 3.371764e-001 6.976298e-002 3.215719e+001 3.680466e+001 1.210095e+002 4.762525e-004 5.782502e-004 1.938003e-004
<GCONST> -8.935676e-001
<MIXTURE> 22 5.125697e-002
<MEAN> 9
 -8.259066e+000 -1.063856e+001 -1.024066e-001 1.978650e+001 -9.771461e+001 6.445179e+001 5.000274e-003 3.618183e-001 1.653062e-001
<VARIANCE> 9
 4.154811e-001 3.371764e-001 6.976298e-002 2.977951e+001 6.574221e+002 1.532161e+002 4.762525e-004 5.782502e-004 1.938003e-004
<GCONST> 3.173022e+000
<MIXTURE> 23 5.126192e-002
<MEAN> 9
 -8.024020e+000 -1.040964e+001 1.765147e+000 6.316945e+001 9.228512e+001 1.124061e+002 6.317994e-002 3.695455e-001 1.739813e-001
<VARIANCE> 9
 1.491142e-001 3.371764e-001 3.557691e-001 2.977951e+001 3.680466e+001 1.239099e+002 4.762525e-004 5.782502e-004 1.938003e-004
<GCONST> 6.824808e-001
<MIXTURE> 24 5.125803e-002
<MEAN> 9
 -1.063253e+001 -7.662651e+000 -2.608434e+000 1.088415e+001 6.917683e+001 2.140549e+002 2.431818e-001 3.259091e-001 1.443878e-001
<VARIANCE> 9
 1.491142e-001 3.371764e-001 6.976298e-002 5.046196e+001 3.680466e+001 1.210095e+002 4.762525e-004 5.782502e-004 1.938003e-004
<GCONST> -4.429865e-001
<STATE> 3
<NUMMIXES> 24
<MIXTURE> 1 5.262992e-002
<MEAN> 9
 -5.489953e+000 2.048286e-001 2.156623e+000 -6.857701e+001 8.942562e+000 1.640438e+002 5.239391e-001 -6.878874e-002 2.221088e-001
<VARIANCE> 9
 1.491142e-001 3.371764e-001 6.976298e-002 2.977951e+001 2.204489e+002 3.781329e+002 4.762525e-004 5.782502e-004 1.938003e-004
<GCONST> 1.959033e+000
<MIXTURE> 2 3.508796e-002
<MEAN> 9
 -9.885542e+000 -1.746988e+000 1.909639e+000 -8.771341e+001 3.771341e+001 2.200610e+002 5.168182e-001 5.954545e-002 2.051020e-001
<VARIANCE> 9
 2.621934e-001 3.371764e-001 6.976298e-002 2.977951e+001 2.277523e+002 1.210095e+002 4.762525e-004 5.782502e-004 1.938003e-004
<GCONST> 1.416621e+000
<MIXTURE> 3 5.263168e-002
<MEAN> 9
 -6.425704e+000 2.028110e+000 -1.144575e+000 -1.806707e+002 7.195114e+000 9.128038e+001 5.018182e-001 -7.030316e-002 3.023809e-001
<VARIANCE> 9
 1.491142e-001 3.371764e-001 3.162531e-001 2.977951e+001 3.680466e+001 3.019351e+002 4.762525e-004 5.782502e-004 1.938003e-004
<GCONST> 1.455400e+000
<MIXTURE> 4 3.508239e-002
<MEAN> 9
 -9.084372e+000 -4.000032e+000 6.806322e-001 -9.728613e+001 -3.262319e+001 2.510372e+002 4.609079e-001 1.695464e-001 1.698972e-001
<VARIANCE> 9
 1.491142e-001 3.371764e-001 3.275149e-001 2.977951e+001 6.091612e+001 1.210095e+002 4.762525e-004 5.782502e-004 1.938003e-004
<GCONST> 1.079921e+000
<MIXTURE> 5 3.508726e-002
<MEAN> 9
 -6.451819e+000 1.783124e+000 -2.536149e+000 -1.748170e+002 -7.164693e+000 1.398172e+002 4.963636e-001 -8.636299e-003 2.989795e-001
<VARIANCE> 9
 3.275149e-001 3.371764e-001 6.976298e-002 2.977951e+001 3.680466e+001 1.210095e+002 4.762525e-004 5.782502e-004 1.938003e-004
<GCONST> -1.835642e-001
<MIXTURE> 6 5.263119e-002
<MEAN> 9
 -8.016063e+000 1.646609e-001 3.341355e+000 -1.146142e+002 -4.926836e+001 1.689026e+001 5.027273e-001 -1.493938e-001 2.680274e-001
<VARIANCE> 9
 1.491142e-001 3.371764e-001 3.740559e-001 4.647439e+002 3.680466e+001 1.210095e+002 4.762525e-004 5.782502e-004 1.938003e-004
<GCONST> 3.456584e+000
<MIXTURE> 7 5.263105e-002
<MEAN> 9
 -8.690769e+000 -3.321295e+000 -4.032131e+000 -1.016868e+002 9.756153e+000 2.397359e+002 4.163634e-001 2.133336e-001 2.248298e-001
<VARIANCE> 9
 2.203842e-001 3.371764e-001 6.976298e-002 1.051854e+002 3.680466e+001 1.210095e+002 4.762525e-004 5.782502e-004 1.938003e-004
<GCONST> 6.821814e-001
<MIXTURE> 8 3.508861e-002
<MEAN> 9
 -7.969888e+000 -1.451838e+000 -3.915661e+000 -1.305788e+002 1.414613e+001 2.122566e+002 4.690901e-001 1.445467e-001 2.581627e-001
<VARIANCE> 9
 1.491142e-001 3.371764e-001 6.976298e-002 2.977951e+001 3.680466e+001 1.210095e+002 4.762525e-004 5.782502e-004 1.938003e-004
<GCONST> -9.703841e-001
<MIXTURE> 9 5.325224e-002
<MEAN> 9
 -8.392036e+000 3.433101e-002 5.382903e+000 -1.258317e+002 -4.327321e+001 -1.181277e+001 5.127510e-001 -1.326821e-001 1.751944e-001
<VARIANCE> 9
 1.491142e-001 3.371764e-001 3.207664e+000 2.179720e+003 7.844775e+001 1.210095e+002 4.762525e-004 5.782502e-004 7.105936e-004
<GCONST> 9.207021e+000
<MIXTURE> 10 3.508797e-002
<MEAN> 9
 -6.855422e+000 1.271084e+000 1.807229e+000 -1.677134e+002 -2.158537e+001 4.121951e+001 5.000000e-001 -1.040909e-001 2.964286e-001
<VARIANCE> 9
 1.491142e-001 3.371764e-001 2.207868e-001 4.622344e+001 9.518143e+001 1.210095e+002 4.762525e-004 5.782502e-004 1.938003e-004
<GCONST> 1.571536e+000
<MIXTURE> 11 3.508762e-002
<MEAN> 9
 -7.891563e+000 -1.385570e-001 -4.048193e+000 -1.552439e+002 2.637194e+001 1.828354e+002 4.863636e-001 7.909090e-002 2.826530e-001
<VARIANCE> 9
 1.491142e-001 3.371764e-001 6.976298e-002 4.417382e+001 3.680466e+001 1.210095e+002 4.762525e-004 5.782502e-004 1.938003e-004
<GCONST> -5.760741e-001
<MIXTURE> 12 3.508790e-002
<MEAN> 9
 -9.837350e+000 -3.849397e+000 -4.265061e+000 -4.905489e+001 3.603658e+001 2.225000e+002 3.881818e-001 2.459091e-001 1.811225e-001
<VARIANCE> 9
 1.491142e-001 3.371764e-001 1.394977e-001 2.977951e+001 3.680466e+001 1.210095e+002 4.762525e-004 5.782502e-004 1.938003e-004
<GCONST> -2.774401e-001
<MIXTURE> 13 6.964038e-002
<MEAN> 9
 -7.080028e+000 3.821060e+000 -4.023655e+000 -1.355024e+002 3.079032e+001 7.914626e+001 5.038444e-001 -7.583039e-002 2.714600e-001
<VARIANCE> 9
 1.491142e-001 3.371764e-001 8.809654e-002 1.064619e+002 3.680466e+001 2.048542e+002 4.762525e-004 5.782502e-004 1.938003e-004
<GCONST> 1.063342e+000
<MIXTURE> 14 3.548439e-002
<MEAN> 9
 -6.554712e+000 6.839356e-001 -3.705697e+000 -1.101764e+002 -6.357516e+000 1.538988e+002 4.966502e-001 6.200140e-002 2.508719e-001
<VARIANCE> 9
 1.491142e-001 3.371764e-001 6.976298e-002 2.977951e+001 3.680466e+001 1.210095e+002 4.762525e-004 5.782502e-004 1.938003e-004
<GCONST> -9.703841e-001
<MIXTURE> 15 5.200855e-002
<MEAN> 9
 -8.049668e+000 -5.675637e-001 5.180911e+000 -1.595289e+002 -6.229828e+001 -2.237756e+001 5.157695e-001 -1.266410e-001 1.920123e-001
<VARIANCE> 9
 1.491142e-001 3.371764e-001 6.787059e-001 2.719234e+002 3.680466e+001 1.210095e+002 4.762525e-004 5.782502e-004 1.973410e-004
<GCONST> 3.534503e+000
<MIXTURE> 16 3.508797e-002
<MEAN> 9
 -5.969880e+000 2.277108e+000 1.204830e-002 -1.871951e+002 -6.204268e+001 1.155488e+001 5.077273e-001 -1.281818e-001 2.443878e-001
<VARIANCE> 9
 1.491142e-001 3.371764e-001 7.525040e-001 2.977951e+001 3.680466e+001 1.210095e+002 4.762525e-004 5.782502e-004 1.938003e-004
<GCONST> 1.407920e+000
<MIXTURE> 17 5.261293e-002
<MEAN> 9
 -8.782994e+000 -1.778921e+000 -3.855387e+000 -9.099878e+001 2.447353e+001 1.932696e+002 4.639431e-001 1.312064e-001 2.295977e-001
<VARIANCE> 9
 1.491142e-001 3.371764e-001 6.976298e-002 3.840156e+001 3.680466e+001 1.210095e+002 4.762525e-004 5.782502e-004 1.938003e-004
<GCONST> -7.161078e-001
<MIXTURE> 18 3.469065e-002
<MEAN> 9
 -8.186654e+000 2.874775e-001 -3.563782e+000 -1.364934e+002 4.591200e+000 1.679061e+002 4.859559e-001 5.289560e-002 2.640734e-001
<VARIANCE> 9
 2.683638e-001 3.371764e-001 6.976298e-002 1.195147e+003 3.680466e+001 1.210095e+002 4.762525e-004 6.249181e-004 6.769725e-004
<GCONST> 4.637867e+000
<MIXTURE> 19 3.508797e-002
<MEAN> 9
 -7.885542e+000 3.885542e+000 -2.054217e+000 -1.683841e+002 -1.881097e+001 3.899390e+001 5.009091e-001 -1.159091e-001 2.673469e-001
<VARIANCE> 9
 2.041296e-001 3.371764e-001 1.019378e-001 2.977951e+001 3.795369e+002 1.210095e+002 4.762525e-004 5.782502e-004 1.938003e-004
<GCONST> 2.056247e+000
<MIXTURE> 20 5.316733e-002
<MEAN> 9
 -6.970714e+000 2.357894e+000 -3.670846e+000 -1.182254e+002 9.930850e+000 1.185624e+002 5.060636e-001 -5.367451e-003 2.592659e-001
<VARIANCE> 9
 1.491142e-001 3.371764e-001 6.976298e-002 2.977951e+001 3.680466e+001 1.210095e+002 4.762525e-004 5.782502e-004 1.938003e-004
<GCONST> -9.703841e-001
<MIXTURE> 21 3.509340e-002
<MEAN> 9
 -8.409711e+000 -3.168774e+000 1.445753e+000 -9.399489e+001 1.654832e+001 2.330510e+002 4.972681e-001 1.113719e-001 1.908137e-001
<VARIANCE> 9
 1.778249e-001 3.371764e-001 6.976298e-002 2.977951e+001 3.183210e+002 1.210095e+002 4.762525e-004 5.782502e-004 1.938003e-004
<GCONST> 1.363139e+000
<MIXTURE> 22 1.754601e-002
<MEAN> 9
 -6.927565e+000 -7.469056e-001 1.963889e+000 -8.121872e+001 1.335472e+001 2.053028e+002 5.236371e-001 -8.186239e-003 2.091853e-001
<VARIANCE> 9
 1.491142e-001 3.371764e-001 6.976298e-002 2.977951e+001 3.680466e+001 1.210095e+002 4.762525e-004 5.782502e-004 1.938003e-004
<GCONST> -9.703841e-001
<MIXTURE> 23 3.508795e-002
<MEAN> 9
 -1.083735e+001 -5.608434e+000 6.024070e-003 -8.536585e+001 -3.365854e+001 2.578049e+002 4.140909e-001 2.331818e-001 1.663265e-001
<VARIANCE> 9
 1.491142e-001 3.371764e-001 6.976298e-002 2.977951e+001 3.680466e+001 1.210095e+002 4.762525e-004 5.782502e-004 1.938003e-004
<GCONST> -9.703841e-001
<MIXTURE> 24 3.510660e-002
<MEAN> 9
 -8.957946e+000 -2.849116e+000 -4.662269e+000 -7.128677e+001 1.378332e+001 2.124329e+002 4.291041e-001 1.949744e-001 2.000071e-001
<VARIANCE> 9
 1.491142e-001 3.371764e-001 6.976298e-002 3.798171e+001 3.680466e+001 1.210095e+002 4.762525e-004 5.782502e-004 1.938003e-004
<GCONST> -7.271018e-001
<STATE> 4
<NUMMIXES> 24
<MIXTURE> 1 4.705232e-002
<MEAN> 9
 -8.809166e+000 4.854825e+000 1.544898e+000 -8.477590e+000 6.385160e+001 4.146441e+001 4.993779e-001 -1.806043e-001 2.356652e-001
<VARIANCE> 9
 2.188611e-001 3.371764e-001 6.976298e-002 2.977951e+001 3.680466e+001 1.210095e+002 4.762525e-004 5.782502e-004 1.938003e-004
<GCONST> -5.866599e-001
<MIXTURE> 2 4.689734e-002
<MEAN> 9
 3.296926e-001 5.349458e+000 6.196348e+000 -2.379373e+001 -1.640336e+002 1.146698e+002 3.842299e-001 -3.075742e-001 -4.593258e-002
<VARIANCE> 9
 1.800359e+000 3.371764e-001 6.157815e-001 5.183066e+001 1.112633e+003 2.012547e+002 4.762525e-004 5.782502e-004 3.695128e-004
<GCONST> 8.815513e+000
<MIXTURE> 3 3.124906e-002
<MEAN> 9
 -4.228913e+000 1.578311e+000 2.740964e+000 -1.896345e+001 -1.515248e+001 2.929884e+001 5.081818e-001 -1.609091e-001 1.862245e-001
<VARIANCE> 9
 1.491142e-001 3.371764e-001 6.976298e-002 2.977951e+001 3.680466e+001 1.210095e+002 4.762525e-004 5.782502e-004 1.938003e-004
<GCONST> -9.703841e-001
<MIXTURE> 4 6.248481e-002
<MEAN> 9
 -1.168336e+001 5.006169e+000 1.337212e+000 -3.913225e+001 -9.743066e+001 7.638389e+001 4.777235e-001 -2.211393e-001 2.183794e-001
<VARIANCE> 9
 1.366207e+000 3.371764e-001 3.169746e+000 2.977951e+001 2.088022e+004 3.663370e+002 4.762525e-004 5.782502e-004 3.632617e-003
<GCONST> 1.544050e+001
<MIXTURE> 5 4.741640e-002
<MEAN> 9
 -8.615674e+000 4.713536e+000 2.521913e+000 5.634926e+000 1.804286e+001 1.031950e+001 5.085075e-001 -1.594146e-001 2.059594e-001
<VARIANCE> 9
 1.491142e-001 3.371764e-001 6.976298e-002 2.977951e+001 3.680466e+001 1.210095e+002 4.762525e-004 5.782502e-004 1.938003e-004
<GCONST> -9.703841e-001
<MIXTURE> 6 4.687401e-002
<MEAN> 9
 -1.153815e+001 2.361446e+000 4.393574e+000 -1.266260e+001 -5.955285e+001 3.193090e+001 5.145454e-001 -1.403030e-001 1.187075e-001
<VARIANCE> 9
 1.491142e-001 3.371764e-001 6.976298e-002 2.977951e+001 7.131974e+002 1.210095e+002 4.762525e-004 5.782502e-004 1.938003e-004
<GCONST> 1.993751e+000
<MIXTURE> 7 3.124934e-002
<MEAN> 9
 -1.236145e+001 8.433735e-001 2.831325e+000 -3.798780e+001 3.469512e+001 3.509146e+001 5.036364e-001 -1.518182e-001 2.489796e-001
<VARIANCE> 9
 4.808247e+000 3.371764e-001 1.000000e+000 2.977951e+001 1.899018e+002 1.210095e+002 4.762525e-004 5.782502e-004 1.938003e-004
<GCONST> 6.806525e+000
<MIXTURE> 8 4.687391e-002
<MEAN> 9
 -5.192773e+000 5.534136e+000 4.433733e+000 -3.418700e+001 -2.802440e+002 1.277236e+002 4.521213e-001 -2.533333e-001 3.469397e-002
<VARIANCE> 9
 2.435869e+000 3.371764e-001 2.752210e-001 2.977951e+001 7.715708e+002 1.210095e+002 4.762525e-004 5.782502e-004 9.877810e-004
<GCONST> 7.866867e+000
<MIXTURE> 9 3.110945e-002
<MEAN> 9
 -5.961978e+000 2.775871e+000 2.728581e+000 -4.276213e+000 4.772961e+000 3.953999e+000 5.091072e-001 -1.658784e-001 1.811155e-001
<VARIANCE> 9
 1.882564e-001 3.371764e-001 6.976298e-002 2.977951e+001 3.680466e+001 1.210095e+002 4.762525e-004 5.782502e-004 1.938003e-004
<GCONST> -7.372909e-001
<MIXTURE> 10 4.687271e-002
<MEAN> 9
 -9.859439e+000 5.987956e+000 1.694763e+000 -5.373985e+001 -6.357778e+001 6.876019e+001 4.578788e-001 -2.512123e-001 2.632650e-001
<VARIANCE> 9
 1.491142e-001 3.371764e-001 1.016345e+000 2.977951e+001 1.138089e+003 1.210095e+002 4.762525e-004 5.782502e-004 2.380961e-004
<GCONST> 5.345806e+000
<MIXTURE> 11 4.975226e-002
<MEAN> 9
 -8.639829e+000 4.705674e+000 3.009518e+000 7.109039e+000 7.542599e+000 -4.098768e+000 5.096740e-001 -1.576423e-001 1.946896e-001
<VARIANCE> 9
 1.491142e-001 3.371764e-001 6.976298e-002 2.977951e+001 3.680466e+001 1.210095e+002 4.762525e-004 5.782502e-004 1.938003e-004
<GCONST> -9.703841e-001
<MIXTURE> 12 4.686870e-002
<MEAN> 9
 -8.513988e+000 5.445803e+000 7.389981e-001 -2.126072e+001 5.199159e+001 5.044711e+001 4.824244e-001 -2.057577e-001 2.700684e-001
<VARIANCE> 9
 1.825348e-001 3.371764e-001 6.976298e-002 3.317789e+001 3.680466e+001 1.210095e+002 4.762525e-004 5.782502e-004 1.938003e-004
<GCONST> -6.600928e-001
<MIXTURE> 13 4.656855e-002
<MEAN> 9
 -1.070232e+001 3.400168e+000 3.101789e+000 -1.905284e+001 -1.394177e+002 6.819646e+001 4.991321e-001 -1.811435e-001 1.693538e-001
<VARIANCE> 9
 1.588898e-001 3.371764e-001 1.626453e+000 2.977951e+001 5.817086e+001 1.210095e+002 4.762525e-004 5.782502e-004 4.891307e-003
<GCONST> 5.928314e+000
<MIXTURE> 14 6.249869e-002
<MEAN> 9
 -1.894578e+000 4.433735e+000 5.316265e+000 -4.463415e+001 -4.100152e+002 9.745427e+001 4.193182e-001 -2.434091e-001 -3.010205e-002
<VARIANCE> 9
 6.528333e+000 9.767748e-001 9.294799e-001 6.348342e+001 6.058692e+002 1.210095e+002 4.762525e-004 4.014206e-003 7.120211e-003
<GCONST> 1.556143e+001
<MIXTURE> 15 4.099908e-002
<MEAN> 9
 -8.543793e+000 4.588866e+000 2.951306e+000 6.952781e+000 8.538196e+000 -4.702238e+000 5.094120e-001 -1.589945e-001 1.939488e-001
<VARIANCE> 9
 1.491142e-001 3.371764e-001 6.976298e-002 2.977951e+001 3.680466e+001 1.210095e+002 4.762525e-004 5.782502e-004 1.938003e-004
<GCONST> -9.703841e-001
<MIXTURE> 16 1.562467e-002
<MEAN> 9
 -8.108434e+000 3.012048e-001 4.457831e+000 -6.347561e+001 4.268293e-001 1.969512e+001 5.027273e-001 -1.609091e-001 2.459184e-001
<VARIANCE> 9
 1.491142e-001 3.371764e-001 6.976298e-002 2.977951e+001 3.680466e+001 1.210095e+002 4.762525e-004 5.782502e-004 1.938003e-004
<GCONST> -9.703841e-001
<MIXTURE> 17 4.719235e-002
<MEAN> 9
 -1.184890e+001 3.080199e+000 3.058820e+000 -2.253365e+001 -1.922508e+002 7.089697e+001 4.858053e-001 -1.773750e-001 9.442016e-002
<VARIANCE> 9
 1.370490e+000 8.019210e-001 1.522992e-001 2.977951e+001 9.133169e+003 1.314046e+002 4.762525e-004 5.782502e-004 1.348682e-002
<GCONST> 1.273407e+001
<MIXTURE> 18 3.124931e-002
<MEAN> 9
 -9.403615e+000 5.897591e+000 2.162650e+000 -6.274390e+001 -3.213719e+002 7.585366e+001 4.500000e-001 -2.827273e-001 1.785714e-001
<VARIANCE> 9
 3.115438e+000 3.371764e-001 6.419293e-001 2.977951e+001 5.155066e+003 1.210095e+002 4.762525e-004 5.782502e-004 3.758852e-004
<GCONST> 9.892969e+000
<MIXTURE> 19 4.687335e-002
<MEAN> 9
 -3.317268e+000 4.859402e-001 2.461844e+000 -4.514243e+001 -3.731718e+001 8.491905e+001 5.139394e-001 -1.309088e-001 2.037416e-001
<VARIANCE> 9
 1.676447e-001 3.371764e-001 6.976298e-002 7.599173e+001 3.680466e+001 4.489371e+002 4.762525e-004 5.782502e-004 1.938003e-004
<GCONST> 1.394568e+000
<MIXTURE> 20 3.124906e-002
<MEAN> 9
 6.626468e-001 4.596388e+000 7.271081e+000 -1.667685e+001 -3.179883e+002 1.185366e+002 3.390912e-001 -2.068180e-001 -1.908162e-001
<VARIANCE> 9
 2.207868e-001 3.371764e-001 1.263245e-001 2.977951e+001 3.153781e+003 1.210095e+002 9.553719e-004 5.782502e-004 4.164933e-004
<GCONST> 5.927778e+000
<MIXTURE> 21 3.107752e-002
<MEAN> 9
 -8.719520e+000 4.595917e+000 1.713548e+000 -1.698276e+000 4.644040e+001 2.325235e+001 5.009393e-001 -1.731458e-001 2.193761e-001
<VARIANCE> 9
 1.491142e-001 3.371764e-001 1.435830e-001 2.977951e+001 3.680466e+001 1.210095e+002 4.762525e-004 5.782502e-004 1.938003e-004
<GCONST> -2.485743e-001
<MIXTURE> 22 1.649085e-002
<MEAN> 9
 -7.401070e+000 3.557952e+000 3.037763e+000 1.806035e+000 1.443178e+001 -6.921039e+000 5.047552e-001 -1.722175e-001 1.821116e-001
<VARIANCE> 9
 1.491142e-001 3.371764e-001 6.976298e-002 2.977951e+001 3.680466e+001 1.210095e+002 4.762525e-004 5.782502e-004 1.938003e-004
<GCONST> -9.703841e-001
<MIXTURE> 23 4.859968e-002
<MEAN> 9
 -8.637765e+000 4.703166e+000 3.007993e+000 7.105659e+000 7.566992e+000 -4.107681e+000 5.096684e-001 -1.576784e-001 1.946715e-001
<VARIANCE> 9
 1.491142e-001 3.371764e-001 6.976298e-002 2.977951e+001 3.680466e+001 1.210095e+002 4.762525e-004 5.782502e-004 1.938003e-004
<GCONST> -9.703841e-001
<MIXTURE> 24 4.687648e-002
<MEAN> 9
 -1.003207e+001 8.874996e-001 6.060279e+000 -3.859970e+001 -1.890309e+001 4.369206e+000 5.209087e-001 -1.203029e-001 1.431981e-001
<VARIANCE> 9
 1.491142e-001 3.371764e-001 1.789508e-001 1.880031e+002 3.680466e+001 1.210095e+002 4.762525e-004 5.782502e-004 1.938003e-004
<GCONST> 1.814261e+000
<STATE> 5
<NUMMIXES> 24
<MIXTURE> 1 3.777834e-002
<MEAN> 9
 2.249873e+000 5.075285e+000 7.524127e+000 2.242332e+001 -7.245203e+001 9.527460e+001 2.277282e-001 -2.543183e-001 -2.293366e-001
<VARIANCE> 9
 5.460585e-001 3.371764e-001 1.153005e-001 2.977951e+001 4.075159e+002 1.210095e+002 4.762525e-004 5.782502e-004 1.938003e-004
<GCONST> 3.234523e+000
<MIXTURE> 2 5.573506e-002
<MEAN> 9
 -3.615735e+000 3.527308e+000 7.640718e+000 9.885242e+000 1.154279e+001 1.917561e+000 3.853080e-001 -1.058744e-001 -1.986751e-001
<VARIANCE> 9
 3.889647e-001 3.371764e-001 6.976298e-002 2.977951e+001 3.680466e+001 1.210095e+002 4.762525e-004 5.782502e-004 1.938003e-004
<GCONST> -1.160908e-002
<MIXTURE> 3 3.678031e-002
<MEAN> 9
 3.052748e+000 5.856044e+000 7.426124e+000 1.742774e+001 -5.999989e+001 -1.009051e+002 3.235157e-001 -3.218066e-001 -1.079626e-001
<VARIANCE> 9
 1.491142e-001 3.371764e-001 6.976298e-002 2.977951e+001 9.386758e+001 1.197727e+003 4.762525e-004 5.782502e-004 1.938003e-004
<GCONST> 2.258187e+000
<MIXTURE> 4 5.648946e-002
<MEAN> 9
 -5.684978e+000 3.001784e+000 8.973880e+000 -1.522887e+001 2.606060e-001 -1.410807e+002 3.178812e-001 -1.590172e-001 -2.285502e-001
<VARIANCE> 9
 3.076480e+000 3.371764e-001 2.075564e-001 2.977951e+001 3.756660e+002 9.552535e+002 4.762525e-004 7.517134e-004 1.938003e-004
<GCONST> 7.798278e+000
<MIXTURE> 5 5.682500e-002
<MEAN> 9
 3.047611e+000 5.301830e+000 7.371673e+000 2.052077e+001 8.002002e+000 5.505871e+001 1.864941e-001 -2.933711e-001 -2.266919e-001
<VARIANCE> 9
 2.108464e-001 3.371764e-001 2.419308e-001 2.977951e+001 3.680466e+001 2.970622e+002 4.762525e-004 5.782502e-004 1.938003e-004
<GCONST> 1.517653e+000
<MIXTURE> 6 2.852495e-002
<MEAN> 9
 -6.838943e+000 2.865244e+000 8.832100e+000 -8.012448e+000 -2.459488e+001 -5.195217e+001 3.503964e-001 -1.245752e-001 -2.151128e-001
<VARIANCE> 9
 1.414333e+000 5.993404e-001 1.159956e-001 2.977951e+001 3.680466e+001 1.210095e+002 4.762525e-004 9.265355e-004 1.938003e-004
<GCONST> 2.834435e+000
<MIXTURE> 7 3.778230e-002
<MEAN> 9
 -5.065473e-001 4.415480e+000 8.069455e+000 -2.976480e+000 -2.513873e+001 -2.833085e+001 2.784122e-001 -2.236310e-001 -2.209197e-001
<VARIANCE> 9
 4.107051e-001 3.371764e-001 9.189189e-002 1.360961e+002 5.750845e+003 2.029518e+004 4.762525e-004 5.782502e-004 1.938003e-004
<GCONST> 1.201157e+001
<MIXTURE> 8 3.004171e-002
<MEAN> 9
 -3.398565e+000 4.246447e+000 8.371902e+000 6.637716e+000 -2.047378e-001 7.064536e+000 3.542306e-001 -1.385687e-001 -2.155892e-001
<VARIANCE> 9
 3.684377e-001 3.371764e-001 6.976298e-002 2.977951e+001 3.680466e+001 1.210095e+002 4.762525e-004 5.782502e-004 1.938003e-004
<GCONST> -6.582355e-002
<MIXTURE> 9 4.719986e-002
<MEAN> 9
 -7.896180e-001 5.544879e+000 6.448341e+000 -8.716709e+000 -5.002958e+001 8.026452e+001 3.519860e-001 -3.203997e-001 -6.062822e-002
<VARIANCE> 9
 5.182132e+000 3.371764e-001 7.088578e-001 4.334845e+001 1.685672e+002 2.000394e+002 4.762525e-004 5.782502e-004 4.250791e-004
<GCONST> 8.081680e+000
<MIXTURE> 10 2.835146e-002
<MEAN> 9
 -6.627571e+000 3.741546e+000 8.072358e+000 -2.085025e+001 -5.781063e+001 -1.808464e+002 3.760342e-001 -1.899622e-001 -1.704279e-001
<VARIANCE> 9
 3.398854e+000 3.371764e-001 6.976298e-002 2.977951e+001 3.680466e+001 1.027086e+003 4.762525e-004 5.782502e-004 2.301830e-004
<GCONST> 4.466756e+000
<MIXTURE> 11 3.541688e-002
<MEAN> 9
 -2.254189e+000 3.439967e+000 7.495811e+000 1.191955e+001 4.590291e+000 -1.601214e-001 3.505275e-001 -1.581904e-001 -2.142140e-001
<VARIANCE> 9
 1.491142e-001 3.371764e-001 1.651102e-001 2.977951e+001 3.680466e+001 1.210095e+002 4.762525e-004 5.782502e-004 1.938003e-004
<GCONST> -1.088762e-001
<MIXTURE> 12 5.626823e-002
<MEAN> 9
 2.071995e+000 5.852406e+000 6.793130e+000 7.771910e+000 -2.677741e+001 2.491897e+000 3.239616e-001 -3.323666e-001 -8.868058e-002
<VARIANCE> 9
 6.440848e-001 3.371764e-001 3.420404e-001 2.977951e+001 1.056246e+002 5.928441e+002 4.762525e-004 5.782502e-004 1.938003e-004
<GCONST> 4.725888e+000
<MIXTURE> 13 5.501860e-002
<MEAN> 9
 3.627107e+000 4.289690e+000 7.681421e+000 -1.640569e+001 7.611814e+000 -1.119371e+002 2.172621e-001 -2.725137e-001 -2.253902e-001
<VARIANCE> 9
 4.280438e-001 3.371764e-001 2.556033e-001 2.977951e+001 3.680466e+001 1.066987e+003 4.762525e-004 5.782502e-004 1.938003e-004
<GCONST> 3.559379e+000
<MIXTURE> 14 4.703150e-002
<MEAN> 9
 -2.024516e-001 5.949046e+000 6.868715e+000 2.738660e+000 -8.523382e+001 -1.657314e+002 3.433110e-001 -2.819544e-001 -1.296197e-001
<VARIANCE> 9
 1.814913e-001 3.371764e-001 2.851133e-001 9.450735e+001 5.031050e+002 7.553242e+002 4.762525e-004 5.782502e-004 1.938003e-004
<GCONST> 6.235204e+000
<MIXTURE> 15 4.725366e-002
<MEAN> 9
 -5.054707e+000 3.724278e+000 8.693039e+000 6.877203e-001 1.307122e+000 -2.087888e+001 3.344376e-001 -1.321903e-001 -2.287086e-001
<VARIANCE> 9
 2.678640e-001 3.371764e-001 6.976298e-002 2.977951e+001 3.871189e+001 1.587638e+002 4.762525e-004 5.929662e-004 1.938003e-004
<GCONST> -3.741646e-002
<MIXTURE> 16 2.833030e-002
<MEAN> 9
 -8.433976e+000 1.915546e+000 7.823316e+000 -2.924803e+001 -8.766250e+001 -1.456295e+002 3.739406e-001 -1.690876e-001 -1.846941e-001
<VARIANCE> 9
 8.913519e+000 2.060851e+000 1.438357e-001 2.977951e+001 3.680466e+001 3.466786e+002 4.762525e-004 1.766860e-003 1.938003e-004
<GCONST> 7.823545e+000
<MIXTURE> 17 1.889043e-002
<MEAN> 9
 -6.698415e+000 2.940011e+000 8.144583e+000 3.993691e+000 1.033400e+001 -1.841140e+001 3.795376e-001 -9.683295e-002 -2.076546e-001
<VARIANCE> 9
 3.931938e-001 3.371764e-001 6.976298e-002 2.977951e+001 3.680466e+001 1.210095e+002 4.762525e-004 5.782502e-004 1.938003e-004
<GCONST> -7.944107e-004
<MIXTURE> 18 4.870302e-002
<MEAN> 9
 4.404082e+000 5.046072e+000 7.111860e+000 4.367986e+000 -1.535839e+000 -9.961804e+000 1.839181e-001 -2.998272e-001 -2.177372e-001
<VARIANCE> 9
 1.491142e-001 3.371764e-001 1.611038e-001 5.683465e+001 3.680466e+001 7.386218e+002 4.762525e-004 5.782502e-004 1.938003e-004
<GCONST> 2.321805e+000
<MIXTURE> 19 4.875718e-002
<MEAN> 9
 1.690865e+000 6.108676e+000 7.553009e+000 8.338457e+000 -7.544553e+001 -9.902663e+001 3.309644e-001 -3.109571e-001 -9.857652e-002
<VARIANCE> 9
 5.057258e-001 3.371764e-001 8.313025e-002 2.977951e+001 3.509286e+002 1.782572e+003 4.762525e-004 5.782502e-004 2.026600e-004
<GCONST> 5.415806e+000
<MIXTURE> 20 3.908050e-002
<MEAN> 9
 -2.174939e+000 2.345425e+000 6.842485e+000 5.855395e+000 3.029064e+000 -1.834908e+001 3.636902e-001 -1.193347e-001 -2.050642e-001
<VARIANCE> 9
 3.188666e-001 3.371764e-001 1.978155e-001 2.977951e+001 3.680466e+001 1.210095e+002 5.073678e-004 5.782502e-004 2.436884e-004
<GCONST> 1.124260e+000
<MIXTURE> 21 7.471101e-002
<MEAN> 9
 -2.354338e+000 3.628518e+000 8.234742e+000 4.083292e+000 9.126221e-001 -3.542095e+000 3.293863e-001 -1.072971e-001 -2.392027e-001
<VARIANCE> 9
 1.491142e-001 3.371764e-001 1.290535e-001 2.977951e+001 3.680466e+001 1.210095e+002 4.762525e-004 5.782502e-004 1.938003e-004
<GCONST> -3.552599e-001
<MIXTURE> 22 2.838117e-002
<MEAN> 9
 -2.200791e+000 5.277761e+000 6.570663e+000 -1.529035e+001 -9.010837e+001 -1.790199e+002 3.530028e-001 -2.322120e-001 -1.510126e-001
<VARIANCE> 9
 7.129676e-001 3.371764e-001 7.698078e-002 5.406285e+001 8.730011e+001 6.883353e+002 4.762525e-004 5.782502e-004 1.938003e-004
<GCONST> 3.891250e+000
<MIXTURE> 23 1.888799e-002
<MEAN> 9
 3.030121e+000 5.740964e+000 7.445783e+000 -2.042683e+000 -1.428354e+002 4.478658e+001 3.409091e-001 -3.300000e-001 -6.173469e-002
<VARIANCE> 9
 3.509980e+000 3.371764e-001 6.976298e-002 2.977951e+001 4.463944e+002 1.211342e+002 4.762525e-004 5.782502e-004 2.501562e-004
<GCONST> 4.940132e+000
<MIXTURE> 24 3.776089e-002
<MEAN> 9
 -8.316225e+000 2.889105e+000 8.394879e+000 -2.032122e+001 -5.245889e+001 -8.825072e+001 3.579595e-001 -1.609170e-001 -2.010264e-001
<VARIANCE> 9
 9.730308e-001 9.370360e-001 3.459780e-001 2.977951e+001 6.562867e+001 3.896655e+002 4.762525e-004 8.366267e-004 1.938003e-004
<GCONST> 5.645885e+000
<STATE> 6
<NUMMIXES> 24
<MIXTURE> 1 6.618533e-002
<MEAN> 9
 -2.107519e+000 9.103290e-001 4.575204e+000 -3.013797e+001 4.501445e+001 -9.408780e+001 3.973107e-001 -5.645596e-002 -1.805187e-001
<VARIANCE> 9
 1.491142e-001 3.371764e-001 7.108024e-002 5.036001e+001 3.957551e+002 1.279692e+002 4.762525e-004 5.782502e-004 1.938003e-004
<GCONST> 2.004790e+000
<MIXTURE> 2 3.441699e-002
<MEAN> 9
 -7.421693e+000 -3.108442e+000 4.873492e+000 -6.173783e+001 1.310977e+002 -2.256098e+002 4.240910e-001 1.381820e-001 -6.173460e-002
<VARIANCE> 9
 2.440122e-001 4.232834e-001 6.976298e-002 2.977951e+001 5.002973e+001 1.210095e+002 4.762525e-004 5.782502e-004 1.938003e-004
<GCONST> 5.654812e-002
<MIXTURE> 3 3.441738e-002
<MEAN> 9
 -4.662650e+000 -3.674695e-001 4.626506e+000 -4.817073e+001 1.302439e+002 -1.602134e+002 4.245455e-001 2.090909e-002 -1.418367e-001
<VARIANCE> 9
 4.716215e-001 3.371764e-001 6.976298e-002 2.977951e+001 4.747540e+001 1.435614e+002 4.762525e-004 5.782502e-004 1.938003e-004
<GCONST> 6.065607e-001
<MIXTURE> 4 3.438270e-002
<MEAN> 9
 -8.132945e+000 -5.306876e+000 6.807218e+000 -8.582140e+001 3.141233e+001 -2.431413e+002 3.718168e-001 2.168057e-001 -6.123257e-002
<VARIANCE> 9
 1.678005e-001 3.371764e-001 6.976298e-002 2.977951e+001 5.356012e+001 1.210095e+002 4.762525e-004 5.782502e-004 1.938003e-004
<GCONST> -4.771395e-001
<MIXTURE> 5 3.476029e-002
<MEAN> 9
 -2.515697e+000 1.760164e+000 5.289329e+000 1.875932e-001 2.267319e+001 -4.048249e+001 3.936099e-001 -8.879472e-002 -1.912686e-001
<VARIANCE> 9
 1.491142e-001 3.371764e-001 2.192628e-001 2.977951e+001 5.054612e+001 1.210095e+002 4.762525e-004 5.782502e-004 1.938003e-004
<GCONST> 4.920454e-001
<MIXTURE> 6 3.441743e-002
<MEAN> 9
 -6.000000e+000 -8.042169e+000 6.313253e+000 -1.003354e+002 4.362805e+001 -2.251829e+002 2.504545e-001 3.204545e-001 -1.020408e-003
<VARIANCE> 9
 2.939468e-001 3.371764e-001 1.220787e-001 2.977951e+001 4.994135e+002 1.210095e+002 4.762525e-004 5.782502e-004 1.938003e-004
<GCONST> 2.875674e+000
<MIXTURE> 7 3.441133e-002
<MEAN> 9
 -3.276995e+000 1.108449e+000 6.289131e+000 -6.871919e+001 4.643269e+001 -1.435358e+002 3.831815e-001 -6.136449e-002 -2.000000e-001
<VARIANCE> 9
 3.628902e-001 3.371764e-001 6.976298e-002 2.977951e+001 3.680466e+001 1.210095e+002 4.762525e-004 5.782502e-004 1.938003e-004
<GCONST> -8.099461e-002
<MIXTURE> 8 5.155292e-002
<MEAN> 9
 -6.594543e+000 -2.432787e+000 6.020885e+000 -8.446277e+001 9.128270e+001 -2.268636e+002 3.890657e-001 1.245363e-001 -1.265549e-001
<VARIANCE> 9
 1.516048e-001 3.599317e-001 2.303470e-001 2.977951e+001 4.845416e+001 1.210095e+002 4.762525e-004 5.782502e-004 2.963485e-004
<GCONST> 1.005673e+000
<MIXTURE> 9 3.628124e-002
<MEAN> 9
 -9.823139e-001 1.627870e+000 5.881965e+000 1.965919e+000 2.214013e+001 -2.842067e+001 3.338917e-001 -1.017023e-001 -2.326387e-001
<VARIANCE> 9
 1.491142e-001 3.371764e-001 3.163884e-001 2.977951e+001 6.572700e+001 1.210095e+002 4.762525e-004 5.782502e-004 1.938003e-004
<GCONST> 1.121367e+000
<MIXTURE> 10 5.438620e-002
<MEAN> 9
 -2.373970e+000 5.342985e-001 4.669319e+000 -4.880559e+001 5.810946e+001 -1.252920e+002 4.038315e-001 -3.361319e-002 -1.752517e-001
<VARIANCE> 9
 1.491142e-001 3.371764e-001 6.976298e-002 8.923592e+001 5.344470e+002 1.210095e+002 4.762525e-004 5.782502e-004 1.938003e-004
<GCONST> 2.802688e+000
<MIXTURE> 11 3.438775e-002
<MEAN> 9
 -1.331431e+000 1.566246e+000 5.162748e+000 -4.610372e+001 1.683863e+001 -1.058617e+002 3.631854e-001 -1.022609e-001 -2.091811e-001
<VARIANCE> 9
 1.491142e-001 3.371764e-001 6.976298e-002 5.625837e+001 1.258879e+002 1.210095e+002 4.762525e-004 5.782502e-004 1.938003e-004
<GCONST> 8.955183e-001
<MIXTURE> 12 1.720871e-002
<MEAN> 9
 -4.807229e+000 -1.108434e+000 7.132530e+000 -9.682927e+001 8.317073e+001 -2.095732e+002 3.909091e-001 8.727273e-002 -1.561224e-001
<VARIANCE> 9
 1.491142e-001 3.371764e-001 6.976298e-002 2.977951e+001 3.680466e+001 1.210095e+002 4.762525e-004 5.782502e-004 1.938003e-004
<GCONST> -9.703841e-001
<MIXTURE> 13 3.441428e-002
<MEAN> 9
 -3.608387e+000 5.421959e-002 4.734922e+000 -6.451199e+001 6.798779e+001 -1.748160e+002 4.181820e-001 2.999967e-002 -1.489798e-001
<VARIANCE> 9
 2.621934e-001 3.371764e-001 6.976298e-002 2.977951e+001 3.680466e+001 1.413779e+002 4.762525e-004 5.782502e-004 1.938003e-004
<GCONST> -2.504454e-001
<MIXTURE> 14 6.836694e-002
<MEAN> 9
 -2.154938e+000 1.322313e+000 4.332182e+000 -3.740203e+000 7.099355e+001 -6.349421e+001 3.707700e-001 -8.670801e-002 -2.062592e-001
<VARIANCE> 9
 3.805234e-001 3.371764e-001 9.451110e-002 4.790941e+001 7.130176e+002 1.223257e+002 4.762525e-004 5.782502e-004 1.938003e-004
<GCONST> 3.720254e+000
<MIXTURE> 15 3.441741e-002
<MEAN> 9
 -9.524096e+000 -6.873494e+000 4.825301e+000 -6.320122e+001 1.170122e+002 -2.389329e+002 3.663636e-001 2.568182e-001 4.030612e-002
<VARIANCE> 9
 1.491142e-001 3.371764e-001 6.976298e-002 2.977951e+001 3.680466e+001 1.210095e+002 4.762525e-004 5.782502e-004 1.938003e-004
<GCONST> -9.703841e-001
<MIXTURE> 16 5.169927e-002
<MEAN> 9
 -6.742596e+000 -3.657846e+000 6.063392e+000 -9.164494e+001 7.715195e+001 -2.396224e+002 3.736834e-001 1.850749e-001 -9.661681e-002
<VARIANCE> 9
 1.011109e+000 3.676252e-001 6.976298e-002 1.036961e+002 4.534373e+001 1.210095e+002 4.762525e-004 5.782502e-004 1.938003e-004
<GCONST> 2.486453e+000
<MIXTURE> 17 5.114546e-002
<MEAN> 9
 -8.572469e+000 -8.317982e+000 5.854864e+000 -9.026270e+001 6.525131e+001 -2.481930e+002 2.864487e-001 3.103912e-001 -8.199992e-004
<VARIANCE> 9
 1.565354e-001 5.367966e-001 6.976298e-002 2.977951e+001 3.680466e+001 1.210095e+002 4.762525e-004 8.749389e-004 2.359842e-004
<GCONST> 1.542797e-001
<MIXTURE> 18 6.934869e-002
<MEAN> 9
 -8.988811e+000 -6.356130e+000 6.723340e+000 -9.281610e+001 6.329508e+001 -2.412062e+002 3.237924e-001 2.602668e-001 -4.677264e-002
<VARIANCE> 9
 8.402328e-001 3.371764e-001 2.037402e-001 2.977951e+001 1.027137e+003 1.210095e+002 4.762525e-004 6.523720e-004 2.991996e-004
<GCONST> 5.714118e+000
<MIXTURE> 19 3.408697e-002
<MEAN> 9
 -1.316522e+000 1.614852e+000 5.018026e+000 -1.901401e+001 -2.721350e+000 -6.918430e+001 3.582293e-001 -1.376045e-001 -2.168094e-001
<VARIANCE> 9
 1.491142e-001 3.371764e-001 6.976298e-002 4.338309e+001 3.680466e+001 1.210095e+002 4.762525e-004 5.782502e-004 1.938003e-004
<GCONST> -5.941367e-001
<MIXTURE> 20 3.482560e-002
<MEAN> 9
 -1.340581e+000 1.585515e+000 5.353399e+000 -1.475730e+000 6.255900e+000 -3.901449e+001 3.518417e-001 -1.463609e-001 -2.077581e-001
<VARIANCE> 9
 1.491142e-001 3.371764e-001 6.976298e-002 2.977951e+001 3.680466e+001 1.210095e+002 4.762525e-004 5.782502e-004 1.938003e-004
<GCONST> -9.703841e-001
<MIXTURE> 21 3.442849e-002
<MEAN> 9
 -3.801214e+000 6.264830e-001 6.042338e+000 -8.274358e+001 3.125614e+001 -1.770709e+002 3.850003e-001 -3.639786e-003 -1.872465e-001
<VARIANCE> 9
 1.491142e-001 3.371764e-001 6.976298e-002 2.977951e+001 3.680466e+001 1.210095e+002 4.762525e-004 8.467259e-004 1.938003e-004
<GCONST> -5.890136e-001
<MIXTURE> 22 3.441741e-002
<MEAN> 9
 -9.734940e+000 -5.301205e+000 4.283133e+000 -6.265244e+001 1.454268e+002 -2.405183e+002 4.045455e-001 2.018182e-001 -1.326531e-002
<VARIANCE> 9
 1.491142e-001 3.485265e-001 6.976298e-002 2.977951e+001 1.472375e+002 1.210095e+002 4.762525e-004 5.782502e-004 1.938003e-004
<GCONST> 4.491453e-001
<MIXTURE> 23 3.441714e-002
<MEAN> 9
 -5.801207e+000 -1.518074e+000 4.993978e+000 -5.521343e+001 1.193597e+002 -1.994818e+002 4.272727e-001 7.590908e-002 -1.076530e-001
<VARIANCE> 9
 1.491142e-001 3.371764e-001 6.976298e-002 2.977951e+001 3.680466e+001 1.210095e+002 4.762525e-004 5.782502e-004 1.938003e-004
<GCONST> -9.703841e-001
<MIXTURE> 24 5.162411e-002
<MEAN> 9
 -4.317314e+000 -9.638882e-001 5.811103e+000 -8.268076e+001 5.508225e+001 -2.068290e+002 4.048508e-001 6.697053e-002 -1.476157e-001
<VARIANCE> 9
 1.955856e-001 7.096334e-001 4.290061e-001 8.589641e+001 3.680466e+001 1.210095e+002 4.762525e-004 5.782502e-004 6.151574e-004
<GCONST> 4.075783e+000
<STATE> 7
<NUMMIXES> 24
<MIXTURE> 1 5.882618e-002
<MEAN> 9
 -5.554216e+000 -1.028916e+001 3.767068e+000 -2.439027e+000 1.896341e+002 -2.835366e+001 -3.090909e-002 3.630303e-001 1.738095e-001
<VARIANCE> 9
 3.903035e+000 5.877002e-001 1.155787e-001 1.045831e+002 5.394435e+002 1.210095e+002 4.762525e-004 5.782502e-004 1.938003e-004
<GCONST> 7.295947e+000
<MIXTURE> 2 5.882601e-002
<MEAN> 9
 -8.510040e+000 -1.069076e+001 3.465864e+000 -2.835368e+001 7.676823e+001 -2.110163e+002 1.875758e-001 3.636364e-001 1.459184e-001
<VARIANCE> 9
 1.491142e-001 3.371764e-001 6.976298e-002 3.633988e+001 2.616595e+002 1.210095e+002 5.357193e-004 5.782502e-004 1.938003e-004
<GCONST> 1.307794e+000
<MIXTURE> 3 3.921438e-002
<MEAN> 9
 -7.517945e+000 -1.163862e+001 4.680705e+000 -7.905507e+001 8.600626e+001 -2.020107e+002 1.086333e-001 3.754545e-001 9.898119e-002
<VARIANCE> 9
 2.645521e+000 6.911013e-001 6.976298e-002 2.977951e+001 3.680466e+001 3.736206e+002 1.492768e-003 5.782502e-004 4.164930e-004
<GCONST> 5.658061e+000
<MIXTURE> 4 3.917578e-002
<MEAN> 9
 -6.060468e+000 -1.016881e+001 1.981737e+000 -2.210265e+001 4.697388e+001 -3.921079e+001 1.500739e-002 3.704648e-001 1.846937e-001
<VARIANCE> 9
 1.491142e-001 3.371764e-001 6.976298e-002 2.977951e+001 1.187138e+002 1.210095e+002 4.762525e-004 5.782502e-004 1.938003e-004
<GCONST> 2.007055e-001
<MIXTURE> 5 3.921740e-002
<MEAN> 9
 -6.373495e+000 -1.279518e+001 2.656626e+000 -7.658536e+001 1.927744e+002 -2.415549e+002 1.177272e-001 3.781818e-001 1.066327e-001
<VARIANCE> 9
 2.939468e-001 3.371764e-001 1.533241e-001 5.265093e+001 2.821988e+002 1.210095e+002 4.762525e-004 5.782502e-004 1.938003e-004
<GCONST> 3.102603e+000
<MIXTURE> 6 3.921677e-002
<MEAN> 9
 -5.174685e+000 -9.897588e+000 1.831333e+000 -5.612802e+001 5.798765e+001 -2.588407e+001 -6.409097e-002 3.477272e-001 1.867346e-001
<VARIANCE> 9
 5.670273e-001 3.371764e-001 1.881260e-001 2.977951e+001 8.034278e+001 1.210095e+002 4.762525e-004 5.782502e-004 1.938003e-004
<GCONST> 2.137996e+000
<MIXTURE> 7 3.943808e-002
<MEAN> 9
 -5.002919e+000 -1.126435e+001 1.561100e+000 -5.964524e+001 1.193299e+002 -6.666104e+001 -2.072486e-002 3.608424e-001 1.627406e-001
<VARIANCE> 9
 1.491142e-001 3.371764e-001 2.022384e+000 5.552937e+001 1.055836e+002 1.210095e+002 7.645185e-004 5.782502e-004 1.938003e-004
<GCONST> 4.546811e+000
<MIXTURE> 8 3.921744e-002
<MEAN> 9
 -8.234940e+000 -1.321084e+001 1.500000e+000 -5.201220e+001 1.859756e+002 -2.184756e+002 5.181818e-002 3.677273e-001 1.280612e-001
<VARIANCE> 9
 1.491142e-001 3.371764e-001 6.976298e-002 2.977951e+001 3.878978e+002 1.210095e+002 4.762525e-004 5.782502e-004 1.938003e-004
<GCONST> 1.384734e+000
<MIXTURE> 9 1.960870e-002
<MEAN> 9
 -3.289157e+000 -1.012048e+001 2.698795e+000 -2.969512e+001 1.533537e+002 -3.841463e+001 -2.272727e-002 3.581818e-001 1.785714e-001
<VARIANCE> 9
 1.491142e-001 3.371764e-001 6.976298e-002 2.977951e+001 3.680466e+001 1.210095e+002 4.762525e-004 5.782502e-004 1.938003e-004
<GCONST> -9.703841e-001
<MIXTURE> 10 5.882482e-002
<MEAN> 9
 -6.678720e+000 -1.195984e+001 1.333339e+000 -5.617890e+001 9.040646e+001 -1.351018e+002 3.032706e-004 3.733332e-001 1.520407e-001
<VARIANCE> 9
 1.491142e-001 3.371764e-001 1.245700e+000 5.614100e+001 4.982766e+001 1.840107e+002 6.227748e-004 5.782502e-004 1.938003e-004
<GCONST> 3.536319e+000
<MIXTURE> 11 5.884797e-002
<MEAN> 9
 -7.598049e+000 -1.001623e+001 5.188445e+000 -9.016225e+001 1.154786e+002 -2.320347e+002 2.072681e-001 3.575726e-001 4.558156e-002
<VARIANCE> 9
 2.111035e+000 3.371764e-001 9.129824e-002 3.539837e+001 1.058768e+003 1.210095e+002 4.762525e-004 5.782502e-004 1.938003e-004
<GCONST> 5.480948e+000
<MIXTURE> 12 1.960873e-002
<MEAN> 9
 -9.204820e+000 -8.421687e+000 4.156627e+000 -4.036585e+001 1.909146e+002 -2.344512e+002 3.290909e-001 3.054546e-001 8.673470e-002
<VARIANCE> 9
 1.491142e-001 3.371764e-001 6.976298e-002 2.977951e+001 3.680466e+001 1.210095e+002 4.762525e-004 5.782502e-004 1.938003e-004
<GCONST> -9.703841e-001
<MIXTURE> 13 3.921723e-002
<MEAN> 9
 -9.216866e+000 -1.123494e+001 2.343375e+000 -1.125001e+001 7.307935e+001 -1.789940e+002 1.100001e-001 3.727273e-001 1.658163e-001
<VARIANCE> 9
 1.491142e-001 3.371764e-001 6.976298e-002 2.977951e+001 2.446172e+002 1.210095e+002 4.762525e-004 5.782502e-004 1.938003e-004
<GCONST> 9.236860e-001
<MIXTURE> 14 3.919594e-002
<MEAN> 9
 -4.397587e+000 -1.000610e+001 2.150680e+000 -5.375088e+001 1.504841e+002 -3.740966e+001 1.000091e-002 3.804537e-001 1.739784e-001
<VARIANCE> 9
 1.491142e-001 3.371764e-001 9.438960e-002 2.977951e+001 2.141583e+002 1.210095e+002 4.762525e-004 5.782502e-004 1.938003e-004
<GCONST> 1.093036e+000
<MIXTURE> 15 3.920030e-002
<MEAN> 9
 -5.987905e+000 -1.098816e+001 3.849274e+000 -9.063991e+001 1.138195e+002 -2.408235e+002 1.781735e-001 3.550042e-001 6.939445e-002
<VARIANCE> 9
 1.491142e-001 3.371764e-001 8.016402e-002 2.977951e+001 3.795368e+002 1.210095e+002 4.762525e-004 5.782502e-004 2.342774e-004
<GCONST> 1.691591e+000
<MIXTURE> 16 3.921738e-002
<MEAN> 9
 -8.012049e+000 -1.233735e+001 2.427713e+000 -5.740855e+001 1.134451e+002 -1.713414e+002 3.545456e-002 3.813636e-001 1.418367e-001
<VARIANCE> 9
 1.491142e-001 3.371764e-001 1.615655e+000 8.875020e+001 3.680466e+001 1.608565e+002 4.762525e-004 5.782502e-004 1.938003e-004
<GCONST> 3.548659e+000
<MIXTURE> 17 5.882618e-002
<MEAN> 9
 -1.086747e+001 -9.124497e+000 2.646586e+000 -2.563008e+001 9.713415e+001 -2.299187e+002 2.784849e-001 3.269697e-001 1.136054e-001
<VARIANCE> 9
 5.113470e-001 3.371764e-001 6.976298e-002 2.977951e+001 1.682689e+003 1.210095e+002 5.202940e-004 5.782502e-004 1.938003e-004
<GCONST> 4.172921e+000
<MIXTURE> 18 4.007206e-002
<MEAN> 9
 -5.012325e+000 -9.437572e+000 1.460033e+000 -4.134198e+001 1.858906e+002 -3.534760e+001 2.812383e-004 3.708849e-001 1.770270e-001
<VARIANCE> 9
 1.491142e-001 3.371764e-001 6.976298e-002 2.977951e+001 3.680466e+001 1.210095e+002 4.762525e-004 5.782502e-004 1.938003e-004
<GCONST> -9.703841e-001
<MIXTURE> 19 3.921591e-002
<MEAN> 9
 -8.801212e+000 -1.112651e+001 1.963850e+000 -1.542676e+001 1.006558e+000 -1.385064e+002 7.181848e-002 3.654546e-001 1.714284e-001
<VARIANCE> 9
 1.491142e-001 3.371764e-001 6.976298e-002 2.977951e+001 2.370473e+002 1.293213e+002 4.762525e-004 5.782502e-004 1.938003e-004
<GCONST> 9.586821e-001
<MIXTURE> 20 3.921744e-002
<MEAN> 9
 -6.819277e+000 -1.026506e+001 6.024095e-001 -5.304878e+001 1.136281e+002 -4.826220e+001 -5.318182e-002 3.554546e-001 1.714286e-001
<VARIANCE> 9
 1.491142e-001 3.371764e-001 6.976298e-002 2.977951e+001 5.021426e+002 1.210095e+002 4.762525e-004 5.782502e-004 1.938003e-004
<GCONST> 1.642875e+000
<MIXTURE> 21 3.921745e-002
<MEAN> 9
 -6.066265e+000 -1.150602e+001 4.518072e+000 -8.118903e+001 3.518293e+001 -2.023171e+002 1.168182e-001 3.704545e-001 9.336735e-002
<VARIANCE> 9
 4.000945e-001 3.371764e-001 6.976298e-002 2.977951e+001 3.680466e+001 1.210095e+002 4.762525e-004 5.782502e-004 1.938003e-004
<GCONST> 1.660442e-002
<MIXTURE> 22 3.900240e-002
<MEAN> 9
 -5.402824e+000 -1.144132e+001 1.941087e+000 -6.296377e+001 9.281371e+001 -9.253307e+001 -5.093781e-003 3.637217e-001 1.555886e-001
<VARIANCE> 9
 1.491142e-001 3.371764e-001 9.297337e-001 7.264968e+001 8.495053e+001 1.210095e+002 1.067304e-003 5.782502e-004 1.938003e-004
<GCONST> 4.154626e+000
<MIXTURE> 23 3.921765e-002
<MEAN> 9
 -6.843446e+000 -1.084337e+001 2.331318e+000 -2.137182e+001 -1.920884e+000 -8.490979e+001 4.318236e-002 3.868175e-001 1.806124e-001
<VARIANCE> 9
 3.486183e-001 3.371764e-001 6.976298e-002 2.977951e+001 1.647795e+002 1.792208e+002 4.762525e-004 5.782502e-004 1.938003e-004
<GCONST> 1.770614e+000
<MIXTURE> 24 3.837773e-002
<MEAN> 9
 -4.980731e+000 -9.436002e+000 8.831923e-001 -3.081421e+001 1.700734e+002 -3.859288e+001 -1.143880e-002 3.723331e-001 1.807054e-001
<VARIANCE> 9
 1.491142e-001 3.371764e-001 1.583439e-001 2.977951e+001 3.680466e+001 1.210095e+002 4.762525e-004 5.782502e-004 1.938003e-004
<GCONST> -1.507196e-001
<TRANSP> 8
 0.000000e+000 1.000000e+000 0.000000e+000 0.000000e+000 0.000000e+000 0.000000e+000 0.000000e+000 0.000000e+000
 0.000000e+000 9.231114e-001 7.688863e-002 0.000000e+000 0.000000e+000 0.000000e+000 0.000000e+000 0.000000e+000
 0.000000e+000 0.000000e+000 9.473683e-001 5.263174e-002 0.000000e+000 0.000000e+000 0.000000e+000 0.000000e+000
 0.000000e+000 0.000000e+000 0.000000e+000 9.531262e-001 4.687378e-002 0.000000e+000 0.000000e+000 0.000000e+000
 0.000000e+000 0.000000e+000 0.000000e+000 0.000000e+000 9.716682e-001 2.833182e-002 0.000000e+000 0.000000e+000
 0.000000e+000 0.000000e+000 0.000000e+000 0.000000e+000 0.000000e+000 9.483741e-001 5.162588e-002 0.000000e+000
 0.000000e+000 0.000000e+000 0.000000e+000 0.000000e+000 0.000000e+000 0.000000e+000 9.411740e-001 5.882595e-002
 0.000000e+000 0.000000e+000 0.000000e+000 0.000000e+000 0.000000e+000 0.000000e+000 0.000000e+000 0.000000e+000
<ENDHMM>
~h "GM"
<BEGINHMM>
<NUMSTATES> 8
<STATE> 2
<NUMMIXES> 24
<MIXTURE> 1 4.165173e-002
<MEAN> 9
 -1.164659e+001 -9.493976e+000 -3.052209e-001 6.910572e+000 7.067073e+001 3.378658e+002 3.224242e-001 3.160606e-001 2.132653e-001
<VARIANCE> 9
 1.491142e-001 1.919098e+000 6.976298e-002 1.529480e+002 3.680466e+001 1.210095e+002 1.411754e-003 5.782502e-004 1.938003e-004
<GCONST> 3.491538e+000
<MIXTURE> 2 4.165174e-002
<MEAN> 9
 -6.775100e+000 -1.287149e+001 3.518072e+000 1.587398e+001 -1.302642e+002 1.815041e+002 8.151516e-002 3.790909e-001 2.214286e-001
<VARIANCE> 9
 6.973761e-001 3.371764e-001 3.298979e-001 6.790188e+001 1.096214e+003 7.858277e+002 9.169879e-004 5.782502e-004 1.938003e-004
<GCONST> 8.870158e+000
<MIXTURE> 3 2.791040e-002
<MEAN> 9
 -9.034394e+000 -8.773458e+000 -9.087213e-001 -3.380952e+001 -4.392841e+001 1.593029e+002 2.071381e-001 3.654372e-001 1.938367e-001
<VARIANCE> 9
 1.491142e-001 3.371764e-001 6.976298e-002 2.977951e+001 8.613837e+001 1.210095e+002 4.762525e-004 5.782502e-004 1.938003e-004
<GCONST> -1.200533e-001
<MIXTURE> 4 5.553278e-002
<MEAN> 9
 -1.017768e+001 -5.903644e+000 -2.966869e+000 -1.786554e+001 2.899388e+001 2.527286e+002 2.759079e-001 3.311373e-001 2.051018e-001
<VARIANCE> 9
 2.290819e-001 1.168414e+000 6.976298e-002 5.990777e+001 3.680466e+001 1.210095e+002 1.644760e-003 5.782502e-004 1.938003e-004
<GCONST> 2.640166e+000
<MIXTURE> 5 1.388391e-002
<MEAN> 9
 -9.433735e+000 -5.939759e+000 -8.795181e-001 -1.841463e+001 3.957317e+001 3.425610e+002 3.927273e-001 2.581818e-001 2.306122e-001
<VARIANCE> 9
 1.491142e-001 3.371764e-001 6.976298e-002 2.977951e+001 3.680466e+001 1.210095e+002 4.762525e-004 5.782502e-004 1.938003e-004
<GCONST> -9.703841e-001
<MIXTURE> 6 4.165110e-002
<MEAN> 9
 -9.795177e+000 -9.951808e+000 6.024131e-001 -3.048573e-001 -1.800816e+001 1.842479e+002 1.645453e-001 3.703030e-001 2.122449e-001
<VARIANCE> 9
 8.376625e-001 3.371764e-001 4.467984e-001 2.977951e+001 3.680466e+001 2.364812e+002 6.881509e-004 5.782502e-004 1.938003e-004
<GCONST> 3.650584e+000
<MIXTURE> 7 2.782408e-002
<MEAN> 9
 -1.051657e+001 -6.851168e+000 -1.114186e+000 -5.684719e+001 -7.624038e+001 1.775788e+002 3.325864e-001 3.100528e-001 2.005032e-001
<VARIANCE> 9
 1.993721e-001 3.371764e-001 6.976298e-002 2.977951e+001 3.680466e+001 1.210095e+002 4.762525e-004 5.782502e-004 1.938003e-004
<GCONST> -6.799254e-001
<MIXTURE> 8 2.779499e-002
<MEAN> 9
 -8.215134e+000 -1.193886e+001 8.496510e-001 -7.801955e+000 4.175600e+001 1.110262e+002 3.906688e-002 3.736266e-001 1.851966e-001
<VARIANCE> 9
 3.951931e-001 3.371764e-001 6.976298e-002 2.977951e+001 3.680466e+001 2.024895e+002 4.762525e-004 5.782502e-004 1.938003e-004
<GCONST> 5.190973e-001
<MIXTURE> 9 8.332876e-002
<MEAN> 9
 -8.385709e+000 -6.690126e+000 -1.168440e-001 1.064349e+001 6.982341e+001 1.853499e+002 2.683717e-001 3.125564e-001 9.099449e-002
<VARIANCE> 9
 1.491142e-001 5.121861e-001 1.673438e-001 3.392456e+002 3.680466e+001 1.210095e+002 1.844264e-003 5.782502e-004 1.938003e-004
<GCONST> 4.109437e+000
<MIXTURE> 10 5.582507e-002
<MEAN> 9
 -9.232836e+000 -4.650578e+000 -1.978914e+000 -3.817441e+001 3.831334e+001 1.865206e+002 3.717721e-001 2.579162e-001 1.449386e-001
<VARIANCE> 9
 7.525682e-001 3.371764e-001 2.111441e+000 4.303195e+001 4.704749e+002 1.501443e+003 4.762525e-004 5.782502e-004 1.572038e-003
<GCONST> 1.158627e+001
<MIXTURE> 11 2.776694e-002
<MEAN> 9
 -7.548188e+000 -1.045783e+001 1.734945e+000 -1.155480e+001 -8.798737e+001 1.390551e+002 1.040912e-001 3.840910e-001 2.173471e-001
<VARIANCE> 9
 1.491142e-001 3.371764e-001 6.976298e-002 2.977951e+001 3.665825e+002 1.210095e+002 4.762525e-004 5.782502e-004 1.938003e-004
<GCONST> 1.328216e+000
<MIXTURE> 12 2.776733e-002
<MEAN> 9
 -1.001205e+001 -4.674699e+000 9.036136e-002 -7.429878e+001 -1.083537e+002 1.827744e+002 4.150000e-001 2.354545e-001 1.806123e-001
<VARIANCE> 9
 1.491142e-001 3.371764e-001 2.041298e-001 2.977951e+001 5.533911e+001 1.210095e+002 4.762525e-004 5.782502e-004 1.938003e-004
<GCONST> 5.111227e-001
<MIXTURE> 13 4.186820e-002
<MEAN> 9
 -7.241441e+000 -9.748676e+000 4.741328e-001 -8.097056e+000 -7.020870e+001 5.755225e+001 3.895591e-002 3.844616e-001 2.084303e-001
<VARIANCE> 9
 1.491142e-001 3.371764e-001 6.976298e-002 2.977951e+001 4.268464e+001 1.929170e+002 4.762525e-004 5.782502e-004 1.938003e-004
<GCONST> -3.557787e-001
<MIXTURE> 14 5.553474e-002
<MEAN> 9
 -1.019578e+001 -5.753019e+000 -1.120479e+000 -4.999993e+001 -1.038119e+001 2.450000e+002 3.656816e-001 2.795457e-001 2.313775e-001
<VARIANCE> 9
 2.850486e-001 6.695780e-001 9.776346e-002 6.250343e+001 8.412781e+001 1.210095e+002 1.087343e-003 5.782502e-004 1.938003e-004
<GCONST> 3.094708e+000
<MIXTURE> 15 1.249982e-001
<MEAN> 9
 -9.286250e+000 -1.028633e+001 1.671095e+000 6.807090e+001 1.064781e+002 1.907312e+002 1.347229e-001 3.635412e-001 1.421778e-001
<VARIANCE> 9
 8.954686e+000 2.337677e+000 1.192078e+000 4.426131e+002 1.710993e+003 3.276770e+003 2.949142e-003 5.782502e-004 2.584571e-003
<GCONST> 2.215012e+001
<MIXTURE> 16 4.158097e-002
<MEAN> 9
 -9.686679e+000 -7.851515e+000 -1.008019e+000 -4.664263e+001 -8.013619e+001 1.686969e+002 2.672845e-001 3.427298e-001 1.955754e-001
<VARIANCE> 9
 1.491142e-001 3.371764e-001 6.976298e-002 2.977951e+001 3.680466e+001 1.210095e+002 4.762525e-004 5.782502e-004 1.938003e-004
<GCONST> -9.703841e-001
<MIXTURE> 17 4.147888e-002
<MEAN> 9
 -8.191725e+000 -9.546627e+000 -2.802530e-001 -2.212391e+001 -1.402823e+001 1.483624e+002 1.514539e-001 3.675852e-001 1.829821e-001
<VARIANCE> 9
 1.491142e-001 3.371764e-001 1.116932e-001 2.977951e+001 3.680466e+001 1.210095e+002 4.762525e-004 5.782502e-004 1.938003e-004
<GCONST> -4.997301e-001
<MIXTURE> 18 4.165176e-002
<MEAN> 9
 -1.139357e+001 -8.698792e+000 -5.100554e-001 -2.087394e+001 5.488117e+000 2.335367e+002 2.539386e-001 3.442427e-001 2.170066e-001
<VARIANCE> 9
 1.491142e-001 5.174346e-001 8.346143e-002 3.459556e+001 4.328427e+001 1.210095e+002 7.330097e-004 5.782502e-004 1.938003e-004
<GCONST> 3.804560e-001
<MIXTURE> 19 4.168851e-002
<MEAN> 9
 -7.349602e+000 -9.991847e+000 1.888374e-001 -6.596705e+000 4.846605e+000 1.245449e+002 8.974216e-002 3.724368e-001 1.728045e-001
<VARIANCE> 9
 1.491142e-001 3.371764e-001 6.976298e-002 2.977951e+001 8.721491e+001 1.210095e+002 4.762525e-004 5.782502e-004 1.938003e-004
<GCONST> -1.076326e-001
<MIXTURE> 20 4.165184e-002
<MEAN> 9
 -1.013252e+001 -9.759011e+000 -1.534157e+000 -1.595517e+001 2.420729e+001 2.241059e+002 1.563642e-001 3.663633e-001 1.925169e-001
<VARIANCE> 9
 6.447894e-001 8.989972e-001 6.976298e-002 2.977951e+001 3.680466e+001 1.384204e+002 7.691892e-004 5.782502e-004 1.938003e-004
<GCONST> 2.088317e+000
<MIXTURE> 21 2.753323e-002
<MEAN> 9
 -7.908497e+000 -1.009695e+001 6.093957e-001 -1.298945e+001 -8.241720e+001 1.010919e+002 7.093308e-002 3.810085e-001 2.051877e-001
<VARIANCE> 9
 1.491142e-001 3.371764e-001 6.976298e-002 2.977951e+001 1.341758e+002 1.210095e+002 4.762525e-004 5.782502e-004 1.938003e-004
<GCONST> 3.231421e-001
<MIXTURE> 22 2.776780e-002
<MEAN> 9
 -1.037349e+001 -1.198193e+001 2.530119e-001 -8.262196e+000 3.618901e+001 1.701829e+002 7.863637e-002 3.709091e-001 1.836735e-001
<VARIANCE> 9
 1.491142e-001 3.371764e-001 6.976298e-002 2.977951e+001 2.351734e+002 1.949770e+002 4.762525e-004 5.782502e-004 1.938003e-004
<GCONST> 1.361327e+000
<MIXTURE> 23 2.776702e-002
<MEAN> 9
 -1.003013e+001 -5.572292e+000 -1.662651e+000 -6.783533e+001 -1.072561e+002 1.828353e+002 3.722727e-001 2.772729e-001 1.943878e-001
<VARIANCE> 9
 3.138702e-001 3.371764e-001 6.976298e-002 2.977951e+001 3.680466e+001 1.210095e+002 4.762525e-004 5.782502e-004 1.938003e-004
<GCONST> -2.261171e-001
<MIXTURE> 24 1.389018e-002
<MEAN> 9
 -9.747417e+000 -3.385814e+000 -4.891387e+000 -5.218943e+001 -2.577972e+001 2.495749e+002 3.899856e-001 2.391065e-001 2.193845e-001
<VARIANCE> 9
 1.491142e-001 3.371764e-001 6.976298e-002 2.977951e+001 3.680466e+001 1.210095e+002 4.762525e-004 5.782502e-004 1.938003e-004
<GCONST> -9.703841e-001
<STATE> 3
<NUMMIXES> 24
<MIXTURE> 1 8.977727e-002
<MEAN> 9
 -8.848547e+000 -6.011458e-002 -2.977668e+000 -9.953094e+001 7.978115e+001 8.605205e+001 4.567536e-001 1.154518e-001 2.711410e-001
<VARIANCE> 9
 8.531569e-001 1.333421e+000 1.285336e-001 1.940341e+002 8.700217e+002 4.019911e+002 4.762525e-004 5.782502e-004 1.660154e-003
<GCONST> 1.114534e+001
<MIXTURE> 2 3.847738e-002
<MEAN> 9
 -7.329317e+000 -3.654619e+000 -5.261044e-001 -4.583333e+001 -1.890244e+000 3.065650e+002 4.587879e-001 1.733333e-001 2.333333e-001
<VARIANCE> 9
 1.491142e-001 4.202190e-001 1.519653e-001 1.076500e+002 3.680466e+001 4.108080e+002 4.817266e-004 8.844808e-004 1.938003e-004
<GCONST> 2.972079e+000
<MIXTURE> 3 2.567629e-002
<MEAN> 9
 -6.753613e+000 2.482110e+000 -2.704779e+000 -1.440855e+002 -3.318965e+000 1.201516e+002 5.159122e-001 -2.589674e-002 2.168431e-001
<VARIANCE> 9
 1.491142e-001 3.371764e-001 6.976298e-002 2.977951e+001 6.164257e+001 1.210095e+002 4.762525e-004 5.782502e-004 1.938003e-004
<GCONST> -4.546556e-001
<MIXTURE> 4 3.847690e-002
<MEAN> 9
 -9.228916e+000 -2.895583e+000 -1.092370e+000 -8.136179e+001 -1.317073e+001 2.264228e+002 4.527273e-001 1.833334e-001 2.574830e-001
<VARIANCE> 9
 4.215409e-001 3.371764e-001 1.689970e-001 5.079395e+001 4.641085e+001 1.210095e+002 4.762525e-004 6.222207e-004 1.938003e-004
<GCONST> 1.792750e+000
<MIXTURE> 5 3.849909e-002
<MEAN> 9
 -7.799501e+000 3.325832e+000 -1.797282e+000 -1.521591e+002 2.174062e+001 9.318489e+001 5.181669e-001 -6.522699e-002 2.265303e-001
<VARIANCE> 9
 1.491142e-001 3.371764e-001 2.964161e-001 2.977951e+001 3.680466e+001 1.210095e+002 4.762525e-004 5.782502e-004 1.938003e-004
<GCONST> 4.762754e-001
<MIXTURE> 6 2.568443e-002
<MEAN> 9
 -6.735629e+000 7.720047e-001 1.126024e+000 -7.446264e+001 -9.453983e+000 1.339068e+002 5.181803e-001 5.904220e-002 1.586907e-001
<VARIANCE> 9
 1.491142e-001 3.371764e-001 6.976298e-002 2.977951e+001 3.680466e+001 1.210095e+002 4.762525e-004 5.782502e-004 1.938003e-004
<GCONST> -9.703841e-001
<MIXTURE> 7 3.847695e-002
<MEAN> 9
 -7.570275e+000 1.807286e-001 -4.457831e+000 -1.033538e+002 -5.636185e+001 1.970121e+002 4.806062e-001 9.999970e-002 2.210884e-001
<VARIANCE> 9
 5.665427e-001 3.371764e-001 6.976298e-002 6.314914e+001 3.680466e+001 1.210095e+002 4.762525e-004 5.790620e-004 1.938003e-004
<GCONST> 1.117536e+000
<MIXTURE> 8 2.564942e-002
<MEAN> 9
 -7.849237e+000 1.855220e+000 1.987231e+000 -9.340892e+001 -6.603726e-001 9.327408e+001 5.218186e-001 5.916870e-003 1.698965e-001
<VARIANCE> 9
 1.491142e-001 3.371764e-001 1.144017e-001 2.977951e+001 1.640092e+002 1.210095e+002 4.762525e-004 5.782502e-004 1.938003e-004
<GCONST> 1.018523e+000
<MIXTURE> 9 5.121028e-002
<MEAN> 9
 -6.752509e+000 -1.758748e-001 2.367249e+000 -2.358986e+001 -5.773123e+000 3.233151e+001 5.277240e-001 -7.157677e-002 2.104538e-001
<VARIANCE> 9
 1.491142e-001 4.119304e-001 1.117998e-001 2.977951e+001 3.680466e+001 5.094070e+002 4.762525e-004 5.782502e-004 1.938003e-004
<GCONST> 1.138848e+000
<MIXTURE> 10 5.130197e-002
<MEAN> 9
 -7.271085e+000 2.709793e-002 -2.259065e-001 -9.243902e+001 -2.275897e+001 1.728358e+002 4.974999e-001 7.750068e-002 2.614796e-001
<VARIANCE> 9
 1.491142e-001 4.414538e-001 6.976298e-002 2.977951e+001 5.578652e+001 4.380256e+002 4.762525e-004 1.133197e-003 1.938003e-004
<GCONST> 1.674190e+000
<MIXTURE> 11 5.118293e-002
<MEAN> 9
 -7.707598e+000 2.022773e+000 1.827564e+000 -1.480512e+002 -1.603999e+000 4.010860e+001 5.077260e-001 -1.475176e-001 2.142748e-001
<VARIANCE> 9
 1.491142e-001 3.371764e-001 8.435836e-001 4.854913e+001 5.369925e+001 1.334478e+002 4.762525e-004 5.782502e-004 1.938003e-004
<GCONST> 2.486543e+000
<MIXTURE> 12 2.566422e-002
<MEAN> 9
 -3.783341e+000 -7.108434e-001 2.077836e+000 -4.549468e+001 -5.192876e+001 1.023973e+002 5.227250e-001 -6.043640e-002 2.081748e-001
<VARIANCE> 9
 9.520061e-001 3.371764e-001 1.731537e-001 2.977951e+001 4.857715e+002 2.165928e+002 4.762525e-004 5.782502e-004 1.938003e-004
<GCONST> 4.954816e+000
<MIXTURE> 13 2.565229e-002
<MEAN> 9
 -7.536107e+000 1.030073e+000 4.084350e+000 -9.463345e+001 -6.197514e-002 3.704208e+001 5.240911e-001 -4.954523e-002 1.596937e-001
<VARIANCE> 9
 1.491142e-001 3.371764e-001 7.025734e-002 2.977951e+001 3.680466e+001 1.210095e+002 4.762525e-004 5.782502e-004 1.938003e-004
<GCONST> -9.633231e-001
<MIXTURE> 14 7.666016e-002
<MEAN> 9
 -8.137824e+000 -3.245228e+000 -1.183903e+000 -5.994470e+001 1.614744e+001 1.546553e+002 4.296589e-001 1.932498e-001 1.665658e-001
<VARIANCE> 9
 4.452395e-001 3.913282e-001 6.408358e-001 3.393201e+001 7.556825e+003 4.998457e+002 4.762525e-004 5.782502e-004 2.451050e-004
<GCONST> 9.598532e+000
<MIXTURE> 15 5.125134e-002
<MEAN> 9
 -6.701400e+000 1.270878e+000 7.228528e-001 -8.057845e+001 -2.750318e+001 1.141796e+002 5.195476e-001 -6.611798e-003 2.293846e-001
<VARIANCE> 9
 1.619041e-001 3.371764e-001 6.976298e-002 4.092358e+001 5.207097e+002 1.210095e+002 4.762525e-004 5.782502e-004 1.122410e-003
<GCONST> 3.835765e+000
<MIXTURE> 16 2.573577e-002
<MEAN> 9
 -6.758990e+000 8.058454e-001 1.549058e+000 -6.296299e+001 -2.081009e+001 7.573739e+001 5.231817e-001 -5.958001e-002 2.428343e-001
<VARIANCE> 9
 1.491142e-001 3.371764e-001 6.976298e-002 2.977951e+001 3.680466e+001 1.210095e+002 4.762525e-004 5.782502e-004 1.938003e-004
<GCONST> -9.703841e-001
<MIXTURE> 17 3.847731e-002
<MEAN> 9
 -8.473896e+000 -1.751005e+000 -4.469879e+000 -7.544714e+001 -4.668699e+001 2.315041e+002 4.306060e-001 1.912121e-001 2.251701e-001
<VARIANCE> 9
 1.491142e-001 3.971868e-001 8.022439e-002 4.853841e+001 3.680466e+001 1.210095e+002 4.762525e-004 6.348940e-004 1.938003e-004
<GCONST> -8.487606e-002
<MIXTURE> 18 5.130017e-002
<MEAN> 9
 -7.867466e+000 -8.915331e-001 6.415831e-001 -6.625016e+001 -2.818583e+001 1.637648e+002 4.884097e-001 1.272721e-001 1.622451e-001
<VARIANCE> 9
 1.722354e-001 3.536591e-001 1.088198e-001 2.977951e+001 3.680466e+001 1.210095e+002 4.762525e-004 5.782502e-004 1.938003e-004
<GCONST> -3.339167e-001
<MIXTURE> 19 2.572421e-002
<MEAN> 9
 -7.855237e+000 3.514338e+000 -3.097549e-001 -1.549391e+002 1.424571e+001 7.170346e+001 5.131750e-001 -1.096220e-001 2.326120e-001
<VARIANCE> 9
 1.491142e-001 3.371764e-001 6.976298e-002 2.977951e+001 3.680466e+001 1.210095e+002 4.762525e-004 5.782502e-004 1.938003e-004
<GCONST> -9.703841e-001
<MIXTURE> 20 3.848974e-002
<MEAN> 9
 -6.289609e+000 2.028071e+000 2.289177e+000 -9.625990e+001 -2.666133e+001 6.419521e+001 5.239370e-001 -1.847655e-002 1.642890e-001
<VARIANCE> 9
 1.491142e-001 3.371764e-001 6.976298e-002 2.977951e+001 4.730675e+001 1.210095e+002 4.762525e-004 5.782502e-004 1.938003e-004
<GCONST> -7.193580e-001
<MIXTURE> 21 3.846669e-002
<MEAN> 9
 -7.144575e+000 1.666561e+000 -3.381629e+000 -1.301604e+002 -2.274499e+001 1.545769e+002 5.099977e-001 4.788123e-002 2.170050e-001
<VARIANCE> 9
 1.491142e-001 3.371764e-001 9.301861e-002 4.384282e+001 3.983433e+001 1.210095e+002 4.762525e-004 5.782502e-004 1.938003e-004
<GCONST> -2.167940e-001
<MIXTURE> 22 6.411633e-002
<MEAN> 9
 -4.935083e+000 -6.698714e-001 7.372760e-001 -6.534263e+001 -2.484509e+001 1.999384e+002 5.094528e-001 2.964689e-002 2.336739e-001
<VARIANCE> 9
 8.744815e-001 3.371764e-001 5.241233e-001 2.977951e+001 6.837797e+002 1.836939e+003 4.762525e-004 2.241733e-003 1.938003e-004
<GCONST> 9.812150e+000
<MIXTURE> 23 3.839929e-002
<MEAN> 9
 -6.445080e+000 5.173251e-002 2.225521e+000 -4.496177e+001 -3.508015e+001 4.153758e+001 5.224218e-001 -8.274560e-002 2.306040e-001
<VARIANCE> 9
 1.491142e-001 3.371764e-001 6.976298e-002 5.426217e+001 3.680466e+001 1.215363e+002 4.762525e-004 5.782502e-004 1.938003e-004
<GCONST> -3.660345e-001
<MIXTURE> 24 2.564966e-002
<MEAN> 9
 -6.837342e+000 -1.144728e-001 4.481935e+000 -7.554840e+001 -1.445105e+001 2.167661e+001 5.281818e-001 -5.000021e-002 1.571429e-001
<VARIANCE> 9
 1.491142e-001 3.371764e-001 6.976298e-002 4.177571e+001 3.680466e+001 1.210095e+002 4.762525e-004 5.782502e-004 1.938003e-004
<GCONST> -6.318908e-001
<STATE> 4
<NUMMIXES> 24
<MIXTURE> 1 2.829678e-002
<MEAN> 9
 -6.851186e+000 5.506262e+000 -8.035298e-001 -1.202885e+000 7.077668e+001 9.044463e+001 4.939354e-001 -1.803115e-001 2.683687e-001
<VARIANCE> 9
 2.183757e-001 3.669376e-001 7.542516e-001 7.928252e+001 1.085358e+002 1.210095e+002 4.762525e-004 5.782502e-004 1.938003e-004
<GCONST> 3.936980e+000
<MIXTURE> 2 4.722505e-002
<MEAN> 9
 -9.451224e+000 1.808485e+000 4.322651e+000 1.122934e+001 3.842173e+001 2.376193e+001 5.268875e-001 -6.677929e-002 1.903092e-001
<VARIANCE> 9
 1.491142e-001 3.371764e-001 1.424116e-001 3.124908e+001 3.680466e+001 1.210095e+002 4.762525e-004 5.782502e-004 1.938003e-004
<GCONST> -2.085962e-001
<MIXTURE> 3 5.643974e-002
<MEAN> 9
 -8.714386e+000 4.337665e+000 4.018353e+000 1.993618e+001 1.212025e+001 2.231513e+001 5.121224e-001 -1.587747e-001 1.964611e-001
<VARIANCE> 9
 4.458089e-001 1.057389e+000 4.540827e-001 2.374062e+002 4.362039e+002 1.210095e+002 4.762525e-004 8.493465e-004 1.938003e-004
<GCONST> 8.073817e+000
<MIXTURE> 4 3.773565e-002
<MEAN> 9
 -7.337238e+000 5.996998e+000 1.165655e+000 3.580768e+001 1.172372e+000 2.931410e+001 5.013636e-001 -1.925003e-001 2.112246e-001
<VARIANCE> 9
 2.056392e+000 3.371764e-001 1.372734e-001 2.977951e+001 3.533376e+002 1.210095e+002 4.762525e-004 5.782502e-004 1.938003e-004
<GCONST> 4.592280e+000
<MIXTURE> 5 3.880214e-002
<MEAN> 9
 -8.510458e+000 4.599194e-001 5.190557e+000 -4.880963e+001 -6.937057e-002 -5.814078e-001 5.124740e-001 -1.660858e-001 1.847465e-001
<VARIANCE> 9
 1.491142e-001 3.371764e-001 6.976298e-002 3.390690e+002 3.680466e+001 1.210095e+002 4.762525e-004 5.782502e-004 1.938003e-004
<GCONST> 1.462001e+000
<MIXTURE> 6 3.051030e-002
<MEAN> 9
 -9.982936e+000 3.356912e+000 3.019204e+000 6.124440e-001 1.414173e+001 1.700934e+001 5.207369e-001 -1.076996e-001 2.176734e-001
<VARIANCE> 9
 1.491142e-001 3.371764e-001 6.976298e-002 2.977951e+001 3.680466e+001 1.210095e+002 4.762525e-004 5.782502e-004 1.938003e-004
<GCONST> -9.703841e-001
<MIXTURE> 7 3.812618e-002
<MEAN> 9
 -6.125070e+000 5.663888e+000 1.861903e-001 -4.792031e+001 8.798899e+001 5.723166e+001 4.606754e-001 -2.386980e-001 3.027127e-001
<VARIANCE> 9
 3.832263e-001 3.371764e-001 6.976298e-002 1.632293e+002 1.043518e+002 1.420823e+002 4.762525e-004 5.782502e-004 2.016624e-004
<GCONST> 2.917314e+000
<MIXTURE> 8 3.855461e-002
<MEAN> 9
 -8.193727e+000 4.166672e+000 2.420299e+000 1.339947e+001 1.549975e+001 4.451356e+001 5.049148e-001 -1.425515e-001 2.504609e-001
<VARIANCE> 9
 1.491142e-001 3.371764e-001 1.946911e-001 2.977951e+001 3.680466e+001 1.210095e+002 4.762525e-004 5.782502e-004 1.938003e-004
<GCONST> 5.592632e-002
<MIXTURE> 9 3.780542e-002
<MEAN> 9
 -8.913593e+000 -9.409099e-002 5.044715e+000 -2.905649e+001 2.293593e+001 1.343098e+001 5.241079e-001 -5.589638e-002 1.640531e-001
<VARIANCE> 9
 2.648896e-001 3.371764e-001 6.976298e-002 3.142739e+002 3.736109e+001 1.210095e+002 4.762525e-004 5.782502e-004 1.938003e-004
<GCONST> 1.975669e+000
<MIXTURE> 10 2.870722e-002
<MEAN> 9
 -8.299507e+000 1.328999e+000 2.575358e+000 -1.027984e+001 -3.649211e+000 -1.742958e+000 5.246193e-001 -1.025289e-001 2.106050e-001
<VARIANCE> 9
 1.491142e-001 3.371764e-001 6.976298e-002 2.977951e+001 3.680466e+001 1.210095e+002 4.762525e-004 5.782502e-004 1.938003e-004
<GCONST> -9.703841e-001
<MIXTURE> 11 6.578079e-002
<MEAN> 9
 -1.059212e+001 3.815563e+000 1.667524e+000 -4.686368e+000 2.835496e+001 5.114964e+001 5.177841e-001 -1.219579e-001 2.243818e-001
<VARIANCE> 9
 3.294278e-001 3.371764e-001 1.553258e-001 2.977951e+001 2.038537e+002 1.446168e+002 4.762525e-004 5.782502e-004 2.259845e-004
<GCONST> 2.666315e+000
<MIXTURE> 12 5.612712e-002
<MEAN> 9
 -7.367836e+000 4.570262e+000 1.309658e+000 -8.656147e+001 4.593184e+001 4.935341e+001 4.829810e-001 -2.143129e-001 2.360805e-001
<VARIANCE> 9
 3.798580e-001 3.371764e-001 2.606959e-001 2.442470e+002 5.909452e+001 1.210095e+002 4.762525e-004 5.782502e-004 1.938003e-004
<GCONST> 3.860824e+000
<MIXTURE> 13 7.589670e-002
<MEAN> 9
 -8.101357e+000 5.018745e+000 -6.336306e-001 -3.181988e+001 3.032673e+001 5.717073e+001 5.000283e-001 -1.332746e-001 2.355074e-001
<VARIANCE> 9
 1.065882e+000 1.086552e+000 2.622430e+000 1.622956e+003 2.513248e+002 1.952175e+002 4.762525e-004 5.025971e-003 1.437452e-003
<GCONST> 1.635709e+001
<MIXTURE> 14 4.354866e-002
<MEAN> 9
 -9.358125e+000 2.919952e+000 3.017570e+000 1.678521e+001 2.104554e+001 2.472796e+001 5.244410e-001 -8.481169e-002 2.181643e-001
<VARIANCE> 9
 1.491142e-001 3.371764e-001 2.109457e-001 2.977951e+001 4.577595e+001 1.210095e+002 4.762525e-004 5.782502e-004 1.938003e-004
<GCONST> 3.542471e-001
<MIXTURE> 15 2.837107e-002
<MEAN> 9
 -6.039806e+000 5.992062e+000 1.166896e+000 -6.633134e+001 -1.822585e+000 4.041378e+001 4.636283e-001 -2.412351e-001 2.758303e-001
<VARIANCE> 9
 7.638071e-001 3.371764e-001 6.976298e-002 2.977951e+001 5.371078e+001 1.210095e+002 4.762525e-004 5.782502e-004 1.938003e-004
<GCONST> 1.041209e+000
<MIXTURE> 16 1.887266e-002
<MEAN> 9
 -8.807460e+000 3.566364e+000 2.265021e+000 -1.036626e+000 1.466600e+001 8.658113e+001 5.068190e-001 -1.563592e-001 2.489783e-001
<VARIANCE> 9
 1.491142e-001 3.371764e-001 8.360253e-002 2.977951e+001 5.670584e+001 1.210095e+002 4.762525e-004 5.782502e-004 1.938003e-004
<GCONST> -3.571596e-001
<MIXTURE> 17 3.670850e-002
<MEAN> 9
 -8.986693e+000 2.521587e+000 5.298189e+000 2.565711e+000 1.204582e+001 6.854939e+000 5.092474e-001 -1.777887e-001 1.815240e-001
<VARIANCE> 9
 1.491142e-001 3.371764e-001 6.976298e-002 1.000540e+002 3.680466e+001 1.210095e+002 4.762525e-004 5.782502e-004 1.938003e-004
<GCONST> 2.415075e-001
<MIXTURE> 18 3.778820e-002
<MEAN> 9
 -7.933277e+000 5.423629e+000 -2.681038e-001 -3.376249e+001 2.335525e+001 4.901152e+001 4.768742e-001 -2.051802e-001 2.843265e-001
<VARIANCE> 9
 1.491142e-001 3.371764e-001 1.356543e-001 1.503262e+002 3.680466e+001 1.210095e+002 4.762525e-004 5.782502e-004 1.938003e-004
<GCONST> 1.313609e+000
<MIXTURE> 19 5.413635e-002
<MEAN> 9
 -9.425927e+000 2.823228e+000 2.883276e+000 -3.896491e+000 6.971093e+000 4.829474e+000 5.249102e-001 -1.014536e-001 2.138021e-001
<VARIANCE> 9
 1.491142e-001 3.371764e-001 8.425297e-002 2.977951e+001 3.680466e+001 1.210095e+002 4.762525e-004 5.782502e-004 1.938003e-004
<GCONST> -7.816634e-001
<MIXTURE> 20 4.663940e-002
<MEAN> 9
 -5.566770e+000 6.255933e+000 1.480921e+000 -7.593134e+001 6.298718e+001 1.072127e+001 4.428874e-001 -2.574246e-001 3.053108e-001
<VARIANCE> 9
 7.064384e-001 3.371764e-001 6.193435e-001 2.977951e+001 1.409228e+003 1.259461e+002 4.762525e-004 5.782502e-004 9.361138e-004
<GCONST> 8.028761e+000
<MIXTURE> 21 4.712180e-002
<MEAN> 9
 -8.956300e+000 5.146946e+000 1.029360e+000 2.591669e+000 3.356707e+001 3.860351e+001 4.980067e-001 -1.728950e-001 2.714210e-001
<VARIANCE> 9
 3.065194e-001 3.371764e-001 1.156494e-001 5.487640e+001 3.680466e+001 1.210095e+002 4.762525e-004 5.782502e-004 1.938003e-004
<GCONST> 8.669081e-001
<MIXTURE> 22 2.841599e-002
<MEAN> 9
 -9.516870e+000 8.804659e-001 1.943296e+000 -1.197800e+001 4.761623e+000 3.069675e+001 5.227107e-001 -8.464610e-002 2.054293e-001
<VARIANCE> 9
 9.931543e-001 5.514619e-001 6.976298e-002 2.977951e+001 3.680466e+001 1.210095e+002 4.762525e-004 5.782502e-004 1.938003e-004
<GCONST> 1.417758e+000
<MIXTURE> 23 4.994165e-002
<MEAN> 9
 -9.213367e+000 3.423929e+000 2.159287e+000 1.544710e+001 2.133068e+001 4.091261e+001 5.150588e-001 -1.177744e-001 2.328946e-001
<VARIANCE> 9
 1.491142e-001 3.371764e-001 6.976298e-002 2.977951e+001 3.889849e+001 1.210095e+002 4.762525e-004 5.782502e-004 1.938003e-004
<GCONST> -9.150558e-001
<MIXTURE> 24 2.844767e-002
<MEAN> 9
 -7.913722e+000 8.197586e-003 4.268357e+000 -1.075096e+002 -5.720053e+000 8.571016e+000 5.112250e-001 -1.610174e-001 1.910951e-001
<VARIANCE> 9
 1.491142e-001 3.371764e-001 1.458555e-001 1.956878e+002 3.680466e+001 1.210095e+002 4.762525e-004 5.782502e-004 1.938003e-004
<GCONST> 1.649829e+000
<STATE> 5
<NUMMIXES> 24
<MIXTURE> 1 1.754545e-002
<MEAN> 9
 -1.630780e+000 1.076187e+001 1.188731e+001 9.146100e+000 -5.034518e+001 2.526672e+001 4.465860e-001 -2.661403e-001 2.808835e-001
<VARIANCE> 9
 2.697283e+001 3.494612e-001 3.405308e+001 1.634712e+003 6.648745e+002 8.589449e+002 5.192108e-004 5.782502e-004 3.723171e-003
<GCONST> 2.235492e+001
<MIXTURE> 2 4.273928e-002
<MEAN> 9
 -7.213135e+000 7.620051e+000 1.198310e+000 -8.378115e+000 -2.330466e+001 6.199791e+000 4.260594e-001 -2.753736e-001 3.347770e-001
<VARIANCE> 9
 6.477359e-001 3.371764e-001 5.518323e-001 6.187602e+001 2.389033e+002 1.210095e+002 4.762525e-004 5.782502e-004 1.938003e-004
<GCONST> 5.168273e+000
<MIXTURE> 3 1.012230e-001
<MEAN> 9
 -9.437853e+000 1.228260e-001 3.260077e+000 -5.796152e+001 -6.008450e+001 2.439504e+001 4.924767e-001 -4.346924e-002 1.876796e-001
<VARIANCE> 9
 5.861889e+000 1.113048e+001 2.116563e+001 1.352421e+004 1.089575e+004 5.021764e+002 4.762525e-004 1.503756e-003 9.293464e-003
<GCONST> 2.997095e+001
<MIXTURE> 4 4.858641e-002
<MEAN> 9
 -7.943394e+000 6.233387e+000 2.146426e+000 6.998341e+001 -3.152423e+001 6.212668e+000 4.815351e-001 -2.317102e-001 2.383814e-001
<VARIANCE> 9
 1.291168e+000 3.371764e-001 7.094961e+000 2.425731e+002 3.543916e+002 1.210095e+002 4.762525e-004 5.782502e-004 1.938003e-004
<GCONST> 1.017250e+001
<MIXTURE> 5 1.311572e-002
<MEAN> 9
 -6.069489e+000 3.435023e+000 5.494663e+000 -4.134380e+000 -1.608323e+001 6.890128e+000 4.502515e-001 -2.758501e-001 1.657429e-001
<VARIANCE> 9
 1.491142e-001 3.371764e-001 2.653614e+000 3.473098e+001 4.092307e+001 1.210095e+002 4.762525e-004 5.782502e-004 1.649557e-003
<GCONST> 5.069507e+000
<MIXTURE> 6 4.026002e-002
<MEAN> 9
 -1.034093e+001 4.918367e+000 1.325138e+000 3.700409e+001 1.731138e+001 -5.402599e+000 4.429526e-001 -2.936899e-001 1.785465e-001
<VARIANCE> 9
 1.025844e+000 6.178620e-001 1.480417e+000 2.060586e+002 2.249833e+003 1.210095e+002 4.762525e-004 5.782502e-004 7.266011e-004
<GCONST> 1.198769e+001
<MIXTURE> 7 5.293286e-002
<MEAN> 9
 -9.204652e+000 4.918037e+000 -1.502578e+000 -4.118378e+001 1.007822e+001 1.308505e+001 4.769073e-001 -2.390497e-001 2.390957e-001
<VARIANCE> 9
 3.553063e-001 1.163429e+000 8.176259e-001 1.451011e+003 1.134824e+002 1.210095e+002 4.762525e-004 5.782502e-004 1.938003e-004
<GCONST> 8.609923e+000
<MIXTURE> 8 3.065762e-002
<MEAN> 9
 -9.140427e+000 1.319292e+000 7.659681e+000 3.503387e+001 -1.213145e+001 -2.056587e+000 4.392784e-001 -2.990442e-001 1.302912e-001
<VARIANCE> 9
 4.948350e-001 3.371764e-001 4.133702e+000 1.310268e+003 1.037168e+003 1.835260e+002 4.762525e-004 5.782502e-004 1.938003e-004
<GCONST> 1.185023e+001
<MIXTURE> 9 3.942162e-002
<MEAN> 9
 -7.600763e+000 4.545285e+000 2.592184e+000 -1.293407e+002 7.363287e+001 5.024465e+000 4.787745e-001 -2.330550e-001 2.202163e-001
<VARIANCE> 9
 9.978883e-001 3.371764e-001 6.162101e+000 5.199918e+002 4.796563e+002 1.210095e+002 4.762525e-004 5.782502e-004 1.938003e-004
<GCONST> 1.083905e+001
<MIXTURE> 10 3.445193e-002
<MEAN> 9
 -9.689073e+000 3.126154e+000 1.387882e+000 -8.754726e+001 2.913130e+001 2.233086e+001 4.709941e-001 -2.540214e-001 2.106694e-001
<VARIANCE> 9
 1.663158e-001 3.371764e-001 2.635686e-001 1.908916e+002 3.680466e+001 1.210095e+002 4.762525e-004 5.782502e-004 1.938003e-004
<GCONST> 2.325889e+000
<MIXTURE> 11 5.328866e-002
<MEAN> 9
 -8.620596e+000 5.330486e+000 3.371908e+000 -1.138638e+001 2.135032e+001 -1.234926e+001 4.671493e-001 -2.468252e-001 2.388744e-001
<VARIANCE> 9
 3.028356e+000 1.950756e+000 1.290206e+000 2.469279e+003 1.395374e+003 1.210095e+002 4.762525e-004 5.782502e-004 1.938003e-004
<GCONST> 1.476665e+001
<MIXTURE> 12 4.323776e-002
<MEAN> 9
 -8.170741e+000 6.514680e+000 2.199831e+000 1.525111e+001 3.167333e+000 -6.155485e+000 4.644494e-001 -2.533765e-001 2.380203e-001
<VARIANCE> 9
 3.871534e-001 6.882360e-001 2.669516e-001 9.674361e+001 4.285756e+001 1.210095e+002 4.762525e-004 5.782502e-004 1.938003e-004
<GCONST> 3.369712e+000
<MIXTURE> 13 3.566723e-002
<MEAN> 9
 -8.059936e+000 1.973443e+000 1.527399e+000 -1.233328e+002 2.722663e+001 3.074269e+001 4.538496e-001 -2.812980e-001 1.944392e-001
<VARIANCE> 9
 1.467826e+000 3.371764e-001 2.430439e-001 3.608282e+002 2.601087e+002 1.210095e+002 4.762525e-004 5.782502e-004 2.309329e-004
<GCONST> 7.189935e+000
<MIXTURE> 14 3.901946e-002
<MEAN> 9
 -6.695040e+000 5.953976e+000 4.182655e+000 7.684277e+000 -9.503334e+000 -1.534442e+000 4.617996e-001 -2.592355e-001 2.290334e-001
<VARIANCE> 9
 3.448582e-001 3.371764e-001 2.850036e-001 7.630536e+001 3.680466e+001 1.210095e+002 4.762525e-004 5.782502e-004 1.938003e-004
<GCONST> 2.216357e+000
<MIXTURE> 15 9.637254e-002
<MEAN> 9
 -5.691988e+000 5.069129e+000 4.100966e-001 9.565357e+000 9.226661e-001 2.189532e+001 4.772724e-001 -1.923901e-001 1.739394e-001
<VARIANCE> 9
 2.410175e+000 3.371764e-001 9.585398e-001 2.083540e+003 2.813875e+002 4.077412e+003 4.762525e-004 1.360064e-003 3.132063e-004
<GCONST> 1.556744e+001
<MIXTURE> 16 3.499058e-002
<MEAN> 9
 -7.792289e+000 3.314879e+000 4.986138e+000 7.001516e+000 3.012759e-001 6.467715e-001 4.452278e-001 -2.930833e-001 1.485459e-001
<VARIANCE> 9
 1.491142e-001 4.562575e-001 6.341082e-001 2.977951e+001 3.680466e+001 1.210095e+002 4.762525e-004 5.782502e-004 1.179557e-003
<GCONST> 3.345249e+000
<MIXTURE> 17 3.519596e-002
<MEAN> 9
 -8.406155e+000 4.771649e+000 1.747720e-001 -6.005008e+001 1.414719e+001 -1.329228e+001 4.402067e-001 -2.865962e-001 2.841603e-001
<VARIANCE> 9
 3.389487e-001 3.371764e-001 1.469548e-001 1.505376e+002 1.397936e+002 1.210095e+002 4.762525e-004 5.782502e-004 1.938003e-004
<GCONST> 3.550708e+000
<MIXTURE> 18 3.081598e-002
<MEAN> 9
 -7.953500e+000 4.746547e+000 1.661714e+000 -7.527461e+000 -8.438811e+000 -1.378623e+001 4.670598e-001 -2.529758e-001 2.297209e-001
<VARIANCE> 9
 1.491142e-001 3.371764e-001 2.663758e-001 1.627283e+002 3.680466e+001 1.210095e+002 4.762525e-004 5.782502e-004 1.938003e-004
<GCONST> 2.067683e+000
<MIXTURE> 19 2.755552e-002
<MEAN> 9
 -7.471930e+000 7.038424e+000 -6.745020e-002 -8.095309e+000 6.032290e+000 -9.976446e+000 4.233845e-001 -2.796796e-001 3.297117e-001
<VARIANCE> 9
 5.949828e-001 3.371764e-001 7.910179e-001 8.509792e+002 3.158365e+002 1.210095e+002 4.762525e-004 5.782502e-004 5.650874e-004
<GCONST> 9.413974e+000
<MIXTURE> 20 3.467707e-002
<MEAN> 9
 -8.594378e+000 3.545820e+000 2.030320e+000 -4.499760e+001 1.427697e+001 -1.412739e+001 4.769270e-001 -2.376521e-001 2.229590e-001
<VARIANCE> 9
 3.848523e-001 3.371764e-001 6.976298e-002 1.018548e+002 3.680466e+001 1.210095e+002 4.762525e-004 5.782502e-004 1.938003e-004
<GCONST> 1.207492e+000
<MIXTURE> 21 3.017976e-002
<MEAN> 9
 -8.534976e+000 3.812460e+000 9.015907e-001 -1.134744e+002 2.536047e+001 1.258341e+001 4.387066e-001 -2.979959e-001 2.429419e-001
<VARIANCE> 9
 1.491142e-001 3.371764e-001 6.667116e-001 1.777179e+002 3.680466e+001 1.210095e+002 4.762525e-004 5.782502e-004 2.076583e-004
<GCONST> 3.142314e+000
<MIXTURE> 22 6.567657e-002
<MEAN> 9
 -6.958968e+000 -1.347267e+000 1.472573e+001 -8.050466e+001 -3.077211e+000 8.454599e+000 4.467521e-001 -2.809536e-001 1.985075e-001
<VARIANCE> 9
 2.897858e+001 1.349966e+001 3.305652e+001 2.436267e+003 2.822695e+003 3.209340e+002 4.762525e-004 8.668395e-004 3.103797e-003
<GCONST> 2.704789e+001
<MIXTURE> 23 2.636720e-002
<MEAN> 9
 -8.025924e+000 1.689953e+000 5.152647e+000 -1.732135e+002 4.114899e+001 3.067499e+001 4.498627e-001 -2.964709e-001 1.713281e-001
<VARIANCE> 9
 6.435354e-001 3.371764e-001 3.118408e+000 2.977951e+001 4.410550e+001 1.210095e+002 4.762525e-004 5.782502e-004 2.659549e-004
<GCONST> 4.789314e+000
<MIXTURE> 24 2.602137e-002
<MEAN> 9
 -7.922495e+000 3.362037e+000 4.371470e+000 3.372708e+000 -2.616949e+001 2.538034e+000 4.383168e-001 -3.064359e-001 1.799381e-001
<VARIANCE> 9
 2.215049e-001 3.987427e-001 1.345942e+000 2.977951e+001 1.020000e+002 1.210095e+002 4.762525e-004 5.782502e-004 5.258101e-004
<GCONST> 4.570262e+000
<STATE> 6
<NUMMIXES> 24
<MIXTURE> 1 2.934503e-002
<MEAN> 9
 -6.083121e+000 6.479662e-001 2.093876e+000 1.533673e+002 -4.021150e+001 -1.110438e+002 4.986303e-001 -1.906366e-001 1.885066e-001
<VARIANCE> 9
 1.491142e-001 3.371764e-001 3.859986e-001 1.751122e+002 9.504503e+002 1.210095e+002 4.762525e-004 5.782502e-004 1.938003e-004
<GCONST> 5.763263e+000
<MIXTURE> 2 2.963031e-002
<MEAN> 9
 -5.925290e+000 2.023647e+000 1.261898e+000 1.467961e+002 -1.485769e+002 -1.270750e+002 4.979438e-001 -1.877650e-001 9.366754e-002
<VARIANCE> 9
 4.867740e-001 3.371764e-001 6.976298e-002 5.715789e+001 1.917855e+002 4.142730e+002 4.762525e-004 5.782502e-004 4.219860e-004
<GCONST> 4.524254e+000
<MIXTURE> 3 2.280061e-002
<MEAN> 9
 -6.702309e+000 8.484344e-001 2.541211e+000 1.396998e+002 -4.998274e+001 -8.399265e+001 4.879739e-001 -2.188955e-001 1.908729e-001
<VARIANCE> 9
 1.491142e-001 3.371764e-001 1.954009e-001 2.907036e+002 4.129059e+002 1.210095e+002 4.762525e-004 5.782502e-004 7.415800e-004
<GCONST> 6.097600e+000
<MIXTURE> 4 6.660024e-002
<MEAN> 9
 -5.477894e+000 1.143103e+000 3.840852e+000 -1.094802e+002 -8.290660e+001 -1.991560e+002 4.942429e-001 -5.484341e-002 9.206055e-002
<VARIANCE> 9
 5.580644e+000 4.603647e+000 1.084769e+001 5.078955e+003 2.777334e+002 9.716844e+002 4.762525e-004 4.891857e-003 2.001795e-003
<GCONST> 2.402610e+001
<MIXTURE> 5 1.480399e-002
<MEAN> 9
 -5.578394e+000 6.868768e-001 -7.804528e-002 1.764930e+002 -9.304895e+001 -1.381628e+002 5.063591e-001 -1.695561e-001 2.081638e-001
<VARIANCE> 9
 1.491142e-001 3.371764e-001 6.976298e-002 2.977951e+001 4.335685e+001 1.247434e+002 4.762525e-004 5.782502e-004 1.938003e-004
<GCONST> -7.761550e-001
<MIXTURE> 6 4.487320e-002
<MEAN> 9
 -8.368279e+000 7.341473e-001 6.254300e+000 3.638380e+001 -3.323206e+001 -1.017344e+001 4.591931e-001 -2.686659e-001 1.707540e-001
<VARIANCE> 9
 1.491142e-001 5.095178e-001 6.976298e-002 5.448528e+002 3.680466e+001 1.210095e+002 4.762525e-004 5.782502e-004 1.938003e-004
<GCONST> 2.349170e+000
<MIXTURE> 7 2.211209e-002
<MEAN> 9
 -8.320954e+000 -5.921094e-001 -5.315446e-003 1.491830e+002 5.597886e+000 -2.285111e+002 5.202907e-001 5.135670e-002 1.602095e-001
<VARIANCE> 9
 4.436030e+000 3.371764e-001 3.019738e-001 2.977951e+001 6.053414e+002 1.443930e+002 4.762525e-004 8.014503e-004 1.938003e-004
<GCONST> 7.190909e+000
<MIXTURE> 8 2.963848e-002
<MEAN> 9
 -6.987674e+000 6.279543e-002 4.693037e+000 1.180427e+002 -5.451991e+001 -4.856991e+001 4.670319e-001 -2.616096e-001 1.629949e-001
<VARIANCE> 9
 1.491142e-001 3.371764e-001 3.959911e-001 6.006703e+002 3.697421e+001 1.210095e+002 4.762525e-004 5.782502e-004 1.938003e-004
<GCONST> 3.774726e+000
<MIXTURE> 9 1.447565e-001
<MEAN> 9
 -1.021803e+001 -3.389239e+000 4.832503e+000 3.432571e+000 1.089015e+001 -8.263525e+001 4.384549e-001 1.789347e-001 8.829069e-002
<VARIANCE> 9
 6.201800e+000 5.354393e-001 6.678493e+000 1.427429e+003 1.707238e+002 1.286471e+004 4.762525e-004 6.254351e-004 1.938003e-004
<GCONST> 1.793056e+001
<MIXTURE> 10 6.668821e-002
<MEAN> 9
 -9.134573e+000 -1.652397e+000 -1.033483e+000 8.833664e+001 -4.893374e+001 -2.918871e+002 4.874030e-001 1.184356e-001 9.691150e-002
<VARIANCE> 9
 1.082286e+000 6.433771e-001 9.613886e-001 6.789531e+002 1.589912e+003 1.209756e+003 4.762525e-004 2.413455e-003 2.403760e-004
<GCONST> 1.512016e+001
<MIXTURE> 11 4.450449e-002
<MEAN> 9
 -7.880683e+000 2.181944e+000 5.686393e+000 5.452309e+001 -3.433024e+001 -1.771583e+001 4.311090e-001 -3.175142e-001 1.930059e-001
<VARIANCE> 9
 1.491142e-001 4.893338e-001 7.803642e-002 5.880364e+002 3.680466e+001 1.210095e+002 4.762525e-004 5.782502e-004 1.938003e-004
<GCONST> 2.497096e+000
<MIXTURE> 12 3.712320e-002
<MEAN> 9
 -6.136106e+000 4.079204e-001 -8.368019e-001 1.749122e+002 -1.125721e+002 -2.093744e+002 5.201949e-001 -1.008736e-001 1.646543e-001
<VARIANCE> 9
 1.519980e-001 3.371764e-001 7.225264e-002 1.418839e+002 2.362140e+002 4.633238e+002 4.762525e-004 2.572333e-003 1.938003e-004
<GCONST> 5.339257e+000
<MIXTURE> 13 2.928275e-002
<MEAN> 9
 -7.670571e+000 1.055765e+000 1.609581e+000 1.643468e+002 -1.095010e+002 -6.881538e+001 4.788895e-001 -2.474640e-001 1.450142e-001
<VARIANCE> 9
 1.318775e+000 3.371764e-001 4.907767e-001 2.977951e+001 4.001160e+002 1.210095e+002 4.762525e-004 5.782502e-004 1.938003e-004
<GCONST> 5.546378e+000
<MIXTURE> 14 2.219968e-002
<MEAN> 9
 -7.417633e+000 4.578588e-001 7.831371e+000 1.108730e+002 -7.408597e+001 -4.375953e+001 4.439389e-001 -2.936370e-001 1.336737e-001
<VARIANCE> 9
 1.912432e-001 3.371764e-001 2.851726e-001 1.992162e+002 4.933040e+001 1.210095e+002 4.762525e-004 5.782502e-004 1.938003e-004
<GCONST> 2.879928e+000
<MIXTURE> 15 2.970295e-002
<MEAN> 9
 -6.869108e+000 2.155581e-001 1.224878e+000 1.853180e+002 -5.724887e+001 -1.211531e+002 4.901975e-001 -2.134538e-001 1.782059e-001
<VARIANCE> 9
 1.491142e-001 3.371764e-001 1.239409e-001 1.069281e+002 2.801808e+002 2.236510e+002 4.762525e-004 2.171799e-003 1.938003e-004
<GCONST> 4.849987e+000
<MIXTURE> 16 4.440112e-002
<MEAN> 9
 -7.377385e+000 2.611023e-001 -7.436510e-002 1.793413e+002 -7.199729e+001 -1.674002e+002 5.201501e-001 -1.168247e-001 1.855429e-001
<VARIANCE> 9
 1.491142e-001 3.371764e-001 6.976298e-002 8.826028e+001 4.454684e+002 1.719847e+002 4.762525e-004 1.311400e-003 1.938003e-004
<GCONST> 3.779967e+000
<MIXTURE> 17 2.970373e-002
<MEAN> 9
 -6.848989e+000 9.555343e-003 6.575016e+000 8.811462e+001 -3.960617e+001 -1.782069e+001 4.502759e-001 -2.855895e-001 1.449881e-001
<VARIANCE> 9
 1.491142e-001 3.371764e-001 3.897146e-001 5.203004e+002 4.769857e+001 1.210095e+002 4.762525e-004 5.782502e-004 1.938003e-004
<GCONST> 3.869788e+000
<MIXTURE> 18 4.424480e-002
<MEAN> 9
 -8.020665e+000 -5.766546e-001 -1.397808e+000 1.418001e+002 -5.107329e+001 -2.589369e+002 5.174938e-001 8.617750e-003 1.372529e-001
<VARIANCE> 9
 4.545137e+000 3.371764e-001 7.617454e-002 4.527381e+001 5.321828e+002 4.345962e+002 4.762525e-004 3.891573e-003 2.087804e-004
<GCONST> 8.884475e+000
<MIXTURE> 19 2.991121e-002
<MEAN> 9
 -8.987396e+000 3.631894e-001 4.595252e+000 1.583186e+002 -5.848560e+001 -5.386651e+001 4.608267e-001 -2.774839e-001 1.448055e-001
<VARIANCE> 9
 1.491142e-001 3.371764e-001 9.518417e-001 7.392533e+001 3.680466e+001 1.210095e+002 4.762525e-004 5.782502e-004 1.938003e-004
<GCONST> 2.552146e+000
<MIXTURE> 20 2.220792e-002
<MEAN> 9
 -8.076221e+000 1.297220e+000 4.425841e+000 1.191812e+002 -5.452778e+001 -4.463128e+001 4.478756e-001 -2.942469e-001 1.976201e-001
<VARIANCE> 9
 1.491142e-001 3.371764e-001 1.455580e-001 1.087956e+002 5.403968e+001 1.210095e+002 4.762525e-004 5.782502e-004 1.938003e-004
<GCONST> 1.444831e+000
<MIXTURE> 21 3.652435e-002
<MEAN> 9
 -7.050646e+000 9.270444e-001 2.717015e+000 1.580947e+002 -6.220650e+001 -7.094366e+001 4.652211e-001 -2.670569e-001 1.967015e-001
<VARIANCE> 9
 2.436756e-001 3.371764e-001 1.246785e-001 1.801450e+002 3.680466e+001 1.210095e+002 4.762525e-004 5.782502e-004 4.356971e-004
<GCONST> 2.711436e+000
<MIXTURE> 22 2.220107e-002
<MEAN> 9
 -5.465864e+000 2.136544e+000 1.032128e+000 1.111382e+002 -1.364024e+002 -1.958334e+002 5.078788e-001 -1.036363e-001 2.006797e-002
<VARIANCE> 9
 1.491142e-001 5.036370e-001 6.976298e-002 1.850593e+002 3.680466e+001 3.320549e+002 4.762525e-004 5.782502e-004 3.417555e-004
<GCONST> 2.834419e+000
<MIXTURE> 23 2.960141e-002
<MEAN> 9
 -7.774095e+000 -1.397587e+000 2.427711e+000 3.673782e+001 -5.649392e+001 -2.659756e+002 4.761364e-001 5.136357e-002 -3.571426e-002
<VARIANCE> 9
 3.375211e-001 1.178905e+000 6.976298e-002 1.263727e+002 3.680466e+001 1.448094e+002 4.762525e-004 1.229130e-003 1.938003e-004
<GCONST> 3.477286e+000
<MIXTURE> 24 1.071423e-001
<MEAN> 9
 -7.191658e+000 -3.578269e+000 2.014948e+000 3.640408e+001 6.253669e+001 -4.241666e+001 4.255756e-001 1.946173e-001 1.387260e-001
<VARIANCE> 9
 1.491142e-001 3.371764e-001 1.281038e+000 1.156601e+002 6.789112e+002 1.207573e+003 4.762525e-004 5.782502e-004 8.293987e-004
<GCONST> 9.966010e+000
<STATE> 7
<NUMMIXES> 24
<MIXTURE> 1 4.587862e-002
<MEAN> 9
 -2.550345e+000 -1.052917e+001 4.785684e+000 -3.384557e+001 1.192227e+002 -3.034776e+001 -9.471204e-003 3.702244e-001 1.775331e-001
<VARIANCE> 9
 2.605896e+000 9.283596e-001 1.828206e-001 1.841170e+002 5.459499e+003 3.404095e+002 4.762525e-004 5.782502e-004 1.938003e-004
<GCONST> 1.172217e+001
<MIXTURE> 2 4.581305e-002
<MEAN> 9
 -1.062164e+001 -7.215470e+000 2.112058e+000 2.925682e+001 2.213476e+001 -2.681552e+002 3.106230e-001 3.103279e-001 7.987814e-002
<VARIANCE> 9
 8.011743e-001 6.133195e-001 4.712969e-001 1.174212e+003 7.616699e+002 1.210095e+002 6.633003e-004 5.782502e-004 1.938003e-004
<GCONST> 1.025535e+001
<MIXTURE> 3 2.728332e-002
<MEAN> 9
 -1.044180e+001 -4.919760e+000 1.630475e+000 8.652377e+001 6.545202e+000 -2.701625e+002 4.087849e-001 2.430339e-001 9.285625e-002
<VARIANCE> 9
 2.733110e-001 3.895580e-001 2.973133e-001 2.977951e+001 3.680466e+001 1.210095e+002 4.762525e-004 6.789906e-004 1.938003e-004
<GCONST> 1.390203e+000
<MIXTURE> 4 7.285882e-002
<MEAN> 9
 -7.086694e+000 -1.218995e+001 2.222827e+000 -4.922948e+001 9.393700e+001 -1.189299e+002 1.368606e-002 3.728581e-001 1.639155e-001
<VARIANCE> 9
 1.491142e-001 3.371764e-001 6.601545e-001 2.402389e+002 2.271521e+003 6.646472e+002 4.762525e-004 5.782502e-004 1.938003e-004
<GCONST> 9.190764e+000
<MIXTURE> 5 5.438377e-002
<MEAN> 9
 -7.232851e+000 -1.038714e+001 2.126331e+000 -3.361610e+001 7.763747e+001 -1.195122e+002 5.298662e-002 3.751662e-001 1.078403e-001
<VARIANCE> 9
 1.544962e-001 3.371764e-001 9.866239e-002 2.977951e+001 1.962253e+002 1.238708e+003 4.762525e-004 5.782502e-004 1.938003e-004
<GCONST> 3.411267e+000
<MIXTURE> 6 1.819604e-002
<MEAN> 9
 -5.397461e+000 -9.566336e+000 2.397191e+000 -4.161918e+001 1.944234e+001 -2.351784e+001 -8.618495e-003 3.609262e-001 1.632530e-001
<VARIANCE> 9
 1.491142e-001 3.371764e-001 6.976298e-002 2.977951e+001 2.550295e+002 1.210095e+002 4.762525e-004 5.782502e-004 1.938003e-004
<GCONST> 9.653692e-001
<MIXTURE> 7 4.524931e-002
<MEAN> 9
 -1.011329e+001 -9.637557e+000 1.811891e+000 -1.738726e+000 3.095119e+001 -2.531938e+002 2.249661e-001 3.552592e-001 8.339684e-002
<VARIANCE> 9
 3.460788e-001 1.631537e+000 1.927340e-001 6.924742e+002 4.865685e+002 1.210095e+002 7.351144e-004 5.782502e-004 2.673183e-004
<GCONST> 8.948342e+000
<MIXTURE> 8 4.549954e-002
<MEAN> 9
 -5.014724e+000 -9.949277e+000 2.792540e+000 -5.644580e+001 5.621982e+001 -1.247494e+002 9.457881e-002 3.758086e-001 2.250811e-001
<VARIANCE> 9
 2.260105e-001 3.371764e-001 6.976298e-002 3.986151e+001 1.065531e+003 3.036335e+002 5.967084e-004 5.782502e-004 1.938003e-004
<GCONST> 4.248115e+000
<MIXTURE> 9 9.049388e-002
<MEAN> 9
 -9.330649e+000 -5.775751e+000 1.883323e-001 9.137015e+000 1.808488e+001 -2.234660e+002 3.609587e-001 2.762723e-001 1.275617e-001
<VARIANCE> 9
 8.006961e+000 1.448886e+000 1.044313e+000 1.372928e+002 2.461067e+003 7.819392e+003 9.090404e-004 5.782502e-004 1.465617e-003
<GCONST> 1.974608e+001
<MIXTURE> 10 4.493976e-002
<MEAN> 9
 -8.160873e+000 -9.193359e+000 3.344945e+000 1.295951e+001 1.554939e+002 -2.064807e+001 -1.825709e-002 3.629659e-001 1.601077e-001
<VARIANCE> 9
 4.406050e+000 3.371764e-001 1.899699e-001 2.977951e+001 3.806204e+003 1.210095e+002 4.762525e-004 5.782502e-004 1.938003e-004
<GCONST> 8.056163e+000
<MIXTURE> 11 2.728387e-002
<MEAN> 9
 -7.574292e+000 -1.003612e+001 8.714888e-001 -6.158512e+001 1.077851e+002 -6.062938e+001 3.939165e-003 3.651511e-001 1.683675e-001
<VARIANCE> 9
 3.389443e-001 3.371764e-001 6.976298e-002 2.977951e+001 8.997513e+001 1.749727e+002 4.762525e-004 5.782502e-004 1.938003e-004
<GCONST> 1.113410e+000
<MIXTURE> 12 3.627384e-002
<MEAN> 9
 -8.015929e+000 -1.233741e+001 1.476889e+000 -3.823254e+001 1.231549e+002 -2.027706e+002 8.075424e-002 3.808973e-001 1.560802e-001
<VARIANCE> 9
 1.491142e-001 3.371764e-001 1.277343e-001 4.166324e+001 2.137844e+002 4.439251e+002 9.990012e-004 5.782502e-004 1.938003e-004
<GCONST> 3.770202e+000
<MIXTURE> 13 2.728509e-002
<MEAN> 9
 -1.085542e+001 -1.115663e+001 8.995984e-001 -4.150407e+001 1.294512e+002 -2.563415e+002 1.769697e-001 3.606061e-001 7.823129e-002
<VARIANCE> 9
 8.407611e-001 3.371764e-001 8.770826e-002 2.977951e+001 3.380453e+002 1.210095e+002 8.497702e-004 5.782502e-004 1.938003e-004
<GCONST> 3.784694e+000
<MIXTURE> 14 2.728482e-002
<MEAN> 9
 -5.847387e+000 -1.071887e+001 1.678712e+000 -4.306912e+001 1.582113e+002 -4.060957e+001 -2.606062e-002 3.645455e-001 1.755103e-001
<VARIANCE> 9
 1.491142e-001 3.371764e-001 6.976298e-002 2.977951e+001 1.096636e+002 1.827791e+002 4.762525e-004 5.782502e-004 1.938003e-004
<GCONST> 5.338182e-001
<MIXTURE> 15 6.364138e-002
<MEAN> 9
 -6.637286e+000 -8.703521e+000 2.476788e+000 -3.168371e+001 2.573884e+000 -1.655782e+002 2.189873e-001 3.433701e-001 1.714224e-001
<VARIANCE> 9
 6.318605e-001 1.119038e+000 9.863757e-002 7.601438e+001 7.762971e+002 1.210095e+002 2.053977e-003 5.782502e-004 1.938003e-004
<GCONST> 7.467135e+000
<MIXTURE> 16 2.728501e-002
<MEAN> 9
 -9.670683e+000 -1.175904e+001 1.112449e+000 -5.892276e+001 -6.300957e-001 -2.008537e+002 8.575757e-002 3.709091e-001 1.119048e-001
<VARIANCE> 9
 1.937612e+000 3.371764e-001 6.976298e-002 5.490854e+001 6.227272e+002 6.317733e+002 7.362710e-004 5.782502e-004 1.938003e-004
<GCONST> 7.122758e+000
<MIXTURE> 17 5.450577e-002
<MEAN> 9
 -1.003076e+001 -5.142706e+000 1.876480e+000 1.069184e+001 6.830547e+001 -2.848065e+002 3.824844e-001 2.138477e-001 -2.060939e-002
<VARIANCE> 9
 8.419870e-001 1.172009e+000 4.190810e-001 3.823113e+001 1.629099e+003 1.210095e+002 1.404003e-003 2.621695e-003 3.645296e-004
<GCONST> 1.106397e+001
<MIXTURE> 18 2.728571e-002
<MEAN> 9
 -1.028115e+001 -8.795133e+000 1.710828e+000 -1.955235e+001 1.138005e+002 -2.761994e+002 2.739407e-001 3.424231e-001 3.639385e-002
<VARIANCE> 9
 2.378156e-001 6.870697e-001 6.976298e-002 7.985724e+001 3.680466e+001 1.210095e+002 4.762525e-004 5.782502e-004 1.938003e-004
<GCONST> 1.194648e+000
<MIXTURE> 19 1.819006e-002
<MEAN> 9
 -1.068072e+001 -8.951807e+000 3.000000e+000 -2.658537e+001 -5.521341e+001 -2.887805e+002 2.659091e-001 3.413636e-001 1.204082e-001
<VARIANCE> 9
 2.784476e+000 3.371764e-001 6.976298e-002 2.977951e+001 5.855983e+001 1.210095e+002 4.762525e-004 5.782502e-004 1.938003e-004
<GCONST> 2.421142e+000
<MIXTURE> 20 4.553813e-002
<MEAN> 9
 -5.774654e+000 -9.674704e+000 1.876864e+000 -4.381939e+001 5.689078e+001 -4.171364e+001 1.075398e-002 3.725236e-001 1.436350e-001
<VARIANCE> 9
 1.491142e-001 3.371764e-001 6.976298e-002 2.977951e+001 3.680466e+001 1.210095e+002 4.762525e-004 5.782502e-004 1.938003e-004
<GCONST> -9.703841e-001
<MIXTURE> 21 1.818394e-002
<MEAN> 9
 -1.146956e+001 -9.813370e+000 3.638485e+000 5.061675e+000 3.189073e+002 -3.933263e+001 -1.454744e-002 3.613633e-001 1.693864e-001
<VARIANCE> 9
 1.394106e+000 3.371764e-001 6.976298e-002 2.977951e+001 3.213708e+002 1.517103e+002 4.762525e-004 5.782502e-004 1.938003e-004
<GCONST> 3.657987e+000
<MIXTURE> 22 5.457016e-002
<MEAN> 9
 -5.684739e+000 -1.262651e+001 2.086345e+000 -4.248984e+001 5.595528e+001 -7.149390e+001 1.242424e-002 3.580303e-001 2.620748e-001
<VARIANCE> 9
 3.723529e-001 2.104175e+000 1.601293e+001 2.977951e+001 2.582674e+003 4.043535e+002 4.762525e-004 5.782502e-004 1.938003e-004
<GCONST> 1.266924e+001
<MIXTURE> 23 2.730217e-002
<MEAN> 9
 -9.337483e+000 -1.318384e+001 3.043983e+000 -3.971380e+001 2.608070e+001 -2.256979e+002 8.853920e-002 3.733364e-001 1.397849e-001
<VARIANCE> 9
 9.504935e-001 3.371764e-001 7.552750e-002 2.977951e+001 3.761440e+001 4.973445e+002 7.921566e-004 5.782502e-004 1.938003e-004
<GCONST> 2.905265e+000
<MIXTURE> 24 5.477346e-002
<MEAN> 9
 -8.631484e+000 -1.099419e+001 2.335710e+000 -3.617857e+001 3.450729e+001 -2.392556e+002 1.636544e-001 3.737817e-001 1.092561e-001
<VARIANCE> 9
 4.406635e-001 3.371764e-001 1.303131e-001 1.698448e+002 3.574034e+002 7.191625e+002 7.041541e-004 5.782502e-004 4.256745e-004
<GCONST> 7.712440e+000
<TRANSP> 8
 0.000000e+000 1.000000e+000 0.000000e+000 0.000000e+000 0.000000e+000 0.000000e+000 0.000000e+000 0.000000e+000
 0.000000e+000 9.305809e-001 6.941903e-002 0.000000e+000 0.000000e+000 0.000000e+000 0.000000e+000 0.000000e+000
 0.000000e+000 0.000000e+000 9.358715e-001 6.412850e-002 0.000000e+000 0.000000e+000 0.000000e+000 0.000000e+000
 0.000000e+000 0.000000e+000 0.000000e+000 9.528275e-001 4.717251e-002 0.000000e+000 0.000000e+000 0.000000e+000
 0.000000e+000 0.000000e+000 0.000000e+000 0.000000e+000 9.780623e-001 2.193770e-002 0.000000e+000 0.000000e+000
 0.000000e+000 0.000000e+000 0.000000e+000 0.000000e+000 0.000000e+000 9.629985e-001 3.700151e-002 0.000000e+000
 0.000000e+000 0.000000e+000 0.000000e+000 0.000000e+000 0.000000e+000 0.000000e+000 9.545252e-001 4.547478e-002
 0.000000e+000 0.000000e+000 0.000000e+000 0.000000e+000 0.000000e+000 0.000000e+000 0.000000e+000 0.000000e+000
<ENDHMM>
~h "GN"
<BEGINHMM>
<NUMSTATES> 8
<STATE> 2
<NUMMIXES> 24
<MIXTURE> 1 3.773096e-002
<MEAN> 9
 -8.915730e+000 -1.107226e+001 1.355330e+000 5.012169e+001 1.250917e+002 1.477151e+002 7.500134e-002 3.763648e-001 1.642856e-001
<VARIANCE> 9
 3.775587e-001 3.371764e-001 7.011541e-001 2.977951e+001 3.680466e+001 2.408172e+002 4.762525e-004 5.782502e-004 1.938003e-004
<GCONST> 2.954425e+000
<MIXTURE> 2 1.886760e-002
<MEAN> 9
 -1.384337e+001 -5.746988e+000 -3.891566e+000 -7.987805e+001 8.231707e+001 2.643293e+002 3.500000e-001 3.090909e-001 2.316326e-001
<VARIANCE> 9
 1.491142e-001 3.371764e-001 6.976298e-002 2.977951e+001 3.680466e+001 1.210095e+002 4.762525e-004 5.782502e-004 1.938003e-004
<GCONST> -9.703841e-001
<MIXTURE> 3 5.660275e-002
<MEAN> 9
 -7.831326e+000 -1.084337e+001 1.385542e+000 2.199187e+001 -5.786583e+001 1.790041e+002 8.333335e-002 3.903030e-001 2.098639e-001
<VARIANCE> 9
 3.673485e-001 3.371764e-001 6.976298e-002 2.977951e+001 5.359606e+002 1.568568e+002 4.762525e-004 5.782502e-004 1.938003e-004
<GCONST> 2.869115e+000
<MIXTURE> 4 3.779429e-002
<MEAN> 9
 -1.061987e+001 -7.304309e+000 -3.120908e+000 -3.476573e+001 3.486960e+001 2.560499e+002 3.036426e-001 3.340223e-001 2.131746e-001
<VARIANCE> 9
 1.491142e-001 3.371764e-001 8.363338e-001 9.854534e+001 1.341249e+002 1.210095e+002 4.762525e-004 6.245025e-004 1.938003e-004
<GCONST> 4.080331e+000
<MIXTURE> 5 5.661494e-002
<MEAN> 9
 -7.028052e+000 -1.186327e+001 2.915682e+000 5.209097e+001 7.568653e+001 1.291563e+002 3.151746e-002 3.715148e-001 1.843545e-001
<VARIANCE> 9
 2.387990e-001 1.777545e+000 3.840826e-001 2.977951e+001 7.004688e+002 3.297353e+003 4.762525e-004 5.782502e-004 1.938003e-004
<GCONST> 9.119792e+000
<MIXTURE> 6 1.890264e-002
<MEAN> 9
 -9.748745e+000 -7.662504e+000 -2.433604e+000 -1.677221e+001 5.078091e+001 2.295734e+002 2.481588e-001 3.654053e-001 1.673386e-001
<VARIANCE> 9
 1.491142e-001 3.371764e-001 6.976298e-002 2.977951e+001 3.680466e+001 1.210095e+002 4.762525e-004 5.782502e-004 1.938003e-004
<GCONST> -9.703841e-001
<MIXTURE> 7 5.633816e-002
<MEAN> 9
 -8.855931e+000 -4.598301e+000 -2.790184e+000 -4.928135e+001 3.816747e+000 2.293947e+002 3.532337e-001 2.813118e-001 1.887372e-001
<VARIANCE> 9
 1.491142e-001 4.951261e-001 6.976298e-002 2.977951e+001 3.680466e+001 1.210095e+002 5.167397e-004 5.782502e-004 1.938003e-004
<GCONST> -5.045881e-001
<MIXTURE> 8 5.661895e-002
<MEAN> 9
 -1.029341e+001 -1.016855e+001 -1.457927e+000 3.180442e+001 7.320769e+001 2.249151e+002 1.342474e-001 3.718183e-001 1.710875e-001
<VARIANCE> 9
 2.746011e-001 3.371764e-001 1.027599e+000 2.977951e+001 3.302431e+003 1.677648e+003 4.762525e-004 5.782502e-004 3.008000e-004
<GCONST> 9.895785e+000
<MIXTURE> 9 3.773518e-002
<MEAN> 9
