~o
<STREAMINFO> 1 9
<VECSIZE> 9<NULLD><USER><DIAGC>
~h "GA"
<BEGINHMM>
<NUMSTATES> 8
<STATE> 2
<NUMMIXES> 14
<MIXTURE> 1 7.593188e-002
<MEAN> 9
 -8.372425e+000 -1.021400e+001 1.242803e+000 6.393614e+001 9.516093e+001 1.225422e+002 7.601719e-002 3.685184e-001 1.678548e-001
<VARIANCE> 9
 3.352477e-001 3.371764e-001 8.082168e-001 2.977951e+001 3.680466e+001 2.976644e+002 4.762525e-004 5.782502e-004 1.938003e-004
<GCONST> 3.189597e+000
<MIXTURE> 2 1.025914e-001
<MEAN> 9
 -9.795167e+000 -6.105329e+000 -3.012082e+000 -5.179810e+001 3.626544e+001 2.618428e+002 3.177295e-001 3.054519e-001 1.859687e-001
<VARIANCE> 9
 1.491142e-001 8.681858e-001 3.032567e-001 2.507713e+002 3.680466e+001 1.210095e+002 1.794489e-003 5.782502e-004 1.938003e-004
<GCONST> 4.902141e+000
<MIXTURE> 3 2.123497e-002
<MEAN> 9
 -1.136638e+001 -9.024667e+000 4.127648e-001 -3.740893e+001 -6.434581e+001 2.218043e+002 2.587268e-001 3.572226e-001 1.565244e-001
<VARIANCE> 9
 5.384914e-001 3.371764e-001 6.976298e-002 1.205265e+002 3.951112e+001 2.192811e+002 1.550303e-003 5.782502e-004 1.938003e-004
<GCONST> 3.557424e+000
<MIXTURE> 4 7.661019e-002
<MEAN> 9
 -7.243667e+000 -1.193479e+001 1.369668e+000 2.484917e+001 -2.495977e+001 1.748799e+002 6.739824e-002 3.742333e-001 1.700578e-001
<VARIANCE> 9
 5.337201e-001 3.371764e-001 8.555127e-002 3.402401e+001 2.855547e+003 7.138770e+002 6.210554e-004 5.782502e-004 1.938003e-004
<GCONST> 7.033742e+000
<MIXTURE> 5 7.859047e-002
<MEAN> 9
 -1.113864e+001 -9.167102e+000 -1.512322e+000 1.533575e+001 8.430228e+001 2.297968e+002 1.780380e-001 3.615930e-001 1.533506e-001
<VARIANCE> 9
 1.296010e+000 3.371764e-001 3.933770e-001 3.478841e+002 2.110694e+002 7.903721e+002 4.762525e-004 5.782502e-004 1.938003e-004
<GCONST> 9.002860e+000
<MIXTURE> 6 5.009108e-002
<MEAN> 9
 -8.035264e+000 -9.857269e+000 -1.701895e-002 -3.216506e+000 -2.474140e+001 1.387060e+002 7.493757e-002 3.695321e-001 1.493181e-001
<VARIANCE> 9
 7.568403e-001 3.371764e-001 1.415686e-001 5.004866e+001 7.691252e+002 2.368974e+002 4.762525e-004 5.782502e-004 1.938003e-004
<GCONST> 5.592299e+000
<MIXTURE> 7 7.694020e-002
<MEAN> 9
 -1.038553e+001 -5.678636e+000 -3.401630e+000 -2.282613e+001 5.254044e+001 2.255285e+002 3.193965e-001 3.030279e-001 1.595244e-001
<VARIANCE> 9
 1.491142e-001 7.419346e-001 6.976298e-002 8.808530e+001 3.680466e+001 1.210095e+002 5.357724e-004 5.782502e-004 1.938003e-004
<GCONST> 1.020516e+000
<MIXTURE> 8 7.630646e-002
<MEAN> 9
 -1.140415e+001 -7.822437e+000 -7.546434e-001 -6.451687e+001 -7.246400e+001 2.552234e+002 3.415613e-001 2.986082e-001 1.567660e-001
<VARIANCE> 9
 1.137464e+000 4.381488e-001 1.215689e-001 9.663187e+001 8.740575e+001 1.210095e+002 8.208617e-004 5.782502e-004 1.938003e-004
<GCONST> 4.465220e+000
<MIXTURE> 9 1.007816e-001
<MEAN> 9
 -1.076489e+001 -8.090860e+000 -2.458380e+000 8.057696e+000 6.445596e+001 2.231740e+002 2.352166e-001 3.395734e-001 1.531157e-001
<VARIANCE> 9
 4.850952e-001 3.371764e-001 6.976298e-002 3.191719e+002 3.680466e+001 4.932814e+002 4.762525e-004 5.782502e-004 1.938003e-004
<GCONST> 3.986369e+000
<MIXTURE> 10 7.692173e-002
<MEAN> 9
 -7.847365e+000 -1.090774e+001 1.206203e-001 1.703103e+001 -1.124284e+002 7.813791e+001 9.094087e-003 3.654567e-001 1.680288e-001
<VARIANCE> 9
 6.162051e-001 3.371764e-001 1.023412e-001 2.977951e+001 8.706233e+002 4.764204e+002 4.762525e-004 5.782502e-004 1.938003e-004
<GCONST> 5.365710e+000
<MIXTURE> 11 7.810759e-002
<MEAN> 9
 -9.580215e+000 -9.805719e+000 -2.333280e-001 4.373848e+001 8.331022e+001 1.883499e+002 1.273442e-001 3.767694e-001 1.574160e-001
<VARIANCE> 9
 1.491142e-001 3.371764e-001 6.976298e-002 1.777913e+002 7.601939e+001 8.236041e+002 4.762525e-004 5.782502e-004 1.938003e-004
<GCONST> 3.459590e+000
<MIXTURE> 12 5.161927e-002
<MEAN> 9
 -8.685375e+000 -9.409203e+000 9.463368e-001 -1.742810e+001 -7.625270e+001 1.753835e+002 1.451179e-001 3.718341e-001 1.536855e-001
<VARIANCE> 9
 1.946167e-001 3.371764e-001 6.976298e-002 2.977951e+001 3.680466e+001 1.210095e+002 4.762525e-004 5.782502e-004 1.938003e-004
<GCONST> -7.040648e-001
<MIXTURE> 13 8.209921e-002
<MEAN> 9
 -1.094080e+001 -9.027397e+000 4.415033e-001 -3.017398e+001 -6.875362e+001 2.113868e+002 2.323791e-001 3.652621e-001 1.563751e-001
<VARIANCE> 9
 4.574020e-001 3.371764e-001 6.976298e-002 9.303630e+001 5.104222e+001 1.905606e+002 1.216448e-003 5.782502e-004 1.938003e-004
<GCONST> 3.008508e+000
<MIXTURE> 14 5.217369e-002
<MEAN> 9
 -8.370624e+000 -9.794156e+000 -1.689631e-001 -4.858071e+000 -3.161776e+001 1.436559e+002 8.040914e-002 3.704842e-001 1.501695e-001
<VARIANCE> 9
 5.601746e-001 3.371764e-001 1.240142e-001 4.559130e+001 7.010172e+002 1.881621e+002 4.762525e-004 5.782502e-004 1.938003e-004
<GCONST> 4.742684e+000
<STATE> 3
<NUMMIXES> 14
<MIXTURE> 1 7.018175e-002
<MEAN> 9
 -5.849395e+000 -3.313090e-002 2.108434e+000 -7.173779e+001 1.004575e+001 1.743597e+002 5.238636e-001 -5.363646e-002 2.188776e-001
<VARIANCE> 9
 4.209951e-001 3.371764e-001 6.976298e-002 4.532349e+001 1.689832e+002 6.028023e+002 4.762525e-004 9.037153e-004 1.938003e-004
<GCONST> 4.063931e+000
<MIXTURE> 2 9.224600e-002
<MEAN> 9
 -9.129601e+000 -2.403793e+000 3.337149e-001 -8.944879e+001 2.585115e+001 2.200865e+002 4.948957e-001 9.990545e-002 2.027012e-001
<VARIANCE> 9
 5.905058e-001 5.169587e-001 5.802506e+000 2.977951e+001 3.046850e+002 1.774759e+002 6.490134e-004 1.256167e-003 1.938003e-004
<GCONST> 8.836118e+000
<MIXTURE> 3 5.711165e-002
<MEAN> 9
 -6.615768e+000 2.942451e+000 -2.845714e+000 -1.510254e+002 1.927069e+001 9.642992e+001 5.028331e-001 -5.909103e-002 2.829312e-001
<VARIANCE> 9
 1.491142e-001 4.721107e-001 1.534721e+000 6.978997e+002 1.234428e+002 1.587823e+002 4.762525e-004 5.782502e-004 3.190892e-004
<GCONST> 7.591942e+000
<MIXTURE> 4 7.018144e-002
<MEAN> 9
 -9.960854e+000 -4.804226e+000 3.433653e-001 -9.132614e+001 -3.314032e+001 2.544208e+002 4.374997e-001 2.013640e-001 1.681122e-001
<VARIANCE> 9
 8.466637e-001 7.044808e-001 2.928171e-001 4.240445e+001 3.680466e+001 1.210095e+002 5.976728e-004 1.129130e-003 1.938003e-004
<GCONST> 4.187230e+000
<MIXTURE> 5 5.108998e-002
<MEAN> 9
 -6.607212e+000 1.910094e+000 -3.196084e+000 -1.376251e+002 1.683660e+000 1.312845e+002 5.026479e-001 5.809218e-003 2.724771e-001
<VARIANCE> 9
 2.447453e-001 3.371764e-001 3.618898e-001 8.039460e+002 5.631364e+001 1.643278e+002 4.762525e-004 6.637665e-004 4.645825e-004
<GCONST> 6.210609e+000
<MIXTURE> 6 8.785713e-002
<MEAN> 9
 -7.198748e+000 1.009658e+000 2.010398e+000 -1.437357e+002 -5.436369e+001 1.471737e+001 5.047369e-001 -1.409066e-001 2.584997e-001
<VARIANCE> 9
 1.049541e+000 1.243537e+000 3.181681e+000 1.547587e+003 5.598389e+001 1.210095e+002 4.762525e-004 5.782502e-004 1.976350e-004
<GCONST> 1.049585e+001
<MIXTURE> 7 5.588399e-002
<MEAN> 9
 -8.697671e+000 -3.278378e+000 -4.064931e+000 -1.002033e+002 9.668174e+000 2.377386e+002 4.176500e-001 2.110636e-001 2.233039e-001
<VARIANCE> 9
 2.073302e-001 3.371764e-001 6.976298e-002 1.343631e+002 3.680466e+001 1.210095e+002 4.762525e-004 5.782502e-004 1.938003e-004
<GCONST> 8.659430e-001
<MIXTURE> 8 7.846000e-002
<MEAN> 9
 -8.101718e+000 -1.198011e+000 -3.908548e+000 -1.213482e+002 1.972750e+001 1.983507e+002 4.722629e-001 1.220071e-001 2.540095e-001
<VARIANCE> 9
 1.821310e-001 3.549230e-001 6.976298e-002 4.662676e+002 6.541380e+001 2.017142e+002 4.762525e-004 8.137843e-004 2.391790e-004
<GCONST> 3.670025e+000
<MIXTURE> 9 1.050673e-001
<MEAN> 9
 -8.222733e+000 -2.646026e-001 5.285316e+000 -1.424544e+002 -5.269551e+001 -1.704403e+001 5.142468e-001 -1.296868e-001 1.834873e-001
<VARIANCE> 9
 1.491142e-001 3.579105e-001 1.962777e+000 1.518495e+003 1.378900e+002 1.210095e+002 4.762525e-004 5.782502e-004 5.277109e-004
<GCONST> 8.680511e+000
<MIXTURE> 10 7.982954e-002
<MEAN> 9
 -7.375490e+000 2.697572e+000 -4.789701e-001 -1.668030e+002 -1.505718e+001 4.266116e+001 5.005075e-001 -1.086097e-001 2.822601e-001
<VARIANCE> 9
 3.652931e-001 1.769866e+000 4.582319e+000 6.340413e+001 4.155066e+002 1.210095e+002 4.762525e-004 5.782502e-004 2.063760e-004
<GCONST> 9.010968e+000
<MIXTURE> 11 7.522383e-002
<MEAN> 9
 -7.815396e+000 1.590206e-001 -3.755254e+000 -1.346693e+002 8.643343e+000 1.705302e+002 4.868489e-001 6.728176e-002 2.663797e-001
<VARIANCE> 9
 5.835738e-001 3.371764e-001 6.976298e-002 9.226780e+002 2.065986e+002 1.210095e+002 4.762525e-004 5.782502e-004 5.235432e-004
<GCONST> 6.546479e+000
<MIXTURE> 12 6.722155e-002
<MEAN> 9
 -9.425034e+000 -3.381861e+000 -4.455172e+000 -5.949714e+001 2.568830e+001 2.179809e+002 4.073947e-001 2.223604e-001 1.902765e-001
<VARIANCE> 9
 2.226632e-001 3.371764e-001 1.217499e-001 1.534370e+002 1.412113e+002 1.210095e+002 4.824554e-004 7.123026e-004 1.938003e-004
<GCONST> 3.192967e+000
<MIXTURE> 13 5.839293e-002
<MEAN> 9
 -6.873387e+000 3.057759e+000 -2.729732e+000 -1.564249e+002 2.128025e+001 7.742631e+001 5.034502e-001 -8.115403e-002 2.853310e-001
<VARIANCE> 9
 1.692986e-001 1.266687e+000 2.827890e+000 5.081857e+002 1.968696e+002 1.763873e+002 4.762525e-004 5.782502e-004 2.299141e-004
<GCONST> 9.243939e+000
<MIXTURE> 14 5.125284e-002
<MEAN> 9
 -6.812285e+000 1.930907e+000 -3.320117e+000 -1.359525e+002 2.238781e+000 1.301983e+002 5.024962e-001 1.794099e-003 2.711715e-001
<VARIANCE> 9
 1.491142e-001 3.432439e-001 2.804322e-001 7.282548e+002 7.307046e+001 2.240370e+002 4.762525e-004 5.782502e-004 3.722934e-004
<GCONST> 5.590105e+000
<STATE> 4
<NUMMIXES> 14
<MIXTURE> 1 6.559596e-002
<MEAN> 9
 -8.691070e+000 5.034451e+000 1.330752e+000 -1.117194e+001 5.975587e+001 4.342277e+001 4.943886e-001 -1.878227e-001 2.446613e-001
<VARIANCE> 9
 2.216524e-001 3.371764e-001 1.961922e-001 2.977951e+001 5.064014e+001 1.210095e+002 4.762525e-004 5.782502e-004 2.529946e-004
<GCONST> 1.045664e+000
<MIXTURE> 2 8.694303e-002
<MEAN> 9
 -1.028533e-001 5.101693e+000 6.478237e+000 -2.197706e+001 -2.291323e+002 1.182706e+002 3.726054e-001 -2.669630e-001 -9.332265e-002
<VARIANCE> 9
 3.499181e+000 3.371764e-001 8.281152e-001 4.918466e+001 6.846563e+003 1.580099e+002 1.194193e-003 2.447646e-003 5.818037e-003
<GCONST> 1.641771e+001
<MIXTURE> 3 7.816999e-002
<MEAN> 9
 -3.681294e+000 9.222139e-001 2.573393e+000 -3.468598e+001 -2.846481e+001 6.270166e+001 5.116376e-001 -1.428992e-001 1.967436e-001
<VARIANCE> 9
 3.390055e-001 3.371764e-001 6.976298e-002 2.199216e+002 1.460774e+002 1.041067e+003 4.762525e-004 5.782502e-004 1.938003e-004
<GCONST> 5.381015e+000
<MIXTURE> 4 6.057112e-002
<MEAN> 9
 -1.171009e+001 4.999824e+000 1.268051e+000 -3.910483e+001 -9.265210e+001 7.576085e+001 4.775805e-001 -2.212700e-001 2.201665e-001
<VARIANCE> 9
 1.379147e+000 3.371764e-001 3.073092e+000 2.977951e+001 2.046952e+004 3.604066e+002 4.762525e-004 5.782502e-004 3.585529e-003
<GCONST> 1.536972e+001
<MIXTURE> 5 6.990087e-002
<MEAN> 9
 -8.600746e+000 4.653931e+000 2.621052e+000 6.038893e+000 1.555565e+001 6.463634e+000 5.090793e-001 -1.594023e-001 2.028970e-001
<VARIANCE> 9
 1.491142e-001 3.371764e-001 6.976298e-002 2.977951e+001 3.680466e+001 1.210095e+002 4.762525e-004 5.782502e-004 1.938003e-004
<GCONST> -9.703841e-001
<MIXTURE> 6 5.460750e-002
<MEAN> 9
 -1.129606e+001 2.978308e+000 4.147804e+000 -1.374410e+001 -1.051588e+002 4.856245e+001 5.088157e-001 -1.566209e-001 1.157038e-001
<VARIANCE> 9
 3.468655e-001 3.539226e-001 3.139539e-001 2.977951e+001 1.905059e+003 2.206512e+002 4.762525e-004 5.782502e-004 2.550534e-003
<GCONST> 8.551041e+000
<MIXTURE> 7 1.085405e-001
<MEAN> 9
 -1.058155e+001 9.139843e-001 4.683939e+000 -3.880121e+001 -2.205665e+000 1.768768e+001 5.122106e-001 -1.369285e-001 1.872301e-001
<VARIANCE> 9
 3.408645e+000 3.371764e-001 2.191360e+000 2.563042e+002 6.800942e+002 2.011470e+002 4.762525e-004 5.782502e-004 2.830697e-003
<GCONST> 1.386492e+001
<MIXTURE> 8 5.786352e-002
<MEAN> 9
 -4.683344e+000 5.010131e+000 4.541333e+000 -3.739910e+001 -3.278550e+002 1.116877e+002 4.484774e-001 -2.412604e-001 1.655320e-002
<VARIANCE> 9
 1.236962e+001 7.163128e-001 1.035500e+000 5.268739e+001 3.164798e+003 2.636622e+002 6.501173e-004 1.889039e-003 3.744636e-003
<GCONST> 1.715879e+001
<MIXTURE> 9 4.688071e-002
<MEAN> 9
 -6.430954e+000 3.030487e+000 2.834539e+000 -2.310646e+000 8.015515e+000 3.573149e-001 5.075901e-001 -1.681468e-001 1.813081e-001
<VARIANCE> 9
 5.717766e-001 3.371764e-001 6.976298e-002 2.977951e+001 3.680466e+001 1.210095e+002 4.762525e-004 5.782502e-004 1.938003e-004
<GCONST> 3.736525e-001
<MIXTURE> 10 7.843940e-002
<MEAN> 9
 -9.688851e+000 5.950274e+000 1.874816e+000 -5.729397e+001 -1.658085e+002 7.155190e+001 4.547613e-001 -2.637044e-001 2.296198e-001
<VARIANCE> 9
 1.389242e+000 3.371764e-001 9.241618e-001 2.977951e+001 1.874027e+004 1.210095e+002 4.762525e-004 5.782502e-004 2.013936e-003
<GCONST> 1.241902e+001
<MIXTURE> 11 1.179446e-001
<MEAN> 9
 -8.614748e+000 4.692220e+000 3.021748e+000 7.080849e+000 7.415946e+000 -4.798149e+000 5.094535e-001 -1.578382e-001 1.940663e-001
<VARIANCE> 9
 1.491142e-001 3.371764e-001 6.976298e-002 2.977951e+001 3.680466e+001 1.210095e+002 4.762525e-004 5.782502e-004 1.938003e-004
<GCONST> -9.703841e-001
<MIXTURE> 12 5.956568e-002
<MEAN> 9
 -8.659837e+000 4.987360e+000 1.233889e+000 -1.203990e+001 4.992298e+001 3.687087e+001 4.923311e-001 -1.885762e-001 2.443530e-001
<VARIANCE> 9
 1.491142e-001 3.371764e-001 3.169790e-001 1.371648e+002 4.459345e+001 1.808923e+002 4.762525e-004 5.782502e-004 7.238739e-004
<GCONST> 3.982495e+000
<MIXTURE> 13 5.662034e-002
<MEAN> 9
 -1.169039e+001 2.970492e+000 2.878102e+000 -2.144679e+001 -1.351778e+002 6.711047e+001 4.961209e-001 -1.790947e-001 1.765197e-001
<VARIANCE> 9
 1.280697e+000 5.487403e-001 9.642287e-001 2.977951e+001 2.749666e+003 1.210095e+002 4.762525e-004 5.782502e-004 6.882447e-003
<GCONST> 1.217682e+001
<MIXTURE> 14 5.835671e-002
<MEAN> 9
 -3.844093e+000 4.432008e+000 4.691326e+000 -4.079987e+001 -3.843276e+002 9.783764e+001 4.307852e-001 -2.332447e-001 -2.044601e-002
<VARIANCE> 9
 1.442630e+001 8.877686e-001 1.618926e+000 1.104818e+002 3.014085e+003 1.210095e+002 7.663397e-004 3.285469e-003 6.746075e-003
<GCONST> 1.919351e+001
<STATE> 5
<NUMMIXES> 14
<MIXTURE> 1 5.898720e-002
<MEAN> 9
 2.369892e+000 5.168015e+000 7.575845e+000 2.196472e+001 -4.420923e+001 8.582301e+001 2.156003e-001 -2.651102e-001 -2.303612e-001
<VARIANCE> 9
 3.937805e-001 3.371764e-001 9.547377e-002 2.977951e+001 1.691128e+003 2.203132e+002 5.209339e-004 5.782502e-004 1.938003e-004
<GCONST> 4.830829e+000
<MIXTURE> 2 9.634741e-002
<MEAN> 9
 -3.566440e+000 3.444198e+000 7.674252e+000 9.452700e+000 8.887618e+000 -7.485844e-001 3.772473e-001 -1.170054e-001 -2.024507e-001
<VARIANCE> 9
 1.370403e+000 3.371764e-001 7.405293e-002 2.977951e+001 3.680466e+001 1.210095e+002 4.762525e-004 5.782502e-004 1.938003e-004
<GCONST> 1.307441e+000
<MIXTURE> 3 7.096503e-002
<MEAN> 9
 2.327181e+000 5.934808e+000 7.334434e+000 1.233614e+001 -5.134834e+001 -6.330061e+001 3.251323e-001 -3.236564e-001 -9.657069e-002
<VARIANCE> 9
 7.937017e-001 3.371764e-001 1.451797e-001 2.977951e+001 5.698010e+002 2.829491e+003 4.762525e-004 5.782502e-004 2.197568e-004
<GCONST> 7.451818e+000
<MIXTURE> 4 6.868763e-002
<MEAN> 9
 -4.925650e+000 3.258619e+000 8.865941e+000 -1.464477e+001 8.300449e+000 -1.453686e+002 3.130286e-001 -1.665321e-001 -2.261457e-001
<VARIANCE> 9
 5.732883e+000 5.926389e-001 2.438308e-001 2.977951e+001 7.375753e+002 1.001343e+003 4.762525e-004 9.534689e-004 1.938003e-004
<GCONST> 1.010530e+001
<MIXTURE> 5 7.030286e-002
<MEAN> 9
 3.676658e+000 4.929336e+000 7.363578e+000 5.615058e+000 5.829812e+000 -1.491550e+001 1.935073e-001 -2.906280e-001 -2.220641e-001
<VARIANCE> 9
 4.592510e-001 3.371764e-001 3.259709e-001 2.461474e+002 4.285321e+001 5.223379e+003 4.762525e-004 5.782502e-004 1.938003e-004
<GCONST> 7.725501e+000
<MIXTURE> 6 6.157008e-002
<MEAN> 9
 -6.343850e+000 3.148567e+000 8.699134e+000 -4.434191e+000 -1.144867e+001 -3.884903e+001 3.487028e-001 -1.271297e-001 -2.184898e-001
<VARIANCE> 9
 1.334210e+000 4.622133e-001 1.028729e-001 2.977951e+001 1.957023e+002 2.555446e+002 4.762525e-004 7.841086e-004 2.061346e-004
<GCONST> 4.709548e+000
<MIXTURE> 7 5.945400e-002
<MEAN> 9
 -1.181715e+000 4.939934e+000 7.157672e+000 -6.183491e+000 -7.460828e+001 -8.623775e+001 3.183772e-001 -2.340105e-001 -1.828141e-001
<VARIANCE> 9
 1.337812e+000 4.176300e-001 6.098499e-001 1.720942e+002 2.348371e+003 1.914575e+004 1.797705e-003 5.782502e-004 1.445868e-003
<GCONST> 1.791779e+001
<MIXTURE> 8 1.142325e-001
<MEAN> 9
 -3.063058e+000 3.902196e+000 8.408751e+000 5.216964e+000 1.252072e+000 -1.457370e+000 3.371747e-001 -1.190495e-001 -2.307928e-001
<VARIANCE> 9
 8.560189e-001 3.371764e-001 6.976298e-002 2.977951e+001 3.680466e+001 1.210095e+002 4.762525e-004 5.782502e-004 1.938003e-004
<GCONST> 7.771978e-001
<MIXTURE> 9 5.574211e-002
<MEAN> 9
 3.262466e-001 5.724119e+000 6.767797e+000 -2.346209e+000 -7.596447e+001 -5.559427e+000 3.465680e-001 -3.103567e-001 -8.290584e-002
<VARIANCE> 9
 5.410247e+000 3.371764e-001 5.596130e-001 9.582642e+001 1.581932e+003 1.241717e+004 4.762525e-004 5.824947e-004 1.189147e-003
<GCONST> 1.608503e+001
<MIXTURE> 10 9.378242e-002
<MEAN> 9
 -7.853024e+000 2.847774e+000 8.126698e+000 -2.321597e+001 -6.472995e+001 -1.338585e+002 3.682874e-001 -1.720790e-001 -1.867275e-001
<VARIANCE> 9
 4.756194e+000 1.555296e+000 2.599268e-001 2.977951e+001 2.645193e+002 2.079094e+003 4.762525e-004 1.076435e-003 2.496207e-004
<GCONST> 1.102684e+001
<MIXTURE> 11 5.557299e-002
<MEAN> 9
 -2.121185e+000 2.644990e+000 7.130239e+000 5.970330e+000 4.390836e+000 -1.453798e+001 3.470687e-001 -1.253483e-001 -2.197841e-001
<VARIANCE> 9
 3.774230e-001 3.371764e-001 3.020770e-001 2.977951e+001 3.680466e+001 1.210095e+002 4.947012e-004 5.782502e-004 3.798341e-004
<GCONST> 2.134762e+000
<MIXTURE> 12 7.006318e-002
<MEAN> 9
 1.920421e+000 5.963801e+000 7.148228e+000 8.858565e+000 -5.457964e+001 -6.309108e+001 3.279903e-001 -3.191100e-001 -9.846751e-002
<VARIANCE> 9
 9.201472e-001 3.371764e-001 3.550776e-001 2.977951e+001 7.468824e+002 4.599568e+003 4.762525e-004 5.782502e-004 1.938003e-004
<GCONST> 9.124801e+000
<MIXTURE> 13 6.901130e-002
<MEAN> 9
 3.972477e+000 4.688399e+000 7.348217e+000 -5.201177e+000 3.644291e+000 -5.618997e+001 1.995301e-001 -2.870602e-001 -2.223421e-001
<VARIANCE> 9
 3.570963e-001 3.371764e-001 2.637725e-001 1.859076e+002 3.680466e+001 3.900563e+003 4.762525e-004 5.782502e-004 1.938003e-004
<GCONST> 6.537330e+000
<MIXTURE> 14 5.528124e-002
<MEAN> 9
 9.542111e-002 5.690082e+000 6.793497e+000 -4.846401e+000 -8.275259e+001 -2.506263e+001 3.444868e-001 -3.075210e-001 -9.146359e-002
<VARIANCE> 9
 4.441557e+000 3.371764e-001 5.528582e-001 5.905806e+001 1.366938e+003 1.305833e+004 4.762525e-004 5.782502e-004 1.466647e-003
<GCONST> 1.549829e+001
<STATE> 6
<NUMMIXES> 14
<MIXTURE> 1 6.197408e-002
<MEAN> 9
 -2.108662e+000 9.200259e-001 4.578966e+000 -2.981003e+001 4.507160e+001 -9.367345e+001 3.970399e-001 -5.689488e-002 -1.805376e-001
<VARIANCE> 9
 1.491142e-001 3.371764e-001 7.487874e-002 5.036632e+001 4.008874e+002 1.311300e+002 4.762525e-004 5.782502e-004 1.938003e-004
<GCONST> 2.094260e+000
<MIXTURE> 2 1.027979e-001
<MEAN> 9
 -8.893598e+000 -5.094408e+000 4.660638e+000 -6.253052e+001 1.311789e+002 -2.350205e+002 3.983330e-001 1.989403e-001 -1.156395e-002
<VARIANCE> 9
 1.198518e+000 2.698814e+000 8.774384e-002 2.977951e+001 2.047877e+002 1.210095e+002 5.896464e-004 2.528723e-003 1.814735e-003
<GCONST> 9.065277e+000
<MIXTURE> 3 5.991132e-002
<MEAN> 9
 -5.012774e+000 -8.184979e-001 4.794085e+000 -5.291289e+001 1.185200e+002 -1.783037e+002 4.250759e-001 4.598849e-002 -1.278420e-001
<VARIANCE> 9
 8.630479e-001 4.545886e-001 6.976298e-002 3.427254e+001 3.800285e+002 4.717155e+002 4.762525e-004 7.150581e-004 3.386836e-004
<GCONST> 5.690407e+000
<MIXTURE> 4 9.171227e-002
<MEAN> 9
 -8.464988e+000 -5.764147e+000 6.665880e+000 -9.030453e+001 6.001558e+001 -2.434224e+002 3.465578e-001 2.343737e-001 -5.874354e-002
<VARIANCE> 9
 1.345503e+000 4.504796e-001 1.413282e-001 2.977951e+001 8.812490e+002 1.210095e+002 5.120232e-004 5.782502e-004 2.065950e-004
<GCONST> 5.537182e+000
<MIXTURE> 5 5.033830e-002
<MEAN> 9
 -2.311817e+000 1.566716e+000 4.870920e+000 -6.146560e-001 4.954435e+001 -5.196432e+001 3.810911e-001 -8.681386e-002 -1.994895e-001
<VARIANCE> 9
 2.052119e-001 3.371764e-001 4.220641e-001 2.977951e+001 1.096945e+003 2.550242e+002 4.762525e-004 5.782502e-004 1.938003e-004
<GCONST> 5.289149e+000
<MIXTURE> 6 1.025669e-001
<MEAN> 9
 -7.784532e+000 -7.951883e+000 6.209927e+000 -9.451412e+001 5.102811e+001 -2.380040e+002 2.781164e-001 3.114169e-001 -5.062430e-003
<VARIANCE> 9
 1.796522e+000 6.900489e-001 2.462025e-001 2.977951e+001 4.212935e+002 1.210095e+002 6.790088e-004 5.782502e-004 2.035231e-004
<GCONST> 6.337063e+000
<MIXTURE> 7 6.179389e-002
<MEAN> 9
 -3.498324e+000 8.753356e-001 6.199712e+000 -7.481013e+001 4.006768e+001 -1.580656e+002 3.837561e-001 -3.835049e-002 -1.950589e-001
<VARIANCE> 9
 2.645477e-001 3.371764e-001 6.976298e-002 6.304214e+001 6.669002e+001 3.389408e+002 4.762525e-004 1.092075e-003 1.938003e-004
<GCONST> 2.613122e+000
<MIXTURE> 8 1.022135e-001
<MEAN> 9
 -6.622560e+000 -2.928378e+000 5.995797e+000 -8.677915e+001 8.301814e+001 -2.320589e+002 3.844996e-001 1.479820e-001 -1.138491e-001
<VARIANCE> 9
 7.260229e-001 6.995720e-001 1.440725e-001 7.028400e+001 1.304202e+002 1.210095e+002 4.762525e-004 1.358166e-003 4.278757e-004
<GCONST> 5.837308e+000
<MIXTURE> 9 6.825063e-002
<MEAN> 9
 -1.171863e+000 1.663798e+000 5.672961e+000 1.328619e+000 1.408776e+001 -3.145209e+001 3.431422e-001 -1.236450e-001 -2.195266e-001
<VARIANCE> 9
 1.491142e-001 3.371764e-001 2.022028e-001 2.977951e+001 1.095559e+002 1.210095e+002 4.762525e-004 5.782502e-004 1.938003e-004
<GCONST> 1.184592e+000
<MIXTURE> 10 5.809692e-002
<MEAN> 9
 -2.354945e+000 5.496120e-001 4.658885e+000 -4.788786e+001 5.715755e+001 -1.236151e+002 4.036759e-001 -3.470010e-002 -1.755898e-001
<VARIANCE> 9
 1.491142e-001 3.371764e-001 6.976298e-002 9.646700e+001 5.319650e+002 1.300049e+002 4.762525e-004 5.782502e-004 1.938003e-004
<GCONST> 2.947652e+000
<MIXTURE> 11 7.506519e-002
<MEAN> 9
 -1.338289e+000 1.577349e+000 5.101842e+000 -3.002058e+001 7.192883e+000 -8.374047e+001 3.598979e-001 -1.219705e-001 -2.125728e-001
<VARIANCE> 9
 1.491142e-001 3.371764e-001 6.976298e-002 2.788282e+002 1.550590e+002 5.282559e+002 4.762525e-004 5.782502e-004 1.938003e-004
<GCONST> 4.178285e+000
<MIXTURE> 12 5.773713e-002
<MEAN> 9
 -4.343676e+000 -7.249264e-001 6.354747e+000 -8.927736e+001 6.022356e+001 -2.038481e+002 3.957795e-001 6.390480e-002 -1.591372e-001
<VARIANCE> 9
 2.386055e-001 8.079659e-001 5.154941e-001 7.186048e+001 2.835717e+002 1.290963e+002 4.762525e-004 7.276910e-004 4.745412e-004
<GCONST> 6.486477e+000
<MIXTURE> 13 5.518044e-002
<MEAN> 9
 -4.289175e+000 -4.396198e-001 4.888928e+000 -6.326232e+001 8.050307e+001 -1.840482e+002 4.196623e-001 4.556490e-002 -1.379292e-001
<VARIANCE> 9
 8.006021e-001 3.663824e-001 7.774827e-002 6.461182e+001 7.887120e+002 3.221784e+002 4.762525e-004 5.782502e-004 2.211214e-004
<GCONST> 5.852185e+000
<MIXTURE> 14 5.236152e-002
<MEAN> 9
 -2.240664e+000 1.376314e+000 4.446947e+000 -4.161348e+000 5.962672e+001 -5.937801e+001 3.758719e-001 -8.808856e-002 -2.028941e-001
<VARIANCE> 9
 3.542154e-001 3.371764e-001 1.747874e-001 4.930965e+001 8.815625e+002 1.480577e+002 4.762525e-004 5.782502e-004 1.938003e-004
<GCONST> 4.695380e+000
<STATE> 7
<NUMMIXES> 14
<MIXTURE> 1 6.031583e-002
<MEAN> 9
 -5.543872e+000 -1.028839e+001 3.762189e+000 -2.563507e+000 1.894684e+002 -2.839961e+001 -3.087172e-002 3.630082e-001 1.738313e-001
<VARIANCE> 9
 3.908533e+000 5.851455e-001 1.202392e-001 1.074829e+002 5.429642e+002 1.210095e+002 4.762525e-004 5.782502e-004 1.938003e-004
<GCONST> 7.366385e+000
<MIXTURE> 2 6.011214e-002
<MEAN> 9
 -8.511232e+000 -1.069001e+001 3.464826e+000 -2.834614e+001 7.676087e+001 -2.110132e+002 1.875829e-001 3.636302e-001 1.459174e-001
<VARIANCE> 9
 1.491142e-001 3.371764e-001 6.976298e-002 3.644593e+001 2.617437e+002 1.210095e+002 5.400148e-004 5.782502e-004 1.938003e-004
<GCONST> 1.319015e+000
<MIXTURE> 3 7.974475e-002
<MEAN> 9
 -6.783166e+000 -1.157520e+001 4.598210e+000 -8.013724e+001 6.052005e+001 -2.020930e+002 1.126041e-001 3.729412e-001 9.623548e-002
<VARIANCE> 9
 2.036709e+000 3.983299e-001 6.976298e-002 2.977951e+001 6.580897e+002 2.030659e+002 9.724494e-004 5.782502e-004 2.632493e-004
<GCONST> 6.232191e+000
<MIXTURE> 4 7.314214e-002
<MEAN> 9
 -7.378103e+000 -1.083189e+001 2.282568e+000 -1.850967e+001 3.110637e+001 -1.053105e+002 5.924511e-002 3.794817e-001 1.761951e-001
<VARIANCE> 9
 1.645198e+000 3.371764e-001 6.976298e-002 2.977951e+001 1.313746e+003 2.875135e+003 1.540872e-003 5.782502e-004 1.938003e-004
<GCONST> 9.347674e+000
<MIXTURE> 5 4.002842e-002
<MEAN> 9
 -6.373471e+000 -1.279512e+001 2.656668e+000 -7.658598e+001 1.927717e+002 -2.415549e+002 1.177292e-001 3.781812e-001 1.066316e-001
<VARIANCE> 9
 2.939445e-001 3.371764e-001 1.533549e-001 5.265658e+001 2.823472e+002 1.210095e+002 4.762525e-004 5.782502e-004 1.938003e-004
<GCONST> 3.103427e+000
<MIXTURE> 6 7.996792e-002
<MEAN> 9
 -5.998950e+000 -1.008304e+001 1.214520e+000 -5.458884e+001 8.592722e+001 -3.712693e+001 -5.858608e-002 3.516186e-001 1.790632e-001
<VARIANCE> 9
 9.571056e-001 3.371764e-001 4.834445e-001 2.977951e+001 1.065690e+003 1.586971e+002 4.762525e-004 5.782502e-004 1.938003e-004
<GCONST> 6.461532e+000
<MIXTURE> 7 8.002511e-002
<MEAN> 9
 -5.201423e+000 -1.135182e+001 1.751300e+000 -6.129860e+001 1.061452e+002 -7.951395e+001 -1.292194e-002 3.622836e-001 1.591842e-001
<VARIANCE> 9
 1.491142e-001 3.371764e-001 1.514107e+000 6.675982e+001 2.711423e+002 1.862483e+002 9.757782e-004 5.782502e-004 1.938003e-004
<GCONST> 6.059892e+000
<MIXTURE> 8 4.002666e-002
<MEAN> 9
 -8.234940e+000 -1.321084e+001 1.500000e+000 -5.201220e+001 1.859756e+002 -2.184756e+002 5.181818e-002 3.677273e-001 1.280612e-001
<VARIANCE> 9
 1.491142e-001 3.371764e-001 6.976298e-002 2.977951e+001 3.878978e+002 1.210095e+002 4.762525e-004 5.782502e-004 1.938003e-004
<GCONST> 1.384734e+000
<MIXTURE> 9 7.033715e-002
<MEAN> 9
 -4.516945e+000 -9.652752e+000 1.686872e+000 -3.874151e+001 1.691704e+002 -3.688343e+001 -4.846936e-003 3.719674e-001 1.781471e-001
<VARIANCE> 9
 4.267637e-001 3.371764e-001 4.405546e-001 8.076730e+001 2.157703e+002 1.210095e+002 4.762525e-004 5.782502e-004 1.938003e-004
<GCONST> 4.690406e+000
<MIXTURE> 10 1.000816e-001
<MEAN> 9
 -7.211777e+000 -1.211072e+001 1.771241e+000 -5.667279e+001 9.962009e+001 -1.495893e+002 1.436440e-002 3.765439e-001 1.479595e-001
<VARIANCE> 9
 4.860865e-001 3.371764e-001 1.681113e+000 6.956982e+001 1.587658e+002 4.904039e+002 6.970378e-004 5.782502e-004 1.938003e-004
<GCONST> 7.483966e+000
<MIXTURE> 11 1.003738e-001
<MEAN> 9
 -6.960938e+000 -1.040602e+001 4.653841e+000 -9.031020e+001 1.147089e+002 -2.355038e+002 1.954832e-001 3.566056e-001 5.517663e-002
<VARIANCE> 9
 1.902292e+000 4.414094e-001 5.157785e-001 2.977951e+001 7.883459e+002 1.210095e+002 4.912494e-004 5.782502e-004 2.525950e-004
<GCONST> 7.205932e+000
<MIXTURE> 12 8.001572e-002
<MEAN> 9
 -1.045205e+001 -8.948768e+000 3.024290e+000 -2.931331e+001 1.206107e+002 -2.310540e+002 2.911539e-001 3.215794e-001 1.068777e-001
<VARIANCE> 9
 9.021557e-001 3.371764e-001 4.462864e-001 5.125666e+001 2.910338e+003 1.210095e+002 8.701966e-004 5.782502e-004 2.713558e-004
<GCONST> 8.538345e+000
<MIXTURE> 13 6.641019e-002
<MEAN> 9
 -8.654689e+000 -1.110589e+001 2.100980e+000 -1.494595e+001 1.985874e+001 -1.406054e+002 7.640316e-002 3.717374e-001 1.716442e-001
<VARIANCE> 9
 7.175391e-001 3.371764e-001 6.976298e-002 2.977951e+001 1.089254e+003 9.683949e+002 4.937557e-004 5.782502e-004 1.938003e-004
<GCONST> 6.104218e+000
<MIXTURE> 14 6.941845e-002
<MEAN> 9
 -4.652950e+000 -9.739761e+000 1.653945e+000 -4.186240e+001 1.642917e+002 -3.767907e+001 -2.093337e-003 3.725013e-001 1.766567e-001
<VARIANCE> 9
 3.085146e-001 3.371764e-001 5.072272e-001 1.186677e+002 3.222971e+002 1.210095e+002 4.762525e-004 5.782502e-004 1.938003e-004
<GCONST> 5.292884e+000
<TRANSP> 8
 0.000000e+000 1.000000e+000 0.000000e+000 0.000000e+000 0.000000e+000 0.000000e+000 0.000000e+000 0.000000e+000
 0.000000e+000 9.230592e-001 7.694080e-002 0.000000e+000 0.000000e+000 0.000000e+000 0.000000e+000 0.000000e+000
 0.000000e+000 0.000000e+000 9.473639e-001 5.263616e-002 0.000000e+000 0.000000e+000 0.000000e+000 0.000000e+000
 0.000000e+000 0.000000e+000 0.000000e+000 9.530637e-001 4.693631e-002 0.000000e+000 0.000000e+000 0.000000e+000
 0.000000e+000 0.000000e+000 0.000000e+000 0.000000e+000 9.716235e-001 2.837642e-002 0.000000e+000 0.000000e+000
 0.000000e+000 0.000000e+000 0.000000e+000 0.000000e+000 0.000000e+000 9.486009e-001 5.139907e-002 0.000000e+000
 0.000000e+000 0.000000e+000 0.000000e+000 0.000000e+000 0.000000e+000 0.000000e+000 9.399599e-001 6.004007e-002
 0.000000e+000 0.000000e+000 0.000000e+000 0.000000e+000 0.000000e+000 0.000000e+000 0.000000e+000 0.000000e+000
<ENDHMM>
~h "GM"
<BEGINHMM>
<NUMSTATES> 8
<STATE> 2
<NUMMIXES> 14
<MIXTURE> 1 1.034551e-001
<MEAN> 9
 -1.229516e+001 -1.090559e+001 5.381387e-001 2.670659e+001 6.365780e+001 3.011576e+002 2.534851e-001 3.425759e-001 2.119048e-001
<VARIANCE> 9
 2.536329e+000 3.007009e+000 1.948385e+000 4.765979e+002 4.528642e+002 1.702720e+003 6.113800e-003 8.695244e-004 1.938003e-004
<GCONST> 1.826836e+001
<MIXTURE> 2 6.481212e-002
<MEAN> 9
 -6.847330e+000 -1.264663e+001 3.068168e+000 1.376163e+001 -1.351081e+002 1.668774e+002 6.874651e-002 3.759752e-001 2.210166e-001
<VARIANCE> 9
 5.772306e-001 3.371764e-001 1.063504e+000 7.188173e+001 9.687974e+002 1.473121e+003 1.378018e-003 5.782502e-004 1.938003e-004
<GCONST> 1.082072e+001
<MIXTURE> 3 1.021137e-001
<MEAN> 9
 -9.301086e+000 -8.393542e+000 -9.248549e-001 -3.916936e+001 -5.868017e+001 1.631339e+002 2.327324e-001 3.533326e-001 1.933195e-001
<VARIANCE> 9
 1.851117e-001 3.855714e-001 6.976298e-002 7.667233e+001 5.760165e+002 1.210095e+002 1.552826e-003 5.782502e-004 1.938003e-004
<GCONST> 4.258098e+000
<MIXTURE> 4 8.500754e-002
<MEAN> 9
 -1.054154e+001 -7.074108e+000 -2.056246e+000 -1.829398e+001 2.066417e+001 2.473850e+002 2.640414e-001 3.395022e-001 2.083915e-001
<VARIANCE> 9
 6.328616e-001 1.472837e+000 1.303358e+000 4.592459e+001 1.143618e+002 1.210095e+002 6.605361e-004 5.782502e-004 1.938003e-004
<GCONST> 6.771115e+000
<MIXTURE> 5 1.821344e-002
<MEAN> 9
 -9.444241e+000 -5.910906e+000 -8.803537e-001 -2.024565e+001 3.704013e+001 3.373775e+002 3.924780e-001 2.586237e-001 2.307218e-001
<VARIANCE> 9
 1.491142e-001 3.371764e-001 6.976298e-002 5.954648e+001 1.139813e+002 4.770128e+002 4.762525e-004 5.782502e-004 1.938003e-004
<GCONST> 2.224637e+000
<MIXTURE> 6 9.703236e-002
<MEAN> 9
 -8.301612e+000 -1.001095e+001 7.755505e-001 -9.564219e+000 -3.183047e+001 1.549764e+002 1.336000e-001 3.739072e-001 2.016122e-001
<VARIANCE> 9
 7.916128e-001 3.371764e-001 6.989750e-001 9.212349e+001 8.919301e+002 2.699063e+002 4.762525e-004 5.782502e-004 2.948497e-004
<GCONST> 8.542405e+000
<MIXTURE> 7 5.137592e-002
<MEAN> 9
 -1.023105e+001 -5.943170e+000 -6.474349e-001 -6.384213e+001 -9.159388e+001 1.797775e+002 3.675997e-001 2.808837e-001 1.923507e-001
<VARIANCE> 9
 1.887309e-001 1.263942e+000 5.633903e-001 7.035419e+001 3.098901e+002 1.210095e+002 1.686876e-003 1.345188e-003 1.938003e-004
<GCONST> 7.774762e+000
<MIXTURE> 8 1.014481e-001
<MEAN> 9
 -8.527655e+000 -1.134640e+001 5.015072e-001 -5.388201e+000 3.300532e+001 1.293647e+002 5.941053e-002 3.731770e-001 1.802466e-001
<VARIANCE> 9
 2.220518e+000 8.422598e-001 1.114846e-001 2.977951e+001 1.682034e+002 1.037502e+003 4.762525e-004 5.782502e-004 1.938003e-004
<GCONST> 6.782916e+000
<MIXTURE> 9 8.803146e-002
<MEAN> 9
 -1.050980e+001 -9.690222e+000 -9.882640e-001 -1.334029e+001 1.184914e+001 2.196175e+002 1.793359e-001 3.656473e-001 2.012096e-001
<VARIANCE> 9
 6.019837e-001 5.535405e-001 4.308411e-001 2.977951e+001 2.541248e+002 1.489786e+002 1.299405e-003 5.782502e-004 1.938003e-004
<GCONST> 5.885346e+000
<MIXTURE> 10 6.029183e-002
<MEAN> 9
 -1.025895e+001 -4.955534e+000 -2.308588e+000 -4.581887e+001 -6.378709e-001 2.484355e+002 3.648087e-001 2.761566e-001 2.254913e-001
<VARIANCE> 9
 2.587893e-001 9.443549e-001 2.218614e+000 1.156568e+002 3.693172e+002 1.210095e+002 8.619246e-004 5.782502e-004 1.938003e-004
<GCONST> 8.326404e+000
<MIXTURE> 11 5.828100e-002
<MEAN> 9
 -7.510293e+000 -1.005112e+001 5.269514e-001 -1.039324e+001 -4.287066e+001 1.113812e+002 8.130483e-002 3.781361e-001 1.918623e-001
<VARIANCE> 9
 1.491142e-001 3.371764e-001 2.137562e-001 2.977951e+001 2.066679e+003 6.746359e+002 5.559188e-004 5.782502e-004 3.448623e-004
<GCONST> 6.626718e+000
<MIXTURE> 12 5.202211e-002
<MEAN> 9
 -1.014231e+001 -5.457561e+000 -1.140629e+000 -6.878806e+001 -1.029425e+002 1.823314e+002 3.788540e-001 2.676868e-001 1.913135e-001
<VARIANCE> 9
 2.779126e-001 3.762434e-001 5.400558e-001 3.418575e+001 1.085239e+002 1.210095e+002 6.137575e-004 6.916251e-004 1.938003e-004
<GCONST> 3.460429e+000
<MIXTURE> 13 5.912035e-002
<MEAN> 9
 -7.546473e+000 -9.985033e+000 5.641187e-001 -1.103193e+001 -6.855769e+001 8.937444e+001 6.288498e-002 3.820196e-001 2.033653e-001
<VARIANCE> 9
 1.491142e-001 3.371764e-001 6.976298e-002 2.977951e+001 8.263525e+002 6.790975e+002 4.864872e-004 5.782502e-004 1.938003e-004
<GCONST> 3.887172e+000
<MIXTURE> 14 5.879492e-002
<MEAN> 9
 -1.034258e+001 -5.026155e+000 -2.555764e+000 -4.593653e+001 -8.984113e+000 2.482766e+002 3.610578e-001 2.751634e-001 2.240136e-001
<VARIANCE> 9
 2.942165e-001 1.597476e+000 2.928198e+000 7.629972e+001 2.557114e+002 1.210095e+002 9.106486e-004 6.408037e-004 1.938003e-004
<GCONST> 8.632028e+000
<STATE> 3
<NUMMIXES> 14
<MIXTURE> 1 7.573844e-002
<MEAN> 9
 -4.935023e+000 -6.697938e-001 7.372863e-001 -6.534184e+001 -2.484692e+001 1.999315e+002 5.094533e-001 2.964206e-002 2.336733e-001
<VARIANCE> 9
 8.747277e-001 3.371764e-001 5.241125e-001 2.977951e+001 6.838369e+002 1.837832e+003 4.762525e-004 2.242255e-003 1.938003e-004
<GCONST> 9.813218e+000
<MIXTURE> 2 6.584725e-002
<MEAN> 9
 -7.521030e+000 -2.983598e+000 -5.155623e-001 -5.948554e+001 -6.436101e+000 2.756057e+002 4.648910e-001 1.596471e-001 2.404499e-001
<VARIANCE> 9
 1.491142e-001 1.408078e+000 1.085748e-001 4.898158e+002 5.708988e+001 2.435895e+003 4.762525e-004 1.110515e-003 1.938003e-004
<GCONST> 7.795310e+000
<MIXTURE> 3 7.574203e-002
<MEAN> 9
 -6.987960e+000 1.992787e+000 -3.110834e+000 -1.357320e+002 -1.497599e+001 1.408045e+002 5.123639e-001 1.836145e-002 2.169387e-001
<VARIANCE> 9
 1.491142e-001 3.371764e-001 1.763077e-001 7.342744e+001 1.390014e+002 3.712864e+002 4.762525e-004 1.462182e-003 1.938003e-004
<GCONST> 4.236862e+000
<MIXTURE> 4 8.290271e-002
<MEAN> 9
 -8.891578e+000 -2.328983e+000 -2.988150e+000 -7.738905e+001 -3.108286e+001 2.302187e+002 4.385036e-001 1.908576e-001 2.392172e-001
<VARIANCE> 9
 3.949810e-001 7.000874e-001 2.772748e+000 5.233061e+001 3.182570e+002 1.210095e+002 4.762525e-004 5.782502e-004 2.531279e-004
<GCONST> 7.404891e+000
<MIXTURE> 5 7.581063e-002
<MEAN> 9
 -7.821698e+000 3.401829e+000 -1.203431e+000 -1.532695e+002 1.874728e+001 8.461220e+001 5.161754e-001 -8.295017e-002 2.289718e-001
<VARIANCE> 9
 1.491142e-001 3.371764e-001 7.318496e-001 2.977951e+001 3.680466e+001 1.548119e+002 4.762525e-004 5.782502e-004 1.938003e-004
<GCONST> 1.626430e+000
<MIXTURE> 6 1.042256e-001
<MEAN> 9
 -6.688712e+000 1.100256e+000 9.342284e-001 -7.688080e+001 -2.126390e+001 1.151995e+002 5.193917e-001 4.689506e-003 2.113484e-001
<VARIANCE> 9
 1.491142e-001 3.371764e-001 1.002793e-001 5.027350e+001 3.736777e+002 3.165517e+002 4.762525e-004 1.719274e-003 1.735377e-003
<GCONST> 6.477317e+000
<MIXTURE> 7 5.394236e-002
<MEAN> 9
 -7.702886e+000 -1.000905e+000 -1.976563e+000 -8.170264e+001 -5.443578e+001 1.875235e+002 4.737910e-001 1.317585e-001 1.923572e-001
<VARIANCE> 9
 4.496854e-001 1.657438e+000 5.236032e+000 4.456743e+002 8.140275e+002 1.900545e+002 4.762525e-004 1.380581e-003 1.038976e-003
<GCONST> 1.484708e+001
<MIXTURE> 8 6.923716e-002
<MEAN> 9
 -7.082190e+000 1.814125e+000 2.387908e+000 -9.444218e+001 -1.318497e+001 7.275439e+001 5.231774e-001 -1.248327e-002 1.661055e-001
<VARIANCE> 9
 6.403928e-001 3.371764e-001 5.490322e-001 2.977951e+001 2.707643e+002 4.551855e+002 4.762525e-004 5.782502e-004 1.938003e-004
<GCONST> 5.870498e+000
<MIXTURE> 9 8.688644e-002
<MEAN> 9
 -6.486422e+000 -1.714011e-001 2.248722e+000 -3.601802e+001 -2.043800e+001 4.542102e+001 5.251734e-001 -7.337935e-002 2.202007e-001
<VARIANCE> 9
 2.502032e-001 3.371764e-001 1.225859e-001 1.628676e+002 1.762395e+002 3.907602e+002 4.762525e-004 5.782502e-004 1.938003e-004
<GCONST> 4.548446e+000
<MIXTURE> 10 7.860729e-002
<MEAN> 9
 -7.318953e+000 4.710921e-002 2.926193e-001 -8.292204e+001 -2.715922e+001 1.601325e+002 5.013048e-001 8.378980e-002 2.218954e-001
<VARIANCE> 9
 1.491142e-001 3.371764e-001 3.116719e-001 1.443455e+002 4.432281e+001 1.715126e+002 4.762525e-004 1.055525e-003 2.534302e-003
<GCONST> 5.812147e+000
<MIXTURE> 11 6.054360e-002
<MEAN> 9
 -7.707670e+000 2.023454e+000 1.826410e+000 -1.480567e+002 -1.594326e+000 4.012341e+001 5.077274e-001 -1.475072e-001 2.142807e-001
<VARIANCE> 9
 1.491142e-001 3.371764e-001 8.446798e-001 4.857716e+001 5.375081e+001 1.336395e+002 4.762525e-004 5.782502e-004 1.938003e-004
<GCONST> 2.490813e+000
<MIXTURE> 12 5.008405e-002
<MEAN> 9
 -5.106693e+000 -2.662100e-001 2.001057e+000 -4.734476e+001 -4.195311e+001 7.985352e+001 5.231369e-001 -6.622922e-002 2.203319e-001
<VARIANCE> 9
 2.883041e+000 3.371764e-001 1.398599e-001 8.597670e+001 5.023420e+002 8.918359e+002 4.762525e-004 5.782502e-004 2.122441e-004
<GCONST> 8.449276e+000
<MIXTURE> 13 6.719404e-002
<MEAN> 9
 -6.986204e+000 7.538662e-001 3.847845e+000 -8.676060e+001 -1.128295e+001 3.712636e+001 5.257406e-001 -4.183129e-002 1.596592e-001
<VARIANCE> 9
 3.272688e-001 7.508007e-001 7.777917e-001 1.158662e+002 1.000020e+002 3.514063e+002 4.762525e-004 5.782502e-004 1.938003e-004
<GCONST> 6.451827e+000
<MIXTURE> 14 5.323818e-002
<MEAN> 9
 -7.743258e+000 -1.413208e+000 -1.692089e+000 -7.792636e+001 -6.724905e+001 1.863480e+002 4.693787e-001 1.430551e-001 1.855063e-001
<VARIANCE> 9
 4.219140e-001 2.292480e+000 4.967154e+000 4.623256e+002 1.192495e+003 1.328419e+002 4.762525e-004 1.880091e-003 8.725568e-004
<GCONST> 1.524957e+001
<STATE> 4
<NUMMIXES> 14
<MIXTURE> 1 6.629413e-002
<MEAN> 9
 -8.055257e+000 5.277279e+000 1.809444e-001 -4.485803e-001 4.986914e+001 6.195445e+001 4.955281e-001 -1.782477e-001 2.710600e-001
<VARIANCE> 9
 1.407179e+000 3.371764e-001 1.241860e+000 7.018650e+001 4.120044e+002 6.722742e+002 4.762525e-004 5.782502e-004 1.938003e-004
<GCONST> 9.141051e+000
<MIXTURE> 2 4.710281e-002
<MEAN> 9
 -9.421715e+000 2.761494e+000 3.132183e+000 1.648302e+001 2.740476e+001 2.696562e+001 5.235574e-001 -8.410200e-002 2.152739e-001
<VARIANCE> 9
 1.491142e-001 3.371764e-001 5.256330e-001 2.977951e+001 1.135046e+002 1.210095e+002 4.762525e-004 5.782502e-004 1.938003e-004
<GCONST> 2.175334e+000
<MIXTURE> 3 7.187533e-002
<MEAN> 9
 -8.813903e+000 4.093724e+000 4.246359e+000 1.841057e+001 1.255805e+001 1.996529e+001 5.112062e-001 -1.626583e-001 1.942272e-001
<VARIANCE> 9
 4.088025e-001 1.143115e+000 6.102694e-001 2.082306e+002 3.570104e+002 1.210095e+002 4.762525e-004 7.626202e-004 1.938003e-004
<GCONST> 7.921557e+000
<MIXTURE> 4 6.401998e-002
<MEAN> 9
 -7.566348e+000 5.582529e+000 7.439049e-001 6.266036e+000 1.282170e+001 4.602380e+001 5.038770e-001 -1.699611e-001 2.209869e-001
<VARIANCE> 9
 1.344816e+000 3.371764e-001 3.366544e-001 9.060004e+002 4.160607e+002 2.938890e+002 4.762525e-004 6.345471e-004 3.085562e-004
<GCONST> 1.008861e+001
<MIXTURE> 5 7.726672e-002
<MEAN> 9
 -8.286019e+000 4.195881e-001 4.867758e+000 -6.762907e+001 -1.947814e+000 3.309382e+000 5.119373e-001 -1.649023e-001 1.864556e-001
<VARIANCE> 9
 1.491142e-001 4.323846e-001 2.971027e-001 1.339365e+003 3.680466e+001 1.210095e+002 4.762525e-004 5.782502e-004 1.938003e-004
<GCONST> 4.533431e+000
<MIXTURE> 6 9.290054e-002
<MEAN> 9
 -9.786259e+000 3.112968e+000 2.857508e+000 -2.200573e+000 1.076918e+001 1.404156e+001 5.222633e-001 -1.069812e-001 2.147638e-001
<VARIANCE> 9
 1.831647e-001 3.371764e-001 1.476169e-001 2.977951e+001 5.485219e+001 1.310824e+002 4.762525e-004 5.782502e-004 1.938003e-004
<GCONST> 4.637804e-001
<MIXTURE> 7 1.033152e-001
<MEAN> 9
 -6.396452e+000 5.832990e+000 3.841909e-001 -5.346660e+001 5.163960e+001 4.599881e+001 4.613179e-001 -2.356568e-001 2.946138e-001
<VARIANCE> 9
 1.009977e+000 3.371764e-001 3.380418e-001 2.379429e+002 1.601197e+003 2.230885e+002 4.762525e-004 5.782502e-004 3.242333e-004
<GCONST> 9.498078e+000
<MIXTURE> 8 9.146951e-002
<MEAN> 9
 -8.658979e+000 3.863032e+000 2.267917e+000 9.687143e+000 1.713084e+001 5.524080e+001 5.078645e-001 -1.403821e-001 2.457371e-001
<VARIANCE> 9
 3.279631e-001 3.371764e-001 1.331949e-001 5.599833e+001 4.611226e+001 3.119452e+002 4.762525e-004 5.782502e-004 1.938003e-004
<GCONST> 2.268428e+000
<MIXTURE> 9 7.936675e-002
<MEAN> 9
 -9.063148e+000 8.955790e-001 4.978951e+000 -1.205223e+001 2.483297e+001 1.458829e+001 5.225855e-001 -8.437734e-002 1.723568e-001
<VARIANCE> 9
 1.848392e-001 1.212451e+000 7.892528e-002 4.515244e+002 8.234920e+001 1.210095e+002 4.762525e-004 2.470558e-003 1.938003e-004
<GCONST> 5.623925e+000
<MIXTURE> 10 7.631063e-002
<MEAN> 9
 -8.685131e+000 1.132199e+000 2.301422e+000 -1.153822e+001 1.489557e+000 1.156254e+001 5.249787e-001 -9.167469e-002 2.094102e-001
<VARIANCE> 9
 1.053715e+000 4.743352e-001 8.981004e-002 2.977951e+001 3.745626e+001 2.390137e+002 4.762525e-004 5.782502e-004 1.938003e-004
<GCONST> 2.277083e+000
<MIXTURE> 11 5.545764e-002
<MEAN> 9
 -1.047868e+001 4.078431e+000 1.485765e+000 -5.097324e+000 2.953712e+001 5.383989e+001 5.174170e-001 -1.226906e-001 2.248626e-001
<VARIANCE> 9
 7.175421e-001 3.859840e-001 1.504861e-001 2.977951e+001 2.298443e+002 1.210095e+002 4.762525e-004 5.782502e-004 2.231007e-004
<GCONST> 3.477262e+000
<MIXTURE> 12 7.078363e-002
<MEAN> 9
 -6.977015e+000 4.814679e+000 1.353761e+000 -8.390479e+001 3.825241e+001 4.589699e+001 4.794666e-001 -2.192508e-001 2.425642e-001
<VARIANCE> 9
 1.206615e+000 3.371764e-001 2.834979e-001 2.534628e+002 3.363219e+002 1.296944e+002 4.762525e-004 5.782502e-004 2.038227e-004
<GCONST> 6.996153e+000
<MIXTURE> 13 5.562199e-002
<MEAN> 9
 -8.111111e+000 5.232490e+000 2.375163e-001 -1.254642e+001 2.544827e+001 5.104626e+001 4.992673e-001 -1.772763e-001 2.396471e-001
<VARIANCE> 9
 1.131781e+000 3.371764e-001 4.994021e-001 8.331332e+002 2.540190e+002 2.080596e+002 4.762525e-004 5.782502e-004 7.916028e-004
<GCONST> 1.023710e+001
<MIXTURE> 14 4.821503e-002
<MEAN> 9
 -9.458572e+000 2.814498e+000 3.046865e+000 1.636350e+001 2.610428e+001 2.746715e+001 5.223795e-001 -8.875718e-002 2.159046e-001
<VARIANCE> 9
 1.491142e-001 3.371764e-001 5.440407e-001 2.977951e+001 9.528645e+001 1.210095e+002 4.762525e-004 5.782502e-004 1.938003e-004
<GCONST> 2.034797e+000
<STATE> 5
<NUMMIXES> 14
<MIXTURE> 1 3.351765e-002
<MEAN> 9
 -3.432938e+000 9.057051e+000 8.998137e+000 -1.458446e+001 -8.183117e+000 1.684148e+001 4.425801e-001 -2.678515e-001 2.838516e-001
<VARIANCE> 9
 2.285324e+001 4.926110e+000 4.266342e+001 2.436600e+003 4.327673e+003 6.764321e+002 4.762525e-004 5.782502e-004 3.955747e-003
<GCONST> 2.706820e+001
<MIXTURE> 2 8.255265e-002
<MEAN> 9
 -7.314936e+000 7.391466e+000 7.022029e-001 -8.276206e+000 -1.178664e+001 -1.479501e-001 4.250137e-001 -2.770574e-001 3.327882e-001
<VARIANCE> 9
 6.426883e-001 3.371764e-001 1.027442e+000 3.717037e+002 4.748835e+002 1.210095e+002 4.762525e-004 5.782502e-004 3.078477e-004
<GCONST> 8.724785e+000
<MIXTURE> 3 8.724112e-002
<MEAN> 9
 -7.324819e+000 -1.111424e+000 1.347173e+001 -8.978444e+001 7.567212e+000 9.876944e+000 4.458314e-001 -2.847919e-001 1.894092e-001
<VARIANCE> 9
 2.601292e+001 1.211681e+001 3.958167e+001 3.536296e+003 2.981787e+003 3.426264e+002 4.762525e-004 8.048444e-004 2.993840e-003
<GCONST> 2.739458e+001
<MIXTURE> 4 1.067288e-001
<MEAN> 9
 -7.594070e+000 6.255122e+000 1.861111e+000 3.337143e+001 -1.645947e+001 5.161507e+000 4.775118e-001 -2.340045e-001 2.335804e-001
<VARIANCE> 9
 2.298650e+000 3.431991e-001 7.135434e+000 1.722025e+003 7.443481e+002 1.210095e+002 4.762525e-004 5.782502e-004 1.938003e-004
<GCONST> 1.347473e+001
<MIXTURE> 5 1.015791e-001
<MEAN> 9
 -7.700009e+000 3.403490e+000 4.812007e+000 7.134814e+000 -1.491473e+001 9.175094e-001 4.428667e-001 -2.965295e-001 1.640736e-001
<VARIANCE> 9
 5.403760e-001 6.200169e-001 1.887938e+000 9.798586e+001 1.981018e+002 1.210095e+002 4.762525e-004 5.782502e-004 1.028417e-003
<GCONST> 8.767552e+000
<MIXTURE> 6 9.636665e-002
<MEAN> 9
 -9.300136e+000 4.578016e+000 6.331302e-001 -2.958709e+001 1.672143e+001 -6.707950e+000 4.396298e-001 -2.920464e-001 2.409436e-001
<VARIANCE> 9
 1.484527e+000 3.371764e-001 8.903084e-001 3.257171e+003 8.265407e+002 1.210095e+002 4.762525e-004 5.782502e-004 2.258074e-003
<GCONST> 1.413608e+001
<MIXTURE> 7 9.042145e-002
<MEAN> 9
 -9.088210e+000 3.684613e+000 7.709548e-001 -5.707977e+001 1.730970e+001 -5.009056e-001 4.758335e-001 -2.408391e-001 2.283530e-001
<VARIANCE> 9
 5.930173e-001 3.371764e-001 3.269821e+000 6.115679e+002 1.632143e+002 2.688793e+002 4.762525e-004 5.782502e-004 1.957522e-004
<GCONST> 9.577575e+000
<MIXTURE> 8 4.666901e-002
<MEAN> 9
 -8.978988e+000 1.377231e+000 7.279042e+000 3.073906e+001 -1.459882e+001 -2.121231e+000 4.425112e-001 -2.939581e-001 1.393240e-001
<VARIANCE> 9
 4.758007e-001 3.371764e-001 3.631371e+000 1.090048e+003 8.410077e+002 1.418683e+002 4.762525e-004 5.782502e-004 3.673239e-004
<GCONST> 1.166974e+001
<MIXTURE> 9 6.336465e-002
<MEAN> 9
 -7.882228e+000 5.081545e+000 2.418899e+000 -6.851434e+001 4.856864e+001 -4.368460e-001 4.728891e-001 -2.400378e-001 2.282813e-001
<VARIANCE> 9
 1.860487e+000 1.263020e+000 4.416017e+000 4.909455e+003 1.335622e+003 1.251416e+002 4.762525e-004 5.782502e-004 2.257241e-004
<GCONST> 1.590473e+001
<MIXTURE> 10 5.027843e-002
<MEAN> 9
 -8.708714e+000 2.847554e+000 1.367707e+000 -1.165175e+002 2.732959e+001 3.001062e+001 4.612254e-001 -2.723453e-001 2.097361e-001
<VARIANCE> 9
 1.011518e+000 4.025666e-001 8.580235e-001 6.793283e+002 7.548911e+001 1.210095e+002 4.762525e-004 5.782502e-004 1.938003e-004
<GCONST> 7.476539e+000
<MIXTURE> 11 6.218626e-002
<MEAN> 9
 -8.043423e+000 4.793909e+000 2.988612e+000 -4.462317e+001 2.441664e+001 -8.454486e+000 4.685206e-001 -2.472603e-001 2.340754e-001
<VARIANCE> 9
 1.255653e+000 1.012224e+000 2.613138e+000 3.932246e+003 1.594994e+003 1.210095e+002 4.762525e-004 5.782502e-004 1.938003e-004
<GCONST> 1.453496e+001
<MIXTURE> 12 5.894157e-002
<MEAN> 9
 -7.733240e+000 6.086734e+000 2.003165e+000 8.054844e+000 -1.568250e+000 -1.069291e-001 4.697405e-001 -2.466809e-001 2.349472e-001
<VARIANCE> 9
 1.777219e+000 7.671715e-001 5.333628e+000 7.799081e+002 2.155264e+002 1.210095e+002 4.762525e-004 5.782502e-004 1.938003e-004
<GCONST> 1.169931e+001
<MIXTURE> 13 5.542175e-002
<MEAN> 9
 -8.272067e+000 2.232501e+000 2.356824e+000 -1.352457e+002 3.109048e+001 2.730046e+001 4.497837e-001 -2.900535e-001 1.938592e-001
<VARIANCE> 9
 1.268530e+000 6.222891e-001 1.541238e+000 8.500046e+002 1.784869e+002 1.210095e+002 4.762525e-004 5.782502e-004 4.750642e-004
<GCONST> 1.070549e+001
<MIXTURE> 14 6.473146e-002
<MEAN> 9
 -7.832291e+000 5.612987e+000 1.698955e+000 -7.150410e-001 -4.220242e+000 -1.770631e+000 4.672819e-001 -2.508416e-001 2.334613e-001
<VARIANCE> 9
 1.421519e+000 6.961933e-001 4.800849e+000 6.786281e+002 1.612282e+002 1.210095e+002 4.762525e-004 5.782502e-004 1.938003e-004
<GCONST> 1.084430e+001
<STATE> 6
<NUMMIXES> 14
<MIXTURE> 1 8.818318e-002
<MEAN> 9
 -6.470817e+000 4.357199e-001 1.675860e+000 1.686559e+002 -4.854060e+001 -1.155494e+002 4.942617e-001 -2.024316e-001 1.831369e-001
<VARIANCE> 9
 2.169900e-001 3.371764e-001 4.602865e-001 4.157188e+002 6.828135e+002 1.981189e+002 4.762525e-004 1.395113e-003 1.938003e-004
<GCONST> 8.222009e+000
<MIXTURE> 2 7.597516e-002
<MEAN> 9
 -5.731834e+000 2.069767e+000 1.163210e+000 1.316380e+002 -1.432949e+002 -1.562182e+002 5.021351e-001 -1.520392e-001 6.246426e-002
<VARIANCE> 9
 3.432018e-001 3.371764e-001 6.976298e-002 4.248826e+002 1.506541e+002 1.553574e+003 4.762525e-004 2.207329e-003 1.732093e-003
<GCONST> 1.001281e+001
<MIXTURE> 3 6.683006e-002
<MEAN> 9
 -6.988287e+000 9.744505e-001 2.625662e+000 1.485126e+002 -5.773187e+001 -7.615157e+001 4.754340e-001 -2.452065e-001 1.966172e-001
<VARIANCE> 9
 2.533294e-001 3.371764e-001 1.848098e-001 2.719332e+002 2.569805e+002 1.210095e+002 4.762525e-004 6.723058e-004 6.102219e-004
<GCONST> 5.986630e+000
<MIXTURE> 4 7.520453e-002
<MEAN> 9
 -7.774254e+000 -1.451305e+000 1.585728e+000 5.494713e+001 -5.765392e+001 -2.628553e+002 4.784733e-001 7.146432e-002 3.371562e-003
<VARIANCE> 9
 6.609639e-001 1.778283e+000 1.113400e+000 6.223530e+002 4.295418e+002 1.925542e+002 4.762525e-004 5.129952e-003 3.006831e-003
<GCONST> 1.583742e+001
<MIXTURE> 5 8.474319e-002
<MEAN> 9
 -6.913679e+000 3.666161e-001 -7.117676e-002 1.787734e+002 -7.689492e+001 -1.597564e+002 5.165900e-001 -1.300502e-001 1.912350e-001
<VARIANCE> 9
 6.884203e-001 3.371764e-001 6.976298e-002 6.818703e+001 4.310576e+002 3.114736e+002 4.762525e-004 1.555725e-003 1.938003e-004
<GCONST> 5.783489e+000
<MIXTURE> 6 8.635519e-002
<MEAN> 9
 -7.557859e+000 1.587655e-001 6.408772e+000 6.996351e+001 -3.892389e+001 -1.719330e+001 4.555437e-001 -2.762839e-001 1.569168e-001
<VARIANCE> 9
 5.924062e-001 3.371764e-001 2.469535e-001 7.280406e+002 3.860321e+001 1.210095e+002 4.762525e-004 5.782502e-004 1.961812e-004
<GCONST> 4.929647e+000
<MIXTURE> 7 8.512212e-002
<MEAN> 9
 -8.306934e+000 -5.937977e-001 -8.238802e-001 1.452446e+002 -3.021033e+001 -2.432636e+002 5.187525e-001 2.752487e-002 1.490987e-001
<VARIANCE> 9
 4.649035e+000 3.371764e-001 5.551609e-001 4.494086e+001 1.411222e+003 3.187688e+002 4.762525e-004 3.070334e-003 1.938003e-004
<GCONST> 1.123972e+001
<MIXTURE> 8 6.169939e-002
<MEAN> 9
 -7.684561e+000 2.491177e-001 5.152117e+000 1.318312e+002 -5.987307e+001 -4.990451e+001 4.606421e-001 -2.729163e-001 1.522208e-001
<VARIANCE> 9
 9.058924e-001 3.371764e-001 2.338248e+000 7.621621e+002 1.108351e+002 1.210095e+002 4.762525e-004 5.782502e-004 1.938003e-004
<GCONST> 8.690635e+000
<MIXTURE> 9 5.392227e-002
<MEAN> 9
 -9.982928e+000 -3.320246e+000 8.626905e-001 3.172526e+001 1.201170e+001 -3.075978e+002 4.421872e-001 1.727003e-001 3.234774e-002
<VARIANCE> 9
 1.588707e-001 4.222211e-001 1.898439e+000 1.743470e+002 4.058242e+002 6.755260e+002 4.762525e-004 6.737724e-004 3.547697e-003
<GCONST> 1.156885e+001
<MIXTURE> 10 7.622275e-002
<MEAN> 9
 -8.783575e+000 -1.093570e+000 -1.574647e+000 1.041314e+002 -5.903763e+001 -2.911998e+002 4.997846e-001 7.953542e-002 1.050854e-001
<VARIANCE> 9
 2.023673e+000 3.796687e-001 4.681345e-001 5.861422e+002 1.504479e+003 1.113160e+003 4.762525e-004 3.826517e-003 1.953578e-004
<GCONST> 1.446704e+001
<MIXTURE> 11 7.516929e-002
<MEAN> 9
 -7.930149e+000 1.518466e+000 5.161684e+000 9.101331e+001 -4.528416e+001 -3.243610e+001 4.395386e-001 -3.058617e-001 1.946568e-001
<VARIANCE> 9
 1.491142e-001 3.371764e-001 5.246267e-001 8.364565e+002 9.473029e+001 1.515556e+002 4.762525e-004 5.782502e-004 1.938003e-004
<GCONST> 5.553044e+000
<MIXTURE> 12 5.551896e-002
<MEAN> 9
 -6.186270e+000 4.065844e-001 -8.239172e-001 1.748539e+002 -1.122064e+002 -2.087247e+002 5.203010e-001 -1.015240e-001 1.651698e-001
<VARIANCE> 9
 2.127161e-001 3.371764e-001 7.650707e-002 1.377015e+002 2.317479e+002 4.690757e+002 4.762525e-004 2.477464e-003 1.938003e-004
<GCONST> 5.658311e+000
<MIXTURE> 13 5.653434e-002
<MEAN> 9
 -7.349298e+000 9.614488e-001 1.880155e+000 1.632545e+002 -9.602333e+001 -7.094872e+001 4.759010e-001 -2.511980e-001 1.573115e-001
<VARIANCE> 9
 1.105919e+000 3.371764e-001 6.183617e-001 9.610757e+001 8.010178e+002 1.210095e+002 4.762525e-004 5.782502e-004 5.895701e-004
<GCONST> 8.579773e+000
<MIXTURE> 14 5.851924e-002
<MEAN> 9
 -8.014323e+000 3.239092e-001 5.702143e+000 1.350493e+002 -6.343134e+001 -5.002330e+001 4.558544e-001 -2.804276e-001 1.445867e-001
<VARIANCE> 9
 9.292827e-001 3.371764e-001 3.089127e+000 6.931714e+002 1.105156e+002 1.210095e+002 4.762525e-004 5.782502e-004 1.938003e-004
<GCONST> 8.896846e+000
<STATE> 7
<NUMMIXES> 14
<MIXTURE> 1 6.678896e-002
<MEAN> 9
 -2.678688e+000 -1.037508e+001 4.675232e+000 -3.307721e+001 1.232273e+002 -2.910423e+001 -1.239564e-002 3.682485e-001 1.772522e-001
<VARIANCE> 9
 2.388449e+000 9.637049e-001 2.419745e-001 1.712020e+002 4.864547e+003 3.067971e+002 4.762525e-004 5.782502e-004 1.938003e-004
<GCONST> 1.166066e+001
<MIXTURE> 2 9.445527e-002
<MEAN> 9
 -1.063259e+001 -7.871507e+000 2.279550e+000 1.188786e+001 2.883318e+000 -2.719359e+002 2.909887e-001 3.228155e-001 9.034712e-002
<VARIANCE> 9
 1.181066e+000 1.256820e+000 4.772246e-001 1.384216e+003 1.588120e+003 1.262086e+002 1.058902e-003 5.782502e-004 3.646831e-004
<GCONST> 1.341475e+001
<MIXTURE> 3 9.307382e-002
<MEAN> 9
 -1.030969e+001 -4.758205e+000 1.170115e+000 4.069846e+001 2.527196e+001 -2.770754e+002 3.976913e-001 2.357936e-001 5.695109e-002
<VARIANCE> 9
 1.017347e+000 4.622854e-001 9.400698e-001 1.354332e+003 1.327028e+003 1.210095e+002 4.762525e-004 8.156835e-004 2.254701e-003
<GCONST> 1.406656e+001
<MIXTURE> 4 8.356779e-002
<MEAN> 9
 -6.939587e+000 -1.098143e+001 2.111930e+000 -3.665909e+001 1.058079e+002 -1.009716e+002 2.266432e-002 3.733885e-001 1.390743e-001
<VARIANCE> 9
 1.491142e-001 9.531778e-001 3.909359e-001 2.977951e+001 6.729722e+002 4.982399e+002 5.112639e-004 5.782502e-004 9.635825e-004
<GCONST> 7.788311e+000
<MIXTURE> 5 1.062358e-001
<MEAN> 9
 -8.378860e+000 -1.126948e+001 2.250803e+000 -3.729264e+001 5.375439e+001 -2.254169e+002 1.415750e-001 3.764215e-001 1.151900e-001
<VARIANCE> 9
 4.366658e-001 5.392417e-001 1.398719e-001 1.267902e+002 1.236186e+003 1.085808e+003 1.440500e-003 5.782502e-004 5.519909e-004
<GCONST> 1.057984e+001
<MIXTURE> 6 5.688284e-002
<MEAN> 9
 -5.614519e+000 -9.846956e+000 1.964600e+000 -4.307365e+001 6.882292e+001 -3.358481e+001 -4.914426e-003 3.678440e-001 1.588228e-001
<VARIANCE> 9
 1.491142e-001 3.371764e-001 1.417422e-001 2.977951e+001 2.905888e+003 1.210095e+002 4.762525e-004 5.782502e-004 2.223354e-004
<GCONST> 4.244749e+000
<MIXTURE> 7 6.300367e-002
<MEAN> 9
 -1.003836e+001 -9.631919e+000 1.756749e+000 -1.051438e+001 6.553475e+001 -2.598858e+002 2.337327e-001 3.546019e-001 6.771838e-002
<VARIANCE> 9
 3.169159e-001 1.365546e+000 1.880594e-001 5.613491e+002 1.927164e+003 1.825451e+002 1.208271e-003 5.782502e-004 6.401724e-004
<GCONST> 1.160563e+001
<MIXTURE> 8 9.417991e-002
<MEAN> 9
 -8.960454e+000 -1.236407e+001 2.052725e+000 -5.526535e+001 1.779174e+001 -1.889323e+002 7.144262e-002 3.718617e-001 1.317202e-001
<VARIANCE> 9
 1.867116e+000 4.609133e-001 7.827074e-001 2.086839e+002 5.790742e+002 2.237412e+003 1.245257e-003 5.782502e-004 2.909834e-004
<GCONST> 1.327491e+001
<MIXTURE> 9 5.805055e-002
<MEAN> 9
 -1.194965e+001 -6.783745e+000 -2.520468e-001 4.876657e+000 9.316991e+001 -3.110776e+002 3.582470e-001 2.782507e-001 6.174460e-002
<VARIANCE> 9
 4.892281e+000 8.944610e-001 1.586473e+000 6.365540e+001 6.349976e+002 5.555069e+002 1.099270e-003 5.782502e-004 2.420130e-003
<GCONST> 1.511297e+001
<MIXTURE> 10 8.105796e-002
<MEAN> 9
 -9.049828e+000 -9.375983e+000 3.430452e+000 1.037942e+001 2.022107e+002 -2.601400e+001 -1.749674e-002 3.624989e-001 1.630033e-001
<VARIANCE> 9
 6.047210e+000 3.371764e-001 1.686891e-001 2.977951e+001 8.149985e+003 1.493936e+002 4.762525e-004 5.782502e-004 1.938003e-004
<GCONST> 9.226073e+000
<MIXTURE> 11 3.449936e-002
<MEAN> 9
 -7.574312e+000 -1.003622e+001 8.715041e-001 -6.158574e+001 1.077825e+002 -6.063215e+001 3.940356e-003 3.651520e-001 1.683666e-001
<VARIANCE> 9
 3.389126e-001 3.371764e-001 6.976298e-002 2.977951e+001 9.009291e+001 1.750304e+002 4.762525e-004 5.782502e-004 1.938003e-004
<GCONST> 1.114953e+000
<MIXTURE> 12 6.072557e-002
<MEAN> 9
 -7.473917e+000 -1.222487e+001 1.885802e+000 -3.739079e+001 1.100452e+002 -1.563561e+002 3.671764e-002 3.763320e-001 1.587941e-001
<VARIANCE> 9
 2.136359e-001 4.447275e-001 7.838802e-001 4.725698e+001 1.019690e+003 9.012694e+002 5.797963e-004 5.782502e-004 4.041617e-004
<GCONST> 8.808247e+000
<MIXTURE> 13 4.936712e-002
<MEAN> 9
 -1.071320e+001 -1.039176e+001 1.193772e+000 -3.241475e+001 1.165634e+002 -2.607386e+002 2.056059e-001 3.545853e-001 6.728909e-002
<VARIANCE> 9
 7.057527e-001 1.696779e+000 2.539203e-001 2.270964e+002 9.438696e+002 1.459485e+002 2.724540e-003 5.782502e-004 5.361919e-004
<GCONST> 1.171704e+001
<MIXTURE> 14 5.811106e-002
<MEAN> 9
 -5.825419e+000 -1.007878e+001 1.878548e+000 -4.322799e+001 9.030135e+001 -4.181153e+001 -3.317230e-003 3.677911e-001 1.553496e-001
<VARIANCE> 9
 1.491142e-001 4.344116e-001 8.914652e-002 2.977951e+001 2.715282e+003 1.536721e+002 4.762525e-004 5.782502e-004 2.734409e-004
<GCONST> 4.412417e+000
<TRANSP> 8
 0.000000e+000 1.000000e+000 0.000000e+000 0.000000e+000 0.000000e+000 0.000000e+000 0.000000e+000 0.000000e+000
 0.000000e+000 9.310336e-001 6.896643e-002 0.000000e+000 0.000000e+000 0.000000e+000 0.000000e+000 0.000000e+000
 0.000000e+000 0.000000e+000 9.394005e-001 6.059953e-002 0.000000e+000 0.000000e+000 0.000000e+000 0.000000e+000
 0.000000e+000 0.000000e+000 0.000000e+000 9.608983e-001 3.910167e-002 0.000000e+000 0.000000e+000 0.000000e+000
 0.000000e+000 0.000000e+000 0.000000e+000 0.000000e+000 9.793835e-001 2.061658e-002 0.000000e+000 0.000000e+000
 0.000000e+000 0.000000e+000 0.000000e+000 0.000000e+000 0.000000e+000 9.567903e-001 4.320966e-002 0.000000e+000
 0.000000e+000 0.000000e+000 0.000000e+000 0.000000e+000 0.000000e+000 0.000000e+000 9.540017e-001 4.599828e-002
 0.000000e+000 0.000000e+000 0.000000e+000 0.000000e+000 0.000000e+000 0.000000e+000 0.000000e+000 0.000000e+000
<ENDHMM>
~h "GN"
<BEGINHMM>
<NUMSTATES> 8
<STATE> 2
<NUMMIXES> 14
<MIXTURE> 1 7.838974e-002
<MEAN> 9
 -8.981874e+000 -1.145759e+001 5.934576e-001 4.995316e+001 1.186872e+002 2.002469e+002 8.022487e-002 3.734069e-001 1.614826e-001
<VARIANCE> 9
 2.504694e-001 4.182222e-001 1.092344e+000 2.977951e+001 5.425177e+001 2.954195e+003 4.762525e-004 5.782502e-004 1.938003e-004
<GCONST> 6.097747e+000
<MIXTURE> 2 5.776618e-002
<MEAN> 9
 -9.321329e+000 -4.952826e+000 -4.748428e+000 -6.893674e+001 3.204531e+001 2.875734e+002 3.479434e-001 2.912117e-001 1.955350e-001
<VARIANCE> 9
 6.181533e+000 8.056629e-001 2.691273e-001 1.632766e+002 7.840029e+002 1.954291e+002 4.762525e-004 5.782502e-004 4.578636e-004
<GCONST> 1.107485e+001
<MIXTURE> 3 5.877760e-002
<MEAN> 9
 -7.831414e+000 -1.084334e+001 1.385544e+000 2.199200e+001 -5.786388e+001 1.790050e+002 8.333408e-002 3.903022e-001 2.098634e-001
<VARIANCE> 9
 3.673037e-001 3.371764e-001 6.976298e-002 2.977951e+001 5.359814e+002 1.568759e+002 4.762525e-004 5.782502e-004 1.938003e-004
<GCONST> 2.869153e+000
<MIXTURE> 4 9.791626e-002
<MEAN> 9
 -1.066956e+001 -7.021532e+000 -3.279880e+000 -3.407470e+001 3.608939e+001 2.569910e+002 2.905463e-001 3.272674e-001 1.865221e-001
<VARIANCE> 9
 1.491142e-001 3.371764e-001 7.258668e-001 5.157328e+001 2.026724e+002 6.197761e+002 4.762525e-004 5.782502e-004 5.074224e-004
<GCONST> 6.223032e+000
<MIXTURE> 5 5.008806e-002
<MEAN> 9
 -6.709898e+000 -1.206356e+001 3.084315e+000 4.908347e+001 5.582117e+001 1.257198e+002 2.439677e-002 3.686583e-001 1.839749e-001
<VARIANCE> 9
 5.980437e-001 2.011755e+000 2.871102e-001 5.413323e+001 2.699640e+003 2.529901e+003 4.762525e-004 5.782502e-004 1.938003e-004
<GCONST> 1.155243e+001
<MIXTURE> 6 9.814033e-002
<MEAN> 9
 -1.059174e+001 -8.522280e+000 -1.680968e+000 -5.288118e+000 3.869648e+001 2.313627e+002 2.152630e-001 3.607385e-001 1.747433e-001
<VARIANCE> 9
 5.523452e-001 3.371764e-001 4.127705e-001 7.076984e+001 2.624394e+002 1.210095e+002 8.363945e-004 5.782502e-004 3.483651e-004
<GCONST> 6.096447e+000
<MIXTURE> 7 6.565022e-002
<MEAN> 9
 -8.843851e+000 -4.247581e+000 -2.834412e+000 -5.240352e+001 3.603615e+000 2.255945e+002 3.656054e-001 2.696018e-001 1.928596e-001
<VARIANCE> 9
 1.491142e-001 8.325386e-001 6.976298e-002 5.439005e+001 3.680466e+001 1.210095e+002 9.391152e-004 7.031602e-004 1.938003e-004
<GCONST> 1.410417e+000
<MIXTURE> 8 9.783564e-002
<MEAN> 9
 -1.061836e+001 -1.000438e+001 -1.620515e+000 2.573112e+001 6.513073e+001 2.204517e+002 1.432247e-001 3.719960e-001 1.711844e-001
<VARIANCE> 9
 3.257844e-001 3.371764e-001 7.166204e-001 5.813415e+001 2.610707e+003 1.059730e+003 6.508739e-004 5.782502e-004 3.008237e-004
<GCONST> 9.993233e+000
<MIXTURE> 9 3.918742e-002
<MEAN> 9
 -1.199398e+001 -8.861445e+000 -4.506024e+000 -2.134184e-001 1.020427e+002 2.996951e+002 2.109091e-001 3.559091e-001 1.576531e-001
<VARIANCE> 9
 3.849979e-001 3.849979e-001 6.976298e-002 1.941265e+002 2.333069e+002 1.210095e+002 7.438015e-004 5.782502e-004 1.938003e-004
<GCONST> 4.278018e+000
<MIXTURE> 10 8.510706e-002
<MEAN> 9
 -6.772862e+000 -1.157683e+001 2.013604e+000 1.061269e+001 -9.863107e+001 9.829479e+001 -9.741819e-003 3.684900e-001 1.993047e-001
<VARIANCE> 9
 2.599798e-001 3.371764e-001 2.298435e-001 7.159544e+001 3.183415e+002 1.006226e+003 7.194212e-004 5.782502e-004 1.938003e-004
<GCONST> 6.343104e+000
<MIXTURE> 11 7.977661e-002
<MEAN> 9
 -9.708855e+000 -3.895495e+000 -4.630599e+000 -1.100293e+002 1.972740e+001 2.682255e+002 3.949243e-001 2.482978e-001 2.328717e-001
<VARIANCE> 9
 5.565527e+000 1.818207e+000 8.594444e-001 2.155162e+002 1.261818e+003 1.210095e+002 4.762525e-004 5.782502e-004 4.149004e-004
<GCONST> 1.312054e+001
<MIXTURE> 12 8.998449e-002
<MEAN> 9
 -6.890269e+000 -1.108666e+001 2.154479e+000 8.133951e+000 -7.479478e+001 5.659321e+001 -3.566981e-002 3.631507e-001 1.963918e-001
<VARIANCE> 9
 1.491142e-001 3.371764e-001 1.138811e-001 5.534044e+001 1.960776e+002 5.539734e+002 4.762525e-004 5.782502e-004 1.938003e-004
<GCONST> 3.333484e+000
<MIXTURE> 13 5.243492e-002
<MEAN> 9
 -8.853684e+000 -2.705148e+000 -2.822312e+000 -6.709328e+001 -3.553478e+000 2.075321e+002 4.181023e-001 2.110352e-001 2.041766e-001
<VARIANCE> 9
 1.491142e-001 8.590051e-001 6.976298e-002 7.418950e+001 4.135988e+001 1.210095e+002 1.044811e-003 1.243719e-003 1.938003e-004
<GCONST> 2.545770e+000
<MIXTURE> 14 4.894539e-002
<MEAN> 9
 -6.452983e+000 -1.313975e+001 3.110288e+000 4.124261e+001 -2.020350e-001 1.470371e+002 6.595323e-003 3.695312e-001 1.836401e-001
<VARIANCE> 9
 5.934212e-001 1.274216e+000 2.820834e-001 8.772492e+001 3.662006e+003 1.811322e+003 5.009194e-004 5.782502e-004 1.938003e-004
<GCONST> 1.157436e+001
<STATE> 3
<NUMMIXES> 14
<MIXTURE> 1 7.049005e-002
<MEAN> 9
 -8.183339e+000 9.843541e-001 -3.210506e+000 -9.720051e+001 -7.390392e+000 1.495585e+002 4.897788e-001 7.355405e-002 2.339779e-001
<VARIANCE> 9
 1.491142e-001 1.490169e+000 6.976298e-002 2.423258e+002 3.680466e+001 7.104436e+002 4.762525e-004 3.081630e-003 1.938003e-004
<GCONST> 6.055345e+000
<MIXTURE> 2 9.725738e-002
<MEAN> 9
 -1.367020e+001 2.162987e+000 4.362199e+000 9.359750e+001 -4.322460e+001 7.227138e+001 5.305189e-001 -5.272840e-002 2.330828e-001
<VARIANCE> 9
 1.961263e+000 8.874082e-001 1.153732e+000 3.177083e+002 2.884795e+002 1.210095e+002 4.762525e-004 5.782502e-004 1.938003e-004
<GCONST> 9.805911e+000
<MIXTURE> 3 8.135065e-002
<MEAN> 9
 -7.553742e+000 -1.454007e+000 -4.910905e+000 -1.540688e+002 -6.711760e+000 2.343084e+002 4.526082e-001 1.713147e-001 2.664829e-001
<VARIANCE> 9
 7.022999e-001 1.542669e+000 2.781289e+000 3.057904e+002 1.053861e+003 2.839798e+002 4.762525e-004 5.782502e-004 1.938003e-004
<GCONST> 1.232220e+001
<MIXTURE> 4 1.113167e-001
<MEAN> 9
 -8.776769e+000 -4.590150e+000 6.377848e+000 -8.697987e+001 -2.086889e+001 1.176276e+001 5.278326e-001 -1.400092e-002 2.467987e-001
<VARIANCE> 9
 1.502521e+001 3.371764e-001 9.342434e+000 2.506041e+003 3.639299e+002 8.797453e+002 4.762525e-004 5.782502e-004 1.938003e-004
<GCONST> 1.724735e+001
<MIXTURE> 5 6.375223e-002
<MEAN> 9
 -1.046700e+001 2.721482e+000 8.245652e+000 7.810125e+001 2.033050e+001 1.637380e+001 5.122780e-001 -9.562774e-002 7.152794e-002
<VARIANCE> 9
 1.491142e-001 5.340921e-001 1.887154e+000 4.954890e+002 7.089883e+001 2.214056e+002 4.762525e-004 5.782502e-004 1.938003e-004
<GCONST> 6.858779e+000
<MIXTURE> 6 6.058409e-002
<MEAN> 9
 -7.204505e+000 1.796158e-001 2.893771e+000 -1.533229e+002 -7.892288e+001 3.157786e+001 5.161662e-001 -8.993855e-002 1.631788e-001
<VARIANCE> 9
 1.636239e+000 1.759963e+000 1.002198e+001 3.960423e+002 6.233156e+002 6.654819e+002 4.762525e-004 5.782502e-004 2.681753e-003
<GCONST> 1.779410e+001
<MIXTURE> 7 4.168557e-002
<MEAN> 9
 -7.382758e+000 -8.210697e-001 -4.087808e+000 -2.277543e+002 -1.526781e+001 8.420079e+001 5.000226e-001 4.235523e-003 2.782381e-001
<VARIANCE> 9
 6.061977e-001 6.398524e+000 2.621211e+000 3.117932e+003 1.996092e+002 2.826930e+002 4.762525e-004 1.201573e-003 9.523202e-004
<GCONST> 1.651540e+001
<MIXTURE> 8 9.708188e-002
<MEAN> 9
 -1.540519e+001 -1.380747e+000 8.196931e+000 5.046866e+001 1.551435e+001 2.969484e+001 5.227281e-001 -2.831469e-002 2.450536e-001
<VARIANCE> 9
 1.536009e+000 2.115401e+000 1.307062e+000 5.216205e+002 1.752312e+002 2.068422e+002 4.762525e-004 5.782502e-004 1.938003e-004
<GCONST> 1.108836e+001
<MIXTURE> 9 8.517278e-002
<MEAN> 9
 -3.540807e+000 -1.949876e+000 -2.680675e+000 -1.823952e+002 -6.950367e+001 1.673132e+002 5.002732e-001 8.047900e-002 2.786692e-001
<VARIANCE> 9
 5.336718e+000 2.555625e+000 8.522854e+000 7.370514e+002 1.764603e+003 1.002566e+003 4.762525e-004 8.667373e-004 1.938003e-004
<GCONST> 1.903619e+001
<MIXTURE> 10 5.515055e-002
<MEAN> 9
 -9.821524e+000 -7.114900e+000 9.379056e+000 -1.765099e+002 -7.529683e+001 -3.026092e+000 5.104960e-001 -2.661681e-002 2.649413e-001
<VARIANCE> 9
 3.445845e+000 3.371764e-001 4.165536e+000 4.023473e+003 4.139407e+001 1.210095e+002 4.762525e-004 5.782502e-004 1.938003e-004
<GCONST> 1.128292e+001
<MIXTURE> 11 2.872052e-002
<MEAN> 9
 -5.953341e+000 -6.210773e+000 1.348009e+000 -2.874998e+002 -8.050504e+001 2.305808e+001 5.047875e-001 -1.500767e-003 2.924615e-001
<VARIANCE> 9
 3.378958e-001 8.203530e-001 2.238049e+000 2.741914e+002 1.021604e+002 1.424053e+002 4.762525e-004 5.782502e-004 3.016745e-004
<GCONST> 8.051280e+000
<MIXTURE> 12 7.532728e-002
<MEAN> 9
 -8.951301e+000 -1.655224e-001 1.017270e+001 -3.425219e+001 -1.647872e+001 -1.284514e+001 5.137869e-001 -8.575714e-002 7.156777e-002
<VARIANCE> 9
 1.213252e+000 1.097638e+000 3.663065e-001 1.891741e+003 1.262415e+002 1.210095e+002 4.762525e-004 5.782502e-004 1.938003e-004
<GCONST> 9.348643e+000
<MIXTURE> 13 6.799979e-002
<MEAN> 9
 -8.190141e+000 1.838866e+000 -3.162079e+000 -1.113962e+002 -8.803025e+000 1.264807e+002 5.002400e-001 3.192209e-002 2.388355e-001
<VARIANCE> 9
 1.491142e-001 1.657019e+000 6.976298e-002 3.981490e+002 3.680466e+001 1.043148e+003 4.762525e-004 3.768048e-003 1.938003e-004
<GCONST> 7.243226e+000
<MIXTURE> 14 6.411047e-002
<MEAN> 9
 -6.945883e+000 -1.870517e-001 3.542162e+000 -1.573070e+002 -8.524597e+001 2.626635e+001 5.175236e-001 -9.385803e-002 1.530657e-001
<VARIANCE> 9
 1.177835e+000 1.202405e+000 6.840611e+000 3.447573e+002 5.731364e+002 4.309741e+002 4.762525e-004 5.782502e-004 1.696965e-003
<GCONST> 1.558780e+001
<STATE> 4
<NUMMIXES> 14
<MIXTURE> 1 7.047908e-002
<MEAN> 9
 -9.287361e+000 4.449046e+000 3.193146e+000 1.229694e+002 6.142793e+001 7.703199e+001 5.084944e-001 -1.346082e-001 1.184343e-001
<VARIANCE> 9
 2.651027e-001 3.371764e-001 1.646604e+000 2.977951e+001 1.338540e+002 3.651136e+002 4.762525e-004 8.768704e-004 3.942165e-004
<GCONST> 6.288277e+000
<MIXTURE> 2 7.975844e-002
<MEAN> 9
 -3.959107e+000 5.602970e+000 -5.286545e-002 5.598577e+001 -2.828005e+000 6.011310e+001 4.743931e-001 -2.497558e-001 1.304412e-001
<VARIANCE> 9
 1.636000e-001 3.371764e-001 6.976298e-002 3.108483e+002 3.680466e+001 1.210095e+002 4.762525e-004 5.782502e-004 1.938003e-004
<GCONST> 1.467814e+000
<MIXTURE> 3 5.390958e-002
<MEAN> 9
 -2.073844e+000 5.353381e+000 2.378822e-001 -4.816949e+001 -6.989890e+001 -7.564815e+001 4.415619e-001 -2.921498e-001 1.529715e-001
<VARIANCE> 9
 3.372277e-001 5.249181e-001 3.467180e-001 5.014377e+001 6.073990e+002 1.796911e+002 4.762525e-004 7.576348e-004 6.262996e-004
<GCONST> 7.054904e+000
<MIXTURE> 4 5.726232e-002
<MEAN> 9
 -5.409487e+000 5.468571e+000 -1.021783e+000 8.338479e+001 3.375957e+001 1.270393e+002 4.601431e-001 -2.530800e-001 2.143560e-001
<VARIANCE> 9
 7.502596e-001 3.371764e-001 1.460959e-001 1.806844e+002 1.854442e+002 1.210095e+002 4.762525e-004 5.782502e-004 3.468455e-004
<GCONST> 5.386593e+000
<MIXTURE> 5 8.574499e-002
<MEAN> 9
 -7.105912e+000 4.560791e+000 -3.446692e-001 1.131679e+002 -2.581896e+001 1.278561e+002 5.038340e-001 -1.769072e-001 1.597944e-001
<VARIANCE> 9
 9.258084e-001 3.371764e-001 5.566815e-001 2.977951e+001 4.559564e+003 3.407754e+002 4.762525e-004 5.782502e-004 1.938003e-004
<GCONST> 8.787173e+000
<MIXTURE> 6 9.517886e-002
<MEAN> 9
 -1.455365e+000 5.564887e+000 -1.654571e+000 3.167032e+001 -1.685773e+001 7.025710e+001 4.194723e-001 -3.125093e-001 2.212865e-001
<VARIANCE> 9
 2.285466e+000 1.837773e+000 3.063640e-001 2.636250e+002 1.456513e+002 6.496233e+002 4.762525e-004 5.782502e-004 5.898311e-004
<GCONST> 1.128443e+001
<MIXTURE> 7 9.917377e-002
<MEAN> 9
 -1.702684e+000 4.577309e+000 1.667113e+000 -9.736582e+001 -9.983752e+001 -1.636714e+002 4.739040e-001 -2.232277e-001 8.467214e-002
<VARIANCE> 9
 1.901317e+000 6.761608e-001 1.028762e+000 1.792093e+002 5.049622e+002 3.427233e+002 4.762525e-004 6.758713e-004 3.190128e-004
<GCONST> 1.107108e+001
<MIXTURE> 8 7.143296e-002
<MEAN> 9
 -1.461069e+000 2.968750e+000 -2.546932e+000 9.399921e+001 -7.397564e-001 1.405972e+002 4.560108e-001 -2.721674e-001 1.755023e-001
<VARIANCE> 9
 1.707659e+000 3.371764e-001 1.240982e-001 3.193813e+002 1.206052e+002 2.612128e+002 4.762525e-004 7.275978e-004 1.938003e-004
<GCONST> 6.602423e+000
<MIXTURE> 9 5.033229e-002
<MEAN> 9
 -1.058739e+001 3.623492e+000 1.377748e+000 1.112091e+002 -7.751337e+001 9.645666e+001 5.263554e-001 -9.628987e-002 1.925277e-001
<VARIANCE> 9
 1.827005e+000 4.845379e-001 1.266026e+000 1.712127e+002 1.721214e+002 1.210095e+002 4.762525e-004 5.782502e-004 1.938003e-004
<GCONST> 8.088122e+000
<MIXTURE> 10 7.765012e-002
<MEAN> 9
 -2.258295e+000 5.818672e+000 3.125689e-001 -6.385188e+000 -7.556287e+000 1.399964e+000 4.578581e-001 -2.699528e-001 1.386060e-001
<VARIANCE> 9
 1.631688e-001 3.371764e-001 6.976298e-002 3.223467e+002 3.680466e+001 8.394370e+002 4.762525e-004 5.782502e-004 1.938003e-004
<GCONST> 3.438357e+000
<MIXTURE> 11 7.110107e-002
<MEAN> 9
 -5.183647e+000 4.858042e+000 1.621261e-002 9.878773e+001 -6.359260e+001 8.544602e+001 5.055677e-001 -1.852372e-001 1.236379e-001
<VARIANCE> 9
 3.154848e-001 3.371764e-001 1.092658e-001 2.977951e+001 9.990193e+002 1.210095e+002 4.762525e-004 5.782502e-004 1.938003e-004
<GCONST> 3.528842e+000
<MIXTURE> 12 7.614455e-002
<MEAN> 9
 -1.060724e+000 5.795050e+000 -1.032604e+000 -1.416936e+001 -6.175132e+001 -1.034610e+001 4.144700e-001 -3.164934e-001 2.049837e-001
<VARIANCE> 9
 1.113342e+000 1.584448e+000 3.238274e-001 1.815758e+002 1.661008e+002 4.398121e+002 4.762525e-004 5.782502e-004 4.994122e-004
<GCONST> 9.674423e+000
<MIXTURE> 13 6.079529e-002
<MEAN> 9
 -2.141527e+000 5.209488e+000 6.263303e-001 -6.152427e+001 -8.788079e+001 -1.048839e+002 4.454350e-001 -2.805052e-001 1.309070e-001
<VARIANCE> 9
 2.385809e-001 4.252099e-001 3.058273e-001 8.260145e+001 3.613683e+002 2.218259e+002 4.762525e-004 5.782502e-004 4.121804e-004
<GCONST> 5.874642e+000
<MIXTURE> 14 5.103660e-002
<MEAN> 9
 -1.068586e+001 4.000977e+000 1.404945e+000 1.056611e+002 -8.522183e+001 1.013561e+002 5.228782e-001 -1.074410e-001 1.855584e-001
<VARIANCE> 9
 2.526403e+000 3.726355e-001 1.862444e+000 1.656918e+002 1.484111e+002 1.480459e+002 4.762525e-004 5.782502e-004 2.097858e-004
<GCONST> 8.635573e+000
<STATE> 5
<NUMMIXES> 14
<MIXTURE> 1 6.835691e-002
<MEAN> 9
 -3.736277e+000 6.017445e-001 2.610474e+000 2.132358e+001 2.928670e+000 -2.165986e+001 4.876325e-001 2.668959e-002 2.911006e-003
<VARIANCE> 9
 2.864727e-001 3.371764e-001 2.139325e-001 2.977951e+001 2.739745e+002 1.299536e+002 4.762525e-004 2.490294e-003 1.938003e-004
<GCONST> 4.341969e+000
<MIXTURE> 2 6.954584e-002
<MEAN> 9
 -1.099027e+001 2.216599e+000 7.548386e+000 -8.821394e+000 8.882873e+000 -4.879530e+001 4.893656e-001 9.691571e-003 -4.937207e-003
<VARIANCE> 9
 8.801769e-001 2.331535e+000 4.842336e-001 1.287819e+002 2.197167e+002 3.391090e+002 4.762525e-004 2.926461e-003 1.938003e-004
<GCONST> 1.057917e+001
<MIXTURE> 3 5.908294e-002
<MEAN> 9
 -6.343121e+000 -1.981219e+000 5.180762e+000 4.383029e+001 1.424915e+001 2.974823e+001 4.598861e-001 1.476650e-001 -9.803459e-003
<VARIANCE> 9
 4.493657e+000 3.371764e-001 2.580652e+000 3.467749e+001 3.680466e+001 1.210095e+002 4.762525e-004 5.782502e-004 1.938003e-004
<GCONST> 6.198291e+000
<MIXTURE> 4 5.432440e-002
<MEAN> 9
 -8.263874e+000 3.425344e+000 7.185560e+000 -1.168479e+002 -6.407342e+001 -1.999567e+002 4.970746e-001 -6.510889e-002 7.967485e-003
<VARIANCE> 9
 3.297732e-001 1.365745e+000 5.147524e-001 4.005978e+001 3.680466e+001 1.210095e+002 4.762525e-004 2.894015e-003 1.938003e-004
<GCONST> 5.127688e+000
<MIXTURE> 5 7.785349e-002
<MEAN> 9
 -3.795012e+000 4.963265e-001 1.501105e+000 1.539317e+001 3.448475e+001 -9.689702e+001 5.036821e-001 5.277772e-003 3.801549e-002
<VARIANCE> 9
 4.090368e-001 3.371764e-001 1.567357e-001 3.197824e+001 3.680466e+001 1.219885e+003 4.762525e-004 5.782502e-004 1.938003e-004
<GCONST> 3.230044e+000
<MIXTURE> 6 9.296511e-002
<MEAN> 9
 -1.184331e+001 -3.161767e+000 1.080026e+001 -4.039873e+001 5.871516e+000 -6.280270e+001 4.432471e-001 1.707793e-001 -1.530576e-002
<VARIANCE> 9
 1.379964e+000 3.371764e-001 2.651835e+000 4.807533e+003 1.272423e+003 4.872523e+003 4.762525e-004 5.782502e-004 1.938003e-004
<GCONST> 1.721529e+001
<MIXTURE> 7 6.013115e-002
<MEAN> 9
 -7.852933e+000 3.552641e-001 5.456552e+000 2.457336e+001 1.312008e+001 4.522286e+000 4.769693e-001 6.668107e-002 -6.595677e-003
<VARIANCE> 9
 3.462291e+000 3.371764e-001 1.311392e+000 2.977951e+001 5.043680e+001 1.210095e+002 4.762525e-004 5.782502e-004 1.938003e-004
<GCONST> 5.423427e+000
<MIXTURE> 8 1.100277e-001
<MEAN> 9
 -3.708413e+000 -5.476881e-001 1.837087e+000 4.324687e+000 3.539024e+001 -5.525318e+001 4.704579e-001 1.155359e-001 -6.983491e-004
<VARIANCE> 9
 5.026761e-001 3.371764e-001 6.976298e-002 3.050243e+002 3.547599e+002 1.450755e+003 4.762525e-004 5.782502e-004 1.938003e-004
<GCONST> 7.321206e+000
<MIXTURE> 9 6.639839e-002
<MEAN> 9
 -6.711059e+000 -9.952894e-001 7.084587e+000 -1.925256e+002 -9.347523e+001 -2.489880e+002 4.914538e-001 1.642267e-003 -1.632816e-002
<VARIANCE> 9
 7.182771e+000 1.956323e+000 8.642863e+000 1.896402e+002 3.680466e+001 3.150560e+002 4.762525e-004 4.911175e-003 3.002598e-004
<GCONST> 1.486722e+001
<MIXTURE> 10 6.892745e-002
<MEAN> 9
 -7.103658e+000 2.066300e+000 4.864258e+000 1.301317e+001 2.621777e+000 -6.080406e+000 4.979909e-001 -3.533095e-002 1.793684e-003
<VARIANCE> 9
 1.934106e+000 3.617254e-001 8.130954e-001 2.977951e+001 4.453508e+001 1.210095e+002 4.762525e-004 5.782502e-004 1.938003e-004
<GCONST> 4.308978e+000
<MIXTURE> 11 8.603983e-002
<MEAN> 9
 -1.128615e+001 2.689841e+000 8.803864e+000 -7.059054e+001 -2.094136e+001 -1.330411e+002 4.878691e-001 -2.629884e-002 -5.554695e-003
<VARIANCE> 9
 4.328943e-001 2.627086e+000 3.003466e-001 4.934710e+002 9.625988e+001 9.523118e+002 4.762525e-004 3.712658e-003 1.938003e-004
<GCONST> 1.129984e+001
<MIXTURE> 12 6.560674e-002
<MEAN> 9
 -4.861772e+000 3.738980e+000 4.357363e+000 -1.262435e+002 -9.210459e+001 -2.090021e+002 4.879825e-001 -1.591010e-001 3.697877e-002
<VARIANCE> 9
 2.027570e+000 1.094450e+000 3.472208e+000 1.550227e+002 2.038675e+002 1.210095e+002 4.762525e-004 7.827432e-004 1.938003e-004
<GCONST> 1.038873e+001
<MIXTURE> 13 6.073302e-002
<MEAN> 9
 -7.251921e+000 2.963140e-001 5.095851e+000 2.476991e+001 1.235545e+001 4.672287e+000 4.774895e-001 6.378762e-002 -5.401650e-003
<VARIANCE> 9
 3.118010e+000 3.371764e-001 1.220481e+000 2.977951e+001 4.227788e+001 1.210095e+002 4.762525e-004 5.782502e-004 1.938003e-004
<GCONST> 5.070392e+000
<MIXTURE> 14 6.000702e-002
<MEAN> 9
 -6.192015e+000 -1.960137e+000 5.086050e+000 4.248448e+001 1.341030e+001 2.892786e+001 4.584571e-001 1.441486e-001 -1.005062e-002
<VARIANCE> 9
 4.123002e+000 3.371764e-001 2.456370e+000 3.297266e+001 3.680466e+001 1.210095e+002 4.762525e-004 5.782502e-004 1.938003e-004
<GCONST> 6.012435e+000
<STATE> 6
<NUMMIXES> 14
<MIXTURE> 1 6.155057e-002
<MEAN> 9
 -7.433129e+000 -1.186411e+001 4.873744e+000 -3.133313e+001 4.450259e+001 -1.235560e+002 1.603326e-001 3.632930e-001 2.131164e-001
<VARIANCE> 9
 1.491142e-001 3.371764e-001 6.976298e-002 1.829210e+002 1.889413e+002 1.210095e+002 4.762525e-004 5.782502e-004 1.938003e-004
<GCONST> 2.480659e+000
<MIXTURE> 2 7.952002e-002
<MEAN> 9
 -7.388554e+000 -3.219885e+000 2.662644e+000 5.015315e+000 8.124991e+001 -1.444514e+002 4.354543e-001 2.122729e-001 8.826542e-002
<VARIANCE> 9
 2.113813e-001 3.371764e-001 5.468889e-001 3.416740e+001 3.051310e+002 1.596261e+002 4.762525e-004 5.782502e-004 1.938003e-004
<GCONST> 3.967242e+000
<MIXTURE> 3 9.383465e-002
<MEAN> 9
 -5.636725e+000 -1.150568e+000 1.700549e+000 -4.085089e+000 7.637920e+001 -1.294327e+002 4.835176e-001 1.258298e-001 4.933251e-002
<VARIANCE> 9
 7.886189e-001 3.371764e-001 1.052861e+000 2.977951e+001 2.263933e+002 1.412449e+003 4.762525e-004 1.686732e-003 2.453485e-004
<GCONST> 8.989602e+000
<MIXTURE> 4 4.490572e-002
<MEAN> 9
 -9.626056e+000 -7.609168e+000 3.278356e+000 2.676332e+000 5.673609e+001 -1.781912e+002 3.012612e-001 3.287410e-001 1.317326e-001
<VARIANCE> 9
 1.491142e-001 3.371764e-001 1.200635e-001 6.751516e+002 3.680466e+001 1.210095e+002 4.762525e-004 5.782502e-004 1.938003e-004
<GCONST> 2.693648e+000
<MIXTURE> 5 9.462966e-002
<MEAN> 9
 -9.068573e+000 -7.212083e+000 4.489114e+000 -6.505235e+001 9.149966e+000 -2.009806e+002 3.433905e-001 2.973576e-001 1.079152e-001
<VARIANCE> 9
 3.867730e-001 6.931297e-001 6.976298e-002 3.334607e+002 9.860449e+002 8.009148e+002 4.762525e-004 5.782502e-004 1.938003e-004
<GCONST> 8.297019e+000
<MIXTURE> 6 5.483713e-002
<MEAN> 9
 -9.943962e+000 -9.696362e+000 2.636338e+000 -4.540646e+000 6.934268e+001 -1.703111e+002 2.253881e-001 3.596416e-001 1.540065e-001
<VARIANCE> 9
 4.169029e-001 4.564437e-001 1.078155e-001 8.074633e+002 1.385291e+002 1.210095e+002 1.086095e-003 5.782502e-004 1.938003e-004
<GCONST> 6.245862e+000
<MIXTURE> 7 7.952172e-002
<MEAN> 9
 -1.028011e+001 -5.704837e+000 2.003025e+000 1.647860e+001 5.655503e+001 -1.791311e+002 3.679539e-001 2.877278e-001 1.234695e-001
<VARIANCE> 9
 6.376398e-001 7.058222e-001 1.759740e-001 2.977951e+001 1.127922e+003 1.210095e+002 5.047396e-004 5.782502e-004 1.938003e-004
<GCONST> 5.627269e+000
<MIXTURE> 8 9.968280e-002
<MEAN> 9
 -9.536597e+000 -4.664775e+000 2.315214e+000 -4.853064e+001 5.235015e+000 -1.986035e+002 3.973652e-001 2.400531e-001 8.216514e-002
<VARIANCE> 9
 5.374507e-001 3.371764e-001 5.906765e-001 2.001657e+002 4.011644e+002 8.106068e+002 4.762525e-004 5.782502e-004 1.938003e-004
<GCONST> 8.643893e+000
<MIXTURE> 9 9.911612e-002
<MEAN> 9
 -8.097820e+000 -2.475976e+000 9.991331e-001 -1.982680e+001 1.941519e+001 -2.006945e+002 4.573512e-001 1.626356e-001 8.089253e-002
<VARIANCE> 9
 1.491142e-001 1.265052e+000 6.976298e-002 1.882288e+002 4.001414e+002 4.080531e+002 4.762525e-004 9.492650e-004 1.940118e-004
<GCONST> 6.294210e+000
<MIXTURE> 10 7.953501e-002
<MEAN> 9
 -1.018614e+001 -1.065688e+001 2.912691e+000 -2.088263e+001 5.600873e+001 -2.254508e+002 2.258932e-001 3.509148e-001 1.520448e-001
<VARIANCE> 9
 1.740882e+000 8.739775e-001 6.976298e-002 2.977951e+001 4.076998e+002 1.210095e+002 1.682427e-003 5.782502e-004 1.938003e-004
<GCONST> 6.106450e+000
<MIXTURE> 11 4.076898e-002
<MEAN> 9
 -9.980034e+000 -8.971354e+000 3.678209e+000 -5.627110e+001 9.386122e+001 -2.023211e+002 2.986586e-001 3.371325e-001 1.407181e-001
<VARIANCE> 9
 1.491142e-001 3.371764e-001 6.976298e-002 6.379413e+002 2.395498e+002 8.391137e+002 4.762525e-004 5.782502e-004 1.993367e-004
<GCONST> 5.931822e+000
<MIXTURE> 12 5.983591e-002
<MEAN> 9
 -5.798643e+000 -2.131852e+000 1.738847e+000 -3.567184e+001 5.126877e+001 -1.407822e+002 4.492676e-001 1.503340e-001 2.766071e-002
<VARIANCE> 9
 1.491142e-001 3.371764e-001 6.976298e-002 2.977951e+001 3.680466e+001 1.210095e+002 4.762525e-004 5.782502e-004 1.938003e-004
<GCONST> -9.703841e-001
<MIXTURE> 13 5.771009e-002
<MEAN> 9
 -9.052169e+000 -1.030681e+001 4.275869e+000 -6.467368e+001 2.221632e+001 -1.494041e+002 2.194378e-001 3.492883e-001 1.881251e-001
<VARIANCE> 9
 1.367808e+000 3.371764e-001 1.088711e-001 2.977951e+001 2.227084e+002 1.210095e+002 4.762525e-004 5.782502e-004 1.938003e-004
<GCONST> 3.491168e+000
<MIXTURE> 14 5.455156e-002
<MEAN> 9
 -1.000594e+001 -9.951580e+000 2.701651e+000 -1.144546e+001 6.834018e+001 -1.689560e+002 2.213869e-001 3.593588e-001 1.549559e-001
<VARIANCE> 9
 5.173595e-001 4.482620e-001 1.260965e-001 1.100918e+003 1.364346e+002 1.210095e+002 1.276421e-003 5.782502e-004 1.938003e-004
<GCONST> 7.056523e+000
<STATE> 7
<NUMMIXES> 14
<MIXTURE> 1 2.842762e-002
<MEAN> 9
 8.554217e-001 -1.110843e+001 8.024096e+000 -5.975610e+000 1.836585e+002 -3.750000e+001 1.181818e-002 3.772727e-001 1.989796e-001
<VARIANCE> 9
 1.491142e-001 3.371764e-001 6.976298e-002 2.977951e+001 3.680466e+001 1.210095e+002 4.762525e-004 5.782502e-004 1.938003e-004
<GCONST> -9.703841e-001
<MIXTURE> 2 1.043961e-001
<MEAN> 9
 -4.021995e+000 -1.057311e+001 2.849573e+000 -8.439707e+000 8.229167e+001 -2.701309e+001 -5.284429e-002 3.539174e-001 1.982878e-001
<VARIANCE> 9
 2.051882e-001 3.371764e-001 1.639568e-001 2.977951e+001 1.342094e+002 1.210095e+002 4.762525e-004 5.782502e-004 1.938003e-004
<GCONST> 1.497108e+000
<MIXTURE> 3 6.995994e-002
<MEAN> 9
 -7.139669e+000 -1.047949e+001 2.632420e+000 -8.294518e+000 5.201805e+001 -1.456799e+002 1.365367e-001 3.889591e-001 1.663082e-001
<VARIANCE> 9
 3.402043e-001 3.371764e-001 6.976298e-002 2.977951e+001 2.344637e+002 1.210095e+002 4.762525e-004 5.782502e-004 1.938003e-004
<GCONST> 1.706126e+000
<MIXTURE> 4 5.685524e-002
<MEAN> 9
 -8.536145e+000 -9.506023e+000 2.102409e+000 3.478659e+001 2.803963e+002 -3.871951e+001 -4.545455e-003 3.663636e-001 1.801020e-001
<VARIANCE> 9
 2.704638e+000 8.165192e-001 1.215307e+000 2.977951e+001 1.459333e+003 1.210095e+002 4.762525e-004 5.782502e-004 1.938003e-004
<GCONST> 9.349826e+000
<MIXTURE> 5 5.989374e-002
<MEAN> 9
 -7.111648e+000 -1.247565e+001 2.581491e+000 -1.407403e+001 8.840980e+001 -1.975594e+002 1.215500e-001 3.771752e-001 1.770930e-001
<VARIANCE> 9
 1.491142e-001 3.371764e-001 4.670787e-001 2.977951e+001 1.339933e+002 1.556611e+002 7.744710e-004 5.782502e-004 1.938003e-004
<GCONST> 2.961219e+000
<MIXTURE> 6 5.840414e-002
<MEAN> 9
 -3.634164e+000 -1.117564e+001 2.823741e+000 -2.363542e+001 6.892953e+001 -5.189001e+001 -1.605002e-002 3.649740e-001 1.991871e-001
<VARIANCE> 9
 1.002825e+000 3.371764e-001 3.104096e+000 2.977951e+001 1.563964e+002 1.340872e+002 4.923642e-004 5.782502e-004 1.938003e-004
<GCONST> 6.313518e+000
<MIXTURE> 7 8.516790e-002
<MEAN> 9
 -5.611533e+000 -1.093236e+001 2.056971e+000 -2.570982e+001 4.087032e+001 -6.758749e+001 2.941397e-002 3.788037e-001 1.901346e-001
<VARIANCE> 9
 3.538232e-001 3.371764e-001 1.469260e-001 2.977951e+001 3.680466e+001 1.806760e+002 4.762525e-004 5.782502e-004 1.938003e-004
<GCONST> 1.039363e+000
<MIXTURE> 8 7.219191e-002
<MEAN> 9
 -6.009887e+000 -1.002927e+001 2.915751e+000 2.517188e+001 1.067700e+002 -6.521410e+001 8.892496e-002 3.726576e-001 2.175240e-001
<VARIANCE> 9
 1.491142e-001 3.371764e-001 2.787718e-001 2.977951e+001 7.514246e+001 1.210095e+002 4.762525e-004 5.782502e-004 1.938003e-004
<GCONST> 1.128665e+000
<MIXTURE> 9 1.114192e-001
<MEAN> 9
 -5.717506e+000 -1.118886e+001 1.737760e+000 -2.311645e+001 6.618547e+001 -1.003510e+002 1.234015e-002 3.672674e-001 1.920570e-001
<VARIANCE> 9
 6.206584e-001 3.371764e-001 6.976298e-002 2.977951e+001 3.680466e+001 2.013400e+002 4.762525e-004 5.782502e-004 1.938003e-004
<GCONST> 9.648104e-001
<MIXTURE> 10 5.685213e-002
<MEAN> 9
 -6.656623e+000 -1.088553e+001 4.662646e+000 8.872050e+000 7.643307e+001 -8.948154e+001 1.236363e-001 3.918184e-001 2.255103e-001
<VARIANCE> 9
 1.491142e-001 3.371764e-001 7.678908e-002 2.977951e+001 6.331890e+001 1.210095e+002 4.762525e-004 5.782502e-004 1.938003e-004
<GCONST> -3.318682e-001
<MIXTURE> 11 8.432949e-002
<MEAN> 9
 -7.353855e+000 -1.105359e+001 2.173189e+000 -1.378180e+001 9.108846e+001 -1.219617e+002 8.640760e-002 3.807977e-001 1.809332e-001
<VARIANCE> 9
 1.491142e-001 3.371764e-001 7.326683e-002 2.977951e+001 3.680466e+001 1.210095e+002 4.762525e-004 5.782502e-004 1.938003e-004
<GCONST> -9.213805e-001
<MIXTURE> 12 8.217841e-002
<MEAN> 9
 -7.160578e+000 -1.256964e+001 1.447171e+000 -1.151879e+001 8.539884e+001 -1.663453e+002 6.859652e-002 3.754564e-001 1.817602e-001
<VARIANCE> 9
 1.491142e-001 3.371764e-001 8.269367e-002 2.977951e+001 1.757861e+002 3.125480e+002 4.762525e-004 5.782502e-004 1.938003e-004
<GCONST> 1.712188e+000
<MIXTURE> 13 6.994189e-002
<MEAN> 9
 -6.028969e+000 -1.020483e+001 2.372028e+000 2.172477e+001 1.024791e+002 -5.756728e+001 7.300483e-002 3.757551e-001 2.146758e-001
<VARIANCE> 9
 1.491142e-001 3.371764e-001 1.225087e-001 2.977951e+001 1.068658e+002 1.210095e+002 4.762525e-004 5.782502e-004 1.938003e-004
<GCONST> 6.586409e-001
<MIXTURE> 14 5.998237e-002
<MEAN> 9
 -4.098252e+000 -1.120424e+001 1.970967e+000 -2.314926e+001 7.419884e+001 -6.022708e+001 -2.576420e-002 3.636919e-001 1.996354e-001
<VARIANCE> 9
 4.899218e-001 3.371764e-001 1.281584e+000 2.977951e+001 6.720161e+001 1.210095e+002 4.762525e-004 5.782502e-004 1.938003e-004
<GCONST> 3.731971e+000
<TRANSP> 8
 0.000000e+000 1.000000e+000 0.000000e+000 0.000000e+000 0.000000e+000 0.000000e+000 0.000000e+000 0.000000e+000
 0.000000e+000 9.412185e-001 5.878151e-002 0.000000e+000 0.000000e+000 0.000000e+000 0.000000e+000 0.000000e+000
 0.000000e+000 0.000000e+000 9.583110e-001 4.168897e-002 0.000000e+000 0.000000e+000 0.000000e+000 0.000000e+000
 0.000000e+000 0.000000e+000 0.000000e+000 9.571195e-001 4.288052e-002 0.000000e+000 0.000000e+000 0.000000e+000
 0.000000e+000 0.000000e+000 0.000000e+000 0.000000e+000 9.601597e-001 3.984027e-002 0.000000e+000 0.000000e+000
 0.000000e+000 0.000000e+000 0.000000e+000 0.000000e+000 0.000000e+000 9.403608e-001 5.963924e-002 0.000000e+000
 0.000000e+000 0.000000e+000 0.000000e+000 0.000000e+000 0.000000e+000 0.000000e+000 9.147196e-001 8.528046e-002
 0.000000e+000 0.000000e+000 0.000000e+000 0.000000e+000 0.000000e+000 0.000000e+000 0.000000e+000 0.000000e+000
<ENDHMM>
~h "HE"
<BEGINHMM>
<NUMSTATES> 8
<STATE> 2
<NUMMIXES> 14
<MIXTURE> 1 5.379757e-002
<MEAN> 9
 -1.019036e+001 -1.359036e+001 9.662651e+000 1.793171e+002 1.843049e+002 1.085853e+002 5.018181e-002 3.601818e-001 1.179592e-001
<VARIANCE> 9
 8.497104e+000 9.738420e-001 7.851348e-001 1.251621e+003 6.601272e+002 2.172013e+003 6.817848e-004 5.782502e-004 1.670386e-003
<GCONST> 1.857925e+001
<MIXTURE> 2 5.569015e-002
<MEAN> 9
 -1.096188e+001 -6.541695e+000 3.571646e+000 1.853676e+002 -6.811381e+000 2.053745e+002 3.177696e-001 2.586910e-001 -1.137629e-002
<VARIANCE> 9
 2.724645e-001 3.058095e+000 4.784294e+000 3.525791e+003 8.814746e+001 1.210095e+002 1.020169e-003 1.982999e-003 1.699785e-003
<GCONST> 1.587833e+001
<MIXTURE> 3 9.027663e-002
<MEAN> 9
 -1.025762e+001 -2.597895e+000 -6.976151e-001 8.315786e+001 -2.108077e+001 1.966751e+002 4.396165e-001 5.308475e-002 -6.006904e-002
<VARIANCE> 9
 1.491142e-001 2.260910e+000 2.529004e-001 1.260190e+002 2.246432e+002 1.210095e+002 4.762525e-004 5.706056e-003 2.891077e-004
<GCONST> 8.161170e+000
<MIXTURE> 4 1.015751e-001
<MEAN> 9
 -1.040513e+001 -9.625659e+000 3.551185e+000 1.164212e+002 3.296090e+001 2.042060e+002 1.933515e-001 3.456250e-001 7.965814e-002
<VARIANCE> 9
 7.858424e-001 7.468967e-001 3.799568e+000 1.506000e+003 6.081266e+002 1.503575e+002 2.081427e-003 5.782502e-004 4.105568e-004
<GCONST> 1.465536e+001
<MIXTURE> 5 8.740578e-002
<MEAN> 9
 -9.874143e+000 -2.490621e+000 -1.885023e+000 3.365829e+001 -1.272867e+002 2.537971e+002 4.068989e-001 -1.152322e-001 -1.332954e-001
<VARIANCE> 9
 9.608841e-001 8.813037e+000 8.955262e-001 8.638926e+002 5.270521e+002 3.199001e+003 5.019613e-004 2.027213e-003 4.816431e-004
<GCONST> 1.822983e+001
<MIXTURE> 6 7.631091e-002
<MEAN> 9
 -1.395344e+001 -8.061354e+000 2.341685e+000 2.094596e+002 3.524266e+001 2.603586e+002 3.329073e-001 1.847475e-001 -8.303756e-002
<VARIANCE> 9
 1.887664e+000 3.860139e+001 1.491195e+000 5.666432e+002 9.877602e+002 2.471373e+003 3.448944e-003 7.964326e-003 1.605968e-003
<GCONST> 2.534030e+001
<MIXTURE> 7 8.092704e-002
<MEAN> 9
 -9.983720e+000 -1.108223e+001 5.514843e+000 1.025266e+002 5.554109e+001 1.649243e+002 1.109267e-001 3.699388e-001 1.359764e-001
<VARIANCE> 9
 3.479222e+000 3.520993e-001 4.496422e-001 5.812766e+002 4.277787e+003 5.174868e+002 1.033543e-003 5.782502e-004 1.349707e-003
<GCONST> 1.598182e+001
<MIXTURE> 8 5.393876e-002
<MEAN> 9
 -1.183406e+001 -6.082280e+000 -1.843254e+000 1.278873e+002 -4.893345e+001 3.004210e+002 4.092295e-001 2.483619e-002 -1.224740e-001
<VARIANCE> 9
 3.386120e-001 1.726443e+001 9.202656e-001 5.065444e+002 4.326753e+002 2.945295e+003 4.762525e-004 4.808486e-003 3.130598e-004
<GCONST> 1.745306e+001
<MIXTURE> 9 6.489829e-002
<MEAN> 9
 -1.458151e+001 -1.245110e+001 3.906335e+000 1.928312e+002 8.568964e+001 2.491048e+002 1.991832e-001 3.305211e-001 1.071955e-002
<VARIANCE> 9
 1.600486e+000 6.152017e+000 2.845087e+000 1.095751e+003 1.754070e+003 2.743966e+002 1.732352e-003 5.782502e-004 4.599715e-004
<GCONST> 1.845891e+001
<MIXTURE> 10 8.481968e-002
<MEAN> 9
 -8.399579e+000 -3.196020e+000 -1.976663e+000 1.535792e+001 -1.699697e+002 3.045280e+002 3.420437e-001 -1.806050e-001 -1.849163e-001
<VARIANCE> 9
 1.361481e+000 7.505951e+000 1.548810e+000 7.151412e+002 4.074649e+002 1.527128e+003 4.762525e-004 8.149327e-004 3.253796e-004
<GCONST> 1.642374e+001
<MIXTURE> 11 7.377968e-002
<MEAN> 9
 -9.027114e+000 -1.112689e+001 4.554329e+000 5.014697e+001 8.803564e+001 1.183783e+002 4.492546e-002 3.728908e-001 1.432698e-001
<VARIANCE> 9
 1.271441e+000 3.371764e-001 1.774034e+000 1.687471e+002 1.521478e+003 8.462417e+002 5.367814e-004 5.782502e-004 4.486600e-004
<GCONST> 1.276913e+001
<MIXTURE> 12 6.605606e-002
<MEAN> 9
 -1.400852e+001 -9.552084e+000 -1.442653e-001 1.758646e+002 1.380450e+001 3.124008e+002 3.681867e-001 1.494933e-001 -8.955035e-002
<VARIANCE> 9
 1.148866e+000 1.982818e+001 1.528516e+000 5.410796e+002 1.029041e+003 3.218110e+003 6.195137e-004 4.253359e-003 8.558141e-004
<GCONST> 2.148749e+001
<MIXTURE> 13 5.726971e-002
<MEAN> 9
 -1.068210e+001 -7.040431e+000 1.483490e+000 1.311954e+002 -1.295022e+001 2.095609e+002 3.435158e-001 2.427361e-001 -6.714732e-003
<VARIANCE> 9
 1.803193e-001 2.054702e+000 4.458649e+000 3.372835e+003 5.768445e+001 1.210095e+002 1.108864e-003 1.307070e-003 8.958722e-004
<GCONST> 1.355511e+001
<MIXTURE> 14 5.325452e-002
<MEAN> 9
 -1.152730e+001 -4.940454e+000 -2.366075e+000 1.082695e+002 -6.281765e+001 2.990018e+002 4.087411e-001 -2.965695e-002 -1.347026e-001
<VARIANCE> 9
 7.227056e-001 1.881955e+001 9.967618e-001 5.484875e+002 6.124873e+002 3.114195e+003 4.762525e-004 4.775975e-003 2.196107e-004
<GCONST> 1.849884e+001
<STATE> 3
<NUMMIXES> 14
<MIXTURE> 1 5.805916e-002
<MEAN> 9
 1.363563e+001 -7.005412e-001 7.289933e+000 4.469970e+001 4.148600e+001 -2.489725e+001 -1.275557e-001 -2.009587e-001 -2.530856e-001
<VARIANCE> 9
 1.273892e+000 3.371764e-001 2.481910e-001 3.524087e+002 5.272622e+002 7.537718e+003 4.762525e-004 5.782502e-004 1.938003e-004
<GCONST> 1.170868e+001
<MIXTURE> 2 1.143823e-001
<MEAN> 9
 4.858640e+000 1.923611e+000 4.731180e+000 -2.418316e+001 -5.655306e+001 2.699485e+002 -5.007439e-003 -2.569446e-001 -2.705183e-001
<VARIANCE> 9
 3.264078e+000 1.578456e+000 8.640375e-001 8.786362e+001 2.807451e+002 4.040567e+002 2.465801e-003 5.782502e-004 1.938003e-004
<GCONST> 1.213954e+001
<MIXTURE> 3 3.157796e-002
<MEAN> 9
 6.751004e+000 -3.771084e+000 8.795182e-001 3.626016e+001 -1.528252e+002 3.627032e+002 -1.093939e-001 -2.657576e-001 -2.149660e-001
<VARIANCE> 9
 6.169866e+000 8.861467e-001 6.976298e-002 1.149274e+002 1.247249e+003 5.885242e+002 1.739577e-003 5.782502e-004 1.938003e-004
<GCONST> 1.146936e+001
<MIXTURE> 4 5.899529e-002
<MEAN> 9
 1.157966e+001 1.720577e+000 7.982281e+000 2.907860e+001 2.374698e+001 4.845579e+001 -8.686525e-002 -2.200913e-001 -2.742967e-001
<VARIANCE> 9
 4.075027e-001 3.371764e-001 1.594805e-001 3.081523e+002 5.276735e+002 4.182333e+003 4.762525e-004 5.782502e-004 1.938003e-004
<GCONST> 9.404151e+000
<MIXTURE> 5 5.938111e-002
<MEAN> 9
 1.774374e+001 -8.311400e-001 2.872850e+000 3.228637e+001 4.025701e+001 4.148891e+001 -2.162665e-001 -2.100638e-001 -1.906255e-001
<VARIANCE> 9
 4.926388e+000 3.371764e-001 6.696008e-001 1.518953e+002 5.643049e+002 1.918304e+004 4.913264e-004 5.782502e-004 1.938003e-004
<GCONST> 1.424526e+001
<MIXTURE> 6 8.893210e-002
<MEAN> 9
 4.440988e+000 2.638506e+000 5.759640e+000 6.939718e+001 1.108399e+001 -2.410950e+002 4.307279e-003 -2.988299e-001 -2.462683e-001
<VARIANCE> 9
 3.292937e+000 1.233665e+000 4.358578e-001 2.471149e+002 1.785856e+002 6.659736e+002 6.364065e-004 5.782502e-004 1.938003e-004
<GCONST> 1.094454e+001
<MIXTURE> 7 5.262991e-002
<MEAN> 9
 -4.498796e+000 -6.038554e+000 -1.893976e+000 2.428049e+001 -2.641219e+002 3.847927e+002 1.420000e-001 -2.718182e-001 -2.277551e-001
<VARIANCE> 9
 6.434755e+000 3.371764e-001 3.067731e-001 2.977951e+001 5.774919e+002 1.404143e+002 9.172693e-003 5.782502e-004 1.938003e-004
<GCONST> 1.013521e+001
<MIXTURE> 8 8.632454e-002
<MEAN> 9
 7.906893e+000 2.625027e+000 6.486669e+000 2.192589e+001 -1.986125e+001 5.717772e+000 -4.408249e-002 -2.566167e-001 -2.696826e-001
<VARIANCE> 9
 5.425599e-001 3.371764e-001 7.434692e-002 9.399559e+002 1.863961e+002 3.440486e+004 4.762525e-004 5.782502e-004 1.938003e-004
<GCONST> 1.110919e+001
<MIXTURE> 9 9.898365e-002
<MEAN> 9
 -9.697764e-002 1.327797e+000 3.285116e+000 -3.241627e+001 -1.282184e+002 2.999984e+002 1.070978e-001 -2.697507e-001 -2.604392e-001
<VARIANCE> 9
 3.592157e+000 2.315478e+000 2.824492e-001 1.342589e+002 7.314080e+002 2.890915e+002 3.736624e-003 5.782502e-004 1.938003e-004
<GCONST> 1.296273e+001
<MIXTURE> 10 1.045842e-001
<MEAN> 9
 -5.126811e+000 -4.799409e-001 1.298581e+000 -3.206271e+001 -1.928028e+002 2.995498e+002 2.465930e-001 -2.426725e-001 -2.265601e-001
<VARIANCE> 9
 3.735971e+000 8.485187e-001 8.894932e-001 3.494729e+002 3.116411e+002 6.919713e+002 2.851655e-003 5.782502e-004 4.977591e-004
<GCONST> 1.479461e+001
<MIXTURE> 11 8.232880e-002
<MEAN> 9
 9.370695e+000 1.327865e+000 7.220261e+000 5.621075e+001 2.700924e+001 -1.322629e+002 -6.590205e-002 -2.455328e-001 -2.625479e-001
<VARIANCE> 9
 1.006129e+000 8.910375e-001 6.976298e-002 1.333384e+002 2.970007e+002 4.073383e+003 4.762525e-004 5.782502e-004 1.938003e-004
<GCONST> 9.014091e+000
<MIXTURE> 12 4.507459e-002
<MEAN> 9
 5.866228e+000 2.563020e+000 3.976770e+000 -9.834545e+000 7.037121e+000 -2.685735e+002 -1.078390e-001 -2.872459e-001 -2.123231e-001
<VARIANCE> 9
 6.426781e+000 1.260324e+000 1.230294e-001 6.608892e+002 1.491526e+002 1.988958e+002 1.915144e-003 5.782502e-004 1.938003e-004
<GCONST> 1.106660e+001
<MIXTURE> 13 5.643365e-002
<MEAN> 9
 1.316656e+001 -3.524790e-001 3.385330e+000 1.791333e+001 8.525284e+000 6.386978e+001 -1.703096e-001 -2.243381e-001 -2.155973e-001
<VARIANCE> 9
 7.743436e+000 3.712895e-001 1.599976e+000 4.398157e+002 1.728084e+003 3.973470e+004 1.519086e-003 5.782502e-004 6.433421e-004
<GCONST> 2.090408e+001
<MIXTURE> 14 6.231245e-002
<MEAN> 9
 1.115184e+001 1.764886e+000 7.914788e+000 2.037447e+001 1.157193e+001 7.622003e+001 -8.236591e-002 -2.261335e-001 -2.772354e-001
<VARIANCE> 9
 6.028819e-001 3.371764e-001 1.149006e-001 4.673111e+002 7.673589e+002 7.308102e+003 4.762525e-004 5.782502e-004 1.938003e-004
<GCONST> 1.081696e+001
<STATE> 4
<NUMMIXES> 14
<MIXTURE> 1 8.071261e-002
<MEAN> 9
 -1.345453e+001 9.380623e+000 2.458509e+000 -1.723076e+001 -4.451314e+000 -1.418961e+001 3.172427e-001 -2.529825e-001 -1.753998e-001
<VARIANCE> 9
 1.764012e+000 3.371764e-001 5.168106e-001 5.878032e+001 2.589369e+002 6.018583e+003 4.762525e-004 5.782502e-004 1.938003e-004
<GCONST> 1.004051e+001
<MIXTURE> 2 8.001377e-002
<MEAN> 9
 -5.508143e+000 7.102171e+000 5.527771e+000 -2.383874e+001 -2.877675e+001 1.615916e+002 1.610842e-001 -2.808257e-001 -2.425503e-001
<VARIANCE> 9
 3.229804e+000 3.371764e-001 5.218639e-001 6.286663e+001 3.680466e+001 1.426256e+003 1.334773e-003 5.782502e-004 1.938003e-004
<GCONST> 8.362086e+000
<MIXTURE> 3 6.327157e-002
<MEAN> 9
 -6.342744e-001 4.592395e+000 4.539323e+000 5.338851e+001 1.722084e+001 -2.741498e+002 4.813426e-002 -3.238519e-001 -2.260576e-001
<VARIANCE> 9
 3.395172e+000 8.044034e-001 5.463563e-001 2.300174e+003 7.961985e+002 2.969310e+002 2.169763e-003 5.782502e-004 1.938003e-004
<GCONST> 1.491788e+001
<MIXTURE> 4 6.156193e-002
<MEAN> 9
 -9.555914e+000 7.891862e+000 2.901692e+000 -1.443029e+001 -1.601027e+001 8.949562e+001 2.597849e-001 -2.770832e-001 -2.033120e-001
<VARIANCE> 9
 5.049186e-001 3.371764e-001 6.976298e-002 1.172049e+002 1.058267e+002 7.104062e+003 7.403254e-004 5.782502e-004 1.938003e-004
<GCONST> 7.189277e+000
<MIXTURE> 5 7.099285e-002
<MEAN> 9
 -2.979394e+000 4.217214e+000 4.670265e+000 -4.385613e+001 -6.265836e+001 2.722320e+002 6.392000e-002 -3.185483e-001 -2.271804e-001
<VARIANCE> 9
 2.571496e+000 6.254388e-001 2.440057e-001 1.240988e+003 1.865243e+002 2.523268e+002 2.893184e-003 5.782502e-004 1.938003e-004
<GCONST> 1.163888e+001
<MIXTURE> 6 1.071601e-001
<MEAN> 9
 -1.035441e+001 9.831504e+000 -7.902352e-001 4.520695e+001 3.698373e+001 -1.519622e+002 2.318131e-001 -3.266809e-001 -1.570068e-001
<VARIANCE> 9
 1.856292e+000 2.725146e+000 1.418664e+000 1.337207e+003 1.185056e+003 5.309136e+003 1.390348e-003 8.325388e-004 2.912829e-004
<GCONST> 1.955433e+001
<MIXTURE> 7 7.087708e-002
<MEAN> 9
 -4.693557e+000 5.769889e+000 2.612705e+000 7.803690e+001 2.718868e+001 -2.583279e+002 1.451321e-001 -3.307718e-001 -2.059064e-001
<VARIANCE> 9
 1.504683e+000 8.003075e-001 1.082828e+000 7.281691e+002 5.576610e+002 2.372319e+002 9.712790e-004 5.782502e-004 2.282244e-004
<GCONST> 1.241203e+001
<MIXTURE> 8 6.213029e-002
<MEAN> 9
 -9.075480e+000 9.175273e+000 2.179970e-001 -6.253544e+001 -2.412646e+001 1.037991e+002 2.127610e-001 -3.423178e-001 -1.588811e-001
<VARIANCE> 9
 2.914435e+000 5.872879e-001 1.313779e+000 2.158367e+002 3.680466e+001 2.474271e+003 4.762525e-004 5.782502e-004 1.938003e-004
<GCONST> 1.049134e+001
<MIXTURE> 9 6.772736e-002
<MEAN> 9
 -5.790397e+000 6.285910e+000 3.571006e+000 -5.969699e+001 -4.180736e+001 2.175589e+002 1.659248e-001 -3.172860e-001 -2.080770e-001
<VARIANCE> 9
 3.910511e+000 8.554927e-001 2.329017e-001 9.177296e+002 1.059014e+002 6.252634e+002 2.292891e-003 5.782502e-004 1.938003e-004
<GCONST> 1.213180e+001
<MIXTURE> 10 9.347004e-002
<MEAN> 9
 -8.860882e+000 6.832382e+000 4.640535e+000 2.175191e+001 2.843669e+001 -1.945339e+002 1.296276e-001 -3.042719e-001 -2.209210e-001
<VARIANCE> 9
 1.016708e+001 3.371764e-001 2.927205e-001 9.826275e+001 2.327951e+003 1.785554e+003 2.777162e-003 5.782502e-004 1.938003e-004
<GCONST> 1.448172e+001
<MIXTURE> 11 4.558943e-002
<MEAN> 9
 -1.414151e+001 9.060843e+000 3.015790e+000 1.535866e+001 1.303058e+001 8.564124e+000 1.441214e-001 -3.068398e-001 -2.144601e-001
<VARIANCE> 9
 4.529502e-001 3.371764e-001 2.282850e-001 1.259500e+002 6.941440e+002 3.600755e+003 4.762525e-004 5.782502e-004 1.938003e-004
<GCONST> 9.098327e+000
<MIXTURE> 12 8.265471e-002
<MEAN> 9
 -9.656901e+000 8.160980e+000 2.976098e+000 -6.074513e+000 -5.464014e+000 -1.944854e+001 2.282427e-001 -2.786661e-001 -2.158765e-001
<VARIANCE> 9
 5.140322e-001 3.371764e-001 2.032130e-001 2.745499e+002 1.904642e+002 5.829669e+003 4.762525e-004 5.782502e-004 1.938003e-004
<GCONST> 9.076339e+000
<MIXTURE> 13 5.002567e-002
<MEAN> 9
 -7.604613e+000 6.728443e+000 3.696890e+000 -3.670939e+001 -4.570479e+001 1.996299e+002 1.378575e-001 -3.177893e-001 -2.123967e-001
<VARIANCE> 9
 8.266984e+000 1.222132e+000 1.389049e-001 1.088300e+003 1.027777e+002 1.575799e+003 1.761307e-003 5.782502e-004 1.938003e-004
<GCONST> 1.352137e+001
