~o
<VECSIZE> 9<NULLD><USER><DIAGC>
~h "GM"
<BEGINHMM>
<NUMSTATES> 8
<STATE> 2
<MEAN> 9
 -8.428740e+000 -9.111814e+000 3.761385e-002 -1.265839e+001 -2.955607e+001 1.509793e+002 1.557095e-001 3.477051e-001 1.991040e-001
<VARIANCE> 9
 5.117707e+000 5.172091e+000 2.030644e+000 6.675208e+002 5.409128e+003 8.473729e+003 1.998061e-002 1.000000e-002 1.000000e-002
<GCONST> 3.154603e+001
<STATE> 3
<MEAN> 9
 -7.179705e+000 2.699814e-001 5.296113e-001 -8.756097e+001 -1.830986e+001 1.194435e+002 5.029705e-001 6.875803e-003 2.103909e-001
<VARIANCE> 9
 1.480698e+000 2.993826e+000 6.967295e+000 1.226213e+003 5.266234e+002 6.164056e+003 1.000000e-002 1.165517e-002 1.000000e-002
<GCONST> 2.841350e+001
<STATE> 4
<MEAN> 9
 -8.773275e+000 3.631845e+000 2.199069e+000 -3.336336e+000 2.135324e+001 3.453298e+001 5.100517e-001 -1.389669e-001 2.230751e-001
<VARIANCE> 9
 1.309187e+000 2.839685e+000 3.165102e+000 5.712418e+002 3.574036e+002 5.556586e+002 1.000000e-002 1.000000e-002 1.000000e-002
<GCONST> 2.373750e+001
<STATE> 5
<MEAN> 9
 -7.837636e+000 4.198279e+000 3.496615e+000 -3.067973e+001 6.453543e+000 4.532230e+000 4.554892e-001 -2.668701e-001 2.254568e-001
<VARIANCE> 9
 5.075885e+000 7.373549e+000 2.005200e+001 4.224678e+003 1.434038e+003 3.140934e+002 1.000000e-002 1.000000e-002 1.000000e-002
<GCONST> 3.071275e+001
<STATE> 6
<MEAN> 9
 -7.406259e+000 1.648545e-001 1.675434e+000 1.344735e+002 -6.724718e+001 -1.519735e+002 4.878714e-001 -1.295011e-001 1.390866e-001
<VARIANCE> 9
 1.972647e+000 1.487624e+000 6.173893e+000 1.667296e+003 1.568769e+003 8.346785e+003 1.000000e-002 2.155961e-002 1.000000e-002
<GCONST> 3.019714e+001
<STATE> 7
<MEAN> 9
 -7.632968e+000 -9.510296e+000 1.766922e+000 -1.457705e+001 6.547617e+001 -1.428115e+002 1.131322e-001 3.451157e-001 1.241930e-001
<VARIANCE> 9
 9.017467e+000 5.220640e+000 2.124973e+000 1.064913e+003 5.027917e+003 1.330708e+004 2.330380e-002 1.000000e-002 1.000000e-002
<GCONST> 3.316642e+001
<TRANSP> 8
 0.000000e+000 1.000000e+000 0.000000e+000 0.000000e+000 0.000000e+000 0.000000e+000 0.000000e+000 0.000000e+000
 0.000000e+000 9.512195e-001 4.878049e-002 0.000000e+000 0.000000e+000 0.000000e+000 0.000000e+000 0.000000e+000
 0.000000e+000 0.000000e+000 9.436620e-001 5.633803e-002 0.000000e+000 0.000000e+000 0.000000e+000 0.000000e+000
 0.000000e+000 0.000000e+000 0.000000e+000 9.545454e-001 4.545454e-002 0.000000e+000 0.000000e+000 0.000000e+000
 0.000000e+000 0.000000e+000 0.000000e+000 0.000000e+000 9.809524e-001 1.904762e-002 0.000000e+000 0.000000e+000
 0.000000e+000 0.000000e+000 0.000000e+000 0.000000e+000 0.000000e+000 9.512195e-001 4.878049e-002 0.000000e+000
 0.000000e+000 0.000000e+000 0.000000e+000 0.000000e+000 0.000000e+000 0.000000e+000 9.636363e-001 3.636363e-002
 0.000000e+000 0.000000e+000 0.000000e+000 0.000000e+000 0.000000e+000 0.000000e+000 0.000000e+000 0.000000e+000
<ENDHMM>
