<STREAMINFO> 1 9
~h "GN"
<BEGINHMM>
<NUMSTATES> 8
<STATE> 2
<MEAN> 9
 -8.256649e+000 -9.622869e+000 3.659927e-002 4.596179e+000 9.856189e+000 1.621272e+002 1.128816e-001 3.547684e-001 1.861186e-001
<VARIANCE> 9
 5.669814e+000 5.456051e+000 7.413031e+000 1.067973e+003 4.593340e+003 9.125731e+003 1.875636e-002 1.000000e-002 1.000000e-002
<GCONST> 3.331419e+001
<STATE> 3
<MEAN> 9
 -9.222962e+000 -8.114812e-001 2.371368e+000 -6.983788e+001 -2.716858e+001 8.630129e+001 5.010802e-001 6.320857e-003 2.131453e-001
<VARIANCE> 9
 1.152268e+001 9.563480e+000 3.020532e+001 1.287879e+004 1.781735e+003 7.340010e+003 1.000000e-002 1.068502e-002 1.000000e-002
<GCONST> 3.675170e+001
<STATE> 4
<MEAN> 9
 -3.619352e+000 4.983998e+000 -1.686747e-001 3.086509e+001 -3.490663e+001 2.926639e+001 4.650284e-001 -2.442898e-001 1.563935e-001
<VARIANCE> 9
 7.679180e+000 1.133996e+000 1.838138e+000 5.429827e+003 2.737673e+003 9.834981e+003 1.000000e-002 1.000000e-002 1.000000e-002
<GCONST> 3.120662e+001
<STATE> 5
<MEAN> 9
 -7.043090e+000 2.072289e-001 5.060241e+000 -2.437231e+001 7.905301e-001 -8.167073e+001 4.789198e-001 4.920857e-002 6.458583e-003
<VARIANCE> 9
 9.153345e+000 4.785090e+000 9.893460e+000 4.552109e+003 2.123467e+003 7.723794e+003 1.000000e-002 1.000000e-002 1.000000e-002
<GCONST> 3.383309e+001
<STATE> 6
<MEAN> 9
 -9.060241e+000 -7.843100e+000 2.917579e+000 -2.518570e+001 4.884146e+001 -1.824265e+002 2.967149e-001 3.048140e-001 1.320733e-001
<VARIANCE> 9
 1.656646e+000 9.775020e+000 1.279094e+000 9.963142e+002 1.299429e+003 9.657529e+002 1.161440e-002 1.000000e-002 1.000000e-002
<GCONST> 2.685247e+001
<STATE> 7
<MEAN> 9
 -4.899312e+000 -1.032444e+001 2.009897e+000 -1.978441e+000 6.847343e+001 -5.177700e+001 2.444805e-002 3.705844e-001 1.971574e-001
<VARIANCE> 9
 2.979037e+000 6.285270e-001 2.073560e+000 2.880064e+002 2.778147e+003 1.623016e+003 1.000000e-002 1.000000e-002 1.000000e-002
<GCONST> 2.506643e+001
<TRANSP> 8
 0.000000e+000 1.000000e+000 0.000000e+000 0.000000e+000 0.000000e+000 0.000000e+000 0.000000e+000 0.000000e+000
 0.000000e+000 9.433962e-001 5.660378e-002 0.000000e+000 0.000000e+000 0.000000e+000 0.000000e+000 0.000000e+000
 0.000000e+000 0.000000e+000 9.647059e-001 3.529412e-002 0.000000e+000 0.000000e+000 0.000000e+000 0.000000e+000
 0.000000e+000 0.000000e+000 0.000000e+000 9.531250e-001 4.687500e-002 0.000000e+000 0.000000e+000 0.000000e+000
 0.000000e+000 0.000000e+000 0.000000e+000 0.000000e+000 9.647059e-001 3.529412e-002 0.000000e+000 0.000000e+000
 0.000000e+000 0.000000e+000 0.000000e+000 0.000000e+000 0.000000e+000 9.318182e-001 6.818181e-002 0.000000e+000
 0.000000e+000 0.000000e+000 0.000000e+000 0.000000e+000 0.000000e+000 0.000000e+000 9.464286e-001 5.357143e-002
 0.000000e+000 0.000000e+000 0.000000e+000 0.000000e+000 0.000000e+000 0.000000e+000 0.000000e+000 0.000000e+000
<ENDHMM>
