~o
<STREAMINFO> 1 9
~h "HAU"
<BEGINHMM>
<NUMSTATES> 8
<STATE> 2
<MEAN> 9
 -6.125052e+000 -1.093768e+001 1.605595e+000 5.045557e+000 -1.363338e+002 1.036389e+002 5.974922e-002 3.685998e-001 2.181093e-001
<VARIANCE> 9
 3.495516e+000 1.022143e+000 6.224132e-001 1.319301e+002 7.438220e+003 6.280619e+003 1.000000e-002 1.000000e-002 1.000000e-002
<GCONST> 2.606649e+001
<STATE> 3
<MEAN> 9
 -7.295960e+000 -3.553792e+000 2.127853e+000 3.521449e+001 3.302726e+001 2.071155e+002 4.431123e-001 1.338396e-001 1.852461e-001
<VARIANCE> 9
 2.252028e+000 1.330677e+001 2.207287e+000 9.133972e+002 5.697346e+003 2.089021e+003 1.000000e-002 2.003364e-002 1.000000e-002
<GCONST> 3.072145e+001
<STATE> 4
<MEAN> 9
 -7.686067e+000 3.553926e+000 1.938107e+000 4.990657e+000 -2.141031e+000 -3.448071e+000 5.033284e-001 -1.099267e-001 2.455234e-001
<VARIANCE> 9
 8.170275e+000 1.372941e+000 2.940015e-001 1.036045e+002 3.418478e+002 1.863132e+003 1.000000e-002 1.000000e-002 1.000000e-002
<GCONST> 2.192363e+001
<STATE> 5
<MEAN> 9
 -6.969648e+000 5.310472e-001 1.923309e+000 2.197702e+001 -4.994254e+001 -1.284744e+002 5.079021e-001 1.606643e-002 1.899333e-001
<VARIANCE> 9
 1.841757e+000 1.428285e+000 3.922643e-001 2.135407e+002 1.102380e+003 1.931538e+003 1.000000e-002 1.000000e-002 1.000000e-002
<GCONST> 2.269188e+001
<STATE> 6
<MEAN> 9
 -8.245369e+000 -6.988081e+000 1.558492e+000 1.711644e+001 4.456137e+001 -1.646112e+002 3.055621e-001 2.962659e-001 1.874589e-001
<VARIANCE> 9
 2.279724e+000 8.430915e+000 1.948921e+000 3.785920e+002 1.592741e+003 1.763125e+003 1.462931e-002 1.000000e-002 1.000000e-002
<GCONST> 2.751357e+001
<STATE> 7
<MEAN> 9
 -4.668190e+000 -1.005235e+001 1.273092e+000 4.878055e-001 6.344127e+001 -4.834385e+001 2.293626e-002 3.736991e-001 1.874384e-001
<VARIANCE> 9
 1.466606e+000 2.339090e-001 6.042237e-001 1.316312e+002 1.622054e+003 1.546551e+003 1.000000e-002 1.000000e-002 1.000000e-002
<GCONST> 2.076693e+001
<TRANSP> 8
 0.000000e+000 1.000000e+000 0.000000e+000 0.000000e+000 0.000000e+000 0.000000e+000 0.000000e+000 0.000000e+000
 0.000000e+000 9.425287e-001 5.747127e-002 0.000000e+000 0.000000e+000 0.000000e+000 0.000000e+000 0.000000e+000
 0.000000e+000 0.000000e+000 9.411765e-001 5.882353e-002 0.000000e+000 0.000000e+000 0.000000e+000 0.000000e+000
 0.000000e+000 0.000000e+000 0.000000e+000 9.596774e-001 4.032258e-002 0.000000e+000 0.000000e+000 0.000000e+000
 0.000000e+000 0.000000e+000 0.000000e+000 0.000000e+000 9.038461e-001 9.615386e-002 0.000000e+000 0.000000e+000
 0.000000e+000 0.000000e+000 0.000000e+000 0.000000e+000 0.000000e+000 9.462366e-001 5.376345e-002 0.000000e+000
 0.000000e+000 0.000000e+000 0.000000e+000 0.000000e+000 0.000000e+000 0.000000e+000 9.425287e-001 5.747127e-002
 0.000000e+000 0.000000e+000 0.000000e+000 0.000000e+000 0.000000e+000 0.000000e+000 0.000000e+000 0.000000e+000
<ENDHMM>
