~o
~h "HE"
<BEGINHMM>
<NUMSTATES> 8
<STATE> 2
<MEAN> 9
 -1.005193e+001 -8.997229e+000 2.537229e+000 1.086774e+002 2.150549e+001 1.806055e+002 2.135273e-001 2.539182e-001 4.045919e-002
<VARIANCE> 9
 9.824213e+000 1.437198e+001 1.045319e+001 5.006252e+003 4.739519e+003 9.950827e+003 2.636992e-002 2.122894e-002 1.407341e-002
<GCONST> 3.827409e+001
<STATE> 3
<MEAN> 9
 4.073165e+000 3.550929e-001 3.736254e+000 1.541408e+001 -6.024390e+001 1.108587e+002 3.539670e-002 -2.396777e-001 -2.360204e-001
<VARIANCE> 9
 6.556461e+001 6.359250e+000 1.089283e+001 1.439605e+003 8.812378e+003 4.740792e+004 3.202847e-002 1.000000e-002 1.000000e-002
<GCONST> 3.943305e+001
<STATE> 4
<MEAN> 9
 -7.561833e+000 7.282094e+000 3.073258e+000 1.011355e+000 -3.502242e+000 -1.928301e+001 1.714316e-001 -3.055381e-001 -2.051959e-001
<VARIANCE> 9
 1.770184e+001 3.854219e+000 3.974932e+000 2.529709e+003 1.464516e+003 3.561013e+004 1.000000e-002 1.000000e-002 1.000000e-002
<GCONST> 3.393375e+001
<STATE> 5
<MEAN> 9
 6.996988e+000 2.233541e+000 5.628765e+000 -4.741948e-001 -4.741398e+000 -4.335257e+000 -8.721591e-002 -2.458685e-001 -2.462919e-001
<VARIANCE> 9
 2.007242e+001 3.480555e+000 1.402296e+000 1.738358e+003 8.365444e+002 3.934300e+004 1.000000e-002 1.000000e-002 1.000000e-002
<GCONST> 3.208008e+001
<STATE> 6
<MEAN> 9
 -6.036807e+000 5.694426e-001 3.597246e+000 -1.013173e+002 4.013803e+001 -1.722775e+002 2.077023e-001 -1.152747e-001 -2.406593e-001
<VARIANCE> 9
 7.124020e+000 1.868553e+001 1.584074e+000 5.157261e+003 3.467152e+003 4.297534e+003 1.000000e-002 2.792902e-002 1.000000e-002
<GCONST> 3.416873e+001
<STATE> 7
<MEAN> 9
 -6.214048e+000 -1.070443e+001 4.265316e+000 -8.918655e+001 1.119551e+001 -8.567592e+001 5.732108e-002 3.451838e-001 7.495657e-002
<VARIANCE> 9
 1.023600e+001 2.177655e+000 9.397752e+000 4.631693e+003 3.690744e+003 5.932423e+003 1.000000e-002 1.000000e-002 1.099256e-002
<GCONST> 3.350709e+001
<TRANSP> 8
 0.000000e+000 1.000000e+000 0.000000e+000 0.000000e+000 0.000000e+000 0.000000e+000 0.000000e+000 0.000000e+000
 0.000000e+000 9.600000e-001 4.000000e-002 0.000000e+000 0.000000e+000 0.000000e+000 0.000000e+000 0.000000e+000
 0.000000e+000 0.000000e+000 9.636363e-001 3.636363e-002 0.000000e+000 0.000000e+000 0.000000e+000 0.000000e+000
 0.000000e+000 0.000000e+000 0.000000e+000 9.540230e-001 4.597702e-002 0.000000e+000 0.000000e+000 0.000000e+000
 0.000000e+000 0.000000e+000 0.000000e+000 0.000000e+000 9.642857e-001 3.571428e-002 0.000000e+000 0.000000e+000
 0.000000e+000 0.000000e+000 0.000000e+000 0.000000e+000 0.000000e+000 9.560440e-001 4.395605e-002 0.000000e+000
 0.000000e+000 0.000000e+000 0.000000e+000 0.000000e+000 0.000000e+000 0.000000e+000 9.574468e-001 4.255319e-002
 0.000000e+000 0.000000e+000 0.000000e+000 0.000000e+000 0.000000e+000 0.000000e+000 0.000000e+000 0.000000e+000
<ENDHMM>
