~o
~h "SR"
<BEGINHMM>
<NUMSTATES> 8
<STATE> 2
<MEAN> 9
 0.000000e+000 0.000000e+000 0.000000e+000 0.000000e+000 0.000000e+000 0.000000e+000 0.000000e+000 0.000000e+000 0.000000e+000
<VARIANCE> 9
 1.491142e+001 3.371764e+001 6.976298e+000 2.977951e+003 3.680466e+003 1.210095e+004 4.762525e-002 5.782501e-002 1.938003e-002
<GCONST> 4.047615e+001
<STATE> 3
<MEAN> 9
 0.000000e+000 0.000000e+000 0.000000e+000 0.000000e+000 0.000000e+000 0.000000e+000 0.000000e+000 0.000000e+000 0.000000e+000
<VARIANCE> 9
 1.491142e+001 3.371764e+001 6.976298e+000 2.977951e+003 3.680466e+003 1.210095e+004 4.762525e-002 5.782501e-002 1.938003e-002
<GCONST> 4.047615e+001
<STATE> 4
<MEAN> 9
 0.000000e+000 0.000000e+000 0.000000e+000 0.000000e+000 0.000000e+000 0.000000e+000 0.000000e+000 0.000000e+000 0.000000e+000
<VARIANCE> 9
 1.491142e+001 3.371764e+001 6.976298e+000 2.977951e+003 3.680466e+003 1.210095e+004 4.762525e-002 5.782501e-002 1.938003e-002
<GCONST> 4.047615e+001
<STATE> 5
<MEAN> 9
 0.000000e+000 0.000000e+000 0.000000e+000 0.000000e+000 0.000000e+000 0.000000e+000 0.000000e+000 0.000000e+000 0.000000e+000
<VARIANCE> 9
 1.491142e+001 3.371764e+001 6.976298e+000 2.977951e+003 3.680466e+003 1.210095e+004 4.762525e-002 5.782501e-002 1.938003e-002
<GCONST> 4.047615e+001
<STATE> 6
<MEAN> 9
 0.000000e+000 0.000000e+000 0.000000e+000 0.000000e+000 0.000000e+000 0.000000e+000 0.000000e+000 0.000000e+000 0.000000e+000
<VARIANCE> 9
 1.491142e+001 3.371764e+001 6.976298e+000 2.977951e+003 3.680466e+003 1.210095e+004 4.762525e-002 5.782501e-002 1.938003e-002
<GCONST> 4.047615e+001
<STATE> 7
<MEAN> 9
 0.000000e+000 0.000000e+000 0.000000e+000 0.000000e+000 0.000000e+000 0.000000e+000 0.000000e+000 0.000000e+000 0.000000e+000
<VARIANCE> 9
 1.491142e+001 3.371764e+001 6.976298e+000 2.977951e+003 3.680466e+003 1.210095e+004 4.762525e-002 5.782501e-002 1.938003e-002
<GCONST> 4.047615e+001
<TRANSP> 8
 0.000000e+000 1.000000e+000 0.000000e+000 0.000000e+000 0.000000e+000 0.000000e+000 0.000000e+000 0.000000e+000
 0.000000e+000 6.000000e-001 4.000000e-001 0.000000e+000 0.000000e+000 0.000000e+000 0.000000e+000 0.000000e+000
 0.000000e+000 0.000000e+000 6.000000e-001 4.000000e-001 0.000000e+000 0.000000e+000 0.000000e+000 0.000000e+000
 0.000000e+000 0.000000e+000 0.000000e+000 7.000000e-001 3.000000e-001 0.000000e+000 0.000000e+000 0.000000e+000
 0.000000e+000 0.000000e+000 0.000000e+000 0.000000e+000 7.000000e-001 3.000000e-001 0.000000e+000 0.000000e+000
 0.000000e+000 0.000000e+000 0.000000e+000 0.000000e+000 0.000000e+000 8.000000e-001 2.000000e-001 0.000000e+000
 0.000000e+000 0.000000e+000 0.000000e+000 0.000000e+000 0.000000e+000 0.000000e+000 8.000000e-001 2.000000e-001
 0.000000e+000 0.000000e+000 0.000000e+000 0.000000e+000 0.000000e+000 0.000000e+000 0.000000e+000 0.000000e+000
<ENDHMM>
