<STREAMINFO> 1 9
~h "ssil"
<BEGINHMM>
<NUMSTATES> 8
<STATE> 2
<MEAN> 9
 -2.464015e+000 -9.911717e+000 2.933148e-001 3.928880e+000 7.213467e+000 3.868982e-001 -3.279163e-002 3.623813e-001 1.789236e-001
<VARIANCE> 9
 5.982555e-001 8.520039e-002 3.710487e-001 9.844863e+000 9.198801e+002 1.006570e+001 1.000000e-002 1.000000e-002 1.000000e-002
<GCONST> 1.017780e+001
<STATE> 3
<MEAN> 9
 -2.758779e+000 -9.807744e+000 2.038410e-001 2.944809e+000 -1.821451e+000 4.067647e-001 -1.698135e-002 3.668298e-001 1.793171e-001
<VARIANCE> 9
 1.689010e-001 1.628979e-002 6.736831e-002 1.020084e+000 2.734307e+001 9.251154e-001 1.000000e-002 1.000000e-002 1.000000e-002
<GCONST> -2.617347e+000
<STATE> 4
<MEAN> 9
 -2.010677e+000 -9.998067e+000 4.900422e-001 3.285516e+000 7.360305e-002 1.867947e-001 -5.389756e-002 3.594742e-001 1.804466e-001
<VARIANCE> 9
 5.268783e-002 1.000000e-002 3.199881e-002 1.667810e-001 3.868825e+000 1.726373e-001 1.000000e-002 1.000000e-002 1.000000e-002
<GCONST> -1.045990e+001
<STATE> 5
<MEAN> 9
 -2.692585e+000 -9.842734e+000 2.698052e-001 3.294771e+000 1.376128e-001 7.423570e-002 -1.941003e-002 3.665691e-001 1.828837e-001
<VARIANCE> 9
 2.961783e-002 1.000000e-002 3.064833e-002 9.027233e-002 1.747290e+000 1.692421e-001 1.000000e-002 1.000000e-002 1.000000e-002
<GCONST> -1.250763e+001
<STATE> 6
<MEAN> 9
 -3.152339e+000 -9.694804e+000 -1.233461e-001 3.332242e+000 -1.365408e-002 7.247867e-002 1.229794e-003 3.692276e-001 2.041771e-001
<VARIANCE> 9
 2.985136e-002 1.000000e-002 2.793685e-002 8.447982e-002 8.058497e-001 1.456405e-001 1.000000e-002 1.000000e-002 1.000000e-002
<GCONST> -1.358284e+001
<STATE> 7
<MEAN> 9
 -3.616753e+000 -9.798623e+000 7.016638e-001 3.138792e+000 -1.170828e+001 3.591754e+000 -1.246753e-002 3.677345e-001 1.974085e-001
<VARIANCE> 9
 1.503832e+000 1.889068e-001 1.054263e+000 3.957357e+001 9.450009e+002 2.854165e+001 1.000000e-002 1.000000e-002 1.000000e-002
<GCONST> 1.540045e+001
<TRANSP> 8
 0.000000e+000 1.000000e+000 0.000000e+000 0.000000e+000 0.000000e+000 0.000000e+000 0.000000e+000 0.000000e+000
 0.000000e+000 8.230088e-001 1.769911e-001 0.000000e+000 0.000000e+000 0.000000e+000 0.000000e+000 0.000000e+000
 0.000000e+000 0.000000e+000 9.145299e-001 8.547010e-002 0.000000e+000 0.000000e+000 0.000000e+000 0.000000e+000
 0.000000e+000 0.000000e+000 0.000000e+000 9.626865e-001 3.731344e-002 0.000000e+000 0.000000e+000 0.000000e+000
 0.000000e+000 0.000000e+000 0.000000e+000 0.000000e+000 9.657534e-001 3.424658e-002 0.000000e+000 0.000000e+000
 0.000000e+000 0.000000e+000 0.000000e+000 0.000000e+000 0.000000e+000 9.693251e-001 3.067485e-002 0.000000e+000
 0.000000e+000 0.000000e+000 0.000000e+000 0.000000e+000 0.000000e+000 0.000000e+000 6.825397e-001 3.174603e-001
 0.000000e+000 0.000000e+000 0.000000e+000 0.000000e+000 0.000000e+000 0.000000e+000 0.000000e+000 0.000000e+000
<ENDHMM>
