~o
<STREAMINFO> 1 9
<VECSIZE> 9<NULLD><USER><DIAGC>
~h "GA"
<BEGINHMM>
<NUMSTATES> 8
<STATE> 2
<NUMMIXES> 24
<MIXTURE> 1 2.616237e-002
<MEAN> 9
 -9.106947e+000 -9.802808e+000 1.472937e-001 6.537601e+001 1.010355e+002 1.439618e+002 1.028199e-001 3.665119e-001 1.551228e-001
<VARIANCE> 9
 1.491142e-001 3.371764e-001 6.976298e-002 2.977951e+001 3.680466e+001 1.210095e+002 4.762525e-004 5.782502e-004 1.938003e-004
<GCONST> -9.703841e-001
<MIXTURE> 2 5.125944e-002
<MEAN> 9
 -9.777108e+000 -6.933735e+000 -2.506024e+000 -3.756097e+001 3.402439e+001 2.647256e+002 2.822727e-001 3.159091e-001 1.770408e-001
<VARIANCE> 9
 1.491142e-001 3.371764e-001 6.976298e-002 3.426532e+001 3.680466e+001 1.210095e+002 5.373970e-004 5.782502e-004 1.938003e-004
<GCONST> -7.092824e-001
<MIXTURE> 3 5.125766e-002
<MEAN> 9
 -1.161446e+001 -9.150589e+000 4.638483e-001 -3.999974e+001 -6.070189e+001 2.259753e+002 2.663636e-001 3.568186e-001 1.551025e-001
<VARIANCE> 9
 2.560857e-001 3.371764e-001 6.976298e-002 2.977951e+001 3.680466e+001 1.210095e+002 4.762525e-004 5.782502e-004 1.938003e-004
<GCONST> -4.295855e-001
<MIXTURE> 4 2.562974e-002
<MEAN> 9
 -8.265060e+000 -1.145783e+001 1.036145e+000 3.164634e+001 3.993903e+001 2.068293e+002 9.909091e-002 3.663636e-001 1.602041e-001
<VARIANCE> 9
 1.491142e-001 3.371764e-001 6.976298e-002 2.977951e+001 3.680466e+001 1.210095e+002 4.762525e-004 5.782502e-004 1.938003e-004
<GCONST> -9.703841e-001
<MIXTURE> 5 2.562974e-002
<MEAN> 9
 -1.101205e+001 -9.626506e+000 -1.036145e+000 1.097561e+001 1.000000e+002 2.448171e+002 1.681818e-001 3.827273e-001 1.612245e-001
<VARIANCE> 9
 1.491142e-001 3.371764e-001 6.976298e-002 2.977951e+001 3.680466e+001 1.210095e+002 4.762525e-004 5.782502e-004 1.938003e-004
<GCONST> -9.703841e-001
<MIXTURE> 6 5.170077e-002
<MEAN> 9
 -7.494838e+000 -1.001875e+001 1.121904e-001 2.003165e+000 -3.763153e+000 1.277484e+002 6.019785e-002 3.687274e-001 1.474890e-001
<VARIANCE> 9
 4.034300e-001 3.371764e-001 1.226392e-001 2.977951e+001 3.680466e+001 1.210095e+002 4.762525e-004 5.782502e-004 1.938003e-004
<GCONST> 5.890493e-001
<MIXTURE> 7 2.564597e-002
<MEAN> 9
 -1.031319e+001 -6.710217e+000 -3.072595e+000 -1.128787e+001 4.994038e+001 2.229899e+002 2.872998e-001 3.308924e-001 1.530651e-001
<VARIANCE> 9
 1.491142e-001 3.371764e-001 6.976298e-002 2.977951e+001 3.680466e+001 1.210095e+002 4.762525e-004 5.782502e-004 1.938003e-004
<GCONST> -9.703841e-001
<MIXTURE> 8 2.562974e-002
<MEAN> 9
 -1.012048e+001 -6.951807e+000 -3.132530e-001 -7.628049e+001 -5.957317e+001 2.601829e+002 3.727273e-001 2.836364e-001 1.612245e-001
<VARIANCE> 9
 1.491142e-001 3.371764e-001 6.976298e-002 2.977951e+001 3.680466e+001 1.210095e+002 4.762525e-004 5.782502e-004 1.938003e-004
<GCONST> -9.703841e-001
<MIXTURE> 9 5.125834e-002
<MEAN> 9
 -9.885542e+000 -8.879520e+000 -1.578303e+000 3.493912e+001 6.402442e+001 1.969816e+002 1.909087e-001 3.504545e-001 1.454081e-001
<VARIANCE> 9
 1.491142e-001 3.371764e-001 2.560604e-001 2.977951e+001 3.680466e+001 1.210095e+002 4.762525e-004 5.782502e-004 1.938003e-004
<GCONST> 3.299246e-001
<MIXTURE> 10 2.562974e-002
<MEAN> 9
 -7.024096e+000 -1.144578e+001 5.662650e-001 1.152439e+001 -1.418293e+002 1.054878e+002 1.727273e-002 3.727273e-001 1.734694e-001
<VARIANCE> 9
 1.491142e-001 3.371764e-001 6.976298e-002 2.977951e+001 3.680466e+001 1.210095e+002 4.762525e-004 5.782502e-004 1.938003e-004
<GCONST> -9.703841e-001
<MIXTURE> 11 5.072577e-002
<MEAN> 9
 -9.669245e+000 -9.438177e+000 -3.072922e-001 5.232872e+001 8.603355e+001 1.694427e+002 1.302388e-001 3.759330e-001 1.550913e-001
<VARIANCE> 9
 1.491142e-001 3.371764e-001 6.976298e-002 2.977951e+001 8.088132e+001 1.210095e+002 5.164719e-004 5.782502e-004 1.938003e-004
<GCONST> -1.019526e-001
<MIXTURE> 12 5.127805e-002
<MEAN> 9
 -8.698858e+000 -9.391608e+000 9.454222e-001 -1.765145e+001 -7.615616e+001 1.756344e+002 1.458951e-001 3.718175e-001 1.535708e-001
<VARIANCE> 9
 1.677531e-001 3.371764e-001 6.976298e-002 2.977951e+001 3.680466e+001 1.210095e+002 4.762525e-004 5.782502e-004 1.938003e-004
<GCONST> -8.526053e-001
<MIXTURE> 13 5.126110e-002
<MEAN> 9
 -1.045787e+001 -8.927732e+000 4.156717e-001 -2.280578e+001 -7.509028e+001 2.005806e+002 2.077295e-001 3.713627e-001 1.576525e-001
<VARIANCE> 9
 1.491142e-001 3.371764e-001 6.976298e-002 3.080204e+001 3.680466e+001 1.210095e+002 4.762525e-004 5.782502e-004 1.938003e-004
<GCONST> -9.366241e-001
<MIXTURE> 14 5.124332e-002
<MEAN> 9
 -8.903579e+000 -9.632595e+000 -2.952788e-001 -1.005851e+001 -5.270441e+001 1.545089e+002 9.499317e-002 3.713641e-001 1.520406e-001
<VARIANCE> 9
 1.491142e-001 3.371764e-001 7.348257e-002 2.977951e+001 2.864174e+002 1.210095e+002 4.762525e-004 5.782502e-004 1.938003e-004
<GCONST> 1.133388e+000
<MIXTURE> 15 5.125942e-002
<MEAN> 9
 -9.813253e+000 -5.277108e+000 -3.518073e+000 -6.603659e+001 3.850610e+001 2.589634e+002 3.531819e-001 2.950000e-001 1.948980e-001
<VARIANCE> 9
 1.491142e-001 3.371764e-001 7.678908e-002 6.187163e+001 3.680466e+001 1.210095e+002 5.373964e-004 5.782502e-004 1.938003e-004
<GCONST> -2.239704e-002
<MIXTURE> 16 2.562974e-002
<MEAN> 9
 -1.181928e+001 -8.337349e+000 -2.506024e+000 -1.810976e+001 5.689024e+001 2.601829e+002 2.427273e-001 3.563636e-001 1.734694e-001
<VARIANCE> 9
 1.491142e-001 3.371764e-001 6.976298e-002 2.977951e+001 3.680466e+001 1.210095e+002 4.762525e-004 5.782502e-004 1.938003e-004
<GCONST> -9.703841e-001
<MIXTURE> 17 2.562974e-002
<MEAN> 9
 -1.262651e+001 -8.891566e+000 -2.385542e+000 -5.609756e+000 8.871951e+001 2.552439e+002 1.918182e-001 3.527273e-001 1.581633e-001
<VARIANCE> 9
 1.491142e-001 3.371764e-001 6.976298e-002 2.977951e+001 3.680466e+001 1.210095e+002 4.762525e-004 5.782502e-004 1.938003e-004
<GCONST> -9.703841e-001
<MIXTURE> 18 2.562974e-002
<MEAN> 9
 -9.421687e+000 -1.054217e+001 -9.638554e-002 2.560976e+001 7.707317e+001 2.281098e+002 1.227273e-001 3.790909e-001 1.622449e-001
<VARIANCE> 9
 1.491142e-001 3.371764e-001 6.976298e-002 2.977951e+001 3.680466e+001 1.210095e+002 4.762525e-004 5.782502e-004 1.938003e-004
<GCONST> -9.703841e-001
<MIXTURE> 19 5.125948e-002
<MEAN> 9
 -6.728915e+000 -1.217470e+001 1.536144e+000 2.140244e+001 -5.783537e+001 1.586890e+002 5.136364e-002 3.781818e-001 1.750000e-001
<VARIANCE> 9
 1.491142e-001 3.371764e-001 6.976298e-002 2.977951e+001 1.106374e+003 3.009380e+002 4.762525e-004 5.782502e-004 1.938003e-004
<GCONST> 3.343871e+000
<MIXTURE> 20 5.125948e-002
<MEAN> 9
 -1.203012e+001 -8.246988e+000 -9.698795e-001 -5.878049e+001 -7.875000e+001 2.528049e+002 3.263637e-001 3.059091e-001 1.545918e-001
<VARIANCE> 9
 4.967701e-001 3.371764e-001 6.976298e-002 4.336703e+001 3.680466e+001 1.210095e+002 5.165287e-004 5.782502e-004 1.938003e-004
<GCONST> 6.900911e-001
<MIXTURE> 21 5.124323e-002
<MEAN> 9
 -1.042175e+001 -5.162473e+000 -3.566269e+000 -2.859936e+001 5.384202e+001 2.267990e+002 3.354563e-001 2.890860e-001 1.627562e-001
<VARIANCE> 9
 1.491142e-001 3.371764e-001 6.976298e-002 3.215719e+001 3.680466e+001 1.210095e+002 4.762525e-004 5.782502e-004 1.938003e-004
<GCONST> -8.935676e-001
<MIXTURE> 22 5.125710e-002
<MEAN> 9
 -8.259066e+000 -1.063856e+001 -1.024066e-001 1.978650e+001 -9.771461e+001 6.445180e+001 5.000274e-003 3.618183e-001 1.653062e-001
<VARIANCE> 9
 4.154811e-001 3.371764e-001 6.976298e-002 2.977951e+001 6.574222e+002 1.532161e+002 4.762525e-004 5.782502e-004 1.938003e-004
<GCONST> 3.173022e+000
<MIXTURE> 23 5.126220e-002
<MEAN> 9
 -8.024019e+000 -1.040964e+001 1.765149e+000 6.316945e+001 9.228513e+001 1.124061e+002 6.317992e-002 3.695455e-001 1.739813e-001
<VARIANCE> 9
 1.491142e-001 3.371764e-001 3.557682e-001 2.977951e+001 3.680466e+001 1.239092e+002 4.762525e-004 5.782502e-004 1.938003e-004
<GCONST> 6.824732e-001
<MIXTURE> 24 5.125818e-002
<MEAN> 9
 -1.063253e+001 -7.662650e+000 -2.608434e+000 1.088414e+001 6.917683e+001 2.140549e+002 2.431818e-001 3.259091e-001 1.443878e-001
<VARIANCE> 9
 1.491142e-001 3.371764e-001 6.976298e-002 5.046196e+001 3.680466e+001 1.210095e+002 4.762525e-004 5.782502e-004 1.938003e-004
<GCONST> -4.429865e-001
<STATE> 3
<NUMMIXES> 24
<MIXTURE> 1 5.262992e-002
<MEAN> 9
 -5.489953e+000 2.048286e-001 2.156623e+000 -6.857701e+001 8.942562e+000 1.640438e+002 5.239391e-001 -6.878874e-002 2.221088e-001
<VARIANCE> 9
 1.491142e-001 3.371764e-001 6.976298e-002 2.977951e+001 2.204489e+002 3.781329e+002 4.762525e-004 5.782502e-004 1.938003e-004
<GCONST> 1.959033e+000
<MIXTURE> 2 3.508796e-002
<MEAN> 9
 -9.885542e+000 -1.746988e+000 1.909639e+000 -8.771341e+001 3.771341e+001 2.200610e+002 5.168182e-001 5.954545e-002 2.051020e-001
<VARIANCE> 9
 2.621934e-001 3.371764e-001 6.976298e-002 2.977951e+001 2.277523e+002 1.210095e+002 4.762525e-004 5.782502e-004 1.938003e-004
<GCONST> 1.416621e+000
<MIXTURE> 3 5.263168e-002
<MEAN> 9
 -6.425704e+000 2.028110e+000 -1.144575e+000 -1.806707e+002 7.195114e+000 9.128038e+001 5.018182e-001 -7.030316e-002 3.023809e-001
<VARIANCE> 9
 1.491142e-001 3.371764e-001 3.162531e-001 2.977951e+001 3.680466e+001 3.019351e+002 4.762525e-004 5.782502e-004 1.938003e-004
<GCONST> 1.455400e+000
<MIXTURE> 4 3.508239e-002
<MEAN> 9
 -9.084372e+000 -4.000032e+000 6.806322e-001 -9.728613e+001 -3.262319e+001 2.510372e+002 4.609079e-001 1.695464e-001 1.698972e-001
<VARIANCE> 9
 1.491142e-001 3.371764e-001 3.275149e-001 2.977951e+001 6.091612e+001 1.210095e+002 4.762525e-004 5.782502e-004 1.938003e-004
<GCONST> 1.079921e+000
<MIXTURE> 5 3.508726e-002
<MEAN> 9
 -6.451819e+000 1.783124e+000 -2.536149e+000 -1.748170e+002 -7.164693e+000 1.398172e+002 4.963636e-001 -8.636299e-003 2.989795e-001
<VARIANCE> 9
 3.275149e-001 3.371764e-001 6.976298e-002 2.977951e+001 3.680466e+001 1.210095e+002 4.762525e-004 5.782502e-004 1.938003e-004
<GCONST> -1.835642e-001
<MIXTURE> 6 5.263119e-002
<MEAN> 9
 -8.016063e+000 1.646609e-001 3.341355e+000 -1.146142e+002 -4.926836e+001 1.689026e+001 5.027273e-001 -1.493938e-001 2.680274e-001
<VARIANCE> 9
 1.491142e-001 3.371764e-001 3.740559e-001 4.647439e+002 3.680466e+001 1.210095e+002 4.762525e-004 5.782502e-004 1.938003e-004
<GCONST> 3.456584e+000
<MIXTURE> 7 5.263105e-002
<MEAN> 9
 -8.690769e+000 -3.321295e+000 -4.032131e+000 -1.016868e+002 9.756153e+000 2.397359e+002 4.163634e-001 2.133336e-001 2.248298e-001
<VARIANCE> 9
 2.203842e-001 3.371764e-001 6.976298e-002 1.051854e+002 3.680466e+001 1.210095e+002 4.762525e-004 5.782502e-004 1.938003e-004
<GCONST> 6.821814e-001
<MIXTURE> 8 3.508861e-002
<MEAN> 9
 -7.969888e+000 -1.451838e+000 -3.915661e+000 -1.305788e+002 1.414613e+001 2.122566e+002 4.690901e-001 1.445467e-001 2.581627e-001
<VARIANCE> 9
 1.491142e-001 3.371764e-001 6.976298e-002 2.977951e+001 3.680466e+001 1.210095e+002 4.762525e-004 5.782502e-004 1.938003e-004
<GCONST> -9.703841e-001
<MIXTURE> 9 5.325224e-002
<MEAN> 9
 -8.392036e+000 3.433103e-002 5.382903e+000 -1.258317e+002 -4.327322e+001 -1.181277e+001 5.127510e-001 -1.326821e-001 1.751944e-001
<VARIANCE> 9
 1.491142e-001 3.371764e-001 3.207664e+000 2.179720e+003 7.844774e+001 1.210095e+002 4.762525e-004 5.782502e-004 7.105937e-004
<GCONST> 9.207021e+000
<MIXTURE> 10 3.508797e-002
<MEAN> 9
 -6.855422e+000 1.271084e+000 1.807229e+000 -1.677134e+002 -2.158537e+001 4.121951e+001 5.000000e-001 -1.040909e-001 2.964286e-001
<VARIANCE> 9
 1.491142e-001 3.371764e-001 2.207868e-001 4.622344e+001 9.518143e+001 1.210095e+002 4.762525e-004 5.782502e-004 1.938003e-004
<GCONST> 1.571536e+000
<MIXTURE> 11 3.508762e-002
<MEAN> 9
 -7.891563e+000 -1.385570e-001 -4.048193e+000 -1.552439e+002 2.637194e+001 1.828354e+002 4.863636e-001 7.909090e-002 2.826530e-001
<VARIANCE> 9
 1.491142e-001 3.371764e-001 6.976298e-002 4.417382e+001 3.680466e+001 1.210095e+002 4.762525e-004 5.782502e-004 1.938003e-004
<GCONST> -5.760741e-001
<MIXTURE> 12 3.508790e-002
<MEAN> 9
 -9.837350e+000 -3.849397e+000 -4.265061e+000 -4.905489e+001 3.603658e+001 2.225000e+002 3.881818e-001 2.459091e-001 1.811225e-001
<VARIANCE> 9
 1.491142e-001 3.371764e-001 1.394977e-001 2.977951e+001 3.680466e+001 1.210095e+002 4.762525e-004 5.782502e-004 1.938003e-004
<GCONST> -2.774401e-001
<MIXTURE> 13 6.964038e-002
<MEAN> 9
 -7.080028e+000 3.821060e+000 -4.023655e+000 -1.355024e+002 3.079032e+001 7.914626e+001 5.038444e-001 -7.583039e-002 2.714600e-001
<VARIANCE> 9
 1.491142e-001 3.371764e-001 8.809654e-002 1.064619e+002 3.680466e+001 2.048542e+002 4.762525e-004 5.782502e-004 1.938003e-004
<GCONST> 1.063342e+000
<MIXTURE> 14 3.548439e-002
<MEAN> 9
 -6.554712e+000 6.839356e-001 -3.705697e+000 -1.101764e+002 -6.357516e+000 1.538988e+002 4.966502e-001 6.200140e-002 2.508719e-001
<VARIANCE> 9
 1.491142e-001 3.371764e-001 6.976298e-002 2.977951e+001 3.680466e+001 1.210095e+002 4.762525e-004 5.782502e-004 1.938003e-004
<GCONST> -9.703841e-001
<MIXTURE> 15 5.200855e-002
<MEAN> 9
 -8.049668e+000 -5.675637e-001 5.180911e+000 -1.595289e+002 -6.229828e+001 -2.237756e+001 5.157695e-001 -1.266410e-001 1.920123e-001
<VARIANCE> 9
 1.491142e-001 3.371764e-001 6.787059e-001 2.719234e+002 3.680466e+001 1.210095e+002 4.762525e-004 5.782502e-004 1.973410e-004
<GCONST> 3.534503e+000
<MIXTURE> 16 3.508797e-002
<MEAN> 9
 -5.969880e+000 2.277108e+000 1.204830e-002 -1.871951e+002 -6.204268e+001 1.155488e+001 5.077273e-001 -1.281818e-001 2.443878e-001
<VARIANCE> 9
 1.491142e-001 3.371764e-001 7.525040e-001 2.977951e+001 3.680466e+001 1.210095e+002 4.762525e-004 5.782502e-004 1.938003e-004
<GCONST> 1.407920e+000
<MIXTURE> 17 5.261293e-002
<MEAN> 9
 -8.782994e+000 -1.778921e+000 -3.855387e+000 -9.099878e+001 2.447353e+001 1.932696e+002 4.639431e-001 1.312064e-001 2.295977e-001
<VARIANCE> 9
 1.491142e-001 3.371764e-001 6.976298e-002 3.840156e+001 3.680466e+001 1.210095e+002 4.762525e-004 5.782502e-004 1.938003e-004
<GCONST> -7.161078e-001
<MIXTURE> 18 3.469066e-002
<MEAN> 9
 -8.186654e+000 2.874775e-001 -3.563782e+000 -1.364934e+002 4.591200e+000 1.679061e+002 4.859559e-001 5.289560e-002 2.640734e-001
<VARIANCE> 9
 2.683638e-001 3.371764e-001 6.976298e-002 1.195147e+003 3.680466e+001 1.210095e+002 4.762525e-004 6.249181e-004 6.769725e-004
<GCONST> 4.637867e+000
<MIXTURE> 19 3.508797e-002
<MEAN> 9
 -7.885542e+000 3.885542e+000 -2.054217e+000 -1.683841e+002 -1.881097e+001 3.899390e+001 5.009091e-001 -1.159091e-001 2.673469e-001
<VARIANCE> 9
 2.041296e-001 3.371764e-001 1.019378e-001 2.977951e+001 3.795369e+002 1.210095e+002 4.762525e-004 5.782502e-004 1.938003e-004
<GCONST> 2.056247e+000
<MIXTURE> 20 5.316733e-002
<MEAN> 9
 -6.970714e+000 2.357894e+000 -3.670846e+000 -1.182254e+002 9.930850e+000 1.185624e+002 5.060636e-001 -5.367451e-003 2.592659e-001
<VARIANCE> 9
 1.491142e-001 3.371764e-001 6.976298e-002 2.977951e+001 3.680466e+001 1.210095e+002 4.762525e-004 5.782502e-004 1.938003e-004
<GCONST> -9.703841e-001
<MIXTURE> 21 3.509340e-002
<MEAN> 9
 -8.409711e+000 -3.168774e+000 1.445753e+000 -9.399489e+001 1.654832e+001 2.330510e+002 4.972681e-001 1.113719e-001 1.908137e-001
<VARIANCE> 9
 1.778249e-001 3.371764e-001 6.976298e-002 2.977951e+001 3.183210e+002 1.210095e+002 4.762525e-004 5.782502e-004 1.938003e-004
<GCONST> 1.363139e+000
<MIXTURE> 22 1.754601e-002
<MEAN> 9
 -6.927565e+000 -7.469056e-001 1.963889e+000 -8.121872e+001 1.335472e+001 2.053028e+002 5.236371e-001 -8.186239e-003 2.091853e-001
<VARIANCE> 9
 1.491142e-001 3.371764e-001 6.976298e-002 2.977951e+001 3.680466e+001 1.210095e+002 4.762525e-004 5.782502e-004 1.938003e-004
<GCONST> -9.703841e-001
<MIXTURE> 23 3.508796e-002
<MEAN> 9
 -1.083735e+001 -5.608434e+000 6.024099e-003 -8.536585e+001 -3.365854e+001 2.578049e+002 4.140909e-001 2.331818e-001 1.663265e-001
<VARIANCE> 9
 1.491142e-001 3.371764e-001 6.976298e-002 2.977951e+001 3.680466e+001 1.210095e+002 4.762525e-004 5.782502e-004 1.938003e-004
<GCONST> -9.703841e-001
<MIXTURE> 24 3.510660e-002
<MEAN> 9
 -8.957946e+000 -2.849116e+000 -4.662269e+000 -7.128677e+001 1.378332e+001 2.124329e+002 4.291041e-001 1.949744e-001 2.000071e-001
<VARIANCE> 9
 1.491142e-001 3.371764e-001 6.976298e-002 3.798171e+001 3.680466e+001 1.210095e+002 4.762525e-004 5.782502e-004 1.938003e-004
<GCONST> -7.271018e-001
<STATE> 4
<NUMMIXES> 24
<MIXTURE> 1 4.705241e-002
<MEAN> 9
 -8.809166e+000 4.854825e+000 1.544898e+000 -8.477589e+000 6.385160e+001 4.146441e+001 4.993779e-001 -1.806043e-001 2.356652e-001
<VARIANCE> 9
 2.188611e-001 3.371764e-001 6.976298e-002 2.977951e+001 3.680466e+001 1.210095e+002 4.762525e-004 5.782502e-004 1.938003e-004
<GCONST> -5.866599e-001
<MIXTURE> 2 4.689746e-002
<MEAN> 9
 3.296931e-001 5.349458e+000 6.196347e+000 -2.379373e+001 -1.640336e+002 1.146698e+002 3.842299e-001 -3.075742e-001 -4.593259e-002
<VARIANCE> 9
 1.800358e+000 3.371764e-001 6.157817e-001 5.183069e+001 1.112634e+003 2.012547e+002 4.762525e-004 5.782502e-004 3.695129e-004
<GCONST> 8.815516e+000
<MIXTURE> 3 3.124911e-002
<MEAN> 9
 -4.228913e+000 1.578311e+000 2.740964e+000 -1.896345e+001 -1.515248e+001 2.929884e+001 5.081818e-001 -1.609091e-001 1.862245e-001
<VARIANCE> 9
 1.491142e-001 3.371764e-001 6.976298e-002 2.977951e+001 3.680466e+001 1.210095e+002 4.762525e-004 5.782502e-004 1.938003e-004
<GCONST> -9.703841e-001
<MIXTURE> 4 6.248496e-002
<MEAN> 9
 -1.168336e+001 5.006169e+000 1.337212e+000 -3.913225e+001 -9.743064e+001 7.638389e+001 4.777235e-001 -2.211393e-001 2.183794e-001
<VARIANCE> 9
 1.366207e+000 3.371764e-001 3.169746e+000 2.977951e+001 2.088022e+004 3.663370e+002 4.762525e-004 5.782502e-004 3.632617e-003
<GCONST> 1.544050e+001
<MIXTURE> 5 4.894708e-002
<MEAN> 9
 -8.620096e+000 4.711792e+000 2.525888e+000 5.667810e+000 1.788717e+001 1.016545e+001 5.085373e-001 -1.594630e-001 2.058078e-001
<VARIANCE> 9
 1.491142e-001 3.371764e-001 6.976298e-002 2.977951e+001 3.680466e+001 1.210095e+002 4.762525e-004 5.782502e-004 1.938003e-004
<GCONST> -9.703841e-001
<MIXTURE> 6 4.687409e-002
<MEAN> 9
 -1.153815e+001 2.361446e+000 4.393574e+000 -1.266260e+001 -5.955285e+001 3.193090e+001 5.145454e-001 -1.403030e-001 1.187075e-001
<VARIANCE> 9
 1.491142e-001 3.371764e-001 6.976298e-002 2.977951e+001 7.131973e+002 1.210095e+002 4.762525e-004 5.782502e-004 1.938003e-004
<GCONST> 1.993751e+000
<MIXTURE> 7 3.124940e-002
<MEAN> 9
 -1.236145e+001 8.433735e-001 2.831325e+000 -3.798780e+001 3.469512e+001 3.509146e+001 5.036364e-001 -1.518182e-001 2.489796e-001
<VARIANCE> 9
 4.808247e+000 3.371764e-001 1.000000e+000 2.977951e+001 1.899018e+002 1.210095e+002 4.762525e-004 5.782502e-004 1.938003e-004
<GCONST> 6.806525e+000
<MIXTURE> 8 4.687400e-002
<MEAN> 9
 -5.192773e+000 5.534136e+000 4.433733e+000 -3.418700e+001 -2.802440e+002 1.277236e+002 4.521213e-001 -2.533333e-001 3.469398e-002
<VARIANCE> 9
 2.435869e+000 3.371764e-001 2.752209e-001 2.977951e+001 7.715708e+002 1.210095e+002 4.762525e-004 5.782502e-004 9.877810e-004
<GCONST> 7.866867e+000
<MIXTURE> 9 3.119446e-002
<MEAN> 9
 -5.963163e+000 2.776645e+000 2.728795e+000 -4.271214e+000 4.781543e+000 3.940912e+000 5.090972e-001 -1.658971e-001 1.811197e-001
<VARIANCE> 9
 1.882575e-001 3.371764e-001 6.976298e-002 2.977951e+001 3.680466e+001 1.210095e+002 4.762525e-004 5.782502e-004 1.938003e-004
<GCONST> -7.372870e-001
<MIXTURE> 10 4.687282e-002
<MEAN> 9
 -9.859439e+000 5.987956e+000 1.694762e+000 -5.373985e+001 -6.357778e+001 6.876019e+001 4.578788e-001 -2.512123e-001 2.632650e-001
<VARIANCE> 9
 1.491142e-001 3.371764e-001 1.016345e+000 2.977951e+001 1.138088e+003 1.210095e+002 4.762525e-004 5.782502e-004 2.380961e-004
<GCONST> 5.345806e+000
<MIXTURE> 11 4.877509e-002
<MEAN> 9
 -8.630554e+000 4.698081e+000 3.007292e+000 7.104929e+000 7.560369e+000 -4.239111e+000 5.096471e-001 -1.577442e-001 1.945487e-001
<VARIANCE> 9
 1.491142e-001 3.371764e-001 6.976298e-002 2.977951e+001 3.680466e+001 1.210095e+002 4.762525e-004 5.782502e-004 1.938003e-004
<GCONST> -9.703841e-001
<MIXTURE> 12 4.686878e-002
<MEAN> 9
 -8.513988e+000 5.445803e+000 7.389981e-001 -2.126072e+001 5.199159e+001 5.044711e+001 4.824244e-001 -2.057577e-001 2.700684e-001
<VARIANCE> 9
 1.825348e-001 3.371764e-001 6.976298e-002 3.317790e+001 3.680466e+001 1.210095e+002 4.762525e-004 5.782502e-004 1.938003e-004
<GCONST> -6.600928e-001
<MIXTURE> 13 4.656864e-002
<MEAN> 9
 -1.070232e+001 3.400168e+000 3.101788e+000 -1.905285e+001 -1.394177e+002 6.819647e+001 4.991321e-001 -1.811435e-001 1.693538e-001
<VARIANCE> 9
 1.588898e-001 3.371764e-001 1.626454e+000 2.977951e+001 5.817085e+001 1.210095e+002 4.762525e-004 5.782502e-004 4.891306e-003
<GCONST> 5.928314e+000
<MIXTURE> 14 6.249879e-002
<MEAN> 9
 -1.894578e+000 4.433735e+000 5.316265e+000 -4.463415e+001 -4.100153e+002 9.745427e+001 4.193182e-001 -2.434091e-001 -3.010204e-002
<VARIANCE> 9
 6.528334e+000 9.767748e-001 9.294800e-001 6.348342e+001 6.058691e+002 1.210095e+002 4.762525e-004 4.014205e-003 7.120211e-003
<GCONST> 1.556143e+001
<MIXTURE> 15 3.954520e-002
<MEAN> 9
 -8.579801e+000 4.637190e+000 2.974705e+000 7.025349e+000 8.094046e+000 -4.536674e+000 5.095082e-001 -1.585035e-001 1.941366e-001
<VARIANCE> 9
 1.491142e-001 3.371764e-001 6.976298e-002 2.977951e+001 3.680466e+001 1.210095e+002 4.762525e-004 5.782502e-004 1.938003e-004
<GCONST> -9.703841e-001
<MIXTURE> 16 1.562470e-002
<MEAN> 9
 -8.108434e+000 3.012048e-001 4.457831e+000 -6.347561e+001 4.268293e-001 1.969512e+001 5.027273e-001 -1.609091e-001 2.459184e-001
<VARIANCE> 9
 1.491142e-001 3.371764e-001 6.976298e-002 2.977951e+001 3.680466e+001 1.210095e+002 4.762525e-004 5.782502e-004 1.938003e-004
<GCONST> -9.703841e-001
<MIXTURE> 17 4.719246e-002
<MEAN> 9
 -1.184890e+001 3.080199e+000 3.058820e+000 -2.253365e+001 -1.922508e+002 7.089697e+001 4.858053e-001 -1.773750e-001 9.442016e-002
<VARIANCE> 9
 1.370490e+000 8.019210e-001 1.522992e-001 2.977951e+001 9.133170e+003 1.314046e+002 4.762525e-004 5.782502e-004 1.348683e-002
<GCONST> 1.273407e+001
<MIXTURE> 18 3.124937e-002
<MEAN> 9
 -9.403615e+000 5.897591e+000 2.162650e+000 -6.274390e+001 -3.213719e+002 7.585366e+001 4.500000e-001 -2.827273e-001 1.785714e-001
<VARIANCE> 9
 3.115438e+000 3.371764e-001 6.419293e-001 2.977951e+001 5.155066e+003 1.210095e+002 4.762525e-004 5.782502e-004 3.758852e-004
<GCONST> 9.892969e+000
<MIXTURE> 19 4.687345e-002
<MEAN> 9
 -3.317268e+000 4.859402e-001 2.461844e+000 -4.514243e+001 -3.731718e+001 8.491905e+001 5.139394e-001 -1.309088e-001 2.037416e-001
<VARIANCE> 9
 1.676447e-001 3.371764e-001 6.976298e-002 7.599173e+001 3.680466e+001 4.489371e+002 4.762525e-004 5.782502e-004 1.938003e-004
<GCONST> 1.394568e+000
<MIXTURE> 20 3.124912e-002
<MEAN> 9
 6.626468e-001 4.596388e+000 7.271081e+000 -1.667685e+001 -3.179883e+002 1.185366e+002 3.390912e-001 -2.068180e-001 -1.908162e-001
<VARIANCE> 9
 2.207868e-001 3.371764e-001 1.263245e-001 2.977951e+001 3.153781e+003 1.210095e+002 9.553719e-004 5.782502e-004 4.164933e-004
<GCONST> 5.927778e+000
<MIXTURE> 21 3.107765e-002
<MEAN> 9
 -8.719519e+000 4.595917e+000 1.713549e+000 -1.698261e+000 4.644035e+001 2.325233e+001 5.009393e-001 -1.731458e-001 2.193761e-001
<VARIANCE> 9
 1.491142e-001 3.371764e-001 1.435834e-001 2.977951e+001 3.680466e+001 1.210095e+002 4.762525e-004 5.782502e-004 1.938003e-004
<GCONST> -2.485704e-001
<MIXTURE> 22 1.824762e-002
<MEAN> 9
 -7.482604e+000 3.604149e+000 3.021323e+000 2.245569e+000 1.427296e+001 -7.131231e+000 5.051745e-001 -1.711304e-001 1.831041e-001
<VARIANCE> 9
 1.491142e-001 3.371764e-001 6.976298e-002 2.977951e+001 3.680466e+001 1.210095e+002 4.762525e-004 5.782502e-004 1.938003e-004
<GCONST> -9.703841e-001
<MIXTURE> 23 4.765665e-002
<MEAN> 9
 -8.629078e+000 4.696311e+000 3.006246e+000 7.102609e+000 7.576956e+000 -4.246358e+000 5.096431e-001 -1.577689e-001 1.945357e-001
<VARIANCE> 9
 1.491142e-001 3.371764e-001 6.976298e-002 2.977951e+001 3.680466e+001 1.210095e+002 4.762525e-004 5.782502e-004 1.938003e-004
<GCONST> -9.703841e-001
<MIXTURE> 24 4.687657e-002
<MEAN> 9
 -1.003207e+001 8.874996e-001 6.060279e+000 -3.859970e+001 -1.890309e+001 4.369205e+000 5.209087e-001 -1.203029e-001 1.431981e-001
<VARIANCE> 9
 1.491142e-001 3.371764e-001 1.789508e-001 1.880031e+002 3.680466e+001 1.210095e+002 4.762525e-004 5.782502e-004 1.938003e-004
<GCONST> 1.814261e+000
<STATE> 5
<NUMMIXES> 24
<MIXTURE> 1 3.776693e-002
<MEAN> 9
 2.249873e+000 5.075285e+000 7.524127e+000 2.242332e+001 -7.245203e+001 9.527460e+001 2.277282e-001 -2.543183e-001 -2.293366e-001
<VARIANCE> 9
 5.460585e-001 3.371764e-001 1.153005e-001 2.977951e+001 4.075158e+002 1.210095e+002 4.762525e-004 5.782502e-004 1.938003e-004
<GCONST> 3.234523e+000
<MIXTURE> 2 5.576453e-002
<MEAN> 9
 -3.615241e+000 3.526890e+000 7.640427e+000 9.882319e+000 1.153550e+001 1.909853e+000 3.853110e-001 -1.058850e-001 -1.986737e-001
<VARIANCE> 9
 3.889495e-001 3.371764e-001 6.976298e-002 2.977951e+001 3.680466e+001 1.210095e+002 4.762525e-004 5.782502e-004 1.938003e-004
<GCONST> -1.164722e-002
<MIXTURE> 3 3.676920e-002
<MEAN> 9
 3.052748e+000 5.856044e+000 7.426124e+000 1.742774e+001 -5.999989e+001 -1.009051e+002 3.235157e-001 -3.218066e-001 -1.079626e-001
<VARIANCE> 9
 1.491142e-001 3.371764e-001 6.976298e-002 2.977951e+001 9.386759e+001 1.197727e+003 4.762525e-004 5.782502e-004 1.938003e-004
<GCONST> 2.258189e+000
<MIXTURE> 4 5.647499e-002
<MEAN> 9
 -5.685051e+000 3.001763e+000 8.973904e+000 -1.522870e+001 2.592621e-001 -1.410782e+002 3.178814e-001 -1.590157e-001 -2.285505e-001
<VARIANCE> 9
 3.076454e+000 3.371764e-001 2.075605e-001 2.977951e+001 3.756863e+002 9.553480e+002 4.762525e-004 7.517220e-004 1.938003e-004
<GCONST> 7.798451e+000
<MIXTURE> 5 5.680784e-002
<MEAN> 9
 3.047611e+000 5.301830e+000 7.371673e+000 2.052077e+001 8.002003e+000 5.505871e+001 1.864941e-001 -2.933711e-001 -2.266919e-001
<VARIANCE> 9
 2.108464e-001 3.371764e-001 2.419309e-001 2.977951e+001 3.680466e+001 2.970622e+002 4.762525e-004 5.782502e-004 1.938003e-004
<GCONST> 1.517655e+000
<MIXTURE> 6 2.851384e-002
<MEAN> 9
 -6.838901e+000 2.865275e+000 8.832039e+000 -8.012091e+000 -2.459447e+001 -5.194894e+001 3.503989e-001 -1.245748e-001 -2.151111e-001
<VARIANCE> 9
 1.414435e+000 5.993832e-001 1.159632e-001 2.977951e+001 3.680466e+001 1.210095e+002 4.762525e-004 9.266147e-004 1.938003e-004
<GCONST> 2.834384e+000
<MIXTURE> 7 3.777093e-002
<MEAN> 9
 -5.065483e-001 4.415480e+000 8.069455e+000 -2.976487e+000 -2.513868e+001 -2.833092e+001 2.784122e-001 -2.236309e-001 -2.209197e-001
<VARIANCE> 9
 4.107068e-001 3.371764e-001 9.189208e-002 1.360961e+002 5.750844e+003 2.029518e+004 4.762525e-004 5.782502e-004 1.938003e-004
<GCONST> 1.201158e+001
<MIXTURE> 8 3.059528e-002
<MEAN> 9
 -3.380931e+000 4.243093e+000 8.366469e+000 6.707834e+000 -1.191222e-001 7.083965e+000 3.541018e-001 -1.388829e-001 -2.156426e-001
<VARIANCE> 9
 3.796679e-001 3.371764e-001 6.976298e-002 2.977951e+001 3.680466e+001 1.210095e+002 4.762525e-004 5.782502e-004 1.938003e-004
<GCONST> -3.579807e-002
<MIXTURE> 9 4.718560e-002
<MEAN> 9
 -7.896178e-001 5.544879e+000 6.448341e+000 -8.716711e+000 -5.002958e+001 8.026452e+001 3.519860e-001 -3.203997e-001 -6.062822e-002
<VARIANCE> 9
 5.182131e+000 3.371764e-001 7.088577e-001 4.334846e+001 1.685671e+002 2.000394e+002 4.762525e-004 5.782502e-004 4.250791e-004
<GCONST> 8.081680e+000
<MIXTURE> 10 2.834290e-002
<MEAN> 9
 -6.627571e+000 3.741546e+000 8.072358e+000 -2.085025e+001 -5.781063e+001 -1.808464e+002 3.760342e-001 -1.899622e-001 -1.704279e-001
<VARIANCE> 9
 3.398854e+000 3.371764e-001 6.976298e-002 2.977951e+001 3.680466e+001 1.027086e+003 4.762525e-004 5.782502e-004 2.301830e-004
<GCONST> 4.466756e+000
<MIXTURE> 11 3.500602e-002
<MEAN> 9
 -2.251871e+000 3.428139e+000 7.485299e+000 1.193145e+001 4.596483e+000 -3.325410e-001 3.505489e-001 -1.581819e-001 -2.141777e-001
<VARIANCE> 9
 1.491142e-001 3.371764e-001 1.635436e-001 2.977951e+001 3.680466e+001 1.210095e+002 4.762525e-004 5.782502e-004 1.938003e-004
<GCONST> -1.184092e-001
<MIXTURE> 12 5.625125e-002
<MEAN> 9
 2.071995e+000 5.852406e+000 6.793130e+000 7.771910e+000 -2.677741e+001 2.491894e+000 3.239616e-001 -3.323666e-001 -8.868058e-002
<VARIANCE> 9
 6.440848e-001 3.371764e-001 3.420404e-001 2.977951e+001 1.056246e+002 5.928441e+002 4.762525e-004 5.782502e-004 1.938003e-004
<GCONST> 4.725888e+000
<MIXTURE> 13 5.500433e-002
<MEAN> 9
 3.627131e+000 4.289704e+000 7.681417e+000 -1.640543e+001 7.611676e+000 -1.119349e+002 2.172612e-001 -2.725146e-001 -2.253901e-001
<VARIANCE> 9
 4.280379e-001 3.371764e-001 2.555934e-001 2.977951e+001 3.680466e+001 1.067049e+003 4.762525e-004 5.782502e-004 1.938003e-004
<GCONST> 3.559384e+000
<MIXTURE> 14 4.701728e-002
<MEAN> 9
 -2.024516e-001 5.949046e+000 6.868715e+000 2.738662e+000 -8.523382e+001 -1.657314e+002 3.433110e-001 -2.819544e-001 -1.296197e-001
<VARIANCE> 9
 1.814913e-001 3.371764e-001 2.851133e-001 9.450739e+001 5.031052e+002 7.553242e+002 4.762525e-004 5.782502e-004 1.938003e-004
<GCONST> 6.235206e+000
<MIXTURE> 15 4.724441e-002
<MEAN> 9
 -5.054430e+000 3.724327e+000 8.693029e+000 6.885687e-001 1.305866e+000 -2.087541e+001 3.344396e-001 -1.321867e-001 -2.287071e-001
<VARIANCE> 9
 2.679825e-001 3.371764e-001 6.976298e-002 2.977951e+001 3.871479e+001 1.588409e+002 4.762525e-004 5.927914e-004 1.938003e-004
<GCONST> -3.670788e-002
<MIXTURE> 16 2.832175e-002
<MEAN> 9
 -8.433978e+000 1.915546e+000 7.823316e+000 -2.924803e+001 -8.766250e+001 -1.456295e+002 3.739406e-001 -1.690876e-001 -1.846941e-001
<VARIANCE> 9
 8.913517e+000 2.060851e+000 1.438357e-001 2.977951e+001 3.680466e+001 3.466786e+002 4.762525e-004 1.766859e-003 1.938003e-004
<GCONST> 7.823545e+000
<MIXTURE> 17 1.888473e-002
<MEAN> 9
 -6.698415e+000 2.940011e+000 8.144583e+000 3.993694e+000 1.033400e+001 -1.841139e+001 3.795376e-001 -9.683292e-002 -2.076546e-001
<VARIANCE> 9
 3.931941e-001 3.371764e-001 6.976298e-002 2.977951e+001 3.680466e+001 1.210095e+002 4.762525e-004 5.782502e-004 1.938003e-004
<GCONST> -7.944107e-004
<MIXTURE> 18 4.868596e-002
<MEAN> 9
 4.404094e+000 5.046093e+000 7.111838e+000 4.368698e+000 -1.536124e+000 -9.959277e+000 1.839175e-001 -2.998274e-001 -2.177369e-001
<VARIANCE> 9
 1.491142e-001 3.371764e-001 1.611004e-001 5.682684e+001 3.680466e+001 7.385234e+002 4.762525e-004 5.782502e-004 1.938003e-004
<GCONST> 2.321511e+000
<MIXTURE> 19 4.874246e-002
<MEAN> 9
 1.690865e+000 6.108676e+000 7.553009e+000 8.338458e+000 -7.544553e+001 -9.902664e+001 3.309644e-001 -3.109571e-001 -9.857653e-002
<VARIANCE> 9
 5.057259e-001 3.371764e-001 8.313026e-002 2.977951e+001 3.509286e+002 1.782572e+003 4.762525e-004 5.782502e-004 2.026600e-004
<GCONST> 5.415806e+000
<MIXTURE> 20 3.922239e-002
<MEAN> 9
 -2.167686e+000 2.344068e+000 6.843762e+000 5.812528e+000 3.051609e+000 -1.837575e+001 3.634281e-001 -1.190345e-001 -2.052801e-001
<VARIANCE> 9
 3.209100e-001 3.371764e-001 1.973832e-001 2.977951e+001 3.680466e+001 1.210095e+002 5.131096e-004 5.782502e-004 2.490983e-004
<GCONST> 1.161669e+000
<MIXTURE> 21 7.462274e-002
<MEAN> 9
 -2.354270e+000 3.628621e+000 8.234850e+000 4.083658e+000 9.093670e-001 -3.540508e+000 3.293860e-001 -1.073027e-001 -2.392004e-001
<VARIANCE> 9
 1.491142e-001 3.371764e-001 1.289112e-001 2.977951e+001 3.680466e+001 1.210095e+002 4.762525e-004 5.782502e-004 1.938003e-004
<GCONST> -3.563623e-001
<MIXTURE> 22 2.837260e-002
<MEAN> 9
 -2.200792e+000 5.277761e+000 6.570663e+000 -1.529035e+001 -9.010837e+001 -1.790199e+002 3.530028e-001 -2.322120e-001 -1.510126e-001
<VARIANCE> 9
 7.129675e-001 3.371764e-001 7.698079e-002 5.406285e+001 8.730014e+001 6.883350e+002 4.762525e-004 5.782502e-004 1.938003e-004
<GCONST> 3.891252e+000
<MIXTURE> 23 1.888227e-002
<MEAN> 9
 3.030121e+000 5.740964e+000 7.445783e+000 -2.042683e+000 -1.428354e+002 4.478658e+001 3.409091e-001 -3.300000e-001 -6.173469e-002
<VARIANCE> 9
 3.509980e+000 3.371764e-001 6.976298e-002 2.977951e+001 4.463944e+002 1.211342e+002 4.762525e-004 5.782502e-004 2.501562e-004
<GCONST> 4.940132e+000
<MIXTURE> 24 3.774947e-002
<MEAN> 9
 -8.316226e+000 2.889105e+000 8.394879e+000 -2.032122e+001 -5.245889e+001 -8.825072e+001 3.579596e-001 -1.609170e-001 -2.010264e-001
<VARIANCE> 9
 9.730310e-001 9.370365e-001 3.459778e-001 2.977951e+001 6.562850e+001 3.896655e+002 4.762525e-004 8.366267e-004 1.938003e-004
<GCONST> 5.645881e+000
<STATE> 6
<NUMMIXES> 24
<MIXTURE> 1 6.622034e-002
<MEAN> 9
 -2.107521e+000 9.103373e-001 4.575204e+000 -3.013795e+001 4.501400e+001 -9.408743e+001 3.973107e-001 -5.645636e-002 -1.805188e-001
<VARIANCE> 9
 1.491142e-001 3.371764e-001 7.108174e-002 5.036104e+001 3.957535e+002 1.279661e+002 4.762525e-004 5.782502e-004 1.938003e-004
<GCONST> 2.004804e+000
<MIXTURE> 2 3.443593e-002
<MEAN> 9
 -7.421693e+000 -3.108442e+000 4.873492e+000 -6.173783e+001 1.310977e+002 -2.256098e+002 4.240910e-001 1.381820e-001 -6.173460e-002
<VARIANCE> 9
 2.440122e-001 4.232834e-001 6.976298e-002 2.977951e+001 5.002973e+001 1.210095e+002 4.762525e-004 5.782502e-004 1.938003e-004
<GCONST> 5.654812e-002
<MIXTURE> 3 3.443631e-002
<MEAN> 9
 -4.662650e+000 -3.674695e-001 4.626506e+000 -4.817073e+001 1.302439e+002 -1.602134e+002 4.245455e-001 2.090909e-002 -1.418367e-001
<VARIANCE> 9
 4.716215e-001 3.371764e-001 6.976298e-002 2.977951e+001 4.747540e+001 1.435614e+002 4.762525e-004 5.782502e-004 1.938003e-004
<GCONST> 6.065607e-001
<MIXTURE> 4 3.440161e-002
<MEAN> 9
 -8.132945e+000 -5.306876e+000 6.807218e+000 -8.582140e+001 3.141233e+001 -2.431413e+002 3.718168e-001 2.168057e-001 -6.123257e-002
<VARIANCE> 9
 1.678005e-001 3.371764e-001 6.976298e-002 2.977951e+001 5.356012e+001 1.210095e+002 4.762525e-004 5.782502e-004 1.938003e-004
<GCONST> -4.771395e-001
<MIXTURE> 5 3.477944e-002
<MEAN> 9
 -2.515697e+000 1.760164e+000 5.289329e+000 1.875846e-001 2.267320e+001 -4.048250e+001 3.936099e-001 -8.879472e-002 -1.912686e-001
<VARIANCE> 9
 1.491142e-001 3.371764e-001 2.192633e-001 2.977951e+001 5.054612e+001 1.210095e+002 4.762525e-004 5.782502e-004 1.938003e-004
<GCONST> 4.920492e-001
<MIXTURE> 6 3.443635e-002
<MEAN> 9
 -6.000000e+000 -8.042169e+000 6.313253e+000 -1.003354e+002 4.362805e+001 -2.251829e+002 2.504545e-001 3.204545e-001 -1.020408e-003
<VARIANCE> 9
 2.939468e-001 3.371764e-001 1.220787e-001 2.977951e+001 4.994135e+002 1.210095e+002 4.762525e-004 5.782502e-004 1.938003e-004
<GCONST> 2.875674e+000
<MIXTURE> 7 3.443027e-002
<MEAN> 9
 -3.276995e+000 1.108449e+000 6.289131e+000 -6.871919e+001 4.643269e+001 -1.435358e+002 3.831815e-001 -6.136449e-002 -2.000000e-001
<VARIANCE> 9
 3.628902e-001 3.371764e-001 6.976298e-002 2.977951e+001 3.680466e+001 1.210095e+002 4.762525e-004 5.782502e-004 1.938003e-004
<GCONST> -8.099461e-002
<MIXTURE> 8 5.158127e-002
<MEAN> 9
 -6.594543e+000 -2.432787e+000 6.020885e+000 -8.446277e+001 9.128270e+001 -2.268636e+002 3.890657e-001 1.245363e-001 -1.265549e-001
<VARIANCE> 9
 1.516048e-001 3.599318e-001 2.303471e-001 2.977951e+001 4.845415e+001 1.210095e+002 4.762525e-004 5.782502e-004 2.963485e-004
<GCONST> 1.005673e+000
<MIXTURE> 9 3.574819e-002
<MEAN> 9
 -9.753538e-001 1.615485e+000 5.864070e+000 1.953029e+000 2.238009e+001 -2.859287e+001 3.339505e-001 -1.017399e-001 -2.326398e-001
<VARIANCE> 9
 1.491142e-001 3.371764e-001 3.001006e-001 2.977951e+001 6.295679e+001 1.210095e+002 4.762525e-004 5.782502e-004 1.938003e-004
<GCONST> 1.025455e+000
<MIXTURE> 10 5.441754e-002
<MEAN> 9
 -2.373960e+000 5.342985e-001 4.669317e+000 -4.880513e+001 5.810966e+001 -1.252916e+002 4.038313e-001 -3.361332e-002 -1.752518e-001
<VARIANCE> 9
 1.491142e-001 3.371764e-001 6.976298e-002 8.924197e+001 5.344352e+002 1.210095e+002 4.762525e-004 5.782502e-004 1.938003e-004
<GCONST> 2.802733e+000
<MIXTURE> 11 3.440665e-002
<MEAN> 9
 -1.331431e+000 1.566246e+000 5.162748e+000 -4.610372e+001 1.683863e+001 -1.058617e+002 3.631854e-001 -1.022609e-001 -2.091811e-001
<VARIANCE> 9
 1.491142e-001 3.371764e-001 6.976298e-002 5.625836e+001 1.258879e+002 1.210095e+002 4.762525e-004 5.782502e-004 1.938003e-004
<GCONST> 8.955183e-001
<MIXTURE> 12 1.721818e-002
<MEAN> 9
 -4.807229e+000 -1.108434e+000 7.132530e+000 -9.682927e+001 8.317073e+001 -2.095732e+002 3.909091e-001 8.727273e-002 -1.561224e-001
<VARIANCE> 9
 1.491142e-001 3.371764e-001 6.976298e-002 2.977951e+001 3.680466e+001 1.210095e+002 4.762525e-004 5.782502e-004 1.938003e-004
<GCONST> -9.703841e-001
<MIXTURE> 13 3.443321e-002
<MEAN> 9
 -3.608387e+000 5.421959e-002 4.734922e+000 -6.451199e+001 6.798779e+001 -1.748160e+002 4.181820e-001 2.999967e-002 -1.489798e-001
<VARIANCE> 9
 2.621934e-001 3.371764e-001 6.976298e-002 2.977951e+001 3.680466e+001 1.413779e+002 4.762525e-004 5.782502e-004 1.938003e-004
<GCONST> -2.504454e-001
<MIXTURE> 14 6.840451e-002
<MEAN> 9
 -2.154938e+000 1.322313e+000 4.332182e+000 -3.740199e+000 7.099357e+001 -6.349422e+001 3.707700e-001 -8.670800e-002 -2.062592e-001
<VARIANCE> 9
 3.805234e-001 3.371764e-001 9.451114e-002 4.790938e+001 7.130173e+002 1.223257e+002 4.762525e-004 5.782502e-004 1.938003e-004
<GCONST> 3.720256e+000
<MIXTURE> 15 3.443634e-002
<MEAN> 9
 -9.524096e+000 -6.873494e+000 4.825301e+000 -6.320122e+001 1.170122e+002 -2.389329e+002 3.663636e-001 2.568182e-001 4.030612e-002
<VARIANCE> 9
 1.491142e-001 3.371764e-001 6.976298e-002 2.977951e+001 3.680466e+001 1.210095e+002 4.762525e-004 5.782502e-004 1.938003e-004
<GCONST> -9.703841e-001
<MIXTURE> 16 5.172770e-002
<MEAN> 9
 -6.742595e+000 -3.657846e+000 6.063392e+000 -9.164494e+001 7.715195e+001 -2.396224e+002 3.736834e-001 1.850749e-001 -9.661681e-002
<VARIANCE> 9
 1.011109e+000 3.676252e-001 6.976298e-002 1.036961e+002 4.534373e+001 1.210095e+002 4.762525e-004 5.782502e-004 1.938003e-004
<GCONST> 2.486453e+000
<MIXTURE> 17 5.117359e-002
<MEAN> 9
 -8.572469e+000 -8.317982e+000 5.854864e+000 -9.026270e+001 6.525131e+001 -2.481930e+002 2.864487e-001 3.103912e-001 -8.199954e-004
<VARIANCE> 9
 1.565354e-001 5.367965e-001 6.976298e-002 2.977951e+001 3.680466e+001 1.210095e+002 4.762525e-004 8.749388e-004 2.359842e-004
<GCONST> 1.542797e-001
<MIXTURE> 18 6.938682e-002
<MEAN> 9
 -8.988811e+000 -6.356131e+000 6.723340e+000 -9.281610e+001 6.329508e+001 -2.412062e+002 3.237924e-001 2.602668e-001 -4.677264e-002
<VARIANCE> 9
 8.402327e-001 3.371764e-001 2.037401e-001 2.977951e+001 1.027137e+003 1.210095e+002 4.762525e-004 6.523721e-004 2.991997e-004
<GCONST> 5.714118e+000
<MIXTURE> 19 3.410592e-002
<MEAN> 9
 -1.316523e+000 1.614852e+000 5.018026e+000 -1.901397e+001 -2.721323e+000 -6.918426e+001 3.582292e-001 -1.376045e-001 -2.168095e-001
<VARIANCE> 9
 1.491142e-001 3.371764e-001 6.976298e-002 4.338311e+001 3.680466e+001 1.210095e+002 4.762525e-004 5.782502e-004 1.938003e-004
<GCONST> -5.941367e-001
<MIXTURE> 20 3.484745e-002
<MEAN> 9
 -1.340590e+000 1.585548e+000 5.353436e+000 -1.475219e+000 6.255698e+000 -3.901332e+001 3.518417e-001 -1.463607e-001 -2.077578e-001
<VARIANCE> 9
 1.491142e-001 3.371764e-001 6.976298e-002 2.977951e+001 3.680466e+001 1.210095e+002 4.762525e-004 5.782502e-004 1.938003e-004
<GCONST> -9.703841e-001
<MIXTURE> 21 3.444742e-002
<MEAN> 9
 -3.801214e+000 6.264830e-001 6.042338e+000 -8.274358e+001 3.125614e+001 -1.770709e+002 3.850003e-001 -3.639790e-003 -1.872465e-001
<VARIANCE> 9
 1.491142e-001 3.371764e-001 6.976298e-002 2.977951e+001 3.680466e+001 1.210095e+002 4.762525e-004 8.467259e-004 1.938003e-004
<GCONST> -5.890136e-001
<MIXTURE> 22 3.443635e-002
<MEAN> 9
 -9.734940e+000 -5.301205e+000 4.283133e+000 -6.265244e+001 1.454268e+002 -2.405183e+002 4.045455e-001 2.018182e-001 -1.326531e-002
<VARIANCE> 9
 1.491142e-001 3.485265e-001 6.976298e-002 2.977951e+001 1.472375e+002 1.210095e+002 4.762525e-004 5.782502e-004 1.938003e-004
<GCONST> 4.491453e-001
<MIXTURE> 23 3.443607e-002
<MEAN> 9
 -5.801207e+000 -1.518074e+000 4.993978e+000 -5.521343e+001 1.193597e+002 -1.994818e+002 4.272727e-001 7.590908e-002 -1.076530e-001
<VARIANCE> 9
 1.491142e-001 3.371764e-001 6.976298e-002 2.977951e+001 3.680466e+001 1.210095e+002 4.762525e-004 5.782502e-004 1.938003e-004
<GCONST> -9.703841e-001
<MIXTURE> 24 5.165249e-002
<MEAN> 9
 -4.317314e+000 -9.638878e-001 5.811104e+000 -8.268076e+001 5.508225e+001 -2.068290e+002 4.048508e-001 6.697052e-002 -1.476157e-001
<VARIANCE> 9
 1.955856e-001 7.096332e-001 4.290062e-001 8.589644e+001 3.680466e+001 1.210095e+002 4.762525e-004 5.782502e-004 6.151574e-004
<GCONST> 4.075783e+000
<STATE> 7
<NUMMIXES> 24
<MIXTURE> 1 5.882604e-002
<MEAN> 9
 -5.554217e+000 -1.028916e+001 3.767068e+000 -2.439026e+000 1.896342e+002 -2.835366e+001 -3.090909e-002 3.630303e-001 1.738095e-001
<VARIANCE> 9
 3.903034e+000 5.877001e-001 1.155787e-001 1.045831e+002 5.394434e+002 1.210095e+002 4.762525e-004 5.782502e-004 1.938003e-004
<GCONST> 7.295943e+000
<MIXTURE> 2 5.882589e-002
<MEAN> 9
 -8.510040e+000 -1.069076e+001 3.465864e+000 -2.835368e+001 7.676824e+001 -2.110163e+002 1.875758e-001 3.636364e-001 1.459184e-001
<VARIANCE> 9
 1.491142e-001 3.371764e-001 6.976298e-002 3.633987e+001 2.616594e+002 1.210095e+002 5.357193e-004 5.782502e-004 1.938003e-004
<GCONST> 1.307794e+000
<MIXTURE> 3 3.921429e-002
<MEAN> 9
 -7.517944e+000 -1.163862e+001 4.680705e+000 -7.905507e+001 8.600626e+001 -2.020107e+002 1.086333e-001 3.754545e-001 9.898119e-002
<VARIANCE> 9
 2.645521e+000 6.911014e-001 6.976298e-002 2.977951e+001 3.680466e+001 3.736207e+002 1.492768e-003 5.782502e-004 4.164930e-004
<GCONST> 5.658061e+000
<MIXTURE> 4 3.917760e-002
<MEAN> 9
 -6.060466e+000 -1.016880e+001 1.981728e+000 -2.210266e+001 4.697446e+001 -3.921027e+001 1.500710e-002 3.704643e-001 1.846938e-001
<VARIANCE> 9
 1.491142e-001 3.371764e-001 6.976298e-002 2.977951e+001 1.187154e+002 1.210095e+002 4.762525e-004 5.782502e-004 1.938003e-004
<GCONST> 2.007208e-001
<MIXTURE> 5 3.921732e-002
<MEAN> 9
 -6.373495e+000 -1.279518e+001 2.656626e+000 -7.658535e+001 1.927744e+002 -2.415549e+002 1.177272e-001 3.781818e-001 1.066327e-001
<VARIANCE> 9
 2.939468e-001 3.371764e-001 1.533241e-001 5.265093e+001 2.821988e+002 1.210095e+002 4.762525e-004 5.782502e-004 1.938003e-004
<GCONST> 3.102603e+000
<MIXTURE> 6 3.921668e-002
<MEAN> 9
 -5.174685e+000 -9.897588e+000 1.831333e+000 -5.612802e+001 5.798765e+001 -2.588407e+001 -6.409097e-002 3.477272e-001 1.867346e-001
<VARIANCE> 9
 5.670273e-001 3.371764e-001 1.881260e-001 2.977951e+001 8.034278e+001 1.210095e+002 4.762525e-004 5.782502e-004 1.938003e-004
<GCONST> 2.137996e+000
<MIXTURE> 7 3.943802e-002
<MEAN> 9
 -5.002919e+000 -1.126435e+001 1.561100e+000 -5.964524e+001 1.193299e+002 -6.666104e+001 -2.072486e-002 3.608424e-001 1.627406e-001
<VARIANCE> 9
 1.491142e-001 3.371764e-001 2.022384e+000 5.552938e+001 1.055836e+002 1.210095e+002 7.645186e-004 5.782502e-004 1.938003e-004
<GCONST> 4.546811e+000
<MIXTURE> 8 3.921738e-002
<MEAN> 9
 -8.234940e+000 -1.321084e+001 1.500000e+000 -5.201220e+001 1.859756e+002 -2.184756e+002 5.181818e-002 3.677273e-001 1.280612e-001
<VARIANCE> 9
 1.491142e-001 3.371764e-001 6.976298e-002 2.977951e+001 3.878978e+002 1.210095e+002 4.762525e-004 5.782502e-004 1.938003e-004
<GCONST> 1.384734e+000
<MIXTURE> 9 1.960867e-002
<MEAN> 9
 -3.289157e+000 -1.012048e+001 2.698795e+000 -2.969512e+001 1.533537e+002 -3.841463e+001 -2.272727e-002 3.581818e-001 1.785714e-001
<VARIANCE> 9
 1.491142e-001 3.371764e-001 6.976298e-002 2.977951e+001 3.680466e+001 1.210095e+002 4.762525e-004 5.782502e-004 1.938003e-004
<GCONST> -9.703841e-001
<MIXTURE> 10 5.882471e-002
<MEAN> 9
 -6.678720e+000 -1.195984e+001 1.333339e+000 -5.617890e+001 9.040646e+001 -1.351018e+002 3.032738e-004 3.733332e-001 1.520407e-001
<VARIANCE> 9
 1.491142e-001 3.371764e-001 1.245700e+000 5.614101e+001 4.982766e+001 1.840107e+002 6.227748e-004 5.782502e-004 1.938003e-004
<GCONST> 3.536319e+000
<MIXTURE> 11 5.884782e-002
<MEAN> 9
 -7.598048e+000 -1.001623e+001 5.188445e+000 -9.016225e+001 1.154786e+002 -2.320347e+002 2.072681e-001 3.575726e-001 4.558156e-002
<VARIANCE> 9
 2.111035e+000 3.371764e-001 9.129824e-002 3.539837e+001 1.058768e+003 1.210095e+002 4.762525e-004 5.782502e-004 1.938003e-004
<GCONST> 5.480948e+000
<MIXTURE> 12 1.960869e-002
<MEAN> 9
 -9.204820e+000 -8.421687e+000 4.156627e+000 -4.036585e+001 1.909146e+002 -2.344512e+002 3.290909e-001 3.054546e-001 8.673470e-002
<VARIANCE> 9
 1.491142e-001 3.371764e-001 6.976298e-002 2.977951e+001 3.680466e+001 1.210095e+002 4.762525e-004 5.782502e-004 1.938003e-004
<GCONST> -9.703841e-001
<MIXTURE> 13 3.921715e-002
<MEAN> 9
 -9.216866e+000 -1.123494e+001 2.343375e+000 -1.125001e+001 7.307936e+001 -1.789940e+002 1.100001e-001 3.727273e-001 1.658163e-001
<VARIANCE> 9
 1.491142e-001 3.371764e-001 6.976298e-002 2.977951e+001 2.446172e+002 1.210095e+002 4.762525e-004 5.782502e-004 1.938003e-004
<GCONST> 9.236860e-001
<MIXTURE> 14 3.919587e-002
<MEAN> 9
 -4.397587e+000 -1.000610e+001 2.150680e+000 -5.375088e+001 1.504841e+002 -3.740966e+001 1.000091e-002 3.804537e-001 1.739784e-001
<VARIANCE> 9
 1.491142e-001 3.371764e-001 9.438961e-002 2.977951e+001 2.141583e+002 1.210095e+002 4.762525e-004 5.782502e-004 1.938003e-004
<GCONST> 1.093036e+000
<MIXTURE> 15 3.920022e-002
<MEAN> 9
 -5.987905e+000 -1.098816e+001 3.849274e+000 -9.063991e+001 1.138195e+002 -2.408235e+002 1.781735e-001 3.550042e-001 6.939445e-002
<VARIANCE> 9
 1.491142e-001 3.371764e-001 8.016402e-002 2.977951e+001 3.795368e+002 1.210095e+002 4.762525e-004 5.782502e-004 2.342774e-004
<GCONST> 1.691591e+000
<MIXTURE> 16 3.921730e-002
<MEAN> 9
 -8.012049e+000 -1.233735e+001 2.427713e+000 -5.740855e+001 1.134451e+002 -1.713414e+002 3.545456e-002 3.813636e-001 1.418367e-001
<VARIANCE> 9
 1.491142e-001 3.371764e-001 1.615655e+000 8.875021e+001 3.680466e+001 1.608565e+002 4.762525e-004 5.782502e-004 1.938003e-004
<GCONST> 3.548659e+000
<MIXTURE> 17 5.882604e-002
<MEAN> 9
 -1.086747e+001 -9.124497e+000 2.646586e+000 -2.563008e+001 9.713414e+001 -2.299187e+002 2.784849e-001 3.269697e-001 1.136054e-001
<VARIANCE> 9
 5.113469e-001 3.371764e-001 6.976298e-002 2.977951e+001 1.682689e+003 1.210095e+002 5.202938e-004 5.782502e-004 1.938003e-004
<GCONST> 4.172921e+000
<MIXTURE> 18 4.007198e-002
<MEAN> 9
 -5.012325e+000 -9.437572e+000 1.460033e+000 -4.134198e+001 1.858906e+002 -3.534760e+001 2.812382e-004 3.708849e-001 1.770270e-001
<VARIANCE> 9
 1.491142e-001 3.371764e-001 6.976298e-002 2.977951e+001 3.680466e+001 1.210095e+002 4.762525e-004 5.782502e-004 1.938003e-004
<GCONST> -9.703841e-001
<MIXTURE> 19 3.921585e-002
<MEAN> 9
 -8.801212e+000 -1.112651e+001 1.963850e+000 -1.542676e+001 1.006558e+000 -1.385064e+002 7.181848e-002 3.654546e-001 1.714284e-001
<VARIANCE> 9
 1.491142e-001 3.371764e-001 6.976298e-002 2.977951e+001 2.370473e+002 1.293213e+002 4.762525e-004 5.782502e-004 1.938003e-004
<GCONST> 9.586821e-001
<MIXTURE> 20 3.921736e-002
<MEAN> 9
 -6.819277e+000 -1.026506e+001 6.024095e-001 -5.304878e+001 1.136281e+002 -4.826220e+001 -5.318182e-002 3.554546e-001 1.714286e-001
<VARIANCE> 9
 1.491142e-001 3.371764e-001 6.976298e-002 2.977951e+001 5.021426e+002 1.210095e+002 4.762525e-004 5.782502e-004 1.938003e-004
<GCONST> 1.642875e+000
<MIXTURE> 21 3.921736e-002
<MEAN> 9
 -6.066265e+000 -1.150602e+001 4.518072e+000 -8.118903e+001 3.518293e+001 -2.023171e+002 1.168182e-001 3.704545e-001 9.336735e-002
<VARIANCE> 9
 4.000945e-001 3.371764e-001 6.976298e-002 2.977951e+001 3.680466e+001 1.210095e+002 4.762525e-004 5.782502e-004 1.938003e-004
<GCONST> 1.660442e-002
<MIXTURE> 22 3.900233e-002
<MEAN> 9
 -5.402824e+000 -1.144132e+001 1.941087e+000 -6.296377e+001 9.281371e+001 -9.253307e+001 -5.093774e-003 3.637217e-001 1.555886e-001
<VARIANCE> 9
 1.491142e-001 3.371764e-001 9.297337e-001 7.264968e+001 8.495053e+001 1.210095e+002 1.067304e-003 5.782502e-004 1.938003e-004
<GCONST> 4.154626e+000
<MIXTURE> 23 3.921756e-002
<MEAN> 9
 -6.843446e+000 -1.084337e+001 2.331318e+000 -2.137182e+001 -1.920884e+000 -8.490979e+001 4.318236e-002 3.868175e-001 1.806124e-001
<VARIANCE> 9
 3.486184e-001 3.371764e-001 6.976298e-002 2.977951e+001 1.647795e+002 1.792209e+002 4.762525e-004 5.782502e-004 1.938003e-004
<GCONST> 1.770614e+000
<MIXTURE> 24 3.837765e-002
<MEAN> 9
 -4.980731e+000 -9.436002e+000 8.831924e-001 -3.081421e+001 1.700734e+002 -3.859288e+001 -1.143880e-002 3.723331e-001 1.807054e-001
<VARIANCE> 9
 1.491142e-001 3.371764e-001 1.583439e-001 2.977951e+001 3.680466e+001 1.210095e+002 4.762525e-004 5.782502e-004 1.938003e-004
<GCONST> -1.507196e-001
<TRANSP> 8
 0.000000e+000 1.000000e+000 0.000000e+000 0.000000e+000 0.000000e+000 0.000000e+000 0.000000e+000 0.000000e+000
 0.000000e+000 9.231111e-001 7.688885e-002 0.000000e+000 0.000000e+000 0.000000e+000 0.000000e+000 0.000000e+000
 0.000000e+000 0.000000e+000 9.473683e-001 5.263174e-002 0.000000e+000 0.000000e+000 0.000000e+000 0.000000e+000
 0.000000e+000 0.000000e+000 0.000000e+000 9.531262e-001 4.687378e-002 0.000000e+000 0.000000e+000 0.000000e+000
 0.000000e+000 0.000000e+000 0.000000e+000 0.000000e+000 9.716767e-001 2.832326e-002 0.000000e+000 0.000000e+000
 0.000000e+000 0.000000e+000 0.000000e+000 0.000000e+000 0.000000e+000 9.483457e-001 5.165428e-002 0.000000e+000
 0.000000e+000 0.000000e+000 0.000000e+000 0.000000e+000 0.000000e+000 0.000000e+000 9.411741e-001 5.882584e-002
 0.000000e+000 0.000000e+000 0.000000e+000 0.000000e+000 0.000000e+000 0.000000e+000 0.000000e+000 0.000000e+000
<ENDHMM>
~h "GM"
<BEGINHMM>
<NUMSTATES> 8
<STATE> 2
<NUMMIXES> 24
<MIXTURE> 1 4.166377e-002
<MEAN> 9
 -1.164659e+001 -9.493976e+000 -3.052209e-001 6.910572e+000 7.067073e+001 3.378658e+002 3.224242e-001 3.160606e-001 2.132653e-001
<VARIANCE> 9
 1.491142e-001 1.919098e+000 6.976298e-002 1.529480e+002 3.680466e+001 1.210095e+002 1.411754e-003 5.782502e-004 1.938003e-004
<GCONST> 3.491538e+000
<MIXTURE> 2 4.166377e-002
<MEAN> 9
 -6.775101e+000 -1.287149e+001 3.518072e+000 1.587398e+001 -1.302642e+002 1.815041e+002 8.151514e-002 3.790909e-001 2.214286e-001
<VARIANCE> 9
 6.973763e-001 3.371764e-001 3.298979e-001 6.790187e+001 1.096213e+003 7.858278e+002 9.169879e-004 5.782502e-004 1.938003e-004
<GCONST> 8.870158e+000
<MIXTURE> 3 2.791848e-002
<MEAN> 9
 -9.034394e+000 -8.773457e+000 -9.087213e-001 -3.380952e+001 -4.392841e+001 1.593029e+002 2.071381e-001 3.654372e-001 1.938367e-001
<VARIANCE> 9
 1.491142e-001 3.371764e-001 6.976298e-002 2.977951e+001 8.613837e+001 1.210095e+002 4.762525e-004 5.782502e-004 1.938003e-004
<GCONST> -1.200533e-001
<MIXTURE> 4 5.475136e-002
<MEAN> 9
 -1.016781e+001 -5.923325e+000 -2.965153e+000 -1.770106e+001 2.894627e+001 2.526857e+002 2.751190e-001 3.316045e-001 2.049381e-001
<VARIANCE> 9
 2.256271e-001 1.158528e+000 6.976298e-002 5.889921e+001 3.680466e+001 1.210095e+002 1.625482e-003 5.782502e-004 1.938003e-004
<GCONST> 2.587707e+000
<MIXTURE> 5 1.388792e-002
<MEAN> 9
 -9.433735e+000 -5.939759e+000 -8.795181e-001 -1.841463e+001 3.957317e+001 3.425610e+002 3.927273e-001 2.581818e-001 2.306122e-001
<VARIANCE> 9
 1.491142e-001 3.371764e-001 6.976298e-002 2.977951e+001 3.680466e+001 1.210095e+002 4.762525e-004 5.782502e-004 1.938003e-004
<GCONST> -9.703841e-001
<MIXTURE> 6 4.166315e-002
<MEAN> 9
 -9.795177e+000 -9.951808e+000 6.024131e-001 -3.048570e-001 -1.800816e+001 1.842479e+002 1.645453e-001 3.703030e-001 2.122449e-001
<VARIANCE> 9
 8.376625e-001 3.371764e-001 4.467984e-001 2.977951e+001 3.680466e+001 2.364812e+002 6.881510e-004 5.782502e-004 1.938003e-004
<GCONST> 3.650584e+000
<MIXTURE> 7 2.783214e-002
<MEAN> 9
 -1.051657e+001 -6.851168e+000 -1.114186e+000 -5.684719e+001 -7.624038e+001 1.775788e+002 3.325864e-001 3.100528e-001 2.005032e-001
<VARIANCE> 9
 1.993721e-001 3.371764e-001 6.976298e-002 2.977951e+001 3.680466e+001 1.210095e+002 4.762525e-004 5.782502e-004 1.938003e-004
<GCONST> -6.799254e-001
<MIXTURE> 8 2.780383e-002
<MEAN> 9
 -8.215083e+000 -1.193884e+001 8.496584e-001 -7.801870e+000 4.175564e+001 1.110250e+002 3.906618e-002 3.736263e-001 1.851964e-001
<VARIANCE> 9
 3.952714e-001 3.371764e-001 6.976298e-002 2.977951e+001 3.680466e+001 2.025334e+002 4.762525e-004 5.782502e-004 1.938003e-004
<GCONST> 5.195131e-001
<MIXTURE> 9 8.335423e-002
<MEAN> 9
 -8.385723e+000 -6.690093e+000 -1.168635e-001 1.064257e+001 6.982314e+001 1.853495e+002 2.683736e-001 3.125555e-001 9.099490e-002
<VARIANCE> 9
 1.491142e-001 5.122336e-001 1.673612e-001 3.392828e+002 3.680466e+001 1.210095e+002 1.844435e-003 5.782502e-004 1.938003e-004
<GCONST> 4.109836e+000
<MIXTURE> 10 5.635380e-002
<MEAN> 9
 -9.262805e+000 -4.651305e+000 -1.997763e+000 -3.798344e+001 3.812837e+001 1.876834e+002 3.710328e-001 2.587108e-001 1.459420e-001
<VARIANCE> 9
 7.729958e-001 3.371764e-001 2.108075e+000 4.298346e+001 4.648856e+002 1.548435e+003 4.762525e-004 5.782502e-004 1.629170e-003
<GCONST> 1.166489e+001
<MIXTURE> 11 2.777497e-002
<MEAN> 9
 -7.548188e+000 -1.045783e+001 1.734945e+000 -1.155480e+001 -8.798737e+001 1.390551e+002 1.040912e-001 3.840910e-001 2.173471e-001
<VARIANCE> 9
 1.491142e-001 3.371764e-001 6.976298e-002 2.977951e+001 3.665825e+002 1.210095e+002 4.762525e-004 5.782502e-004 1.938003e-004
<GCONST> 1.328216e+000
<MIXTURE> 12 2.777537e-002
<MEAN> 9
 -1.001205e+001 -4.674699e+000 9.036142e-002 -7.429878e+001 -1.083537e+002 1.827744e+002 4.150000e-001 2.354545e-001 1.806123e-001
<VARIANCE> 9
 1.491142e-001 3.371764e-001 2.041298e-001 2.977951e+001 5.533910e+001 1.210095e+002 4.762525e-004 5.782502e-004 1.938003e-004
<GCONST> 5.111227e-001
<MIXTURE> 13 4.188022e-002
<MEAN> 9
 -7.241441e+000 -9.748676e+000 4.741335e-001 -8.097065e+000 -7.020872e+001 5.755229e+001 3.895593e-002 3.844616e-001 2.084303e-001
<VARIANCE> 9
 1.491142e-001 3.371764e-001 6.976298e-002 2.977951e+001 4.268457e+001 1.929169e+002 4.762525e-004 5.782502e-004 1.938003e-004
<GCONST> -3.557787e-001
<MIXTURE> 14 5.555050e-002
<MEAN> 9
 -1.019579e+001 -5.753026e+000 -1.120476e+000 -4.999987e+001 -1.038126e+001 2.450000e+002 3.656814e-001 2.795458e-001 2.313775e-001
<VARIANCE> 9
 2.850499e-001 6.695751e-001 9.776255e-002 6.250320e+001 8.412730e+001 1.210095e+002 1.087341e-003 5.782502e-004 1.938003e-004
<GCONST> 3.094687e+000
<MIXTURE> 15 1.250341e-001
<MEAN> 9
 -9.286261e+000 -1.028633e+001 1.671091e+000 6.807083e+001 1.064781e+002 1.907314e+002 1.347232e-001 3.635412e-001 1.421777e-001
<VARIANCE> 9
 8.954660e+000 2.337682e+000 1.192075e+000 4.426115e+002 1.710993e+003 3.276762e+003 2.949130e-003 5.782502e-004 2.584576e-003
<GCONST> 2.215012e+001
<MIXTURE> 16 4.159302e-002
<MEAN> 9
 -9.686679e+000 -7.851515e+000 -1.008019e+000 -4.664263e+001 -8.013619e+001 1.686969e+002 2.672845e-001 3.427298e-001 1.955754e-001
<VARIANCE> 9
 1.491142e-001 3.371764e-001 6.976298e-002 2.977951e+001 3.680466e+001 1.210095e+002 4.762525e-004 5.782502e-004 1.938003e-004
<GCONST> -9.703841e-001
<MIXTURE> 17 4.149088e-002
<MEAN> 9
 -8.191725e+000 -9.546627e+000 -2.802531e-001 -2.212392e+001 -1.402823e+001 1.483624e+002 1.514539e-001 3.675852e-001 1.829821e-001
<VARIANCE> 9
 1.491142e-001 3.371764e-001 1.116932e-001 2.977951e+001 3.680466e+001 1.210095e+002 4.762525e-004 5.782502e-004 1.938003e-004
<GCONST> -4.997301e-001
<MIXTURE> 18 4.166381e-002
<MEAN> 9
 -1.139357e+001 -8.698791e+000 -5.100554e-001 -2.087394e+001 5.488118e+000 2.335367e+002 2.539386e-001 3.442427e-001 2.170066e-001
<VARIANCE> 9
 1.491142e-001 5.174345e-001 8.346143e-002 3.459556e+001 4.328426e+001 1.210095e+002 7.330097e-004 5.782502e-004 1.938003e-004
<GCONST> 3.804522e-001
<MIXTURE> 19 4.170047e-002
<MEAN> 9
 -7.349603e+000 -9.991847e+000 1.888374e-001 -6.596720e+000 4.846573e+000 1.245450e+002 8.974222e-002 3.724368e-001 1.728045e-001
<VARIANCE> 9
 1.491142e-001 3.371764e-001 6.976298e-002 2.977951e+001 8.721486e+001 1.210095e+002 4.762525e-004 5.782502e-004 1.938003e-004
<GCONST> -1.076326e-001
<MIXTURE> 20 4.166311e-002
<MEAN> 9
 -1.013252e+001 -9.759052e+000 -1.534139e+000 -1.595529e+001 2.420734e+001 2.241055e+002 1.563631e-001 3.663637e-001 1.925169e-001
<VARIANCE> 9
 6.447998e-001 8.989173e-001 6.976298e-002 2.977951e+001 3.680466e+001 1.384123e+002 7.691371e-004 5.782502e-004 1.938003e-004
<GCONST> 2.088115e+000
<MIXTURE> 21 2.754118e-002
<MEAN> 9
 -7.908497e+000 -1.009695e+001 6.093957e-001 -1.298945e+001 -8.241720e+001 1.010919e+002 7.093309e-002 3.810085e-001 2.051877e-001
<VARIANCE> 9
 1.491142e-001 3.371764e-001 6.976298e-002 2.977951e+001 1.341758e+002 1.210095e+002 4.762525e-004 5.782502e-004 1.938003e-004
<GCONST> 3.231421e-001
<MIXTURE> 22 2.777583e-002
<MEAN> 9
 -1.037349e+001 -1.198193e+001 2.530119e-001 -8.262196e+000 3.618901e+001 1.701829e+002 7.863637e-002 3.709091e-001 1.836735e-001
<VARIANCE> 9
 1.491142e-001 3.371764e-001 6.976298e-002 2.977951e+001 2.351734e+002 1.949770e+002 4.762525e-004 5.782502e-004 1.938003e-004
<GCONST> 1.361327e+000
<MIXTURE> 23 2.777505e-002
<MEAN> 9
 -1.003013e+001 -5.572292e+000 -1.662651e+000 -6.783533e+001 -1.072561e+002 1.828353e+002 3.722727e-001 2.772729e-001 1.943878e-001
<VARIANCE> 9
 3.138703e-001 3.371764e-001 6.976298e-002 2.977951e+001 3.680466e+001 1.210095e+002 4.762525e-004 5.782502e-004 1.938003e-004
<GCONST> -2.261171e-001
<MIXTURE> 24 1.388893e-002
<MEAN> 9
 -9.747057e+000 -3.385586e+000 -4.891538e+000 -5.219421e+001 -2.579060e+001 2.495734e+002 3.899977e-001 2.390934e-001 2.193872e-001
<VARIANCE> 9
 1.491142e-001 3.371764e-001 6.976298e-002 2.977951e+001 3.680466e+001 1.210095e+002 4.762525e-004 5.782502e-004 1.938003e-004
<GCONST> -9.703841e-001
<STATE> 3
<NUMMIXES> 24
<MIXTURE> 1 8.975068e-002
<MEAN> 9
 -8.848547e+000 -6.011660e-002 -2.977667e+000 -9.953092e+001 7.978117e+001 8.605208e+001 4.567536e-001 1.154519e-001 2.711409e-001
<VARIANCE> 9
 8.531564e-001 1.333421e+000 1.285335e-001 1.940343e+002 8.700212e+002 4.019914e+002 4.762525e-004 5.782502e-004 1.660155e-003
<GCONST> 1.114533e+001
<MIXTURE> 2 3.846602e-002
<MEAN> 9
 -7.329317e+000 -3.654619e+000 -5.261044e-001 -4.583333e+001 -1.890244e+000 3.065650e+002 4.587879e-001 1.733333e-001 2.333333e-001
<VARIANCE> 9
 1.491142e-001 4.202192e-001 1.519653e-001 1.076501e+002 3.680466e+001 4.108081e+002 4.817266e-004 8.844809e-004 1.938003e-004
<GCONST> 2.972079e+000
<MIXTURE> 3 2.566870e-002
<MEAN> 9
 -6.753613e+000 2.482110e+000 -2.704779e+000 -1.440855e+002 -3.318965e+000 1.201516e+002 5.159122e-001 -2.589674e-002 2.168431e-001
<VARIANCE> 9
 1.491142e-001 3.371764e-001 6.976298e-002 2.977951e+001 6.164257e+001 1.210095e+002 4.762525e-004 5.782502e-004 1.938003e-004
<GCONST> -4.546556e-001
<MIXTURE> 4 3.846553e-002
<MEAN> 9
 -9.228916e+000 -2.895583e+000 -1.092370e+000 -8.136179e+001 -1.317073e+001 2.264228e+002 4.527272e-001 1.833334e-001 2.574830e-001
<VARIANCE> 9
 4.215408e-001 3.371764e-001 1.689970e-001 5.079394e+001 4.641085e+001 1.210095e+002 4.762525e-004 6.222207e-004 1.938003e-004
<GCONST> 1.792750e+000
<MIXTURE> 5 3.848772e-002
<MEAN> 9
 -7.799501e+000 3.325832e+000 -1.797282e+000 -1.521591e+002 2.174062e+001 9.318489e+001 5.181669e-001 -6.522699e-002 2.265303e-001
<VARIANCE> 9
 1.491142e-001 3.371764e-001 2.964161e-001 2.977951e+001 3.680466e+001 1.210095e+002 4.762525e-004 5.782502e-004 1.938003e-004
<GCONST> 4.762754e-001
<MIXTURE> 6 2.567686e-002
<MEAN> 9
 -6.735629e+000 7.720047e-001 1.126024e+000 -7.446264e+001 -9.453984e+000 1.339068e+002 5.181803e-001 5.904220e-002 1.586907e-001
<VARIANCE> 9
 1.491142e-001 3.371764e-001 6.976298e-002 2.977951e+001 3.680466e+001 1.210095e+002 4.762525e-004 5.782502e-004 1.938003e-004
<GCONST> -9.703841e-001
<MIXTURE> 7 3.846557e-002
<MEAN> 9
 -7.570275e+000 1.807286e-001 -4.457831e+000 -1.033538e+002 -5.636185e+001 1.970121e+002 4.806062e-001 9.999970e-002 2.210884e-001
<VARIANCE> 9
 5.665427e-001 3.371764e-001 6.976298e-002 6.314914e+001 3.680466e+001 1.210095e+002 4.762525e-004 5.790620e-004 1.938003e-004
<GCONST> 1.117536e+000
<MIXTURE> 8 2.564186e-002
<MEAN> 9
 -7.849237e+000 1.855220e+000 1.987231e+000 -9.340893e+001 -6.603733e-001 9.327408e+001 5.218186e-001 5.916870e-003 1.698965e-001
<VARIANCE> 9
 1.491142e-001 3.371764e-001 1.144017e-001 2.977951e+001 1.640092e+002 1.210095e+002 4.762525e-004 5.782502e-004 1.938003e-004
<GCONST> 1.018523e+000
<MIXTURE> 9 5.122348e-002
<MEAN> 9
 -6.752687e+000 -1.754842e-001 2.367332e+000 -2.358744e+001 -5.769458e+000 3.231683e+001 5.277247e-001 -7.158194e-002 2.104553e-001
<VARIANCE> 9
 1.491142e-001 4.119780e-001 1.117505e-001 2.977951e+001 3.680466e+001 5.095144e+002 4.762525e-004 5.782502e-004 1.938003e-004
<GCONST> 1.138734e+000
<MIXTURE> 10 5.128683e-002
<MEAN> 9
 -7.271085e+000 2.709793e-002 -2.259065e-001 -9.243902e+001 -2.275898e+001 1.728358e+002 4.974999e-001 7.750067e-002 2.614796e-001
<VARIANCE> 9
 1.491142e-001 4.414540e-001 6.976298e-002 2.977951e+001 5.578654e+001 4.380257e+002 4.762525e-004 1.133197e-003 1.938003e-004
<GCONST> 1.674190e+000
<MIXTURE> 11 5.116780e-002
<MEAN> 9
 -7.707598e+000 2.022773e+000 1.827564e+000 -1.480512e+002 -1.603998e+000 4.010860e+001 5.077260e-001 -1.475176e-001 2.142748e-001
<VARIANCE> 9
 1.491142e-001 3.371764e-001 8.435835e-001 4.854912e+001 5.369924e+001 1.334478e+002 4.762525e-004 5.782502e-004 1.938003e-004
<GCONST> 2.486541e+000
<MIXTURE> 12 2.565663e-002
<MEAN> 9
 -3.783341e+000 -7.108434e-001 2.077836e+000 -4.549468e+001 -5.192876e+001 1.023973e+002 5.227250e-001 -6.043640e-002 2.081748e-001
<VARIANCE> 9
 9.520061e-001 3.371764e-001 1.731537e-001 2.977951e+001 4.857715e+002 2.165928e+002 4.762525e-004 5.782502e-004 1.938003e-004
<GCONST> 4.954816e+000
<MIXTURE> 13 2.564472e-002
<MEAN> 9
 -7.536107e+000 1.030073e+000 4.084350e+000 -9.463345e+001 -6.197510e-002 3.704208e+001 5.240911e-001 -4.954523e-002 1.596937e-001
<VARIANCE> 9
 1.491142e-001 3.371764e-001 7.025735e-002 2.977951e+001 3.680466e+001 1.210095e+002 4.762525e-004 5.782502e-004 1.938003e-004
<GCONST> -9.633231e-001
<MIXTURE> 14 7.690433e-002
<MEAN> 9
 -8.136985e+000 -3.248649e+000 -1.184672e+000 -5.991183e+001 1.628891e+001 1.546463e+002 4.295569e-001 1.933322e-001 1.665004e-001
<VARIANCE> 9
 4.439991e-001 3.933754e-001 6.387807e-001 3.412904e+001 7.536440e+003 4.981437e+002 4.762525e-004 5.782502e-004 2.455342e-004
<GCONST> 9.599178e+000
<MIXTURE> 15 5.123620e-002
<MEAN> 9
 -6.701400e+000 1.270878e+000 7.228528e-001 -8.057845e+001 -2.750318e+001 1.141796e+002 5.195476e-001 -6.611797e-003 2.293846e-001
<VARIANCE> 9
 1.619041e-001 3.371764e-001 6.976298e-002 4.092356e+001 5.207098e+002 1.210095e+002 4.762525e-004 5.782502e-004 1.122410e-003
<GCONST> 3.835765e+000
<MIXTURE> 16 2.572817e-002
<MEAN> 9
 -6.758990e+000 8.058454e-001 1.549058e+000 -6.296299e+001 -2.081009e+001 7.573739e+001 5.231817e-001 -5.958001e-002 2.428343e-001
<VARIANCE> 9
 1.491142e-001 3.371764e-001 6.976298e-002 2.977951e+001 3.680466e+001 1.210095e+002 4.762525e-004 5.782502e-004 1.938003e-004
<GCONST> -9.703841e-001
<MIXTURE> 17 3.846593e-002
<MEAN> 9
 -8.473895e+000 -1.751005e+000 -4.469879e+000 -7.544714e+001 -4.668699e+001 2.315041e+002 4.306060e-001 1.912121e-001 2.251701e-001
<VARIANCE> 9
 1.491142e-001 3.971867e-001 8.022439e-002 4.853840e+001 3.680466e+001 1.210095e+002 4.762525e-004 6.348939e-004 1.938003e-004
<GCONST> -8.487225e-002
<MIXTURE> 18 5.128506e-002
<MEAN> 9
 -7.867466e+000 -8.915340e-001 6.415827e-001 -6.625016e+001 -2.818583e+001 1.637648e+002 4.884097e-001 1.272722e-001 1.622451e-001
<VARIANCE> 9
 1.722352e-001 3.536596e-001 1.088199e-001 2.977951e+001 3.680466e+001 1.210095e+002 4.762525e-004 5.782502e-004 1.938003e-004
<GCONST> -3.339167e-001
<MIXTURE> 19 2.571661e-002
<MEAN> 9
 -7.855237e+000 3.514338e+000 -3.097549e-001 -1.549391e+002 1.424571e+001 7.170346e+001 5.131750e-001 -1.096220e-001 2.326120e-001
<VARIANCE> 9
 1.491142e-001 3.371764e-001 6.976298e-002 2.977951e+001 3.680466e+001 1.210095e+002 4.762525e-004 5.782502e-004 1.938003e-004
<GCONST> -9.703841e-001
<MIXTURE> 20 3.847838e-002
<MEAN> 9
 -6.289609e+000 2.028071e+000 2.289177e+000 -9.625990e+001 -2.666133e+001 6.419521e+001 5.239370e-001 -1.847655e-002 1.642890e-001
<VARIANCE> 9
 1.491142e-001 3.371764e-001 6.976298e-002 2.977951e+001 4.730675e+001 1.210095e+002 4.762525e-004 5.782502e-004 1.938003e-004
<GCONST> -7.193580e-001
<MIXTURE> 21 3.845531e-002
<MEAN> 9
 -7.144575e+000 1.666560e+000 -3.381629e+000 -1.301604e+002 -2.274499e+001 1.545769e+002 5.099977e-001 4.788124e-002 2.170050e-001
<VARIANCE> 9
 1.491142e-001 3.371764e-001 9.301861e-002 4.384282e+001 3.983434e+001 1.210095e+002 4.762525e-004 5.782502e-004 1.938003e-004
<GCONST> -2.167940e-001
<MIXTURE> 22 6.409737e-002
<MEAN> 9
 -4.935083e+000 -6.698714e-001 7.372760e-001 -6.534263e+001 -2.484509e+001 1.999384e+002 5.094528e-001 2.964689e-002 2.336739e-001
<VARIANCE> 9
 8.744815e-001 3.371764e-001 5.241233e-001 2.977951e+001 6.837797e+002 1.836939e+003 4.762525e-004 2.241733e-003 1.938003e-004
<GCONST> 9.812150e+000
<MIXTURE> 23 3.838795e-002
<MEAN> 9
 -6.445080e+000 5.173250e-002 2.225521e+000 -4.496176e+001 -3.508015e+001 4.153758e+001 5.224218e-001 -8.274560e-002 2.306040e-001
<VARIANCE> 9
 1.491142e-001 3.371764e-001 6.976298e-002 5.426216e+001 3.680466e+001 1.215363e+002 4.762525e-004 5.782502e-004 1.938003e-004
<GCONST> -3.660345e-001
<MIXTURE> 24 2.564209e-002
<MEAN> 9
 -6.837342e+000 -1.144728e-001 4.481935e+000 -7.554841e+001 -1.445105e+001 2.167661e+001 5.281818e-001 -5.000021e-002 1.571429e-001
<VARIANCE> 9
 1.491142e-001 3.371764e-001 6.976298e-002 4.177571e+001 3.680466e+001 1.210095e+002 4.762525e-004 5.782502e-004 1.938003e-004
<GCONST> -6.318908e-001
<STATE> 4
<NUMMIXES> 24
<MIXTURE> 1 2.829715e-002
<MEAN> 9
 -6.851186e+000 5.506262e+000 -8.035300e-001 -1.202888e+000 7.077668e+001 9.044463e+001 4.939354e-001 -1.803115e-001 2.683687e-001
<VARIANCE> 9
 2.183758e-001 3.669375e-001 7.542514e-001 7.928255e+001 1.085358e+002 1.210095e+002 4.762525e-004 5.782502e-004 1.938003e-004
<GCONST> 3.936980e+000
<MIXTURE> 2 4.722986e-002
<MEAN> 9
 -9.451247e+000 1.808563e+000 4.322593e+000 1.122982e+001 3.842123e+001 2.376204e+001 5.268871e-001 -6.678043e-002 1.903112e-001
<VARIANCE> 9
 1.491142e-001 3.371764e-001 1.424365e-001 3.124862e+001 3.680466e+001 1.210095e+002 4.762525e-004 5.782502e-004 1.938003e-004
<GCONST> -2.084360e-001
<MIXTURE> 3 5.644169e-002
<MEAN> 9
 -8.714359e+000 4.337609e+000 4.018333e+000 1.993524e+001 1.211903e+001 2.231555e+001 5.121229e-001 -1.587729e-001 1.964612e-001
<VARIANCE> 9
 4.458199e-001 1.057487e+000 4.540785e-001 2.374321e+002 4.362449e+002 1.210095e+002 4.762525e-004 8.494346e-004 1.938003e-004
<GCONST> 8.074233e+000
<MIXTURE> 4 3.773613e-002
<MEAN> 9
 -7.337238e+000 5.996998e+000 1.165655e+000 3.580768e+001 1.172370e+000 2.931410e+001 5.013636e-001 -1.925003e-001 2.112246e-001
<VARIANCE> 9
 2.056392e+000 3.371764e-001 1.372734e-001 2.977951e+001 3.533376e+002 1.210095e+002 4.762525e-004 5.782502e-004 1.938003e-004
<GCONST> 4.592280e+000
<MIXTURE> 5 3.880665e-002
<MEAN> 9
 -8.510464e+000 4.600684e-001 5.190591e+000 -4.880554e+001 -6.905593e-002 -5.809711e-001 5.124739e-001 -1.660866e-001 1.847457e-001
<VARIANCE> 9
 1.491142e-001 3.371764e-001 6.976298e-002 3.391705e+002 3.680466e+001 1.210095e+002 4.762525e-004 5.782502e-004 1.938003e-004
<GCONST> 1.462298e+000
<MIXTURE> 6 2.971123e-002
<MEAN> 9
 -9.989103e+000 3.361368e+000 3.020822e+000 6.779025e-001 1.422266e+001 1.716722e+001 5.206500e-001 -1.077663e-001 2.177293e-001
<VARIANCE> 9
 1.491142e-001 3.371764e-001 6.976298e-002 2.977951e+001 3.680466e+001 1.210095e+002 4.762525e-004 5.782502e-004 1.938003e-004
<GCONST> -9.703841e-001
<MIXTURE> 7 3.812728e-002
<MEAN> 9
 -6.125060e+000 5.663904e+000 1.861939e-001 -4.792063e+001 8.798902e+001 5.723120e+001 4.606750e-001 -2.386985e-001 3.027130e-001
<VARIANCE> 9
 3.832280e-001 3.371764e-001 6.976298e-002 1.632337e+002 1.043503e+002 1.420939e+002 4.762525e-004 5.782502e-004 2.016631e-004
<GCONST> 2.917413e+000
<MIXTURE> 8 4.101240e-002
<MEAN> 9
 -8.221757e+000 4.145096e+000 2.404846e+000 1.342198e+001 1.568424e+001 4.471819e+001 5.052381e-001 -1.419507e-001 2.500171e-001
<VARIANCE> 9
 1.491142e-001 3.371764e-001 1.868212e-001 2.977951e+001 3.680466e+001 1.210095e+002 4.762525e-004 5.782502e-004 1.938003e-004
<GCONST> 1.466656e-002
<MIXTURE> 9 3.780599e-002
<MEAN> 9
 -8.913594e+000 -9.408956e-002 5.044715e+000 -2.905645e+001 2.293595e+001 1.343099e+001 5.241079e-001 -5.589637e-002 1.640531e-001
<VARIANCE> 9
 2.648897e-001 3.371764e-001 6.976298e-002 3.142747e+002 3.736124e+001 1.210095e+002 4.762525e-004 5.782502e-004 1.938003e-004
<GCONST> 1.975673e+000
<MIXTURE> 10 2.956040e-002
<MEAN> 9
 -8.322148e+000 1.352596e+000 2.568337e+000 -1.011539e+001 -3.250030e+000 -1.797729e+000 5.247750e-001 -1.021746e-001 2.107424e-001
<VARIANCE> 9
 1.491142e-001 3.371764e-001 6.976298e-002 2.977951e+001 3.680466e+001 1.210095e+002 4.762525e-004 5.782502e-004 1.938003e-004
<GCONST> -9.703841e-001
<MIXTURE> 11 6.574922e-002
<MEAN> 9
 -1.059224e+001 3.815950e+000 1.667224e+000 -4.688687e+000 2.835524e+001 5.115654e+001 5.177826e-001 -1.219572e-001 2.243835e-001
<VARIANCE> 9
 3.295703e-001 3.371764e-001 1.552214e-001 2.977951e+001 2.039513e+002 1.445929e+002 4.762525e-004 5.782502e-004 2.260880e-004
<GCONST> 2.666850e+000
<MIXTURE> 12 5.612789e-002
<MEAN> 9
 -7.367836e+000 4.570262e+000 1.309658e+000 -8.656147e+001 4.593184e+001 4.935341e+001 4.829810e-001 -2.143129e-001 2.360805e-001
<VARIANCE> 9
 3.798583e-001 3.371764e-001 2.606958e-001 2.442472e+002 5.909462e+001 1.210095e+002 4.762525e-004 5.782502e-004 1.938003e-004
<GCONST> 3.860827e+000
<MIXTURE> 13 7.589867e-002
<MEAN> 9
 -8.101353e+000 5.018768e+000 -6.336466e-001 -3.181903e+001 3.032695e+001 5.717025e+001 5.000282e-001 -1.332755e-001 2.355072e-001
<VARIANCE> 9
 1.065869e+000 1.086580e+000 2.622417e+000 1.622975e+003 2.513237e+002 1.952308e+002 4.762525e-004 5.025940e-003 1.437430e-003
<GCONST> 1.635715e+001
<MIXTURE> 14 4.192036e-002
<MEAN> 9
 -9.354173e+000 2.911114e+000 3.042527e+000 1.678499e+001 2.083855e+001 2.458378e+001 5.245345e-001 -8.449566e-002 2.179077e-001
<VARIANCE> 9
 1.491142e-001 3.371764e-001 2.020621e-001 2.977951e+001 4.603747e+001 1.210095e+002 4.762525e-004 5.782502e-004 1.938003e-004
<GCONST> 3.169203e-001
<MIXTURE> 15 2.837137e-002
<MEAN> 9
 -6.039811e+000 5.992061e+000 1.166893e+000 -6.633131e+001 -1.822609e+000 4.041383e+001 4.636283e-001 -2.412350e-001 2.758304e-001
<VARIANCE> 9
 7.638015e-001 3.371764e-001 6.976298e-002 2.977951e+001 5.371070e+001 1.210095e+002 4.762525e-004 5.782502e-004 1.938003e-004
<GCONST> 1.041198e+000
<MIXTURE> 16 1.887293e-002
<MEAN> 9
 -8.807460e+000 3.566365e+000 2.265021e+000 -1.036604e+000 1.466600e+001 8.658105e+001 5.068190e-001 -1.563591e-001 2.489783e-001
<VARIANCE> 9
 1.491142e-001 3.371764e-001 8.360238e-002 2.977951e+001 5.670579e+001 1.210095e+002 4.762525e-004 5.782502e-004 1.938003e-004
<GCONST> -3.571634e-001
<MIXTURE> 17 3.670507e-002
<MEAN> 9
 -8.986745e+000 2.521684e+000 5.298163e+000 2.567659e+000 1.204694e+001 6.855399e+000 5.092471e-001 -1.777891e-001 1.815245e-001
<VARIANCE> 9
 1.491142e-001 3.371764e-001 6.976298e-002 1.000407e+002 3.680466e+001 1.210095e+002 4.762525e-004 5.782502e-004 1.938003e-004
<GCONST> 2.413740e-001
<MIXTURE> 18 3.778872e-002
<MEAN> 9
 -7.933277e+000 5.423629e+000 -2.681038e-001 -3.376249e+001 2.335525e+001 4.901152e+001 4.768742e-001 -2.051802e-001 2.843265e-001
<VARIANCE> 9
 1.491142e-001 3.371764e-001 1.356543e-001 1.503262e+002 3.680466e+001 1.210095e+002 4.762525e-004 5.782502e-004 1.938003e-004
<GCONST> 1.313609e+000
<MIXTURE> 19 5.405913e-002
<MEAN> 9
 -9.437180e+000 2.840306e+000 2.893241e+000 -3.848636e+000 6.985866e+000 5.056866e+000 5.248135e-001 -1.016958e-001 2.138047e-001
<VARIANCE> 9
 1.491142e-001 3.371764e-001 7.967865e-002 2.977951e+001 3.680466e+001 1.210095e+002 4.762525e-004 5.782502e-004 1.938003e-004
<GCONST> -8.374877e-001
<MIXTURE> 20 4.664607e-002
<MEAN> 9
 -5.566802e+000 6.255831e+000 1.481082e+000 -7.593223e+001 6.298188e+001 1.071997e+001 4.428907e-001 -2.574213e-001 3.053055e-001
<VARIANCE> 9
 7.063560e-001 3.371764e-001 6.194006e-001 2.977951e+001 1.409209e+003 1.259351e+002 4.762525e-004 5.782502e-004 9.361742e-004
<GCONST> 8.028702e+000
<MIXTURE> 21 4.712243e-002
<MEAN> 9
 -8.956300e+000 5.146946e+000 1.029360e+000 2.591671e+000 3.356706e+001 3.860351e+001 4.980067e-001 -1.728950e-001 2.714210e-001
<VARIANCE> 9
 3.065194e-001 3.371764e-001 1.156493e-001 5.487642e+001 3.680466e+001 1.210095e+002 4.762525e-004 5.782502e-004 1.938003e-004
<GCONST> 8.669081e-001
<MIXTURE> 22 2.842101e-002
<MEAN> 9
 -9.516819e+000 8.806859e-001 1.943349e+000 -1.197691e+001 4.762390e+000 3.069199e+001 5.227117e-001 -8.464739e-002 2.054306e-001
<VARIANCE> 9
 9.930463e-001 5.517044e-001 6.976298e-002 2.977951e+001 3.680466e+001 1.210095e+002 4.762525e-004 5.782502e-004 1.938003e-004
<GCONST> 1.418086e+000
<MIXTURE> 23 4.913961e-002
<MEAN> 9
 -9.249781e+000 3.395451e+000 2.166231e+000 1.556582e+001 2.163857e+001 4.014748e+001 5.155303e-001 -1.162206e-001 2.321118e-001
<VARIANCE> 9
 1.491142e-001 3.371764e-001 6.976298e-002 2.977951e+001 4.004230e+001 1.210095e+002 4.762525e-004 5.782502e-004 1.938003e-004
<GCONST> -8.860717e-001
<MIXTURE> 24 2.844825e-002
<MEAN> 9
 -7.913723e+000 8.196173e-003 4.268362e+000 -1.075094e+002 -5.720031e+000 8.570955e+000 5.112250e-001 -1.610174e-001 1.910951e-001
<VARIANCE> 9
 1.491142e-001 3.371764e-001 1.458575e-001 1.956936e+002 3.680466e+001 1.210095e+002 4.762525e-004 5.782502e-004 1.938003e-004
<GCONST> 1.649871e+000
<STATE> 5
<NUMMIXES> 24
<MIXTURE> 1 1.754531e-002
<MEAN> 9
 -1.630827e+000 1.076186e+001 1.188726e+001 9.146629e+000 -5.034497e+001 2.526699e+001 4.465857e-001 -2.661405e-001 2.808841e-001
<VARIANCE> 9
 2.697291e+001 3.494600e-001 3.405318e+001 1.634698e+003 6.648772e+002 8.589457e+002 5.192123e-004 5.782502e-004 3.723172e-003
<GCONST> 2.235493e+001
<MIXTURE> 2 4.273930e-002
<MEAN> 9
 -7.213135e+000 7.620052e+000 1.198308e+000 -8.378105e+000 -2.330469e+001 6.199805e+000 4.260594e-001 -2.753736e-001 3.347770e-001
<VARIANCE> 9
 6.477371e-001 3.371764e-001 5.518335e-001 6.187600e+001 2.389032e+002 1.210095e+002 4.762525e-004 5.782502e-004 1.938003e-004
<GCONST> 5.168277e+000
<MIXTURE> 3 1.024218e-001
<MEAN> 9
 -9.437593e+000 1.697492e-001 3.250097e+000 -5.630838e+001 -5.929304e+001 2.506326e+001 4.925753e-001 -4.427052e-002 1.872021e-001
<VARIANCE> 9
 5.793972e+000 1.118633e+001 2.092775e+001 1.359672e+004 1.082121e+004 5.341052e+002 4.762525e-004 1.541058e-003 9.203988e-003
<GCONST> 3.002795e+001
<MIXTURE> 4 4.864642e-002
<MEAN> 9
 -7.945582e+000 6.232759e+000 2.148556e+000 6.996754e+001 -3.148454e+001 6.199025e+000 4.815391e-001 -2.316903e-001 2.383845e-001
<VARIANCE> 9
 1.294461e+000 3.371764e-001 7.090464e+000 2.429854e+002 3.552089e+002 1.210095e+002 4.762525e-004 5.782502e-004 1.938003e-004
<GCONST> 1.017842e+001
<MIXTURE> 5 1.310818e-002
<MEAN> 9
 -6.069582e+000 3.435156e+000 5.496005e+000 -4.138638e+000 -1.607796e+001 6.890287e+000 4.502448e-001 -2.758614e-001 1.657096e-001
<VARIANCE> 9
 1.491142e-001 3.371764e-001 2.652038e+000 3.472001e+001 4.089920e+001 1.210095e+002 4.762525e-004 5.782502e-004 1.648586e-003
<GCONST> 5.067422e+000
<MIXTURE> 6 4.040382e-002
<MEAN> 9
 -1.033712e+001 4.925185e+000 1.325583e+000 3.698410e+001 1.751581e+001 -5.420474e+000 4.430099e-001 -2.935778e-001 1.786806e-001
<VARIANCE> 9
 1.026606e+000 6.295537e-001 1.475362e+000 2.056288e+002 2.257547e+003 1.210095e+002 4.762525e-004 5.782502e-004 7.308231e-004
<GCONST> 1.201088e+001
<MIXTURE> 7 5.287333e-002
<MEAN> 9
 -9.205317e+000 4.918117e+000 -1.503886e+000 -4.113853e+001 1.006991e+001 1.307516e+001 4.769117e-001 -2.390323e-001 2.391037e-001
<VARIANCE> 9
 3.548898e-001 1.161260e+000 8.169087e-001 1.447466e+003 1.135316e+002 1.210095e+002 4.762525e-004 5.782502e-004 1.938003e-004
<GCONST> 8.603995e+000
<MIXTURE> 8 3.065730e-002
<MEAN> 9
 -9.140446e+000 1.319276e+000 7.659787e+000 3.503336e+001 -1.213263e+001 -2.056425e+000 4.392783e-001 -2.990443e-001 1.302909e-001
<VARIANCE> 9
 4.948233e-001 3.371764e-001 4.133758e+000 1.310345e+003 1.037230e+003 1.835302e+002 4.762525e-004 5.782502e-004 1.938003e-004
<GCONST> 1.185036e+001
<MIXTURE> 9 3.940953e-002
<MEAN> 9
 -7.600758e+000 4.545240e+000 2.592508e+000 -1.293474e+002 7.363919e+001 5.023379e+000 4.787750e-001 -2.330538e-001 2.202172e-001
<VARIANCE> 9
 9.979149e-001 3.371764e-001 6.160541e+000 5.197532e+002 4.794532e+002 1.210095e+002 4.762525e-004 5.782502e-004 1.938003e-004
<GCONST> 1.083794e+001
<MIXTURE> 10 3.445175e-002
<MEAN> 9
 -9.689073e+000 3.126152e+000 1.387879e+000 -8.754763e+001 2.913134e+001 2.233115e+001 4.709940e-001 -2.540217e-001 2.106694e-001
<VARIANCE> 9
 1.663156e-001 3.371764e-001 2.635719e-001 1.908866e+002 3.680466e+001 1.210095e+002 4.762525e-004 5.782502e-004 1.938003e-004
<GCONST> 2.325873e+000
<MIXTURE> 11 5.353350e-002
<MEAN> 9
 -8.636716e+000 5.268873e+000 3.407688e+000 -1.219586e+001 2.130442e+001 -1.220927e+001 4.670539e-001 -2.470550e-001 2.389189e-001
<VARIANCE> 9
 3.025517e+000 2.187179e+000 1.370934e+000 2.472067e+003 1.375264e+003 1.210095e+002 4.762525e-004 5.782502e-004 1.938003e-004
<GCONST> 1.492741e+001
<MIXTURE> 12 4.229904e-002
<MEAN> 9
 -8.190602e+000 6.524411e+000 2.194618e+000 1.532217e+001 3.451618e+000 -6.092889e+000 4.643493e-001 -2.533981e-001 2.380894e-001
<VARIANCE> 9
 3.776001e-001 6.949443e-001 2.644583e-001 9.743655e+001 3.970855e+001 1.210095e+002 4.762525e-004 5.782502e-004 1.938003e-004
<GCONST> 3.275867e+000
<MIXTURE> 13 3.566632e-002
<MEAN> 9
 -8.059934e+000 1.973409e+000 1.527432e+000 -1.233325e+002 2.722675e+001 3.074243e+001 4.538491e-001 -2.812984e-001 1.944386e-001
<VARIANCE> 9
 1.467856e+000 3.371764e-001 2.430099e-001 3.608269e+002 2.601164e+002 1.210095e+002 4.762525e-004 5.782502e-004 2.309275e-004
<GCONST> 7.189816e+000
<MIXTURE> 14 3.982097e-002
<MEAN> 9
 -6.707263e+000 5.959858e+000 4.154431e+000 7.802799e+000 -9.519420e+000 -1.676520e+000 4.619473e-001 -2.590092e-001 2.291338e-001
<VARIANCE> 9
 3.467719e-001 3.371764e-001 3.215187e-001 7.667133e+001 3.680466e+001 1.210095e+002 4.762525e-004 5.782502e-004 1.938003e-004
<GCONST> 2.347232e+000
<MIXTURE> 15 9.516716e-002
<MEAN> 9
 -5.644775e+000 5.080876e+000 3.847149e-001 8.628499e+000 8.457605e-001 2.114623e+001 4.769782e-001 -1.933943e-001 1.742858e-001
<VARIANCE> 9
 2.262115e+000 3.371764e-001 9.181810e-001 2.041193e+003 2.842908e+002 4.083697e+003 4.762525e-004 1.293128e-003 3.077478e-004
<GCONST> 1.538424e+001
<MIXTURE> 16 3.497448e-002
<MEAN> 9
 -7.792205e+000 3.314890e+000 4.985456e+000 7.004230e+000 3.006501e-001 6.440544e-001 4.452246e-001 -2.930931e-001 1.485038e-001
<VARIANCE> 9
 1.491142e-001 4.565127e-001 6.334069e-001 2.977951e+001 3.680466e+001 1.210095e+002 4.762525e-004 5.782502e-004 1.176488e-003
<GCONST> 3.342095e+000
<MIXTURE> 17 3.522708e-002
<MEAN> 9
 -8.406859e+000 4.771141e+000 1.749797e-001 -6.007698e+001 1.415857e+001 -1.327781e+001 4.402065e-001 -2.865959e-001 2.841434e-001
<VARIANCE> 9
 3.391797e-001 3.371764e-001 1.468709e-001 1.511666e+002 1.398000e+002 1.210095e+002 4.762525e-004 5.782502e-004 1.938003e-004
<GCONST> 3.555034e+000
<MIXTURE> 18 3.114140e-002
<MEAN> 9
 -7.946263e+000 4.758883e+000 1.664318e+000 -7.347130e+000 -8.446583e+000 -1.375630e+001 4.670902e-001 -2.530133e-001 2.297980e-001
<VARIANCE> 9
 1.491142e-001 3.371764e-001 2.650852e-001 1.641410e+002 3.680466e+001 1.210095e+002 4.762525e-004 5.782502e-004 1.938003e-004
<GCONST> 2.071467e+000
<MIXTURE> 19 2.755693e-002
<MEAN> 9
 -7.471940e+000 7.038357e+000 -6.739575e-002 -8.096944e+000 6.031899e+000 -9.976767e+000 4.233850e-001 -2.796800e-001 3.297101e-001
<VARIANCE> 9
 5.949568e-001 3.371764e-001 7.910424e-001 8.509956e+002 3.158243e+002 1.210095e+002 4.762525e-004 5.782502e-004 5.651145e-004
<GCONST> 9.413987e+000
<MIXTURE> 20 3.467492e-002
<MEAN> 9
 -8.594414e+000 3.545807e+000 2.030303e+000 -4.499581e+001 1.427622e+001 -1.412761e+001 4.769275e-001 -2.376521e-001 2.229572e-001
<VARIANCE> 9
 3.847741e-001 3.371764e-001 6.976298e-002 1.018555e+002 3.680466e+001 1.210095e+002 4.762525e-004 5.782502e-004 1.938003e-004
<GCONST> 1.207294e+000
<MIXTURE> 21 3.018607e-002
<MEAN> 9
 -8.533847e+000 3.811521e+000 9.003186e-001 -1.135154e+002 2.534964e+001 1.262529e+001 4.387518e-001 -2.979571e-001 2.428955e-001
<VARIANCE> 9
 1.491142e-001 3.371764e-001 6.688614e-001 1.772181e+002 3.680466e+001 1.210095e+002 4.762525e-004 5.782502e-004 2.073934e-004
<GCONST> 3.141438e+000
<MIXTURE> 22 6.510358e-002
<MEAN> 9
 -6.932089e+000 -1.362769e+000 1.480027e+001 -8.067782e+001 -3.275122e+000 8.519745e+000 4.466356e-001 -2.810899e-001 1.981540e-001
<VARIANCE> 9
 2.915130e+001 1.359108e+001 3.271080e+001 2.454219e+003 2.843000e+003 3.232676e+002 4.762525e-004 8.723242e-004 3.116699e-003
<GCONST> 2.708228e+001
<MIXTURE> 23 2.636733e-002
<MEAN> 9
 -8.025926e+000 1.689952e+000 5.152651e+000 -1.732135e+002 4.114900e+001 3.067498e+001 4.498627e-001 -2.964708e-001 1.713281e-001
<VARIANCE> 9
 6.435348e-001 3.371764e-001 3.118424e+000 2.977951e+001 4.410553e+001 1.210095e+002 4.762525e-004 5.782502e-004 2.659556e-004
<GCONST> 4.789320e+000
<MIXTURE> 24 2.602388e-002
<MEAN> 9
 -7.922515e+000 3.362015e+000 4.371648e+000 3.373226e+000 -2.616815e+001 2.537675e+000 4.383165e-001 -3.064360e-001 1.799413e-001
<VARIANCE> 9
 2.214877e-001 3.986970e-001 1.346106e+000 2.977951e+001 1.020147e+002 1.210095e+002 4.762525e-004 5.782502e-004 5.258558e-004
<GCONST> 4.570421e+000
<STATE> 6
<NUMMIXES> 24
<MIXTURE> 1 2.934502e-002
<MEAN> 9
 -6.083121e+000 6.479663e-001 2.093876e+000 1.533673e+002 -4.021151e+001 -1.110438e+002 4.986303e-001 -1.906366e-001 1.885066e-001
<VARIANCE> 9
 1.491142e-001 3.371764e-001 3.859988e-001 1.751122e+002 9.504506e+002 1.210095e+002 4.762525e-004 5.782502e-004 1.938003e-004
<GCONST> 5.763263e+000
<MIXTURE> 2 2.963030e-002
<MEAN> 9
 -5.925290e+000 2.023647e+000 1.261898e+000 1.467961e+002 -1.485769e+002 -1.270750e+002 4.979438e-001 -1.877650e-001 9.366754e-002
<VARIANCE> 9
 4.867740e-001 3.371764e-001 6.976298e-002 5.715789e+001 1.917855e+002 4.142730e+002 4.762525e-004 5.782502e-004 4.219860e-004
<GCONST> 4.524254e+000
<MIXTURE> 3 2.280060e-002
<MEAN> 9
 -6.702309e+000 8.484344e-001 2.541212e+000 1.396998e+002 -4.998274e+001 -8.399265e+001 4.879739e-001 -2.188955e-001 1.908729e-001
<VARIANCE> 9
 1.491142e-001 3.371764e-001 1.954009e-001 2.907036e+002 4.129059e+002 1.210095e+002 4.762525e-004 5.782502e-004 7.415800e-004
<GCONST> 6.097600e+000
<MIXTURE> 4 6.659960e-002
<MEAN> 9
 -5.477891e+000 1.143073e+000 3.840886e+000 -1.094806e+002 -8.290663e+001 -1.991566e+002 4.942430e-001 -5.484230e-002 9.205990e-002
<VARIANCE> 9
 5.580697e+000 4.603606e+000 1.084768e+001 5.078991e+003 2.777361e+002 9.716558e+002 4.762525e-004 4.891785e-003 2.001776e-003
<GCONST> 2.402606e+001
<MIXTURE> 5 1.480399e-002
<MEAN> 9
 -5.578394e+000 6.868768e-001 -7.804522e-002 1.764930e+002 -9.304895e+001 -1.381628e+002 5.063591e-001 -1.695561e-001 2.081638e-001
<VARIANCE> 9
 1.491142e-001 3.371764e-001 6.976298e-002 2.977951e+001 4.335685e+001 1.247434e+002 4.762525e-004 5.782502e-004 1.938003e-004
<GCONST> -7.761531e-001
<MIXTURE> 6 4.487327e-002
<MEAN> 9
 -8.368279e+000 7.341472e-001 6.254301e+000 3.638382e+001 -3.323203e+001 -1.017343e+001 4.591931e-001 -2.686660e-001 1.707540e-001
<VARIANCE> 9
 1.491142e-001 5.095168e-001 6.976298e-002 5.448519e+002 3.680466e+001 1.210095e+002 4.762525e-004 5.782502e-004 1.938003e-004
<GCONST> 2.349166e+000
<MIXTURE> 7 2.211210e-002
<MEAN> 9
 -8.320954e+000 -5.921093e-001 -5.315536e-003 1.491830e+002 5.597883e+000 -2.285111e+002 5.202907e-001 5.135669e-002 1.602095e-001
<VARIANCE> 9
 4.436030e+000 3.371764e-001 3.019738e-001 2.977951e+001 6.053414e+002 1.443931e+002 4.762525e-004 8.014504e-004 1.938003e-004
<GCONST> 7.190909e+000
<MIXTURE> 8 2.963849e-002
<MEAN> 9
 -6.987674e+000 6.279546e-002 4.693038e+000 1.180427e+002 -5.451991e+001 -4.856991e+001 4.670319e-001 -2.616096e-001 1.629949e-001
<VARIANCE> 9
 1.491142e-001 3.371764e-001 3.959912e-001 6.006702e+002 3.697420e+001 1.210095e+002 4.762525e-004 5.782502e-004 1.938003e-004
<GCONST> 3.774726e+000
<MIXTURE> 9 1.447596e-001
<MEAN> 9
 -1.021796e+001 -3.389238e+000 4.832483e+000 3.432974e+000 1.089054e+001 -8.263329e+001 4.384548e-001 1.789348e-001 8.829075e-002
<VARIANCE> 9
 6.201846e+000 5.354279e-001 6.678360e+000 1.427405e+003 1.707277e+002 1.286456e+004 4.762525e-004 6.254244e-004 1.938003e-004
<GCONST> 1.793051e+001
<MIXTURE> 10 6.668828e-002
<MEAN> 9
 -9.134573e+000 -1.652398e+000 -1.033482e+000 8.833662e+001 -4.893370e+001 -2.918871e+002 4.874030e-001 1.184357e-001 9.691149e-002
<VARIANCE> 9
 1.082286e+000 6.433773e-001 9.613885e-001 6.789541e+002 1.589912e+003 1.209756e+003 4.762525e-004 2.413456e-003 2.403761e-004
<GCONST> 1.512017e+001
<MIXTURE> 11 4.450440e-002
<MEAN> 9
 -7.880683e+000 2.181942e+000 5.686392e+000 5.452317e+001 -3.433027e+001 -1.771586e+001 4.311090e-001 -3.175142e-001 1.930059e-001
<VARIANCE> 9
 1.491142e-001 4.893330e-001 7.803634e-002 5.880343e+002 3.680466e+001 1.210095e+002 4.762525e-004 5.782502e-004 1.938003e-004
<GCONST> 2.497088e+000
<MIXTURE> 12 3.712320e-002
<MEAN> 9
 -6.136106e+000 4.079204e-001 -8.368018e-001 1.749122e+002 -1.125721e+002 -2.093744e+002 5.201949e-001 -1.008736e-001 1.646543e-001
<VARIANCE> 9
 1.519981e-001 3.371764e-001 7.225263e-002 1.418839e+002 2.362140e+002 4.633239e+002 4.762525e-004 2.572333e-003 1.938003e-004
<GCONST> 5.339257e+000
<MIXTURE> 13 2.928274e-002
<MEAN> 9
 -7.670572e+000 1.055765e+000 1.609581e+000 1.643468e+002 -1.095010e+002 -6.881538e+001 4.788895e-001 -2.474640e-001 1.450142e-001
<VARIANCE> 9
 1.318775e+000 3.371764e-001 4.907765e-001 2.977951e+001 4.001159e+002 1.210095e+002 4.762525e-004 5.782502e-004 1.938003e-004
<GCONST> 5.546378e+000
<MIXTURE> 14 2.219967e-002
<MEAN> 9
 -7.417633e+000 4.578588e-001 7.831371e+000 1.108730e+002 -7.408597e+001 -4.375953e+001 4.439389e-001 -2.936370e-001 1.336737e-001
<VARIANCE> 9
 1.912432e-001 3.371764e-001 2.851726e-001 1.992162e+002 4.933040e+001 1.210095e+002 4.762525e-004 5.782502e-004 1.938003e-004
<GCONST> 2.879928e+000
<MIXTURE> 15 2.970294e-002
<MEAN> 9
 -6.869108e+000 2.155581e-001 1.224878e+000 1.853180e+002 -5.724887e+001 -1.211531e+002 4.901975e-001 -2.134538e-001 1.782059e-001
<VARIANCE> 9
 1.491142e-001 3.371764e-001 1.239409e-001 1.069281e+002 2.801807e+002 2.236509e+002 4.762525e-004 2.171799e-003 1.938003e-004
<GCONST> 4.849986e+000
<MIXTURE> 16 4.440112e-002
<MEAN> 9
 -7.377385e+000 2.611023e-001 -7.436515e-002 1.793413e+002 -7.199729e+001 -1.674002e+002 5.201501e-001 -1.168247e-001 1.855429e-001
<VARIANCE> 9
 1.491142e-001 3.371764e-001 6.976298e-002 8.826025e+001 4.454684e+002 1.719847e+002 4.762525e-004 1.311400e-003 1.938003e-004
<GCONST> 3.779967e+000
<MIXTURE> 17 2.970373e-002
<MEAN> 9
 -6.848989e+000 9.555289e-003 6.575016e+000 8.811463e+001 -3.960617e+001 -1.782069e+001 4.502759e-001 -2.855895e-001 1.449881e-001
<VARIANCE> 9
 1.491142e-001 3.371764e-001 3.897147e-001 5.203004e+002 4.769859e+001 1.210095e+002 4.762525e-004 5.782502e-004 1.938003e-004
<GCONST> 3.869792e+000
<MIXTURE> 18 4.424480e-002
<MEAN> 9
 -8.020666e+000 -5.766546e-001 -1.397808e+000 1.418001e+002 -5.107329e+001 -2.589369e+002 5.174939e-001 8.617752e-003 1.372529e-001
<VARIANCE> 9
 4.545139e+000 3.371764e-001 7.617453e-002 4.527382e+001 5.321829e+002 4.345960e+002 4.762525e-004 3.891572e-003 2.087804e-004
<GCONST> 8.884476e+000
<MIXTURE> 19 2.991119e-002
<MEAN> 9
 -8.987396e+000 3.631894e-001 4.595252e+000 1.583186e+002 -5.848560e+001 -5.386651e+001 4.608267e-001 -2.774839e-001 1.448055e-001
<VARIANCE> 9
 1.491142e-001 3.371764e-001 9.518417e-001 7.392533e+001 3.680466e+001 1.210095e+002 4.762525e-004 5.782502e-004 1.938003e-004
<GCONST> 2.552146e+000
<MIXTURE> 20 2.220792e-002
<MEAN> 9
 -8.076221e+000 1.297220e+000 4.425841e+000 1.191812e+002 -5.452778e+001 -4.463128e+001 4.478756e-001 -2.942469e-001 1.976201e-001
<VARIANCE> 9
 1.491142e-001 3.371764e-001 1.455580e-001 1.087956e+002 5.403968e+001 1.210095e+002 4.762525e-004 5.782502e-004 1.938003e-004
<GCONST> 1.444831e+000
<MIXTURE> 21 3.652435e-002
<MEAN> 9
 -7.050646e+000 9.270445e-001 2.717015e+000 1.580947e+002 -6.220650e+001 -7.094366e+001 4.652211e-001 -2.670569e-001 1.967015e-001
<VARIANCE> 9
 2.436756e-001 3.371764e-001 1.246785e-001 1.801450e+002 3.680466e+001 1.210095e+002 4.762525e-004 5.782502e-004 4.356971e-004
<GCONST> 2.711435e+000
<MIXTURE> 22 2.220105e-002
<MEAN> 9
 -5.465864e+000 2.136544e+000 1.032128e+000 1.111382e+002 -1.364024e+002 -1.958334e+002 5.078788e-001 -1.036363e-001 2.006797e-002
<VARIANCE> 9
 1.491142e-001 5.036369e-001 6.976298e-002 1.850593e+002 3.680466e+001 3.320548e+002 4.762525e-004 5.782502e-004 3.417555e-004
<GCONST> 2.834419e+000
<MIXTURE> 23 2.960142e-002
<MEAN> 9
 -7.774095e+000 -1.397588e+000 2.427711e+000 3.673782e+001 -5.649392e+001 -2.659756e+002 4.761364e-001 5.136357e-002 -3.571427e-002
<VARIANCE> 9
 3.375211e-001 1.178905e+000 6.976298e-002 1.263727e+002 3.680466e+001 1.448094e+002 4.762525e-004 1.229130e-003 1.938003e-004
<GCONST> 3.477286e+000
<MIXTURE> 24 1.071398e-001
<MEAN> 9
 -7.191653e+000 -3.578283e+000 2.014884e+000 3.640446e+001 6.253734e+001 -4.241853e+001 4.255750e-001 1.946179e-001 1.387277e-001
<VARIANCE> 9
 1.491142e-001 3.371764e-001 1.280967e+000 1.156569e+002 6.789089e+002 1.207579e+003 4.762525e-004 5.782502e-004 8.293552e-004
<GCONST> 9.965874e+000
<STATE> 7
<NUMMIXES> 24
<MIXTURE> 1 4.587900e-002
<MEAN> 9
 -2.550352e+000 -1.052916e+001 4.785677e+000 -3.384554e+001 1.192229e+002 -3.034767e+001 -9.471388e-003 3.702242e-001 1.775331e-001
<VARIANCE> 9
 2.605882e+000 9.283636e-001 1.828243e-001 1.841156e+002 5.459460e+003 3.404077e+002 4.762525e-004 5.782502e-004 1.938003e-004
<GCONST> 1.172217e+001
<MIXTURE> 2 4.581303e-002
<MEAN> 9
 -1.062164e+001 -7.215471e+000 2.112058e+000 2.925683e+001 2.213476e+001 -2.681552e+002 3.106230e-001 3.103279e-001 7.987814e-002
<VARIANCE> 9
 8.011741e-001 6.133189e-001 4.712966e-001 1.174212e+003 7.616699e+002 1.210095e+002 6.632997e-004 5.782502e-004 1.938003e-004
<GCONST> 1.025534e+001
<MIXTURE> 3 2.728334e-002
<MEAN> 9
 -1.044180e+001 -4.919760e+000 1.630475e+000 8.652377e+001 6.545202e+000 -2.701625e+002 4.087849e-001 2.430339e-001 9.285625e-002
<VARIANCE> 9
 2.733111e-001 3.895579e-001 2.973132e-001 2.977951e+001 3.680466e+001 1.210095e+002 4.762525e-004 6.789906e-004 1.938003e-004
<GCONST> 1.390203e+000
<MIXTURE> 4 7.285883e-002
<MEAN> 9
 -7.086694e+000 -1.218995e+001 2.222826e+000 -4.922948e+001 9.393703e+001 -1.189299e+002 1.368605e-002 3.728581e-001 1.639155e-001
<VARIANCE> 9
 1.491142e-001 3.371764e-001 6.601546e-001 2.402389e+002 2.271520e+003 6.646470e+002 4.762525e-004 5.782502e-004 1.938003e-004
<GCONST> 9.190764e+000
<MIXTURE> 5 5.438381e-002
<MEAN> 9
 -7.232850e+000 -1.038714e+001 2.126331e+000 -3.361610e+001 7.763747e+001 -1.195122e+002 5.298662e-002 3.751662e-001 1.078403e-001
<VARIANCE> 9
 1.544962e-001 3.371764e-001 9.866241e-002 2.977951e+001 1.962253e+002 1.238708e+003 4.762525e-004 5.782502e-004 1.938003e-004
<GCONST> 3.411267e+000
<MIXTURE> 6 1.819604e-002
<MEAN> 9
 -5.397461e+000 -9.566336e+000 2.397191e+000 -4.161918e+001 1.944234e+001 -2.351784e+001 -8.618495e-003 3.609262e-001 1.632530e-001
<VARIANCE> 9
 1.491142e-001 3.371764e-001 6.976298e-002 2.977951e+001 2.550294e+002 1.210095e+002 4.762525e-004 5.782502e-004 1.938003e-004
<GCONST> 9.653692e-001
<MIXTURE> 7 4.524932e-002
<MEAN> 9
 -1.011329e+001 -9.637558e+000 1.811891e+000 -1.738724e+000 3.095120e+001 -2.531938e+002 2.249661e-001 3.552592e-001 8.339684e-002
<VARIANCE> 9
 3.460788e-001 1.631536e+000 1.927340e-001 6.924743e+002 4.865685e+002 1.210095e+002 7.351142e-004 5.782502e-004 2.673183e-004
<GCONST> 8.948342e+000
<MIXTURE> 8 4.549953e-002
<MEAN> 9
 -5.014724e+000 -9.949277e+000 2.792539e+000 -5.644580e+001 5.621983e+001 -1.247494e+002 9.457881e-002 3.758086e-001 2.250811e-001
<VARIANCE> 9
 2.260106e-001 3.371764e-001 6.976298e-002 3.986151e+001 1.065531e+003 3.036336e+002 5.967084e-004 5.782502e-004 1.938003e-004
<GCONST> 4.248115e+000
<MIXTURE> 9 9.049289e-002
<MEAN> 9
 -9.330674e+000 -5.775766e+000 1.883232e-001 9.136800e+000 1.808498e+001 -2.234673e+002 3.609585e-001 2.762727e-001 1.275612e-001
<VARIANCE> 9
 8.007007e+000 1.448884e+000 1.044319e+000 1.372905e+002 2.461095e+003 7.819339e+003 9.090452e-004 5.782502e-004 1.465616e-003
<GCONST> 1.974609e+001
<MIXTURE> 10 4.494039e-002
<MEAN> 9
 -8.160850e+000 -9.193361e+000 3.344954e+000 1.295960e+001 1.554936e+002 -2.064821e+001 -1.825700e-002 3.629658e-001 1.601078e-001
<VARIANCE> 9
 4.406029e+000 3.371764e-001 1.899720e-001 2.977951e+001 3.806158e+003 1.210095e+002 4.762525e-004 5.782502e-004 1.938003e-004
<GCONST> 8.056155e+000
<MIXTURE> 11 2.728387e-002
<MEAN> 9
 -7.574292e+000 -1.003612e+001 8.714889e-001 -6.158512e+001 1.077851e+002 -6.062938e+001 3.939164e-003 3.651511e-001 1.683675e-001
<VARIANCE> 9
 3.389444e-001 3.371764e-001 6.976298e-002 2.977951e+001 8.997512e+001 1.749727e+002 4.762525e-004 5.782502e-004 1.938003e-004
<GCONST> 1.113410e+000
<MIXTURE> 12 3.627385e-002
<MEAN> 9
 -8.015929e+000 -1.233741e+001 1.476889e+000 -3.823254e+001 1.231549e+002 -2.027706e+002 8.075423e-002 3.808973e-001 1.560802e-001
<VARIANCE> 9
 1.491142e-001 3.371764e-001 1.277343e-001 4.166324e+001 2.137844e+002 4.439252e+002 9.990013e-004 5.782502e-004 1.938003e-004
<GCONST> 3.770202e+000
<MIXTURE> 13 2.728509e-002
<MEAN> 9
 -1.085542e+001 -1.115663e+001 8.995984e-001 -4.150407e+001 1.294512e+002 -2.563415e+002 1.769697e-001 3.606061e-001 7.823129e-002
<VARIANCE> 9
 8.407612e-001 3.371764e-001 8.770826e-002 2.977951e+001 3.380453e+002 1.210095e+002 8.497703e-004 5.782502e-004 1.938003e-004
<GCONST> 3.784694e+000
<MIXTURE> 14 2.728481e-002
<MEAN> 9
 -5.847387e+000 -1.071887e+001 1.678712e+000 -4.306912e+001 1.582113e+002 -4.060957e+001 -2.606062e-002 3.645455e-001 1.755103e-001
<VARIANCE> 9
 1.491142e-001 3.371764e-001 6.976298e-002 2.977951e+001 1.096636e+002 1.827791e+002 4.762525e-004 5.782502e-004 1.938003e-004
<GCONST> 5.338182e-001
<MIXTURE> 15 6.364136e-002
<MEAN> 9
 -6.637286e+000 -8.703521e+000 2.476788e+000 -3.168371e+001 2.573884e+000 -1.655782e+002 2.189873e-001 3.433700e-001 1.714224e-001
<VARIANCE> 9
 6.318604e-001 1.119038e+000 9.863756e-002 7.601438e+001 7.762971e+002 1.210095e+002 2.053976e-003 5.782502e-004 1.938003e-004
<GCONST> 7.467135e+000
<MIXTURE> 16 2.728499e-002
<MEAN> 9
 -9.670683e+000 -1.175904e+001 1.112449e+000 -5.892276e+001 -6.300976e-001 -2.008537e+002 8.575756e-002 3.709091e-001 1.119048e-001
<VARIANCE> 9
 1.937611e+000 3.371764e-001 6.976298e-002 5.490853e+001 6.227271e+002 6.317731e+002 7.362707e-004 5.782502e-004 1.938003e-004
<GCONST> 7.122758e+000
<MIXTURE> 17 5.450574e-002
<MEAN> 9
 -1.003076e+001 -5.142705e+000 1.876481e+000 1.069184e+001 6.830546e+001 -2.848065e+002 3.824844e-001 2.138477e-001 -2.060940e-002
<VARIANCE> 9
 8.419870e-001 1.172008e+000 4.190809e-001 3.823111e+001 1.629099e+003 1.210095e+002 1.404003e-003 2.621693e-003 3.645294e-004
<GCONST> 1.106396e+001
<MIXTURE> 18 2.728571e-002
<MEAN> 9
 -1.028115e+001 -8.795133e+000 1.710828e+000 -1.955235e+001 1.138005e+002 -2.761994e+002 2.739407e-001 3.424231e-001 3.639385e-002
<VARIANCE> 9
 2.378156e-001 6.870697e-001 6.976298e-002 7.985724e+001 3.680466e+001 1.210095e+002 4.762525e-004 5.782502e-004 1.938003e-004
<GCONST> 1.194648e+000
<MIXTURE> 19 1.819006e-002
<MEAN> 9
 -1.068072e+001 -8.951807e+000 3.000000e+000 -2.658537e+001 -5.521341e+001 -2.887805e+002 2.659091e-001 3.413636e-001 1.204082e-001
<VARIANCE> 9
 2.784476e+000 3.371764e-001 6.976298e-002 2.977951e+001 5.855983e+001 1.210095e+002 4.762525e-004 5.782502e-004 1.938003e-004
<GCONST> 2.421142e+000
<MIXTURE> 20 4.553814e-002
<MEAN> 9
 -5.774654e+000 -9.674704e+000 1.876864e+000 -4.381939e+001 5.689078e+001 -4.171363e+001 1.075398e-002 3.725236e-001 1.436350e-001
<VARIANCE> 9
 1.491142e-001 3.371764e-001 6.976298e-002 2.977951e+001 3.680466e+001 1.210095e+002 4.762525e-004 5.782502e-004 1.938003e-004
<GCONST> -9.703841e-001
<MIXTURE> 21 1.818394e-002
<MEAN> 9
 -1.146956e+001 -9.813370e+000 3.638485e+000 5.061676e+000 3.189073e+002 -3.933264e+001 -1.454744e-002 3.613633e-001 1.693864e-001
<VARIANCE> 9
 1.394106e+000 3.371764e-001 6.976298e-002 2.977951e+001 3.213708e+002 1.517103e+002 4.762525e-004 5.782502e-004 1.938003e-004
<GCONST> 3.657987e+000
<MIXTURE> 22 5.457012e-002
<MEAN> 9
 -5.684739e+000 -1.262651e+001 2.086345e+000 -4.248984e+001 5.595529e+001 -7.149390e+001 1.242424e-002 3.580303e-001 2.620748e-001
<VARIANCE> 9
 3.723529e-001 2.104176e+000 1.601294e+001 2.977951e+001 2.582673e+003 4.043535e+002 4.762525e-004 5.782502e-004 1.938003e-004
<GCONST> 1.266924e+001
<MIXTURE> 23 2.730218e-002
<MEAN> 9
 -9.337483e+000 -1.318384e+001 3.043983e+000 -3.971380e+001 2.608070e+001 -2.256979e+002 8.853920e-002 3.733364e-001 1.397849e-001
<VARIANCE> 9
 9.504935e-001 3.371764e-001 7.552751e-002 2.977951e+001 3.761440e+001 4.973446e+002 7.921567e-004 5.782502e-004 1.938003e-004
<GCONST> 2.905265e+000
<MIXTURE> 24 5.477347e-002
<MEAN> 9
 -8.631484e+000 -1.099419e+001 2.335710e+000 -3.617857e+001 3.450729e+001 -2.392556e+002 1.636544e-001 3.737817e-001 1.092561e-001
<VARIANCE> 9
 4.406635e-001 3.371764e-001 1.303131e-001 1.698448e+002 3.574034e+002 7.191624e+002 7.041540e-004 5.782502e-004 4.256745e-004
<GCONST> 7.712440e+000
<TRANSP> 8
 0.000000e+000 1.000000e+000 0.000000e+000 0.000000e+000 0.000000e+000 0.000000e+000 0.000000e+000 0.000000e+000
 0.000000e+000 9.305609e-001 6.943907e-002 0.000000e+000 0.000000e+000 0.000000e+000 0.000000e+000 0.000000e+000
 0.000000e+000 0.000000e+000 9.358905e-001 6.410954e-002 0.000000e+000 0.000000e+000 0.000000e+000 0.000000e+000
 0.000000e+000 0.000000e+000 0.000000e+000 9.528269e-001 4.717312e-002 0.000000e+000 0.000000e+000 0.000000e+000
 0.000000e+000 0.000000e+000 0.000000e+000 0.000000e+000 9.780623e-001 2.193777e-002 0.000000e+000 0.000000e+000
 0.000000e+000 0.000000e+000 0.000000e+000 0.000000e+000 0.000000e+000 9.629985e-001 3.700148e-002 0.000000e+000
 0.000000e+000 0.000000e+000 0.000000e+000 0.000000e+000 0.000000e+000 0.000000e+000 9.545252e-001 4.547478e-002
 0.000000e+000 0.000000e+000 0.000000e+000 0.000000e+000 0.000000e+000 0.000000e+000 0.000000e+000 0.000000e+000
<ENDHMM>
~h "GN"
<BEGINHMM>
<NUMSTATES> 8
<STATE> 2
<NUMMIXES> 24
<MIXTURE> 1 3.773097e-002
<MEAN> 9
 -8.915730e+000 -1.107226e+001 1.355330e+000 5.012169e+001 1.250917e+002 1.477151e+002 7.500134e-002 3.763648e-001 1.642856e-001
<VARIANCE> 9
 3.775587e-001 3.371764e-001 7.011541e-001 2.977951e+001 3.680466e+001 2.408172e+002 4.762525e-004 5.782502e-004 1.938003e-004
<GCONST> 2.954425e+000
<MIXTURE> 2 1.886760e-002
<MEAN> 9
 -1.384337e+001 -5.746988e+000 -3.891566e+000 -7.987805e+001 8.231707e+001 2.643293e+002 3.500000e-001 3.090909e-001 2.316326e-001
<VARIANCE> 9
 1.491142e-001 3.371764e-001 6.976298e-002 2.977951e+001 3.680466e+001 1.210095e+002 4.762525e-004 5.782502e-004 1.938003e-004
<GCONST> -9.703841e-001
<MIXTURE> 3 5.660275e-002
<MEAN> 9
 -7.831326e+000 -1.084337e+001 1.385542e+000 2.199187e+001 -5.786583e+001 1.790041e+002 8.333334e-002 3.903030e-001 2.098639e-001
<VARIANCE> 9
 3.673485e-001 3.371764e-001 6.976298e-002 2.977951e+001 5.359605e+002 1.568568e+002 4.762525e-004 5.782502e-004 1.938003e-004
<GCONST> 2.869115e+000
<MIXTURE> 4 3.779428e-002
<MEAN> 9
 -1.061987e+001 -7.304309e+000 -3.120908e+000 -3.476573e+001 3.486960e+001 2.560499e+002 3.036426e-001 3.340223e-001 2.131746e-001
<VARIANCE> 9
 1.491142e-001 3.371764e-001 8.363338e-001 9.854535e+001 1.341249e+002 1.210095e+002 4.762525e-004 6.245025e-004 1.938003e-004
<GCONST> 4.080331e+000
<MIXTURE> 5 5.661489e-002
<MEAN> 9
 -7.028053e+000 -1.186327e+001 2.915681e+000 5.209099e+001 7.568658e+001 1.291563e+002 3.151747e-002 3.715148e-001 1.843545e-001
<VARIANCE> 9
 2.387985e-001 1.777546e+000 3.840826e-001 2.977951e+001 7.004677e+002 3.297351e+003 4.762525e-004 5.782502e-004 1.938003e-004
<GCONST> 9.119788e+000
<MIXTURE> 6 1.890264e-002
<MEAN> 9
 -9.748745e+000 -7.662504e+000 -2.433604e+000 -1.677221e+001 5.078091e+001 2.295734e+002 2.481588e-001 3.654053e-001 1.673386e-001
<VARIANCE> 9
 1.491142e-001 3.371764e-001 6.976298e-002 2.977951e+001 3.680466e+001 1.210095e+002 4.762525e-004 5.782502e-004 1.938003e-004
<GCONST> -9.703841e-001
<MIXTURE> 7 5.633817e-002
<MEAN> 9
 -8.855931e+000 -4.598301e+000 -2.790184e+000 -4.928135e+001 3.816747e+000 2.293947e+002 3.532337e-001 2.813118e-001 1.887372e-001
<VARIANCE> 9
 1.491142e-001 4.951261e-001 6.976298e-002 2.977951e+001 3.680466e+001 1.210095e+002 5.167397e-004 5.782502e-004 1.938003e-004
<GCONST> -5.045881e-001
<MIXTURE> 8 5.661896e-002
<MEAN> 9
 -1.029341e+001 -1.016855e+001 -1.457927e+000 3.180442e+001 7.320770e+001 2.249151e+002 1.342474e-001 3.718183e-001 1.710875e-001
<VARIANCE> 9
 2.746011e-001 3.371764e-001 1.027599e+000 2.977951e+001 3.302431e+003 1.677648e+003 4.762525e-004 5.782502e-004 3.008000e-004
<GCONST> 9.895785e+000
<MIXTURE> 9 3.773519e-002
<MEAN> 9
