~o
<STREAMINFO> 1 9
<VECSIZE> 9<NULLD><USER><DIAGC>
~h "GA"
<BEGINHMM>
<NUMSTATES> 8
<STATE> 2
<NUMMIXES> 24
<MIXTURE> 1 2.616527e-002
<MEAN> 9
 -9.107003e+000 -9.802785e+000 1.472440e-001 6.537509e+001 1.010348e+002 1.439637e+002 1.028204e-001 3.665127e-001 1.551230e-001
<VARIANCE> 9
 1.491142e-001 3.371764e-001 6.976298e-002 2.977951e+001 3.680466e+001 1.210095e+002 4.762525e-004 5.782502e-004 1.938003e-004
<GCONST> -9.703841e-001
<MIXTURE> 2 5.125939e-002
<MEAN> 9
 -9.777108e+000 -6.933735e+000 -2.506024e+000 -3.756097e+001 3.402439e+001 2.647256e+002 2.822727e-001 3.159091e-001 1.770408e-001
<VARIANCE> 9
 1.491142e-001 3.371764e-001 6.976298e-002 3.426532e+001 3.680466e+001 1.210095e+002 5.373970e-004 5.782502e-004 1.938003e-004
<GCONST> -7.092824e-001
<MIXTURE> 3 5.125762e-002
<MEAN> 9
 -1.161446e+001 -9.150589e+000 4.638483e-001 -3.999974e+001 -6.070189e+001 2.259753e+002 2.663636e-001 3.568186e-001 1.551025e-001
<VARIANCE> 9
 2.560857e-001 3.371764e-001 6.976298e-002 2.977951e+001 3.680466e+001 1.210095e+002 4.762525e-004 5.782502e-004 1.938003e-004
<GCONST> -4.295855e-001
<MIXTURE> 4 2.562973e-002
<MEAN> 9
 -8.265060e+000 -1.145783e+001 1.036145e+000 3.164634e+001 3.993903e+001 2.068293e+002 9.909091e-002 3.663636e-001 1.602041e-001
<VARIANCE> 9
 1.491142e-001 3.371764e-001 6.976298e-002 2.977951e+001 3.680466e+001 1.210095e+002 4.762525e-004 5.782502e-004 1.938003e-004
<GCONST> -9.703841e-001
<MIXTURE> 5 2.562777e-002
<MEAN> 9
 -1.101205e+001 -9.626506e+000 -1.036145e+000 1.097561e+001 1.000000e+002 2.448171e+002 1.681818e-001 3.827273e-001 1.612245e-001
<VARIANCE> 9
 1.491142e-001 3.371764e-001 6.976298e-002 2.977951e+001 3.680466e+001 1.210095e+002 4.762525e-004 5.782502e-004 1.938003e-004
<GCONST> -9.703841e-001
<MIXTURE> 6 5.170002e-002
<MEAN> 9
 -7.494856e+000 -1.001875e+001 1.121845e-001 2.003079e+000 -3.763128e+000 1.277487e+002 6.019827e-002 3.687273e-001 1.474889e-001
<VARIANCE> 9
 4.034119e-001 3.371764e-001 1.226383e-001 2.977951e+001 3.680466e+001 1.210095e+002 4.762525e-004 5.782502e-004 1.938003e-004
<GCONST> 5.889997e-001
<MIXTURE> 7 2.564595e-002
<MEAN> 9
 -1.031319e+001 -6.710217e+000 -3.072595e+000 -1.128787e+001 4.994038e+001 2.229899e+002 2.872998e-001 3.308924e-001 1.530651e-001
<VARIANCE> 9
 1.491142e-001 3.371764e-001 6.976298e-002 2.977951e+001 3.680466e+001 1.210095e+002 4.762525e-004 5.782502e-004 1.938003e-004
<GCONST> -9.703841e-001
<MIXTURE> 8 2.562973e-002
<MEAN> 9
 -1.012048e+001 -6.951807e+000 -3.132530e-001 -7.628049e+001 -5.957317e+001 2.601829e+002 3.727273e-001 2.836364e-001 1.612245e-001
<VARIANCE> 9
 1.491142e-001 3.371764e-001 6.976298e-002 2.977951e+001 3.680466e+001 1.210095e+002 4.762525e-004 5.782502e-004 1.938003e-004
<GCONST> -9.703841e-001
<MIXTURE> 9 2.697644e-002
<MEAN> 9
 -9.913042e+000 -8.759630e+000 -2.034336e+000 3.059232e+001 6.260330e+001 2.023958e+002 2.081095e-001 3.508503e-001 1.495377e-001
<VARIANCE> 9
 1.491142e-001 3.371764e-001 6.976298e-002 2.977951e+001 3.680466e+001 1.210095e+002 4.762525e-004 5.782502e-004 1.938003e-004
<GCONST> -9.703841e-001
<MIXTURE> 10 2.562972e-002
<MEAN> 9
 -7.024096e+000 -1.144578e+001 5.662650e-001 1.152439e+001 -1.418293e+002 1.054878e+002 1.727273e-002 3.727273e-001 1.734694e-001
<VARIANCE> 9
 1.491142e-001 3.371764e-001 6.976298e-002 2.977951e+001 3.680466e+001 1.210095e+002 4.762525e-004 5.782502e-004 1.938003e-004
<GCONST> -9.703841e-001
<MIXTURE> 11 5.075393e-002
<MEAN> 9
 -9.669364e+000 -9.437903e+000 -3.077721e-001 5.232064e+001 8.602036e+001 1.694566e+002 1.302658e-001 3.759168e-001 1.550823e-001
<VARIANCE> 9
 1.491142e-001 3.371764e-001 6.976298e-002 2.977951e+001 8.109189e+001 1.210095e+002 5.172309e-004 5.782502e-004 1.938003e-004
<GCONST> -9.788418e-002
<MIXTURE> 12 5.127801e-002
<MEAN> 9
 -8.698858e+000 -9.391608e+000 9.454222e-001 -1.765145e+001 -7.615616e+001 1.756344e+002 1.458951e-001 3.718175e-001 1.535708e-001
<VARIANCE> 9
 1.677532e-001 3.371764e-001 6.976298e-002 2.977951e+001 3.680466e+001 1.210095e+002 4.762525e-004 5.782502e-004 1.938003e-004
<GCONST> -8.526015e-001
<MIXTURE> 13 5.126108e-002
<MEAN> 9
 -1.045787e+001 -8.927732e+000 4.156718e-001 -2.280578e+001 -7.509028e+001 2.005806e+002 2.077295e-001 3.713627e-001 1.576525e-001
<VARIANCE> 9
 1.491142e-001 3.371764e-001 6.976298e-002 3.080204e+001 3.680466e+001 1.210095e+002 4.762525e-004 5.782502e-004 1.938003e-004
<GCONST> -9.366241e-001
<MIXTURE> 14 5.124328e-002
<MEAN> 9
 -8.903579e+000 -9.632595e+000 -2.952788e-001 -1.005851e+001 -5.270441e+001 1.545089e+002 9.499316e-002 3.713641e-001 1.520406e-001
<VARIANCE> 9
 1.491142e-001 3.371764e-001 7.348257e-002 2.977951e+001 2.864174e+002 1.210095e+002 4.762525e-004 5.782502e-004 1.938003e-004
<GCONST> 1.133388e+000
<MIXTURE> 15 5.125939e-002
<MEAN> 9
 -9.813253e+000 -5.277108e+000 -3.518073e+000 -6.603659e+001 3.850610e+001 2.589634e+002 3.531819e-001 2.950000e-001 1.948980e-001
<VARIANCE> 9
 1.491142e-001 3.371764e-001 7.678908e-002 6.187163e+001 3.680466e+001 1.210095e+002 5.373964e-004 5.782502e-004 1.938003e-004
<GCONST> -2.239704e-002
<MIXTURE> 16 2.562972e-002
<MEAN> 9
 -1.181928e+001 -8.337349e+000 -2.506024e+000 -1.810976e+001 5.689024e+001 2.601829e+002 2.427273e-001 3.563636e-001 1.734694e-001
<VARIANCE> 9
 1.491142e-001 3.371764e-001 6.976298e-002 2.977951e+001 3.680466e+001 1.210095e+002 4.762525e-004 5.782502e-004 1.938003e-004
<GCONST> -9.703841e-001
<MIXTURE> 17 4.990894e-002
<MEAN> 9
 -1.127859e+001 -8.949994e+000 -1.747183e+000 1.645255e+001 7.747836e+001 2.239876e+002 1.821068e-001 3.514000e-001 1.497284e-001
<VARIANCE> 9
 1.918031e+000 3.371764e-001 4.307654e-001 5.139402e+002 1.334458e+002 1.031506e+003 4.762525e-004 5.782502e-004 1.938003e-004
<GCONST> 9.683681e+000
<MIXTURE> 18 2.562973e-002
<MEAN> 9
 -9.421687e+000 -1.054217e+001 -9.638554e-002 2.560976e+001 7.707317e+001 2.281098e+002 1.227273e-001 3.790909e-001 1.622449e-001
<VARIANCE> 9
 1.491142e-001 3.371764e-001 6.976298e-002 2.977951e+001 3.680466e+001 1.210095e+002 4.762525e-004 5.782502e-004 1.938003e-004
<GCONST> -9.703841e-001
<MIXTURE> 19 5.125945e-002
<MEAN> 9
 -6.728916e+000 -1.217470e+001 1.536145e+000 2.140244e+001 -5.783536e+001 1.586890e+002 5.136364e-002 3.781818e-001 1.750000e-001
<VARIANCE> 9
 1.491142e-001 3.371764e-001 6.976298e-002 2.977951e+001 1.106374e+003 3.009380e+002 4.762525e-004 5.782502e-004 1.938003e-004
<GCONST> 3.343871e+000
<MIXTURE> 20 5.125945e-002
<MEAN> 9
 -1.203012e+001 -8.246988e+000 -9.698795e-001 -5.878049e+001 -7.875000e+001 2.528049e+002 3.263637e-001 3.059091e-001 1.545918e-001
<VARIANCE> 9
 4.967701e-001 3.371764e-001 6.976298e-002 4.336703e+001 3.680466e+001 1.210095e+002 5.165287e-004 5.782502e-004 1.938003e-004
<GCONST> 6.900911e-001
<MIXTURE> 21 5.124320e-002
<MEAN> 9
 -1.042175e+001 -5.162473e+000 -3.566269e+000 -2.859936e+001 5.384202e+001 2.267990e+002 3.354563e-001 2.890860e-001 1.627562e-001
<VARIANCE> 9
 1.491142e-001 3.371764e-001 6.976298e-002 3.215719e+001 3.680466e+001 1.210095e+002 4.762525e-004 5.782502e-004 1.938003e-004
<GCONST> -8.935676e-001
<MIXTURE> 22 5.125707e-002
<MEAN> 9
 -8.259066e+000 -1.063856e+001 -1.024065e-001 1.978650e+001 -9.771461e+001 6.445180e+001 5.000275e-003 3.618183e-001 1.653062e-001
<VARIANCE> 9
 4.154811e-001 3.371764e-001 6.976298e-002 2.977951e+001 6.574221e+002 1.532161e+002 4.762525e-004 5.782502e-004 1.938003e-004
<GCONST> 3.173022e+000
<MIXTURE> 23 5.126251e-002
<MEAN> 9
 -8.024018e+000 -1.040965e+001 1.765152e+000 6.316945e+001 9.228516e+001 1.124060e+002 6.317987e-002 3.695455e-001 1.739813e-001
<VARIANCE> 9
 1.491142e-001 3.371764e-001 3.557666e-001 2.977951e+001 3.680466e+001 1.239079e+002 4.762525e-004 5.782502e-004 1.938003e-004
<GCONST> 6.824560e-001
<MIXTURE> 24 5.123251e-002
<MEAN> 9
 -1.063264e+001 -7.662476e+000 -2.608455e+000 1.088059e+001 6.917583e+001 2.140566e+002 2.431920e-001 3.259057e-001 1.443885e-001
<VARIANCE> 9
 1.491142e-001 3.371764e-001 6.976298e-002 5.046194e+001 3.680466e+001 1.210095e+002 4.762525e-004 5.782502e-004 1.938003e-004
<GCONST> -4.429865e-001
<STATE> 3
<NUMMIXES> 24
<MIXTURE> 1 5.262991e-002
<MEAN> 9
 -5.489953e+000 2.048286e-001 2.156623e+000 -6.857701e+001 8.942564e+000 1.640438e+002 5.239391e-001 -6.878874e-002 2.221088e-001
<VARIANCE> 9
 1.491142e-001 3.371764e-001 6.976298e-002 2.977951e+001 2.204488e+002 3.781330e+002 4.762525e-004 5.782502e-004 1.938003e-004
<GCONST> 1.959033e+000
<MIXTURE> 2 3.508798e-002
<MEAN> 9
 -9.885542e+000 -1.746988e+000 1.909639e+000 -8.771341e+001 3.771341e+001 2.200610e+002 5.168182e-001 5.954545e-002 2.051020e-001
<VARIANCE> 9
 2.621934e-001 3.371764e-001 6.976298e-002 2.977951e+001 2.277522e+002 1.210095e+002 4.762525e-004 5.782502e-004 1.938003e-004
<GCONST> 1.416621e+000
<MIXTURE> 3 5.263169e-002
<MEAN> 9
 -6.425704e+000 2.028110e+000 -1.144575e+000 -1.806707e+002 7.195114e+000 9.128038e+001 5.018182e-001 -7.030316e-002 3.023809e-001
<VARIANCE> 9
 1.491142e-001 3.371764e-001 3.162530e-001 2.977951e+001 3.680466e+001 3.019351e+002 4.762525e-004 5.782502e-004 1.938003e-004
<GCONST> 1.455400e+000
<MIXTURE> 4 3.508239e-002
<MEAN> 9
 -9.084372e+000 -4.000032e+000 6.806323e-001 -9.728613e+001 -3.262319e+001 2.510372e+002 4.609079e-001 1.695464e-001 1.698972e-001
<VARIANCE> 9
 1.491142e-001 3.371764e-001 3.275149e-001 2.977951e+001 6.091612e+001 1.210095e+002 4.762525e-004 5.782502e-004 1.938003e-004
<GCONST> 1.079921e+000
<MIXTURE> 5 3.508725e-002
<MEAN> 9
 -6.451819e+000 1.783124e+000 -2.536149e+000 -1.748170e+002 -7.164693e+000 1.398172e+002 4.963636e-001 -8.636299e-003 2.989795e-001
<VARIANCE> 9
 3.275150e-001 3.371764e-001 6.976298e-002 2.977951e+001 3.680466e+001 1.210095e+002 4.762525e-004 5.782502e-004 1.938003e-004
<GCONST> -1.835642e-001
<MIXTURE> 6 5.263120e-002
<MEAN> 9
 -8.016063e+000 1.646609e-001 3.341355e+000 -1.146142e+002 -4.926836e+001 1.689026e+001 5.027273e-001 -1.493938e-001 2.680274e-001
<VARIANCE> 9
 1.491142e-001 3.371764e-001 3.740559e-001 4.647439e+002 3.680466e+001 1.210095e+002 4.762525e-004 5.782502e-004 1.938003e-004
<GCONST> 3.456584e+000
<MIXTURE> 7 5.263104e-002
<MEAN> 9
 -8.690769e+000 -3.321295e+000 -4.032131e+000 -1.016868e+002 9.756152e+000 2.397359e+002 4.163634e-001 2.133336e-001 2.248298e-001
<VARIANCE> 9
 2.203842e-001 3.371764e-001 6.976298e-002 1.051853e+002 3.680466e+001 1.210095e+002 4.762525e-004 5.782502e-004 1.938003e-004
<GCONST> 6.821814e-001
<MIXTURE> 8 3.508861e-002
<MEAN> 9
 -7.969888e+000 -1.451838e+000 -3.915661e+000 -1.305788e+002 1.414613e+001 2.122566e+002 4.690901e-001 1.445467e-001 2.581627e-001
<VARIANCE> 9
 1.491142e-001 3.371764e-001 6.976298e-002 2.977951e+001 3.680466e+001 1.210095e+002 4.762525e-004 5.782502e-004 1.938003e-004
<GCONST> -9.703841e-001
<MIXTURE> 9 5.325226e-002
<MEAN> 9
 -8.392036e+000 3.433090e-002 5.382903e+000 -1.258317e+002 -4.327322e+001 -1.181277e+001 5.127510e-001 -1.326821e-001 1.751944e-001
<VARIANCE> 9
 1.491142e-001 3.371764e-001 3.207663e+000 2.179720e+003 7.844775e+001 1.210095e+002 4.762525e-004 5.782502e-004 7.105935e-004
<GCONST> 9.207020e+000
<MIXTURE> 10 3.508797e-002
<MEAN> 9
 -6.855422e+000 1.271084e+000 1.807229e+000 -1.677134e+002 -2.158537e+001 4.121951e+001 5.000000e-001 -1.040909e-001 2.964286e-001
<VARIANCE> 9
 1.491142e-001 3.371764e-001 2.207868e-001 4.622344e+001 9.518143e+001 1.210095e+002 4.762525e-004 5.782502e-004 1.938003e-004
<GCONST> 1.571536e+000
<MIXTURE> 11 3.508762e-002
<MEAN> 9
 -7.891563e+000 -1.385570e-001 -4.048193e+000 -1.552439e+002 2.637194e+001 1.828354e+002 4.863636e-001 7.909090e-002 2.826530e-001
<VARIANCE> 9
 1.491142e-001 3.371764e-001 6.976298e-002 4.417383e+001 3.680466e+001 1.210095e+002 4.762525e-004 5.782502e-004 1.938003e-004
<GCONST> -5.760741e-001
<MIXTURE> 12 3.508791e-002
<MEAN> 9
 -9.837350e+000 -3.849397e+000 -4.265061e+000 -4.905489e+001 3.603658e+001 2.225000e+002 3.881818e-001 2.459091e-001 1.811225e-001
<VARIANCE> 9
 1.491142e-001 3.371764e-001 1.394977e-001 2.977951e+001 3.680466e+001 1.210095e+002 4.762525e-004 5.782502e-004 1.938003e-004
<GCONST> -2.774401e-001
<MIXTURE> 13 6.964038e-002
<MEAN> 9
 -7.080028e+000 3.821060e+000 -4.023655e+000 -1.355024e+002 3.079032e+001 7.914626e+001 5.038444e-001 -7.583039e-002 2.714600e-001
<VARIANCE> 9
 1.491142e-001 3.371764e-001 8.809654e-002 1.064619e+002 3.680466e+001 2.048542e+002 4.762525e-004 5.782502e-004 1.938003e-004
<GCONST> 1.063342e+000
<MIXTURE> 14 3.548437e-002
<MEAN> 9
 -6.554712e+000 6.839361e-001 -3.705697e+000 -1.101764e+002 -6.357520e+000 1.538988e+002 4.966502e-001 6.200139e-002 2.508719e-001
<VARIANCE> 9
 1.491142e-001 3.371764e-001 6.976298e-002 2.977951e+001 3.680466e+001 1.210095e+002 4.762525e-004 5.782502e-004 1.938003e-004
<GCONST> -9.703841e-001
<MIXTURE> 15 5.200854e-002
<MEAN> 9
 -8.049668e+000 -5.675637e-001 5.180911e+000 -1.595289e+002 -6.229828e+001 -2.237756e+001 5.157695e-001 -1.266410e-001 1.920123e-001
<VARIANCE> 9
 1.491142e-001 3.371764e-001 6.787059e-001 2.719234e+002 3.680466e+001 1.210095e+002 4.762525e-004 5.782502e-004 1.973410e-004
<GCONST> 3.534504e+000
<MIXTURE> 16 3.508797e-002
<MEAN> 9
 -5.969880e+000 2.277108e+000 1.204830e-002 -1.871951e+002 -6.204268e+001 1.155488e+001 5.077273e-001 -1.281818e-001 2.443878e-001
<VARIANCE> 9
 1.491142e-001 3.371764e-001 7.525040e-001 2.977951e+001 3.680466e+001 1.210095e+002 4.762525e-004 5.782502e-004 1.938003e-004
<GCONST> 1.407920e+000
<MIXTURE> 17 5.261293e-002
<MEAN> 9
 -8.782994e+000 -1.778921e+000 -3.855387e+000 -9.099878e+001 2.447353e+001 1.932696e+002 4.639431e-001 1.312064e-001 2.295977e-001
<VARIANCE> 9
 1.491142e-001 3.371764e-001 6.976298e-002 3.840156e+001 3.680466e+001 1.210095e+002 4.762525e-004 5.782502e-004 1.938003e-004
<GCONST> -7.161078e-001
<MIXTURE> 18 3.469067e-002
<MEAN> 9
 -8.186654e+000 2.874772e-001 -3.563782e+000 -1.364933e+002 4.591197e+000 1.679061e+002 4.859559e-001 5.289562e-002 2.640734e-001
<VARIANCE> 9
 2.683638e-001 3.371764e-001 6.976298e-002 1.195147e+003 3.680466e+001 1.210095e+002 4.762525e-004 6.249181e-004 6.769724e-004
<GCONST> 4.637867e+000
<MIXTURE> 19 3.508798e-002
<MEAN> 9
 -7.885542e+000 3.885542e+000 -2.054217e+000 -1.683842e+002 -1.881098e+001 3.899390e+001 5.009091e-001 -1.159091e-001 2.673469e-001
<VARIANCE> 9
 2.041296e-001 3.371764e-001 1.019378e-001 2.977951e+001 3.795369e+002 1.210095e+002 4.762525e-004 5.782502e-004 1.938003e-004
<GCONST> 2.056247e+000
<MIXTURE> 20 5.316734e-002
<MEAN> 9
 -6.970714e+000 2.357894e+000 -3.670846e+000 -1.182254e+002 9.930850e+000 1.185624e+002 5.060636e-001 -5.367450e-003 2.592659e-001
<VARIANCE> 9
 1.491142e-001 3.371764e-001 6.976298e-002 2.977951e+001 3.680466e+001 1.210095e+002 4.762525e-004 5.782502e-004 1.938003e-004
<GCONST> -9.703841e-001
<MIXTURE> 21 3.509341e-002
<MEAN> 9
 -8.409711e+000 -3.168774e+000 1.445753e+000 -9.399489e+001 1.654832e+001 2.330510e+002 4.972681e-001 1.113719e-001 1.908137e-001
<VARIANCE> 9
 1.778249e-001 3.371764e-001 6.976298e-002 2.977951e+001 3.183210e+002 1.210095e+002 4.762525e-004 5.782502e-004 1.938003e-004
<GCONST> 1.363139e+000
<MIXTURE> 22 1.754602e-002
<MEAN> 9
 -6.927565e+000 -7.469056e-001 1.963889e+000 -8.121872e+001 1.335472e+001 2.053028e+002 5.236371e-001 -8.186239e-003 2.091853e-001
<VARIANCE> 9
 1.491142e-001 3.371764e-001 6.976298e-002 2.977951e+001 3.680466e+001 1.210095e+002 4.762525e-004 5.782502e-004 1.938003e-004
<GCONST> -9.703841e-001
<MIXTURE> 23 3.508796e-002
<MEAN> 9
 -1.083735e+001 -5.608434e+000 6.024068e-003 -8.536585e+001 -3.365854e+001 2.578049e+002 4.140909e-001 2.331818e-001 1.663265e-001
<VARIANCE> 9
 1.491142e-001 3.371764e-001 6.976298e-002 2.977951e+001 3.680466e+001 1.210095e+002 4.762525e-004 5.782502e-004 1.938003e-004
<GCONST> -9.703841e-001
<MIXTURE> 24 3.510660e-002
<MEAN> 9
 -8.957946e+000 -2.849116e+000 -4.662269e+000 -7.128677e+001 1.378332e+001 2.124329e+002 4.291041e-001 1.949744e-001 2.000071e-001
<VARIANCE> 9
 1.491142e-001 3.371764e-001 6.976298e-002 3.798171e+001 3.680466e+001 1.210095e+002 4.762525e-004 5.782502e-004 1.938003e-004
<GCONST> -7.271018e-001
<STATE> 4
<NUMMIXES> 24
<MIXTURE> 1 4.705234e-002
<MEAN> 9
 -8.809166e+000 4.854825e+000 1.544898e+000 -8.477590e+000 6.385160e+001 4.146441e+001 4.993779e-001 -1.806043e-001 2.356652e-001
<VARIANCE> 9
 2.188610e-001 3.371764e-001 6.976298e-002 2.977951e+001 3.680466e+001 1.210095e+002 4.762525e-004 5.782502e-004 1.938003e-004
<GCONST> -5.866599e-001
<MIXTURE> 2 4.689737e-002
<MEAN> 9
 3.296933e-001 5.349458e+000 6.196347e+000 -2.379373e+001 -1.640335e+002 1.146698e+002 3.842299e-001 -3.075742e-001 -4.593260e-002
<VARIANCE> 9
 1.800358e+000 3.371764e-001 6.157818e-001 5.183073e+001 1.112637e+003 2.012546e+002 4.762525e-004 5.782502e-004 3.695131e-004
<GCONST> 8.815521e+000
<MIXTURE> 3 3.124921e-002
<MEAN> 9
 -4.228915e+000 1.578313e+000 2.740964e+000 -1.896343e+001 -1.515245e+001 2.929880e+001 5.081818e-001 -1.609091e-001 1.862245e-001
<VARIANCE> 9
 1.491142e-001 3.371764e-001 6.976298e-002 2.977951e+001 3.680466e+001 1.210095e+002 4.762525e-004 5.782502e-004 1.938003e-004
<GCONST> -9.703841e-001
<MIXTURE> 4 6.248483e-002
<MEAN> 9
 -1.168336e+001 5.006169e+000 1.337212e+000 -3.913225e+001 -9.743066e+001 7.638389e+001 4.777235e-001 -2.211393e-001 2.183794e-001
<VARIANCE> 9
 1.366207e+000 3.371764e-001 3.169746e+000 2.977951e+001 2.088022e+004 3.663370e+002 4.762525e-004 5.782502e-004 3.632617e-003
<GCONST> 1.544050e+001
<MIXTURE> 5 5.123472e-002
<MEAN> 9
 -8.630635e+000 4.713540e+000 2.529609e+000 5.720828e+000 1.766381e+001 1.004432e+001 5.086021e-001 -1.595040e-001 2.056639e-001
<VARIANCE> 9
 1.491142e-001 3.371764e-001 6.976298e-002 2.977951e+001 3.680466e+001 1.210095e+002 4.762525e-004 5.782502e-004 1.938003e-004
<GCONST> -9.703841e-001
<MIXTURE> 6 4.687402e-002
<MEAN> 9
 -1.153815e+001 2.361446e+000 4.393574e+000 -1.266260e+001 -5.955285e+001 3.193090e+001 5.145454e-001 -1.403030e-001 1.187075e-001
<VARIANCE> 9
 1.491142e-001 3.371764e-001 6.976298e-002 2.977951e+001 7.131974e+002 1.210095e+002 4.762525e-004 5.782502e-004 1.938003e-004
<GCONST> 1.993751e+000
<MIXTURE> 7 3.124934e-002
<MEAN> 9
 -1.236145e+001 8.433735e-001 2.831325e+000 -3.798780e+001 3.469512e+001 3.509146e+001 5.036364e-001 -1.518182e-001 2.489796e-001
<VARIANCE> 9
 4.808247e+000 3.371764e-001 1.000000e+000 2.977951e+001 1.899018e+002 1.210095e+002 4.762525e-004 5.782502e-004 1.938003e-004
<GCONST> 6.806525e+000
<MIXTURE> 8 4.687392e-002
<MEAN> 9
 -5.192773e+000 5.534136e+000 4.433733e+000 -3.418700e+001 -2.802440e+002 1.277236e+002 4.521213e-001 -2.533333e-001 3.469398e-002
<VARIANCE> 9
 2.435869e+000 3.371764e-001 2.752209e-001 2.977951e+001 7.715710e+002 1.210095e+002 4.762525e-004 5.782502e-004 9.877811e-004
<GCONST> 7.866867e+000
<MIXTURE> 9 3.962431e-002
<MEAN> 9
 -6.262042e+000 2.938957e+000 2.796340e+000 -3.016805e+000 6.854370e+000 1.644753e+000 5.081315e-001 -1.673466e-001 1.812336e-001
<VARIANCE> 9
 4.803184e-001 3.371764e-001 6.976298e-002 2.977951e+001 3.680466e+001 1.210095e+002 4.762525e-004 5.782502e-004 1.938003e-004
<GCONST> 1.993513e-001
<MIXTURE> 10 4.687274e-002
<MEAN> 9
 -9.859439e+000 5.987956e+000 1.694762e+000 -5.373985e+001 -6.357779e+001 6.876019e+001 4.578788e-001 -2.512123e-001 2.632650e-001
<VARIANCE> 9
 1.491142e-001 3.371764e-001 1.016345e+000 2.977951e+001 1.138089e+003 1.210095e+002 4.762525e-004 5.782502e-004 2.380960e-004
<GCONST> 5.345806e+000
<MIXTURE> 11 3.927401e-002
<MEAN> 9
 -8.709625e+000 4.793516e+000 3.053331e+000 7.223161e+000 6.786519e+000 -3.751639e+000 5.098563e-001 -1.568110e-001 1.949812e-001
<VARIANCE> 9
 1.491142e-001 3.371764e-001 6.976298e-002 2.977951e+001 3.680466e+001 1.210095e+002 4.762525e-004 5.782502e-004 1.938003e-004
<GCONST> -9.703841e-001
<MIXTURE> 12 4.686871e-002
<MEAN> 9
 -8.513988e+000 5.445803e+000 7.389981e-001 -2.126072e+001 5.199159e+001 5.044711e+001 4.824244e-001 -2.057577e-001 2.700684e-001
<VARIANCE> 9
 1.825348e-001 3.371764e-001 6.976298e-002 3.317790e+001 3.680466e+001 1.210095e+002 4.762525e-004 5.782502e-004 1.938003e-004
<GCONST> -6.600928e-001
<MIXTURE> 13 4.656856e-002
<MEAN> 9
 -1.070232e+001 3.400168e+000 3.101788e+000 -1.905284e+001 -1.394177e+002 6.819646e+001 4.991321e-001 -1.811435e-001 1.693538e-001
<VARIANCE> 9
 1.588898e-001 3.371764e-001 1.626454e+000 2.977951e+001 5.817086e+001 1.210095e+002 4.762525e-004 5.782502e-004 4.891306e-003
<GCONST> 5.928314e+000
<MIXTURE> 14 6.249868e-002
<MEAN> 9
 -1.894578e+000 4.433735e+000 5.316265e+000 -4.463415e+001 -4.100153e+002 9.745427e+001 4.193182e-001 -2.434091e-001 -3.010204e-002
<VARIANCE> 9
 6.528334e+000 9.767748e-001 9.294800e-001 6.348342e+001 6.058691e+002 1.210095e+002 4.762525e-004 4.014205e-003 7.120210e-003
<GCONST> 1.556143e+001
<MIXTURE> 15 3.026053e-002
<MEAN> 9
 -8.665001e+000 4.737840e+000 2.998051e+000 7.151637e+000 7.562124e+000 -3.587445e+000 5.097630e-001 -1.580858e-001 1.945255e-001
<VARIANCE> 9
 1.491142e-001 3.371764e-001 6.976298e-002 2.977951e+001 3.680466e+001 1.210095e+002 4.762525e-004 5.782502e-004 1.938003e-004
<GCONST> -9.703841e-001
<MIXTURE> 16 1.562468e-002
<MEAN> 9
 -8.108434e+000 3.012048e-001 4.457831e+000 -6.347561e+001 4.268293e-001 1.969512e+001 5.027273e-001 -1.609091e-001 2.459184e-001
<VARIANCE> 9
 1.491142e-001 3.371764e-001 6.976298e-002 2.977951e+001 3.680466e+001 1.210095e+002 4.762525e-004 5.782502e-004 1.938003e-004
<GCONST> -9.703841e-001
<MIXTURE> 17 4.719239e-002
<MEAN> 9
 -1.184890e+001 3.080199e+000 3.058820e+000 -2.253365e+001 -1.922508e+002 7.089697e+001 4.858053e-001 -1.773750e-001 9.442015e-002
<VARIANCE> 9
 1.370490e+000 8.019210e-001 1.522992e-001 2.977951e+001 9.133170e+003 1.314046e+002 4.762525e-004 5.782502e-004 1.348683e-002
<GCONST> 1.273407e+001
<MIXTURE> 18 3.124932e-002
<MEAN> 9
 -9.403615e+000 5.897591e+000 2.162650e+000 -6.274390e+001 -3.213719e+002 7.585366e+001 4.500000e-001 -2.827273e-001 1.785714e-001
<VARIANCE> 9
 3.115438e+000 3.371764e-001 6.419293e-001 2.977951e+001 5.155066e+003 1.210095e+002 4.762525e-004 5.782502e-004 3.758852e-004
<GCONST> 9.892969e+000
<MIXTURE> 19 4.687337e-002
<MEAN> 9
 -3.317269e+000 4.859402e-001 2.461844e+000 -4.514243e+001 -3.731718e+001 8.491905e+001 5.139394e-001 -1.309088e-001 2.037416e-001
<VARIANCE> 9
 1.676447e-001 3.371764e-001 6.976298e-002 7.599173e+001 3.680466e+001 4.489371e+002 4.762525e-004 5.782502e-004 1.938003e-004
<GCONST> 1.394568e+000
<MIXTURE> 20 3.124907e-002
<MEAN> 9
 6.626468e-001 4.596388e+000 7.271081e+000 -1.667685e+001 -3.179883e+002 1.185366e+002 3.390912e-001 -2.068180e-001 -1.908162e-001
<VARIANCE> 9
 2.207868e-001 3.371764e-001 1.263245e-001 2.977951e+001 3.153781e+003 1.210095e+002 9.553719e-004 5.782502e-004 4.164934e-004
<GCONST> 5.927778e+000
<MIXTURE> 21 3.107763e-002
<MEAN> 9
 -8.719519e+000 4.595917e+000 1.713550e+000 -1.698254e+000 4.644032e+001 2.325232e+001 5.009394e-001 -1.731458e-001 2.193761e-001
<VARIANCE> 9
 1.491142e-001 3.371764e-001 1.435836e-001 2.977951e+001 3.680466e+001 1.210095e+002 4.762525e-004 5.782502e-004 1.938003e-004
<GCONST> -2.485704e-001
<MIXTURE> 22 3.569492e-002
<MEAN> 9
 -8.070373e+000 4.100829e+000 2.903974e+000 5.546632e+000 1.125864e+001 -7.812393e+000 5.078320e-001 -1.634251e-001 1.898622e-001
<VARIANCE> 9
 1.558682e-001 3.371764e-001 6.976298e-002 2.977951e+001 3.680466e+001 1.210095e+002 4.762525e-004 5.782502e-004 1.938003e-004
<GCONST> -9.260879e-001
<MIXTURE> 23 3.827876e-002
<MEAN> 9
 -8.707634e+000 4.791056e+000 3.050638e+000 7.219983e+000 6.824083e+000 -3.740847e+000 5.098532e-001 -1.568773e-001 1.949548e-001
<VARIANCE> 9
 1.491142e-001 3.371764e-001 6.976298e-002 2.977951e+001 3.680466e+001 1.210095e+002 4.762525e-004 5.782502e-004 1.938003e-004
<GCONST> -9.703841e-001
<MIXTURE> 24 4.687649e-002
<MEAN> 9
 -1.003207e+001 8.874996e-001 6.060279e+000 -3.859970e+001 -1.890309e+001 4.369206e+000 5.209087e-001 -1.203029e-001 1.431981e-001
<VARIANCE> 9
 1.491142e-001 3.371764e-001 1.789508e-001 1.880031e+002 3.680466e+001 1.210095e+002 4.762525e-004 5.782502e-004 1.938003e-004
<GCONST> 1.814261e+000
<STATE> 5
<NUMMIXES> 24
<MIXTURE> 1 3.774843e-002
<MEAN> 9
 2.249873e+000 5.075285e+000 7.524127e+000 2.242332e+001 -7.245203e+001 9.527460e+001 2.277282e-001 -2.543183e-001 -2.293366e-001
<VARIANCE> 9
 5.460585e-001 3.371764e-001 1.153005e-001 2.977951e+001 4.075159e+002 1.210095e+002 4.762525e-004 5.782502e-004 1.938003e-004
<GCONST> 3.234523e+000
<MIXTURE> 2 5.592410e-002
<MEAN> 9
 -3.613112e+000 3.525180e+000 7.639303e+000 9.871401e+000 1.150540e+001 1.878389e+000 3.853153e-001 -1.059334e-001 -1.986713e-001
<VARIANCE> 9
 3.891751e-001 3.371764e-001 6.976298e-002 2.977951e+001 3.680466e+001 1.210095e+002 4.762525e-004 5.782502e-004 1.938003e-004
<GCONST> -1.106739e-002
<MIXTURE> 3 3.675120e-002
<MEAN> 9
 3.052747e+000 5.856044e+000 7.426124e+000 1.742774e+001 -5.999990e+001 -1.009051e+002 3.235157e-001 -3.218066e-001 -1.079626e-001
<VARIANCE> 9
 1.491142e-001 3.371764e-001 6.976298e-002 2.977951e+001 9.386760e+001 1.197728e+003 4.762525e-004 5.782502e-004 1.938003e-004
<GCONST> 2.258189e+000
<MIXTURE> 4 5.656861e-002
<MEAN> 9
 -5.689035e+000 3.000611e+000 8.975197e+000 -1.522301e+001 1.990494e-001 -1.409720e+002 3.178863e-001 -1.589538e-001 -2.285644e-001
<VARIANCE> 9
 3.076581e+000 3.371764e-001 2.078789e-001 2.977951e+001 3.765590e+002 9.584231e+002 4.762525e-004 7.518792e-004 1.938003e-004
<GCONST> 7.805768e+000
<MIXTURE> 5 5.678001e-002
<MEAN> 9
 3.047610e+000 5.301830e+000 7.371673e+000 2.052078e+001 8.002012e+000 5.505871e+001 1.864941e-001 -2.933711e-001 -2.266919e-001
<VARIANCE> 9
 2.108455e-001 3.371764e-001 2.419312e-001 2.977951e+001 3.680466e+001 2.970624e+002 4.762525e-004 5.782502e-004 1.938003e-004
<GCONST> 1.517653e+000
<MIXTURE> 6 3.685382e-002
<MEAN> 9
 -6.447041e+000 2.994599e+000 8.843246e+000 -6.729710e+000 -2.108657e+001 -4.943165e+001 3.447649e-001 -1.233010e-001 -2.211871e-001
<VARIANCE> 9
 1.599494e+000 5.175707e-001 8.856747e-002 2.977951e+001 6.257309e+001 1.210095e+002 4.762525e-004 7.219390e-004 2.735574e-004
<GCONST> 3.166873e+000
<MIXTURE> 7 3.775264e-002
<MEAN> 9
 -5.065587e-001 4.415477e+000 8.069459e+000 -2.976554e+000 -2.513832e+001 -2.833175e+001 2.784123e-001 -2.236308e-001 -2.209197e-001
<VARIANCE> 9
 4.107257e-001 3.371764e-001 9.189422e-002 1.360962e+002 5.750835e+003 2.029519e+004 4.762525e-004 5.782502e-004 1.938003e-004
<GCONST> 1.201165e+001
<MIXTURE> 8 3.329581e-002
<MEAN> 9
 -3.101496e+000 4.214059e+000 8.293577e+000 7.826250e+000 1.185404e+000 7.842495e+000 3.529937e-001 -1.433036e-001 -2.162600e-001
<VARIANCE> 9
 3.876464e-001 3.371764e-001 6.976298e-002 2.977951e+001 3.680466e+001 1.210095e+002 4.762525e-004 5.782502e-004 1.938003e-004
<GCONST> -1.500416e-002
<MIXTURE> 9 4.716249e-002
<MEAN> 9
 -7.896180e-001 5.544879e+000 6.448341e+000 -8.716711e+000 -5.002958e+001 8.026452e+001 3.519860e-001 -3.203997e-001 -6.062822e-002
<VARIANCE> 9
 5.182130e+000 3.371764e-001 7.088575e-001 4.334847e+001 1.685671e+002 2.000393e+002 4.762525e-004 5.782502e-004 4.250791e-004
<GCONST> 8.081678e+000
<MIXTURE> 10 2.832901e-002
<MEAN> 9
 -6.627570e+000 3.741546e+000 8.072358e+000 -2.085025e+001 -5.781063e+001 -1.808464e+002 3.760342e-001 -1.899622e-001 -1.704279e-001
<VARIANCE> 9
 3.398855e+000 3.371764e-001 6.976298e-002 2.977951e+001 3.680466e+001 1.027086e+003 4.762525e-004 5.782502e-004 2.301830e-004
<GCONST> 4.466756e+000
<MIXTURE> 11 2.925448e-002
<MEAN> 9
 -2.224419e+000 3.285925e+000 7.362375e+000 1.208642e+001 4.641889e+000 -2.402682e+000 3.511251e-001 -1.575073e-001 -2.135672e-001
<VARIANCE> 9
 1.491142e-001 3.371764e-001 1.241165e-001 2.977951e+001 3.680466e+001 1.210095e+002 4.762525e-004 5.782502e-004 1.938003e-004
<GCONST> -3.942690e-001
<MIXTURE> 12 5.622368e-002
<MEAN> 9
 2.071995e+000 5.852406e+000 6.793131e+000 7.771911e+000 -2.677741e+001 2.491890e+000 3.239616e-001 -3.323666e-001 -8.868058e-002
<VARIANCE> 9
 6.440848e-001 3.371764e-001 3.420405e-001 2.977951e+001 1.056246e+002 5.928441e+002 4.762525e-004 5.782502e-004 1.938003e-004
<GCONST> 4.725888e+000
<MIXTURE> 13 5.500637e-002
<MEAN> 9
 3.627413e+000 4.289877e+000 7.681361e+000 -1.640225e+001 7.609963e+000 -1.119088e+002 2.172504e-001 -2.725267e-001 -2.253892e-001
<VARIANCE> 9
 4.279647e-001 3.371764e-001 2.554723e-001 2.977951e+001 3.680466e+001 1.067805e+003 4.762525e-004 5.782502e-004 1.938003e-004
<GCONST> 3.559445e+000
<MIXTURE> 14 4.699425e-002
<MEAN> 9
 -2.024517e-001 5.949046e+000 6.868715e+000 2.738661e+000 -8.523382e+001 -1.657314e+002 3.433110e-001 -2.819544e-001 -1.296197e-001
<VARIANCE> 9
 1.814913e-001 3.371764e-001 2.851134e-001 9.450738e+001 5.031051e+002 7.553243e+002 4.762525e-004 5.782502e-004 1.938003e-004
<GCONST> 6.235204e+000
<MIXTURE> 15 4.241604e-002
<MEAN> 9
 -4.960814e+000 3.821643e+000 8.630376e+000 1.603437e+000 2.979793e+000 -1.471216e+001 3.378375e-001 -1.351560e-001 -2.247193e-001
<VARIANCE> 9
 3.574844e-001 3.371764e-001 6.976298e-002 2.977951e+001 3.680466e+001 1.210095e+002 4.762525e-004 6.201284e-004 1.938003e-004
<GCONST> -2.608585e-002
<MIXTURE> 16 2.830788e-002
<MEAN> 9
 -8.433975e+000 1.915547e+000 7.823315e+000 -2.924803e+001 -8.766250e+001 -1.456295e+002 3.739406e-001 -1.690877e-001 -1.846941e-001
<VARIANCE> 9
 8.913521e+000 2.060852e+000 1.438357e-001 2.977951e+001 3.680466e+001 3.466786e+002 4.762525e-004 1.766860e-003 1.938003e-004
<GCONST> 7.823546e+000
<MIXTURE> 17 1.887218e-002
<MEAN> 9
 -6.698594e+000 2.939851e+000 8.144554e+000 3.994000e+000 1.033492e+001 -1.841331e+001 3.795419e-001 -9.682418e-002 -2.076535e-001
<VARIANCE> 9
 3.930659e-001 3.371764e-001 6.976298e-002 2.977951e+001 3.680466e+001 1.210095e+002 4.762525e-004 5.782502e-004 1.938003e-004
<GCONST> -1.118660e-003
<MIXTURE> 18 4.863313e-002
<MEAN> 9
 4.404237e+000 5.046348e+000 7.111561e+000 4.377477e+000 -1.539650e+000 -9.928103e+000 1.839098e-001 -2.998301e-001 -2.177333e-001
<VARIANCE> 9
 1.491142e-001 3.371764e-001 1.610587e-001 5.673048e+001 3.680466e+001 7.373102e+002 4.762525e-004 5.782502e-004 1.938003e-004
<GCONST> 2.317912e+000
<MIXTURE> 19 4.871856e-002
<MEAN> 9
 1.690864e+000 6.108676e+000 7.553009e+000 8.338455e+000 -7.544554e+001 -9.902662e+001 3.309644e-001 -3.109571e-001 -9.857652e-002
<VARIANCE> 9
 5.057254e-001 3.371764e-001 8.313026e-002 2.977951e+001 3.509286e+002 1.782572e+003 4.762525e-004 5.782502e-004 2.026599e-004
<GCONST> 5.415805e+000
<MIXTURE> 20 3.936972e-002
<MEAN> 9
 -2.149909e+000 2.340912e+000 6.848788e+000 5.690454e+000 3.094428e+000 -1.844475e+001 3.627323e-001 -1.182772e-001 -2.058907e-001
<VARIANCE> 9
 3.227175e-001 3.371764e-001 1.996348e-001 2.977951e+001 3.680466e+001 1.210095e+002 5.288161e-004 5.782502e-004 2.679029e-004
<GCONST> 1.281557e+000
<MIXTURE> 21 7.407498e-002
<MEAN> 9
 -2.356948e+000 3.632084e+000 8.238695e+000 4.086167e+000 8.806904e-001 -3.518642e+000 3.293724e-001 -1.072143e-001 -2.392068e-001
<VARIANCE> 9
 1.491142e-001 3.371764e-001 1.269659e-001 2.977951e+001 3.680466e+001 1.210095e+002 4.762525e-004 5.782502e-004 1.938003e-004
<GCONST> -3.715677e-001
<MIXTURE> 22 2.835869e-002
<MEAN> 9
 -2.200791e+000 5.277761e+000 6.570663e+000 -1.529035e+001 -9.010836e+001 -1.790199e+002 3.530028e-001 -2.322120e-001 -1.510126e-001
<VARIANCE> 9
 7.129675e-001 3.371764e-001 7.698078e-002 5.406284e+001 8.730012e+001 6.883351e+002 4.762525e-004 5.782502e-004 1.938003e-004
<GCONST> 3.891250e+000
<MIXTURE> 23 1.887302e-002
<MEAN> 9
 3.030120e+000 5.740964e+000 7.445783e+000 -2.042683e+000 -1.428354e+002 4.478659e+001 3.409091e-001 -3.300000e-001 -6.173469e-002
<VARIANCE> 9
 3.509980e+000 3.371764e-001 6.976298e-002 2.977951e+001 4.463944e+002 1.211342e+002 4.762525e-004 5.782502e-004 2.501562e-004
<GCONST> 4.940132e+000
<MIXTURE> 24 3.773082e-002
<MEAN> 9
 -8.316231e+000 2.889104e+000 8.394878e+000 -2.032125e+001 -5.245893e+001 -8.825077e+001 3.579596e-001 -1.609171e-001 -2.010263e-001
<VARIANCE> 9
 9.730276e-001 9.370390e-001 3.459765e-001 2.977951e+001 6.562768e+001 3.896656e+002 4.762525e-004 8.366278e-004 1.938003e-004
<GCONST> 5.645864e+000
<STATE> 6
<NUMMIXES> 24
<MIXTURE> 1 6.624934e-002
<MEAN> 9
 -2.107565e+000 9.105126e-001 4.575202e+000 -3.013747e+001 4.500425e+001 -9.407957e+001 3.973110e-001 -5.646489e-002 -1.805207e-001
<VARIANCE> 9
 1.491142e-001 3.371764e-001 7.111418e-002 5.038305e+001 3.957205e+002 1.278981e+002 4.762525e-004 5.782502e-004 1.938003e-004
<GCONST> 2.005080e+000
<MIXTURE> 2 3.446675e-002
<MEAN> 9
 -7.421693e+000 -3.108442e+000 4.873492e+000 -6.173783e+001 1.310977e+002 -2.256098e+002 4.240910e-001 1.381820e-001 -6.173460e-002
<VARIANCE> 9
 2.440122e-001 4.232834e-001 6.976298e-002 2.977951e+001 5.002973e+001 1.210095e+002 4.762525e-004 5.782502e-004 1.938003e-004
<GCONST> 5.654812e-002
<MIXTURE> 3 3.446715e-002
<MEAN> 9
 -4.662650e+000 -3.674695e-001 4.626506e+000 -4.817073e+001 1.302439e+002 -1.602134e+002 4.245455e-001 2.090909e-002 -1.418367e-001
<VARIANCE> 9
 4.716215e-001 3.371764e-001 6.976298e-002 2.977951e+001 4.747540e+001 1.435614e+002 4.762525e-004 5.782502e-004 1.938003e-004
<GCONST> 6.065607e-001
<MIXTURE> 4 3.443241e-002
<MEAN> 9
 -8.132945e+000 -5.306876e+000 6.807218e+000 -8.582140e+001 3.141233e+001 -2.431413e+002 3.718168e-001 2.168057e-001 -6.123257e-002
<VARIANCE> 9
 1.678005e-001 3.371764e-001 6.976298e-002 2.977951e+001 5.356012e+001 1.210095e+002 4.762525e-004 5.782502e-004 1.938003e-004
<GCONST> -4.771395e-001
<MIXTURE> 5 3.481120e-002
<MEAN> 9
 -2.515694e+000 1.760170e+000 5.289350e+000 1.878297e-001 2.267293e+001 -4.048213e+001 3.936099e-001 -8.879478e-002 -1.912686e-001
<VARIANCE> 9
 1.491142e-001 3.371764e-001 2.192577e-001 2.977951e+001 5.054611e+001 1.210095e+002 4.762525e-004 5.782502e-004 1.938003e-004
<GCONST> 4.920225e-001
<MIXTURE> 6 3.446718e-002
<MEAN> 9
 -6.000000e+000 -8.042169e+000 6.313253e+000 -1.003354e+002 4.362805e+001 -2.251829e+002 2.504545e-001 3.204545e-001 -1.020408e-003
<VARIANCE> 9
 2.939468e-001 3.371764e-001 1.220787e-001 2.977951e+001 4.994135e+002 1.210095e+002 4.762525e-004 5.782502e-004 1.938003e-004
<GCONST> 2.875674e+000
<MIXTURE> 7 3.446109e-002
<MEAN> 9
 -3.276995e+000 1.108449e+000 6.289131e+000 -6.871919e+001 4.643269e+001 -1.435358e+002 3.831815e-001 -6.136449e-002 -2.000000e-001
<VARIANCE> 9
 3.628901e-001 3.371764e-001 6.976298e-002 2.977951e+001 3.680466e+001 1.210095e+002 4.762525e-004 5.782502e-004 1.938003e-004
<GCONST> -8.099461e-002
<MIXTURE> 8 5.162746e-002
<MEAN> 9
 -6.594543e+000 -2.432787e+000 6.020884e+000 -8.446277e+001 9.128270e+001 -2.268636e+002 3.890657e-001 1.245363e-001 -1.265549e-001
<VARIANCE> 9
 1.516048e-001 3.599318e-001 2.303471e-001 2.977951e+001 4.845415e+001 1.210095e+002 4.762525e-004 5.782502e-004 2.963485e-004
<GCONST> 1.005673e+000
<MIXTURE> 9 3.487442e-002
<MEAN> 9
 -9.635593e-001 1.594562e+000 5.833838e+000 1.931380e+000 2.278629e+001 -2.888341e+001 3.340500e-001 -1.018025e-001 -2.326417e-001
<VARIANCE> 9
 1.491142e-001 3.371764e-001 2.712906e-001 2.977951e+001 5.803567e+001 1.210095e+002 4.762525e-004 5.782502e-004 1.938003e-004
<GCONST> 8.431349e-001
<MIXTURE> 10 5.449681e-002
<MEAN> 9
 -2.373761e+000 5.342990e-001 4.669266e+000 -4.879516e+001 5.811409e+001 -1.252835e+002 4.038273e-001 -3.361600e-002 -1.752525e-001
<VARIANCE> 9
 1.491142e-001 3.371764e-001 6.976298e-002 8.937097e+001 5.341844e+002 1.210095e+002 4.762525e-004 5.782502e-004 1.938003e-004
<GCONST> 2.803706e+000
<MIXTURE> 11 3.443746e-002
<MEAN> 9
 -1.331431e+000 1.566246e+000 5.162748e+000 -4.610372e+001 1.683863e+001 -1.058617e+002 3.631854e-001 -1.022609e-001 -2.091811e-001
<VARIANCE> 9
 1.491142e-001 3.371764e-001 6.976298e-002 5.625837e+001 1.258879e+002 1.210095e+002 4.762525e-004 5.782502e-004 1.938003e-004
<GCONST> 8.955183e-001
<MIXTURE> 12 1.723359e-002
<MEAN> 9
 -4.807229e+000 -1.108434e+000 7.132530e+000 -9.682927e+001 8.317073e+001 -2.095732e+002 3.909091e-001 8.727273e-002 -1.561224e-001
<VARIANCE> 9
 1.491142e-001 3.371764e-001 6.976298e-002 2.977951e+001 3.680466e+001 1.210095e+002 4.762525e-004 5.782502e-004 1.938003e-004
<GCONST> -9.703841e-001
<MIXTURE> 13 3.446403e-002
<MEAN> 9
 -3.608387e+000 5.421959e-002 4.734922e+000 -6.451199e+001 6.798779e+001 -1.748160e+002 4.181820e-001 2.999967e-002 -1.489798e-001
<VARIANCE> 9
 2.621934e-001 3.371764e-001 6.976298e-002 2.977951e+001 3.680466e+001 1.413779e+002 4.762525e-004 5.782502e-004 1.938003e-004
<GCONST> -2.504454e-001
<MIXTURE> 14 6.846576e-002
<MEAN> 9
 -2.154938e+000 1.322313e+000 4.332182e+000 -3.740197e+000 7.099355e+001 -6.349421e+001 3.707700e-001 -8.670800e-002 -2.062592e-001
<VARIANCE> 9
 3.805234e-001 3.371764e-001 9.451120e-002 4.790935e+001 7.130176e+002 1.223258e+002 4.762525e-004 5.782502e-004 1.938003e-004
<GCONST> 3.720256e+000
<MIXTURE> 15 3.446716e-002
<MEAN> 9
 -9.524096e+000 -6.873494e+000 4.825301e+000 -6.320122e+001 1.170122e+002 -2.389329e+002 3.663636e-001 2.568182e-001 4.030613e-002
<VARIANCE> 9
 1.491142e-001 3.371764e-001 6.976298e-002 2.977951e+001 3.680466e+001 1.210095e+002 4.762525e-004 5.782502e-004 1.938003e-004
<GCONST> -9.703841e-001
<MIXTURE> 16 5.177400e-002
<MEAN> 9
 -6.742595e+000 -3.657846e+000 6.063392e+000 -9.164494e+001 7.715195e+001 -2.396224e+002 3.736834e-001 1.850749e-001 -9.661681e-002
<VARIANCE> 9
 1.011109e+000 3.676253e-001 6.976298e-002 1.036961e+002 4.534374e+001 1.210095e+002 4.762525e-004 5.782502e-004 1.938003e-004
<GCONST> 2.486453e+000
<MIXTURE> 17 5.121940e-002
<MEAN> 9
 -8.572469e+000 -8.317982e+000 5.854864e+000 -9.026270e+001 6.525131e+001 -2.481930e+002 2.864487e-001 3.103912e-001 -8.199972e-004
<VARIANCE> 9
 1.565354e-001 5.367966e-001 6.976298e-002 2.977951e+001 3.680466e+001 1.210095e+002 4.762525e-004 8.749389e-004 2.359842e-004
<GCONST> 1.542797e-001
<MIXTURE> 18 6.944895e-002
<MEAN> 9
 -8.988811e+000 -6.356131e+000 6.723340e+000 -9.281610e+001 6.329508e+001 -2.412062e+002 3.237924e-001 2.602668e-001 -4.677264e-002
<VARIANCE> 9
 8.402327e-001 3.371764e-001 2.037402e-001 2.977951e+001 1.027137e+003 1.210095e+002 4.762525e-004 6.523720e-004 2.991997e-004
<GCONST> 5.714118e+000
<MIXTURE> 19 3.413773e-002
<MEAN> 9
 -1.316533e+000 1.614850e+000 5.018027e+000 -1.901371e+001 -2.721138e+000 -6.918393e+001 3.582291e-001 -1.376049e-001 -2.168095e-001
<VARIANCE> 9
 1.491142e-001 3.371764e-001 6.976298e-002 4.338324e+001 3.680466e+001 1.210095e+002 4.762525e-004 5.782502e-004 1.938003e-004
<GCONST> -5.941329e-001
<MIXTURE> 20 3.488704e-002
<MEAN> 9
 -1.340643e+000 1.585687e+000 5.353597e+000 -1.472999e+000 6.254974e+000 -3.900829e+001 3.518420e-001 -1.463596e-001 -2.077561e-001
<VARIANCE> 9
 1.491142e-001 3.371764e-001 6.976298e-002 2.977951e+001 3.680466e+001 1.210095e+002 4.762525e-004 5.782502e-004 1.938003e-004
<GCONST> -9.703841e-001
<MIXTURE> 21 3.447826e-002
<MEAN> 9
 -3.801214e+000 6.264830e-001 6.042338e+000 -8.274358e+001 3.125614e+001 -1.770709e+002 3.850003e-001 -3.639786e-003 -1.872465e-001
<VARIANCE> 9
 1.491142e-001 3.371764e-001 6.976298e-002 2.977951e+001 3.680466e+001 1.210095e+002 4.762525e-004 8.467259e-004 1.938003e-004
<GCONST> -5.890136e-001
<MIXTURE> 22 3.446717e-002
<MEAN> 9
 -9.734940e+000 -5.301205e+000 4.283133e+000 -6.265244e+001 1.454268e+002 -2.405183e+002 4.045455e-001 2.018182e-001 -1.326531e-002
<VARIANCE> 9
 1.491142e-001 3.485265e-001 6.976298e-002 2.977951e+001 1.472375e+002 1.210095e+002 4.762525e-004 5.782502e-004 1.938003e-004
<GCONST> 4.491453e-001
<MIXTURE> 23 3.446689e-002
<MEAN> 9
 -5.801207e+000 -1.518074e+000 4.993978e+000 -5.521343e+001 1.193597e+002 -1.994818e+002 4.272727e-001 7.590908e-002 -1.076530e-001
<VARIANCE> 9
 1.491142e-001 3.371764e-001 6.976298e-002 2.977951e+001 3.680466e+001 1.210095e+002 4.762525e-004 5.782502e-004 1.938003e-004
<GCONST> -9.703841e-001
<MIXTURE> 24 5.169874e-002
<MEAN> 9
 -4.317314e+000 -9.638880e-001 5.811104e+000 -8.268076e+001 5.508225e+001 -2.068290e+002 4.048508e-001 6.697052e-002 -1.476157e-001
<VARIANCE> 9
 1.955856e-001 7.096332e-001 4.290062e-001 8.589642e+001 3.680466e+001 1.210095e+002 4.762525e-004 5.782502e-004 6.151574e-004
<GCONST> 4.075783e+000
<STATE> 7
<NUMMIXES> 24
<MIXTURE> 1 5.882450e-002
<MEAN> 9
 -5.554217e+000 -1.028916e+001 3.767068e+000 -2.439023e+000 1.896341e+002 -2.835366e+001 -3.090909e-002 3.630303e-001 1.738095e-001
<VARIANCE> 9
 3.903034e+000 5.877004e-001 1.155787e-001 1.045831e+002 5.394436e+002 1.210095e+002 4.762525e-004 5.782502e-004 1.938003e-004
<GCONST> 7.295947e+000
<MIXTURE> 2 5.882435e-002
<MEAN> 9
 -8.510040e+000 -1.069076e+001 3.465864e+000 -2.835368e+001 7.676823e+001 -2.110163e+002 1.875758e-001 3.636364e-001 1.459184e-001
<VARIANCE> 9
 1.491142e-001 3.371764e-001 6.976298e-002 3.633988e+001 2.616595e+002 1.210095e+002 5.357193e-004 5.782502e-004 1.938003e-004
<GCONST> 1.307794e+000
<MIXTURE> 3 3.921328e-002
<MEAN> 9
 -7.517945e+000 -1.163862e+001 4.680705e+000 -7.905507e+001 8.600626e+001 -2.020107e+002 1.086333e-001 3.754545e-001 9.898119e-002
<VARIANCE> 9
 2.645521e+000 6.911013e-001 6.976298e-002 2.977951e+001 3.680466e+001 3.736206e+002 1.492768e-003 5.782502e-004 4.164930e-004
<GCONST> 5.658061e+000
<MIXTURE> 4 3.920289e-002
<MEAN> 9
 -6.060442e+000 -1.016869e+001 1.981593e+000 -2.210283e+001 4.698281e+001 -3.920269e+001 1.500313e-002 3.704570e-001 1.846956e-001
<VARIANCE> 9
 1.491142e-001 3.371764e-001 6.976298e-002 2.977951e+001 1.187478e+002 1.210095e+002 4.762525e-004 5.782502e-004 1.938003e-004
<GCONST> 2.009916e-001
<MIXTURE> 5 3.921629e-002
<MEAN> 9
 -6.373495e+000 -1.279518e+001 2.656626e+000 -7.658536e+001 1.927744e+002 -2.415549e+002 1.177272e-001 3.781818e-001 1.066327e-001
<VARIANCE> 9
 2.939468e-001 3.371764e-001 1.533241e-001 5.265093e+001 2.821988e+002 1.210095e+002 4.762525e-004 5.782502e-004 1.938003e-004
<GCONST> 3.102603e+000
<MIXTURE> 6 3.921566e-002
<MEAN> 9
 -5.174686e+000 -9.897588e+000 1.831333e+000 -5.612802e+001 5.798765e+001 -2.588408e+001 -6.409097e-002 3.477272e-001 1.867346e-001
<VARIANCE> 9
 5.670274e-001 3.371764e-001 1.881260e-001 2.977951e+001 8.034278e+001 1.210095e+002 4.762525e-004 5.782502e-004 1.938003e-004
<GCONST> 2.137996e+000
<MIXTURE> 7 3.943698e-002
<MEAN> 9
 -5.002919e+000 -1.126435e+001 1.561100e+000 -5.964524e+001 1.193299e+002 -6.666103e+001 -2.072486e-002 3.608424e-001 1.627406e-001
<VARIANCE> 9
 1.491142e-001 3.371764e-001 2.022384e+000 5.552938e+001 1.055836e+002 1.210095e+002 7.645186e-004 5.782502e-004 1.938003e-004
<GCONST> 4.546811e+000
<MIXTURE> 8 3.921634e-002
<MEAN> 9
 -8.234940e+000 -1.321084e+001 1.500000e+000 -5.201220e+001 1.859756e+002 -2.184756e+002 5.181818e-002 3.677273e-001 1.280612e-001
<VARIANCE> 9
 1.491142e-001 3.371764e-001 6.976298e-002 2.977951e+001 3.878978e+002 1.210095e+002 4.762525e-004 5.782502e-004 1.938003e-004
<GCONST> 1.384734e+000
<MIXTURE> 9 1.960815e-002
<MEAN> 9
 -3.289157e+000 -1.012048e+001 2.698795e+000 -2.969512e+001 1.533537e+002 -3.841463e+001 -2.272727e-002 3.581818e-001 1.785714e-001
<VARIANCE> 9
 1.491142e-001 3.371764e-001 6.976298e-002 2.977951e+001 3.680466e+001 1.210095e+002 4.762525e-004 5.782502e-004 1.938003e-004
<GCONST> -9.703841e-001
<MIXTURE> 10 5.882316e-002
<MEAN> 9
 -6.678720e+000 -1.195984e+001 1.333339e+000 -5.617890e+001 9.040646e+001 -1.351018e+002 3.032681e-004 3.733332e-001 1.520407e-001
<VARIANCE> 9
 1.491142e-001 3.371764e-001 1.245700e+000 5.614100e+001 4.982765e+001 1.840107e+002 6.227746e-004 5.782502e-004 1.938003e-004
<GCONST> 3.536319e+000
<MIXTURE> 11 5.884629e-002
<MEAN> 9
 -7.598049e+000 -1.001623e+001 5.188445e+000 -9.016225e+001 1.154786e+002 -2.320347e+002 2.072681e-001 3.575726e-001 4.558156e-002
<VARIANCE> 9
 2.111035e+000 3.371764e-001 9.129824e-002 3.539837e+001 1.058768e+003 1.210095e+002 4.762525e-004 5.782502e-004 1.938003e-004
<GCONST> 5.480948e+000
<MIXTURE> 12 1.960817e-002
<MEAN> 9
 -9.204820e+000 -8.421687e+000 4.156627e+000 -4.036585e+001 1.909146e+002 -2.344512e+002 3.290909e-001 3.054546e-001 8.673470e-002
<VARIANCE> 9
 1.491142e-001 3.371764e-001 6.976298e-002 2.977951e+001 3.680466e+001 1.210095e+002 4.762525e-004 5.782502e-004 1.938003e-004
<GCONST> -9.703841e-001
<MIXTURE> 13 3.921612e-002
<MEAN> 9
 -9.216866e+000 -1.123494e+001 2.343375e+000 -1.125001e+001 7.307935e+001 -1.789940e+002 1.100001e-001 3.727273e-001 1.658163e-001
<VARIANCE> 9
 1.491142e-001 3.371764e-001 6.976298e-002 2.977951e+001 2.446172e+002 1.210095e+002 4.762525e-004 5.782502e-004 1.938003e-004
<GCONST> 9.236860e-001
<MIXTURE> 14 3.919483e-002
<MEAN> 9
 -4.397587e+000 -1.000610e+001 2.150680e+000 -5.375088e+001 1.504841e+002 -3.740966e+001 1.000092e-002 3.804537e-001 1.739784e-001
<VARIANCE> 9
 1.491142e-001 3.371764e-001 9.438962e-002 2.977951e+001 2.141583e+002 1.210095e+002 4.762525e-004 5.782502e-004 1.938003e-004
<GCONST> 1.093036e+000
<MIXTURE> 15 3.919919e-002
<MEAN> 9
 -5.987905e+000 -1.098816e+001 3.849274e+000 -9.063991e+001 1.138195e+002 -2.408235e+002 1.781735e-001 3.550042e-001 6.939445e-002
<VARIANCE> 9
 1.491142e-001 3.371764e-001 8.016402e-002 2.977951e+001 3.795368e+002 1.210095e+002 4.762525e-004 5.782502e-004 2.342774e-004
<GCONST> 1.691591e+000
<MIXTURE> 16 3.921627e-002
<MEAN> 9
 -8.012049e+000 -1.233735e+001 2.427713e+000 -5.740855e+001 1.134451e+002 -1.713414e+002 3.545456e-002 3.813636e-001 1.418367e-001
<VARIANCE> 9
 1.491142e-001 3.371764e-001 1.615655e+000 8.875020e+001 3.680466e+001 1.608565e+002 4.762525e-004 5.782502e-004 1.938003e-004
<GCONST> 3.548659e+000
<MIXTURE> 17 5.882450e-002
<MEAN> 9
 -1.086747e+001 -9.124497e+000 2.646586e+000 -2.563008e+001 9.713415e+001 -2.299187e+002 2.784849e-001 3.269697e-001 1.136054e-001
<VARIANCE> 9
 5.113469e-001 3.371764e-001 6.976298e-002 2.977951e+001 1.682689e+003 1.210095e+002 5.202940e-004 5.782502e-004 1.938003e-004
<GCONST> 4.172921e+000
<MIXTURE> 18 4.007219e-002
<MEAN> 9
 -5.012318e+000 -9.437575e+000 1.460028e+000 -4.134172e+001 1.858902e+002 -3.534769e+001 2.810154e-004 3.708848e-001 1.770270e-001
<VARIANCE> 9
 1.491142e-001 3.371764e-001 6.976298e-002 2.977951e+001 3.680466e+001 1.210095e+002 4.762525e-004 5.782502e-004 1.938003e-004
<GCONST> -9.703841e-001
<MIXTURE> 19 3.921481e-002
<MEAN> 9
 -8.801212e+000 -1.112651e+001 1.963850e+000 -1.542676e+001 1.006560e+000 -1.385064e+002 7.181848e-002 3.654546e-001 1.714284e-001
<VARIANCE> 9
 1.491142e-001 3.371764e-001 6.976298e-002 2.977951e+001 2.370473e+002 1.293213e+002 4.762525e-004 5.782502e-004 1.938003e-004
<GCONST> 9.586821e-001
<MIXTURE> 20 3.921632e-002
<MEAN> 9
 -6.819277e+000 -1.026506e+001 6.024095e-001 -5.304878e+001 1.136281e+002 -4.826220e+001 -5.318182e-002 3.554546e-001 1.714286e-001
<VARIANCE> 9
 1.491142e-001 3.371764e-001 6.976298e-002 2.977951e+001 5.021426e+002 1.210095e+002 4.762525e-004 5.782502e-004 1.938003e-004
<GCONST> 1.642875e+000
<MIXTURE> 21 3.921633e-002
<MEAN> 9
 -6.066265e+000 -1.150602e+001 4.518072e+000 -8.118903e+001 3.518293e+001 -2.023171e+002 1.168182e-001 3.704545e-001 9.336735e-002
<VARIANCE> 9
 4.000945e-001 3.371764e-001 6.976298e-002 2.977951e+001 3.680466e+001 1.210095e+002 4.762525e-004 5.782502e-004 1.938003e-004
<GCONST> 1.660442e-002
<MIXTURE> 22 3.900130e-002
<MEAN> 9
 -5.402824e+000 -1.144132e+001 1.941087e+000 -6.296377e+001 9.281371e+001 -9.253307e+001 -5.093781e-003 3.637217e-001 1.555886e-001
<VARIANCE> 9
 1.491142e-001 3.371764e-001 9.297337e-001 7.264968e+001 8.495053e+001 1.210095e+002 1.067304e-003 5.782502e-004 1.938003e-004
<GCONST> 4.154626e+000
<MIXTURE> 23 3.921655e-002
<MEAN> 9
 -6.843446e+000 -1.084337e+001 2.331318e+000 -2.137182e+001 -1.920881e+000 -8.490978e+001 4.318236e-002 3.868175e-001 1.806124e-001
<VARIANCE> 9
 3.486184e-001 3.371764e-001 6.976298e-002 2.977951e+001 1.647795e+002 1.792209e+002 4.762525e-004 5.782502e-004 1.938003e-004
<GCONST> 1.770616e+000
<MIXTURE> 24 3.837539e-002
<MEAN> 9
 -4.980739e+000 -9.435997e+000 8.831789e-001 -3.081413e+001 1.700733e+002 -3.859288e+001 -1.143895e-002 3.723332e-001 1.807056e-001
<VARIANCE> 9
 1.491142e-001 3.371764e-001 1.583434e-001 2.977951e+001 3.680466e+001 1.210095e+002 4.762525e-004 5.782502e-004 1.938003e-004
<GCONST> -1.507196e-001
<TRANSP> 8
 0.000000e+000 1.000000e+000 0.000000e+000 0.000000e+000 0.000000e+000 0.000000e+000 0.000000e+000 0.000000e+000
 0.000000e+000 9.231111e-001 7.688889e-002 0.000000e+000 0.000000e+000 0.000000e+000 0.000000e+000 0.000000e+000
 0.000000e+000 0.000000e+000 9.473683e-001 5.263174e-002 0.000000e+000 0.000000e+000 0.000000e+000 0.000000e+000
 0.000000e+000 0.000000e+000 0.000000e+000 9.531262e-001 4.687378e-002 0.000000e+000 0.000000e+000 0.000000e+000
 0.000000e+000 0.000000e+000 0.000000e+000 0.000000e+000 9.716906e-001 2.830939e-002 0.000000e+000 0.000000e+000
 0.000000e+000 0.000000e+000 0.000000e+000 0.000000e+000 0.000000e+000 9.482995e-001 5.170051e-002 0.000000e+000
 0.000000e+000 0.000000e+000 0.000000e+000 0.000000e+000 0.000000e+000 0.000000e+000 9.411757e-001 5.882429e-002
 0.000000e+000 0.000000e+000 0.000000e+000 0.000000e+000 0.000000e+000 0.000000e+000 0.000000e+000 0.000000e+000
<ENDHMM>
~h "GM"
<BEGINHMM>
<NUMSTATES> 8
<STATE> 2
<NUMMIXES> 24
<MIXTURE> 1 4.166604e-002
<MEAN> 9
 -1.164659e+001 -9.493976e+000 -3.052209e-001 6.910567e+000 7.067073e+001 3.378658e+002 3.224243e-001 3.160606e-001 2.132653e-001
<VARIANCE> 9
 1.491142e-001 1.919098e+000 6.976298e-002 1.529480e+002 3.680466e+001 1.210095e+002 1.411754e-003 5.782502e-004 1.938003e-004
<GCONST> 3.491540e+000
<MIXTURE> 2 4.166604e-002
<MEAN> 9
 -6.775101e+000 -1.287149e+001 3.518072e+000 1.587398e+001 -1.302642e+002 1.815041e+002 8.151516e-002 3.790909e-001 2.214286e-001
<VARIANCE> 9
 6.973762e-001 3.371764e-001 3.298979e-001 6.790189e+001 1.096214e+003 7.858278e+002 9.169881e-004 5.782502e-004 1.938003e-004
<GCONST> 8.870158e+000
<MIXTURE> 3 2.792012e-002
<MEAN> 9
 -9.034393e+000 -8.773458e+000 -9.087210e-001 -3.380951e+001 -4.392837e+001 1.593029e+002 2.071381e-001 3.654372e-001 1.938367e-001
<VARIANCE> 9
 1.491142e-001 3.371764e-001 6.976298e-002 2.977951e+001 8.613910e+001 1.210095e+002 4.762525e-004 5.782502e-004 1.938003e-004
<GCONST> -1.200457e-001
<MIXTURE> 4 4.257341e-002
<MEAN> 9
 -9.971067e+000 -6.315058e+000 -2.931051e+000 -1.442631e+001 2.799924e+001 2.518316e+002 2.594163e-001 3.409074e-001 2.016796e-001
<VARIANCE> 9
 1.491142e-001 8.002370e-001 7.845772e-002 2.977951e+001 3.680466e+001 1.210095e+002 9.822252e-004 5.782502e-004 1.938003e-004
<GCONST> 7.352476e-001
<MIXTURE> 5 1.388868e-002
<MEAN> 9
 -9.433735e+000 -5.939759e+000 -8.795181e-001 -1.841463e+001 3.957317e+001 3.425610e+002 3.927273e-001 2.581818e-001 2.306122e-001
<VARIANCE> 9
 1.491142e-001 3.371764e-001 6.976298e-002 2.977951e+001 3.680466e+001 1.210095e+002 4.762525e-004 5.782502e-004 1.938003e-004
<GCONST> -9.703841e-001
<MIXTURE> 6 4.166546e-002
<MEAN> 9
 -9.795177e+000 -9.951808e+000 6.024133e-001 -3.048563e-001 -1.800816e+001 1.842479e+002 1.645453e-001 3.703030e-001 2.122449e-001
<VARIANCE> 9
 8.376625e-001 3.371764e-001 4.467984e-001 2.977951e+001 3.680466e+001 2.364812e+002 6.881509e-004 5.782502e-004 1.938003e-004
<GCONST> 3.650584e+000
<MIXTURE> 7 2.783373e-002
<MEAN> 9
 -1.051657e+001 -6.851168e+000 -1.114186e+000 -5.684719e+001 -7.624038e+001 1.775788e+002 3.325864e-001 3.100528e-001 2.005032e-001
<VARIANCE> 9
 1.993721e-001 3.371764e-001 6.976298e-002 2.977951e+001 3.680466e+001 1.210095e+002 4.762525e-004 5.782502e-004 1.938003e-004
<GCONST> -6.799254e-001
<MIXTURE> 8 2.781006e-002
<MEAN> 9
 -8.214783e+000 -1.193868e+001 8.497024e-001 -7.801363e+000 4.175351e+001 1.110180e+002 3.906202e-002 3.736246e-001 1.851951e-001
<VARIANCE> 9
 3.957357e-001 3.371764e-001 6.976298e-002 2.977951e+001 3.680466e+001 2.027942e+002 4.762525e-004 5.782502e-004 1.938003e-004
<GCONST> 5.219717e-001
<MIXTURE> 9 8.336161e-002
<MEAN> 9
 -8.385741e+000 -6.690041e+000 -1.168952e-001 1.064114e+001 6.982280e+001 1.853489e+002 2.683768e-001 3.125539e-001 9.099561e-002
<VARIANCE> 9
 1.491142e-001 5.122937e-001 1.673849e-001 3.393303e+002 3.680466e+001 1.210095e+002 1.844657e-003 5.782502e-004 1.938003e-004
<GCONST> 4.110353e+000
<MIXTURE> 10 6.847065e-002
<MEAN> 9
 -9.547270e+000 -4.634278e+000 -2.191697e+000 -3.640101e+001 3.707014e+001 1.998117e+002 3.637077e-001 2.659254e-001 1.584680e-001
<VARIANCE> 9
 1.005175e+000 3.371764e-001 1.907198e+000 4.664699e+001 3.874061e+002 1.948634e+003 4.762525e-004 5.782502e-004 2.065291e-003
<GCONST> 1.219396e+001
<MIXTURE> 11 2.777651e-002
<MEAN> 9
 -7.548188e+000 -1.045783e+001 1.734945e+000 -1.155480e+001 -8.798737e+001 1.390551e+002 1.040912e-001 3.840910e-001 2.173471e-001
<VARIANCE> 9
 1.491142e-001 3.371764e-001 6.976298e-002 2.977951e+001 3.665824e+002 1.210095e+002 4.762525e-004 5.782502e-004 1.938003e-004
<GCONST> 1.328216e+000
<MIXTURE> 12 2.777695e-002
<MEAN> 9
 -1.001205e+001 -4.674699e+000 9.036148e-002 -7.429877e+001 -1.083537e+002 1.827744e+002 4.150000e-001 2.354545e-001 1.806122e-001
<VARIANCE> 9
 1.491142e-001 3.371764e-001 2.041298e-001 2.977951e+001 5.533911e+001 1.210095e+002 4.762525e-004 5.782502e-004 1.938003e-004
<GCONST> 5.111227e-001
<MIXTURE> 13 4.188292e-002
<MEAN> 9
 -7.241446e+000 -9.748679e+000 4.741350e-001 -8.097106e+000 -7.020873e+001 5.755262e+001 3.895616e-002 3.844616e-001 2.084303e-001
<VARIANCE> 9
 1.491142e-001 3.371764e-001 6.976298e-002 2.977951e+001 4.268413e+001 1.929256e+002 4.762525e-004 5.782502e-004 1.938003e-004
<GCONST> -3.557463e-001
<MIXTURE> 14 5.555364e-002
<MEAN> 9
 -1.019579e+001 -5.753025e+000 -1.120477e+000 -4.999988e+001 -1.038125e+001 2.450000e+002 3.656814e-001 2.795458e-001 2.313775e-001
<VARIANCE> 9
 2.850497e-001 6.695753e-001 9.776264e-002 6.250321e+001 8.412735e+001 1.210095e+002 1.087341e-003 5.782502e-004 1.938003e-004
<GCONST> 3.094691e+000
<MIXTURE> 15 1.250408e-001
<MEAN> 9
 -9.286264e+000 -1.028633e+001 1.671090e+000 6.807080e+001 1.064781e+002 1.907315e+002 1.347232e-001 3.635412e-001 1.421777e-001
<VARIANCE> 9
 8.954653e+000 2.337684e+000 1.192075e+000 4.426109e+002 1.710992e+003 3.276759e+003 2.949127e-003 5.782502e-004 2.584577e-003
<GCONST> 2.215011e+001
<MIXTURE> 16 4.159538e-002
<MEAN> 9
 -9.686679e+000 -7.851515e+000 -1.008019e+000 -4.664263e+001 -8.013619e+001 1.686969e+002 2.672845e-001 3.427298e-001 1.955754e-001
<VARIANCE> 9
 1.491142e-001 3.371764e-001 6.976298e-002 2.977951e+001 3.680466e+001 1.210095e+002 4.762525e-004 5.782502e-004 1.938003e-004
<GCONST> -9.703841e-001
<MIXTURE> 17 4.149367e-002
<MEAN> 9
 -8.191720e+000 -9.546630e+000 -2.802480e-001 -2.212386e+001 -1.402816e+001 1.483623e+002 1.514537e-001 3.675852e-001 1.829821e-001
<VARIANCE> 9
 1.491142e-001 3.371764e-001 1.116939e-001 2.977951e+001 3.680466e+001 1.210095e+002 4.762525e-004 5.782502e-004 1.938003e-004
<GCONST> -4.997263e-001
<MIXTURE> 18 4.166613e-002
<MEAN> 9
 -1.139357e+001 -8.698791e+000 -5.100554e-001 -2.087394e+001 5.488118e+000 2.335367e+002 2.539386e-001 3.442427e-001 2.170066e-001
<VARIANCE> 9
 1.491142e-001 5.174345e-001 8.346143e-002 3.459556e+001 4.328426e+001 1.210095e+002 7.330097e-004 5.782502e-004 1.938003e-004
<GCONST> 3.804560e-001
<MIXTURE> 19 4.170796e-002
<MEAN> 9
 -7.349272e+000 -9.991947e+000 1.889725e-001 -6.594088e+000 4.852365e+000 1.245361e+002 8.973238e-002 3.724430e-001 1.728035e-001
<VARIANCE> 9
 1.491142e-001 3.371764e-001 6.976298e-002 2.977951e+001 8.734258e+001 1.210095e+002 4.762525e-004 5.782502e-004 1.938003e-004
<GCONST> -1.061716e-001
<MIXTURE> 20 4.166538e-002
<MEAN> 9
 -1.013252e+001 -9.759053e+000 -1.534139e+000 -1.595529e+001 2.420734e+001 2.241055e+002 1.563631e-001 3.663637e-001 1.925169e-001
<VARIANCE> 9
 6.447999e-001 8.989174e-001 6.976298e-002 2.977951e+001 3.680466e+001 1.384123e+002 7.691371e-004 5.782502e-004 1.938003e-004
<GCONST> 2.088115e+000
<MIXTURE> 21 2.754231e-002
<MEAN> 9
 -7.908501e+000 -1.009695e+001 6.093957e-001 -1.298946e+001 -8.241737e+001 1.010920e+002 7.093323e-002 3.810085e-001 2.051877e-001
<VARIANCE> 9
 1.491142e-001 3.371764e-001 6.976298e-002 2.977951e+001 1.341757e+002 1.210095e+002 4.762525e-004 5.782502e-004 1.938003e-004
<GCONST> 3.231421e-001
<MIXTURE> 22 2.777734e-002
<MEAN> 9
 -1.037349e+001 -1.198193e+001 2.530119e-001 -8.262196e+000 3.618901e+001 1.701829e+002 7.863637e-002 3.709091e-001 1.836735e-001
<VARIANCE> 9
 1.491142e-001 3.371764e-001 6.976298e-002 2.977951e+001 2.351734e+002 1.949770e+002 4.762525e-004 5.782502e-004 1.938003e-004
<GCONST> 1.361327e+000
<MIXTURE> 23 2.777664e-002
<MEAN> 9
 -1.003013e+001 -5.572292e+000 -1.662651e+000 -6.783533e+001 -1.072561e+002 1.828353e+002 3.722727e-001 2.772729e-001 1.943878e-001
<VARIANCE> 9
 3.138703e-001 3.371764e-001 6.976298e-002 2.977951e+001 3.680466e+001 1.210095e+002 4.762525e-004 5.782502e-004 1.938003e-004
<GCONST> -2.261171e-001
<MIXTURE> 24 1.388868e-002
<MEAN> 9
 -9.746988e+000 -3.385542e+000 -4.891566e+000 -5.219512e+001 -2.579268e+001 2.495732e+002 3.900000e-001 2.390909e-001 2.193878e-001
<VARIANCE> 9
 1.491142e-001 3.371764e-001 6.976298e-002 2.977951e+001 3.680466e+001 1.210095e+002 4.762525e-004 5.782502e-004 1.938003e-004
<GCONST> -9.703841e-001
<STATE> 3
<NUMMIXES> 24
<MIXTURE> 1 8.974238e-002
<MEAN> 9
 -8.848548e+000 -6.011381e-002 -2.977668e+000 -9.953094e+001 7.978114e+001 8.605205e+001 4.567536e-001 1.154518e-001 2.711410e-001
<VARIANCE> 9
 8.531563e-001 1.333428e+000 1.285354e-001 1.940346e+002 8.700214e+002 4.019924e+002 4.762525e-004 5.782502e-004 1.660158e-003
<GCONST> 1.114537e+001
<MIXTURE> 2 3.846239e-002
<MEAN> 9
 -7.329317e+000 -3.654619e+000 -5.261046e-001 -4.583333e+001 -1.890243e+000 3.065651e+002 4.587879e-001 1.733333e-001 2.333333e-001
<VARIANCE> 9
 1.491142e-001 4.202191e-001 1.519653e-001 1.076501e+002 3.680466e+001 4.108081e+002 4.817266e-004 8.844811e-004 1.938003e-004
<GCONST> 2.972079e+000
<MIXTURE> 3 2.566628e-002
<MEAN> 9
 -6.753613e+000 2.482110e+000 -2.704779e+000 -1.440855e+002 -3.318963e+000 1.201516e+002 5.159122e-001 -2.589674e-002 2.168431e-001
<VARIANCE> 9
 1.491142e-001 3.371764e-001 6.976298e-002 2.977951e+001 6.164257e+001 1.210095e+002 4.762525e-004 5.782502e-004 1.938003e-004
<GCONST> -4.546556e-001
<MIXTURE> 4 3.846195e-002
<MEAN> 9
 -9.228916e+000 -2.895583e+000 -1.092370e+000 -8.136179e+001 -1.317074e+001 2.264228e+002 4.527272e-001 1.833334e-001 2.574830e-001
<VARIANCE> 9
 4.215408e-001 3.371764e-001 1.689969e-001 5.079393e+001 4.641085e+001 1.210095e+002 4.762525e-004 6.222206e-004 1.938003e-004
<GCONST> 1.792750e+000
<MIXTURE> 5 3.848409e-002
<MEAN> 9
 -7.799501e+000 3.325832e+000 -1.797282e+000 -1.521591e+002 2.174062e+001 9.318489e+001 5.181669e-001 -6.522699e-002 2.265303e-001
<VARIANCE> 9
 1.491142e-001 3.371764e-001 2.964161e-001 2.977951e+001 3.680466e+001 1.210095e+002 4.762525e-004 5.782502e-004 1.938003e-004
<GCONST> 4.762754e-001
<MIXTURE> 6 2.567451e-002
<MEAN> 9
 -6.735629e+000 7.720047e-001 1.126024e+000 -7.446264e+001 -9.453983e+000 1.339068e+002 5.181803e-001 5.904220e-002 1.586907e-001
<VARIANCE> 9
 1.491142e-001 3.371764e-001 6.976298e-002 2.977951e+001 3.680466e+001 1.210095e+002 4.762525e-004 5.782502e-004 1.938003e-004
<GCONST> -9.703841e-001
<MIXTURE> 7 3.846196e-002
<MEAN> 9
 -7.570275e+000 1.807285e-001 -4.457831e+000 -1.033538e+002 -5.636185e+001 1.970121e+002 4.806062e-001 9.999970e-002 2.210884e-001
<VARIANCE> 9
 5.665426e-001 3.371764e-001 6.976298e-002 6.314914e+001 3.680466e+001 1.210095e+002 4.762525e-004 5.790619e-004 1.938003e-004
<GCONST> 1.117536e+000
<MIXTURE> 8 2.563951e-002
<MEAN> 9
 -7.849237e+000 1.855220e+000 1.987231e+000 -9.340893e+001 -6.603741e-001 9.327408e+001 5.218186e-001 5.916870e-003 1.698965e-001
<VARIANCE> 9
 1.491142e-001 3.371764e-001 1.144016e-001 2.977951e+001 1.640092e+002 1.210095e+002 4.762525e-004 5.782502e-004 1.938003e-004
<GCONST> 1.018523e+000
<MIXTURE> 9 5.125203e-002
<MEAN> 9
 -6.752894e+000 -1.750248e-001 2.367430e+000 -2.358459e+001 -5.765147e+000 3.229956e+001 5.277256e-001 -7.158802e-002 2.104572e-001
<VARIANCE> 9
 1.491142e-001 4.120337e-001 1.116925e-001 2.977951e+001 3.680466e+001 5.096403e+002 4.762525e-004 5.782502e-004 1.938003e-004
<GCONST> 1.138598e+000
<MIXTURE> 10 5.128205e-002
<MEAN> 9
 -7.271085e+000 2.709790e-002 -2.259065e-001 -9.243902e+001 -2.275897e+001 1.728358e+002 4.974999e-001 7.750068e-002 2.614796e-001
<VARIANCE> 9
 1.491142e-001 4.414539e-001 6.976298e-002 2.977951e+001 5.578653e+001 4.380256e+002 4.762525e-004 1.133197e-003 1.938003e-004
<GCONST> 1.674190e+000
<MIXTURE> 11 5.116297e-002
<MEAN> 9
 -7.707598e+000 2.022773e+000 1.827564e+000 -1.480512e+002 -1.603997e+000 4.010860e+001 5.077260e-001 -1.475176e-001 2.142748e-001
<VARIANCE> 9
 1.491142e-001 3.371764e-001 8.435835e-001 4.854912e+001 5.369924e+001 1.334478e+002 4.762525e-004 5.782502e-004 1.938003e-004
<GCONST> 2.486541e+000
<MIXTURE> 12 2.565421e-002
<MEAN> 9
 -3.783341e+000 -7.108434e-001 2.077836e+000 -4.549468e+001 -5.192875e+001 1.023973e+002 5.227250e-001 -6.043640e-002 2.081748e-001
<VARIANCE> 9
 9.520061e-001 3.371764e-001 1.731537e-001 2.977951e+001 4.857715e+002 2.165928e+002 4.762525e-004 5.782502e-004 1.938003e-004
<GCONST> 4.954816e+000
<MIXTURE> 13 2.564238e-002
<MEAN> 9
 -7.536107e+000 1.030073e+000 4.084350e+000 -9.463345e+001 -6.197510e-002 3.704208e+001 5.240911e-001 -4.954523e-002 1.596937e-001
<VARIANCE> 9
 1.491142e-001 3.371764e-001 7.025734e-002 2.977951e+001 3.680466e+001 1.210095e+002 4.762525e-004 5.782502e-004 1.938003e-004
<GCONST> -9.633231e-001
<MIXTURE> 14 7.695714e-002
<MEAN> 9
 -8.136949e+000 -3.249520e+000 -1.184832e+000 -5.990341e+001 1.631606e+001 1.546458e+002 4.295323e-001 1.933576e-001 1.664823e-001
<VARIANCE> 9
 4.437259e-001 3.940787e-001 6.383166e-001 3.419682e+001 7.531584e+003 4.977632e+002 4.762525e-004 5.782502e-004 2.458029e-004
<GCONST> 9.601291e+000
<MIXTURE> 15 5.123146e-002
<MEAN> 9
 -6.701400e+000 1.270878e+000 7.228528e-001 -8.057845e+001 -2.750317e+001 1.141796e+002 5.195476e-001 -6.611796e-003 2.293846e-001
<VARIANCE> 9
 1.619041e-001 3.371764e-001 6.976298e-002 4.092356e+001 5.207100e+002 1.210095e+002 4.762525e-004 5.782502e-004 1.122410e-003
<GCONST> 3.835765e+000
<MIXTURE> 16 2.572577e-002
<MEAN> 9
 -6.758990e+000 8.058454e-001 1.549058e+000 -6.296299e+001 -2.081009e+001 7.573739e+001 5.231817e-001 -5.958001e-002 2.428343e-001
<VARIANCE> 9
 1.491142e-001 3.371764e-001 6.976298e-002 2.977951e+001 3.680466e+001 1.210095e+002 4.762525e-004 5.782502e-004 1.938003e-004
<GCONST> -9.703841e-001
<MIXTURE> 17 3.846231e-002
<MEAN> 9
 -8.473895e+000 -1.751005e+000 -4.469879e+000 -7.544714e+001 -4.668699e+001 2.315041e+002 4.306060e-001 1.912121e-001 2.251701e-001
<VARIANCE> 9
 1.491142e-001 3.971867e-001 8.022439e-002 4.853840e+001 3.680466e+001 1.210095e+002 4.762525e-004 6.348939e-004 1.938003e-004
<GCONST> -8.487225e-002
<MIXTURE> 18 5.128038e-002
<MEAN> 9
 -7.867466e+000 -8.915339e-001 6.415828e-001 -6.625016e+001 -2.818583e+001 1.637648e+002 4.884097e-001 1.272722e-001 1.622451e-001
<VARIANCE> 9
 1.722352e-001 3.536595e-001 1.088199e-001 2.977951e+001 3.680466e+001 1.210095e+002 4.762525e-004 5.782502e-004 1.938003e-004
<GCONST> -3.339167e-001
<MIXTURE> 19 2.571419e-002
<MEAN> 9
 -7.855237e+000 3.514338e+000 -3.097549e-001 -1.549391e+002 1.424571e+001 7.170346e+001 5.131750e-001 -1.096220e-001 2.326120e-001
<VARIANCE> 9
 1.491142e-001 3.371764e-001 6.976298e-002 2.977951e+001 3.680466e+001 1.210095e+002 4.762525e-004 5.782502e-004 1.938003e-004
<GCONST> -9.703841e-001
<MIXTURE> 20 3.847487e-002
<MEAN> 9
 -6.289609e+000 2.028071e+000 2.289177e+000 -9.625990e+001 -2.666134e+001 6.419521e+001 5.239370e-001 -1.847655e-002 1.642890e-001
<VARIANCE> 9
 1.491142e-001 3.371764e-001 6.976298e-002 2.977951e+001 4.730675e+001 1.210095e+002 4.762525e-004 5.782502e-004 1.938003e-004
<GCONST> -7.193580e-001
<MIXTURE> 21 3.845169e-002
<MEAN> 9
 -7.144575e+000 1.666560e+000 -3.381629e+000 -1.301604e+002 -2.274499e+001 1.545769e+002 5.099977e-001 4.788123e-002 2.170050e-001
<VARIANCE> 9
 1.491142e-001 3.371764e-001 9.301862e-002 4.384282e+001 3.983433e+001 1.210095e+002 4.762525e-004 5.782502e-004 1.938003e-004
<GCONST> -2.167940e-001
<MIXTURE> 22 6.409135e-002
<MEAN> 9
 -4.935084e+000 -6.698714e-001 7.372763e-001 -6.534263e+001 -2.484509e+001 1.999384e+002 5.094528e-001 2.964687e-002 2.336739e-001
<VARIANCE> 9
 8.744816e-001 3.371764e-001 5.241233e-001 2.977951e+001 6.837798e+002 1.836939e+003 4.762525e-004 2.241733e-003 1.938003e-004
<GCONST> 9.812150e+000
<MIXTURE> 23 3.838439e-002
<MEAN> 9
 -6.445080e+000 5.173248e-002 2.225521e+000 -4.496176e+001 -3.508015e+001 4.153757e+001 5.224218e-001 -8.274560e-002 2.306040e-001
<VARIANCE> 9
 1.491142e-001 3.371764e-001 6.976298e-002 5.426217e+001 3.680466e+001 1.215363e+002 4.762525e-004 5.782502e-004 1.938003e-004
<GCONST> -3.660345e-001
<MIXTURE> 24 2.563974e-002
<MEAN> 9
 -6.837342e+000 -1.144728e-001 4.481935e+000 -7.554840e+001 -1.445105e+001 2.167661e+001 5.281818e-001 -5.000021e-002 1.571429e-001
<VARIANCE> 9
 1.491142e-001 3.371764e-001 6.976298e-002 4.177571e+001 3.680466e+001 1.210095e+002 4.762525e-004 5.782502e-004 1.938003e-004
<GCONST> -6.318908e-001
<STATE> 4
<NUMMIXES> 24
<MIXTURE> 1 2.829781e-002
<MEAN> 9
 -6.851188e+000 5.506260e+000 -8.035271e-001 -1.202866e+000 7.077665e+001 9.044464e+001 4.939355e-001 -1.803114e-001 2.683687e-001
<VARIANCE> 9
 2.183760e-001 3.669384e-001 7.542532e-001 7.928249e+001 1.085361e+002 1.210095e+002 4.762525e-004 5.782502e-004 1.938003e-004
<GCONST> 3.936988e+000
<MIXTURE> 2 4.723514e-002
<MEAN> 9
 -9.451270e+000 1.808643e+000 4.322534e+000 1.123028e+001 3.842064e+001 2.376216e+001 5.268868e-001 -6.678153e-002 1.903134e-001
<VARIANCE> 9
 1.491142e-001 3.371764e-001 1.424633e-001 3.124816e+001 3.680466e+001 1.210095e+002 4.762525e-004 5.782502e-004 1.938003e-004
<GCONST> -2.082644e-001
<MIXTURE> 3 5.643579e-002
<MEAN> 9
 -8.714339e+000 4.337685e+000 4.018264e+000 1.993556e+001 1.211913e+001 2.231624e+001 5.121228e-001 -1.587731e-001 1.964623e-001
<VARIANCE> 9
 4.458547e-001 1.057529e+000 4.540675e-001 2.374440e+002 4.362709e+002 1.210095e+002 4.762525e-004 8.494724e-004 1.938003e-004
<GCONST> 8.074479e+000
<MIXTURE> 4 3.773688e-002
<MEAN> 9
 -7.337239e+000 5.996998e+000 1.165655e+000 3.580769e+001 1.172364e+000 2.931410e+001 5.013636e-001 -1.925002e-001 2.112246e-001
<VARIANCE> 9
 2.056395e+000 3.371764e-001 1.372733e-001 2.977951e+001 3.533375e+002 1.210095e+002 4.762525e-004 5.782502e-004 1.938003e-004
<GCONST> 4.592284e+000
<MIXTURE> 5 3.890200e-002
<MEAN> 9
 -8.510591e+000 4.635725e-001 5.191378e+000 -4.870937e+001 -6.165943e-002 -5.707052e-001 5.124717e-001 -1.661052e-001 1.847273e-001
<VARIANCE> 9
 1.491142e-001 3.371764e-001 6.976298e-002 3.415477e+002 3.680466e+001 1.210095e+002 4.762525e-004 5.782502e-004 1.938003e-004
<GCONST> 1.469283e+000
<MIXTURE> 6 2.943938e-002
<MEAN> 9
 -9.987231e+000 3.356911e+000 3.019038e+000 6.510382e-001 1.421703e+001 1.708286e+001 5.206927e-001 -1.077730e-001 2.176937e-001
<VARIANCE> 9
 1.491142e-001 3.371764e-001 6.976298e-002 2.977951e+001 3.680466e+001 1.210095e+002 4.762525e-004 5.782502e-004 1.938003e-004
<GCONST> -9.703841e-001
<MIXTURE> 7 3.812855e-002
<MEAN> 9
 -6.125051e+000 5.663916e+000 1.861968e-001 -4.792090e+001 8.798904e+001 5.723083e+001 4.606747e-001 -2.386988e-001 3.027132e-001
<VARIANCE> 9
 3.832294e-001 3.371764e-001 6.976298e-002 1.632373e+002 1.043490e+002 1.421033e+002 4.762525e-004 5.782502e-004 2.016637e-004
<GCONST> 2.917498e+000
<MIXTURE> 8 4.444730e-002
<MEAN> 9
 -8.257474e+000 4.118793e+000 2.385967e+000 1.344535e+001 1.591457e+001 4.496379e+001 5.056263e-001 -1.412235e-001 2.494516e-001
<VARIANCE> 9
 1.491142e-001 3.371764e-001 1.767869e-001 2.977951e+001 3.680466e+001 1.210095e+002 4.762525e-004 5.782502e-004 1.938003e-004
<GCONST> -4.054356e-002
<MIXTURE> 9 3.780688e-002
<MEAN> 9
 -8.913594e+000 -9.408899e-002 5.044715e+000 -2.905644e+001 2.293595e+001 1.343099e+001 5.241079e-001 -5.589637e-002 1.640532e-001
<VARIANCE> 9
 2.648897e-001 3.371764e-001 6.976298e-002 3.142752e+002 3.736132e+001 1.210095e+002 4.762525e-004 5.782502e-004 1.938003e-004
<GCONST> 1.975677e+000
<MIXTURE> 10 3.493170e-002
<MEAN> 9
 -8.433287e+000 1.470049e+000 2.532808e+000 -9.309469e+000 -1.217643e+000 -2.042403e+000 5.255786e-001 -1.003115e-001 2.114446e-001
<VARIANCE> 9
 1.491142e-001 3.371764e-001 6.976298e-002 2.977951e+001 4.612818e+001 1.210095e+002 4.762525e-004 5.782502e-004 1.938003e-004
<GCONST> -7.445846e-001
<MIXTURE> 11 6.568196e-002
<MEAN> 9
 -1.059249e+001 3.816777e+000 1.666580e+000 -4.693685e+000 2.835553e+001 5.117117e+001 5.177792e-001 -1.219555e-001 2.243867e-001
<VARIANCE> 9
 3.298756e-001 3.371764e-001 1.549932e-001 2.977951e+001 2.041649e+002 1.445419e+002 4.762525e-004 5.782502e-004 2.263162e-004
<GCONST> 2.668007e+000
<MIXTURE> 12 5.612648e-002
<MEAN> 9
 -7.367823e+000 4.570278e+000 1.309712e+000 -8.656380e+001 4.593331e+001 4.935218e+001 4.829802e-001 -2.143142e-001 2.360806e-001
<VARIANCE> 9
 3.799037e-001 3.371764e-001 2.606822e-001 2.442342e+002 5.907883e+001 1.210095e+002 4.762525e-004 5.782502e-004 1.938003e-004
<GCONST> 3.860576e+000
<MIXTURE> 13 7.589982e-002
<MEAN> 9
 -8.101303e+000 5.018621e+000 -6.334940e-001 -3.182420e+001 3.032627e+001 5.717249e+001 5.000280e-001 -1.332753e-001 2.355080e-001
<VARIANCE> 9
 1.065900e+000 1.086452e+000 2.622454e+000 1.622882e+003 2.513120e+002 1.951610e+002 4.762525e-004 5.026018e-003 1.437434e-003
<GCONST> 1.635664e+001
<MIXTURE> 14 3.893270e-002
<MEAN> 9
 -9.350659e+000 2.894180e+000 3.091986e+000 1.678772e+001 2.048194e+001 2.434588e+001 5.246809e-001 -8.401318e-002 2.174570e-001
<VARIANCE> 9
 1.491142e-001 3.371764e-001 1.824190e-001 2.977951e+001 4.665770e+001 1.210095e+002 4.762525e-004 5.782502e-004 1.938003e-004
<GCONST> 2.280302e-001
<MIXTURE> 15 2.837195e-002
<MEAN> 9
 -6.039815e+000 5.992061e+000 1.166892e+000 -6.633128e+001 -1.822625e+000 4.041388e+001 4.636283e-001 -2.412350e-001 2.758304e-001
<VARIANCE> 9
 7.637971e-001 3.371764e-001 6.976298e-002 2.977951e+001 5.371064e+001 1.210095e+002 4.762525e-004 5.782502e-004 1.938003e-004
<GCONST> 1.041190e+000
<MIXTURE> 16 1.887323e-002
<MEAN> 9
 -8.807460e+000 3.566364e+000 2.265022e+000 -1.036648e+000 1.466598e+001 8.658116e+001 5.068190e-001 -1.563592e-001 2.489783e-001
<VARIANCE> 9
 1.491142e-001 3.371764e-001 8.360261e-002 2.977951e+001 5.670587e+001 1.210095e+002 4.762525e-004 5.782502e-004 1.938003e-004
<GCONST> -3.571596e-001
<MIXTURE> 17 3.661214e-002
<MEAN> 9
 -8.987958e+000 2.523905e+000 5.297574e+000 2.612681e+000 1.207330e+001 6.865893e+000 5.092404e-001 -1.777986e-001 1.815360e-001
<VARIANCE> 9
 1.491142e-001 3.371764e-001 6.976298e-002 9.971199e+001 3.680466e+001 1.210095e+002 4.762525e-004 5.782502e-004 1.938003e-004
<GCONST> 2.380819e-001
<MIXTURE> 18 3.778933e-002
<MEAN> 9
 -7.933278e+000 5.423632e+000 -2.681035e-001 -3.376246e+001 2.335520e+001 4.901143e+001 4.768741e-001 -2.051803e-001 2.843269e-001
<VARIANCE> 9
 1.491142e-001 3.371764e-001 1.356551e-001 1.503269e+002 3.680466e+001 1.210095e+002 4.762525e-004 5.782502e-004 1.938003e-004
<GCONST> 1.313621e+000
<MIXTURE> 19 4.893710e-002
<MEAN> 9
 -9.485598e+000 2.926534e+000 2.956252e+000 -3.687456e+000 6.704527e+000 6.101100e+000 5.241932e-001 -1.030135e-001 2.136828e-001
<VARIANCE> 9
 1.491142e-001 3.371764e-001 6.976298e-002 2.977951e+001 3.680466e+001 1.210095e+002 4.762525e-004 5.782502e-004 1.938003e-004
<GCONST> -9.703841e-001
<MIXTURE> 20 4.665456e-002
<MEAN> 9
 -5.566839e+000 6.255710e+000 1.481268e+000 -7.593327e+001 6.297569e+001 1.071849e+001 4.428945e-001 -2.574173e-001 3.052993e-001
<VARIANCE> 9
 7.062532e-001 3.371764e-001 6.194718e-001 2.977951e+001 1.409181e+003 1.259225e+002 4.762525e-004 5.782502e-004 9.362422e-004
<GCONST> 8.028624e+000
<MIXTURE> 21 4.712367e-002
<MEAN> 9
 -8.956298e+000 5.146947e+000 1.029360e+000 2.591695e+000 3.356705e+001 3.860350e+001 4.980068e-001 -1.728950e-001 2.714210e-001
<VARIANCE> 9
 3.065194e-001 3.371764e-001 1.156491e-001 5.487654e+001 3.680466e+001 1.210095e+002 4.762525e-004 5.782502e-004 1.938003e-004
<GCONST> 8.669081e-001
<MIXTURE> 22 2.842258e-002
<MEAN> 9
 -9.516778e+000 8.806620e-001 1.943351e+000 -1.197695e+001 4.762187e+000 3.069200e+001 5.227115e-001 -8.464773e-002 2.054306e-001
<VARIANCE> 9
 9.930714e-001 5.517220e-001 6.976298e-002 2.977951e+001 3.680466e+001 1.210095e+002 4.762525e-004 5.782502e-004 1.938003e-004
<GCONST> 1.418143e+000
<MIXTURE> 23 4.875914e-002
<MEAN> 9
 -9.300347e+000 3.349984e+000 2.180899e+000 1.574643e+001 2.209195e+001 3.883492e+001 5.163437e-001 -1.135251e-001 2.308417e-001
<VARIANCE> 9
 1.491142e-001 3.371764e-001 6.976298e-002 2.977951e+001 4.095812e+001 1.210095e+002 4.762525e-004 5.782502e-004 1.938003e-004
<GCONST> -8.634582e-001
<MIXTURE> 24 2.845400e-002
<MEAN> 9
 -7.913772e+000 8.159861e-003 4.268473e+000 -1.075039e+002 -5.719498e+000 8.569445e+000 5.112259e-001 -1.610194e-001 1.910940e-001
<VARIANCE> 9
 1.491142e-001 3.371764e-001 1.459010e-001 1.958300e+002 3.680466e+001 1.210095e+002 4.762525e-004 5.782502e-004 1.938003e-004
<GCONST> 1.650867e+000
<STATE> 5
<NUMMIXES> 24
<MIXTURE> 1 1.754496e-002
<MEAN> 9
 -1.630917e+000 1.076185e+001 1.188717e+001 9.147724e+000 -5.034457e+001 2.526751e+001 4.465854e-001 -2.661408e-001 2.808853e-001
<VARIANCE> 9
 2.697303e+001 3.494579e-001 3.405341e+001 1.634670e+003 6.648821e+002 8.589462e+002 5.192155e-004 5.782502e-004 3.723175e-003
<GCONST> 2.235493e+001
<MIXTURE> 2 4.273851e-002
<MEAN> 9
 -7.213130e+000 7.620060e+000 1.198259e+000 -8.377781e+000 -2.330520e+001 6.199919e+000 4.260592e-001 -2.753735e-001 3.347776e-001
<VARIANCE> 9
 6.477551e-001 3.371764e-001 5.518603e-001 6.187579e+001 2.389001e+002 1.210095e+002 4.762525e-004 5.782502e-004 1.938003e-004
<GCONST> 5.168338e+000
<MIXTURE> 3 1.076201e-001
<MEAN> 9
 -9.409830e+000 3.623396e-001 3.186229e+000 -4.960855e+001 -5.626965e+001 2.796640e+001 4.929777e-001 -4.742520e-002 1.854542e-001
<VARIANCE> 9
 5.546886e+000 1.137726e+001 2.000667e+001 1.382441e+004 1.047944e+004 6.748928e+002 4.762525e-004 1.664752e-003 8.820615e-003
<GCONST> 3.020942e+001
<MIXTURE> 4 4.872389e-002
<MEAN> 9
 -7.948436e+000 6.231903e+000 2.151404e+000 6.994485e+001 -3.143230e+001 6.180695e+000 4.815444e-001 -2.316636e-001 2.383888e-001
<VARIANCE> 9
 1.298992e+000 3.371764e-001 7.084394e+000 2.435685e+002 3.563140e+002 1.210095e+002 4.762525e-004 5.782502e-004 1.938003e-004
<GCONST> 1.018656e+001
<MIXTURE> 5 1.310052e-002
<MEAN> 9
 -6.069682e+000 3.435301e+000 5.497369e+000 -4.142990e+000 -1.607257e+001 6.890416e+000 4.502380e-001 -2.758729e-001 1.656758e-001
<VARIANCE> 9
 1.491142e-001 3.371764e-001 2.650422e+000 3.470853e+001 4.087451e+001 1.210095e+002 4.762525e-004 5.782502e-004 1.647607e-003
<GCONST> 5.065283e+000
<MIXTURE> 6 4.067124e-002
<MEAN> 9
 -1.032985e+001 4.937426e+000 1.326396e+000 3.694427e+001 1.786782e+001 -5.450931e+000 4.431144e-001 -2.933744e-001 1.789134e-001
<VARIANCE> 9
 1.028643e+000 6.499792e-001 1.465984e+000 2.049136e+002 2.270973e+003 1.210095e+002 4.762525e-004 5.782502e-004 7.384060e-004
<GCONST> 1.205118e+001
<MIXTURE> 7 5.258472e-002
<MEAN> 9
 -9.209636e+000 4.922019e+000 -1.510084e+000 -4.080186e+001 1.002891e+001 1.298679e+001 4.769289e-001 -2.389327e-001 2.391562e-001
<VARIANCE> 9
 3.519382e-001 1.152782e+000 8.141433e-001 1.423619e+003 1.138613e+002 1.210095e+002 4.762525e-004 5.782502e-004 1.938003e-004
<GCONST> 8.571212e+000
<MIXTURE> 8 3.065653e-002
<MEAN> 9
 -9.140481e+000 1.319245e+000 7.659997e+000 3.503232e+001 -1.213496e+001 -2.056086e+000 4.392781e-001 -2.990446e-001 1.302903e-001
<VARIANCE> 9
 4.947995e-001 3.371764e-001 4.133872e+000 1.310495e+003 1.037352e+003 1.835383e+002 4.762525e-004 5.782502e-004 1.938003e-004
<GCONST> 1.185062e+001
<MIXTURE> 9 3.931579e-002
<MEAN> 9
 -7.601602e+000 4.544261e+000 2.599421e+000 -1.294349e+002 7.372501e+001 5.004504e+000 4.787692e-001 -2.330523e-001 2.202361e-001
<VARIANCE> 9
 9.989204e-001 3.371764e-001 6.147948e+000 5.169600e+002 4.770528e+002 1.210095e+002 4.762525e-004 5.782502e-004 1.938003e-004
<GCONST> 1.082650e+001
<MIXTURE> 10 3.445758e-002
<MEAN> 9
 -9.689012e+000 3.126117e+000 1.387760e+000 -8.755056e+001 2.913081e+001 2.233265e+001 4.709930e-001 -2.540236e-001 2.106699e-001
<VARIANCE> 9
 1.663156e-001 3.371764e-001 2.636096e-001 1.908735e+002 3.680466e+001 1.210095e+002 4.762525e-004 5.782502e-004 1.938003e-004
<GCONST> 2.325946e+000
<MIXTURE> 11 5.501183e-002
<MEAN> 9
 -8.683002e+000 5.091619e+000 3.514389e+000 -1.422080e+001 2.108072e+001 -1.174246e+001 4.667970e-001 -2.476966e-001 2.389746e-001
<VARIANCE> 9
 2.996720e+000 2.888484e+000 1.602327e+000 2.465708e+003 1.317978e+003 1.210095e+002 4.762525e-004 5.782502e-004 1.938003e-004
<GCONST> 1.530681e+001
<MIXTURE> 12 3.871373e-002
<MEAN> 9
 -8.274340e+000 6.574067e+000 2.187169e+000 1.542383e+001 4.409993e+000 -5.744474e+000 4.640372e-001 -2.530517e-001 2.383570e-001
<VARIANCE> 9
 3.295068e-001 7.284088e-001 2.625918e-001 1.008307e+002 3.680466e+001 1.210095e+002 4.762525e-004 5.782502e-004 1.938003e-004
<GCONST> 3.137877e+000
<MIXTURE> 13 3.564940e-002
<MEAN> 9
 -8.059967e+000 1.972906e+000 1.527929e+000 -1.233260e+002 2.722833e+001 3.073834e+001 4.538410e-001 -2.813046e-001 1.944296e-001
<VARIANCE> 9
 1.468393e+000 3.371764e-001 2.425382e-001 3.608034e+002 2.602270e+002 1.210095e+002 4.762525e-004 5.782502e-004 2.308577e-004
<GCONST> 7.188297e+000
<MIXTURE> 14 4.555446e-002
<MEAN> 9
 -6.796317e+000 5.944447e+000 3.920937e+000 8.161774e+000 -9.318584e+000 -2.399355e+000 4.625616e-001 -2.586893e-001 2.298103e-001
<VARIANCE> 9
 3.682052e-001 3.371764e-001 6.857401e-001 7.643699e+001 3.680466e+001 1.210095e+002 4.762525e-004 5.782502e-004 1.938003e-004
<GCONST> 3.161586e+000
<MIXTURE> 15 9.001049e-002
<MEAN> 9
 -5.459003e+000 5.134209e+000 2.942309e-001 4.289556e+000 7.432660e-001 1.744431e+001 4.756101e-001 -1.982321e-001 1.756660e-001
<VARIANCE> 9
 1.736863e+000 3.371764e-001 8.146433e-001 1.831891e+003 3.001228e+002 4.067045e+003 4.762525e-004 9.341568e-004 2.916202e-004
<GCONST> 1.456330e+001
<MIXTURE> 16 3.493206e-002
<MEAN> 9
 -7.791994e+000 3.314938e+000 4.983646e+000 7.011878e+000 2.977023e-001 6.363105e-001 4.452145e-001 -2.931221e-001 1.483926e-001
<VARIANCE> 9
 1.491142e-001 4.571520e-001 6.315179e-001 2.977951e+001 3.680466e+001 1.210095e+002 4.762525e-004 5.782502e-004 1.168186e-003
<GCONST> 3.333426e+000
<MIXTURE> 17 3.802058e-002
<MEAN> 9
 -8.455812e+000 4.733872e+000 1.962669e-001 -6.241451e+001 1.493821e+001 -1.201378e+001 4.400156e-001 -2.866397e-001 2.826492e-001
<VARIANCE> 9
 3.421906e-001 3.371764e-001 1.415030e-001 2.057141e+002 1.362584e+002 1.210095e+002 4.762525e-004 5.782502e-004 1.938003e-004
<GCONST> 3.809085e+000
<MIXTURE> 18 2.920171e-002
<MEAN> 9
 -7.967176e+000 4.708993e+000 1.620336e+000 -8.118718e+000 -8.345291e+000 -1.451039e+001 4.672543e-001 -2.527817e-001 2.295844e-001
<VARIANCE> 9
 1.491142e-001 3.371764e-001 2.456685e-001 1.647527e+002 3.680466e+001 1.210095e+002 4.762525e-004 5.782502e-004 1.938003e-004
<GCONST> 1.999122e+000
<MIXTURE> 19 2.761611e-002
<MEAN> 9
 -7.472446e+000 7.035233e+000 -6.509554e-002 -8.172443e+000 6.015454e+000 -9.992495e+000 4.234051e-001 -2.796993e-001 3.296342e-001
<VARIANCE> 9
 5.938077e-001 3.371764e-001 7.918366e-001 8.518315e+002 3.152680e+002 1.210095e+002 4.762525e-004 5.782502e-004 5.665631e-004
<GCONST> 9.414839e+000
<MIXTURE> 20 3.466574e-002
<MEAN> 9
 -8.594332e+000 3.545796e+000 2.030422e+000 -4.500591e+001 1.428027e+001 -1.412642e+001 4.769261e-001 -2.376527e-001 2.229645e-001
<VARIANCE> 9
 3.850617e-001 3.371764e-001 6.976298e-002 1.018003e+002 3.680466e+001 1.210095e+002 4.762525e-004 5.782502e-004 1.938003e-004
<GCONST> 1.207500e+000
<MIXTURE> 21 2.758673e-002
<MEAN> 9
 -8.477061e+000 3.758544e+000 9.318560e-001 -1.159739e+002 2.539855e+001 1.380148e+001 4.392135e-001 -2.987095e-001 2.405125e-001
<VARIANCE> 9
 1.491142e-001 3.371764e-001 7.289644e-001 1.365311e+002 3.680466e+001 1.232480e+002 4.762525e-004 5.782502e-004 1.938003e-004
<GCONST> 2.917199e+000
<MIXTURE> 22 6.322838e-002
<MEAN> 9
 -6.840766e+000 -1.415429e+000 1.505354e+001 -8.126569e+001 -3.948155e+000 8.741100e+000 4.462394e-001 -2.815534e-001 1.969517e-001
<VARIANCE> 9
 2.972694e+001 1.389797e+001 3.145323e+001 2.514858e+003 2.911461e+003 3.311362e+002 4.762525e-004 8.906932e-004 3.158712e-003
<GCONST> 2.719144e+001
<MIXTURE> 23 2.636755e-002
<MEAN> 9
 -8.025928e+000 1.689952e+000 5.152649e+000 -1.732134e+002 4.114901e+001 3.067498e+001 4.498627e-001 -2.964707e-001 1.713282e-001
<VARIANCE> 9
 6.435313e-001 3.371764e-001 3.118482e+000 2.977951e+001 4.410553e+001 1.210095e+002 4.762525e-004 5.782502e-004 2.659615e-004
<GCONST> 4.789354e+000
<MIXTURE> 24 2.602715e-002
<MEAN> 9
 -7.922544e+000 3.361984e+000 4.371894e+000 3.373893e+000 -2.616638e+001 2.537214e+000 4.383160e-001 -3.064361e-001 1.799461e-001
<VARIANCE> 9
 2.214628e-001 3.986324e-001 1.346341e+000 2.977951e+001 1.020348e+002 1.210095e+002 4.762525e-004 5.782502e-004 5.259192e-004
<GCONST> 4.570641e+000
<STATE> 6
<NUMMIXES> 24
<MIXTURE> 1 2.933143e-002
<MEAN> 9
 -6.083121e+000 6.479661e-001 2.093876e+000 1.533673e+002 -4.021149e+001 -1.110438e+002 4.986303e-001 -1.906366e-001 1.885066e-001
<VARIANCE> 9
 1.491142e-001 3.371764e-001 3.859985e-001 1.751122e+002 9.504499e+002 1.210095e+002 4.762525e-004 5.782502e-004 1.938003e-004
<GCONST> 5.763263e+000
<MIXTURE> 2 2.961651e-002
<MEAN> 9
 -5.925290e+000 2.023647e+000 1.261898e+000 1.467961e+002 -1.485769e+002 -1.270750e+002 4.979438e-001 -1.877650e-001 9.366754e-002
<VARIANCE> 9
 4.867739e-001 3.371764e-001 6.976298e-002 5.715788e+001 1.917855e+002 4.142730e+002 4.762525e-004 5.782502e-004 4.219860e-004
<GCONST> 4.524254e+000
<MIXTURE> 3 2.279005e-002
<MEAN> 9
 -6.702309e+000 8.484342e-001 2.541212e+000 1.396998e+002 -4.998273e+001 -8.399265e+001 4.879739e-001 -2.188955e-001 1.908729e-001
<VARIANCE> 9
 1.491142e-001 3.371764e-001 1.954008e-001 2.907035e+002 4.129056e+002 1.210095e+002 4.762525e-004 5.782502e-004 7.415795e-004
<GCONST> 6.097595e+000
<MIXTURE> 4 6.656556e-002
<MEAN> 9
 -5.477875e+000 1.142938e+000 3.841041e+000 -1.094825e+002 -8.290673e+001 -1.991595e+002 4.942435e-001 -5.483729e-002 9.205700e-002
<VARIANCE> 9
 5.580947e+000 4.603411e+000 1.084764e+001 5.079141e+003 2.777484e+002 9.715211e+002 4.762525e-004 4.891450e-003 2.001679e-003
<GCONST> 2.402588e+001
<MIXTURE> 5 1.479711e-002
<MEAN> 9
 -5.578394e+000 6.868768e-001 -7.804530e-002 1.764930e+002 -9.304895e+001 -1.381628e+002 5.063591e-001 -1.695561e-001 2.081638e-001
<VARIANCE> 9
 1.491142e-001 3.371764e-001 6.976298e-002 2.977951e+001 4.335685e+001 1.247434e+002 4.762525e-004 5.782502e-004 1.938003e-004
<GCONST> -7.761531e-001
<MIXTURE> 6 4.485261e-002
<MEAN> 9
 -8.368281e+000 7.341473e-001 6.254303e+000 3.638385e+001 -3.323199e+001 -1.017341e+001 4.591931e-001 -2.686660e-001 1.707539e-001
<VARIANCE> 9
 1.491142e-001 5.095149e-001 6.976298e-002 5.448502e+002 3.680466e+001 1.210095e+002 4.762525e-004 5.782502e-004 1.938003e-004
<GCONST> 2.349158e+000
<MIXTURE> 7 2.210187e-002
<MEAN> 9
 -8.320954e+000 -5.921094e-001 -5.315501e-003 1.491830e+002 5.597883e+000 -2.285111e+002 5.202907e-001 5.135670e-002 1.602095e-001
<VARIANCE> 9
 4.436030e+000 3.371764e-001 3.019738e-001 2.977951e+001 6.053413e+002 1.443931e+002 4.762525e-004 8.014505e-004 1.938003e-004
<GCONST> 7.190909e+000
<MIXTURE> 8 2.962475e-002
<MEAN> 9
 -6.987674e+000 6.279576e-002 4.693038e+000 1.180427e+002 -5.451991e+001 -4.856991e+001 4.670319e-001 -2.616096e-001 1.629949e-001
<VARIANCE> 9
 1.491142e-001 3.371764e-001 3.959913e-001 6.006696e+002 3.697415e+001 1.210095e+002 4.762525e-004 5.782502e-004 1.938003e-004
<GCONST> 3.774722e+000
<MIXTURE> 9 1.448799e-001
<MEAN> 9
 -1.021435e+001 -3.389234e+000 4.831139e+000 3.457159e+000 1.091476e+001 -8.252807e+001 4.384516e-001 1.789436e-001 8.829400e-002
<VARIANCE> 9
 6.204625e+000 5.347466e-001 6.671580e+000 1.426003e+003 1.709885e+002 1.285727e+004 4.762525e-004 6.247582e-004 1.938003e-004
<GCONST> 1.792759e+001
<MIXTURE> 10 6.666020e-002
<MEAN> 9
 -9.134621e+000 -1.652437e+000 -1.033448e+000 8.833463e+001 -4.893144e+001 -2.918886e+002 4.874020e-001 1.184378e-001 9.691066e-002
<VARIANCE> 9
 1.082294e+000 6.433873e-001 9.613715e-001 6.790113e+002 1.589964e+003 1.209775e+003 4.762525e-004 2.413466e-003 2.403803e-004
<GCONST> 1.512033e+001
<MIXTURE> 11 4.448375e-002
<MEAN> 9
 -7.880683e+000 2.181943e+000 5.686392e+000 5.452317e+001 -3.433027e+001 -1.771586e+001 4.311090e-001 -3.175142e-001 1.930059e-001
<VARIANCE> 9
 1.491142e-001 4.893333e-001 7.803641e-002 5.880340e+002 3.680466e+001 1.210095e+002 4.762525e-004 5.782502e-004 1.938003e-004
<GCONST> 2.497088e+000
<MIXTURE> 12 3.710594e-002
<MEAN> 9
 -6.136106e+000 4.079202e-001 -8.368016e-001 1.749122e+002 -1.125721e+002 -2.093744e+002 5.201950e-001 -1.008735e-001 1.646543e-001
<VARIANCE> 9
 1.519983e-001 3.371764e-001 7.225264e-002 1.418839e+002 2.362145e+002 4.633236e+002 4.762525e-004 2.572335e-003 1.938003e-004
<GCONST> 5.339262e+000
<MIXTURE> 13 2.926910e-002
<MEAN> 9
 -7.670571e+000 1.055765e+000 1.609581e+000 1.643468e+002 -1.095010e+002 -6.881538e+001 4.788895e-001 -2.474640e-001 1.450142e-001
<VARIANCE> 9
 1.318775e+000 3.371764e-001 4.907764e-001 2.977951e+001 4.001158e+002 1.210095e+002 4.762525e-004 5.782502e-004 1.938003e-004
<GCONST> 5.546378e+000
<MIXTURE> 14 2.218933e-002
<MEAN> 9
 -7.417633e+000 4.578588e-001 7.831371e+000 1.108730e+002 -7.408597e+001 -4.375953e+001 4.439389e-001 -2.936370e-001 1.336737e-001
<VARIANCE> 9
 1.912432e-001 3.371764e-001 2.851726e-001 1.992162e+002 4.933040e+001 1.210095e+002 4.762525e-004 5.782502e-004 1.938003e-004
<GCONST> 2.879928e+000
<MIXTURE> 15 2.968913e-002
<MEAN> 9
 -6.869108e+000 2.155581e-001 1.224878e+000 1.853180e+002 -5.724885e+001 -1.211532e+002 4.901975e-001 -2.134538e-001 1.782059e-001
<VARIANCE> 9
 1.491142e-001 3.371764e-001 1.239408e-001 1.069282e+002 2.801809e+002 2.236510e+002 4.762525e-004 2.171801e-003 1.938003e-004
<GCONST> 4.849988e+000
<MIXTURE> 16 4.438052e-002
<MEAN> 9
 -7.377385e+000 2.611022e-001 -7.436504e-002 1.793413e+002 -7.199727e+001 -1.674002e+002 5.201501e-001 -1.168247e-001 1.855429e-001
<VARIANCE> 9
 1.491142e-001 3.371764e-001 6.976298e-002 8.826010e+001 4.454683e+002 1.719847e+002 4.762525e-004 1.311400e-003 1.938003e-004
<GCONST> 3.779964e+000
<MIXTURE> 17 2.968991e-002
<MEAN> 9
 -6.848989e+000 9.555346e-003 6.575016e+000 8.811462e+001 -3.960617e+001 -1.782070e+001 4.502759e-001 -2.855895e-001 1.449881e-001
<VARIANCE> 9
 1.491142e-001 3.371764e-001 3.897146e-001 5.203004e+002 4.769856e+001 1.210095e+002 4.762525e-004 5.782502e-004 1.938003e-004
<GCONST> 3.869788e+000
<MIXTURE> 18 4.422428e-002
<MEAN> 9
 -8.020669e+000 -5.766559e-001 -1.397807e+000 1.418001e+002 -5.107329e+001 -2.589369e+002 5.174938e-001 8.617930e-003 1.372529e-001
<VARIANCE> 9
 4.545136e+000 3.371764e-001 7.617451e-002 4.527378e+001 5.321820e+002 4.345956e+002 4.762525e-004 3.891585e-003 2.087801e-004
<GCONST> 8.884475e+000
<MIXTURE> 19 2.989728e-002
<MEAN> 9
 -8.987396e+000 3.631894e-001 4.595252e+000 1.583186e+002 -5.848560e+001 -5.386651e+001 4.608267e-001 -2.774839e-001 1.448055e-001
<VARIANCE> 9
 1.491142e-001 3.371764e-001 9.518422e-001 7.392535e+001 3.680466e+001 1.210095e+002 4.762525e-004 5.782502e-004 1.938003e-004
<GCONST> 2.552146e+000
<MIXTURE> 20 2.219761e-002
<MEAN> 9
 -8.076221e+000 1.297220e+000 4.425841e+000 1.191812e+002 -5.452778e+001 -4.463128e+001 4.478756e-001 -2.942469e-001 1.976201e-001
<VARIANCE> 9
 1.491142e-001 3.371764e-001 1.455580e-001 1.087956e+002 5.403968e+001 1.210095e+002 4.762525e-004 5.782502e-004 1.938003e-004
<GCONST> 1.444831e+000
<MIXTURE> 21 3.650736e-002
<MEAN> 9
 -7.050646e+000 9.270447e-001 2.717015e+000 1.580947e+002 -6.220649e+001 -7.094366e+001 4.652211e-001 -2.670569e-001 1.967015e-001
<VARIANCE> 9
 2.436755e-001 3.371764e-001 1.246784e-001 1.801450e+002 3.680466e+001 1.210095e+002 4.762525e-004 5.782502e-004 4.356970e-004
<GCONST> 2.711435e+000
<MIXTURE> 22 2.219072e-002
<MEAN> 9
 -5.465864e+000 2.136544e+000 1.032128e+000 1.111382e+002 -1.364024e+002 -1.958334e+002 5.078788e-001 -1.036363e-001 2.006798e-002
<VARIANCE> 9
 1.491142e-001 5.036369e-001 6.976298e-002 1.850593e+002 3.680466e+001 3.320549e+002 4.762525e-004 5.782502e-004 3.417555e-004
<GCONST> 2.834419e+000
<MIXTURE> 23 2.958758e-002
<MEAN> 9
 -7.774094e+000 -1.397585e+000 2.427711e+000 3.673784e+001 -5.649393e+001 -2.659756e+002 4.761364e-001 5.136351e-002 -3.571425e-002
<VARIANCE> 9
 3.375207e-001 1.178903e+000 6.976298e-002 1.263727e+002 3.680466e+001 1.448093e+002 4.762525e-004 1.229129e-003 1.938003e-004
<GCONST> 3.477282e+000
<MIXTURE> 24 1.073675e-001
<MEAN> 9
 -7.191926e+000 -3.582731e+000 2.007231e+000 3.639209e+001 6.237387e+001 -4.279563e+001 4.253601e-001 1.948348e-001 1.389406e-001
<VARIANCE> 9
 1.491142e-001 3.371764e-001 1.276269e+000 1.153195e+002 6.865547e+002 1.222176e+003 4.762525e-004 5.782502e-004 8.271651e-004
<GCONST> 9.979851e+000
<STATE> 7
<NUMMIXES> 24
<MIXTURE> 1 4.590473e-002
<MEAN> 9
 -2.550343e+000 -1.052917e+001 4.785684e+000 -3.384556e+001 1.192226e+002 -3.034774e+001 -9.471204e-003 3.702244e-001 1.775331e-001
<VARIANCE> 9
 2.605895e+000 9.283589e-001 1.828208e-001 1.841169e+002 5.459500e+003 3.404096e+002 4.762525e-004 5.782502e-004 1.938003e-004
<GCONST> 1.172217e+001
<MIXTURE> 2 4.600780e-002
<MEAN> 9
 -1.061781e+001 -7.209208e+000 2.107198e+000 2.912921e+001 2.202171e+001 -2.681917e+002 3.108357e-001 3.102187e-001 7.986249e-002
<VARIANCE> 9
 8.021834e-001 6.220433e-001 4.760038e-001 1.174368e+003 7.621974e+002 1.210095e+002 6.739017e-004 5.782502e-004 1.938003e-004
<GCONST> 1.029735e+001
<MIXTURE> 3 2.729887e-002
<MEAN> 9
 -1.044180e+001 -4.919758e+000 1.630476e+000 8.652379e+001 6.545189e+000 -2.701625e+002 4.087850e-001 2.430338e-001 9.285627e-002
<VARIANCE> 9
 2.733114e-001 3.895565e-001 2.973132e-001 2.977951e+001 3.680466e+001 1.210095e+002 4.762525e-004 6.789882e-004 1.938003e-004
<GCONST> 1.390199e+000
<MIXTURE> 4 4.342978e-002
<MEAN> 9
 -6.911511e+000 -1.202331e+001 2.369889e+000 -4.884865e+001 1.062601e+002 -1.023254e+002 5.817879e-003 3.759222e-001 1.682154e-001
<VARIANCE> 9
 1.491142e-001 3.371764e-001 5.772286e-001 1.779255e+002 1.462177e+003 2.805213e+002 4.762525e-004 5.782502e-004 1.938003e-004
<GCONST> 7.453134e+000
<MIXTURE> 5 5.261316e-002
<MEAN> 9
 -7.261277e+000 -1.041316e+001 2.143490e+000 -3.345296e+001 7.768034e+001 -1.213373e+002 5.383205e-002 3.756446e-001 1.074780e-001
<VARIANCE> 9
 1.491142e-001 3.371764e-001 9.428354e-002 2.977951e+001 2.037151e+002 1.197872e+003 4.762525e-004 5.782502e-004 1.938003e-004
<GCONST> 3.334350e+000
<MIXTURE> 6 1.821427e-002
<MEAN> 9
 -5.397510e+000 -9.566320e+000 2.397061e+000 -4.161963e+001 1.945206e+001 -2.352088e+001 -8.614797e-003 3.609295e-001 1.632483e-001
<VARIANCE> 9
 1.491142e-001 3.371764e-001 6.976298e-002 2.977951e+001 2.551648e+002 1.210095e+002 4.762525e-004 5.782502e-004 1.938003e-004
<GCONST> 9.658995e-001
<MIXTURE> 7 4.527066e-002
<MEAN> 9
 -1.011324e+001 -9.637609e+000 1.811878e+000 -1.738217e+000 3.095137e+001 -2.531940e+002 2.249659e-001 3.552598e-001 8.339655e-002
<VARIANCE> 9
 3.460861e-001 1.631413e+000 1.927302e-001 6.925123e+002 4.865595e+002 1.210095e+002 7.350834e-004 5.782502e-004 2.673338e-004
<GCONST> 8.948320e+000
<MIXTURE> 8 6.347090e-002
<MEAN> 9
 -5.702691e+000 -1.068778e+001 2.747242e+000 -5.778835e+001 4.904088e+001 -1.319197e+002 8.027549e-002 3.744415e-001 2.044652e-001
<VARIANCE> 9
 1.434353e+000 1.675563e+000 9.540417e-002 9.570749e+001 1.048877e+003 3.998799e+002 1.158700e-003 5.782502e-004 1.228881e-003
<GCONST> 1.165845e+001
<MIXTURE> 9 8.308449e-002
<MEAN> 9
 -9.217214e+000 -5.915978e+000 1.813572e-001 8.561521e+000 2.041303e+001 -2.195966e+002 3.586757e-001 2.788211e-001 1.316272e-001
<VARIANCE> 9
 8.481042e+000 1.327962e+000 1.131715e+000 1.423737e+002 2.607686e+003 8.162701e+003 9.239244e-004 5.782502e-004 1.338502e-003
<GCONST> 1.985952e+001
<MIXTURE> 10 4.497444e-002
<MEAN> 9
 -8.160524e+000 -9.193391e+000 3.345063e+000 1.296080e+001 1.554896e+002 -2.065013e+001 -1.825579e-002 3.629649e-001 1.601093e-001
<VARIANCE> 9
 4.405758e+000 3.371764e-001 1.900001e-001 2.977951e+001 3.805526e+003 1.210095e+002 4.762525e-004 5.782502e-004 1.938003e-004
<GCONST> 8.056075e+000
<MIXTURE> 11 2.729789e-002
<MEAN> 9
 -7.574292e+000 -1.003609e+001 8.714900e-001 -6.158488e+001 1.077856e+002 -6.062876e+001 3.938985e-003 3.651508e-001 1.683677e-001
<VARIANCE> 9
 3.389577e-001 3.371764e-001 6.976298e-002 2.977951e+001 8.997379e+001 1.749684e+002 4.762525e-004 5.782502e-004 1.938003e-004
<GCONST> 1.113410e+000
<MIXTURE> 12 4.882184e-002
<MEAN> 9
 -7.762456e+000 -1.225077e+001 1.388592e+000 -3.688950e+001 1.261497e+002 -1.846215e+002 6.187860e-002 3.764508e-001 1.589587e-001
<VARIANCE> 9
 2.521275e-001 3.371764e-001 1.176676e-001 3.570748e+001 1.822358e+002 1.300468e+003 1.732568e-003 5.782502e-004 1.938003e-004
<GCONST> 5.524837e+000
<MIXTURE> 13 2.730058e-002
<MEAN> 9
 -1.085542e+001 -1.115663e+001 8.995984e-001 -4.150407e+001 1.294512e+002 -2.563415e+002 1.769697e-001 3.606061e-001 7.823129e-002
<VARIANCE> 9
 8.407612e-001 3.371764e-001 8.770825e-002 2.977951e+001 3.380453e+002 1.210095e+002 8.497703e-004 5.782502e-004 1.938003e-004
<GCONST> 3.784698e+000
<MIXTURE> 14 2.729770e-002
<MEAN> 9
 -5.847361e+000 -1.071881e+001 1.678684e+000 -4.306923e+001 1.582109e+002 -4.060783e+001 -2.606077e-002 3.645459e-001 1.755109e-001
<VARIANCE> 9
 1.491142e-001 3.371764e-001 6.976298e-002 2.977951e+001 1.096718e+002 1.827646e+002 4.762525e-004 5.782502e-004 1.938003e-004
<GCONST> 5.338125e-001
<MIXTURE> 15 6.268196e-002
<MEAN> 9
 -6.655186e+000 -8.687157e+000 2.478428e+000 -3.144861e+001 2.405445e+000 -1.657224e+002 2.200087e-001 3.431205e-001 1.711630e-001
<VARIANCE> 9
 6.213350e-001 1.119641e+000 1.000273e-001 7.367750e+001 7.867985e+002 1.210095e+002 2.019750e-003 5.782502e-004 1.938003e-004
<GCONST> 7.430278e+000
<MIXTURE> 16 2.730316e-002
<MEAN> 9
 -9.670497e+000 -1.175909e+001 1.112547e+000 -5.892458e+001 -6.294012e-001 -2.008473e+002 8.575235e-002 3.709086e-001 1.119074e-001
<VARIANCE> 9
 1.937778e+000 3.371764e-001 6.976298e-002 5.493731e+001 6.226730e+002 6.321261e+002 7.364795e-004 5.782502e-004 1.938003e-004
<GCONST> 7.124122e+000
<MIXTURE> 17 6.125456e-002
<MEAN> 9
 -1.012567e+001 -5.034668e+000 1.691978e+000 1.116460e+001 5.977559e+001 -2.842062e+002 3.830070e-001 2.175646e-001 -1.011257e-002
<VARIANCE> 9
 8.293374e-001 1.149224e+000 6.512688e-001 3.757007e+001 2.048917e+003 1.210095e+002 1.255403e-003 2.451570e-003 1.222142e-003
<GCONST> 1.271269e+001
<MIXTURE> 18 2.730106e-002
<MEAN> 9
 -1.028114e+001 -8.795143e+000 1.710831e+000 -1.955246e+001 1.138006e+002 -2.761993e+002 2.739404e-001 3.424233e-001 3.639400e-002
<VARIANCE> 9
 2.378127e-001 6.870520e-001 6.976298e-002 7.985546e+001 3.680466e+001 1.210095e+002 4.762525e-004 5.782502e-004 1.938003e-004
<GCONST> 1.194587e+000
<MIXTURE> 19 1.820039e-002
<MEAN> 9
 -1.068072e+001 -8.951807e+000 3.000000e+000 -2.658537e+001 -5.521341e+001 -2.887805e+002 2.659091e-001 3.413636e-001 1.204082e-001
<VARIANCE> 9
 2.784476e+000 3.371764e-001 6.976298e-002 2.977951e+001 5.855983e+001 1.210095e+002 4.762525e-004 5.782502e-004 1.938003e-004
<GCONST> 2.421142e+000
<MIXTURE> 20 4.721287e-002
<MEAN> 9
 -5.798668e+000 -9.675150e+000 1.869313e+000 -4.361927e+001 5.753719e+001 -4.273790e+001 1.146294e-002 3.721487e-001 1.427112e-001
<VARIANCE> 9
 1.491142e-001 3.371764e-001 6.976298e-002 2.977951e+001 3.817295e+001 1.210095e+002 4.762525e-004 5.782502e-004 1.938003e-004
<GCONST> -9.338813e-001
<MIXTURE> 21 1.819428e-002
<MEAN> 9
 -1.146956e+001 -9.813370e+000 3.638485e+000 5.061677e+000 3.189073e+002 -3.933265e+001 -1.454745e-002 3.613633e-001 1.693864e-001
<VARIANCE> 9
 1.394106e+000 3.371764e-001 6.976298e-002 2.977951e+001 3.213708e+002 1.517103e+002 4.762525e-004 5.782502e-004 1.938003e-004
<GCONST> 3.657987e+000
<MIXTURE> 22 5.460383e-002
<MEAN> 9
 -5.684690e+000 -1.262641e+001 2.086366e+000 -4.249066e+001 5.595781e+001 -7.149532e+001 1.242654e-002 3.580310e-001 2.620739e-001
<VARIANCE> 9
 3.723838e-001 2.104261e+000 1.601217e+001 2.977951e+001 2.582676e+003 4.043742e+002 4.762525e-004 5.782502e-004 1.938003e-004
<GCONST> 1.266937e+001
<MIXTURE> 23 2.731862e-002
<MEAN> 9
 -9.337448e+000 -1.318382e+001 3.043979e+000 -3.971393e+001 2.608121e+001 -2.256973e+002 8.853945e-002 3.733366e-001 1.397850e-001
<VARIANCE> 9
 9.505323e-001 3.371764e-001 7.552669e-002 2.977951e+001 3.762648e+001 4.974207e+002 7.922693e-004 5.782502e-004 1.938003e-004
<GCONST> 2.905911e+000
<MIXTURE> 24 5.494208e-002
<MEAN> 9
 -8.629530e+000 -1.099789e+001 2.333934e+000 -3.623191e+001 3.473694e+001 -2.393057e+002 1.635929e-001 3.737916e-001 1.094005e-001
<VARIANCE> 9
 4.412461e-001 3.371764e-001 1.305340e-001 1.699995e+002 3.723873e+002 7.113935e+002 7.014664e-004 5.782502e-004 4.279926e-004
<GCONST> 7.748183e+000
<TRANSP> 8
 0.000000e+000 1.000000e+000 0.000000e+000 0.000000e+000 0.000000e+000 0.000000e+000 0.000000e+000 0.000000e+000
 0.000000e+000 9.305571e-001 6.944286e-002 0.000000e+000 0.000000e+000 0.000000e+000 0.000000e+000 0.000000e+000
 0.000000e+000 0.000000e+000 9.358965e-001 6.410354e-002 0.000000e+000 0.000000e+000 0.000000e+000 0.000000e+000
 0.000000e+000 0.000000e+000 0.000000e+000 9.528259e-001 4.717408e-002 0.000000e+000 0.000000e+000 0.000000e+000
 0.000000e+000 0.000000e+000 0.000000e+000 0.000000e+000 9.780622e-001 2.193779e-002 0.000000e+000 0.000000e+000
 0.000000e+000 0.000000e+000 0.000000e+000 0.000000e+000 0.000000e+000 9.630157e-001 3.698429e-002 0.000000e+000
 0.000000e+000 0.000000e+000 0.000000e+000 0.000000e+000 0.000000e+000 0.000000e+000 9.544994e-001 4.550061e-002
 0.000000e+000 0.000000e+000 0.000000e+000 0.000000e+000 0.000000e+000 0.000000e+000 0.000000e+000 0.000000e+000
<ENDHMM>
~h "GN"
<BEGINHMM>
<NUMSTATES> 8
<STATE> 2
<NUMMIXES> 24
<MIXTURE> 1 3.790875e-002
<MEAN> 9
 -8.915730e+000 -1.107226e+001 1.355330e+000 5.012169e+001 1.250917e+002 1.477151e+002 7.500135e-002 3.763648e-001 1.642856e-001
<VARIANCE> 9
 3.775587e-001 3.371764e-001 7.011541e-001 2.977951e+001 3.680466e+001 2.408172e+002 4.762525e-004 5.782502e-004 1.938003e-004
<GCONST> 2.954425e+000
<MIXTURE> 2 1.895651e-002
<MEAN> 9
 -1.384337e+001 -5.746988e+000 -3.891566e+000 -7.987805e+001 8.231707e+001 2.643293e+002 3.500000e-001 3.090909e-001 2.316326e-001
<VARIANCE> 9
 1.491142e-001 3.371764e-001 6.976298e-002 2.977951e+001 3.680466e+001 1.210095e+002 4.762525e-004 5.782502e-004 1.938003e-004
<GCONST> -9.703841e-001
<MIXTURE> 3 5.686949e-002
<MEAN> 9
 -7.831326e+000 -1.084337e+001 1.385542e+000 2.199187e+001 -5.786583e+001 1.790041e+002 8.333335e-002 3.903030e-001 2.098639e-001
<VARIANCE> 9
 3.673485e-001 3.371764e-001 6.976298e-002 2.977951e+001 5.359606e+002 1.568568e+002 4.762525e-004 5.782502e-004 1.938003e-004
<GCONST> 2.869115e+000
<MIXTURE> 4 3.797241e-002
<MEAN> 9
 -1.061987e+001 -7.304309e+000 -3.120908e+000 -3.476573e+001 3.486960e+001 2.560499e+002 3.036426e-001 3.340223e-001 2.131746e-001
<VARIANCE> 9
 1.491142e-001 3.371764e-001 8.363338e-001 9.854534e+001 1.341249e+002 1.210095e+002 4.762525e-004 6.245025e-004 1.938003e-004
<GCONST> 4.080331e+000
<MIXTURE> 5 5.684280e-002
<MEAN> 9
 -7.028510e+000 -1.186372e+001 2.915162e+000 5.209264e+001 7.568882e+001 1.291926e+002 3.152037e-002 3.715189e-001 1.843535e-001
<VARIANCE> 9
 2.386575e-001 1.778463e+000 3.839513e-001 2.977951e+001 7.009376e+002 3.297685e+003 4.762525e-004 5.782502e-004 1.938003e-004
<GCONST> 9.120143e+000
<MIXTURE> 6 1.899172e-002
<MEAN> 9
 -9.748745e+000 -7.662504e+000 -2.433604e+000 -1.677221e+001 5.078091e+001 2.295734e+002 2.481588e-001 3.654053e-001 1.673386e-001
<VARIANCE> 9
 1.491142e-001 3.371764e-001 6.976298e-002 2.977951e+001 3.680466e+001 1.210095e+002 4.762525e-004 5.782502e-004 1.938003e-004
<GCONST> -9.703841e-001
<MIXTURE> 7 5.660184e-002
<MEAN> 9
 -8.855935e+000 -4.598328e+000 -2.790177e+000 -4.928117e+001 3.816717e+000 2.293949e+002 3.532330e-001 2.813124e-001 1.887369e-001
<VARIANCE> 9
 1.491142e-001 4.951194e-001 6.976298e-002 2.977951e+001 3.680466e+001 1.210095e+002 5.167417e-004 5.782502e-004 1.938003e-004
<GCONST> -5.045958e-001
<MIXTURE> 8 5.688574e-002
<MEAN> 9
 -1.029341e+001 -1.016855e+001 -1.457927e+000 3.180442e+001 7.320770e+001 2.249151e+002 1.342474e-001 3.718183e-001 1.710875e-001
<VARIANCE> 9
 2.746011e-001 3.371764e-001 1.027599e+000 2.977951e+001 3.302430e+003 1.677648e+003 4.762525e-004 5.782502e-004 3.008000e-004
<GCONST> 9.895785e+000
<MIXTURE> 9 3.791301e-002
<MEAN> 9
