~o
<STREAMINFO> 1 9
<VECSIZE> 9<NULLD><USER><DIAGC>
~h "GA"
<BEGINHMM>
<NUMSTATES> 8
<STATE> 2
<NUMMIXES> 10
<MIXTURE> 1 1.537407e-001
<MEAN> 9
 -8.986332e+000 -1.000682e+001 4.923981e-001 5.369510e+001 8.916592e+001 1.559721e+002 1.020695e-001 3.727203e-001 1.625536e-001
<VARIANCE> 9
 5.373385e-001 3.371764e-001 9.446228e-001 1.963701e+002 8.201936e+001 1.644983e+003 1.042867e-003 5.782502e-004 1.938003e-004
<GCONST> 8.998122e+000
<MIXTURE> 2 1.024609e-001
<MEAN> 9
 -9.794607e+000 -6.107611e+000 -3.010599e+000 -5.175555e+001 3.626434e+001 2.618534e+002 3.176184e-001 3.055030e-001 1.859356e-001
<VARIANCE> 9
 1.491142e-001 8.670888e-001 3.026672e-001 2.503072e+002 3.680466e+001 1.210095e+002 1.791340e-003 5.782502e-004 1.938003e-004
<GCONST> 4.895320e+000
<MIXTURE> 3 1.070546e-001
<MEAN> 9
 -1.069108e+001 -8.536804e+000 2.682377e-001 -4.060594e+001 -6.665450e+001 2.221162e+002 2.631407e-001 3.462827e-001 1.572478e-001
<VARIANCE> 9
 4.149290e-001 7.931522e-001 1.139552e-001 4.647956e+002 5.436215e+001 5.876028e+002 4.593019e-003 1.297695e-003 1.938003e-004
<GCONST> 9.191810e+000
<MIXTURE> 4 1.279115e-001
<MEAN> 9
 -7.819480e+000 -1.092320e+001 1.199813e+000 7.912422e+000 -4.553461e+001 1.750292e+002 9.842288e-002 3.732628e-001 1.634953e-001
<VARIANCE> 9
 8.944604e-001 1.619509e+000 1.011842e-001 4.540970e+002 2.357928e+003 4.457321e+002 1.985938e-003 5.782502e-004 1.938003e-004
<GCONST> 1.237838e+001
<MIXTURE> 5 8.138631e-002
<MEAN> 9
 -1.093078e+001 -8.858296e+000 -1.755193e+000 1.277571e+001 7.849909e+001 2.286594e+002 1.969967e-001 3.571398e-001 1.545004e-001
<VARIANCE> 9
 8.184543e-001 4.734122e-001 4.888763e-001 3.230456e+002 2.780447e+002 6.467932e+002 1.043770e-003 5.782502e-004 1.938003e-004
<GCONST> 9.885621e+000
<MIXTURE> 6 9.223209e-002
<MEAN> 9
 -7.636402e+000 -1.013146e+001 1.447482e-001 1.634206e+000 -4.083796e+001 1.256800e+002 5.681352e-002 3.712684e-001 1.536916e-001
<VARIANCE> 9
 1.111948e+000 3.371764e-001 1.619833e-001 8.648514e+001 2.397407e+003 5.570002e+002 9.900312e-004 5.782502e-004 1.938003e-004
<GCONST> 9.382319e+000
<MIXTURE> 7 7.703164e-002
<MEAN> 9
 -1.038567e+001 -5.679266e+000 -3.401325e+000 -2.281554e+001 5.254599e+001 2.255250e+002 3.193750e-001 3.030321e-001 1.595193e-001
<VARIANCE> 9
 1.491142e-001 7.429268e-001 6.976298e-002 8.837883e+001 3.680466e+001 1.210095e+002 5.370862e-004 5.782502e-004 1.938003e-004
<GCONST> 1.027631e+000
<MIXTURE> 8 7.312468e-002
<MEAN> 9
 -1.190347e+001 -8.488832e+000 -5.601171e-001 -5.278248e+001 -7.443336e+001 2.443069e+002 3.086161e-001 3.211631e-001 1.555413e-001
<VARIANCE> 9
 5.285048e-001 3.371764e-001 4.254942e-001 1.374890e+002 6.185175e+001 2.438317e+002 1.429383e-003 7.681865e-004 1.938003e-004
<GCONST> 6.235629e+000
<MIXTURE> 9 9.820361e-002
<MEAN> 9
 -1.092531e+001 -8.318465e+000 -2.281269e+000 1.002383e+001 6.871442e+001 2.238866e+002 2.209946e-001 3.426782e-001 1.521456e-001
<VARIANCE> 9
 9.223171e-001 3.615346e-001 2.363006e-001 3.602121e+002 1.021051e+002 6.147438e+002 8.721516e-004 5.782502e-004 1.938003e-004
<GCONST> 7.885148e+000
<MIXTURE> 10 8.685410e-002
<MEAN> 9
 -8.143574e+000 -1.034397e+001 1.586355e-002 5.225085e+000 -7.288692e+001 1.154650e+002 4.691770e-002 3.693976e-001 1.587249e-001
<VARIANCE> 9
 8.531137e-001 4.115405e-001 1.467614e-001 1.279634e+002 2.862322e+003 1.021972e+003 1.302705e-003 5.782502e-004 1.938003e-004
<GCONST> 1.066836e+001
<STATE> 3
<NUMMIXES> 10
<MIXTURE> 1 7.025973e-002
<MEAN> 9
 -5.849489e+000 -3.318885e-002 2.108452e+000 -7.173898e+001 1.004886e+001 1.743647e+002 5.238635e-001 -5.363166e-002 2.188774e-001
<VARIANCE> 9
 4.209935e-001 3.371764e-001 6.976298e-002 4.531990e+001 1.689397e+002 6.027148e+002 4.762525e-004 9.036823e-004 1.938003e-004
<GCONST> 4.063409e+000
<MIXTURE> 2 1.264376e-001
<MEAN> 9
 -8.951080e+000 -2.274156e+000 -7.888927e-001 -9.399575e+001 2.409555e+001 2.166907e+002 4.852033e-001 1.136410e-001 2.125974e-001
<VARIANCE> 9
 5.328228e-001 4.812995e-001 7.661141e+000 1.323945e+002 2.611020e+002 2.337620e+002 7.689130e-004 1.605327e-003 4.167837e-004
<GCONST> 1.173332e+001
<MIXTURE> 3 9.192280e-002
<MEAN> 9
 -6.793983e+000 2.842184e+000 -2.119210e+000 -1.596230e+002 1.372725e+001 7.837526e+001 5.020925e-001 -7.800549e-002 2.869521e-001
<VARIANCE> 9
 2.284258e-001 1.176492e+000 4.100626e+000 4.661296e+002 4.019119e+002 5.257534e+002 4.762525e-004 5.782502e-004 2.504238e-004
<GCONST> 1.164613e+001
<MIXTURE> 4 7.026463e-002
<MEAN> 9
 -9.960929e+000 -4.804296e+000 3.433025e-001 -9.132553e+001 -3.314090e+001 2.544213e+002 4.374976e-001 2.013666e-001 1.681117e-001
<VARIANCE> 9
 8.466396e-001 7.044590e-001 2.927801e-001 4.240196e+001 3.680466e+001 1.210095e+002 5.976490e-004 1.129109e-003 1.938003e-004
<GCONST> 4.186929e+000
<MIXTURE> 5 1.108044e-001
<MEAN> 9
 -6.849813e+000 2.028792e+000 -3.290146e+000 -1.399739e+002 4.892208e+000 1.282056e+002 5.013707e-001 -4.720189e-003 2.744985e-001
<VARIANCE> 9
 4.111592e-001 6.121707e-001 3.245407e-001 7.444661e+002 1.144590e+002 3.938142e+002 4.762525e-004 9.140181e-004 3.702319e-004
<GCONST> 8.816193e+000
<MIXTURE> 6 9.915063e-002
<MEAN> 9
 -7.428529e+000 8.594571e-001 2.730924e+000 -1.401471e+002 -5.098373e+001 8.978725e+000 5.066821e-001 -1.368655e-001 2.398969e-001
<VARIANCE> 9
 1.176828e+000 1.198073e+000 5.492229e+000 1.881530e+003 1.114267e+002 1.592851e+002 4.762525e-004 5.782502e-004 1.488525e-003
<GCONST> 1.429663e+001
<MIXTURE> 7 1.163342e-001
<MEAN> 9
 -9.141196e+000 -3.375751e+000 -4.296360e+000 -7.600060e+001 1.918340e+001 2.269191e+002 4.105459e-001 2.188288e-001 2.036421e-001
<VARIANCE> 9
 3.308272e-001 3.371764e-001 1.312150e-001 5.132477e+002 1.552428e+002 1.753481e+002 4.762525e-004 6.309451e-004 3.568197e-004
<GCONST> 5.813055e+000
<MIXTURE> 8 1.349862e-001
<MEAN> 9
 -7.677253e+000 -8.885375e-002 -3.831006e+000 -1.287654e+002 1.182994e+001 1.761303e+002 4.850609e-001 8.091723e-002 2.617238e-001
<VARIANCE> 9
 4.590682e-001 9.574289e-001 6.976298e-002 6.029446e+002 1.593211e+002 5.521346e+002 4.762525e-004 1.488527e-003 3.456041e-004
<GCONST> 8.712971e+000
<MIXTURE> 9 9.266268e-002
<MEAN> 9
 -8.104814e+000 -2.815244e-001 4.925503e+000 -1.467939e+002 -5.602100e+001 -1.468624e+001 5.132412e-001 -1.325279e-001 1.953396e-001
<VARIANCE> 9
 1.491142e-001 3.980719e-001 2.059298e+000 1.080700e+003 7.623225e+001 1.455891e+002 4.762525e-004 5.782502e-004 1.090157e-003
<GCONST> 8.812531e+000
<MIXTURE> 10 8.717704e-002
<MEAN> 9
 -7.243965e+000 2.887346e+000 -1.248867e+000 -1.654401e+002 -5.841190e+000 5.291076e+001 5.014439e-001 -1.009792e-001 2.820366e-001
<VARIANCE> 9
 4.170325e-001 1.531197e+000 4.378666e+000 1.941200e+002 6.405547e+002 4.309460e+002 4.762525e-004 5.782502e-004 2.417572e-004
<GCONST> 1.193325e+001
<STATE> 4
<NUMMIXES> 10
<MIXTURE> 1 1.112126e-001
<MEAN> 9
 -8.683041e+000 4.954705e+000 1.387389e+000 -9.249795e+000 5.528778e+001 3.862346e+001 4.955451e-001 -1.847432e-001 2.397782e-001
<VARIANCE> 9
 1.874277e-001 3.371764e-001 2.210359e-001 4.990870e+001 8.827965e+001 1.270945e+002 4.762525e-004 5.782502e-004 3.733808e-004
<GCONST> 2.507612e+000
<MIXTURE> 2 1.117395e-001
<MEAN> 9
 -9.156666e-001 5.208650e+000 6.015656e+000 -2.481133e+001 -2.349357e+002 1.195763e+002 3.891892e-001 -2.670880e-001 -6.448084e-002
<VARIANCE> 9
 6.295544e+000 3.371764e-001 1.435810e+000 8.128001e+001 6.548599e+003 1.600503e+002 2.077364e-003 1.981546e-003 7.170762e-003
<GCONST> 1.857743e+001
<MIXTURE> 3 7.687840e-002
<MEAN> 9
 -3.671986e+000 9.115570e-001 2.571615e+000 -3.493168e+001 -2.867426e+001 6.320278e+001 5.116640e-001 -1.427157e-001 1.968921e-001
<VARIANCE> 9
 3.361535e-001 3.371764e-001 6.976298e-002 2.178377e+002 1.441050e+002 1.034153e+003 4.762525e-004 5.782502e-004 1.938003e-004
<GCONST> 5.342788e+000
<MIXTURE> 4 7.129351e-002
<MEAN> 9
 -1.028323e+001 5.471385e+000 1.573790e+000 -4.398843e+001 -8.069403e+001 7.010780e+001 4.693615e-001 -2.332147e-001 2.400711e-001
<VARIANCE> 9
 2.065125e+000 3.371764e-001 2.039502e+000 1.190437e+002 1.737074e+004 2.568181e+002 4.762525e-004 5.782502e-004 2.721354e-003
<GCONST> 1.597035e+001
<MIXTURE> 5 1.499476e-001
<MEAN> 9
 -8.613995e+000 4.688403e+000 2.872345e+000 6.643167e+000 1.053909e+001 -1.362956e-001 5.093234e-001 -1.583957e-001 1.976337e-001
<VARIANCE> 9
 1.491142e-001 3.371764e-001 7.850005e-002 2.977951e+001 3.680466e+001 1.210095e+002 4.762525e-004 5.782502e-004 1.938003e-004
<GCONST> -8.523879e-001
<MIXTURE> 6 1.229253e-001
<MEAN> 9
 -1.146808e+001 2.852139e+000 3.604881e+000 -1.734757e+001 -1.105741e+002 5.412990e+001 5.035645e-001 -1.643672e-001 1.459493e-001
<VARIANCE> 9
 7.850047e-001 5.320161e-001 1.036826e+000 2.977951e+001 2.927195e+003 3.422385e+002 4.762525e-004 5.782502e-004 5.030083e-003
<GCONST> 1.251765e+001
<MIXTURE> 7 9.769340e-002
<MEAN> 9
 -1.042084e+001 7.962705e-001 4.713992e+000 -4.215450e+001 9.299768e-001 1.699000e+001 5.121068e-001 -1.374937e-001 1.937670e-001
<VARIANCE> 9
 4.117831e+000 3.371764e-001 2.508667e+000 2.236174e+002 6.528027e+002 2.298969e+002 4.762525e-004 5.782502e-004 2.728668e-003
<GCONST> 1.410866e+001
<MIXTURE> 8 9.528253e-002
<MEAN> 9
 -4.341205e+000 4.517221e+000 4.682099e+000 -3.944561e+001 -3.727966e+002 9.955079e+001 4.358816e-001 -2.315133e-001 -1.225848e-002
<VARIANCE> 9
 1.616728e+001 8.672870e-001 1.610709e+000 1.033276e+002 3.049719e+003 1.271210e+002 8.870663e-004 3.006263e-003 6.930014e-003
<GCONST> 1.935748e+001
<MIXTURE> 9 8.245275e-002
<MEAN> 9
 -7.375052e+000 3.729183e+000 2.860265e+000 1.732996e+000 8.708174e+000 -1.153890e+000 5.082974e-001 -1.640808e-001 1.875222e-001
<VARIANCE> 9
 1.481908e+000 7.647672e-001 6.976298e-002 2.977951e+001 3.680466e+001 1.210095e+002 4.762525e-004 5.782502e-004 1.938003e-004
<GCONST> 2.144954e+000
<MIXTURE> 10 8.057415e-002
<MEAN> 9
 -1.047173e+001 5.577171e+000 1.430335e+000 -5.034452e+001 -1.453006e+002 7.193445e+001 4.629195e-001 -2.499283e-001 2.231451e-001
<VARIANCE> 9
 2.873710e+000 3.593203e-001 1.648139e+000 1.268109e+002 2.349955e+004 1.501311e+002 4.762525e-004 7.613372e-004 2.497196e-003
<GCONST> 1.616896e+001
<STATE> 5
<NUMMIXES> 10
<MIXTURE> 1 7.194546e-002
<MEAN> 9
 2.509279e+000 5.190700e+000 7.505414e+000 2.174292e+001 -3.426198e+001 7.907854e+001 2.092891e-001 -2.713917e-001 -2.289263e-001
<VARIANCE> 9
 4.253150e-001 3.371764e-001 1.261076e-001 2.977951e+001 1.806112e+003 4.052045e+002 6.003111e-004 5.782502e-004 1.938003e-004
<GCONST> 6.003097e+000
<MIXTURE> 2 1.162907e-001
<MEAN> 9
 -3.516428e+000 3.639942e+000 7.840003e+000 8.946361e+000 7.428658e+000 1.309308e+000 3.712232e-001 -1.215215e-001 -2.061594e-001
<VARIANCE> 9
 1.219350e+000 3.371764e-001 1.320519e-001 2.977951e+001 3.680466e+001 1.210095e+002 4.762525e-004 5.782502e-004 1.938003e-004
<GCONST> 1.769069e+000
<MIXTURE> 3 1.340172e-001
<MEAN> 9
 1.989537e+000 5.889453e+000 7.140394e+000 8.529553e+000 -5.752663e+001 -4.826785e+001 3.288499e-001 -3.205364e-001 -9.502622e-002
<VARIANCE> 9
 1.798955e+000 3.371764e-001 3.362542e-001 5.458912e+001 9.882797e+002 5.437362e+003 4.762525e-004 5.782502e-004 3.138742e-004
<GCONST> 1.127633e+001
<MIXTURE> 4 8.629726e-002
<MEAN> 9
 -6.054069e+000 3.168957e+000 8.582377e+000 -1.756828e+001 -2.338166e+001 -1.358884e+002 3.376380e-001 -1.687338e-001 -2.079091e-001
<VARIANCE> 9
 8.090257e+000 9.847501e-001 3.695899e-001 2.977951e+001 1.687302e+003 1.957604e+003 1.200394e-003 1.128516e-003 5.518039e-004
<GCONST> 1.501073e+001
<MIXTURE> 5 1.218145e-001
<MEAN> 9
 3.930295e+000 4.774176e+000 7.351215e+000 -1.574118e+000 4.034576e+000 -4.192672e+001 1.969078e-001 -2.888408e-001 -2.219976e-001
<VARIANCE> 9
 3.738803e-001 3.371764e-001 2.955888e-001 2.192176e+002 3.814890e+001 4.459934e+003 4.762525e-004 5.782502e-004 1.938003e-004
<GCONST> 7.031840e+000
<MIXTURE> 6 6.861195e-002
<MEAN> 9
 -5.532048e+000 2.889946e+000 8.309247e+000 -3.169786e+000 -8.279327e+000 -3.781501e+001 3.482395e-001 -1.215984e-001 -2.193229e-001
<VARIANCE> 9
 4.644887e+000 5.479347e-001 8.944270e-001 2.977951e+001 2.404190e+002 2.262154e+002 4.762525e-004 6.773691e-004 2.422394e-004
<GCONST> 8.388739e+000
<MIXTURE> 7 5.915402e-002
<MEAN> 9
 -1.297908e+000 5.008969e+000 7.142987e+000 -6.587042e+000 -8.062772e+001 -7.241922e+001 3.242619e-001 -2.398602e-001 -1.717771e-001
<VARIANCE> 9
 1.378261e+000 3.856211e-001 5.843414e-001 1.657178e+002 1.625837e+003 1.973053e+004 1.592164e-003 8.066804e-004 2.296881e-003
<GCONST> 1.812409e+001
<MIXTURE> 8 1.500509e-001
<MEAN> 9
 -2.759469e+000 3.375368e+000 7.924304e+000 5.081358e+000 2.551240e+000 -8.038217e+000 3.392992e-001 -1.195711e-001 -2.279007e-001
<VARIANCE> 9
 1.151589e+000 4.240186e-001 5.606600e-001 2.977951e+001 3.680466e+001 1.210095e+002 4.762525e-004 5.782502e-004 2.565041e-004
<GCONST> 3.667297e+000
<MIXTURE> 9 1.097245e-001
<MEAN> 9
 5.506470e-001 5.812810e+000 6.931645e+000 6.236362e-001 -7.278417e+001 -4.004448e+001 3.411733e-001 -3.100777e-001 -9.190968e-002
<VARIANCE> 9
 4.334513e+000 3.371764e-001 5.332289e-001 1.005746e+002 1.320583e+003 1.141834e+004 4.762525e-004 6.211503e-004 1.128998e-003
<GCONST> 1.561133e+001
<MIXTURE> 10 8.209332e-002
<MEAN> 9
 -6.557920e+000 2.972372e+000 8.235434e+000 -2.152095e+001 -4.036556e+001 -1.432127e+002 3.452801e-001 -1.768391e-001 -2.006453e-001
<VARIANCE> 9
 1.056254e+001 1.404797e+000 3.505023e-001 3.677128e+001 1.875069e+003 1.258353e+003 1.463768e-003 1.226212e-003 5.387158e-004
<GCONST> 1.571150e+001
<STATE> 6
<NUMMIXES> 10
<MIXTURE> 1 6.156437e-002
<MEAN> 9
 -2.195468e+000 7.684184e-001 4.640796e+000 -3.531183e+001 5.340350e+001 -1.055588e+002 3.981136e-001 -4.811598e-002 -1.791815e-001
<VARIANCE> 9
 1.491142e-001 3.371764e-001 6.976298e-002 1.549832e+002 4.853976e+002 3.349857e+002 4.762525e-004 5.782502e-004 1.938003e-004
<GCONST> 4.276675e+000
<MIXTURE> 2 8.362782e-002
<MEAN> 9
 -8.551250e+000 -4.410901e+000 4.669077e+000 -6.343143e+001 1.321591e+002 -2.338446e+002 4.086998e-001 1.766547e-001 -3.438538e-002
<VARIANCE> 9
 1.623313e+000 1.995429e+000 1.534945e-001 2.977951e+001 3.384173e+002 1.210095e+002 4.762525e-004 1.722665e-003 1.415167e-003
<GCONST> 9.282145e+000
<MIXTURE> 3 1.154827e-001
<MEAN> 9
 -4.668268e+000 -6.324214e-001 4.832421e+000 -5.762795e+001 1.009966e+002 -1.806698e+002 4.225900e-001 4.532190e-002 -1.327092e-001
<VARIANCE> 9
 9.774824e-001 4.520483e-001 6.976298e-002 7.267994e+001 9.180488e+002 4.048562e+002 4.762525e-004 6.215026e-004 3.120770e-004
<GCONST> 7.068153e+000
<MIXTURE> 4 1.041376e-001
<MEAN> 9
 -8.193267e+000 -5.607500e+000 6.630577e+000 -9.156026e+001 6.213991e+001 -2.431868e+002 3.472078e-001 2.326715e-001 -6.156110e-002
<VARIANCE> 9
 1.870101e+000 6.219273e-001 1.392425e-001 3.334357e+001 8.383311e+002 1.210095e+002 4.762525e-004 5.782502e-004 2.601744e-004
<GCONST> 6.395338e+000
<MIXTURE> 5 1.225396e-001
<MEAN> 9
 -2.101772e+000 1.515028e+000 4.937188e+000 -7.668631e+000 4.383154e+001 -5.935215e+001 3.733764e-001 -9.510034e-002 -2.034502e-001
<VARIANCE> 9
 4.089975e-001 3.371764e-001 4.752263e-001 3.073999e+002 1.140928e+003 6.784321e+002 4.762525e-004 5.782502e-004 1.938003e-004
<GCONST> 9.449515e+000
<MIXTURE> 6 1.045292e-001
<MEAN> 9
 -7.781240e+000 -7.951721e+000 6.206463e+000 -9.449747e+001 5.112289e+001 -2.380435e+002 2.781731e-001 3.112936e-001 -5.101133e-003
<VARIANCE> 9
 1.793380e+000 6.914859e-001 2.441225e-001 2.977951e+001 4.190039e+002 1.210095e+002 6.844651e-004 5.782502e-004 2.061235e-004
<GCONST> 6.344159e+000
<MIXTURE> 7 1.183201e-001
<MEAN> 9
 -4.255550e+000 -2.809537e-001 6.244958e+000 -8.427832e+001 5.308853e+001 -1.908015e+002 3.917210e-001 3.148152e-002 -1.700335e-001
<VARIANCE> 9
 4.553287e-001 1.207391e+000 3.266137e-001 8.232280e+001 4.113625e+002 5.333702e+002 4.762525e-004 2.969336e-003 6.401437e-004
<GCONST> 1.071019e+001
<MIXTURE> 8 1.033022e-001
<MEAN> 9
 -7.562175e+000 -3.895143e+000 5.680525e+000 -7.971558e+001 9.241179e+001 -2.340466e+002 3.808100e-001 1.755164e-001 -7.435369e-002
<VARIANCE> 9
 1.722771e+000 3.601789e+000 3.485138e-001 1.366231e+002 3.245598e+002 1.210095e+002 4.762525e-004 2.929747e-003 4.906432e-003
<GCONST> 1.400814e+001
<MIXTURE> 9 1.235969e-001
<MEAN> 9
 -1.447476e+000 1.494008e+000 5.202070e+000 -2.139501e+001 1.929944e+001 -7.139924e+001 3.592849e-001 -1.154571e-001 -2.123190e-001
<VARIANCE> 9
 2.949795e-001 3.371764e-001 2.225420e-001 5.289949e+002 5.470007e+002 1.119231e+003 4.762525e-004 6.913306e-004 1.938003e-004
<GCONST> 8.850947e+000
<MIXTURE> 10 6.289954e-002
<MEAN> 9
 -2.282954e+000 7.430310e-001 4.584258e+000 -4.076301e+001 4.790543e+001 -1.089192e+002 4.019539e-001 -4.618763e-002 -1.775680e-001
<VARIANCE> 9
 1.491142e-001 3.371764e-001 6.976298e-002 1.613211e+002 5.109026e+002 4.389485e+002 4.762525e-004 5.782502e-004 1.938003e-004
<GCONST> 4.638259e+000
<STATE> 7
<NUMMIXES> 10
<MIXTURE> 1 8.512881e-002
<MEAN> 9
 -5.187839e+000 -1.000392e+001 2.836095e+000 -1.709021e+001 1.819921e+002 -3.187555e+001 -2.045940e-002 3.665276e-001 1.758736e-001
<VARIANCE> 9
 2.623070e+000 4.890473e-001 1.404637e+000 3.942820e+002 4.842598e+002 1.210095e+002 4.762525e-004 5.782502e-004 1.938003e-004
<GCONST> 1.043153e+001
<MIXTURE> 2 1.397619e-001
<MEAN> 9
 -9.619843e+000 -9.695035e+000 3.213405e+000 -2.890406e+001 1.018043e+002 -2.224691e+002 2.467705e-001 3.396060e-001 1.236096e-001
<VARIANCE> 9
 1.472596e+000 9.413089e-001 3.201063e-001 4.507171e+001 2.246072e+003 1.271949e+002 3.352546e-003 6.096664e-004 5.397272e-004
<GCONST> 1.147416e+001
<MIXTURE> 3 1.794859e-001
<MEAN> 9
 -6.883534e+000 -1.092264e+001 4.630231e+000 -8.580376e+001 9.068174e+001 -2.207068e+002 1.588213e-001 3.638336e-001 7.332779e-002
<VARIANCE> 9
 1.970922e+000 7.594505e-001 3.034721e-001 4.032555e+001 1.455686e+003 3.902841e+002 2.399036e-003 5.782502e-004 6.731789e-004
<GCONST> 1.190717e+001
<MIXTURE> 4 1.287411e-001
<MEAN> 9
 -8.138290e+000 -1.101612e+001 2.205007e+000 -1.641049e+001 2.490489e+001 -1.282205e+002 7.127789e-002 3.754036e-001 1.733088e-001
<VARIANCE> 9
 1.435975e+000 3.371764e-001 6.976298e-002 2.977951e+001 1.330747e+003 1.978670e+003 1.015381e-003 5.782502e-004 1.938003e-004
<GCONST> 8.433757e+000
<MIXTURE> 5 2.669606e-002
<MEAN> 9
 -6.566931e+000 -1.276139e+001 2.560671e+000 -7.413850e+001 1.853439e+002 -2.373524e+002 1.116739e-001 3.749934e-001 1.064292e-001
<VARIANCE> 9
 9.125595e-001 3.371764e-001 3.943802e-001 1.619412e+002 2.763238e+002 1.210095e+002 1.258165e-003 5.782502e-004 2.300768e-004
<GCONST> 7.425776e+000
<MIXTURE> 6 1.169198e-001
<MEAN> 9
 -5.718948e+000 -1.009830e+001 1.469537e+000 -5.020403e+001 9.454956e+001 -3.862212e+001 -3.643245e-002 3.592327e-001 1.781825e-001
<VARIANCE> 9
 1.007833e+000 3.371764e-001 5.580767e-001 1.276339e+002 1.846459e+003 1.294244e+002 1.104724e-003 5.782502e-004 1.938003e-004
<GCONST> 9.299232e+000
<MIXTURE> 7 9.107149e-002
<MEAN> 9
 -5.968509e+000 -1.162167e+001 1.828372e+000 -5.992349e+001 1.041066e+002 -1.051964e+002 -8.205837e-004 3.682343e-001 1.548535e-001
<VARIANCE> 9
 1.217454e+000 3.371764e-001 1.605381e+000 7.333418e+001 2.430492e+002 1.531799e+003 1.009514e-003 5.782502e-004 1.938003e-004
<GCONST> 1.034388e+001
<MIXTURE> 8 5.333009e-002
<MEAN> 9
 -7.668539e+000 -1.311900e+001 1.841817e+000 -5.945900e+001 1.912183e+002 -2.263851e+002 7.155911e-002 3.719081e-001 1.227034e-001
<VARIANCE> 9
 6.621989e-001 3.371764e-001 2.672617e-001 1.212783e+002 3.794113e+002 1.745707e+002 1.089584e-003 5.782502e-004 1.938003e-004
<GCONST> 6.794923e+000
<MIXTURE> 9 9.114044e-002
<MEAN> 9
 -4.662507e+000 -9.720629e+000 1.862507e+000 -3.428796e+001 1.713287e+002 -3.599968e+001 -8.606643e-003 3.705992e-001 1.776731e-001
<VARIANCE> 9
 9.415351e-001 3.371764e-001 9.581845e-001 2.091730e+002 2.659232e+002 1.210095e+002 4.762525e-004 5.782502e-004 1.938003e-004
<GCONST> 7.419276e+000
<MIXTURE> 10 8.772451e-002
<MEAN> 9
 -6.696570e+000 -1.193559e+001 1.707114e+000 -5.753527e+001 1.006175e+002 -1.328347e+002 5.914866e-003 3.723993e-001 1.508024e-001
<VARIANCE> 9
 1.101136e+000 3.371764e-001 1.595371e+000 7.157938e+001 1.852495e+002 1.211001e+003 9.685041e-004 5.782502e-004 1.938003e-004
<GCONST> 9.664962e+000
<TRANSP> 8
 0.000000e+000 1.000000e+000 0.000000e+000 0.000000e+000 0.000000e+000 0.000000e+000 0.000000e+000 0.000000e+000
 0.000000e+000 9.230091e-001 7.699092e-002 0.000000e+000 0.000000e+000 0.000000e+000 0.000000e+000 0.000000e+000
 0.000000e+000 0.000000e+000 9.472982e-001 5.270188e-002 0.000000e+000 0.000000e+000 0.000000e+000 0.000000e+000
 0.000000e+000 0.000000e+000 0.000000e+000 9.532765e-001 4.672351e-002 0.000000e+000 0.000000e+000 0.000000e+000
 0.000000e+000 0.000000e+000 0.000000e+000 0.000000e+000 9.718609e-001 2.813914e-002 0.000000e+000 0.000000e+000
 0.000000e+000 0.000000e+000 0.000000e+000 0.000000e+000 0.000000e+000 9.476103e-001 5.238966e-002 0.000000e+000
 0.000000e+000 0.000000e+000 0.000000e+000 0.000000e+000 0.000000e+000 0.000000e+000 9.400915e-001 5.990854e-002
 0.000000e+000 0.000000e+000 0.000000e+000 0.000000e+000 0.000000e+000 0.000000e+000 0.000000e+000 0.000000e+000
<ENDHMM>
~h "GM"
<BEGINHMM>
<NUMSTATES> 8
<STATE> 2
<NUMMIXES> 10
<MIXTURE> 1 1.024155e-001
<MEAN> 9
 -1.229531e+001 -1.090555e+001 5.379722e-001 2.670588e+001 6.366031e+001 3.011612e+002 2.534908e-001 3.425745e-001 2.119045e-001
<VARIANCE> 9
 2.536200e+000 3.007114e+000 1.948039e+000 4.766064e+002 4.527795e+002 1.702551e+003 6.113272e-003 8.695316e-004 1.938003e-004
<GCONST> 1.826781e+001
<MIXTURE> 2 1.007134e-001
<MEAN> 9
 -7.096298e+000 -1.189223e+001 2.564114e+000 5.450752e+000 -1.186901e+002 1.560537e+002 7.921913e-002 3.781852e-001 2.198346e-001
<VARIANCE> 9
 5.152659e-001 1.196502e+000 1.152987e+000 1.812440e+002 1.414925e+003 1.234531e+003 1.387636e-003 5.782502e-004 1.938003e-004
<GCONST> 1.318836e+001
<MIXTURE> 3 8.760432e-002
<MEAN> 9
 -9.172520e+000 -7.979808e+000 -8.541329e-001 -4.038599e+001 -6.378852e+001 1.645979e+002 2.500489e-001 3.421862e-001 1.910372e-001
<VARIANCE> 9
 2.311480e-001 2.329969e+000 9.558460e-002 9.514546e+001 7.877390e+002 1.210095e+002 5.176959e-003 2.170894e-003 1.938003e-004
<GCONST> 9.649913e+000
<MIXTURE> 4 7.743509e-002
<MEAN> 9
 -1.045160e+001 -7.288220e+000 -2.099322e+000 -1.652469e+001 2.141868e+001 2.452406e+002 2.492729e-001 3.450198e-001 2.056824e-001
<VARIANCE> 9
 5.172145e-001 1.812164e+000 1.162234e+000 3.863469e+001 1.176239e+002 1.210095e+002 1.418414e-003 5.782502e-004 1.938003e-004
<GCONST> 7.281569e+000
<MIXTURE> 5 6.511313e-002
<MEAN> 9
 -1.000356e+001 -5.239958e+000 -1.883354e+000 -3.881434e+001 1.022839e+001 2.720001e+002 3.710522e-001 2.723520e-001 2.268453e-001
<VARIANCE> 9
 2.962606e-001 8.138286e-001 1.874303e+000 2.425509e+002 5.802854e+002 1.695184e+003 9.788992e-004 5.782502e-004 1.938003e-004
<GCONST> 1.210362e+001
<MIXTURE> 6 1.733569e-001
<MEAN> 9
 -7.790151e+000 -9.949836e+000 4.637280e-001 -8.673838e+000 -3.368393e+001 1.170625e+002 9.100983e-002 3.764995e-001 1.943877e-001
<VARIANCE> 9
 6.526704e-001 3.371764e-001 2.083259e-001 6.098601e+001 1.567890e+003 1.396048e+003 1.719495e-003 5.782502e-004 3.011940e-004
<GCONST> 1.023896e+001
<MIXTURE> 7 1.162124e-001
<MEAN> 9
 -1.014422e+001 -5.939924e+000 -9.079401e-001 -6.443126e+001 -9.554379e+001 1.799542e+002 3.617219e-001 2.814124e-001 1.924672e-001
<VARIANCE> 9
 2.210224e-001 1.166844e+000 5.331072e-001 7.658500e+001 2.312635e+002 1.210095e+002 1.944003e-003 1.279943e-003 1.938003e-004
<GCONST> 7.681874e+000
<MIXTURE> 8 1.129182e-001
<MEAN> 9
 -8.755760e+000 -1.110985e+001 3.848837e-001 -9.312210e+000 1.817561e+001 1.387724e+002 8.136770e-002 3.720233e-001 1.844506e-001
<VARIANCE> 9
 1.573942e+000 1.123131e+000 2.123787e-001 4.148668e+001 1.004130e+003 9.632265e+002 1.614913e-003 5.782502e-004 1.938003e-004
<GCONST> 1.063609e+001
<MIXTURE> 9 8.938203e-002
<MEAN> 9
 -1.062191e+001 -9.503078e+000 -9.342239e-001 -1.484586e+001 1.080756e+001 2.220340e+002 1.936230e-001 3.609466e-001 2.039130e-001
<VARIANCE> 9
 6.885806e-001 8.606741e-001 4.403597e-001 3.921803e+001 2.220099e+002 1.932914e+002 2.371967e-003 5.782502e-004 1.938003e-004
<GCONST> 7.485400e+000
<MIXTURE> 10 7.484910e-002
<MEAN> 9
 -1.033361e+001 -5.009260e+000 -2.568063e+000 -4.456260e+001 -5.587242e+000 2.495759e+002 3.592030e-001 2.768813e-001 2.234212e-001
<VARIANCE> 9
 2.946371e-001 1.451648e+000 2.762504e+000 9.901255e+001 3.527461e+002 1.210095e+002 9.726167e-004 6.435181e-004 1.938003e-004
<GCONST> 9.131822e+000
<STATE> 3
<NUMMIXES> 10
<MIXTURE> 1 1.062863e-001
<MEAN> 9
 -5.684045e+000 -3.668054e-001 1.416892e+000 -5.084303e+001 -2.033607e+001 1.272951e+002 5.164059e-001 -1.653293e-002 2.268742e-001
<VARIANCE> 9
 1.382831e+000 3.573292e-001 1.010148e+000 3.232563e+002 3.736584e+002 8.090581e+003 4.762525e-004 4.485004e-003 1.938003e-004
<GCONST> 1.494101e+001
<MIXTURE> 2 7.713030e-002
<MEAN> 9
 -7.399343e+000 -2.445271e+000 -4.761810e-001 -6.461569e+001 -8.034883e+000 2.601453e+002 4.711733e-001 1.483972e-001 2.444435e-001
<VARIANCE> 9
 1.491142e-001 2.532538e+000 9.590114e-002 5.633675e+002 6.309469e+001 3.352652e+003 5.468581e-004 1.504530e-003 2.146530e-004
<GCONST> 9.361626e+000
<MIXTURE> 3 1.036619e-001
<MEAN> 9
 -7.132401e+000 1.936185e+000 -1.762876e+000 -1.228937e+002 -1.055997e+001 1.280811e+002 5.149519e-001 1.479873e-002 2.036320e-001
<VARIANCE> 9
 2.161930e-001 3.371764e-001 4.733907e+000 4.887818e+002 2.204208e+002 7.172285e+002 4.762525e-004 1.132125e-003 4.765382e-004
<GCONST> 1.155758e+001
<MIXTURE> 4 8.534355e-002
<MEAN> 9
 -8.875460e+000 -2.344508e+000 -2.850938e+000 -7.784908e+001 -3.024788e+001 2.296699e+002 4.400281e-001 1.893115e-001 2.405541e-001
<VARIANCE> 9
 3.892803e-001 6.520647e-001 2.876824e+000 5.627897e+001 3.117862e+002 1.210095e+002 4.762525e-004 6.076113e-004 2.672705e-004
<GCONST> 7.512234e+000
<MIXTURE> 5 1.350579e-001
<MEAN> 9
 -7.772982e+000 2.790156e+000 1.455149e-001 -1.509111e+002 9.734938e+000 6.485146e+001 5.124295e-001 -1.115225e-001 2.224013e-001
<VARIANCE> 9
 1.491142e-001 6.304158e-001 3.042108e+000 3.612569e+001 1.417741e+002 6.308079e+002 4.762525e-004 1.357805e-003 1.938003e-004
<GCONST> 7.477136e+000
<MIXTURE> 6 7.765412e-002
<MEAN> 9
 -6.785103e+000 7.286175e-001 8.923043e-001 -7.554792e+001 -2.365332e+001 1.254003e+002 5.151601e-001 2.241802e-002 2.120713e-001
<VARIANCE> 9
 1.835429e-001 3.634447e-001 2.325793e-001 8.305217e+001 1.955037e+002 8.017411e+002 4.762525e-004 3.145091e-003 1.940112e-003
<GCONST> 9.100283e+000
<MIXTURE> 7 1.021659e-001
<MEAN> 9
 -7.698693e+000 -1.017618e+000 -1.987368e+000 -8.126118e+001 -5.626390e+001 1.866013e+002 4.734254e-001 1.325911e-001 1.899860e-001
<VARIANCE> 9
 4.626713e-001 1.790849e+000 5.331555e+000 4.695271e+002 8.188121e+002 1.924561e+002 4.762525e-004 1.481712e-003 9.627754e-004
<GCONST> 1.503613e+001
<MIXTURE> 8 1.205952e-001
<MEAN> 9
 -6.942031e+000 1.195212e+000 3.185041e+000 -8.992918e+001 -1.273193e+001 5.194685e+001 5.244437e-001 -2.990232e-002 1.628252e-001
<VARIANCE> 9
 4.134001e-001 7.863917e-001 1.451502e+000 1.055360e+002 1.693759e+002 7.329987e+002 4.762525e-004 5.782502e-004 1.938003e-004
<GCONST> 8.524421e+000
<MIXTURE> 9 1.110301e-001
<MEAN> 9
 -5.642930e+000 -3.065003e-001 1.972893e+000 -4.331676e+001 -3.106264e+001 7.920900e+001 5.225313e-001 -5.759032e-002 2.209209e-001
<VARIANCE> 9
 1.954735e+000 3.371764e-001 3.672515e-001 2.328528e+002 6.179448e+002 3.120469e+003 4.762525e-004 1.144073e-003 1.938003e-004
<GCONST> 1.207343e+001
<MIXTURE> 10 8.107454e-002
<MEAN> 9
 -7.019108e+000 5.428036e-001 6.641754e-001 -7.934330e+001 -2.996074e+001 1.356920e+002 5.105038e-001 3.824946e-002 2.205420e-001
<VARIANCE> 9
 2.251313e-001 4.194808e-001 2.767789e-001 1.185558e+002 1.293381e+002 6.374349e+002 4.762525e-004 3.063526e-003 2.020733e-003
<GCONST> 9.349770e+000
<STATE> 4
<NUMMIXES> 10
<MIXTURE> 1 8.988684e-002
<MEAN> 9
 -8.142965e+000 4.797481e+000 8.925419e-001 2.546793e+000 3.930939e+001 6.608117e+001 5.011138e-001 -1.635050e-001 2.572234e-001
<VARIANCE> 9
 1.258681e+000 7.483273e-001 2.111894e+000 9.537637e+001 5.915230e+002 6.001621e+002 4.762525e-004 5.782502e-004 2.508435e-004
<GCONST> 1.117061e+001
<MIXTURE> 2 1.117152e-001
<MEAN> 9
 -9.362299e+000 2.986676e+000 2.817786e+000 1.640932e+001 2.415085e+001 3.059623e+001 5.215222e-001 -9.442899e-002 2.209186e-001
<VARIANCE> 9
 1.491142e-001 3.371764e-001 4.648902e-001 2.977951e+001 9.442820e+001 1.210095e+002 4.762525e-004 5.782502e-004 1.938003e-004
<GCONST> 1.868529e+000
<MIXTURE> 3 8.416498e-002
<MEAN> 9
 -8.901722e+000 3.388485e+000 4.328732e+000 1.474698e+001 1.821676e+001 2.065743e+001 5.153996e-001 -1.367469e-001 1.918642e-001
<VARIANCE> 9
 3.739381e-001 2.228633e+000 4.681066e-001 1.993347e+002 3.856057e+002 1.210095e+002 4.762525e-004 2.448391e-003 1.938003e-004
<GCONST> 9.434657e+000
<MIXTURE> 4 1.009999e-001
<MEAN> 9
 -7.496861e+000 5.325509e+000 3.784009e-001 -1.385934e+001 2.994081e+001 5.179841e+001 4.946748e-001 -1.871813e-001 2.455796e-001
<VARIANCE> 9
 1.742604e+000 3.371764e-001 3.993027e-001 9.982493e+002 7.163889e+002 2.697340e+002 4.762525e-004 7.020776e-004 9.702289e-004
<GCONST> 1.231974e+001
<MIXTURE> 5 9.274341e-002
<MEAN> 9
 -8.221170e+000 2.852159e-001 4.718552e+000 -6.589964e+001 -5.749195e-001 4.270652e+000 5.140603e-001 -1.493441e-001 1.863963e-001
<VARIANCE> 9
 1.491142e-001 3.743000e-001 5.961519e-001 1.251304e+003 3.680466e+001 1.210095e+002 4.762525e-004 1.279023e-003 1.938003e-004
<GCONST> 5.811425e+000
<MIXTURE> 6 9.088469e-002
<MEAN> 9
 -9.651013e+000 2.967919e+000 2.611782e+000 -3.750334e+000 1.161032e+001 1.876206e+001 5.231037e-001 -1.048569e-001 2.146104e-001
<VARIANCE> 9
 3.766368e-001 9.524440e-001 2.809004e-001 2.977951e+001 9.424050e+001 2.854863e+002 4.762525e-004 5.782502e-004 1.938003e-004
<GCONST> 4.186057e+000
<MIXTURE> 7 1.253246e-001
<MEAN> 9
 -7.348730e+000 5.128694e+000 7.031456e-001 -6.146785e+001 3.429098e+001 4.984631e+001 4.781982e-001 -2.153066e-001 2.607386e-001
<VARIANCE> 9
 7.744015e-001 3.371764e-001 6.482494e-001 7.565545e+002 4.742452e+002 1.210095e+002 4.762525e-004 5.782502e-004 5.968921e-004
<GCONST> 9.822126e+000
<MIXTURE> 8 1.277841e-001
<MEAN> 9
 -9.012012e+000 4.599192e+000 1.604199e+000 7.473902e+000 2.200948e+001 5.025544e+001 5.083053e-001 -1.472872e-001 2.346212e-001
<VARIANCE> 9
 2.031331e+000 7.501163e-001 5.958595e-001 2.849128e+002 2.956973e+002 2.362695e+002 4.762525e-004 5.782502e-004 3.721378e-004
<GCONST> 1.024949e+001
<MIXTURE> 9 7.895590e-002
<MEAN> 9
 -9.099167e+000 1.475546e+000 4.948389e+000 -5.283510e+000 2.139181e+001 1.360054e+001 5.188661e-001 -1.073352e-001 1.754925e-001
<VARIANCE> 9
 1.491142e-001 2.060905e+000 1.902283e-001 3.474436e+002 1.333594e+002 1.210095e+002 4.762525e-004 3.364219e-003 1.938003e-004
<GCONST> 7.348182e+000
<MIXTURE> 10 9.754036e-002
<MEAN> 9
 -9.416617e+000 2.196830e+000 2.418475e+000 -7.368814e+000 5.899909e+000 1.635205e+001 5.230084e-001 -1.002143e-001 2.102126e-001
<VARIANCE> 9
 7.665425e-001 1.369036e+000 2.440691e-001 2.977951e+001 7.679883e+001 2.786436e+002 4.762525e-004 5.782502e-004 1.938003e-004
<GCONST> 4.890025e+000
<STATE> 5
<NUMMIXES> 10
<MIXTURE> 1 5.896570e-002
<MEAN> 9
 -4.416545e+000 7.743698e+000 5.361695e+000 -3.920831e+001 2.005270e+001 2.438361e+001 4.462699e-001 -2.597544e-001 2.942657e-001
<VARIANCE> 9
 1.338735e+001 4.877537e+000 4.045036e+001 1.923457e+003 4.462905e+003 5.087793e+002 4.762525e-004 5.782502e-004 2.122903e-003
<GCONST> 2.535733e+001
<MIXTURE> 2 1.313523e-001
<MEAN> 9
 -7.423944e+000 6.925947e+000 1.494084e+000 -1.289076e+000 -8.625137e+000 -2.212928e+000 4.407202e-001 -2.688384e-001 2.914620e-001
<VARIANCE> 9
 6.446936e-001 7.019196e-001 2.152527e+000 3.659176e+002 3.288389e+002 1.210095e+002 4.762525e-004 5.782502e-004 2.908701e-003
<GCONST> 1.206335e+001
<MIXTURE> 3 1.148406e-001
<MEAN> 9
 -7.475327e+000 -3.498049e-001 1.077023e+001 -1.018221e+002 1.189255e+001 1.524090e+001 4.464814e-001 -2.875934e-001 1.854505e-001
<VARIANCE> 9
 1.947083e+001 1.025967e+001 5.018113e+001 3.512618e+003 2.383120e+003 3.301179e+002 4.762525e-004 6.222508e-004 2.308978e-003
<GCONST> 2.639072e+001
<MIXTURE> 4 1.411922e-001
<MEAN> 9
 -7.739021e+000 5.852899e+000 1.644170e+000 1.002054e+001 -3.309027e+000 3.784182e+000 4.756972e-001 -2.363974e-001 2.339151e-001
<VARIANCE> 9
 2.327546e+000 8.169392e-001 6.848360e+000 3.237251e+003 1.191664e+003 1.237244e+002 4.762525e-004 5.782502e-004 1.938003e-004
<GCONST> 1.543742e+001
<MIXTURE> 5 9.149788e-002
<MEAN> 9
 -8.088991e+000 3.138704e+000 4.991280e+000 1.603119e+001 -8.113257e+000 -1.431327e+000 4.432468e-001 -2.956578e-001 1.597193e-001
<VARIANCE> 9
 1.054595e+000 1.503640e+000 2.203248e+000 4.247352e+002 7.950383e+002 1.210095e+002 4.762525e-004 5.782502e-004 8.394349e-004
<GCONST> 1.312975e+001
<MIXTURE> 6 9.095240e-002
<MEAN> 9
 -9.094786e+000 4.459442e+000 6.132086e-001 -4.796833e+001 1.835736e+001 -4.939421e+000 4.390275e-001 -2.930564e-001 2.474939e-001
<VARIANCE> 9
 1.403031e+000 3.371764e-001 7.752768e-001 3.384705e+003 4.656916e+002 1.210095e+002 4.762525e-004 5.782502e-004 1.669316e-003
<GCONST> 1.310385e+001
<MIXTURE> 7 7.293601e-002
<MEAN> 9
 -8.611481e+000 3.662772e+000 1.333490e+000 -7.794016e+001 2.638984e+001 7.434469e+000 4.728457e-001 -2.462725e-001 2.225581e-001
<VARIANCE> 9
 1.340057e+000 5.874582e-001 2.072136e+000 1.548300e+003 4.020665e+002 4.292605e+002 4.762525e-004 5.782502e-004 1.992875e-004
<GCONST> 1.280800e+001
<MIXTURE> 8 7.049431e-002
<MEAN> 9
 -8.494221e+000 2.346831e+000 5.783554e+000 2.408074e+001 -2.004072e+001 -2.836499e+000 4.414746e-001 -2.972552e-001 1.591896e-001
<VARIANCE> 9
 9.720766e-001 1.650687e+000 4.806719e+000 7.146093e+002 5.009535e+002 1.210095e+002 4.762525e-004 5.782502e-004 8.820515e-004
<GCONST> 1.402957e+001
<MIXTURE> 9 1.413169e-001
<MEAN> 9
 -8.039766e+000 5.198925e+000 2.206995e+000 -2.587698e+001 1.672990e+001 -2.185271e+000 4.710067e-001 -2.438660e-001 2.331546e-001
<VARIANCE> 9
 1.724177e+000 1.243880e+000 5.881140e+000 4.142696e+003 1.587672e+003 1.303193e+002 4.762525e-004 5.782502e-004 1.938003e-004
<GCONST> 1.599100e+001
<MIXTURE> 10 8.645175e-002
<MEAN> 9
 -8.885918e+000 3.108955e+000 1.346017e+000 -9.172022e+001 2.414687e+001 1.534030e+001 4.668960e-001 -2.591397e-001 2.146631e-001
<VARIANCE> 9
 9.387396e-001 6.648802e-001 1.464958e+000 1.680344e+003 2.346812e+002 4.092610e+002 4.762525e-004 5.782502e-004 2.475131e-004
<GCONST> 1.194158e+001
<STATE> 6
<NUMMIXES> 10
<MIXTURE> 1 1.019835e-001
<MEAN> 9
 -6.365824e+000 4.928506e-001 1.520979e+000 1.695954e+002 -5.410674e+001 -1.166137e+002 4.955111e-001 -1.993820e-001 1.870462e-001
<VARIANCE> 9
 3.003387e-001 3.371764e-001 6.194227e-001 3.722610e+002 8.494916e+002 1.983556e+002 4.762525e-004 1.326978e-003 2.241406e-004
<GCONST> 9.048577e+000
<MIXTURE> 2 7.598206e-002
<MEAN> 9
 -5.726741e+000 2.072501e+000 1.145551e+000 1.328555e+002 -1.427875e+002 -1.558031e+002 5.022740e-001 -1.524599e-001 6.498639e-002
<VARIANCE> 9
 3.483908e-001 3.371764e-001 8.457752e-002 3.873156e+002 2.414275e+002 1.517526e+003 4.762525e-004 2.228582e-003 1.691111e-003
<GCONST> 1.056155e+001
<MIXTURE> 3 1.350577e-001
<MEAN> 9
 -7.214706e+000 9.595670e-001 2.346308e+000 1.551769e+002 -7.487077e+001 -7.282645e+001 4.750476e-001 -2.494374e-001 1.772757e-001
<VARIANCE> 9
 7.414125e-001 3.371764e-001 5.738838e-001 2.555086e+002 8.474398e+002 1.210095e+002 4.762525e-004 5.782502e-004 9.414998e-004
<GCONST> 9.607462e+000
<MIXTURE> 4 6.177820e-002
<MEAN> 9
 -8.268515e+000 -1.824178e+000 1.329727e+000 6.012743e+001 -4.316249e+001 -2.691959e+002 4.730037e-001 1.025449e-001 2.746462e-002
<VARIANCE> 9
 1.115497e+000 1.417124e+000 1.848103e+000 6.808201e+002 5.991863e+002 4.131086e+002 4.762525e-004 5.097951e-003 3.842027e-003
<GCONST> 1.806533e+001
<MIXTURE> 5 1.366958e-001
<MEAN> 9
 -6.698692e+000 3.338430e-001 -4.203733e-001 1.766810e+002 -8.955359e+001 -1.839475e+002 5.189813e-001 -1.128711e-001 1.777892e-001
<VARIANCE> 9
 5.595284e-001 3.371764e-001 1.926207e-001 1.187840e+002 7.075725e+002 8.224964e+002 4.762525e-004 2.163497e-003 2.354948e-004
<GCONST> 9.138129e+000
<MIXTURE> 6 1.474206e-001
<MEAN> 9
 -7.601472e+000 5.404255e-001 5.738884e+000 9.169453e+001 -4.525673e+001 -2.972043e+001 4.517376e-001 -2.851955e-001 1.704119e-001
<VARIANCE> 9
 4.058497e-001 4.415118e-001 9.796184e-001 7.143438e+002 1.037363e+002 1.923453e+002 4.762525e-004 5.782502e-004 4.817316e-004
<GCONST> 8.530297e+000
<MIXTURE> 7 8.605790e-002
<MEAN> 9
 -8.041527e+000 -5.835433e-001 -7.610911e-001 1.355238e+002 -3.844949e+001 -2.490582e+002 5.151978e-001 3.150535e-002 1.322702e-001
<VARIANCE> 9
 3.782518e+000 4.251456e-001 8.471097e-001 4.720137e+002 1.921092e+003 6.840355e+002 4.762525e-004 3.757694e-003 1.701752e-003
<GCONST> 1.748609e+001
<MIXTURE> 8 1.003118e-001
<MEAN> 9
 -7.945537e+000 3.137196e-001 5.587016e+000 1.345908e+002 -6.139102e+001 -4.954253e+001 4.559368e-001 -2.800995e-001 1.468827e-001
<VARIANCE> 9
 9.603218e-001 3.371764e-001 2.842410e+000 6.934761e+002 1.294056e+002 1.210095e+002 4.762525e-004 5.782502e-004 1.971900e-004
<GCONST> 9.022038e+000
<MIXTURE> 9 7.686485e-002
<MEAN> 9
 -9.705364e+000 -2.989549e+000 8.940432e-001 3.698666e+001 -4.586011e+000 -3.024224e+002 4.501080e-001 1.534554e-001 2.746117e-002
<VARIANCE> 9
 6.492922e-001 7.901717e-001 2.485089e+000 3.657747e+002 9.248398e+002 7.405001e+002 4.762525e-004 1.646397e-003 3.921814e-003
<GCONST> 1.652286e+001
<MIXTURE> 10 7.784745e-002
<MEAN> 9
 -8.522433e+000 -7.434555e-001 -1.197817e+000 1.144125e+002 -6.314013e+001 -2.723343e+002 5.075482e-001 4.884021e-002 1.055545e-001
<VARIANCE> 9
 2.864381e+000 5.844898e-001 1.039324e+000 6.386829e+002 1.517962e+003 1.098565e+003 4.762525e-004 4.308938e-003 1.848881e-003
<GCONST> 1.849129e+001
<STATE> 7
<NUMMIXES> 10
<MIXTURE> 1 7.403193e-002
<MEAN> 9
 -5.847715e+000 -9.819746e+000 4.085780e+000 -1.076023e+001 1.558526e+002 -2.507273e+001 -1.365271e-002 3.653635e-001 1.703735e-001
<VARIANCE> 9
 1.516867e+001 6.981810e-001 6.241183e-001 5.838192e+002 8.047004e+003 1.912278e+002 4.762525e-004 5.782502e-004 1.938003e-004
<GCONST> 1.539180e+001
<MIXTURE> 2 8.523684e-002
<MEAN> 9
 -1.057974e+001 -7.974819e+000 2.228868e+000 1.639849e+001 1.063114e+001 -2.699265e+002 2.892504e-001 3.232266e-001 8.562085e-002
<VARIANCE> 9
 9.709551e-001 1.498008e+000 4.130099e-001 1.228826e+003 1.318996e+003 1.210095e+002 1.111538e-003 5.782502e-004 2.987275e-004
<GCONST> 1.275209e+001
<MIXTURE> 3 8.697692e-002
<MEAN> 9
 -1.035140e+001 -4.921164e+000 1.077909e+000 3.913141e+001 2.967635e+001 -2.788755e+002 3.927926e-001 2.415115e-001 5.492533e-002
<VARIANCE> 9
 9.928297e-001 6.058251e-001 8.952402e-001 1.261596e+003 1.480475e+003 1.484949e+002 6.249411e-004 9.495062e-004 2.189788e-003
<GCONST> 1.490130e+001
<MIXTURE> 4 1.384493e-001
<MEAN> 9
 -7.149357e+000 -1.152531e+001 2.018281e+000 -3.705349e+001 1.085294e+002 -1.230700e+002 2.684928e-002 3.743075e-001 1.485304e-001
<VARIANCE> 9
 2.160759e-001 1.105645e+000 5.833423e-001 3.721910e+001 8.055856e+002 1.344211e+003 5.291334e-004 5.782502e-004 8.100974e-004
<GCONST> 9.964039e+000
<MIXTURE> 5 1.151721e-001
<MEAN> 9
 -8.312093e+000 -1.143750e+001 2.278358e+000 -3.841647e+001 5.245541e+001 -2.182852e+002 1.293174e-001 3.762865e-001 1.186185e-001
<VARIANCE> 9
 4.622639e-001 8.019838e-001 1.746867e-001 1.369230e+002 1.269773e+003 1.329103e+003 2.122263e-003 5.782502e-004 5.943392e-004
<GCONST> 1.202328e+001
<MIXTURE> 6 1.512954e-001
<MEAN> 9
 -6.155116e+000 -9.978458e+000 1.675951e+000 -4.733801e+001 8.624850e+001 -4.336701e+001 -1.885676e-003 3.671727e-001 1.592251e-001
<VARIANCE> 9
 7.573912e-001 3.371764e-001 2.892525e-001 6.683831e+001 2.372781e+003 2.530861e+002 4.762525e-004 5.782502e-004 2.374079e-004
<GCONST> 7.992440e+000
<MIXTURE> 7 1.179398e-001
<MEAN> 9
 -1.035663e+001 -9.788731e+000 1.630719e+000 -2.268960e+001 7.673502e+001 -2.628706e+002 2.267184e-001 3.529596e-001 7.215811e-002
<VARIANCE> 9
 8.237748e-001 1.747609e+000 4.555252e-001 3.691906e+002 3.634728e+003 2.284996e+002 2.054253e-003 5.782502e-004 8.121050e-004
<GCONST> 1.490089e+001
<MIXTURE> 8 9.364224e-002
<MEAN> 9
 -9.098990e+000 -1.218891e+001 1.978336e+000 -5.411196e+001 2.256211e+001 -1.944778e+002 8.145215e-002 3.722198e-001 1.276732e-001
<VARIANCE> 9
 1.962886e+000 4.740552e-001 7.494075e-001 2.311207e+002 9.647728e+002 2.414135e+003 1.742973e-003 5.782502e-004 3.533024e-004
<GCONST> 1.452848e+001
<MIXTURE> 9 6.354788e-002
<MEAN> 9
 -1.179904e+001 -6.500470e+000 -1.194840e-001 6.147078e+000 8.328194e+001 -3.065641e+002 3.629690e-001 2.717492e-001 6.019460e-002
<VARIANCE> 9
 4.868553e+000 1.463478e+000 1.737539e+000 1.094922e+002 1.287523e+003 5.783998e+002 1.083313e-003 7.816973e-004 2.492032e-003
<GCONST> 1.729713e+001
<MIXTURE> 10 7.370757e-002
<MEAN> 9
 -6.521965e+000 -9.851204e+000 3.883925e+000 -7.563519e+000 1.776971e+002 -3.004707e+001 -1.644585e-002 3.650224e-001 1.684801e-001
<VARIANCE> 9
 1.357030e+001 9.031461e-001 5.554930e-001 5.321863e+002 8.345812e+003 2.440261e+002 4.762525e-004 5.782502e-004 1.938003e-004
<GCONST> 1.560904e+001
<TRANSP> 8
 0.000000e+000 1.000000e+000 0.000000e+000 0.000000e+000 0.000000e+000 0.000000e+000 0.000000e+000 0.000000e+000
 0.000000e+000 9.317205e-001 6.827949e-002 0.000000e+000 0.000000e+000 0.000000e+000 0.000000e+000 0.000000e+000
 0.000000e+000 0.000000e+000 9.397250e-001 6.027494e-002 0.000000e+000 0.000000e+000 0.000000e+000 0.000000e+000
 0.000000e+000 0.000000e+000 0.000000e+000 9.582898e-001 4.171025e-002 0.000000e+000 0.000000e+000 0.000000e+000
 0.000000e+000 0.000000e+000 0.000000e+000 0.000000e+000 9.802669e-001 1.973311e-002 0.000000e+000 0.000000e+000
 0.000000e+000 0.000000e+000 0.000000e+000 0.000000e+000 0.000000e+000 9.554924e-001 4.450752e-002 0.000000e+000
 0.000000e+000 0.000000e+000 0.000000e+000 0.000000e+000 0.000000e+000 0.000000e+000 9.537155e-001 4.628452e-002
 0.000000e+000 0.000000e+000 0.000000e+000 0.000000e+000 0.000000e+000 0.000000e+000 0.000000e+000 0.000000e+000
<ENDHMM>
~h "GN"
<BEGINHMM>
<NUMSTATES> 8
<STATE> 2
<NUMMIXES> 10
<MIXTURE> 1 8.240846e-002
<MEAN> 9
 -8.989258e+000 -1.144772e+001 5.921571e-001 4.978612e+001 1.186467e+002 1.992562e+002 8.029688e-002 3.732800e-001 1.615236e-001
<VARIANCE> 9
 2.705716e-001 4.359735e-001 1.117289e+000 2.977951e+001 5.440969e+001 2.915095e+003 4.762525e-004 5.782502e-004 1.938003e-004
<GCONST> 6.228679e+000
<MIXTURE> 2 1.459152e-001
<MEAN> 9
 -9.569872e+000 -4.376690e+000 -4.667956e+000 -9.175569e+001 2.568517e+001 2.758146e+002 3.742831e-001 2.671036e-001 2.169793e-001
<VARIANCE> 9
 5.825996e+000 1.744063e+000 6.259030e-001 6.253087e+002 1.067435e+003 2.035442e+002 8.586281e-004 8.760737e-004 7.494712e-004
<GCONST> 1.582165e+001
<MIXTURE> 3 8.578840e-002
<MEAN> 9
 -7.414495e+000 -1.110458e+001 1.629910e+000 1.737252e+001 -7.255422e+001 1.454133e+002 4.571728e-002 3.818045e-001 2.056210e-001
<VARIANCE> 9
 6.169875e-001 3.371764e-001 1.668571e-001 7.165003e+001 8.546252e+002 2.218272e+003 2.845826e-003 5.782502e-004 1.938003e-004
<GCONST> 1.004107e+001
<MIXTURE> 4 1.021991e-001
<MEAN> 9
 -1.066004e+001 -7.033133e+000 -3.257344e+000 -3.358582e+001 3.624469e+001 2.565874e+002 2.890801e-001 3.281363e-001 1.853770e-001
<VARIANCE> 9
 1.491142e-001 3.371764e-001 7.271714e-001 5.431283e+001 2.081626e+002 6.410857e+002 4.762525e-004 5.782502e-004 4.954302e-004
<GCONST> 6.313202e+000
<MIXTURE> 5 1.078503e-001
<MEAN> 9
 -6.574290e+000 -1.256940e+001 3.096613e+000 4.474514e+001 2.615965e+001 1.343486e+002 1.506332e-002 3.689761e-001 1.840243e-001
<VARIANCE> 9
 5.987080e-001 1.922127e+000 2.798028e-001 9.105663e+001 4.066181e+003 2.342395e+003 4.778721e-004 5.782502e-004 1.938003e-004
<GCONST> 1.233819e+001
<MIXTURE> 6 7.931218e-002
<MEAN> 9
 -1.079138e+001 -8.579186e+000 -1.991801e+000 -5.078381e+000 4.028459e+001 2.399173e+002 2.198856e-001 3.600377e-001 1.770209e-001
<VARIANCE> 9
 5.941194e-001 3.984696e-001 1.181700e+000 1.267493e+002 5.746440e+002 5.697415e+002 8.746741e-004 5.782502e-004 3.279553e-004
<GCONST> 1.028840e+001
<MIXTURE> 7 1.220467e-001
<MEAN> 9
 -8.852191e+000 -3.629451e+000 -2.856453e+000 -5.886592e+001 7.603493e-001 2.191166e+002 3.869416e-001 2.459638e-001 1.976942e-001
<VARIANCE> 9
 1.491142e-001 1.385538e+000 7.077304e-002 1.365771e+002 4.260121e+001 2.237678e+002 1.610842e-003 1.692654e-003 1.938003e-004
<GCONST> 5.033905e+000
<MIXTURE> 8 8.155750e-002
<MEAN> 9
 -1.048829e+001 -1.005367e+001 -1.443517e+000 2.785877e+001 7.714806e+001 2.208090e+002 1.331726e-001 3.718515e-001 1.669061e-001
<VARIANCE> 9
 3.669810e-001 3.371764e-001 7.804548e-001 6.119195e+001 2.548684e+003 1.330650e+003 4.762525e-004 5.782502e-004 2.813407e-004
<GCONST> 1.007318e+001
<MIXTURE> 9 8.665076e-002
<MEAN> 9
 -1.120960e+001 -8.990172e+000 -2.869275e+000 3.217245e+000 6.277924e+001 2.539080e+002 1.994708e-001 3.621107e-001 1.679736e-001
<VARIANCE> 9
 8.621933e-001 4.111849e-001 1.798354e+000 1.539857e+002 1.416246e+003 1.304256e+003 6.789863e-004 5.782502e-004 2.684629e-004
<GCONST> 1.258358e+001
<MIXTURE> 10 1.062716e-001
<MEAN> 9
 -6.936478e+000 -1.149468e+001 1.949622e+000 1.111499e+001 -9.170856e+001 9.946511e+001 -6.902057e-003 3.694387e-001 2.000581e-001
<VARIANCE> 9
 2.988060e-001 3.371764e-001 1.870748e-001 7.906377e+001 3.518164e+002 1.443609e+003 1.361886e-003 5.782502e-004 1.938003e-004
<GCONST> 7.474734e+000
<STATE> 3
<NUMMIXES> 10
<MIXTURE> 1 1.382818e-001
<MEAN> 9
 -8.193488e+000 1.342164e+000 -3.179161e+000 -1.035333e+002 -8.126498e+000 1.394305e+002 4.940032e-001 5.553398e-002 2.358776e-001
<VARIANCE> 9
 1.491142e-001 1.901276e+000 6.976298e-002 3.750341e+002 3.680466e+001 1.043679e+003 4.762525e-004 4.033094e-003 1.938003e-004
<GCONST> 7.389407e+000
<MIXTURE> 2 9.954438e-002
<MEAN> 9
 -1.394629e+001 1.614779e+000 4.758482e+000 9.267377e+001 -2.964804e+001 6.581387e+001 5.299663e-001 -4.534143e-002 2.359025e-001
<VARIANCE> 9
 2.601535e+000 1.302848e+000 2.124860e+000 3.431351e+002 6.507323e+002 2.014457e+002 4.762525e-004 5.782502e-004 1.938003e-004
<GCONST> 1.248325e+001
<MIXTURE> 3 8.360220e-002
<MEAN> 9
 -6.582695e+000 -1.479133e+000 -4.437566e+000 -1.633027e+002 -2.316670e+001 2.178589e+002 4.655363e-001 1.470823e-001 2.707230e-001
<VARIANCE> 9
 4.040298e+000 1.771808e+000 4.960829e+000 6.161199e+002 2.044956e+003 1.025945e+003 6.755500e-004 1.922247e-003 1.938003e-004
<GCONST> 1.898780e+001
<MIXTURE> 4 8.467446e-002
<MEAN> 9
 -9.056281e+000 -4.685244e+000 6.697417e+000 -8.938312e+001 -2.425613e+001 1.364212e+001 5.260079e-001 -1.497502e-002 2.489348e-001
<VARIANCE> 9
 1.534875e+001 9.868692e-001 1.058716e+001 4.179226e+003 6.043144e+002 9.072579e+002 4.762525e-004 5.782502e-004 1.938003e-004
<GCONST> 1.951701e+001
<MIXTURE> 5 1.365689e-001
<MEAN> 9
 -9.646373e+000 1.154466e+000 9.295527e+000 1.714446e+001 3.410383e-001 4.795226e-001 5.130970e-001 -9.024735e-002 7.152300e-002
<VARIANCE> 9
 1.232799e+000 2.899432e+000 1.969243e+000 4.373427e+003 4.357045e+002 3.179666e+002 4.762525e-004 5.782502e-004 1.938003e-004
<GCONST> 1.506081e+001
<MIXTURE> 6 1.563043e-001
<MEAN> 9
 -6.856639e+000 -1.380769e+000 3.013852e+000 -1.825715e+002 -8.198099e+001 2.666775e+001 5.143130e-001 -7.327861e-002 1.862617e-001
<VARIANCE> 9
 1.347299e+000 8.107061e+000 7.955393e+000 3.090042e+003 4.979643e+002 4.886464e+002 4.762525e-004 1.447748e-003 4.731274e-003
<GCONST> 2.190282e+001
<MIXTURE> 7 4.180942e-002
<MEAN> 9
 -7.404254e+000 -7.581714e-001 -4.056507e+000 -2.262382e+002 -1.544394e+001 8.415604e+001 5.003039e-001 3.444429e-003 2.775461e-001
<VARIANCE> 9
 6.210206e-001 6.495550e+000 2.637735e+000 3.186026e+003 2.036733e+002 2.801254e+002 4.762525e-004 1.221974e-003 9.613714e-004
<GCONST> 1.661983e+001
<MIXTURE> 8 9.401517e-002
<MEAN> 9
 -1.512134e+001 1.059840e-001 7.207324e+000 5.786383e+001 -8.183134e+000 4.632196e+001 5.217892e-001 -4.639811e-002 2.368370e-001
<VARIANCE> 9
 1.605946e+000 7.254936e+000 3.994384e+000 4.921660e+002 1.914450e+003 8.475646e+002 4.762525e-004 9.829036e-004 2.635641e-004
<GCONST> 1.806377e+001
<MIXTURE> 9 8.076653e-002
<MEAN> 9
 -4.392026e+000 -1.956606e+000 -3.068179e+000 -1.738094e+002 -5.504384e+001 1.816393e+002 4.886746e-001 1.020512e-001 2.747124e-001
<VARIANCE> 9
 7.830704e+000 2.382032e+000 8.084779e+000 7.851980e+002 2.241518e+003 1.909384e+003 7.561670e-004 2.631704e-003 1.938003e-004
<GCONST> 2.181621e+001
<MIXTURE> 10 8.443286e-002
<MEAN> 9
 -9.944794e+000 -5.790723e+000 8.380599e+000 -1.174123e+002 -4.612568e+001 8.030695e-001 5.194566e-001 -2.220547e-002 2.536751e-001
<VARIANCE> 9
 8.501155e+000 1.711986e+000 7.104202e+000 5.601667e+003 9.201960e+002 2.417275e+002 4.762525e-004 5.782502e-004 1.938003e-004
<GCONST> 1.846891e+001
<STATE> 4
<NUMMIXES> 10
<MIXTURE> 1 7.960975e-002
<MEAN> 9
 -9.198615e+000 4.267840e+000 2.316151e+000 1.214781e+002 3.221309e+001 8.556300e+001 5.119566e-001 -1.317984e-001 1.385786e-001
<VARIANCE> 9
 4.826376e-001 3.371764e-001 2.177429e+000 2.977951e+001 3.473103e+003 3.573729e+002 4.762525e-004 1.169161e-003 1.075330e-003
<GCONST> 1.169264e+001
<MIXTURE> 2 8.442595e-002
<MEAN> 9
 -3.124126e+000 5.902110e+000 -2.363232e-001 3.258105e+001 -3.790237e+000 5.267050e+001 4.564777e-001 -2.700687e-001 1.606061e-001
<VARIANCE> 9
 6.324487e-001 3.371764e-001 4.154457e-001 6.770771e+002 3.680466e+001 1.156088e+003 4.762525e-004 5.782502e-004 1.819014e-003
<GCONST> 9.878865e+000
<MIXTURE> 3 1.291017e-001
<MEAN> 9
 -2.065283e+000 5.252960e+000 4.249145e-001 -5.365878e+001 -7.357977e+001 -8.848264e+001 4.460302e-001 -2.822482e-001 1.377569e-001
<VARIANCE> 9
 2.794271e-001 4.087662e-001 3.463204e-001 1.655276e+002 9.732882e+002 6.302277e+002 4.762525e-004 5.782502e-004 5.480243e-004
<GCONST> 9.132517e+000
<MIXTURE> 4 8.789073e-002
<MEAN> 9
 -5.218742e+000 5.369430e+000 -6.201173e-001 8.636858e+001 2.291631e+001 1.119720e+002 4.716296e-001 -2.407635e-001 1.816957e-001
<VARIANCE> 9
 1.175084e+000 3.371764e-001 3.943119e-001 2.021187e+002 6.851871e+002 7.128015e+002 4.762525e-004 5.782502e-004 1.787178e-003
<GCONST> 1.166004e+001
<MIXTURE> 5 1.451987e-001
<MEAN> 9
 -6.360223e+000 4.626281e+000 -2.143009e-001 1.065292e+002 -5.637405e+001 1.093408e+002 5.062875e-001 -1.764732e-001 1.429163e-001
<VARIANCE> 9
 2.072506e+000 3.371764e-001 3.766140e-001 6.195512e+001 2.474062e+003 6.581036e+002 4.762525e-004 5.782502e-004 3.766170e-004
<GCONST> 1.064601e+001
<MIXTURE> 6 1.390266e-001
<MEAN> 9
 -9.452230e-001 5.543106e+000 -1.345068e+000 1.052489e+000 -4.666464e+001 1.565773e+001 4.152779e-001 -3.174728e-001 2.076885e-001
<VARIANCE> 9
 1.502037e+000 2.002655e+000 5.560594e-001 6.136115e+002 4.780623e+002 1.578814e+003 4.762525e-004 5.782502e-004 6.099125e-004
<GCONST> 1.450158e+001
<MIXTURE> 7 9.778541e-002
<MEAN> 9
 -1.719741e+000 4.547777e+000 1.690809e+000 -9.803765e+001 -9.906679e+001 -1.644025e+002 4.743632e-001 -2.220392e-001 8.383720e-002
<VARIANCE> 9
 1.964323e+000 6.806772e-001 1.042335e+000 1.740567e+002 4.982539e+002 3.414684e+002 4.762525e-004 6.612652e-004 3.120604e-004
<GCONST> 1.103335e+001
<MIXTURE> 8 8.067775e-002
<MEAN> 9
 -1.676627e+000 3.282285e+000 -2.370068e+000 8.920999e+001 5.249807e-001 1.344486e+002 4.544997e-001 -2.733102e-001 1.789658e-001
<VARIANCE> 9
 2.323126e+000 8.033296e-001 4.652703e-001 3.770314e+002 1.234071e+002 5.040421e+002 4.762525e-004 6.609438e-004 5.285277e-004
<GCONST> 1.085333e+001
<MIXTURE> 9 8.165949e-002
<MEAN> 9
 -1.013876e+001 3.837689e+000 1.654398e+000 1.137248e+002 -5.220718e+001 9.280180e+001 5.229264e-001 -1.051919e-001 1.726078e-001
<VARIANCE> 9
 1.078704e+000 4.687980e-001 2.044582e+000 1.044801e+002 3.251167e+003 3.319615e+002 4.762525e-004 5.782502e-004 1.235567e-003
<GCONST> 1.331376e+001
<MIXTURE> 10 7.462379e-002
<MEAN> 9
 -2.797259e+000 5.916871e+000 -1.546905e-001 2.011602e+001 -5.391970e+000 3.894788e+001 4.541666e-001 -2.739863e-001 1.591703e-001
<VARIANCE> 9
 6.405006e-001 3.371764e-001 4.815568e-001 7.182646e+002 3.680466e+001 1.410913e+003 4.762525e-004 5.782502e-004 1.714951e-003
<GCONST> 1.023853e+001
<STATE> 5
<NUMMIXES> 10
<MIXTURE> 1 9.494928e-002
<MEAN> 9
 -3.991718e+000 6.597728e-001 2.750831e+000 2.114351e+001 1.060550e+001 -2.236967e+001 4.898836e-001 1.376944e-002 6.154673e-003
<VARIANCE> 9
 8.082052e-001 3.371764e-001 5.460925e-001 2.977951e+001 3.042242e+002 3.366264e+002 4.762525e-004 2.427438e-003 1.938003e-004
<GCONST> 7.347235e+000
<MIXTURE> 2 1.441983e-001
<MEAN> 9
 -1.122499e+001 2.574654e+000 8.262508e+000 -4.512724e+001 -8.432377e+000 -9.853992e+001 4.892797e-001 -1.391840e-002 -4.760761e-003
<VARIANCE> 9
 5.636427e-001 2.443699e+000 8.002350e-001 1.222102e+003 3.739417e+002 2.307413e+003 4.762525e-004 3.517753e-003 1.938003e-004
<GCONST> 1.556635e+001
<MIXTURE> 3 8.517736e-002
<MEAN> 9
 -5.341002e+000 -1.670364e+000 4.010354e+000 2.948600e+001 2.791932e+001 -1.265144e-001 4.622008e-001 1.421248e-001 -2.621914e-003
<VARIANCE> 9
 2.983624e+000 3.371764e-001 3.148050e+000 4.971616e+002 6.560607e+002 2.328363e+003 4.762525e-004 5.782502e-004 2.274966e-004
<GCONST> 1.464832e+001
<MIXTURE> 4 1.096650e-001
<MEAN> 9
 -6.564453e+000 3.653939e+000 5.805356e+000 -1.211545e+002 -7.892060e+001 -2.044621e+002 4.915561e-001 -1.160371e-001 2.341086e-002
<VARIANCE> 9
 3.597708e+000 1.213537e+000 3.552860e+000 1.124625e+002 3.250178e+002 1.210095e+002 4.762525e-004 4.035113e-003 2.670254e-004
<GCONST> 1.319440e+001
<MIXTURE> 5 9.880429e-002
<MEAN> 9
 -4.071917e+000 2.627414e-001 1.451332e+000 8.789868e+000 3.244919e+001 -1.039858e+002 4.958157e-001 3.575763e-002 3.093968e-002
<VARIANCE> 9
 5.020295e-001 3.371764e-001 2.681051e-001 7.201266e+001 1.685238e+002 1.365193e+003 4.762525e-004 1.236148e-003 4.941319e-004
<GCONST> 8.113215e+000
<MIXTURE> 6 1.132043e-001
<MEAN> 9
 -1.123784e+001 -2.960500e+000 1.001714e+001 -2.411433e+001 9.107236e+000 -4.464011e+001 4.456570e-001 1.702652e-001 -1.293199e-002
<VARIANCE> 9
 2.589202e+000 3.371764e-001 4.514770e+000 4.846402e+003 1.056458e+003 5.148212e+003 4.762525e-004 5.782502e-004 1.938003e-004
<GCONST> 1.825378e+001
<MIXTURE> 7 9.259134e-002
<MEAN> 9
 -7.510284e+000 7.788576e-001 5.221045e+000 2.187819e+001 9.398094e+000 2.334235e+000 4.824246e-001 4.125406e-002 -4.162026e-003
<VARIANCE> 9
 2.968671e+000 6.671793e-001 1.187003e+000 3.671769e+001 7.145699e+001 1.210095e+002 4.762525e-004 2.039015e-003 1.938003e-004
<GCONST> 7.670434e+000
<MIXTURE> 8 1.079794e-001
<MEAN> 9
 -4.224061e+000 -1.190440e+000 2.581029e+000 1.544238e+001 3.243059e+001 -3.129745e+001 4.667041e-001 1.300825e-001 -2.610284e-003
<VARIANCE> 9
 1.798367e+000 3.371764e-001 1.880840e+000 7.542539e+002 4.152016e+002 3.270633e+003 4.762525e-004 5.782502e-004 1.938003e-004
<GCONST> 1.376583e+001
<MIXTURE> 9 7.026878e-002
<MEAN> 9
 -6.455513e+000 -6.871752e-001 6.722479e+000 -1.878055e+002 -9.296108e+001 -2.459749e+002 4.923871e-001 -9.017531e-003 -1.242354e-002
<VARIANCE> 9
 7.726899e+000 2.864757e+000 9.770735e+000 4.200320e+002 3.743150e+001 3.855130e+002 4.762525e-004 5.838865e-003 4.445331e-004
<GCONST> 1.702363e+001
<MIXTURE> 10 8.316194e-002
<MEAN> 9
 -7.661093e+000 1.117741e+000 5.373290e+000 1.782956e+001 6.655026e+000 -3.727660e+000 4.853847e-001 2.539113e-002 -4.020571e-003
<VARIANCE> 9
 3.114895e+000 1.010050e+000 1.626884e+000 5.781429e+001 8.524063e+001 1.329355e+002 4.762525e-004 2.770339e-003 1.938003e-004
<GCONST> 9.479302e+000
<STATE> 6
<NUMMIXES> 10
<MIXTURE> 1 1.236876e-001
<MEAN> 9
 -8.197976e+000 -1.111631e+001 4.590561e+000 -4.722941e+001 3.369094e+001 -1.358278e+002 1.885071e-001 3.566032e-001 2.012087e-001
<VARIANCE> 9
 1.294078e+000 6.760090e-001 1.497659e-001 3.870809e+002 3.322890e+002 2.438059e+002 1.123741e-003 5.782502e-004 2.056564e-004
<GCONST> 9.033575e+000
<MIXTURE> 2 8.300751e-002
<MEAN> 9
 -7.388500e+000 -3.219824e+000 2.662633e+000 5.014935e+000 8.125060e+001 -1.444501e+002 4.354556e-001 2.122705e-001 8.826327e-002
<VARIANCE> 9
 2.114260e-001 3.371764e-001 5.468640e-001 3.417048e+001 3.051326e+002 1.596707e+002 4.762525e-004 5.782502e-004 1.938003e-004
<GCONST> 3.967784e+000
<MIXTURE> 3 1.131748e-001
<MEAN> 9
 -6.402751e+000 -1.469400e+000 1.603919e+000 -1.407918e+001 5.987150e+001 -1.478273e+002 4.718966e-001 1.376131e-001 5.144969e-002
<VARIANCE> 9
 7.774072e-001 4.276126e-001 7.083169e-001 2.355944e+002 7.726567e+002 1.167361e+003 4.762525e-004 6.879242e-004 5.293641e-004
<GCONST> 1.179392e+001
<MIXTURE> 4 1.337369e-001
<MEAN> 9
 -9.809777e+000 -8.443707e+000 3.401905e+000 -2.543815e+001 6.971941e+001 -1.852135e+002 2.912887e-001 3.343171e-001 1.364138e-001
<VARIANCE> 9
 1.491142e-001 5.120322e-001 2.845536e-001 1.679193e+003 4.035385e+002 4.070950e+002 6.134642e-004 5.782502e-004 1.938003e-004
<GCONST> 8.746459e+000
<MIXTURE> 5 8.653872e-002
<MEAN> 9
 -9.033896e+000 -6.883931e+000 4.447663e+000 -6.124837e+001 2.098177e+000 -2.053060e+002 3.494683e-001 2.920878e-001 1.051747e-001
<VARIANCE> 9
 4.406507e-001 6.214466e-001 1.855119e-001 3.213136e+002 8.402978e+002 8.168093e+002 4.762525e-004 5.782502e-004 1.938003e-004
<GCONST> 9.118880e+000
<MIXTURE> 6 9.305645e-002
<MEAN> 9
 -9.950284e+000 -1.020518e+001 2.732990e+000 -1.313556e+001 6.545936e+001 -1.849382e+002 2.168960e-001 3.597055e-001 1.550128e-001
<VARIANCE> 9
 1.184243e+000 5.401195e-001 1.220841e-001 6.816275e+002 3.080327e+002 7.929659e+002 1.659718e-003 5.782502e-004 1.938003e-004
<GCONST> 1.051616e+001
<MIXTURE> 7 8.306354e-002
<MEAN> 9
 -1.027958e+001 -5.705873e+000 2.003778e+000 1.647463e+001 5.655522e+001 -1.791295e+002 3.679139e-001 2.877597e-001 1.234772e-001
<VARIANCE> 9
 6.376196e-001 7.068710e-001 1.766578e-001 2.977951e+001 1.127089e+003 1.210095e+002 5.066762e-004 5.782502e-004 1.938003e-004
<GCONST> 5.635692e+000
<MIXTURE> 8 1.006219e-001
<MEAN> 9
 -9.532351e+000 -4.679343e+000 2.322224e+000 -4.855278e+001 5.358337e+000 -1.986805e+002 3.973960e-001 2.404676e-001 8.244588e-002
<VARIANCE> 9
 5.465370e-001 3.371764e-001 6.507514e-001 2.018210e+002 4.017308e+002 8.090478e+002 4.762525e-004 5.782502e-004 1.938003e-004
<GCONST> 8.765235e+000
<MIXTURE> 9 9.831568e-002
<MEAN> 9
 -7.795927e+000 -2.822390e+000 1.123219e+000 -2.628526e+001 2.532931e+001 -1.940359e+002 4.501104e-001 1.720793e-001 7.352614e-002
<VARIANCE> 9
 7.263057e-001 7.396184e-001 7.672017e-002 1.697793e+002 5.044809e+002 7.467856e+002 4.762525e-004 5.782502e-004 4.180174e-004
<GCONST> 8.440651e+000
<MIXTURE> 10 8.479726e-002
<MEAN> 9
 -1.001562e+001 -1.058306e+001 2.830792e+000 -1.918569e+001 5.718720e+001 -2.037141e+002 2.174021e-001 3.558795e-001 1.547668e-001
<VARIANCE> 9
 1.319486e+000 5.877687e-001 8.616367e-002 4.329012e+002 3.344578e+002 8.454556e+002 1.463907e-003 5.782502e-004 1.938003e-004
<GCONST> 9.927276e+000
<STATE> 7
<NUMMIXES> 10
<MIXTURE> 1 3.162954e-002
<MEAN> 9
 2.961094e-001 -1.100655e+001 7.548551e+000 -4.681069e+000 1.738215e+002 -3.906371e+001 1.727975e-002 3.772474e-001 2.003700e-001
<VARIANCE> 9
 3.210588e+000 3.371764e-001 2.364414e+000 2.977951e+001 9.845964e+002 1.210095e+002 4.762525e-004 5.782502e-004 1.938003e-004
<GCONST> 8.908900e+000
<MIXTURE> 2 1.025200e-001
<MEAN> 9
 -4.041131e+000 -1.055872e+001 2.863937e+000 -8.279717e+000 8.213545e+001 -2.683179e+001 -5.294668e-002 3.540701e-001 1.981991e-001
<VARIANCE> 9
 1.994390e-001 3.371764e-001 1.640580e-001 2.977951e+001 1.394520e+002 1.210095e+002 4.762525e-004 5.782502e-004 1.938003e-004
<GCONST> 1.507625e+000
<MIXTURE> 3 1.446508e-001
<MEAN> 9
 -7.155024e+000 -1.082533e+001 2.351134e+000 -1.232752e+001 7.593961e+001 -1.304116e+002 1.039492e-001 3.851344e-001 1.755898e-001
<VARIANCE> 9
 1.491142e-001 3.371764e-001 9.205195e-002 2.977951e+001 4.381033e+002 1.716024e+002 8.118643e-004 5.782502e-004 1.938003e-004
<GCONST> 2.666392e+000
<MIXTURE> 4 5.748376e-002
<MEAN> 9
 -8.536145e+000 -9.506023e+000 2.102410e+000 3.478659e+001 2.803963e+002 -3.871951e+001 -4.545454e-003 3.663636e-001 1.801020e-001
<VARIANCE> 9
 2.704638e+000 8.165192e-001 1.215307e+000 2.977951e+001 1.459333e+003 1.210095e+002 4.762525e-004 5.782502e-004 1.938003e-004
<GCONST> 9.349826e+000
<MIXTURE> 5 1.444442e-001
<MEAN> 9
 -7.141136e+000 -1.252179e+001 1.926003e+000 -1.260357e+001 8.668222e+001 -1.791541e+002 9.085342e-002 3.761937e-001 1.797991e-001
<VARIANCE> 9
 1.491142e-001 3.371764e-001 5.558089e-001 2.977951e+001 1.596405e+002 5.039516e+002 1.238818e-003 5.782502e-004 1.938003e-004
<GCONST> 4.954812e+000
<MIXTURE> 6 1.199207e-001
<MEAN> 9
 -3.842841e+000 -1.118841e+001 2.399091e+000 -2.311535e+001 7.195966e+001 -5.526527e+001 -2.166896e-002 3.640000e-001 1.995545e-001
<VARIANCE> 9
 7.864581e-001 3.371764e-001 2.342495e+000 2.977951e+001 1.225521e+002 1.398714e+002 4.762525e-004 5.782502e-004 1.938003e-004
<GCONST> 5.554078e+000
<MIXTURE> 7 9.542584e-002
<MEAN> 9
 -5.609898e+000 -1.100416e+001 1.945145e+000 -2.519618e+001 5.035340e+001 -7.801188e+001 2.222253e-002 3.740696e-001 1.911832e-001
<VARIANCE> 9
 5.012338e-001 3.371764e-001 1.271797e-001 2.977951e+001 1.642118e+002 3.507181e+002 4.762525e-004 5.782502e-004 1.938003e-004
<GCONST> 3.402118e+000
<MIXTURE> 8 1.041684e-001
<MEAN> 9
 -6.115088e+000 -1.016281e+001 3.107738e+000 2.163853e+001 1.004508e+002 -6.687660e+001 9.213647e-002 3.801192e-001 2.200472e-001
<VARIANCE> 9
 1.491142e-001 3.371764e-001 7.107563e-001 3.703864e+001 1.739235e+002 1.210095e+002 4.762525e-004 5.782502e-004 1.938003e-004
<GCONST> 3.121974e+000
<MIXTURE> 9 1.040281e-001
<MEAN> 9
 -5.680959e+000 -1.115040e+001 1.810131e+000 -2.350937e+001 6.000891e+001 -9.313294e+001 1.617786e-002 3.703840e-001 1.914731e-001
<VARIANCE> 9
 5.149516e-001 3.371764e-001 8.573588e-002 2.977951e+001 1.389365e+002 4.412088e+002 4.762525e-004 5.782502e-004 1.938003e-004
<GCONST> 3.097186e+000
<MIXTURE> 10 9.572865e-002
<MEAN> 9
 -6.290113e+000 -1.051631e+001 3.341722e+000 1.685675e+001 9.254993e+001 -7.210419e+001 9.431128e-002 3.782420e-001 2.174772e-001
<VARIANCE> 9
 1.491142e-001 3.371764e-001 1.370968e+000 7.945574e+001 2.946307e+002 3.067648e+002 6.178710e-004 5.782502e-004 1.938003e-004
<GCONST> 6.259807e+000
<TRANSP> 8
 0.000000e+000 1.000000e+000 0.000000e+000 0.000000e+000 0.000000e+000 0.000000e+000 0.000000e+000 0.000000e+000
 0.000000e+000 9.379430e-001 6.205694e-002 0.000000e+000 0.000000e+000 0.000000e+000 0.000000e+000 0.000000e+000
 0.000000e+000 0.000000e+000 9.589695e-001 4.103042e-002 0.000000e+000 0.000000e+000 0.000000e+000 0.000000e+000
 0.000000e+000 0.000000e+000 0.000000e+000 9.565465e-001 4.345345e-002 0.000000e+000 0.000000e+000 0.000000e+000
 0.000000e+000 0.000000e+000 0.000000e+000 0.000000e+000 9.614496e-001 3.855042e-002 0.000000e+000 0.000000e+000
 0.000000e+000 0.000000e+000 0.000000e+000 0.000000e+000 0.000000e+000 9.377463e-001 6.225372e-002 0.000000e+000
 0.000000e+000 0.000000e+000 0.000000e+000 0.000000e+000 0.000000e+000 0.000000e+000 9.137760e-001 8.622398e-002
 0.000000e+000 0.000000e+000 0.000000e+000 0.000000e+000 0.000000e+000 0.000000e+000 0.000000e+000 0.000000e+000
<ENDHMM>
~h "HE"
<BEGINHMM>
<NUMSTATES> 8
<STATE> 2
<NUMMIXES> 10
<MIXTURE> 1 6.158881e-002
<MEAN> 9
 -1.018044e+001 -1.331334e+001 9.217741e+000 1.681368e+002 1.752363e+002 1.117233e+002 5.187793e-002 3.615850e-001 1.195128e-001
<VARIANCE> 9
 7.902444e+000 1.370467e+000 2.255455e+000 2.008933e+003 1.455132e+003 2.165474e+003 8.114808e-004 5.782502e-004 1.532459e-003
<GCONST> 2.125214e+001
<MIXTURE> 2 1.232239e-001
<MEAN> 9
 -1.097555e+001 -6.351860e+000 2.661867e+000 1.669388e+002 -7.930899e+000 2.074817e+002 3.355800e-001 2.410955e-001 -1.866202e-002
<VARIANCE> 9
 3.855867e-001 4.291604e+000 5.220461e+000 4.349864e+003 1.048558e+002 1.210095e+002 1.309144e-003 2.425212e-003 1.996492e-003
<GCONST> 1.764692e+001
<MIXTURE> 3 9.416805e-002
<MEAN> 9
 -1.025944e+001 -2.683827e+000 -6.809578e-001 8.344421e+001 -2.106128e+001 1.969958e+002 4.381858e-001 5.682367e-002 -5.901108e-002
<VARIANCE> 9
 1.491142e-001 2.449142e+000 2.550680e-001 1.252392e+002 2.186601e+002 1.210095e+002 4.762525e-004 6.018612e-003 3.187879e-004
<GCONST> 8.367530e+000
<MIXTURE> 4 8.511926e-002
<MEAN> 9
 -1.107504e+001 -1.025952e+001 4.424467e+000 1.431332e+002 4.787058e+001 2.080247e+002 1.911665e-001 3.445463e-001 6.917060e-002
<VARIANCE> 9
 3.261578e+000 3.263548e+000 3.616081e+000 1.868789e+003 2.166901e+003 3.957711e+002 1.944767e-003 5.782502e-004 9.928292e-004
<GCONST> 2.077318e+001
<MIXTURE> 5 7.648519e-002
<MEAN> 9
 -9.408714e+000 -3.010292e+000 -1.937343e+000 2.939295e+001 -1.401694e+002 2.709003e+002 3.913832e-001 -1.261836e-001 -1.479883e-001
<VARIANCE> 9
 1.077215e+000 9.087189e+000 1.110768e+000 9.997183e+002 6.022607e+002 3.162634e+003 8.588483e-004 2.576225e-003 7.608056e-004
<GCONST> 2.009204e+001
<MIXTURE> 6 1.355245e-001
<MEAN> 9
 -1.416508e+001 -9.402368e+000 9.928932e-001 1.896601e+002 2.761644e+001 2.911307e+002 3.431440e-001 1.749012e-001 -8.189295e-002
<VARIANCE> 9
 1.308420e+000 2.834728e+001 2.604705e+000 6.931833e+002 1.153061e+003 3.114203e+003 2.648203e-003 7.496002e-003 1.520013e-003
<GCONST> 2.543047e+001
<MIXTURE> 7 1.409840e-001
<MEAN> 9
 -9.402268e+000 -1.103233e+001 4.854878e+000 7.157039e+001 6.302812e+001 1.421926e+002 7.908032e-002 3.713035e-001 1.438212e-001
<VARIANCE> 9
 1.997321e+000 3.371764e-001 1.575825e+000 8.006655e+002 3.216787e+003 1.081329e+003 1.593038e-003 5.782502e-004 8.582880e-004
<GCONST> 1.738967e+001
<MIXTURE> 8 1.192943e-001
<MEAN> 9
 -1.161800e+001 -5.019542e+000 -2.026276e+000 1.114407e+002 -5.852796e+001 2.900515e+002 4.112711e-001 -1.144066e-002 -1.259310e-001
<VARIANCE> 9
 6.260778e-001 1.885975e+001 9.269704e-001 1.056565e+003 6.180279e+002 3.521449e+003 4.762525e-004 6.313636e-003 3.782302e-004
<GCONST> 1.989513e+001
<MIXTURE> 9 8.577678e-002
<MEAN> 9
 -1.291026e+001 -1.134836e+001 3.529415e+000 1.550322e+002 6.613205e+001 2.309210e+002 1.950615e-001 3.380350e-001 4.032698e-002
<VARIANCE> 9
 5.498983e+000 5.500816e+000 3.151053e+000 2.739510e+003 1.736401e+003 6.188033e+002 1.730554e-003 5.782502e-004 1.480293e-003
<GCONST> 2.257065e+001
<MIXTURE> 10 7.783525e-002
<MEAN> 9
 -9.041529e+000 -3.102179e+000 -2.147789e+000 2.104478e+001 -1.601098e+002 2.939213e+002 3.608638e-001 -1.655799e-001 -1.682813e-001
<VARIANCE> 9
 1.281568e+000 9.330565e+000 1.495219e+000 9.498610e+002 7.647239e+002 2.457802e+003 8.153040e-004 2.039068e-003 4.547768e-004
<GCONST> 1.972449e+001
<STATE> 3
<NUMMIXES> 10
<MIXTURE> 1 1.079972e-001
<MEAN> 9
 1.275978e+001 2.732700e-001 7.613247e+000 4.228967e+001 3.796035e+001 -1.401954e+001 -1.091711e-001 -2.101046e-001 -2.619334e-001
<VARIANCE> 9
 1.679619e+000 1.411256e+000 3.343306e-001 2.958829e+002 4.116237e+002 6.167509e+003 5.125793e-004 5.782502e-004 1.938003e-004
<GCONST> 1.316520e+001
<MIXTURE> 2 1.095632e-001
<MEAN> 9
 4.044003e+000 2.149947e+000 4.630848e+000 -2.582287e+001 -6.317741e+001 2.726780e+002 1.638990e-002 -2.605760e-001 -2.694228e-001
<VARIANCE> 9
 6.078127e+000 1.338244e+000 8.639629e-001 1.021536e+002 5.935618e+002 3.905571e+002 4.097928e-003 5.782502e-004 1.938003e-004
<GCONST> 1.396946e+001
<MIXTURE> 3 7.003752e-002
<MEAN> 9
 -1.581453e+000 -1.390142e+000 1.045582e+000 -6.696800e+000 -1.737341e+002 3.131360e+002 1.509767e-001 -2.415767e-001 -2.218231e-001
<VARIANCE> 9
 3.665169e+001 2.970365e+000 9.515577e-001 1.155449e+003 9.092678e+002 1.305991e+003 3.157879e-002 6.001196e-004 4.565001e-004
<GCONST> 2.365541e+001
<MIXTURE> 4 1.361916e-001
<MEAN> 9
 1.032632e+001 1.635397e+000 7.599652e+000 3.528112e+001 1.851234e+001 -9.657344e+000 -7.538189e-002 -2.339091e-001 -2.708748e-001
<VARIANCE> 9
 1.378885e+000 4.931145e-001 1.934095e-001 6.059130e+002 6.209783e+002 1.633572e+004 4.762525e-004 5.782502e-004 1.938003e-004
<GCONST> 1.339760e+001
<MIXTURE> 5 1.173609e-001
<MEAN> 9
 1.548950e+001 -5.942019e-001 3.151535e+000 2.518022e+001 2.458901e+001 5.293638e+001 -1.933208e-001 -2.167667e-001 -2.032334e-001
<VARIANCE> 9
 1.148699e+001 3.371764e-001 1.268742e+000 3.418392e+002 1.375589e+003 2.908759e+004 1.537518e-003 5.782502e-004 5.749109e-004
<GCONST> 2.007765e+001
<MIXTURE> 6 1.298870e-001
<MEAN> 9
 5.415662e+000 2.473087e+000 5.271766e+000 4.152572e+001 9.424493e+000 -2.462121e+002 -4.036963e-002 -2.911206e-001 -2.356469e-001
<VARIANCE> 9
 4.366874e+000 1.202478e+000 1.175144e+000 1.754547e+003 1.978715e+002 8.374272e+002 3.488625e-003 5.782502e-004 3.438716e-004
<GCONST> 1.675964e+001
<MIXTURE> 7 5.383563e-002
<MEAN> 9
 -4.369838e+000 -6.006432e+000 -1.844216e+000 2.403456e+001 -2.628813e+002 3.847171e+002 1.389330e-001 -2.717117e-001 -2.277578e-001
<VARIANCE> 9
 7.368106e+000 4.041265e-001 4.357507e-001 3.640646e+001 6.503108e+002 1.498783e+002 9.654789e-003 5.782502e-004 1.938003e-004
<GCONST> 1.123888e+001
<MIXTURE> 8 9.928926e-002
<MEAN> 9
 8.050836e+000 2.512590e+000 6.581442e+000 2.113574e+001 -1.746357e+001 1.498414e+001 -4.564369e-002 -2.541626e-001 -2.706418e-001
<VARIANCE> 9
 7.348295e-001 3.371764e-001 1.416785e-001 9.943488e+002 2.937773e+002 3.370780e+004 4.762525e-004 5.782502e-004 1.938003e-004
<GCONST> 1.254808e+001
<MIXTURE> 9 9.800225e-002
<MEAN> 9
 7.643749e-001 1.080519e+000 3.364264e+000 -3.052332e+001 -1.201875e+002 2.975506e+002 8.337849e-002 -2.658389e-001 -2.612020e-001
<VARIANCE> 9
 7.167124e+000 2.142476e+000 4.078915e-001 1.389827e+002 1.202986e+003 3.694224e+002 6.255684e-003 5.782502e-004 1.938003e-004
<GCONST> 1.523601e+001
<MIXTURE> 10 7.783540e-002
<MEAN> 9
 -3.635893e+000 -1.271191e+000 1.114994e+000 -2.280182e+001 -1.906799e+002 3.144293e+002 1.942098e-001 -2.463913e-001 -2.262786e-001
<VARIANCE> 9
 1.838025e+001 2.483494e+000 1.017022e+000 8.896770e+002 4.872429e+002 1.191327e+003 1.672314e-002 6.583821e-004 3.975412e-004
<GCONST> 2.119426e+001
<STATE> 4
<NUMMIXES> 10
<MIXTURE> 1 8.988197e-002
<MEAN> 9
 -1.322187e+001 9.353672e+000 2.399156e+000 -1.581240e+001 -2.582742e+000 -1.306182e+001 3.151394e-001 -2.545520e-001 -1.759070e-001
<VARIANCE> 9
 2.111087e+000 3.371764e-001 6.544741e-001 6.857095e+001 3.573500e+002 7.390768e+003 4.762525e-004 5.782502e-004 1.938003e-004
<GCONST> 1.113785e+001
<MIXTURE> 2 1.022549e-001
<MEAN> 9
 -6.203264e+000 7.082576e+000 4.904504e+000 -1.387431e+001 -2.653951e+001 7.329343e+001 1.661007e-001 -2.914907e-001 -2.307037e-001
<VARIANCE> 9
 4.007983e+000 3.371764e-001 9.508163e-001 7.299750e+002 1.141615e+002 2.485308e+004 1.354130e-003 5.782502e-004 2.654137e-004
<GCONST> 1.594864e+001
<MIXTURE> 3 8.492224e-002
<MEAN> 9
 -1.285017e+000 4.873401e+000 4.807204e+000 2.871349e+001 1.181380e+001 -2.090138e+002 4.253628e-002 -3.151866e-001 -2.286290e-001
<VARIANCE> 9
 5.461333e+000 8.379514e-001 8.601469e-001 2.444972e+003 1.356489e+003 2.913263e+004 3.227839e-003 5.782502e-004 1.938003e-004
<GCONST> 2.146507e+001
<MIXTURE> 4 1.264785e-001
<MEAN> 9
 -9.616247e+000 8.044207e+000 2.843468e+000 -1.090326e+001 -1.032241e+001 3.017759e+001 2.402962e-001 -2.794563e-001 -2.100603e-001
<VARIANCE> 9
 5.714368e-001 3.850870e-001 5.630187e-001 2.278021e+002 2.059697e+002 9.022974e+003 4.826653e-004 5.782502e-004 1.938003e-004
<GCONST> 1.067593e+001
<MIXTURE> 5 1.307209e-001
<MEAN> 9
 -1.038697e+000 4.035992e+000 4.486542e+000 1.546119e+001 -1.934735e+001 -2.584867e+001 6.124586e-002 -3.217641e-001 -2.287128e-001
<VARIANCE> 9
 3.375002e+000 6.911786e-001 4.723278e-001 4.918332e+003 1.571201e+003 7.438545e+004 2.439343e-003 5.782502e-004 1.938003e-004
<GCONST> 2.169498e+001
<MIXTURE> 6 1.406185e-001
<MEAN> 9
 -1.127180e+001 9.187611e+000 7.890266e-001 4.490511e+001 3.834831e+001 -1.329193e+002 1.971765e-001 -3.184122e-001 -1.789359e-001
<VARIANCE> 9
 6.109515e+000 2.861804e+000 4.794018e+000 8.867629e+002 9.028409e+002 7.656375e+003 2.470104e-003 6.976543e-004 8.694812e-004
<GCONST> 2.318708e+001
<MIXTURE> 7 6.761131e-002
<MEAN> 9
 -6.434354e+000 6.243516e+000 3.632504e+000 2.910287e+001 1.242291e+001 -1.147029e+002 1.310093e-001 -3.202796e-001 -2.116923e-001
<VARIANCE> 9
 8.182835e+000 6.846691e-001 1.222723e+000 3.544017e+003 2.407782e+003 4.258495e+004 2.444242e-003 5.782502e-004 2.221120e-004
<GCONST> 2.320208e+001
<MIXTURE> 8 9.180976e-002
<MEAN> 9
 -9.454579e+000 9.092206e+000 6.220651e-001 -4.994966e+001 -2.277686e+001 9.666690e+001 2.104687e-001 -3.342027e-001 -1.682610e-001
<VARIANCE> 9
 4.195926e+000 1.149156e+000 3.359474e+000 7.354232e+002 6.207759e+001 3.867181e+003 9.890731e-004 5.782502e-004 6.947515e-004
<GCONST> 1.666873e+001
<MIXTURE> 9 9.410822e-002
<MEAN> 9
 -6.255797e+000 6.685724e+000 4.231288e+000 -3.009546e+001 -3.607788e+001 1.398664e+002 1.441441e-001 -3.107612e-001 -2.198286e-001
<VARIANCE> 9
 7.866358e+000 8.038239e-001 9.536116e-001 1.575326e+003 2.281580e+002 2.136307e+004 1.791771e-003 5.782502e-004 2.400173e-004
<GCONST> 1.898444e+001
<MIXTURE> 10 7.159358e-002
<MEAN> 9
 -6.667616e+000 5.980085e+000 3.691126e+000 2.171284e+001 1.380353e+001 -8.692228e+001 1.210283e-001 -3.197617e-001 -2.162417e-001
<VARIANCE> 9
 9.020402e+000 7.649683e-001 1.387364e+000 2.966517e+003 3.259324e+003 4.981213e+004 2.648663e-003 5.782502e-004 1.938003e-004
<GCONST> 2.376241e+001
<STATE> 5
<NUMMIXES> 10
<MIXTURE> 1 8.307948e-002
<MEAN> 9
 1.431856e+001 8.915339e-001 4.185426e+000 2.921400e+001 2.419943e+001 6.510280e+001 -2.000320e-001 -2.173364e-001 -1.995145e-001
<VARIANCE> 9
 4.307493e+000 3.869503e-001 1.759925e-001 3.811471e+001 6.844309e+002 1.723358e+004 4.762525e-004 5.782502e-004 1.938003e-004
<GCONST> 1.158453e+001
<MIXTURE> 2 1.333294e-001
<MEAN> 9
 4.921977e+000 4.298637e+000 5.624333e+000 -1.530346e+000 2.546906e-003 -4.504940e+001 -5.442562e-002 -2.797262e-001 -2.483487e-001
<VARIANCE> 9
 2.402609e+000 7.495440e-001 1.717832e-001 5.865507e+002 1.039593e+002 3.406098e+004 9.674988e-004 5.782502e-004 1.938003e-004
<GCONST> 1.387682e+001
<MIXTURE> 3 1.626361e-001
<MEAN> 9
 9.109253e+000 2.859743e+000 4.834516e+000 7.656995e+000 3.563526e+000 1.280903e+000 -1.323888e-001 -2.574712e-001 -2.288036e-001
<VARIANCE> 9
 5.701123e-001 4.544790e-001 3.463111e-001 2.336824e+002 2.314274e+002 1.716123e+004 4.762525e-004 5.782502e-004 1.938003e-004
<GCONST> 1.112484e+001
<MIXTURE> 4 6.749371e-002
<MEAN> 9
 2.587291e+000 3.281428e+000 6.039291e+000 2.045116e+001 -3.493164e+001 7.282837e+001 -1.534059e-002 -2.938150e-001 -2.478200e-001
<VARIANCE> 9
 4.878556e+000 2.253430e+000 4.217933e-001 1.870286e+003 3.745417e+002 6.281020e+004 2.952943e-003 5.782502e-004 2.250096e-004
<GCONST> 2.090256e+001
<MIXTURE> 5 8.937751e-002
<MEAN> 9
 1.177418e+001 -2.988952e-001 7.275858e+000 1.007661e+001 -1.506943e+000 1.329263e+001 -1.443888e-001 -1.565247e-001 -2.701615e-001
<VARIANCE> 9
 1.465375e+000 3.979339e-001 5.612591e-001 6.222025e+002 2.509350e+002 1.126978e+004 4.762525e-004 5.782502e-004 1.938003e-004
<GCONST> 1.305855e+001
<MIXTURE> 6 7.622217e-002
<MEAN> 9
 1.885482e+000 4.327878e+000 5.033266e+000 -6.413602e+000 1.839878e+001 -2.113586e+002 -1.552044e-002 -2.814287e-001 -2.464672e-001
<VARIANCE> 9
 7.060703e+000 5.077182e-001 4.787056e-001 1.875012e+003 1.203873e+002 1.947559e+003 3.159836e-003 5.782502e-004 1.938003e-004
<GCONST> 1.522094e+001
<MIXTURE> 7 1.249275e-001
<MEAN> 9
 8.155455e+000 5.100017e-001 6.579796e+000 -2.349678e+000 -1.709004e+001 -1.066369e+001 -9.799680e-002 -2.212397e-001 -2.660916e-001
<VARIANCE> 9
 1.239441e+000 3.371764e-001 5.895564e-001 2.675907e+003 7.327751e+002 5.029848e+004 4.762525e-004 5.782502e-004 1.938003e-004
<GCONST> 1.680088e+001
<MIXTURE> 8 9.345520e-002
<MEAN> 9
 3.224153e+000 2.161961e+000 5.422827e+000 -6.219128e+001 -5.654485e+001 2.873315e+002 -2.043680e-002 -2.844490e-001 -2.485801e-001
<VARIANCE> 9
 3.549111e+000 6.252819e-001 5.761825e-001 1.538067e+003 9.155572e+001 2.274082e+003 2.664022e-003 5.782502e-004 2.953121e-004
<GCONST> 1.486037e+001
<MIXTURE> 9 7.960699e-002
<MEAN> 9
 2.238593e+000 3.815943e+000 4.470763e+000 1.211072e+000 1.546696e+001 -2.424692e+002 -3.746411e-002 -2.910758e-001 -2.356668e-001
<VARIANCE> 9
 5.827734e+000 3.931868e-001 6.766487e-001 3.331303e+003 2.016873e+002 1.847968e+003 2.698682e-003 5.782502e-004 1.938003e-004
<GCONST> 1.599995e+001
<MIXTURE> 10 8.987178e-002
<MEAN> 9
 1.134549e+001 -2.996484e-001 7.100299e+000 1.103829e+001 1.741771e+000 -6.876783e-001 -1.417688e-001 -1.635868e-001 -2.713679e-001
<VARIANCE> 9
 1.399533e+000 3.371764e-001 6.566412e-001 8.370092e+002 2.682437e+002 1.473315e+004 4.762525e-004 5.782502e-004 1.938003e-004
<GCONST> 1.363510e+001
<STATE> 6
<NUMMIXES> 10
<MIXTURE> 1 8.897663e-002
<MEAN> 9
 -3.765451e+000 1.551415e+000 2.882627e+000 -1.387011e+002 8.660302e+001 -8.054623e+001 2.397457e-001 -1.434606e-001 -2.600183e-001
<VARIANCE> 9
 7.925785e-001 2.379594e+000 1.265583e+000 1.575670e+003 1.058172e+003 3.622751e+003 1.490695e-003 4.043120e-003 2.387080e-004
<GCONST> 1.957310e+001
<MIXTURE> 2 1.117527e-001
<MEAN> 9
 -1.867650e+000 4.119780e+000 4.311162e+000 -5.306881e+001 2.515575e+001 -1.856023e+002 7.150149e-002 -2.530445e-001 -2.669477e-001
<VARIANCE> 9
 1.115467e+000 3.371764e-001 1.821134e-001 5.381309e+002 3.144264e+002 1.210095e+002 1.301340e-003 5.782502e-004 1.938003e-004
<GCONST> 8.046065e+000
<MIXTURE> 3 6.357332e-002
<MEAN> 9
 -7.836765e+000 -2.428887e+000 4.913014e+000 -1.782891e+002 1.175784e+002 -1.957715e+002 3.269960e-001 6.473695e-002 -2.032523e-001
<VARIANCE> 9
 1.402193e+000 1.159594e+000 8.212389e-001 9.680244e+002 1.983292e+003 5.358492e+002 4.762525e-004 2.740143e-003 7.098380e-004
<GCONST> 1.678190e+001
<MIXTURE> 4 1.322463e-001
<MEAN> 9
 -5.750335e+000 6.748793e+000 3.442155e+000 -2.371782e+001 -3.078929e+000 -7.537331e+001 1.754415e-001 -2.741700e-001 -2.305172e-001
<VARIANCE> 9
 1.317343e+000 1.795341e+000 1.029874e-001 6.631853e+002 3.182991e+002 3.049561e+003 4.762525e-004 5.782502e-004 1.938003e-004
<GCONST> 1.175761e+001
<MIXTURE> 5 1.052742e-001
<MEAN> 9
 -7.109859e+000 -6.758317e-001 3.592287e+000 -1.151539e+002 4.582209e+001 -2.017207e+002 2.591551e-001 -9.108075e-002 -2.628264e-001
<VARIANCE> 9
 1.661002e+000 2.285272e+000 5.190935e-001 5.038233e+002 2.951387e+003 1.210095e+002 4.762525e-004 6.253607e-003 2.167152e-004
<GCONST> 1.506617e+001
<MIXTURE> 6 8.876647e-002
<MEAN> 9
 -3.594035e+000 2.465012e+000 4.030505e+000 -9.244013e+001 5.283917e+001 -1.761606e+002 1.287505e-001 -1.954904e-001 -2.863863e-001
<VARIANCE> 9
 2.291662e-001 7.689413e-001 1.104996e-001 5.040325e+002 5.470743e+002 1.293141e+002 1.674197e-003 6.166117e-004 1.938003e-004
<GCONST> 7.659194e+000
<MIXTURE> 7 1.267889e-001
<MEAN> 9
 -4.696965e+000 4.118049e+000 1.969808e+000 1.433069e+001 9.723169e+000 -2.417092e+002 1.367424e-001 -3.206832e-001 -2.141901e-001
<VARIANCE> 9
 1.759714e+000 2.456492e+000 1.897626e+000 2.820939e+003 1.023315e+003 1.256693e+003 2.871184e-003 5.782502e-004 1.938003e-004
<GCONST> 1.880003e+001
<MIXTURE> 8 1.182026e-001
<MEAN> 9
 -1.013238e+001 -4.439853e+000 4.292040e+000 -1.582207e+002 2.556750e+001 -2.040950e+002 2.718419e-001 9.765637e-002 -2.296662e-001
<VARIANCE> 9
 2.945440e+000 1.353239e+000 4.352745e-001 8.777026e+002 2.150749e+003 1.852908e+002 4.762525e-004 2.339435e-003 4.621813e-004
<GCONST> 1.537772e+001
<MIXTURE> 9 7.933419e-002
<MEAN> 9
 -7.467881e+000 -1.569854e+000 2.800889e+000 -1.318595e+002 3.117862e+001 -2.064223e+002 2.553802e-001 -9.818246e-002 -2.565170e-001
<VARIANCE> 9
 2.856561e+000 4.435065e+000 1.086022e-001 7.870851e+002 8.204676e+003 1.210095e+002 4.762525e-004 9.497026e-003 1.938003e-004
<GCONST> 1.648163e+001
<MIXTURE> 10 8.508479e-002
<MEAN> 9
 -4.606591e+000 3.026615e-001 2.837310e+000 -1.345553e+002 9.140867e+001 -1.301800e+002 2.093838e-001 -1.210584e-001 -2.778425e-001
<VARIANCE> 9
 2.013048e+000 3.916571e+000 1.014470e+000 9.155485e+002 1.070846e+003 4.401063e+003 1.231829e-003 3.837289e-003 3.695987e-004
<GCONST> 2.064012e+001
<STATE> 7
<NUMMIXES> 10
<MIXTURE> 1 8.883693e-002
<MEAN> 9
 -4.825273e+000 -1.043256e+001 6.337960e+000 -3.363748e+000 1.377770e+002 -2.274657e+001 -2.101676e-002 3.649811e-001 1.806333e-001
<VARIANCE> 9
 4.254071e+001 2.079957e+000 4.262895e+001 1.012005e+003 4.761630e+003 2.665023e+002 4.762525e-004 5.782502e-004 6.345782e-004
<GCONST> 2.328204e+001
<MIXTURE> 2 1.294144e-001
<MEAN> 9
 -8.567821e+000 -1.202108e+001 4.994329e+000 -1.109602e+002 -8.021652e+000 -1.425182e+002 9.277702e-002 3.557492e-001 5.597819e-002
<VARIANCE> 9
 4.194613e+000 1.385053e+000 4.695184e-001 5.650012e+002 1.039623e+003 2.236703e+003 2.044281e-003 5.782502e-004 2.659941e-003
<GCONST> 1.896292e+001
<MIXTURE> 3 1.208471e-001
<MEAN> 9
 -9.746979e+000 -8.159313e+000 6.048228e+000 -1.520607e+002 7.177866e+001 -2.359717e+002 2.740827e-001 2.521706e-001 -7.591256e-002
<VARIANCE> 9
 1.671675e+000 7.262863e+000 7.750596e-001 7.256973e+002 1.499065e+003 6.080558e+002 1.796170e-003 3.104035e-003 4.916940e-003
<GCONST> 2.168046e+001
<MIXTURE> 4 1.043637e-001
<MEAN> 9
 -4.049137e+000 -1.069322e+001 3.817857e+000 -6.258495e+001 1.216906e+001 -3.161210e+001 7.002684e-004 3.700684e-001 1.618753e-001
<VARIANCE> 9
 1.210239e+000 5.319899e-001 1.872878e+000 2.803344e+002 1.220233e+003 7.614638e+002 4.762525e-004 5.782502e-004 1.123873e-003
<GCONST> 1.421004e+001
<MIXTURE> 5 1.107979e-001
<MEAN> 9
 -8.459419e+000 -1.029662e+001 6.132434e+000 -1.642607e+002 -1.239728e+001 -1.725877e+002 1.603044e-001 2.887995e-001 -9.845896e-002
<VARIANCE> 9
 1.578326e+000 1.443587e+000 6.816519e-001 1.766145e+003 8.507253e+002 1.210095e+002 9.572739e-004 5.782502e-004 7.717950e-004
<GCONST> 1.442595e+001
<MIXTURE> 6 7.716665e-002
<MEAN> 9
 -5.505605e+000 -1.078787e+001 5.429176e+000 -1.025933e+002 -6.198552e+001 -4.824871e+001 2.482994e-002 3.584801e-001 7.788380e-002
<VARIANCE> 9
 2.380704e+000 7.012068e-001 1.109974e+000 3.776935e+002 4.121472e+002 3.213877e+002 4.762525e-004 5.782502e-004 1.362010e-003
<GCONST> 1.318192e+001
<MIXTURE> 7 1.163707e-001
<MEAN> 9
 -7.890451e+000 -1.255110e+001 5.738894e+000 -1.705425e+002 2.357907e+001 -1.333277e+002 8.150542e-002 3.330280e-001 -2.108726e-002
<VARIANCE> 9
 2.182137e+000 1.592289e+000 1.598833e+000 1.246928e+003 1.261668e+003 7.919962e+002 9.239505e-004 5.782502e-004 1.883478e-003
<GCONST> 1.848184e+001
<MIXTURE> 8 7.972812e-002
<MEAN> 9
 -8.878158e+000 -8.852402e+000 5.177430e+000 -2.084449e+002 -3.191425e+001 -1.903130e+002 2.082737e-001 2.091026e-001 -1.798933e-001
<VARIANCE> 9
 2.192763e+000 7.907423e-001 6.948172e-001 4.158506e+001 4.024833e+003 1.260003e+002 6.498827e-004 9.545537e-004 5.183692e-004
<GCONST> 1.173362e+001
<MIXTURE> 9 9.992259e-002
<MEAN> 9
 -5.138116e+000 -1.082985e+001 3.841279e+000 -7.873582e+001 1.666325e+001 -5.847596e+001 1.090919e-002 3.692625e-001 1.584264e-001
<VARIANCE> 9
 1.688422e+000 4.006240e-001 2.320047e+000 2.073893e+002 9.507437e+002 9.942650e+002 5.709190e-004 5.782502e-004 5.324918e-004
<GCONST> 1.362368e+001
<MIXTURE> 10 7.255210e-002
<MEAN> 9
 -6.593558e+000 -1.125658e+001 5.338198e+000 -1.161030e+002 -5.978459e+001 -6.355981e+001 2.724768e-002 3.551011e-001 7.200263e-002
<VARIANCE> 9
 1.825278e+000 7.391685e-001 1.440632e+000 2.991767e+002 3.224430e+002 3.714664e+002 4.762525e-004 5.782502e-004 1.178365e-003
<GCONST> 1.275121e+001
<TRANSP> 8
 0.000000e+000 1.000000e+000 0.000000e+000 0.000000e+000 0.000000e+000 0.000000e+000 0.000000e+000 0.000000e+000
 0.000000e+000 9.563707e-001 4.362931e-002 0.000000e+000 0.000000e+000 0.000000e+000 0.000000e+000 0.000000e+000
 0.000000e+000 0.000000e+000 9.577373e-001 4.226265e-002 0.000000e+000 0.000000e+000 0.000000e+000 0.000000e+000
 0.000000e+000 0.000000e+000 0.000000e+000 9.557931e-001 4.420686e-002 0.000000e+000 0.000000e+000 0.000000e+000
 0.000000e+000 0.000000e+000 0.000000e+000 0.000000e+000 9.632695e-001 3.673047e-002 0.000000e+000 0.000000e+000
 0.000000e+000 0.000000e+000 0.000000e+000 0.000000e+000 0.000000e+000 9.529738e-001 4.702616e-002 0.000000e+000
 0.000000e+000 0.000000e+000 0.000000e+000 0.000000e+000 0.000000e+000 0.000000e+000 9.512584e-001 4.874168e-002
 0.000000e+000 0.000000e+000 0.000000e+000 0.000000e+000 0.000000e+000 0.000000e+000 0.000000e+000 0.000000e+000
<ENDHMM>
~h "SR"
<BEGINHMM>
<NUMSTATES> 8
<STATE> 2
<NUMMIXES> 10
<MIXTURE> 1 1.094953e-001
<MEAN> 9
 -9.102425e+000 -8.296041e+000 1.659613e+000 -6.786160e+001 -1.092773e+001 2.621505e+002 4.789719e-001 1.283488e-001 2.338832e-001
<VARIANCE> 9
 2.069235e-001 1.958319e+000 2.960824e-001 8.137932e+002 3.622899e+002 2.704097e+002 6.859308e-004 3.417567e-003 1.938003e-004
<GCONST> 1.110230e+001
<MIXTURE> 2 1.058421e-001
<MEAN> 9
 -9.353230e+000 -1.079322e+001 1.565099e+000 -8.871562e+000 -1.680392e+002 2.019967e+002 1.885556e-001 3.701563e-001 2.284691e-001
<VARIANCE> 9
 5.575734e-001 8.587005e-001 5.732560e-001 1.483898e+002 5.973065e+003 7.480356e+002 1.914208e-003 5.782502e-004 1.938003e-004
<GCONST> 1.329765e+001
<MIXTURE> 3 8.574641e-002
<MEAN> 9
 -1.015084e+001 -1.041645e+001 2.756948e-001 -4.919862e+001 -7.840572e+001 2.658736e+002 2.999343e-001 3.210249e-001 2.167529e-001
<VARIANCE> 9
 4.327855e-001 1.931044e+000 2.179334e+000 1.159258e+003 1.964926e+003 1.245336e+003 2.884400e-003 1.098557e-003 1.938003e-004
<GCONST> 1.769549e+001
<MIXTURE> 4 9.942679e-002
<MEAN> 9
 -9.314002e+000 -1.084924e+001 5.995263e-002 -3.633018e+000 -1.087175e+002 1.666593e+002 8.899888e-002 3.789089e-001 2.026056e-001
<VARIANCE> 9
 1.545040e+000 4.611872e-001 9.525843e-001 3.417534e+002 3.663928e+002 2.121893e+003 3.215995e-003 5.782502e-004 1.938003e-004
<GCONST> 1.380747e+001
<MIXTURE> 5 1.464123e-001
<MEAN> 9
 -1.025898e+001 -7.879330e+000 -3.268284e-001 -8.942110e+001 -5.182921e+001 2.558028e+002 3.818665e-001 2.614822e-001 2.311970e-001
<VARIANCE> 9
 7.192756e-001 1.090841e+000 6.290791e-001 1.443968e+003 5.424557e+002 1.210095e+002 2.015247e-003 1.851827e-003 1.938003e-004
<GCONST> 1.315468e+001
<MIXTURE> 6 1.013845e-001
<MEAN> 9
 -7.737753e+000 -1.061906e+001 7.591490e-001 -6.440190e+000 -2.940289e+002 9.723403e+001 6.746589e-002 3.753690e-001 2.374063e-001
<VARIANCE> 9
 3.470476e+000 3.371764e-001 6.536918e-001 3.956666e+001 1.878854e+003 1.458600e+003 7.873968e-004 5.782502e-004 1.938003e-004
<GCONST> 1.162359e+001
<MIXTURE> 7 5.800496e-002
<MEAN> 9
 -1.165758e+001 -1.182421e+001 -3.424812e-001 -2.567636e+000 -1.668687e+002 1.910977e+002 8.159645e-002 3.703961e-001 2.125299e-001
<VARIANCE> 9
 6.047157e+000 3.391652e-001 1.176138e+000 3.812962e+002 3.718931e+003 3.488169e+003 2.026456e-003 5.782502e-004 1.938003e-004
<GCONST> 1.753770e+001
<MIXTURE> 8 1.083596e-001
<MEAN> 9
 -8.262673e+000 -1.050885e+001 2.322749e-001 -6.962179e+000 -2.337099e+002 4.527468e+001 1.145075e-002 3.702268e-001 2.166704e-001
<VARIANCE> 9
 1.239504e+000 6.400183e-001 1.996156e+000 4.811530e+001 6.728609e+003 7.661160e+002 4.762525e-004 5.782502e-004 1.938003e-004
<GCONST> 1.267588e+001
<MIXTURE> 9 1.019872e-001
<MEAN> 9
 -9.255030e+000 -9.195962e+000 1.108763e+000 -1.213255e+002 -5.133815e+001 2.805073e+002 4.709379e-001 1.430719e-001 2.429472e-001
<VARIANCE> 9
 6.088285e-001 5.966377e+000 3.540515e-001 1.387842e+003 9.983096e+002 2.455608e+003 6.833725e-004 2.822003e-003 2.362567e-004
<GCONST> 1.723083e+001
<MIXTURE> 10 8.334095e-002
<MEAN> 9
 -1.075674e+001 -1.122644e+001 -1.200294e+000 -7.355920e+001 -1.167725e+002 2.773599e+002 2.789629e-001 3.287565e-001 2.165328e-001
<VARIANCE> 9
 7.000808e-001 3.174956e+000 1.660689e+000 1.018384e+003 1.767264e+003 2.624460e+003 3.450805e-003 1.264019e-003 1.938003e-004
<GCONST> 1.923137e+001
<STATE> 3
<NUMMIXES> 10
<MIXTURE> 1 9.744227e-002
<MEAN> 9
 -3.706865e+000 1.170376e+000 2.396049e+000 1.168668e+002 1.678562e+001 -1.980459e+002 5.156435e-001 -3.312770e-002 2.012120e-001
<VARIANCE> 9
 2.811713e+000 3.371764e-001 2.299561e-001 1.737957e+002 7.437753e+002 8.138156e+002 4.762525e-004 2.977404e-003 1.823486e-003
<GCONST> 1.371575e+001
<MIXTURE> 2 1.123686e-001
<MEAN> 9
 -4.952785e+000 -2.057907e+000 2.239437e+000 -7.156190e+000 -1.783552e+001 5.429526e+001 5.022904e-001 -1.528234e-001 2.153035e-001
<VARIANCE> 9
 1.111050e+000 9.157733e-001 1.294863e-001 5.735177e+002 9.788299e+001 2.759874e+003 4.762525e-004 5.782502e-004 5.695370e-004
<GCONST> 1.079678e+001
<MIXTURE> 3 1.414504e-001
<MEAN> 9
 -7.087860e+000 -5.293852e+000 2.307661e+000 -6.367130e+001 -1.699898e+001 2.027982e+002 5.183250e-001 -3.846370e-002 2.332616e-001
<VARIANCE> 9
 7.117378e-001 9.284096e-001 1.998089e-001 7.401052e+002 1.214618e+002 1.074391e+003 4.762525e-004 2.286104e-003 2.415968e-004
<GCONST> 1.084337e+001
<MIXTURE> 4 6.990915e-002
<MEAN> 9
 -2.454639e+000 3.433770e-002 2.934453e+000 6.616068e+001 3.381459e+000 -1.478652e+002 5.069999e-001 -1.074672e-001 1.694380e-001
<VARIANCE> 9
 2.736807e+000 7.545524e-001 2.621486e-001 2.382117e+002 6.459478e+002 7.576712e+003 4.762525e-004 5.504224e-003 1.543302e-003
<GCONST> 1.747829e+001
<MIXTURE> 5 1.211126e-001
<MEAN> 9
 -7.537495e+000 1.103035e+000 2.417868e+000 7.433078e+001 1.175247e+001 -2.404823e+002 4.960549e-001 1.034859e-001 1.845027e-001
<VARIANCE> 9
 4.266164e+000 6.731465e-001 1.060130e+000 6.167772e+002 6.911863e+002 3.976467e+002 4.762525e-004 1.580282e-003 6.178689e-004
<GCONST> 1.511374e+001
<MIXTURE> 6 1.146304e-001
<MEAN> 9
 -1.737451e+000 -5.017338e-001 3.333790e+000 2.622198e+001 -4.562397e+001 -1.021990e+002 5.002101e-001 -1.185944e-001 1.424667e-001
<VARIANCE> 9
 6.290648e+000 4.064197e-001 4.705109e-001 4.397156e+002 3.224035e+002 1.120706e+004 4.762525e-004 1.057613e-002 1.938003e-004
<GCONST> 1.716448e+001
<MIXTURE> 7 1.132676e-001
<MEAN> 9
 -3.719630e+000 -2.993440e+000 2.841883e+000 -4.379483e+001 -4.676624e+001 1.047395e+002 5.089802e-001 -1.498881e-001 1.807673e-001
<VARIANCE> 9
 2.499365e+000 7.209378e-001 2.874000e-001 3.081538e+002 1.418557e+002 2.063339e+003 4.762525e-004 7.557714e-004 2.884936e-004
<GCONST> 1.121216e+001
<MIXTURE> 8 7.082714e-002
<MEAN> 9
 -5.802852e+000 -7.011822e+000 2.920121e+000 -1.075591e+002 -4.496880e+001 2.323571e+002 5.149205e-001 -2.953258e-002 2.244260e-001
<VARIANCE> 9
 6.616407e+000 3.953527e+000 5.348535e-001 4.291027e+002 2.479214e+002 2.032818e+003 4.762525e-004 2.281358e-003 3.879172e-004
<GCONST> 1.678401e+001
<MIXTURE> 9 9.763574e-002
<MEAN> 9
 -3.320372e+000 8.697719e-001 2.659104e+000 1.032748e+002 1.683295e+001 -1.879503e+002 5.159824e-001 -6.227242e-002 1.785136e-001
<VARIANCE> 9
 2.894481e+000 3.371764e-001 2.282626e-001 1.810441e+002 6.332191e+002 1.495879e+003 4.762525e-004 3.240532e-003 1.782130e-003
<GCONST> 1.428779e+001
<MIXTURE> 10 6.135608e-002
<MEAN> 9
 -2.594248e+000 5.081397e-002 2.706003e+000 5.773386e+001 -5.132913e+000 -1.307630e+002 5.023011e-001 -1.221598e-001 1.705379e-001
<VARIANCE> 9
 3.712730e+000 8.180065e-001 3.190832e-001 2.353417e+002 7.423489e+002 1.034689e+004 4.762525e-004 6.796663e-003 1.727661e-003
<GCONST> 1.882290e+001
<STATE> 4
<NUMMIXES> 10
<MIXTURE> 1 7.632587e-002
<MEAN> 9
 -3.687678e+000 -8.560109e+000 4.871008e+000 -1.577570e-001 -7.022073e+000 1.649096e+002 4.866730e-001 1.109425e-001 1.360902e-001
<VARIANCE> 9
 5.013106e+000 3.630269e+000 2.292861e-001 7.601188e+001 5.165293e+001 1.484302e+003 4.762525e-004 1.201562e-003 1.080728e-003
<GCONST> 1.234379e+001
<MIXTURE> 2 1.134400e-001
<MEAN> 9
 -1.237651e+001 9.148663e-001 2.558706e+000 1.607319e+001 -3.082594e+001 -2.150864e+002 4.483049e-001 1.995590e-001 1.771952e-001
<VARIANCE> 9
 3.887777e+000 7.069913e-001 3.290076e+000 5.178823e+002 8.389069e+002 1.373136e+003 4.762525e-004 7.955423e-004 9.384530e-004
<GCONST> 1.719228e+001
<MIXTURE> 3 1.191401e-001
<MEAN> 9
 -1.415355e+001 -5.830501e+000 4.505242e+000 -4.938245e+001 -3.898629e+001 2.528091e+001 3.884992e-001 2.672059e-001 1.532361e-001
<VARIANCE> 9
 8.462803e+000 3.106501e+000 2.571473e-001 2.143427e+002 7.225709e+002 2.939795e+003 4.762525e-004 5.782502e-004 3.830591e-004
<GCONST> 1.541606e+001
<MIXTURE> 4 1.041551e-001
<MEAN> 9
 -8.550252e+000 -1.062701e+001 6.013676e+000 -1.986999e+001 -8.172894e+000 1.595681e+002 4.382992e-001 2.101851e-001 1.575868e-001
<VARIANCE> 9
 4.067100e+000 6.786469e+000 5.137347e-001 6.219296e+002 3.247641e+002 2.899383e+003 4.762525e-004 5.782502e-004 1.162609e-003
<GCONST> 1.751873e+001
<MIXTURE> 5 8.340092e-002
<MEAN> 9
 -1.697776e+001 -8.603229e+000 3.824277e+000 -5.678481e+001 -6.285583e+001 4.168810e+001 3.691437e-001 2.865788e-001 1.887583e-001
<VARIANCE> 9
 9.383739e+000 1.538095e+001 5.380639e+000 6.691836e+002 1.969520e+003 6.206015e+003 4.762525e-004 5.782502e-004 2.201968e-003
<GCONST> 2.479721e+001
<MIXTURE> 6 1.239976e-001
<MEAN> 9
 -6.249904e+000 -7.471781e+000 4.717833e+000 -1.882039e+001 -2.281129e+000 1.118306e+002 4.738159e-001 1.499098e-001 1.901429e-001
<VARIANCE> 9
 1.183076e+000 1.961254e+000 6.055298e-001 1.044586e+002 7.579860e+001 9.087531e+002 4.762525e-004 5.782502e-004 8.451999e-004
<GCONST> 1.048888e+001
<MIXTURE> 7 1.382084e-001
<MEAN> 9
 -1.447895e+001 -9.678109e-001 3.426440e+000 -2.044523e+001 -4.889762e+001 -1.373125e+002 4.093485e-001 2.457792e-001 1.613233e-001
<VARIANCE> 9
 9.646939e+000 1.058920e+000 2.165812e+000 3.384928e+002 1.946441e+003 1.717453e+003 4.762525e-004 5.782502e-004 5.761062e-004
<GCONST> 1.792015e+001
<MIXTURE> 8 6.166909e-002
<MEAN> 9
 -1.349192e+001 -4.354529e+000 4.232508e+000 -3.382518e+001 -4.701212e+001 -2.328307e+001 3.717298e-001 2.800735e-001 1.393894e-001
<VARIANCE> 9
 7.363774e+000 2.410298e+000 4.243124e-001 2.294292e+002 1.499567e+003 2.555141e+003 5.470485e-004 5.782502e-004 3.911389e-004
<GCONST> 1.634140e+001
<MIXTURE> 9 1.141336e-001
<MEAN> 9
 -1.164693e+001 -1.078006e+001 5.563467e+000 -4.566307e+001 -3.305185e+001 1.428992e+002 4.223142e-001 2.319812e-001 1.755697e-001
<VARIANCE> 9
 8.048755e+000 4.275443e+000 3.288416e-001 2.262804e+002 4.532993e+002 1.208643e+003 4.762525e-004 5.782502e-004 1.082706e-003
<GCONST> 1.566935e+001
<MIXTURE> 10 6.552954e-002
<MEAN> 9
 -1.379595e+001 -4.383554e+000 4.258547e+000 -3.362610e+001 -6.267894e+001 -2.463082e+001 3.640732e-001 2.834913e-001 1.366032e-001
<VARIANCE> 9
 6.534366e+000 2.619915e+000 5.256923e-001 2.149511e+002 1.509948e+003 2.612931e+003 5.750789e-004 5.782502e-004 3.493023e-004
<GCONST> 1.642046e+001
<STATE> 5
<NUMMIXES> 10
<MIXTURE> 1 9.086540e-002
<MEAN> 9
 -6.831573e+000 -4.352536e+000 2.252869e+000 5.924207e+001 2.992859e+001 -7.080904e+001 4.782061e-001 1.393172e-001 2.237486e-001
<VARIANCE> 9
 1.491142e-001 3.371764e-001 4.352601e-001 5.897146e+001 2.040153e+002 5.389019e+002 4.762525e-004 5.782502e-004 3.333826e-004
<GCONST> 5.292387e+000
<MIXTURE> 2 1.232219e-001
<MEAN> 9
 -4.338162e+000 -4.874594e+000 4.506531e+000 -1.683078e+000 -2.627172e+000 3.260818e+001 4.994918e-001 7.067142e-002 1.290965e-001
<VARIANCE> 9
 2.438086e+000 3.371764e-001 1.040658e-001 4.722524e+001 1.034754e+002 2.570951e+003 4.762525e-004 9.663514e-004 1.498030e-003
<GCONST> 9.333368e+000
<MIXTURE> 3 8.325401e-002
<MEAN> 9
 -7.495310e+000 -3.576450e+000 4.614181e+000 1.172106e+001 4.390069e+000 -1.341747e+001 5.059443e-001 6.521110e-002 1.638084e-001
<VARIANCE> 9
 2.604374e-001 4.183294e-001 9.590194e-002 1.358334e+002 9.708118e+001 6.225799e+002 4.762525e-004 1.707339e-003 1.938003e-004
<GCONST> 5.329371e+000
<MIXTURE> 4 1.620726e-001
<MEAN> 9
 -6.397828e+000 -4.403491e+000 3.610796e+000 4.499832e+001 1.624601e+001 -9.301990e+001 4.713858e-001 1.568907e-001 1.574194e-001
<VARIANCE> 9
 2.732214e-001 3.371764e-001 3.679332e-001 5.438317e+001 2.898877e+002 5.309112e+002 4.762525e-004 1.475767e-003 1.938003e-004
<GCONST> 6.379741e+000
<MIXTURE> 5 7.761641e-002
<MEAN> 9
 -7.557047e+000 -4.522292e+000 4.175262e+000 3.402802e+001 1.671895e+001 -3.143804e+001 4.912532e-001 1.157260e-001 1.846471e-001
<VARIANCE> 9
 3.071532e-001 3.371764e-001 3.639274e-001 4.705527e+001 2.663758e+002 1.528889e+002 4.762525e-004 5.782502e-004 6.923258e-004
<GCONST> 5.347957e+000
<MIXTURE> 6 1.278130e-001
<MEAN> 9
 -7.387354e+000 -4.184825e+000 3.967616e+000 6.323586e+000 -3.156294e+000 5.349493e-002 4.967688e-001 1.024074e-001 1.952288e-001
<VARIANCE> 9
 3.839194e-001 3.371764e-001 2.442742e-001 9.246160e+001 6.787747e+001 1.673562e+002 4.762525e-004 5.782502e-004 9.725469e-004
<GCONST> 4.910922e+000
<MIXTURE> 7 7.882653e-002
<MEAN> 9
 -5.844729e+000 -4.744049e+000 3.330555e+000 1.236386e+001 2.759245e+001 -1.414541e+002 4.612391e-001 1.460313e-001 1.088505e-001
<VARIANCE> 9
 1.491142e-001 3.371764e-001 1.992324e-001 4.469205e+002 4.862153e+002 9.514124e+002 4.872800e-004 2.120265e-003 3.155211e-004
<GCONST> 9.240227e+000
<MIXTURE> 8 9.669283e-002
<MEAN> 9
 -6.054341e+000 -4.806569e+000 4.029948e+000 -1.337610e+001 -7.988227e+000 4.530476e+001 4.927651e-001 1.029681e-001 1.942017e-001
<VARIANCE> 9
 4.457928e-001 3.858870e-001 3.436037e-001 1.053431e+002 3.680466e+001 4.197468e+002 4.762525e-004 5.782502e-004 1.115412e-003
<GCONST> 6.111419e+000
<MIXTURE> 9 8.679447e-002
<MEAN> 9
 -7.527081e+000 -3.516509e+000 4.646248e+000 1.450339e+001 9.387279e-001 -2.194695e+001 5.073246e-001 6.114641e-002 1.626885e-001
<VARIANCE> 9
 1.651000e-001 4.897308e-001 1.140521e-001 1.380688e+002 9.288789e+001 6.728796e+002 4.762525e-004 1.488912e-003 1.938003e-004
<GCONST> 5.117449e+000
<MIXTURE> 10 7.284273e-002
<MEAN> 9
 -7.477986e+000 -4.539577e+000 4.054968e+000 3.182771e+001 1.077292e+001 -3.369770e+001 4.913641e-001 1.150905e-001 1.824855e-001
<VARIANCE> 9
 2.611419e-001 3.371764e-001 2.337988e-001 5.470815e+001 2.775705e+002 1.716844e+002 4.762525e-004 5.782502e-004 6.046705e-004
<GCONST> 4.915612e+000
<STATE> 6
<NUMMIXES> 10
<MIXTURE> 1 6.765368e-002
<MEAN> 9
 -6.631795e+000 -4.047091e+000 1.657722e+000 6.745382e+001 6.822433e+001 -1.386216e+002 4.209313e-001 2.271258e-001 2.274245e-001
<VARIANCE> 9
 2.746972e-001 3.371764e-001 6.976298e-002 9.989336e+001 1.931375e+002 2.841787e+002 6.838071e-004 7.782023e-004 5.949040e-004
<GCONST> 5.142649e+000
<MIXTURE> 2 9.106225e-002
<MEAN> 9
 -6.910356e+000 -7.715101e+000 9.881701e-001 3.155975e+001 9.250268e+001 -1.194833e+002 2.357354e-001 3.572833e-001 2.302538e-001
<VARIANCE> 9
 1.948608e-001 4.031839e-001 3.378285e-001 4.438542e+002 8.194626e+002 9.160054e+002 1.081799e-003 5.782502e-004 1.938003e-004
<GCONST> 9.702695e+000
<MIXTURE> 3 9.764347e-002
<MEAN> 9
 -7.768940e+000 -5.893144e+000 7.569307e-001 7.275514e+001 1.171669e+002 -1.584376e+002 3.384784e-001 3.009894e-001 2.228972e-001
<VARIANCE> 9
 9.038470e-001 5.204809e-001 7.864401e-001 6.646682e+002 4.843442e+002 3.168860e+002 8.060375e-004 5.782502e-004 4.397966e-004
<GCONST> 1.167910e+001
<MIXTURE> 4 8.610459e-002
<MEAN> 9
 -5.981396e+000 -1.023252e+001 2.160617e-001 5.099253e+001 1.459442e+002 -1.450313e+002 1.252797e-001 3.757547e-001 2.169706e-001
<VARIANCE> 9
 4.190272e-001 3.371764e-001 4.593565e-001 2.121306e+002 7.146810e+002 5.329766e+002 1.518658e-003 5.782502e-004 4.741134e-004
<GCONST> 1.041402e+001
<MIXTURE> 5 1.226181e-001
<MEAN> 9
 -7.067593e+000 -5.626173e+000 2.866469e+000 1.766991e+001 6.908894e+001 -1.370771e+002 3.857111e-001 2.648816e-001 1.721203e-001
<VARIANCE> 9
 3.925499e-001 3.371764e-001 7.388932e-001 5.576582e+002 4.805840e+002 1.178189e+003 5.330289e-004 8.593349e-004 3.593380e-004
<GCONST> 1.125900e+001
<MIXTURE> 6 1.350581e-001
<MEAN> 9
 -6.187790e+000 -1.102983e+001 5.367270e-001 3.678349e+001 1.170209e+002 -1.348128e+002 4.949988e-002 3.795301e-001 1.765416e-001
<VARIANCE> 9
 1.491142e-001 3.371764e-001 1.073175e-001 2.164316e+002 1.208702e+003 3.658107e+002 7.033794e-004 5.782502e-004 1.938003e-004
<GCONST> 6.431632e+000
<MIXTURE> 7 1.261886e-001
<MEAN> 9
 -7.480088e+000 -8.947202e+000 1.067613e+000 5.633773e+001 1.213081e+002 -1.690984e+002 2.234670e-001 3.567175e-001 2.201850e-001
<VARIANCE> 9
 9.132834e-001 4.290871e-001 4.095499e-001 7.562823e+002 2.580583e+003 1.210095e+002 9.137589e-004 5.782502e-004 1.938003e-004
<GCONST> 1.098932e+001
<MIXTURE> 8 1.099963e-001
<MEAN> 9
 -7.706967e+000 -6.992992e+000 1.477819e+000 4.466551e+001 1.238559e+002 -1.656180e+002 3.102165e-001 3.217382e-001 2.101703e-001
<VARIANCE> 9
 1.412974e+000 3.371764e-001 1.145043e+000 1.481710e+003 5.537662e+002 8.772896e+002 6.383481e-004 5.782502e-004 3.907539e-004
<GCONST> 1.366985e+001
<MIXTURE> 9 7.544365e-002
<MEAN> 9
 -6.684750e+000 -4.403134e+000 1.814367e+000 5.854896e+001 6.959409e+001 -1.429832e+002 4.306346e-001 2.170100e-001 1.917119e-001
<VARIANCE> 9
 1.626644e-001 3.371764e-001 1.490987e-001 2.977951e+001 1.389420e+002 5.461506e+002 4.762525e-004 5.782502e-004 8.741395e-004
<GCONST> 4.217966e+000
<MIXTURE> 10 8.823137e-002
<MEAN> 9
 -6.333633e+000 -1.049068e+001 1.671885e-001 5.308242e+001 1.424732e+002 -1.525692e+002 1.145815e-001 3.759043e-001 2.058821e-001
<VARIANCE> 9
