~o
<STREAMINFO> 1 9
<VECSIZE> 9<NULLD><USER><DIAGC>
~h "GA"
<BEGINHMM>
<NUMSTATES> 8
<STATE> 2
<NUMMIXES> 17
<MIXTURE> 1 7.590920e-002
<MEAN> 9
 -8.372434e+000 -1.021398e+001 1.242702e+000 6.393882e+001 9.516386e+001 1.225417e+002 7.602151e-002 3.685159e-001 1.678519e-001
<VARIANCE> 9
 3.350055e-001 3.371764e-001 8.079609e-001 2.977951e+001 3.680466e+001 2.973985e+002 4.762525e-004 5.782502e-004 1.938003e-004
<GCONST> 3.187663e+000
<MIXTURE> 2 5.102407e-002
<MEAN> 9
 -9.728268e+000 -6.162376e+000 -2.947379e+000 -5.025416e+001 3.674040e+001 2.628810e+002 3.142559e-001 3.082078e-001 1.844068e-001
<VARIANCE> 9
 1.491142e-001 6.188372e-001 2.170111e-001 1.751422e+002 3.680466e+001 1.210095e+002 1.191509e-003 5.782502e-004 1.938003e-004
<GCONST> 3.460504e+000
<MIXTURE> 3 3.749832e-002
<MEAN> 9
 -1.180027e+001 -9.143967e+000 4.262504e-001 -4.127625e+001 -6.071241e+001 2.285057e+002 2.743753e-001 3.539807e-001 1.562261e-001
<VARIANCE> 9
 2.215337e-001 3.371764e-001 6.976298e-002 2.977951e+001 3.680466e+001 1.210095e+002 4.762525e-004 5.782502e-004 1.938003e-004
<GCONST> -5.745215e-001
<MIXTURE> 4 7.690223e-002
<MEAN> 9
 -7.240965e+000 -1.193574e+001 1.369478e+000 2.481709e+001 -2.524374e+001 1.747359e+002 6.727280e-002 3.742424e-001 1.700680e-001
<VARIANCE> 9
 5.331210e-001 3.371764e-001 8.519237e-002 3.411655e+001 2.861986e+003 7.156205e+002 6.220380e-004 5.782502e-004 1.938003e-004
<GCONST> 7.037404e+000
<MIXTURE> 5 3.927519e-002
<MEAN> 9
 -1.091102e+001 -9.050874e+000 -1.387297e+000 1.906003e+001 8.720732e+001 2.354250e+002 1.824183e-001 3.664031e-001 1.561391e-001
<VARIANCE> 9
 1.295947e+000 3.371764e-001 3.934628e-001 3.477166e+002 2.111187e+002 7.899969e+002 4.762525e-004 5.782502e-004 1.938003e-004
<GCONST> 9.002307e+000
<MIXTURE> 6 4.984402e-002
<MEAN> 9
 -7.477765e+000 -1.002084e+001 1.223646e-001 2.013996e+000 -3.716853e+000 1.275741e+002 6.001293e-002 3.686415e-001 1.474739e-001
<VARIANCE> 9
 4.042414e-001 3.371764e-001 1.230426e-001 2.977951e+001 3.680466e+001 1.210095e+002 4.762525e-004 5.782502e-004 1.938003e-004
<GCONST> 5.943441e-001
<MIXTURE> 7 7.690152e-002
<MEAN> 9
 -1.038553e+001 -5.678651e+000 -3.401626e+000 -2.282594e+001 5.254049e+001 2.255285e+002 3.193960e-001 3.030284e-001 1.595243e-001
<VARIANCE> 9
 1.491142e-001 7.419258e-001 6.976298e-002 8.808386e+001 3.680466e+001 1.210095e+002 5.357618e-004 5.782502e-004 1.938003e-004
<GCONST> 1.020471e+000
<MIXTURE> 8 7.690166e-002
<MEAN> 9
 -1.139357e+001 -7.815261e+000 -7.510040e-001 -6.461382e+001 -7.235773e+001 2.552642e+002 3.418182e-001 2.984848e-001 1.568027e-001
<VARIANCE> 9
 1.141562e+000 4.407349e-001 1.221593e-001 9.696690e+001 8.804368e+001 1.210095e+002 8.220382e-004 5.782502e-004 1.938003e-004
<GCONST> 4.491712e+000
<MIXTURE> 9 5.033714e-002
<MEAN> 9
 -1.071285e+001 -8.086442e+000 -2.448770e+000 9.310641e+000 6.461168e+001 2.214524e+002 2.350122e-001 3.390177e-001 1.523554e-001
<VARIANCE> 9
 4.637142e-001 3.371764e-001 6.976298e-002 3.072117e+002 3.680466e+001 4.544162e+002 4.762525e-004 5.782502e-004 1.938003e-004
<GCONST> 3.821033e+000
<MIXTURE> 10 7.688845e-002
<MEAN> 9
 -7.847351e+000 -1.090768e+001 1.205803e-001 1.703137e+001 -1.124249e+002 7.813396e+001 9.092501e-003 3.654560e-001 1.680286e-001
<VARIANCE> 9
 6.161876e-001 3.371764e-001 1.023173e-001 2.977951e+001 8.707233e+002 4.763748e+002 4.762525e-004 5.782502e-004 1.938003e-004
<GCONST> 5.365464e+000
<MIXTURE> 11 7.808743e-002
<MEAN> 9
 -9.580573e+000 -9.805309e+000 -2.338980e-001 4.373006e+001 8.329716e+001 1.883648e+002 1.273701e-001 3.767617e-001 1.574094e-001
<VARIANCE> 9
 1.491142e-001 3.371764e-001 6.976298e-002 1.775787e+002 7.602576e+001 8.226586e+002 4.762525e-004 5.782502e-004 1.938003e-004
<GCONST> 3.457328e+000
<MIXTURE> 12 5.140439e-002
<MEAN> 9
 -8.699311e+000 -9.391855e+000 9.432142e-001 -1.764529e+001 -7.614135e+001 1.756002e+002 1.458133e-001 3.718131e-001 1.535674e-001
<VARIANCE> 9
 1.675037e-001 3.371764e-001 6.976298e-002 2.977951e+001 3.680466e+001 1.210095e+002 4.762525e-004 5.782502e-004 1.938003e-004
<GCONST> -8.540931e-001
<MIXTURE> 13 6.503584e-002
<MEAN> 9
 -1.059558e+001 -8.978727e+000 4.475500e-001 -2.570971e+001 -7.203828e+001 2.044975e+002 2.155229e-001 3.699203e-001 1.564649e-001
<VARIANCE> 9
 1.491142e-001 3.371764e-001 6.976298e-002 5.568348e+001 3.680466e+001 1.210095e+002 5.273754e-004 5.782502e-004 1.938003e-004
<GCONST> -2.425566e-001
<MIXTURE> 14 5.284162e-002
<MEAN> 9
 -8.877207e+000 -9.643139e+000 -2.934962e-001 -9.679667e+000 -5.113237e+001 1.538399e+002 9.407201e-002 3.713489e-001 1.519009e-001
<VARIANCE> 9
 1.491142e-001 3.371764e-001 7.106644e-002 2.977951e+001 3.459531e+002 1.210095e+002 4.762525e-004 5.782502e-004 1.938003e-004
<GCONST> 1.288806e+000
<MIXTURE> 15 5.151565e-002
<MEAN> 9
 -9.861440e+000 -6.048872e+000 -3.076155e+000 -5.332796e+001 3.579489e+001 2.608154e+002 3.211692e-001 3.027237e-001 1.875162e-001
<VARIANCE> 9
 1.491142e-001 1.108637e+000 3.804184e-001 3.209875e+002 3.680466e+001 1.210095e+002 2.367907e-003 5.782502e-004 1.938003e-004
<GCONST> 5.897460e+000
<MIXTURE> 16 5.035833e-002
<MEAN> 9
 -1.081741e+001 -8.094885e+000 -2.468203e+000 6.792389e+000 6.430143e+001 2.249067e+002 2.354363e-001 3.401216e-001 1.538775e-001
<VARIANCE> 9
 5.007898e-001 3.371764e-001 6.976298e-002 3.278521e+002 3.680466e+001 5.262175e+002 4.762525e-004 5.782502e-004 1.938003e-004
<GCONST> 4.109677e+000
<MIXTURE> 17 3.927519e-002
<MEAN> 9
 -1.136638e+001 -9.283141e+000 -1.638203e+000 1.160117e+001 8.139536e+001 2.241822e+002 1.736891e-001 3.567843e-001 1.505707e-001
<VARIANCE> 9
 1.295947e+000 3.371764e-001 3.934628e-001 3.477166e+002 2.111187e+002 7.899969e+002 4.762525e-004 5.782502e-004 1.938003e-004
<GCONST> 9.002307e+000
<STATE> 3
<NUMMIXES> 17
<MIXTURE> 1 7.017939e-002
<MEAN> 9
 -5.849394e+000 -3.312993e-002 2.108434e+000 -7.173778e+001 1.004575e+001 1.743597e+002 5.238636e-001 -5.363652e-002 2.188776e-001
<VARIANCE> 9
 4.209940e-001 3.371764e-001 6.976298e-002 4.532342e+001 1.689834e+002 6.028017e+002 4.762525e-004 9.037133e-004 1.938003e-004
<GCONST> 4.063924e+000
<MIXTURE> 2 7.444649e-002
<MEAN> 9
 -9.148767e+000 -2.450245e+000 1.355139e+000 -9.040690e+001 2.666560e+001 2.250929e+002 5.039849e-001 8.899806e-002 1.988365e-001
<VARIANCE> 9
 7.207950e-001 6.208731e-001 1.782191e+000 2.977951e+001 3.664398e+002 1.210095e+002 4.762525e-004 9.377287e-004 1.938003e-004
<GCONST> 7.237935e+000
<MIXTURE> 3 6.453645e-002
<MEAN> 9
 -6.588699e+000 2.755596e+000 -2.616355e+000 -1.535811e+002 1.634933e+001 9.925850e+001 5.023257e-001 -5.571777e-002 2.845203e-001
<VARIANCE> 9
 1.491142e-001 3.371764e-001 1.323651e+000 7.725742e+002 8.301453e+001 1.210095e+002 4.762525e-004 5.782502e-004 3.272232e-004
<GCONST> 6.565775e+000
<MIXTURE> 4 7.017870e-002
<MEAN> 9
 -9.960860e+000 -4.804233e+000 3.433594e-001 -9.132609e+001 -3.314037e+001 2.544209e+002 4.374995e-001 2.013642e-001 1.681121e-001
<VARIANCE> 9
 8.466613e-001 7.044786e-001 2.928135e-001 4.240421e+001 3.680466e+001 1.210095e+002 5.976704e-004 1.129128e-003 1.938003e-004
<GCONST> 4.187201e+000
<MIXTURE> 5 4.428511e-002
<MEAN> 9
 -6.455997e+000 1.638826e+000 -2.750759e+000 -1.616285e+002 -5.848465e+000 1.406088e+002 4.981795e-001 3.522525e-003 2.891941e-001
<VARIANCE> 9
 2.658300e-001 3.371764e-001 2.121870e-001 6.398951e+002 3.680466e+001 1.210095e+002 4.762525e-004 6.028059e-004 3.622444e-004
<GCONST> 4.454687e+000
<MIXTURE> 6 4.381539e-002
<MEAN> 9
 -7.400685e+000 8.160763e-001 2.346027e+000 -1.357173e+002 -5.239286e+001 1.602726e+001 5.039002e-001 -1.431265e-001 2.619975e-001
<VARIANCE> 9
 8.724799e-001 1.094802e+000 2.919788e+000 1.401933e+003 5.579406e+001 1.210095e+002 4.762525e-004 5.782502e-004 2.063726e-004
<GCONST> 1.003881e+001
<MIXTURE> 7 5.272962e-002
<MEAN> 9
 -8.690805e+000 -3.319200e+000 -4.033301e+000 -1.016377e+002 9.750832e+000 2.396524e+002 4.164299e-001 2.132228e-001 2.247800e-001
<VARIANCE> 9
 2.198300e-001 3.371764e-001 6.976298e-002 1.062433e+002 3.680466e+001 1.210095e+002 4.762525e-004 5.782502e-004 1.938003e-004
<GCONST> 6.896696e-001
<MIXTURE> 8 4.472047e-002
<MEAN> 9
 -8.256666e+000 -1.417221e+000 -3.843135e+000 -1.065440e+002 2.206820e+001 2.024788e+002 4.720180e-001 1.367701e-001 2.482292e-001
<VARIANCE> 9
 2.559696e-001 3.371764e-001 6.976298e-002 4.782981e+002 4.523072e+001 1.394704e+002 4.762525e-004 5.782502e-004 3.183596e-004
<GCONST> 3.190866e+000
<MIXTURE> 9 4.905508e-002
<MEAN> 9
 -8.370532e+000 9.612575e-003 5.316117e+000 -1.301020e+002 -4.455293e+001 -1.291735e+001 5.132616e-001 -1.304309e-001 1.794878e-001
<VARIANCE> 9
 1.517518e-001 3.371764e-001 2.891813e+000 2.237458e+003 1.219002e+002 1.210095e+002 4.762525e-004 5.782502e-004 6.778701e-004
<GCONST> 9.540667e+000
<MIXTURE> 10 7.099125e-002
<MEAN> 9
 -7.359925e+000 2.565769e+000 -1.265560e-001 -1.682123e+002 -1.992918e+001 4.045570e+001 5.005348e-001 -1.098398e-001 2.821465e-001
<VARIANCE> 9
 3.862902e-001 1.724450e+000 3.844405e+000 3.833544e+001 2.428046e+002 1.210095e+002 4.762525e-004 5.782502e-004 2.225766e-004
<GCONST> 7.900451e+000
<MIXTURE> 11 8.477268e-002
<MEAN> 9
 -7.725127e+000 2.150791e-001 -3.781062e+000 -1.363355e+002 8.717568e+000 1.703240e+002 4.878337e-001 6.573340e-002 2.674066e-001
<VARIANCE> 9
 5.626493e-001 3.371764e-001 6.976298e-002 8.411581e+002 2.065436e+002 1.210095e+002 4.762525e-004 5.782502e-004 4.923219e-004
<GCONST> 6.355708e+000
<MIXTURE> 12 7.029798e-002
<MEAN> 9
 -9.397804e+000 -3.347807e+000 -4.462002e+000 -6.022011e+001 2.491396e+001 2.174509e+002 4.087169e-001 2.203196e-001 1.906235e-001
<VARIANCE> 9
 2.282448e-001 3.371764e-001 1.158408e-001 1.578287e+002 1.480949e+002 1.210095e+002 4.922224e-004 7.588684e-004 1.938003e-004
<GCONST> 3.327157e+000
<MIXTURE> 13 6.223021e-002
<MEAN> 9
 -7.012927e+000 3.350833e+000 -3.069804e+000 -1.529740e+002 2.449968e+001 7.098508e+001 5.035310e-001 -8.760655e-002 2.828441e-001
<VARIANCE> 9
 2.095221e-001 1.343035e+000 2.868151e+000 3.903993e+002 1.975465e+002 1.210095e+002 4.762525e-004 5.782502e-004 1.994501e-004
<GCONST> 8.750567e+000
<MIXTURE> 14 5.296652e-002
<MEAN> 9
 -6.938224e+000 2.167025e+000 -3.652496e+000 -1.178587e+002 8.354053e+000 1.227909e+002 5.061914e-001 2.913861e-003 2.585842e-001
<VARIANCE> 9
 1.491142e-001 3.371764e-001 6.976298e-002 2.977951e+001 3.680466e+001 1.449365e+002 4.762525e-004 5.782502e-004 1.938003e-004
<GCONST> -7.899585e-001
<MIXTURE> 15 5.609611e-002
<MEAN> 9
 -8.093687e+000 -5.033776e-001 5.256987e+000 -1.532471e+002 -5.979686e+001 -2.063596e+001 5.151025e-001 -1.290469e-001 1.870097e-001
<VARIANCE> 9
 1.491142e-001 3.371764e-001 1.151882e+000 6.421876e+002 4.359823e+001 1.210095e+002 4.762525e-004 5.782502e-004 3.713930e-004
<GCONST> 5.724551e+000
<MIXTURE> 16 4.397817e-002
<MEAN> 9
 -6.996365e+000 1.203065e+000 1.674429e+000 -1.517003e+002 -5.633968e+001 1.343699e+001 5.055673e-001 -1.386854e-001 2.550626e-001
<VARIANCE> 9
 1.144839e+000 1.318056e+000 3.219085e+000 1.564042e+003 4.836425e+001 1.210095e+002 4.762525e-004 5.782502e-004 1.938003e-004
<GCONST> 1.049732e+001
<MIXTURE> 17 4.472047e-002
<MEAN> 9
 -8.459040e+000 -1.649489e+000 -3.948786e+000 -1.152920e+002 1.937804e+001 1.977549e+002 4.632888e-001 1.271513e-001 2.410922e-001
<VARIANCE> 9
 2.559696e-001 3.371764e-001 6.976298e-002 4.782981e+002 4.523072e+001 1.394704e+002 4.762525e-004 5.782502e-004 3.183596e-004
<GCONST> 3.190866e+000
<STATE> 4
<NUMMIXES> 17
<MIXTURE> 1 6.575267e-002
<MEAN> 9
 -8.825390e+000 4.912293e+000 1.408237e+000 -9.395801e+000 6.168352e+001 4.179806e+001 4.964093e-001 -1.844587e-001 2.395624e-001
<VARIANCE> 9
 1.643177e-001 3.371764e-001 2.168006e-001 2.977951e+001 3.680466e+001 1.210095e+002 4.762525e-004 5.782502e-004 1.938003e-004
<GCONST> 2.605810e-001
<MIXTURE> 2 7.758263e-002
<MEAN> 9
 4.660700e-001 5.050637e+000 6.636157e+000 -2.092240e+001 -2.256681e+002 1.159957e+002 3.660036e-001 -2.669550e-001 -1.041863e-001
<VARIANCE> 9
 1.211676e+000 3.371764e-001 6.909821e-001 4.823396e+001 7.793122e+003 1.310976e+002 9.702723e-004 2.747078e-003 5.457700e-003
<GCONST> 1.494323e+001
<MIXTURE> 3 7.810875e-002
<MEAN> 9
 -3.681291e+000 9.222101e-001 2.573392e+000 -3.468607e+001 -2.846488e+001 6.270184e+001 5.116376e-001 -1.428991e-001 1.967436e-001
<VARIANCE> 9
 3.390040e-001 3.371764e-001 6.976298e-002 2.199208e+002 1.460767e+002 1.041065e+003 4.762525e-004 5.782502e-004 1.938003e-004
<GCONST> 5.381001e+000
<MIXTURE> 4 6.132678e-002
<MEAN> 9
 -1.168353e+001 5.003300e+000 1.319513e+000 -3.909386e+001 -9.637021e+001 7.623519e+001 4.777254e-001 -2.211220e-001 2.187253e-001
<VARIANCE> 9
 1.374087e+000 3.371764e-001 3.162035e+000 2.977951e+001 2.082329e+004 3.659669e+002 4.762525e-004 5.782502e-004 3.623250e-003
<GCONST> 1.543749e+001
<MIXTURE> 5 5.777049e-002
<MEAN> 9
 -8.627290e+000 4.688284e+000 2.553807e+000 5.841183e+000 1.696291e+001 8.934985e+000 5.088180e-001 -1.595100e-001 2.047999e-001
<VARIANCE> 9
 1.491142e-001 3.371764e-001 6.976298e-002 2.977951e+001 3.680466e+001 1.210095e+002 4.762525e-004 5.782502e-004 1.938003e-004
<GCONST> -9.703841e-001
<MIXTURE> 6 6.156133e-002
<MEAN> 9
 -1.136658e+001 2.702785e+000 4.399843e+000 -1.305741e+001 -8.138132e+001 3.893343e+001 5.125400e-001 -1.461360e-001 1.068920e-001
<VARIANCE> 9
 1.491142e-001 5.460525e-001 6.976298e-002 2.977951e+001 1.941194e+003 2.093212e+002 4.762525e-004 5.782502e-004 5.388690e-004
<GCONST> 5.047803e+000
<MIXTURE> 7 4.619082e-002
<MEAN> 9
 -1.053152e+001 8.685440e-001 4.674412e+000 -3.966275e+001 4.262615e+000 1.813605e+001 5.121284e-001 -1.370736e-001 1.944456e-001
<VARIANCE> 9
 3.186013e+000 3.371764e-001 2.211087e+000 1.808757e+002 7.952506e+002 1.976721e+002 4.762525e-004 5.782502e-004 2.782520e-003
<GCONST> 1.357961e+001
<MIXTURE> 8 4.757427e-002
<MEAN> 9
 -5.269522e+000 5.525681e+000 4.423828e+000 -3.422200e+001 -2.803323e+002 1.273009e+002 4.525571e-001 -2.527099e-001 3.592302e-002
<VARIANCE> 9
 2.810878e+000 3.371764e-001 2.807198e-001 2.977951e+001 7.618493e+002 1.210095e+002 4.762525e-004 5.782502e-004 1.130922e-003
<GCONST> 8.152494e+000
<MIXTURE> 9 4.684486e-002
<MEAN> 9
 -6.431127e+000 3.030575e+000 2.834505e+000 -2.309750e+000 8.015323e+000 3.568612e-001 5.075909e-001 -1.681446e-001 1.813102e-001
<VARIANCE> 9
 5.722136e-001 3.371764e-001 6.976298e-002 2.977951e+001 3.680466e+001 1.210095e+002 4.762525e-004 5.782502e-004 1.938003e-004
<GCONST> 3.744154e-001
<MIXTURE> 10 7.859211e-002
<MEAN> 9
 -9.693409e+000 5.949039e+000 1.872185e+000 -5.727358e+001 -1.654784e+002 7.153446e+001 4.547732e-001 -2.636536e-001 2.297015e-001
<VARIANCE> 9
 1.400804e+000 3.371764e-001 9.268436e-001 2.977951e+001 1.879108e+004 1.210095e+002 4.762525e-004 5.782502e-004 2.016013e-003
<GCONST> 1.243395e+001
<MIXTURE> 11 6.447922e-002
<MEAN> 9
 -8.636073e+000 4.713137e+000 3.031746e+000 7.133138e+000 7.264512e+000 -4.442479e+000 5.097192e-001 -1.572803e-001 1.946189e-001
<VARIANCE> 9
 1.491142e-001 3.371764e-001 6.976298e-002 2.977951e+001 3.680466e+001 1.210095e+002 4.762525e-004 5.782502e-004 1.938003e-004
<GCONST> -9.703841e-001
<MIXTURE> 12 5.931312e-002
<MEAN> 9
 -8.510824e+000 5.122627e+000 1.147631e+000 -1.401240e+001 4.775163e+001 3.864943e+001 4.900834e-001 -1.923088e-001 2.500054e-001
<VARIANCE> 9
 1.491142e-001 3.371764e-001 2.637911e-001 1.467363e+002 3.680466e+001 1.979781e+002 4.762525e-004 5.782502e-004 7.823985e-004
<GCONST> 3.842310e+000
<MIXTURE> 13 3.929649e-002
<MEAN> 9
 -1.114673e+001 3.290050e+000 2.979051e+000 -2.098806e+001 -1.537023e+002 7.364074e+001 4.941458e-001 -1.775103e-001 1.654047e-001
<VARIANCE> 9
 1.270490e+000 5.133215e-001 6.422666e-001 2.977951e+001 6.231346e+003 1.210095e+002 4.762525e-004 5.782502e-004 1.178151e-002
<GCONST> 1.305144e+001
<MIXTURE> 14 6.263015e-002
<MEAN> 9
 -1.906695e+000 4.433630e+000 5.312368e+000 -4.462176e+001 -4.098916e+002 9.743315e+001 4.193825e-001 -2.433635e-001 -3.000683e-002
<VARIANCE> 9
 6.614407e+000 9.761822e-001 9.379886e-001 6.403304e+001 6.174003e+002 1.210095e+002 4.762525e-004 4.012347e-003 7.126782e-003
<GCONST> 1.561097e+001
<MIXTURE> 15 6.544878e-002
<MEAN> 9
 -8.567622e+000 4.634179e+000 2.997346e+000 7.011048e+000 7.824963e+000 -5.251772e+000 5.093527e-001 -1.585829e-001 1.934702e-001
<VARIANCE> 9
 1.491142e-001 3.371764e-001 6.976298e-002 2.977951e+001 3.680466e+001 1.210095e+002 4.762525e-004 5.782502e-004 1.938003e-004
<GCONST> -9.703841e-001
<MIXTURE> 16 4.823107e-002
<MEAN> 9
 -1.045079e+001 6.968656e-001 4.755402e+000 -4.501260e+001 -2.247124e-001 1.626329e+001 5.121159e-001 -1.380032e-001 1.959558e-001
<VARIANCE> 9
 4.482408e+000 3.371764e-001 2.788281e+000 1.920831e+002 4.919838e+002 2.565480e+002 4.762525e-004 5.782502e-004 2.735340e-003
<GCONST> 1.397645e+001
<MIXTURE> 17 3.929649e-002
<MEAN> 9
 -1.159759e+001 3.003464e+000 2.658485e+000 -2.317088e+001 -1.852779e+002 6.924056e+001 4.854165e-001 -1.871291e-001 1.219877e-001
<VARIANCE> 9
 1.270490e+000 5.133215e-001 6.422666e-001 2.977951e+001 6.231346e+003 1.210095e+002 4.762525e-004 5.782502e-004 1.178151e-002
<GCONST> 1.305144e+001
<STATE> 5
<NUMMIXES> 17
<MIXTURE> 1 5.157971e-002
<MEAN> 9
 2.315090e+000 5.148761e+000 7.590307e+000 2.188327e+001 -5.166518e+001 8.912274e+001 2.192905e-001 -2.618130e-001 -2.308907e-001
<VARIANCE> 9
 4.226703e-001 3.371764e-001 1.000469e-001 2.977951e+001 1.479528e+003 1.571260e+002 4.762525e-004 5.782502e-004 1.938003e-004
<GCONST> 4.387065e+000
<MIXTURE> 2 3.932160e-002
<MEAN> 9
 -3.480600e+000 3.581994e+000 7.728605e+000 1.079409e+001 1.151666e+001 2.338313e+000 3.851175e-001 -1.062571e-001 -1.985762e-001
<VARIANCE> 9
 1.256657e+000 3.371764e-001 6.976298e-002 2.977951e+001 3.680466e+001 1.210095e+002 4.762525e-004 5.782502e-004 1.938003e-004
<GCONST> 1.161113e+000
<MIXTURE> 3 7.555223e-002
<MEAN> 9
 2.410753e+000 5.921280e+000 7.468038e+000 1.339425e+001 -5.797233e+001 -8.491034e+001 3.266204e-001 -3.190594e-001 -1.015333e-001
<VARIANCE> 9
 7.060876e-001 3.371764e-001 6.976298e-002 2.977951e+001 4.498233e+002 2.539872e+003 4.762525e-004 5.782502e-004 1.983965e-004
<GCONST> 6.155311e+000
<MIXTURE> 4 6.586117e-002
<MEAN> 9
 -5.069069e+000 3.226937e+000 8.903911e+000 -1.459823e+001 8.109880e+000 -1.456473e+002 3.142868e-001 -1.644482e-001 -2.261343e-001
<VARIANCE> 9
 4.974483e+000 5.837060e-001 2.096979e-001 2.977951e+001 7.041298e+002 9.551409e+002 4.762525e-004 8.296947e-004 1.938003e-004
<GCONST> 9.564713e+000
<MIXTURE> 5 7.686382e-002
<MEAN> 9
 3.719701e+000 5.200671e+000 7.175982e+000 1.469328e+001 4.333264e+000 2.726734e+001 1.834713e-001 -2.983448e-001 -2.211127e-001
<VARIANCE> 9
 4.434163e-001 3.371764e-001 2.220406e-001 6.888444e+001 3.776271e+001 1.056216e+003 4.762525e-004 5.782502e-004 1.938003e-004
<GCONST> 4.308057e+000
<MIXTURE> 6 5.715183e-002
<MEAN> 9
 -6.427269e+000 3.090045e+000 8.716383e+000 -4.816649e+000 -1.257270e+001 -4.081359e+001 3.491881e-001 -1.256922e-001 -2.182676e-001
<VARIANCE> 9
 1.320416e+000 4.480439e-001 1.053378e-001 2.977951e+001 1.878184e+002 2.164795e+002 4.762525e-004 7.578314e-004 2.131886e-004
<GCONST> 4.484241e+000
<MIXTURE> 7 6.089345e-002
<MEAN> 9
 -1.138626e+000 4.926333e+000 7.176188e+000 -6.206591e+000 -7.121538e+001 -8.866492e+001 3.168633e-001 -2.341756e-001 -1.839679e-001
<VARIANCE> 9
 1.348213e+000 4.234072e-001 5.995636e-001 1.749201e+002 2.632754e+003 1.885865e+004 1.853370e-003 5.782502e-004 1.486569e-003
<GCONST> 1.809601e+001
<MIXTURE> 8 6.137211e-002
<MEAN> 9
 -2.903391e+000 3.995415e+000 8.351045e+000 6.222449e+000 1.548224e+000 2.270509e+000 3.411759e-001 -1.248311e-001 -2.272059e-001
<VARIANCE> 9
 5.548447e-001 3.371764e-001 6.976298e-002 2.977951e+001 3.680466e+001 1.210095e+002 4.762525e-004 5.782502e-004 1.938003e-004
<GCONST> 3.435926e-001
<MIXTURE> 9 5.587324e-002
<MEAN> 9
 4.214107e-002 5.674749e+000 6.829120e+000 -4.818099e+000 -7.335006e+001 3.232671e+001 3.484416e-001 -3.191969e-001 -6.936241e-002
<VARIANCE> 9
 7.517330e+000 3.371764e-001 6.000899e-001 9.679304e+001 1.670114e+003 7.819166e+003 4.762525e-004 5.782502e-004 9.277315e-004
<GCONST> 1.583000e+001
<MIXTURE> 10 4.804565e-002
<MEAN> 9
 -7.606875e+000 3.039372e+000 8.277544e+000 -2.098758e+001 -5.909400e+001 -1.310779e+002 3.684840e-001 -1.698085e-001 -1.866119e-001
<VARIANCE> 9
 3.958575e+000 1.233747e+000 2.779872e-001 2.977951e+001 1.326645e+002 2.873067e+003 4.762525e-004 9.689316e-004 3.533894e-004
<GCONST> 1.055462e+001
<MIXTURE> 11 6.782551e-002
<MEAN> 9
 -2.083397e+000 2.648311e+000 7.081232e+000 6.693507e+000 3.872401e+000 -1.354933e+001 3.510107e-001 -1.283268e-001 -2.159395e-001
<VARIANCE> 9
 1.811239e-001 3.371764e-001 2.265021e-001 2.977951e+001 3.680466e+001 1.210095e+002 4.923026e-004 5.782502e-004 3.651268e-004
<GCONST> 1.068298e+000
<MIXTURE> 12 6.818379e-002
<MEAN> 9
 1.777690e+000 5.963356e+000 6.946853e+000 7.365471e+000 -4.648874e+001 -3.736365e+001 3.271384e-001 -3.233110e-001 -9.334805e-002
<VARIANCE> 9
 9.126074e-001 3.371764e-001 3.741195e-001 2.977951e+001 7.820635e+002 4.344593e+003 4.762525e-004 5.782502e-004 1.938003e-004
<GCONST> 9.157809e+000
<MIXTURE> 13 6.972605e-002
<MEAN> 9
 3.820611e+000 4.427588e+000 7.570882e+000 -1.341629e+001 5.659609e+000 -9.474859e+001 2.103388e-001 -2.781605e-001 -2.238910e-001
<VARIANCE> 9
 4.845822e-001 3.371764e-001 2.725801e-001 5.035110e+001 3.776617e+001 2.008799e+003 4.762525e-004 5.782502e-004 1.938003e-004
<GCONST> 4.931434e+000
<MIXTURE> 14 5.146253e-002
<MEAN> 9
 3.045169e-001 5.749281e+000 6.770704e+000 -3.106583e+000 -8.885612e+001 -6.755811e+001 3.423208e-001 -2.978343e-001 -1.058776e-001
<VARIANCE> 9
 2.347319e+000 3.371764e-001 4.945459e-001 4.804718e+001 1.153221e+003 1.287859e+004 4.762525e-004 5.782502e-004 1.188567e-003
<GCONST> 1.414865e+001
<MIXTURE> 15 6.476334e-002
<MEAN> 9
 -3.488855e+000 3.832507e+000 8.467938e+000 3.994377e+000 1.476624e+000 -5.914001e+000 3.348949e-001 -1.184823e-001 -2.321531e-001
<VARIANCE> 9
 1.444614e+000 3.371764e-001 6.976298e-002 2.977951e+001 3.680466e+001 1.210095e+002 4.762525e-004 5.782502e-004 1.938003e-004
<GCONST> 1.300502e+000
<MIXTURE> 16 4.620254e-002
<MEAN> 9
 -8.095165e+000 2.658025e+000 7.969482e+000 -2.542422e+001 -7.040047e+001 -1.356630e+002 3.678939e-001 -1.744306e-001 -1.872175e-001
<VARIANCE> 9
 5.405221e+000 1.798219e+000 1.884281e-001 2.977951e+001 3.339769e+002 1.288257e+003 4.762525e-004 1.159837e-003 1.938003e-004
<GCONST> 1.055423e+001
<MIXTURE> 17 3.932160e-002
<MEAN> 9
 -3.929003e+000 3.349726e+000 7.622954e+000 8.611267e+000 9.089983e+000 -2.061860e+000 3.763883e-001 -1.158759e-001 -2.041446e-001
<VARIANCE> 9
 1.256657e+000 3.371764e-001 6.976298e-002 2.977951e+001 3.680466e+001 1.210095e+002 4.762525e-004 5.782502e-004 1.938003e-004
<GCONST> 1.161113e+000
<STATE> 6
<NUMMIXES> 17
<MIXTURE> 1 6.417174e-002
<MEAN> 9
 -2.109910e+000 9.217796e-001 4.575242e+000 -3.011728e+001 4.437134e+001 -9.358433e+001 3.973366e-001 -5.699592e-002 -1.806375e-001
<VARIANCE> 9
 1.491142e-001 3.371764e-001 7.330826e-002 5.166323e+001 3.934069e+002 1.223008e+002 4.762525e-004 5.782502e-004 1.938003e-004
<GCONST> 2.009946e+000
<MIXTURE> 2 3.875699e-002
<MEAN> 9
 -7.681255e+000 -3.372852e+000 4.810064e+000 -6.184131e+001 1.327329e+002 -2.272092e+002 4.211944e-001 1.467054e-001 -5.513177e-002
<VARIANCE> 9
 7.328842e-001 1.006360e+000 6.976298e-002 2.977951e+001 9.556282e+001 1.210095e+002 4.762525e-004 9.129940e-004 4.453408e-004
<GCONST> 3.958273e+000
<MIXTURE> 3 6.887913e-002
<MEAN> 9
 -5.231992e+000 -9.428279e-001 4.810247e+000 -5.169235e+001 1.248019e+002 -1.798490e+002 4.259090e-001 4.841194e-002 -1.247427e-001
<VARIANCE> 9
 6.000696e-001 4.044491e-001 6.976298e-002 2.977951e+001 6.132636e+001 4.889871e+002 4.762525e-004 7.590303e-004 3.189325e-004
<GCONST> 3.281106e+000
<MIXTURE> 4 8.645368e-002
<MEAN> 9
 -8.646822e+000 -5.868808e+000 6.692206e+000 -8.949808e+001 5.849144e+001 -2.435314e+002 3.460281e-001 2.356825e-001 -5.681050e-002
<VARIANCE> 9
 9.163895e-001 3.371764e-001 1.405077e-001 2.977951e+001 9.078691e+002 1.210095e+002 5.442365e-004 5.782502e-004 1.938003e-004
<GCONST> 4.884416e+000
<MIXTURE> 5 3.842815e-002
<MEAN> 9
 -2.500623e+000 1.741773e+000 5.226013e+000 -3.127570e-001 2.919878e+001 -4.418774e+001 3.913735e-001 -8.777172e-002 -1.923142e-001
<VARIANCE> 9
 1.491142e-001 3.371764e-001 2.488642e-001 2.977951e+001 4.604113e+002 1.645328e+002 4.762525e-004 5.782502e-004 1.938003e-004
<GCONST> 3.135156e+000
<MIXTURE> 6 5.148330e-002
<MEAN> 9
 -7.515025e+000 -7.787565e+000 6.307735e+000 -9.342014e+001 5.517407e+001 -2.358139e+002 2.832925e-001 3.162361e-001 -2.186405e-003
<VARIANCE> 9
 1.796683e+000 6.886560e-001 2.454729e-001 2.977951e+001 4.207583e+002 1.210095e+002 6.787304e-004 5.782502e-004 2.032153e-004
<GCONST> 6.328967e+000
<MIXTURE> 7 6.890627e-002
<MEAN> 9
 -3.539214e+000 8.669971e-001 6.166010e+000 -7.574149e+001 3.885075e+001 -1.603224e+002 3.840923e-001 -3.246818e-002 -1.936180e-001
<VARIANCE> 9
 2.530778e-001 3.371764e-001 6.976298e-002 6.253613e+001 6.122480e+001 3.478707e+002 4.762525e-004 1.303563e-003 1.938003e-004
<GCONST> 2.678264e+000
<MIXTURE> 8 5.135668e-002
<MEAN> 9
 -6.615592e+000 -2.908828e+000 6.070469e+000 -8.748011e+001 8.689758e+001 -2.313894e+002 3.829364e-001 1.462501e-001 -1.158853e-001
<VARIANCE> 9
 4.927189e-001 7.711269e-001 1.618701e-001 7.164046e+001 9.642945e+001 1.210095e+002 4.762525e-004 1.518917e-003 5.187451e-004
<GCONST> 5.685135e+000
<MIXTURE> 9 6.851318e-002
<MEAN> 9
 -1.150940e+000 1.601469e+000 5.606256e+000 5.056487e-001 1.455005e+001 -3.337074e+001 3.429601e-001 -1.239474e-001 -2.200747e-001
<VARIANCE> 9
 1.491142e-001 3.371764e-001 1.966422e-001 2.977951e+001 1.018079e+002 1.210095e+002 4.762525e-004 5.782502e-004 1.938003e-004
<GCONST> 1.083362e+000
<MIXTURE> 10 5.643581e-002
<MEAN> 9
 -2.361236e+000 5.343882e-001 4.666096e+000 -4.817298e+001 5.838493e+001 -1.247730e+002 4.035718e-001 -3.378592e-002 -1.753008e-001
<VARIANCE> 9
 1.491142e-001 3.371764e-001 6.976298e-002 9.703004e+001 5.184470e+002 1.210095e+002 4.762525e-004 5.782502e-004 1.938003e-004
<GCONST> 2.856029e+000
<MIXTURE> 11 7.049425e-002
<MEAN> 9
 -1.328972e+000 1.586645e+000 5.093278e+000 -3.185670e+001 7.109221e+000 -8.648660e+001 3.604750e-001 -1.205163e-001 -2.128864e-001
<VARIANCE> 9
 1.491142e-001 3.371764e-001 6.976298e-002 2.470490e+002 1.655631e+002 4.501805e+002 4.762525e-004 5.782502e-004 1.938003e-004
<GCONST> 3.962890e+000
<MIXTURE> 12 6.560056e-002
<MEAN> 9
 -4.439965e+000 -1.009266e+000 6.183485e+000 -8.683651e+001 6.252695e+001 -2.076576e+002 4.006699e-001 7.193584e-002 -1.506282e-001
<VARIANCE> 9
 2.013886e-001 5.610145e-001 6.435705e-001 9.879247e+001 1.554754e+002 1.210095e+002 4.762525e-004 5.782502e-004 4.811426e-004
<GCONST> 5.610609e+000
<MIXTURE> 13 3.768467e-002
<MEAN> 9
 -3.680573e+000 -2.104606e-002 4.782690e+000 -6.530023e+001 6.675314e+001 -1.773913e+002 4.179468e-001 3.383813e-002 -1.474850e-001
<VARIANCE> 9
 2.948118e-001 3.371764e-001 6.976298e-002 2.977951e+001 3.680466e+001 1.994881e+002 4.762525e-004 5.782502e-004 1.938003e-004
<GCONST> 2.111273e-001
<MIXTURE> 14 6.484777e-002
<MEAN> 9
 -2.144013e+000 1.308995e+000 4.317243e+000 -3.667280e+000 6.977090e+001 -6.256989e+001 3.708268e-001 -8.723130e-002 -2.064658e-001
<VARIANCE> 9
 3.977046e-001 3.371764e-001 9.059266e-002 4.904315e+001 7.262805e+002 1.210095e+002 4.762525e-004 5.782502e-004 1.938003e-004
<GCONST> 3.753074e+000
<MIXTURE> 15 6.455578e-002
<MEAN> 9
 -9.621479e+000 -6.128023e+000 4.570920e+000 -6.294434e+001 1.302460e+002 -2.397103e+002 3.846074e-001 2.303015e-001 1.459354e-002
<VARIANCE> 9
 1.491142e-001 8.671740e-001 7.956593e-002 2.977951e+001 2.680489e+002 1.210095e+002 4.762525e-004 8.771853e-004 8.131068e-004
<GCONST> 3.942023e+000
<MIXTURE> 16 5.194880e-002
<MEAN> 9
 -6.721117e+000 -3.181777e+000 6.013991e+000 -8.862713e+001 8.154257e+001 -2.350919e+002 3.798177e-001 1.633365e-001 -1.072951e-001
<VARIANCE> 9
 6.759766e-001 6.699936e-001 9.386183e-002 8.541907e+001 8.301080e+001 1.210095e+002 4.762525e-004 1.119792e-003 3.466445e-004
<GCONST> 4.633898e+000
<MIXTURE> 17 5.148330e-002
<MEAN> 9
 -8.051187e+000 -8.119507e+000 6.109554e+000 -9.560297e+001 4.696911e+001 -2.402141e+002 2.728715e-001 3.066173e-001 -7.888549e-003
<VARIANCE> 9
 1.796683e+000 6.886560e-001 2.454729e-001 2.977951e+001 4.207583e+002 1.210095e+002 6.787304e-004 5.782502e-004 2.032153e-004
<GCONST> 6.328967e+000
<STATE> 7
<NUMMIXES> 17
<MIXTURE> 1 5.937754e-002
<MEAN> 9
 -5.553929e+000 -1.028913e+001 3.766932e+000 -2.442493e+000 1.896295e+002 -2.835494e+001 -3.090805e-002 3.630297e-001 1.738101e-001
<VARIANCE> 9
 3.903190e+000 5.876290e-001 1.157093e-001 1.046644e+002 5.395425e+002 1.210095e+002 4.762525e-004 5.782502e-004 1.938003e-004
<GCONST> 7.297954e+000
<MIXTURE> 2 5.937037e-002
<MEAN> 9
 -8.510039e+000 -1.069076e+001 3.465864e+000 -2.835365e+001 7.676832e+001 -2.110163e+002 1.875757e-001 3.636364e-001 1.459184e-001
<VARIANCE> 9
 1.491142e-001 3.371764e-001 6.976298e-002 3.633997e+001 2.616595e+002 1.210095e+002 5.357208e-004 5.782502e-004 1.938003e-004
<GCONST> 1.307796e+000
<MIXTURE> 3 7.898499e-002
<MEAN> 9
 -6.786993e+000 -1.157397e+001 4.598702e+000 -8.012973e+001 6.054271e+001 -2.021226e+002 1.126516e-001 3.729490e-001 9.621202e-002
<VARIANCE> 9
 2.042051e+000 3.985876e-001 6.976298e-002 2.977951e+001 6.561711e+002 2.032457e+002 9.718118e-004 5.782502e-004 2.629990e-004
<GCONST> 6.231813e+000
<MIXTURE> 4 7.308257e-002
<MEAN> 9
 -6.600475e+000 -1.059231e+001 2.193112e+000 -2.147161e+001 1.648458e+001 -6.890419e+001 3.302880e-002 3.803433e-001 1.819167e-001
<VARIANCE> 9
 4.969143e-001 3.371764e-001 6.976298e-002 2.977951e+001 6.654923e+002 7.148181e+002 4.762525e-004 5.782502e-004 1.938003e-004
<GCONST> 4.904384e+000
<MIXTURE> 5 3.958036e-002
<MEAN> 9
 -6.373495e+000 -1.279518e+001 2.656626e+000 -7.658537e+001 1.927744e+002 -2.415549e+002 1.177273e-001 3.781818e-001 1.066327e-001
<VARIANCE> 9
 2.939468e-001 3.371764e-001 1.533241e-001 5.265093e+001 2.821988e+002 1.210095e+002 4.762525e-004 5.782502e-004 1.938003e-004
<GCONST> 3.102603e+000
<MIXTURE> 6 7.915293e-002
<MEAN> 9
 -5.997562e+000 -1.008249e+001 1.215474e+000 -5.458754e+001 8.586873e+001 -3.710638e+001 -5.861663e-002 3.516024e-001 1.790706e-001
<VARIANCE> 9
 9.585388e-001 3.371764e-001 4.838999e-001 2.977951e+001 1.065615e+003 1.587954e+002 4.762525e-004 5.782502e-004 1.938003e-004
<GCONST> 6.464519e+000
<MIXTURE> 7 7.910386e-002
<MEAN> 9
 -5.201701e+000 -1.135223e+001 1.750892e+000 -6.129905e+001 1.061368e+002 -7.952666e+001 -1.293558e-002 3.622774e-001 1.591813e-001
<VARIANCE> 9
 1.491142e-001 3.371764e-001 1.514549e+000 6.677750e+001 2.709267e+002 1.857996e+002 9.758642e-004 5.782502e-004 1.938003e-004
<GCONST> 6.057330e+000
<MIXTURE> 8 3.958132e-002
<MEAN> 9
 -8.234930e+000 -1.321083e+001 1.499992e+000 -5.201210e+001 1.859739e+002 -2.184748e+002 5.181760e-002 3.677277e-001 1.280617e-001
<VARIANCE> 9
 1.491142e-001 3.371764e-001 6.976298e-002 2.977951e+001 3.880077e+002 1.210095e+002 4.762525e-004 5.782502e-004 1.938003e-004
<GCONST> 1.385016e+000
<MIXTURE> 9 7.887273e-002
<MEAN> 9
 -4.571023e+000 -9.601715e+000 1.524852e+000 -3.492455e+001 1.707370e+002 -3.722692e+001 -9.304093e-003 3.696360e-001 1.791267e-001
<VARIANCE> 9
 5.376486e-001 3.371764e-001 5.668405e-001 4.697209e+001 1.462030e+002 1.210095e+002 4.762525e-004 5.782502e-004 1.938003e-004
<GCONST> 4.242187e+000
<MIXTURE> 10 4.945210e-002
<MEAN> 9
 -7.156419e+000 -1.209651e+001 1.756402e+000 -5.680061e+001 9.872417e+001 -1.471598e+002 1.315756e-002 3.764747e-001 1.483795e-001
<VARIANCE> 9
 4.863547e-001 3.371764e-001 1.638518e+000 6.782983e+001 1.572087e+002 4.955479e+002 7.180607e-004 5.782502e-004 1.938003e-004
<GCONST> 7.463819e+000
<MIXTURE> 11 5.279341e-002
<MEAN> 9
 -7.481938e+000 -1.013909e+001 5.096111e+000 -9.027825e+001 1.185920e+002 -2.318915e+002 2.036331e-001 3.570052e-001 4.752744e-002
<VARIANCE> 9
 2.345873e+000 3.371764e-001 2.175800e-001 3.568720e+001 8.689345e+002 1.210095e+002 4.762525e-004 5.782502e-004 1.938003e-004
<GCONST> 6.265395e+000
<MIXTURE> 12 3.958031e-002
<MEAN> 9
 -1.026188e+001 -8.832662e+000 3.157684e+000 -2.788247e+001 1.313701e+002 -2.288517e+002 2.970369e-001 3.264003e-001 1.101829e-001
<VARIANCE> 9
 9.018362e-001 3.371764e-001 4.461461e-001 5.123322e+001 2.911038e+003 1.210095e+002 8.704032e-004 5.782502e-004 2.714364e-004
<GCONST> 8.537994e+000
<MIXTURE> 13 7.601175e-002
<MEAN> 9
 -9.028318e+000 -1.118421e+001 2.153504e+000 -1.315395e+001 3.916760e+001 -1.600560e+002 9.211077e-002 3.693163e-001 1.682539e-001
<VARIANCE> 9
 1.491142e-001 3.371764e-001 8.557737e-002 2.977951e+001 1.489313e+003 4.949443e+002 5.195501e-004 5.782502e-004 1.938003e-004
<GCONST> 4.429971e+000
<MIXTURE> 14 5.963098e-002
<MEAN> 9
 -4.596164e+000 -9.822977e+000 1.868543e+000 -4.735686e+001 1.613878e+002 -3.735397e+001 4.159193e-003 3.756098e-001 1.751306e-001
<VARIANCE> 9
 1.590489e-001 3.371764e-001 2.863891e-001 8.703315e+001 3.948006e+002 1.210095e+002 4.762525e-004 5.782502e-004 1.938003e-004
<GCONST> 3.951587e+000
<MIXTURE> 15 4.633040e-002
<MEAN> 9
 -6.361121e+000 -1.070912e+001 4.149099e+000 -9.038784e+001 1.103993e+002 -2.396628e+002 1.863427e-001 3.560925e-001 6.382115e-002
<VARIANCE> 9
 7.204102e-001 5.279075e-001 3.792595e-001 2.977951e+001 6.602772e+002 1.210095e+002 6.356792e-004 5.782502e-004 3.364510e-004
<GCONST> 6.473559e+000
<MIXTURE> 16 4.951415e-002
<MEAN> 9
 -7.266985e+000 -1.212483e+001 1.786069e+000 -5.654555e+001 1.005138e+002 -1.520106e+002 1.556924e-002 3.766130e-001 1.475410e-001
<VARIANCE> 9
 4.798105e-001 3.371764e-001 1.723055e+000 7.127139e+001 1.587273e+002 4.736877e+002 6.730189e-004 5.782502e-004 1.938003e-004
<GCONST> 7.449790e+000
<MIXTURE> 17 3.958031e-002
<MEAN> 9
 -1.064174e+001 -9.064929e+000 2.890508e+000 -3.074557e+001 1.097885e+002 -2.332519e+002 2.852359e-001 3.167815e-001 1.035927e-001
<VARIANCE> 9
 9.018362e-001 3.371764e-001 4.461461e-001 5.123322e+001 2.911038e+003 1.210095e+002 8.704032e-004 5.782502e-004 2.714364e-004
<GCONST> 8.537994e+000
<TRANSP> 8
 0.000000e+000 1.000000e+000 0.000000e+000 0.000000e+000 0.000000e+000 0.000000e+000 0.000000e+000 0.000000e+000
 0.000000e+000 9.230981e-001 7.690184e-002 0.000000e+000 0.000000e+000 0.000000e+000 0.000000e+000 0.000000e+000
 0.000000e+000 0.000000e+000 9.473651e-001 5.263487e-002 0.000000e+000 0.000000e+000 0.000000e+000 0.000000e+000
 0.000000e+000 0.000000e+000 0.000000e+000 9.530999e-001 4.690003e-002 0.000000e+000 0.000000e+000 0.000000e+000
 0.000000e+000 0.000000e+000 0.000000e+000 0.000000e+000 9.716881e-001 2.831187e-002 0.000000e+000 0.000000e+000
 0.000000e+000 0.000000e+000 0.000000e+000 0.000000e+000 0.000000e+000 9.483424e-001 5.165755e-002 0.000000e+000
 0.000000e+000 0.000000e+000 0.000000e+000 0.000000e+000 0.000000e+000 0.000000e+000 9.406300e-001 5.936997e-002
 0.000000e+000 0.000000e+000 0.000000e+000 0.000000e+000 0.000000e+000 0.000000e+000 0.000000e+000 0.000000e+000
<ENDHMM>
~h "GM"
<BEGINHMM>
<NUMSTATES> 8
<STATE> 2
<NUMMIXES> 17
<MIXTURE> 1 4.717452e-002
<MEAN> 9
 -1.174813e+001 -9.458200e+000 -1.569875e-001 7.865753e+000 7.112926e+001 3.333361e+002 3.170753e-001 3.170183e-001 2.136033e-001
<VARIANCE> 9
 6.621283e-001 2.378621e+000 4.031502e-001 2.732742e+002 9.873955e+001 5.520042e+002 3.030089e-003 5.782502e-004 1.938003e-004
<GCONST> 1.079984e+001
<MIXTURE> 2 5.413272e-002
<MEAN> 9
 -6.783840e+000 -1.284428e+001 3.463571e+000 1.561853e+001 -1.308527e+002 1.797318e+002 7.996653e-002 3.787130e-001 2.213787e-001
<VARIANCE> 9
 6.833714e-001 3.371764e-001 4.403398e-001 6.884505e+001 1.083224e+003 8.919254e+002 9.902472e-004 5.782502e-004 1.938003e-004
<GCONST> 9.344016e+000
<MIXTURE> 3 4.548568e-002
<MEAN> 9
 -9.257879e+000 -8.446088e+000 -9.315125e-001 -3.826356e+001 -5.691364e+001 1.624840e+002 2.287330e-001 3.561378e-001 1.936577e-001
<VARIANCE> 9
 1.501473e-001 3.371764e-001 6.976298e-002 6.132732e+001 4.875316e+002 1.210095e+002 1.268167e-003 5.782502e-004 1.938003e-004
<GCONST> 3.322034e+000
<MIXTURE> 4 8.821400e-002
<MEAN> 9
 -1.055307e+001 -7.120449e+000 -2.018224e+000 -1.830297e+001 2.048957e+001 2.471143e+002 2.637311e-001 3.399196e-001 2.085219e-001
<VARIANCE> 9
 6.303401e-001 1.482463e+000 1.333114e+000 4.486840e+001 1.127624e+002 1.210095e+002 6.369152e-004 5.782502e-004 1.938003e-004
<GCONST> 6.722447e+000
<MIXTURE> 5 1.760303e-002
<MEAN> 9
 -9.433735e+000 -5.939759e+000 -8.795181e-001 -1.841463e+001 3.957317e+001 3.425610e+002 3.927273e-001 2.581818e-001 2.306122e-001
<VARIANCE> 9
 1.491142e-001 3.371764e-001 6.976298e-002 2.977951e+001 3.680466e+001 1.210095e+002 4.762525e-004 5.782502e-004 1.938003e-004
<GCONST> -9.703841e-001
<MIXTURE> 6 4.636076e-002
<MEAN> 9
 -8.266217e+000 -9.794745e+000 7.654781e-001 -8.314093e+000 -2.123208e+001 1.608798e+002 1.465447e-001 3.767488e-001 2.034076e-001
<VARIANCE> 9
 7.495590e-001 3.371764e-001 7.983078e-001 1.184982e+002 3.948185e+002 2.037843e+002 4.762525e-004 5.782502e-004 2.840871e-004
<GCONST> 7.739304e+000
<MIXTURE> 7 4.611199e-002
<MEAN> 9
 -1.046953e+001 -6.767906e+000 -1.187223e+000 -5.749449e+001 -8.129775e+001 1.777104e+002 3.338589e-001 3.096249e-001 1.999008e-001
<VARIANCE> 9
 1.887223e-001 3.371764e-001 6.976298e-002 2.977951e+001 1.177428e+002 1.210095e+002 4.762525e-004 5.782502e-004 1.938003e-004
<GCONST> 4.280577e-001
<MIXTURE> 8 9.048708e-002
<MEAN> 9
 -8.770473e+000 -1.153972e+001 5.170860e-001 -6.279478e+000 3.484227e+001 1.328329e+002 5.915584e-002 3.725415e-001 1.815864e-001
<VARIANCE> 9
 2.064027e+000 6.676289e-001 1.231686e-001 2.977951e+001 1.620649e+002 1.082204e+003 4.762525e-004 5.782502e-004 1.938003e-004
<GCONST> 6.582154e+000
<MIXTURE> 9 8.808787e-002
<MEAN> 9
 -1.049614e+001 -9.708104e+000 -1.000237e+000 -1.318505e+001 1.179582e+001 2.192859e+002 1.776328e-001 3.659333e-001 2.008969e-001
<VARIANCE> 9
 6.052319e-001 5.492235e-001 4.312653e-001 2.977951e+001 2.590327e+002 1.464874e+002 1.176702e-003 5.782502e-004 1.938003e-004
<GCONST> 5.786958e+000
<MIXTURE> 10 5.599320e-002
<MEAN> 9
 -1.034855e+001 -4.706073e+000 -2.488895e+000 -4.501557e+001 7.754712e+000 2.489086e+002 3.663899e-001 2.742005e-001 2.250733e-001
<VARIANCE> 9
 2.362067e-001 4.726116e-001 1.695199e+000 1.635001e+002 3.289118e+002 1.210095e+002 9.942153e-004 5.782502e-004 1.938003e-004
<GCONST> 7.646894e+000
<MIXTURE> 11 6.752790e-002
<MEAN> 9
 -7.524335e+000 -1.012556e+001 6.079280e-001 -1.036977e+001 -3.289058e+001 1.284211e+002 9.549773e-002 3.757187e-001 1.866282e-001
<VARIANCE> 9
 1.491142e-001 3.371764e-001 4.109108e-001 2.977951e+001 2.451260e+003 1.210095e+002 4.762525e-004 5.782502e-004 3.397712e-004
<GCONST> 5.563065e+000
<MIXTURE> 12 6.366866e-002
<MEAN> 9
 -9.960958e+000 -5.046113e+000 -6.895953e-001 -7.179199e+001 -1.079083e+002 1.829594e+002 3.960406e-001 2.523279e-001 1.863942e-001
<VARIANCE> 9
 1.514626e-001 3.371764e-001 8.657240e-001 2.977951e+001 3.680466e+001 1.210095e+002 5.057491e-004 5.782502e-004 1.938003e-004
<GCONST> 1.623797e+000
<MIXTURE> 13 7.093374e-002
<MEAN> 9
 -7.532804e+000 -9.957850e+000 5.931143e-001 -1.106234e+001 -7.715035e+001 8.054214e+001 5.535991e-002 3.836811e-001 2.079872e-001
<VARIANCE> 9
 1.491142e-001 3.371764e-001 6.976298e-002 2.977951e+001 8.939635e+001 4.387325e+002 4.762525e-004 5.782502e-004 1.938003e-004
<GCONST> 1.205092e+000
<MIXTURE> 14 6.695989e-002
<MEAN> 9
 -1.025297e+001 -5.231732e+000 -2.362743e+000 -4.660674e+001 -1.506244e+001 2.478914e+002 3.602757e-001 2.768842e-001 2.245722e-001
<VARIANCE> 9
 3.115180e-001 1.785219e+000 3.304699e+000 3.917334e+001 9.604971e+001 1.210095e+002 7.826876e-004 6.557629e-004 1.938003e-004
<GCONST> 7.147040e+000
<MIXTURE> 15 5.844360e-002
<MEAN> 9
 -1.273675e+001 -1.207395e+001 1.099256e+000 4.191586e+001 5.762831e+001 2.751855e+002 2.021558e-001 3.632053e-001 2.105338e-001
<VARIANCE> 9
 3.612642e+000 4.581286e-001 2.490820e+000 1.228144e+002 6.572390e+002 1.121134e+003 2.704366e-003 5.782502e-004 1.938003e-004
<GCONST> 1.436108e+001
<MIXTURE> 16 4.645480e-002
<MEAN> 9
 -9.410671e+000 -8.253519e+000 -9.553119e-001 -4.112319e+001 -6.489314e+001 1.646069e+002 2.419289e-001 3.512021e-001 1.940632e-001
<VARIANCE> 9
 1.491142e-001 3.371764e-001 6.976298e-002 6.305540e+001 4.696919e+002 1.210095e+002 1.281173e-003 5.782502e-004 1.938003e-004
<GCONST> 3.315846e+000
<MIXTURE> 17 4.636076e-002
<MEAN> 9
 -8.612525e+000 -1.002701e+001 4.080858e-001 -1.266837e+001 -2.918010e+001 1.551696e+002 1.378155e-001 3.671300e-001 1.966656e-001
<VARIANCE> 9
 7.495590e-001 3.371764e-001 7.983078e-001 1.184982e+002 3.948185e+002 2.037843e+002 4.762525e-004 5.782502e-004 2.840871e-004
<GCONST> 7.739304e+000
<STATE> 3
<NUMMIXES> 17
<MIXTURE> 1 7.549611e-002
<MEAN> 9
 -4.937418e+000 -6.696683e-001 7.361256e-001 -6.536094e+001 -2.470957e+001 2.001161e+002 5.094259e-001 2.981026e-002 2.336806e-001
<VARIANCE> 9
 8.756323e-001 3.371764e-001 5.253175e-001 2.977951e+001 6.799979e+002 1.832599e+003 4.762525e-004 2.240115e-003 1.938003e-004
<GCONST> 9.807109e+000
<MIXTURE> 2 5.872200e-002
<MEAN> 9
 -7.472406e+000 -3.169969e+000 -5.192877e-001 -5.579085e+001 -5.216765e+000 2.840311e+002 4.632161e-001 1.634810e-001 2.385723e-001
<VARIANCE> 9
 1.491142e-001 1.214407e+000 1.203182e-001 4.228946e+002 5.012927e+001 2.068543e+003 4.762525e-004 1.078138e-003 1.938003e-004
<GCONST> 7.280055e+000
<MIXTURE> 3 7.564037e-002
<MEAN> 9
 -6.988214e+000 1.993838e+000 -3.109994e+000 -1.357498e+002 -1.495395e+001 1.407694e+002 5.123788e-001 1.829575e-002 2.169396e-001
<VARIANCE> 9
 1.491142e-001 3.371764e-001 1.759695e-001 7.327100e+001 1.387762e+002 3.707828e+002 4.762525e-004 1.460650e-003 1.938003e-004
<GCONST> 4.228784e+000
<MIXTURE> 4 4.261777e-002
<MEAN> 9
 -8.754081e+000 -2.164952e+000 -2.578363e+000 -7.623743e+001 -2.712735e+001 2.320186e+002 4.438960e-001 1.945774e-001 2.431839e-001
<VARIANCE> 9
 3.897210e-001 6.774138e-001 2.848398e+000 5.458653e+001 3.139582e+002 1.210095e+002 4.762525e-004 5.903061e-004 2.621679e-004
<GCONST> 7.469811e+000
<MIXTURE> 5 7.580677e-002
<MEAN> 9
 -7.821699e+000 3.401818e+000 -1.203397e+000 -1.532696e+002 1.874708e+001 8.461165e+001 5.161753e-001 -8.295120e-002 2.289716e-001
<VARIANCE> 9
 1.491142e-001 3.371764e-001 7.318959e-001 2.977951e+001 3.680466e+001 1.548243e+002 4.762525e-004 5.782502e-004 1.938003e-004
<GCONST> 1.626575e+000
<MIXTURE> 6 5.264698e-002
<MEAN> 9
 -6.684094e+000 9.978591e-001 1.073374e+000 -7.385025e+001 -1.469018e+001 1.156286e+002 5.188835e-001 1.405958e-002 1.951866e-001
<VARIANCE> 9
 1.491142e-001 3.371764e-001 7.980692e-002 3.243694e+001 2.012917e+002 4.585429e+002 4.762525e-004 2.393099e-003 1.714790e-003
<GCONST> 5.881471e+000
<MIXTURE> 7 5.449745e-002
<MEAN> 9
 -7.607027e+000 -1.768392e-002 -3.777165e+000 -1.004302e+002 -4.991277e+001 1.966467e+002 4.806877e-001 1.037403e-001 2.233137e-001
<VARIANCE> 9
 4.957427e-001 3.506275e-001 2.456857e+000 1.147203e+002 2.256305e+002 1.278539e+002 4.762525e-004 5.862521e-004 2.470233e-004
<GCONST> 7.304980e+000
<MIXTURE> 8 7.574257e-002
<MEAN> 9
 -6.913249e+000 1.959037e+000 2.168677e+000 -9.512196e+001 -1.626839e+001 7.581699e+001 5.230909e-001 -8.727337e-003 1.665306e-001
<VARIANCE> 9
 6.919639e-001 3.371764e-001 9.243659e-002 2.977951e+001 2.561273e+002 2.742399e+002 4.762525e-004 5.782502e-004 1.938003e-004
<GCONST> 3.604041e+000
<MIXTURE> 9 5.225334e-002
<MEAN> 9
 -6.592802e+000 -1.342080e-001 2.230777e+000 -3.742847e+001 -1.903826e+001 4.629449e+001 5.249742e-001 -7.226442e-002 2.219987e-001
<VARIANCE> 9
 1.491142e-001 3.371764e-001 1.459041e-001 1.869930e+002 1.768924e+002 3.365887e+002 4.762525e-004 5.782502e-004 1.951568e-004
<GCONST> 4.204598e+000
<MIXTURE> 10 8.046988e-002
<MEAN> 9
 -7.355272e+000 1.165889e-002 2.915920e-001 -8.248311e+001 -2.699590e+001 1.605978e+002 5.006533e-001 8.589257e-002 2.207351e-001
<VARIANCE> 9
 1.491142e-001 3.371764e-001 2.996870e-001 1.489044e+002 4.433532e+001 1.679358e+002 4.762525e-004 1.130713e-003 2.531641e-003
<GCONST> 5.850998e+000
<MIXTURE> 11 6.053822e-002
<MEAN> 9
 -7.707665e+000 2.023427e+000 1.826451e+000 -1.480565e+002 -1.594591e+000 4.012288e+001 5.077273e-001 -1.475075e-001 2.142804e-001
<VARIANCE> 9
 1.491142e-001 3.371764e-001 8.446746e-001 4.857953e+001 5.374955e+001 1.336383e+002 4.762525e-004 5.782502e-004 1.938003e-004
<GCONST> 2.490825e+000
<MIXTURE> 12 3.127157e-002
<MEAN> 9
 -3.857071e+000 -6.844529e-001 2.064192e+000 -4.585098e+001 -5.149013e+001 1.017662e+002 5.227309e-001 -6.034293e-002 2.090805e-001
<VARIANCE> 9
 1.135034e+000 3.371764e-001 1.775914e-001 2.977951e+001 4.876844e+002 2.601970e+002 4.762525e-004 5.782502e-004 1.938003e-004
<GCONST> 5.343318e+000
<MIXTURE> 13 6.059680e-002
<MEAN> 9
 -7.186782e+000 4.577907e-001 4.283174e+000 -8.509015e+001 -7.255201e+000 2.935904e+001 5.261363e-001 -4.977293e-002 1.584186e-001
<VARIANCE> 9
 1.932650e-001 3.946369e-001 8.194289e-002 1.148143e+002 5.625763e+001 1.210095e+002 4.762525e-004 5.782502e-004 1.938003e-004
<GCONST> 1.381057e+000
<MIXTURE> 14 5.494546e-002
<MEAN> 9
 -7.803901e+000 -2.375412e+000 8.821607e-002 -6.100460e+001 -6.970129e+001 1.794003e+002 4.627321e-001 1.686763e-001 1.613170e-001
<VARIANCE> 9
 3.266138e-001 8.252079e-001 6.976298e-002 2.977951e+001 1.703509e+003 1.210095e+002 4.762525e-004 5.999141e-004 1.938003e-004
<GCONST> 4.580312e+000
<MIXTURE> 15 5.270348e-002
<MEAN> 9
 -6.695858e+000 1.193807e+000 8.012137e-001 -7.980401e+001 -2.768786e+001 1.149332e+002 5.198448e-001 -4.228646e-003 2.268621e-001
<VARIANCE> 9
 1.491142e-001 3.371764e-001 8.443849e-002 5.035784e+001 4.558262e+002 1.822920e+002 4.762525e-004 9.064899e-004 1.268717e-003
<GCONST> 5.000603e+000
<MIXTURE> 16 5.343363e-002
<MEAN> 9
 -6.616660e+000 -4.975095e-003 2.142239e+000 -3.941861e+001 -2.400608e+001 4.401864e+001 5.248984e-001 -7.527014e-002 2.250033e-001
<VARIANCE> 9
 1.491142e-001 3.371764e-001 1.117179e-001 1.959780e+002 1.642667e+002 2.740424e+002 4.762525e-004 5.782502e-004 1.938003e-004
<GCONST> 3.697953e+000
<MIXTURE> 17 4.261777e-002
<MEAN> 9
 -9.003791e+000 -2.494172e+000 -3.253451e+000 -7.919274e+001 -3.421489e+001 2.276184e+002 4.351667e-001 1.848590e-001 2.367073e-001
<VARIANCE> 9
 3.897210e-001 6.774138e-001 2.848398e+000 5.458653e+001 3.139582e+002 1.210095e+002 4.762525e-004 5.903061e-004 2.621679e-004
<GCONST> 7.469811e+000
<STATE> 4
<NUMMIXES> 17
<MIXTURE> 1 6.762674e-002
<MEAN> 9
 -8.027015e+000 5.293996e+000 2.778521e-001 1.282528e+000 4.984758e+001 6.024147e+001 4.967875e-001 -1.750955e-001 2.696489e-001
<VARIANCE> 9
 1.291861e+000 3.371764e-001 1.262465e+000 6.937807e+001 3.825571e+002 7.003751e+002 4.762525e-004 5.782502e-004 1.938003e-004
<GCONST> 9.027213e+000
<MIXTURE> 2 4.649822e-002
<MEAN> 9
 -9.454947e+000 2.466702e+000 3.594387e+000 1.582458e+001 3.212020e+001 2.511268e+001 5.238421e-001 -7.731412e-002 2.076484e-001
<VARIANCE> 9
 1.491142e-001 3.371764e-001 4.451464e-001 2.977951e+001 1.042892e+002 1.210095e+002 4.762525e-004 5.782502e-004 1.938003e-004
<GCONST> 1.924457e+000
<MIXTURE> 3 4.132381e-002
<MEAN> 9
 -8.726332e+000 4.092648e+000 4.550057e+000 1.915430e+001 1.644942e+001 2.019526e+001 5.152985e-001 -1.597964e-001 1.951765e-001
<VARIANCE> 9
 3.627774e-001 1.290807e+000 6.374183e-001 2.079412e+002 3.066442e+002 1.210095e+002 4.762525e-004 6.811601e-004 1.938003e-004
<GCONST> 7.700719e+000
<MIXTURE> 4 5.598034e-002
<MEAN> 9
 -7.531650e+000 5.856523e+000 1.004416e+000 2.134525e+001 4.000131e+000 4.018541e+001 5.045020e-001 -1.734047e-001 2.113301e-001
<VARIANCE> 9
 1.619914e+000 3.371764e-001 1.646393e-001 4.774075e+002 2.654740e+002 2.665657e+002 4.762525e-004 8.163932e-004 1.938003e-004
<GCONST> 8.158767e+000
<MIXTURE> 5 7.677625e-002
<MEAN> 9
 -8.289572e+000 4.357666e-001 4.874584e+000 -6.698070e+001 -1.879351e+000 3.311509e+000 5.119306e-001 -1.650035e-001 1.863560e-001
<VARIANCE> 9
 1.491142e-001 4.501991e-001 2.975980e-001 1.359581e+003 3.680466e+001 1.210095e+002 4.762525e-004 5.782502e-004 1.938003e-004
<GCONST> 4.590453e+000
<MIXTURE> 6 7.821865e-002
<MEAN> 9
 -9.686738e+000 3.107785e+000 2.992368e+000 -1.994501e+000 9.524045e+000 1.051079e+001 5.227388e-001 -1.050948e-001 2.151919e-001
<VARIANCE> 9
 1.491142e-001 3.371764e-001 6.976298e-002 2.977951e+001 3.680466e+001 1.210095e+002 4.762525e-004 5.782502e-004 1.938003e-004
<GCONST> -9.703841e-001
<MIXTURE> 7 4.646378e-002
<MEAN> 9
 -6.069102e+000 5.820988e+000 3.837567e-001 -5.282080e+001 7.392980e+001 4.847918e+001 4.579613e-001 -2.418235e-001 3.010980e-001
<VARIANCE> 9
 6.260723e-001 3.371764e-001 2.181661e-001 2.398729e+002 9.885798e+002 4.156339e+002 4.762525e-004 5.782502e-004 3.377904e-004
<GCONST> 8.770988e+000
<MIXTURE> 8 4.435883e-002
<MEAN> 9
 -8.473781e+000 3.942571e+000 2.346588e+000 1.159614e+001 1.672901e+001 5.096973e+001 5.069729e-001 -1.410571e-001 2.470850e-001
<VARIANCE> 9
 1.802276e-001 3.371764e-001 1.697138e-001 3.391377e+001 4.101099e+001 2.367078e+002 4.762525e-004 5.782502e-004 1.938003e-004
<GCONST> 1.017306e+000
<MIXTURE> 9 6.120751e-002
<MEAN> 9
 -9.059414e+000 5.060318e-001 4.957480e+000 -1.664111e+001 2.628640e+001 1.575089e+001 5.254461e-001 -6.531593e-002 1.692668e-001
<VARIANCE> 9
 2.179144e-001 7.801504e-001 6.976298e-002 4.633497e+002 6.730752e+001 1.210095e+002 4.762525e-004 8.899631e-004 1.938003e-004
<GCONST> 4.027368e+000
<MIXTURE> 10 7.540548e-002
<MEAN> 9
 -8.687848e+000 1.136768e+000 2.301764e+000 -1.148644e+001 1.555938e+000 1.142605e+001 5.250226e-001 -9.163546e-002 2.094604e-001
<VARIANCE> 9
 1.042290e+000 4.697780e-001 8.860545e-002 2.977951e+001 3.762788e+001 2.384767e+002 4.762525e-004 5.782502e-004 1.938003e-004
<GCONST> 2.245345e+000
<MIXTURE> 11 6.702044e-002
<MEAN> 9
 -1.059239e+001 3.814796e+000 1.667698e+000 -4.688920e+000 2.833032e+001 5.112668e+001 5.177783e-001 -1.219559e-001 2.243624e-001
<VARIANCE> 9
 3.282167e-001 3.371764e-001 1.549317e-001 2.977951e+001 2.041762e+002 1.447084e+002 4.762525e-004 5.782502e-004 2.268847e-004
<GCONST> 2.666282e+000
<MIXTURE> 12 5.700838e-002
<MEAN> 9
 -7.367570e+000 4.570842e+000 1.311464e+000 -8.662726e+001 4.597163e+001 4.931691e+001 4.829578e-001 -2.143453e-001 2.360892e-001
<VARIANCE> 9
 3.810547e-001 3.371764e-001 2.608925e-001 2.439776e+002 5.878884e+001 1.210095e+002 4.762525e-004 5.782502e-004 1.938003e-004
<GCONST> 3.858436e+000
<MIXTURE> 13 8.262599e-002
<MEAN> 9
 -8.038085e+000 5.126135e+000 -4.618558e-002 -2.875036e+001 2.842549e+001 5.586563e+001 4.933913e-001 -1.810877e-001 2.544600e-001
<VARIANCE> 9
 7.848272e-001 3.371764e-001 2.083360e-001 2.542070e+002 1.125595e+002 1.210095e+002 4.762525e-004 5.782502e-004 8.572720e-004
<GCONST> 6.533526e+000
<MIXTURE> 14 4.727603e-002
<MEAN> 9
 -9.434052e+000 2.988088e+000 2.764851e+000 1.672009e+001 2.319869e+001 2.799124e+001 5.222720e-001 -9.204485e-002 2.202814e-001
<VARIANCE> 9
 1.491142e-001 3.371764e-001 3.517185e-001 2.977951e+001 6.029392e+001 1.210095e+002 4.762525e-004 5.782502e-004 1.938003e-004
<GCONST> 1.140952e+000
<MIXTURE> 15 6.633008e-002
<MEAN> 9
 -5.908351e+000 6.119080e+000 1.135701e+000 -6.860007e+001 4.225211e+001 2.839000e+001 4.518179e-001 -2.490614e-001 2.961105e-001
<VARIANCE> 9
 1.042533e+000 3.371764e-001 4.154765e-001 8.659752e+001 2.072280e+003 3.371837e+002 4.762525e-004 5.782502e-004 7.306657e-004
<GCONST> 1.020875e+001
<MIXTURE> 16 4.455554e-002
<MEAN> 9
 -8.714394e+000 3.722648e+000 2.206006e+000 9.784595e+000 1.676835e+001 5.720170e+001 5.090150e-001 -1.385507e-001 2.438334e-001
<VARIANCE> 9
 1.789428e-001 3.371764e-001 8.245024e-002 5.457138e+001 4.963066e+001 3.539775e+002 4.762525e-004 5.782502e-004 1.938003e-004
<GCONST> 1.357099e+000
<MIXTURE> 17 4.132381e-002
<MEAN> 9
 -8.967257e+000 3.638193e+000 4.230703e+000 1.338624e+001 9.444919e+000 1.579508e+001 5.065691e-001 -1.702360e-001 1.896081e-001
<VARIANCE> 9
 3.627774e-001 1.290807e+000 6.374183e-001 2.079412e+002 3.066442e+002 1.210095e+002 4.762525e-004 6.811601e-004 1.938003e-004
<GCONST> 7.700719e+000
<STATE> 5
<NUMMIXES> 17
<MIXTURE> 1 2.471324e-002
<MEAN> 9
 -2.156865e+000 1.000049e+001 1.181320e+001 3.945291e+000 -4.517085e+001 2.338369e+001 4.475585e-001 -2.676161e-001 2.722367e-001
<VARIANCE> 9
 2.474301e+001 3.557573e+000 2.977089e+001 1.616712e+003 8.178433e+002 7.582957e+002 4.782630e-004 5.782502e-004 3.692645e-003
<GCONST> 2.443568e+001
<MIXTURE> 2 8.363274e-002
<MEAN> 9
 -7.314319e+000 7.393943e+000 7.016838e-001 -8.224016e+000 -1.181385e+001 -1.207764e-001 4.250017e-001 -2.770480e-001 3.328395e-001
<VARIANCE> 9
 6.435787e-001 3.371764e-001 1.028609e+000 3.702568e+002 4.748078e+002 1.210095e+002 4.762525e-004 5.782502e-004 3.061299e-004
<GCONST> 8.717651e+000
<MIXTURE> 3 7.487988e-002
<MEAN> 9
 -7.123113e+000 -1.754815e+000 1.477308e+001 -8.532207e+001 -5.416446e-001 8.461300e+000 4.463646e-001 -2.815677e-001 1.954866e-001
<VARIANCE> 9
 2.995952e+001 1.070805e+001 3.483727e+001 2.491818e+003 2.987498e+003 3.381715e+002 4.762525e-004 8.666765e-004 3.226475e-003
<GCONST> 2.707217e+001
<MIXTURE> 4 5.110922e-002
<MEAN> 9
 -7.936749e+000 6.321276e+000 1.705026e+000 5.245163e+001 -1.911768e+001 7.770502e+000 4.818391e-001 -2.276764e-001 2.349606e-001
<VARIANCE> 9
 1.931189e+000 3.371764e-001 7.998409e+000 1.324469e+003 9.088153e+002 1.210095e+002 4.762525e-004 5.782502e-004 1.938003e-004
<GCONST> 1.333415e+001
<MIXTURE> 5 5.111219e-002
<MEAN> 9
 -7.506003e+000 3.251415e+000 5.193831e+000 5.407586e+000 -1.182829e+001 1.799782e+000 4.451310e-001 -2.915488e-001 1.667324e-001
<VARIANCE> 9
 7.012448e-001 4.899164e-001 1.442237e+000 8.098734e+001 1.616448e+002 1.210095e+002 4.762525e-004 5.782502e-004 1.339774e-003
<GCONST> 8.393914e+000
<MIXTURE> 6 5.268795e-002
<MEAN> 9
 -9.100395e+000 4.816295e+000 9.651342e-001 -1.165863e+001 2.362060e+001 -4.801705e+000 4.451430e-001 -2.863952e-001 2.436118e-001
<VARIANCE> 9
 1.493202e+000 4.296651e-001 1.059014e+000 3.213481e+003 1.050234e+003 1.210095e+002 4.762525e-004 5.782502e-004 2.771940e-003
<GCONST> 1.498888e+001
<MIXTURE> 7 8.201425e-002
<MEAN> 9
 -9.062184e+000 3.724181e+000 4.592856e-001 -5.391157e+001 1.581187e+001 6.512036e-001 4.772652e-001 -2.384163e-001 2.292390e-001
<VARIANCE> 9
 4.238213e-001 3.371764e-001 3.879525e+000 6.556261e+002 8.772497e+001 2.373147e+002 4.762525e-004 5.782502e-004 2.127167e-004
<GCONST> 8.819584e+000
<MIXTURE> 8 3.886328e-002
<MEAN> 9
 -9.098852e+000 1.335743e+000 7.557909e+000 3.407200e+001 -1.243133e+001 -2.064700e+000 4.399514e-001 -2.980297e-001 1.319426e-001
<VARIANCE> 9
 4.931270e-001 3.371764e-001 4.049806e+000 1.252597e+003 9.839938e+002 1.723524e+002 4.762525e-004 5.782502e-004 1.938003e-004
<GCONST> 1.166581e+001
<MIXTURE> 9 5.686899e-002
<MEAN> 9
 -7.539101e+000 4.739295e+000 2.107793e+000 -1.103188e+002 6.390379e+001 4.957167e+000 4.780144e-001 -2.333767e-001 2.219609e-001
<VARIANCE> 9
 1.522834e+000 5.205621e-001 6.484262e+000 2.206929e+003 9.097308e+002 1.210095e+002 4.762525e-004 5.782502e-004 1.938003e-004
<GCONST> 1.383262e+001
<MIXTURE> 10 6.445014e-002
<MEAN> 9
 -8.877265e+000 3.159990e+000 1.198994e+000 -1.106635e+002 2.638166e+001 2.643716e+001 4.595649e-001 -2.735098e-001 2.166771e-001
<VARIANCE> 9
 6.736835e-001 3.371764e-001 5.160373e-001 4.173659e+002 4.208185e+001 1.210095e+002 4.762525e-004 5.782502e-004 1.938003e-004
<GCONST> 5.312873e+000
<MIXTURE> 11 5.586302e-002
<MEAN> 9
 -8.496710e+000 4.972564e+000 3.108152e+000 -2.716961e+001 2.401181e+001 -1.197762e+001 4.660449e-001 -2.490303e-001 2.404922e-001
<VARIANCE> 9
 2.165861e+000 1.620323e+000 1.444264e+000 2.799797e+003 1.225129e+003 1.210095e+002 4.762525e-004 5.782502e-004 1.938003e-004
<GCONST> 1.435416e+001
<MIXTURE> 12 6.704249e-002
<MEAN> 9
 -7.991426e+000 6.342354e+000 2.291092e+000 8.978260e+000 2.489223e+000 -4.598373e+000 4.671783e-001 -2.506061e-001 2.359740e-001
<VARIANCE> 9
 1.294638e+000 7.998271e-001 2.999956e+000 2.531411e+002 1.530677e+002 1.210095e+002 4.762525e-004 5.782502e-004 1.938003e-004
<GCONST> 9.381309e+000
<MIXTURE> 13 5.973113e-002
<MEAN> 9
 -8.071680e+000 1.707295e+000 3.377866e+000 -1.469727e+002 3.499968e+001 2.926328e+001 4.492741e-001 -2.923035e-001 1.803822e-001
<VARIANCE> 9
 1.364199e+000 3.371764e-001 3.996630e+000 8.463748e+002 2.134263e+002 1.210095e+002 4.762525e-004 5.782502e-004 2.851231e-004
<GCONST> 1.078223e+001
<MIXTURE> 14 8.388666e-002
<MEAN> 9
 -7.686244e+000 5.499726e+000 2.437674e+000 3.010083e+000 -5.293961e+000 -5.818651e+000 4.649294e-001 -2.550700e-001 2.321306e-001
<VARIANCE> 9
 7.417302e-001 7.638336e-001 2.709811e+000 3.091638e+002 6.229385e+001 1.210095e+002 4.762525e-004 5.782502e-004 1.938003e-004
<GCONST> 7.977454e+000
<MIXTURE> 15 4.760236e-002
<MEAN> 9
 -7.218850e+000 5.987453e+000 1.220266e+000 1.867663e+001 -2.246945e+001 9.307251e+000 4.793996e-001 -2.302892e-001 2.302494e-001
<VARIANCE> 9
 3.136358e+000 3.371764e-001 1.008381e+001 2.305515e+003 5.735434e+002 1.210095e+002 4.762525e-004 5.782502e-004 1.938003e-004
<GCONST> 1.414475e+001
<MIXTURE> 16 5.285456e-002
<MEAN> 9
 -7.819926e+000 3.180028e+000 4.860563e+000 6.921338e+000 -1.700680e+001 6.580633e-001 4.415120e-001 -2.992669e-001 1.638637e-001
<VARIANCE> 9
 3.620827e-001 6.461676e-001 1.380642e+000 7.124068e+001 2.099488e+002 1.210095e+002 4.762525e-004 5.782502e-004 8.003722e-004
<GCONST> 7.584160e+000
<MIXTURE> 17 5.268795e-002
<MEAN> 9
 -9.589182e+000 4.554099e+000 5.535006e-001 -3.433366e+001 1.065768e+001 -9.201879e+000 4.364138e-001 -2.960140e-001 2.225521e-001
<VARIANCE> 9
 1.493202e+000 4.296651e-001 1.059014e+000 3.213481e+003 1.050234e+003 1.210095e+002 4.762525e-004 5.782502e-004 2.771940e-003
<GCONST> 1.498888e+001
<STATE> 6
<NUMMIXES> 17
<MIXTURE> 1 4.385722e-002
<MEAN> 9
 -6.146702e+000 5.915716e-001 2.120205e+000 1.532861e+002 -3.754688e+001 -1.112596e+002 4.987701e-001 -1.905950e-001 1.862827e-001
<VARIANCE> 9
 1.491142e-001 3.371764e-001 3.536952e-001 2.056142e+002 7.628901e+002 1.394304e+002 4.762525e-004 6.295053e-004 1.938003e-004
<GCONST> 5.843242e+000
<MIXTURE> 2 7.491453e-002
<MEAN> 9
 -5.728490e+000 2.071890e+000 1.163445e+000 1.315211e+002 -1.433616e+002 -1.565281e+002 5.021989e-001 -1.517277e-001 6.214138e-002
<VARIANCE> 9
 3.419471e-001 3.371764e-001 6.976298e-002 4.233651e+002 1.502131e+002 1.537012e+003 4.762525e-004 2.193234e-003 1.714334e-003
<GCONST> 9.975206e+000
<MIXTURE> 3 7.768068e-002
<MEAN> 9
 -6.944812e+000 9.510512e-001 2.643312e+000 1.494921e+002 -5.730311e+001 -7.607629e+001 4.745139e-001 -2.470422e-001 1.966908e-001
<VARIANCE> 9
 2.059592e-001 3.371764e-001 1.603044e-001 2.826819e+002 2.007588e+002 1.210095e+002 4.762525e-004 6.873418e-004 5.646577e-004
<GCONST> 5.373750e+000
<MIXTURE> 4 7.445101e-002
<MEAN> 9
 -7.773458e+000 -1.451090e+000 1.586458e+000 5.497015e+001 -5.764837e+001 -2.628399e+002 4.784655e-001 7.145881e-002 3.374227e-003
<VARIANCE> 9
 6.600106e-001 1.778425e+000 1.111921e+000 6.239128e+002 4.301542e+002 1.924334e+002 4.762525e-004 5.131565e-003 3.009074e-003
<GCONST> 1.583909e+001
<MIXTURE> 5 4.317345e-002
<MEAN> 9
 -6.762656e+000 3.937560e-001 1.049458e-002 1.788082e+002 -7.496622e+001 -1.540652e+002 5.156519e-001 -1.328328e-001 1.944629e-001
<VARIANCE> 9
 8.207085e-001 3.371764e-001 6.976298e-002 5.152161e+001 4.801277e+002 3.065810e+002 4.762525e-004 1.625336e-003 2.106031e-004
<GCONST> 5.897904e+000
<MIXTURE> 6 4.331512e-002
<MEAN> 9
 -7.440781e+000 2.827124e-001 6.507970e+000 7.344486e+001 -3.695592e+001 -1.398869e+001 4.602090e-001 -2.705095e-001 1.599451e-001
<VARIANCE> 9
 6.359285e-001 3.371764e-001 2.378155e-001 8.189744e+002 3.695577e+001 1.210095e+002 4.762525e-004 5.782502e-004 1.970020e-004
<GCONST> 5.041096e+000
<MIXTURE> 7 8.436958e-002
<MEAN> 9
 -8.340059e+000 -6.047149e-001 -8.185109e-001 1.452447e+002 -3.028534e+001 -2.428119e+002 5.184372e-001 2.910674e-002 1.492660e-001
<VARIANCE> 9
 4.619330e+000 3.371764e-001 5.470580e-001 4.468801e+001 1.411578e+003 2.938846e+002 4.762525e-004 3.120176e-003 1.938003e-004
<GCONST> 1.114804e+001
<MIXTURE> 8 6.774890e-002
<MEAN> 9
 -7.654975e+000 1.764075e-001 4.560939e+000 1.346187e+002 -5.651700e+001 -5.112228e+001 4.646538e-001 -2.679610e-001 1.573847e-001
<VARIANCE> 9
 9.301775e-001 3.371764e-001 7.000263e-001 8.095280e+002 4.688382e+001 1.210095e+002 4.762525e-004 5.782502e-004 1.938003e-004
<GCONST> 6.710975e+000
<MIXTURE> 9 5.315437e-002
<MEAN> 9
 -9.966928e+000 -3.367492e+000 9.399853e-001 3.091545e+001 1.311366e+001 -3.067727e+002 4.411337e-001 1.731993e-001 3.003376e-002
<VARIANCE> 9
 1.491142e-001 3.626795e-001 1.812215e+000 1.591243e+002 4.143397e+002 6.755019e+002 4.762525e-004 6.484847e-004 3.589446e-003
<GCONST> 1.120980e+001
<MIXTURE> 10 7.636014e-002
<MEAN> 9
 -8.775321e+000 -1.088012e+000 -1.583797e+000 1.034451e+002 -5.838388e+001 -2.923170e+002 4.998214e-001 7.867467e-002 1.045405e-001
<VARIANCE> 9
 2.102925e+000 3.829057e-001 4.615248e-001 6.015378e+002 1.515199e+003 1.095585e+003 4.762525e-004 3.927484e-003 1.938003e-004
<GCONST> 1.453487e+001
<MIXTURE> 11 7.910819e-002
<MEAN> 9
 -7.944735e+000 1.640282e+000 5.190973e+000 8.675355e+001 -4.401143e+001 -3.063510e+001 4.384341e-001 -3.076886e-001 1.949659e-001
<VARIANCE> 9
 1.491142e-001 3.371764e-001 5.067419e-001 9.853002e+002 9.901411e+001 1.753841e+002 4.762525e-004 5.782502e-004 1.938003e-004
<GCONST> 5.872388e+000
<MIXTURE> 12 5.344013e-002
<MEAN> 9
 -6.136658e+000 4.079798e-001 -8.375829e-001 1.748868e+002 -1.126190e+002 -2.094672e+002 5.202236e-001 -1.007646e-001 1.646175e-001
<VARIANCE> 9
 1.520518e-001 3.371764e-001 7.267375e-002 1.407151e+002 2.331790e+002 4.659184e+002 4.762525e-004 2.557802e-003 1.938003e-004
<GCONST> 5.324140e+000
<MIXTURE> 13 4.676128e-002
<MEAN> 9
 -7.654406e+000 1.008976e+000 1.722403e+000 1.650678e+002 -1.054162e+002 -6.874933e+001 4.776846e-001 -2.494214e-001 1.467454e-001
<VARIANCE> 9
 1.365267e+000 3.371764e-001 5.898320e-001 2.977951e+001 5.226066e+002 1.210095e+002 4.762525e-004 5.782502e-004 1.938003e-004
<GCONST> 6.031947e+000
<MIXTURE> 14 5.195724e-002
<MEAN> 9
 -7.983816e+000 3.921191e-001 6.672840e+000 1.272832e+002 -6.727920e+001 -4.729760e+001 4.502590e-001 -2.874264e-001 1.381218e-001
<VARIANCE> 9
 7.903780e-001 3.371764e-001 2.613537e+000 6.368711e+002 1.178066e+002 1.210095e+002 4.762525e-004 5.782502e-004 1.938003e-004
<GCONST> 8.546939e+000
<MIXTURE> 15 4.385250e-002
<MEAN> 9
 -6.795080e+000 2.781768e-001 1.235911e+000 1.844933e+002 -5.980043e+001 -1.194936e+002 4.892661e-001 -2.153845e-001 1.798588e-001
<VARIANCE> 9
 1.491142e-001 3.371764e-001 1.567193e-001 1.253750e+002 3.438755e+002 2.283938e+002 4.762525e-004 1.900136e-003 1.938003e-004
<GCONST> 5.335989e+000
<MIXTURE> 16 4.254020e-002
<MEAN> 9
 -7.092787e+000 3.414137e-001 -1.646446e-001 1.784934e+002 -7.972593e+001 -1.663183e+002 5.177462e-001 -1.272182e-001 1.878004e-001
<VARIANCE> 9
 4.936696e-001 3.371764e-001 6.976298e-002 8.505016e+001 3.688151e+002 2.597428e+002 4.762525e-004 1.382980e-003 1.938003e-004
<GCONST> 5.216674e+000
<MIXTURE> 17 4.331512e-002
<MEAN> 9
 -7.759761e+000 5.044482e-002 6.312904e+000 6.199777e+001 -3.938757e+001 -1.838887e+001 4.514797e-001 -2.801283e-001 1.543307e-001
<VARIANCE> 9
 6.359285e-001 3.371764e-001 2.378155e-001 8.189744e+002 3.695577e+001 1.210095e+002 4.762525e-004 5.782502e-004 1.970020e-004
<GCONST> 5.041096e+000
<STATE> 7
<NUMMIXES> 17
<MIXTURE> 1 6.397491e-002
<MEAN> 9
 -2.632243e+000 -1.042339e+001 4.714421e+000 -3.350645e+001 1.217195e+002 -2.943957e+001 -1.145924e-002 3.688354e-001 1.773533e-001
<VARIANCE> 9
 2.442968e+000 9.605555e-001 2.187707e-001 1.691901e+002 5.038934e+003 3.186580e+002 4.762525e-004 5.782502e-004 1.938003e-004
<GCONST> 1.164048e+001
<MIXTURE> 2 8.731506e-002
<MEAN> 9
 -1.064534e+001 -7.730927e+000 2.311284e+000 1.106954e+001 1.075443e+000 -2.725651e+002 2.941306e-001 3.207916e-001 9.169833e-002
<VARIANCE> 9
 1.281901e+000 1.032715e+000 5.033022e-001 1.456243e+003 1.676965e+003 1.295429e+002 1.028287e-003 5.782502e-004 3.620770e-004
<GCONST> 1.344822e+001
<MIXTURE> 3 4.632794e-002
<MEAN> 9
 -1.011233e+001 -4.627729e+000 1.348710e+000 4.832327e+001 3.231071e+001 -2.748370e+002 4.018765e-001 2.420523e-001 6.732248e-002
<VARIANCE> 9
 1.024568e+000 4.632835e-001 9.331809e-001 1.362466e+003 1.333038e+003 1.210095e+002 4.766014e-004 7.680941e-004 2.175624e-003
<GCONST> 1.398386e+001
<MIXTURE> 4 8.010643e-002
<MEAN> 9
 -6.930087e+000 -1.091540e+001 2.124229e+000 -3.662669e+001 1.063036e+002 -9.811428e+001 2.237250e-002 3.736194e-001 1.381392e-001
<VARIANCE> 9
 1.491142e-001 9.024929e-001 3.659306e-001 2.977951e+001 6.569474e+002 3.875941e+002 4.824002e-004 5.782502e-004 9.865094e-004
<GCONST> 7.357751e+000
<MIXTURE> 5 5.310144e-002
<MEAN> 9
 -8.003938e+000 -1.109175e+001 2.358492e+000 -3.628266e+001 5.536224e+001 -2.019392e+002 1.213637e-001 3.792110e-001 1.085206e-001
<VARIANCE> 9
 3.386898e-001 3.371764e-001 7.544127e-002 1.034939e+002 6.063697e+002 1.511160e+003 1.618339e-003 5.782502e-004 3.609294e-004
<GCONST> 8.345621e+000
<MIXTURE> 6 6.146021e-002
<MEAN> 9
 -5.561117e+000 -9.672327e+000 1.994045e+000 -4.302644e+001 5.092999e+001 -3.123439e+001 -2.174535e-003 3.684250e-001 1.558979e-001
<VARIANCE> 9
 1.491142e-001 3.371764e-001 1.509435e-001 2.977951e+001 1.425238e+003 1.210095e+002 4.762525e-004 5.782502e-004 1.938003e-004
<GCONST> 3.457889e+000
<MIXTURE> 7 8.448140e-002
<MEAN> 9
 -1.014176e+001 -9.430263e+000 1.791627e+000 -7.430529e+000 6.500693e+001 -2.622287e+002 2.424928e-001 3.514410e-001 6.401891e-002
<VARIANCE> 9
 3.000995e-001 1.377435e+000 1.414508e-001 5.536297e+002 1.845565e+003 1.906751e+002 1.222525e-003 5.782502e-004 6.976088e-004
<GCONST> 1.135909e+001
<MIXTURE> 8 4.601289e-002
<MEAN> 9
 -8.798381e+000 -1.248676e+001 2.279345e+000 -5.385767e+001 2.538596e+001 -1.852477e+002 6.863652e-002 3.727396e-001 1.372370e-001
<VARIANCE> 9
 1.801081e+000 4.849235e-001 7.032224e-001 2.355292e+002 4.511930e+002 2.966174e+003 1.435196e-003 5.782502e-004 2.319309e-004
<GCONST> 1.325116e+001
<MIXTURE> 9 5.834914e-002
<MEAN> 9
 -1.194880e+001 -6.783396e+000 -2.513310e-001 4.876907e+000 9.317197e+001 -3.110667e+002 3.582485e-001 2.782360e-001 6.171648e-002
<VARIANCE> 9
 4.892604e+000 8.948013e-001 1.587329e+000 6.364506e+001 6.347492e+002 5.556389e+002 1.099220e-003 5.782502e-004 2.421398e-003
<GCONST> 1.511412e+001
<MIXTURE> 10 8.061666e-002
<MEAN> 9
 -9.100261e+000 -9.371969e+000 3.432138e+000 1.072738e+001 2.022296e+002 -2.605529e+001 -1.716404e-002 3.624798e-001 1.628138e-001
<VARIANCE> 9
 5.790725e+000 3.371764e-001 1.717453e-001 2.977951e+001 8.256263e+003 1.501957e+002 4.762525e-004 5.782502e-004 1.938003e-004
<GCONST> 9.219001e+000
<MIXTURE> 11 3.466454e-002
<MEAN> 9
 -7.574305e+000 -1.003615e+001 8.714836e-001 -6.158538e+001 1.077846e+002 -6.063024e+001 3.939474e-003 3.651516e-001 1.683673e-001
<VARIANCE> 9
 3.389276e-001 3.371764e-001 6.976298e-002 2.977951e+001 8.997787e+001 1.749751e+002 4.762525e-004 5.782502e-004 1.938003e-004
<GCONST> 1.113404e+000
<MIXTURE> 12 6.781610e-002
<MEAN> 9
 -7.585414e+000 -1.249197e+001 1.828827e+000 -3.839466e+001 1.142508e+002 -1.658512e+002 4.142522e-002 3.758095e-001 1.636958e-001
<VARIANCE> 9
 2.875979e-001 3.371764e-001 7.570851e-001 4.546321e+001 9.032424e+002 1.075909e+003 1.005729e-003 5.782502e-004 1.938003e-004
<GCONST> 8.626861e+000
<MIXTURE> 13 3.572215e-002
<MEAN> 9
 -1.082019e+001 -1.111634e+001 9.282351e-001 -4.116980e+001 1.289888e+002 -2.567649e+002 1.792825e-001 3.600743e-001 7.711270e-002
<VARIANCE> 9
 8.571092e-001 3.371764e-001 1.108115e-001 2.977951e+001 3.344380e+002 1.210095e+002 9.972231e-004 5.782502e-004 1.938003e-004
<GCONST> 4.187047e+000
<MIXTURE> 14 5.454397e-002
<MEAN> 9
 -5.906538e+000 -1.029489e+001 1.837671e+000 -4.326015e+001 1.122475e+002 -4.531775e+001 -6.136107e-003 3.670778e-001 1.581895e-001
<VARIANCE> 9
 1.491142e-001 4.766796e-001 6.976298e-002 2.977951e+001 2.616544e+003 1.474197e+002 4.762525e-004 5.782502e-004 3.453499e-004
<GCONST> 4.414984e+000
<MIXTURE> 15 5.216078e-002
<MEAN> 9
 -8.629407e+000 -1.113118e+001 2.267040e+000 -3.730978e+001 4.183195e+001 -2.404971e+002 1.591142e-001 3.738165e-001 1.144103e-001
<VARIANCE> 9
 4.736855e-001 4.866509e-001 1.509326e-001 1.552179e+002 8.996205e+002 6.746527e+002 9.780569e-004 5.782502e-004 5.000181e-004
<GCONST> 9.557241e+000
<MIXTURE> 16 4.701830e-002
<MEAN> 9
 -9.186998e+000 -1.221289e+001 1.786900e+000 -5.693496e+001 9.185516e+000 -1.936026e+002 7.547915e-002 3.708370e-001 1.251887e-001
<VARIANCE> 9
 1.854254e+000 3.922813e-001 7.284164e-001 1.820931e+002 5.515148e+002 1.549297e+003 1.061550e-003 5.782502e-004 2.610558e-004
<GCONST> 1.221416e+001
<MIXTURE> 17 4.632794e-002
<MEAN> 9
 -1.051721e+001 -4.899989e+000 9.623044e-001 3.355863e+001 1.770639e+001 -2.792372e+002 3.931440e-001 2.309665e-001 4.866504e-002
<VARIANCE> 9
 1.024568e+000 4.632835e-001 9.331809e-001 1.362466e+003 1.333038e+003 1.210095e+002 4.766014e-004 7.680941e-004 2.175624e-003
<GCONST> 1.398386e+001
<TRANSP> 8
 0.000000e+000 1.000000e+000 0.000000e+000 0.000000e+000 0.000000e+000 0.000000e+000 0.000000e+000 0.000000e+000
 0.000000e+000 9.295887e-001 7.041125e-002 0.000000e+000 0.000000e+000 0.000000e+000 0.000000e+000 0.000000e+000
 0.000000e+000 0.000000e+000 9.394046e-001 6.059538e-002 0.000000e+000 0.000000e+000 0.000000e+000 0.000000e+000
 0.000000e+000 0.000000e+000 0.000000e+000 9.616009e-001 3.839909e-002 0.000000e+000 0.000000e+000 0.000000e+000
 0.000000e+000 0.000000e+000 0.000000e+000 0.000000e+000 9.790901e-001 2.090996e-002 0.000000e+000 0.000000e+000
 0.000000e+000 0.000000e+000 0.000000e+000 0.000000e+000 0.000000e+000 9.572153e-001 4.278469e-002 0.000000e+000
 0.000000e+000 0.000000e+000 0.000000e+000 0.000000e+000 0.000000e+000 0.000000e+000 9.537808e-001 4.621920e-002
 0.000000e+000 0.000000e+000 0.000000e+000 0.000000e+000 0.000000e+000 0.000000e+000 0.000000e+000 0.000000e+000
<ENDHMM>
~h "GN"
<BEGINHMM>
<NUMSTATES> 8
<STATE> 2
<NUMMIXES> 17
<MIXTURE> 1 7.798086e-002
<MEAN> 9
 -8.982717e+000 -1.145780e+001 5.916454e-001 4.994977e+001 1.186843e+002 2.003238e+002 8.024734e-002 3.734151e-001 1.614751e-001
<VARIANCE> 9
 2.499902e-001 4.185644e-001 1.090356e+000 2.977951e+001 5.427708e+001 2.951657e+003 4.762525e-004 5.782502e-004 1.938003e-004
<GCONST> 6.094436e+000
<MIXTURE> 2 5.856439e-002
<MEAN> 9
 -9.952027e+000 -5.217664e+000 -4.602134e+000 -6.803745e+001 3.762627e+001 2.856783e+002 3.445357e-001 2.975813e-001 1.986480e-001
<VARIANCE> 9
 7.636504e+000 4.343344e-001 2.894607e-001 1.251987e+002 1.010006e+003 2.425131e+002 4.762525e-004 5.782502e-004 5.734796e-004
<GCONST> 1.116997e+001
<MIXTURE> 3 5.853384e-002
<MEAN> 9
 -7.831398e+000 -1.084333e+001 1.385540e+000 2.199220e+001 -5.786342e+001 1.790055e+002 8.333494e-002 3.903027e-001 2.098636e-001
<VARIANCE> 9
 3.673193e-001 3.371764e-001 6.976298e-002 2.977951e+001 5.359376e+002 1.568472e+002 4.762525e-004 5.782502e-004 1.938003e-004
<GCONST> 2.868930e+000
<MIXTURE> 4 4.867080e-002
<MEAN> 9
 -1.063461e+001 -7.078732e+000 -3.285240e+000 -3.447907e+001 3.556356e+001 2.583228e+002 2.941135e-001 3.284294e-001 1.922483e-001
<VARIANCE> 9
 1.491142e-001 3.371764e-001 7.731124e-001 6.029927e+001 1.973667e+002 5.179460e+002 4.762525e-004 5.782502e-004 5.221718e-004
<GCONST> 6.265044e+000
<MIXTURE> 5 5.837362e-002
<MEAN> 9
 -7.028945e+000 -1.185505e+001 2.917820e+000 5.210116e+001 7.586930e+001 1.288366e+002 3.156270e-002 3.714659e-001 1.843512e-001
<VARIANCE> 9
 2.413540e-001 1.768875e+000 3.834205e-001 2.977951e+001 7.015822e+002 3.280752e+003 4.762525e-004 5.782502e-004 1.938003e-004
<GCONST> 9.120364e+000
<MIXTURE> 6 4.684459e-002
<MEAN> 9
 -1.084564e+001 -8.382015e+000 -1.494313e+000 -9.317220e+000 3.099532e+001 2.375159e+002 2.352215e-001 3.601412e-001 1.847055e-001
<VARIANCE> 9
 7.133721e-001 3.371764e-001 7.030393e-001 6.361514e+001 2.556686e+002 1.210095e+002 5.175251e-004 5.782502e-004 2.706069e-004
<GCONST> 6.019453e+000
<MIXTURE> 7 5.855918e-002
<MEAN> 9
 -8.855356e+000 -4.593809e+000 -2.791255e+000 -4.931381e+001 3.821239e+000 2.293639e+002 3.533536e-001 2.811933e-001 1.887831e-001
<VARIANCE> 9
 1.491142e-001 4.967287e-001 6.976298e-002 2.977951e+001 3.680466e+001 1.210095e+002 5.172963e-004 5.782502e-004 1.938003e-004
<GCONST> -5.002794e-001
<MIXTURE> 8 4.870602e-002
<MEAN> 9
 -1.050431e+001 -9.888536e+000 -1.451272e+000 2.725997e+001 7.534744e+001 2.269639e+002 1.483214e-001 3.768074e-001 1.746599e-001
<VARIANCE> 9
 3.258445e-001 3.371764e-001 7.167919e-001 5.800590e+001 2.611424e+003 1.059912e+003 6.508098e-004 5.782502e-004 3.008470e-004
<GCONST> 9.991872e+000
<MIXTURE> 9 3.902453e-002
<MEAN> 9
 -1.199398e+001 -8.861445e+000 -4.506024e+000 -2.134150e-001 1.020427e+002 2.996951e+002 2.109091e-001 3.559091e-001 1.576531e-001
<VARIANCE> 9
 3.849978e-001 3.849978e-001 6.976298e-002 1.941264e+002 2.333069e+002 1.210095e+002 7.438014e-004 5.782502e-004 1.938003e-004
<GCONST> 4.278018e+000
<MIXTURE> 10 7.813782e-002
<MEAN> 9
 -6.738063e+000 -1.171060e+001 1.983835e+000 9.992797e+000 -1.057446e+002 1.103639e+002 -1.816267e-003 3.713376e-001 2.008916e-001
<VARIANCE> 9
 2.795684e-001 3.371764e-001 2.425729e-001 8.112466e+001 1.024182e+002 3.775549e+002 4.762525e-004 5.782502e-004 1.938003e-004
<GCONST> 4.067801e+000
<MIXTURE> 11 7.838137e-002
<MEAN> 9
 -9.243627e+000 -3.684666e+000 -4.738944e+000 -1.112125e+002 1.544243e+001 2.693900e+002 3.980595e-001 2.430117e-001 2.310166e-001
<VARIANCE> 9
 4.321026e+000 1.581964e+000 8.497116e-001 1.657522e+002 9.508329e+002 1.210095e+002 4.762525e-004 5.782502e-004 4.719986e-004
<GCONST> 1.230029e+001
<MIXTURE> 12 9.688676e-002
<MEAN> 9
 -6.908144e+000 -1.100563e+001 2.171013e+000 8.792485e+000 -7.053245e+001 4.943858e+001 -4.043007e-002 3.611158e-001 1.952626e-001
<VARIANCE> 9
 1.491142e-001 3.371764e-001 1.050779e-001 5.026326e+001 8.460505e+001 2.283737e+002 4.762525e-004 5.782502e-004 1.938003e-004
<GCONST> 1.430152e+000
<MIXTURE> 13 6.310892e-002
<MEAN> 9
 -8.795395e+000 -2.437327e+000 -2.889130e+000 -6.893096e+001 -3.481086e+000 2.047594e+002 4.259761e-001 2.037225e-001 2.077186e-001
<VARIANCE> 9
 1.491142e-001 3.937289e-001 6.976298e-002 2.977951e+001 4.188324e+001 1.210095e+002 4.762525e-004 6.088243e-004 1.938003e-004
<GCONST> -6.345439e-001
<MIXTURE> 14 3.979816e-002
<MEAN> 9
 -5.943981e+000 -1.371346e+001 3.352165e+000 3.525663e+001 -4.200215e+001 1.484412e+002 -8.280056e-003 3.654803e-001 1.826619e-001
<VARIANCE> 9
 4.614200e-001 3.371764e-001 6.976298e-002 2.977951e+001 6.177521e+002 5.114280e+002 4.762525e-004 5.782502e-004 1.938003e-004
<GCONST> 4.421014e+000
<MIXTURE> 15 5.100639e-002
<MEAN> 9
 -1.035901e+001 -8.649225e+000 -1.853413e+000 -1.628338e+000 4.576151e+001 2.257419e+002 1.970469e-001 3.612725e-001 1.656348e-001
<VARIANCE> 9
 2.900281e-001 3.371764e-001 8.421540e-002 4.960189e+001 1.641396e+002 1.210095e+002 4.762525e-004 5.782502e-004 2.470444e-004
<GCONST> 2.131197e+000
<MIXTURE> 16 4.871676e-002
<MEAN> 9
 -1.070404e+001 -6.963227e+000 -3.276281e+000 -3.368423e+001 3.662905e+001 2.556760e+002 2.869923e-001 3.260594e-001 1.807569e-001
<VARIANCE> 9
 1.491142e-001 3.371764e-001 6.780906e-001 4.246763e+001 2.075773e+002 7.193004e+002 4.762525e-004 5.782502e-004 4.265012e-004
<GCONST> 5.959789e+000
<MIXTURE> 17 4.870602e-002
<MEAN> 9
 -1.073265e+001 -1.012080e+001 -1.789926e+000 2.421351e+001 5.490660e+001 2.139413e+002 1.381170e-001 3.671886e-001 1.677219e-001
<VARIANCE> 9
 3.258445e-001 3.371764e-001 7.167919e-001 5.800590e+001 2.611424e+003 1.059912e+003 6.508098e-004 5.782502e-004 3.008470e-004
<GCONST> 9.991872e+000
<STATE> 3
<NUMMIXES> 17
<MIXTURE> 1 6.624229e-002
<MEAN> 9
 -8.251483e+000 3.104088e-001 -3.231966e+000 -8.835040e+001 -5.700624e+000 1.650118e+002 4.800503e-001 1.049979e-001 2.300809e-001
<VARIANCE> 9
 1.491142e-001 6.886798e-001 6.976298e-002 7.966542e+001 3.680466e+001 2.133351e+002 4.762525e-004 1.215513e-003 1.938003e-004
<GCONST> 2.037709e+000
<MIXTURE> 2 4.922374e-002
<MEAN> 9
 -1.343227e+001 2.012965e+000 4.229996e+000 9.753288e+001 -3.952772e+001 7.120949e+001 5.317170e-001 -4.830925e-002 2.344731e-001
<VARIANCE> 9
 1.927981e+000 7.899982e-001 1.330744e+000 3.005552e+002 2.305553e+002 1.210095e+002 4.762525e-004 5.782502e-004 1.938003e-004
<GCONST> 9.535621e+000
<MIXTURE> 3 7.859959e-002
<MEAN> 9
 -7.618939e+000 -1.495071e+000 -4.863574e+000 -1.528097e+002 -6.742371e+000 2.354773e+002 4.516017e-001 1.726207e-001 2.660848e-001
<VARIANCE> 9
 6.143139e-001 1.556113e+000 2.817652e+000 2.749865e+002 1.092904e+003 2.586242e+002 4.762525e-004 5.782502e-004 1.938003e-004
<GCONST> 1.204668e+001
<MIXTURE> 4 5.029103e-002
<MEAN> 9
 -7.375578e+000 -4.397225e+000 4.970190e+000 -1.057992e+002 -1.766874e+001 2.691245e+001 5.280440e-001 -8.259344e-003 2.499888e-001
<VARIANCE> 9
 1.547744e+001 3.371764e-001 9.773443e+000 2.638214e+003 2.440050e+002 1.294292e+003 4.762525e-004 5.782502e-004 1.938003e-004
<GCONST> 1.735981e+001
<MIXTURE> 5 5.698459e-002
<MEAN> 9
 -1.049939e+001 2.872938e+000 8.016215e+000 8.310210e+001 2.190693e+001 1.893405e+001 5.126519e-001 -9.793916e-002 7.187086e-002
<VARIANCE> 9
 1.491142e-001 3.775278e-001 1.593322e+000 3.153029e+002 5.478889e+001 1.829888e+002 4.762525e-004 5.782502e-004 1.938003e-004
<GCONST> 5.442258e+000
<MIXTURE> 6 4.774390e-002
<MEAN> 9
 -8.053658e+000 1.406742e+000 6.798518e-002 -1.627366e+002 -8.621216e+001 5.487550e+001 5.152250e-001 -7.986222e-002 2.095499e-001
<VARIANCE> 9
 9.550360e-001 5.158747e-001 2.385587e+000 4.719909e+001 9.406017e+002 1.696629e+002 4.762525e-004 5.782502e-004 6.263362e-004
<GCONST> 1.005646e+001
<MIXTURE> 7 3.949627e-002
<MEAN> 9
 -7.320698e+000 -1.016832e+000 -4.194134e+000 -2.323318e+002 -1.451305e+001 8.457204e+001 4.992623e-001 6.903840e-003 2.807567e-001
<VARIANCE> 9
 5.719064e-001 6.080071e+000 2.568113e+000 2.921292e+003 1.995412e+002 2.960897e+002 4.762525e-004 1.141402e-003 8.930956e-004
<GCONST> 1.625089e+001
<MIXTURE> 8 4.860615e-002
<MEAN> 9
 -1.516095e+001 -1.086722e+000 8.423612e+000 5.508833e+001 1.819266e+001 3.260677e+001 5.270883e-001 -2.351095e-002 2.478446e-001
<VARIANCE> 9
 1.531861e+000 2.111878e+000 1.306939e+000 5.201802e+002 1.748118e+002 2.061737e+002 4.762525e-004 5.782502e-004 1.938003e-004
<GCONST> 1.107550e+001
<MIXTURE> 9 8.844610e-002
<MEAN> 9
 -3.620565e+000 -1.896966e+000 -2.798773e+000 -1.825417e+002 -6.734835e+001 1.685819e+002 4.995234e-001 8.244391e-002 2.786080e-001
<VARIANCE> 9
 5.335566e+000 2.549081e+000 8.632202e+000 7.125552e+002 1.837323e+003 1.012593e+003 4.762525e-004 9.454997e-004 1.938003e-004
<GCONST> 1.914967e+001
<MIXTURE> 10 5.575058e-002
<MEAN> 9
 -9.795178e+000 -7.114458e+000 9.352407e+000 -1.772105e+002 -7.539635e+001 -3.003052e+000 5.104545e-001 -2.659091e-002 2.650510e-001
<VARIANCE> 9
 3.492306e+000 3.371764e-001 4.215080e+000 4.036825e+003 4.141234e+001 1.210095e+002 4.762525e-004 5.782502e-004 1.938003e-004
<GCONST> 1.131189e+001
<MIXTURE> 11 2.787530e-002
<MEAN> 9
 -5.939759e+000 -6.301205e+000 1.246988e+000 -2.900305e+002 -8.003049e+001 2.329268e+001 5.045455e-001 4.545455e-004 2.948980e-001
<VARIANCE> 9
 3.344460e-001 3.371764e-001 1.869974e+000 2.977951e+001 8.760503e+001 1.356373e+002 4.762525e-004 5.782502e-004 1.938003e-004
<GCONST> 4.107284e+000
<MIXTURE> 12 8.241273e-002
<MEAN> 9
 -9.055649e+000 -3.140354e-002 1.017439e+001 -2.840156e+001 -1.452838e+001 -1.222278e+001 5.133958e-001 -8.497451e-002 7.130123e-002
<VARIANCE> 9
 1.232152e+000 1.204319e+000 3.358321e-001 2.111157e+003 1.576160e+002 1.210095e+002 4.762525e-004 5.782502e-004 1.938003e-004
<GCONST> 9.701701e+000
<MIXTURE> 13 7.036554e-002
<MEAN> 9
 -8.130142e+000 2.541147e+000 -3.135919e+000 -1.206191e+002 -1.034492e+001 1.104216e+002 5.108574e-001 -1.213395e-003 2.429841e-001
<VARIANCE> 9
 1.491142e-001 3.371764e-001 6.976298e-002 1.309267e+002 3.680466e+001 2.636364e+002 4.762525e-004 5.782502e-004 1.938003e-004
<GCONST> 1.289136e+000
<MIXTURE> 14 7.947750e-002
<MEAN> 9
 -6.504835e+000 -8.057159e-001 5.004717e+000 -1.509283e+002 -7.875222e+001 1.425966e+001 5.177633e-001 -9.819607e-002 1.286535e-001
<VARIANCE> 9
 8.041719e-001 3.585522e-001 3.421698e+000 5.097274e+002 4.347823e+002 1.973569e+002 4.762525e-004 5.782502e-004 7.575480e-004
<GCONST> 1.183065e+001
<MIXTURE> 15 6.156326e-002
<MEAN> 9
 -9.933116e+000 -4.744885e+000 7.535590e+000 -7.134384e+001 -2.345424e+001 -6.224608e-001 5.276508e-001 -1.872143e-002 2.441779e-001
<VARIANCE> 9
 1.173308e+001 3.371764e-001 6.033587e+000 1.885527e+003 4.465160e+002 1.980135e+002 4.762525e-004 5.782502e-004 1.938003e-004
<GCONST> 1.499152e+001
<MIXTURE> 16 4.831560e-002
<MEAN> 9
 -1.391443e+001 2.316229e+000 4.498716e+000 8.956094e+001 -4.699584e+001 7.335187e+001 5.293000e-001 -5.722057e-002 2.316823e-001
<VARIANCE> 9
 1.873394e+000 9.412442e-001 9.320026e-001 3.027929e+002 3.196239e+002 1.210095e+002 4.762525e-004 5.782502e-004 1.938003e-004
<GCONST> 9.659987e+000
<MIXTURE> 17 4.860615e-002
<MEAN> 9
 -1.565603e+001 -1.668014e+000 7.966326e+000 4.596535e+001 1.290400e+001 2.686327e+001 5.183590e-001 -3.312969e-002 2.422762e-001
<VARIANCE> 9
 1.531861e+000 2.111878e+000 1.306939e+000 5.201802e+002 1.748118e+002 2.061737e+002 4.762525e-004 5.782502e-004 1.938003e-004
<GCONST> 1.107550e+001
<STATE> 4
<NUMMIXES> 17
<MIXTURE> 1 7.052340e-002
<MEAN> 9
 -9.289096e+000 4.448242e+000 3.197778e+000 1.229615e+002 6.138940e+001 7.696637e+001 5.085202e-001 -1.345161e-001 1.183679e-001
<VARIANCE> 9
 2.651199e-001 3.371764e-001 1.648988e+000 2.977951e+001 1.342893e+002 3.651436e+002 4.762525e-004 8.761105e-004 3.938948e-004
<GCONST> 6.291435e+000
<MIXTURE> 2 7.819673e-002
<MEAN> 9
 -3.980331e+000 5.594554e+000 -4.580646e-002 5.652287e+001 -2.751888e+000 6.024559e+001 4.746943e-001 -2.495555e-001 1.298670e-001
<VARIANCE> 9
 1.491142e-001 3.371764e-001 6.976298e-002 3.016485e+002 3.680466e+001 1.210095e+002 4.762525e-004 5.782502e-004 1.938003e-004
<GCONST> 1.345057e+000
<MIXTURE> 3 5.719694e-002
<MEAN> 9
 -2.012320e+000 5.328374e+000 1.571412e-001 -4.639368e+001 -6.864203e+001 -7.234167e+001 4.411365e-001 -2.933981e-001 1.553389e-001
<VARIANCE> 9
 3.750253e-001 5.432653e-001 3.294406e-001 2.977951e+001 5.756680e+002 1.210095e+002 4.762525e-004 7.476314e-004 5.624128e-004
<GCONST> 6.053396e+000
<MIXTURE> 4 5.714675e-002
<MEAN> 9
 -5.414218e+000 5.467180e+000 -1.021534e+000 8.345159e+001 3.383223e+001 1.270809e+002 4.602039e-001 -2.529843e-001 2.143155e-001
<VARIANCE> 9
 7.418193e-001 3.371764e-001 1.463891e-001 1.790641e+002 1.834668e+002 1.210095e+002 4.762525e-004 5.782502e-004 3.468598e-004
<GCONST> 5.357600e+000
<MIXTURE> 5 8.458249e-002
<MEAN> 9
 -7.090320e+000 4.570103e+000 -3.457174e-001 1.132152e+002 -2.461265e+001 1.282969e+002 5.034742e-001 -1.775043e-001 1.598718e-001
<VARIANCE> 9
 9.198584e-001 3.371764e-001 5.666352e-001 2.977951e+001 4.544928e+003 3.307939e+002 4.762525e-004 5.782502e-004 1.938003e-004
<GCONST> 8.765502e+000
<MIXTURE> 6 4.387285e-002
<MEAN> 9
 -2.180383e+000 5.929929e+000 -1.478743e+000 3.993010e+001 -8.503766e+000 8.702334e+001 4.229213e-001 -3.061591e-001 2.308066e-001
<VARIANCE> 9
 1.569352e+000 1.010871e+000 1.853897e-001 1.566337e+002 7.160318e+001 3.426196e+002 4.762525e-004 5.782502e-004 2.736132e-004
<GCONST> 7.169881e+000
<MIXTURE> 7 5.578699e-002
<MEAN> 9
 -1.488699e+000 5.012365e+000 1.600070e+000 -8.924518e+001 -1.053622e+002 -1.531956e+002 4.674675e-001 -2.368933e-001 9.516910e-002
<VARIANCE> 9
 7.686305e-001 3.371764e-001 7.521051e-001 7.698671e+001 4.821640e+002 1.892167e+002 4.762525e-004 5.782502e-004 2.341265e-004
<GCONST> 7.205815e+000
<MIXTURE> 8 7.128503e-002
<MEAN> 9
 -1.465524e+000 2.969047e+000 -2.546616e+000 9.406387e+001 -7.181903e-001 1.406655e+002 4.560691e-001 -2.720880e-001 1.754596e-001
<VARIANCE> 9
 1.703014e+000 3.371764e-001 1.243405e-001 3.182964e+002 1.206802e+002 2.597612e+002 4.762525e-004 7.265421e-004 1.938003e-004
<GCONST> 6.591844e+000
<MIXTURE> 9 5.237661e-002
<MEAN> 9
 -9.858191e+000 3.228700e+000 8.798540e-001 1.191049e+002 -7.125409e+001 9.141615e+001 5.312439e-001 -8.899871e-002 1.923073e-001
<VARIANCE> 9
 5.022570e-001 3.371764e-001 1.938875e-001 2.977951e+001 7.597375e+001 1.210095e+002 4.762525e-004 5.782502e-004 1.938003e-004
<GCONST> 1.990951e+000
<MIXTURE> 10 7.909464e-002
<MEAN> 9
 -2.268606e+000 5.821418e+000 3.021945e-001 -5.837061e+000 -7.570071e+000 2.117914e+000 4.579732e-001 -2.696522e-001 1.387249e-001
<VARIANCE> 9
 1.666439e-001 3.371764e-001 7.111491e-002 3.351957e+002 3.680466e+001 8.578013e+002 4.762525e-004 5.782502e-004 1.938003e-004
<GCONST> 3.539355e+000
<MIXTURE> 11 7.105462e-002
<MEAN> 9
 -5.183335e+000 4.858181e+000 1.650852e-002 9.878468e+001 -6.357301e+001 8.544297e+001 5.055611e-001 -1.852506e-001 1.236335e-001
<VARIANCE> 9
 3.150993e-001 3.371764e-001 1.092671e-001 2.977951e+001 9.981190e+002 1.210095e+002 4.762525e-004 5.782502e-004 1.938003e-004
<GCONST> 3.526732e+000
<MIXTURE> 12 4.281549e-002
<MEAN> 9
 -9.146208e-001 6.124708e+000 -9.259089e-001 -9.699538e+000 -5.657819e+001 -1.809081e+000 4.187507e-001 -3.120151e-001 2.116554e-001
<VARIANCE> 9
 1.148457e+000 1.574834e+000 3.068948e-001 1.838956e+002 1.916613e+002 5.120759e+002 4.762525e-004 5.782502e-004 5.045731e-004
<GCONST> 9.963918e+000
<MIXTURE> 13 5.719674e-002
<MEAN> 9
 -2.213165e+000 5.225975e+000 7.256266e-001 -6.391787e+001 -8.995645e+001 -1.095204e+002 4.459127e-001 -2.788647e-001 1.275590e-001
<VARIANCE> 9
 1.734137e-001 4.104924e-001 2.338539e-001 3.646545e+001 2.965350e+002 1.210095e+002 4.762525e-004 5.782502e-004 3.189422e-004
<GCONST> 3.374195e+000
<MIXTURE> 14 5.032557e-002
<MEAN> 9
 -1.138203e+001 4.425162e+000 1.881955e+000 9.736667e+001 -9.246492e+001 1.066784e+002 5.177646e-001 -1.162597e-001 1.846619e-001
<VARIANCE> 9
 2.846396e+000 3.371764e-001 2.500676e+000 1.036729e+002 5.514499e+001 1.425056e+002 4.762525e-004 5.782502e-004 2.139146e-004
<GCONST> 7.471947e+000
<MIXTURE> 15 4.348552e-002
<MEAN> 9
 -1.931526e+000 4.023474e+000 1.724696e+000 -1.076191e+002 -9.333681e+001 -1.767243e+002 4.819711e-001 -2.063538e-001 7.144185e-002
<VARIANCE> 9
 3.146187e+000 7.238607e-001 1.362447e+000 1.255966e+002 4.473881e+002 2.253796e+002 4.762525e-004 5.782502e-004 1.938003e-004
<GCONST> 1.037375e+001
<MIXTURE> 16 4.224420e-002
<MEAN> 9
 -6.592479e-001 4.968277e+000 -1.973404e+000 3.037267e+001 -1.995175e+001 6.370860e+001 4.173179e-001 -3.173712e-001 2.107729e-001
<VARIANCE> 9
 2.126360e+000 2.193517e+000 2.462186e-001 1.525146e+002 4.585660e+001 3.089727e+002 4.762525e-004 5.782502e-004 7.898019e-004
<GCONST> 9.016514e+000
<MIXTURE> 17 4.281549e-002
<MEAN> 9
 -1.343285e+000 5.622738e+000 -1.147501e+000 -1.512386e+001 -6.211587e+001 -1.086072e+001 4.100215e-001 -3.216339e-001 2.026704e-001
<VARIANCE> 9
 1.148457e+000 1.574834e+000 3.068948e-001 1.838956e+002 1.916613e+002 5.120759e+002 4.762525e-004 5.782502e-004 5.045731e-004
<GCONST> 9.963918e+000
<STATE> 5
<NUMMIXES> 17
<MIXTURE> 1 6.591232e-002
<MEAN> 9
 -3.754869e+000 5.996306e-001 2.636500e+000 2.137334e+001 1.950228e+000 -2.068316e+001 4.873330e-001 2.743415e-002 2.338023e-003
<VARIANCE> 9
 2.899833e-001 3.371764e-001 2.060589e-001 2.977951e+001 2.510732e+002 1.210095e+002 4.762525e-004 2.490424e-003 1.938003e-004
<GCONST> 4.158103e+000
<MIXTURE> 2 7.466945e-002
<MEAN> 9
 -1.092209e+001 2.100419e+000 7.568622e+000 -8.472747e+000 8.506041e+000 -4.793692e+001 4.883644e-001 1.352071e-002 -5.577596e-003
<VARIANCE> 9
 9.178635e-001 2.375771e+000 4.677747e-001 1.383595e+002 2.182678e+002 3.542245e+002 4.762525e-004 2.950227e-003 1.938003e-004
<GCONST> 1.072213e+001
<MIXTURE> 3 5.938661e-002
<MEAN> 9
 -6.657499e+000 -2.019188e+000 5.426950e+000 4.248171e+001 1.463616e+001 2.902084e+001 4.584016e-001 1.493647e-001 -8.901719e-003
<VARIANCE> 9
 3.998990e+000 3.371764e-001 2.258912e+000 3.226116e+001 3.680466e+001 1.210095e+002 4.762525e-004 5.782502e-004 1.938003e-004
<GCONST> 5.876281e+000
<MIXTURE> 4 5.323156e-002
<MEAN> 9
 -8.310251e+000 3.394552e+000 7.201807e+000 -1.166616e+002 -6.349083e+001 -1.998018e+002 4.975000e-001 -6.272613e-002 7.397860e-003
<VARIANCE> 9
 2.326456e-001 1.345057e+000 4.884068e-001 3.916644e+001 3.680466e+001 1.210095e+002 4.762525e-004 2.698338e-003 1.938003e-004
<GCONST> 4.618436e+000
<MIXTURE> 5 7.993168e-002
<MEAN> 9
 -3.782301e+000 5.025961e-001 1.513514e+000 1.558767e+001 3.452066e+001 -9.560137e+001 5.036432e-001 4.663136e-003 3.772530e-002
<VARIANCE> 9
 4.053983e-001 3.371764e-001 1.592752e-001 3.271341e+001 3.680466e+001 1.258811e+003 4.762525e-004 5.782502e-004 1.938003e-004
<GCONST> 3.291322e+000
<MIXTURE> 6 4.705101e-002
<MEAN> 9
 -1.123271e+001 -2.944284e+000 9.772396e+000 3.197323e+000 2.786198e+001 -1.925003e+001 4.405517e-001 1.815246e-001 -1.034166e-002
<VARIANCE> 9
 4.965394e-001 3.371764e-001 1.727178e+000 2.082854e+003 9.167231e+002 2.118014e+003 4.762525e-004 5.782502e-004 1.938003e-004
<GCONST> 1.376692e+001
<MIXTURE> 7 5.218221e-002
<MEAN> 9
 -9.012476e+000 4.797229e-001 6.140587e+000 2.409713e+001 1.477243e+001 3.319076e+000 4.762148e-001 7.239353e-002 -8.623880e-003
<VARIANCE> 9
 2.331165e+000 3.371764e-001 8.648711e-001 2.977951e+001 6.341858e+001 1.210095e+002 4.762525e-004 5.782502e-004 1.938003e-004
<GCONST> 4.840636e+000
<MIXTURE> 8 5.402121e-002
<MEAN> 9
 -3.195619e+000 -7.777946e-001 1.670496e+000 1.715055e+001 3.987280e+001 -2.605137e+001 4.701006e-001 1.256251e-001 -2.662554e-003
<VARIANCE> 9
 2.876005e-001 3.371764e-001 6.976298e-002 1.524520e+002 3.709348e+002 6.970816e+002 4.762525e-004 5.782502e-004 1.938003e-004
<GCONST> 5.380939e+000
<MIXTURE> 9 6.654333e-002
<MEAN> 9
 -6.710866e+000 -9.951920e-001 7.084363e+000 -1.925245e+002 -9.347557e+001 -2.489878e+002 4.914545e-001 1.636983e-003 -1.632670e-002
<VARIANCE> 9
 7.183173e+000 1.956417e+000 8.643450e+000 1.896556e+002 3.680466e+001 3.150410e+002 4.762525e-004 4.911498e-003 3.002882e-004
<GCONST> 1.486758e+001
<MIXTURE> 10 6.650981e-002
<MEAN> 9
 -7.010291e+000 2.127991e+000 4.759452e+000 1.329097e+001 2.301775e+000 -5.391910e+000 4.989109e-001 -3.926910e-002 2.449876e-003
<VARIANCE> 9
 1.754205e+000 3.371764e-001 5.351428e-001 2.977951e+001 4.339108e+001 1.210095e+002 4.762525e-004 5.782502e-004 1.938003e-004
<GCONST> 3.696734e+000
<MIXTURE> 11 4.245708e-002
<MEAN> 9
 -1.115745e+001 3.044653e+000 8.919952e+000 -6.686008e+001 -1.900494e+001 -1.280034e+002 4.924119e-001 -1.557960e-002 -2.682810e-003
<VARIANCE> 9
 4.385834e-001 2.598533e+000 3.025442e-001 4.750274e+002 9.764790e+001 9.041637e+002 4.762525e-004 3.648116e-003 1.938003e-004
<GCONST> 1.121607e+001
<MIXTURE> 12 6.727660e-002
<MEAN> 9
 -4.895713e+000 3.764126e+000 4.395470e+000 -1.260722e+002 -9.188601e+001 -2.088652e+002 4.877748e-001 -1.594128e-001 3.713915e-002
<VARIANCE> 9
 1.969312e+000 1.095591e+000 3.466611e+000 1.548232e+002 2.029649e+002 1.210095e+002 4.762525e-004 7.732651e-004 1.938003e-004
<GCONST> 1.034110e+001
<MIXTURE> 13 6.773691e-002
<MEAN> 9
 -6.394508e+000 2.063082e-001 4.570511e+000 2.542639e+001 1.121806e+001 6.070730e+000 4.780772e-001 5.958610e-002 -3.808792e-003
<VARIANCE> 9
 1.188210e+000 3.371764e-001 4.803651e-001 2.977951e+001 3.680466e+001 1.210095e+002 4.762525e-004 5.782502e-004 1.938003e-004
<GCONST> 3.034549e+000
<MIXTURE> 14 6.038005e-002
<MEAN> 9
 -5.857924e+000 -1.917228e+000 4.823754e+000 4.381544e+001 1.303390e+001 2.960253e+001 4.599795e-001 1.422458e-001 -1.100753e-002
<VARIANCE> 9
 4.361357e+000 3.371764e-001 2.636853e+000 3.520782e+001 3.680466e+001 1.210095e+002 4.762525e-004 5.782502e-004 1.938003e-004
<GCONST> 6.205127e+000
<MIXTURE> 15 5.413932e-002
<MEAN> 9
 -4.204927e+000 -2.730507e-001 1.978939e+000 -8.122946e+000 2.895898e+001 -8.383086e+001 4.710289e-001 1.037242e-001 2.547384e-004
<VARIANCE> 9
 2.147840e-001 3.371764e-001 6.976298e-002 1.322903e+002 2.409864e+002 5.173381e+002 4.762525e-004 5.782502e-004 1.938003e-004
<GCONST> 4.217660e+000
<MIXTURE> 16 4.611385e-002
<MEAN> 9
 -1.246624e+001 -3.383641e+000 1.184890e+001 -8.487838e+001 -1.656524e+001 -1.072379e+002 4.459978e-001 1.598158e-001 -2.037033e-002
<VARIANCE> 9
 1.513021e+000 3.371764e-001 1.417942e+000 3.669956e+003 6.385114e+002 3.773237e+003 4.762525e-004 5.782502e-004 1.938003e-004
<GCONST> 1.546607e+001
<MIXTURE> 17 4.245708e-002
<MEAN> 9
 -1.142235e+001 2.399855e+000 8.699936e+000 -7.557813e+001 -2.295762e+001 -1.400312e+002 4.836826e-001 -3.973946e-002 -8.251297e-003
<VARIANCE> 9
 4.385834e-001 2.598533e+000 3.025442e-001 4.750274e+002 9.764790e+001 9.041637e+002 4.762525e-004 3.648116e-003 1.938003e-004
<GCONST> 1.121607e+001
<STATE> 6
<NUMMIXES> 17
<MIXTURE> 1 6.010460e-002
<MEAN> 9
 -7.429711e+000 -1.191963e+001 4.883529e+000 -3.042691e+001 4.573120e+001 -1.230690e+002 1.590912e-001 3.636364e-001 2.136052e-001
<VARIANCE> 9
 1.491142e-001 3.371764e-001 6.976298e-002 1.632005e+002 1.486994e+002 1.210095e+002 4.762525e-004 5.782502e-004 1.938003e-004
<GCONST> 2.127078e+000
<MIXTURE> 2 8.013863e-002
<MEAN> 9
 -7.388554e+000 -3.219884e+000 2.662646e+000 5.015299e+000 8.124992e+001 -1.444514e+002 4.354543e-001 2.122729e-001 8.826539e-002
<VARIANCE> 9
 2.113807e-001 3.371764e-001 5.468883e-001 3.416742e+001 3.051303e+002 1.596265e+002 4.762525e-004 5.782502e-004 1.938003e-004
<GCONST> 3.967238e+000
<MIXTURE> 3 9.845938e-002
<MEAN> 9
 -5.579526e+000 -1.149214e+000 1.721633e+000 -4.213278e+000 7.619018e+001 -1.276568e+002 4.829878e-001 1.263909e-001 4.838567e-002
<VARIANCE> 9
 8.421060e-001 3.371764e-001 1.028877e+000 2.977951e+001 2.188548e+002 1.449272e+003 4.762525e-004 1.641694e-003 2.602517e-004
<GCONST> 9.055957e+000
<MIXTURE> 4 4.148343e-002
<MEAN> 9
 -9.646698e+000 -7.526278e+000 3.186681e+000 1.050721e+001 5.766834e+001 -1.783706e+002 2.997369e-001 3.300257e-001 1.330356e-001
<VARIANCE> 9
 1.491142e-001 3.371764e-001 6.976298e-002 2.977951e+001 3.680466e+001 1.210095e+002 4.762525e-004 5.782502e-004 1.938003e-004
<GCONST> -9.703841e-001
<MIXTURE> 5 5.007863e-002
<MEAN> 9
 -9.038546e+000 -7.196470e+000 4.498741e+000 -6.429652e+001 1.075843e+001 -2.018381e+002 3.437075e-001 2.965452e-001 1.075296e-001
<VARIANCE> 9
 3.815391e-001 6.937897e-001 7.333505e-002 3.288784e+002 1.025676e+003 8.019464e+002 4.762525e-004 5.782502e-004 1.938003e-004
<GCONST> 8.361136e+000
<MIXTURE> 6 7.396628e-002
<MEAN> 9
 -9.937421e+000 -9.590578e+000 2.509227e+000 7.664651e+000 7.090110e+001 -1.719110e+002 2.229332e-001 3.625014e-001 1.518160e-001
<VARIANCE> 9
 1.491142e-001 4.976832e-001 6.976298e-002 2.977951e+001 5.257851e+001 1.210095e+002 7.019663e-004 5.782502e-004 1.938003e-004
<GCONST> 1.635942e-001
<MIXTURE> 7 8.013932e-002
<MEAN> 9
 -1.028012e+001 -5.704818e+000 2.003011e+000 1.647867e+001 5.655492e+001 -1.791311e+002 3.679546e-001 2.877272e-001 1.234694e-001
<VARIANCE> 9
 6.376386e-001 7.057994e-001 1.759598e-001 2.977951e+001 1.127939e+003 1.210095e+002 5.047001e-004 5.782502e-004 1.938003e-004
<GCONST> 5.627090e+000
<MIXTURE> 8 4.978679e-002
<MEAN> 9
 -9.554088e+000 -4.469226e+000 2.045506e+000 -4.312362e+001 1.284326e+001 -2.037617e+002 4.047149e-001 2.329896e-001 8.361932e-002
<VARIANCE> 9
 5.328733e-001 3.371764e-001 4.654964e-001 1.510840e+002 3.599677e+002 8.375451e+002 4.762525e-004 5.782502e-004 1.938003e-004
<GCONST> 8.040198e+000
<MIXTURE> 9 4.986082e-002
<MEAN> 9
 -8.020058e+000 -2.249074e+000 1.051471e+000 -1.705057e+001 2.335314e+001 -1.967165e+002 4.617599e-001 1.687458e-001 8.372050e-002
<VARIANCE> 9
 1.491142e-001 1.264599e+000 6.976298e-002 1.877301e+002 3.988643e+002 4.068102e+002 4.762525e-004 9.491193e-004 1.938003e-004
<GCONST> 6.283706e+000
<MIXTURE> 10 8.013576e-002
<MEAN> 9
 -1.018674e+001 -1.065664e+001 2.912650e+000 -2.088414e+001 5.600585e+001 -2.254573e+002 2.259088e-001 3.509092e-001 1.520409e-001
<VARIANCE> 9
 1.739470e+000 8.737401e-001 6.976298e-002 2.977951e+001 4.076958e+002 1.210095e+002 1.681596e-003 5.782502e-004 1.938003e-004
<GCONST> 6.104865e+000
<MIXTURE> 11 3.959308e-002
<MEAN> 9
 -9.993176e+000 -8.980441e+000 3.664668e+000 -5.530640e+001 9.525306e+001 -2.033354e+002 2.982987e-001 3.376765e-001 1.411609e-001
<VARIANCE> 9
 1.491142e-001 3.371764e-001 6.976298e-002 6.340402e+002 1.857970e+002 8.423427e+002 4.762525e-004 5.782502e-004 1.938003e-004
<GCONST> 5.647256e+000
<MIXTURE> 12 6.010156e-002
<MEAN> 9
 -5.799199e+000 -2.136551e+000 1.742970e+000 -3.579274e+001 5.123985e+001 -1.406912e+002 4.490908e-001 1.506062e-001 2.755113e-002
<VARIANCE> 9
 1.491142e-001 3.371764e-001 6.976298e-002 2.977951e+001 3.680466e+001 1.210095e+002 4.762525e-004 5.782502e-004 1.938003e-004
<GCONST> -9.703841e-001
<MIXTURE> 13 6.010062e-002
<MEAN> 9
 -9.004052e+000 -1.030120e+001 4.285132e+000 -6.451236e+001 2.170761e+001 -1.490653e+002 2.187884e-001 3.493938e-001 1.884351e-001
<VARIANCE> 9
 1.395087e+000 3.371764e-001 1.072560e-001 2.977951e+001 2.213306e+002 1.210095e+002 4.762525e-004 5.782502e-004 1.938003e-004
<GCONST> 3.489764e+000
<MIXTURE> 14 2.526756e-002
<MEAN> 9
 -1.080253e+001 -1.021791e+001 3.136489e+000 -5.861611e+001 7.598024e+001 -1.691600e+002 2.533534e-001 3.431597e-001 1.596842e-001
<VARIANCE> 9
 2.099142e-001 3.371764e-001 1.121936e-001 9.836084e+002 3.680466e+001 1.210095e+002 6.193687e-004 5.782502e-004 1.938003e-004
<GCONST> 3.606883e+000
<MIXTURE> 15 5.083713e-002
<MEAN> 9
 -9.515833e+000 -4.853292e+000 2.576200e+000 -5.380635e+001 -2.062622e+000 -1.934485e+002 3.902706e-001 2.468273e-001 8.065230e-002
<VARIANCE> 9
 5.434777e-001 3.371764e-001 5.754991e-001 1.913035e+002 3.377958e+002 7.322668e+002 4.762525e-004 5.782502e-004 1.938003e-004
<GCONST> 8.310157e+000
<MIXTURE> 16 5.008540e-002
<MEAN> 9
 -9.130211e+000 -7.353007e+000 4.460339e+000 -6.757977e+001 1.112185e+001 -1.977506e+002 3.406548e-001 2.998183e-001 1.092061e-001
<VARIANCE> 9
 3.605647e-001 7.694020e-001 6.976298e-002 3.318855e+002 9.789037e+002 7.707228e+002 4.762525e-004 5.782502e-004 1.938003e-004
<GCONST> 8.280820e+000
<MIXTURE> 17 4.986082e-002
<MEAN> 9
 -8.174519e+000 -2.698892e+000 9.458201e-001 -2.253115e+001 1.536450e+001 -2.047843e+002 4.530306e-001 1.564226e-001 7.815201e-002
<VARIANCE> 9
 1.491142e-001 1.264599e+000 6.976298e-002 1.877301e+002 3.988643e+002 4.068102e+002 4.762525e-004 9.491193e-004 1.938003e-004
<GCONST> 6.283706e+000
<STATE> 7
<NUMMIXES> 17
<MIXTURE> 1 2.803432e-002
<MEAN> 9
 8.554217e-001 -1.110843e+001 8.024096e+000 -5.975610e+000 1.836585e+002 -3.750000e+001 1.181818e-002 3.772727e-001 1.989796e-001
<VARIANCE> 9
 1.491142e-001 3.371764e-001 6.976298e-002 2.977951e+001 3.680466e+001 1.210095e+002 4.762525e-004 5.782502e-004 1.938003e-004
<GCONST> -9.703841e-001
<MIXTURE> 2 5.109327e-002
<MEAN> 9
 -4.121409e+000 -1.048266e+001 2.942450e+000 -7.456798e+000 8.117741e+001 -2.565360e+001 -5.358586e-002 3.547356e-001 1.977392e-001
<VARIANCE> 9
 1.661757e-001 3.371764e-001 1.243624e-001 2.977951e+001 1.459729e+002 1.210095e+002 4.762525e-004 5.782502e-004 1.938003e-004
<GCONST> 1.093841e+000
<MIXTURE> 3 8.408966e-002
<MEAN> 9
 -7.377706e+000 -1.046587e+001 2.646575e+000 -6.665365e+000 4.934796e+001 -1.478268e+002 1.418249e-001 3.863649e-001 1.649657e-001
<VARIANCE> 9
 5.240081e-001 3.371764e-001 6.976298e-002 2.977951e+001 1.940330e+002 1.210095e+002 4.762525e-004 5.782502e-004 1.938003e-004
<GCONST> 1.948813e+000
<MIXTURE> 4 5.606865e-002
<MEAN> 9
 -8.536145e+000 -9.506023e+000 2.102409e+000 3.478659e+001 2.803963e+002 -3.871951e+001 -4.545455e-003 3.663636e-001 1.801020e-001
<VARIANCE> 9
 2.704638e+000 8.165192e-001 1.215307e+000 2.977951e+001 1.459333e+003 1.210095e+002 4.762525e-004 5.782502e-004 1.938003e-004
<GCONST> 9.349826e+000
<MIXTURE> 5 5.626346e-002
<MEAN> 9
 -7.079470e+000 -1.247660e+001 2.748357e+000 -1.443055e+001 8.903612e+001 -2.014599e+002 1.271429e-001 3.777124e-001 1.775394e-001
<VARIANCE> 9
 1.491142e-001 3.371764e-001 2.317429e-001 2.977951e+001 1.307568e+002 1.210095e+002 4.762525e-004 5.782502e-004 1.938003e-004
<GCONST> 1.497855e+000
<MIXTURE> 6 2.839150e-002
<MEAN> 9
 -2.477031e+000 -1.124077e+001 4.951518e+000 -2.857624e+001 5.388980e+001 -4.107621e+001 1.053801e-002 3.644564e-001 1.990018e-001
<VARIANCE> 9
 1.491142e-001 3.371764e-001 1.052046e-001 2.977951e+001 3.680466e+001 1.210095e+002 4.762525e-004 5.782502e-004 1.938003e-004
<GCONST> -5.595794e-001
<MIXTURE> 7 8.404583e-002
<MEAN> 9
 -5.611070e+000 -1.093207e+001 2.056616e+000 -2.571030e+001 4.087280e+001 -6.757622e+001 2.940507e-002 3.787960e-001 1.901351e-001
<VARIANCE> 9
 3.538791e-001 3.371764e-001 1.470148e-001 2.977951e+001 3.680466e+001 1.807291e+002 4.762525e-004 5.782502e-004 1.938003e-004
<GCONST> 1.040418e+000
<MIXTURE> 8 6.531039e-002
<MEAN> 9
