~o
<STREAMINFO> 1 9
<VECSIZE> 9<NULLD><USER><DIAGC>
~h "GA"
<BEGINHMM>
<NUMSTATES> 8
<STATE> 2
<MEAN> 9
 -7.771741e+000 -9.726834e+000 4.238773e-001 9.570953e+000 -1.059865e+000 1.260266e+002 9.186777e-002 3.622975e-001 1.664007e-001
<VARIANCE> 9
 6.583352e+000 1.095180e+000 2.121707e+000 7.509017e+002 3.798103e+003 6.953399e+003 1.104783e-002 1.000000e-002 1.000000e-002
<GCONST> 2.926323e+001
<STATE> 3
<MEAN> 9
 -8.082483e+000 -7.238184e-001 -8.600556e-001 -1.132336e+002 -1.057224e+000 1.399550e+002 4.730629e-001 3.907692e-002 2.295133e-001
<VARIANCE> 9
 1.949669e+000 8.124120e+000 1.151212e+001 1.948430e+003 1.089834e+003 8.772491e+003 1.000000e-002 2.181141e-002 1.000000e-002
<GCONST> 3.235907e+001
<STATE> 4
<MEAN> 9
 -7.777405e+000 4.011061e+000 3.150109e+000 -2.139944e+001 -8.873251e+001 5.127249e+001 4.813860e-001 -1.908197e-001 1.529943e-001
<VARIANCE> 9
 1.400745e+001 2.632038e+000 3.054014e+000 4.303794e+002 2.148467e+004 1.747317e+003 1.000000e-002 1.000000e-002 1.282757e-002
<GCONST> 3.120379e+001
<STATE> 5
<MEAN> 9
 -1.349817e+000 4.162075e+000 7.490938e+000 5.301093e-004 -2.543744e+001 -4.042153e+001 3.187352e-001 -2.103083e-001 -1.845785e-001
<VARIANCE> 9
 1.454111e+001 1.993589e+000 1.009750e+000 1.861043e+002 1.827857e+003 6.876263e+003 1.000000e-002 1.000000e-002 1.000000e-002
<GCONST> 2.767503e+001
<STATE> 6
<MEAN> 9
 -5.405542e+000 -2.329157e+000 5.457108e+000 -6.558414e+001 7.206829e+001 -1.843805e+002 3.754364e-001 9.410910e-002 -1.142857e-001
<VARIANCE> 9
 7.441622e+000 1.097620e+001 8.156331e-001 7.553051e+002 1.344582e+003 3.780471e+003 1.000000e-002 1.881234e-002 1.000000e-002
<GCONST> 2.962490e+001
<STATE> 7
<MEAN> 9
 -6.104118e+000 -1.057184e+001 2.286459e+000 -3.625865e+001 8.986530e+001 -1.039143e+002 4.282225e-002 3.620488e-001 1.503046e-001
<VARIANCE> 9
 5.612813e+000 1.183948e+000 2.753232e+000 9.520423e+002 4.509156e+003 8.356951e+003 1.086148e-002 1.000000e-002 1.000000e-002
<GCONST> 3.001802e+001
<TRANSP> 8
 0.000000e+000 1.000000e+000 0.000000e+000 0.000000e+000 0.000000e+000 0.000000e+000 0.000000e+000 0.000000e+000
 0.000000e+000 9.454545e-001 5.454545e-002 0.000000e+000 0.000000e+000 0.000000e+000 0.000000e+000 0.000000e+000
 0.000000e+000 0.000000e+000 9.538462e-001 4.615385e-002 0.000000e+000 0.000000e+000 0.000000e+000 0.000000e+000
 0.000000e+000 0.000000e+000 0.000000e+000 9.508197e-001 4.918033e-002 0.000000e+000 0.000000e+000 0.000000e+000
 0.000000e+000 0.000000e+000 0.000000e+000 0.000000e+000 9.739130e-001 2.608696e-002 0.000000e+000 0.000000e+000
 0.000000e+000 0.000000e+000 0.000000e+000 0.000000e+000 0.000000e+000 9.400000e-001 6.000000e-002 0.000000e+000
 0.000000e+000 0.000000e+000 0.000000e+000 0.000000e+000 0.000000e+000 0.000000e+000 9.552239e-001 4.477612e-002
 0.000000e+000 0.000000e+000 0.000000e+000 0.000000e+000 0.000000e+000 0.000000e+000 0.000000e+000 0.000000e+000
<ENDHMM>
