~o
<STREAMINFO> 1 9
<VECSIZE> 9<NULLD><USER><DIAGC>
~h "GA"
<BEGINHMM>
<NUMSTATES> 8
<STATE> 2
<MEAN> 9
 -7.771741e+000 -9.726834e+000 4.238773e-001 9.570953e+000 -1.059865e+000 1.260266e+002 9.186777e-002 3.622975e-001 1.664007e-001
<VARIANCE> 9
 6.583352e+000 1.095180e+000 2.121707e+000 7.509017e+002 3.798103e+003 6.953399e+003 1.104783e-002 1.000000e-002 1.000000e-002
<GCONST> 2.926323e+001
<STATE> 3
<MEAN> 9
 -8.082483e+000 -7.238184e-001 -8.600556e-001 -1.132336e+002 -1.057224e+000 1.399550e+002 4.730629e-001 3.907692e-002 2.295133e-001
<VARIANCE> 9
 1.949669e+000 8.124120e+000 1.151212e+001 1.948430e+003 1.089834e+003 8.772491e+003 1.000000e-002 2.181141e-002 1.000000e-002
<GCONST> 3.235907e+001
<STATE> 4
<MEAN> 9
 -7.777405e+000 4.011061e+000 3.150109e+000 -2.139944e+001 -8.873251e+001 5.127249e+001 4.813860e-001 -1.908197e-001 1.529943e-001
<VARIANCE> 9
 1.400745e+001 2.632038e+000 3.054014e+000 4.303794e+002 2.148467e+004 1.747317e+003 1.000000e-002 1.000000e-002 1.282757e-002
<GCONST> 3.120379e+001
<STATE> 5
<MEAN> 9
 -1.349817e+000 4.162075e+000 7.490938e+000 5.301093e-004 -2.543744e+001 -4.042153e+001 3.187352e-001 -2.103083e-001 -1.845785e-001
<VARIANCE> 9
 1.454111e+001 1.993589e+000 1.009750e+000 1.861043e+002 1.827857e+003 6.876263e+003 1.000000e-002 1.000000e-002 1.000000e-002
<GCONST> 2.767503e+001
<STATE> 6
<MEAN> 9
 -5.405542e+000 -2.329157e+000 5.457108e+000 -6.558414e+001 7.206829e+001 -1.843805e+002 3.754364e-001 9.410910e-002 -1.142857e-001
<VARIANCE> 9
 7.441622e+000 1.097620e+001 8.156331e-001 7.553051e+002 1.344582e+003 3.780471e+003 1.000000e-002 1.881234e-002 1.000000e-002
<GCONST> 2.962490e+001
<STATE> 7
<MEAN> 9
 -6.104118e+000 -1.057184e+001 2.286459e+000 -3.625865e+001 8.986530e+001 -1.039143e+002 4.282225e-002 3.620488e-001 1.503046e-001
<VARIANCE> 9
 5.612813e+000 1.183948e+000 2.753232e+000 9.520423e+002 4.509156e+003 8.356951e+003 1.086148e-002 1.000000e-002 1.000000e-002
<GCONST> 3.001802e+001
<TRANSP> 8
 0.000000e+000 1.000000e+000 0.000000e+000 0.000000e+000 0.000000e+000 0.000000e+000 0.000000e+000 0.000000e+000
 0.000000e+000 9.454545e-001 5.454545e-002 0.000000e+000 0.000000e+000 0.000000e+000 0.000000e+000 0.000000e+000
 0.000000e+000 0.000000e+000 9.538462e-001 4.615385e-002 0.000000e+000 0.000000e+000 0.000000e+000 0.000000e+000
 0.000000e+000 0.000000e+000 0.000000e+000 9.508197e-001 4.918033e-002 0.000000e+000 0.000000e+000 0.000000e+000
 0.000000e+000 0.000000e+000 0.000000e+000 0.000000e+000 9.739130e-001 2.608696e-002 0.000000e+000 0.000000e+000
 0.000000e+000 0.000000e+000 0.000000e+000 0.000000e+000 0.000000e+000 9.400000e-001 6.000000e-002 0.000000e+000
 0.000000e+000 0.000000e+000 0.000000e+000 0.000000e+000 0.000000e+000 0.000000e+000 9.552239e-001 4.477612e-002
 0.000000e+000 0.000000e+000 0.000000e+000 0.000000e+000 0.000000e+000 0.000000e+000 0.000000e+000 0.000000e+000
<ENDHMM>

~h "GM"
<BEGINHMM>
<NUMSTATES> 8
<STATE> 2
<MEAN> 9
 -8.428740e+000 -9.111814e+000 3.761385e-002 -1.265839e+001 -2.955607e+001 1.509793e+002 1.557095e-001 3.477051e-001 1.991040e-001
<VARIANCE> 9
 5.117707e+000 5.172091e+000 2.030644e+000 6.675208e+002 5.409128e+003 8.473729e+003 1.998061e-002 1.000000e-002 1.000000e-002
<GCONST> 3.154603e+001
<STATE> 3
<MEAN> 9
 -7.179705e+000 2.699814e-001 5.296113e-001 -8.756097e+001 -1.830986e+001 1.194435e+002 5.029705e-001 6.875803e-003 2.103909e-001
<VARIANCE> 9
 1.480698e+000 2.993826e+000 6.967295e+000 1.226213e+003 5.266234e+002 6.164056e+003 1.000000e-002 1.165517e-002 1.000000e-002
<GCONST> 2.841350e+001
<STATE> 4
<MEAN> 9
 -8.773275e+000 3.631845e+000 2.199069e+000 -3.336336e+000 2.135324e+001 3.453298e+001 5.100517e-001 -1.389669e-001 2.230751e-001
<VARIANCE> 9
 1.309187e+000 2.839685e+000 3.165102e+000 5.712418e+002 3.574036e+002 5.556586e+002 1.000000e-002 1.000000e-002 1.000000e-002
<GCONST> 2.373750e+001
<STATE> 5
<MEAN> 9
 -7.837636e+000 4.198279e+000 3.496615e+000 -3.067973e+001 6.453543e+000 4.532230e+000 4.554892e-001 -2.668701e-001 2.254568e-001
<VARIANCE> 9
 5.075885e+000 7.373549e+000 2.005200e+001 4.224678e+003 1.434038e+003 3.140934e+002 1.000000e-002 1.000000e-002 1.000000e-002
<GCONST> 3.071275e+001
<STATE> 6
<MEAN> 9
 -7.406259e+000 1.648545e-001 1.675434e+000 1.344735e+002 -6.724718e+001 -1.519735e+002 4.878714e-001 -1.295011e-001 1.390866e-001
<VARIANCE> 9
 1.972647e+000 1.487624e+000 6.173893e+000 1.667296e+003 1.568769e+003 8.346785e+003 1.000000e-002 2.155961e-002 1.000000e-002
<GCONST> 3.019714e+001
<STATE> 7
<MEAN> 9
 -7.632968e+000 -9.510296e+000 1.766922e+000 -1.457705e+001 6.547617e+001 -1.428115e+002 1.131322e-001 3.451157e-001 1.241930e-001
<VARIANCE> 9
 9.017467e+000 5.220640e+000 2.124973e+000 1.064913e+003 5.027917e+003 1.330708e+004 2.330380e-002 1.000000e-002 1.000000e-002
<GCONST> 3.316642e+001
<TRANSP> 8
 0.000000e+000 1.000000e+000 0.000000e+000 0.000000e+000 0.000000e+000 0.000000e+000 0.000000e+000 0.000000e+000
 0.000000e+000 9.512195e-001 4.878049e-002 0.000000e+000 0.000000e+000 0.000000e+000 0.000000e+000 0.000000e+000
 0.000000e+000 0.000000e+000 9.436620e-001 5.633803e-002 0.000000e+000 0.000000e+000 0.000000e+000 0.000000e+000
 0.000000e+000 0.000000e+000 0.000000e+000 9.545454e-001 4.545454e-002 0.000000e+000 0.000000e+000 0.000000e+000
 0.000000e+000 0.000000e+000 0.000000e+000 0.000000e+000 9.809524e-001 1.904762e-002 0.000000e+000 0.000000e+000
 0.000000e+000 0.000000e+000 0.000000e+000 0.000000e+000 0.000000e+000 9.512195e-001 4.878049e-002 0.000000e+000
 0.000000e+000 0.000000e+000 0.000000e+000 0.000000e+000 0.000000e+000 0.000000e+000 9.636363e-001 3.636363e-002
 0.000000e+000 0.000000e+000 0.000000e+000 0.000000e+000 0.000000e+000 0.000000e+000 0.000000e+000 0.000000e+000
<ENDHMM>

~h "GN"
<BEGINHMM>
<NUMSTATES> 8
<STATE> 2
<MEAN> 9
 -8.256649e+000 -9.622869e+000 3.659927e-002 4.596179e+000 9.856189e+000 1.621272e+002 1.128816e-001 3.547684e-001 1.861186e-001
<VARIANCE> 9
 5.669814e+000 5.456051e+000 7.413031e+000 1.067973e+003 4.593340e+003 9.125731e+003 1.875636e-002 1.000000e-002 1.000000e-002
<GCONST> 3.331419e+001
<STATE> 3
<MEAN> 9
 -9.222962e+000 -8.114812e-001 2.371368e+000 -6.983788e+001 -2.716858e+001 8.630129e+001 5.010802e-001 6.320857e-003 2.131453e-001
<VARIANCE> 9
 1.152268e+001 9.563480e+000 3.020532e+001 1.287879e+004 1.781735e+003 7.340010e+003 1.000000e-002 1.068502e-002 1.000000e-002
<GCONST> 3.675170e+001
<STATE> 4
<MEAN> 9
 -3.619352e+000 4.983998e+000 -1.686747e-001 3.086509e+001 -3.490663e+001 2.926639e+001 4.650284e-001 -2.442898e-001 1.563935e-001
<VARIANCE> 9
 7.679180e+000 1.133996e+000 1.838138e+000 5.429827e+003 2.737673e+003 9.834981e+003 1.000000e-002 1.000000e-002 1.000000e-002
<GCONST> 3.120662e+001
<STATE> 5
<MEAN> 9
 -7.043090e+000 2.072289e-001 5.060241e+000 -2.437231e+001 7.905301e-001 -8.167073e+001 4.789198e-001 4.920857e-002 6.458583e-003
<VARIANCE> 9
 9.153345e+000 4.785090e+000 9.893460e+000 4.552109e+003 2.123467e+003 7.723794e+003 1.000000e-002 1.000000e-002 1.000000e-002
<GCONST> 3.383309e+001
<STATE> 6
<MEAN> 9
 -9.060241e+000 -7.843100e+000 2.917579e+000 -2.518570e+001 4.884146e+001 -1.824265e+002 2.967149e-001 3.048140e-001 1.320733e-001
<VARIANCE> 9
 1.656646e+000 9.775020e+000 1.279094e+000 9.963142e+002 1.299429e+003 9.657529e+002 1.161440e-002 1.000000e-002 1.000000e-002
<GCONST> 2.685247e+001
<STATE> 7
<MEAN> 9
 -4.899312e+000 -1.032444e+001 2.009897e+000 -1.978441e+000 6.847343e+001 -5.177700e+001 2.444805e-002 3.705844e-001 1.971574e-001
<VARIANCE> 9
 2.979037e+000 6.285270e-001 2.073560e+000 2.880064e+002 2.778147e+003 1.623016e+003 1.000000e-002 1.000000e-002 1.000000e-002
<GCONST> 2.506643e+001
<TRANSP> 8
 0.000000e+000 1.000000e+000 0.000000e+000 0.000000e+000 0.000000e+000 0.000000e+000 0.000000e+000 0.000000e+000
 0.000000e+000 9.433962e-001 5.660378e-002 0.000000e+000 0.000000e+000 0.000000e+000 0.000000e+000 0.000000e+000
 0.000000e+000 0.000000e+000 9.647059e-001 3.529412e-002 0.000000e+000 0.000000e+000 0.000000e+000 0.000000e+000
 0.000000e+000 0.000000e+000 0.000000e+000 9.531250e-001 4.687500e-002 0.000000e+000 0.000000e+000 0.000000e+000
 0.000000e+000 0.000000e+000 0.000000e+000 0.000000e+000 9.647059e-001 3.529412e-002 0.000000e+000 0.000000e+000
 0.000000e+000 0.000000e+000 0.000000e+000 0.000000e+000 0.000000e+000 9.318182e-001 6.818181e-002 0.000000e+000
 0.000000e+000 0.000000e+000 0.000000e+000 0.000000e+000 0.000000e+000 0.000000e+000 9.464286e-001 5.357143e-002
 0.000000e+000 0.000000e+000 0.000000e+000 0.000000e+000 0.000000e+000 0.000000e+000 0.000000e+000 0.000000e+000
<ENDHMM>

~h "HAU"
<BEGINHMM>
<NUMSTATES> 8
<STATE> 2
<MEAN> 9
 -6.125052e+000 -1.093768e+001 1.605595e+000 5.045557e+000 -1.363338e+002 1.036389e+002 5.974922e-002 3.685998e-001 2.181093e-001
<VARIANCE> 9
 3.495516e+000 1.022143e+000 6.224132e-001 1.319301e+002 7.438220e+003 6.280619e+003 1.000000e-002 1.000000e-002 1.000000e-002
<GCONST> 2.606649e+001
<STATE> 3
<MEAN> 9
 -7.295960e+000 -3.553792e+000 2.127853e+000 3.521449e+001 3.302726e+001 2.071155e+002 4.431123e-001 1.338396e-001 1.852461e-001
<VARIANCE> 9
 2.252028e+000 1.330677e+001 2.207287e+000 9.133972e+002 5.697346e+003 2.089021e+003 1.000000e-002 2.003364e-002 1.000000e-002
<GCONST> 3.072145e+001
<STATE> 4
<MEAN> 9
 -7.686067e+000 3.553926e+000 1.938107e+000 4.990657e+000 -2.141031e+000 -3.448071e+000 5.033284e-001 -1.099267e-001 2.455234e-001
<VARIANCE> 9
 8.170275e+000 1.372941e+000 2.940015e-001 1.036045e+002 3.418478e+002 1.863132e+003 1.000000e-002 1.000000e-002 1.000000e-002
<GCONST> 2.192363e+001
<STATE> 5
<MEAN> 9
 -6.969648e+000 5.310472e-001 1.923309e+000 2.197702e+001 -4.994254e+001 -1.284744e+002 5.079021e-001 1.606643e-002 1.899333e-001
<VARIANCE> 9
 1.841757e+000 1.428285e+000 3.922643e-001 2.135407e+002 1.102380e+003 1.931538e+003 1.000000e-002 1.000000e-002 1.000000e-002
<GCONST> 2.269188e+001
<STATE> 6
<MEAN> 9
 -8.245369e+000 -6.988081e+000 1.558492e+000 1.711644e+001 4.456137e+001 -1.646112e+002 3.055621e-001 2.962659e-001 1.874589e-001
<VARIANCE> 9
 2.279724e+000 8.430915e+000 1.948921e+000 3.785920e+002 1.592741e+003 1.763125e+003 1.462931e-002 1.000000e-002 1.000000e-002
<GCONST> 2.751357e+001
<STATE> 7
<MEAN> 9
 -4.668190e+000 -1.005235e+001 1.273092e+000 4.878055e-001 6.344127e+001 -4.834385e+001 2.293626e-002 3.736991e-001 1.874384e-001
<VARIANCE> 9
 1.466606e+000 2.339090e-001 6.042237e-001 1.316312e+002 1.622054e+003 1.546551e+003 1.000000e-002 1.000000e-002 1.000000e-002
<GCONST> 2.076693e+001
<TRANSP> 8
 0.000000e+000 1.000000e+000 0.000000e+000 0.000000e+000 0.000000e+000 0.000000e+000 0.000000e+000 0.000000e+000
 0.000000e+000 9.425287e-001 5.747127e-002 0.000000e+000 0.000000e+000 0.000000e+000 0.000000e+000 0.000000e+000
 0.000000e+000 0.000000e+000 9.411765e-001 5.882353e-002 0.000000e+000 0.000000e+000 0.000000e+000 0.000000e+000
 0.000000e+000 0.000000e+000 0.000000e+000 9.596774e-001 4.032258e-002 0.000000e+000 0.000000e+000 0.000000e+000
 0.000000e+000 0.000000e+000 0.000000e+000 0.000000e+000 9.038461e-001 9.615386e-002 0.000000e+000 0.000000e+000
 0.000000e+000 0.000000e+000 0.000000e+000 0.000000e+000 0.000000e+000 9.462366e-001 5.376345e-002 0.000000e+000
 0.000000e+000 0.000000e+000 0.000000e+000 0.000000e+000 0.000000e+000 0.000000e+000 9.425287e-001 5.747127e-002
 0.000000e+000 0.000000e+000 0.000000e+000 0.000000e+000 0.000000e+000 0.000000e+000 0.000000e+000 0.000000e+000
<ENDHMM>

~h "HE"
<BEGINHMM>
<NUMSTATES> 8
<STATE> 2
<MEAN> 9
 -1.005193e+001 -8.997229e+000 2.537229e+000 1.086774e+002 2.150549e+001 1.806055e+002 2.135273e-001 2.539182e-001 4.045919e-002
<VARIANCE> 9
 9.824213e+000 1.437198e+001 1.045319e+001 5.006252e+003 4.739519e+003 9.950827e+003 2.636992e-002 2.122894e-002 1.407341e-002
<GCONST> 3.827409e+001
<STATE> 3
<MEAN> 9
 4.073165e+000 3.550929e-001 3.736254e+000 1.541408e+001 -6.024390e+001 1.108587e+002 3.539670e-002 -2.396777e-001 -2.360204e-001
<VARIANCE> 9
 6.556461e+001 6.359250e+000 1.089283e+001 1.439605e+003 8.812378e+003 4.740792e+004 3.202847e-002 1.000000e-002 1.000000e-002
<GCONST> 3.943305e+001
<STATE> 4
<MEAN> 9
 -7.561833e+000 7.282094e+000 3.073258e+000 1.011355e+000 -3.502242e+000 -1.928301e+001 1.714316e-001 -3.055381e-001 -2.051959e-001
<VARIANCE> 9
 1.770184e+001 3.854219e+000 3.974932e+000 2.529709e+003 1.464516e+003 3.561013e+004 1.000000e-002 1.000000e-002 1.000000e-002
<GCONST> 3.393375e+001
<STATE> 5
<MEAN> 9
 6.996988e+000 2.233541e+000 5.628765e+000 -4.741948e-001 -4.741398e+000 -4.335257e+000 -8.721591e-002 -2.458685e-001 -2.462919e-001
<VARIANCE> 9
 2.007242e+001 3.480555e+000 1.402296e+000 1.738358e+003 8.365444e+002 3.934300e+004 1.000000e-002 1.000000e-002 1.000000e-002
<GCONST> 3.208008e+001
<STATE> 6
<MEAN> 9
 -6.036807e+000 5.694426e-001 3.597246e+000 -1.013173e+002 4.013803e+001 -1.722775e+002 2.077023e-001 -1.152747e-001 -2.406593e-001
<VARIANCE> 9
 7.124020e+000 1.868553e+001 1.584074e+000 5.157261e+003 3.467152e+003 4.297534e+003 1.000000e-002 2.792902e-002 1.000000e-002
<GCONST> 3.416873e+001
<STATE> 7
<MEAN> 9
 -6.214048e+000 -1.070443e+001 4.265316e+000 -8.918655e+001 1.119551e+001 -8.567592e+001 5.732108e-002 3.451838e-001 7.495657e-002
<VARIANCE> 9
 1.023600e+001 2.177655e+000 9.397752e+000 4.631693e+003 3.690744e+003 5.932423e+003 1.000000e-002 1.000000e-002 1.099256e-002
<GCONST> 3.350709e+001
<TRANSP> 8
 0.000000e+000 1.000000e+000 0.000000e+000 0.000000e+000 0.000000e+000 0.000000e+000 0.000000e+000 0.000000e+000
 0.000000e+000 9.600000e-001 4.000000e-002 0.000000e+000 0.000000e+000 0.000000e+000 0.000000e+000 0.000000e+000
 0.000000e+000 0.000000e+000 9.636363e-001 3.636363e-002 0.000000e+000 0.000000e+000 0.000000e+000 0.000000e+000
 0.000000e+000 0.000000e+000 0.000000e+000 9.540230e-001 4.597702e-002 0.000000e+000 0.000000e+000 0.000000e+000
 0.000000e+000 0.000000e+000 0.000000e+000 0.000000e+000 9.642857e-001 3.571428e-002 0.000000e+000 0.000000e+000
 0.000000e+000 0.000000e+000 0.000000e+000 0.000000e+000 0.000000e+000 9.560440e-001 4.395605e-002 0.000000e+000
 0.000000e+000 0.000000e+000 0.000000e+000 0.000000e+000 0.000000e+000 0.000000e+000 9.574468e-001 4.255319e-002
 0.000000e+000 0.000000e+000 0.000000e+000 0.000000e+000 0.000000e+000 0.000000e+000 0.000000e+000 0.000000e+000
<ENDHMM>

~h "sp"
<BEGINHMM>
<NUMSTATES> 8
<STATE> 2
<MEAN> 9
 -3.967933e+000 -9.815199e+000 1.602595e+000 -1.282364e+000 4.219888e+001 -1.820825e+000 -1.243357e-002 3.655804e-001 1.888854e-001
<VARIANCE> 9
 1.949076e+000 3.660609e-001 2.567302e+000 1.639599e+002 1.634423e+003 2.635678e+001 1.000000e-002 1.000000e-002 1.000000e-002
<GCONST> 1.910102e+001
<STATE> 3
<MEAN> 9
 -2.702309e+000 -9.773218e+000 2.447289e-002 4.135544e+000 -3.687754e+000 1.560595e+000 -2.282197e-002 3.648864e-001 1.798363e-001
<VARIANCE> 9
 6.732650e-001 4.131888e-002 2.022623e-001 7.781359e+000 1.338573e+002 8.910911e+000 1.000000e-002 1.000000e-002 1.000000e-002
<GCONST> 6.680923e+000
<STATE> 4
<MEAN> 9
 -2.280921e+000 -9.927406e+000 5.693655e-002 3.179994e+000 -1.065144e+000 6.231347e-001 -3.459916e-002 3.624358e-001 1.793421e-001
<VARIANCE> 9
 1.837781e-001 1.387881e-002 8.819740e-002 9.971915e-001 1.685798e+001 9.656603e-001 1.000000e-002 1.000000e-002 1.000000e-002
<GCONST> -2.887146e+000
<STATE> 5
<MEAN> 9
 -3.054477e+000 -9.733428e+000 2.888731e-001 3.246533e+000 2.089909e-001 1.539933e-001 -5.900183e-003 3.683387e-001 1.855262e-001
<VARIANCE> 9
 9.267160e-002 1.220929e-002 2.483177e-002 4.706134e-001 9.753830e+000 6.897095e-001 1.000000e-002 1.000000e-002 1.000000e-002
<GCONST> -6.602043e+000
<STATE> 6
<MEAN> 9
 -2.890723e+000 -9.845663e+000 5.083132e-001 3.158537e+000 -7.915854e+000 1.614634e+000 -2.577273e-002 3.651454e-001 1.817857e-001
<VARIANCE> 9
 4.381077e-001 2.834285e-002 7.808881e-002 3.772233e+000 9.569057e+001 3.149500e+000 1.000000e-002 1.000000e-002 1.000000e-002
<GCONST> 2.822833e+000
<STATE> 7
<MEAN> 9
 -4.617984e+000 -9.772553e+000 1.023803e+000 1.502082e+000 -4.550268e+001 5.754015e+000 -1.625277e-002 3.668071e-001 1.910901e-001
<VARIANCE> 9
 1.363922e+000 7.663819e-002 5.044060e-001 3.341685e+001 1.872248e+003 1.781655e+001 1.000000e-002 1.000000e-002 1.000000e-002
<GCONST> 1.370680e+001
<TRANSP> 8
 0.000000e+000 1.000000e+000 0.000000e+000 0.000000e+000 0.000000e+000 0.000000e+000 0.000000e+000 0.000000e+000
 0.000000e+000 6.923077e-001 3.076923e-001 0.000000e+000 0.000000e+000 0.000000e+000 0.000000e+000 0.000000e+000
 0.000000e+000 0.000000e+000 7.916667e-001 2.083333e-001 0.000000e+000 0.000000e+000 0.000000e+000 0.000000e+000
 0.000000e+000 0.000000e+000 0.000000e+000 9.156118e-001 8.438820e-002 0.000000e+000 0.000000e+000 0.000000e+000
 0.000000e+000 0.000000e+000 0.000000e+000 0.000000e+000 9.215686e-001 7.843138e-002 0.000000e+000 0.000000e+000
 0.000000e+000 0.000000e+000 0.000000e+000 0.000000e+000 0.000000e+000 8.000000e-001 2.000000e-001 0.000000e+000
 0.000000e+000 0.000000e+000 0.000000e+000 0.000000e+000 0.000000e+000 0.000000e+000 5.121951e-001 4.878049e-001
 0.000000e+000 0.000000e+000 0.000000e+000 0.000000e+000 0.000000e+000 0.000000e+000 0.000000e+000 0.000000e+000
<ENDHMM>

~h "SR"
<BEGINHMM>
<NUMSTATES> 8
<STATE> 2
<MEAN> 9
 -8.986747e+000 -1.018777e+001 5.503244e-001 -3.576079e+001 -1.304207e+002 1.765666e+002 1.943916e-001 3.211329e-001 2.193642e-001
<VARIANCE> 9
 4.011447e+000 2.460187e+000 1.916751e+000 2.241324e+003 9.201816e+003 1.051052e+004 3.038946e-002 1.000000e-002 1.000000e-002
<GCONST> 3.287902e+001
<STATE> 3
<MEAN> 9
 -4.739073e+000 -1.859291e+000 2.576379e+000 1.281734e+001 -1.406178e+001 -1.541526e+001 5.081155e-001 -6.188454e-002 1.948756e-001
<VARIANCE> 9
 7.818154e+000 8.914789e+000 4.959991e-001 5.881225e+003 9.875064e+002 3.334743e+004 1.000000e-002 1.000000e-002 1.000000e-002
<GCONST> 3.225780e+001
<STATE> 4
<MEAN> 9
 -1.135663e+001 -5.805522e+000 4.380020e+000 -2.455183e+001 -3.270681e+001 1.531046e+001 4.223788e-001 2.208030e-001 1.625255e-001
<VARIANCE> 9
 2.192504e+001 1.974776e+001 2.347503e+000 8.101212e+002 1.311510e+003 1.984566e+004 1.000000e-002 1.000000e-002 1.000000e-002
<GCONST> 3.342126e+001
<STATE> 5
<MEAN> 9
 -6.714208e+000 -4.393466e+000 3.968197e+000 1.882883e+001 7.308833e+000 -2.906174e+001 4.891237e-001 1.096151e-001 1.708218e-001
<VARIANCE> 9
 1.076379e+000 4.500908e-001 5.852175e-001 5.423091e+002 2.620558e+002 3.216976e+003 1.000000e-002 1.000000e-002 1.000000e-002
<GCONST> 2.140549e+001
<STATE> 6
<MEAN> 9
 -6.856482e+000 -7.707952e+000 1.181012e+000 4.565903e+001 1.051171e+002 -1.450137e+002 2.544000e-001 3.203564e-001 2.053143e-001
<VARIANCE> 9
 9.173928e-001 6.030180e+000 1.078843e+000 8.385646e+002 1.684529e+003 9.071161e+002 1.819824e-002 1.000000e-002 1.000000e-002
<GCONST> 2.608177e+001
<STATE> 7
<MEAN> 9
 -3.813962e+000 -1.013974e+001 1.392393e+000 -9.029771e+000 7.326758e+001 -3.192492e+001 -1.418003e-002 3.649733e-001 2.005602e-001
<VARIANCE> 9
 1.372573e+000 1.706934e-001 1.193441e+000 2.521587e+002 9.376716e+002 6.753906e+002 1.000000e-002 1.000000e-002 1.000000e-002
<GCONST> 2.033977e+001
<TRANSP> 8
 0.000000e+000 1.000000e+000 0.000000e+000 0.000000e+000 0.000000e+000 0.000000e+000 0.000000e+000 0.000000e+000
 0.000000e+000 9.538462e-001 4.615385e-002 0.000000e+000 0.000000e+000 0.000000e+000 0.000000e+000 0.000000e+000
 0.000000e+000 0.000000e+000 9.562044e-001 4.379562e-002 0.000000e+000 0.000000e+000 0.000000e+000 0.000000e+000
 0.000000e+000 0.000000e+000 0.000000e+000 9.500000e-001 5.000000e-002 0.000000e+000 0.000000e+000 0.000000e+000
 0.000000e+000 0.000000e+000 0.000000e+000 0.000000e+000 9.459459e-001 5.405406e-002 0.000000e+000 0.000000e+000
 0.000000e+000 0.000000e+000 0.000000e+000 0.000000e+000 0.000000e+000 9.520000e-001 4.800000e-002 0.000000e+000
 0.000000e+000 0.000000e+000 0.000000e+000 0.000000e+000 0.000000e+000 0.000000e+000 9.411765e-001 5.882353e-002
 0.000000e+000 0.000000e+000 0.000000e+000 0.000000e+000 0.000000e+000 0.000000e+000 0.000000e+000 0.000000e+000
<ENDHMM>

~h "ssil"
<BEGINHMM>
<NUMSTATES> 8
<STATE> 2
<MEAN> 9
 -2.464015e+000 -9.911717e+000 2.933148e-001 3.928880e+000 7.213467e+000 3.868982e-001 -3.279163e-002 3.623813e-001 1.789236e-001
<VARIANCE> 9
 5.982555e-001 8.520039e-002 3.710487e-001 9.844863e+000 9.198801e+002 1.006570e+001 1.000000e-002 1.000000e-002 1.000000e-002
<GCONST> 1.017780e+001
<STATE> 3
<MEAN> 9
 -2.758779e+000 -9.807744e+000 2.038410e-001 2.944809e+000 -1.821451e+000 4.067647e-001 -1.698135e-002 3.668298e-001 1.793171e-001
<VARIANCE> 9
 1.689010e-001 1.628979e-002 6.736831e-002 1.020084e+000 2.734307e+001 9.251154e-001 1.000000e-002 1.000000e-002 1.000000e-002
<GCONST> -2.617347e+000
<STATE> 4
<MEAN> 9
 -2.010677e+000 -9.998067e+000 4.900422e-001 3.285516e+000 7.360305e-002 1.867947e-001 -5.389756e-002 3.594742e-001 1.804466e-001
<VARIANCE> 9
 5.268783e-002 1.000000e-002 3.199881e-002 1.667810e-001 3.868825e+000 1.726373e-001 1.000000e-002 1.000000e-002 1.000000e-002
<GCONST> -1.045990e+001
<STATE> 5
<MEAN> 9
 -2.692585e+000 -9.842734e+000 2.698052e-001 3.294771e+000 1.376128e-001 7.423570e-002 -1.941003e-002 3.665691e-001 1.828837e-001
<VARIANCE> 9
 2.961783e-002 1.000000e-002 3.064833e-002 9.027233e-002 1.747290e+000 1.692421e-001 1.000000e-002 1.000000e-002 1.000000e-002
<GCONST> -1.250763e+001
<STATE> 6
<MEAN> 9
 -3.152339e+000 -9.694804e+000 -1.233461e-001 3.332242e+000 -1.365408e-002 7.247867e-002 1.229794e-003 3.692276e-001 2.041771e-001
<VARIANCE> 9
 2.985136e-002 1.000000e-002 2.793685e-002 8.447982e-002 8.058497e-001 1.456405e-001 1.000000e-002 1.000000e-002 1.000000e-002
<GCONST> -1.358284e+001
<STATE> 7
<MEAN> 9
 -3.616753e+000 -9.798623e+000 7.016638e-001 3.138792e+000 -1.170828e+001 3.591754e+000 -1.246753e-002 3.677345e-001 1.974085e-001
<VARIANCE> 9
 1.503832e+000 1.889068e-001 1.054263e+000 3.957357e+001 9.450009e+002 2.854165e+001 1.000000e-002 1.000000e-002 1.000000e-002
<GCONST> 1.540045e+001
<TRANSP> 8
 0.000000e+000 1.000000e+000 0.000000e+000 0.000000e+000 0.000000e+000 0.000000e+000 0.000000e+000 0.000000e+000
 0.000000e+000 8.230088e-001 1.769911e-001 0.000000e+000 0.000000e+000 0.000000e+000 0.000000e+000 0.000000e+000
 0.000000e+000 0.000000e+000 9.145299e-001 8.547010e-002 0.000000e+000 0.000000e+000 0.000000e+000 0.000000e+000
 0.000000e+000 0.000000e+000 0.000000e+000 9.626865e-001 3.731344e-002 0.000000e+000 0.000000e+000 0.000000e+000
 0.000000e+000 0.000000e+000 0.000000e+000 0.000000e+000 9.657534e-001 3.424658e-002 0.000000e+000 0.000000e+000
 0.000000e+000 0.000000e+000 0.000000e+000 0.000000e+000 0.000000e+000 9.693251e-001 3.067485e-002 0.000000e+000
 0.000000e+000 0.000000e+000 0.000000e+000 0.000000e+000 0.000000e+000 0.000000e+000 6.825397e-001 3.174603e-001
 0.000000e+000 0.000000e+000 0.000000e+000 0.000000e+000 0.000000e+000 0.000000e+000 0.000000e+000 0.000000e+000
<ENDHMM>

~h "TK"
<BEGINHMM>
<NUMSTATES> 8
<STATE> 2
<MEAN> 9
 -8.234392e+000 -1.013143e+001 -1.776013e+000 -4.053146e+001 4.576774e+001 1.459320e+002 9.580579e-002 3.621591e-001 2.009508e-001
<VARIANCE> 9
 4.876913e+000 1.454584e+000 7.209830e+000 3.678007e+003 3.736830e+003 1.008337e+004 1.308656e-002 1.000000e-002 1.000000e-002
<GCONST> 3.258382e+001
<STATE> 3
<MEAN> 9
 -6.890794e+000 -1.391566e+000 -3.646432e+000 -1.793840e+002 2.095920e+001 1.615955e+002 4.055478e-001 9.347324e-003 4.320382e-001
<VARIANCE> 9
 2.863102e+000 1.178925e+001 2.812048e+000 8.283243e+002 9.251053e+002 4.079510e+003 1.000000e-002 2.786260e-002 1.000000e-002
<GCONST> 3.016613e+001
<STATE> 4
<MEAN> 9
 -5.194183e+000 5.988046e+000 1.434770e+000 8.491809e+000 1.384289e+001 -3.143578e+000 3.476349e-001 -3.186790e-001 4.093192e-001
<VARIANCE> 9
 7.410967e-001 1.515887e+000 3.424600e+000 9.487265e+003 6.700836e+002 1.704598e+003 1.000000e-002 1.000000e-002 1.000000e-002
<GCONST> 2.717893e+001
<STATE> 5
<MEAN> 9
 -8.916748e+000 1.932161e+000 -6.022468e+000 6.770985e+001 -1.528291e+001 -3.501318e+001 3.742015e-001 -1.131858e-002 5.330208e-001
<VARIANCE> 9
 2.011287e+000 1.913796e+000 5.713030e+000 5.376296e+003 3.611292e+003 1.895917e+003 1.000000e-002 1.000000e-002 1.000000e-002
<GCONST> 3.014503e+001
<STATE> 6
<MEAN> 9
 -7.522866e+000 -3.325042e+000 1.016582e+000 4.175845e+000 -1.256655e+002 -1.523499e+002 4.099707e-001 1.869208e-001 2.169958e-001
<VARIANCE> 9
 2.400739e+000 7.547372e+000 4.572810e+000 1.267966e+003 8.916178e+003 3.974185e+003 1.000000e-002 1.288856e-002 1.375120e-002
<GCONST> 3.224315e+001
<STATE> 7
<MEAN> 9
 -5.603364e+000 -1.008565e+001 1.784206e+000 -1.949952e+001 6.578845e+001 -8.689628e+001 4.585059e-002 3.704320e-001 1.739745e-001
<VARIANCE> 9
 2.200991e+000 8.644083e-001 2.096001e+000 3.933837e+002 3.123003e+003 4.831858e+003 1.000000e-002 1.000000e-002 1.000000e-002
<GCONST> 2.661293e+001
<TRANSP> 8
 0.000000e+000 1.000000e+000 0.000000e+000 0.000000e+000 0.000000e+000 0.000000e+000 0.000000e+000 0.000000e+000
 0.000000e+000 9.431818e-001 5.681818e-002 0.000000e+000 0.000000e+000 0.000000e+000 0.000000e+000 0.000000e+000
 0.000000e+000 0.000000e+000 9.358974e-001 6.410257e-002 0.000000e+000 0.000000e+000 0.000000e+000 0.000000e+000
 0.000000e+000 0.000000e+000 0.000000e+000 9.609375e-001 3.906250e-002 0.000000e+000 0.000000e+000 0.000000e+000
 0.000000e+000 0.000000e+000 0.000000e+000 0.000000e+000 9.549550e-001 4.504504e-002 0.000000e+000 0.000000e+000
 0.000000e+000 0.000000e+000 0.000000e+000 0.000000e+000 0.000000e+000 9.462366e-001 5.376345e-002 0.000000e+000
 0.000000e+000 0.000000e+000 0.000000e+000 0.000000e+000 0.000000e+000 0.000000e+000 9.504951e-001 4.950495e-002
 0.000000e+000 0.000000e+000 0.000000e+000 0.000000e+000 0.000000e+000 0.000000e+000 0.000000e+000 0.000000e+000
<ENDHMM>
