~o
<STREAMINFO> 1 9
<VECSIZE> 9<NULLD><USER><DIAGC>
~h "sp"
<BEGINHMM>
<NUMSTATES> 8
<STATE> 2
<MEAN> 9
 -3.967933e+000 -9.815199e+000 1.602595e+000 -1.282364e+000 4.219888e+001 -1.820825e+000 -1.243357e-002 3.655804e-001 1.888854e-001
<VARIANCE> 9
 1.949076e+000 3.660609e-001 2.567302e+000 1.639599e+002 1.634423e+003 2.635678e+001 1.000000e-002 1.000000e-002 1.000000e-002
<GCONST> 1.910102e+001
<STATE> 3
<MEAN> 9
 -2.702309e+000 -9.773218e+000 2.447289e-002 4.135544e+000 -3.687754e+000 1.560595e+000 -2.282197e-002 3.648864e-001 1.798363e-001
<VARIANCE> 9
 6.732650e-001 4.131888e-002 2.022623e-001 7.781359e+000 1.338573e+002 8.910911e+000 1.000000e-002 1.000000e-002 1.000000e-002
<GCONST> 6.680923e+000
<STATE> 4
<MEAN> 9
 -2.280921e+000 -9.927406e+000 5.693655e-002 3.179994e+000 -1.065144e+000 6.231347e-001 -3.459916e-002 3.624358e-001 1.793421e-001
<VARIANCE> 9
 1.837781e-001 1.387881e-002 8.819740e-002 9.971915e-001 1.685798e+001 9.656603e-001 1.000000e-002 1.000000e-002 1.000000e-002
<GCONST> -2.887146e+000
<STATE> 5
<MEAN> 9
 -3.054477e+000 -9.733428e+000 2.888731e-001 3.246533e+000 2.089909e-001 1.539933e-001 -5.900183e-003 3.683387e-001 1.855262e-001
<VARIANCE> 9
 9.267160e-002 1.220929e-002 2.483177e-002 4.706134e-001 9.753830e+000 6.897095e-001 1.000000e-002 1.000000e-002 1.000000e-002
<GCONST> -6.602043e+000
<STATE> 6
<MEAN> 9
 -2.890723e+000 -9.845663e+000 5.083132e-001 3.158537e+000 -7.915854e+000 1.614634e+000 -2.577273e-002 3.651454e-001 1.817857e-001
<VARIANCE> 9
 4.381077e-001 2.834285e-002 7.808881e-002 3.772233e+000 9.569057e+001 3.149500e+000 1.000000e-002 1.000000e-002 1.000000e-002
<GCONST> 2.822833e+000
<STATE> 7
<MEAN> 9
 -4.617984e+000 -9.772553e+000 1.023803e+000 1.502082e+000 -4.550268e+001 5.754015e+000 -1.625277e-002 3.668071e-001 1.910901e-001
<VARIANCE> 9
 1.363922e+000 7.663819e-002 5.044060e-001 3.341685e+001 1.872248e+003 1.781655e+001 1.000000e-002 1.000000e-002 1.000000e-002
<GCONST> 1.370680e+001
<TRANSP> 8
 0.000000e+000 1.000000e+000 0.000000e+000 0.000000e+000 0.000000e+000 0.000000e+000 0.000000e+000 0.000000e+000
 0.000000e+000 6.923077e-001 3.076923e-001 0.000000e+000 0.000000e+000 0.000000e+000 0.000000e+000 0.000000e+000
 0.000000e+000 0.000000e+000 7.916667e-001 2.083333e-001 0.000000e+000 0.000000e+000 0.000000e+000 0.000000e+000
 0.000000e+000 0.000000e+000 0.000000e+000 9.156118e-001 8.438820e-002 0.000000e+000 0.000000e+000 0.000000e+000
 0.000000e+000 0.000000e+000 0.000000e+000 0.000000e+000 9.215686e-001 7.843138e-002 0.000000e+000 0.000000e+000
 0.000000e+000 0.000000e+000 0.000000e+000 0.000000e+000 0.000000e+000 8.000000e-001 2.000000e-001 0.000000e+000
 0.000000e+000 0.000000e+000 0.000000e+000 0.000000e+000 0.000000e+000 0.000000e+000 5.121951e-001 4.878049e-001
 0.000000e+000 0.000000e+000 0.000000e+000 0.000000e+000 0.000000e+000 0.000000e+000 0.000000e+000 0.000000e+000
<ENDHMM>
