~o
<STREAMINFO> 1 9
<VECSIZE> 9<NULLD><USER><DIAGC>
~h "TK"
<BEGINHMM>
<NUMSTATES> 8
<STATE> 2
<MEAN> 9
 -8.234392e+000 -1.013143e+001 -1.776013e+000 -4.053146e+001 4.576774e+001 1.459320e+002 9.580579e-002 3.621591e-001 2.009508e-001
<VARIANCE> 9
 4.876913e+000 1.454584e+000 7.209830e+000 3.678007e+003 3.736830e+003 1.008337e+004 1.308656e-002 1.000000e-002 1.000000e-002
<GCONST> 3.258382e+001
<STATE> 3
<MEAN> 9
 -6.890794e+000 -1.391566e+000 -3.646432e+000 -1.793840e+002 2.095920e+001 1.615955e+002 4.055478e-001 9.347324e-003 4.320382e-001
<VARIANCE> 9
 2.863102e+000 1.178925e+001 2.812048e+000 8.283243e+002 9.251053e+002 4.079510e+003 1.000000e-002 2.786260e-002 1.000000e-002
<GCONST> 3.016613e+001
<STATE> 4
<MEAN> 9
 -5.194183e+000 5.988046e+000 1.434770e+000 8.491809e+000 1.384289e+001 -3.143578e+000 3.476349e-001 -3.186790e-001 4.093192e-001
<VARIANCE> 9
 7.410967e-001 1.515887e+000 3.424600e+000 9.487265e+003 6.700836e+002 1.704598e+003 1.000000e-002 1.000000e-002 1.000000e-002
<GCONST> 2.717893e+001
<STATE> 5
<MEAN> 9
 -8.916748e+000 1.932161e+000 -6.022468e+000 6.770985e+001 -1.528291e+001 -3.501318e+001 3.742015e-001 -1.131858e-002 5.330208e-001
<VARIANCE> 9
 2.011287e+000 1.913796e+000 5.713030e+000 5.376296e+003 3.611292e+003 1.895917e+003 1.000000e-002 1.000000e-002 1.000000e-002
<GCONST> 3.014503e+001
<STATE> 6
<MEAN> 9
 -7.522866e+000 -3.325042e+000 1.016582e+000 4.175845e+000 -1.256655e+002 -1.523499e+002 4.099707e-001 1.869208e-001 2.169958e-001
<VARIANCE> 9
 2.400739e+000 7.547372e+000 4.572810e+000 1.267966e+003 8.916178e+003 3.974185e+003 1.000000e-002 1.288856e-002 1.375120e-002
<GCONST> 3.224315e+001
<STATE> 7
<MEAN> 9
 -5.603364e+000 -1.008565e+001 1.784206e+000 -1.949952e+001 6.578845e+001 -8.689628e+001 4.585059e-002 3.704320e-001 1.739745e-001
<VARIANCE> 9
 2.200991e+000 8.644083e-001 2.096001e+000 3.933837e+002 3.123003e+003 4.831858e+003 1.000000e-002 1.000000e-002 1.000000e-002
<GCONST> 2.661293e+001
<TRANSP> 8
 0.000000e+000 1.000000e+000 0.000000e+000 0.000000e+000 0.000000e+000 0.000000e+000 0.000000e+000 0.000000e+000
 0.000000e+000 9.431818e-001 5.681818e-002 0.000000e+000 0.000000e+000 0.000000e+000 0.000000e+000 0.000000e+000
 0.000000e+000 0.000000e+000 9.358974e-001 6.410257e-002 0.000000e+000 0.000000e+000 0.000000e+000 0.000000e+000
 0.000000e+000 0.000000e+000 0.000000e+000 9.609375e-001 3.906250e-002 0.000000e+000 0.000000e+000 0.000000e+000
 0.000000e+000 0.000000e+000 0.000000e+000 0.000000e+000 9.549550e-001 4.504504e-002 0.000000e+000 0.000000e+000
 0.000000e+000 0.000000e+000 0.000000e+000 0.000000e+000 0.000000e+000 9.462366e-001 5.376345e-002 0.000000e+000
 0.000000e+000 0.000000e+000 0.000000e+000 0.000000e+000 0.000000e+000 0.000000e+000 9.504951e-001 4.950495e-002
 0.000000e+000 0.000000e+000 0.000000e+000 0.000000e+000 0.000000e+000 0.000000e+000 0.000000e+000 0.000000e+000
<ENDHMM>
